
/* Species #42 : (Size 10) (AF 7.19999) (Age 23)  */


/* Organism #0 Fitness: 9 Error: 1 */
genomestart 0
trait 1 0.1 0 0 0 0 0 0 0 
trait 2 0.2 0 0 0 0 0 0 0 
trait 3 0.3 0 0 0 0 0 0 0 
node 1 3 1 3
node 2 1 1 1
node 3 1 1 1
node 4 1 0 2
node 7 1 0 0
node 26 1 0 0
node 43 1 0 0
node 61 1 0 0
node 196 1 0 0
node 219 1 0 0
gene 2 1 4 0.421255 0 1 0.421255 1
gene 1 2 4 6.81008 0 2 6.81008 1
gene 3 3 4 5.88308 0 3 5.88308 1
gene 1 3 7 -2.04918 0 8 -2.04918 0
gene 1 7 4 -8 0 9 -8 1
gene 1 1 7 3.37107 0 34 3.37107 1
gene 1 2 7 -8 0 47 -8 1
gene 1 3 26 0.588916 0 72 0.588916 1
gene 3 26 7 0.630016 0 73 0.630016 1
gene 1 26 43 2.88671 0 126 2.88671 0
gene 1 43 7 -0.996658 0 127 -0.996658 1
gene 3 3 43 5.57379 0 176 5.57379 1
gene 1 26 61 6.57546 0 185 6.57546 0
gene 2 61 43 -2.17921 0 186 -2.17921 1
gene 1 1 43 -1.5537 0 267 -1.5537 1
gene 1 3 61 1.26132 0 326 1.26132 0
gene 3 43 4 1.49734 0 487 1.49734 1
gene 1 1 26 -0.435133 0 514 -0.435133 1
gene 1 2 43 -2.57418 0 632 -2.57418 0
gene 1 3 196 3.32971 0 638 3.32971 1
gene 1 196 7 -3.53761 0 639 -3.53761 1
gene 1 26 219 0.00509659 0 706 0.00509659 1
gene 1 219 61 8 0 707 8 1
gene 1 219 43 -0.0933561 0 735 -0.0933561 1
gene 2 43 196 -0.644154 0 750 -0.644154 1
genomeend 0

/* Organism #1 Fitness: 8.99988 Error: 1.00002 */
genomestart 1
trait 1 0.1 0 0 0 0 0 0 0 
trait 2 0.2053 0 0.0592164 0.115635 0 0.121167 0 0.126836 
trait 3 0.3 0 0 0 0 0 0 0 
node 1 3 1 3
node 2 1 1 1
node 3 1 1 1
node 4 1 0 2
node 7 1 0 0
node 26 1 0 0
node 43 1 0 0
node 61 1 0 0
node 196 1 0 0
node 219 1 0 0
gene 2 1 4 2.14128 0 1 2.14128 1
gene 1 2 4 8 0 2 8 1
gene 3 3 4 6.08718 0 3 6.08718 1
gene 1 3 7 -3.71458 0 8 -3.71458 1
gene 1 7 4 -7.95071 0 9 -7.95071 1
gene 1 1 7 3.59233 0 34 3.59233 1
gene 1 2 7 1.26972 0 47 1.26972 1
gene 1 3 26 0.327982 0 72 0.327982 1
gene 3 26 7 -0.664808 0 73 -0.664808 1
gene 1 26 43 1.90397 0 126 1.90397 0
gene 1 43 7 -0.403378 0 127 -0.403378 1
gene 3 3 43 4.85492 0 176 4.85492 1
gene 1 26 61 4.2806 0 185 4.2806 0
gene 2 61 43 -4.1897 0 186 -4.1897 0
gene 1 1 43 -3.99869 0 267 -3.99869 1
gene 1 3 61 0.293733 0 326 0.293733 0
gene 3 43 4 3.53919 0 487 3.53919 1
gene 1 1 26 -0.563158 0 514 -0.563158 1
gene 1 2 43 -3.95155 0 632 -3.95155 1
gene 1 3 196 0.716117 0 638 0.716117 1
gene 1 196 7 -2.28169 0 639 -2.28169 1
gene 1 26 219 1.66637 0 706 1.66637 1
gene 1 219 61 8 0 707 8 1
gene 1 219 43 0.973876 0 735 0.973876 1
gene 2 43 196 -2.73612 0 750 -2.73612 1
genomeend 1

/* Organism #2 Fitness: 9 Error: 1 */
genomestart 2
trait 1 0.1 0 0 0 0 0 0 0 
trait 2 0.2053 0 0.0592164 0.115635 0 0.121167 0 0.126836 
trait 3 0.3 0 0 0 0 0 0 0 
node 1 3 1 3
node 2 1 1 1
node 3 1 1 1
node 4 1 0 2
node 7 1 0 0
node 26 1 0 0
node 43 1 0 0
node 61 1 0 0
node 196 1 0 0
node 219 1 0 0
gene 2 1 4 0.357624 0 1 0.357624 1
gene 1 2 4 6.81008 0 2 6.81008 1
gene 3 3 4 5.88308 0 3 5.88308 1
gene 1 3 7 -2.04918 0 8 -2.04918 0
gene 1 7 4 -8 0 9 -8 1
gene 1 1 7 3.37107 0 34 3.37107 1
gene 1 2 7 -6.84234 0 47 -6.84234 1
gene 1 3 26 0.588916 0 72 0.588916 1
gene 3 26 7 -0.799165 0 73 -0.799165 1
gene 1 26 43 2.88671 0 126 2.88671 0
gene 1 43 7 -0.996658 0 127 -0.996658 1
gene 3 3 43 5.57379 0 176 5.57379 1
gene 1 26 61 6.57546 0 185 6.57546 0
gene 2 61 43 -2.17921 0 186 -2.17921 0
gene 1 1 43 -1.5537 0 267 -1.5537 1
gene 1 3 61 1.26132 0 326 1.26132 0
gene 3 43 4 1.49734 0 487 1.49734 1
gene 1 1 26 -0.435133 0 514 -0.435133 1
gene 1 2 43 -2.57418 0 632 -2.57418 1
gene 1 3 196 3.32971 0 638 3.32971 1
gene 1 196 7 -3.53761 0 639 -3.53761 1
gene 1 26 219 0.00509659 0 706 0.00509659 1
gene 1 219 61 8 0 707 8 1
gene 1 219 43 -0.0933561 0 735 -0.0933561 1
gene 2 43 196 -0.644154 0 750 -0.644154 1
genomeend 2

/* Organism #3 Fitness: 1.00004 Error: 2.99998 */
genomestart 3
trait 1 0.1 0 0 0 0 0 0 0 
trait 2 0.2 0 0 0 0 0 0 0 
trait 3 0.3 0 0 0 0 0 0 0 
node 1 3 1 3
node 2 1 1 1
node 3 1 1 1
node 4 1 0 2
node 7 1 0 0
node 26 1 0 0
node 43 1 0 0
node 61 1 0 0
node 196 1 0 0
node 219 1 0 0
gene 2 1 4 -0.119404 0 1 -0.119404 1
gene 1 2 4 5.2087 0 2 5.2087 1
gene 3 3 4 6.13158 0 3 6.13158 1
gene 1 3 7 -2.04918 0 8 -2.04918 0
gene 1 7 4 -8 0 9 -8 1
gene 1 1 7 5.29695 0 34 5.29695 1
gene 1 2 7 -1.72201 0 47 -1.72201 1
gene 1 3 26 0.588916 0 72 0.588916 1
gene 3 26 7 -0.240677 0 73 -0.240677 1
gene 1 26 43 5.20497 0 126 5.20497 1
gene 1 43 7 0.621662 0 127 0.621662 1
gene 3 3 43 5.57379 0 176 5.57379 1
gene 1 26 61 6.31484 0 185 6.31484 0
gene 2 61 43 0.105823 0 186 0.105823 1
gene 1 1 43 -0.322428 0 267 -0.322428 1
gene 1 3 61 1.64898 0 326 1.64898 1
gene 3 43 4 -0.221641 0 487 -0.221641 1
gene 1 1 26 -2.53603 0 514 -2.53603 1
gene 1 2 43 -1.74049 0 632 -1.74049 0
gene 1 3 196 -1.6435 0 638 -1.6435 1
gene 1 196 7 -4.08442 0 639 -4.08442 1
gene 1 26 219 0.00509659 0 706 0.00509659 1
gene 1 219 61 2.39837 0 707 2.39837 1
gene 1 219 43 -2.45366 0 735 -2.45366 1
gene 2 43 196 0.573229 0 750 0.573229 1
genomeend 3

/* Organism #4 Fitness: 9 Error: 1 */
genomestart 4
trait 1 0.1 0 0 0 0 0 0 0 
trait 2 0.2 0 0 0 0 0 0 0 
trait 3 0.3 0 0 0 0 0 0 0 
node 1 3 1 3
node 2 1 1 1
node 3 1 1 1
node 4 1 0 2
node 7 1 0 0
node 26 1 0 0
node 43 1 0 0
node 61 1 0 0
node 196 1 0 0
node 219 1 0 0
gene 2 1 4 2.60279 0 1 2.60279 1
gene 1 2 4 5.39746 0 2 5.39746 1
gene 3 3 4 7.50659 0 3 7.50659 1
gene 1 3 7 0.143727 0 8 0.143727 0
gene 1 7 4 -8 0 9 -8 1
gene 1 1 7 2.21755 0 34 2.21755 1
gene 1 2 7 -8 0 47 -8 1
gene 1 3 26 0.588916 0 72 0.588916 1
gene 3 26 7 2.22255 0 73 2.22255 1
gene 1 26 43 3.83797 0 126 3.83797 0
gene 1 43 7 -0.996658 0 127 -0.996658 1
gene 3 3 43 5.90926 0 176 5.90926 1
gene 1 26 61 4.87024 0 185 4.87024 0
gene 2 61 43 -4.59368 0 186 -4.59368 1
gene 1 1 43 -3.73463 0 267 -3.73463 1
gene 1 3 61 -1.06648 0 326 -1.06648 0
gene 3 43 4 -0.341731 0 487 -0.341731 1
gene 1 1 26 2.03786 0 514 2.03786 1
gene 1 2 43 0.76693 0 632 0.76693 0
gene 1 3 196 1.17922 0 638 1.17922 1
gene 1 196 7 -5.22139 0 639 -5.22139 1
gene 1 26 219 -0.0108493 0 706 -0.0108493 1
gene 1 219 61 8 0 707 8 1
gene 1 219 43 -1.13869 0 735 -1.13869 1
gene 2 43 196 -1.89679 0 750 -1.89679 1
genomeend 4

/* Organism #5 Fitness: 4 Error: 2 */
genomestart 5
trait 1 0.1 0 0 0 0 0 0 0 
trait 2 0.2106 0 0.118433 0.231269 0 0.242333 0 0.253672 
trait 3 0.3 0 0 0 0 0 0 0 
node 1 3 1 3
node 2 1 1 1
node 3 1 1 1
node 4 1 0 2
node 7 1 0 0
node 26 1 0 0
node 43 1 0 0
node 61 1 0 0
node 196 1 0 0
node 219 1 0 0
node 271 1 0 0
gene 2 1 4 -1.96773 0 1 -1.96773 1
gene 1 2 4 6.81008 0 2 6.81008 1
gene 3 3 4 4.96844 0 3 4.96844 1
gene 1 3 7 0.310968 0 8 0.310968 0
gene 1 7 4 -8 0 9 -8 1
gene 1 1 7 3.76797 0 34 3.76797 1
gene 1 2 7 -0.744346 0 47 -0.744346 1
gene 1 3 26 2.6654 0 72 2.6654 1
gene 3 26 7 0.638943 0 73 0.638943 1
gene 1 26 43 2.89335 0 126 2.89335 0
gene 1 43 7 -1.34808 0 127 -1.34808 1
gene 3 3 43 4.51868 0 176 4.51868 1
gene 1 26 61 7.77579 0 185 7.77579 1
gene 2 61 43 0.281838 0 186 0.281838 0
gene 1 1 43 -3.09519 0 267 -3.09519 1
gene 1 3 61 0.598231 0 326 0.598231 0
gene 3 43 4 3.52072 0 487 3.52072 1
gene 1 1 26 0.495529 0 514 0.495529 1
gene 1 2 43 -5.04839 0 632 -5.04839 1
gene 1 3 196 3.88041 0 638 3.88041 1
gene 1 196 7 -4.539 0 639 -4.539 1
gene 1 26 219 -0.42674 0 706 -0.42674 1
gene 1 219 61 2.3777 0 707 2.3777 1
gene 1 219 43 0.506378 0 735 0.506378 1
gene 2 43 196 -1.60901 0 750 -1.60901 1
gene 2 61 271 -0.311609 0 885 -0.311609 1
gene 2 271 43 -0.2744 0 886 -0.2744 1
genomeend 5

/* Organism #6 Fitness: 4 Error: 2 */
genomestart 6
trait 1 0.1 0 0 0 0 0 0 0 
trait 2 0.2053 0 0.0592164 0.115635 0 0.121167 0 0.126836 
trait 3 0.3 0 0 0 0 0 0 0 
node 1 3 1 3
node 2 1 1 1
node 3 1 1 1
node 4 1 0 2
node 7 1 0 0
node 26 1 0 0
node 43 1 0 0
node 61 1 0 0
node 196 1 0 0
node 219 1 0 0
gene 2 1 4 0.357624 0 1 0.357624 1
gene 1 2 4 6.47407 0 2 6.47407 1
gene 3 3 4 4.80464 0 3 4.80464 1
gene 1 3 7 -1.58484 0 8 -1.58484 0
gene 1 7 4 2.23212 0 9 2.23212 1
gene 1 1 7 5.35653 0 34 5.35653 1
gene 1 2 7 -8 0 47 -8 1
gene 1 3 26 2.96409 0 72 2.96409 1
gene 3 26 7 -0.555589 0 73 -0.555589 1
gene 1 26 43 3.49586 0 126 3.49586 0
gene 1 43 7 -0.471969 0 127 -0.471969 1
gene 3 3 43 3.49197 0 176 3.49197 1
gene 1 26 61 -1.0725 0 185 -1.0725 0
gene 2 61 43 -1.10969 0 186 -1.10969 0
gene 1 1 43 -1.5537 0 267 -1.5537 1
gene 1 3 61 0.977355 0 326 0.977355 0
gene 3 43 4 3.87497 0 487 3.87497 1
gene 1 1 26 -0.343043 0 514 -0.343043 1
gene 1 2 43 -3.62371 0 632 -3.62371 1
gene 1 3 196 6.26894 0 638 6.26894 1
gene 1 196 7 -3.17817 0 639 -3.17817 1
gene 1 26 219 0.65659 0 706 0.65659 1
gene 1 219 61 7.29861 0 707 7.29861 1
gene 1 219 43 1.76942 0 735 1.76942 1
gene 2 43 196 -0.644154 0 750 -0.644154 1
genomeend 6

/* Organism #7 Fitness: 9 Error: 1 */
genomestart 7
trait 1 0.1 0 0 0 0 0 0 0 
trait 2 0.2053 0 0.0592164 0.115635 0 0.121167 0 0.126836 
trait 3 0.3 0 0 0 0 0 0 0 
node 1 3 1 3
node 2 1 1 1
node 3 1 1 1
node 4 1 0 2
node 7 1 0 0
node 26 1 0 0
node 43 1 0 0
node 61 1 0 0
node 196 1 0 0
node 219 1 0 0
gene 2 1 4 0.389439 0 1 0.389439 1
gene 1 2 4 6.81008 0 2 6.81008 1
gene 3 3 4 5.88308 0 3 5.88308 1
gene 1 3 7 -2.04918 0 8 -2.04918 0
gene 1 7 4 -8 0 9 -8 1
gene 1 1 7 3.37107 0 34 3.37107 1
gene 1 2 7 -7.42117 0 47 -7.42117 1
gene 1 3 26 0.588916 0 72 0.588916 1
gene 3 26 7 -0.0845744 0 73 -0.0845744 1
gene 1 26 43 2.88671 0 126 2.88671 1
gene 1 43 7 -0.996658 0 127 -0.996658 1
gene 3 3 43 5.57379 0 176 5.57379 1
gene 1 26 61 6.36204 0 185 6.36204 1
gene 2 61 43 -2.17921 0 186 -2.17921 0
gene 1 1 43 -1.5537 0 267 -1.5537 1
gene 1 3 61 1.26132 0 326 1.26132 0
gene 3 43 4 1.49734 0 487 1.49734 1
gene 1 1 26 -0.435133 0 514 -0.435133 1
gene 1 2 43 -2.57418 0 632 -2.57418 1
gene 1 3 196 3.60506 0 638 3.60506 1
gene 1 196 7 -3.53761 0 639 -3.53761 1
gene 1 26 219 0.00509659 0 706 0.00509659 1
gene 1 219 61 8 0 707 8 1
gene 1 219 43 -0.0933561 0 735 -0.0933561 1
gene 2 43 196 -0.644154 0 750 -0.644154 1
genomeend 7

/* Organism #8 Fitness: 9 Error: 1 */
genomestart 8
trait 1 0.1 0 0 0 0 0 0 0 
trait 2 0.2053 0 0.0592164 0.115635 0 0.121167 0 0.126836 
trait 3 0.3 0 0 0 0 0 0 0 
node 1 3 1 3
node 2 1 1 1
node 3 1 1 1
node 4 1 0 2
node 7 1 0 0
node 26 1 0 0
node 43 1 0 0
node 61 1 0 0
node 196 1 0 0
node 219 1 0 0
gene 2 1 4 0.357624 0 1 0.357624 1
gene 1 2 4 6.81008 0 2 6.81008 1
gene 3 3 4 5.88308 0 3 5.88308 1
gene 1 3 7 -2.04918 0 8 -2.04918 0
gene 1 7 4 -8 0 9 -8 1
gene 1 1 7 3.37107 0 34 3.37107 1
gene 1 2 7 -6.84234 0 47 -6.84234 1
gene 1 3 26 0.588916 0 72 0.588916 1
gene 3 26 7 -0.799165 0 73 -0.799165 1
gene 1 26 43 2.88671 0 126 2.88671 0
gene 1 43 7 -0.996658 0 127 -0.996658 1
gene 3 3 43 5.57379 0 176 5.57379 1
gene 1 26 61 6.57546 0 185 6.57546 0
gene 2 61 43 -2.17921 0 186 -2.17921 1
gene 1 1 43 -1.5537 0 267 -1.5537 1
gene 1 3 61 1.26132 0 326 1.26132 0
gene 3 43 4 1.49734 0 487 1.49734 1
gene 1 1 26 -0.435133 0 514 -0.435133 1
gene 1 2 43 -2.57418 0 632 -2.57418 1
gene 1 3 196 3.88041 0 638 3.88041 1
gene 1 196 7 -3.53761 0 639 -3.53761 1
gene 1 26 219 0.00509659 0 706 0.00509659 1
gene 1 219 61 8 0 707 8 1
gene 1 219 43 -0.0933561 0 735 -0.0933561 1
gene 2 43 196 -0.644154 0 750 -0.644154 1
genomeend 8

/* Organism #9 Fitness: 9 Error: 1 */
genomestart 9
trait 1 0.1 0 0 0 0 0 0 0 
trait 2 0.2053 0 0.0592164 0.115635 0 0.121167 0 0.126836 
trait 3 0.3 0 0 0 0 0 0 0 
node 1 3 1 3
node 2 1 1 1
node 3 1 1 1
node 4 1 0 2
node 7 1 0 0
node 26 1 0 0
node 43 1 0 0
node 61 1 0 0
node 196 1 0 0
node 219 1 0 0
gene 2 1 4 0.389439 0 1 0.389439 1
gene 1 2 4 6.81008 0 2 6.81008 1
gene 3 3 4 5.88308 0 3 5.88308 1
gene 1 3 7 -2.04918 0 8 -2.04918 0
gene 1 7 4 -8 0 9 -8 1
gene 1 1 7 3.37107 0 34 3.37107 1
gene 1 2 7 -7.42117 0 47 -7.42117 1
gene 1 3 26 0.588916 0 72 0.588916 1
gene 3 26 7 -0.0845744 0 73 -0.0845744 1
gene 1 26 43 2.88671 0 126 2.88671 0
gene 1 43 7 -0.996658 0 127 -0.996658 1
gene 3 3 43 5.57379 0 176 5.57379 1
gene 1 26 61 6.36204 0 185 6.36204 1
gene 2 61 43 -2.17921 0 186 -2.17921 0
gene 1 1 43 -1.5537 0 267 -1.5537 1
gene 1 3 61 1.26132 0 326 1.26132 0
gene 3 43 4 1.49734 0 487 1.49734 1
gene 1 1 26 -0.435133 0 514 -0.435133 1
gene 1 2 43 -2.57418 0 632 -2.57418 1
gene 1 3 196 3.60506 0 638 3.60506 1
gene 1 196 7 -3.53761 0 639 -3.53761 1
gene 1 26 219 0.00509659 0 706 0.00509659 1
gene 1 219 61 8 0 707 8 1
gene 1 219 43 -0.0933561 0 735 -0.0933561 1
gene 2 43 196 -0.644154 0 750 -0.644154 1
genomeend 9

/* Species #46 : (Size 10) (AF 7.39424) (Age 22)  */


/* Organism #10 Fitness: 9 Error: 1 */
genomestart 10
trait 1 0.1 0 0 0 0 0 0 0 
trait 2 0.2 0 0 0 0 0 0 0 
trait 3 0.3 0 0 0 0 0 0 0 
node 1 3 1 3
node 2 1 1 1
node 3 1 1 1
node 4 1 0 2
node 7 1 0 0
node 26 1 0 0
node 43 1 0 0
node 61 1 0 0
node 198 1 0 0
gene 2 1 4 0.269768 0 1 0.269768 1
gene 1 2 4 7.00704 0 2 7.00704 1
gene 3 3 4 7.78559 0 3 7.78559 1
gene 1 3 7 -3.71374 0 8 -3.71374 0
gene 1 7 4 -7.94547 0 9 -7.94547 1
gene 1 1 7 2.42199 0 34 2.42199 1
gene 1 2 7 -8 0 47 -8 1
gene 1 3 26 -0.630947 0 72 -0.630947 1
gene 3 26 7 0.644246 0 73 0.644246 1
gene 1 26 43 2.38201 0 126 2.38201 1
gene 1 43 7 -1.95997 0 127 -1.95997 1
gene 3 3 43 4.34683 0 176 4.34683 1
gene 1 26 61 2.9141 0 185 2.9141 1
gene 2 61 43 -2.25982 0 186 -2.25982 1
gene 1 1 43 -0.243194 0 267 -0.243194 1
gene 1 3 61 -2.46775 0 326 -2.46775 1
gene 3 43 4 2.79907 0 487 2.79907 1
gene 1 1 26 -2.64028 0 514 -2.64028 1
gene 1 3 198 3.04379 0 645 3.04379 1
gene 1 198 7 -2.23851 0 646 -2.23851 1
gene 1 198 26 -0.897305 0 686 -0.897305 1
genomeend 10

/* Organism #11 Fitness: 7.73353 Error: 1.21908 */
genomestart 11
trait 1 0.1 0 0 0 0 0 0 0 
trait 2 0.2 0 0 0 0 0 0 0 
trait 3 0.3 0 0 0 0 0 0 0 
node 1 3 1 3
node 2 1 1 1
node 3 1 1 1
node 4 1 0 2
node 7 1 0 0
node 26 1 0 0
node 43 1 0 0
node 61 1 0 0
node 198 1 0 0
gene 2 1 4 0.138234 0 1 0.138234 1
gene 1 2 4 6.77545 0 2 6.77545 1
gene 3 3 4 6.63248 0 3 6.63248 1
gene 1 3 7 -6.17331 0 8 -6.17331 0
gene 1 7 4 -7.48818 0 9 -7.48818 1
gene 1 1 7 1.07709 0 34 1.07709 1
gene 1 2 7 -8 0 47 -8 1
gene 1 3 26 -0.833438 0 72 -0.833438 1
gene 3 26 7 -1.71026 0 73 -1.71026 1
gene 1 26 43 2.28114 0 126 2.28114 1
gene 1 43 7 -2.60842 0 127 -2.60842 1
gene 3 3 43 3.38496 0 176 3.38496 1
gene 1 26 61 4.75376 0 185 4.75376 1
gene 2 61 43 -0.95378 0 186 -0.95378 1
gene 1 1 43 0.175367 0 267 0.175367 1
gene 1 3 61 -2.24998 0 326 -2.24998 1
gene 3 43 4 0.459477 0 487 0.459477 1
gene 1 1 26 -5.0195 0 514 -5.0195 1
gene 1 3 198 1.3052 0 645 1.3052 1
gene 1 198 7 -2.27841 0 646 -2.27841 1
gene 1 198 26 0.115741 0 686 0.115741 1
genomeend 11

/* Organism #12 Fitness: 8.97457 Error: 1.00424 */
genomestart 12
trait 1 0.1 0 0 0 0 0 0 0 
trait 2 0.2 0 0 0 0 0 0 0 
trait 3 0.3 0 0 0 0 0 0 0 
node 1 3 1 3
node 2 1 1 1
node 3 2 1 1
node 4 1 0 2
node 7 1 0 0
node 26 1 0 0
node 43 1 0 0
node 61 1 0 0
node 198 1 0 0
gene 2 1 4 0.0908536 0 1 0.0908536 1
gene 1 2 4 7.62706 0 2 7.62706 1
gene 3 3 4 8 0 3 8 1
gene 1 3 7 -5.50817 0 8 -5.50817 0
gene 1 7 4 -8 0 9 -8 1
gene 1 1 7 3.71857 0 34 3.71857 1
gene 1 2 7 -5.55654 0 47 -5.55654 1
gene 1 3 26 -5.3884 0 72 -5.3884 1
gene 3 26 7 0.808435 0 73 0.808435 1
gene 1 26 43 3.01366 0 126 3.01366 1
gene 1 43 7 0.0946837 0 127 0.0946837 1
gene 3 3 43 3.67901 0 176 3.67901 1
gene 1 26 61 1.4473 0 185 1.4473 1
gene 2 61 43 -1.03298 0 186 -1.03298 1
gene 1 1 43 -1.21498 0 267 -1.21498 1
gene 1 3 61 -2.9772 0 326 -2.9772 1
gene 3 43 4 1.01769 0 487 1.01769 1
gene 1 1 26 -2.64371 0 514 -2.64371 1
gene 1 3 198 2.71678 0 645 2.71678 1
gene 1 198 7 -0.163862 0 646 -0.163862 1
gene 1 198 26 -0.897305 0 686 -0.897305 1
genomeend 12

/* Organism #13 Fitness: 9 Error: 1 */
genomestart 13
trait 1 0.1 0 0 0 0 0 0 0 
trait 2 0.2 0 0 0 0 0 0 0 
trait 3 0.3 0 0 0 0 0 0 0 
node 1 3 1 3
node 2 1 1 1
node 3 1 1 1
node 4 1 0 2
node 7 1 0 0
node 26 1 0 0
node 43 1 0 0
node 61 1 0 0
node 198 1 0 0
gene 2 1 4 0.269768 0 1 0.269768 1
gene 1 2 4 7.25528 0 2 7.25528 1
gene 3 3 4 7.73199 0 3 7.73199 1
gene 1 3 7 -3.69131 0 8 -3.69131 0
gene 1 7 4 -7.93184 0 9 -7.93184 1
gene 1 1 7 2.37146 0 34 2.37146 1
gene 1 2 7 -8 0 47 -8 1
gene 1 3 26 -0.624462 0 72 -0.624462 1
gene 3 26 7 0.644246 0 73 0.644246 1
gene 1 26 43 2.38201 0 126 2.38201 1
gene 1 43 7 -1.95997 0 127 -1.95997 1
gene 3 3 43 4.34683 0 176 4.34683 1
gene 1 26 61 2.9141 0 185 2.9141 1
gene 2 61 43 -2.19939 0 186 -2.19939 1
gene 1 1 43 -0.243194 0 267 -0.243194 1
gene 1 3 61 -2.2235 0 326 -2.2235 1
gene 3 43 4 2.83931 0 487 2.83931 1
gene 1 1 26 -2.64028 0 514 -2.64028 1
gene 1 3 198 3.1532 0 645 3.1532 1
gene 1 198 7 -2.23851 0 646 -2.23851 1
gene 1 198 26 -0.897305 0 686 -0.897305 1
genomeend 13

/* Organism #14 Fitness: 9 Error: 1 */
genomestart 14
trait 1 0.1 0 0 0 0 0 0 0 
trait 2 0.2 0 0 0 0 0 0 0 
trait 3 0.3 0 0 0 0 0 0 0 
node 1 3 1 3
node 2 1 1 1
node 3 1 1 1
node 4 1 0 2
node 7 1 0 0
node 26 1 0 0
node 43 1 0 0
node 61 1 0 0
node 198 1 0 0
gene 2 1 4 -1.18389 0 1 -1.18389 1
gene 1 2 4 8 0 2 8 1
gene 3 3 4 8 0 3 8 1
gene 1 3 7 -0.840938 0 8 -0.840938 0
gene 1 7 4 -7.25977 0 9 -7.25977 1
gene 1 1 7 1.43864 0 34 1.43864 1
gene 1 2 7 -1.11652 0 47 -1.11652 1
gene 1 3 26 -2.825 0 72 -2.825 1
gene 3 26 7 -2.51938 0 73 -2.51938 1
gene 1 26 43 4.60154 0 126 4.60154 1
gene 1 43 7 -5.17022 0 127 -5.17022 1
gene 3 3 43 2.40799 0 176 2.40799 1
gene 1 26 61 -1.63587 0 185 -1.63587 1
gene 2 61 43 1.32076 0 186 1.32076 1
gene 1 1 43 -1.02737 0 267 -1.02737 1
gene 1 3 61 0.557394 0 326 0.557394 1
gene 3 43 4 3.36641 0 487 3.36641 1
gene 1 1 26 -0.0698874 0 514 -0.0698874 1
gene 1 3 198 -0.0230415 0 645 -0.0230415 1
gene 1 198 7 -0.777993 0 646 -0.777993 1
gene 1 198 26 -1.69765 0 686 -1.69765 1
genomeend 14

/* Organism #15 Fitness: 4.001 Error: 1.99975 */
genomestart 15
trait 1 0.1 0 0 0 0 0 0 0 
trait 2 0.2 0 0 0 0 0 0 0 
trait 3 0.3 0 0 0 0 0 0 0 
node 1 3 1 3
node 2 1 1 1
node 3 1 1 1
node 4 1 0 2
node 7 1 0 0
node 26 1 0 0
node 43 1 0 0
node 61 1 0 0
node 198 1 0 0
gene 2 1 4 -2.99838 0 1 -2.99838 1
gene 1 2 4 7.30372 0 2 7.30372 1
gene 3 3 4 8 0 3 8 1
gene 1 3 7 -4.75383 0 8 -4.75383 0
gene 1 7 4 -7.06095 0 9 -7.06095 1
gene 1 1 7 -0.403951 0 34 -0.403951 1
gene 2 2 7 -5.84799 0 47 -5.84799 1
gene 1 3 26 -2.55621 0 72 -2.55621 0
gene 3 26 7 1.29528 0 73 1.29528 1
gene 1 26 43 5.22504 0 126 5.22504 1
gene 1 43 7 -1.8733 0 127 -1.8733 1
gene 3 3 43 2.2058 0 176 2.2058 1
gene 1 26 61 2.09376 0 185 2.09376 1
gene 2 61 43 -1.65632 0 186 -1.65632 1
gene 1 1 43 1.78735 0 267 1.78735 1
gene 1 3 61 0.405564 0 326 0.405564 1
gene 3 43 4 4.7247 0 487 4.7247 1
gene 1 1 26 -1.30062 0 514 -1.30062 1
gene 1 3 198 3.26262 0 645 3.26262 1
gene 1 198 7 -0.601955 0 646 -0.601955 1
gene 1 198 26 -1.15711 0 686 -1.15711 1
genomeend 15

/* Organism #16 Fitness: 4.00001 Error: 2 */
genomestart 16
trait 1 0.1 0 0 0 0 0 0 0 
trait 2 0.2 0 0 0 0 0 0 0 
trait 3 0.3 0 0 0 0 0 0 0 
node 1 3 1 3
node 2 1 1 1
node 3 1 1 1
node 4 1 0 2
node 7 1 0 0
node 26 1 0 0
node 43 1 0 0
node 61 1 0 0
node 198 1 0 0
gene 2 1 4 1.50745 0 1 1.50745 1
gene 1 2 4 8 0 2 8 1
gene 3 3 4 7.68169 0 3 7.68169 1
gene 1 3 7 -3.33866 0 8 -3.33866 0
gene 1 7 4 -6.90378 0 9 -6.90378 1
gene 1 1 7 0.298128 0 34 0.298128 1
gene 1 2 7 -6.65551 0 47 -6.65551 1
gene 1 3 26 -4.45194 0 72 -4.45194 1
gene 3 26 7 -0.0605029 0 73 -0.0605029 1
gene 1 26 43 2.04432 0 126 2.04432 1
gene 1 43 7 -6.44475 0 127 -6.44475 1
gene 3 3 43 2.50732 0 176 2.50732 1
gene 1 26 61 3.35273 0 185 3.35273 1
gene 2 61 43 -1.48122 0 186 -1.48122 1
gene 1 1 43 1.37993 0 267 1.37993 1
gene 1 3 61 -0.0493141 0 326 -0.0493141 1
gene 3 43 4 1.07981 0 487 1.07981 1
gene 1 1 26 0.322962 0 514 0.322962 1
gene 1 3 198 1.26379 0 645 1.26379 1
gene 1 198 7 -1.94942 0 646 -1.94942 1
gene 1 198 26 0.738182 0 686 0.738182 1
genomeend 16

/* Organism #17 Fitness: 9 Error: 1 */
genomestart 17
trait 1 0.1 0 0 0 0 0 0 0 
trait 2 0.2 0 0 0 0 0 0 0 
trait 3 0.3 0 0 0 0 0 0 0 
node 1 3 1 3
node 2 1 1 1
node 3 1 1 1
node 4 1 0 2
node 7 1 0 0
node 26 1 0 0
node 43 1 0 0
node 61 1 0 0
node 198 1 0 0
gene 2 1 4 0.93263 0 1 0.93263 1
gene 1 2 4 8 0 2 8 1
gene 3 3 4 7.77887 0 3 7.77887 1
gene 1 3 7 -2.72623 0 8 -2.72623 0
gene 1 7 4 -6.85372 0 9 -6.85372 1
gene 1 1 7 2.04386 0 34 2.04386 1
gene 1 2 7 -7.54711 0 47 -7.54711 1
gene 1 3 26 -4.96274 0 72 -4.96274 0
gene 3 26 7 2.28439 0 73 2.28439 1
gene 1 26 43 4.49793 0 126 4.49793 1
gene 1 43 7 -2.38372 0 127 -2.38372 1
gene 3 3 43 4.3997 0 176 4.3997 1
gene 1 26 61 2.87946 0 185 2.87946 1
gene 2 61 43 -2.79809 0 186 -2.79809 1
gene 1 1 43 -1.23642 0 267 -1.23642 1
gene 1 3 61 -1.90455 0 326 -1.90455 1
gene 3 43 4 3.20289 0 487 3.20289 1
gene 1 1 26 -2.76754 0 514 -2.76754 1
gene 1 3 198 2.71678 0 645 2.71678 1
gene 1 198 7 2.00539 0 646 2.00539 1
gene 1 198 26 -0.897305 0 686 -0.897305 1
genomeend 17

/* Organism #18 Fitness: 4.23333 Error: 1.9425 */
genomestart 18
trait 1 0.1 0 0 0 0 0 0 0 
trait 2 0.2 0 0 0 0 0 0 0 
trait 3 0.3 0 0 0 0 0 0 0 
node 1 3 1 3
node 2 1 1 1
node 3 1 1 1
node 4 1 0 2
node 7 1 0 0
node 26 1 0 0
node 43 1 0 0
node 61 1 0 0
node 198 1 0 0
gene 2 1 4 -3.02318 0 1 -3.02318 1
gene 1 2 4 8 0 2 8 1
gene 3 3 4 5.96304 0 3 5.96304 1
gene 1 3 7 -2.90507 0 8 -2.90507 0
gene 1 7 4 -8 0 9 -8 1
gene 1 1 7 1.47736 0 34 1.47736 1
gene 1 2 7 -8 0 47 -8 1
gene 1 3 26 -2.62571 0 72 -2.62571 1
gene 3 26 7 1.11568 0 73 1.11568 1
gene 1 26 43 2.18829 0 126 2.18829 1
gene 1 43 7 -2.70913 0 127 -2.70913 1
gene 3 3 43 0.122303 0 176 0.122303 1
gene 1 26 61 2.00213 0 185 2.00213 1
gene 2 61 43 1.68249 0 186 1.68249 1
gene 1 1 43 1.46996 0 267 1.46996 1
gene 1 3 61 -0.968608 0 326 -0.968608 1
gene 3 43 4 2.9786 0 487 2.9786 1
gene 1 1 26 -0.0603504 0 514 -0.0603504 1
gene 1 3 198 4.96264 0 645 4.96264 1
gene 1 198 7 1.52328 0 646 1.52328 1
gene 1 198 26 -0.897305 0 686 -0.897305 1
genomeend 18

/* Organism #19 Fitness: 9 Error: 1 */
genomestart 19
trait 1 0.1 0 0 0 0 0 0 0 
trait 2 0.2 0 0 0 0 0 0 0 
trait 3 0.3 0 0 0 0 0 0 0 
node 1 3 1 3
node 2 1 1 1
node 3 1 1 1
node 4 1 0 2
node 7 1 0 0
node 26 1 0 0
node 43 1 0 0
node 61 1 0 0
node 198 1 0 0
gene 2 1 4 0.842601 0 1 0.842601 1
gene 1 2 4 5.66545 0 2 5.66545 1
gene 3 3 4 7.64788 0 3 7.64788 1
gene 1 3 7 -1.92734 0 8 -1.92734 0
gene 1 7 4 -6.40894 0 9 -6.40894 1
gene 1 1 7 2.42397 0 34 2.42397 1
gene 1 2 7 -5.90933 0 47 -5.90933 1
gene 1 3 26 0.933584 0 72 0.933584 0
gene 3 26 7 -0.975219 0 73 -0.975219 1
gene 1 26 43 3.00886 0 126 3.00886 1
gene 1 43 7 -2.88636 0 127 -2.88636 1
gene 3 3 43 2.03528 0 176 2.03528 1
gene 1 26 61 2.31617 0 185 2.31617 1
gene 2 61 43 -1.7233 0 186 -1.7233 1
gene 1 1 43 -0.12814 0 267 -0.12814 1
gene 1 3 61 -1.55069 0 326 -1.55069 1
gene 3 43 4 0.602638 0 487 0.602638 1
gene 1 1 26 -2.64028 0 514 -2.64028 1
gene 1 3 198 4.0277 0 645 4.0277 1
gene 1 198 7 -2.23851 0 646 -2.23851 1
gene 1 198 26 1.89207 0 686 1.89207 1
genomeend 19

/* Species #49 : (Size 11) (AF 6.99105) (Age 19)  */


/* Organism #20 Fitness: 10.1258 Error: 0.817892 */
genomestart 20
trait 1 0.1 0 0 0 0 0 0.203436 0.113536 
trait 2 0.2 0 0 0 0 0 0 0 
trait 3 0.3875 0 0 0.0391743 0.0722449 0 0.052488 0 
node 1 3 1 3
node 2 1 1 1
node 3 1 1 1
node 4 1 0 2
node 7 1 0 0
node 26 1 0 0
node 43 1 0 0
node 61 1 0 0
node 203 1 0 0
node 211 1 0 0
node 246 1 0 0
gene 2 1 4 1.722 0 1 1.722 1
gene 1 2 4 7.99041 0 2 7.99041 0
gene 3 3 4 -1.02184 0 3 -1.02184 1
gene 1 3 7 -7.34262 0 8 -7.34262 1
gene 1 7 4 -8 0 9 -8 1
gene 1 1 7 3.60721 0 34 3.60721 1
gene 2 2 7 -7.25765 0 47 -7.25765 1
gene 1 3 26 -2.21561 0 72 -2.21561 1
gene 3 26 7 0.412076 0 73 0.412076 1
gene 1 26 43 0.988914 0 126 0.988914 1
gene 1 43 7 0.98168 0 127 0.98168 1
gene 3 3 43 1.38447 0 176 1.38447 1
gene 1 26 61 5.91762 0 185 5.91762 0
gene 2 61 43 -3.84247 0 186 -3.84247 1
gene 1 1 43 -2.20682 0 267 -2.20682 1
gene 1 3 61 -0.260704 0 326 -0.260704 1
gene 3 43 4 0.809503 0 487 0.809503 1
gene 1 1 26 -6.10135 0 514 -6.10135 1
gene 1 26 203 -1.08205 0 658 -1.08205 1
gene 1 203 61 2.41142 0 659 2.41142 1
gene 3 26 4 1.1688 0 679 1.1688 0
gene 1 2 211 0.24514 0 687 0.24514 1
gene 1 211 4 -0.75045 0 688 -0.75045 1
gene 2 7 211 0.568316 0 728 0.568316 1
gene 1 3 246 0.163717 0 811 0.163717 1
gene 1 246 26 0.655709 0 812 0.655709 1
genomeend 20

/* Organism #21 Fitness: 8.99997 Error: 1 */
genomestart 21
trait 1 0.1 0 0 0 0 0 0.203436 0.113536 
trait 2 0.2 0 0 0 0 0 0 0 
trait 3 0.34375 0 0 0.0195872 0.0361225 0 0.026244 0 
node 1 3 1 3
node 2 1 1 1
node 3 1 1 1
node 4 1 0 2
node 7 1 0 0
node 26 1 0 0
node 43 1 0 0
node 61 1 0 0
node 203 1 0 0
node 211 1 0 0
node 246 1 0 0
gene 2 1 4 2.99971 0 1 2.99971 1
gene 1 2 4 6.35211 0 2 6.35211 0
gene 3 3 4 1.17096 0 3 1.17096 1
gene 1 3 7 -8 0 8 -8 1
gene 1 7 4 -5.59621 0 9 -5.59621 1
gene 1 1 7 2.70999 0 34 2.70999 1
gene 2 2 7 -7.1179 0 47 -7.1179 1
gene 1 3 26 0.887198 0 72 0.887198 0
gene 3 26 7 -6.0537 0 73 -6.0537 1
gene 1 26 43 4.23412 0 126 4.23412 1
gene 1 43 7 2.27614 0 127 2.27614 1
gene 3 3 43 0.492073 0 176 0.492073 1
gene 1 26 61 5.93586 0 185 5.93586 0
gene 2 61 43 -1.35039 0 186 -1.35039 1
gene 1 1 43 -3.3482 0 267 -3.3482 1
gene 1 3 61 0.106601 0 326 0.106601 1
gene 3 43 4 0.205214 0 487 0.205214 1
gene 1 1 26 -3.49164 0 514 -3.49164 1
gene 1 26 203 -3.13707 0 658 -3.13707 1
gene 1 203 61 3.02356 0 659 3.02356 1
gene 3 26 4 0.401203 0 679 0.401203 0
gene 1 2 211 -1.24863 0 687 -1.24863 1
gene 1 211 4 2.45361 0 688 2.45361 1
gene 2 7 211 -0.672948 0 728 -0.672948 1
gene 1 3 246 -1.46582 0 811 -1.46582 1
gene 1 246 26 -1.16091 0 812 -1.16091 1
genomeend 21

/* Organism #22 Fitness: 7.55927 Error: 1.25059 */
genomestart 22
trait 1 0.1 0 0 0 0 0 0.203436 0.113536 
trait 2 0.2 0 0 0 0 0 0 0 
trait 3 0.3 0 0 0 0 0 0 0 
node 1 3 1 3
node 2 1 1 1
node 3 1 1 1
node 4 1 0 2
node 7 1 0 0
node 26 1 0 0
node 43 1 0 0
node 61 1 0 0
node 203 1 0 0
node 211 1 0 0
node 246 1 0 0
gene 2 1 4 1.02796 0 1 1.02796 1
gene 1 2 4 8 0 2 8 0
gene 3 3 4 -1.74047 0 3 -1.74047 1
gene 1 3 7 -4.65405 0 8 -4.65405 1
gene 1 7 4 1.90306 0 9 1.90306 1
gene 1 1 7 3.03419 0 34 3.03419 1
gene 2 2 7 -8 0 47 -8 1
gene 1 3 26 -1.16297 0 72 -1.16297 1
gene 3 26 7 0.741295 0 73 0.741295 1
gene 1 26 43 4.61608 0 126 4.61608 1
gene 1 43 7 -2.02428 0 127 -2.02428 1
gene 3 3 43 -0.900143 0 176 -0.900143 1
gene 1 26 61 8 0 185 8 0
gene 2 61 43 -1.93716 0 186 -1.93716 1
gene 1 1 43 0.677587 0 267 0.677587 1
gene 1 3 61 -3.95967 0 326 -3.95967 1
gene 3 43 4 3.66897 0 487 3.66897 1
gene 1 1 26 -1.13498 0 514 -1.13498 1
gene 1 26 203 -0.744018 0 658 -0.744018 1
gene 1 203 61 8 0 659 8 1
gene 3 26 4 -2.19803 0 679 -2.19803 1
gene 1 2 211 -2.13753 0 687 -2.13753 1
gene 1 211 4 1.93854 0 688 1.93854 1
gene 2 7 211 -0.399274 0 728 -0.399274 1
gene 1 3 246 3.01201 0 811 3.01201 1
gene 1 246 26 -4.1576 0 812 -4.1576 1
genomeend 22

/* Organism #23 Fitness: 8.9896 Error: 1.00173 */
genomestart 23
trait 1 0.1 0 0 0 0 0 0.203436 0.113536 
trait 2 0.2 0 0 0 0 0 0 0 
trait 3 0.3875 0 0 0.0391743 0.0722449 0 0.052488 0 
node 1 3 1 3
node 2 1 1 1
node 3 1 1 1
node 4 1 0 2
node 7 1 0 0
node 26 1 0 0
node 43 1 0 0
node 61 1 0 0
node 203 1 0 0
node 211 1 0 0
node 246 1 0 0
gene 2 1 4 1.7822 0 1 1.7822 1
gene 1 2 4 8 0 2 8 0
gene 3 3 4 0.44145 0 3 0.44145 1
gene 1 3 7 -8 0 8 -8 1
gene 1 7 4 -5.61055 0 9 -5.61055 1
gene 1 1 7 3.09275 0 34 3.09275 1
gene 2 2 7 -7.94882 0 47 -7.94882 1
gene 1 3 26 -0.247926 0 72 -0.247926 1
gene 3 26 7 -1.95654 0 73 -1.95654 1
gene 1 26 43 2.77905 0 126 2.77905 1
gene 1 43 7 0.770416 0 127 0.770416 1
gene 3 3 43 2.99905 0 176 2.99905 1
gene 1 26 61 6.17161 0 185 6.17161 0
gene 2 61 43 -1.67909 0 186 -1.67909 1
gene 1 1 43 -3.2507 0 267 -3.2507 1
gene 1 3 61 1.16161 0 326 1.16161 1
gene 3 43 4 0.0888089 0 487 0.0888089 1
gene 1 1 26 -5.47435 0 514 -5.47435 1
gene 1 26 203 -2.99144 0 658 -2.99144 1
gene 1 203 61 1.84965 0 659 1.84965 1
gene 3 26 4 3.0939 0 679 3.0939 0
gene 1 2 211 0.24514 0 687 0.24514 1
gene 1 211 4 -0.656682 0 688 -0.656682 1
gene 2 7 211 2.74512 0 728 2.74512 1
gene 1 3 246 0.982238 0 811 0.982238 1
gene 1 246 26 -1.50256 0 812 -1.50256 1
genomeend 23

/* Organism #24 Fitness: 4 Error: 2 */
genomestart 24
trait 1 0.1 0 0 0 0 0 0.203436 0.113536 
trait 2 0.2 0 0 0 0 0 0 0 
trait 3 0.3 0 0 0 0 0 0 0 
node 1 3 1 3
node 2 1 1 1
node 3 1 1 1
node 4 1 0 2
node 7 1 0 0
node 26 1 0 0
node 43 1 0 0
node 61 1 0 0
node 203 1 0 0
node 211 1 0 0
node 246 1 0 0
gene 2 1 4 -1.2215 0 1 -1.2215 1
gene 1 2 4 7.98082 0 2 7.98082 0
gene 3 3 4 0.0718711 0 3 0.0718711 1
gene 1 3 7 0.384686 0 8 0.384686 1
gene 1 7 4 -7.20843 0 9 -7.20843 1
gene 1 1 7 3.37798 0 34 3.37798 1
gene 2 2 7 -0.0676748 0 47 -0.0676748 1
gene 1 3 26 -1.65577 0 72 -1.65577 0
gene 3 26 7 -5.5042 0 73 -5.5042 1
gene 1 26 43 2.9767 0 126 2.9767 1
gene 1 43 7 2.04132 0 127 2.04132 1
gene 3 3 43 -1.70179 0 176 -1.70179 1
gene 1 26 61 3.67926 0 185 3.67926 0
gene 2 61 43 -1.43872 0 186 -1.43872 1
gene 1 1 43 0.325404 0 267 0.325404 1
gene 1 3 61 -1.89792 0 326 -1.89792 1
gene 3 43 4 2.90997 0 487 2.90997 1
gene 1 1 26 -0.211264 0 514 -0.211264 1
gene 1 26 203 1.37732 0 658 1.37732 1
gene 1 203 61 8 0 659 8 1
gene 3 26 4 1.9789 0 679 1.9789 1
gene 1 2 211 -0.325266 0 687 -0.325266 1
gene 1 211 4 0.778146 0 688 0.778146 1
gene 2 7 211 1.22135 0 728 1.22135 1
gene 1 3 246 3.06717 0 811 3.06717 1
gene 1 246 26 -0.756706 0 812 -0.756706 1
genomeend 24

/* Organism #25 Fitness: 6.78641 Error: 1.39493 */
genomestart 25
trait 1 0.1 0 0 0 0 0 0.203436 0.113536 
trait 2 0.2 0 0 0 0 0 0 0 
trait 3 0.34375 0 0 0.0195872 0.0361225 0 0.026244 0 
node 1 3 1 3
node 2 1 1 1
node 3 1 1 1
node 4 1 0 2
node 7 1 0 0
node 26 1 0 0
node 43 1 0 0
node 61 1 0 0
node 203 1 0 0
node 211 1 0 0
node 246 1 0 0
gene 2 1 4 2.13031 0 1 2.13031 1
gene 1 2 4 8 0 2 8 1
gene 3 3 4 -2.31639 0 3 -2.31639 1
gene 1 3 7 -8 0 8 -8 1
gene 1 7 4 -5.98357 0 9 -5.98357 1
gene 1 1 7 0.979056 0 34 0.979056 1
gene 2 2 7 -8 0 47 -8 1
gene 1 3 26 -2.47724 0 72 -2.47724 1
gene 3 26 7 -4.63864 0 73 -4.63864 1
gene 1 26 43 2.20426 0 126 2.20426 1
gene 1 43 7 1.74611 0 127 1.74611 1
gene 3 3 43 -1.20102 0 176 -1.20102 1
gene 1 26 61 5.77007 0 185 5.77007 1
gene 2 61 43 -4.48258 0 186 -4.48258 1
gene 1 1 43 -1.60483 0 267 -1.60483 1
gene 1 3 61 -2.2183 0 326 -2.2183 1
gene 3 43 4 2.99293 0 487 2.99293 1
gene 1 1 26 -5.71774 0 514 -5.71774 1
gene 1 26 203 -2.69646 0 658 -2.69646 1
gene 1 203 61 3.46799 0 659 3.46799 1
gene 3 26 4 -1.41373 0 679 -1.41373 0
gene 1 2 211 -1.17005 0 687 -1.17005 1
gene 1 211 4 0.545442 0 688 0.545442 1
gene 2 7 211 0.084521 0 728 0.084521 1
gene 1 3 246 1.24056 0 811 1.24056 1
gene 1 246 26 -2.09683 0 812 -2.09683 1
genomeend 25

/* Organism #26 Fitness: 4.27182 Error: 1.93316 */
genomestart 26
trait 1 0.1 0 0 0 0 0 0.203436 0.113536 
trait 2 0.2 0 0 0 0 0 0 0 
trait 3 0.3 0 0 0 0 0 0 0 
node 1 3 1 3
node 2 1 1 1
node 3 1 1 1
node 4 1 0 2
node 7 1 0 0
node 26 1 0 0
node 43 1 0 0
node 61 1 0 0
node 203 1 0 0
node 211 1 0 0
node 246 1 0 0
gene 2 1 4 3.99268 0 1 3.99268 1
gene 1 2 4 7.48146 0 2 7.48146 0
gene 3 3 4 -0.888623 0 3 -0.888623 1
gene 1 3 7 -8 0 8 -8 1
gene 1 7 4 -6.49231 0 9 -6.49231 1
gene 1 1 7 3.19243 0 34 3.19243 1
gene 2 2 7 -7.63811 0 47 -7.63811 1
gene 1 3 26 0.0256489 0 72 0.0256489 0
gene 3 26 7 -8 0 73 -8 1
gene 1 26 43 1.14513 0 126 1.14513 1
gene 1 43 7 -0.895709 0 127 -0.895709 1
gene 3 3 43 -0.782723 0 176 -0.782723 1
gene 1 26 61 4.10026 0 185 4.10026 0
gene 2 61 43 0.329676 0 186 0.329676 1
gene 1 1 43 1.49579 0 267 1.49579 1
gene 1 3 61 -4.84562 0 326 -4.84562 1
gene 3 43 4 2.18973 0 487 2.18973 1
gene 1 1 26 -2.48283 0 514 -2.48283 1
gene 1 26 203 0.864307 0 658 0.864307 1
gene 1 203 61 6.436 0 659 6.436 1
gene 3 26 4 0.996735 0 679 0.996735 1
gene 1 2 211 -0.859874 0 687 -0.859874 1
gene 1 211 4 1.16512 0 688 1.16512 1
gene 2 7 211 0.197516 0 728 0.197516 1
gene 1 3 246 1.60947 0 811 1.60947 1
gene 1 246 26 -2.7008 0 812 -2.7008 1
genomeend 26

/* Organism #27 Fitness: 8.976 Error: 1.004 */
genomestart 27
trait 1 0.1 0 0 0 0 0 0.203436 0.113536 
trait 2 0.2 0 0 0 0 0 0 0 
trait 3 0.3 0 0 0 0 0 0 0 
node 1 3 1 3
node 2 1 1 1
node 3 1 1 1
node 4 1 0 2
node 7 1 0 0
node 26 1 0 0
node 43 1 0 0
node 61 1 0 0
node 203 1 0 0
node 211 1 0 0
node 246 1 0 0
node 275 1 0 0
gene 2 1 4 2.19087 0 1 2.19087 1
gene 1 2 4 7.98082 0 2 7.98082 1
gene 3 3 4 -1.26835 0 3 -1.26835 1
gene 1 3 7 -6.98833 0 8 -6.98833 1
gene 1 7 4 -8 0 9 -8 1
gene 1 1 7 2.79729 0 34 2.79729 1
gene 2 2 7 -7.63811 0 47 -7.63811 1
gene 1 3 26 0.0256489 0 72 0.0256489 1
gene 3 26 7 -8 0 73 -8 1
gene 1 26 43 4.18485 0 126 4.18485 1
gene 1 43 7 0.161834 0 127 0.161834 1
gene 3 3 43 -2.06297 0 176 -2.06297 1
gene 1 26 61 5.87506 0 185 5.87506 0
gene 2 61 43 -2.09433 0 186 -2.09433 1
gene 1 1 43 0.180364 0 267 0.180364 1
gene 1 3 61 -2.66095 0 326 -2.66095 1
gene 3 43 4 1.595 0 487 1.595 1
gene 1 1 26 -3.41161 0 514 -3.41161 1
gene 1 26 203 -0.744018 0 658 -0.744018 1
gene 1 203 61 8 0 659 8 1
gene 3 26 4 -0.913282 0 679 -0.913282 1
gene 1 2 211 -0.859874 0 687 -0.859874 0
gene 1 211 4 1.84133 0 688 1.84133 1
gene 2 7 211 -0.399274 0 728 -0.399274 1
gene 1 3 246 1.60831 0 811 1.60831 1
gene 1 246 26 -1.77388 0 812 -1.77388 1
gene 1 2 275 1 0 896 0 1
gene 1 275 211 -0.859874 0 897 0 1
genomeend 27

/* Organism #28 Fitness: 4.19236 Error: 1.95247 */
genomestart 28
trait 1 0.1 0 0 0 0 0 0.203436 0.971564 
trait 2 0.2 0 0 0 0 0 0 0 
trait 3 0.3 0 0 0 0 0 0 0 
node 1 3 1 3
node 2 1 1 1
node 3 1 1 1
node 4 1 0 2
node 7 1 0 0
node 26 1 0 0
node 43 1 0 0
node 61 1 0 0
node 203 1 0 0
node 211 1 0 0
node 246 1 0 0
gene 2 1 4 -2.20313 0 1 -2.20313 1
gene 1 2 4 0.794397 0 2 0.794397 0
gene 3 3 4 0.685141 0 3 0.685141 1
gene 1 3 7 -8 0 8 -8 1
gene 1 7 4 -8 0 9 -8 1
gene 1 1 7 1.3424 0 34 1.3424 1
gene 2 2 7 -6.56508 0 47 -6.56508 1
gene 1 3 26 -1.93837 0 72 -1.93837 0
gene 3 26 7 0.40109 0 73 0.40109 1
gene 1 26 43 3.53984 0 126 3.53984 1
gene 1 43 7 0.153136 0 127 0.153136 1
gene 3 3 43 -2.06297 0 176 -2.06297 1
gene 1 26 61 5.20022 0 185 5.20022 0
gene 2 61 43 -1.63739 0 186 -1.63739 1
gene 1 1 43 1.57811 0 267 1.57811 1
gene 1 3 61 -1.79804 0 326 -1.79804 1
gene 3 43 4 1.595 0 487 1.595 1
gene 1 1 26 -1.83984 0 514 -1.83984 1
gene 1 26 203 0.520135 0 658 0.520135 1
gene 1 203 61 8 0 659 8 1
gene 3 26 4 0.936064 0 679 0.936064 1
gene 1 2 211 0.735786 0 687 0.735786 1
gene 1 211 4 1.84133 0 688 1.84133 1
gene 2 7 211 1.14893 0 728 1.14893 1
gene 1 3 246 1.97346 0 811 1.97346 1
gene 1 246 26 -2.1079 0 812 -2.1079 1
genomeend 28

/* Organism #29 Fitness: 8.9964 Error: 1.0006 */
genomestart 29
trait 1 0.1 0 0 0 0 0 0.203436 0.113536 
trait 2 0.2 0 0 0 0 0 0 0 
trait 3 0.34375 0 0 0.0195872 0.0361225 0 0.026244 0 
node 1 3 1 3
node 2 1 1 1
node 3 1 1 1
node 4 1 0 2
node 7 1 0 0
node 26 1 0 0
node 43 1 0 0
node 61 1 0 0
node 203 1 0 0
node 211 1 0 0
node 246 1 0 0
gene 2 1 4 1.59996 0 1 1.59996 1
gene 1 2 4 8 0 2 8 0
gene 3 3 4 0.652791 0 3 0.652791 1
gene 1 3 7 -5.06983 0 8 -5.06983 1
gene 1 7 4 -5.86699 0 9 -5.86699 1
gene 1 1 7 0.0230415 0 34 0.0230415 1
gene 2 2 7 -8 0 47 -8 1
gene 1 3 26 0.742681 0 72 0.742681 0
gene 3 26 7 -0.671102 0 73 -0.671102 1
gene 1 26 43 6.49876 0 126 6.49876 1
gene 1 43 7 -1.10957 0 127 -1.10957 1
gene 3 3 43 1.10569 0 176 1.10569 1
gene 1 26 61 8 0 185 8 0
gene 2 61 43 -4.11466 0 186 -4.11466 1
gene 1 1 43 -0.107144 0 267 -0.107144 1
gene 1 3 61 -4.79496 0 326 -4.79496 1
gene 3 43 4 -0.746254 0 487 -0.746254 1
gene 1 1 26 -5.34961 0 514 -5.34961 1
gene 1 26 203 -3.58121 0 658 -3.58121 1
gene 1 203 61 3.97511 0 659 3.97511 1
gene 3 26 4 -0.656468 0 679 -0.656468 1
gene 1 2 211 2.15819 0 687 2.15819 1
gene 1 211 4 -0.228736 0 688 -0.228736 1
gene 2 7 211 1.37188 0 728 1.37188 1
gene 1 3 246 1.60831 0 811 1.60831 1
gene 1 246 26 0.655709 0 812 0.655709 1
genomeend 29

/* Organism #30 Fitness: 4.00392 Error: 1.99902 */
genomestart 30
trait 1 0.1 0 0 0 0 0 0.203436 0.113536 
trait 2 0.2 0 0 0 0 0 0 0 
trait 3 0.3 0 0 0 0 0 0 0 
node 1 3 1 3
node 2 1 1 1
node 3 1 1 1
node 4 1 0 2
node 7 1 0 0
node 26 1 0 0
node 43 1 0 0
node 61 1 0 0
node 203 1 0 0
node 211 1 0 0
node 246 1 0 0
gene 2 1 4 4.08554 0 1 4.08554 1
gene 1 2 4 8 0 2 8 0
gene 3 3 4 -2.9989 0 3 -2.9989 1
gene 1 3 7 1.24821 0 8 1.24821 1
gene 1 7 4 -0.148396 0 9 -0.148396 1
gene 1 1 7 1.05842 0 34 1.05842 1
gene 2 2 7 -7.12876 0 47 -7.12876 1
gene 1 3 26 0.545455 0 72 0.545455 0
gene 3 26 7 -8 0 73 -8 1
gene 1 26 43 2.45491 0 126 2.45491 1
gene 1 43 7 -0.739759 0 127 -0.739759 1
gene 3 3 43 -1.09455 0 176 -1.09455 1
gene 1 26 61 7.60623 0 185 7.60623 0
gene 2 61 43 -0.673086 0 186 -0.673086 1
gene 1 1 43 -1.25011 0 267 -1.25011 1
gene 1 3 61 -3.14071 0 326 -3.14071 1
gene 3 43 4 -0.965148 0 487 -0.965148 1
gene 1 1 26 -0.982723 0 514 -0.982723 1
gene 1 26 203 -1.80189 0 658 -1.80189 1
gene 1 203 61 7.46295 0 659 7.46295 1
gene 3 26 4 0.320582 0 679 0.320582 1
gene 1 2 211 -0.3184 0 687 -0.3184 1
gene 1 211 4 1.85408 0 688 1.85408 1
gene 2 7 211 0.73777 0 728 0.73777 1
gene 1 3 246 -0.229286 0 811 -0.229286 1
gene 1 246 26 -3.9944 0 812 -3.9944 1
genomeend 30

/* Species #50 : (Size 9) (AF 7.82568) (Age 16)  */


/* Organism #31 Fitness: 9 Error: 1 */
genomestart 31
trait 1 0.1 0 0 0 0 0 0 0 
trait 2 0.2 0 0 0 0 0 0 0 
trait 3 0.3 0 0 0 0 0 0 0 
node 1 3 1 3
node 2 1 1 1
node 3 1 1 1
node 4 1 0 2
node 7 1 0 0
node 26 1 0 0
node 43 1 0 0
node 61 1 0 0
node 196 1 0 0
gene 2 1 4 0.421255 0 1 0.421255 1
gene 1 2 4 6.81008 0 2 6.81008 1
gene 3 3 4 8 0 3 8 1
gene 1 3 7 -2.54106 0 8 -2.54106 0
gene 1 7 4 -8 0 9 -8 1
gene 1 1 7 3.82697 0 34 3.82697 1
gene 1 2 7 -8 0 47 -8 1
gene 1 3 26 -1.12727 0 72 -1.12727 1
gene 3 26 7 0.170331 0 73 0.170331 1
gene 1 26 43 2.88671 0 126 2.88671 0
gene 1 43 7 -2.02742 0 127 -2.02742 1
gene 3 3 43 5.55877 0 176 5.55877 1
gene 1 26 61 6.9142 0 185 6.9142 1
gene 2 61 43 -0.648154 0 186 -0.648154 1
gene 1 1 43 -0.190273 0 267 -0.190273 1
gene 1 3 61 1.26132 0 326 1.26132 0
gene 3 43 4 2.5397 0 487 2.5397 1
gene 1 1 26 -0.435133 0 514 -0.435133 1
gene 1 2 43 0.458831 0 632 0.458831 1
gene 1 3 196 4.24554 0 638 4.24554 1
gene 1 196 7 -3.53761 0 639 -3.53761 1
gene 1 43 196 0.263833 0 708 0.263833 1
gene 1 26 196 -0.1966 0 718 -0.1966 0
genomeend 31

/* Organism #32 Fitness: 3.4312 Error: 2.14765 */
genomestart 32
trait 1 0.1 0 0 0 0 0 0 0 
trait 2 0.182177 0 0 0.552355 0 0 0 0.758538 
trait 3 0.3 0 0 0 0 0 0 0 
node 1 3 1 3
node 2 1 1 1
node 3 1 1 1
node 4 1 0 2
node 7 1 0 0
node 26 1 0 0
node 43 1 0 0
node 61 1 0 0
node 196 1 0 0
gene 2 1 4 -0.869701 0 1 -0.869701 1
gene 1 2 4 -1.78137 0 2 -1.78137 1
gene 3 3 4 6.95703 0 3 6.95703 1
gene 1 3 7 -2.37724 0 8 -2.37724 0
gene 1 7 4 1.36387 0 9 1.36387 1
gene 1 1 7 4.10939 0 34 4.10939 1
gene 1 2 7 -5.86981 0 47 -5.86981 1
gene 1 3 26 1.13606 0 72 1.13606 1
gene 3 26 7 -3.06112 0 73 -3.06112 1
gene 1 26 43 0.629444 0 126 0.629444 0
gene 1 43 7 -4.7145 0 127 -4.7145 1
gene 3 3 43 7.24055 0 176 7.24055 1
gene 1 26 61 6.02306 0 185 6.02306 1
gene 2 61 43 0.102151 0 186 0.102151 1
gene 1 1 43 -1.69461 0 267 -1.69461 1
gene 1 3 61 0.974067 0 326 0.974067 0
gene 3 43 4 2.67414 0 487 2.67414 1
gene 3 1 26 1.05638 0 514 1.05638 1
gene 1 2 43 -1.97653 0 632 -1.97653 1
gene 1 3 196 4.79137 0 638 4.79137 1
gene 1 196 7 -2.32963 0 639 -2.32963 1
gene 1 43 196 1.20228 0 708 1.20228 1
gene 1 26 196 -2.33749 0 718 -2.33749 0
genomeend 32

/* Organism #33 Fitness: 9 Error: 1 */
genomestart 33
trait 1 0.1 0 0 0 0 0 0 0 
trait 2 0.2 0 0 0 0 0 0 0 
trait 3 0.3 0 0 0 0 0 0 0 
node 1 3 1 3
node 2 1 1 1
node 3 1 1 1
node 4 1 0 2
node 7 1 0 0
node 26 1 0 0
node 43 1 0 0
node 61 1 0 0
node 196 1 0 0
gene 2 1 4 1.60141 0 1 1.60141 1
gene 1 2 4 3.19237 0 2 3.19237 1
gene 3 3 4 7.8899 0 3 7.8899 1
gene 1 3 7 -1.22868 0 8 -1.22868 0
gene 1 7 4 -8 0 9 -8 1
gene 1 1 7 4.21531 0 34 4.21531 1
gene 1 2 7 -7.07517 0 47 -7.07517 1
gene 1 3 26 -0.798546 0 72 -0.798546 1
gene 3 26 7 -0.656968 0 73 -0.656968 1
gene 1 26 43 1.9425 0 126 1.9425 0
gene 1 43 7 -1.84942 0 127 -1.84942 1
gene 3 3 43 6.70565 0 176 6.70565 1
gene 1 26 61 5.45969 0 185 5.45969 1
gene 2 61 43 -0.46439 0 186 -0.46439 1
gene 1 1 43 0.138144 0 267 0.138144 1
gene 1 3 61 1.5308 0 326 1.5308 0
gene 3 43 4 3.77521 0 487 3.77521 1
gene 3 1 26 -0.243057 0 514 -0.243057 1
gene 1 2 43 0.298036 0 632 0.298036 1
gene 1 3 196 4.51846 0 638 4.51846 1
gene 1 196 7 -1.69083 0 639 -1.69083 1
gene 1 43 196 -0.419973 0 708 -0.419973 1
gene 1 26 196 0.454772 0 718 0.454772 0
genomeend 33

/* Organism #34 Fitness: 9 Error: 1 */
genomestart 34
trait 1 0.1 0 0 0 0 0 0 0 
trait 2 0.2 0 0 0 0 0 0 0 
trait 3 0.3 0.670949 0 0.83462 0.973022 0.0561541 0 0 
node 1 3 1 3
node 2 1 1 1
node 3 1 1 1
node 4 1 0 2
node 7 1 0 0
node 26 1 0 0
node 43 1 0 0
node 61 1 0 0
node 196 1 0 0
gene 2 1 4 -1.25887 0 1 -1.25887 1
gene 1 2 4 4.61321 0 2 4.61321 1
gene 3 3 4 8 0 3 8 1
gene 1 3 7 -4.534 0 8 -4.534 0
gene 1 7 4 -8 0 9 -8 1
gene 1 1 7 3.64195 0 34 3.64195 1
gene 1 2 7 -6.0221 0 47 -6.0221 1
gene 1 3 26 -0.507362 0 72 -0.507362 1
gene 3 26 7 0.115322 0 73 0.115322 1
gene 1 26 43 1.10847 0 126 1.10847 0
gene 1 43 7 -0.222785 0 127 -0.222785 1
gene 3 3 43 6.99177 0 176 6.99177 1
gene 1 26 61 6.5959 0 185 6.5959 1
gene 2 61 43 -2.26838 0 186 -2.26838 1
gene 1 1 43 -0.43137 0 267 -0.43137 1
gene 1 3 61 2.68348 0 326 2.68348 0
gene 3 43 4 1.82954 0 487 1.82954 1
gene 1 1 26 -0.498077 0 514 -0.498077 1
gene 1 2 43 1.56619 0 632 1.56619 1
gene 1 3 196 4.24554 0 638 4.24554 1
gene 1 196 7 -5.64689 0 639 -5.64689 1
gene 1 43 196 0.238502 0 708 0.238502 1
gene 1 26 196 -2.4256 0 718 -2.4256 0
genomeend 34

/* Organism #35 Fitness: 9 Error: 1 */
genomestart 35
trait 1 0.1 0 0 0 0 0 0 0 
trait 2 0.2 0 0 0 0 0 0 0 
trait 3 0.3 0 0 0 0 0 0 0 
node 1 3 1 3
node 2 1 1 1
node 3 1 1 1
node 4 1 0 2
node 7 1 0 0
node 26 1 0 0
node 43 1 0 0
node 61 1 0 0
node 196 1 0 0
gene 2 1 4 1.87447 0 1 1.87447 1
gene 1 2 4 7.86541 0 2 7.86541 1
gene 3 3 4 8 0 3 8 1
gene 1 3 7 -2.48598 0 8 -2.48598 0
gene 1 7 4 -5.95244 0 9 -5.95244 1
gene 1 1 7 4.66425 0 34 4.66425 1
gene 1 2 7 -5.92428 0 47 -5.92428 1
gene 1 3 26 -2.93908 0 72 -2.93908 1
gene 3 26 7 1.36635 0 73 1.36635 1
gene 1 26 43 4.11447 0 126 4.11447 0
gene 1 43 7 -3.08992 0 127 -3.08992 1
gene 3 3 43 3.41454 0 176 3.41454 1
gene 1 26 61 8 0 185 8 1
gene 2 61 43 -0.861173 0 186 -0.861173 1
gene 1 1 43 -2.02795 0 267 -2.02795 1
gene 1 3 61 3.03666 0 326 3.03666 0
gene 3 43 4 0.165746 0 487 0.165746 1
gene 1 1 26 1.83354 0 514 1.83354 1
gene 1 2 43 2.68645 0 632 2.68645 1
gene 1 3 196 2.1889 0 638 2.1889 1
gene 1 196 7 -3.90314 0 639 -3.90314 1
gene 1 43 196 0.263833 0 708 0.263833 1
gene 1 26 196 2.22512 0 718 2.22512 0
genomeend 35

/* Organism #36 Fitness: 9 Error: 1 */
genomestart 36
trait 1 0.1 0 0 0 0 0 0 0 
trait 2 0.2 0 0 0 0 0 0 0 
trait 3 0.3 0 0 0 0 0 0 0 
node 1 3 1 3
node 2 1 1 1
node 3 1 1 1
node 4 1 0 2
node 7 1 0 0
node 26 1 0 0
node 43 1 0 0
node 61 1 0 0
node 196 1 0 0
node 276 1 0 0
gene 2 1 4 0.631451 0 1 0.631451 1
gene 1 2 4 5.07648 0 2 5.07648 1
gene 3 3 4 7.77981 0 3 7.77981 1
gene 1 3 7 -3.05553 0 8 -3.05553 0
gene 1 7 4 -8 0 9 -8 1
gene 1 1 7 4.60364 0 34 4.60364 1
gene 1 2 7 -6.15035 0 47 -6.15035 1
gene 1 3 26 -0.469824 0 72 -0.469824 1
gene 3 26 7 -1.48427 0 73 -1.48427 1
gene 1 26 43 1.52291 0 126 1.52291 0
gene 1 43 7 -2.72011 0 127 -2.72011 1
gene 3 3 43 7.82407 0 176 7.82407 1
gene 1 26 61 5.8842 0 185 5.8842 1
gene 2 61 43 -0.280627 0 186 -0.280627 1
gene 1 1 43 0.466561 0 267 0.466561 1
gene 1 3 61 0.383152 0 326 0.383152 0
gene 3 43 4 3.96049 0 487 3.96049 0
gene 3 1 26 -0.0509812 0 514 -0.0509812 1
gene 1 2 43 0.458831 0 632 0.458831 1
gene 1 3 196 4.79137 0 638 4.79137 1
gene 1 196 7 -4.95573 0 639 -4.95573 1
gene 1 43 196 -1.10378 0 708 -1.10378 1
gene 1 26 196 0.706885 0 718 0.706885 0
gene 3 43 276 1 0 898 0 1
gene 3 276 4 3.96049 0 899 0 1
genomeend 36

/* Organism #37 Fitness: 8.9999 Error: 1.00002 */
genomestart 37
trait 1 0.1 0 0 0 0 0 0 0 
trait 2 0.2 0 0 0 0 0 0 0 
trait 3 0.3 0 0 0 0 0 0 0 
node 1 3 1 3
node 2 1 1 1
node 3 1 1 1
node 4 1 0 2
node 7 1 0 0
node 26 1 0 0
node 43 1 0 0
node 61 1 0 0
node 196 1 0 0
gene 2 1 4 0.64465 0 1 0.64465 1
gene 1 2 4 1.59635 0 2 1.59635 1
gene 3 3 4 7.48119 0 3 7.48119 1
gene 1 3 7 -4.31465 0 8 -4.31465 0
gene 2 7 4 -8 0 9 -8 1
gene 1 1 7 2.63581 0 34 2.63581 1
gene 1 2 7 -8 0 47 -8 1
gene 1 3 26 1.1221 0 72 1.1221 1
gene 3 26 7 -3.15279 0 73 -3.15279 1
gene 1 26 43 1.24687 0 126 1.24687 0
gene 1 43 7 -3.1679 0 127 -3.1679 1
gene 3 3 43 8 0 176 8 1
gene 1 26 61 5.29619 0 185 5.29619 1
gene 2 61 43 -0.0338088 0 186 -0.0338088 1
gene 1 1 43 -1.86864 0 267 -1.86864 1
gene 1 3 61 -0.117199 0 326 -0.117199 0
gene 3 43 4 3.67362 0 487 3.67362 1
gene 3 1 26 -0.802576 0 514 -0.802576 1
gene 1 2 43 -0.0783715 0 632 -0.0783715 1
gene 1 3 196 6.67375 0 638 6.67375 1
gene 1 196 7 -4.29996 0 639 -4.29996 1
gene 1 43 196 0.263833 0 708 0.263833 1
gene 1 26 196 -1.54569 0 718 -1.54569 0
genomeend 37

/* Organism #38 Fitness: 4 Error: 2 */
genomestart 38
trait 1 0.1 0 0 0 0 0 0 0 
trait 2 0.2 0.876034 0.0184942 0.0766015 0.509354 0.508957 0 0 
trait 3 0.3 0 0 0 0 0 0 0 
node 1 3 1 3
node 2 1 1 1
node 3 1 1 1
node 4 1 0 2
node 7 1 0 0
node 26 1 0 0
node 43 1 0 0
node 61 1 0 0
node 196 1 0 0
gene 2 1 4 2.88978 0 1 2.88978 1
gene 1 2 4 4.0684 0 2 4.0684 1
gene 3 3 4 6.99243 0 3 6.99243 1
gene 1 3 7 -1.76875 0 8 -1.76875 0
gene 1 7 4 -1.05113 0 9 -1.05113 1
gene 1 1 7 4.60364 0 34 4.60364 1
gene 1 2 7 0.244911 0 47 0.244911 1
gene 1 3 26 -2.89563 0 72 -2.89563 1
gene 3 26 7 -0.441374 0 73 -0.441374 1
gene 1 26 43 0.636502 0 126 0.636502 1
gene 1 43 7 -1.44803 0 127 -1.44803 1
gene 3 3 43 7.86439 0 176 7.86439 1
gene 1 26 61 7.13783 0 185 7.13783 1
gene 2 61 43 0.28427 0 186 0.28427 1
gene 1 1 43 -0.00915555 0 267 -0.00915555 1
gene 1 3 61 2.23631 0 326 2.23631 1
gene 3 43 4 3.52915 0 487 3.52915 1
gene 3 1 26 -0.0509812 0 514 -0.0509812 1
gene 1 2 43 -0.691015 0 632 -0.691015 1
gene 1 3 196 4.97753 0 638 4.97753 1
gene 1 196 7 -2.16781 0 639 -2.16781 1
gene 1 43 196 -0.0165181 0 708 -0.0165181 1
gene 1 26 196 0.199019 0 718 0.199019 1
genomeend 38

/* Organism #39 Fitness: 8.99999 Error: 1 */
genomestart 39
trait 1 0.1 0 0 0 0 0 0 0 
trait 2 0.2 0 0 0 0 0 0 0 
trait 3 0.3 0 0 0 0 0 0 0 
node 1 3 1 3
node 2 1 1 1
node 3 1 1 1
node 4 1 0 2
node 7 1 0 0
node 26 1 0 0
node 43 1 0 0
node 61 1 0 0
node 196 1 0 0
gene 2 1 4 1.31787 0 1 1.31787 1
gene 1 2 4 2.1542 0 2 2.1542 1
gene 3 3 4 8 0 3 8 1
gene 1 3 7 -0.571001 0 8 -0.571001 0
gene 1 7 4 -8 0 9 -8 1
gene 1 1 7 6.25326 0 34 6.25326 1
gene 1 2 7 -5.59892 0 47 -5.59892 1
gene 1 3 26 0.204979 0 72 0.204979 1
gene 3 26 7 -0.656968 0 73 -0.656968 1
gene 1 26 43 -0.212333 0 126 -0.212333 1
gene 1 43 7 -1.84942 0 127 -1.84942 1
gene 3 3 43 -1.20411 0 176 -1.20411 1
gene 1 26 61 2.31956 0 185 2.31956 1
gene 2 61 43 0.865683 0 186 0.865683 1
gene 1 1 43 1.43472 0 267 1.43472 1
gene 1 3 61 0.0441679 0 326 0.0441679 0
gene 3 43 4 1.49258 0 487 1.49258 1
gene 3 1 26 -0.243057 0 514 -0.243057 1
gene 1 2 43 0.751083 0 632 0.751083 1
gene 1 3 196 1.24775 0 638 1.24775 1
gene 1 196 7 -0.558489 0 639 -0.558489 1
gene 1 43 196 -1.87395 0 708 -1.87395 1
gene 1 26 196 -1.13227 0 718 -1.13227 0
genomeend 39

/* Species #51 : (Size 12) (AF 7.42189) (Age 11)  */


/* Organism #40 Fitness: 9 Error: 1 */
genomestart 40
trait 1 0.1 0 0 0 0 0 0 0 
trait 2 0.2 0 0 0 0.110748 0.0805002 0 0 
trait 3 0.65 0 0 0 0.475204 0.499283 0 0 
node 1 3 1 3
node 2 1 1 1
node 3 1 1 1
node 4 1 0 2
node 7 1 0 0
node 26 1 0 0
node 43 1 0 0
node 61 1 0 0
node 196 1 0 0
node 219 1 0 0
node 229 1 0 0
node 255 1 0 0
gene 2 1 4 -0.0381252 0 1 -0.0381252 1
gene 1 2 4 7.34809 0 2 7.34809 1
gene 3 3 4 8 0 3 8 1
gene 1 3 7 -3.83686 0 8 -3.83686 1
gene 1 7 4 -7.24918 0 9 -7.24918 1
gene 1 1 7 1.70633 0 34 1.70633 1
gene 1 2 7 -8 0 47 -8 1
gene 1 3 26 -1.79296 0 72 -1.79296 1
gene 3 26 7 2.25909 0 73 2.25909 1
gene 1 26 43 -1.04858 0 126 -1.04858 0
gene 1 43 7 0.0593204 0 127 0.0593204 1
gene 3 3 43 -1.04175 0 176 -1.04175 1
gene 1 26 61 2.053 0 185 2.053 0
gene 2 61 43 -2.26923 0 186 -2.26923 1
gene 1 1 43 0.521142 0 267 0.521142 1
gene 1 3 61 2.43151 0 326 2.43151 0
gene 3 43 4 -0.78753 0 487 -0.78753 1
gene 1 1 26 2.55993 0 514 2.55993 1
gene 1 2 43 1.10338 0 632 1.10338 0
gene 1 3 196 2.72538 0 638 2.72538 1
gene 1 196 7 -0.784003 0 639 -0.784003 1
gene 1 26 219 0.736568 0 706 0.736568 1
gene 1 219 61 3.65822 0 707 3.65822 0
gene 1 219 229 1.4143 0 748 1.4143 1
gene 1 229 61 -0.142808 0 749 -0.142808 1
gene 3 43 255 -1.86224 0 834 -1.86224 1
gene 3 255 4 2.6622 0 835 2.6622 1
genomeend 40

/* Organism #41 Fitness: 4.00004 Error: 1.99999 */
genomestart 41
trait 1 0.1 0 0 0 0 0 0 0 
trait 2 0.2 0 0 0 0.138435 0.100625 0 0 
trait 3 0.65 0 0 0 0.475204 0.499283 0 0 
node 1 3 1 3
node 2 1 1 1
node 3 1 1 1
node 4 1 0 2
node 7 1 0 0
node 26 1 0 0
node 43 1 0 0
node 61 1 0 0
node 196 1 0 0
node 219 1 0 0
node 229 1 0 0
node 255 1 0 0
gene 2 1 4 0.345569 0 1 0.345569 1
gene 1 2 4 7.87942 0 2 7.87942 1
gene 3 3 4 8 0 3 8 1
gene 1 3 7 -1.15736 0 8 -1.15736 1
gene 1 7 4 -5.06108 0 9 -5.06108 1
gene 1 1 7 0.790696 0 34 0.790696 1
gene 1 2 7 -8 0 47 -8 1
gene 1 3 26 -4.10596 0 72 -4.10596 1
gene 3 26 7 0.659324 0 73 0.659324 1
gene 1 26 43 -1.14234 0 126 -1.14234 1
gene 1 43 7 -2.22599 0 127 -2.22599 1
gene 3 3 43 1.15664 0 176 1.15664 1
gene 1 26 61 1.41418 0 185 1.41418 0
gene 2 61 43 -0.0668641 0 186 -0.0668641 1
gene 1 1 43 2.6501 0 267 2.6501 1
gene 1 3 61 2.29159 0 326 2.29159 0
gene 3 43 4 -2.39624 0 487 -2.39624 0
gene 1 1 26 0.268681 0 514 0.268681 1
gene 1 2 43 -1.01201 0 632 -1.01201 0
gene 1 3 196 4.71428 0 638 4.71428 1
gene 1 196 7 -1.70654 0 639 -1.70654 1
gene 1 26 219 -1.80786 0 706 -1.80786 1
gene 1 219 61 0.822474 0 707 0.822474 0
gene 1 219 229 -1.34045 0 748 -1.34045 1
gene 1 229 61 -1.29093 0 749 -1.29093 1
gene 3 43 255 0.73904 0 834 0.73904 1
gene 3 255 4 2.04633 0 835 2.04633 1
genomeend 41

/* Organism #42 Fitness: 9 Error: 1 */
genomestart 42
trait 1 0.1 0 0 0 0 0 0 0 
trait 2 0.2 0 0 0 0.166122 0.12075 0 0 
trait 3 0.65 0 0 0 0.475204 0.499283 0 0 
node 1 3 1 3
node 2 1 1 1
node 3 1 1 1
node 4 1 0 2
node 7 1 0 0
node 26 1 0 0
node 43 1 0 0
node 61 1 0 0
node 196 1 0 0
node 219 1 0 0
node 229 1 0 0
node 255 1 0 0
gene 2 1 4 -1.72725 0 1 -1.72725 1
gene 1 2 4 7.81411 0 2 7.81411 1
gene 3 3 4 6.69373 0 3 6.69373 1
gene 1 3 7 -4.66091 0 8 -4.66091 1
gene 1 7 4 -6.15196 0 9 -6.15196 1
gene 1 1 7 1.73189 0 34 1.73189 1
gene 1 2 7 -5.14479 0 47 -5.14479 1
gene 1 3 26 -4.20316 0 72 -4.20316 1
gene 3 26 7 3.62932 0 73 3.62932 1
gene 1 26 43 -0.262631 0 126 -0.262631 0
gene 1 43 7 1.71745 0 127 1.71745 1
gene 3 3 43 0.250457 0 176 0.250457 1
gene 1 26 61 1.03927 0 185 1.03927 0
gene 2 61 43 -2.09535 0 186 -2.09535 1
gene 1 1 43 -0.827795 0 267 -0.827795 1
gene 1 3 61 0.223272 0 326 0.223272 0
gene 3 43 4 -2.38403 0 487 -2.38403 0
gene 1 1 26 0.924982 0 514 0.924982 1
gene 1 2 43 -1.08098 0 632 -1.08098 0
gene 1 3 196 1.44956 0 638 1.44956 1
gene 1 196 7 -1.54978 0 639 -1.54978 1
gene 1 26 219 0.997309 0 706 0.997309 1
gene 1 219 61 2.98544 0 707 2.98544 0
gene 1 219 229 1.03267 0 748 1.03267 1
gene 1 229 61 0.465011 0 749 0.465011 1
gene 3 43 255 -2.62162 0 834 -2.62162 1
gene 3 255 4 2.6622 0 835 2.6622 1
genomeend 42

/* Organism #43 Fitness: 9 Error: 1 */
genomestart 43
trait 1 0.1 0 0 0 0 0 0 0 
trait 2 0.2 0 0 0 0.110748 0.0805002 0 0 
trait 3 0.65 0 0 0 0.475204 0.499283 0 0 
node 1 3 1 3
node 2 1 1 1
node 3 1 1 1
node 4 1 0 2
node 7 1 0 0
node 26 1 0 0
node 43 1 0 0
node 61 1 0 0
node 196 1 0 0
node 219 1 0 0
node 229 1 0 0
node 255 1 0 0
gene 2 1 4 2.45837 0 1 2.45837 1
gene 1 2 4 8 0 2 8 1
gene 3 3 4 6.71189 0 3 6.71189 1
gene 1 3 7 -3.12135 0 8 -3.12135 1
gene 1 7 4 -6.09306 0 9 -6.09306 1
gene 1 1 7 2.71321 0 34 2.71321 1
gene 1 2 7 -6.10411 0 47 -6.10411 1
gene 1 3 26 0.459227 0 72 0.459227 1
gene 3 26 7 2.06271 0 73 2.06271 1
gene 1 26 43 0.407689 0 126 0.407689 0
gene 1 43 7 1.81879 0 127 1.81879 1
gene 3 3 43 -2.94877 0 176 -2.94877 1
gene 1 26 61 -0.428158 0 185 -0.428158 0
gene 2 61 43 -3.6579 0 186 -3.6579 1
gene 1 1 43 1.71731 0 267 1.71731 1
gene 1 3 61 4.38836 0 326 4.38836 1
gene 3 43 4 -2.27195 0 487 -2.27195 1
gene 1 1 26 3.83652 0 514 3.83652 1
gene 1 2 43 1.06325 0 632 1.06325 0
gene 1 3 196 3.24824 0 638 3.24824 1
gene 1 196 7 -2.38745 0 639 -2.38745 1
gene 1 26 219 -0.606857 0 706 -0.606857 1
gene 1 219 61 3.65822 0 707 3.65822 0
gene 1 219 229 1.10439 0 748 1.10439 1
gene 1 229 61 -0.142808 0 749 -0.142808 1
gene 3 43 255 -1.86224 0 834 -1.86224 1
gene 3 255 4 2.40241 0 835 2.40241 1
genomeend 43

/* Organism #44 Fitness: 4.00001 Error: 2 */
genomestart 44
trait 1 0.1 0 0 0 0 0 0 0 
trait 2 0.2 0 0 0 0.166122 0.12075 0 0 
trait 3 0.65 0 0 0 0.475204 0.499283 0 0 
node 1 3 1 3
node 2 1 1 1
node 3 1 1 1
node 4 1 0 2
node 7 1 0 0
node 26 1 0 0
node 43 1 0 0
node 61 1 0 0
node 196 1 0 0
node 219 1 0 0
node 229 1 0 0
node 255 1 0 0
gene 2 1 4 1.72417 0 1 1.72417 1
gene 1 2 4 8 0 2 8 1
gene 3 3 4 0.76487 0 3 0.76487 1
gene 1 3 7 -2.68652 0 8 -2.68652 1
gene 1 7 4 0.201346 0 9 0.201346 1
gene 1 1 7 2.23651 0 34 2.23651 1
gene 1 2 7 -7.5411 0 47 -7.5411 1
gene 1 3 26 -2.6384 0 72 -2.6384 1
gene 3 26 7 4.33918 0 73 4.33918 1
gene 1 26 43 -2.16271 0 126 -2.16271 0
gene 1 43 7 -0.618744 0 127 -0.618744 1
gene 3 3 43 2.75198 0 176 2.75198 1
gene 1 26 61 1.91889 0 185 1.91889 0
gene 2 61 43 -2.17104 0 186 -2.17104 1
gene 1 1 43 -1.11948 0 267 -1.11948 1
gene 1 3 61 2.43151 0 326 2.43151 0
gene 3 43 4 1.00078 0 487 1.00078 0
gene 1 1 26 4.18649 0 514 4.18649 1
gene 1 2 43 1.88198 0 632 1.88198 0
gene 1 3 196 4.65286 0 638 4.65286 1
gene 1 196 7 -1.10703 0 639 -1.10703 1
gene 1 26 219 -0.279738 0 706 -0.279738 1
gene 1 219 61 0.534913 0 707 0.534913 0
gene 1 219 229 -2.26547 0 748 -2.26547 1
gene 1 229 61 -0.635548 0 749 -0.635548 1
gene 3 43 255 -0.408643 0 834 -0.408643 1
gene 3 255 4 1.17816 0 835 1.17816 1
genomeend 44

/* Organism #45 Fitness: 9 Error: 1 */
genomestart 45
trait 1 0.1 0 0 0 0 0 0 0 
trait 2 0.2 0 0 0 0.110748 0.0805002 0 0 
trait 3 0.65 0 0 0 0.475204 0.499283 0 0 
node 1 3 1 3
node 2 1 1 1
node 3 1 1 1
node 4 1 0 2
node 7 1 0 0
node 26 1 0 0
node 43 1 0 0
node 61 1 0 0
node 196 1 0 0
node 219 1 0 0
node 229 1 0 0
node 255 1 0 0
gene 2 1 4 -0.0381252 0 1 -0.0381252 1
gene 1 2 4 6.05014 0 2 6.05014 1
gene 3 3 4 6.01599 0 3 6.01599 1
gene 1 3 7 -2.59567 0 8 -2.59567 1
gene 1 7 4 -8 0 9 -8 1
gene 1 1 7 0.857532 0 34 0.857532 1
gene 1 2 7 -8 0 47 -8 1
gene 1 3 26 -3.74958 0 72 -3.74958 1
gene 3 26 7 0.0656529 0 73 0.0656529 1
gene 1 26 43 -2.15083 0 126 -2.15083 0
gene 1 43 7 -2.4823 0 127 -2.4823 1
gene 3 3 43 -1.34762 0 176 -1.34762 1
gene 1 26 61 2.02484 0 185 2.02484 0
gene 2 61 43 -1.49681 0 186 -1.49681 1
gene 1 1 43 -0.740913 0 267 -0.740913 1
gene 1 3 61 0.560091 0 326 0.560091 1
gene 3 43 4 -0.78753 0 487 -0.78753 1
gene 1 1 26 -0.549867 0 514 -0.549867 1
gene 1 2 43 0.928892 0 632 0.928892 0
gene 1 3 196 3.86418 0 638 3.86418 1
gene 1 196 7 -1.38644 0 639 -1.38644 1
gene 1 26 219 0.447939 0 706 0.447939 1
gene 1 219 61 1.48598 0 707 1.48598 0
gene 1 219 229 -0.785775 0 748 -0.785775 1
gene 1 229 61 0.640297 0 749 0.640297 1
gene 3 43 255 -2.12302 0 834 -2.12302 1
gene 3 255 4 4.08619 0 835 4.08619 1
genomeend 45

/* Organism #46 Fitness: 9 Error: 1 */
genomestart 46
trait 1 0.1 0 0 0 0 0 0 0 
trait 2 0.2 0 0 0 0.138435 0.100625 0 0 
trait 3 0.65 0 0 0 0.475204 0.499283 0 0 
node 1 3 1 3
node 2 1 1 1
node 3 1 1 1
node 4 1 0 2
node 7 1 0 0
node 26 1 0 0
node 43 1 0 0
node 61 1 0 0
node 196 1 0 0
node 219 1 0 0
node 229 1 0 0
node 255 1 0 0
gene 2 1 4 -0.0381252 0 1 -0.0381252 1
gene 1 2 4 7.34809 0 2 7.34809 1
gene 3 3 4 8 0 3 8 1
gene 1 3 7 -3.83686 0 8 -3.83686 1
gene 1 7 4 -7.24918 0 9 -7.24918 1
gene 1 1 7 1.70633 0 34 1.70633 1
gene 1 2 7 -7.5411 0 47 -7.5411 1
gene 1 3 26 -1.79296 0 72 -1.79296 1
gene 3 26 7 2.25909 0 73 2.25909 1
gene 1 26 43 -1.04858 0 126 -1.04858 0
gene 1 43 7 0.0593204 0 127 0.0593204 1
gene 3 3 43 -1.04175 0 176 -1.04175 1
gene 1 26 61 1.91889 0 185 1.91889 0
gene 2 61 43 -2.26923 0 186 -2.26923 1
gene 1 1 43 1.36511 0 267 1.36511 1
gene 1 3 61 2.43151 0 326 2.43151 0
gene 3 43 4 -0.78753 0 487 -0.78753 0
gene 1 1 26 2.55993 0 514 2.55993 1
gene 1 2 43 1.10338 0 632 1.10338 0
gene 1 3 196 2.72538 0 638 2.72538 1
gene 1 196 7 -0.784003 0 639 -0.784003 1
gene 1 26 219 0.736568 0 706 0.736568 1
gene 1 219 61 3.65822 0 707 3.65822 0
gene 1 219 229 0.0176888 0 748 0.0176888 1
gene 1 229 61 0.465011 0 749 0.465011 1
gene 3 43 255 -0.758011 0 834 -0.758011 1
gene 3 255 4 2.6622 0 835 2.6622 1
genomeend 46

/* Organism #47 Fitness: 9 Error: 1 */
genomestart 47
trait 1 0.1 0 0 0 0 0 0 0 
trait 2 0.2 0 0 0 0.110748 0.0805002 0 0 
trait 3 0.65 0 0 0 0.475204 0.499283 0 0 
node 1 3 1 3
node 2 1 1 1
node 3 1 1 1
node 4 1 0 2
node 7 1 0 0
node 26 1 0 0
node 43 1 0 0
node 61 1 0 0
node 196 1 0 0
node 219 1 0 0
node 229 1 0 0
node 255 1 0 0
node 277 1 0 0
gene 2 1 4 -0.0381252 0 1 -0.0381252 1
gene 1 2 4 7.34809 0 2 7.34809 1
gene 3 3 4 8 0 3 8 1
gene 1 3 7 -3.83686 0 8 -3.83686 1
gene 1 7 4 -7.24918 0 9 -7.24918 1
gene 1 1 7 1.70633 0 34 1.70633 1
gene 1 2 7 -8 0 47 -8 1
gene 1 3 26 -1.79296 0 72 -1.79296 1
gene 3 26 7 2.25909 0 73 2.25909 1
gene 1 26 43 -1.04858 0 126 -1.04858 0
gene 1 43 7 0.0593204 0 127 0.0593204 0
gene 3 3 43 -1.04175 0 176 -1.04175 1
gene 1 26 61 2.053 0 185 2.053 0
gene 2 61 43 -2.26923 0 186 -2.26923 1
gene 1 1 43 0.521142 0 267 0.521142 1
gene 1 3 61 2.43151 0 326 2.43151 0
gene 3 43 4 -0.78753 0 487 -0.78753 1
gene 1 1 26 2.55993 0 514 2.55993 1
gene 1 2 43 1.10338 0 632 1.10338 0
gene 1 3 196 2.72538 0 638 2.72538 1
gene 1 196 7 -0.784003 0 639 -0.784003 1
gene 1 26 219 0.736568 0 706 0.736568 1
gene 1 219 61 3.65822 0 707 3.65822 0
gene 1 219 229 1.4143 0 748 1.4143 1
gene 1 229 61 -0.142808 0 749 -0.142808 1
gene 3 43 255 -1.86224 0 834 -1.86224 1
gene 3 255 4 2.6622 0 835 2.6622 1
gene 1 43 277 1 0 900 0 1
gene 1 277 7 0.0593204 0 901 0 1
genomeend 47

/* Organism #48 Fitness: 9 Error: 1 */
genomestart 48
trait 1 0.1 0 0 0 0 0 0 0 
trait 2 0.2 0 0 0 0.138435 0.100625 0 0 
trait 3 0.65 0 0 0 0.475204 0.499283 0 0 
node 1 3 1 3
node 2 1 1 1
node 3 1 1 1
node 4 1 0 2
node 7 1 0 0
node 26 1 0 0
node 43 1 0 0
node 61 1 0 0
node 196 1 0 0
node 219 1 0 0
node 229 1 0 0
node 255 1 0 0
gene 2 1 4 -0.0381252 0 1 -0.0381252 1
gene 1 2 4 7.34809 0 2 7.34809 1
gene 3 3 4 8 0 3 8 1
gene 1 3 7 -3.26169 0 8 -3.26169 1
gene 1 7 4 -7.24918 0 9 -7.24918 1
gene 1 1 7 1.70633 0 34 1.70633 1
gene 1 2 7 -7.77055 0 47 -7.77055 1
gene 1 3 26 -1.79296 0 72 -1.79296 1
gene 3 26 7 2.14847 0 73 2.14847 1
gene 1 26 43 -0.633593 0 126 -0.633593 1
gene 1 43 7 -0.096944 0 127 -0.096944 1
gene 3 3 43 0.339506 0 176 0.339506 1
gene 1 26 61 1.98594 0 185 1.98594 0
gene 2 61 43 -2.26923 0 186 -2.26923 1
gene 1 1 43 0.943127 0 267 0.943127 1
gene 1 3 61 2.43151 0 326 2.43151 0
gene 3 43 4 -0.78753 0 487 -0.78753 0
gene 1 1 26 2.55993 0 514 2.55993 1
gene 1 2 43 1.10338 0 632 1.10338 0
gene 1 3 196 2.72538 0 638 2.72538 1
gene 1 196 7 -0.983934 0 639 -0.983934 1
gene 1 26 219 0.228415 0 706 0.228415 1
gene 1 219 61 3.65822 0 707 3.65822 0
gene 1 219 229 0.715996 0 748 0.715996 1
gene 1 229 61 0.161102 0 749 0.161102 1
gene 3 43 255 -1.31013 0 834 -1.31013 1
gene 3 255 4 2.6622 0 835 2.6622 1
genomeend 48

/* Organism #49 Fitness: 5.0983 Error: 1.74206 */
genomestart 49
trait 1 0.1 0 0 0 0 0 0 0 
trait 2 0.2 0 0 0 0.138435 0.100625 0 0 
trait 3 0.65 0 0 0 0.475204 0.499283 0 0 
node 1 3 1 3
node 2 1 1 1
node 3 1 1 1
node 4 1 0 2
node 7 1 0 0
node 26 1 0 0
node 43 1 0 0
node 61 1 0 0
node 196 1 0 0
node 219 1 0 0
node 229 1 0 0
node 255 1 0 0
gene 2 1 4 0.412229 0 1 0.412229 1
gene 1 2 4 0.890835 0 2 0.890835 1
gene 3 3 4 6.56288 0 3 6.56288 1
gene 1 3 7 -4.55094 0 8 -4.55094 1
gene 1 7 4 -7.24918 0 9 -7.24918 1
gene 1 1 7 2.22316 0 34 2.22316 1
gene 1 2 7 -5.40247 0 47 -5.40247 1
gene 1 3 26 -1.13643 0 72 -1.13643 1
gene 3 26 7 -2.11325 0 73 -2.11325 1
gene 1 26 43 -1.3523 0 126 -1.3523 1
gene 1 43 7 -0.096944 0 127 -0.096944 1
gene 3 3 43 1.57238 0 176 1.57238 1
gene 1 26 61 -1.06159 0 185 -1.06159 0
gene 2 61 43 0.00279435 0 186 0.00279435 1
gene 1 1 43 -1.26756 0 267 -1.26756 1
gene 1 3 61 0.406201 0 326 0.406201 0
gene 3 43 4 -1.395 0 487 -1.395 0
gene 1 1 26 2.55993 0 514 2.55993 1
gene 1 2 43 -1.0294 0 632 -1.0294 0
gene 1 3 196 1.43293 0 638 1.43293 1
gene 1 196 7 -1.39715 0 639 -1.39715 1
gene 1 26 219 0.228415 0 706 0.228415 1
gene 1 219 61 3.65822 0 707 3.65822 0
gene 1 219 229 -1.13632 0 748 -1.13632 1
gene 1 229 61 -2.27305 0 749 -2.27305 1
gene 3 43 255 -2.45915 0 834 -2.45915 1
gene 3 255 4 0.36034 0 835 0.36034 1
genomeend 49

/* Organism #50 Fitness: 4.00005 Error: 1.99999 */
genomestart 50
trait 1 0.1 0 0 0 0 0 0 0 
trait 2 0.2 0 0 0 0.110748 0.0805002 0 0 
trait 3 0.65 0 0 0 0.475204 0.499283 0 0 
node 1 3 1 3
node 2 1 1 1
node 3 1 1 1
node 4 1 0 2
node 7 1 0 0
node 26 1 0 0
node 43 1 0 0
node 61 1 0 0
node 196 1 0 0
node 219 1 0 0
node 229 1 0 0
node 255 1 0 0
gene 2 1 4 0.201521 0 1 0.201521 1
gene 1 2 4 6.53211 0 2 6.53211 1
gene 3 3 4 7.68062 0 3 7.68062 1
gene 1 3 7 -3.83686 0 8 -3.83686 1
gene 1 7 4 -5.9439 0 9 -5.9439 1
gene 1 1 7 0.193258 0 34 0.193258 1
gene 1 2 7 1.7935 0 47 1.7935 1
gene 1 3 26 -0.1133 0 72 -0.1133 1
gene 3 26 7 0.408567 0 73 0.408567 1
gene 1 26 43 -3.47663 0 126 -3.47663 0
gene 1 43 7 -2.27832 0 127 -2.27832 1
gene 3 3 43 -1.22196 0 176 -1.22196 1
gene 1 26 61 3.87526 0 185 3.87526 0
gene 2 61 43 0.150533 0 186 0.150533 1
gene 1 1 43 1.9858 0 267 1.9858 1
gene 1 3 61 4.25568 0 326 4.25568 1
gene 3 43 4 2.07434 0 487 2.07434 1
gene 1 1 26 3.57078 0 514 3.57078 1
gene 1 2 43 0.228568 0 632 0.228568 0
gene 1 3 196 2.91574 0 638 2.91574 1
gene 1 196 7 -1.03097 0 639 -1.03097 1
gene 1 26 219 -1.68775 0 706 -1.68775 1
gene 1 219 61 -0.381176 0 707 -0.381176 0
gene 1 219 229 0.534684 0 748 0.534684 1
gene 1 229 61 -0.142808 0 749 -0.142808 1
gene 3 43 255 -3.80932 0 834 -3.80932 1
gene 3 255 4 2.6622 0 835 2.6622 1
genomeend 50

/* Organism #51 Fitness: 8.96427 Error: 1.00596 */
genomestart 51
trait 1 0.1 0 0 0 0 0 0 0 
trait 2 0.2 0 0 0 0.635453 0 0 0 
trait 3 0.65 0 0 0 0.475204 0.499283 0 0 
node 1 3 1 3
node 2 1 1 1
node 3 1 1 1
node 4 1 0 2
node 7 1 0 0
node 26 1 0 0
node 43 1 0 0
node 61 1 0 0
node 196 1 0 0
node 219 1 0 0
node 229 1 0 0
node 255 1 0 0
gene 2 1 4 1.87638 0 1 1.87638 1
gene 1 2 4 5.31419 0 2 5.31419 1
gene 3 3 4 8 0 3 8 1
gene 1 3 7 -2.07594 0 8 -2.07594 1
gene 1 7 4 -5.77582 0 9 -5.77582 1
gene 1 1 7 0.769715 0 34 0.769715 1
gene 1 2 7 -8 0 47 -8 1
gene 1 3 26 -1.79296 0 72 -1.79296 1
gene 3 26 7 2.25909 0 73 2.25909 1
gene 1 26 43 -1.2257 0 126 -1.2257 0
gene 1 43 7 -1.97596 0 127 -1.97596 1
gene 3 3 43 1.41942 0 176 1.41942 1
gene 1 26 61 1.80595 0 185 1.80595 0
gene 2 61 43 -0.0645753 0 186 -0.0645753 1
gene 1 1 43 1.64411 0 267 1.64411 1
gene 1 3 61 0.0805975 0 326 0.0805975 1
gene 3 43 4 2.18909 0 487 2.18909 1
gene 1 1 26 1.28983 0 514 1.28983 1
gene 1 2 43 -0.495636 0 632 -0.495636 0
gene 1 3 196 3.08054 0 638 3.08054 1
gene 1 196 7 -0.784003 0 639 -0.784003 1
gene 1 26 219 0.736568 0 706 0.736568 1
gene 1 219 61 -2.00278 0 707 -2.00278 0
gene 1 219 229 -0.814081 0 748 -0.814081 1
gene 1 229 61 -1.9702 0 749 -1.9702 1
gene 3 43 255 0.253838 0 834 0.253838 1
gene 3 255 4 0.584193 0 835 0.584193 1
genomeend 51

/* Species #52 : (Size 11) (AF 8.24035) (Age 10)  */


/* Organism #52 Fitness: 9 Error: 1 */
genomestart 52
trait 1 0.1 0 0 0 0 0 0.203436 0.113536 
trait 2 0.2 0 0 0 0 0 0 0 
trait 3 0.3 0 0 0 0 0 0 0 
node 1 3 1 3
node 2 1 1 1
node 3 1 1 1
node 4 1 0 2
node 7 1 0 0
node 26 1 0 0
node 43 1 0 0
node 61 1 0 0
node 203 1 0 0
node 238 1 0 0
gene 2 1 4 0.414769 0 1 0.414769 1
gene 1 2 4 8 0 2 8 1
gene 3 3 4 8 0 3 8 1
gene 1 3 7 -5.4304 0 8 -5.4304 1
gene 1 7 4 -8 0 9 -8 1
gene 1 1 7 4.11245 0 34 4.11245 1
gene 1 2 7 -5.9606 0 47 -5.9606 1
gene 1 3 26 -0.247635 0 72 -0.247635 1
gene 3 26 7 0.672781 0 73 0.672781 0
gene 1 26 43 3.15844 0 126 3.15844 0
gene 1 43 7 0.198523 0 127 0.198523 1
gene 1 3 43 5.29759 0 176 5.29759 1
gene 1 26 61 4.24572 0 185 4.24572 0
gene 2 61 43 -1.53336 0 186 -1.53336 1
gene 1 1 43 -1.67489 0 267 -1.67489 1
gene 1 3 61 -3.08291 0 326 -3.08291 1
gene 3 43 4 0.365909 0 487 0.365909 1
gene 1 1 26 -1.43621 0 514 -1.43621 1
gene 1 26 203 3.39822 0 658 3.39822 1
gene 1 203 61 4.5802 0 659 4.5802 1
gene 1 61 7 -0.800195 0 765 -0.800195 1
gene 3 26 238 2.68615 0 777 2.68615 1
gene 3 238 7 -1.60131 0 778 -1.60131 1
genomeend 52

/* Organism #53 Fitness: 9 Error: 1 */
genomestart 53
trait 1 0.1 0 0 0 0 0 0.203436 0.113536 
trait 2 0.2 0 0 0 0 0 0 0 
trait 3 0.3 0 0 0 0 0 0 0 
node 1 3 1 3
node 2 1 1 1
node 3 1 1 1
node 4 1 0 2
node 7 1 0 0
node 26 1 0 0
node 43 1 0 0
node 61 1 0 0
node 203 1 0 0
node 238 1 0 0
gene 2 1 4 -1.58679 0 1 -1.58679 1
gene 1 2 4 7.49698 0 2 7.49698 1
gene 3 3 4 8 0 3 8 1
gene 1 3 7 -7.08367 0 8 -7.08367 1
gene 1 7 4 -7.11237 0 9 -7.11237 1
gene 1 1 7 5.66439 0 34 5.66439 1
gene 1 2 7 -7.35186 0 47 -7.35186 1
gene 1 3 26 1.84723 0 72 1.84723 1
gene 3 26 7 2.77573 0 73 2.77573 0
gene 1 26 43 2.95885 0 126 2.95885 0
gene 1 43 7 -0.0839259 0 127 -0.0839259 1
gene 1 3 43 3.84842 0 176 3.84842 1
gene 1 26 61 2.95273 0 185 2.95273 0
gene 2 61 43 -3.07943 0 186 -3.07943 1
gene 1 1 43 -0.2126 0 267 -0.2126 1
gene 1 3 61 -3.66322 0 326 -3.66322 1
gene 3 43 4 -0.890767 0 487 -0.890767 1
gene 1 1 26 -1.32634 0 514 -1.32634 1
gene 1 26 203 4.66535 0 658 4.66535 1
gene 1 203 61 4.5802 0 659 4.5802 1
gene 1 61 7 1.00177 0 765 1.00177 1
gene 3 26 238 1.63579 0 777 1.63579 1
gene 3 238 7 -0.209815 0 778 -0.209815 1
genomeend 53

/* Organism #54 Fitness: 7.99751 Error: 1.17201 */
genomestart 54
trait 1 0.1 0 0 0 0 0 0.203436 0.113536 
trait 2 0.2 0.0983612 0 0 0 0.127094 0.0920667 0.196646 
trait 3 0.3 0 0.618915 0.988006 0 0 0.83285 0.980285 
node 1 3 1 3
node 2 1 1 1
node 3 1 1 1
node 4 1 0 2
node 7 1 0 0
node 26 1 0 0
node 43 1 0 0
node 61 1 0 0
node 203 1 0 0
node 238 1 0 0
gene 2 1 4 -0.0219504 0 1 -0.0219504 1
gene 1 2 4 8 0 2 8 1
gene 3 3 4 8 0 3 8 1
gene 1 3 7 -2.63956 0 8 -2.63956 1
gene 1 7 4 -6.14364 0 9 -6.14364 1
gene 1 1 7 -0.449995 0 34 -0.449995 1
gene 1 2 7 -7.01803 0 47 -7.01803 1
gene 1 3 26 1.05306 0 72 1.05306 1
gene 3 26 7 -0.109104 0 73 -0.109104 0
gene 1 26 43 4.47752 0 126 4.47752 1
gene 1 43 7 -2.14999 0 127 -2.14999 1
gene 1 3 43 8 0 176 8 1
gene 1 26 61 3.76013 0 185 3.76013 1
gene 2 61 43 0.907315 0 186 0.907315 1
gene 1 1 43 1.2468 0 267 1.2468 1
gene 1 3 61 -1.11652 0 326 -1.11652 0
gene 3 43 4 -0.297678 0 487 -0.297678 1
gene 1 1 26 -2.09987 0 514 -2.09987 1
gene 1 26 203 1.53808 0 658 1.53808 1
gene 1 203 61 -1.19137 0 659 -1.19137 1
gene 1 61 7 0.468917 0 765 0.468917 1
gene 3 26 238 -0.490295 0 777 -0.490295 1
gene 3 238 7 -1.6509 0 778 -1.6509 1
genomeend 54

/* Organism #55 Fitness: 9 Error: 1 */
genomestart 55
trait 1 0.1 0 0 0 0 0 0.203436 0.113536 
trait 2 0.2 0.0491806 0 0 0 0.0635472 0.0460334 0.098323 
trait 3 0.3 0 0.309458 0.494003 0 0 0.416425 0.490143 
node 1 3 1 3
node 2 1 1 1
node 3 1 1 1
node 4 1 0 2
node 7 1 0 0
node 26 1 0 0
node 43 1 0 0
node 61 1 0 0
node 203 1 0 0
node 238 1 0 0
node 278 1 0 0
gene 2 1 4 -0.00981933 0 1 -0.00981933 1
gene 1 2 4 8 0 2 8 1
gene 3 3 4 8 0 3 8 1
gene 1 3 7 -4.03498 0 8 -4.03498 1
gene 1 7 4 -8 0 9 -8 1
gene 1 1 7 3.04666 0 34 3.04666 1
gene 1 2 7 -6.93492 0 47 -6.93492 1
gene 1 3 26 0.402715 0 72 0.402715 1
gene 3 26 7 -0.121941 0 73 -0.121941 0
gene 1 26 43 4.12675 0 126 4.12675 1
gene 1 43 7 -1.07091 0 127 -1.07091 1
gene 1 3 43 5.96366 0 176 5.96366 1
gene 1 26 61 3.28116 0 185 3.28116 0
gene 2 61 43 -0.320006 0 186 -0.320006 1
gene 1 1 43 -1.28552 0 267 -1.28552 1
gene 1 3 61 -1.76312 0 326 -1.76312 1
gene 3 43 4 0.165574 0 487 0.165574 1
gene 1 1 26 -2.37135 0 514 -2.37135 1
gene 1 26 203 3.08699 0 658 3.08699 1
gene 1 203 61 1.10335 0 659 1.10335 1
gene 1 61 7 -1.10546 0 765 -1.10546 1
gene 3 26 238 2.26461 0 777 2.26461 1
gene 3 238 7 -1.97731 0 778 -1.97731 1
gene 1 26 278 1 0 902 0 1
gene 1 278 61 3.28116 0 903 0 1
genomeend 55

/* Organism #56 Fitness: 9 Error: 1 */
genomestart 56
trait 1 0.1 0 0 0 0 0 0.203436 0.113536 
trait 2 0.2 0.0491806 0 0 0 0.0635472 0.0460334 0.098323 
trait 3 0.3 0 0 0 0 0 0 0 
node 1 3 1 3
node 2 1 1 1
node 3 1 1 1
node 4 1 0 2
node 7 1 0 0
node 26 1 0 0
node 43 1 0 0
node 61 1 0 0
node 203 1 0 0
node 238 1 0 0
gene 2 1 4 0.52723 0 1 0.52723 1
gene 1 2 4 7.90272 0 2 7.90272 1
gene 3 3 4 6.9024 0 3 6.9024 1
gene 1 3 7 -4.38232 0 8 -4.38232 1
gene 1 7 4 -8 0 9 -8 1
gene 1 1 7 5.60327 0 34 5.60327 1
gene 1 2 7 -4.60897 0 47 -4.60897 1
gene 1 3 26 0.34946 0 72 0.34946 1
gene 3 26 7 0.887402 0 73 0.887402 0
gene 1 26 43 3.28387 0 126 3.28387 0
gene 1 43 7 1.35403 0 127 1.35403 1
gene 1 3 43 5.16713 0 176 5.16713 1
gene 1 26 61 1.68754 0 185 1.68754 0
gene 2 61 43 -0.688993 0 186 -0.688993 1
gene 1 1 43 0.159726 0 267 0.159726 1
gene 1 3 61 -3.44173 0 326 -3.44173 0
gene 3 43 4 -0.339717 0 487 -0.339717 1
gene 1 1 26 -0.23191 0 514 -0.23191 1
gene 1 26 203 3.5005 0 658 3.5005 1
gene 1 203 61 3.73984 0 659 3.73984 1
gene 1 61 7 -2.3233 0 765 -2.3233 1
gene 3 26 238 1.09598 0 777 1.09598 1
gene 3 238 7 -0.547693 0 778 -0.547693 1
genomeend 56

/* Organism #57 Fitness: 9 Error: 1 */
genomestart 57
trait 1 0.1 0 0 0 0 0 0.203436 0.113536 
trait 2 0.2 0.0983612 0 0 0 0.127094 0.0920667 0.196646 
trait 3 0.3 0 0.618915 0.988006 0 0 0.83285 0.980285 
node 1 3 1 3
node 2 1 1 1
node 3 1 1 1
node 4 1 0 2
node 7 1 0 0
node 26 1 0 0
node 43 1 0 0
node 61 1 0 0
node 203 1 0 0
node 238 1 0 0
gene 2 1 4 -0.434408 0 1 -0.434408 1
gene 1 2 4 8 0 2 8 1
gene 3 3 4 8 0 3 8 1
gene 1 3 7 -2.63956 0 8 -2.63956 1
gene 1 7 4 -8 0 9 -8 1
gene 1 1 7 1.98088 0 34 1.98088 1
gene 1 2 7 -7.90925 0 47 -7.90925 1
gene 1 3 26 1.05306 0 72 1.05306 1
gene 3 26 7 -0.916662 0 73 -0.916662 0
gene 1 26 43 5.09507 0 126 5.09507 1
gene 1 43 7 -2.34035 0 127 -2.34035 1
gene 1 3 43 6.62973 0 176 6.62973 1
gene 1 26 61 2.31661 0 185 2.31661 1
gene 2 61 43 0.893353 0 186 0.893353 1
gene 1 1 43 -0.896138 0 267 -0.896138 1
gene 1 3 61 -0.443327 0 326 -0.443327 0
gene 3 43 4 -0.0347606 0 487 -0.0347606 1
gene 1 1 26 -3.3065 0 514 -3.3065 1
gene 1 26 203 2.77576 0 658 2.77576 1
gene 1 203 61 -2.3735 0 659 -2.3735 1
gene 1 61 7 -1.41072 0 765 -1.41072 1
gene 3 26 238 1.84307 0 777 1.84307 1
gene 3 238 7 -2.35332 0 778 -2.35332 1
gene 1 26 4 -0.614704 0 904 -0.614704 1
genomeend 57

/* Organism #58 Fitness: 9 Error: 1 */
genomestart 58
trait 1 0.1 0 0 0 0 0 0.203436 0.113536 
trait 2 0.2 0.0245903 0 0 0 0.0317736 0.0230167 0.0491615 
trait 3 0.3 0 0 0 0 0 0 0 
node 1 3 1 3
node 2 1 1 1
node 3 1 1 1
node 4 1 0 2
node 7 1 0 0
node 26 1 0 0
node 43 1 0 0
node 61 1 0 0
node 203 1 0 0
node 238 1 0 0
gene 2 1 4 0.414769 0 1 0.414769 1
gene 1 2 4 8 0 2 8 1
gene 3 3 4 8 0 3 8 1
gene 1 3 7 -4.58695 0 8 -4.58695 1
gene 1 7 4 -8 0 9 -8 1
gene 1 1 7 4.11672 0 34 4.11672 1
gene 1 2 7 -6.3232 0 47 -6.3232 1
gene 1 3 26 -0.247635 0 72 -0.247635 1
gene 3 26 7 0.672781 0 73 0.672781 0
gene 1 26 43 3.15844 0 126 3.15844 0
gene 1 43 7 0.198523 0 127 0.198523 1
gene 1 3 43 5.29759 0 176 5.29759 1
gene 1 26 61 4.24572 0 185 4.24572 0
gene 2 61 43 -1.53336 0 186 -1.53336 1
gene 1 1 43 -2.08674 0 267 -2.08674 1
gene 1 3 61 -3.08291 0 326 -3.08291 0
gene 3 43 4 0.365909 0 487 0.365909 1
gene 1 1 26 -1.73785 0 514 -1.73785 1
gene 1 26 203 2.57846 0 658 2.57846 1
gene 1 203 61 4.5802 0 659 4.5802 1
gene 1 61 7 -0.800195 0 765 -0.800195 1
gene 3 26 238 2.68615 0 777 2.68615 1
gene 3 238 7 -0.547693 0 778 -0.547693 1
gene 3 1 238 0.243019 0 905 0.243019 1
genomeend 58

/* Organism #59 Fitness: 9 Error: 1 */
genomestart 59
trait 1 0.1 0 0 0 0 0 0.203436 0.113536 
trait 2 0.2 0.0245903 0 0 0 0.0317736 0.0230167 0.0491615 
trait 3 0.3 0 0 0 0 0 0 0 
node 1 3 1 3
node 2 1 1 1
node 3 1 1 1
node 4 1 0 2
node 7 1 0 0
node 26 1 0 0
node 43 1 0 0
node 61 1 0 0
node 203 1 0 0
node 238 1 0 0
gene 2 1 4 0.414769 0 1 0.414769 1
gene 1 2 4 8 0 2 8 1
gene 3 3 4 8 0 3 8 1
gene 1 3 7 -4.58695 0 8 -4.58695 1
gene 1 7 4 -8 0 9 -8 1
gene 1 1 7 4.11672 0 34 4.11672 1
gene 1 2 7 -5.9606 0 47 -5.9606 1
gene 1 3 26 -0.247635 0 72 -0.247635 1
gene 3 26 7 0.672781 0 73 0.672781 0
gene 1 26 43 3.15844 0 126 3.15844 0
gene 1 43 7 0.198523 0 127 0.198523 1
gene 1 3 43 5.29759 0 176 5.29759 1
gene 1 26 61 3.40551 0 185 3.40551 0
gene 2 61 43 -1.53336 0 186 -1.53336 1
gene 1 1 43 -2.08674 0 267 -2.08674 1
gene 1 3 61 -3.08291 0 326 -3.08291 0
gene 3 43 4 1.15287 0 487 1.15287 1
gene 1 1 26 -1.73785 0 514 -1.73785 1
gene 1 26 203 3.39822 0 658 3.39822 1
gene 1 203 61 3.73984 0 659 3.73984 1
gene 1 61 7 -0.800195 0 765 -0.800195 1
gene 3 26 238 2.68615 0 777 2.68615 1
gene 3 238 7 -0.547693 0 778 -0.547693 1
genomeend 59

/* Organism #60 Fitness: 8.99976 Error: 1.00004 */
genomestart 60
trait 1 0.1 0 0 0 0 0 0.203436 0.113536 
trait 2 0.2 0.0983612 0 0 0 0.127094 0.0920667 0.196646 
trait 3 0.3 0 0.618915 0.988006 0 0 0.83285 0.980285 
node 1 3 1 3
node 2 1 1 1
node 3 1 1 1
node 4 1 0 2
node 7 1 0 0
node 26 1 0 0
node 43 1 0 0
node 61 1 0 0
node 203 1 0 0
node 238 1 0 0
gene 2 1 4 0.204421 0 1 0.204421 1
gene 1 2 4 8 0 2 8 1
gene 3 3 4 8 0 3 8 1
gene 1 3 7 -0.452986 0 8 -0.452986 1
gene 1 7 4 -8 0 9 -8 1
gene 1 1 7 0.924329 0 34 0.924329 1
gene 1 2 7 -7.90925 0 47 -7.90925 1
gene 1 3 26 -1.76984 0 72 -1.76984 1
gene 3 26 7 2.28248 0 73 2.28248 0
gene 1 26 43 6.48564 0 126 6.48564 1
gene 1 43 7 -2.34035 0 127 -2.34035 1
gene 1 3 43 6.21475 0 176 6.21475 1
gene 1 26 61 1.32697 0 185 1.32697 1
gene 2 61 43 1.25828 0 186 1.25828 1
gene 1 1 43 -1.29093 0 267 -1.29093 1
gene 1 3 61 1.13521 0 326 1.13521 0
gene 3 43 4 0.584307 0 487 0.584307 1
gene 1 1 26 -2.68369 0 514 -2.68369 1
gene 1 26 203 1.1083 0 658 1.1083 1
gene 1 203 61 -4.39261 0 659 -4.39261 1
gene 1 61 7 -1.03938 0 765 -1.03938 1
gene 3 26 238 3.34008 0 777 3.34008 1
gene 3 238 7 -2.21774 0 778 -2.21774 1
genomeend 60

/* Organism #61 Fitness: 9 Error: 1 */
genomestart 61
trait 1 0.1 0 0 0 0 0 0.203436 0.113536 
trait 2 0.2 0.0737709 0 0 0 0.0953207 0.06905 0.147485 
trait 3 0.3 0 0.309458 0.494003 0 0 0.416425 0.490143 
node 1 3 1 3
node 2 1 1 1
node 3 1 1 1
node 4 1 0 2
node 7 1 0 0
node 26 1 0 0
node 43 1 0 0
node 61 1 0 0
node 203 1 0 0
node 238 1 0 0
gene 2 1 4 2.13441 0 1 2.13441 1
gene 1 2 4 8 0 2 8 1
gene 3 3 4 8 0 3 8 1
gene 1 3 7 -3.79919 0 8 -3.79919 1
gene 1 7 4 -8 0 9 -8 1
gene 1 1 7 2.256 0 34 2.256 1
gene 1 2 7 -7.26714 0 47 -7.26714 1
gene 1 3 26 2.96303 0 72 2.96303 1
gene 3 26 7 -0.629997 0 73 -0.629997 0
gene 1 26 43 3.06516 0 126 3.06516 1
gene 1 43 7 -1.30896 0 127 -1.30896 1
gene 1 3 43 6.04591 0 176 6.04591 1
gene 1 26 61 2.86106 0 185 2.86106 1
gene 2 61 43 -0.999329 0 186 -0.999329 1
gene 1 1 43 -2.15926 0 267 -2.15926 1
gene 1 3 61 -1.09728 0 326 -1.09728 1
gene 3 43 4 -0.855861 0 487 -0.855861 1
gene 1 1 26 -1.95384 0 514 -1.95384 1
gene 1 26 203 1.0755 0 658 1.0755 1
gene 1 203 61 0.145051 0 659 0.145051 1
gene 1 61 7 -2.1807 0 765 -2.1807 1
gene 3 26 238 4.16103 0 777 4.16103 1
gene 3 238 7 0.948668 0 778 0.948668 1
genomeend 61

/* Organism #62 Fitness: 1.64658 Error: 2.71681 */
genomestart 62
trait 1 0.1 0 0 0 0 0 0.203436 0.113536 
trait 2 0.2 0.0245903 0 0 0 0.0317736 0.0230167 0.0491615 
trait 3 0.3 0 0 0 0 0 0 0 
node 1 3 1 3
node 2 1 1 1
node 3 1 1 1
node 4 1 0 2
node 7 1 0 0
node 26 1 0 0
node 43 1 0 0
node 61 1 0 0
node 203 1 0 0
node 238 1 0 0
gene 2 1 4 1.05062 0 1 1.05062 1
gene 1 2 4 8 0 2 8 1
gene 3 3 4 8 0 3 8 1
gene 1 3 7 -2.61183 0 8 -2.61183 1
gene 1 7 4 -8 0 9 -8 1
gene 1 1 7 6.21242 0 34 6.21242 1
gene 1 2 7 -1.09844 0 47 -1.09844 1
gene 1 3 26 0.15212 0 72 0.15212 1
gene 3 26 7 2.48398 0 73 2.48398 0
gene 1 26 43 4.05583 0 126 4.05583 1
gene 1 43 7 2.58637 0 127 2.58637 1
gene 1 3 43 -0.686361 0 176 -0.686361 1
gene 1 26 61 3.88924 0 185 3.88924 0
gene 2 61 43 2.39418 0 186 2.39418 1
gene 1 1 43 0.624104 0 267 0.624104 1
gene 1 3 61 -3.39405 0 326 -3.39405 0
gene 3 43 4 -1.41659 0 487 -1.41659 1
gene 1 1 26 -1.12284 0 514 -1.12284 1
gene 1 26 203 2.98834 0 658 2.98834 1
gene 1 203 61 1.98424 0 659 1.98424 1
gene 1 61 7 -0.479293 0 765 -0.479293 1
gene 3 26 238 0.800729 0 777 0.800729 1
gene 3 238 7 -2.62713 0 778 -2.62713 1
genomeend 62

/* Species #53 : (Size 8) (AF 6.32871) (Age 9)  */


/* Organism #63 Fitness: 9 Error: 1 */
genomestart 63
trait 1 0.1 0 0 0 0 0 0 0 
trait 2 0.2 0 0 0 0 0 0 0 
trait 3 0.3 0 0 0 0 0 0 0 
node 1 3 1 3
node 2 1 1 1
node 3 1 1 1
node 4 1 0 2
node 7 1 0 0
node 26 1 0 0
node 43 1 0 0
node 61 1 0 0
node 196 1 0 0
node 241 2 0 0
gene 2 1 4 1.55721 0 1 1.55721 1
gene 1 2 4 0.58153 0 2 0.58153 1
gene 3 3 4 -0.856273 0 3 -0.856273 0
gene 1 3 7 0.962935 0 8 0.962935 0
gene 1 7 4 -8 0 9 -8 1
gene 1 1 7 2.92753 0 34 2.92753 1
gene 1 2 7 -6.792 0 47 -6.792 1
gene 1 3 26 0.0116733 0 72 0.0116733 1
gene 3 26 7 -4.42446 0 73 -4.42446 1
gene 1 26 43 2.65011 0 126 2.65011 0
gene 1 43 7 -2.40295 0 127 -2.40295 1
gene 3 3 43 4.34778 0 176 4.34778 1
gene 1 26 61 -1.18984 0 185 -1.18984 1
gene 2 61 43 -0.524384 0 186 -0.524384 1
gene 1 1 43 -2.07675 0 267 -2.07675 1
gene 1 3 61 3.45843 0 326 3.45843 0
gene 3 43 4 5.44568 0 487 5.44568 1
gene 1 1 26 -1.17283 0 514 -1.17283 1
gene 1 2 43 -1.11257 0 632 -1.11257 0
gene 1 3 196 3.59531 0 638 3.59531 1
gene 1 196 7 -0.271077 0 639 -0.271077 1
gene 1 43 196 2.42363 0 708 2.42363 1
gene 1 26 196 4.58225 0 718 4.58225 0
gene 2 61 196 -0.86314 0 780 -0.86314 1
gene 3 3 241 4.91926 0 790 4.91926 1
gene 3 241 4 4.54546 0 791 4.54546 1
genomeend 63

/* Organism #64 Fitness: 4 Error: 2 */
genomestart 64
trait 1 0.1 0 0 0 0 0 0 0 
trait 2 0.2 0 0 0 0 0 0 0 
trait 3 0.3 0 0 0 0 0 0 0 
node 1 3 1 3
node 2 1 1 1
node 3 1 1 1
node 4 1 0 2
node 7 1 0 0
node 26 1 0 0
node 43 1 0 0
node 61 1 0 0
node 196 1 0 0
node 241 2 0 0
gene 2 1 4 2.308 0 1 2.308 1
gene 1 2 4 2.33959 0 2 2.33959 1
gene 3 3 4 -3.21619 0 3 -3.21619 1
gene 1 3 7 -0.766396 0 8 -0.766396 0
gene 1 7 4 -7.00967 0 9 -7.00967 1
gene 1 1 7 2.34062 0 34 2.34062 1
gene 1 2 7 -6.44581 0 47 -6.44581 1
gene 1 3 26 2.08045 0 72 2.08045 1
gene 3 26 7 -2.93554 0 73 -2.93554 1
gene 1 26 43 3.29566 0 126 3.29566 0
gene 1 43 7 -2.09803 0 127 -2.09803 1
gene 3 3 43 3.12178 0 176 3.12178 1
gene 1 26 61 -2.47784 0 185 -2.47784 1
gene 2 61 43 -1.74856 0 186 -1.74856 1
gene 1 1 43 -2.96506 0 267 -2.96506 1
gene 1 3 61 3.63185 0 326 3.63185 0
gene 3 43 4 5.99528 0 487 5.99528 1
gene 1 1 26 -3.33621 0 514 -3.33621 1
gene 1 2 43 -0.445357 0 632 -0.445357 1
gene 1 3 196 4.2605 0 638 4.2605 1
gene 1 196 7 0.361534 0 639 0.361534 1
gene 1 43 196 4.20469 0 708 4.20469 1
gene 1 26 196 5.46218 0 718 5.46218 0
gene 2 61 196 -2.63131 0 780 -2.63131 1
gene 3 3 241 4.91926 0 790 4.91926 1
gene 3 241 4 2.31219 0 791 2.31219 1
genomeend 64

/* Organism #65 Fitness: 9 Error: 1 */
genomestart 65
trait 1 0.1 0 0 0 0 0 0 0 
trait 2 0.2 0 0 0 0 0 0 0 
trait 3 0.3 0 0 0 0 0 0 0 
node 1 3 1 3
node 2 1 1 1
node 3 1 1 1
node 4 1 0 2
node 7 1 0 0
node 26 1 0 0
node 43 1 0 0
node 61 1 0 0
node 196 1 0 0
node 241 1 0 0
gene 2 1 4 1.55721 0 1 1.55721 1
gene 1 2 4 2.17727 0 2 2.17727 1
gene 3 3 4 4.03964 0 3 4.03964 0
gene 1 3 7 0.962935 0 8 0.962935 0
gene 1 7 4 -8 0 9 -8 1
gene 1 1 7 2.92753 0 34 2.92753 1
gene 1 2 7 -6.792 0 47 -6.792 1
gene 1 3 26 -0.492874 0 72 -0.492874 1
gene 3 26 7 -4.42446 0 73 -4.42446 1
gene 1 26 43 -0.436567 0 126 -0.436567 0
gene 1 43 7 -3.46706 0 127 -3.46706 1
gene 3 3 43 4.52021 0 176 4.52021 1
gene 1 26 61 2.08199 0 185 2.08199 1
gene 2 61 43 -0.524384 0 186 -0.524384 1
gene 1 1 43 -1.17122 0 267 -1.17122 1
gene 1 3 61 0.935499 0 326 0.935499 0
gene 3 43 4 4.32157 0 487 4.32157 1
gene 1 1 26 -1.17283 0 514 -1.17283 1
gene 1 2 43 1.68915 0 632 1.68915 0
gene 1 3 196 3.59531 0 638 3.59531 1
gene 1 196 7 -0.271077 0 639 -0.271077 1
gene 1 43 196 3.21505 0 708 3.21505 1
gene 1 26 196 4.58225 0 718 4.58225 0
gene 2 61 196 -0.86314 0 780 -0.86314 1
gene 3 3 241 4.80196 0 790 4.80196 1
gene 3 241 4 4.54546 0 791 4.54546 1
genomeend 65

/* Organism #66 Fitness: 4 Error: 2 */
genomestart 66
trait 1 0.1 0 0 0 0 0 0 0 
trait 2 0.2 0 0 0 0 0 0 0 
trait 3 0.3 0 0 0 0 0 0 0 
node 1 3 1 3
node 2 1 1 1
node 3 1 1 1
node 4 1 0 2
node 7 1 0 0
node 26 1 0 0
node 43 1 0 0
node 61 1 0 0
node 196 1 0 0
node 241 1 0 0
gene 2 1 4 0.21424 0 1 0.21424 1
gene 1 2 4 1.74055 0 2 1.74055 1
gene 3 3 4 1.99268 0 3 1.99268 0
gene 1 3 7 -0.368511 0 8 -0.368511 0
gene 1 7 4 -1.91252 0 9 -1.91252 1
gene 1 1 7 0.0706503 0 34 0.0706503 1
gene 1 2 7 -7.98325 0 47 -7.98325 1
gene 1 3 26 1.01505 0 72 1.01505 1
gene 3 26 7 -4.44456 0 73 -4.44456 1
gene 1 26 43 -2.31399 0 126 -2.31399 1
gene 1 43 7 -1.63244 0 127 -1.63244 1
gene 3 3 43 4.52021 0 176 4.52021 1
gene 1 26 61 1.42965 0 185 1.42965 1
gene 2 61 43 0.611515 0 186 0.611515 1
gene 1 1 43 2.29598 0 267 2.29598 1
gene 1 3 61 -0.16599 0 326 -0.16599 0
gene 3 43 4 5.32913 0 487 5.32913 1
gene 1 1 26 -1.04831 0 514 -1.04831 1
gene 1 2 43 0.104549 0 632 0.104549 0
gene 1 3 196 1.81234 0 638 1.81234 1
gene 2 196 7 3.23697 0 639 3.23697 1
gene 1 43 196 4.39985 0 708 4.39985 1
gene 1 26 196 3.10671 0 718 3.10671 1
gene 2 61 196 0.67465 0 780 0.67465 1
gene 3 3 241 4.3245 0 790 4.3245 1
gene 3 241 4 5.11596 0 791 5.11596 1
genomeend 66

/* Organism #67 Fitness: 4 Error: 2 */
genomestart 67
trait 1 0.1 0 0 0 0 0 0 0 
trait 2 0.2 0 0 0 0 0 0 0 
trait 3 0.3 0 0 0 0 0 0 0 
node 1 3 1 3
node 2 1 1 1
node 3 1 1 1
node 4 1 0 2
node 7 1 0 0
node 26 1 0 0
node 43 1 0 0
node 61 1 0 0
node 196 1 0 0
node 241 1 0 0
gene 2 1 4 2.13478 0 1 2.13478 1
gene 1 2 4 -0.600948 0 2 -0.600948 1
gene 3 3 4 1.88947 0 3 1.88947 0
gene 1 3 7 -2.35076 0 8 -2.35076 0
gene 1 7 4 -7.20988 0 9 -7.20988 1
gene 1 1 7 0.875958 0 34 0.875958 1
gene 1 2 7 -6.64309 0 47 -6.64309 1
gene 1 3 26 -1.12838 0 72 -1.12838 1
gene 3 26 7 -1.34068 0 73 -1.34068 1
gene 1 26 43 2.61706 0 126 2.61706 0
gene 1 43 7 -0.715011 0 127 -0.715011 1
gene 3 3 43 3.25041 0 176 3.25041 1
gene 1 26 61 0.446072 0 185 0.446072 1
gene 2 61 43 1.42918 0 186 1.42918 1
gene 1 1 43 0.749821 0 267 0.749821 1
gene 1 3 61 2.48628 0 326 2.48628 0
gene 3 43 4 4.26768 0 487 4.26768 1
gene 1 1 26 0.557765 0 514 0.557765 1
gene 1 2 43 0.813589 0 632 0.813589 0
gene 1 3 196 4.56243 0 638 4.56243 1
gene 2 196 7 3.12007 0 639 3.12007 1
gene 1 43 196 4.88247 0 708 4.88247 1
gene 1 26 196 4.59695 0 718 4.59695 0
gene 2 61 196 1.79527 0 780 1.79527 1
gene 3 3 241 5.17777 0 790 5.17777 1
gene 3 241 4 8 0 791 8 1
genomeend 67

/* Organism #68 Fitness: 8.31483 Error: 1.11645 */
genomestart 68
trait 1 0.1 0 0 0 0 0 0 0 
trait 2 0.2 0 0 0 0 0 0 0 
trait 3 0.3 0 0 0 0 0 0 0 
node 1 3 1 3
node 2 1 1 1
node 3 1 1 1
node 4 1 0 2
node 7 1 0 0
node 26 1 0 0
node 43 1 0 0
node 61 1 0 0
node 196 1 0 0
node 241 2 0 0
node 279 1 0 0
gene 2 1 4 1.55721 0 1 1.55721 1
gene 1 2 4 0.58153 0 2 0.58153 1
gene 3 3 4 -0.856273 0 3 -0.856273 0
gene 1 3 7 0.962935 0 8 0.962935 0
gene 1 7 4 -8 0 9 -8 0
gene 1 1 7 2.92753 0 34 2.92753 1
gene 1 2 7 -6.792 0 47 -6.792 1
gene 1 3 26 0.0116733 0 72 0.0116733 1
gene 3 26 7 -4.42446 0 73 -4.42446 1
gene 1 26 43 2.65011 0 126 2.65011 0
gene 1 43 7 -2.40295 0 127 -2.40295 1
gene 3 3 43 4.34778 0 176 4.34778 1
gene 1 26 61 -1.18984 0 185 -1.18984 1
gene 2 61 43 -0.524384 0 186 -0.524384 1
gene 1 1 43 -2.07675 0 267 -2.07675 1
gene 1 3 61 3.45843 0 326 3.45843 0
gene 3 43 4 5.44568 0 487 5.44568 1
gene 1 1 26 -1.17283 0 514 -1.17283 1
gene 1 2 43 -1.11257 0 632 -1.11257 0
gene 1 3 196 3.59531 0 638 3.59531 1
gene 1 196 7 -0.271077 0 639 -0.271077 1
gene 1 43 196 2.42363 0 708 2.42363 1
gene 1 26 196 4.58225 0 718 4.58225 0
gene 2 61 196 -0.86314 0 780 -0.86314 1
gene 3 3 241 4.91926 0 790 4.91926 1
gene 3 241 4 4.54546 0 791 4.54546 1
gene 1 7 279 1 0 906 0 1
gene 1 279 4 -8 0 907 0 1
genomeend 68

/* Organism #69 Fitness: 4 Error: 2 */
genomestart 69
trait 1 0.1 0 0 0 0 0 0 0 
trait 2 0.2 0 0 0 0 0 0 0 
trait 3 0.3 0 0 0 0 0 0 0 
node 1 3 1 3
node 2 1 1 1
node 3 1 1 1
node 4 1 0 2
node 7 1 0 0
node 26 1 0 0
node 43 1 0 0
node 61 1 0 0
node 196 1 0 0
node 241 2 0 0
gene 2 1 4 4.01448 0 1 4.01448 1
gene 1 2 4 0.66744 0 2 0.66744 1
gene 3 3 4 -4.1464 0 3 -4.1464 0
gene 1 3 7 2.57561 0 8 2.57561 0
gene 1 7 4 -6.07871 0 9 -6.07871 1
gene 1 1 7 1.49293 0 34 1.49293 1
gene 1 2 7 -6.95436 0 47 -6.95436 1
gene 1 3 26 -0.99559 0 72 -0.99559 1
gene 3 26 7 -4.59948 0 73 -4.59948 1
gene 1 26 43 1.36788 0 126 1.36788 0
gene 1 43 7 -3.29058 0 127 -3.29058 1
gene 3 3 43 6.57525 0 176 6.57525 1
gene 1 26 61 0.531632 0 185 0.531632 1
gene 2 61 43 -1.75855 0 186 -1.75855 1
gene 1 1 43 -4.54608 0 267 -4.54608 1
gene 1 3 61 5.16029 0 326 5.16029 0
gene 3 43 4 3.64585 0 487 3.64585 1
gene 1 1 26 1.06616 0 514 1.06616 1
gene 1 2 43 2.65868 0 632 2.65868 0
gene 1 3 196 4.09605 0 638 4.09605 1
gene 2 196 7 -0.105056 0 639 -0.105056 1
gene 1 43 196 -1.57498 0 708 -1.57498 1
gene 1 26 196 8 0 718 8 0
gene 2 61 196 -0.86314 0 780 -0.86314 1
gene 3 3 241 4.93857 0 790 4.93857 1
gene 3 241 4 4.45405 0 791 4.45405 1
genomeend 69

/* Organism #70 Fitness: 8.31483 Error: 1.11645 */
genomestart 70
trait 1 0.1 0 0 0 0 0 0 0 
trait 2 0.2 0 0 0 0 0 0 0 
trait 3 0.3 0 0 0 0 0 0 0 
node 1 3 1 3
node 2 1 1 1
node 3 1 1 1
node 4 1 0 2
node 7 1 0 0
node 26 1 0 0
node 43 1 0 0
node 61 1 0 0
node 196 1 0 0
node 241 2 0 0
node 279 1 0 0
gene 2 1 4 1.55721 0 1 1.55721 1
gene 1 2 4 0.58153 0 2 0.58153 1
gene 3 3 4 -0.856273 0 3 -0.856273 0
gene 1 3 7 0.962935 0 8 0.962935 0
gene 1 7 4 -8 0 9 -8 0
gene 1 1 7 2.92753 0 34 2.92753 1
gene 1 2 7 -6.792 0 47 -6.792 1
gene 1 3 26 0.0116733 0 72 0.0116733 1
gene 3 26 7 -4.42446 0 73 -4.42446 1
gene 1 26 43 2.65011 0 126 2.65011 0
gene 1 43 7 -2.40295 0 127 -2.40295 1
gene 3 3 43 4.34778 0 176 4.34778 1
gene 1 26 61 -1.18984 0 185 -1.18984 1
gene 2 61 43 -0.524384 0 186 -0.524384 1
gene 1 1 43 -2.07675 0 267 -2.07675 1
gene 1 3 61 3.45843 0 326 3.45843 0
gene 3 43 4 5.44568 0 487 5.44568 1
gene 1 1 26 -1.17283 0 514 -1.17283 1
gene 1 2 43 -1.11257 0 632 -1.11257 0
gene 1 3 196 3.59531 0 638 3.59531 1
gene 1 196 7 -0.271077 0 639 -0.271077 1
gene 1 43 196 2.42363 0 708 2.42363 1
gene 1 26 196 4.58225 0 718 4.58225 0
gene 2 61 196 -0.86314 0 780 -0.86314 1
gene 3 3 241 4.91926 0 790 4.91926 1
gene 3 241 4 4.54546 0 791 4.54546 1
gene 1 7 279 1 0 906 0 1
gene 1 279 4 -8 0 907 0 1
genomeend 70

/* Species #54 : (Size 10) (AF 8.45849) (Age 6)  */


/* Organism #71 Fitness: 9 Error: 1 */
genomestart 71
trait 1 0.1 0 0 0 0 0 0.203436 0.113536 
trait 2 0.2 0 0 0 0 0 0 0 
trait 3 0.3 0 0 0 0 0 0 0 
node 1 3 1 3
node 2 1 1 1
node 3 1 1 1
node 4 1 0 2
node 7 1 0 0
node 26 1 0 0
node 43 1 0 0
node 61 1 0 0
node 203 1 0 0
node 211 1 0 0
node 246 1 0 0
node 253 1 0 0
gene 2 1 4 -0.289445 0 1 -0.289445 1
gene 1 2 4 8 0 2 8 0
gene 3 3 4 8 0 3 8 1
gene 1 3 7 -6.98833 0 8 -6.98833 1
gene 1 7 4 -8 0 9 -8 1
gene 1 1 7 3.46587 0 34 3.46587 1
gene 2 2 7 -7.98929 0 47 -7.98929 1
gene 1 3 26 -0.49556 0 72 -0.49556 1
gene 3 26 7 -6.24374 0 73 -6.24374 1
gene 1 26 43 1.90878 0 126 1.90878 1
gene 1 43 7 0.0307665 0 127 0.0307665 1
gene 3 3 43 2.37261 0 176 2.37261 1
gene 1 26 61 3.41359 0 185 3.41359 1
gene 2 61 43 -3.17721 0 186 -3.17721 1
gene 1 1 43 -3.9106 0 267 -3.9106 1
gene 1 3 61 -2.62101 0 326 -2.62101 1
gene 3 43 4 1.595 0 487 1.595 1
gene 1 1 26 -3.56968 0 514 -3.56968 1
gene 1 26 203 -0.744018 0 658 -0.744018 1
gene 1 203 61 6.25037 0 659 6.25037 1
gene 3 26 4 0.238258 0 679 0.238258 1
gene 1 2 211 1.21203 0 687 1.21203 1
gene 1 211 4 8 0 688 8 1
gene 2 7 211 -2.18583 0 728 -2.18583 1
gene 1 3 246 1 0 811 0 1
gene 1 246 26 -0.49556 0 812 0 1
gene 3 26 253 1 0 828 0 1
gene 3 253 4 0.238258 0 829 0 1
gene 1 253 7 -0.0783715 0 866 -0.0783715 1
genomeend 71

/* Organism #72 Fitness: 9 Error: 1 */
genomestart 72
trait 1 0.1 0 0 0 0 0 0.203436 0.113536 
trait 2 0.2 0 0 0 0 0 0 0 
trait 3 0.3 0 0 0 0 0 0 0 
node 1 3 1 3
node 2 1 1 1
node 3 1 1 1
node 4 1 0 2
node 7 1 0 0
node 26 1 0 0
node 43 1 0 0
node 61 1 0 0
node 203 1 0 0
node 211 1 0 0
node 246 1 0 0
node 253 1 0 0
gene 2 1 4 0.010857 0 1 0.010857 1
gene 1 2 4 8 0 2 8 0
gene 3 3 4 8 0 3 8 1
gene 1 3 7 -7.63823 0 8 -7.63823 1
gene 1 7 4 -8 0 9 -8 1
gene 1 1 7 -0.0807215 0 34 -0.0807215 1
gene 2 2 7 -8 0 47 -8 1
gene 1 3 26 1.09027 0 72 1.09027 1
gene 3 26 7 -4.78061 0 73 -4.78061 1
gene 1 26 43 0.0284585 0 126 0.0284585 1
gene 1 43 7 -2.21524 0 127 -2.21524 1
gene 3 3 43 -1.18137 0 176 -1.18137 1
gene 1 26 61 1.03147 0 185 1.03147 1
gene 2 61 43 -3.17721 0 186 -3.17721 1
gene 1 1 43 -2.14679 0 267 -2.14679 1
gene 1 3 61 -2.66603 0 326 -2.66603 1
gene 3 43 4 0.282403 0 487 0.282403 1
gene 1 1 26 -5.14917 0 514 -5.14917 1
gene 1 26 203 -0.79857 0 658 -0.79857 1
gene 1 203 61 7.21262 0 659 7.21262 1
gene 3 26 4 1.50426 0 679 1.50426 1
gene 1 2 211 2.28758 0 687 2.28758 1
gene 1 211 4 7.17592 0 688 7.17592 1
gene 2 7 211 -1.83805 0 728 -1.83805 1
gene 1 3 246 0.285257 0 811 0.285257 1
gene 1 246 26 -0.888256 0 812 -0.888256 1
gene 3 26 253 3.16147 0 828 3.16147 1
gene 3 253 4 1.28031 0 829 1.28031 1
gene 1 253 7 1.32252 0 866 1.32252 1
genomeend 72

/* Organism #73 Fitness: 9 Error: 1 */
genomestart 73
trait 1 0.1 0 0 0 0 0 0.203436 0.113536 
trait 2 0.2 0 0 0 0 0 0 0 
trait 3 0.3 0 0 0 0 0 0 0 
node 1 3 1 3
node 2 1 1 1
node 3 1 1 1
node 4 1 0 2
node 7 1 0 0
node 26 1 0 0
node 43 1 0 0
node 61 1 0 0
node 203 1 0 0
node 211 1 0 0
node 246 1 0 0
node 253 1 0 0
node 280 1 0 0
gene 2 1 4 -0.289445 0 1 -0.289445 1
gene 1 2 4 7.99041 0 2 7.99041 0
gene 3 3 4 5.68291 0 3 5.68291 1
gene 1 3 7 -6.98833 0 8 -6.98833 1
gene 1 7 4 -8 0 9 -8 1
gene 1 1 7 3.32206 0 34 3.32206 1
gene 2 2 7 -7.98929 0 47 -7.98929 1
gene 1 3 26 -0.49556 0 72 -0.49556 0
gene 3 26 7 -6.4597 0 73 -6.4597 1
gene 1 26 43 1.90878 0 126 1.90878 1
gene 1 43 7 0.0635333 0 127 0.0635333 1
gene 3 3 43 2.37261 0 176 2.37261 1
gene 1 26 61 3.41359 0 185 3.41359 0
gene 2 61 43 -3.04185 0 186 -3.04185 1
gene 1 1 43 -3.39923 0 267 -3.39923 1
gene 1 3 61 -2.62101 0 326 -2.62101 1
gene 3 43 4 1.595 0 487 1.595 1
gene 1 1 26 -3.4756 0 514 -3.4756 1
gene 1 26 203 -0.744018 0 658 -0.744018 1
gene 1 203 61 6.25037 0 659 6.25037 1
gene 3 26 4 -0.0496269 0 679 -0.0496269 0
gene 1 2 211 0.694052 0 687 0.694052 1
gene 1 211 4 8 0 688 8 1
gene 2 7 211 -2.18583 0 728 -2.18583 1
gene 1 3 246 1.15208 0 811 0.402078 0
gene 1 246 26 -0.828323 0 812 -0.443469 1
gene 3 26 253 1 0 828 0 0
gene 3 253 4 0.238258 0 829 0 1
gene 1 253 7 -0.0783715 0 866 -0.0783715 1
gene 3 26 280 1 0 908 0 1
gene 3 280 253 1 0 909 0 1
genomeend 73

/* Organism #74 Fitness: 9 Error: 1 */
genomestart 74
trait 1 0.1 0 0 0 0 0 0.203436 0.113536 
trait 2 0.2 0 0 0 0 0 0 0 
trait 3 0.3 0 0 0 0 0 0 0 
node 1 3 1 3
node 2 1 1 1
node 3 1 1 1
node 4 1 0 2
node 7 1 0 0
node 26 1 0 0
node 43 1 0 0
node 61 1 0 0
node 203 1 0 0
node 211 1 0 0
node 246 1 0 0
node 253 1 0 0
gene 2 1 4 -1.68727 0 1 -1.68727 1
gene 1 2 4 7.91685 0 2 7.91685 0
gene 3 3 4 8 0 3 8 1
gene 1 3 7 -7.96256 0 8 -7.96256 1
gene 1 7 4 -8 0 9 -8 1
gene 1 1 7 5.31396 0 34 5.31396 1
gene 2 2 7 -8 0 47 -8 1
gene 1 3 26 1.0895 0 72 1.0895 0
gene 3 26 7 -5.28809 0 73 -5.28809 1
gene 1 26 43 3.1724 0 126 3.1724 1
gene 1 43 7 1.33557 0 127 1.33557 1
gene 3 3 43 1.1991 0 176 1.1991 1
gene 1 26 61 5.75475 0 185 5.75475 0
gene 2 61 43 -0.974141 0 186 -0.974141 1
gene 1 1 43 -3.05056 0 267 -3.05056 1
gene 1 3 61 -4.77882 0 326 -4.77882 1
gene 3 43 4 3.33822 0 487 3.33822 1
gene 1 1 26 -1.62519 0 514 -1.62519 1
gene 1 26 203 -2.75618 0 658 -2.75618 1
gene 1 203 61 4.95387 0 659 4.95387 1
gene 3 26 4 2.24793 0 679 2.24793 0
gene 1 2 211 0.20114 0 687 0.20114 1
gene 1 211 4 7.55634 0 688 7.55634 1
gene 2 7 211 -3.43762 0 728 -3.43762 1
gene 1 3 246 1.36879 0 811 1.36879 1
gene 1 246 26 1.05091 0 812 1.05091 1
gene 3 26 253 0.994278 0 828 0.994278 1
gene 3 253 4 -1.0201 0 829 -1.0201 1
gene 1 253 7 2.28262 0 866 2.28262 1
genomeend 74

/* Organism #75 Fitness: 8.99761 Error: 1.0004 */
genomestart 75
trait 1 0.1 0 0 0 0 0 0.203436 0.113536 
trait 2 0.2 0 0 0 0 0 0 0 
trait 3 0.3 0 0 0 0 0 0 0 
node 1 3 1 3
node 2 1 1 1
node 3 1 1 1
node 4 1 0 2
node 7 1 0 0
node 26 1 0 0
node 43 1 0 0
node 61 1 0 0
node 203 1 0 0
node 211 1 0 0
node 246 1 0 0
node 253 1 0 0
gene 2 1 4 1.28577 0 1 1.28577 1
gene 1 2 4 7.11742 0 2 7.11742 1
gene 3 3 4 6.91516 0 3 6.91516 1
gene 1 3 7 -4.69716 0 8 -4.69716 1
gene 1 7 4 -6.01485 0 9 -6.01485 1
gene 1 1 7 5.01892 0 34 5.01892 1
gene 2 2 7 -7.98929 0 47 -7.98929 1
gene 1 3 26 1.94172 0 72 1.94172 0
gene 3 26 7 -6.04541 0 73 -6.04541 1
gene 1 26 43 0.318995 0 126 0.318995 1
gene 1 43 7 1.72269 0 127 1.72269 1
gene 3 3 43 4.59993 0 176 4.59993 1
gene 1 26 61 3.77249 0 185 3.77249 1
gene 2 61 43 -3.62025 0 186 -3.62025 1
gene 1 1 43 -5.05913 0 267 -5.05913 1
gene 1 3 61 -1.65678 0 326 -1.65678 1
gene 3 43 4 -2.14263 0 487 -2.14263 1
gene 1 1 26 0.594043 0 514 0.594043 1
gene 1 26 203 -1.63005 0 658 -1.63005 1
gene 1 203 61 7.72526 0 659 7.72526 1
gene 3 26 4 -0.591817 0 679 -0.591817 0
gene 1 2 211 2.32614 0 687 2.32614 1
gene 1 211 4 7.95071 0 688 7.95071 1
gene 2 7 211 -4.25117 0 728 -4.25117 1
gene 1 3 246 -0.702046 0 811 -0.702046 0
gene 1 246 26 0.733975 0 812 0.733975 1
gene 3 26 253 0.775918 0 828 0.775918 1
gene 3 253 4 0.238258 0 829 0.238258 1
gene 1 253 7 0.751656 0 866 0.751656 1
genomeend 75

/* Organism #76 Fitness: 9 Error: 1 */
genomestart 76
trait 1 0.1 0 0 0 0 0 0.203436 0.113536 
trait 2 0.2 0 0 0 0 0 0 0 
trait 3 0.3 0 0 0 0 0 0 0 
node 1 3 1 3
node 2 1 1 1
node 3 1 1 1
node 4 1 0 2
node 7 1 0 0
node 26 1 0 0
node 43 1 0 0
node 61 1 0 0
node 203 1 0 0
node 211 1 0 0
node 246 1 0 0
node 253 1 0 0
gene 2 1 4 -0.893025 0 1 -0.893025 1
gene 1 2 4 8 0 2 8 0
gene 3 3 4 4.55692 0 3 4.55692 1
gene 1 3 7 -5.60302 0 8 -5.60302 1
gene 1 7 4 -6.34384 0 9 -6.34384 1
gene 1 1 7 1.42224 0 34 1.42224 1
gene 2 2 7 -8 0 47 -8 1
gene 1 3 26 -1.55036 0 72 -1.55036 0
gene 3 26 7 -6.31252 0 73 -6.31252 1
gene 1 26 43 0.308771 0 126 0.308771 1
gene 1 43 7 2.06351 0 127 2.06351 1
gene 3 3 43 2.36826 0 176 2.36826 1
gene 1 26 61 3.78981 0 185 3.78981 0
gene 2 61 43 -3.60156 0 186 -3.60156 1
gene 1 1 43 -5.08526 0 267 -5.08526 1
gene 1 3 61 -1.14331 0 326 -1.14331 1
gene 3 43 4 -0.0329295 0 487 -0.0329295 1
gene 1 1 26 -1.09188 0 514 -1.09188 1
gene 1 26 203 -3.08425 0 658 -3.08425 1
gene 1 203 61 4.81257 0 659 4.81257 1
gene 3 26 4 1.22317 0 679 1.22317 1
gene 1 2 211 0.846225 0 687 0.846225 1
gene 1 211 4 7.95087 0 688 7.95087 1
gene 2 7 211 -0.805551 0 728 -0.805551 1
gene 1 3 246 -1.42537 0 811 -1.42537 1
gene 1 246 26 1.09636 0 812 1.09636 1
gene 3 26 253 1 0 828 1 1
gene 3 253 4 0.238258 0 829 0.238258 1
gene 1 253 7 1.13407 0 866 1.13407 1
genomeend 76

/* Organism #77 Fitness: 4.00017 Error: 1.99996 */
genomestart 77
trait 1 0.1 0 0 0 0 0 0.203436 0.113536 
trait 2 0.2 0 0 0 0 0 0 0 
trait 3 0.3 0 0 0 0 0 0 0 
node 1 3 1 3
node 2 1 1 1
node 3 1 1 1
node 4 1 0 2
node 7 1 0 0
node 26 1 0 0
node 43 1 0 0
node 61 3 0 0
node 203 1 0 0
node 211 1 0 0
node 246 1 0 0
node 253 1 0 0
gene 2 1 4 -1.98706 0 1 -1.98706 1
gene 1 2 4 8 0 2 8 0
gene 3 3 4 8 0 3 8 1
gene 1 3 7 2.02063 0 8 2.02063 1
gene 1 7 4 -2.34092 0 9 -2.34092 1
gene 1 1 7 3.56392 0 34 3.56392 1
gene 2 2 7 -6.64823 0 47 -6.64823 1
gene 1 3 26 -1.03085 0 72 -1.03085 0
gene 3 26 7 -4.17939 0 73 -4.17939 1
gene 1 26 43 1.90878 0 126 1.90878 1
gene 1 43 7 1.72559 0 127 1.72559 1
gene 3 3 43 -1.21715 0 176 -1.21715 1
gene 1 26 61 3.01479 0 185 3.01479 0
gene 2 61 43 -3.41165 0 186 -3.41165 1
gene 1 1 43 -3.76038 0 267 -3.76038 1
gene 1 3 61 -4.62745 0 326 -4.62745 1
gene 3 43 4 0.636311 0 487 0.636311 1
gene 1 1 26 1.13994 0 514 1.13994 1
gene 1 26 203 0.729034 0 658 0.729034 1
gene 1 203 61 4.52089 0 659 4.52089 1
gene 3 26 4 1.46081 0 679 1.46081 0
gene 1 2 211 1.38087 0 687 1.38087 1
gene 1 211 4 8 0 688 8 1
gene 2 7 211 0.277718 0 728 0.277718 1
gene 1 3 246 0.487136 0 811 0.487136 0
gene 1 246 26 -2.453 0 812 -2.453 1
gene 3 26 253 -1.00049 0 828 -1.00049 1
gene 3 253 4 1.23341 0 829 1.23341 1
gene 1 253 7 -1.32963 0 866 -1.32963 1
genomeend 77

/* Organism #78 Fitness: 8.58712 Error: 1.06962 */
genomestart 78
trait 1 0.1 0 0 0 0 0 0.203436 0.113536 
trait 2 0.2 0 0 0 0 0 0 0 
trait 3 0.3 0 0 0 0 0 0 0 
node 1 3 1 3
node 2 1 1 1
node 3 1 1 1
node 4 1 0 2
node 7 1 0 0
node 26 1 0 0
node 43 1 0 0
node 61 1 0 0
node 203 1 0 0
node 211 1 0 0
node 246 1 0 0
node 253 1 0 0
gene 2 1 4 1.49467 0 1 1.49467 1
gene 1 2 4 8 0 2 8 0
gene 3 3 4 7.02913 0 3 7.02913 1
gene 1 3 7 -6.87702 0 8 -6.87702 1
gene 1 7 4 -8 0 9 -8 1
gene 1 1 7 3.68721 0 34 3.68721 1
gene 2 2 7 -7.85127 0 47 -7.85127 1
gene 1 3 26 0.629887 0 72 0.629887 1
gene 3 26 7 -8 0 73 -8 1
gene 1 26 43 -0.497147 0 126 -0.497147 1
gene 1 43 7 -1.81766 0 127 -1.81766 1
gene 3 3 43 1.69709 0 176 1.69709 1
gene 1 26 61 2.9713 0 185 2.9713 1
gene 2 61 43 -4.24871 0 186 -4.24871 1
gene 1 1 43 -3.54965 0 267 -3.54965 1
gene 1 3 61 -2.93299 0 326 -2.93299 1
gene 3 43 4 0.612766 0 487 0.612766 1
gene 1 1 26 -4.88549 0 514 -4.88549 1
gene 1 26 203 -0.898595 0 658 -0.898595 1
gene 1 203 61 4.36723 0 659 4.36723 1
gene 3 26 4 2.64853 0 679 2.64853 1
gene 1 2 211 -1.22861 0 687 -1.22861 1
gene 1 211 4 8 0 688 8 1
gene 2 7 211 -1.83845 0 728 -1.83845 1
gene 1 3 246 1 0 811 1 1
gene 1 246 26 0.55092 0 812 0.55092 1
gene 3 26 253 -1.83676 0 828 -1.83676 1
gene 3 253 4 -1.97401 0 829 -1.97401 1
gene 1 253 7 -2.39457 0 866 -2.39457 1
genomeend 78

/* Organism #79 Fitness: 9 Error: 1 */
genomestart 79
trait 1 0.1 0 0 0 0 0 0.203436 0.113536 
trait 2 0.2 0 0 0 0 0 0 0 
trait 3 0.3 0 0 0 0 0 0 0 
node 1 3 1 3
node 2 1 1 1
node 3 1 1 1
node 4 1 0 2
node 7 1 0 0
node 26 1 0 0
node 43 1 0 0
node 61 1 0 0
node 203 1 0 0
node 211 1 0 0
node 246 1 0 0
node 253 1 0 0
gene 2 1 4 1.46041 0 1 1.46041 1
gene 1 2 4 8 0 2 8 0
gene 3 3 4 7.72459 0 3 7.72459 1
gene 1 3 7 -4.72523 0 8 -4.72523 1
gene 1 7 4 -5.63733 0 9 -5.63733 1
gene 1 1 7 1.24462 0 34 1.24462 1
gene 2 2 7 -8 0 47 -8 1
gene 1 3 26 1.58977 0 72 1.58977 0
gene 3 26 7 -6.44581 0 73 -6.44581 1
gene 1 26 43 3.69877 0 126 3.69877 1
gene 1 43 7 -0.76449 0 127 -0.76449 1
gene 3 3 43 0.423168 0 176 0.423168 1
gene 1 26 61 4.375 0 185 4.375 0
gene 2 61 43 -2.1356 0 186 -2.1356 1
gene 1 1 43 -3.71762 0 267 -3.71762 1
gene 1 3 61 -4.28267 0 326 -4.28267 1
gene 3 43 4 3.92212 0 487 3.92212 1
gene 1 1 26 -5.16534 0 514 -5.16534 1
gene 1 26 203 0.74765 0 658 0.74765 1
gene 1 203 61 5.68593 0 659 5.68593 1
gene 3 26 4 1.25387 0 679 1.25387 0
gene 1 2 211 0.553781 0 687 0.553781 1
gene 1 211 4 6.38313 0 688 6.38313 1
gene 2 7 211 -0.586962 0 728 -0.586962 1
gene 1 3 246 -2.10784 0 811 -2.10784 1
gene 1 246 26 -2.33726 0 812 -2.33726 1
gene 3 26 253 1.16663 0 828 1.16663 1
gene 3 253 4 1.50021 0 829 1.50021 1
gene 1 253 7 -0.0783715 0 866 -0.0783715 1
genomeend 79

/* Organism #80 Fitness: 9 Error: 1 */
genomestart 80
trait 1 0.1 0 0 0 0 0 0.203436 0.113536 
trait 2 0.2 0 0 0 0 0 0 0 
trait 3 0.3 0 0 0 0 0 0 0 
node 1 3 1 3
node 2 1 1 1
node 3 1 1 1
node 4 1 0 2
node 7 1 0 0
node 26 1 0 0
node 43 1 0 0
node 61 1 0 0
node 203 1 0 0
node 211 1 0 0
node 246 1 0 0
node 253 1 0 0
node 274 1 0 0
gene 2 1 4 -0.289445 0 1 -0.289445 1
gene 1 2 4 7.99041 0 2 7.99041 0
gene 3 3 4 5.68291 0 3 5.68291 1
gene 1 3 7 -6.98833 0 8 -6.98833 1
gene 1 7 4 -8 0 9 -8 1
gene 1 1 7 3.32206 0 34 3.32206 1
gene 2 2 7 -7.98929 0 47 -7.98929 1
gene 1 3 26 -0.49556 0 72 -0.49556 0
gene 3 26 7 -6.67565 0 73 -6.67565 1
gene 1 26 43 1.90878 0 126 1.90878 1
gene 1 43 7 0.0635333 0 127 0.0635333 1
gene 3 3 43 2.37261 0 176 2.37261 1
gene 1 26 61 3.41359 0 185 3.41359 0
gene 2 61 43 -2.90649 0 186 -2.90649 1
gene 1 1 43 -2.88786 0 267 -2.88786 1
gene 1 3 61 -2.62101 0 326 -2.62101 1
gene 3 43 4 1.595 0 487 1.595 1
gene 1 1 26 -3.38153 0 514 -3.38153 1
gene 1 26 203 -0.744018 0 658 -0.744018 1
gene 1 203 61 6.25037 0 659 6.25037 1
gene 3 26 4 -0.0496269 0 679 -0.0496269 0
gene 1 2 211 0.694052 0 687 0.694052 1
gene 1 211 4 8 0 688 8 1
gene 2 7 211 -2.18583 0 728 -2.18583 1
gene 1 3 246 1.15208 0 811 0.402078 0
gene 1 246 26 -0.828323 0 812 -0.443469 1
gene 3 26 253 1 0 828 0 1
gene 3 253 4 0.238258 0 829 0 1
gene 1 253 7 -0.0783715 0 866 -0.0783715 1
gene 1 3 274 1 0 892 0 1
gene 1 274 246 1.15208 0 893 0 1
genomeend 80

