
/* Species #1 : (Size 6) (AF 8.98397) (Age 31)  */


/* Organism #0 Fitness: 9 Error: 1 */
genomestart 0
trait 1 0.0829102 0.025259 0 0 0 0.0308438 0.077303 0 
trait 2 0.2 0 0 0 0 0 0 0 
trait 3 0.3 0 0 0 0 0 0 0 
node 1 3 1 3
node 2 1 1 1
node 3 2 1 1
node 4 3 0 2
node 9 1 0 0
gene 1 1 4 -8 0 1 -8 1
gene 3 2 4 8 0 2 8 1
gene 1 3 4 8 0 3 8 1
gene 1 3 9 1.22187 0 12 1.22187 1
gene 1 9 4 8 0 13 8 1
genomeend 0

/* Organism #1 Fitness: 8.99999 Error: 1 */
genomestart 1
trait 1 0.0829102 0.025259 0.30723 0.0202033 0 0.0308438 0.576952 0 
trait 2 0.2 0 0 0 0 0 0 0 
trait 3 0.3 0 0 0 0 0 0 0 
node 1 3 1 3
node 2 1 1 1
node 3 2 1 1
node 4 3 0 2
node 9 1 0 0
gene 1 1 4 -7.33714 0 1 -7.33714 1
gene 3 2 4 6.12807 0 2 6.12807 1
gene 1 3 4 8 0 3 8 1
gene 1 3 9 3.4617 0 12 3.4617 1
gene 1 9 4 7.76295 0 13 7.76295 1
genomeend 1

/* Organism #2 Fitness: 8.90382 Error: 1.01607 */
genomestart 2
trait 1 0.0829102 0.025259 0 0 0 0.0308438 0.077303 0 
trait 2 0.2 0 0 0 0 0 0 0 
trait 3 0.3 0 0 0 0 0 0 0 
node 1 3 1 3
node 2 1 1 1
node 3 2 1 1
node 4 3 0 2
node 9 1 0 0
gene 1 1 4 -7.66506 0 1 -7.66506 1
gene 3 2 4 8 0 2 8 1
gene 1 3 4 8 0 3 8 1
gene 1 3 9 1.22187 0 12 1.22187 1
gene 1 9 4 1.0332 0 13 1.0332 1
genomeend 2

/* Organism #3 Fitness: 9 Error: 1 */
genomestart 3
trait 1 0.0829102 0.025259 0 0 0 0.0308438 0.077303 0 
trait 2 0.2 0 0 0 0 0 0 0 
trait 3 0.3 0 0 0 0 0 0 0 
node 1 3 1 3
node 2 1 1 1
node 3 2 1 1
node 4 3 0 2
node 9 1 0 0
gene 1 1 4 -7.69665 0 1 -7.69665 1
gene 3 2 4 8 0 2 8 1
gene 1 3 4 6.79818 0 3 6.79818 1
gene 1 3 9 3.02521 0 12 3.02521 1
gene 1 9 4 6.3021 0 13 6.3021 1
genomeend 3

/* Organism #4 Fitness: 9 Error: 1 */
genomestart 4
trait 1 0.0829102 0.025259 0 0 0 0.0308438 0.077303 0 
trait 2 0.2 0 0 0 0 0 0 0 
trait 3 0.3 0 0 0 0 0 0 0 
node 1 3 1 3
node 2 1 1 1
node 3 2 1 1
node 4 3 0 2
node 9 1 0 0
gene 1 1 4 -8 0 1 -8 1
gene 3 2 4 7.78874 0 2 7.78874 1
gene 1 3 4 6.63361 0 3 6.63361 1
gene 1 3 9 2.59711 0 12 2.59711 1
gene 1 9 4 8 0 13 8 1
genomeend 4

/* Organism #5 Fitness: 8.99999 Error: 1 */
genomestart 5
trait 1 0.0829102 0.025259 0 0 0 0.0308438 0.077303 0 
trait 2 0.2 0 0 0 0 0 0 0 
trait 3 0.3 0 0 0 0 0 0 0 
node 1 3 1 3
node 2 1 1 1
node 3 2 1 1
node 4 3 0 2
node 9 1 0 0
gene 1 1 4 -6.77682 0 1 -6.77682 1
gene 3 2 4 6.46759 0 2 6.46759 1
gene 1 3 4 7.90287 0 3 7.90287 1
gene 1 3 9 0.658498 0 12 0.658498 1
gene 1 9 4 8 0 13 8 1
genomeend 5

/* Species #2 : (Size 6) (AF 8.17748) (Age 28)  */


/* Organism #6 Fitness: 9 Error: 1 */
genomestart 6
trait 1 0.1 0 0 0 0 0 0 0 
trait 2 0.2 0 0 0 0 0 0 0 
trait 3 0.3 0.16203 0.0416272 0.281022 0.493789 0.633564 0.321268 0.0951262 
node 1 3 1 3
node 2 1 1 1
node 3 2 1 1
node 4 3 0 2
node 10 1 0 0
gene 1 1 4 -1.07129 0 1 -1.07129 1
gene 1 2 4 6.12769 0 2 6.12769 1
gene 1 3 4 8 0 3 8 1
gene 1 2 10 -4.55845 0 14 -4.55845 1
gene 3 10 4 -5.22324 0 15 -5.22324 1
gene 1 3 10 -4.07601 0 20 -4.07601 1
gene 1 1 10 1.47128 0 71 1.47128 1
genomeend 6

/* Organism #7 Fitness: 8.99999 Error: 1 */
genomestart 7
trait 1 0.1 0 0 0 0 0 0 0 
trait 2 0.2 0 0 0 0 0 0 0 
trait 3 0.3 0.16203 0.0416272 0.268311 0.370342 0.475173 0.240951 0.0713446 
node 1 3 1 3
node 2 1 1 1
node 3 2 1 1
node 4 3 0 2
node 10 1 0 0
gene 1 1 4 -2.45443 0 1 -2.45443 1
gene 1 2 4 6.89676 0 2 6.89676 1
gene 1 3 4 5.7823 0 3 5.7823 1
gene 1 2 10 -5.23093 0 14 -5.23093 1
gene 3 10 4 -7.68792 0 15 -7.68792 1
gene 1 3 10 -4.52517 0 20 -4.52517 1
gene 1 1 10 -0.658986 0 71 -0.658986 1
genomeend 7

/* Organism #8 Fitness: 8.99969 Error: 1.00005 */
genomestart 8
trait 1 0.1 0 0 0 0 0 0 0 
trait 2 0.2 0 0 0 0 0 0 0 
trait 3 0.3 0.16203 0.0416272 0.2556 0.246895 0.316782 0.160634 0.0475631 
node 1 3 1 3
node 2 1 1 1
node 3 2 1 1
node 4 3 0 2
node 10 1 0 0
node 107 1 0 0
gene 1 1 4 -2.00108 0 1 -2.00108 1
gene 1 2 4 6.26613 0 2 6.26613 1
gene 1 3 4 7.50331 0 3 7.50331 1
gene 1 2 10 -6.14809 0 14 -6.14809 0
gene 1 10 4 -5.06432 0 15 -5.06432 1
gene 1 3 10 -3.23401 0 20 -3.23401 1
gene 1 1 10 1.72047 0 71 1.72047 1
gene 1 2 107 1 0 317 0 1
gene 1 107 10 -6.14809 0 318 0 1
genomeend 8

/* Organism #9 Fitness: 9 Error: 1 */
genomestart 9
trait 1 0.1 0 0 0 0 0 0 0 
trait 2 0.2 0 0 0 0 0 0 0 
trait 3 0.3 0.16203 0.0416272 0.2556 0.246895 0.316782 0.160634 0.0475631 
node 1 3 1 3
node 2 1 1 1
node 3 2 1 1
node 4 3 0 2
node 10 1 0 0
gene 1 1 4 0.42049 0 1 0.42049 1
gene 1 2 4 4.54458 0 2 4.54458 1
gene 1 3 4 7.37643 0 3 7.37643 1
gene 1 2 10 -4.06337 0 14 -4.06337 1
gene 1 10 4 -5.88412 0 15 -5.88412 1
gene 1 3 10 -4.82028 0 20 -4.82028 1
gene 1 1 10 2.97165 0 71 2.97165 1
genomeend 9

/* Organism #10 Fitness: 4.06522 Error: 1.98376 */
genomestart 10
trait 1 0.1 0 0 0 0 0 0 0 
trait 2 0.2 0 0 0 0 0 0 0 
trait 3 0.456255 0 0.0416272 0 0.246895 0.316782 0.160634 0 
node 1 3 1 3
node 2 1 1 1
node 3 2 1 1
node 4 3 0 2
node 10 1 0 0
gene 1 1 4 -1.23369 0 1 -1.23369 1
gene 1 2 4 5.33066 0 2 5.33066 1
gene 1 3 4 0.427564 0 3 0.427564 1
gene 1 2 10 -6.14809 0 14 -6.14809 1
gene 1 10 4 -6.30497 0 15 -6.30497 1
gene 1 3 10 -2.17112 0 20 -2.17112 1
gene 1 1 10 -2.10334 0 71 -2.10334 1
genomeend 10

/* Organism #11 Fitness: 9 Error: 1 */
genomestart 11
trait 1 0.1 0 0 0 0 0 0 0 
trait 2 0.2 0 0 0 0 0 0 0 
trait 3 0.3 0.16203 0.0416272 0.2556 0.246895 0.316782 0.160634 0.0475631 
node 1 3 1 3
node 2 1 1 1
node 3 2 1 1
node 4 3 0 2
node 10 1 0 0
gene 1 1 4 -2.00108 0 1 -2.00108 1
gene 1 2 4 6.26613 0 2 6.26613 1
gene 1 3 4 7.50331 0 3 7.50331 1
gene 1 2 10 -6.14809 0 14 -6.14809 1
gene 1 10 4 -5.06432 0 15 -5.06432 1
gene 1 3 10 -3.23401 0 20 -3.23401 1
gene 1 1 10 1.72047 0 71 1.72047 1
genomeend 11

/* Species #4 : (Size 7) (AF 8.99051) (Age 27)  */


/* Organism #12 Fitness: 9 Error: 1 */
genomestart 12
trait 1 0.1 0 0 0 0 0 0 0 
trait 2 0.2 0 0 0 0 0 0 0 
trait 3 0.075 0.14613 0 0.475379 0 0 0.145436 0 
node 1 1 1 3
node 2 3 1 1
node 3 1 1 1
node 4 3 0 2
node 11 1 0 0
gene 1 1 4 -2.93045 0 1 -2.93045 1
gene 1 2 4 -8 0 2 -8 1
gene 3 3 4 8 0 3 8 1
gene 1 2 11 1.4342 0 16 1.4342 1
gene 1 11 4 -2.7102 0 17 -2.7102 1
gene 2 1 11 0.0788903 0 37 0.0788903 1
gene 2 3 11 -0.829302 0 72 -0.829302 1
genomeend 12

/* Organism #13 Fitness: 8.9998 Error: 1.00003 */
genomestart 13
trait 1 0.1 0 0 0 0 0 0 0 
trait 2 0.2 0 0 0 0 0 0 0 
trait 3 0.075 0.14613 0 0.475379 0 0 0.145436 0 
node 1 1 1 3
node 2 3 1 1
node 3 1 1 1
node 4 3 0 2
node 11 1 0 0
gene 1 1 4 -5.38047 0 1 -5.38047 1
gene 1 2 4 -8 0 2 -8 1
gene 3 3 4 8 0 3 8 1
gene 1 2 11 1.75625 0 16 1.75625 1
gene 1 11 4 -3.615 0 17 -3.615 1
gene 2 1 11 1.09912 0 37 1.09912 1
gene 2 3 11 -1.45859 0 72 -1.45859 1
genomeend 13

/* Organism #14 Fitness: 8.99965 Error: 1.00006 */
genomestart 14
trait 1 0.1 0 0 0 0 0 0 0 
trait 2 0.2 0 0 0 0 0 0 0 
trait 3 0.075 0.14613 0 0.475379 0 0 0.145436 0 
node 1 1 1 3
node 2 3 1 1
node 3 1 1 1
node 4 3 0 2
node 11 1 0 0
gene 1 1 4 -4.59706 0 1 -4.59706 1
gene 1 2 4 -5.62177 0 2 -5.62177 1
gene 3 3 4 8 0 3 8 1
gene 1 2 11 0.182653 0 16 0.182653 1
gene 1 11 4 -2.37053 0 17 -2.37053 1
gene 2 1 11 1.9406 0 37 1.9406 1
gene 2 3 11 -1.85755 0 72 -1.85755 1
genomeend 14

/* Organism #15 Fitness: 9 Error: 1 */
genomestart 15
trait 1 0.1 0 0 0 0 0 0 0 
trait 2 0.2 0 0 0 0 0 0 0 
trait 3 0.075 0.14613 0 0.475379 0 0 0.145436 0 
node 1 1 1 3
node 2 3 1 1
node 3 1 1 1
node 4 3 0 2
node 11 1 0 0
gene 1 1 4 -5.06217 0 1 -5.06217 1
gene 1 2 4 -8 0 2 -8 1
gene 3 3 4 8 0 3 8 1
gene 1 2 11 0.552828 0 16 0.552828 1
gene 1 11 4 -2.52229 0 17 -2.52229 1
gene 2 1 11 -1.88261 0 37 -1.88261 1
gene 2 3 11 -0.424551 0 72 -0.424551 1
genomeend 15

/* Organism #16 Fitness: 9 Error: 1 */
genomestart 16
trait 1 0.1 0 0 0 0 0 0 0 
trait 2 0.2 0 0 0 0 0 0 0 
trait 3 0.075 0.14613 0 0.475379 0 0 0.145436 0 
node 1 1 1 3
node 2 3 1 1
node 3 1 1 1
node 4 3 0 2
node 11 1 0 0
gene 1 1 4 -2.98668 0 1 -2.98668 1
gene 1 2 4 -8 0 2 -8 1
gene 3 3 4 8 0 3 8 1
gene 1 2 11 0.840693 0 16 0.840693 1
gene 1 11 4 -4.67209 0 17 -4.67209 1
gene 2 1 11 0.604572 0 37 0.604572 1
gene 2 3 11 -0.842273 0 72 -0.842273 1
genomeend 16

/* Organism #17 Fitness: 8.93518 Error: 1.01082 */
genomestart 17
trait 1 0.1 0 0 0 0 0 0 0 
trait 2 0.2 0 0 0 0 0 0 0 
trait 3 0.075 0.14613 0 0.475379 0 0 0.145436 0 
node 1 1 1 3
node 2 3 1 1
node 3 1 1 1
node 4 3 0 2
node 11 1 0 0
gene 1 1 4 -0.878231 0 1 -0.878231 1
gene 1 2 4 -8 0 2 -8 1
gene 3 3 4 7.57137 0 3 7.57137 1
gene 1 2 11 3.20199 0 16 3.20199 1
gene 1 11 4 -5.15786 0 17 -5.15786 1
gene 2 1 11 -0.992004 0 37 -0.992004 1
gene 2 3 11 -1.18599 0 72 -1.18599 1
genomeend 17

/* Organism #18 Fitness: 8.99893 Error: 1.00018 */
genomestart 18
trait 1 0.1 0 0 0 0 0 0 0 
trait 2 0.2 0 0 0 0 0 0 0 
trait 3 0.075 0.14613 0 0.475379 0 0 0.145436 0 
node 1 1 1 3
node 2 3 1 1
node 3 1 1 1
node 4 3 0 2
node 11 1 0 0
gene 1 1 4 -4.07382 0 1 -4.07382 1
gene 1 2 4 -7.87403 0 2 -7.87403 1
gene 3 3 4 6.98999 0 3 6.98999 1
gene 1 2 11 2.51433 0 16 2.51433 1
gene 1 11 4 -2.66725 0 17 -2.66725 1
gene 2 1 11 1.13552 0 37 1.13552 1
gene 2 3 11 -1.18782 0 72 -1.18782 1
genomeend 18

/* Species #5 : (Size 4) (AF 6.90335) (Age 26)  */


/* Organism #19 Fitness: 8.99904 Error: 1.00016 */
genomestart 19
trait 1 0.1 0 0 0 0 0 0 0 
trait 2 0.2 0 0 0 0 0 0 0 
trait 3 0.05625 0 0 0 0.130299 0.103168 0 0.453631 
node 1 1 1 3
node 2 1 1 1
node 3 2 1 1
node 4 3 0 2
node 10 1 0 0
node 15 1 0 0
node 49 2 0 0
gene 2 1 4 -2.8928 0 1 -2.8928 1
gene 1 2 4 -6.44883 0 2 -6.44883 0
gene 1 3 4 1.56398 0 3 1.56398 1
gene 1 2 10 2.3786 0 14 2.3786 1
gene 1 10 4 8 0 15 8 1
gene 1 3 15 -0.0988037 0 26 -0.0988037 1
gene 1 15 4 -0.695441 0 27 -0.695441 1
gene 2 3 10 3.35755 0 43 3.35755 1
gene 1 15 49 2.78176 0 129 2.78176 1
gene 1 49 4 -2.56555 0 130 -2.56555 1
gene 1 2 49 1.90229 0 166 1.90229 1
genomeend 19

/* Organism #20 Fitness: 5.61767 Error: 1.62984 */
genomestart 20
trait 1 0.1 0 0 0 0 0 0 0 
trait 2 0.2 0 0 0 0 0 0 0 
trait 3 0.826263 0 0 0 0 0.103168 0 0.602897 
node 1 1 1 3
node 2 1 1 1
node 3 2 1 1
node 4 3 0 2
node 10 1 0 0
node 15 1 0 0
node 49 2 0 0
gene 2 1 4 -3.79698 0 1 -3.79698 1
gene 1 2 4 -1.9739 0 2 -1.9739 0
gene 1 3 4 -0.49266 0 3 -0.49266 0
gene 1 2 10 5.97162 0 14 5.97162 1
gene 1 10 4 7.52813 0 15 7.52813 1
gene 1 3 15 0.515381 0 26 0.515381 1
gene 1 15 4 0.11124 0 27 0.11124 1
gene 2 3 10 3.88881 0 43 3.88881 1
gene 1 15 49 -2.01033 0 129 -2.01033 1
gene 1 49 4 -3.62958 0 130 -3.62958 1
gene 1 2 49 2.58187 0 166 2.58187 1
genomeend 20

/* Organism #21 Fitness: 8.99609 Error: 1.00065 */
genomestart 21
trait 1 0.1 0 0 0 0 0 0 0 
trait 2 0.2 0 0 0 0 0 0 0 
trait 3 0.05625 0 0 0 0.130299 0.103168 0 0.453631 
node 1 1 1 3
node 2 1 1 1
node 3 2 1 1
node 4 3 0 2
node 10 1 0 0
node 15 1 0 0
node 49 2 0 0
gene 2 1 4 -3.51789 0 1 -3.51789 1
gene 1 2 4 -3.80341 0 2 -3.80341 0
gene 1 3 4 -0.993698 0 3 -0.993698 0
gene 1 2 10 3.7205 0 14 3.7205 1
gene 1 10 4 8 0 15 8 1
gene 1 3 15 -0.101474 0 26 -0.101474 1
gene 1 15 4 -0.611515 0 27 -0.611515 1
gene 2 3 10 3.91444 0 43 3.91444 1
gene 1 15 49 2.5148 0 129 2.5148 1
gene 1 49 4 -1.67083 0 130 -1.67083 1
gene 1 2 49 2.0233 0 166 2.0233 1
genomeend 21

/* Organism #22 Fitness: 4.00059 Error: 1.99985 */
genomestart 22
trait 1 0.1 0 0 0 0 0 0 0 
trait 2 0.2 0 0 0 0 0 0 0 
trait 3 0.05625 0 0 0 0.130299 0.103168 0 0.453631 
node 1 1 1 3
node 2 1 1 1
node 3 2 1 1
node 4 3 0 2
node 10 1 0 0
node 15 1 0 0
node 49 2 0 0
gene 2 1 4 -4.6737 0 1 -4.6737 1
gene 1 2 4 -4.63549 0 2 -4.63549 0
gene 1 3 4 -0.842479 0 3 -0.842479 0
gene 1 2 10 5.57343 0 14 5.57343 1
gene 1 10 4 5.45233 0 15 5.45233 1
gene 1 3 15 0.675146 0 26 0.675146 1
gene 1 15 4 -2.05908 0 27 -2.05908 1
gene 2 3 10 1.94623 0 43 1.94623 1
gene 1 15 49 2.19993 0 129 2.19993 1
gene 1 49 4 -2.56555 0 130 -2.56555 1
gene 1 2 49 -1.01749 0 166 -1.01749 1
genomeend 22

/* Species #6 : (Size 7) (AF 4.7382) (Age 25)  */


/* Organism #23 Fitness: 9 Error: 1 */
genomestart 23
trait 1 0.1 0 0 0 0 0 0 0 
trait 2 0.2 0 0 0.0779977 0 0 0.170537 0 
trait 3 0.000632019 0 0.354503 0 0.662847 0 0 1 
node 1 3 1 3
node 2 1 1 1
node 3 3 1 1
node 4 3 0 2
node 19 1 0 0
gene 2 1 4 -2.98723 0 1 -2.98723 1
gene 2 2 4 -6.09946 0 2 -6.09946 1
gene 1 3 4 8 0 3 8 1
gene 3 2 19 3.20019 0 38 3.20019 1
gene 2 19 4 -8 0 39 -8 1
gene 2 3 19 -4.33963 0 61 -4.33963 1
gene 1 1 19 0.959502 0 192 0.959502 1
genomeend 23

/* Organism #24 Fitness: 7.15689 Error: 1.32476 */
genomestart 24
trait 1 0.1 0 0 0 0 0 0 0 
trait 2 0.2 0 0 0.0779977 0 0 0.170537 0 
trait 3 0.000632019 0 0.354503 0 0.662847 0 0 1 
node 1 3 1 3
node 2 1 1 1
node 3 3 1 1
node 4 3 0 2
node 19 1 0 0
gene 2 1 4 0.25071 0 1 0.25071 1
gene 2 2 4 -7.38292 0 2 -7.38292 1
gene 1 3 4 1.30963 0 3 1.30963 1
gene 3 2 19 -2.36679 0 38 -2.36679 1
gene 2 19 4 -7.97597 0 39 -7.97597 1
gene 2 3 19 -3.25874 0 61 -3.25874 1
gene 1 1 19 2.94664 0 192 2.94664 1
genomeend 24

/* Organism #25 Fitness: 4.00008 Error: 1.99998 */
genomestart 25
trait 1 0.1 0 0 0 0 0 0 0 
trait 2 0.2 0 0 0.0779977 0 0 0.170537 0 
trait 3 0.266158 0 0.177252 0 0.350627 0 0 1 
node 1 3 1 3
node 2 1 1 1
node 3 3 1 1
node 4 3 0 2
node 19 1 0 0
gene 2 1 4 -2.98723 0 1 -2.98723 1
gene 2 2 4 -6.09946 0 2 -6.09946 1
gene 1 3 4 8 0 3 8 1
gene 3 2 19 2.8226 0 38 2.8226 1
gene 2 19 4 -8 0 39 -8 1
gene 2 3 19 -4.33963 0 61 -4.33963 1
gene 1 1 19 4.79019 0 192 4.79019 1
genomeend 25

/* Organism #26 Fitness: 1.07404 Error: 2.96364 */
genomestart 26
trait 1 0.1 0 0 0 0 0 0 0 
trait 2 0.2 0 0 0.0779977 0 0 0.170537 0 
trait 3 0.266158 0 0.177252 0 0.350627 0 0 1 
node 1 3 1 3
node 2 1 1 1
node 3 3 1 1
node 4 3 0 2
node 19 1 0 0
gene 2 1 4 -0.662252 0 1 -0.662252 1
gene 2 2 4 -4.90691 0 2 -4.90691 1
gene 1 3 4 7.83314 0 3 7.83314 1
gene 3 2 19 5.17798 0 38 5.17798 1
gene 2 19 4 1.32778 0 39 1.32778 1
gene 2 3 19 -1.07608 0 61 -1.07608 1
gene 1 1 19 2.87484 0 192 2.87484 1
genomeend 26

/* Organism #27 Fitness: 4 Error: 2 */
genomestart 27
trait 1 0.1 0 0 0 0 0 0 0 
trait 2 0.2 0 0 0.0779977 0 0 0.170537 0 
trait 3 0.000632019 0 0.354503 0 0.662847 0 0 1 
node 1 3 1 3
node 2 1 1 1
node 3 3 1 1
node 4 3 0 2
node 19 1 0 0
gene 2 1 4 -3.4624 0 1 -3.4624 1
gene 2 2 4 -1.19015 0 2 -1.19015 1
gene 1 3 4 8 0 3 8 1
gene 3 2 19 2.66124 0 38 2.66124 1
gene 2 19 4 0.753655 0 39 0.753655 1
gene 2 3 19 -0.104984 0 61 -0.104984 1
gene 1 1 19 -0.409177 0 192 -0.409177 1
genomeend 27

/* Organism #28 Fitness: 4 Error: 2 */
genomestart 28
trait 1 0.1 0 0 0 0 0 0 0 
trait 2 0.2 0 0 0.0779977 0 0 0.170537 0 
trait 3 0.266158 0 1 0 0.350627 0.983551 0 0.198859 
node 1 3 1 3
node 2 1 1 1
node 3 3 1 1
node 4 3 0 2
node 19 1 0 0
gene 2 1 4 -3.08199 0 1 -3.08199 1
gene 2 2 4 -3.97098 0 2 -3.97098 1
gene 1 3 4 8 0 3 8 1
gene 3 2 19 3.11676 0 38 3.11676 1
gene 2 19 4 -7.99968 0 39 -7.99968 1
gene 2 3 19 -1.96387 0 61 -1.96387 1
gene 1 1 19 2.74972 0 192 2.74972 1
genomeend 28

/* Organism #29 Fitness: 3.93642 Error: 2.01596 */
genomestart 29
trait 1 0.1 0 0 0 0 0 0 0 
trait 2 0.2 0 0 0.0779977 0 0 0.170537 0 
trait 3 0.000632019 0 0.354503 0 0.662847 0 0 1 
node 1 3 1 3
node 2 1 1 1
node 3 3 1 1
node 4 3 0 2
node 19 1 0 0
gene 2 1 4 -0.790582 0 1 -0.790582 1
gene 2 2 4 0.596713 0 2 0.596713 1
gene 1 3 4 8 0 3 8 1
gene 3 2 19 1.95542 0 38 1.95542 1
gene 2 19 4 -8 0 39 -8 1
gene 2 3 19 -1.93759 0 61 -1.93759 1
gene 1 1 19 -2.36831 0 192 -2.36831 1
genomeend 29

/* Species #7 : (Size 7) (AF 6.90038) (Age 24)  */


/* Organism #30 Fitness: 9 Error: 1 */
genomestart 30
trait 1 0.356493 0 0 0 0 0.457045 0 0 
trait 2 0.216557 0 0 0 0 0.00109575 0.0155871 0 
trait 3 0.3 0.283553 0.0728477 0.402812 0 0.0648289 0 0 
node 1 1 1 3
node 2 2 1 1
node 3 2 1 1
node 4 3 0 2
node 10 1 0 0
node 16 1 0 0
gene 1 1 4 -4.27141 0 1 -4.27141 1
gene 2 2 4 1.66405 0 2 1.66405 1
gene 1 3 4 7.07533 0 3 7.07533 1
gene 1 2 10 3.09758 0 14 3.09758 1
gene 1 10 4 7.92656 0 15 7.92656 1
gene 1 3 10 1.00378 0 20 1.00378 1
gene 1 3 16 -4.00609 0 29 -4.00609 1
gene 1 16 10 -3.40889 0 30 -3.40889 1
gene 1 16 4 -0.237472 0 223 -0.237472 1
genomeend 30

/* Organism #31 Fitness: 8.99988 Error: 1.00002 */
genomestart 31
trait 1 0.356493 0 0 0 0 0.457045 0 0 
trait 2 0.216557 0 0 0 0 0.00109575 0.0155871 0 
trait 3 0.3 0.283553 0.0728477 0.402812 0 0.0648289 0 0 
node 1 1 1 3
node 2 2 1 1
node 3 2 1 1
node 4 3 0 2
node 10 1 0 0
node 16 1 0 0
gene 1 1 4 -5.69739 0 1 -5.69739 1
gene 2 2 4 3.34425 0 2 3.34425 1
gene 1 3 4 8 0 3 8 1
gene 1 2 10 3.35019 0 14 3.35019 1
gene 1 10 4 6.07218 0 15 6.07218 1
gene 1 3 10 -1.06996 0 20 -1.06996 1
gene 1 3 16 -1.61008 0 29 -1.61008 1
gene 1 16 10 -4.23022 0 30 -4.23022 1
gene 1 16 4 -2.72992 0 223 -2.72992 1
genomeend 31

/* Organism #32 Fitness: 8.99098 Error: 1.0015 */
genomestart 32
trait 1 0.356493 0 0 0 0 0.457045 0 0 
trait 2 0.216557 0 0 0 0 0.00109575 0.0155871 0 
trait 3 0.3 0.283553 0.0728477 0.402812 0 0.0648289 0 0 
node 1 1 1 3
node 2 2 1 1
node 3 2 1 1
node 4 3 0 2
node 10 1 0 0
node 16 1 0 0
gene 1 1 4 -3.64952 0 1 -3.64952 1
gene 2 2 4 0.315897 0 2 0.315897 1
gene 1 3 4 8 0 3 8 1
gene 1 2 10 3.21973 0 14 3.21973 1
gene 1 10 4 6.56033 0 15 6.56033 1
gene 1 3 10 1.2155 0 20 1.2155 1
gene 1 3 16 -3.11205 0 29 -3.11205 1
gene 1 16 10 -5.6063 0 30 -5.6063 1
gene 1 16 4 -2.31929 0 223 -2.31929 1
genomeend 32

/* Organism #33 Fitness: 4.04554 Error: 1.98865 */
genomestart 33
trait 1 0.356493 0 0 0 0 0.457045 0 0 
trait 2 0.216557 0 0 0 0 0.00109575 0.0155871 0 
trait 3 0.3 0.283553 0.0728477 0.402812 0 0.0648289 0 0 
node 1 1 1 3
node 2 2 1 1
node 3 2 1 1
node 4 3 0 2
node 10 1 0 0
node 16 1 0 0
gene 1 1 4 -5.94031 0 1 -5.94031 1
gene 2 2 4 2.76653 0 2 2.76653 1
gene 1 3 4 6.65853 0 3 6.65853 1
gene 1 2 10 0.71263 0 14 0.71263 1
gene 1 10 4 7.83966 0 15 7.83966 1
gene 1 3 10 2.51704 0 20 2.51704 1
gene 1 3 16 -4.54695 0 29 -4.54695 1
gene 1 16 10 -1.7219 0 30 -1.7219 1
gene 1 16 4 -0.564249 0 223 -0.564249 1
genomeend 33

/* Organism #34 Fitness: 8.99999 Error: 1 */
genomestart 34
trait 1 0.356493 0 0 0 0 0.457045 0 0 
trait 2 0.216557 0 0 0 0 0.00109575 0.0155871 0 
trait 3 0.3 0.283553 0.0728477 0.402812 0 0.0648289 0 0 
node 1 1 1 3
node 2 2 1 1
node 3 2 1 1
node 4 3 0 2
node 10 1 0 0
node 16 1 0 0
gene 1 1 4 -6.28693 0 1 -6.28693 1
gene 2 2 4 2.78301 0 2 2.78301 1
gene 1 3 4 8 0 3 8 1
gene 3 2 10 0.868427 0 14 0.868427 1
gene 1 10 4 8 0 15 8 1
gene 1 3 10 -0.13609 0 20 -0.13609 1
gene 1 3 16 -1.54889 0 29 -1.54889 1
gene 1 16 10 -1.15449 0 30 -1.15449 1
gene 1 16 4 -0.523354 0 223 -0.523354 1
genomeend 34

/* Organism #35 Fitness: 4 Error: 2 */
genomestart 35
trait 1 0.356493 0 0 0 0 0.457045 0 0 
trait 2 0.216557 0 0 0 0 0.00109575 0.0155871 0 
trait 3 0.3 0.283553 0.0728477 0.402812 0 0.0648289 0 0 
node 1 1 1 3
node 2 2 1 1
node 3 2 1 1
node 4 3 0 2
node 10 1 0 0
node 16 1 0 0
gene 1 1 4 -4.09021 0 1 -4.09021 1
gene 2 2 4 1.66405 0 2 1.66405 1
gene 1 3 4 8 0 3 8 1
gene 1 2 10 3.09758 0 14 3.09758 1
gene 1 10 4 -2.29881 0 15 -2.29881 1
gene 1 3 10 -0.658338 0 20 -0.658338 1
gene 1 3 16 -3.21299 0 29 -3.21299 1
gene 1 16 10 0.924329 0 30 0.924329 1
gene 1 16 4 1.50445 0 223 1.50445 1
genomeend 35

/* Organism #36 Fitness: 4.26627 Error: 1.9345 */
genomestart 36
trait 1 0.356493 0 0 0 0 0.457045 0 0 
trait 2 0.216557 0 0 0 0 0.00109575 0.0155871 0 
trait 3 0.3 0.283553 0.0728477 0.402812 0 0.0648289 0 0 
node 1 1 1 3
node 2 2 1 1
node 3 2 1 1
node 4 3 0 2
node 10 1 0 0
node 16 1 0 0
gene 1 1 4 -2.77814 0 1 -2.77814 1
gene 2 2 4 -0.705359 0 2 -0.705359 1
gene 1 3 4 2.23716 0 3 2.23716 1
gene 1 2 10 5.50884 0 14 5.50884 1
gene 1 10 4 7.00277 0 15 7.00277 1
gene 1 3 10 -1.75268 0 20 -1.75268 1
gene 1 3 16 -6.17664 0 29 -6.17664 1
gene 1 16 10 -5.20597 0 30 -5.20597 1
gene 1 16 4 -2.56306 0 223 -2.56306 1
genomeend 36

/* Species #8 : (Size 6) (AF 8.98131) (Age 24)  */


/* Organism #37 Fitness: 9 Error: 1 */
genomestart 37
trait 1 0.1 0 0.490555 0 0 0 0 0 
trait 2 0.2 0 0 0 0 0 0 0 
trait 3 0.3 0.167875 0 0 0 0.43968 0.145436 0 
node 1 1 1 3
node 2 3 1 1
node 3 2 1 1
node 4 2 0 2
node 11 2 0 0
node 23 1 0 0
gene 3 1 4 -1.61939 0 1 -1.61939 1
gene 1 2 4 -8 0 2 -8 1
gene 3 3 4 8 0 3 8 1
gene 1 2 11 -0.558031 0 16 -0.558031 0
gene 1 11 4 -3.7698 0 17 -3.7698 1
gene 1 2 23 5.19186 0 50 5.19186 1
gene 1 23 11 4.17024 0 51 4.17024 1
gene 1 3 11 -2.58392 0 167 -2.58392 1
genomeend 37

/* Organism #38 Fitness: 9 Error: 1 */
genomestart 38
trait 1 0.1 0 0.490555 0 0 0 0 0 
trait 2 0.2 0 0 0 0 0 0 0 
trait 3 0.3 0.165838 0 0 0 0.21984 0.145436 0 
node 1 1 1 3
node 2 3 1 1
node 3 2 1 1
node 4 2 0 2
node 11 2 0 0
node 23 1 0 0
node 108 1 0 0
gene 3 1 4 -0.849635 0 1 -0.849635 1
gene 1 2 4 -8 0 2 -8 1
gene 3 3 4 8 0 3 8 1
gene 1 2 11 0.335799 0 16 0.335799 0
gene 1 11 4 -3.83595 0 17 -3.83595 1
gene 1 2 23 3.22701 0 50 3.22701 0
gene 1 23 11 3.08782 0 51 3.08782 1
gene 1 3 11 -1.59415 0 167 -1.59415 1
gene 1 2 108 1 0 319 0 1
gene 1 108 23 3.22701 0 320 0 1
genomeend 38

/* Organism #39 Fitness: 8.99934 Error: 1.00011 */
genomestart 39
trait 1 0.1 0 0.490555 0 0 0 0 0 
trait 2 0.2 0 0 0 0 0 0 0 
trait 3 0.3 0.165838 0 0 0 0.21984 0.145436 0 
node 1 1 1 3
node 2 3 1 1
node 3 2 1 1
node 4 2 0 2
node 11 2 0 0
node 23 1 0 0
gene 3 1 4 -0.638371 0 1 -0.638371 1
gene 1 2 4 -8 0 2 -8 1
gene 3 3 4 6.59699 0 3 6.59699 1
gene 1 2 11 -0.39964 0 16 -0.39964 0
gene 1 11 4 -1.21609 0 17 -1.21609 1
gene 1 2 23 5.36177 0 50 5.36177 1
gene 1 23 11 2.52956 0 51 2.52956 1
gene 1 3 11 -1.43795 0 167 -1.43795 1
genomeend 39

/* Organism #40 Fitness: 8.99993 Error: 1.00001 */
genomestart 40
trait 1 0.1 0 0.490555 0 0 0 0 0 
trait 2 0.2 0 0 0 0 0 0 0 
trait 3 0.3 0.1638 0 0 0 0 0.145436 0 
node 1 1 1 3
node 2 3 1 1
node 3 2 1 1
node 4 2 0 2
node 11 2 0 0
node 23 1 0 0
gene 3 1 4 -0.377895 0 1 -0.377895 1
gene 1 2 4 -5.73576 0 2 -5.73576 1
gene 3 3 4 6.71548 0 3 6.71548 1
gene 1 2 11 1.55259 0 16 1.55259 1
gene 1 11 4 -2.9342 0 17 -2.9342 1
gene 1 2 23 2.84631 0 50 2.84631 1
gene 1 23 11 0.617428 0 51 0.617428 1
gene 1 3 11 1.16898 0 167 1.16898 1
genomeend 40

/* Organism #41 Fitness: 8.88856 Error: 1.01863 */
genomestart 41
trait 1 0.1 0 0.490555 0 0 0 0 0 
trait 2 0.2 0 0 0 0 0 0 0 
trait 3 0.3 0.1638 0 0 0 0 0.145436 0 
node 1 1 1 3
node 2 3 1 1
node 3 2 1 1
node 4 2 0 2
node 11 2 0 0
node 23 2 0 0
gene 3 1 4 -0.900296 0 1 -0.900296 1
gene 1 2 4 -6.25037 0 2 -6.25037 1
gene 3 3 4 6.49124 0 3 6.49124 1
gene 1 2 11 1.82199 0 16 1.82199 1
gene 1 11 4 -2.63634 0 17 -2.63634 1
gene 1 2 23 -0.820109 0 50 -0.820109 1
gene 1 23 11 1.9031 0 51 1.9031 1
gene 1 3 11 -2.43159 0 167 -2.43159 1
genomeend 41

/* Organism #42 Fitness: 9 Error: 1 */
genomestart 42
trait 1 0.1 0 0.490555 0 0 0 0 0 
trait 2 0.2 0 0 0 0 0 0 0 
trait 3 0.3 0.167875 0 0 0 0.43968 0.145436 0 
node 1 1 1 3
node 2 3 1 1
node 3 2 1 1
node 4 2 0 2
node 11 2 0 0
node 23 1 0 0
gene 3 1 4 -2.91826 0 1 -2.91826 1
gene 1 2 4 -8 0 2 -8 1
gene 3 3 4 8 0 3 8 1
gene 1 2 11 -2.92779 0 16 -2.92779 0
gene 1 11 4 -3.37603 0 17 -3.37603 1
gene 1 2 23 5.19186 0 50 5.19186 1
gene 1 23 11 3.62411 0 51 3.62411 1
gene 1 3 11 -2.42972 0 167 -2.42972 1
genomeend 42

/* Species #9 : (Size 7) (AF 8.76049) (Age 23)  */


/* Organism #43 Fitness: 9 Error: 1 */
genomestart 43
trait 1 0.1 0 0 0 0 0 0 0 
trait 2 0.2 0 0 0 0 0 0 0 
trait 3 0.3 0.0204751 0 0 0 0 0.0181795 0 
node 1 3 1 3
node 2 1 1 1
node 3 2 1 1
node 4 3 0 2
gene 3 1 4 -4.2007 0 1 -4.2007 1
gene 3 2 4 -6.82499 0 2 -6.82499 1
gene 2 3 4 7.66202 0 3 7.66202 1
genomeend 43

/* Organism #44 Fitness: 8.99999 Error: 1 */
genomestart 44
trait 1 0.1 0 0 0 0 0 0 0 
trait 2 0.2 0 0 0 0 0 0 0 
trait 3 0.3 0.0204751 0 0 0 0 0.0181795 0 
node 1 3 1 3
node 2 1 1 1
node 3 2 1 1
node 4 3 0 2
gene 3 1 4 -4.98772 0 1 -4.98772 1
gene 3 2 4 -8 0 2 -8 1
gene 2 3 4 7.82233 0 3 7.82233 1
genomeend 44

/* Organism #45 Fitness: 9 Error: 1 */
genomestart 45
trait 1 0.1 0 0 0 0 0 0 0 
trait 2 0.2 0 0 0 0 0 0 0 
trait 3 0.3 0.0204751 0 0 0 0 0.0181795 0 
node 1 3 1 3
node 2 1 1 1
node 3 2 1 1
node 4 3 0 2
gene 3 1 4 -3.2827 0 1 -3.2827 1
gene 3 2 4 -8 0 2 -8 1
gene 2 3 4 8 0 3 8 1
genomeend 45

/* Organism #46 Fitness: 7.32341 Error: 1.29382 */
genomestart 46
trait 1 0.1 0 0 0 0 0 0 0 
trait 2 0.2 0 0 0 0 0 0 0 
trait 3 0.3 0.0204751 0 0 0 0 0.0181795 0 
node 1 3 1 3
node 2 1 1 1
node 3 2 1 1
node 4 3 0 2
gene 3 1 4 -0.357219 0 1 -0.357219 1
gene 3 2 4 -8 0 2 -8 1
gene 2 3 4 8 0 3 8 1
genomeend 46

/* Organism #47 Fitness: 8.99999 Error: 1 */
genomestart 47
trait 1 1 0 0 0.0768151 0.174627 0 0 0 
trait 2 0.2 0 0 0 0 0 0 0 
trait 3 0.3 0.0204751 0 0 0 0 0.0181795 0 
node 1 3 1 3
node 2 1 1 1
node 3 2 1 1
node 4 3 0 2
gene 3 1 4 -2.90939 0 1 -2.90939 1
gene 3 2 4 -7.83675 0 2 -7.83675 1
gene 2 3 4 7.65607 0 3 7.65607 1
genomeend 47

/* Organism #48 Fitness: 9 Error: 1 */
genomestart 48
trait 1 0.1 0 0 0 0 0 0 0 
trait 2 0.2 0 0 0 0 0 0 0 
trait 3 0.3 0.0204751 0 0 0 0 0.0181795 0 
node 1 3 1 3
node 2 1 1 1
node 3 2 1 1
node 4 3 0 2
gene 3 1 4 -4.2007 0 1 -4.2007 1
gene 3 2 4 -7.53355 0 2 -7.53355 1
gene 2 3 4 8 0 3 8 1
genomeend 48

/* Organism #49 Fitness: 9 Error: 1 */
genomestart 49
trait 1 0.1 0 0 0 0 0 0 0 
trait 2 0.2 0 0 0 0 0 0 0 
trait 3 0.3 0.0204751 0 0 0 0 0.0181795 0 
node 1 3 1 3
node 2 1 1 1
node 3 2 1 1
node 4 3 0 2
gene 3 1 4 -4.08291 0 1 -4.08291 1
gene 3 2 4 -6.79456 0 2 -6.79456 1
gene 2 3 4 7.49303 0 3 7.49303 1
genomeend 49

/* Species #10 : (Size 5) (AF 7.19405) (Age 22)  */


/* Organism #50 Fitness: 8.99861 Error: 1.00023 */
genomestart 50
trait 1 0.1 0 0 0 0 0 0 0.288385 
trait 2 0.2 0 0 0 0 0 0.35696 0 
trait 3 0 0.890927 0 0.0198981 1 1 0 0 
node 1 3 1 3
node 2 1 1 1
node 3 2 1 1
node 4 3 0 2
node 10 1 0 0
node 15 1 0 0
node 30 1 0 0
node 107 1 0 0
gene 3 1 4 -1.69187 0 1 -1.69187 1
gene 1 2 4 -3.66588 0 2 -3.66588 1
gene 1 3 4 3.14722 0 3 3.14722 0
gene 1 2 10 -2.65893 0 14 -2.65893 0
gene 1 10 4 6.27647 0 15 6.27647 0
gene 1 3 15 -1.73385 0 26 -1.73385 1
gene 1 15 4 6.59652 0 27 6.59652 1
gene 1 10 30 1.62831 0 74 1.62831 1
gene 1 30 4 7.08742 0 75 7.08742 1
gene 3 15 30 3.14888 0 225 3.14888 1
gene 1 2 107 1 0 317 0 1
gene 1 107 10 -2.65893 0 318 0 1
genomeend 50

/* Organism #51 Fitness: 4 Error: 2 */
genomestart 51
trait 1 0.1 0 0 0 0 0 0 0.288385 
trait 2 0.2 0 0 0 0 0 0.35696 0 
trait 3 0 0.890927 0 0.0198981 1 1 0 0 
node 1 3 1 3
node 2 1 1 1
node 3 2 1 1
node 4 3 0 2
node 10 1 0 0
node 15 1 0 0
node 30 1 0 0
gene 3 1 4 -2.32429 0 1 -2.32429 1
gene 1 2 4 -1.67776 0 2 -1.67776 1
gene 1 3 4 3.92514 0 3 3.92514 0
gene 1 2 10 -1.71133 0 14 -1.71133 1
gene 1 10 4 5.4939 0 15 5.4939 0
gene 1 3 15 -0.0158086 0 26 -0.0158086 1
gene 1 15 4 5.88811 0 27 5.88811 1
gene 1 10 30 2.55103 0 74 2.55103 1
gene 1 30 4 5.30758 0 75 5.30758 1
gene 3 15 30 3.14888 0 225 3.14888 1
genomeend 51

/* Organism #52 Fitness: 7.3628 Error: 1.28655 */
genomestart 52
trait 1 0.1 0 0 0 0 0 0 0.288385 
trait 2 0.2 0 0 0 0 0 0.35696 0 
trait 3 0 0.890927 0 0.0198981 1 1 0 0 
node 1 3 1 3
node 2 1 1 1
node 3 2 1 1
node 4 3 0 2
node 10 1 0 0
node 15 1 0 0
node 30 1 0 0
gene 3 1 4 -1.26782 0 1 -1.26782 1
gene 1 2 4 -3.50734 0 2 -3.50734 1
gene 1 3 4 4.50133 0 3 4.50133 0
gene 1 2 10 -1.55629 0 14 -1.55629 1
gene 1 10 4 4.65082 0 15 4.65082 0
gene 1 3 15 -2.13875 0 26 -2.13875 1
gene 1 15 4 4.55895 0 27 4.55895 1
gene 1 10 30 -0.576044 0 74 -0.576044 1
gene 1 30 4 7.48111 0 75 7.48111 1
gene 3 15 30 4.6153 0 225 4.6153 1
genomeend 52

/* Organism #53 Fitness: 8.99918 Error: 1.00014 */
genomestart 53
trait 1 0.1 0 0 0 0 0 0 0.288385 
trait 2 0.2 0 0 0 0 0 0.35696 0 
trait 3 0 0.890927 0 0.0198981 1 1 0 0 
node 1 3 1 3
node 2 1 1 1
node 3 2 1 1
node 4 3 0 2
node 10 1 0 0
node 15 1 0 0
node 30 1 0 0
gene 3 1 4 -1.69187 0 1 -1.69187 1
gene 1 2 4 -3.66588 0 2 -3.66588 1
gene 1 3 4 3.14722 0 3 3.14722 0
gene 1 2 10 -2.65893 0 14 -2.65893 1
gene 3 10 4 6.27647 0 15 6.27647 0
gene 1 3 15 -1.73385 0 26 -1.73385 1
gene 1 15 4 6.59652 0 27 6.59652 1
gene 1 10 30 1.62831 0 74 1.62831 1
gene 1 30 4 7.08742 0 75 7.08742 1
gene 3 15 30 3.14888 0 225 3.14888 1
genomeend 53

/* Organism #54 Fitness: 6.60968 Error: 1.42907 */
genomestart 54
trait 1 0.1 0 0 0 0 0 0 0.288385 
trait 2 0.2 0 0 0 0 0 0.35696 0 
trait 3 0 0.890927 0 0.0198981 1 1 0 0 
node 1 3 1 3
node 2 1 1 1
node 3 2 1 1
node 4 3 0 2
node 10 1 0 0
node 15 1 0 0
node 30 1 0 0
gene 3 1 4 -2.38784 0 1 -2.38784 1
gene 1 2 4 -2.23518 0 2 -2.23518 1
gene 1 3 4 3.40327 0 3 3.40327 0
gene 1 2 10 -2.65893 0 14 -2.65893 1
gene 1 10 4 4.94693 0 15 4.94693 0
gene 1 3 15 -1.95679 0 26 -1.95679 1
gene 1 15 4 4.81905 0 27 4.81905 1
gene 1 10 30 -0.324648 0 74 -0.324648 1
gene 1 30 4 8 0 75 8 1
gene 3 15 30 3.84959 0 225 3.84959 1
genomeend 54

/* Species #11 : (Size 5) (AF 6.54043) (Age 21)  */


/* Organism #55 Fitness: 8.8379 Error: 1.02714 */
genomestart 55
trait 1 0.09375 0.0461879 0 0 0 0.0564001 0 0 
trait 2 0.2 0 0 0 0 0 0 0 
trait 3 0.419579 0.0673069 0 0 0 0.14523 0.0454487 0.163068 
node 1 3 1 3
node 2 1 1 1
node 3 2 1 1
node 4 3 0 2
node 19 1 0 0
node 34 1 0 0
gene 2 1 4 0.231445 0 1 0.231445 1
gene 2 2 4 -0.306635 0 2 -0.306635 1
gene 3 3 4 3.99797 0 3 3.99797 1
gene 2 2 19 3.2018 0 38 3.2018 1
gene 3 19 4 -4.64986 0 39 -4.64986 1
gene 2 3 19 -2.05466 0 61 -2.05466 1
gene 2 1 19 1.82455 0 76 1.82455 1
gene 2 3 34 0.199499 0 87 0.199499 0
gene 2 34 19 -0.954283 0 88 -0.954283 1
gene 1 2 34 1.54094 0 261 1.54094 1
genomeend 55

/* Organism #56 Fitness: 4.09553 Error: 1.97626 */
genomestart 56
trait 1 0.09375 0.0461879 0 0 0 0.0564001 0 0 
trait 2 0.2 0 0 0.964385 0.184668 0 0 0.483901 
trait 3 0.419579 0.0673069 0 0 0 0.14523 0.0454487 0.163068 
node 1 3 1 3
node 2 1 1 1
node 3 2 1 1
node 4 3 0 2
node 19 1 0 0
node 34 1 0 0
gene 2 1 4 0.82007 0 1 0.82007 1
gene 2 2 4 1.92587 0 2 1.92587 1
gene 3 3 4 3.75412 0 3 3.75412 1
gene 2 2 19 1.31064 0 38 1.31064 1
gene 3 19 4 -3.46643 0 39 -3.46643 1
gene 2 3 19 -1.64663 0 61 -1.64663 1
gene 2 1 19 2.71554 0 76 2.71554 1
gene 2 3 34 -0.672796 0 87 -0.672796 0
gene 2 34 19 1.18178 0 88 1.18178 1
gene 1 2 34 -0.967742 0 261 -0.967742 1
genomeend 56

/* Organism #57 Fitness: 6.92969 Error: 1.36757 */
genomestart 57
trait 1 0.09375 0.0461879 0 0 0 0.0564001 0 0 
trait 2 0.2 0 0 0 0 0 0 0 
trait 3 0.419579 0.0673069 0 0 0 0.14523 0.0454487 0.163068 
node 1 3 1 3
node 2 1 1 1
node 3 2 1 1
node 4 3 0 2
node 19 1 0 0
node 34 1 0 0
gene 2 1 4 2.13725 0 1 2.13725 1
gene 2 2 4 -1.53348 0 2 -1.53348 1
gene 3 3 4 3.07394 0 3 3.07394 1
gene 2 2 19 2.39107 0 38 2.39107 1
gene 3 19 4 -5.1287 0 39 -5.1287 1
gene 2 3 19 -3.99602 0 61 -3.99602 1
gene 2 1 19 4.30036 0 76 4.30036 1
gene 2 3 34 1.38301 0 87 1.38301 0
gene 2 34 19 -2.48456 0 88 -2.48456 1
gene 1 2 34 2.21076 0 261 2.21076 1
genomeend 57

/* Organism #58 Fitness: 4.00111 Error: 1.99972 */
genomestart 58
trait 1 0.09375 0.0461879 0 0 0 0.0564001 0 0 
trait 2 0.2 0 0.659719 0 0 0 0.295267 0 
trait 3 0.419579 0.0673069 0 0 0 0.14523 0.0454487 0.163068 
node 1 3 1 3
node 2 1 1 1
node 3 2 1 1
node 4 3 0 2
node 19 1 0 0
node 34 1 0 0
gene 2 1 4 1.26053 0 1 1.26053 1
gene 2 2 4 1.41614 0 2 1.41614 1
gene 3 3 4 4.75536 0 3 4.75536 1
gene 2 2 19 1.05772 0 38 1.05772 1
gene 3 19 4 -4.32812 0 39 -4.32812 1
gene 3 3 19 -0.683004 0 61 -0.683004 1
gene 2 1 19 1.89978 0 76 1.89978 1
gene 2 3 34 0.595019 0 87 0.595019 0
gene 2 34 19 -1.66376 0 88 -1.66376 1
gene 1 2 34 -0.503418 0 261 -0.503418 1
genomeend 58

/* Organism #59 Fitness: 8.8379 Error: 1.02714 */
genomestart 59
trait 1 0.09375 0.0461879 0 0 0 0.0564001 0 0 
trait 2 0.2 0 0 0 0 0 0 0 
trait 3 0.419579 0.0673069 0 0 0 0.14523 0.0454487 0.163068 
node 1 3 1 3
node 2 1 1 1
node 3 2 1 1
node 4 3 0 2
node 19 1 0 0
node 34 1 0 0
gene 2 1 4 0.231445 0 1 0.231445 1
gene 2 2 4 -0.306635 0 2 -0.306635 1
gene 3 3 4 3.99797 0 3 3.99797 1
gene 2 2 19 3.2018 0 38 3.2018 1
gene 3 19 4 -4.64986 0 39 -4.64986 1
gene 2 3 19 -2.05466 0 61 -2.05466 1
gene 2 1 19 1.82455 0 76 1.82455 1
gene 2 3 34 0.199499 0 87 0.199499 0
gene 2 34 19 -0.954283 0 88 -0.954283 1
gene 1 2 34 1.54094 0 261 1.54094 1
genomeend 59

/* Species #13 : (Size 7) (AF 8.28501) (Age 20)  */


/* Organism #60 Fitness: 9 Error: 1 */
genomestart 60
trait 1 0.1 0 0 0 0 0 0 0 
trait 2 0.2 0.0883225 0 0.243885 0 0.430998 0 0 
trait 3 0.3 0.16203 0.0416272 0.230178 0 0 0 0 
node 1 3 1 3
node 2 1 1 1
node 3 2 1 1
node 4 3 0 2
node 10 1 0 0
node 32 1 0 0
gene 1 1 4 -2.35979 0 1 -2.35979 1
gene 1 2 4 8 0 2 8 1
gene 1 3 4 6.5728 0 3 6.5728 1
gene 1 2 10 -3.84224 0 14 -3.84224 1
gene 1 10 4 -2.64183 0 15 -2.64183 1
gene 1 3 10 -5.68564 0 20 -5.68564 1
gene 1 2 32 -1.04253 0 80 -1.04253 1
gene 1 32 10 3.42702 0 81 3.42702 1
gene 1 1 32 -0.36845 0 299 -0.36845 1
genomeend 60

/* Organism #61 Fitness: 8.99606 Error: 1.00066 */
genomestart 61
trait 1 0.1 0 0 0 0 0 0 0 
trait 2 0.2 0.0883225 0 0.243885 0 0.430998 0 0 
trait 3 0.3 0.16203 0.0416272 0.230178 0 0 0 0 
node 1 3 1 3
node 2 1 1 1
node 3 2 1 1
node 4 3 0 2
node 10 1 0 0
node 32 1 0 0
node 109 1 0 0
gene 1 1 4 -2.35979 0 1 -2.35979 1
gene 1 2 4 8 0 2 8 1
gene 1 3 4 6.5728 0 3 6.5728 0
gene 1 2 10 -3.84224 0 14 -3.84224 1
gene 1 10 4 -2.64183 0 15 -2.64183 1
gene 1 3 10 -5.68564 0 20 -5.68564 1
gene 1 2 32 -1.04253 0 80 -1.04253 1
gene 1 32 10 3.42702 0 81 3.42702 1
gene 1 1 32 -0.36845 0 299 -0.36845 1
gene 1 3 109 1 0 321 0 1
gene 1 109 4 6.5728 0 322 0 1
genomeend 61

/* Organism #62 Fitness: 9 Error: 1 */
genomestart 62
trait 1 0.1 0 0 0 0 0 0 0 
trait 2 0.2 0.0883225 0 0.243885 0 0.430998 0 0 
trait 3 0.3 0.16203 0.0416272 0.230178 0 0 0 0 
node 1 3 1 3
node 2 1 1 1
node 3 2 1 1
node 4 3 0 2
node 10 1 0 0
node 32 1 0 0
gene 1 1 4 -2.35979 0 1 -2.35979 1
gene 1 2 4 8 0 2 8 1
gene 1 3 4 6.5728 0 3 6.5728 1
gene 1 2 10 -3.84224 0 14 -3.84224 0
gene 1 10 4 -2.64183 0 15 -2.64183 1
gene 1 3 10 -5.68564 0 20 -5.68564 1
gene 1 2 32 -1.04253 0 80 -1.04253 1
gene 1 32 10 3.42702 0 81 3.42702 1
gene 1 1 32 -0.36845 0 299 -0.36845 1
genomeend 62

/* Organism #63 Fitness: 8.99902 Error: 1.00016 */
genomestart 63
trait 1 0.1 0 0 0 0 0 0 0 
trait 2 0.2 0.0883225 0 0.243885 0 0.430998 0 0 
trait 3 0.3 0.16203 0.0416272 0.230178 0 0 0 0 
node 1 1 1 3
node 2 1 1 1
node 3 2 1 1
node 4 3 0 2
node 10 1 0 0
node 32 1 0 0
gene 1 1 4 -2.60119 0 1 -2.60119 1
gene 1 2 4 7.01326 0 2 7.01326 1
gene 1 3 4 7.85588 0 3 7.85588 1
gene 1 2 10 -4.64564 0 14 -4.64564 0
gene 1 10 4 -2.64183 0 15 -2.64183 1
gene 1 3 10 -5.68564 0 20 -5.68564 1
gene 1 2 32 -0.747017 0 80 -0.747017 1
gene 1 32 10 4.41056 0 81 4.41056 1
gene 1 1 32 0.825526 0 299 0.825526 1
genomeend 63

/* Organism #64 Fitness: 4 Error: 2 */
genomestart 64
trait 1 0.1 0 0 0 0 0 0 0 
trait 2 0.2 0.0883225 0 0.243885 0 0.430998 0 0 
trait 3 0.3 0.16203 0.809198 1 0 0 0.897122 0 
node 1 3 1 3
node 2 1 1 1
node 3 2 1 1
node 4 3 0 2
node 10 1 0 0
node 32 1 0 0
gene 1 1 4 -2.80414 0 1 -2.80414 1
gene 1 2 4 8 0 2 8 1
gene 1 3 4 -1.26537 0 3 -1.26537 1
gene 1 2 10 -5.06306 0 14 -5.06306 0
gene 1 10 4 -4.79132 0 15 -4.79132 1
gene 1 3 10 -5.42486 0 20 -5.42486 1
gene 1 2 32 -1.69767 0 80 -1.69767 1
gene 1 32 10 4.17572 0 81 4.17572 1
gene 1 1 32 -0.878643 0 299 -0.878643 1
genomeend 64

/* Organism #65 Fitness: 9 Error: 1 */
genomestart 65
trait 1 0.1 0 0 0 0 0 0 0 
trait 2 0.2 0.0883225 0 0.243885 0 0.430998 0 0 
trait 3 0.3 0.16203 0.0416272 0.230178 0 0 0 0 
node 1 3 1 3
node 2 1 1 1
node 3 2 1 1
node 4 3 0 2
node 10 1 0 0
node 32 1 0 0
gene 1 1 4 -2.35979 0 1 -2.35979 1
gene 1 2 4 8 0 2 8 1
gene 1 3 4 6.5728 0 3 6.5728 1
gene 1 2 10 -3.84224 0 14 -3.84224 0
gene 1 10 4 -2.64183 0 15 -2.64183 1
gene 1 3 10 -5.68564 0 20 -5.68564 1
gene 1 2 32 -1.04253 0 80 -1.04253 1
gene 1 32 10 3.42702 0 81 3.42702 1
gene 1 1 32 -0.36845 0 299 -0.36845 1
gene 2 32 4 0.837672 0 323 0.837672 1
genomeend 65

/* Organism #66 Fitness: 8.99999 Error: 1 */
genomestart 66
trait 1 0.1 0 0 0 0 0 0 0 
trait 2 0.2 0.0883225 0 0.243885 0 0.430998 0 0 
trait 3 0.3 0.16203 0.0416272 0.230178 0 0 0 0 
node 1 3 1 3
node 2 1 1 1
node 3 2 1 1
node 4 3 0 2
node 10 1 0 0
node 32 1 0 0
gene 1 1 4 1.27567 0 1 1.27567 1
gene 1 2 4 8 0 2 8 1
gene 1 3 4 6.1415 0 3 6.1415 1
gene 1 2 10 -5.1656 0 14 -5.1656 0
gene 1 10 4 -3.9056 0 15 -3.9056 1
gene 1 3 10 -3.4925 0 20 -3.4925 1
gene 1 2 32 -2.2918 0 80 -2.2918 1
gene 1 32 10 1.48559 0 81 1.48559 1
gene 1 1 32 0.859233 0 299 0.859233 1
genomeend 66

/* Species #14 : (Size 4) (AF 5.8887) (Age 17)  */


/* Organism #67 Fitness: 4 Error: 2 */
genomestart 67
trait 1 0.1 0 0 0 0 0 0 0 
trait 2 0.1 0 0 0 0 0 0.155812 0 
trait 3 0 0.780084 0 0 0.438902 0.347514 0 0.0605487 
node 1 3 1 3
node 2 1 1 1
node 3 2 1 1
node 4 3 0 2
node 10 1 0 0
node 15 1 0 0
node 30 1 0 0
node 44 1 0 0
gene 1 1 4 -7.31653 0 1 -7.31653 1
gene 1 2 4 1.50601 0 2 1.50601 1
gene 1 3 4 -1.25179 0 3 -1.25179 0
gene 1 2 10 -3.77155 0 14 -3.77155 1
gene 1 10 4 -4.0421 0 15 -4.0421 0
gene 2 3 15 1.911 0 26 1.911 1
gene 1 15 4 6.04239 0 27 6.04239 1
gene 1 10 30 -0.0924902 0 74 -0.0924902 0
gene 1 30 4 -4.35438 0 75 -4.35438 1
gene 1 10 44 -0.563372 0 119 -0.563372 1
gene 1 44 30 1.88147 0 120 1.88147 1
gene 3 2 15 1.4138 0 157 1.4138 1
gene 3 2 30 0.0518052 0 210 0.0518052 1
genomeend 67

/* Organism #68 Fitness: 6.57909 Error: 1.43503 */
genomestart 68
trait 1 0.1 0 0 0 0 0 0 0 
trait 2 0.1 0 0 0 0 0 0.155812 0 
trait 3 0 0.780084 0 0 0.438902 0.347514 0 0.0605487 
node 1 3 1 3
node 2 1 1 1
node 3 2 1 1
node 4 3 0 2
node 10 1 0 0
node 15 1 0 0
node 30 1 0 0
node 44 1 0 0
gene 1 1 4 -2.44264 0 1 -2.44264 1
gene 1 2 4 2.48535 0 2 2.48535 1
gene 1 3 4 -2.67184 0 3 -2.67184 0
gene 1 2 10 -1.79228 0 14 -1.79228 1
gene 1 10 4 -5.74046 0 15 -5.74046 0
gene 2 3 15 4.0215 0 26 4.0215 1
gene 1 15 4 7.43274 0 27 7.43274 1
gene 1 10 30 1.12276 0 74 1.12276 0
gene 1 30 4 -2.64863 0 75 -2.64863 1
gene 1 10 44 -3.27799 0 119 -3.27799 1
gene 1 44 30 2.44415 0 120 2.44415 1
gene 3 2 15 1.04437 0 157 1.04437 1
gene 3 2 30 -4.21117 0 210 -4.21117 1
genomeend 68

/* Organism #69 Fitness: 8.97792 Error: 1.00368 */
genomestart 69
trait 1 0.1 0 0 0 0 0 0 0 
trait 2 0.1 0 0 0 0 0 0.155812 0 
trait 3 0 0.780084 0 0 0.438902 0.347514 0 0.0605487 
node 1 3 1 3
node 2 1 1 1
node 3 2 1 1
node 4 3 0 2
node 10 1 0 0
node 15 1 0 0
node 30 1 0 0
node 44 1 0 0
gene 1 1 4 -4.92601 0 1 -4.92601 1
gene 1 2 4 1.97577 0 2 1.97577 1
gene 1 3 4 -1.70097 0 3 -1.70097 0
gene 1 2 10 -3.22047 0 14 -3.22047 1
gene 1 10 4 -4.0421 0 15 -4.0421 0
gene 2 3 15 2.01316 0 26 2.01316 1
gene 1 15 4 7.74273 0 27 7.74273 1
gene 1 10 30 -0.950594 0 74 -0.950594 0
gene 1 30 4 -2.80045 0 75 -2.80045 1
gene 1 10 44 -0.254749 0 119 -0.254749 1
gene 1 44 30 -2.0365 0 120 -2.0365 1
gene 3 2 15 0.932066 0 157 0.932066 1
gene 3 2 30 -2.42332 0 210 -2.42332 1
genomeend 69

/* Organism #70 Fitness: 3.99777 Error: 2.00056 */
genomestart 70
trait 1 0.1 0 0 0 0 0 0 0 
trait 2 0.1 0 0 0 0 0 0.155812 0 
trait 3 0 0.780084 0 0 0.438902 0.347514 0 0.0605487 
node 1 3 1 3
node 2 1 1 1
node 3 2 1 1
node 4 3 0 2
node 10 1 0 0
node 15 1 0 0
node 30 1 0 0
node 44 1 0 0
gene 1 1 4 -0.790429 0 1 -0.790429 1
gene 1 2 4 1.51936 0 2 1.51936 1
gene 1 3 4 1.91288 0 3 1.91288 0
gene 1 2 10 -2.60292 0 14 -2.60292 1
gene 1 10 4 -2.41424 0 15 -2.41424 0
gene 2 3 15 1.42056 0 26 1.42056 1
gene 1 15 4 7.14312 0 27 7.14312 1
gene 1 10 30 -0.582999 0 74 -0.582999 0
gene 1 30 4 -2.00667 0 75 -2.00667 1
gene 1 10 44 -0.815451 0 119 -0.815451 1
gene 1 44 30 -1.72811 0 120 -1.72811 1
gene 3 2 15 -0.424253 0 157 -0.424253 1
gene 3 2 30 -4.64425 0 210 -4.64425 1
genomeend 70

/* Species #15 : (Size 4) (AF 4.00003) (Age 17)  */


/* Organism #71 Fitness: 4 Error: 2 */
genomestart 71
trait 1 0.09375 0.0461879 0 0 0 0.0564001 0 0 
trait 2 0.2 0 0 0 0 0 0 0 
trait 3 0.419579 0.0673069 0 0 0 0.14523 0.0454487 0.163068 
node 1 3 1 3
node 2 1 1 1
node 3 2 1 1
node 4 3 0 2
node 19 1 0 0
node 34 1 0 0
node 45 1 0 0
gene 2 1 4 -3.8353 0 1 -3.8353 1
gene 2 2 4 -3.36375 0 2 -3.36375 1
gene 2 3 4 -3.72616 0 3 -3.72616 1
gene 2 2 19 6.52381 0 38 6.52381 1
gene 2 19 4 0.930815 0 39 0.930815 0
gene 1 3 19 4.78805 0 61 4.78805 0
gene 2 1 19 -1.65853 0 76 -1.65853 1
gene 2 3 34 2.32839 0 87 2.32839 1
gene 2 34 19 -3.67554 0 88 -3.67554 1
gene 2 19 45 -4.43474 0 121 -4.43474 1
gene 2 45 4 -1.36128 0 122 -1.36128 1
gene 1 34 4 -0.763421 0 134 -0.763421 1
gene 3 3 45 -4.99001 0 153 -4.99001 1
genomeend 71

/* Organism #72 Fitness: 4.00014 Error: 1.99997 */
genomestart 72
trait 1 0.09375 0.0461879 0 0 0 0.0564001 0 0 
trait 2 0.2 0 0 0 0 0 0 0 
trait 3 0.419579 0.0673069 0 0 0 0.14523 0.0454487 0.163068 
node 1 3 1 3
node 2 1 1 1
node 3 2 1 1
node 4 3 0 2
node 19 1 0 0
node 34 1 0 0
node 45 1 0 0
gene 2 1 4 -5.2525 0 1 -5.2525 1
gene 2 2 4 -1.07807 0 2 -1.07807 1
gene 2 3 4 -1.30345 0 3 -1.30345 1
gene 2 2 19 4.76305 0 38 4.76305 1
gene 2 19 4 -1.9705 0 39 -1.9705 0
gene 1 3 19 -1.67646 0 61 -1.67646 0
gene 2 1 19 0.458693 0 76 0.458693 1
gene 2 3 34 4.83213 0 87 4.83213 1
gene 2 34 19 -5.39549 0 88 -5.39549 1
gene 2 19 45 -4.35836 0 121 -4.35836 1
gene 2 45 4 -0.0827815 0 122 -0.0827815 1
gene 1 34 4 4.46883 0 134 4.46883 1
gene 3 3 45 -5.21531 0 153 -5.21531 1
genomeend 72

/* Organism #73 Fitness: 4 Error: 2 */
genomestart 73
trait 1 0.09375 0.0461879 0 0 0 0.0564001 0 0 
trait 2 0.2 0 0 0 0 0 0 0 
trait 3 0.419579 0.0673069 0 0 0 0.14523 0.0454487 0.163068 
node 1 3 1 3
node 2 1 1 1
node 3 2 1 1
node 4 3 0 2
node 19 1 0 0
node 34 1 0 0
node 45 1 0 0
gene 2 1 4 -4.58583 0 1 -4.58583 1
gene 2 2 4 -0.81843 0 2 -0.81843 1
gene 2 3 4 -1.24142 0 3 -1.24142 1
gene 2 2 19 1.03565 0 38 1.03565 1
gene 2 19 4 -5.51035 0 39 -5.51035 0
gene 1 3 19 2.43606 0 61 2.43606 0
gene 2 1 19 -0.204779 0 76 -0.204779 1
gene 2 3 34 4.01897 0 87 4.01897 1
gene 2 34 19 -0.737709 0 88 -0.737709 1
gene 2 19 45 2.32673 0 121 2.32673 1
gene 2 45 4 -0.0543229 0 122 -0.0543229 1
gene 1 34 4 1.88177 0 134 1.88177 1
gene 3 3 45 -3.37748 0 153 -3.37748 1
genomeend 73

/* Organism #74 Fitness: 4 Error: 2 */
genomestart 74
trait 1 0.09375 0.0461879 0 0 0 0.0564001 0 0 
trait 2 0.2 0 0 0 0 0 0 0 
trait 3 0.419579 0.0673069 0 0 0 0.14523 0.0454487 0.163068 
node 1 3 1 3
node 2 1 1 1
node 3 2 1 1
node 4 3 0 2
node 19 1 0 0
node 34 1 0 0
node 45 1 0 0
gene 2 1 4 -5.72096 0 1 -5.72096 1
gene 2 2 4 -3.79803 0 2 -3.79803 1
gene 2 3 4 -0.0331126 0 3 -0.0331126 1
gene 2 2 19 -1.38806 0 38 -1.38806 1
gene 2 19 4 -5.15137 0 39 -5.15137 0
gene 1 3 19 1.87048 0 61 1.87048 0
gene 2 1 19 1.52104 0 76 1.52104 1
gene 2 3 34 -0.218665 0 87 -0.218665 1
gene 2 34 19 -0.684988 0 88 -0.684988 1
gene 2 19 45 -3.27358 0 121 -3.27358 1
gene 2 45 4 -1.17458 0 122 -1.17458 1
gene 1 34 4 -0.259102 0 134 -0.259102 1
gene 3 3 45 -1.50922 0 153 -1.50922 1
genomeend 74

/* Species #16 : (Size 5) (AF 7.50771) (Age 16)  */


/* Organism #75 Fitness: 4.001 Error: 1.99975 */
genomestart 75
trait 1 0.1 0 0 0 0 0 0 0 
trait 2 0.2 0 0 0 0 0 0 0 
trait 3 0 0 0 0 0.109725 0.0868786 0 0.418531 
node 1 1 1 3
node 2 1 1 1
node 3 2 1 1
node 4 3 0 2
node 10 1 0 0
node 15 1 0 0
gene 2 1 4 -2.02287 0 1 -2.02287 1
gene 1 2 4 2.62944 0 2 2.62944 0
gene 1 3 4 -5.2369 0 3 -5.2369 0
gene 1 2 10 4.00569 0 14 4.00569 1
gene 1 10 4 8 0 15 8 1
gene 1 3 15 2.47787 0 26 2.47787 1
gene 1 15 4 -0.586604 0 27 -0.586604 1
gene 2 3 10 3.26856 0 43 3.26856 1
gene 2 2 15 -5.55507 0 143 -5.55507 1
genomeend 75

/* Organism #76 Fitness: 8.86964 Error: 1.02181 */
genomestart 76
trait 1 0.1 0 0 0 0 0 0 0 
trait 2 0.2 0 0 0 0 0 0 0 
trait 3 0 0 0 0 0.109725 0.0868786 0 0.418531 
node 1 1 1 3
node 2 1 1 1
node 3 2 1 1
node 4 3 0 2
node 10 1 0 0
node 15 1 0 0
gene 2 1 4 -4.46328 0 1 -4.46328 1
gene 1 2 4 0.972282 0 2 0.972282 0
gene 1 3 4 -1.82112 0 3 -1.82112 0
gene 1 2 10 2.63694 0 14 2.63694 1
gene 1 10 4 8 0 15 8 1
gene 1 3 15 0.846583 0 26 0.846583 1
gene 1 15 4 -0.618267 0 27 -0.618267 1
gene 2 3 10 2.84229 0 43 2.84229 1
gene 3 2 15 -3.68787 0 143 -3.68787 1
genomeend 76

/* Organism #77 Fitness: 8.99973 Error: 1.00005 */
genomestart 77
trait 1 0.1 0 0 0 0 0 0 0 
trait 2 0.2 0 0 0 0 0 0 0 
trait 3 0 0 0 0 0.109725 0.0868786 0 0.418531 
node 1 1 1 3
node 2 1 1 1
node 3 2 1 1
node 4 3 0 2
node 10 1 0 0
node 15 1 0 0
gene 2 1 4 -4.89748 0 1 -4.89748 1
gene 1 2 4 0.181242 0 2 0.181242 0
gene 1 3 4 -5.48364 0 3 -5.48364 0
gene 1 2 10 3.58766 0 14 3.58766 1
gene 1 10 4 8 0 15 8 1
gene 1 3 15 -1.05922 0 26 -1.05922 1
gene 1 15 4 -2.26493 0 27 -2.26493 1
gene 2 3 10 2.75577 0 43 2.75577 1
gene 3 2 15 -3.87915 0 143 -3.87915 1
genomeend 77

/* Organism #78 Fitness: 7.38922 Error: 1.28169 */
genomestart 78
trait 1 0.1 0 0 0 0 0 0 0 
trait 2 0.2 0 0 0 0 0 0 0 
trait 3 0 0 0 0 0.109725 0.0868786 0 0.418531 
node 1 1 1 3
node 2 1 1 1
node 3 2 1 1
node 4 3 0 2
node 10 1 0 0
node 15 1 0 0
gene 2 1 4 -2.93091 0 1 -2.93091 1
gene 1 2 4 -2.05119 0 2 -2.05119 1
gene 1 3 4 -2.90777 0 3 -2.90777 0
gene 1 2 10 5.45708 0 14 5.45708 1
gene 1 10 4 8 0 15 8 1
gene 1 3 15 -0.734504 0 26 -0.734504 1
gene 1 15 4 -2.51839 0 27 -2.51839 1
gene 2 3 10 3.06835 0 43 3.06835 1
gene 3 2 15 -5.39885 0 143 -5.39885 1
genomeend 78

/* Organism #79 Fitness: 8.27898 Error: 1.12268 */
genomestart 79
trait 1 0.1 0 0 0 0 0 0 0 
trait 2 0.2 0 0 0 0 0 0 0 
trait 3 0 0 0 0 0.109725 0.0868786 0 0.418531 
node 1 1 1 3
node 2 1 1 1
node 3 2 1 1
node 4 3 0 2
node 10 1 0 0
node 15 2 0 0
gene 2 1 4 -3.67018 0 1 -3.67018 1
gene 1 2 4 2.8198 0 2 2.8198 0
gene 1 3 4 -5.39163 0 3 -5.39163 0
gene 1 2 10 4.54266 0 14 4.54266 1
gene 1 10 4 7.0743 0 15 7.0743 1
gene 1 3 15 1.49174 0 26 1.49174 1
gene 1 15 4 -0.532968 0 27 -0.532968 1
gene 2 3 10 3.99039 0 43 3.99039 1
gene 3 2 15 -2.3198 0 143 -2.3198 1
genomeend 79

/* Species #17 : (Size 4) (AF 4.61841) (Age 15)  */


/* Organism #80 Fitness: 4.00012 Error: 1.99997 */
genomestart 80
trait 1 0.1 0 0.183493 0 0 0 0 0.152623 
trait 2 0.2 0 0 1 0 0.932066 0.68215 0 
trait 3 0.509264 0.0742776 0 0 0 0.254152 0.0409039 0.285369 
node 1 3 1 3
node 2 2 1 1
node 3 3 1 1
node 4 1 0 2
node 19 1 0 0
node 55 1 0 0
node 77 1 0 0
gene 2 1 4 -4.23238 0 1 -4.23238 1
gene 2 2 4 -6.19163 0 2 -6.19163 1
gene 3 3 4 2.54303 0 3 2.54303 0
gene 3 2 19 -1.8143 0 38 -1.8143 1
gene 2 19 4 -8 0 39 -8 1
gene 2 3 19 -0.0798059 0 61 -0.0798059 0
gene 2 3 55 1.10828 0 144 1.10828 1
gene 2 55 4 2.12115 0 145 2.12115 1
gene 1 1 19 -2.93649 0 192 -2.93649 1
gene 2 3 77 1.94928 0 216 1.94928 1
gene 2 77 19 -0.346843 0 217 -0.346843 1
gene 1 2 55 -1.04668 0 271 -1.04668 1
genomeend 80

/* Organism #81 Fitness: 1.11918 Error: 2.94209 */
genomestart 81
trait 1 0.1 0 0.183493 0 0 0 0 0.152623 
trait 2 0.2 0 0 1 0 0.932066 0.68215 0 
trait 3 0.509264 0.0742776 0 0 0 0.254152 0.0409039 0.285369 
node 1 3 1 3
node 2 2 1 1
node 3 3 1 1
node 4 1 0 2
node 19 1 0 0
node 55 1 0 0
node 77 1 0 0
gene 2 1 4 -0.606784 0 1 -0.606784 1
gene 2 2 4 -3.08248 0 2 -3.08248 1
gene 2 3 4 0.22599 0 3 0.22599 0
gene 3 2 19 -1.85825 0 38 -1.85825 1
gene 2 19 4 -4.35548 0 39 -4.35548 1
gene 2 3 19 -2.65786 0 61 -2.65786 0
gene 2 3 55 -0.970031 0 144 -0.970031 1
gene 2 55 4 4.84417 0 145 4.84417 1
gene 1 1 19 -1.4742 0 192 -1.4742 1
gene 2 3 77 0.65453 0 216 0.65453 1
gene 2 77 19 -0.350963 0 217 -0.350963 1
gene 1 2 55 -1.4042 0 271 -1.4042 1
genomeend 81

/* Organism #82 Fitness: 4.50744 Error: 1.87693 */
genomestart 82
trait 1 0.1 0 0.183493 0 0 0 0 0.152623 
trait 2 0.2 0 0 1 0 0.932066 0.68215 0 
trait 3 0.509264 0.0742776 0 0 0 0.254152 0.0409039 0.285369 
node 1 3 1 3
node 2 2 1 1
node 3 3 1 1
node 4 1 0 2
node 19 1 0 0
node 55 1 0 0
node 77 1 0 0
gene 2 1 4 -0.0863674 0 1 -0.0863674 1
gene 2 2 4 -3.92555 0 2 -3.92555 1
gene 2 3 4 1.72918 0 3 1.72918 0
gene 3 2 19 -0.584025 0 38 -0.584025 1
gene 2 19 4 -7.4277 0 39 -7.4277 1
gene 2 3 19 -2.07953 0 61 -2.07953 0
gene 2 3 55 1.73818 0 144 1.73818 1
gene 2 55 4 2.86123 0 145 2.86123 1
gene 1 1 19 0.0462355 0 192 0.0462355 1
gene 2 3 77 0.700552 0 216 0.700552 1
gene 2 77 19 -0.873516 0 217 -0.873516 1
gene 1 2 55 -1.27145 0 271 -1.27145 1
genomeend 82

/* Organism #83 Fitness: 8.84691 Error: 1.02562 */
genomestart 83
trait 1 0.1 0 0.183493 0 0 0 0 0.152623 
trait 2 0.2 0 0 1 0 0.932066 0.68215 0 
trait 3 0.509264 0.0742776 0 0 0 0.254152 0.0409039 0.285369 
node 1 3 1 3
node 2 2 1 1
node 3 3 1 1
node 4 1 0 2
node 19 1 0 0
node 55 1 0 0
node 77 1 0 0
gene 2 1 4 -0.542619 0 1 -0.542619 1
gene 2 2 4 -3.02655 0 2 -3.02655 1
gene 2 3 4 2.2158 0 3 2.2158 0
gene 3 2 19 -1.84345 0 38 -1.84345 1
gene 2 19 4 -6.39839 0 39 -6.39839 1
gene 2 3 19 -1.79914 0 61 -1.79914 0
gene 2 3 55 1.15261 0 144 1.15261 1
gene 2 55 4 4.37456 0 145 4.37456 1
gene 1 1 19 0.570467 0 192 0.570467 1
gene 2 3 77 1.15824 0 216 1.15824 1
gene 2 77 19 -1.35166 0 217 -1.35166 1
gene 1 2 55 1.3844 0 271 1.3844 1
genomeend 83

/* Species #18 : (Size 7) (AF 6.73616) (Age 12)  */


/* Organism #84 Fitness: 9 Error: 1 */
genomestart 84
trait 1 0.1 0 0 0 0 0 0 0 
trait 2 0.2 0 0 0 0 0 0 0 
trait 3 0.3 0.16203 0.0416272 0.230178 0 0 0 0 
node 1 2 1 3
node 2 1 1 1
node 3 2 1 1
node 4 1 0 2
node 10 1 0 0
node 59 1 0 0
gene 1 1 4 -3.8188 0 1 -3.8188 1
gene 1 2 4 7.15265 0 2 7.15265 1
gene 1 3 4 7.34523 0 3 7.34523 1
gene 1 2 10 1.9648 0 14 1.9648 1
gene 1 10 4 -1.37997 0 15 -1.37997 0
gene 1 3 10 -5.03941 0 20 -5.03941 1
gene 1 1 10 -1.0764 0 71 -1.0764 1
gene 1 10 59 1.29115 0 162 1.29115 1
gene 1 59 4 2.45415 0 163 2.45415 1
gene 1 1 59 -1.34793 0 187 -1.34793 1
genomeend 84

/* Organism #85 Fitness: 7.0347 Error: 1.3477 */
genomestart 85
trait 1 0.1 0 0 0 0 0 0 0 
trait 2 0.2 0 0 0 0 0 0 0 
trait 3 0.3 0.16203 0.0416272 0.230178 0 0 0 0 
node 1 2 1 3
node 2 1 1 1
node 3 2 1 1
node 4 1 0 2
node 10 1 0 0
node 59 1 0 0
gene 1 1 4 -1.51473 0 1 -1.51473 1
gene 1 2 4 8 0 2 8 1
gene 1 3 4 8 0 3 8 1
gene 1 2 10 0.357698 0 14 0.357698 1
gene 1 10 4 -3.80573 0 15 -3.80573 1
gene 1 3 10 -4.57743 0 20 -4.57743 1
gene 1 1 10 -0.966536 0 71 -0.966536 1
gene 1 10 59 -0.85873 0 162 -0.85873 1
gene 1 59 4 4.07697 0 163 4.07697 1
gene 1 1 59 -0.12009 0 187 -0.12009 1
genomeend 85

/* Organism #86 Fitness: 8.99999 Error: 1 */
genomestart 86
trait 1 0.1 0 0 0 0 0 0 0 
trait 2 0.2 0 0 0 0 0 0 0 
trait 3 0.3 0.16203 0.0416272 0.230178 0 0 0 0 
node 1 2 1 3
node 2 1 1 1
node 3 2 1 1
node 4 1 0 2
node 10 1 0 0
node 59 1 0 0
gene 1 1 4 -3.01654 0 1 -3.01654 1
gene 1 2 4 6.59722 0 2 6.59722 1
gene 1 3 4 5.81091 0 3 5.81091 1
gene 1 2 10 4.35722 0 14 4.35722 1
gene 1 10 4 -0.294122 0 15 -0.294122 0
gene 1 3 10 -5.45026 0 20 -5.45026 1
gene 1 1 10 -1.36084 0 71 -1.36084 1
gene 1 10 59 0.0704062 0 162 0.0704062 1
gene 1 59 4 0.246284 0 163 0.246284 1
gene 1 1 59 0.461516 0 187 0.461516 1
genomeend 86

/* Organism #87 Fitness: 1.00057 Error: 2.99972 */
genomestart 87
trait 1 0.1 0 0 0 0 0 0 0 
trait 2 0.2 0 0 0 0 0 0 0 
trait 3 0.3 0.16203 0.0416272 0.230178 0 0 0 0 
node 1 2 1 3
node 2 1 1 1
node 3 2 1 1
node 4 1 0 2
node 10 1 0 0
node 59 1 0 0
gene 1 1 4 -5.16573 0 1 -5.16573 1
gene 1 2 4 5.38639 0 2 5.38639 1
gene 1 3 4 2.30232 0 3 2.30232 1
gene 1 2 10 4.43291 0 14 4.43291 1
gene 1 10 4 -1.88742 0 15 -1.88742 1
gene 1 3 10 -5.03941 0 20 -5.03941 1
gene 1 1 10 -1.8515 0 71 -1.8515 1
gene 1 10 59 1.29115 0 162 1.29115 1
gene 1 59 4 4.06865 0 163 4.06865 1
gene 2 1 59 -2.6986 0 187 -2.6986 1
genomeend 87

/* Organism #88 Fitness: 8.11822 Error: 1.15075 */
genomestart 88
trait 1 0.1 0 0 0 0 0 0 0 
trait 2 0.2 0 0 0 0 0 0 0 
trait 3 0.3 0.16203 0.0416272 0.230178 0 0 0 0 
node 1 2 1 3
node 2 1 1 1
node 3 2 1 1
node 4 1 0 2
node 10 1 0 0
node 59 1 0 0
gene 1 1 4 -5.6303 0 1 -5.6303 1
gene 1 2 4 5.85142 0 2 5.85142 1
gene 1 3 4 6.1209 0 3 6.1209 1
gene 1 2 10 0.983861 0 14 0.983861 1
gene 1 10 4 -1.37997 0 15 -1.37997 0
gene 1 3 10 -0.689642 0 20 -0.689642 1
gene 1 1 10 1.25758 0 71 1.25758 1
gene 1 10 59 2.81707 0 162 2.81707 1
gene 1 59 4 0.619907 0 163 0.619907 1
gene 1 1 59 -2.94321 0 187 -2.94321 1
genomeend 88

/* Organism #89 Fitness: 3.99962 Error: 2.0001 */
genomestart 89
trait 1 0.1 0 0 0 0 0 0 0 
trait 2 0.2 0 0 0 0 0 0 0 
trait 3 0.3 0.16203 0.0416272 0.230178 0 0 0 0 
node 1 2 1 3
node 2 1 1 1
node 3 2 1 1
node 4 1 0 2
node 10 1 0 0
node 59 1 0 0
gene 1 1 4 -3.77935 0 1 -3.77935 1
gene 1 2 4 1.51662 0 2 1.51662 1
gene 1 3 4 0.412229 0 3 0.412229 1
gene 1 2 10 3.85191 0 14 3.85191 1
gene 1 10 4 -1.8836 0 15 -1.8836 0
gene 1 3 10 -7.1297 0 20 -7.1297 1
gene 1 1 10 -0.880474 0 71 -0.880474 1
gene 1 10 59 0.278481 0 162 0.278481 1
gene 1 59 4 3.57906 0 163 3.57906 1
gene 1 1 59 -2.81953 0 187 -2.81953 1
genomeend 89

/* Organism #90 Fitness: 9 Error: 1 */
genomestart 90
trait 1 0.1 0 0 0 0 0 0 0 
trait 2 0.2 0 0 0 0 0 0 0 
trait 3 0.3 0.16203 0.0416272 0.230178 0 0 0 0 
node 1 2 1 3
node 2 1 1 1
node 3 1 1 1
node 4 1 0 2
node 10 1 0 0
node 59 1 0 0
gene 1 1 4 -3.47943 0 1 -3.47943 1
gene 1 2 4 7.08994 0 2 7.08994 1
gene 1 3 4 8 0 3 8 1
gene 1 2 10 -1.4065 0 14 -1.4065 1
gene 1 10 4 -3.76759 0 15 -3.76759 0
gene 1 3 10 -4.50762 0 20 -4.50762 1
gene 1 1 10 1.34692 0 71 1.34692 1
gene 1 10 59 1.88488 0 162 1.88488 1
gene 3 59 4 4.29044 0 163 4.29044 1
gene 1 1 59 -4.02272 0 187 -4.02272 1
genomeend 90

/* Species #19 : (Size 5) (AF 5.67915) (Age 10)  */


/* Organism #91 Fitness: 4.00408 Error: 1.99898 */
genomestart 91
trait 1 0.1 0 0 0 0 0 0 0 
trait 2 0.2 0 0 0.0779977 0 0 0.170537 0 
trait 3 0.531685 0.0734609 0 0 0.0384075 0.281383 0.0374952 0.276095 
node 1 3 1 3
node 2 1 1 1
node 3 3 1 1
node 4 1 0 2
node 19 1 0 0
node 79 1 0 0
gene 2 1 4 -3.68519 0 1 -3.68519 1
gene 2 2 4 4.008 0 2 4.008 1
gene 1 3 4 1.79987 0 3 1.79987 0
gene 3 2 19 -1.24523 0 38 -1.24523 1
gene 2 19 4 -6.18445 0 39 -6.18445 1
gene 3 3 19 -4.71996 0 61 -4.71996 1
gene 1 3 79 -0.264153 0 220 -0.264153 1
gene 1 79 4 5.02703 0 221 5.02703 1
genomeend 91

/* Organism #92 Fitness: 8.99985 Error: 1.00002 */
genomestart 92
trait 1 0.1 0 0 0 0 0 0 0 
trait 2 0.2 0 0 0.0779977 0 0 0.170537 0 
trait 3 0.531685 0.0734609 0 0 0.0384075 0.281383 0.0374952 0.276095 
node 1 3 1 3
node 2 1 1 1
node 3 3 1 1
node 4 1 0 2
node 19 3 0 0
node 79 1 0 0
gene 2 1 4 -1.70572 0 1 -1.70572 1
gene 2 2 4 1.68493 0 2 1.68493 1
gene 1 3 4 -0.489784 0 3 -0.489784 0
gene 3 2 19 -1.14593 0 38 -1.14593 1
gene 2 19 4 -8 0 39 -8 1
gene 3 3 19 -2.12368 0 61 -2.12368 1
gene 1 3 79 0.35522 0 220 0.35522 1
gene 1 79 4 7.10168 0 221 7.10168 1
genomeend 92

/* Organism #93 Fitness: 4.00064 Error: 1.99984 */
genomestart 93
trait 1 0.1 0 0 0 0 0 0 0 
trait 2 0.2 0 0 0.0779977 0 0 0.170537 0 
trait 3 0.531685 0.0734609 0 0 0.0384075 0.281383 0.0374952 0.276095 
node 1 3 1 3
node 2 1 1 1
node 3 3 1 1
node 4 1 0 2
node 19 1 0 0
node 79 1 0 0
gene 2 1 4 -1.47336 0 1 -1.47336 1
gene 2 2 4 3.26304 0 2 3.26304 1
gene 1 3 4 -0.905103 0 3 -0.905103 0
gene 3 2 19 -0.771775 0 38 -0.771775 1
gene 2 19 4 -8 0 39 -8 1
gene 3 3 19 -2.86535 0 61 -2.86535 1
gene 1 3 79 -1.55814 0 220 -1.55814 1
gene 1 79 4 8 0 221 8 1
genomeend 93

/* Organism #94 Fitness: 3.40861 Error: 2.15376 */
genomestart 94
trait 1 0.1 0 0 0 0 0 0 0 
trait 2 0.2 0 0 0.0779977 0 0 0.170537 0 
trait 3 0.531685 0.0734609 0 0 0.0384075 0.281383 0.0374952 0.276095 
node 1 3 1 3
node 2 1 1 1
node 3 3 1 1
node 4 1 0 2
node 19 1 0 0
node 79 1 0 0
gene 2 1 4 -0.346309 0 1 -0.346309 1
gene 2 2 4 2.02139 0 2 2.02139 1
gene 1 3 4 -0.489784 0 3 -0.489784 0
gene 3 2 19 1.03877 0 38 1.03877 1
gene 2 19 4 -8 0 39 -8 1
gene 3 3 19 -3.3992 0 61 -3.3992 1
gene 1 3 79 2.54118 0 220 2.54118 1
gene 1 79 4 8 0 221 8 1
genomeend 94

/* Organism #95 Fitness: 7.98255 Error: 1.17466 */
genomestart 95
trait 1 0.1 0 0 0 0 0 0 0 
trait 2 0 0 0.845393 0 0 0.954192 0.531938 0 
trait 3 0.531685 0.0734609 0 0 0.0384075 0.281383 0.0374952 0.276095 
node 1 3 1 3
node 2 1 1 1
node 3 3 1 1
node 4 1 0 2
node 19 1 0 0
node 79 1 0 0
gene 2 1 4 -3.68381 0 1 -3.68381 1
gene 2 2 4 1.03168 0 2 1.03168 1
gene 1 3 4 0.0872448 0 3 0.0872448 0
gene 3 2 19 -1.01238 0 38 -1.01238 1
gene 2 19 4 -8 0 39 -8 1
gene 3 3 19 -0.713034 0 61 -0.713034 1
gene 1 3 79 2.02931 0 220 2.02931 1
gene 1 79 4 6.04375 0 221 6.04375 1
genomeend 95

/* Species #20 : (Size 7) (AF 7.47211) (Age 10)  */


/* Organism #96 Fitness: 9 Error: 1 */
genomestart 96
trait 1 0.0594714 0 0.344584 0 0 0 0 0 
trait 2 0.2 0 0 0 0 0 0 0 
trait 3 0.3 0.1638 0 0 0 0 0.145436 0 
node 1 1 1 3
node 2 3 1 1
node 3 2 1 1
node 4 1 0 2
node 11 2 0 0
node 23 1 0 0
node 74 1 0 0
gene 3 1 4 -5.0148 0 1 -5.0148 1
gene 1 2 4 -7.7354 0 2 -7.7354 1
gene 3 3 4 8 0 3 8 1
gene 1 2 11 -3.05044 0 16 -3.05044 1
gene 1 11 4 1.52913 0 17 1.52913 1
gene 1 2 23 3.84513 0 50 3.84513 0
gene 1 23 11 0.584544 0 51 0.584544 1
gene 1 3 11 0.916746 0 167 0.916746 1
gene 1 2 74 2.4729 0 206 2.4729 1
gene 1 74 23 -0.0580338 0 207 -0.0580338 1
gene 3 74 4 -1.37231 0 224 -1.37231 1
genomeend 96

/* Organism #97 Fitness: 9 Error: 1 */
genomestart 97
trait 1 0.0594714 0.0982391 0.635304 0 0 0 0 0 
trait 2 0.2 0 0 0 0 0 0 0 
trait 3 0.3 0.1638 0 0 0 0 0.145436 0 
node 1 1 1 3
node 2 3 1 1
node 3 2 1 1
node 4 1 0 2
node 11 2 0 0
node 23 1 0 0
node 74 1 0 0
gene 3 1 4 -3.87921 0 1 -3.87921 1
gene 1 2 4 -6.79948 0 2 -6.79948 1
gene 3 3 4 8 0 3 8 1
gene 1 2 11 -2.70306 0 16 -2.70306 1
gene 1 11 4 0.609607 0 17 0.609607 1
gene 1 2 23 0.532042 0 50 0.532042 0
gene 1 23 11 -1.64102 0 51 -1.64102 1
gene 1 3 11 2.48059 0 167 2.48059 1
gene 2 2 74 2.12178 0 206 2.12178 1
gene 1 74 23 -0.0580338 0 207 -0.0580338 1
gene 3 74 4 -3.0538 0 224 -3.0538 1
genomeend 97

/* Organism #98 Fitness: 8.99999 Error: 1 */
genomestart 98
trait 1 0.0594714 0 0.344584 0 0 0 0 0 
trait 2 0.2 0 0 0 0 0 0 0 
trait 3 0.3 0.1638 0 0 0 0 0.145436 0 
node 1 1 1 3
node 2 3 1 1
node 3 2 1 1
node 4 1 0 2
node 11 2 0 0
node 23 1 0 0
node 74 1 0 0
gene 3 1 4 -2.7958 0 1 -2.7958 1
gene 1 2 4 -8 0 2 -8 1
gene 3 3 4 5.65084 0 3 5.65084 1
gene 1 2 11 -3.65867 0 16 -3.65867 1
gene 1 11 4 1.73284 0 17 1.73284 1
gene 1 2 23 3.29069 0 50 3.29069 0
gene 1 23 11 -0.464606 0 51 -0.464606 1
gene 1 3 11 2.61998 0 167 2.61998 1
gene 1 2 74 1.91746 0 206 1.91746 1
gene 1 74 23 -0.0580338 0 207 -0.0580338 1
gene 3 74 4 -3.54637 0 224 -3.54637 1
genomeend 98

/* Organism #99 Fitness: 2.84764 Error: 2.31251 */
genomestart 99
trait 1 0.0594714 0 0.344584 0 0 0 0 0 
trait 2 0.2 0 0 0 0 0 0 0 
trait 3 0.3 0.1638 0 0 0 0 0.145436 0 
node 1 1 1 3
node 2 3 1 1
node 3 2 1 1
node 4 1 0 2
node 11 2 0 0
node 23 1 0 0
node 74 1 0 0
gene 3 1 4 2.11776 0 1 2.11776 1
gene 1 2 4 -6.49872 0 2 -6.49872 1
gene 3 3 4 6.01653 0 3 6.01653 1
gene 1 2 11 -2.18356 0 16 -2.18356 1
gene 1 11 4 1.01421 0 17 1.01421 1
gene 1 2 23 2.27289 0 50 2.27289 0
gene 1 23 11 -0.969726 0 51 -0.969726 1
gene 1 3 11 0.853374 0 167 0.853374 1
gene 1 2 74 -0.597171 0 206 -0.597171 1
gene 1 74 23 -0.997546 0 207 -0.997546 1
gene 3 74 4 -5.37863 0 224 -5.37863 1
genomeend 99

/* Organism #100 Fitness: 9 Error: 1 */
genomestart 100
trait 1 0.0594714 0 0.344584 0 0 0 0 0 
trait 2 0.2 0 0 0 0 0 0 0 
trait 3 0.3 0.1638 0 0 0 0 0.145436 0 
node 1 1 1 3
node 2 3 1 1
node 3 2 1 1
node 4 1 0 2
node 11 2 0 0
node 23 1 0 0
node 74 1 0 0
gene 3 1 4 -4.84901 0 1 -4.84901 1
gene 1 2 4 -7.8677 0 2 -7.8677 1
gene 3 3 4 8 0 3 8 1
gene 1 2 11 -3.2807 0 16 -3.2807 1
gene 1 11 4 1.31809 0 17 1.31809 1
gene 1 2 23 2.89826 0 50 2.89826 0
gene 1 23 11 -0.620136 0 51 -0.620136 1
gene 1 3 11 1.55199 0 167 1.55199 1
gene 1 2 74 3.15766 0 206 3.15766 1
gene 1 74 23 -0.0580338 0 207 -0.0580338 1
gene 3 74 4 -2.21306 0 224 -2.21306 1
genomeend 100

/* Organism #101 Fitness: 4.45715 Error: 1.8888 */
genomestart 101
trait 1 0.0594714 0 0.344584 0 0 0 0 0 
trait 2 0.2 0 0 0 0 0 0 0 
trait 3 0.3 0.1638 0 0 0 0 0.145436 0 
node 1 1 1 3
node 2 3 1 1
node 3 2 1 1
node 4 1 0 2
node 11 2 0 0
node 23 1 0 0
node 74 1 0 0
gene 3 1 4 -5.40658 0 1 -5.40658 1
gene 1 2 4 -8 0 2 -8 1
gene 3 3 4 5.7234 0 3 5.7234 1
gene 1 2 11 -3.51096 0 16 -3.51096 1
gene 1 11 4 0.787988 0 17 0.787988 1
gene 1 2 23 0.915354 0 50 0.915354 0
gene 1 23 11 -2.8375 0 51 -2.8375 1
gene 1 3 11 2.37614 0 167 2.37614 1
gene 1 2 74 0.72573 0 206 0.72573 1
gene 1 74 23 -1.74899 0 207 -1.74899 1
gene 3 74 4 -3.0538 0 224 -3.0538 1
genomeend 101

/* Organism #102 Fitness: 9 Error: 1 */
genomestart 102
trait 1 0.0594714 0 0.344584 0 0 0 0 0 
trait 2 0.2 0 0 0 0 0 0 0 
trait 3 0.3 0.1638 0 0 0 0 0.145436 0 
node 1 1 1 3
node 2 3 1 1
node 3 2 1 1
node 4 2 0 2
node 11 2 0 0
node 23 1 0 0
node 74 1 0 0
gene 3 1 4 -4.49515 0 1 -4.49515 1
gene 1 2 4 -6.83892 0 2 -6.83892 1
gene 3 3 4 6.66329 0 3 6.66329 1
gene 1 2 11 -1.47721 0 16 -1.47721 1
gene 1 11 4 2.92261 0 17 2.92261 1
gene 1 2 23 5.81571 0 50 5.81571 0
gene 1 23 11 -1.82939 0 51 -1.82939 1
gene 1 3 11 2.53407 0 167 2.53407 1
gene 1 2 74 0.739067 0 206 0.739067 1
gene 1 74 23 -1.80181 0 207 -1.80181 1
gene 3 74 4 -3.4214 0 224 -3.4214 1
genomeend 102

/* Species #21 : (Size 3) (AF 5.64844) (Age 10)  */


/* Organism #103 Fitness: 4.2996 Error: 1.92645 */
genomestart 103
trait 1 0.09375 0.0461879 0 0 0 0.0564001 0 0 
trait 2 0.2 0 0 0 0 0 0 0 
trait 3 0.419579 0.0673069 0 0 0 0.14523 0.0454487 0.163068 
node 1 3 1 3
node 2 1 1 1
node 3 2 1 1
node 4 1 0 2
node 19 1 0 0
node 34 1 0 0
node 80 1 0 0
gene 2 1 4 -0.413907 0 1 -0.413907 1
gene 2 2 4 -3.65615 0 2 -3.65615 1
gene 2 3 4 5.84189 0 3 5.84189 1
gene 2 2 19 8 0 38 8 1
gene 2 19 4 -1.25815 0 39 -1.25815 1
gene 2 3 19 -0.27665 0 61 -0.27665 1
gene 2 1 19 2.0864 0 76 2.0864 1
gene 2 3 34 3.9902 0 87 3.9902 1
gene 2 34 19 -2.01461 0 88 -2.01461 0
gene 1 2 34 -0.94509 0 208 -0.94509 1
gene 2 3 80 1.72634 0 226 1.72634 1
gene 3 80 19 0.155263 0 227 0.155263 1
genomeend 103

/* Organism #104 Fitness: 4 Error: 2 */
genomestart 104
trait 1 0.09375 0.0461879 0 0 0 0.0564001 0 0 
trait 2 0.2 0 0 0 0 0 0 0 
trait 3 0.419579 0.0673069 0 0 0 0.14523 0.0454487 0.163068 
node 1 3 1 3
node 2 1 1 1
node 3 2 1 1
node 4 3 0 2
node 19 1 0 0
node 34 1 0 0
node 80 1 0 0
gene 2 1 4 -1.44688 0 1 -1.44688 1
gene 2 2 4 -3.03517 0 2 -3.03517 1
gene 2 3 4 1.63858 0 3 1.63858 1
gene 2 2 19 6.136 0 38 6.136 1
gene 2 19 4 -4.89229 0 39 -4.89229 1
gene 2 3 19 2.32467 0 61 2.32467 1
gene 2 1 19 4.54207 0 76 4.54207 1
gene 2 3 34 -0.482513 0 87 -0.482513 1
gene 2 34 19 0.712981 0 88 0.712981 0
gene 1 2 34 -0.808672 0 208 -0.808672 1
gene 2 3 80 3.40837 0 226 3.40837 1
gene 3 80 19 -0.167058 0 227 -0.167058 1
genomeend 104

/* Organism #105 Fitness: 8.64572 Error: 1.05964 */
genomestart 105
trait 1 0.09375 0.0461879 0 0 0 0.0564001 0 0 
trait 2 0.2 0 0 0 0 0 0 0 
trait 3 0.419579 0.0673069 0 0 0 0.14523 0.0454487 0.163068 
node 1 3 1 3
node 2 1 1 1
node 3 2 1 1
node 4 3 0 2
node 19 1 0 0
node 34 1 0 0
node 80 1 0 0
gene 2 1 4 2.37114 0 1 2.37114 1
gene 2 2 4 -6.60988 0 2 -6.60988 1
gene 2 3 4 2.4387 0 3 2.4387 1
gene 2 2 19 5.8843 0 38 5.8843 1
gene 2 19 4 -2.93155 0 39 -2.93155 1
gene 2 3 19 0.209128 0 61 0.209128 1
gene 2 1 19 4.55924 0 76 4.55924 1
gene 2 3 34 -0.384243 0 87 -0.384243 1
gene 2 34 19 -2.59256 0 88 -2.59256 0
gene 1 2 34 -2.76132 0 208 -2.76132 1
gene 2 3 80 -1.10904 0 226 -1.10904 1
gene 3 80 19 3.03792 0 227 3.03792 1
genomeend 105

/* Species #22 : (Size 5) (AF 6.40988) (Age 7)  */


/* Organism #106 Fitness: 6.07117 Error: 1.53603 */
genomestart 106
trait 1 0.1 0 0 0 0 0 0 0 
trait 2 0.2 0 0 0 0 0 0 0 
trait 3 0.3 0.0204751 0 0 0 0 0.0181795 0 
node 1 3 1 3
node 2 1 1 1
node 3 3 1 1
node 4 3 0 2
node 35 1 0 0
node 38 1 0 0
node 104 1 0 0
gene 3 1 4 -1.79998 0 1 -1.79998 1
gene 3 2 4 8 0 2 8 1
gene 2 3 4 1.20281 0 3 1.20281 1
gene 2 3 35 1.89127 0 89 1.89127 1
gene 2 35 4 -0.416196 0 90 -0.416196 0
gene 2 35 38 1.87273 0 98 1.87273 1
gene 2 38 4 1.86628 0 99 1.86628 1
gene 2 35 104 -0.320841 0 304 -0.320841 1
gene 2 104 4 -0.0649548 0 305 -0.0649548 1
genomeend 106

/* Organism #107 Fitness: 8.99903 Error: 1.00016 */
genomestart 107
trait 1 0.1 0 0 0 0 0 0 0 
trait 2 0.2 0 0 0 0 0 0 0 
trait 3 0.3 0.0204751 0 0 0 0 0.0181795 0 
node 1 3 1 3
node 2 1 1 1
node 3 3 1 1
node 4 3 0 2
node 35 1 0 0
node 38 1 0 0
gene 3 1 4 -3.58798 0 1 -3.58798 1
gene 3 2 4 7.11504 0 2 7.11504 1
gene 2 3 4 -6.10197 0 3 -6.10197 1
gene 2 3 35 0.750679 0 89 0.750679 1
gene 2 35 4 0.82194 0 90 0.82194 1
gene 2 35 38 -1.86338 0 98 -1.86338 1
gene 2 38 4 -2.0642 0 99 -2.0642 1
genomeend 107

/* Organism #108 Fitness: 3.98228 Error: 2.00443 */
genomestart 108
trait 1 0.1 0 0 0 0 0 0 0 
trait 2 0.2 0 0 0 0 0 0 0 
trait 3 0.3 0.0204751 0 0 0 0 0.0181795 0 
node 1 3 1 3
node 2 1 1 1
node 3 3 1 1
node 4 3 0 2
node 35 1 0 0
node 38 1 0 0
node 104 1 0 0
gene 3 1 4 -1.41598 0 1 -1.41598 1
gene 3 2 4 6.15699 0 2 6.15699 1
gene 2 3 4 -1.56586 0 3 -1.56586 1
gene 2 3 35 -0.872143 0 89 -0.872143 1
gene 2 35 4 -3.44305 0 90 -3.44305 0
gene 2 35 38 2.49222 0 98 2.49222 1
gene 2 38 4 0.32815 0 99 0.32815 1
gene 2 35 104 -1.79862 0 304 -1.79862 1
gene 2 104 4 -0.920007 0 305 -0.920007 1
genomeend 108

/* Organism #109 Fitness: 8.99691 Error: 1.00051 */
genomestart 109
trait 1 0.1 0 0 0 0 0 0 0 
trait 2 0.2 0 0 0 0 0 0 0 
trait 3 0.3 0.0204751 0 0 0 0 0.0181795 0 
node 1 3 1 3
node 2 1 1 1
node 3 3 1 1
node 4 3 0 2
node 35 1 0 0
node 38 1 0 0
node 104 1 0 0
gene 3 1 4 -3.57547 0 1 -3.57547 1
gene 3 2 4 6.45225 0 2 6.45225 1
gene 2 3 4 -4.53821 0 3 -4.53821 1
gene 2 3 35 -0.0595874 0 89 -0.0595874 1
gene 2 35 4 -3.44305 0 90 -3.44305 0
gene 2 35 38 4.31166 0 98 4.31166 1
gene 3 38 4 0.238121 0 99 0.238121 1
gene 2 35 104 -0.634953 0 304 -0.634953 1
gene 2 104 4 -0.549436 0 305 -0.549436 1
genomeend 109

/* Organism #110 Fitness: 4 Error: 2 */
genomestart 110
trait 1 0.1 0 0 0 0 0 0 0 
trait 2 0.2 0 0 0 0 0 0 0 
trait 3 0.3 0.0204751 0 0 0 0 0.0181795 0 
node 1 3 1 3
node 2 1 1 1
node 3 3 1 1
node 4 3 0 2
node 35 1 0 0
node 38 1 0 0
node 104 1 0 0
gene 3 1 4 -5.99048 0 1 -5.99048 1
gene 3 2 4 4.26225 0 2 4.26225 1
gene 2 3 4 -3.60663 0 3 -3.60663 1
gene 2 3 35 0.554903 0 89 0.554903 1
gene 2 35 4 -1.1965 0 90 -1.1965 0
gene 2 35 38 5.99765 0 98 5.99765 1
gene 2 38 4 -1.92648 0 99 -1.92648 1
gene 2 35 104 -2.97649 0 304 -2.97649 1
gene 2 104 4 -3.01793 0 305 -3.01793 1
genomeend 110

/* Species #23 : (Size 5) (AF 4.9809) (Age 6)  */


/* Organism #111 Fitness: 1.00044 Error: 2.99978 */
genomestart 111
trait 1 0.356493 0 0 0 0 0.457045 0 0 
trait 2 0.214955 0 0 0 0 0.000989706 0.0140787 0 
trait 3 0.3 0.16203 0.0416272 0.230178 0 0.259316 0 0 
node 1 1 1 3
node 2 2 1 1
node 3 2 1 1
node 4 3 0 2
node 10 1 0 0
node 16 1 0 0
node 90 1 0 0
gene 1 1 4 -1.33663 0 1 -1.33663 1
gene 2 2 4 -0.961028 0 2 -0.961028 1
gene 1 3 4 6.24088 0 3 6.24088 1
gene 1 2 10 -2.49771 0 14 -2.49771 1
gene 1 10 4 8 0 15 8 1
gene 1 3 10 0.147862 0 20 0.147862 1
gene 1 3 16 -4.70447 0 29 -4.70447 1
gene 1 16 10 0.457549 0 30 0.457549 0
gene 1 16 4 -0.953398 0 223 -0.953398 1
gene 1 1 16 3.19335 0 247 3.19335 1
gene 1 16 90 -3.26807 0 257 -3.26807 1
gene 1 90 10 -1.03913 0 258 -1.03913 1
genomeend 111

/* Organism #112 Fitness: 4.00385 Error: 1.99904 */
genomestart 112
trait 1 0.356493 0 0 0 0 0.457045 0 0 
trait 2 0.214955 0 0 0 0 0.000989706 0.0140787 0 
trait 3 0.3 0.16203 0.0416272 0.230178 0 0.259316 0 0 
node 1 1 1 3
node 2 2 1 1
node 3 2 1 1
node 4 3 0 2
node 10 1 0 0
node 16 1 0 0
node 90 1 0 0
gene 1 1 4 -4.58983 0 1 -4.58983 1
gene 2 2 4 -1.67662 0 2 -1.67662 1
gene 1 3 4 7.67846 0 3 7.67846 1
gene 1 2 10 0.261162 0 14 0.261162 1
gene 1 10 4 7.81651 0 15 7.81651 1
gene 1 3 10 -4.37803 0 20 -4.37803 1
gene 1 3 16 -5.14058 0 29 -5.14058 1
gene 1 16 10 0.802332 0 30 0.802332 0
gene 1 16 4 -2.23899 0 223 -2.23899 1
gene 1 1 16 1.34805 0 247 1.34805 1
gene 1 16 90 -1.46817 0 257 -1.46817 1
gene 1 90 10 -2.37805 0 258 -2.37805 1
genomeend 112

/* Organism #113 Fitness: 8.88744 Error: 1.01882 */
genomestart 113
trait 1 0.356493 0 0 0 0 0.457045 0 0 
trait 2 0.214955 0 0 0 0 0.000989706 0.0140787 0 
trait 3 0.3 0.16203 0.0416272 0.230178 0 0.259316 0 0 
node 1 1 1 3
node 2 2 1 1
node 3 2 1 1
node 4 3 0 2
node 10 1 0 0
node 16 1 0 0
node 90 1 0 0
gene 1 1 4 -0.815836 0 1 -0.815836 1
gene 2 2 4 -0.999947 0 2 -0.999947 1
gene 1 3 4 8 0 3 8 1
gene 1 2 10 2.02216 0 14 2.02216 1
gene 1 10 4 8 0 15 8 1
gene 1 3 10 -3.74386 0 20 -3.74386 1
gene 1 3 16 -6.41427 0 29 -6.41427 1
gene 1 16 10 2.256 0 30 2.256 0
gene 1 16 4 0.547044 0 223 0.547044 1
gene 1 1 16 -0.789163 0 247 -0.789163 1
gene 1 16 90 0.870388 0 257 0.870388 1
gene 1 90 10 -3.24928 0 258 -3.24928 1
genomeend 113

/* Organism #114 Fitness: 7.01279 Error: 1.35183 */
genomestart 114
trait 1 0.356493 0 0 0 0 0.457045 0 0 
trait 2 0.214955 0 0 0 0 0.000989706 0.0140787 0 
trait 3 0.3 0.16203 0.0416272 0.230178 0 0.259316 0 0 
node 1 1 1 3
node 2 2 1 1
node 3 2 1 1
node 4 3 0 2
node 10 1 0 0
node 16 1 0 0
node 90 1 0 0
gene 1 1 4 -3.16057 0 1 -3.16057 1
gene 2 2 4 0.221023 0 2 0.221023 1
gene 1 3 4 6.24088 0 3 6.24088 1
gene 1 2 10 1.09951 0 14 1.09951 1
gene 1 10 4 8 0 15 8 1
gene 1 3 10 -1.89863 0 20 -1.89863 1
gene 1 3 16 -6.4322 0 29 -6.4322 1
gene 1 16 10 1.39698 0 30 1.39698 0
gene 1 16 4 -0.953398 0 223 -0.953398 1
gene 1 1 16 1.28213 0 247 1.28213 1
gene 1 16 90 -1.46817 0 257 -1.46817 1
gene 1 90 10 -1.63706 0 258 -1.63706 1
genomeend 114

/* Organism #115 Fitness: 4 Error: 2 */
genomestart 115
trait 1 0.356493 0 0 0 0 0.457045 0 0 
trait 2 0.214955 0 0 0 0 0.000989706 0.0140787 0 
trait 3 0.3 0.16203 0.0416272 0.230178 0 0.259316 0 0 
node 1 1 1 3
node 2 2 1 1
node 3 2 1 1
node 4 3 0 2
node 10 1 0 0
node 16 1 0 0
node 90 1 0 0
gene 1 1 4 -1.37707 0 1 -1.37707 1
gene 2 2 4 -0.488762 0 2 -0.488762 1
gene 1 3 4 6.4452 0 3 6.4452 1
gene 1 2 10 1.59345 0 14 1.59345 1
gene 1 10 4 7.93019 0 15 7.93019 1
gene 1 3 10 -4.09696 0 20 -4.09696 1
gene 1 3 16 -5.24022 0 29 -5.24022 1
gene 1 16 10 3.22481 0 30 3.22481 0
gene 1 16 4 0.451369 0 223 0.451369 1
gene 1 1 16 1.28213 0 247 1.28213 1
gene 1 16 90 -0.181738 0 257 -0.181738 1
gene 1 90 10 0.459103 0 258 0.459103 1
genomeend 115

/* Species #24 : (Size 4) (AF 4.74348) (Age 6)  */


/* Organism #116 Fitness: 4 Error: 2 */
genomestart 116
trait 1 0 0 0.91876 0.867092 0.303537 0.457045 0 0 
trait 2 0.214955 0 0 0 0 0.000989706 0.0140787 0 
trait 3 0.3 0.16203 0 0.230178 0 0.259316 0.733818 0 
node 1 1 1 3
node 2 3 1 1
node 3 2 1 1
node 4 3 0 2
node 10 1 0 0
node 16 1 0 0
node 91 1 0 0
node 102 1 0 0
gene 1 1 4 -7.44998 0 1 -7.44998 1
gene 2 2 4 2.85179 0 2 2.85179 1
gene 1 3 4 1.80067 0 3 1.80067 0
gene 1 2 10 -0.405591 0 14 -0.405591 1
gene 1 10 4 -1.04602 0 15 -1.04602 1
gene 1 3 10 -4.46644 0 20 -4.46644 1
gene 1 3 16 0.678961 0 29 0.678961 1
gene 1 16 10 -3.8981 0 30 -3.8981 1
gene 1 16 4 3.21451 0 223 3.21451 1
gene 1 1 16 -1.62603 0 247 -1.62603 1
gene 1 3 91 4.71221 0 259 4.71221 1
gene 1 91 4 1.32656 0 260 1.32656 0
gene 1 91 102 -1.77833 0 293 -1.77833 1
gene 1 102 4 -0.426572 0 294 -0.426572 1
genomeend 116

/* Organism #117 Fitness: 6.78991 Error: 1.39425 */
genomestart 117
trait 1 0 0 0.91876 0.867092 0.303537 0.457045 0 0 
trait 2 0.214955 0 0 0 0 0.000989706 0.0140787 0 
trait 3 0.3 0.16203 0 0.230178 0 0.259316 0.733818 0 
node 1 1 1 3
node 2 3 1 1
node 3 2 1 1
node 4 3 0 2
node 10 1 0 0
node 16 1 0 0
node 91 1 0 0
node 102 1 0 0
gene 1 1 4 -7.10695 0 1 -7.10695 1
gene 2 2 4 3.30522 0 2 3.30522 1
gene 1 3 4 0.6386 0 3 0.6386 0
gene 1 2 10 -0.872448 0 14 -0.872448 1
gene 1 10 4 6.26792 0 15 6.26792 1
gene 1 3 10 -4.76575 0 20 -4.76575 1
gene 1 3 16 -2.55459 0 29 -2.55459 1
gene 1 16 10 -3.66418 0 30 -3.66418 1
gene 1 16 4 3.6681 0 223 3.6681 1
gene 1 1 16 0.0124058 0 247 0.0124058 1
gene 1 3 91 3.12799 0 259 3.12799 1
gene 1 91 4 2.472 0 260 2.472 0
gene 1 91 102 0.718848 0 293 0.718848 1
gene 1 102 4 2.33993 0 294 2.33993 1
genomeend 117

/* Organism #118 Fitness: 4 Error: 2 */
genomestart 118
trait 1 0 0 0.91876 0.867092 0.303537 0.457045 0 0 
trait 2 0.214955 0 0 0 0 0.000989706 0.0140787 0 
trait 3 0.3 0.16203 0 0.230178 0 0.259316 0.733818 0 
node 1 1 1 3
node 2 3 1 1
node 3 2 1 1
node 4 3 0 2
node 10 1 0 0
node 16 1 0 0
node 91 1 0 0
node 102 1 0 0
gene 1 1 4 -8 0 1 -8 1
gene 2 2 4 2.28889 0 2 2.28889 1
gene 1 3 4 1.80067 0 3 1.80067 0
gene 1 2 10 -1.2927 0 14 -1.2927 1
gene 1 10 4 3.69132 0 15 3.69132 1
gene 1 3 10 1.89558 0 20 1.89558 1
gene 1 3 16 0.375568 0 29 0.375568 1
gene 1 16 10 -2.79295 0 30 -2.79295 1
gene 1 16 4 2.24578 0 223 2.24578 1
gene 1 1 16 -0.300943 0 247 -0.300943 1
gene 1 3 91 0.666753 0 259 0.666753 1
gene 1 91 4 3.83244 0 260 3.83244 0
gene 1 91 102 0.966903 0 293 0.966903 1
gene 1 102 4 -0.44145 0 294 -0.44145 1
genomeend 118

/* Organism #119 Fitness: 4.18402 Error: 1.95451 */
genomestart 119
trait 1 0 0 0.91876 0.867092 0.303537 0.457045 0 0 
trait 2 0.214955 0 0 0 0 0.000989706 0.0140787 0 
trait 3 0.3 0.16203 0 0.230178 0 0.259316 0.733818 0 
node 1 1 1 3
node 2 3 1 1
node 3 2 1 1
node 4 3 0 2
node 10 1 0 0
node 16 1 0 0
node 91 1 0 0
node 102 1 0 0
gene 1 1 4 -8 0 1 -8 1
gene 2 2 4 1.67386 0 2 1.67386 1
gene 1 3 4 6.95662 0 3 6.95662 0
gene 1 2 10 3.49916 0 14 3.49916 1
gene 1 10 4 4.5405 0 15 4.5405 1
gene 1 3 10 -1.60769 0 20 -1.60769 1
gene 1 3 16 -0.771775 0 29 -0.771775 1
gene 1 16 10 -5.9581 0 30 -5.9581 1
gene 1 16 4 4.30601 0 223 4.30601 1
gene 1 1 16 -0.0616016 0 247 -0.0616016 1
gene 1 3 91 2.13347 0 259 2.13347 1
gene 1 91 4 2.31567 0 260 2.31567 0
gene 1 91 102 1.07103 0 293 1.07103 1
gene 1 102 4 2.34634 0 294 2.34634 1
genomeend 119

/* Species #25 : (Size 6) (AF 5.69188) (Age 5)  */


/* Organism #120 Fitness: 8.99845 Error: 1.00026 */
genomestart 120
trait 1 0.1 0 0 0 0 0 0 0 
trait 2 0.2 0 0 0 0 0 0 0 
trait 3 0 0.201621 0.0350505 0.139927 0.111343 0.0868786 0 0.418531 
node 1 1 1 3
node 2 1 1 1
node 3 2 1 1
node 4 3 0 2
node 10 1 0 0
node 15 1 0 0
node 95 1 0 0
gene 2 1 4 -5.80068 0 1 -5.80068 1
gene 1 2 4 -6.64064 0 2 -6.64064 0
gene 1 3 4 3.59462 0 3 3.59462 1
gene 1 2 10 1.2884 0 14 1.2884 1
gene 1 10 4 7.52834 0 15 7.52834 1
gene 1 3 15 -0.386517 0 26 -0.386517 1
gene 1 15 4 -3.19636 0 27 -3.19636 1
gene 2 3 10 3.2459 0 43 3.2459 1
gene 3 2 15 -0.936155 0 143 -0.936155 1
gene 3 2 95 0.761498 0 269 0.761498 1
gene 3 95 15 -2.50764 0 270 -2.50764 1
gene 2 3 95 -1.00818 0 277 -1.00818 1
genomeend 120

/* Organism #121 Fitness: 4.00086 Error: 1.99978 */
genomestart 121
trait 1 0.1 0 0 0 0 0 0 0 
trait 2 0.2 0 0 0 0 0 0 0 
trait 3 0 0.201621 0.0350505 0.139927 0.111343 0.0868786 0 0.418531 
node 1 1 1 3
node 2 1 1 1
node 3 2 1 1
node 4 3 0 2
node 10 1 0 0
node 15 1 0 0
node 95 1 0 0
node 106 1 0 0
gene 2 1 4 -3.47494 0 1 -3.47494 1
gene 1 2 4 -6.80826 0 2 -6.80826 0
gene 1 3 4 5.27993 0 3 5.27993 1
gene 1 2 10 0.300302 0 14 0.300302 1
gene 1 10 4 8 0 15 8 1
gene 1 3 15 1.39355 0 26 1.39355 1
gene 1 15 4 -4.75547 0 27 -4.75547 1
gene 2 3 10 1.14821 0 43 1.14821 1
gene 3 2 15 1.28758 0 143 1.28758 0
gene 3 2 95 2.40454 0 269 2.40454 1
gene 3 95 15 1.85888 0 270 1.85888 1
gene 2 3 95 -1.95318 0 277 -1.95318 1
gene 3 2 106 -1.04846 0 314 -1.04846 1
gene 3 106 15 -0.750374 0 315 -0.750374 1
genomeend 121

/* Organism #122 Fitness: 8.99917 Error: 1.00014 */
genomestart 122
trait 1 0.1 0 0 0 0 0 0 0 
trait 2 0.2 0 0 0 0 0 0 0 
trait 3 0 0.201621 0.0350505 0.139927 0.111343 0.0868786 0 0.418531 
node 1 1 1 3
node 2 1 1 1
node 3 2 1 1
node 4 3 0 2
node 10 1 0 0
node 15 1 0 0
node 95 1 0 0
node 106 2 0 0
gene 2 1 4 -6.01164 0 1 -6.01164 1
gene 1 2 4 -8 0 2 -8 0
gene 1 3 4 1.43284 0 3 1.43284 1
gene 1 2 10 1.74213 0 14 1.74213 1
gene 1 10 4 7.87716 0 15 7.87716 1
gene 1 3 15 -0.661336 0 26 -0.661336 1
gene 1 15 4 -1.8788 0 27 -1.8788 1
gene 2 3 10 4.41178 0 43 4.41178 1
gene 3 2 15 1.52112 0 143 1.52112 0
gene 3 2 95 3.2364 0 269 3.2364 1
gene 3 95 15 -0.106372 0 270 -0.106372 1
gene 2 3 95 -1.58818 0 277 -1.58818 1
gene 3 2 106 1 0 314 1 1
gene 3 106 15 -2.30064 0 315 -2.30064 1
genomeend 122

/* Organism #123 Fitness: 3.95547 Error: 2.01116 */
genomestart 123
trait 1 0.1 0 0 0 0 0 0 0 
trait 2 0.2 0 0 0 0 0 0 0 
trait 3 0 0.201621 0.0350505 0.139927 0.111343 0.0868786 0 0.418531 
node 1 1 1 3
node 2 1 1 1
node 3 2 1 1
node 4 3 0 2
node 10 1 0 0
node 15 1 0 0
node 95 1 0 0
gene 2 1 4 -4.79646 0 1 -4.79646 1
gene 1 2 4 -4.55874 0 2 -4.55874 0
gene 1 3 4 5.56803 0 3 5.56803 1
gene 1 2 10 -0.417737 0 14 -0.417737 1
gene 1 10 4 8 0 15 8 1
gene 1 3 15 1.91488 0 26 1.91488 1
gene 1 15 4 -3.42311 0 27 -3.42311 1
gene 2 3 10 2.93026 0 43 2.93026 1
gene 3 2 15 -0.712455 0 143 -0.712455 1
gene 3 2 95 1.11521 0 269 1.11521 1
gene 3 95 15 -1.36769 0 270 -1.36769 1
gene 2 3 95 -1.00818 0 277 -1.00818 1
genomeend 123

/* Organism #124 Fitness: 4.00365 Error: 1.99909 */
genomestart 124
trait 1 0.1 0 0 0 0 0 0 0 
trait 2 0.2 0 0 0 0 0 0 0 
trait 3 0 0.201621 0.0350505 0.139927 0.111343 0.0868786 0 0.418531 
node 1 1 1 3
node 2 1 1 1
node 3 2 1 1
node 4 3 0 2
node 10 1 0 0
node 15 1 0 0
node 95 1 0 0
gene 2 1 4 -6.28798 0 1 -6.28798 1
gene 1 2 4 -4.20763 0 2 -4.20763 0
gene 1 3 4 1.10736 0 3 1.10736 1
gene 1 2 10 -0.439634 0 14 -0.439634 1
gene 1 10 4 7.47737 0 15 7.47737 1
gene 1 3 15 0.345164 0 26 0.345164 1
gene 1 15 4 -4.39985 0 27 -4.39985 1
gene 2 3 10 5.56256 0 43 5.56256 1
gene 3 2 15 1.15886 0 143 1.15886 1
gene 3 2 95 -0.493576 0 269 -0.493576 1
gene 3 95 15 -3.78973 0 270 -3.78973 1
gene 2 3 95 -1.4217 0 277 -1.4217 1
genomeend 124

/* Organism #125 Fitness: 4.19369 Error: 1.95215 */
genomestart 125
trait 1 0.1 0 0 0 0 0 0 0 
trait 2 0.2 0 0 0 0 0 0 0 
trait 3 0 0.201621 0.0350505 0.139927 0.111343 0.0868786 0 0.418531 
node 1 1 1 3
node 2 1 1 1
node 3 2 1 1
node 4 3 0 2
node 10 1 0 0
node 15 1 0 0
node 95 1 0 0
gene 2 1 4 -3.38742 0 1 -3.38742 1
gene 1 2 4 -4.48298 0 2 -4.48298 0
gene 1 3 4 3.29783 0 3 3.29783 1
gene 1 2 10 2.05045 0 14 2.05045 1
gene 1 10 4 8 0 15 8 1
gene 1 3 15 1.15513 0 26 1.15513 1
gene 1 15 4 -2.52464 0 27 -2.52464 1
gene 2 3 10 3.97254 0 43 3.97254 1
gene 3 2 15 -1.83554 0 143 -1.83554 0
gene 3 2 95 -0.237602 0 269 -0.237602 1
gene 3 95 15 -2.50764 0 270 -2.50764 1
gene 2 3 95 1.11408 0 277 1.11408 1
genomeend 125

/* Species #27 : (Size 6) (AF 6.88566) (Age 4)  */


/* Organism #126 Fitness: 8.99975 Error: 1.00004 */
genomestart 126
trait 1 0.1 0 0 0 0 0 0 0 
trait 2 0.2 0 0 0 0 0 0 0 
trait 3 0 0.201621 0.0350505 0.139927 0.111343 0.0868786 0 0.418531 
node 1 1 1 3
node 2 1 1 1
node 3 2 1 1
node 4 3 0 2
node 10 1 0 0
node 15 1 0 0
node 95 1 0 0
node 100 1 0 0
gene 2 1 4 -5.59231 0 1 -5.59231 1
gene 1 2 4 -3.61023 0 2 -3.61023 0
gene 1 3 4 -1.11888 0 3 -1.11888 0
gene 1 2 10 5.39779 0 14 5.39779 1
gene 1 10 4 8 0 15 8 1
gene 1 3 15 1.52799 0 26 1.52799 1
gene 1 15 4 -1.52696 0 27 -1.52696 1
gene 2 3 10 4.17183 0 43 4.17183 1
gene 3 2 15 2.18841 0 143 2.18841 0
gene 3 2 95 2.14353 0 269 2.14353 1
gene 3 95 15 -0.000396741 0 270 -0.000396741 0
gene 3 95 100 -0.241874 0 285 -0.241874 1
gene 3 100 15 -1.00049 0 286 -1.00049 1
genomeend 126

/* Organism #127 Fitness: 4.18211 Error: 1.95498 */
genomestart 127
trait 1 0.1 0 0 0 0 0 0 0 
trait 2 0.2 0 0 0 0 0 0 0 
trait 3 0 0.201621 0.0350505 0.139927 0.111343 0.0868786 0 0.418531 
node 1 1 1 3
node 2 1 1 1
node 3 2 1 1
node 4 2 0 2
node 10 1 0 0
node 15 1 0 0
node 95 1 0 0
node 100 1 0 0
gene 2 1 4 -6.76407 0 1 -6.76407 1
gene 1 2 4 -2.18131 0 2 -2.18131 0
gene 1 3 4 0.180059 0 3 0.180059 0
gene 1 2 10 4.3026 0 14 4.3026 1
gene 1 10 4 6.33888 0 15 6.33888 1
gene 1 3 15 -0.35184 0 26 -0.35184 1
gene 1 15 4 -0.559404 0 27 -0.559404 1
gene 2 3 10 2.86075 0 43 2.86075 1
gene 3 2 15 -1.81285 0 143 -1.81285 0
gene 3 2 95 2.72475 0 269 2.72475 1
gene 3 95 15 -0.948492 0 270 -0.948492 0
gene 3 95 100 -1.24521 0 285 -1.24521 1
gene 3 100 15 -3.34153 0 286 -3.34153 1
genomeend 127

/* Organism #128 Fitness: 4.14869 Error: 1.96317 */
genomestart 128
trait 1 0.1 0 0 0 0 0 0 0 
trait 2 0.2 0 0 0 0 0 0 0 
trait 3 0 0.201621 0.0350505 0.139927 0.111343 0.0868786 0 0.418531 
node 1 1 1 3
node 2 1 1 1
node 3 2 1 1
node 4 3 0 2
node 10 1 0 0
node 15 1 0 0
node 95 1 0 0
node 100 1 0 0
gene 2 1 4 -3.57382 0 1 -3.57382 1
gene 1 2 4 -1.64594 0 2 -1.64594 0
gene 1 3 4 0.760521 0 3 0.760521 0
gene 1 2 10 3.32376 0 14 3.32376 1
gene 1 10 4 6.75309 0 15 6.75309 1
gene 1 3 15 2.57958 0 26 2.57958 1
gene 1 15 4 0.925016 0 27 0.925016 1
gene 2 3 10 3.97445 0 43 3.97445 1
gene 3 2 15 1.71453 0 143 1.71453 0
gene 3 2 95 0.134953 0 269 0.134953 1
gene 3 95 15 1.26421 0 270 1.26421 0
gene 3 95 100 -0.241874 0 285 -0.241874 1
gene 3 100 15 1.47639 0 286 1.47639 1
genomeend 128

/* Organism #129 Fitness: 4.01989 Error: 1.99503 */
genomestart 129
trait 1 0.1 0 0 0 0 0 0 0 
trait 2 0.2 0 0 0 0 0 0 0 
trait 3 0 0.201621 0.0350505 0.139927 0.111343 0.0868786 0 0.418531 
node 1 1 1 3
node 2 1 1 1
node 3 2 1 1
node 4 3 0 2
node 10 1 0 0
node 15 1 0 0
node 95 1 0 0
node 100 1 0 0
gene 2 1 4 -3.35126 0 1 -3.35126 1
gene 1 2 4 -5.00958 0 2 -5.00958 0
gene 1 3 4 -3.58943 0 3 -3.58943 0
gene 1 2 10 5.86053 0 14 5.86053 1
gene 1 10 4 7.68436 0 15 7.68436 1
gene 1 3 15 0.0225074 0 26 0.0225074 1
gene 1 15 4 0.756134 0 27 0.756134 1
gene 2 3 10 2.42182 0 43 2.42182 1
gene 3 2 15 0.464492 0 143 0.464492 0
gene 3 2 95 3.74041 0 269 3.74041 1
gene 3 95 15 -0.641362 0 270 -0.641362 0
gene 3 95 100 1.5212 0 285 1.5212 1
gene 3 100 15 0.256127 0 286 0.256127 1
genomeend 129

/* Organism #130 Fitness: 15.1746 Error: 0.104547 */
/* ##------$ WINNER 130 SPECIES #27 $------## */
genomestart 130
trait 1 0.1 0 0 0 0 0 0 0 
trait 2 0.2 0 0 0 0 0 0 0 
trait 3 0 0.201621 0.0350505 0.139927 0.111343 0.0868786 0 0.418531 
node 1 1 1 3
node 2 1 1 1
node 3 2 1 1
node 4 3 0 2
node 10 1 0 0
node 15 1 0 0
node 95 1 0 0
node 100 1 0 0
gene 2 1 4 -5.59231 0 1 -5.59231 1
gene 1 2 4 -4.00966 0 2 -4.00966 0
gene 1 3 4 -1.18912 0 3 -1.18912 1
gene 1 2 10 4.8502 0 14 4.8502 1
gene 1 10 4 8 0 15 8 1
gene 1 3 15 0.703738 0 26 0.703738 1
gene 1 15 4 -1.79096 0 27 -1.79096 1
gene 2 3 10 3.99825 0 43 3.99825 1
gene 3 2 15 1.14454 0 143 1.14454 1
gene 3 2 95 1.85765 0 269 1.85765 1
gene 3 95 15 -0.474445 0 270 -0.474445 1
gene 3 95 100 0.0685942 0 285 -0.181406 1
gene 3 100 15 -1.22451 0 286 -0.750366 1
genomeend 130

/* Organism #131 Fitness: 4.78898 Error: 1.81163 */
genomestart 131
trait 1 0.1 0 0 0 0 0 0 0 
trait 2 0.2 0 0 0 0 0 0 0 
trait 3 0 0.201621 0.0350505 0.139927 0.111343 0.0868786 0 0.418531 
node 1 1 1 3
node 2 1 1 1
node 3 2 1 1
node 4 3 0 2
node 10 1 0 0
node 15 1 0 0
node 95 1 0 0
node 100 1 0 0
gene 2 1 4 -7.74173 0 1 -7.74173 1
gene 1 2 4 -6.76939 0 2 -6.76939 0
gene 1 3 4 -2.34008 0 3 -2.34008 0
gene 1 2 10 2.9137 0 14 2.9137 1
gene 1 10 4 7.44838 0 15 7.44838 1
gene 1 3 15 1.3601 0 26 1.3601 1
gene 1 15 4 -0.187231 0 27 -0.187231 1
gene 2 3 10 3.36927 0 43 3.36927 1
gene 3 2 15 -1.04248 0 143 -1.04248 0
gene 3 2 95 3.45613 0 269 3.45613 1
gene 3 95 15 0.627789 0 270 0.627789 0
gene 3 95 100 0.761307 0 285 0.761307 1
gene 3 100 15 -2.43703 0 286 -2.43703 1
genomeend 131

/* Species #28 : (Size 6) (AF 6.83784) (Age 4)  */


/* Organism #132 Fitness: 9 Error: 1 */
genomestart 132
trait 1 0.1 0 0 0 0 0 0 0 
trait 2 0.2 0 0 0 0 0 0 0 
trait 3 0.3 0.16203 0.0416272 0.230178 0 0 0 0 
node 1 2 1 3
node 2 1 1 1
node 3 2 1 1
node 4 1 0 2
node 10 1 0 0
node 59 1 0 0
node 98 1 0 0
gene 1 1 4 -3.76291 0 1 -3.76291 1
gene 1 2 4 7.57633 0 2 7.57633 1
gene 1 3 4 8 0 3 8 1
gene 1 2 10 1.44126 0 14 1.44126 1
gene 1 10 4 -2.47711 0 15 -2.47711 0
gene 1 3 10 -5.87333 0 20 -5.87333 1
gene 1 1 10 -0.517075 0 71 -0.517075 1
gene 1 10 59 -0.586238 0 162 -0.586238 0
gene 1 59 4 1.72819 0 163 1.72819 1
gene 1 1 59 -1.34793 0 187 -1.34793 1
gene 1 10 98 1 0 278 0 1
gene 1 98 59 -0.586238 0 279 0 1
gene 1 1 98 -0.517502 0 288 -0.517502 1
genomeend 132

/* Organism #133 Fitness: 9 Error: 1 */
genomestart 133
trait 1 0.1 0 0 0 0 0 0 0 
trait 2 0.2 0 0 0 0 0 0 0 
trait 3 0.3 0.16203 0.0416272 0.230178 0 0 0 0 
node 1 2 1 3
node 2 1 1 1
node 3 2 1 1
node 4 1 0 2
node 10 1 0 0
node 59 1 0 0
node 98 1 0 0
node 110 1 0 0
gene 1 1 4 -3.76291 0 1 -3.76291 1
gene 1 2 4 7.57633 0 2 7.57633 1
gene 1 3 4 8 0 3 8 1
gene 1 2 10 1.44126 0 14 1.44126 1
gene 1 10 4 -2.47711 0 15 -2.47711 0
gene 1 3 10 -5.87333 0 20 -5.87333 1
gene 1 1 10 -0.517075 0 71 -0.517075 1
gene 1 10 59 -0.586238 0 162 -0.586238 0
gene 1 59 4 1.72819 0 163 1.72819 0
gene 1 1 59 -1.34793 0 187 -1.34793 1
gene 1 10 98 1 0 278 0 1
gene 1 98 59 -0.586238 0 279 0 1
gene 1 1 98 -0.517502 0 288 -0.517502 1
gene 1 59 110 1 0 324 0 1
gene 1 110 4 1.72819 0 325 0 1
genomeend 133

/* Organism #134 Fitness: 4 Error: 2 */
genomestart 134
trait 1 0.1 0 0 0 0 0 0 0 
trait 2 0.2 0 0 0 0 0 0 0 
trait 3 0.339308 0.691771 0.0416272 0.269242 0 0 0 0 
node 1 2 1 3
node 2 1 1 1
node 3 2 1 1
node 4 1 0 2
node 10 1 0 0
node 59 1 0 0
node 98 1 0 0
gene 1 1 4 -3.76383 0 1 -3.76383 1
gene 1 2 4 -0.681021 0 2 -0.681021 1
gene 1 3 4 8 0 3 8 1
gene 1 2 10 1.81694 0 14 1.81694 1
gene 1 10 4 -1.67295 0 15 -1.67295 0
gene 1 3 10 -5.87333 0 20 -5.87333 1
gene 1 1 10 0.600055 0 71 0.600055 1
gene 1 10 59 -0.680235 0 162 -0.680235 0
gene 1 59 4 -0.0590533 0 163 -0.0590533 1
gene 1 1 59 -2.78039 0 187 -2.78039 1
gene 1 10 98 0.294336 0 278 0.294336 1
gene 1 98 59 -2.15123 0 279 -2.15123 1
gene 1 1 98 0.91084 0 288 0.91084 1
genomeend 134

/* Organism #135 Fitness: 9 Error: 1 */
genomestart 135
trait 1 0.1 0 0 0 0 0 0 0 
trait 2 0.2 0 0 0 0 0 0 0 
trait 3 0.3 0.16203 0.0416272 0.230178 0 0 0 0 
node 1 2 1 3
node 2 1 1 1
node 3 2 1 1
node 4 1 0 2
node 10 1 0 0
node 59 1 0 0
node 98 1 0 0
gene 1 1 4 -3.45433 0 1 -3.45433 1
gene 1 2 4 8 0 2 8 1
gene 1 3 4 7.30723 0 3 7.30723 1
gene 1 2 10 2.88772 0 14 2.88772 1
gene 1 10 4 -3.03331 0 15 -3.03331 0
gene 1 3 10 -2.43156 0 20 -2.43156 1
gene 1 1 10 1.03769 0 71 1.03769 1
gene 1 10 59 -0.736618 0 162 -0.736618 1
gene 1 59 4 4.12095 0 163 4.12095 1
gene 1 1 59 -2.39544 0 187 -2.39544 1
gene 1 10 98 -1.36625 0 278 -1.36625 1
gene 1 98 59 -0.200102 0 279 -0.200102 1
gene 1 1 98 -2.6615 0 288 -2.6615 1
gene 3 2 98 0.938841 0 316 0.938841 1
genomeend 135

/* Organism #136 Fitness: 8.99995 Error: 1.00001 */
genomestart 136
trait 1 0.1 0 0 0 0 0 0 0 
trait 2 0.2 0 0 0 0 0 0 0 
trait 3 0.3 0.16203 0.0416272 0.230178 0 0 0 0 
node 1 2 1 3
node 2 1 1 1
node 3 2 1 1
node 4 1 0 2
node 10 1 0 0
node 59 1 0 0
node 98 1 0 0
gene 1 1 4 -2.36957 0 1 -2.36957 1
gene 1 2 4 8 0 2 8 1
gene 1 3 4 8 0 3 8 1
gene 1 2 10 0.733018 0 14 0.733018 1
gene 1 10 4 -1.33656 0 15 -1.33656 0
gene 1 3 10 -5.46422 0 20 -5.46422 1
gene 1 1 10 -2.84957 0 71 -2.84957 1
gene 1 10 59 -0.212043 0 162 -0.212043 1
gene 1 59 4 0.0583476 0 163 0.0583476 1
gene 1 1 59 -2.34827 0 187 -2.34827 1
gene 1 10 98 0.195418 0 278 0.195418 1
gene 1 98 59 1.60347 0 279 1.60347 1
gene 1 1 98 1.36686 0 288 1.36686 1
genomeend 136

/* Organism #137 Fitness: 1.02708 Error: 2.98655 */
genomestart 137
trait 1 0.1 0 0 0 0 0 0 0 
trait 2 0.2 0 0 0 0 0 0 0 
trait 3 0.3 0.16203 0.0416272 0.230178 0 0 0 0 
node 1 2 1 3
node 2 1 1 1
node 3 2 1 1
node 4 1 0 2
node 10 1 0 0
node 59 1 0 0
node 98 1 0 0
gene 1 1 4 -6.56524 0 1 -6.56524 1
gene 1 2 4 5.66106 0 2 5.66106 1
gene 1 3 4 0.714362 0 3 0.714362 1
gene 1 2 10 3.07739 0 14 3.07739 1
gene 1 10 4 -5.79737 0 15 -5.79737 0
gene 1 3 10 -4.07197 0 20 -4.07197 1
gene 1 1 10 0.890896 0 71 0.890896 1
gene 1 10 59 -1.12522 0 162 -1.12522 1
gene 1 59 4 3.99556 0 163 3.99556 1
gene 1 1 59 0.12669 0 187 0.12669 1
gene 1 10 98 -1.44018 0 278 -1.44018 1
gene 1 98 59 1.47483 0 279 1.47483 1
gene 1 1 98 0.31016 0 288 0.31016 1
genomeend 137

/* Species #29 : (Size 4) (AF 5.28796) (Age 4)  */


/* Organism #138 Fitness: 8.9978 Error: 1.00037 */
genomestart 138
trait 1 0.1 0 0 0 0 0 0 0 
trait 2 0.2 0 0 0.0779977 0 0 0.170537 0 
trait 3 0.531685 0.0734609 0 0 0.0384075 0.281383 0.0374952 0.276095 
node 1 3 1 3
node 2 1 1 1
node 3 3 1 1
node 4 1 0 2
node 19 1 0 0
node 79 1 0 0
node 101 1 0 0
gene 2 1 4 -2.38845 0 1 -2.38845 1
gene 2 2 4 -1.10034 0 2 -1.10034 1
gene 1 3 4 -0.15511 0 3 -0.15511 1
gene 3 2 19 -2.36465 0 38 -2.36465 1
gene 2 19 4 -8 0 39 -8 1
gene 3 3 19 -1.80277 0 61 -1.80277 1
gene 1 3 79 4.26418 0 220 4.26418 0
gene 1 79 4 5.86156 0 221 5.86156 1
gene 2 1 19 0.486419 0 274 0.486419 1
gene 1 3 101 0.71955 0 290 0.71955 1
gene 1 101 79 0.757775 0 291 0.757775 1
genomeend 138

/* Organism #139 Fitness: 4 Error: 2 */
genomestart 139
trait 1 0.1 0 0 0 0 0 0 0 
trait 2 0.2 0 0 0.0779977 0 0 0.170537 0 
trait 3 0.531685 0.0734609 0 0 0.0384075 0.281383 0.0374952 0.276095 
node 1 3 1 3
node 2 1 1 1
node 3 3 1 1
node 4 1 0 2
node 19 1 0 0
node 79 1 0 0
node 101 1 0 0
gene 2 1 4 -3.58913 0 1 -3.58913 1
gene 2 2 4 -0.766472 0 2 -0.766472 1
gene 1 3 4 -3.47629 0 3 -3.47629 1
gene 3 2 19 -0.678121 0 38 -0.678121 1
gene 2 19 4 -6.79635 0 39 -6.79635 1
gene 3 3 19 -3.73856 0 61 -3.73856 1
gene 1 3 79 6.43382 0 220 6.43382 0
gene 1 79 4 7.4985 0 221 7.4985 1
gene 2 1 19 4.14124 0 274 4.14124 1
gene 1 3 101 -2.77657 0 290 -2.77657 1
gene 1 101 79 3.43768 0 291 3.43768 1
genomeend 139

/* Organism #140 Fitness: 3.99694 Error: 2.00077 */
genomestart 140
trait 1 0.1 0 0 0 0 0 0 0 
trait 2 0.2 0 0 0.0779977 0 0 0.170537 0 
trait 3 0.531685 0.0734609 0 0 0.0384075 0.281383 0.0374952 0.276095 
node 1 3 1 3
node 2 1 1 1
node 3 3 1 1
node 4 1 0 2
node 19 1 0 0
node 79 1 0 0
node 101 1 0 0
gene 2 1 4 -3.51062 0 1 -3.51062 1
gene 2 2 4 -0.672475 0 2 -0.672475 1
gene 1 3 4 -0.761895 0 3 -0.761895 0
gene 3 2 19 -0.628681 0 38 -0.628681 1
gene 2 19 4 -6.79582 0 39 -6.79582 1
gene 3 3 19 -3.04953 0 61 -3.04953 1
gene 1 3 79 4.75294 0 220 4.75294 0
gene 1 79 4 5.66143 0 221 5.66143 1
gene 2 1 19 2.70244 0 274 2.70244 1
gene 1 3 101 -1.59551 0 290 -1.59551 1
gene 1 101 79 -0.237205 0 291 -0.237205 1
genomeend 140

/* Organism #141 Fitness: 4.15711 Error: 1.9611 */
genomestart 141
trait 1 0.1 0 0 0 0 0 0 0 
trait 2 0.2 0 0 0.0779977 0 0 0.170537 0 
trait 3 0.531685 0.0734609 0 0 0.0384075 0.281383 0.0374952 0.276095 
node 1 3 1 3
node 2 1 1 1
node 3 3 1 1
node 4 1 0 2
node 19 1 0 0
node 79 1 0 0
node 101 1 0 0
gene 2 1 4 -4.82711 0 1 -4.82711 1
gene 2 2 4 -2.46757 0 2 -2.46757 1
gene 1 3 4 0.314341 0 3 0.314341 0
gene 3 2 19 -3.12944 0 38 -3.12944 1
gene 2 19 4 -8 0 39 -8 1
gene 3 3 19 -1.58586 0 61 -1.58586 1
gene 1 3 79 7.8807 0 220 7.8807 0
gene 1 79 4 6.76559 0 221 6.76559 1
gene 2 1 19 1.95723 0 274 1.95723 1
gene 1 3 101 -1.12926 0 290 -1.12926 1
gene 1 101 79 1.71667 0 291 1.71667 1
genomeend 141

/* Species #30 : (Size 8) (AF 7.0742) (Age 2)  */


/* Organism #142 Fitness: 9 Error: 1 */
genomestart 142
trait 1 0.1 0 0 0 0 0 0 0 
trait 2 0.2 0 0 0.347636 0 0.974639 0.144475 0.418134 
trait 3 0.3 0.0204751 0 0 0 0 0.0181795 0 
node 1 3 1 3
node 2 2 1 1
node 3 3 1 1
node 4 3 0 2
node 35 1 0 0
node 38 1 0 0
node 92 1 0 0
node 103 1 0 0
gene 3 1 4 1.86914 0 1 1.86914 1
gene 3 2 4 8 0 2 8 1
gene 2 3 4 -5.73831 0 3 -5.73831 1
gene 2 3 35 6.20562 0 89 6.20562 1
gene 2 35 4 -3.84784 0 90 -3.84784 1
gene 2 35 38 4.80991 0 98 4.80991 0
gene 2 38 4 -4.40122 0 99 -4.40122 0
gene 2 35 92 1 0 262 0 1
gene 2 92 38 2.91589 0 263 0 1
gene 2 38 103 1 0 297 0 1
gene 2 103 4 -4.40122 0 298 0 1
gene 1 1 92 -0.0314035 0 310 -0.0314035 1
genomeend 142

/* Organism #143 Fitness: 3.6429 Error: 2.09136 */
genomestart 143
trait 1 0.1 0 0 0 0 0 0 0 
trait 2 0.2 0 0 0.347636 0 0.974639 0.144475 0.418134 
trait 3 0.3 0.0204751 0 0 0 0 0.0181795 0 
node 1 3 1 3
node 2 2 1 1
node 3 3 1 1
node 4 3 0 2
node 35 1 0 0
node 38 1 0 0
node 92 1 0 0
node 103 1 0 0
gene 3 1 4 2.16533 0 1 2.16533 1
gene 3 2 4 8 0 2 8 1
gene 2 3 4 -3.47734 0 3 -3.47734 1
gene 2 3 35 8 0 89 8 1
gene 2 35 4 -4.19468 0 90 -4.19468 1
gene 2 35 38 3.12475 0 98 3.12475 0
gene 2 38 4 -4.4576 0 99 -4.4576 0
gene 2 35 92 -0.950285 0 262 -0.950285 1
gene 2 92 38 3.41418 0 263 3.41418 1
gene 2 38 103 -0.601535 0 297 -0.601535 1
gene 2 103 4 -5.94728 0 298 -5.94728 1
gene 1 1 92 -0.0314035 0 310 -0.0314035 1
genomeend 143

/* Organism #144 Fitness: 8.98953 Error: 1.00175 */
genomestart 144
trait 1 0.1 0 0 0 0 0 0 0 
trait 2 0.2 0 0 0.347636 0 0.974639 0.144475 0.418134 
trait 3 0.3 0.0204751 0 0 0 0 0.0181795 0 
node 1 3 1 3
node 2 2 1 1
node 3 3 1 1
node 4 3 0 2
node 35 1 0 0
node 38 1 0 0
node 92 1 0 0
node 103 1 0 0
gene 3 1 4 3.52309 0 1 3.52309 1
gene 3 2 4 7.1464 0 2 7.1464 1
gene 2 3 4 -4.80726 0 3 -4.80726 1
gene 2 3 35 3.93962 0 89 3.93962 1
gene 2 35 4 -5.33455 0 90 -5.33455 1
gene 2 35 38 6.89364 0 98 6.89364 0
gene 2 38 4 -4.72151 0 99 -4.72151 0
gene 2 35 92 1.26971 0 262 1.26971 1
gene 2 92 38 3.47179 0 263 3.47179 1
gene 2 38 103 2.62717 0 297 2.62717 1
gene 2 103 4 -2.18207 0 298 -2.18207 1
gene 1 1 92 2.03169 0 310 2.03169 1
genomeend 144

/* Organism #145 Fitness: 9 Error: 1 */
genomestart 145
trait 1 0.1 0 0 0 0 0 0 0 
trait 2 0.2 0 0 0.347636 0 0.974639 0.144475 0.418134 
trait 3 0.3 0.0204751 0 0 0 0 0.0181795 0 
node 1 3 1 3
node 2 2 1 1
node 3 3 1 1
node 4 3 0 2
node 35 1 0 0
node 38 1 0 0
node 92 1 0 0
node 103 1 0 0
gene 3 1 4 1.19095 0 1 1.19095 1
gene 3 2 4 8 0 2 8 1
gene 2 3 4 -5.78065 0 3 -5.78065 1
gene 2 3 35 6.23415 0 89 6.23415 1
gene 2 35 4 -3.59972 0 90 -3.59972 1
gene 2 35 38 3.62228 0 98 3.62228 0
gene 2 38 4 -3.55967 0 99 -3.55967 0
gene 2 35 92 1.76411 0 262 1.76411 1
gene 2 92 38 0.438932 0 263 0.438932 1
gene 2 38 103 0.751274 0 297 0.751274 1
gene 2 103 4 -4.40122 0 298 -4.40122 1
gene 1 1 92 -0.0314035 0 310 -0.0314035 1
genomeend 145

/* Organism #146 Fitness: 9 Error: 1 */
genomestart 146
trait 1 0.1 0 0 0 0 0 0 0 
trait 2 0.2 0 0 0.347636 0 0.974639 0.144475 0.418134 
trait 3 0.3 0.0204751 0 0 0 0 0.0181795 0 
node 1 3 1 3
node 2 2 1 1
node 3 3 1 1
node 4 3 0 2
node 35 1 0 0
node 38 1 0 0
node 92 1 0 0
node 103 1 0 0
gene 3 1 4 1.86914 0 1 1.86914 1
gene 3 2 4 8 0 2 8 1
gene 2 3 4 -5.73831 0 3 -5.73831 1
gene 2 3 35 6.20562 0 89 6.20562 1
gene 2 35 4 -3.84784 0 90 -3.84784 1
gene 2 35 38 4.80991 0 98 4.80991 0
gene 2 38 4 -4.40122 0 99 -4.40122 0
gene 2 35 92 1 0 262 0 1
gene 2 92 38 2.91589 0 263 0 1
gene 2 38 103 1 0 297 0 1
gene 2 103 4 -4.40122 0 298 0 1
gene 1 1 92 -0.0314035 0 310 -0.0314035 1
genomeend 146

/* Organism #147 Fitness: 3.96119 Error: 2.00973 */
genomestart 147
trait 1 0.1 0 0 0 0 0 0 0 
trait 2 0.2 0 0 0.347636 0 0.974639 0.144475 0.418134 
trait 3 0.3 0.0204751 0 0 0 0 0.0181795 0 
node 1 3 1 3
node 2 2 1 1
node 3 3 1 1
node 4 3 0 2
node 35 1 0 0
node 38 1 0 0
node 92 1 0 0
node 103 1 0 0
gene 3 1 4 4.23952 0 1 4.23952 1
gene 3 2 4 -0.0784326 0 2 -0.0784326 1
gene 2 3 4 -6.24675 0 3 -6.24675 1
gene 2 3 35 7.24775 0 89 7.24775 1
gene 2 35 4 -5.11031 0 90 -5.11031 1
gene 2 35 38 3.38378 0 98 3.38378 0
gene 2 38 4 -2.98531 0 99 -2.98531 0
gene 2 35 92 -1.27262 0 262 -1.27262 1
gene 2 92 38 3.04285 0 263 3.04285 1
gene 2 38 103 1.40751 0 297 1.40751 1
gene 2 103 4 -2.45772 0 298 -2.45772 1
gene 1 1 92 -1.5275 0 310 -1.5275 1
genomeend 147

/* Organism #148 Fitness: 4 Error: 2 */
genomestart 148
trait 1 0.1 0 0 0 0 0 0 0 
trait 2 0.2 0 0 0.347636 0 0.974639 0.144475 0.418134 
trait 3 0.3 0.0204751 0 0 0 0 0.0181795 0 
node 1 3 1 3
node 2 2 1 1
node 3 3 1 1
node 4 3 0 2
node 35 1 0 0
node 38 1 0 0
node 92 1 0 0
node 103 1 0 0
gene 3 1 4 1.06368 0 1 1.06368 1
gene 3 2 4 8 0 2 8 1
gene 2 3 4 1.30894 0 3 1.30894 1
gene 2 3 35 6.83064 0 89 6.83064 1
gene 2 35 4 -3.26654 0 90 -3.26654 1
gene 2 35 38 2.4255 0 98 2.4255 0
gene 2 38 4 0.952483 0 99 0.952483 0
gene 2 35 92 0.591052 0 262 0.591052 1
gene 2 92 38 1.86972 0 263 1.86972 1
gene 2 38 103 1.41009 0 297 1.41009 1
gene 2 103 4 -3.86371 0 298 -3.86371 1
gene 1 1 92 0.597049 0 310 0.597049 1
genomeend 148

/* Organism #149 Fitness: 8.99999 Error: 1 */
genomestart 149
trait 1 0.1 0 0 0 0 0 0 0 
trait 2 0.2 0 0 0.347636 0 0.974639 0.144475 0.418134 
trait 3 0.3 0.0204751 0 0 0 0 0.0181795 0 
node 1 3 1 3
node 2 2 1 1
node 3 3 1 1
node 4 3 0 2
node 35 1 0 0
node 38 1 0 0
node 92 1 0 0
node 103 1 0 0
gene 3 1 4 2.58221 0 1 2.58221 1
gene 3 2 4 6.48048 0 2 6.48048 1
gene 2 3 4 -5.48195 0 3 -5.48195 1
gene 2 3 35 6.70513 0 89 6.70513 1
gene 2 35 4 -3.63459 0 90 -3.63459 1
gene 2 35 38 7.07064 0 98 7.07064 0
gene 2 38 4 -6.41002 0 99 -6.41002 0
gene 2 35 92 3.10692 0 262 3.10692 1
gene 2 92 38 2.15026 0 263 2.15026 1
gene 2 38 103 2.11507 0 297 2.11507 1
gene 2 103 4 -4.40122 0 298 -4.40122 1
gene 1 1 92 -0.0314035 0 310 -0.0314035 1
genomeend 149
