
/* Species #1 : (Size 9) (AF 8.13563) (Age 28)  */


/* Organism #0 Fitness: 9 Error: 1 */
genomestart 0
trait 1 0.0373169 0.0381267 0 0.439531 0.0509163 0.052324 0.0396979 0.468784 
trait 2 0.2 0.119733 0 0.0699483 0 0.0660674 0.201933 0 
trait 3 0.303558 0 0.0141096 0 0.0584922 0 0 0 
node 1 1 1 3
node 2 2 1 1
node 3 1 1 1
node 4 3 0 2
gene 1 1 4 -3.99181 0 1 -3.99181 1
gene 1 2 4 7.9897 0 2 7.9897 1
gene 2 3 4 8 0 3 8 1
genomeend 0

/* Organism #1 Fitness: 6.2313 Error: 1.50374 */
genomestart 1
trait 1 0.0373169 0.0381267 0 0.439531 0.0509163 0.052324 0.0396979 0.468784 
trait 2 0.2 0.119733 0 0.0699483 0 0.0660674 0.201933 0 
trait 3 0.303558 0 0.0141096 0 0.0584922 0 0 0 
node 1 1 1 3
node 2 2 1 1
node 3 1 1 1
node 4 3 0 2
node 86 1 0 0
gene 1 1 4 -3.99181 0 1 -3.99181 1
gene 1 2 4 7.9897 0 2 7.9897 0
gene 2 3 4 8 0 3 8 1
gene 1 2 86 1 0 258 0 1
gene 1 86 4 7.9897 0 259 0 1
genomeend 1

/* Organism #2 Fitness: 8.99492 Error: 1.00085 */
genomestart 2
trait 1 0.0373169 0.0381267 0 0.439531 0.0509163 0.052324 0.0396979 0.468784 
trait 2 0.2 0.119733 0 0.0699483 0 0.0660674 0.201933 0 
trait 3 0.303558 0 0.0141096 0 0.0584922 0 0 0 
node 1 1 1 3
node 2 2 1 1
node 3 1 1 1
node 4 3 0 2
gene 1 1 4 -1.4362 0 1 -1.4362 1
gene 1 2 4 8 0 2 8 1
gene 2 3 4 5.72774 0 3 5.72774 1
genomeend 2

/* Organism #3 Fitness: 8.99858 Error: 1.00024 */
genomestart 3
trait 1 0.0373169 0.0381267 0 0.0868899 0.132675 0.052324 0 1 
trait 2 0.2 0.119733 0 0.0699483 0 0.0660674 0.201933 0 
trait 3 0.303558 0 0.0141096 0 0.0584922 0 0 0 
node 1 1 1 3
node 2 2 1 1
node 3 1 1 1
node 4 3 0 2
gene 1 1 4 -5.23765 0 1 -5.23765 1
gene 1 2 4 7.07094 0 2 7.07094 1
gene 2 3 4 7.07651 0 3 7.07651 1
genomeend 3

/* Organism #4 Fitness: 9 Error: 1 */
genomestart 4
trait 1 0.0373169 0.0381267 0 0.439531 0.0509163 0.052324 0.0396979 0.468784 
trait 2 0.2 0.119733 0 0.0699483 0 0.0660674 0.201933 0 
trait 3 0.303558 0 0.0141096 0 0.0584922 0 0 0 
node 1 1 1 3
node 2 2 1 1
node 3 1 1 1
node 4 3 0 2
gene 1 1 4 -4.2265 0 1 -4.2265 1
gene 1 2 4 7.99485 0 2 7.99485 1
gene 2 3 4 8 0 3 8 1
genomeend 4

/* Organism #5 Fitness: 8.99827 Error: 1.00029 */
genomestart 5
trait 1 0.0373169 0.0381267 0 0.439531 0.0509163 0.052324 0.0396979 0.468784 
trait 2 0.2 0.119733 0 0.0699483 0 0.0660674 0.201933 0 
trait 3 0.303558 0 0.0141096 0 0.0584922 0 0 0 
node 1 1 1 3
node 2 2 1 1
node 3 1 1 1
node 4 3 0 2
gene 1 1 4 -4.44478 0 1 -4.44478 1
gene 1 2 4 6.09992 0 2 6.09992 1
gene 2 3 4 8 0 3 8 1
genomeend 5

/* Organism #6 Fitness: 4.003 Error: 1.99925 */
genomestart 6
trait 1 0.0373169 0.0381267 0 0.439531 0.0509163 0.052324 0.0396979 0.468784 
trait 2 0.2 0.119733 0 0.0699483 0 0.0660674 0.201933 0 
trait 3 0.303558 0 0.0141096 0 0.0584922 0 0 0 
node 1 1 1 3
node 2 2 1 1
node 3 1 1 1
node 4 3 0 2
gene 1 1 4 -4.68672 0 1 -4.68672 1
gene 1 2 4 7.94934 0 2 7.94934 1
gene 2 3 4 -1.80166 0 3 -1.80166 1
genomeend 6

/* Organism #7 Fitness: 8.99658 Error: 1.00057 */
genomestart 7
trait 1 0.0373169 0.0381267 0 0.439531 0.0509163 0.052324 0.0396979 0.468784 
trait 2 0.2 0.119733 0 0.0699483 0 0.0660674 0.201933 0 
trait 3 0.303558 0 0.0141096 0 0.0584922 0 0 0 
node 1 1 1 3
node 2 2 1 1
node 3 1 1 1
node 4 3 0 2
gene 1 1 4 -1.51676 0 1 -1.51676 1
gene 1 2 4 7.9897 0 2 7.9897 1
gene 2 3 4 8 0 3 8 1
genomeend 7

/* Organism #8 Fitness: 8.99805 Error: 1.00033 */
genomestart 8
trait 1 0.0373169 0.0381267 0 0.439531 0.0509163 0.052324 0.0396979 0.468784 
trait 2 0.2 0.119733 0 0.0699483 0 0.0660674 0.201933 0 
trait 3 0.303558 0 0.0141096 0 0.0584922 0 0 0 
node 1 1 1 3
node 2 2 1 1
node 3 1 1 1
node 4 3 0 2
gene 1 1 4 -4.61202 0 1 -4.61202 1
gene 1 2 4 8 0 2 8 1
gene 2 3 4 6.24252 0 3 6.24252 1
genomeend 8

/* Species #2 : (Size 10) (AF 6.54984) (Age 26)  */


/* Organism #9 Fitness: 9 Error: 1 */
genomestart 9
trait 1 0.1 0 0 0 0 0 0 0 
trait 2 0 0 0.632038 0 0 0.356182 0 0 
trait 3 0.3 0 0 0.228301 0 0.0799966 0 0.144078 
node 1 2 1 3
node 2 2 1 1
node 3 2 1 1
node 4 3 0 2
node 7 1 0 0
node 80 1 0 0
gene 3 1 4 5.21737 0 1 5.21737 1
gene 1 2 4 -7.35236 0 2 -7.35236 1
gene 3 3 4 -7.17486 0 3 -7.17486 1
gene 1 2 7 3.0968 0 8 3.0968 0
gene 1 7 4 5.71362 0 9 5.71362 1
gene 1 3 7 1.39328 0 64 1.39328 1
gene 1 2 80 1 0 236 0 1
gene 1 80 7 3.0968 0 237 0 1
genomeend 9

/* Organism #10 Fitness: 4 Error: 2 */
genomestart 10
trait 1 0.1 0 0 0 0 0 0 0 
trait 2 0 0 0.632038 0 0 0.356182 0 0 
trait 3 0.3 0 0 0.228301 0 0.0799966 0 0.144078 
node 1 2 1 3
node 2 2 1 1
node 3 2 1 1
node 4 3 0 2
node 7 1 0 0
node 80 1 0 0
gene 3 1 4 3.0932 0 1 3.0932 1
gene 1 2 4 -5.5282 0 2 -5.5282 1
gene 3 3 4 2.47971 0 3 2.47971 1
gene 1 2 7 3.0968 0 8 3.0968 0
gene 1 7 4 5.40584 0 9 5.40584 1
gene 1 3 7 2.84657 0 64 2.84657 1
gene 1 2 80 1.30206 0 236 1.30206 1
gene 1 80 7 3.98062 0 237 3.98062 1
genomeend 10

/* Organism #11 Fitness: 3.99975 Error: 2.00006 */
genomestart 11
trait 1 0.1 0 0 0 0 0 0 0 
trait 2 0 0 0.632038 0 0 0.356182 0 0 
trait 3 0.3 0 0 0.228301 0 0.0799966 0 0.144078 
node 1 2 1 3
node 2 2 1 1
node 3 2 1 1
node 4 3 0 2
node 7 1 0 0
node 80 1 0 0
gene 3 1 4 1.17664 0 1 1.17664 1
gene 1 2 4 -8 0 2 -8 1
gene 3 3 4 0.77929 0 3 0.77929 1
gene 1 2 7 5.37623 0 8 5.37623 0
gene 1 7 4 4.25758 0 9 4.25758 1
gene 1 3 7 -1.63099 0 64 -1.63099 1
gene 1 2 80 -2.37693 0 236 -2.37693 1
gene 1 80 7 0.599015 0 237 0.599015 1
genomeend 11

/* Organism #12 Fitness: 4.00336 Error: 1.99916 */
genomestart 12
trait 1 0.1 0 0 0 0 0 0 0 
trait 2 0 0 0.632038 0 0 0.356182 0 0 
trait 3 0.3 0 0 0.228301 0 0.0799966 0 0.144078 
node 1 2 1 3
node 2 2 1 1
node 3 2 1 1
node 4 3 0 2
node 7 1 0 0
node 80 1 0 0
gene 3 1 4 7.41493 0 1 7.41493 1
gene 1 2 4 -4.90058 0 2 -4.90058 1
gene 3 3 4 -0.147023 0 3 -0.147023 1
gene 1 2 7 2.0584 0 8 2.0584 0
gene 1 7 4 -0.942564 0 9 -0.942564 1
gene 1 3 7 1.6449 0 64 1.6449 1
gene 1 2 80 -0.657765 0 236 -0.657765 1
gene 1 80 7 1.15689 0 237 1.15689 1
genomeend 12

/* Organism #13 Fitness: 9 Error: 1 */
genomestart 13
trait 1 0.1 0 0 0 0 0 0 0 
trait 2 0.77102 0 0.632038 0 0.881527 0.356182 0.708274 0 
trait 3 0.3 0 0 0.228301 0 0.0799966 0 0.144078 
node 1 2 1 3
node 2 2 1 1
node 3 2 1 1
node 4 3 0 2
node 7 1 0 0
node 80 1 0 0
gene 3 1 4 6.36891 0 1 6.36891 1
gene 1 2 4 -8 0 2 -8 1
gene 3 3 4 -8 0 3 -8 1
gene 1 2 7 4.81095 0 8 4.81095 0
gene 1 7 4 5.3123 0 9 5.3123 1
gene 1 3 7 2.16547 0 64 2.16547 1
gene 1 2 80 2.90916 0 236 2.90916 1
gene 1 80 7 5.1288 0 237 5.1288 1
genomeend 13

/* Organism #14 Fitness: 9 Error: 1 */
genomestart 14
trait 1 0.1 0 0 0 0 0 0 0 
trait 2 0 0 0.632038 0 0 0.356182 0 0 
trait 3 0.3 0 0 0.228301 0 0.0799966 0 0.144078 
node 1 2 1 3
node 2 2 1 1
node 3 2 1 1
node 4 2 0 2
node 7 1 0 0
node 80 1 0 0
gene 3 1 4 5.21737 0 1 5.21737 1
gene 1 2 4 -7.35236 0 2 -7.35236 1
gene 3 3 4 -7.17486 0 3 -7.17486 1
gene 1 2 7 3.0968 0 8 3.0968 0
gene 1 7 4 5.71362 0 9 5.71362 1
gene 1 3 7 1.39328 0 64 1.39328 1
gene 1 2 80 1 0 236 0 1
gene 1 80 7 3.0968 0 237 0 1
genomeend 14

/* Organism #15 Fitness: 8.9956 Error: 1.00073 */
genomestart 15
trait 1 0.1 0 0 0 0 0 0 0 
trait 2 0 0 0.632038 0 0 0.356182 0 0 
trait 3 0.3 0 0 0.228301 0 0.0799966 0 0.144078 
node 1 2 1 3
node 2 2 1 1
node 3 2 1 1
node 4 3 0 2
node 7 1 0 0
node 80 1 0 0
gene 3 1 4 5.77891 0 1 5.77891 1
gene 1 2 4 -6.13818 0 2 -6.13818 1
gene 3 3 4 -7.17601 0 3 -7.17601 1
gene 1 2 7 5.22402 0 8 5.22402 0
gene 1 7 4 3.68223 0 9 3.68223 1
gene 1 3 7 -0.387782 0 64 -0.387782 1
gene 1 2 80 0.61539 0 236 0.61539 1
gene 1 80 7 1.2837 0 237 1.2837 1
genomeend 15

/* Organism #16 Fitness: 9 Error: 1 */
genomestart 16
trait 1 0.1 0 0 0 0 0 0 0 
trait 2 0 0 0.632038 0 0 0.356182 0 0 
trait 3 0.3 0 0 0.228301 0 0.0799966 0 0.144078 
node 1 2 1 3
node 2 2 1 1
node 3 2 1 1
node 4 3 0 2
node 7 1 0 0
node 80 1 0 0
gene 3 1 4 5.21737 0 1 5.21737 1
gene 1 2 4 -7.35236 0 2 -7.35236 1
gene 3 3 4 -7.17486 0 3 -7.17486 1
gene 1 2 7 3.0968 0 8 3.0968 0
gene 1 7 4 5.71362 0 9 5.71362 1
gene 1 3 7 1.39328 0 64 1.39328 1
gene 1 2 80 1 0 236 0 1
gene 1 80 7 3.0968 0 237 0 1
genomeend 16

/* Organism #17 Fitness: 4 Error: 2 */
genomestart 17
trait 1 0.1 0 0 0 0 0 0 0 
trait 2 0 0 0.632038 0 0 0.356182 0 0 
trait 3 0.3 0 0 0.228301 0 0.0799966 0 0.144078 
node 1 2 1 3
node 2 2 1 1
node 3 2 1 1
node 4 3 0 2
node 7 1 0 0
node 80 1 0 0
gene 3 1 4 7.24502 0 1 7.24502 1
gene 1 2 4 -8 0 2 -8 1
gene 3 3 4 0.618229 0 3 0.618229 1
gene 1 2 7 2.74958 0 8 2.74958 0
gene 1 7 4 4.17167 0 9 4.17167 1
gene 1 3 7 -0.471326 0 64 -0.471326 1
gene 1 2 80 1.67362 0 236 1.67362 1
gene 2 80 7 2.6417 0 237 2.6417 1
genomeend 17

/* Organism #18 Fitness: 4.49972 Error: 1.87875 */
genomestart 18
trait 1 0.1 0 0 0 0 0 0 0 
trait 2 0 0 0.632038 0 0 0.356182 0 0 
trait 3 0.3 0 0 0.228301 0 0.0799966 0 0.144078 
node 1 2 1 3
node 2 2 1 1
node 3 2 1 1
node 4 3 0 2
node 7 1 0 0
node 80 1 0 0
gene 3 1 4 7.51679 0 1 7.51679 1
gene 1 2 4 -5.86398 0 2 -5.86398 1
gene 3 3 4 -6.75401 0 3 -6.75401 1
gene 1 2 7 2.41349 0 8 2.41349 0
gene 1 7 4 5.50343 0 9 5.50343 1
gene 1 3 7 2.61265 0 64 2.61265 1
gene 1 2 80 -0.6863 0 236 -0.6863 1
gene 1 80 7 2.034 0 237 2.034 1
genomeend 18

/* Species #3 : (Size 7) (AF 4.6801) (Age 23)  */


/* Organism #19 Fitness: 8.99989 Error: 1.00002 */
genomestart 19
trait 1 0.0835938 0.152722 0 0 0 0 0 0 
trait 2 0.2 0 0 0 0 0 0 0 
trait 3 0.3 0 0 0 0 0 0 0 
node 1 3 1 3
node 2 1 1 1
node 3 3 1 1
node 4 3 0 2
node 13 1 0 0
gene 2 1 4 2.50973 0 1 2.50973 1
gene 2 2 4 6.25856 0 2 6.25856 0
gene 3 3 4 -4.80282 0 3 -4.80282 1
gene 2 2 13 -1.86377 0 23 -1.86377 1
gene 2 13 4 7.85784 0 24 7.85784 1
gene 3 3 13 0.124653 0 164 0.124653 1
genomeend 19

/* Organism #20 Fitness: 3.97987 Error: 2.00504 */
genomestart 20
trait 1 0.18477 0.152722 0 0 0 0.0856197 0.207625 0 
trait 2 0.2 0 0 0 0 0 0 0 
trait 3 0.3 0 0.0498978 0 0 0 0 0.0539567 
node 1 3 1 3
node 2 1 1 1
node 3 3 1 1
node 4 3 0 2
node 13 1 0 0
gene 2 1 4 1.06651 0 1 1.06651 1
gene 2 2 4 6.25856 0 2 6.25856 0
gene 3 3 4 -4.80282 0 3 -4.80282 1
gene 2 2 13 -1.86377 0 23 -1.86377 1
gene 2 13 4 7.85784 0 24 7.85784 1
gene 3 3 13 0.124653 0 164 0.124653 1
gene 3 1 13 -0.349406 0 260 -0.349406 1
genomeend 20

/* Organism #21 Fitness: 3.82948 Error: 2.04309 */
genomestart 21
trait 1 0.0835938 0.152722 0 0 0 0 0 0 
trait 2 0.2 0 0 0 0 0 0 0 
trait 3 0.3 0 0 0 0 0 0 0 
node 1 3 1 3
node 2 1 1 1
node 3 3 1 1
node 4 3 0 2
node 13 1 0 0
gene 2 1 4 -1.91206 0 1 -1.91206 1
gene 2 2 4 4.9304 0 2 4.9304 0
gene 3 3 4 -5.05269 0 3 -5.05269 1
gene 2 2 13 -0.959815 0 23 -0.959815 1
gene 2 13 4 8 0 24 8 1
gene 3 3 13 0.594562 0 164 0.594562 1
genomeend 21

/* Organism #22 Fitness: 3.99997 Error: 2.00001 */
genomestart 22
trait 1 0.0835938 0.152722 0 0 0 0 0 0 
trait 2 0.2 0 0 0 0 0 0 0 
trait 3 0.3 0 0 0 0 0 0 0 
node 1 3 1 3
node 2 1 1 1
node 3 3 1 1
node 4 3 0 2
node 13 1 0 0
gene 2 1 4 1.70526 0 1 1.70526 1
gene 2 2 4 4.72562 0 2 4.72562 0
gene 3 3 4 -5.73631 0 3 -5.73631 1
gene 2 2 13 0.934248 0 23 0.934248 1
gene 2 13 4 1.95723 0 24 1.95723 1
gene 3 3 13 0.697867 0 164 0.697867 1
genomeend 22

/* Organism #23 Fitness: 4.00015 Error: 1.99996 */
genomestart 23
trait 1 0.0835938 0.152722 0 0 0 0 0 0 
trait 2 0.2 0 0 0 0 0 0 0 
trait 3 0.3 0 0 0 0 0 0 0 
node 1 3 1 3
node 2 1 1 1
node 3 3 1 1
node 4 3 0 2
node 13 1 0 0
gene 2 1 4 4.16818 0 1 4.16818 1
gene 2 2 4 6.18158 0 2 6.18158 0
gene 3 3 4 -4.64947 0 3 -4.64947 1
gene 2 2 13 -3.04743 0 23 -3.04743 1
gene 2 13 4 6.24371 0 24 6.24371 1
gene 3 3 13 -2.24671 0 164 -2.24671 1
genomeend 23

/* Organism #24 Fitness: 4.00005 Error: 1.99999 */
genomestart 24
trait 1 0.0835938 0.152722 0 0 0 0 0 0 
trait 2 0.2 0 0 0 0 0 0 0 
trait 3 0.3 0 0 0 0 0 0 0 
node 1 3 1 3
node 2 1 1 1
node 3 3 1 1
node 4 3 0 2
node 13 1 0 0
node 87 1 0 0
gene 2 1 4 2.50973 0 1 2.50973 1
gene 2 2 4 6.25856 0 2 6.25856 0
gene 3 3 4 -4.80282 0 3 -4.80282 1
gene 2 2 13 -1.86377 0 23 -1.86377 0
gene 2 13 4 7.85784 0 24 7.85784 1
gene 3 3 13 0.124653 0 164 0.124653 1
gene 2 2 87 1 0 261 0 1
gene 2 87 13 -1.86377 0 262 0 1
genomeend 24

/* Organism #25 Fitness: 3.95125 Error: 2.01222 */
genomestart 25
trait 1 0.0835938 0.152722 0 0 0 0 0 0 
trait 2 0.2 0 0 0 0 0 0 0 
trait 3 0.3 0 0 0 0 0 0 0 
node 1 3 1 3
node 2 1 1 1
node 3 3 1 1
node 4 3 0 2
node 13 1 0 0
gene 2 1 4 0.115245 0 1 0.115245 1
gene 2 2 4 7.40301 0 2 7.40301 0
gene 3 3 4 -1.54836 0 3 -1.54836 1
gene 2 2 13 -0.451834 0 23 -0.451834 1
gene 2 13 4 7.96335 0 24 7.96335 1
gene 3 3 13 2.31741 0 164 2.31741 1
genomeend 25

/* Species #4 : (Size 7) (AF 8.10112) (Age 23)  */


/* Organism #26 Fitness: 10.0282 Error: 0.83327 */
genomestart 26
trait 1 0.1 0 0 0 0 0 0 0 
trait 2 0.297364 0.067362 0 0.0903195 0 0.0445227 0.169509 0.0556143 
trait 3 0.314264 0 0 0.0285377 0.00178438 0.00999958 0 0.038852 
node 1 3 1 3
node 2 2 1 1
node 3 2 1 1
node 4 1 0 2
node 7 1 0 0
node 14 1 0 0
node 24 1 0 0
gene 3 1 4 0.984556 0 1 0.984556 1
gene 3 2 4 -1.5596 0 2 -1.5596 1
gene 3 3 4 7.80634 0 3 7.80634 1
gene 1 2 7 0.253227 0 8 0.253227 1
gene 1 7 4 0.682375 0 9 0.682375 0
gene 2 3 14 3.22754 0 25 3.22754 1
gene 3 14 4 -7.86416 0 26 -7.86416 1
gene 3 2 14 -1.0935 0 57 -1.0935 1
gene 1 7 24 -0.588031 0 58 -0.588031 1
gene 1 24 4 3.87036 0 59 3.87036 1
gene 1 14 24 -0.349033 0 119 -0.349033 1
genomeend 26

/* Organism #27 Fitness: 4.73533 Error: 1.82392 */
genomestart 27
trait 1 0.1 0 0 0 0 0 0 0 
trait 2 0.297364 0.067362 0 0.0903195 0 0.0445227 0.169509 0.0556143 
trait 3 0.314264 0 0 0.0285377 0.00178438 0.00999958 0 0.038852 
node 1 3 1 3
node 2 2 1 1
node 3 2 1 1
node 4 1 0 2
node 7 1 0 0
node 14 1 0 0
node 24 1 0 0
gene 3 1 4 -1.33172 0 1 -1.33172 1
gene 3 2 4 -0.666475 0 2 -0.666475 0
gene 3 3 4 8 0 3 8 1
gene 1 2 7 0.567644 0 8 0.567644 1
gene 1 7 4 1.31281 0 9 1.31281 0
gene 3 3 14 3.67487 0 25 3.67487 1
gene 3 14 4 -8 0 26 -8 1
gene 3 2 14 -2.02172 0 57 -2.02172 1
gene 1 7 24 -3.00761 0 58 -3.00761 1
gene 1 24 4 2.47528 0 59 2.47528 1
gene 1 14 24 1.43109 0 119 1.43109 1
gene 3 2 24 -0.172094 0 247 -0.172094 1
genomeend 27

/* Organism #28 Fitness: 8.91008 Error: 1.01502 */
genomestart 28
trait 1 0.748366 0 0 0 0.835688 0 0 0 
trait 2 0.297364 0.067362 0 0.0903195 0 0.0445227 0.169509 0.0556143 
trait 3 0.314264 0 0 0.0285377 0.00178438 0.00999958 0 0.038852 
node 1 3 1 3
node 2 2 1 1
node 3 2 1 1
node 4 1 0 2
node 7 1 0 0
node 14 1 0 0
node 24 1 0 0
gene 3 1 4 2.97841 0 1 2.97841 1
gene 3 2 4 -1.37939 0 2 -1.37939 0
gene 3 3 4 7.80634 0 3 7.80634 1
gene 1 2 7 -1.65555 0 8 -1.65555 1
gene 1 7 4 2.06845 0 9 2.06845 0
gene 3 3 14 0.619984 0 25 0.619984 1
gene 3 14 4 -8 0 26 -8 1
gene 3 2 14 -0.221815 0 57 -0.221815 1
gene 1 7 24 -0.932722 0 58 -0.932722 1
gene 1 24 4 3.46461 0 59 3.46461 1
gene 1 14 24 -1.80171 0 119 -1.80171 1
gene 3 2 24 -1.92424 0 247 -1.92424 1
genomeend 28

/* Organism #29 Fitness: 4.00094 Error: 1.99977 */
genomestart 29
trait 1 0.1 0 0 0 0 0 0 0 
trait 2 0.297364 0.067362 0 0.0903195 0 0.0445227 0.169509 0.0556143 
trait 3 0.314264 0 0 0.0285377 0.00178438 0.00999958 0 0.038852 
node 1 3 1 3
node 2 2 1 1
node 3 2 1 1
node 4 1 0 2
node 7 1 0 0
node 14 1 0 0
node 24 1 0 0
gene 3 1 4 -0.931549 0 1 -0.931549 1
gene 3 2 4 0.727916 0 2 0.727916 1
gene 3 3 4 6.61856 0 3 6.61856 1
gene 1 2 7 0.996735 0 8 0.996735 1
gene 1 7 4 2.11728 0 9 2.11728 0
gene 2 3 14 3.41394 0 25 3.41394 1
gene 3 14 4 -8 0 26 -8 1
gene 3 2 14 -3.40711 0 57 -3.40711 1
gene 1 7 24 0.765923 0 58 0.765923 1
gene 1 24 4 2.40844 0 59 2.40844 1
gene 1 14 24 -0.590892 0 119 -0.590892 1
genomeend 29

/* Organism #30 Fitness: 9.00552 Error: 0.99908 */
genomestart 30
trait 1 0.1 0 0 0 0 0 0 0 
trait 2 0.297364 0.067362 0 0.0903195 0 0.0445227 0.169509 0.0556143 
trait 3 0.314264 0 0 0.808682 0.00178438 0.281187 0 0 
node 1 3 1 3
node 2 2 1 1
node 3 2 1 1
node 4 1 0 2
node 7 1 0 0
node 14 1 0 0
node 24 1 0 0
gene 3 1 4 0.984556 0 1 0.984556 1
gene 3 2 4 -1.5596 0 2 -1.5596 0
gene 3 3 4 7.80634 0 3 7.80634 1
gene 1 2 7 0.253227 0 8 0.253227 1
gene 1 7 4 0.682375 0 9 0.682375 0
gene 3 3 14 3.22754 0 25 3.22754 1
gene 3 14 4 -7.86416 0 26 -7.86416 1
gene 3 2 14 -1.0935 0 57 -1.0935 1
gene 1 7 24 -0.588031 0 58 -0.588031 1
gene 1 24 4 3.87036 0 59 3.87036 1
gene 1 14 24 -0.349033 0 119 -0.349033 1
genomeend 30

/* Organism #31 Fitness: 4.35042 Error: 1.91423 */
genomestart 31
trait 1 0.1 0 0 0 0 0 0 0 
trait 2 0.297364 0.067362 0 0.0903195 0 0.0445227 0.169509 0.0556143 
trait 3 0.314264 0 0 0.0285377 0.00178438 0.00999958 0 0.038852 
node 1 3 1 3
node 2 2 1 1
node 3 2 1 1
node 4 1 0 2
node 7 1 0 0
node 14 1 0 0
node 24 1 0 0
gene 3 1 4 0.323449 0 1 0.323449 1
gene 3 2 4 -3.87244 0 2 -3.87244 0
gene 3 3 4 5.87635 0 3 5.87635 1
gene 1 2 7 1.96402 0 8 1.96402 1
gene 1 7 4 0.421442 0 9 0.421442 0
gene 2 3 14 1.39399 0 25 1.39399 1
gene 3 14 4 -6.8611 0 26 -6.8611 1
gene 3 2 14 -1.05299 0 57 -1.05299 1
gene 1 7 24 -0.591388 0 58 -0.591388 1
gene 1 24 4 3.87036 0 59 3.87036 1
gene 1 14 24 -0.349033 0 119 -0.349033 1
genomeend 31

/* Organism #32 Fitness: 15.6773 Error: 0.0405378 */
/* ##------$ WINNER 32 SPECIES #4 $------## */
genomestart 32
trait 1 0.1 0 0 0 0 0 0 0 
trait 2 0.297364 0.067362 0 0.0903195 0 0.0445227 0.169509 0.0556143 
trait 3 0.314264 0 0 0.0285377 0.00178438 0.00999958 0 0.038852 
node 1 3 1 3
node 2 2 1 1
node 3 2 1 1
node 4 1 0 2
node 7 1 0 0
node 14 1 0 0
node 24 1 0 0
gene 3 1 4 2.95292 0 1 2.95292 1
gene 3 2 4 -2.0218 0 2 -2.0218 1
gene 3 3 4 5.66982 0 3 5.66982 1
gene 1 2 7 0.839106 0 8 0.839106 1
gene 1 7 4 2.35006 0 9 2.35006 0
gene 2 3 14 4.03346 0 25 4.03346 1
gene 3 14 4 -8 0 26 -8 1
gene 3 2 14 -1.70784 0 57 -1.70784 1
gene 1 7 24 -0.862545 0 58 -0.862545 1
gene 1 24 4 1.69088 0 59 1.69088 1
gene 1 14 24 0.26017 0 119 0.26017 1
genomeend 32

/* Species #5 : (Size 8) (AF 6.18189) (Age 20)  */


/* Organism #33 Fitness: 9 Error: 1 */
genomestart 33
trait 1 0.0454505 0 0 0.0209967 0.167844 0.51822 0.542055 0.0687429 
trait 2 0.2 0 0 0 0 0 0 0 
trait 3 0.269771 0 0 0.017365 0 0.0715049 0 0 
node 1 3 1 3
node 2 2 1 1
node 3 2 1 1
node 4 1 0 2
node 7 1 0 0
node 24 1 0 0
gene 1 1 4 -0.617866 0 1 -0.617866 1
gene 1 2 4 -8 0 2 -8 1
gene 3 3 4 8 0 3 8 1
gene 1 2 7 1.99307 0 8 1.99307 1
gene 1 7 4 -7.15133 0 9 -7.15133 1
gene 1 1 7 -0.345256 0 44 -0.345256 1
gene 1 7 24 -3.57465 0 58 -3.57465 1
gene 1 24 4 -8 0 59 -8 1
gene 2 1 24 0.540025 0 67 0.540025 1
gene 3 3 24 -1.96532 0 82 -1.96532 1
genomeend 33

/* Organism #34 Fitness: 9 Error: 1 */
genomestart 34
trait 1 0.0454505 0 0 0.0209967 0.167844 0.51822 0.542055 0.0687429 
trait 2 0.2 0 0 0 0 0 0 0 
trait 3 0.269771 0 0 0.017365 0 0.0715049 0 0 
node 1 3 1 3
node 2 2 1 1
node 3 2 1 1
node 4 1 0 2
node 7 1 0 0
node 24 1 0 0
gene 1 1 4 -0.617866 0 1 -0.617866 1
gene 1 2 4 -8 0 2 -8 1
gene 3 3 4 8 0 3 8 1
gene 1 2 7 1.99307 0 8 1.99307 1
gene 1 7 4 -7.15133 0 9 -7.15133 1
gene 1 1 7 -0.345256 0 44 -0.345256 1
gene 1 7 24 -3.57465 0 58 -3.57465 1
gene 1 24 4 -8 0 59 -8 1
gene 2 1 24 0.540025 0 67 0.540025 1
gene 3 3 24 -1.96532 0 82 -1.96532 1
genomeend 34

/* Organism #35 Fitness: 8.99995 Error: 1.00001 */
genomestart 35
trait 1 0.0454505 0 0 0.0209967 0.167844 0.51822 0.542055 0.0687429 
trait 2 0.2 0 0 0 0 0 0 0 
trait 3 0.269771 0 0 0.017365 0 0.0715049 0 0 
node 1 3 1 3
node 2 2 1 1
node 3 2 1 1
node 4 1 0 2
node 7 1 0 0
node 24 2 0 0
gene 1 1 4 1.7774 0 1 1.7774 1
gene 1 2 4 -6.24244 0 2 -6.24244 1
gene 3 3 4 8 0 3 8 1
gene 1 2 7 4.38969 0 8 4.38969 1
gene 1 7 4 -8 0 9 -8 1
gene 1 1 7 0.510712 0 44 0.510712 1
gene 1 7 24 -2.56861 0 58 -2.56861 1
gene 1 24 4 -8 0 59 -8 1
gene 2 1 24 1.62015 0 67 1.62015 1
gene 3 3 24 -2.22877 0 82 -2.22877 1
gene 3 2 24 0.0883511 0 247 0.0883511 1
genomeend 35

/* Organism #36 Fitness: 4.29762 Error: 1.92693 */
genomestart 36
trait 1 0.0454505 0 0 0.0209967 0.167844 0.51822 0.542055 0.0687429 
trait 2 0.2 0 0 0 0 0 0 0 
trait 3 0.269771 0 0 0.017365 0 0.0715049 0 0 
node 1 3 1 3
node 2 2 1 1
node 3 2 1 1
node 4 1 0 2
node 7 1 0 0
node 24 1 0 0
gene 1 1 4 1.80691 0 1 1.80691 1
gene 1 2 4 -8 0 2 -8 1
gene 3 3 4 5.64954 0 3 5.64954 1
gene 1 2 7 4.33018 0 8 4.33018 1
gene 1 7 4 -7.97494 0 9 -7.97494 1
gene 1 1 7 1.63105 0 44 1.63105 1
gene 1 7 24 -4.99406 0 58 -4.99406 1
gene 1 24 4 -8 0 59 -8 1
gene 2 1 24 2.71271 0 67 2.71271 1
gene 3 3 24 -1.96532 0 82 -1.96532 1
genomeend 36

/* Organism #37 Fitness: 4 Error: 2 */
genomestart 37
trait 1 0.0454505 0 0 0.0209967 0.167844 0.51822 0.542055 0.0687429 
trait 2 0.2 0 0 0 0 0 0 0 
trait 3 0.269771 0 0 0.017365 0 0.0715049 0 0 
node 1 3 1 3
node 2 2 1 1
node 3 2 1 1
node 4 1 0 2
node 7 1 0 0
node 24 1 0 0
gene 1 1 4 -2.88913 0 1 -2.88913 1
gene 1 2 4 -7.59868 0 2 -7.59868 1
gene 3 3 4 7.05599 0 3 7.05599 1
gene 1 2 7 1.60938 0 8 1.60938 1
gene 1 7 4 -6.06143 0 9 -6.06143 1
gene 1 1 7 -0.345256 0 44 -0.345256 1
gene 1 7 24 -3.95079 0 58 -3.95079 1
gene 1 24 4 -7.77905 0 59 -7.77905 1
gene 2 1 24 2.60445 0 67 2.60445 1
gene 3 3 24 -1.18023 0 82 -1.18023 1
genomeend 37

/* Organism #38 Fitness: 9 Error: 1 */
genomestart 38
trait 1 0.0454505 0 0 0.0209967 0.167844 0.51822 0.542055 0.0687429 
trait 2 0.2 0 0 0 0 0 0 0 
trait 3 0.269771 0 0 0.017365 0 0.0715049 0 0 
node 1 3 1 3
node 2 2 1 1
node 3 2 1 1
node 4 1 0 2
node 7 1 0 0
node 24 1 0 0
gene 1 1 4 -2.55602 0 1 -2.55602 1
gene 1 2 4 -8 0 2 -8 1
gene 3 3 4 8 0 3 8 1
gene 1 2 7 2.7787 0 8 2.7787 1
gene 1 7 4 -0.564745 0 9 -0.564745 1
gene 1 1 7 -1.59955 0 44 -1.59955 1
gene 1 7 24 -1.33787 0 58 -1.33787 1
gene 1 24 4 -1.53371 0 59 -1.53371 1
gene 2 1 24 1.78861 0 67 1.78861 1
gene 3 3 24 -3.92361 0 82 -3.92361 1
genomeend 38

/* Organism #39 Fitness: 4.01297 Error: 1.99676 */
genomestart 39
trait 1 0.0454505 0 0 0.0209967 0.167844 0.51822 0.542055 0.0687429 
trait 2 0.2 0 0 0 0 0 0 0 
trait 3 0.269771 0 0 0.017365 0 0.0715049 0 0 
node 1 3 1 3
node 2 2 1 1
node 3 2 1 1
node 4 1 0 2
node 7 1 0 0
node 24 1 0 0
gene 1 1 4 -1.99425 0 1 -1.99425 1
gene 1 2 4 -7.34294 0 2 -7.34294 1
gene 3 3 4 6.8023 0 3 6.8023 1
gene 1 2 7 -0.188391 0 8 -0.188391 1
gene 1 7 4 -4.73937 0 9 -4.73937 1
gene 1 1 7 -2.56708 0 44 -2.56708 1
gene 1 7 24 -5.36639 0 58 -5.36639 1
gene 1 24 4 -6.72829 0 59 -6.72829 1
gene 2 1 24 2.38479 0 67 2.38479 1
gene 3 3 24 -1.96532 0 82 -1.96532 1
genomeend 39

/* Organism #40 Fitness: 1.14462 Error: 2.93013 */
genomestart 40
trait 1 0.0454505 0 0 0.0209967 0.167844 0.51822 0.542055 0.0687429 
trait 2 0.2 0 0 0 0 0 0 0 
trait 3 0.269771 0 0 0.017365 0 0.0715049 0 0 
node 1 3 1 3
node 2 2 1 1
node 3 2 1 1
node 4 1 0 2
node 7 1 0 0
node 24 1 0 0
gene 1 1 4 -0.857284 0 1 -0.857284 1
gene 1 2 4 -6.12716 0 2 -6.12716 1
gene 3 3 4 7.87182 0 3 7.87182 1
gene 1 2 7 1.99307 0 8 1.99307 1
gene 1 7 4 1.3831 0 9 1.3831 1
gene 1 1 7 2.06441 0 44 2.06441 1
gene 1 7 24 -3.7425 0 58 -3.7425 1
gene 1 24 4 -8 0 59 -8 1
gene 2 1 24 1.02092 0 67 1.02092 1
gene 3 3 24 0.344249 0 82 0.344249 1
genomeend 40

/* Species #6 : (Size 9) (AF 6.98563) (Age 20)  */


/* Organism #41 Fitness: 9 Error: 1 */
genomestart 41
trait 1 0.05 0 0 0 0 0 0 0 
trait 2 0.2 0 0 0 0 0 0 0 
trait 3 0.3 0 0 0 0 0 0 0 
node 1 1 1 3
node 2 1 1 1
node 3 1 1 1
node 4 3 0 2
node 13 1 0 0
node 19 1 0 0
gene 2 1 4 -0.358325 0 1 -0.358325 1
gene 2 2 4 6.38551 0 2 6.38551 1
gene 2 3 4 5.7432 0 3 5.7432 1
gene 2 2 13 -1.02589 0 23 -1.02589 1
gene 2 13 4 -4.56267 0 24 -4.56267 1
gene 3 3 19 -1.74848 0 42 -1.74848 1
gene 3 19 4 -2.40976 0 43 -2.40976 1
genomeend 41

/* Organism #42 Fitness: 8.99999 Error: 1 */
genomestart 42
trait 1 0.05 0 0 0 0 0 0 0 
trait 2 0.2 0 0 0 0 0 0 0 
trait 3 0.3 0 0 0 0 0 0 0 
node 1 1 1 3
node 2 1 1 1
node 3 1 1 1
node 4 3 0 2
node 13 1 0 0
node 19 1 0 0
gene 2 1 4 -2.24254 0 1 -2.24254 1
gene 2 2 4 5.59569 0 2 5.59569 1
gene 2 3 4 7.38563 0 3 7.38563 1
gene 2 2 13 -1.95015 0 23 -1.95015 1
gene 2 13 4 -4.38177 0 24 -4.38177 1
gene 3 3 19 -1.99034 0 42 -1.99034 1
gene 3 19 4 -0.596957 0 43 -0.596957 1
gene 2 19 13 -0.76397 0 263 -0.76397 1
genomeend 42

/* Organism #43 Fitness: 7.79215 Error: 1.20856 */
genomestart 43
trait 1 0.05 0 0 0 0 0 0 0 
trait 2 0.2 0 0 0 0 0 0 0 
trait 3 0.3 0 0 0 0 0 0 0 
node 1 1 1 3
node 2 1 1 1
node 3 1 1 1
node 4 3 0 2
node 13 1 0 0
node 19 1 0 0
gene 2 1 4 1.35849 0 1 1.35849 1
gene 2 2 4 6.25054 0 2 6.25054 1
gene 2 3 4 1.82783 0 3 1.82783 1
gene 2 2 13 -0.852763 0 23 -0.852763 1
gene 2 13 4 -5.24468 0 24 -5.24468 1
gene 3 3 19 -0.418786 0 42 -0.418786 1
gene 3 19 4 -2.59828 0 43 -2.59828 1
genomeend 43

/* Organism #44 Fitness: 4.00131 Error: 1.99967 */
genomestart 44
trait 1 0.05 0 0 0 0 0 0 0 
trait 2 0.2 0 0 0 0 0 0 0 
trait 3 0.3 0 0 0 0 0 0 0 
node 1 1 1 3
node 2 1 1 1
node 3 1 1 1
node 4 3 0 2
node 13 1 0 0
node 19 1 0 0
gene 2 1 4 0.321856 0 1 0.321856 1
gene 2 2 4 4.29469 0 2 4.29469 1
gene 2 3 4 6.42609 0 3 6.42609 1
gene 2 2 13 0.987793 0 23 0.987793 1
gene 2 13 4 -5.3198 0 24 -5.3198 1
gene 3 3 19 -2.84539 0 42 -2.84539 1
gene 3 19 4 -1.9326 0 43 -1.9326 1
genomeend 44

/* Organism #45 Fitness: 3.39371 Error: 2.1578 */
genomestart 45
trait 1 0.05 0 0 0 0 0 0 0 
trait 2 0.2 0 0 0 0 0 0 0 
trait 3 0.3 0 0 0 0 0 0 0 
node 1 1 1 3
node 2 1 1 1
node 3 1 1 1
node 4 3 0 2
node 13 1 0 0
node 19 1 0 0
gene 2 1 4 -2.16517 0 1 -2.16517 1
gene 2 2 4 -0.80813 0 2 -0.80813 1
gene 2 3 4 5.7432 0 3 5.7432 1
gene 2 2 13 -1.71072 0 23 -1.71072 1
gene 2 13 4 -6.47588 0 24 -6.47588 1
gene 3 3 19 -3.17949 0 42 -3.17949 1
gene 3 19 4 -0.078753 0 43 -0.078753 1
genomeend 45

/* Organism #46 Fitness: 9 Error: 1 */
genomestart 46
trait 1 0.05 0 0 0 0 0 0 0 
trait 2 0.2 0 0 0 0 0 0 0 
trait 3 0.3 0 0 0 0 0 0 0 
node 1 1 1 3
node 2 1 1 1
node 3 1 1 1
node 4 1 0 2
node 13 1 0 0
node 19 1 0 0
gene 2 1 4 -0.358325 0 1 -0.358325 1
gene 2 2 4 6.38551 0 2 6.38551 1
gene 1 3 4 5.7432 0 3 5.7432 1
gene 2 2 13 -1.02589 0 23 -1.02589 1
gene 2 13 4 -4.56267 0 24 -4.56267 1
gene 3 3 19 -1.74848 0 42 -1.74848 1
gene 3 19 4 -2.40976 0 43 -2.40976 1
genomeend 46

/* Organism #47 Fitness: 8.99922 Error: 1.00013 */
genomestart 47
trait 1 0.05 0 0 0 0 0 0 0 
trait 2 0.2 0 0 0 0 0 0 0 
trait 3 0.3 0 0 0 0 0 0 0 
node 1 1 1 3
node 2 1 1 1
node 3 1 1 1
node 4 3 0 2
node 13 1 0 0
node 19 1 0 0
gene 2 1 4 -1.82619 0 1 -1.82619 1
gene 2 2 4 7.15946 0 2 7.15946 1
gene 2 3 4 6.36372 0 3 6.36372 1
gene 2 2 13 -1.68944 0 23 -1.68944 1
gene 2 13 4 -5.00923 0 24 -5.00923 1
gene 3 3 19 -0.247272 0 42 -0.247272 1
gene 3 19 4 -0.949446 0 43 -0.949446 1
genomeend 47

/* Organism #48 Fitness: 7.68128 Error: 1.22849 */
genomestart 48
trait 1 0.05 0 0 0 0 0 0 0 
trait 2 0.2 0 0 0 0 0 0 0 
trait 3 0.3 0 0 0 0 0 0 0 
node 1 1 1 3
node 2 1 1 1
node 3 1 1 1
node 4 3 0 2
node 13 3 0 0
node 19 1 0 0
gene 2 1 4 -0.617504 0 1 -0.617504 1
gene 2 2 4 8 0 2 8 1
gene 2 3 4 3.47163 0 3 3.47163 1
gene 2 2 13 1.31481 0 23 1.31481 1
gene 2 13 4 -5.19608 0 24 -5.19608 1
gene 3 3 19 -1.22066 0 42 -1.22066 1
gene 3 19 4 -2.07688 0 43 -2.07688 1
genomeend 48

/* Organism #49 Fitness: 4.00301 Error: 1.99925 */
genomestart 49
trait 1 0.05 0 0 0 0 0 0 0 
trait 2 0.2 0 0 0 0 0 0 0 
trait 3 0.3 0 0 0 0 0 0 0 
node 1 1 1 3
node 2 1 1 1
node 3 1 1 1
node 4 3 0 2
node 13 1 0 0
node 19 1 0 0
gene 2 1 4 -3.2205 0 1 -3.2205 1
gene 2 2 4 8 0 2 8 1
gene 2 3 4 1.36441 0 3 1.36441 1
gene 2 2 13 -3.73045 0 23 -3.73045 1
gene 2 13 4 0.801798 0 24 0.801798 1
gene 3 3 19 -1.09073 0 42 -1.09073 1
gene 3 19 4 -1.10021 0 43 -1.10021 1
genomeend 49

/* Species #9 : (Size 9) (AF 5.07037) (Age 19)  */


/* Organism #50 Fitness: 8.99755 Error: 1.00041 */
genomestart 50
trait 1 0.1 0 0 0 0 0 0 0 
trait 2 0.217761 0 0.0888804 0 0 0.050088 0 0 
trait 3 0.308915 0 0 0.0321049 0.00111524 0.0112495 0 0.0332873 
node 1 1 1 3
node 2 2 1 1
node 3 1 1 1
node 4 1 0 2
node 7 1 0 0
node 14 1 0 0
node 81 1 0 0
gene 1 1 4 -5.13787 0 1 -5.13787 1
gene 1 2 4 -3.81609 0 2 -3.81609 0
gene 3 3 4 -3.8942 0 3 -3.8942 0
gene 3 2 7 -2.27315 0 8 -2.27315 1
gene 1 7 4 7.67334 0 9 7.67334 1
gene 1 3 14 7.92717 0 25 7.92717 0
gene 3 14 4 -0.923643 0 26 -0.923643 1
gene 1 3 7 1.22233 0 64 1.22233 1
gene 1 3 81 1 0 240 0 1
gene 1 81 14 7.92717 0 241 0 1
genomeend 50

/* Organism #51 Fitness: 3.99998 Error: 2.00001 */
genomestart 51
trait 1 0.1 0 0 0 0 0 0 0 
trait 2 0.217761 0 0.0888804 0 0 0.050088 0 0 
trait 3 0.308915 0 0 0.0321049 0.00111524 0.0112495 0 0.0332873 
node 1 1 1 3
node 2 2 1 1
node 3 1 1 1
node 4 1 0 2
node 7 1 0 0
node 14 1 0 0
node 81 1 0 0
gene 1 1 4 -5.13787 0 1 -5.13787 1
gene 1 2 4 -3.81609 0 2 -3.81609 0
gene 3 3 4 -3.8942 0 3 -3.8942 1
gene 3 2 7 -2.27315 0 8 -2.27315 1
gene 1 7 4 7.67334 0 9 7.67334 1
gene 1 3 14 7.92717 0 25 7.92717 0
gene 3 14 4 -0.923643 0 26 -0.923643 1
gene 1 3 7 1.22233 0 64 1.22233 1
gene 1 3 81 1 0 240 0 1
gene 1 81 14 7.92717 0 241 0 1
gene 2 2 14 0.141606 0 264 0.141606 1
genomeend 51

/* Organism #52 Fitness: 4 Error: 2 */
genomestart 52
trait 1 0.1 0 0 0 0 0 0 0 
trait 2 0.823768 0 0.0888804 0 0 0.050088 0 0 
trait 3 0.308915 0 0 0.0321049 0.00111524 0.0112495 0 0.0332873 
node 1 1 1 3
node 2 2 1 1
node 3 1 1 1
node 4 1 0 2
node 7 1 0 0
node 14 1 0 0
node 81 1 0 0
gene 1 1 4 -7.51923 0 1 -7.51923 1
gene 1 2 4 -3.05053 0 2 -3.05053 0
gene 3 3 4 -6.27556 0 3 -6.27556 0
gene 3 2 7 -0.51162 0 8 -0.51162 1
gene 1 7 4 7.27278 0 9 7.27278 1
gene 1 3 14 6.9592 0 25 6.9592 0
gene 3 14 4 -3.23069 0 26 -3.23069 1
gene 1 3 7 1.83293 0 64 1.83293 1
gene 1 3 81 0.085284 0 240 0.085284 1
gene 1 81 14 8 0 241 8 1
genomeend 52

/* Organism #53 Fitness: 4.00504 Error: 1.99874 */
genomestart 53
trait 1 0.1 0 0 0 0 0 0 0 
trait 2 0.217761 0 0.0888804 0 0 0.050088 0 0 
trait 3 0.308915 0 0 0.0321049 0.00111524 0.0112495 0 0.0332873 
node 1 1 1 3
node 2 2 1 1
node 3 1 1 1
node 4 1 0 2
node 7 1 0 0
node 14 1 0 0
node 81 1 0 0
gene 1 1 4 -5.17472 0 1 -5.17472 1
gene 1 2 4 -0.160756 0 2 -0.160756 0
gene 3 3 4 -2.60571 0 3 -2.60571 0
gene 3 2 7 -1.69024 0 8 -1.69024 1
gene 1 7 4 6.23943 0 9 6.23943 1
gene 1 3 14 8 0 25 8 0
gene 3 14 4 -3.34651 0 26 -3.34651 1
gene 1 3 7 3.08762 0 64 3.08762 1
gene 1 3 81 -1.45804 0 240 -1.45804 1
gene 1 81 14 7.92717 0 241 7.92717 1
genomeend 53

/* Organism #54 Fitness: 3.63184 Error: 2.09426 */
genomestart 54
trait 1 0.1 0 0 0 0 0 0 0 
trait 2 0.217761 0 0.0888804 0 0 0.050088 0 0 
trait 3 0.308915 0 0 0.0321049 0.00111524 0.0112495 0 0.0332873 
node 1 1 1 3
node 2 2 1 1
node 3 1 1 1
node 4 1 0 2
node 7 1 0 0
node 14 1 0 0
node 81 1 0 0
gene 1 1 4 -5.13787 0 1 -5.13787 1
gene 1 2 4 -0.172887 0 2 -0.172887 1
gene 3 3 4 -4.97562 0 3 -4.97562 1
gene 3 2 7 0.00894955 0 8 0.00894955 1
gene 1 7 4 8 0 9 8 1
gene 1 3 14 8 0 25 8 0
gene 3 14 4 1.3052 0 26 1.3052 1
gene 1 3 7 3.64634 0 64 3.64634 1
gene 1 3 81 -1.12781 0 240 -1.12781 1
gene 1 81 14 8 0 241 8 1
genomeend 54

/* Organism #55 Fitness: 4 Error: 2 */
genomestart 55
trait 1 0.1 0 0 0 0 0 0 0 
trait 2 0.217761 0 0.0888804 0 0 0.050088 0 0 
trait 3 0.308915 0 0 0.0321049 0.00111524 0.0112495 0 0.0332873 
node 1 1 1 3
node 2 2 1 1
node 3 1 1 1
node 4 1 0 2
node 7 1 0 0
node 14 1 0 0
node 81 1 0 0
gene 1 1 4 -6.89764 0 1 -6.89764 1
gene 1 2 4 -2.15031 0 2 -2.15031 0
gene 3 3 4 -1.64163 0 3 -1.64163 0
gene 3 2 7 0.031457 0 8 0.031457 1
gene 1 7 4 5.53246 0 9 5.53246 1
gene 1 3 14 5.50392 0 25 5.50392 0
gene 3 14 4 -2.2515 0 26 -2.2515 1
gene 1 3 7 2.94479 0 64 2.94479 1
gene 1 3 81 -0.238212 0 240 -0.238212 1
gene 1 81 14 5.73037 0 241 5.73037 1
genomeend 55

/* Organism #56 Fitness: 4 Error: 2 */
genomestart 56
trait 1 0.1 0 0 0 0 0 0 0 
trait 2 0.217761 0 0.0888804 0 0 0.050088 0 0 
trait 3 0.308915 0 0 0.0321049 0.00111524 0.0112495 0 0.0332873 
node 1 1 1 3
node 2 2 1 1
node 3 1 1 1
node 4 1 0 2
node 7 1 0 0
node 14 1 0 0
node 81 1 0 0
gene 1 1 4 -6.11957 0 1 -6.11957 1
gene 1 2 4 -3.15468 0 2 -3.15468 1
gene 3 3 4 -2.00018 0 3 -2.00018 0
gene 3 2 7 -3.20389 0 8 -3.20389 1
gene 1 7 4 8 0 9 8 1
gene 1 3 14 -1.81501 0 25 -1.81501 0
gene 3 14 4 -0.923643 0 26 -0.923643 1
gene 1 3 7 -1.14843 0 64 -1.14843 1
gene 1 3 81 2.28811 0 240 2.28811 1
gene 1 81 14 2.1202 0 241 2.1202 1
genomeend 56

/* Organism #57 Fitness: 4.00135 Error: 1.99966 */
genomestart 57
trait 1 0.1 0 0 0 0 0 0 0 
trait 2 0.217761 0 0.0888804 0 0 0.050088 0 0 
trait 3 0.308915 0 0 0.0321049 0.00111524 0.0112495 0 0.0332873 
node 1 1 1 3
node 2 2 1 1
node 3 1 1 1
node 4 1 0 2
node 7 1 0 0
node 14 1 0 0
node 81 1 0 0
gene 1 1 4 -3.94902 0 1 -3.94902 1
gene 1 2 4 -5.49705 0 2 -5.49705 0
gene 3 3 4 -6.2146 0 3 -6.2146 0
gene 3 2 7 -3.26408 0 8 -3.26408 1
gene 1 7 4 8 0 9 8 1
gene 1 3 14 7.64228 0 25 7.64228 0
gene 3 14 4 1.57498 0 26 1.57498 1
gene 1 3 7 0.177984 0 64 0.177984 1
gene 1 3 81 -1.02063 0 240 -1.02063 1
gene 1 81 14 7.92717 0 241 7.92717 1
genomeend 57

/* Organism #58 Fitness: 8.99755 Error: 1.00041 */
genomestart 58
trait 1 0.1 0 0 0 0 0 0 0 
trait 2 0.217761 0 0.0888804 0 0 0.050088 0 0 
trait 3 0.308915 0 0 0.0321049 0.00111524 0.0112495 0 0.0332873 
node 1 1 1 3
node 2 2 1 1
node 3 1 1 1
node 4 1 0 2
node 7 1 0 0
node 14 1 0 0
node 81 1 0 0
gene 1 1 4 -5.13787 0 1 -5.13787 1
gene 1 2 4 -3.81609 0 2 -3.81609 0
gene 3 3 4 -3.8942 0 3 -3.8942 0
gene 3 2 7 -2.27315 0 8 -2.27315 1
gene 1 7 4 7.67334 0 9 7.67334 1
gene 1 3 14 7.92717 0 25 7.92717 0
gene 3 14 4 -0.923643 0 26 -0.923643 1
gene 1 3 7 1.22233 0 64 1.22233 1
gene 1 3 81 1 0 240 0 1
gene 1 81 14 7.92717 0 241 0 1
genomeend 58

/* Species #10 : (Size 8) (AF 5.74606) (Age 19)  */


/* Organism #59 Fitness: 9 Error: 1 */
genomestart 59
trait 1 0.1 0 0 0 0 0 0 0 
trait 2 0.316183 0.714774 0.297141 0.0549104 0.535608 0.0942936 0 0 
trait 3 0.303566 0 0 0.00713442 0.000446095 0.0024999 0 0.00971299 
node 1 3 1 3
node 2 2 1 1
node 3 2 1 1
node 4 2 0 2
node 7 1 0 0
node 14 1 0 0
gene 1 1 4 -0.498253 0 1 -0.498253 1
gene 1 2 4 -8 0 2 -8 1
gene 3 3 4 -2.33974 0 3 -2.33974 0
gene 1 2 7 -0.347697 0 8 -0.347697 1
gene 1 7 4 7.47704 0 9 7.47704 1
gene 1 3 14 -3.38741 0 25 -3.38741 1
gene 3 14 4 -8 0 26 -8 1
gene 3 7 14 -2.88931 0 54 -2.88931 1
gene 3 1 14 5.24033 0 66 5.24033 1
gene 1 3 7 0.473495 0 205 0.473495 1
genomeend 59

/* Organism #60 Fitness: 4.00006 Error: 1.99998 */
genomestart 60
trait 1 0.1 0 0 0 0 0 0 0 
trait 2 0.316183 0.714774 0.297141 0.0549104 0.535608 0.0942936 0 0 
trait 3 0.303566 0 0 0.00713442 0.000446095 0.0024999 0 0.00971299 
node 1 3 1 3
node 2 2 1 1
node 3 2 1 1
node 4 2 0 2
node 7 1 0 0
node 14 1 0 0
gene 1 1 4 1.74654 0 1 1.74654 1
gene 1 2 4 -5.59613 0 2 -5.59613 1
gene 3 3 4 -1.15936 0 3 -1.15936 0
gene 1 2 7 1.2356 0 8 1.2356 1
gene 1 7 4 6.11714 0 9 6.11714 1
gene 1 3 14 -4.58404 0 25 -4.58404 1
gene 3 14 4 -8 0 26 -8 1
gene 3 7 14 -1.81888 0 54 -1.81888 1
gene 3 1 14 5.24033 0 66 5.24033 1
gene 1 3 7 1.81593 0 205 1.81593 1
genomeend 60

/* Organism #61 Fitness: 4 Error: 2 */
genomestart 61
trait 1 0.1 0 0 0 0 0 0 0 
trait 2 0.316183 0.714774 0.297141 0.0549104 0.535608 0.0942936 0 0 
trait 3 0.303566 0 0 0.00713442 0.000446095 0.0024999 0 0.00971299 
node 1 3 1 3
node 2 2 1 1
node 3 2 1 1
node 4 2 0 2
node 7 1 0 0
node 14 1 0 0
gene 1 1 4 -2.68216 0 1 -2.68216 1
gene 1 2 4 -7.06003 0 2 -7.06003 1
gene 3 3 4 -3.26666 0 3 -3.26666 0
gene 1 2 7 -1.24281 0 8 -1.24281 1
gene 1 7 4 6.52044 0 9 6.52044 1
gene 1 3 14 -4.05019 0 25 -4.05019 1
gene 3 14 4 -5.95175 0 26 -5.95175 1
gene 3 7 14 -0.484149 0 54 -0.484149 1
gene 3 1 14 5.54605 0 66 5.54605 1
gene 1 3 7 -1.79182 0 205 -1.79182 1
genomeend 61

/* Organism #62 Fitness: 1.00006 Error: 2.99997 */
genomestart 62
trait 1 0.1 0 0 0 0 0 0 0 
trait 2 0.316183 0.714774 0.297141 0.0549104 0.535608 0.0942936 0 0 
trait 3 0.303566 0 0 0.00713442 0.000446095 0.0024999 0 0.00971299 
node 1 3 1 3
node 2 2 1 1
node 3 2 1 1
node 4 2 0 2
node 7 1 0 0
node 14 1 0 0
gene 1 1 4 -0.256241 0 1 -0.256241 1
gene 1 2 4 -4.99309 0 2 -4.99309 1
gene 3 3 4 -2.17467 0 3 -2.17467 1
gene 1 2 7 -0.758896 0 8 -0.758896 1
gene 1 7 4 6.555 0 9 6.555 1
gene 1 3 14 -5.83534 0 25 -5.83534 1
gene 3 14 4 -0.842769 0 26 -0.842769 1
gene 3 7 14 -0.385727 0 54 -0.385727 1
gene 3 1 14 2.7419 0 66 2.7419 1
gene 1 3 7 -1.17458 0 205 -1.17458 1
genomeend 62

/* Organism #63 Fitness: 8.98936 Error: 1.00177 */
genomestart 63
trait 1 0.1 0 0 0 0 0 0 0 
trait 2 0.316183 0.714774 0.297141 0.0549104 0.535608 0.0942936 0 0 
trait 3 0.303566 0 0 0.00713442 0.000446095 0.0024999 0 0.00971299 
node 1 3 1 3
node 2 2 1 1
node 3 2 1 1
node 4 2 0 2
node 7 1 0 0
node 14 1 0 0
gene 1 1 4 1.80559 0 1 1.80559 1
gene 1 2 4 -7.14785 0 2 -7.14785 1
gene 3 3 4 1.35708 0 3 1.35708 1
gene 1 2 7 1.12333 0 8 1.12333 1
gene 1 7 4 7.65733 0 9 7.65733 1
gene 1 3 14 1.28971 0 25 1.28971 1
gene 3 14 4 -6.92045 0 26 -6.92045 1
gene 3 7 14 -2.12795 0 54 -2.12795 1
gene 3 1 14 4.76756 0 66 4.76756 1
gene 1 3 7 0.36874 0 205 0.36874 1
genomeend 63

/* Organism #64 Fitness: 8.96893 Error: 1.00518 */
genomestart 64
trait 1 0.1 0 0 0 0 0 0 0 
trait 2 0.316183 0.714774 0.297141 0.0549104 0.535608 0.0942936 0 0 
trait 3 0.303566 0 0 0.00713442 0.000446095 0.0024999 0 0.00971299 
node 1 3 1 3
node 2 2 1 1
node 3 2 1 1
node 4 2 0 2
node 7 1 0 0
node 14 1 0 0
node 88 1 0 0
gene 1 1 4 -0.256241 0 1 -0.256241 1
gene 1 2 4 -7.14785 0 2 -7.14785 1
gene 3 3 4 -1.38096 0 3 -1.38096 1
gene 1 2 7 -1.3067 0 8 -1.3067 1
gene 1 7 4 6.555 0 9 6.555 0
gene 1 3 14 -3.90916 0 25 -3.90916 1
gene 3 14 4 -6.85148 0 26 -6.85148 1
gene 3 7 14 -2.12795 0 54 -2.12795 1
gene 3 1 14 4.76756 0 66 4.76756 1
gene 1 3 7 0.36874 0 205 0.36874 1
gene 1 7 88 1 0 265 0 1
gene 1 88 4 6.555 0 266 0 1
genomeend 64

/* Organism #65 Fitness: 1.01003 Error: 2.995 */
genomestart 65
trait 1 0.1 0 0 0 0 0 0 0 
trait 2 0.316183 0.714774 0.297141 0.0549104 0.535608 0.0942936 0 0 
trait 3 0.303566 0 0 0.00713442 0.000446095 0.0024999 0 0.00971299 
node 1 3 1 3
node 2 2 1 1
node 3 2 1 1
node 4 2 0 2
node 7 1 0 0
node 14 1 0 0
gene 1 1 4 -1.15669 0 1 -1.15669 1
gene 1 2 4 -6.78246 0 2 -6.78246 1
gene 3 3 4 -2.33974 0 3 -2.33974 0
gene 1 2 7 0.130795 0 8 0.130795 1
gene 1 7 4 7.47704 0 9 7.47704 1
gene 1 3 14 -3.84168 0 25 -3.84168 1
gene 3 14 4 2.2103 0 26 2.2103 1
gene 3 7 14 -1.03676 0 54 -1.03676 1
gene 3 1 14 0.344783 0 66 0.344783 1
gene 1 3 7 -0.914716 0 205 -0.914716 1
genomeend 65

/* Organism #66 Fitness: 9 Error: 1 */
genomestart 66
trait 1 0.1 0 0 0 0 0 0 0 
trait 2 0.316183 0.714774 0.297141 0.0549104 0.535608 0.0942936 0 0 
trait 3 0.303566 0 0 0.00713442 0.000446095 0.0024999 0 0.00971299 
node 1 3 1 3
node 2 2 1 1
node 3 2 1 1
node 4 2 0 2
node 7 1 0 0
node 14 1 0 0
gene 1 1 4 -0.256241 0 1 -0.256241 1
gene 1 2 4 -7.14785 0 2 -7.14785 1
gene 3 3 4 -1.38096 0 3 -1.38096 1
gene 1 2 7 -1.3067 0 8 -1.3067 1
gene 1 7 4 6.555 0 9 6.555 1
gene 1 3 14 -3.90916 0 25 -3.90916 1
gene 3 14 4 -6.85148 0 26 -6.85148 1
gene 3 7 14 -2.12795 0 54 -2.12795 1
gene 3 1 14 4.76756 0 66 4.76756 1
gene 1 3 7 0.36874 0 205 0.36874 1
gene 2 2 14 0.141606 0 264 0 1
genomeend 66

/* Species #11 : (Size 7) (AF 7.56292) (Age 18)  */


/* Organism #67 Fitness: 9 Error: 1 */
genomestart 67
trait 1 0.1 0 0 0 0 0 0 0 
trait 2 0.224341 0 0 0.0225799 0 0.0111307 0 0 
trait 3 0.463531 0 0.298137 0.00222951 0.2214 0.35458 0.0841987 0.00667768 
node 1 3 1 3
node 2 2 1 1
node 3 2 1 1
node 4 1 0 2
node 7 1 0 0
node 14 1 0 0
gene 1 1 4 3.61087 0 1 3.61087 1
gene 1 2 4 0.0114292 0 2 0.0114292 0
gene 3 3 4 -3.9626 0 3 -3.9626 1
gene 1 2 7 -2.29646 0 8 -2.29646 1
gene 1 7 4 6.84011 0 9 6.84011 1
gene 3 3 14 1.4764 0 25 1.4764 1
gene 3 14 4 -2.90616 0 26 -2.90616 1
gene 3 1 14 -0.420545 0 41 -0.420545 1
gene 1 2 14 -0.038667 0 65 -0.038667 1
gene 2 1 7 0.532426 0 122 0 1
gene 3 7 14 0.0755943 0 155 0.0755943 1
genomeend 67

/* Organism #68 Fitness: 8.97102 Error: 1.00483 */
genomestart 68
trait 1 0.1 0 0 0 0 0 0 0 
trait 2 0.224341 0 0 0.0225799 0 0.0111307 0 0 
trait 3 0.463531 0 0.298137 0.00222951 0.2214 0.35458 0.0841987 0.00667768 
node 1 3 1 3
node 2 2 1 1
node 3 2 1 1
node 4 1 0 2
node 7 1 0 0
node 14 1 0 0
gene 1 1 4 3.61087 0 1 3.61087 1
gene 1 2 4 -0.32664 0 2 -0.32664 0
gene 3 3 4 -4.66132 0 3 -4.66132 1
gene 1 2 7 -3.78706 0 8 -3.78706 1
gene 1 7 4 6.40606 0 9 6.40606 1
gene 3 3 14 -0.504936 0 25 -0.504936 1
gene 3 14 4 -2.26104 0 26 -2.26104 1
gene 3 1 14 -0.31663 0 41 -0.31663 1
gene 1 2 14 -0.038667 0 65 -0.038667 1
gene 2 1 7 1.9803 0 122 1.9803 1
gene 1 7 14 2.1688 0 155 2.1688 1
genomeend 68

/* Organism #69 Fitness: 8.97857 Error: 1.00357 */
genomestart 69
trait 1 0.1 0 0 0 0 0 0 0 
trait 2 0.224341 0 0 0.0225799 0 0.0111307 0 0 
trait 3 0.463531 0 0.298137 0.00222951 0.2214 0.35458 0.0841987 0.00667768 
node 1 3 1 3
node 2 2 1 1
node 3 2 1 1
node 4 1 0 2
node 7 1 0 0
node 14 1 0 0
gene 1 1 4 2.07801 0 1 2.07801 1
gene 1 2 4 0.286172 0 2 0.286172 0
gene 3 3 4 -5.00015 0 3 -5.00015 1
gene 1 2 7 -1.2457 0 8 -1.2457 1
gene 1 7 4 4.83481 0 9 4.83481 1
gene 3 3 14 3.83113 0 25 3.83113 1
gene 3 14 4 -0.432867 0 26 -0.432867 1
gene 3 1 14 0.764718 0 41 0.764718 1
gene 1 2 14 0.894513 0 65 0.894513 1
gene 2 1 7 0.532426 0 122 0.532426 1
gene 1 7 14 -2.26746 0 155 -2.26746 1
genomeend 69

/* Organism #70 Fitness: 4.00011 Error: 1.99997 */
genomestart 70
trait 1 0.1 0 0 0 0 0 0 0 
trait 2 0.224341 0 0 0.0225799 0 0.0111307 0 0 
trait 3 0.463531 0 0.298137 0.00222951 0.2214 0.35458 0.0841987 0.00667768 
node 1 3 1 3
node 2 1 1 1
node 3 2 1 1
node 4 1 0 2
node 7 1 0 0
node 14 1 0 0
gene 1 1 4 3.54938 0 1 3.54938 1
gene 1 2 4 -1.45048 0 2 -1.45048 0
gene 3 3 4 -2.81533 0 3 -2.81533 1
gene 1 2 7 -1.97052 0 8 -1.97052 1
gene 1 7 4 7.25104 0 9 7.25104 1
gene 3 3 14 1.38866 0 25 1.38866 1
gene 3 14 4 -1.31912 0 26 -1.31912 1
gene 3 1 14 2.06839 0 41 2.06839 1
gene 1 2 14 -0.676656 0 65 -0.676656 1
gene 2 1 7 1.86605 0 122 1.86605 1
gene 1 7 14 0.0755943 0 155 0.0755943 1
genomeend 70

/* Organism #71 Fitness: 8.99247 Error: 1.00126 */
genomestart 71
trait 1 0.1 0 0 0 0 0 0 0 
trait 2 0.224341 0 0 0.0225799 0 0.0111307 0 0 
trait 3 0.463531 0 0.298137 0.00222951 0.2214 0.35458 0.0841987 0.00667768 
node 1 3 1 3
node 2 2 1 1
node 3 2 1 1
node 4 1 0 2
node 7 1 0 0
node 14 1 0 0
node 89 1 0 0
gene 1 1 4 3.61087 0 1 3.61087 1
gene 1 2 4 0.0114292 0 2 0.0114292 0
gene 3 3 4 -3.9626 0 3 -3.9626 0
gene 1 2 7 -2.29646 0 8 -2.29646 1
gene 1 7 4 6.84011 0 9 6.84011 1
gene 3 3 14 1.4764 0 25 1.4764 1
gene 3 14 4 -2.90616 0 26 -2.90616 1
gene 3 1 14 -0.420545 0 41 -0.420545 1
gene 1 2 14 -0.038667 0 65 -0.038667 1
gene 2 1 7 0.532426 0 122 0 1
gene 1 7 14 0.0755943 0 155 0.0755943 1
gene 3 3 89 1 0 267 0 1
gene 3 89 4 -3.9626 0 268 0 1
genomeend 71

/* Organism #72 Fitness: 4 Error: 2 */
genomestart 72
trait 1 0.1 0 0 0 0 0 0 0 
trait 2 0.224341 0 0 0.0225799 0 0.0111307 0 0 
trait 3 0.463531 0 0.298137 0.00222951 0.2214 0.35458 0.0841987 0.00667768 
node 1 3 1 3
node 2 2 1 1
node 3 2 1 1
node 4 1 0 2
node 7 1 0 0
node 14 1 0 0
gene 1 1 4 1.48877 0 1 1.48877 1
gene 1 2 4 0.0318003 0 2 0.0318003 0
gene 3 3 4 -3.9626 0 3 -3.9626 1
gene 1 2 7 1.1269 0 8 1.1269 1
gene 1 7 4 8 0 9 8 1
gene 3 3 14 -2.1717 0 25 -2.1717 1
gene 3 14 4 -2.2066 0 26 -2.2066 1
gene 3 1 14 -2.06954 0 41 -2.06954 1
gene 1 2 14 -0.864956 0 65 -0.864956 1
gene 2 1 7 2.3981 0 122 2.3981 1
gene 3 7 14 1.15046 0 155 1.15046 1
genomeend 72

/* Organism #73 Fitness: 8.99827 Error: 1.00029 */
genomestart 73
trait 1 0.1 0 0 0 0 0 0 0 
trait 2 0.224341 0 0 0.0225799 0 0.0111307 0 0 
trait 3 0.463531 0 0.298137 0.00222951 0.2214 0.35458 0.0841987 0.00667768 
node 1 3 1 3
node 2 2 1 1
node 3 2 1 1
node 4 1 0 2
node 7 1 0 0
node 14 1 0 0
gene 1 1 4 1.3461 0 1 1.3461 1
gene 1 2 4 2.22814 0 2 2.22814 0
gene 3 3 4 -5.9592 0 3 -5.9592 1
gene 1 2 7 -2.29646 0 8 -2.29646 1
gene 1 7 4 8 0 9 8 1
gene 3 3 14 1.24995 0 25 1.24995 1
gene 3 14 4 -4.27911 0 26 -4.27911 1
gene 3 1 14 -2.06206 0 41 -2.06206 1
gene 1 2 14 0.276437 0 65 0.276437 1
gene 2 1 7 1.64467 0 122 1.64467 1
gene 1 7 14 0.0755943 0 155 0.0755943 1
genomeend 73

/* Species #12 : (Size 9) (AF 6.54039) (Age 16)  */


/* Organism #74 Fitness: 9 Error: 1 */
genomestart 74
trait 1 0.025 0 0 0 0 0.475311 0 0 
trait 2 0.224341 0 0 0.0112899 0 0.00556534 0 0 
trait 3 0.303566 0 0 0.00713442 0.000446095 0.0024999 0 0.00971299 
node 1 3 1 3
node 2 2 1 1
node 3 2 1 1
node 4 1 0 2
node 7 1 0 0
node 14 1 0 0
node 40 1 0 0
node 84 1 0 0
gene 1 1 4 3.17782 0 1 3.17782 1
gene 1 2 4 1.83752 0 2 1.83752 0
gene 3 3 4 -6.37432 0 3 -6.37432 1
gene 1 2 7 -5.65118 0 8 -5.65118 1
gene 1 7 4 7.73856 0 9 7.73856 1
gene 3 3 14 -2.85146 0 25 -2.85146 1
gene 3 14 4 3.11775 0 26 3.11775 1
gene 3 1 14 -1.27014 0 41 -1.27014 1
gene 1 2 14 -1.40078 0 65 -1.40078 0
gene 2 1 7 1.10522 0 94 1.10522 1
gene 1 2 40 0.952177 0 106 0.952177 0
gene 1 40 14 2.49649 0 107 2.49649 1
gene 3 14 7 -0.106296 0 206 -0.106296 1
gene 1 2 84 1 0 252 0 1
gene 1 84 40 0.952177 0 253 0 1
genomeend 74

/* Organism #75 Fitness: 1.00041 Error: 2.99979 */
genomestart 75
trait 1 0.025 0 0 0 0 0.475311 0 0 
trait 2 0.224341 0 0 0.0112899 0 0.00556534 0 0 
trait 3 0.303566 0 0 0.00713442 0.000446095 0.0024999 0 0.00971299 
node 1 3 1 3
node 2 2 1 1
node 3 2 1 1
node 4 1 0 2
node 7 1 0 0
node 14 1 0 0
node 40 1 0 0
node 84 1 0 0
gene 1 1 4 -1.11095 0 1 -1.11095 1
gene 1 2 4 0.491733 0 2 0.491733 0
gene 3 3 4 -7.369 0 3 -7.369 1
gene 1 2 7 -3.43608 0 8 -3.43608 1
gene 1 7 4 5.73776 0 9 5.73776 1
gene 3 3 14 -3.13879 0 25 -3.13879 1
gene 3 14 4 -0.964919 0 26 -0.964919 1
gene 3 1 14 -3.70041 0 41 -3.70041 1
gene 1 2 14 0.945406 0 65 0.945406 0
gene 2 1 7 -0.875664 0 94 -0.875664 1
gene 1 2 40 0.714362 0 106 0.714362 0
gene 1 40 14 4.24734 0 107 4.24734 1
gene 3 14 7 2.25684 0 206 2.25684 1
gene 1 2 84 -0.267663 0 252 -0.267663 1
gene 1 84 40 2.09067 0 253 2.09067 1
genomeend 75

/* Organism #76 Fitness: 4.87231 Error: 1.79267 */
genomestart 76
trait 1 0.025 0 0 0 0 0.475311 0 0 
trait 2 0.224341 0 0 0.0112899 0 0.00556534 0 0 
trait 3 0.303566 0 0 0.00713442 0.000446095 0.0024999 0 0.00971299 
node 1 3 1 3
node 2 2 1 1
node 3 2 1 1
node 4 1 0 2
node 7 1 0 0
node 14 1 0 0
node 40 1 0 0
gene 1 1 4 3.25323 0 1 3.25323 1
gene 1 2 4 3.16481 0 2 3.16481 1
gene 3 3 4 -6.1457 0 3 -6.1457 1
gene 1 2 7 -6.24483 0 8 -6.24483 1
gene 1 7 4 7.86928 0 9 7.86928 1
gene 3 3 14 -2.70756 0 25 -2.70756 1
gene 3 14 4 3.24097 0 26 3.24097 1
gene 3 1 14 -1.07799 0 41 -1.07799 1
gene 1 2 14 -1.88957 0 65 -1.88957 0
gene 2 1 7 1.43276 0 94 1.43276 1
gene 1 2 40 -0.435499 0 106 -0.435499 1
gene 1 40 14 0.858771 0 107 0.858771 1
gene 3 14 7 0.560457 0 206 0.560457 1
genomeend 76

/* Organism #77 Fitness: 8.99824 Error: 1.00029 */
genomestart 77
trait 1 0.025 0 0 0 0 0.475311 0 0 
trait 2 0.224341 0 0 0.0112899 0 0.00556534 0 0 
trait 3 0.303566 0 0 0.00713442 0.000446095 0.0024999 0 0.00971299 
node 1 3 1 3
node 2 2 1 1
node 3 2 1 1
node 4 1 0 2
node 7 1 0 0
node 14 1 0 0
node 40 1 0 0
node 84 1 0 0
gene 1 1 4 0.355617 0 1 0.355617 1
gene 1 2 4 1.30673 0 2 1.30673 0
gene 3 3 4 -5.90869 0 3 -5.90869 1
gene 1 2 7 -7.75032 0 8 -7.75032 1
gene 1 7 4 7.24126 0 9 7.24126 1
gene 3 3 14 -2.91196 0 25 -2.91196 1
gene 3 14 4 5.48118 0 26 5.48118 1
gene 3 1 14 -0.879276 0 41 -0.879276 1
gene 1 2 14 -0.829646 0 65 -0.829646 0
gene 2 1 7 1.46457 0 94 1.46457 1
gene 1 2 40 2.93924 0 106 2.93924 0
gene 1 40 14 0.73954 0 107 0.73954 1
gene 3 14 7 -0.575045 0 206 -0.575045 1
gene 1 2 84 2.60558 0 252 2.60558 1
gene 1 84 40 0.691321 0 253 0.691321 1
genomeend 77

/* Organism #78 Fitness: 9 Error: 1 */
genomestart 78
trait 1 0.025 0 0 0 0 0.475311 0 0 
trait 2 0.224341 0 0 0.0112899 0 0.00556534 0 0 
trait 3 0.303566 0 0 0.00713442 0.000446095 0.0024999 0 0.00971299 
node 1 3 1 3
node 2 2 1 1
node 3 2 1 1
node 4 1 0 2
node 7 1 0 0
node 14 1 0 0
node 40 1 0 0
node 84 1 0 0
gene 1 1 4 3.32865 0 1 3.32865 1
gene 1 2 4 4.4921 0 2 4.4921 0
gene 3 3 4 -6.37432 0 3 -6.37432 1
gene 1 2 7 -5.65118 0 8 -5.65118 1
gene 1 7 4 7.73856 0 9 7.73856 1
gene 3 3 14 -2.85146 0 25 -2.85146 1
gene 3 14 4 3.11775 0 26 3.11775 1
gene 3 1 14 -0.885838 0 41 -0.885838 1
gene 1 2 14 -2.37836 0 65 -2.37836 0
gene 2 1 7 1.7603 0 94 1.7603 1
gene 1 2 40 -1.82318 0 106 -1.82318 1
gene 1 40 14 -0.778949 0 107 -0.778949 1
gene 3 14 7 1.22721 0 206 1.22721 1
gene 1 2 84 1 0 252 0 1
gene 1 84 40 0.952177 0 253 0 1
gene 2 3 84 0.91641 0 269 0.91641 1
genomeend 78

/* Organism #79 Fitness: 4.00007 Error: 1.99998 */
genomestart 79
trait 1 0.025 0 0 0 0 0.475311 0 0 
trait 2 0.224341 0 0 0.0112899 0 0.00556534 0 0 
trait 3 0.303566 0 0 0.00713442 0.000446095 0.0024999 0 0.00971299 
node 1 3 1 3
node 2 2 1 1
node 3 2 1 1
node 4 1 0 2
node 7 1 0 0
node 14 1 0 0
node 40 1 0 0
node 84 1 0 0
gene 1 1 4 0.901212 0 1 0.901212 1
gene 1 2 4 3.2104 0 2 3.2104 0
gene 3 3 4 -5.58481 0 3 -5.58481 1
gene 1 2 7 -0.956832 0 8 -0.956832 1
gene 1 7 4 7.32945 0 9 7.32945 1
gene 3 3 14 -2.23918 0 25 -2.23918 1
gene 3 14 4 1.37499 0 26 1.37499 1
gene 3 1 14 -2.27046 0 41 -2.27046 1
gene 1 2 14 -0.992595 0 65 -0.992595 0
gene 2 1 7 1.51622 0 94 1.51622 1
gene 1 2 40 -1.36326 0 106 -1.36326 0
gene 1 40 14 2.46323 0 107 2.46323 1
gene 3 14 7 -0.336848 0 206 -0.336848 1
gene 1 2 84 1 0 252 1 1
gene 1 84 40 2.65229 0 253 2.65229 1
genomeend 79

/* Organism #80 Fitness: 8.99998 Error: 1 */
genomestart 80
trait 1 0.025 0 0 0 0 0.475311 0 0 
trait 2 0.224341 0 0 0.0112899 0 0.00556534 0 0 
trait 3 0.303566 0 0 0.12344 0 0.650683 0 0.00971299 
node 1 3 1 3
node 2 2 1 1
node 3 2 1 1
node 4 1 0 2
node 7 1 0 0
node 14 1 0 0
node 40 1 0 0
gene 1 1 4 3.32865 0 1 3.32865 1
gene 1 2 4 4.4921 0 2 4.4921 0
gene 3 3 4 -5.91708 0 3 -5.91708 1
gene 1 2 7 -6.83847 0 8 -6.83847 1
gene 1 7 4 8 0 9 8 1
gene 3 3 14 -2.56367 0 25 -2.56367 1
gene 3 14 4 3.36419 0 26 3.36419 1
gene 3 1 14 -0.885838 0 41 -0.885838 1
gene 1 2 14 -2.37836 0 65 -2.37836 0
gene 2 1 7 1.7603 0 94 1.7603 1
gene 1 2 40 -1.82318 0 106 -1.82318 1
gene 1 40 14 -0.778949 0 107 -0.778949 1
gene 3 14 7 1.22721 0 206 1.22721 1
genomeend 80

/* Organism #81 Fitness: 4 Error: 2 */
genomestart 81
trait 1 0.025 0 0 0 0 0.475311 0 0 
trait 2 0.224341 0 0 0.0112899 0 0.00556534 0 0 
trait 3 0.303566 0 0 0.00713442 0.000446095 0.0024999 0 0.00971299 
node 1 3 1 3
node 2 2 1 1
node 3 2 1 1
node 4 1 0 2
node 7 1 0 0
node 14 1 0 0
node 40 1 0 0
gene 1 1 4 4.19385 0 1 4.19385 1
gene 1 2 4 0.349822 0 2 0.349822 0
gene 3 3 4 -7.80091 0 3 -7.80091 1
gene 1 2 7 -1.64808 0 8 -1.64808 1
gene 1 7 4 8 0 9 8 1
gene 3 3 14 -0.559366 0 25 -0.559366 1
gene 3 14 4 0.97253 0 26 0.97253 1
gene 3 1 14 -3.42925 0 41 -3.42925 1
gene 1 2 14 0.804334 0 65 0.804334 0
gene 2 1 7 2.23883 0 94 2.23883 1
gene 2 2 40 -1.44513 0 106 -1.44513 1
gene 1 40 14 -2.0175 0 107 -2.0175 1
gene 3 14 7 -2.30218 0 206 -2.30218 1
genomeend 81

/* Organism #82 Fitness: 8.99253 Error: 1.00124 */
genomestart 82
trait 1 0.025 0 0 0 0 0.475311 0 0 
trait 2 0.224341 0 0 0.0112899 0 0.00556534 0 0 
trait 3 0.303566 0 0 0.00713442 0.000446095 0.0024999 0 0.00971299 
node 1 3 1 3
node 2 2 1 1
node 3 2 1 1
node 4 1 0 2
node 7 1 0 0
node 14 1 0 0
node 40 1 0 0
node 84 1 0 0
node 90 1 0 0
gene 1 1 4 3.17782 0 1 3.17782 1
gene 1 2 4 1.83752 0 2 1.83752 1
gene 3 3 4 -6.37432 0 3 -6.37432 1
gene 1 2 7 -5.65118 0 8 -5.65118 1
gene 1 7 4 7.73856 0 9 7.73856 1
gene 3 3 14 -2.85146 0 25 -2.85146 1
gene 3 14 4 3.11775 0 26 3.11775 1
gene 3 1 14 -1.27014 0 41 -1.27014 1
gene 1 2 14 -1.40078 0 65 -1.40078 0
gene 2 1 7 1.10522 0 94 1.10522 1
gene 1 2 40 0.952177 0 106 0.952177 0
gene 1 40 14 2.49649 0 107 2.49649 1
gene 3 14 7 -0.106296 0 206 -0.106296 0
gene 1 2 84 1 0 252 0 1
gene 1 84 40 0.952177 0 253 0 1
gene 3 14 90 1 0 270 0 1
gene 3 90 7 -0.106296 0 271 0 1
genomeend 82

/* Species #13 : (Size 8) (AF 6.7698) (Age 14)  */


/* Organism #83 Fitness: 8.99995 Error: 1.00001 */
genomestart 83
trait 1 0 0 0 0.0839869 0.671377 0.285989 0 0.274972 
trait 2 0.2 0 0 0 0 0 0 0 
trait 3 0.269771 0 0 0.017365 0 0.0715049 0 0 
node 1 3 1 3
node 2 1 1 1
node 3 3 1 1
node 4 1 0 2
node 7 1 0 0
node 24 1 0 0
node 51 1 0 0
gene 1 1 4 -2.38985 0 1 -2.38985 1
gene 1 2 4 -8 0 2 -8 1
gene 3 3 4 5.2908 0 3 5.2908 1
gene 1 2 7 0.717284 0 8 0.717284 1
gene 2 7 4 0.559557 0 9 0.559557 1
gene 1 1 7 -2.94215 0 44 -2.94215 1
gene 1 7 24 3.91643 0 58 3.91643 1
gene 1 24 4 -1.48526 0 59 -1.48526 1
gene 2 1 24 -6.61512 0 67 -6.61512 1
gene 3 3 7 -3.4404 0 112 -3.4404 0
gene 3 3 51 0.820261 0 140 0.820261 1
gene 3 51 7 2.24802 0 141 2.24802 1
genomeend 83

/* Organism #84 Fitness: 1.1695 Error: 2.91857 */
genomestart 84
trait 1 0 0 0 0.0839869 0.671377 0.285989 0 0.274972 
trait 2 0.2 0 0 0 0 0 0 0 
trait 3 0.269771 0 0 0.017365 0 0.0715049 0 0 
node 1 3 1 3
node 2 1 1 1
node 3 3 1 1
node 4 1 0 2
node 7 1 0 0
node 24 1 0 0
node 51 1 0 0
gene 1 1 4 -2.38985 0 1 -2.38985 1
gene 1 2 4 0.491958 0 2 0.491958 1
gene 3 3 4 1.891 0 3 1.891 1
gene 1 2 7 1.88164 0 8 1.88164 1
gene 2 7 4 2.28484 0 9 2.28484 1
gene 1 1 7 -2.97099 0 44 -2.97099 1
gene 1 7 24 5.89181 0 58 5.89181 1
gene 1 24 4 2.40852 0 59 2.40852 1
gene 2 1 24 -4.34957 0 67 -4.34957 1
gene 3 3 7 -3.4404 0 112 -3.4404 0
gene 3 3 51 2.68723 0 140 2.68723 1
gene 3 51 7 1.12468 0 141 1.12468 1
genomeend 84

/* Organism #85 Fitness: 8.96973 Error: 1.00505 */
genomestart 85
trait 1 0.0801416 0.185797 0.193861 0.0629902 0.671377 0.308153 0 0.206229 
trait 2 0.2 0 0.136357 0 0 0 0 0 
trait 3 0.269771 0 0 0.017365 0 0.0715049 0 0 
node 1 3 1 3
node 2 1 1 1
node 3 3 1 1
node 4 1 0 2
node 7 1 0 0
node 24 1 0 0
node 51 1 0 0
gene 1 1 4 -4.30816 0 1 -4.30816 1
gene 1 2 4 -8 0 2 -8 1
gene 3 3 4 4.36754 0 3 4.36754 1
gene 1 2 7 0.595439 0 8 0.595439 1
gene 2 7 4 1.05533 0 9 1.05533 1
gene 2 1 7 0.647755 0 44 0.647755 1
gene 1 7 24 2.13865 0 58 2.13865 1
gene 1 24 4 -0.0440992 0 59 -0.0440992 1
gene 2 1 24 -8 0 67 -8 1
gene 3 3 7 -3.3715 0 112 -3.3715 0
gene 3 3 51 0.550859 0 140 0.550859 1
gene 3 51 7 1.2392 0 141 1.2392 0
genomeend 85

/* Organism #86 Fitness: 8.99989 Error: 1.00002 */
genomestart 86
trait 1 0 0 0 0.0839869 0.671377 0.285989 0 0.274972 
trait 2 0.2 0 0 0 0 0 0 0 
trait 3 0.269771 0 0 0.017365 0 0.0715049 0 0 
node 1 1 1 3
node 2 1 1 1
node 3 3 1 1
node 4 1 0 2
node 7 1 0 0
node 24 1 0 0
node 51 1 0 0
gene 1 1 4 -1.01772 0 1 -1.01772 1
gene 1 2 4 -8 0 2 -8 1
gene 3 3 4 5.2908 0 3 5.2908 1
gene 1 2 7 -0.893864 0 8 -0.893864 1
gene 2 7 4 0.481048 0 9 0.481048 1
gene 1 1 7 -2.54701 0 44 -2.54701 1
gene 1 7 24 3.91643 0 58 3.91643 1
gene 1 24 4 -2.08487 0 59 -2.08487 1
gene 2 1 24 1.70232 0 67 1.70232 1
gene 3 3 7 -1.66628 0 112 -1.66628 0
gene 3 3 51 0.370266 0 140 0.370266 1
gene 3 51 7 2.24802 0 141 2.24802 1
genomeend 86

/* Organism #87 Fitness: 4.0186 Error: 1.99536 */
genomestart 87
trait 1 0.160283 0.371593 0.387722 0.0419935 0.671377 0.330317 0 0.137486 
trait 2 0.2 0 0 0 0 0 0 0 
trait 3 0.269771 0 0 0.017365 0 0.0715049 0 0 
node 1 3 1 3
node 2 1 1 1
node 3 3 1 1
node 4 1 0 2
node 7 1 0 0
node 24 1 0 0
node 51 1 0 0
gene 1 1 4 -1.25425 0 1 -1.25425 1
gene 1 2 4 -8 0 2 -8 1
gene 3 3 4 6.14696 0 3 6.14696 1
gene 1 2 7 3.70666 0 8 3.70666 1
gene 2 7 4 2.34539 0 9 2.34539 1
gene 1 1 7 -0.520264 0 44 -0.520264 1
gene 1 7 24 3.14003 0 58 3.14003 1
gene 1 24 4 -3.60923 0 59 -3.60923 1
gene 2 1 24 -4.9939 0 67 -4.9939 1
gene 3 3 7 -5.56563 0 112 -5.56563 1
gene 3 3 51 -0.619297 0 140 -0.619297 1
gene 3 51 7 4.31447 0 141 4.31447 1
genomeend 87

/* Organism #88 Fitness: 8.99982 Error: 1.00003 */
genomestart 88
trait 1 0.160283 0.371593 0.387722 0.0419935 0.671377 0.330317 0 0.137486 
trait 2 0.2 0 0 0 0 0 0 0 
trait 3 0.269771 0 0 0.017365 0 0.0715049 0 0 
node 1 3 1 3
node 2 1 1 1
node 3 3 1 1
node 4 2 0 2
node 7 1 0 0
node 24 1 0 0
node 51 1 0 0
gene 1 1 4 -2.38985 0 1 -2.38985 1
gene 1 2 4 -8 0 2 -8 1
gene 3 3 4 4.52063 0 3 4.52063 1
gene 1 2 7 4.49281 0 8 4.49281 1
gene 2 7 4 0.168424 0 9 0.168424 1
gene 1 1 7 0.820261 0 44 0.820261 1
gene 1 7 24 3.91643 0 58 3.91643 1
gene 1 24 4 -2.59037 0 59 -2.59037 1
gene 2 1 24 -6.61512 0 67 -6.61512 1
gene 3 3 7 -3.4404 0 112 -3.4404 0
gene 3 3 51 0.820261 0 140 0.820261 1
gene 3 51 7 2.39859 0 141 2.39859 0
genomeend 88

/* Organism #89 Fitness: 4.0011 Error: 1.99972 */
genomestart 89
trait 1 0.160283 0.371593 0.387722 0.0419935 0.671377 0.330317 0 0.137486 
trait 2 0.2 0 0 0 0 0 0 0 
trait 3 0.269771 0 0 0.017365 0 0.0715049 0 0 
node 1 3 1 3
node 2 1 1 1
node 3 3 1 1
node 4 1 0 2
node 7 1 0 0
node 24 1 0 0
node 51 1 0 0
gene 2 1 4 -0.38974 0 1 -0.38974 1
gene 1 2 4 -7.89975 0 2 -7.89975 1
gene 3 3 4 3.99548 0 3 3.99548 1
gene 1 2 7 4.46497 0 8 4.46497 1
gene 2 7 4 2.05874 0 9 2.05874 1
gene 1 1 7 0.99414 0 44 0.99414 1
gene 1 7 24 3.63268 0 58 3.63268 1
gene 1 24 4 -3.51524 0 59 -3.51524 1
gene 2 1 24 -5.33784 0 67 -5.33784 1
gene 3 3 7 -2.47067 0 112 -2.47067 0
gene 3 3 51 1.82867 0 140 1.82867 1
gene 3 51 7 2.37311 0 141 2.37311 0
genomeend 89

/* Organism #90 Fitness: 8.99985 Error: 1.00003 */
genomestart 90
trait 1 0.0801416 0.185797 0.193861 0.0629902 0.671377 0.308153 0 0.206229 
trait 2 0.2 0 0 0 0 0 0 0 
trait 3 0.269771 0.254799 0 0.327891 0 0.0715049 0 0 
node 1 3 1 3
node 2 1 1 1
node 3 3 1 1
node 4 1 0 2
node 7 1 0 0
node 24 1 0 0
node 51 1 0 0
gene 1 1 4 -3.06095 0 1 -3.06095 1
gene 1 2 4 -5.67716 0 2 -5.67716 1
gene 3 3 4 6.05594 0 3 6.05594 1
gene 1 2 7 5.59568 0 8 5.59568 1
gene 2 7 4 0.680525 0 9 0.680525 1
gene 1 1 7 0.0416578 0 44 0.0416578 1
gene 1 7 24 6.38873 0 58 6.38873 1
gene 1 24 4 -0.581416 0 59 -0.581416 1
gene 2 1 24 -6.57811 0 67 -6.57811 1
gene 3 3 7 -1.44334 0 112 -1.44334 0
gene 3 3 51 2.79649 0 140 2.79649 1
gene 3 51 7 4.07425 0 141 4.07425 0
genomeend 90

/* Species #14 : (Size 8) (AF 5.88491) (Age 12)  */


/* Organism #91 Fitness: 8.99945 Error: 1.00009 */
genomestart 91
trait 1 0.1 0 0 0 0 0 0 0 
trait 2 0.592885 0.0345563 0.496183 0.640625 0.531394 0.238715 0 0 
trait 3 0.308915 0.276515 0 0.0321049 0.000714449 0.0509193 0 0.0492452 
node 1 2 1 3
node 2 2 1 1
node 3 1 1 1
node 4 1 0 2
node 7 3 0 0
node 14 1 0 0
node 52 1 0 0
gene 1 1 4 2.44772 0 1 2.44772 1
gene 1 2 4 -1.5553 0 2 -1.5553 0
gene 3 3 4 -2.24687 0 3 -2.24687 1
gene 3 2 7 -2.51756 0 8 -2.51756 1
gene 3 7 4 -4.35675 0 9 -4.35675 1
gene 1 3 14 1.49766 0 25 1.49766 0
gene 3 14 4 -1.12665 0 26 -1.12665 1
gene 1 3 7 -0.0214083 0 64 -0.0214083 0
gene 1 3 52 2.41168 0 143 2.41168 1
gene 1 52 7 2.81144 0 144 2.81144 1
genomeend 91

/* Organism #92 Fitness: 8.99958 Error: 1.00007 */
genomestart 92
trait 1 0.1 0 0 0 0 0 0 0 
trait 2 0.583736 0.0337134 0.486249 0.625 0.518433 0.234115 0 0 
trait 3 0.308915 0.288537 0 0.0321049 0.000697023 0.0526441 0 0.049939 
node 1 2 1 3
node 2 2 1 1
node 3 1 1 1
node 4 1 0 2
node 7 3 0 0
node 14 1 0 0
node 52 1 0 0
gene 1 1 4 2.44772 0 1 2.44772 1
gene 1 2 4 -1.5553 0 2 -1.5553 0
gene 3 3 4 -1.85782 0 3 -1.85782 0
gene 3 2 7 -2.51756 0 8 -2.51756 1
gene 3 7 4 -4.35675 0 9 -4.35675 1
gene 1 3 14 1.25681 0 25 1.25681 1
gene 3 14 4 -1.12665 0 26 -1.12665 1
gene 1 3 7 -0.275096 0 64 -0.275096 0
gene 1 3 52 2.22542 0 143 2.22542 1
gene 1 52 7 2.81144 0 144 2.81144 1
gene 1 52 14 -0.562883 0 272 -0.562883 1
genomeend 92

/* Organism #93 Fitness: 3.98265 Error: 2.00434 */
genomestart 93
trait 1 0.1 0 0 0 0 0 0 0 
trait 2 0.583736 0.0337134 0.486249 0.625 0.518433 0.234115 0 0 
trait 3 0.308915 0.288537 0 0.0321049 0.000697023 0.0526441 0 0.049939 
node 1 2 1 3
node 2 2 1 1
node 3 1 1 1
node 4 1 0 2
node 7 3 0 0
node 14 1 0 0
node 52 1 0 0
gene 1 1 4 0.264042 0 1 0.264042 1
gene 1 2 4 0.827357 0 2 0.827357 0
gene 3 3 4 -1.86957 0 3 -1.86957 0
gene 3 2 7 -1.84943 0 8 -1.84943 1
gene 3 7 4 -1.91527 0 9 -1.91527 1
gene 1 3 14 -0.586566 0 25 -0.586566 1
gene 3 14 4 -2.09487 0 26 -2.09487 1
gene 1 3 7 -0.436949 0 64 -0.436949 0
gene 1 3 52 0.135816 0 143 0.135816 1
gene 1 52 7 -1.75939 0 144 -1.75939 1
genomeend 93

/* Organism #94 Fitness: 4.09697 Error: 1.9759 */
genomestart 94
trait 1 0.1 0 0 0 0 0 0 0 
trait 2 0.583736 0.0337134 0.486249 0.625 0.518433 0.234115 0 0 
trait 3 0.308915 0.288537 0 0.0321049 0.000697023 0.0526441 0 0.049939 
node 1 2 1 3
node 2 2 1 1
node 3 1 1 1
node 4 1 0 2
node 7 3 0 0
node 14 1 0 0
node 52 1 0 0
gene 1 1 4 1.89503 0 1 1.89503 1
gene 1 2 4 -0.805078 0 2 -0.805078 0
gene 3 3 4 -3.28678 0 3 -3.28678 0
gene 3 2 7 -3.53359 0 8 -3.53359 1
gene 3 7 4 -4.23185 0 9 -4.23185 1
gene 1 3 14 -1.2055 0 25 -1.2055 1
gene 3 14 4 0.941897 0 26 0.941897 1
gene 1 3 7 0.756735 0 64 0.756735 0
gene 1 3 52 2.79161 0 143 2.79161 1
gene 1 52 7 3.33262 0 144 3.33262 1
genomeend 94

/* Organism #95 Fitness: 4 Error: 2 */
genomestart 95
trait 1 0.1 0 0 0 0 0 0 0 
trait 2 0.58831 0.0341348 0.491216 0.632813 0.524914 0.236415 0 0 
trait 3 0.308915 0.282526 0 0.0321049 0.000705736 0.0517817 0 0.0495921 
node 1 2 1 3
node 2 2 1 1
node 3 1 1 1
node 4 1 0 2
node 7 3 0 0
node 14 1 0 0
node 52 1 0 0
gene 1 1 4 1.10117 0 1 1.10117 1
gene 1 2 4 0.823618 0 2 0.823618 0
gene 3 3 4 -3.03702 0 3 -3.03702 0
gene 3 2 7 -1.01849 0 8 -1.01849 1
gene 3 7 4 -4.96269 0 9 -4.96269 1
gene 1 3 14 1.07556 0 25 1.07556 1
gene 3 14 4 0.617103 0 26 0.617103 1
gene 1 3 7 0.536431 0 64 0.536431 0
gene 1 3 52 3.76658 0 143 3.76658 1
gene 1 52 7 2.81144 0 144 2.81144 1
genomeend 95

/* Organism #96 Fitness: 8.99937 Error: 1.00011 */
genomestart 96
trait 1 0.1 0 0 0 0 0 0 0 
trait 2 0.592885 0.0345563 0.496183 0.640625 0.531394 0.238715 0 0 
trait 3 0.308915 0.276515 0 0.0321049 0.000714449 0.0509193 0 0.0492452 
node 1 2 1 3
node 2 2 1 1
node 3 1 1 1
node 4 1 0 2
node 7 3 0 0
node 14 1 0 0
node 52 1 0 0
gene 1 1 4 4.05543 0 1 4.05543 1
gene 1 2 4 -1.43124 0 2 -1.43124 0
gene 3 3 4 0.246115 0 3 0.246115 1
gene 3 2 7 -2.57455 0 8 -2.57455 1
gene 3 7 4 -6.66845 0 9 -6.66845 1
gene 1 3 14 3.81058 0 25 3.81058 0
gene 3 14 4 -0.149827 0 26 -0.149827 1
gene 1 3 7 -1.62058 0 64 -1.62058 0
gene 1 3 52 0.239225 0 143 0.239225 1
gene 1 52 7 4.02387 0 144 4.02387 1
genomeend 96

/* Organism #97 Fitness: 4 Error: 2 */
genomestart 97
trait 1 0.1 0 0 0 0 0 0 0 
trait 2 0.583736 0.0337134 0.486249 0.625 0.518433 0.234115 0 0 
trait 3 0.308915 0.288537 0 0.0321049 0.000697023 0.0526441 0 0.049939 
node 1 2 1 3
node 2 2 1 1
node 3 1 1 1
node 4 1 0 2
node 7 3 0 0
node 14 1 0 0
node 52 1 0 0
gene 1 1 4 0.58998 0 1 0.58998 1
gene 1 2 4 -2.67075 0 2 -2.67075 0
gene 3 3 4 -2.92544 0 3 -2.92544 0
gene 3 2 7 -0.29413 0 8 -0.29413 1
gene 3 7 4 -5.04402 0 9 -5.04402 1
gene 1 3 14 1.50882 0 25 1.50882 1
gene 3 14 4 -1.77478 0 26 -1.77478 1
gene 1 3 7 1.75416 0 64 1.75416 0
gene 1 3 52 0.204635 0 143 0.204635 1
gene 2 52 7 2.81144 0 144 2.81144 1
genomeend 97

/* Organism #98 Fitness: 4.00128 Error: 1.99968 */
genomestart 98
trait 1 0.1 0 0 0 0 0 0 0 
trait 2 0.980778 0.0341348 0.491216 0 0.419655 0.236415 0 0 
trait 3 0.308915 0.282526 0 0.0321049 0.000705736 0.0517817 0 0.0495921 
node 1 2 1 3
node 2 2 1 1
node 3 1 1 1
node 4 1 0 2
node 7 3 0 0
node 14 1 0 0
node 52 1 0 0
gene 1 1 4 0.0158506 0 1 0.0158506 1
gene 1 2 4 -2.08327 0 2 -2.08327 0
gene 3 3 4 -2.05234 0 3 -2.05234 1
gene 3 2 7 -0.306413 0 8 -0.306413 1
gene 3 7 4 -4.35675 0 9 -4.35675 1
gene 1 3 14 -1.02 0 25 -1.02 0
gene 3 14 4 -3.61414 0 26 -3.61414 1
gene 1 3 7 -0.731079 0 64 -0.731079 0
gene 1 3 52 2.95814 0 143 2.95814 1
gene 1 52 7 0.412 0 144 0.412 1
genomeend 98

/* Species #15 : (Size 6) (AF 4.91987) (Age 9)  */


/* Organism #99 Fitness: 8.99416 Error: 1.00097 */
genomestart 99
trait 1 0.1 0 0 0 0 0 0 0 
trait 2 0 0 0.632038 0 0 0.356182 0 0 
trait 3 0.3 0 0 0.228301 0 0.0799966 0 0.144078 
node 1 2 1 3
node 2 2 1 1
node 3 2 1 1
node 4 3 0 2
node 7 1 0 0
node 56 1 0 0
gene 3 1 4 6.36605 0 1 6.36605 1
gene 1 2 4 -7.35693 0 2 -7.35693 0
gene 3 3 4 -5.54624 0 3 -5.54624 1
gene 1 2 7 4.63313 0 8 4.63313 1
gene 1 7 4 4.18384 0 9 4.18384 1
gene 1 3 7 1.49009 0 64 1.49009 1
gene 2 1 7 -0.525269 0 157 -0.525269 1
gene 1 2 56 1.69712 0 162 1.69712 1
gene 1 56 4 -6.45774 0 163 -6.45774 1
genomeend 99

/* Organism #100 Fitness: 4 Error: 2 */
genomestart 100
trait 1 0.545631 0 0.288858 0 0.352779 0 0.298013 0.350291 
trait 2 0 0 0.632038 0 0 0.356182 0 0 
trait 3 0.3 0 0 0.228301 0 0.0799966 0 0.144078 
node 1 2 1 3
node 2 2 1 1
node 3 2 1 1
node 4 3 0 2
node 7 1 0 0
node 56 1 0 0
gene 3 1 4 6.35743 0 1 6.35743 1
gene 1 2 4 -8 0 2 -8 0
gene 3 3 4 -2.13332 0 3 -2.13332 1
gene 1 2 7 6.09085 0 8 6.09085 1
gene 1 7 4 4.18384 0 9 4.18384 1
gene 2 3 7 1.54067 0 64 1.54067 0
gene 2 1 7 -1.0509 0 157 -1.0509 1
gene 1 2 56 3.48787 0 162 3.48787 1
gene 1 56 4 -1.45985 0 163 -1.45985 1
genomeend 100

/* Organism #101 Fitness: 4 Error: 2 */
genomestart 101
trait 1 0.1 0 0 0 0 0 0 0 
trait 2 0 0 0.632038 0 0 0.356182 0 0 
trait 3 0.3 0 0 0.228301 0 0.0799966 0 0.144078 
node 1 2 1 3
node 2 2 1 1
node 3 1 1 1
node 4 3 0 2
node 7 1 0 0
node 56 1 0 0
gene 3 1 4 7.80934 0 1 7.80934 1
gene 1 2 4 -5.17318 0 2 -5.17318 0
gene 3 3 4 -3.26254 0 3 -3.26254 1
gene 1 2 7 6.04934 0 8 6.04934 1
gene 1 7 4 5.80522 0 9 5.80522 1
gene 1 3 7 1.2171 0 64 1.2171 1
gene 2 1 7 1.22199 0 157 1.22199 1
gene 1 2 56 -0.744285 0 162 -0.744285 1
gene 1 56 4 -6.33895 0 163 -6.33895 1
genomeend 101

/* Organism #102 Fitness: 4.00049 Error: 1.99988 */
genomestart 102
trait 1 0.991263 0 0.577715 0 0.705557 0 0.596026 0.700583 
trait 2 0 0 0.632038 0 0 0.356182 0 0 
trait 3 0.3 0 0 0.228301 0 0.0799966 0 0.144078 
node 1 2 1 3
node 2 2 1 1
node 3 2 1 1
node 4 3 0 2
node 7 1 0 0
node 56 1 0 0
node 76 1 0 0
gene 3 1 4 8 0 1 8 1
gene 1 2 4 -4.10229 0 2 -4.10229 0
gene 3 3 4 -7.88754 0 3 -7.88754 1
gene 1 2 7 5.47399 0 8 5.47399 1
gene 1 7 4 6.459 0 9 6.459 1
gene 2 3 7 3.48318 0 64 3.48318 0
gene 2 1 7 5.67602 0 157 5.67602 1
gene 1 2 56 2.90806 0 162 2.90806 1
gene 1 56 4 -4.74077 0 163 -4.74077 1
gene 1 3 76 2.45979 0 227 2.45979 1
gene 1 76 7 0.948286 0 228 0.948286 1
genomeend 102

/* Organism #103 Fitness: 4.5246 Error: 1.87289 */
genomestart 103
trait 1 0.991263 0 0.577715 0 0.705557 0 0.596026 0.700583 
trait 2 0 0 0.632038 0 0 0.356182 0 0 
trait 3 0.3 0 0 0.228301 0 0.0799966 0 0.144078 
node 1 2 1 3
node 2 2 1 1
node 3 2 1 1
node 4 3 0 2
node 7 1 0 0
node 56 2 0 0
node 76 1 0 0
gene 3 1 4 7.30532 0 1 7.30532 1
gene 1 2 4 -4.65673 0 2 -4.65673 0
gene 3 3 4 -8 0 3 -8 1
gene 1 2 7 0.10979 0 8 0.10979 1
gene 1 7 4 3.62703 0 9 3.62703 1
gene 2 3 7 1.89263 0 64 1.89263 0
gene 2 1 7 1.80334 0 157 1.80334 1
gene 1 2 56 1.63253 0 162 1.63253 1
gene 1 56 4 -6.64726 0 163 -6.64726 1
gene 1 3 76 0.402234 0 227 0.402234 1
gene 1 76 7 2.45376 0 228 2.45376 1
genomeend 103

/* Organism #104 Fitness: 3.99999 Error: 2 */
genomestart 104
trait 1 0.545631 0 0.288858 0 0.352779 0 0.298013 0.350291 
trait 2 0 0 0.632038 0 0 0.356182 0 0 
trait 3 0.3 0 0 0.228301 0 0.0799966 0 0.144078 
node 1 2 1 3
node 2 2 1 1
node 3 2 1 1
node 4 3 0 2
node 7 1 0 0
node 56 1 0 0
gene 3 1 4 7.32196 0 1 7.32196 1
gene 1 2 4 -8 0 2 -8 1
gene 3 3 4 -4.52086 0 3 -4.52086 1
gene 1 2 7 4.70512 0 8 4.70512 1
gene 1 7 4 3.26661 0 9 3.26661 1
gene 2 3 7 2.9454 0 64 2.9454 0
gene 2 1 7 2.50098 0 157 2.50098 1
gene 1 2 56 3.38065 0 162 3.38065 1
gene 1 56 4 -7.02089 0 163 -7.02089 1
genomeend 104

/* Species #16 : (Size 7) (AF 6.47379) (Age 9)  */


/* Organism #105 Fitness: 8.99997 Error: 1.00001 */
genomestart 105
trait 1 0.1 0 0 0 0 0 0 0 
trait 2 0.297364 0.179632 0 0.0903195 0 0.0445227 0.452025 0.148305 
trait 3 0.314264 0 0 0.0285377 0.00178438 0.00999958 0 0.038852 
node 1 3 1 3
node 2 2 1 1
node 3 2 1 1
node 4 1 0 2
node 7 1 0 0
node 14 1 0 0
node 24 1 0 0
node 57 1 0 0
gene 3 1 4 1.49045 0 1 1.49045 1
gene 3 2 4 -1.58979 0 2 -1.58979 0
gene 3 3 4 6.03107 0 3 6.03107 0
gene 1 2 7 0.705097 0 8 0.705097 0
gene 1 7 4 0.374944 0 9 0.374944 0
gene 3 3 14 3.03669 0 25 3.03669 1
gene 3 14 4 -8 0 26 -8 1
gene 3 2 14 -1.94747 0 57 -1.94747 1
gene 1 7 24 -3.44236 0 58 -3.44236 1
gene 1 24 4 2.93741 0 59 2.93741 1
gene 1 14 24 -1.85327 0 119 -1.85327 1
gene 2 3 7 -1.92792 0 159 -1.92792 1
gene 1 2 57 1 0 165 1 1
gene 1 57 7 -2.96277 0 166 -2.96277 1
genomeend 105

/* Organism #106 Fitness: 4.01916 Error: 1.99522 */
genomestart 106
trait 1 0.1 0 0 0 0.0627308 0 0.390042 0 
trait 2 0.297364 0.179632 0 0.0903195 0 0.0445227 0.452025 0.148305 
trait 3 0.314264 0 0 0.0285377 0.00178438 0.00999958 0 0.038852 
node 1 3 1 3
node 2 2 1 1
node 3 2 1 1
node 4 1 0 2
node 7 1 0 0
node 14 1 0 0
node 24 1 0 0
node 57 1 0 0
gene 3 1 4 2.08258 0 1 2.08258 1
gene 3 2 4 -3.81878 0 2 -3.81878 0
gene 3 3 4 -0.341655 0 3 -0.341655 0
gene 1 2 7 0.912732 0 8 0.912732 0
gene 1 7 4 1.30772 0 9 1.30772 0
gene 3 3 14 1.57157 0 25 1.57157 1
gene 3 14 4 -8 0 26 -8 1
gene 3 2 14 -1.96662 0 57 -1.96662 1
gene 1 7 24 -5.51076 0 58 -5.51076 1
gene 1 24 4 -0.602054 0 59 -0.602054 1
gene 1 14 24 0.341166 0 119 0.341166 1
gene 2 3 7 0.462584 0 159 0.462584 1
gene 1 2 57 -1.17551 0 165 -1.17551 1
gene 1 57 7 -4.96158 0 166 -4.96158 1
genomeend 106

/* Organism #107 Fitness: 8.99922 Error: 1.00013 */
genomestart 107
trait 1 0.1 0 0 0 0.125462 0 0.780084 0 
trait 2 0.297364 0.179632 0 0.0903195 0 0.0445227 0.452025 0.148305 
trait 3 0.314264 0 0 0.0285377 0.00178438 0.00999958 0 0.038852 
node 1 3 1 3
node 2 2 1 1
node 3 2 1 1
node 4 1 0 2
node 7 1 0 0
node 14 1 0 0
node 24 3 0 0
node 57 1 0 0
gene 3 1 4 2.14484 0 1 2.14484 1
gene 3 2 4 1.56041 0 2 1.56041 0
gene 3 3 4 5.79348 0 3 5.79348 0
gene 1 2 7 0.290579 0 8 0.290579 0
gene 1 7 4 2.93941 0 9 2.93941 0
gene 3 3 14 -4.25924 0 25 -4.25924 1
gene 3 14 4 -8 0 26 -8 1
gene 3 2 14 -2.856 0 57 -2.856 1
gene 1 7 24 -1.91156 0 58 -1.91156 1
gene 1 24 4 2.32978 0 59 2.32978 1
gene 1 14 24 -1.79994 0 119 -1.79994 1
gene 2 3 7 3.24709 0 159 3.24709 1
gene 1 2 57 1.96576 0 165 1.96576 1
gene 1 57 7 -3.3415 0 166 -3.3415 1
genomeend 107

/* Organism #108 Fitness: 5.31147 Error: 1.69534 */
genomestart 108
trait 1 0.1 0 0 0 0.125462 0 0.780084 0 
trait 2 0.297364 0.113865 0 0.0903195 0 0.0445227 1 0.583529 
trait 3 0.314264 0 0 0.0285377 0.00178438 0.00999958 0 0.038852 
node 1 3 1 3
node 2 2 1 1
node 3 2 1 1
node 4 1 0 2
node 7 1 0 0
node 14 1 0 0
node 24 1 0 0
node 57 1 0 0
gene 3 1 4 0.206763 0 1 0.206763 1
gene 3 2 4 -1.81745 0 2 -1.81745 0
gene 3 3 4 6.20998 0 3 6.20998 0
gene 1 2 7 -0.583547 0 8 -0.583547 0
gene 1 7 4 -0.246718 0 9 -0.246718 0
gene 3 3 14 -0.591601 0 25 -0.591601 1
gene 3 14 4 -7.26855 0 26 -7.26855 1
gene 3 2 14 1.26155 0 57 1.26155 1
gene 1 7 24 -2.1866 0 58 -2.1866 1
gene 1 24 4 0.973617 0 59 0.973617 1
gene 1 14 24 0.497574 0 119 0.497574 1
gene 2 3 7 2.98303 0 159 2.98303 1
gene 1 2 57 1.66057 0 165 1.66057 1
gene 1 57 7 -0.458846 0 166 -0.458846 1
genomeend 108

/* Organism #109 Fitness: 7.86259 Error: 1.19597 */
genomestart 109
trait 1 0.1 0 0 0 0.0627308 0 0.390042 0 
trait 2 0.297364 0.179632 0 0.0903195 0 0.0445227 0.452025 0.148305 
trait 3 0.314264 0 0 0.0285377 0.00178438 0.00999958 0 0.038852 
node 1 3 1 3
node 2 2 1 1
node 3 2 1 1
node 4 2 0 2
node 7 1 0 0
node 14 1 0 0
node 24 1 0 0
node 57 1 0 0
gene 3 1 4 2.28 0 1 2.28 1
gene 3 2 4 -0.458503 0 2 -0.458503 0
gene 1 3 4 5.99677 0 3 5.99677 1
gene 1 2 7 0.379312 0 8 0.379312 0
gene 1 7 4 -1.49365 0 9 -1.49365 0
gene 3 3 14 1.53508 0 25 1.53508 1
gene 3 14 4 -8 0 26 -8 1
gene 3 2 14 -3.3258 0 57 -3.3258 1
gene 1 7 24 -1.83393 0 58 -1.83393 1
gene 1 24 4 3.5736 0 59 3.5736 1
gene 1 14 24 -1.2886 0 119 -1.2886 1
gene 2 3 7 -1.15444 0 159 -1.15444 1
gene 1 2 57 -0.504601 0 165 -0.504601 1
gene 1 57 7 -2.32688 0 166 -2.32688 1
genomeend 109

/* Organism #110 Fitness: 1.44913 Error: 2.7962 */
genomestart 110
trait 1 0.1 0 0 0 0.0627308 0 0.390042 0 
trait 2 0.297364 0.179632 0 0.0903195 0 0.0445227 0.452025 0.148305 
trait 3 0.314264 0 0 0.0285377 0.00178438 0.00999958 0 0.038852 
node 1 3 1 3
node 2 2 1 1
node 3 2 1 1
node 4 1 0 2
node 7 1 0 0
node 14 1 0 0
node 24 1 0 0
node 57 1 0 0
gene 3 1 4 4.25497 0 1 4.25497 1
gene 3 2 4 -1.56861 0 2 -1.56861 0
gene 3 3 4 3.54064 0 3 3.54064 0
gene 1 2 7 -1.32919 0 8 -1.32919 0
gene 1 7 4 0.913443 0 9 0.913443 1
gene 3 3 14 2.31888 0 25 2.31888 1
gene 3 14 4 -8 0 26 -8 1
gene 3 2 14 0.827772 0 57 0.827772 1
gene 1 7 24 -0.941564 0 58 -0.941564 1
gene 1 24 4 3.446 0 59 3.446 1
gene 1 14 24 -2.21827 0 119 -2.21827 1
gene 2 3 7 0.984954 0 159 0.984954 1
gene 1 2 57 2.2397 0 165 2.2397 1
gene 1 57 7 -1.93311 0 166 -1.93311 1
genomeend 110

/* Organism #111 Fitness: 8.67501 Error: 1.05466 */
genomestart 111
trait 1 0.1 0 0 0 0 0 0 0 
trait 2 0.297364 0.179632 0 0.0903195 0 0.0445227 0.452025 0.148305 
trait 3 0.314264 0 0 0.0285377 0.00178438 0.00999958 0 0.038852 
node 1 3 1 3
node 2 2 1 1
node 3 2 1 1
node 4 2 0 2
node 7 1 0 0
node 14 1 0 0
node 24 1 0 0
node 57 1 0 0
gene 3 1 4 2.9194 0 1 2.9194 1
gene 3 2 4 -3.14402 0 2 -3.14402 0
gene 1 3 4 3.5535 0 3 3.5535 0
gene 1 2 7 3.11354 0 8 3.11354 0
gene 1 7 4 1.94749 0 9 1.94749 0
gene 3 3 14 2.15562 0 25 2.15562 1
gene 3 14 4 -6.99434 0 26 -6.99434 1
gene 3 2 14 -1.90833 0 57 -1.90833 1
gene 1 7 24 -3.67385 0 58 -3.67385 1
gene 1 24 4 -0.166402 0 59 -0.166402 1
gene 1 14 24 -2.00235 0 119 -2.00235 1
gene 2 3 7 0.556063 0 159 0.556063 1
gene 1 2 57 0.0650044 0 165 0.0650044 1
gene 1 57 7 -2.15662 0 166 -2.15662 1
genomeend 111

/* Species #17 : (Size 8) (AF 4.91514) (Age 8)  */


/* Organism #112 Fitness: 8.99257 Error: 1.00124 */
genomestart 112
trait 1 0.1 0 0 0 0 0 0 0 
trait 2 0.297364 0.179632 0 0.0903195 0 0.0445227 0.452025 0.148305 
trait 3 0.314264 0 0 0.0285377 0.00178438 0.00999958 0 0.038852 
node 1 3 1 3
node 2 2 1 1
node 3 2 1 1
node 4 1 0 2
node 7 1 0 0
node 14 1 0 0
node 24 1 0 0
node 61 1 0 0
gene 3 1 4 -1.25593 0 1 -1.25593 1
gene 3 2 4 -4.67813 0 2 -4.67813 0
gene 3 3 4 3.19985 0 3 3.19985 0
gene 1 2 7 -4.43489 0 8 -4.43489 1
gene 1 7 4 2.1063 0 9 2.1063 0
gene 3 3 14 5.30326 0 25 5.30326 1
gene 3 14 4 -6.58013 0 26 -6.58013 1
gene 3 2 14 1.71512 0 57 1.71512 0
gene 1 7 24 -1.36922 0 58 -1.36922 1
gene 1 24 4 6.02364 0 59 6.02364 1
gene 1 14 24 -3.68796 0 119 -3.68796 1
gene 2 3 7 -1.52149 0 159 -1.52149 1
gene 3 2 61 5.52818 0 178 5.52818 1
gene 3 61 14 -0.910138 0 179 -0.910138 1
gene 1 14 7 0.152562 0 254 0.152562 1
genomeend 112

/* Organism #113 Fitness: 4 Error: 2 */
genomestart 113
trait 1 0.1 0 0 0 0 0 0 0 
trait 2 0.297364 0.179632 0 0.0903195 0 0.0445227 0.452025 0.148305 
trait 3 0.314264 0 0 0.0285377 0.00178438 0.00999958 0 0.038852 
node 1 3 1 3
node 2 2 1 1
node 3 2 1 1
node 4 1 0 2
node 7 1 0 0
node 14 1 0 0
node 24 1 0 0
node 61 1 0 0
gene 3 1 4 -2.76049 0 1 -2.76049 1
gene 3 2 4 -5.32574 0 2 -5.32574 0
gene 3 3 4 2.92709 0 3 2.92709 0
gene 1 2 7 -2.81016 0 8 -2.81016 1
gene 1 7 4 0.946524 0 9 0.946524 0
gene 3 3 14 4.94642 0 25 4.94642 1
gene 3 14 4 -8 0 26 -8 1
gene 3 2 14 3.32665 0 57 3.32665 0
gene 1 7 24 -2.18047 0 58 -2.18047 1
gene 1 24 4 7.9576 0 59 7.9576 1
gene 1 14 24 -4.04198 0 119 -4.04198 1
gene 2 3 7 -2.54523 0 159 -2.54523 1
gene 3 2 61 6.85429 0 178 6.85429 1
gene 3 61 14 0.610218 0 179 0.610218 1
gene 1 14 7 1.33724 0 254 1.33724 1
genomeend 113

/* Organism #114 Fitness: 8.99257 Error: 1.00124 */
genomestart 114
trait 1 0.1 0 0 0 0 0 0 0 
trait 2 0.297364 0.179632 0 0.0903195 0 0.0445227 0.452025 0.148305 
trait 3 0.314264 0 0 0.0285377 0.00178438 0.00999958 0 0.038852 
node 1 3 1 3
node 2 2 1 1
node 3 2 1 1
node 4 1 0 2
node 7 1 0 0
node 14 1 0 0
node 24 1 0 0
node 61 1 0 0
gene 3 1 4 -1.25593 0 1 -1.25593 1
gene 3 2 4 -4.67813 0 2 -4.67813 0
gene 3 3 4 3.19985 0 3 3.19985 0
gene 1 2 7 -4.43489 0 8 -4.43489 1
gene 1 7 4 2.1063 0 9 2.1063 0
gene 3 3 14 5.30326 0 25 5.30326 1
gene 3 14 4 -6.58013 0 26 -6.58013 1
gene 3 2 14 1.71512 0 57 1.71512 0
gene 1 7 24 -1.36922 0 58 -1.36922 1
gene 1 24 4 6.02364 0 59 6.02364 1
gene 1 14 24 -3.68796 0 119 -3.68796 1
gene 2 3 7 -1.52149 0 159 -1.52149 1
gene 3 2 61 5.52818 0 178 5.52818 1
gene 3 61 14 -0.910138 0 179 -0.910138 1
gene 1 14 7 0.152562 0 254 0.152562 1
genomeend 114

/* Organism #115 Fitness: 4 Error: 2 */
genomestart 115
trait 1 0.1 0 0 0 0 0 0 0 
trait 2 0.297364 0.179632 0 0.0903195 0 0.0445227 0.452025 0.148305 
trait 3 0.314264 0 0 0.0285377 0.00178438 0.00999958 0 0.038852 
node 1 3 1 3
node 2 2 1 1
node 3 2 1 1
node 4 1 0 2
node 7 1 0 0
node 14 1 0 0
node 24 1 0 0
node 61 1 0 0
gene 3 1 4 -3.6128 0 1 -3.6128 1
gene 3 2 4 -4.50258 0 2 -4.50258 0
gene 3 3 4 1.88656 0 3 1.88656 0
gene 1 2 7 -3.82582 0 8 -3.82582 1
gene 1 7 4 4.51383 0 9 4.51383 0
gene 3 3 14 3.24898 0 25 3.24898 1
gene 3 14 4 -5.03986 0 26 -5.03986 1
gene 3 2 14 1.71512 0 57 1.71512 0
gene 1 7 24 -2.6281 0 58 -2.6281 1
gene 1 24 4 4.18841 0 59 4.18841 1
gene 1 14 24 -1.8155 0 119 -1.8155 1
gene 2 3 7 -3.68548 0 159 -3.68548 1
gene 3 2 61 5.19332 0 178 5.19332 1
gene 3 61 14 0.915098 0 179 0.915098 1
genomeend 115

/* Organism #116 Fitness: 1.33596 Error: 2.84416 */
genomestart 116
trait 1 0.1 0 0 0 0 0 0 0 
trait 2 0.297364 0.179632 0 0.0903195 0 0.0445227 0.452025 0.148305 
trait 3 0.314264 0 0 0.0285377 0.00178438 0.00999958 0 0.038852 
node 1 3 1 3
node 2 2 1 1
node 3 2 1 1
node 4 1 0 2
node 7 1 0 0
node 14 1 0 0
node 24 1 0 0
node 61 1 0 0
gene 3 1 4 -2.89966 0 1 -2.89966 1
gene 3 2 4 -5.07915 0 2 -5.07915 0
gene 3 3 4 3.97876 0 3 3.97876 0
gene 1 2 7 -2.55098 0 8 -2.55098 1
gene 1 7 4 3.46423 0 9 3.46423 1
gene 3 3 14 5.12724 0 25 5.12724 1
gene 3 14 4 -6.58798 0 26 -6.58798 1
gene 3 2 14 0.995035 0 57 0.995035 0
gene 1 7 24 0.479748 0 58 0.479748 1
gene 1 24 4 5.40305 0 59 5.40305 1
gene 1 14 24 -3.34059 0 119 -3.34059 1
gene 2 3 7 0.256829 0 159 0.256829 1
gene 3 2 61 4.29653 0 178 4.29653 1
gene 3 61 14 -0.910138 0 179 -0.910138 1
gene 1 14 7 0.152562 0 254 0.152562 1
genomeend 116

/* Organism #117 Fitness: 4 Error: 2 */
genomestart 117
trait 1 0.1 0 0 0 0 0 0 0 
trait 2 0.297364 0.179632 0 0.0903195 0 0.0445227 0.452025 0.148305 
trait 3 0.414547 0 0 0.0285377 0.00178438 0 0.555071 0.038852 
node 1 3 1 3
node 2 2 1 1
node 3 2 1 1
node 4 1 0 2
node 7 1 0 0
node 14 1 0 0
node 24 1 0 0
node 61 1 0 0
gene 3 1 4 -1.707 0 1 -1.707 1
gene 3 2 4 -5.60391 0 2 -5.60391 0
gene 3 3 4 1.7532 0 3 1.7532 0
gene 1 2 7 -6.87866 0 8 -6.87866 1
gene 1 7 4 1.51432 0 9 1.51432 0
gene 3 3 14 3.03367 0 25 3.03367 1
gene 3 14 4 -4.22906 0 26 -4.22906 1
gene 3 2 14 2.00764 0 57 2.00764 0
gene 1 7 24 0.339744 0 58 0.339744 1
gene 1 24 4 8 0 59 8 1
gene 1 14 24 -3.17739 0 119 -3.17739 1
gene 2 3 7 -0.188665 0 159 -0.188665 1
gene 3 2 61 5.52818 0 178 5.52818 1
gene 3 61 14 1.11461 0 179 1.11461 1
genomeend 117

/* Organism #118 Fitness: 4 Error: 2 */
genomestart 118
trait 1 0.1 0 0 0 0 0 0 0 
trait 2 0.297364 0.179632 0 0.0903195 0 0.0445227 0.452025 0.148305 
trait 3 0.314264 0 0 0.0285377 0.00178438 0.00999958 0 0.038852 
node 1 3 1 3
node 2 2 1 1
node 3 2 1 1
node 4 1 0 2
node 7 1 0 0
node 14 1 0 0
node 24 1 0 0
node 61 1 0 0
gene 3 1 4 -3.01937 0 1 -3.01937 1
gene 3 2 4 -5.92695 0 2 -5.92695 0
gene 3 3 4 5.65483 0 3 5.65483 0
gene 1 2 7 -4.36012 0 8 -4.36012 1
gene 1 7 4 2.63817 0 9 2.63817 0
gene 3 3 14 5.30326 0 25 5.30326 1
gene 3 14 4 -8 0 26 -8 1
gene 3 2 14 -0.59498 0 57 -0.59498 0
gene 1 7 24 -0.608542 0 58 -0.608542 1
gene 1 24 4 -0.144124 0 59 -0.144124 1
gene 1 14 24 -3.68796 0 119 -3.68796 1
gene 2 3 7 -0.0621052 0 159 -0.0621052 1
gene 3 2 61 5.87358 0 178 5.87358 1
gene 3 61 14 -2.31574 0 179 -2.31574 1
genomeend 118

/* Organism #119 Fitness: 4 Error: 2 */
genomestart 119
trait 1 0.1 0 0 0 0 0 0 0 
trait 2 0.297364 0.179632 0 0.0903195 0 0.0445227 0.452025 0.148305 
trait 3 0.314264 0 0 0.0285377 0.00178438 0.00999958 0 0.038852 
node 1 3 1 3
node 2 2 1 1
node 3 2 1 1
node 4 1 0 2
node 7 1 0 0
node 14 1 0 0
node 24 1 0 0
node 61 1 0 0
gene 3 1 4 2.08762 0 1 2.08762 1
gene 3 2 4 -4.48816 0 2 -4.48816 0
gene 3 3 4 0.90968 0 3 0.90968 0
gene 1 2 7 -6.8119 0 8 -6.8119 1
gene 1 7 4 2.36656 0 9 2.36656 0
gene 3 3 14 5.30326 0 25 5.30326 1
gene 3 14 4 -8 0 26 -8 1
gene 3 2 14 -0.400653 0 57 -0.400653 0
gene 1 7 24 0.770135 0 58 0.770135 1
gene 1 24 4 6.02364 0 59 6.02364 1
gene 1 14 24 -4.99103 0 119 -4.99103 1
gene 2 3 7 -0.112461 0 159 -0.112461 1
gene 3 2 61 6.9315 0 178 6.9315 1
gene 3 61 14 -1.55324 0 179 -1.55324 1
genomeend 119

/* Species #18 : (Size 7) (AF 8.80692) (Age 8)  */


/* Organism #120 Fitness: 8.99748 Error: 1.00042 */
genomestart 120
trait 1 0 0 0 0 0 0 0 0.429304 
trait 2 0.224341 0 0 0.0225799 0 0.0111307 0 0 
trait 3 0.487525 0 0.342858 0.00256393 0.254543 0.34687 0.0784578 0.00622239 
node 1 3 1 3
node 2 2 1 1
node 3 2 1 1
node 4 1 0 2
node 7 1 0 0
node 14 1 0 0
node 70 1 0 0
gene 1 1 4 2.15407 0 1 2.15407 1
gene 1 2 4 1.5376 0 2 1.5376 0
gene 3 3 4 -6.76293 0 3 -6.76293 1
gene 1 2 7 -8 0 8 -8 1
gene 1 7 4 -4.00723 0 9 -4.00723 1
gene 3 3 14 -0.375988 0 25 -0.375988 1
gene 3 14 4 -0.339709 0 26 -0.339709 0
gene 3 1 14 2.37457 0 41 2.37457 1
gene 1 2 14 -2.43391 0 65 -2.43391 1
gene 2 1 7 4.62152 0 122 4.62152 1
gene 3 14 7 -1.18931 0 156 -1.18931 1
gene 3 14 70 -0.490661 0 210 -0.490661 1
gene 3 70 4 -2.10116 0 211 -2.10116 1
genomeend 120

/* Organism #121 Fitness: 8.92646 Error: 1.01228 */
genomestart 121
trait 1 0 0 0 0 0 0 0 0.429304 
trait 2 0.224341 0 0 0.0225799 0 0.0111307 0 0 
trait 3 0.487525 0 0.342858 0.00256393 0.254543 0.34687 0.0784578 0.00622239 
node 1 3 1 3
node 2 2 1 1
node 3 2 1 1
node 4 1 0 2
node 7 1 0 0
node 14 1 0 0
node 70 1 0 0
gene 3 1 4 1.105 0 1 1.105 1
gene 1 2 4 1.81425 0 2 1.81425 0
gene 3 3 4 -6.4946 0 3 -6.4946 1
gene 1 2 7 -5.88652 0 8 -5.88652 1
gene 1 7 4 -2.20717 0 9 -2.20717 1
gene 3 3 14 -0.696051 0 25 -0.696051 1
gene 3 14 4 0.608272 0 26 0.608272 0
gene 3 1 14 2.35527 0 41 2.35527 1
gene 1 2 14 -1.14473 0 65 -1.14473 1
gene 2 1 7 4.42384 0 122 4.42384 1
gene 3 14 7 -0.56856 0 156 -0.56856 1
gene 3 14 70 -0.490661 0 210 -0.490661 1
gene 3 70 4 -2.19962 0 211 -2.19962 1
genomeend 121

/* Organism #122 Fitness: 7.76032 Error: 1.21426 */
genomestart 122
trait 1 0 0 0 0 0 0 0 0.429304 
trait 2 0.224341 0 0 0.0225799 0 0.0646296 0 0 
trait 3 0.487525 0 0.342858 0.00256393 0.254543 0.34687 0.0784578 0.00622239 
node 1 3 1 3
node 2 2 1 1
node 3 2 1 1
node 4 1 0 2
node 7 1 0 0
node 14 1 0 0
node 70 1 0 0
gene 1 1 4 1.87445 0 1 1.87445 1
gene 1 2 4 1.5376 0 2 1.5376 0
gene 3 3 4 -8 0 3 -8 1
gene 1 2 7 -8 0 8 -8 1
gene 1 7 4 -1.9068 0 9 -1.9068 1
gene 3 3 14 0.257424 0 25 0.257424 1
gene 3 14 4 1.24298 0 26 1.24298 0
gene 3 1 14 4.21621 0 41 4.21621 1
gene 1 2 14 -2.43391 0 65 -2.43391 1
gene 2 1 7 4.62152 0 122 4.62152 1
gene 3 14 7 -2.57683 0 156 -2.57683 1
gene 3 14 70 -0.436415 0 210 -0.436415 1
gene 3 70 4 -2.22156 0 211 -2.22156 1
genomeend 122

/* Organism #123 Fitness: 8.99627 Error: 1.00062 */
genomestart 123
trait 1 0.05 0 0 0 0 0 0 0.214652 
trait 2 0.224341 0 0 0.0225799 0 0.0111307 0 0 
trait 3 0.487525 0 0.342858 0.00256393 0.254543 0.34687 0.0784578 0.00622239 
node 1 3 1 3
node 2 2 1 1
node 3 2 1 1
node 4 1 0 2
node 7 1 0 0
node 14 1 0 0
node 70 1 0 0
gene 1 1 4 0.653706 0 1 0.653706 1
gene 1 2 4 3.79284 0 2 3.79284 0
gene 3 3 4 -4.91649 0 3 -4.91649 1
gene 1 2 7 -3.2753 0 8 -3.2753 1
gene 1 7 4 -3.97206 0 9 -3.97206 1
gene 3 3 14 -0.90907 0 25 -0.90907 1
gene 3 14 4 1.39676 0 26 1.39676 0
gene 3 1 14 -6.36387 0 41 -6.36387 1
gene 1 2 14 -0.367214 0 65 -0.367214 1
gene 2 1 7 1.05921 0 122 1.05921 1
gene 3 14 7 4.27847 0 156 4.27847 1
gene 3 14 70 0.690771 0 210 0.690771 1
gene 3 70 4 1.69153 0 211 1.69153 1
gene 1 7 70 -1.89395 0 243 -1.89395 1
genomeend 123

/* Organism #124 Fitness: 8.97651 Error: 1.00392 */
genomestart 124
trait 1 0 0 0 0 0 0 0 0.429304 
trait 2 0.224341 0 0 0.0225799 0 0.0111307 0 0 
trait 3 0.487525 0 0.342858 0.00256393 0.254543 0.34687 0.0784578 0.00622239 
node 1 3 1 3
node 2 2 1 1
node 3 2 1 1
node 4 1 0 2
node 7 1 0 0
node 14 1 0 0
node 70 1 0 0
gene 1 1 4 4.28968 0 1 4.28968 1
gene 1 2 4 -0.129933 0 2 -0.129933 0
gene 3 3 4 -4.56568 0 3 -4.56568 1
gene 1 2 7 -8 0 8 -8 1
gene 1 7 4 -3.31408 0 9 -3.31408 1
gene 3 3 14 2.12271 0 25 2.12271 1
gene 3 14 4 1.94086 0 26 1.94086 0
gene 3 1 14 3.70045 0 41 3.70045 1
gene 1 2 14 -4.49765 0 65 -4.49765 1
gene 2 1 7 5.04878 0 122 5.04878 1
gene 3 14 7 -2.14476 0 156 -2.14476 1
gene 3 14 70 1.7291 0 210 1.7291 1
gene 3 70 4 -2.10116 0 211 -2.10116 1
genomeend 124

/* Organism #125 Fitness: 8.99947 Error: 1.00009 */
genomestart 125
trait 1 0.025 0 0 0 0 0 0 0.321978 
trait 2 0.224341 0 0 0.0225799 0 0.0111307 0 0 
trait 3 0.487525 0 0.342858 0.00256393 0.254543 0.34687 0.0784578 0.00622239 
node 1 3 1 3
node 2 2 1 1
node 3 2 1 1
node 4 1 0 2
node 7 1 0 0
node 14 1 0 0
node 70 1 0 0
gene 1 1 4 2.10711 0 1 2.10711 1
gene 1 2 4 2.66522 0 2 2.66522 1
gene 3 3 4 -6.26415 0 3 -6.26415 1
gene 1 2 7 -5.63765 0 8 -5.63765 1
gene 1 7 4 -3.47247 0 9 -3.47247 1
gene 3 3 14 -1.3464 0 25 -1.3464 1
gene 3 14 4 2.10294 0 26 2.10294 0
gene 3 1 14 -1.58635 0 41 -1.58635 1
gene 1 2 14 -1.40056 0 65 -1.40056 1
gene 2 1 7 3.76848 0 122 3.76848 1
gene 3 14 7 2.14713 0 156 2.14713 1
gene 3 14 70 0.965064 0 210 0.965064 1
gene 3 70 4 -1.23039 0 211 -1.23039 1
gene 1 70 7 0.842189 0 273 0.842189 1
genomeend 125

/* Organism #126 Fitness: 8.99192 Error: 1.00135 */
genomestart 126
trait 1 0.05 0 0 0 0 0 0 0.214652 
trait 2 0.224341 0 0 0.0225799 0 0.0111307 0 0 
trait 3 0.487525 0 0.342858 0.00256393 0.254543 0.34687 0.0784578 0.00622239 
node 1 3 1 3
node 2 2 1 1
node 3 2 1 1
node 4 1 0 2
node 7 1 0 0
node 14 1 0 0
node 70 1 0 0
gene 1 1 4 3.66901 0 1 3.66901 1
gene 1 2 4 1.72979 0 2 1.72979 0
gene 3 3 4 -6.55815 0 3 -6.55815 1
gene 1 2 7 -3.81403 0 8 -3.81403 1
gene 1 7 4 -5.1648 0 9 -5.1648 1
gene 3 3 14 -3.17461 0 25 -3.17461 1
gene 3 14 4 3.38267 0 26 3.38267 0
gene 3 1 14 -7.72286 0 41 -7.72286 1
gene 1 2 14 0.734428 0 65 0.734428 1
gene 2 1 7 3.54815 0 122 3.54815 1
gene 3 14 7 5.57673 0 156 5.57673 1
gene 3 14 70 0.36079 0 210 0.36079 1
gene 3 70 4 0.159574 0 211 0.159574 1
gene 1 7 70 0.652821 0 243 0.652821 1
genomeend 126

/* Species #19 : (Size 5) (AF 2.26684) (Age 7)  */


/* Organism #127 Fitness: 4 Error: 2 */
genomestart 127
trait 1 0.0312472 0.1442 0 0.0209967 0.115393 0.608898 0.542055 0.0550192 
trait 2 0.2 0 0 0 0 0 0 0 
trait 3 0.269771 0 0 0.017365 0 0.0715049 0 0 
node 1 3 1 3
node 2 2 1 1
node 3 3 1 1
node 4 1 0 2
node 7 1 0 0
node 24 1 0 0
node 58 1 0 0
gene 1 1 4 2.66484 0 1 2.66484 1
gene 1 2 4 -4.54653 0 2 -4.54653 0
gene 3 3 4 1.14673 0 3 1.14673 1
gene 1 2 7 4.78819 0 8 4.78819 1
gene 1 7 4 -0.028573 0 9 -0.028573 1
gene 1 1 7 -3.9214 0 44 -3.9214 1
gene 1 7 24 -7.68347 0 58 -7.68347 1
gene 1 24 4 -3.33728 0 59 -3.33728 1
gene 2 1 24 -4.14594 0 67 -4.14594 1
gene 3 3 24 0.89301 0 82 0.89301 1
gene 1 7 58 -0.420392 0 168 -0.420392 1
gene 1 58 24 -0.624027 0 169 -0.624027 1
genomeend 127

/* Organism #128 Fitness: 1.17875 Error: 2.9143 */
genomestart 128
trait 1 0.0284065 0.17304 0 0.0209967 0.104903 0.627033 0.542055 0.0522744 
trait 2 0.2 0 0 0 0 0 0 0 
trait 3 0.269771 0 0 0.017365 0 0.0715049 0 0 
node 1 3 1 3
node 2 2 1 1
node 3 3 1 1
node 4 1 0 2
node 7 1 0 0
node 24 1 0 0
node 58 1 0 0
gene 1 1 4 2.40287 0 1 2.40287 1
gene 1 2 4 -2.89939 0 2 -2.89939 1
gene 3 3 4 1.53813 0 3 1.53813 1
gene 1 2 7 0.343623 0 8 0.343623 1
gene 1 7 4 -2.4031 0 9 -2.4031 1
gene 1 1 7 -3.26174 0 44 -3.26174 1
gene 1 7 24 1.99057 0 58 1.99057 1
gene 1 24 4 -0.594882 0 59 -0.594882 1
gene 2 1 24 -4.00487 0 67 -4.00487 1
gene 3 3 24 -1.74757 0 82 -1.74757 1
gene 1 7 58 -2.34313 0 168 -2.34313 1
gene 1 58 24 -1.13369 0 169 -1.13369 1
genomeend 128

/* Organism #129 Fitness: 1.13099 Error: 2.93652 */
genomestart 129
trait 1 0.0298269 0.15862 0 0.0209967 0.110148 0.617965 0.542055 0.0536468 
trait 2 0.2 0 0 0 0 0 0 0 
trait 3 0.269771 0 0 0.017365 0 0.0715049 0 0 
node 1 3 1 3
node 2 2 1 1
node 3 3 1 1
node 4 1 0 2
node 7 1 0 0
node 24 1 0 0
node 58 1 0 0
gene 1 1 4 1.14948 0 1 1.14948 1
gene 1 2 4 -4.10276 0 2 -4.10276 0
gene 3 3 4 -2.24406 0 3 -2.24406 1
gene 1 2 7 6.20966 0 8 6.20966 1
gene 1 7 4 -1.72519 0 9 -1.72519 1
gene 1 1 7 -3.63033 0 44 -3.63033 1
gene 1 7 24 -5.98233 0 58 -5.98233 1
gene 1 24 4 0.568636 0 59 0.568636 1
gene 2 1 24 -2.44152 0 67 -2.44152 1
gene 3 3 24 0.0215918 0 82 0.0215918 1
gene 1 7 58 -2.50565 0 168 -2.50565 1
gene 1 58 24 2.00827 0 169 2.00827 1
genomeend 129

/* Organism #130 Fitness: 4.01803 Error: 1.9955 */
genomestart 130
trait 1 0.0284065 0.17304 0 0.0209967 0.104903 0.627033 0.542055 0.0522744 
trait 2 0.2 0 0 0 0 0 0 0 
trait 3 0.269771 0 0 0.017365 0 0.0715049 0 0 
node 1 3 1 3
node 2 2 1 1
node 3 3 1 1
node 4 1 0 2
node 7 1 0 0
node 24 1 0 0
node 58 1 0 0
gene 1 1 4 0.764145 0 1 0.764145 1
gene 1 2 4 -1.9302 0 2 -1.9302 0
gene 3 3 4 -0.514389 0 3 -0.514389 1
gene 1 2 7 3.02231 0 8 3.02231 1
gene 1 7 4 0.263604 0 9 0.263604 1
gene 1 1 7 -3.32896 0 44 -3.32896 1
gene 1 7 24 -5.66108 0 58 -5.66108 1
gene 1 24 4 1.20655 0 59 1.20655 1
gene 2 1 24 -2.27409 0 67 -2.27409 1
gene 3 3 24 8 0 82 8 1
gene 1 7 58 1.81333 0 168 1.81333 1
gene 1 58 24 -1.60756 0 169 -1.60756 1
genomeend 130

/* Organism #131 Fitness: 1.00646 Error: 2.99678 */
genomestart 131
trait 1 0.0312472 0.1442 0 0.0209967 0.115393 0.608898 0.542055 0.0550192 
trait 2 0.2 0 0 0 0 0 0 0 
trait 3 0.269771 0 0 0.017365 0 0.0715049 0 0 
node 1 3 1 3
node 2 2 1 1
node 3 3 1 1
node 4 1 0 2
node 7 1 0 0
node 24 1 0 0
node 58 1 0 0
gene 1 1 4 3.74138 0 1 3.74138 1
gene 1 2 4 -4.43483 0 2 -4.43483 1
gene 3 3 4 -3.58066 0 3 -3.58066 1
gene 1 2 7 5.37246 0 8 5.37246 1
gene 1 7 4 -0.489784 0 9 -0.489784 1
gene 1 1 7 -2.86713 0 44 -2.86713 1
gene 1 7 24 -7.61457 0 58 -7.61457 1
gene 1 24 4 -2.21801 0 59 -2.21801 1
gene 2 1 24 0.594424 0 67 0.594424 1
gene 3 3 24 1.58799 0 82 1.58799 1
gene 3 7 58 -0.420392 0 168 -0.420392 1
gene 1 58 24 -0.169073 0 169 -0.169073 1
genomeend 131

/* Species #20 : (Size 7) (AF 6.1302) (Age 2)  */


/* Organism #132 Fitness: 9 Error: 1 */
genomestart 132
trait 1 0.1 0 0 0 0 0 0 0 
trait 2 0 0 0.632038 0 0 0.356182 0 0 
trait 3 0.3 0 0 0.228301 0 0.0799966 0 0.144078 
node 1 2 1 3
node 2 2 1 1
node 3 2 1 1
node 4 3 0 2
node 7 1 0 0
gene 3 1 4 5.41665 0 1 5.41665 1
gene 1 2 4 -7.56554 0 2 -7.56554 1
gene 3 3 4 -6.3839 0 3 -6.3839 1
gene 1 2 7 2.81298 0 8 2.81298 1
gene 1 7 4 5.52342 0 9 5.52342 1
gene 1 3 7 3.42978 0 64 3.42978 1
gene 3 1 7 -0.397488 0 235 -0.397488 1
genomeend 132

/* Organism #133 Fitness: 6.92619 Error: 1.36823 */
genomestart 133
trait 1 0.1 0 0 0 0 0 0 0 
trait 2 0 0 0.632038 0 0 0.356182 0 0 
trait 3 0.3 0 0 0.228301 0 0.0799966 0 0.144078 
node 1 2 1 3
node 2 2 1 1
node 3 2 1 1
node 4 3 0 2
node 7 1 0 0
gene 3 1 4 6.97485 0 1 6.97485 1
gene 1 2 4 -7.27164 0 2 -7.27164 1
gene 3 3 4 -7.80873 0 3 -7.80873 1
gene 1 2 7 3.98062 0 8 3.98062 1
gene 1 7 4 7.94124 0 9 7.94124 1
gene 1 3 7 2.12389 0 64 2.12389 1
gene 3 1 7 -2.43834 0 235 -2.43834 1
genomeend 133

/* Organism #134 Fitness: 1.00001 Error: 2.99999 */
genomestart 134
trait 1 0.1 0.137638 0.288675 0.289895 0.494827 0 0.679403 0.492355 
trait 2 0 0 0.632038 0 0 0.356182 0 0 
trait 3 0.3 0 0 0.228301 0 0.0799966 0 0.144078 
node 1 2 1 3
node 2 2 1 1
node 3 2 1 1
node 4 3 0 2
node 7 1 0 0
gene 3 1 4 4.07903 0 1 4.07903 1
gene 1 2 4 -6.50448 0 2 -6.50448 1
gene 3 3 4 -7.72176 0 3 -7.72176 1
gene 1 2 7 1.06 0 8 1.06 1
gene 1 7 4 7.87723 0 9 7.87723 1
gene 1 3 7 1.1254 0 64 1.1254 1
gene 3 1 7 -2.49617 0 235 -2.49617 1
genomeend 134

/* Organism #135 Fitness: 8.98515 Error: 1.00248 */
genomestart 135
trait 1 0.1 0 0 0 0 0 0 0 
trait 2 0 0 0.632038 0 0 0.356182 0 0 
trait 3 0.3 0 0 0.228301 0 0.0799966 0 0.144078 
node 1 2 1 3
node 2 2 1 1
node 3 2 1 1
node 4 3 0 2
node 7 1 0 0
gene 3 1 4 6.03305 0 1 6.03305 1
gene 1 2 4 -8 0 2 -8 1
gene 3 3 4 -4.45956 0 3 -4.45956 1
gene 1 2 7 4.39292 0 8 4.39292 1
gene 1 7 4 3.18516 0 9 3.18516 1
gene 1 3 7 2.71366 0 64 2.71366 1
gene 3 1 7 0.744743 0 235 0.744743 1
genomeend 135

/* Organism #136 Fitness: 4.00005 Error: 1.99999 */
genomestart 136
trait 1 0.1 0 0 0 0 0 0 0 
trait 2 0 0 0.632038 0 0 0.356182 0 0 
trait 3 0.3 0 0 0.228301 0 0.0799966 0 0.144078 
node 1 2 1 3
node 2 2 1 1
node 3 2 1 1
node 4 3 0 2
node 7 1 0 0
gene 3 1 4 5.71917 0 1 5.71917 1
gene 1 2 4 -8 0 2 -8 1
gene 3 3 4 -5.32422 0 3 -5.32422 1
gene 1 2 7 0.754812 0 8 0.754812 1
gene 1 7 4 3.96056 0 9 3.96056 1
gene 1 3 7 5.86966 0 64 5.86966 1
gene 3 1 7 -2.77213 0 235 -2.77213 1
genomeend 136

/* Organism #137 Fitness: 4 Error: 2 */
genomestart 137
trait 1 0.1 0 0 0 0 0 0 0 
trait 2 0 0 0.632038 0 0 0.356182 0 0 
trait 3 0.3 0 0 0.228301 0 0.0799966 0 0.144078 
node 1 2 1 3
node 2 2 1 1
node 3 2 1 1
node 4 3 0 2
node 7 1 0 0
gene 3 1 4 6.85415 0 1 6.85415 1
gene 3 2 4 0.534989 0 2 0.534989 1
gene 3 3 4 0.734046 0 3 0.734046 1
gene 1 2 7 1.24975 0 8 1.24975 1
gene 1 7 4 5.52342 0 9 5.52342 1
gene 1 3 7 4.38211 0 64 4.38211 1
gene 3 1 7 -0.375744 0 235 -0.375744 1
genomeend 137

/* Organism #138 Fitness: 9 Error: 1 */
genomestart 138
trait 1 0.1 0 0 0 0 0 0 0 
trait 2 0 0 0.632038 0 0 0.356182 0 0 
trait 3 0.3 0 0 0.228301 0 0.0799966 0 0.144078 
node 1 2 1 3
node 2 2 1 1
node 3 2 1 1
node 4 3 0 2
node 7 1 0 0
gene 3 1 4 5.41665 0 1 5.41665 1
gene 1 2 4 -7.56554 0 2 -7.56554 1
gene 3 3 4 -6.3839 0 3 -6.3839 1
gene 1 2 7 2.81298 0 8 2.81298 1
gene 1 7 4 5.52342 0 9 5.52342 1
gene 1 3 7 3.42978 0 64 3.42978 1
gene 3 1 7 -0.397488 0 235 -0.397488 1
genomeend 138

/* Species #21 : (Size 11) (AF 6.00587) (Age 2)  */


/* Organism #139 Fitness: 8.99663 Error: 1.00056 */
genomestart 139
trait 1 0.1 0 0 0 0 0 0 0 
trait 2 0.217761 0 0.0888804 0 0 0.050088 0 0 
trait 3 0.308915 0 0 0.0321049 0.00111524 0.0112495 0 0.0332873 
node 1 1 1 3
node 2 2 1 1
node 3 1 1 1
node 4 1 0 2
node 7 1 0 0
node 14 1 0 0
gene 1 1 4 -5.13787 0 1 -5.13787 1
gene 1 2 4 -3.81609 0 2 -3.81609 0
gene 3 3 4 -3.8942 0 3 -3.8942 0
gene 3 2 7 -2.27315 0 8 -2.27315 1
gene 1 7 4 7.67334 0 9 7.67334 1
gene 1 3 14 7.92717 0 25 7.92717 1
gene 3 14 4 -0.923643 0 26 -0.923643 1
gene 1 3 7 1.22233 0 64 1.22233 1
gene 3 2 14 -0.353587 0 248 -0.353587 1
genomeend 139

/* Organism #140 Fitness: 4 Error: 2 */
genomestart 140
trait 1 0.1 0 0 0 0 0 0 0 
trait 2 0.217761 0 0.0888804 0 0 0.050088 0 0 
trait 3 1 0.368236 0 0.0321049 0.00111524 0.601691 0 0.374088 
node 1 1 1 3
node 2 2 1 1
node 3 1 1 1
node 4 1 0 2
node 7 1 0 0
node 14 1 0 0
gene 1 1 4 -5.13787 0 1 -5.13787 1
gene 1 2 4 -5.21162 0 2 -5.21162 0
gene 3 3 4 -6.35887 0 3 -6.35887 0
gene 3 2 7 -0.934095 0 8 -0.934095 1
gene 1 7 4 -0.710776 0 9 -0.710776 1
gene 1 3 14 8 0 25 8 1
gene 3 14 4 0.104678 0 26 0.104678 1
gene 1 3 7 0.483551 0 64 0.483551 1
gene 3 2 14 1.5687 0 248 1.5687 1
genomeend 140

/* Organism #141 Fitness: 8.90952 Error: 1.01512 */
genomestart 141
trait 1 0.1 0 0 0 0 0 0 0 
trait 2 0.217761 0 0.0888804 0 0 0.050088 0 0 
trait 3 0.308915 0 0 0.0321049 0.00111524 0.0112495 0 0.0332873 
node 1 1 1 3
node 2 2 1 1
node 3 1 1 1
node 4 1 0 2
node 7 1 0 0
node 14 1 0 0
gene 1 1 4 -4.63065 0 1 -4.63065 1
gene 1 2 4 -6.00922 0 2 -6.00922 0
gene 3 3 4 -5.95733 0 3 -5.95733 0
gene 3 2 7 -3.3561 0 8 -3.3561 1
gene 1 7 4 8 0 9 8 1
gene 1 3 14 8 0 25 8 1
gene 3 14 4 -0.435041 0 26 -0.435041 1
gene 1 3 7 2.04457 0 64 2.04457 1
gene 3 2 14 -1.6655 0 248 -1.6655 1
genomeend 141

/* Organism #142 Fitness: 8.68105 Error: 1.05364 */
genomestart 142
trait 1 0.1 0 0 0 0 0 0 0 
trait 2 0.217761 0 0.0888804 0 0 0.050088 0 0 
trait 3 0.308915 0 0 0.0321049 0.00111524 0.0112495 0 0.0332873 
node 1 1 1 3
node 2 2 1 1
node 3 1 1 1
node 4 1 0 2
node 7 1 0 0
node 14 1 0 0
gene 1 1 4 -6.6303 0 1 -6.6303 1
gene 1 2 4 -5.18927 0 2 -5.18927 0
gene 3 3 4 -4.21495 0 3 -4.21495 0
gene 3 2 7 -1.74892 0 8 -1.74892 1
gene 1 7 4 8 0 9 8 1
gene 1 3 14 8 0 25 8 1
gene 3 14 4 -0.785928 0 26 -0.785928 1
gene 1 3 7 1.88946 0 64 1.88946 1
gene 3 2 14 -0.290796 0 248 -0.290796 1
genomeend 142

/* Organism #143 Fitness: 1.00767 Error: 2.99617 */
genomestart 143
trait 1 0.1 0 0 0 0 0 0 0 
trait 2 0.217761 0 0.0888804 0 0 0.050088 0 0 
trait 3 0.308915 0 0 0.0321049 0.00111524 0.0112495 0 0.0332873 
node 1 1 1 3
node 2 2 1 1
node 3 1 1 1
node 4 1 0 2
node 7 1 0 0
node 14 1 0 0
gene 1 1 4 -0.223853 0 1 -0.223853 1
gene 1 2 4 -2.60755 0 2 -2.60755 0
gene 3 3 4 0.151067 0 3 0.151067 0
gene 3 2 7 -0.897298 0 8 -0.897298 1
gene 1 7 4 6.53668 0 9 6.53668 1
gene 1 3 14 7.21006 0 25 7.21006 1
gene 3 14 4 -3.34101 0 26 -3.34101 1
gene 1 3 7 -0.544618 0 64 -0.544618 1
gene 3 2 14 -0.156667 0 248 -0.156667 1
genomeend 143

/* Organism #144 Fitness: 5.02281 Error: 1.75884 */
genomestart 144
trait 1 0.1 0 0 0 0 0 0 0 
trait 2 0.217761 0 0.0888804 0 0 0.050088 0 0 
trait 3 0.308915 0 0 0.0321049 0.00111524 0.0112495 0 0.0332873 
node 1 1 1 3
node 2 2 1 1
node 3 1 1 1
node 4 1 0 2
node 7 1 0 0
node 14 1 0 0
gene 1 1 4 -5.13787 0 1 -5.13787 1
gene 1 2 4 -2.98469 0 2 -2.98469 0
gene 3 3 4 -2.88961 0 3 -2.88961 0
gene 3 2 7 -1.17433 0 8 -1.17433 1
gene 3 7 4 8 0 9 8 1
gene 1 3 14 8 0 25 8 1
gene 3 14 4 -1.89253 0 26 -1.89253 1
gene 1 3 7 0.351787 0 64 0.351787 1
gene 3 2 14 1.99886 0 248 1.99886 1
genomeend 144

/* Organism #145 Fitness: 4.0003 Error: 1.99992 */
genomestart 145
trait 1 0.1 0 0 0 0 0 0 0 
trait 2 0.217761 0 0.0888804 0 0 0.050088 0 0 
trait 3 0.308915 0 0 0.0321049 0.00111524 0.0112495 0 0.0332873 
node 1 1 1 3
node 2 2 1 1
node 3 1 1 1
node 4 1 0 2
node 7 1 0 0
node 14 1 0 0
gene 1 1 4 -4.68398 0 1 -4.68398 1
gene 1 2 4 -4.93917 0 2 -4.93917 0
gene 3 3 4 -0.0241096 0 3 -0.0241096 0
gene 3 2 7 -2.27315 0 8 -2.27315 1
gene 1 7 4 7.85294 0 9 7.85294 1
gene 1 3 14 7.27407 0 25 7.27407 1
gene 3 14 4 -2.77062 0 26 -2.77062 1
gene 1 3 7 0.183493 0 64 0.183493 1
gene 3 2 14 0.997879 0 248 0.997879 1
genomeend 145

/* Organism #146 Fitness: 3.99999 Error: 2 */
genomestart 146
trait 1 0.1 0 0 0 0 0 0 0 
trait 2 0.217761 0 0.0888804 0 0 0.050088 0 0 
trait 3 0.308915 0 0 0.0321049 0.00111524 0.0112495 0 0.0332873 
node 1 1 1 3
node 2 2 1 1
node 3 1 1 1
node 4 1 0 2
node 7 1 0 0
node 14 1 0 0
gene 1 1 4 -6.3609 0 1 -6.3609 1
gene 1 2 4 -2.69873 0 2 -2.69873 0
gene 3 3 4 -5.41044 0 3 -5.41044 0
gene 3 2 7 -3.74269 0 8 -3.74269 1
gene 1 7 4 7.65922 0 9 7.65922 1
gene 1 3 14 7.70484 0 25 7.70484 1
gene 3 14 4 -0.071337 0 26 -0.071337 1
gene 1 3 7 -0.0823389 0 64 -0.0823389 1
gene 3 2 14 1.48386 0 248 1.48386 1
genomeend 146

/* Organism #147 Fitness: 8.99296 Error: 1.00117 */
genomestart 147
trait 1 0.1 0 0 0 0 0 0 0 
trait 2 0.217761 0 0.0888804 0 0 0.050088 0 0 
trait 3 0.308915 0 0 0.0321049 0.00111524 0.0112495 0 0.0332873 
node 1 1 1 3
node 2 2 1 1
node 3 1 1 1
node 4 1 0 2
node 7 1 0 0
node 14 1 0 0
gene 1 1 4 -5.13787 0 1 -5.13787 1
gene 1 2 4 -3.81609 0 2 -3.81609 0
gene 3 3 4 -3.8942 0 3 -3.8942 0
gene 3 2 7 -2.27315 0 8 -2.27315 1
gene 1 7 4 7.67334 0 9 7.67334 1
gene 1 3 14 7.92717 0 25 7.92717 1
gene 3 14 4 -0.923643 0 26 -0.923643 1
gene 1 3 7 1.22233 0 64 1.22233 1
gene 3 2 14 -0.353587 0 248 -0.353587 1
gene 3 1 14 -0.331278 0 274 -0.331278 1
genomeend 147

/* Organism #148 Fitness: 8.56035 Error: 1.07419 */
genomestart 148
trait 1 0.1 0 0 0 0 0 0 0 
trait 2 0.217761 0 0.0888804 0 0 0.050088 0 0 
trait 3 0.308915 0 0 0.0321049 0.00111524 0.0112495 0 0.0332873 
node 1 1 1 3
node 2 2 1 1
node 3 1 1 1
node 4 1 0 2
node 7 1 0 0
node 14 1 0 0
gene 1 1 4 -6.25614 0 1 -6.25614 1
gene 1 2 4 -5.75005 0 2 -5.75005 0
gene 3 3 4 -1.1655 0 3 -1.1655 0
gene 3 2 7 0.35905 0 8 0.35905 1
gene 1 7 4 8 0 9 8 1
gene 1 3 14 7.81669 0 25 7.81669 1
gene 3 14 4 -0.229041 0 26 -0.229041 1
gene 1 3 7 1.22233 0 64 1.22233 1
gene 3 2 14 -0.188604 0 248 -0.188604 1
genomeend 148

/* Organism #149 Fitness: 3.89332 Error: 2.02685 */
genomestart 149
trait 1 0.1 0 0 0 0 0 0 0 
trait 2 0.217761 0 0.0888804 0 0 0.050088 0 0 
trait 3 0.308915 0 0 0.0321049 0.00111524 0.0112495 0 0.0332873 
node 1 1 1 3
node 2 2 1 1
node 3 1 1 1
node 4 1 0 2
node 7 1 0 0
node 14 1 0 0
gene 1 1 4 -4.23757 0 1 -4.23757 1
gene 1 2 4 -2.9325 0 2 -2.9325 0
gene 3 3 4 -1.5664 0 3 -1.5664 0
gene 3 2 7 -0.237106 0 8 -0.237106 1
gene 1 7 4 5.89892 0 9 5.89892 1
gene 1 3 14 5.99199 0 25 5.99199 1
gene 3 14 4 1.11805 0 26 1.11805 1
gene 1 3 7 1.5813 0 64 1.5813 1
gene 3 2 14 -1.48048 0 248 -1.48048 1
genomeend 149
