
/* Species #50 : (Size 8) (AF 7.125) (Age 18)  */


/* Organism #0 Fitness: 9 Error: 1 */
genomestart 0
trait 1 0 0.947954 0 0 0 0 0.845393 0.695166 
trait 2 0.1 0 0.117206 0 0 0.114399 0.491836 0 
trait 3 1 0 0 0 0 0 0.0453352 0.421766 
node 1 1 1 3
node 2 1 1 1
node 3 3 1 1
node 4 2 0 2
node 9 2 0 0
node 18 1 0 0
node 186 1 0 0
node 203 1 0 0
node 233 1 0 0
node 258 1 0 0
gene 2 1 4 -7.31086 0 1 -7.31086 1
gene 1 2 4 -1.75787 0 2 -1.75787 0
gene 2 3 4 -7.09237 0 3 -7.09237 1
gene 1 2 9 7.16546 0 12 7.16546 1
gene 1 9 4 6.71866 0 13 6.71866 1
gene 2 3 18 8 0 37 8 0
gene 2 18 4 -8 0 38 -8 1
gene 1 2 18 -4.69481 0 131 -4.69481 1
gene 2 3 9 -0.589236 0 167 -0.589236 0
gene 2 1 9 -6.02219 0 572 -6.02219 1
gene 1 2 186 1.93446 0 580 1.93446 1
gene 1 186 4 6.79872 0 581 6.79872 1
gene 1 9 203 1.04639 0 629 1.04639 1
gene 1 203 4 1.2624 0 630 1.2624 1
gene 1 2 233 -0.644337 0 733 -0.644337 1
gene 1 233 4 -3.44424 0 734 -3.44424 0
gene 1 233 186 -0.345805 0 812 -0.345805 1
gene 2 3 258 1 0 831 0 1
gene 2 258 18 8 0 832 0 1
genomeend 0

/* Organism #1 Fitness: 9 Error: 1 */
genomestart 1
trait 1 0 0.947954 0 0 0 0 0.845393 0.695166 
trait 2 0.1 0 0.117206 0 0 0.114399 0.491836 0 
trait 3 1 0 0 0 0 0 0.0453352 0.421766 
node 1 1 1 3
node 2 1 1 1
node 3 3 1 1
node 4 2 0 2
node 9 2 0 0
node 18 1 0 0
node 186 1 0 0
node 203 1 0 0
node 233 1 0 0
node 258 1 0 0
gene 2 1 4 -7.65543 0 1 -7.65543 1
gene 1 2 4 -1.3551 0 2 -1.3551 0
gene 2 3 4 -7.54619 0 3 -7.54619 1
gene 1 2 9 7.58273 0 12 7.58273 1
gene 1 9 4 7.34849 0 13 7.34849 1
gene 2 3 18 7.03558 0 37 7.03558 0
gene 2 18 4 -8 0 38 -8 1
gene 1 2 18 -4.14274 0 131 -4.14274 1
gene 2 3 9 -1.3881 0 167 -1.3881 0
gene 2 1 9 -4.84325 0 572 -4.84325 1
gene 1 2 186 3.12403 0 580 3.12403 1
gene 1 186 4 7.39936 0 581 7.39936 1
gene 1 9 203 0.260804 0 629 0.260804 1
gene 1 203 4 1.01291 0 630 1.01291 1
gene 1 2 233 -0.738792 0 733 -0.738792 1
gene 1 233 4 -3.7191 0 734 -3.7191 0
gene 1 233 186 -1.09622 0 812 -1.09622 1
gene 2 3 258 1.41972 0 831 0.919725 1
gene 2 258 18 7.61768 0 832 3.61768 1
genomeend 1

/* Organism #2 Fitness: 3.99999 Error: 2 */
genomestart 2
trait 1 0 0.947954 0 0 0 0 0.845393 0.695166 
trait 2 0.1 0 0.117206 0 0 0.114399 0.491836 0 
trait 3 1 0 0 0 0 0 0.0453352 0.421766 
node 1 1 1 3
node 2 1 1 1
node 3 3 1 1
node 4 2 0 2
node 9 2 0 0
node 18 1 0 0
node 186 1 0 0
node 203 1 0 0
node 233 1 0 0
node 258 1 0 0
gene 2 1 4 1.32511 0 1 1.32511 1
gene 1 2 4 -1.75787 0 2 -1.75787 0
gene 2 3 4 -1.31962 0 3 -1.31962 1
gene 1 2 9 4.81661 0 12 4.81661 1
gene 1 9 4 6.82311 0 13 6.82311 1
gene 2 3 18 8 0 37 8 0
gene 2 18 4 -6.48476 0 38 -6.48476 1
gene 1 2 18 -4.9192 0 131 -4.9192 1
gene 2 3 9 -2.25013 0 167 -2.25013 0
gene 2 1 9 0.0982696 0 572 0.0982696 1
gene 1 2 186 1.14681 0 580 1.14681 1
gene 1 186 4 7.13373 0 581 7.13373 1
gene 1 9 203 2.10355 0 629 2.10355 1
gene 1 203 4 1.80792 0 630 1.80792 1
gene 1 2 233 -0.833247 0 733 -0.833247 1
gene 1 233 4 -2.3909 0 734 -2.3909 0
gene 1 233 186 -0.242088 0 812 -0.242088 1
gene 2 3 258 -0.570368 0 831 -0.570368 1
gene 2 258 18 8 0 832 8 1
genomeend 2

/* Organism #3 Fitness: 9 Error: 1 */
genomestart 3
trait 1 0 0.947954 0 0 0 0 0.845393 0.695166 
trait 2 0.1 0 0.117206 0 0 0.114399 0.491836 0 
trait 3 1 0 0 0 0 0 0.0453352 0.421766 
node 1 1 1 3
node 2 1 1 1
node 3 3 1 1
node 4 2 0 2
node 9 2 0 0
node 18 1 0 0
node 186 1 0 0
node 203 1 0 0
node 233 1 0 0
node 258 1 0 0
gene 2 1 4 -5.62383 0 1 -5.62383 1
gene 1 2 4 0.0292215 0 2 0.0292215 0
gene 2 3 4 -8 0 3 -8 1
gene 1 2 9 8 0 12 8 1
gene 1 9 4 6.59689 0 13 6.59689 1
gene 2 3 18 8 0 37 8 0
gene 2 18 4 -8 0 38 -8 1
gene 1 2 18 -3.95657 0 131 -3.95657 1
gene 2 3 9 -0.314722 0 167 -0.314722 0
gene 2 1 9 -2.37016 0 572 -2.37016 1
gene 1 2 186 6.54237 0 580 6.54237 1
gene 1 186 4 8 0 581 8 1
gene 1 9 203 0.639729 0 629 0.639729 1
gene 1 203 4 2.66007 0 630 2.66007 1
gene 1 2 233 -2.94498 0 733 -2.94498 1
gene 1 233 4 -5.74267 0 734 -5.74267 1
gene 1 233 186 -2.46287 0 812 -2.46287 1
gene 2 3 258 1.83945 0 831 1.83945 1
gene 2 258 18 8 0 832 8 1
genomeend 3

/* Organism #4 Fitness: 4 Error: 2 */
genomestart 4
trait 1 0 0.947954 0 0 0 0 0.845393 0.695166 
trait 2 0.1 0 0.117206 0 0 0.114399 0.491836 0 
trait 3 1 0 0 0 0 0 0.0453352 0.421766 
node 1 1 1 3
node 2 1 1 1
node 3 3 1 1
node 4 2 0 2
node 9 2 0 0
node 18 1 0 0
node 186 1 0 0
node 203 1 0 0
node 233 1 0 0
node 258 1 0 0
gene 2 1 4 2.1585 0 1 2.1585 1
gene 1 2 4 2.41676 0 2 2.41676 0
gene 2 3 4 -5.39806 0 3 -5.39806 1
gene 1 2 9 8 0 12 8 1
gene 1 9 4 8 0 13 8 1
gene 2 3 18 7.56771 0 37 7.56771 0
gene 2 18 4 -8 0 38 -8 1
gene 1 2 18 -5.88809 0 131 -5.88809 1
gene 2 3 9 -0.809732 0 167 -0.809732 0
gene 2 1 9 -6.13458 0 572 -6.13458 1
gene 1 2 186 2.77295 0 580 2.77295 1
gene 1 186 4 8 0 581 8 1
gene 1 9 203 -0.333186 0 629 -0.333186 1
gene 1 203 4 1.2624 0 630 1.2624 1
gene 1 2 233 1.47351 0 733 1.47351 1
gene 1 233 4 -1.45405 0 734 -1.45405 0
gene 1 233 186 -0.895901 0 812 -0.895901 1
gene 2 3 258 3.27844 0 831 3.27844 1
gene 2 258 18 8 0 832 8 1
genomeend 4

/* Organism #5 Fitness: 9 Error: 1 */
genomestart 5
trait 1 0 1 0 0 0 0 1 1 
trait 2 0.1 0 0.117206 0 0 0.114399 0.491836 0 
trait 3 1 0 0 0 0 0 0.0453352 0.421766 
node 1 1 1 3
node 2 1 1 1
node 3 3 1 1
node 4 2 0 2
node 9 2 0 0
node 18 1 0 0
node 186 1 0 0
node 203 1 0 0
node 233 1 0 0
node 258 1 0 0
gene 2 1 4 -8 0 1 -8 1
gene 1 2 4 -3.38931 0 2 -3.38931 0
gene 2 3 4 -4.853 0 3 -4.853 1
gene 1 2 9 7.47569 0 12 7.47569 1
gene 1 9 4 6.63268 0 13 6.63268 1
gene 2 3 18 8 0 37 8 0
gene 2 18 4 -5.56516 0 38 -5.56516 1
gene 1 2 18 -4.40771 0 131 -4.40771 1
gene 2 3 9 -0.573977 0 167 -0.573977 0
gene 2 1 9 -4.24525 0 572 -4.24525 1
gene 1 2 186 0.342612 0 580 0.342612 1
gene 1 186 4 8 0 581 8 1
gene 1 9 203 -1.36335 0 629 -1.36335 1
gene 1 203 4 2.98967 0 630 2.98967 1
gene 1 2 233 0.252754 0 733 0.252754 1
gene 1 233 4 -2.07198 0 734 -2.07198 0
gene 1 233 186 1.30181 0 812 1.30181 1
gene 2 3 258 2.44133 0 831 2.44133 1
gene 2 258 18 8 0 832 8 1
genomeend 5

/* Organism #6 Fitness: 9 Error: 1 */
genomestart 6
trait 1 0 0.947954 0 0 0 0 0.845393 0.695166 
trait 2 0.1 0 0.117206 0 0 0.114399 0.491836 0 
trait 3 1 0 0 0 0 0 0 0.421766 
node 1 1 1 3
node 2 1 1 1
node 3 3 1 1
node 4 2 0 2
node 9 2 0 0
node 18 1 0 0
node 186 1 0 0
node 203 1 0 0
node 233 1 0 0
node 258 1 0 0
gene 2 1 4 -7.31086 0 1 -7.31086 1
gene 1 2 4 -1.75787 0 2 -1.75787 0
gene 2 3 4 -7.09237 0 3 -7.09237 1
gene 1 2 9 7.16546 0 12 7.16546 1
gene 1 9 4 6.71866 0 13 6.71866 1
gene 2 3 18 8 0 37 8 1
gene 2 18 4 -8 0 38 -8 1
gene 1 2 18 -4.69481 0 131 -4.69481 1
gene 2 3 9 -0.589236 0 167 -0.589236 0
gene 2 1 9 -6.02219 0 572 -6.02219 1
gene 1 2 186 1.93446 0 580 1.93446 1
gene 1 186 4 6.79872 0 581 6.79872 1
gene 1 9 203 1.04639 0 629 1.04639 1
gene 1 203 4 1.2624 0 630 1.2624 1
gene 1 2 233 -0.644337 0 733 -0.644337 1
gene 1 233 4 -3.44424 0 734 -3.44424 0
gene 1 233 186 -0.345805 0 812 -0.345805 1
gene 2 3 258 1 0 831 0 1
gene 2 258 18 8 0 832 0 1
genomeend 6

/* Organism #7 Fitness: 4.00002 Error: 2 */
genomestart 7
trait 1 0 0.947954 0 0 0 0 0.845393 0.695166 
trait 2 0.1 0 0.117206 0 0 0.114399 0.143803 0 
trait 3 1 0 0 0 0 0 0.0453352 0.421766 
node 1 1 1 3
node 2 1 1 1
node 3 3 1 1
node 4 2 0 2
node 9 2 0 0
node 18 1 0 0
node 186 1 0 0
node 203 1 0 0
node 233 1 0 0
node 258 1 0 0
gene 2 1 4 -0.0859859 0 1 -0.0859859 1
gene 1 2 4 -0.548112 0 2 -0.548112 0
gene 2 3 4 1.02496 0 3 1.02496 1
gene 1 2 9 6.14737 0 12 6.14737 1
gene 1 9 4 6.26462 0 13 6.26462 1
gene 2 3 18 1.4024 0 37 1.4024 0
gene 2 18 4 -7.98154 0 38 -7.98154 1
gene 1 2 18 -2.32475 0 131 -2.32475 1
gene 2 3 9 -3.51035 0 167 -3.51035 0
gene 2 1 9 2.29751 0 572 2.29751 1
gene 1 2 186 2.49169 0 580 2.49169 1
gene 1 186 4 7.31307 0 581 7.31307 1
gene 1 9 203 0.550577 0 629 0.550577 1
gene 1 203 4 1.24218 0 630 1.24218 1
gene 1 2 233 0.041963 0 733 0.041963 1
gene 1 233 4 -4.85637 0 734 -4.85637 1
gene 1 233 186 0.405065 0 812 0.405065 1
gene 2 3 258 1.41972 0 831 1.41972 1
gene 2 258 18 1.40782 0 832 1.40782 1
genomeend 7

/* Species #52 : (Size 10) (AF 6.99176) (Age 18)  */


/* Organism #8 Fitness: 9 Error: 1 */
genomestart 8
trait 1 0 0.947954 0 0 0 0 0.845393 0.695166 
trait 2 0.299049 0 0.117206 0 0 0.114399 0.491836 0.0604953 
trait 3 1 0 0 0 0 0 0.0453352 0.421766 
node 1 1 1 3
node 2 1 1 1
node 3 3 1 1
node 4 2 0 2
node 9 2 0 0
node 18 1 0 0
node 186 1 0 0
node 203 1 0 0
node 233 1 0 0
gene 2 1 4 -5.58656 0 1 -5.58656 1
gene 1 2 4 -1.88368 0 2 -1.88368 0
gene 2 3 4 -8 0 3 -8 1
gene 1 2 9 8 0 12 8 1
gene 1 9 4 8 0 13 8 1
gene 2 3 18 7.7161 0 37 7.7161 1
gene 2 18 4 -7.5513 0 38 -7.5513 1
gene 1 2 18 -5.04707 0 131 -5.04707 1
gene 2 3 9 -1.90382 0 167 -1.90382 0
gene 2 1 9 -7.83492 0 572 -7.83492 1
gene 1 2 186 0.666753 0 580 0.666753 1
gene 1 186 4 8 0 581 8 1
gene 1 9 203 -1.0625 0 629 -1.0625 1
gene 1 203 4 -0.312204 0 630 -0.312204 1
gene 1 2 233 -4.75266 0 733 -4.75266 1
gene 1 233 4 -5.17884 0 734 -5.17884 1
gene 2 9 186 2.34237 0 820 2.34237 1
gene 2 2 203 -0.0993377 0 829 -0.0993377 1
genomeend 8

/* Organism #9 Fitness: 9 Error: 1 */
genomestart 9
trait 1 0 0.947954 0 0 0 0 0.845393 0.695166 
trait 2 0.299049 0 0.117206 0 0 0.114399 0.491836 0.0604953 
trait 3 1 0 0 0 0 0 0.0453352 0.421766 
node 1 1 1 3
node 2 1 1 1
node 3 3 1 1
node 4 2 0 2
node 9 2 0 0
node 18 1 0 0
node 186 1 0 0
node 203 1 0 0
node 233 1 0 0
gene 2 1 4 -7.81487 0 1 -7.81487 1
gene 1 2 4 -2.88041 0 2 -2.88041 0
gene 2 3 4 -7.00449 0 3 -7.00449 1
gene 1 2 9 7.30189 0 12 7.30189 1
gene 1 9 4 5.95709 0 13 5.95709 1
gene 2 3 18 6.92476 0 37 6.92476 1
gene 2 18 4 -5.67777 0 38 -5.67777 1
gene 1 2 18 -6.09264 0 131 -6.09264 1
gene 2 3 9 -1.46428 0 167 -1.46428 1
gene 2 1 9 -6.00243 0 572 -6.00243 1
gene 1 2 186 0.452818 0 580 0.452818 1
gene 1 186 4 6.52092 0 581 6.52092 1
gene 1 9 203 -2.88827 0 629 -2.88827 1
gene 1 203 4 -0.496307 0 630 -0.496307 1
gene 1 2 233 -3.49591 0 733 -3.49591 1
gene 1 233 4 -5.17884 0 734 -5.17884 1
gene 2 9 186 2.34237 0 820 2.34237 1
gene 2 2 203 -0.0993377 0 829 -0.0993377 1
genomeend 9

/* Organism #10 Fitness: 9 Error: 1 */
genomestart 10
trait 1 0 0.947954 0 0 0 0 0.845393 0.695166 
trait 2 0.299049 0 0.117206 0 0 0.114399 0.491836 0.0604953 
trait 3 1 0 0 0 0 0 0.0453352 0.421766 
node 1 1 1 3
node 2 1 1 1
node 3 3 1 1
node 4 2 0 2
node 9 2 0 0
node 18 1 0 0
node 186 1 0 0
node 203 1 0 0
node 233 1 0 0
gene 2 1 4 -4.9514 0 1 -4.9514 1
gene 1 2 4 -3.00378 0 2 -3.00378 0
gene 2 3 4 -8 0 3 -8 1
gene 1 2 9 8 0 12 8 1
gene 1 9 4 6.13379 0 13 6.13379 1
gene 2 3 18 8 0 37 8 1
gene 2 18 4 -5.69601 0 38 -5.69601 1
gene 1 2 18 -4.44479 0 131 -4.44479 1
gene 2 3 9 -2.35 0 167 -2.35 0
gene 2 1 9 -8 0 572 -8 1
gene 1 2 186 2.48093 0 580 2.48093 1
gene 1 186 4 7.02371 0 581 7.02371 1
gene 1 9 203 -3.30912 0 629 -3.30912 1
gene 1 203 4 -2.63634 0 630 -2.63634 1
gene 1 2 233 -5.41308 0 733 -5.41308 1
gene 1 233 4 -5.73618 0 734 -5.73618 1
gene 2 9 186 1.37722 0 820 1.37722 1
gene 2 2 203 1.58704 0 829 1.58704 1
genomeend 10

/* Organism #11 Fitness: 4.00017 Error: 1.99996 */
genomestart 11
trait 1 0 0.947954 0 0 0 0 0.845393 0.695166 
trait 2 0.299049 0 0.117206 0 0 0.114399 0.491836 0.0604953 
trait 3 1 0 0 0 0 0 0.0453352 0.421766 
node 1 1 1 3
node 2 1 1 1
node 3 3 1 1
node 4 2 0 2
node 9 2 0 0
node 18 1 0 0
node 186 1 0 0
node 203 1 0 0
node 233 1 0 0
gene 2 1 4 -7.34313 0 1 -7.34313 1
gene 1 2 4 -0.364772 0 2 -0.364772 0
gene 2 3 4 -5.82052 0 3 -5.82052 1
gene 1 2 9 8 0 12 8 1
gene 1 9 4 6.17614 0 13 6.17614 1
gene 2 3 18 5.28164 0 37 5.28164 1
gene 2 18 4 -8 0 38 -8 1
gene 1 2 18 -5.87413 0 131 -5.87413 1
gene 2 3 9 -2.92528 0 167 -2.92528 0
gene 2 1 9 -7.6354 0 572 -7.6354 1
gene 1 2 186 -1.21776 0 580 -1.21776 1
gene 1 186 4 6.34246 0 581 6.34246 1
gene 1 9 203 -0.751366 0 629 -0.751366 1
gene 1 203 4 0.210959 0 630 0.210959 1
gene 1 2 233 -3.56091 0 733 -3.56091 1
gene 1 233 4 -5.38339 0 734 -5.38339 1
gene 2 9 186 -1.39256 0 820 -1.39256 1
gene 2 2 203 -0.0993377 0 829 -0.0993377 1
genomeend 11

/* Organism #12 Fitness: 4 Error: 2 */
genomestart 12
trait 1 0 0.947954 0 0 0 0 0.845393 0.695166 
trait 2 0.299049 0 0.117206 0 0 0.114399 0.491836 0.0604953 
trait 3 1 0 0 0 0 0 0.0453352 0.421766 
node 1 1 1 3
node 2 1 1 1
node 3 3 1 1
node 4 2 0 2
node 9 2 0 0
node 18 1 0 0
node 186 1 0 0
node 203 1 0 0
node 233 1 0 0
gene 2 1 4 -5.58656 0 1 -5.58656 1
gene 1 2 4 -1.88368 0 2 -1.88368 0
gene 2 3 4 -8 0 3 -8 1
gene 1 2 9 6.8065 0 12 6.8065 1
gene 1 9 4 0.105136 0 13 0.105136 1
gene 2 3 18 8 0 37 8 1
gene 2 18 4 -2.42058 0 38 -2.42058 1
gene 1 2 18 2.20954 0 131 2.20954 1
gene 2 3 9 -0.718863 0 167 -0.718863 0
gene 2 1 9 -6.9408 0 572 -6.9408 1
gene 1 2 186 -1.65044 0 580 -1.65044 1
gene 1 186 4 8 0 581 8 1
gene 1 9 203 -2.09418 0 629 -2.09418 1
gene 1 203 4 1.15909 0 630 1.15909 1
gene 1 2 233 -4.75266 0 733 -4.75266 1
gene 1 233 4 -6.14658 0 734 -6.14658 1
gene 2 9 186 2.34237 0 820 2.34237 1
gene 2 2 203 0.367519 0 829 0.367519 1
genomeend 12

/* Organism #13 Fitness: 4 Error: 2 */
genomestart 13
trait 1 0 0.947954 0 0 0 0 0.845393 0.695166 
trait 2 0.299049 0 0.117206 0 0 0.114399 0.491836 0.0604953 
trait 3 1 0 0 0 0 0 0.0453352 0.421766 
node 1 1 1 3
node 2 1 1 1
node 3 3 1 1
node 4 2 0 2
node 9 2 0 0
node 18 1 0 0
node 186 1 0 0
node 203 1 0 0
node 233 1 0 0
gene 2 1 4 -7.67197 0 1 -7.67197 1
gene 1 2 4 -4.14991 0 2 -4.14991 0
gene 2 3 4 -8 0 3 -8 1
gene 1 2 9 2.48161 0 12 2.48161 1
gene 1 9 4 8 0 13 8 1
gene 2 3 18 7.7161 0 37 7.7161 1
gene 2 18 4 -5.1015 0 38 -5.1015 1
gene 1 2 18 -6.2907 0 131 -6.2907 1
gene 2 3 9 -0.32815 0 167 -0.32815 0
gene 2 1 9 -8 0 572 -8 1
gene 1 2 186 2.94313 0 580 2.94313 1
gene 1 186 4 0.481429 0 581 0.481429 1
gene 1 9 203 1.07227 0 629 1.07227 1
gene 1 203 4 -2.13866 0 630 -2.13866 1
gene 1 2 233 -4.75266 0 733 -4.75266 1
gene 1 233 4 -6.45718 0 734 -6.45718 1
gene 2 9 186 0.724891 0 820 0.724891 1
gene 2 2 203 -0.0993377 0 829 -0.0993377 1
genomeend 13

/* Organism #14 Fitness: 8.91762 Error: 1.01376 */
genomestart 14
trait 1 0 0.947954 0 0 0 0 0.845393 0.695166 
trait 2 0.299049 0 0.117206 0 0 0.114399 0.491836 0.0604953 
trait 3 1 0 0 0 0 0 0.0453352 0.421766 
node 1 1 1 3
node 2 1 1 1
node 3 3 1 1
node 4 2 0 2
node 9 2 0 0
node 18 1 0 0
node 186 1 0 0
node 203 1 0 0
node 233 1 0 0
gene 2 1 4 -5.67842 0 1 -5.67842 1
gene 1 2 4 -3.73653 0 2 -3.73653 0
gene 2 3 4 -7.2214 0 3 -7.2214 1
gene 1 2 9 8 0 12 8 1
gene 1 9 4 6.87371 0 13 6.87371 1
gene 2 3 18 5.36915 0 37 5.36915 1
gene 2 18 4 -8 0 38 -8 1
gene 1 2 18 -5.8311 0 131 -5.8311 1
gene 2 3 9 -3.70357 0 167 -3.70357 0
gene 2 1 9 -8 0 572 -8 1
gene 1 2 186 0.638371 0 580 0.638371 1
gene 1 186 4 8 0 581 8 1
gene 1 9 203 -3.16538 0 629 -3.16538 1
gene 1 203 4 1.85522 0 630 1.85522 1
gene 1 2 233 -4.72306 0 733 -4.72306 1
gene 1 233 4 -5.17884 0 734 -5.17884 1
gene 2 9 186 3.45645 0 820 3.45645 1
gene 2 2 203 1.77755 0 829 1.77755 1
genomeend 14

/* Organism #15 Fitness: 8.9998 Error: 1.00003 */
genomestart 15
trait 1 0 0.947954 0 0 0 0 0.845393 0.695166 
trait 2 0.299049 0 0.117206 0 0 0.114399 0.491836 0.0604953 
trait 3 1 0 0 0 0 0 0.0453352 0.421766 
node 1 1 1 3
node 2 1 1 1
node 3 3 1 1
node 4 2 0 2
node 9 2 0 0
node 18 1 0 0
node 186 1 0 0
node 203 1 0 0
node 233 1 0 0
gene 2 1 4 -7.38105 0 1 -7.38105 1
gene 1 2 4 -3.8564 0 2 -3.8564 0
gene 2 3 4 -7.94148 0 3 -7.94148 1
gene 1 2 9 8 0 12 8 1
gene 1 9 4 5.65297 0 13 5.65297 1
gene 2 3 18 8 0 37 8 1
gene 2 18 4 -8 0 38 -8 1
gene 1 2 18 -4.79972 0 131 -4.79972 1
gene 2 3 9 -0.543611 0 167 -0.543611 0
gene 2 1 9 -7.85445 0 572 -7.85445 1
gene 1 2 186 1.39782 0 580 1.39782 1
gene 1 186 4 5.67624 0 581 5.67624 1
gene 1 9 203 0.0161748 0 629 0.0161748 1
gene 2 203 4 0.113529 0 630 0.113529 1
gene 1 2 233 -4.85032 0 733 -4.85032 1
gene 1 233 4 -3.2358 0 734 -3.2358 1
gene 2 9 186 2.34237 0 820 2.34237 1
gene 2 2 203 -1.06067 0 829 -1.06067 1
genomeend 15

/* Organism #16 Fitness: 4 Error: 2 */
genomestart 16
trait 1 0 0.947954 0 0 0 0 0.845393 0.695166 
trait 2 0.299049 0 0.117206 0 0 0.114399 0.491836 0.0604953 
trait 3 1 0 0 0 0 0 0.0453352 0.421766 
node 1 1 1 3
node 2 1 1 1
node 3 3 1 1
node 4 2 0 2
node 9 2 0 0
node 18 1 0 0
node 186 1 0 0
node 203 1 0 0
node 233 1 0 0
gene 2 1 4 -5.58656 0 1 -5.58656 1
gene 1 2 4 -0.00946074 0 2 -0.00946074 0
gene 2 3 4 -7.04073 0 3 -7.04073 1
gene 1 2 9 -1.48335 0 12 -1.48335 1
gene 1 9 4 0.169836 0 13 0.169836 1
gene 2 3 18 6.39045 0 37 6.39045 1
gene 2 18 4 -1.34709 0 38 -1.34709 1
gene 1 2 18 -3.82611 0 131 -3.82611 1
gene 2 3 9 -3.61133 0 167 -3.61133 0
gene 2 1 9 -2.05695 0 572 -2.05695 1
gene 1 2 186 -0.349742 0 580 -0.349742 1
gene 1 186 4 2.38029 0 581 2.38029 1
gene 1 9 203 -2.27752 0 629 -2.27752 1
gene 1 203 4 -0.312204 0 630 -0.312204 1
gene 1 2 233 -4.50157 0 733 -4.50157 1
gene 1 233 4 -6.73116 0 734 -6.73116 1
gene 2 9 186 2.25249 0 820 2.25249 1
gene 2 2 203 -0.119633 0 829 -0.119633 1
genomeend 16

/* Organism #17 Fitness: 9 Error: 1 */
genomestart 17
trait 1 0 0.947954 0 0 0 0 0.845393 0.695166 
trait 2 0.299049 0 0.117206 0 0 0.114399 0.491836 0.0604953 
trait 3 1 0 0 0 0 0 0.0453352 0.421766 
node 1 1 1 3
node 2 1 1 1
node 3 3 1 1
node 4 2 0 2
node 9 2 0 0
node 18 1 0 0
node 186 1 0 0
node 203 1 0 0
node 233 1 0 0
gene 2 1 4 -5.58656 0 1 -5.58656 1
gene 1 2 4 -1.88368 0 2 -1.88368 0
gene 2 3 4 -8 0 3 -8 1
gene 1 2 9 8 0 12 8 1
gene 1 9 4 8 0 13 8 1
gene 2 3 18 7.7161 0 37 7.7161 1
gene 2 18 4 -7.5513 0 38 -7.5513 1
gene 1 2 18 -5.04707 0 131 -5.04707 1
gene 2 3 9 -1.90382 0 167 -1.90382 0
gene 2 1 9 -7.83492 0 572 -7.83492 1
gene 1 2 186 0.666753 0 580 0.666753 1
gene 1 186 4 8 0 581 8 1
gene 1 9 203 -1.0625 0 629 -1.0625 1
gene 1 203 4 -0.312204 0 630 -0.312204 1
gene 1 2 233 -4.75266 0 733 -4.75266 1
gene 1 233 4 -5.17884 0 734 -5.17884 1
gene 2 9 186 2.34237 0 820 2.34237 1
gene 2 2 203 -0.0993377 0 829 -0.0993377 1
genomeend 17

/* Species #54 : (Size 11) (AF 8.27297) (Age 18)  */


/* Organism #18 Fitness: 9 Error: 1 */
genomestart 18
trait 1 0 0.947954 0 0 0 0 0.845393 0.695166 
trait 2 0.1 0 0.117206 0 0 0.114399 0.491836 0 
trait 3 1 0 0 0 0 0 0.0453352 0.421766 
node 1 1 1 3
node 2 1 1 1
node 3 3 1 1
node 4 2 0 2
node 9 2 0 0
node 18 1 0 0
node 186 1 0 0
node 203 1 0 0
node 233 1 0 0
gene 2 1 4 -4.999 0 1 -4.999 1
gene 1 2 4 -2.71897 0 2 -2.71897 0
gene 2 3 4 -7.41564 0 3 -7.41564 1
gene 1 2 9 5.43598 0 12 5.43598 1
gene 1 9 4 8 0 13 8 1
gene 2 3 18 8 0 37 8 1
gene 2 18 4 -8 0 38 -8 1
gene 1 2 18 -4.25676 0 131 -4.25676 1
gene 2 3 9 -1.07036 0 167 -1.07036 1
gene 2 1 9 -3.34749 0 572 -3.34749 1
gene 1 2 186 1.12152 0 580 1.12152 1
gene 1 186 4 6.98602 0 581 6.98602 1
gene 1 9 203 1.38301 0 629 1.38301 1
gene 1 203 4 -0.226066 0 630 -0.226066 1
gene 1 2 233 1.98544 0 733 1.98544 1
gene 1 233 4 -2.40604 0 734 -2.40604 1
gene 3 203 233 2.8455 0 817 2.8455 1
gene 3 3 233 -4.27657 0 833 -4.27657 1
genomeend 18

/* Organism #19 Fitness: 9 Error: 1 */
genomestart 19
trait 1 0.356914 1 0 0 0 0 0.404218 0.154897 
trait 2 0.1 0 0.117206 0 0 0.114399 0.491836 0 
trait 3 1 0 0 0 0 0 0.0453352 0.421766 
node 1 1 1 3
node 2 1 1 1
node 3 3 1 1
node 4 2 0 2
node 9 2 0 0
node 18 1 0 0
node 186 1 0 0
node 203 1 0 0
node 233 1 0 0
node 312 1 0 0
gene 2 1 4 -4.999 0 1 -4.999 1
gene 1 2 4 -2.71897 0 2 -2.71897 0
gene 2 3 4 -7.41564 0 3 -7.41564 1
gene 1 2 9 5.43598 0 12 5.43598 1
gene 1 9 4 8 0 13 8 1
gene 2 3 18 8 0 37 8 1
gene 2 18 4 -8 0 38 -8 1
gene 1 2 18 -4.25676 0 131 -4.25676 1
gene 2 3 9 -1.07036 0 167 -1.07036 0
gene 2 1 9 -3.34749 0 572 -3.34749 1
gene 1 2 186 1.12152 0 580 1.12152 1
gene 1 186 4 6.98602 0 581 6.98602 1
gene 1 9 203 1.38301 0 629 1.38301 1
gene 1 203 4 -0.226066 0 630 -0.226066 1
gene 1 2 233 1.98544 0 733 1.98544 1
gene 1 233 4 -2.40604 0 734 -2.40604 1
gene 3 203 233 2.8455 0 817 2.8455 1
gene 3 3 233 -4.27657 0 833 -4.27657 1
gene 2 3 312 1 0 1021 0 1
gene 2 312 9 -1.07036 0 1022 0 1
genomeend 19

/* Organism #20 Fitness: 8.9995 Error: 1.00008 */
genomestart 20
trait 1 0.178457 0.973977 0 0 0 0 0.624805 0.425031 
trait 2 0.759505 0.877224 0.263207 0 0 0.673559 0.339732 0 
trait 3 1 0 0 0 0 0 0.0453352 0.421766 
node 1 1 1 3
node 2 1 1 1
node 3 3 1 1
node 4 2 0 2
node 9 2 0 0
node 18 1 0 0
node 186 1 0 0
node 203 1 0 0
node 233 1 0 0
gene 2 1 4 -5.04738 0 1 -5.04738 1
gene 1 2 4 -3.69976 0 2 -3.69976 0
gene 2 3 4 -6.54334 0 3 -6.54334 1
gene 1 2 9 5.43598 0 12 5.43598 1
gene 1 9 4 6.21413 0 13 6.21413 1
gene 2 3 18 8 0 37 8 1
gene 2 18 4 -8 0 38 -8 1
gene 1 2 18 -3.23981 0 131 -3.23981 1
gene 2 3 9 -1.07036 0 167 -1.07036 0
gene 2 1 9 -1.44092 0 572 -1.44092 1
gene 1 2 186 0.733097 0 580 0.733097 1
gene 1 186 4 5.07244 0 581 5.07244 1
gene 1 9 203 0.222098 0 629 0.222098 1
gene 1 203 4 0.379574 0 630 0.379574 1
gene 1 2 233 4.1917 0 733 4.1917 1
gene 1 233 4 -4.48428 0 734 -4.48428 1
gene 3 203 233 3.89702 0 817 3.89702 1
gene 3 3 233 -6.15133 0 833 -6.15133 1
genomeend 20

/* Organism #21 Fitness: 9 Error: 1 */
genomestart 21
trait 1 0 0.947954 0 0 0 0 0.845393 0.695166 
trait 2 0.1 0 0.117206 0 0 0.114399 0.491836 0 
trait 3 1 0 0 0 0 0 0.0453352 0.421766 
node 1 1 1 3
node 2 1 1 1
node 3 3 1 1
node 4 2 0 2
node 9 2 0 0
node 18 1 0 0
node 186 1 0 0
node 203 1 0 0
node 233 1 0 0
gene 2 1 4 -4.999 0 1 -4.999 1
gene 1 2 4 -2.71897 0 2 -2.71897 0
gene 2 3 4 -7.41564 0 3 -7.41564 1
gene 1 2 9 5.43598 0 12 5.43598 1
gene 1 9 4 8 0 13 8 1
gene 2 3 18 8 0 37 8 1
gene 2 18 4 -8 0 38 -8 1
gene 1 2 18 -4.25676 0 131 -4.25676 1
gene 2 3 9 -1.07036 0 167 -1.07036 1
gene 2 1 9 -3.34749 0 572 -3.34749 1
gene 1 2 186 1.12152 0 580 1.12152 1
gene 1 186 4 6.98602 0 581 6.98602 1
gene 1 9 203 1.38301 0 629 1.38301 1
gene 1 203 4 -0.226066 0 630 -0.226066 1
gene 1 2 233 1.98544 0 733 1.98544 1
gene 1 233 4 -2.40604 0 734 -2.40604 1
gene 3 203 233 2.8455 0 817 2.8455 1
gene 3 3 233 -4.27657 0 833 -4.27657 1
gene 2 18 233 0.162511 0 1031 0.162511 1
genomeend 21

/* Organism #22 Fitness: 9 Error: 1 */
genomestart 22
trait 1 0 0.947954 0 0 0 0 0.845393 0.695166 
trait 2 0.1 0 0.117206 0 0 0.114399 0.491836 0 
trait 3 1 0 0 0 0 0 0.0453352 0.421766 
node 1 1 1 3
node 2 1 1 1
node 3 3 1 1
node 4 2 0 2
node 9 2 0 0
node 18 1 0 0
node 186 1 0 0
node 203 1 0 0
node 233 1 0 0
gene 2 1 4 -4.999 0 1 -4.999 1
gene 1 2 4 -2.71897 0 2 -2.71897 0
gene 2 3 4 -7.41564 0 3 -7.41564 1
gene 1 2 9 5.43598 0 12 5.43598 1
gene 1 9 4 8 0 13 8 1
gene 2 3 18 8 0 37 8 1
gene 2 18 4 -8 0 38 -8 1
gene 1 2 18 -4.25676 0 131 -4.25676 1
gene 2 3 9 -1.07036 0 167 -1.07036 1
gene 2 1 9 -3.34749 0 572 -3.34749 1
gene 1 2 186 1.12152 0 580 1.12152 1
gene 1 186 4 6.98602 0 581 6.98602 1
gene 1 9 203 1.38301 0 629 1.38301 1
gene 1 203 4 -0.226066 0 630 -0.226066 1
gene 1 2 233 1.98544 0 733 1.98544 1
gene 1 233 4 -2.40604 0 734 -2.40604 1
gene 3 203 233 2.8455 0 817 2.8455 1
gene 3 3 233 -4.27657 0 833 -4.27657 1
genomeend 22

/* Organism #23 Fitness: 9 Error: 1 */
genomestart 23
trait 1 0 0.947954 0 0 0 0 0.845393 0.695166 
trait 2 0.1 0 0.117206 0 0 0.114399 0.491836 0 
trait 3 1 0 0 0 0 0 0.0453352 0.421766 
node 1 1 1 3
node 2 1 1 1
node 3 3 1 1
node 4 2 0 2
node 9 2 0 0
node 18 1 0 0
node 186 1 0 0
node 203 1 0 0
node 233 1 0 0
gene 2 1 4 -4.999 0 1 -4.999 1
gene 1 2 4 -2.71897 0 2 -2.71897 0
gene 2 3 4 -7.41564 0 3 -7.41564 1
gene 1 2 9 5.43598 0 12 5.43598 1
gene 1 9 4 8 0 13 8 1
gene 2 3 18 8 0 37 8 1
gene 2 18 4 -8 0 38 -8 1
gene 1 2 18 -4.25676 0 131 -4.25676 1
gene 2 3 9 -1.07036 0 167 -1.07036 1
gene 2 1 9 -3.34749 0 572 -3.34749 1
gene 1 2 186 1.12152 0 580 1.12152 1
gene 1 186 4 6.98602 0 581 6.98602 1
gene 1 9 203 1.38301 0 629 1.38301 1
gene 1 203 4 -0.226066 0 630 -0.226066 1
gene 1 2 233 1.98544 0 733 1.98544 1
gene 1 233 4 -2.40604 0 734 -2.40604 1
gene 3 203 233 2.8455 0 817 2.8455 1
gene 3 3 233 -4.27657 0 833 -4.27657 1
gene 1 1 233 0.726371 0 1032 0.726371 1
genomeend 23

/* Organism #24 Fitness: 9 Error: 1 */
genomestart 24
trait 1 0.356914 1 0 0 0 0 0.404218 0.154897 
trait 2 0.1 0 0.117206 0 0 0.114399 0.491836 0 
trait 3 1 0 0 0 0 0 0.0453352 0.421766 
node 1 1 1 3
node 2 1 1 1
node 3 3 1 1
node 4 2 0 2
node 9 2 0 0
node 18 1 0 0
node 186 1 0 0
node 203 1 0 0
node 233 1 0 0
node 312 1 0 0
gene 2 1 4 -2.55829 0 1 -2.55829 1
gene 1 2 4 -4.0463 0 2 -4.0463 0
gene 2 3 4 -7.75264 0 3 -7.75264 1
gene 1 2 9 5.34938 0 12 5.34938 1
gene 1 9 4 7.26878 0 13 7.26878 1
gene 2 3 18 8 0 37 8 1
gene 2 18 4 -8 0 38 -8 1
gene 1 2 18 -1.90073 0 131 -1.90073 1
gene 2 3 9 -2.31735 0 167 -2.31735 0
gene 2 1 9 -1.36035 0 572 -1.36035 1
gene 1 2 186 -1.13906 0 580 -1.13906 1
gene 1 186 4 6.4579 0 581 6.4579 1
gene 1 9 203 1.84896 0 629 1.84896 1
gene 1 203 4 1.43078 0 630 1.43078 1
gene 1 2 233 3.91437 0 733 3.91437 1
gene 1 233 4 -1.9266 0 734 -1.9266 1
gene 3 203 233 5.02139 0 817 5.02139 1
gene 3 3 233 -5.56369 0 833 -5.56369 1
gene 2 3 312 1 0 1021 1 1
gene 2 312 9 -0.763649 0 1022 -0.763649 1
genomeend 24

/* Organism #25 Fitness: 1.00312 Error: 2.99844 */
genomestart 25
trait 1 0.356914 1 0 0 0 0 0.404218 0.154897 
trait 2 0.1 0 0.117206 0 0 0.114399 0.491836 0 
trait 3 1 0 0 0 0 0 0.0453352 0.421766 
node 1 1 1 3
node 2 1 1 1
node 3 3 1 1
node 4 2 0 2
node 9 2 0 0
node 18 1 0 0
node 186 1 0 0
node 203 1 0 0
node 233 1 0 0
node 312 1 0 0
gene 2 1 4 -3.16942 0 1 -3.16942 1
gene 1 2 4 -0.341884 0 2 -0.341884 0
gene 2 3 4 -8 0 3 -8 1
gene 1 2 9 5.56187 0 12 5.56187 1
gene 1 9 4 8 0 13 8 1
gene 2 3 18 8 0 37 8 1
gene 2 18 4 2.19771 0 38 2.19771 1
gene 1 2 18 -2.73564 0 131 -2.73564 1
gene 2 3 9 0.712607 0 167 0.712607 0
gene 2 1 9 -3.34161 0 572 -3.34161 1
gene 1 2 186 0.0014153 0 580 0.0014153 1
gene 1 186 4 6.51726 0 581 6.51726 1
gene 1 9 203 0.820711 0 629 0.820711 1
gene 1 203 4 0.137867 0 630 0.137867 1
gene 1 2 233 1.98544 0 733 1.98544 1
gene 1 233 4 0.0622959 0 734 0.0622959 1
gene 3 203 233 0.874691 0 817 0.874691 1
gene 3 3 233 -2.0678 0 833 -2.0678 1
gene 2 3 312 -1.32597 0 1021 -1.32597 1
gene 2 312 9 -2.55768 0 1022 -2.55768 1
genomeend 25

/* Organism #26 Fitness: 9 Error: 1 */
genomestart 26
trait 1 0.178457 0.973977 0 0 0 0 0.624805 0.425031 
trait 2 0.1 0 0.117206 0 0 0.114399 0.491836 0 
trait 3 1 0 0 0 0 0 0.0453352 0.421766 
node 1 1 1 3
node 2 1 1 1
node 3 3 1 1
node 4 2 0 2
node 9 2 0 0
node 18 1 0 0
node 186 1 0 0
node 203 1 0 0
node 233 1 0 0
gene 2 1 4 -4.999 0 1 -4.999 1
gene 1 2 4 -2.71897 0 2 -2.71897 0
gene 2 3 4 -7.41564 0 3 -7.41564 1
gene 1 2 9 5.43598 0 12 5.43598 1
gene 1 9 4 8 0 13 8 1
gene 2 3 18 8 0 37 8 1
gene 2 18 4 -8 0 38 -8 1
gene 1 2 18 -4.25676 0 131 -4.25676 1
gene 2 3 9 -1.07036 0 167 -1.07036 1
gene 2 1 9 -3.34749 0 572 -3.34749 1
gene 1 2 186 1.12152 0 580 1.12152 1
gene 1 186 4 6.98602 0 581 6.98602 1
gene 1 9 203 1.38301 0 629 1.38301 1
gene 1 203 4 -0.226066 0 630 -0.226066 1
gene 1 2 233 1.98544 0 733 1.98544 1
gene 1 233 4 -2.40604 0 734 -2.40604 1
gene 3 203 233 2.8455 0 817 2.8455 1
gene 3 3 233 -4.27657 0 833 -4.27657 1
genomeend 26

/* Organism #27 Fitness: 9 Error: 1 */
genomestart 27
trait 1 0 0.947954 0 0 0 0 0.845393 0.695166 
trait 2 0.1 0 0.117206 0 0 0.114399 0.491836 0 
trait 3 1 0 0 0 0 0 0.0453352 0.421766 
node 1 1 1 3
node 2 1 1 1
node 3 3 1 1
node 4 2 0 2
node 9 2 0 0
node 18 1 0 0
node 186 1 0 0
node 203 1 0 0
node 233 1 0 0
node 314 1 0 0
gene 2 1 4 -4.999 0 1 -4.999 1
gene 1 2 4 -2.71897 0 2 -2.71897 0
gene 2 3 4 -7.41564 0 3 -7.41564 1
gene 1 2 9 5.43598 0 12 5.43598 0
gene 1 9 4 8 0 13 8 1
gene 2 3 18 8 0 37 8 1
gene 2 18 4 -8 0 38 -8 1
gene 1 2 18 -4.25676 0 131 -4.25676 1
gene 2 3 9 -1.07036 0 167 -1.07036 1
gene 2 1 9 -3.34749 0 572 -3.34749 1
gene 1 2 186 1.12152 0 580 1.12152 1
gene 1 186 4 6.98602 0 581 6.98602 1
gene 1 9 203 1.38301 0 629 1.38301 1
gene 1 203 4 -0.226066 0 630 -0.226066 1
gene 1 2 233 1.98544 0 733 1.98544 1
gene 1 233 4 -2.40604 0 734 -2.40604 1
gene 3 203 233 2.8455 0 817 2.8455 1
gene 3 3 233 -4.27657 0 833 -4.27657 1
gene 1 2 314 1 0 1033 0 1
gene 1 314 9 5.43598 0 1034 0 1
genomeend 27

/* Organism #28 Fitness: 9 Error: 1 */
genomestart 28
trait 1 0.178457 0.973977 0 0 0 0 0.624805 0.425031 
trait 2 0.1 0 0.117206 0 0 0.114399 0.491836 0 
trait 3 1 0 0 0 0 0 0.0453352 0.421766 
node 1 1 1 3
node 2 1 1 1
node 3 3 1 1
node 4 2 0 2
node 9 2 0 0
node 18 1 0 0
node 186 1 0 0
node 203 1 0 0
node 233 1 0 0
gene 2 1 4 -4.999 0 1 -4.999 1
gene 1 2 4 -2.71897 0 2 -2.71897 1
gene 2 3 4 -7.41564 0 3 -7.41564 1
gene 1 2 9 5.43598 0 12 5.43598 1
gene 1 9 4 8 0 13 8 1
gene 2 3 18 8 0 37 8 1
gene 2 18 4 -8 0 38 -8 1
gene 1 2 18 -4.25676 0 131 -4.25676 1
gene 2 3 9 -1.07036 0 167 -1.07036 0
gene 2 1 9 -3.34749 0 572 -3.34749 1
gene 1 2 186 1.12152 0 580 1.12152 1
gene 1 186 4 6.98602 0 581 6.98602 1
gene 1 9 203 1.38301 0 629 1.38301 1
gene 1 203 4 -0.226066 0 630 -0.226066 1
gene 1 2 233 1.98544 0 733 1.98544 1
gene 1 233 4 -2.40604 0 734 -2.40604 1
gene 3 203 233 2.8455 0 817 2.8455 1
gene 3 3 233 -4.27657 0 833 -4.27657 1
genomeend 28

/* Species #59 : (Size 10) (AF 7.48624) (Age 18)  */


/* Organism #29 Fitness: 9 Error: 1 */
genomestart 29
trait 1 0 0.622322 0 0.392834 0 0.135914 0.845393 0.347583 
trait 2 0.2 0 0 0.415387 0.966033 0 0.819452 0 
trait 3 1 0 0 0 0 0 0.0453352 0.421766 
node 1 1 1 3
node 2 1 1 1
node 3 3 1 1
node 4 2 0 2
node 9 2 0 0
node 18 1 0 0
node 186 2 0 0
node 209 1 0 0
gene 2 1 4 -3.18194 0 1 -3.18194 1
gene 1 2 4 1.14872 0 2 1.14872 1
gene 2 3 4 -8 0 3 -8 1
gene 1 2 9 7.19218 0 12 7.19218 1
gene 1 9 4 8 0 13 8 1
gene 2 3 18 7.70283 0 37 7.70283 1
gene 2 18 4 -0.845851 0 38 -0.845851 1
gene 1 2 18 -5.17014 0 131 -5.17014 1
gene 2 3 9 -2.8036 0 167 -2.8036 1
gene 2 1 9 -3.59123 0 572 -3.59123 1
gene 1 2 186 -0.969275 0 580 -0.969275 1
gene 1 186 4 -3.24454 0 581 -3.24454 1
gene 2 3 209 5.32722 0 648 5.32722 1
gene 2 209 4 0.630055 0 649 0.630055 1
gene 1 18 9 -1.38791 0 720 -1.38791 1
gene 1 186 9 -2.15522 0 809 -2.15522 1
genomeend 29

/* Organism #30 Fitness: 9 Error: 1 */
genomestart 30
trait 1 0 0.622322 0 0.392834 0 0.135914 0.845393 0.347583 
trait 2 0.2 0 0 0.415387 0.966033 0 0.819452 0 
trait 3 1 0 0 0 0 0 0.0453352 0.421766 
node 1 1 1 3
node 2 1 1 1
node 3 3 1 1
node 4 2 0 2
node 9 2 0 0
node 18 1 0 0
node 186 2 0 0
node 209 1 0 0
gene 2 1 4 -3.18194 0 1 -3.18194 1
gene 1 2 4 1.14872 0 2 1.14872 1
gene 2 3 4 -8 0 3 -8 1
gene 1 2 9 7.19218 0 12 7.19218 1
gene 1 9 4 8 0 13 8 1
gene 2 3 18 7.70283 0 37 7.70283 1
gene 2 18 4 -0.845851 0 38 -0.845851 1
gene 1 2 18 -5.17014 0 131 -5.17014 1
gene 2 3 9 -2.8036 0 167 -2.8036 1
gene 2 1 9 -3.59123 0 572 -3.59123 1
gene 1 2 186 -0.969275 0 580 -0.969275 1
gene 1 186 4 -3.24454 0 581 -3.24454 1
gene 2 3 209 5.32722 0 648 5.32722 1
gene 2 209 4 0.630055 0 649 0.630055 1
gene 1 18 9 -1.38791 0 720 -1.38791 1
gene 1 186 9 -2.15522 0 809 -2.15522 1
gene 2 18 186 0.495834 0 1035 0.495834 1
genomeend 30

/* Organism #31 Fitness: 9 Error: 1 */
genomestart 31
trait 1 0 0.622322 0 0.392834 0 0.135914 0.845393 0.347583 
trait 2 0.2 0 0 0.311541 0.724525 0 0.614589 0 
trait 3 1 0 0 0 0 0 0.0453352 0.421766 
node 1 1 1 3
node 2 1 1 1
node 3 3 1 1
node 4 2 0 2
node 9 2 0 0
node 18 1 0 0
node 186 2 0 0
node 209 1 0 0
gene 2 1 4 -2.99261 0 1 -2.99261 1
gene 1 2 4 1.67014 0 2 1.67014 1
gene 2 3 4 -7.85506 0 3 -7.85506 1
gene 1 2 9 7.13828 0 12 7.13828 1
gene 1 9 4 7.74436 0 13 7.74436 1
gene 2 3 18 7.50905 0 37 7.50905 1
gene 2 18 4 -1.10593 0 38 -1.10593 1
gene 1 2 18 -4.90699 0 131 -4.90699 1
gene 2 3 9 -2.48466 0 167 -2.48466 1
gene 2 1 9 -3.35002 0 572 -3.35002 1
gene 1 2 186 -0.258461 0 580 -0.258461 1
gene 1 186 4 -3.30231 0 581 -3.30231 1
gene 2 3 209 5.57659 0 648 5.57659 1
gene 2 209 4 0.633393 0 649 0.633393 1
gene 1 18 9 -0.790735 0 720 -0.790735 1
gene 1 186 9 -2.15522 0 809 -2.15522 1
genomeend 31

/* Organism #32 Fitness: 4.00002 Error: 1.99999 */
genomestart 32
trait 1 0 0.622322 0 0.392834 0 0.135914 0.845393 0.347583 
trait 2 0.2 0 0 0.415387 0.966033 0 0.819452 0 
trait 3 1 0 0 0 0 0 0.0453352 0.421766 
node 1 1 1 3
node 2 1 1 1
node 3 3 1 1
node 4 2 0 2
node 9 2 0 0
node 18 1 0 0
node 186 2 0 0
node 209 1 0 0
gene 2 1 4 -1.34426 0 1 -1.34426 1
gene 1 2 4 1.14872 0 2 1.14872 1
gene 2 3 4 -8 0 3 -8 1
gene 1 2 9 -1.23066 0 12 -1.23066 1
gene 1 9 4 7.1274 0 13 7.1274 1
gene 2 3 18 8 0 37 8 1
gene 2 18 4 -0.845851 0 38 -0.845851 1
gene 1 2 18 2.30155 0 131 2.30155 1
gene 2 3 9 -4.61388 0 167 -4.61388 1
gene 2 1 9 -1.82245 0 572 -1.82245 1
gene 1 2 186 -0.0508209 0 580 -0.0508209 1
gene 1 186 4 -3.74458 0 581 -3.74458 1
gene 2 3 209 5.32722 0 648 5.32722 1
gene 2 209 4 0.425047 0 649 0.425047 1
gene 1 18 9 -2.03993 0 720 -2.03993 1
gene 1 186 9 -4.07804 0 809 -4.07804 1
genomeend 32

/* Organism #33 Fitness: 9 Error: 1 */
genomestart 33
trait 1 0 0.622322 0 0.392834 0 0.135914 0.845393 0.347583 
trait 2 0.2 0 0 0.311541 0.724525 0 0.614589 0 
trait 3 1 0 0 0 0 0 0.0453352 0.421766 
node 1 1 1 3
node 2 1 1 1
node 3 3 1 1
node 4 2 0 2
node 9 2 0 0
node 18 1 0 0
node 186 2 0 0
node 209 1 0 0
node 315 1 0 0
gene 2 1 4 -2.99261 0 1 -2.99261 1
gene 1 2 4 1.67014 0 2 1.67014 1
gene 2 3 4 -7.85506 0 3 -7.85506 1
gene 1 2 9 7.13828 0 12 7.13828 1
gene 1 9 4 7.74436 0 13 7.74436 1
gene 2 3 18 7.50905 0 37 7.50905 1
gene 2 18 4 -1.10593 0 38 -1.10593 1
gene 1 2 18 -4.90699 0 131 -4.90699 1
gene 2 3 9 -2.48466 0 167 -2.48466 1
gene 2 1 9 -3.35002 0 572 -3.35002 1
gene 1 2 186 -0.258461 0 580 -0.258461 0
gene 1 186 4 -3.30231 0 581 -3.30231 1
gene 2 3 209 5.57659 0 648 5.57659 1
gene 2 209 4 0.633393 0 649 0.633393 1
gene 1 18 9 -0.790735 0 720 -0.790735 1
gene 1 186 9 -2.15522 0 809 -2.15522 1
gene 1 2 315 1 0 1036 0 1
gene 1 315 186 -0.258461 0 1037 0 1
genomeend 33

/* Organism #34 Fitness: 9 Error: 1 */
genomestart 34
trait 1 0 0.622322 0 0.392834 0 0.135914 0.845393 0.347583 
trait 2 0.2 0 0 0.311541 0.724525 0 0.614589 0 
trait 3 1 0 0 0 0 0 0.0453352 0.421766 
node 1 1 1 3
node 2 1 1 1
node 3 3 1 1
node 4 2 0 2
node 9 2 0 0
node 18 1 0 0
node 186 2 0 0
node 209 1 0 0
gene 2 1 4 -2.99261 0 1 -2.99261 1
gene 1 2 4 1.67014 0 2 1.67014 1
gene 2 3 4 -7.85506 0 3 -7.85506 1
gene 1 2 9 7.13828 0 12 7.13828 1
gene 1 9 4 7.74436 0 13 7.74436 1
gene 2 3 18 7.50905 0 37 7.50905 1
gene 2 18 4 -1.10593 0 38 -1.10593 1
gene 1 2 18 -4.90699 0 131 -4.90699 1
gene 2 3 9 -2.48466 0 167 -2.48466 1
gene 2 1 9 -3.35002 0 572 -3.35002 1
gene 1 2 186 -0.258461 0 580 -0.258461 1
gene 1 186 4 -3.30231 0 581 -3.30231 1
gene 2 3 209 5.57659 0 648 5.57659 1
gene 2 209 4 0.633393 0 649 0.633393 1
gene 1 18 9 -0.790735 0 720 -0.790735 1
gene 1 186 9 -2.15522 0 809 -2.15522 1
genomeend 34

/* Organism #35 Fitness: 3.93312 Error: 2.01679 */
genomestart 35
trait 1 0 0.622322 0 0.392834 0 0.135914 0.845393 0.347583 
trait 2 0.2 0 0 0.207694 0.483016 0 0.409726 0 
trait 3 1 0 0 0 0 0 0.0453352 0.421766 
node 1 1 1 3
node 2 1 1 1
node 3 3 1 1
node 4 2 0 2
node 9 2 0 0
node 18 1 0 0
node 186 2 0 0
node 209 1 0 0
gene 2 1 4 1.14345 0 1 1.14345 1
gene 1 2 4 3.71361 0 2 3.71361 1
gene 2 3 4 -6.36104 0 3 -6.36104 1
gene 1 2 9 4.66351 0 12 4.66351 1
gene 1 9 4 6.53769 0 13 6.53769 1
gene 2 3 18 -0.0366222 0 37 -0.0366222 1
gene 2 18 4 -2.14933 0 38 -2.14933 1
gene 1 2 18 -2.19497 0 131 -2.19497 1
gene 2 3 9 -1.97353 0 167 -1.97353 1
gene 2 1 9 -2.53819 0 572 -2.53819 1
gene 1 2 186 -0.856433 0 580 -0.856433 1
gene 1 186 4 -3.36009 0 581 -3.36009 1
gene 2 3 209 5.82597 0 648 5.82597 1
gene 2 209 4 1.56934 0 649 1.56934 1
gene 1 18 9 1.83439 0 720 1.83439 1
gene 1 186 9 -1.45077 0 809 -1.45077 1
genomeend 35

/* Organism #36 Fitness: 3.92922 Error: 2.01777 */
genomestart 36
trait 1 0 0.622322 0 0.392834 0 0.135914 0.845393 0.347583 
trait 2 0.2 0 0 0.311541 0.724525 0 0.614589 0 
trait 3 1 0 0 0 0 0 0.0453352 0.421766 
node 1 1 1 3
node 2 1 1 1
node 3 3 1 1
node 4 2 0 2
node 9 2 0 0
node 18 1 0 0
node 186 2 0 0
node 209 1 0 0
gene 2 1 4 1.20731 0 1 1.20731 1
gene 1 2 4 -0.817038 0 2 -0.817038 1
gene 2 3 4 -6.27694 0 3 -6.27694 1
gene 1 2 9 1.0667 0 12 1.0667 1
gene 1 9 4 5.47317 0 13 5.47317 1
gene 2 3 18 8 0 37 8 1
gene 2 18 4 -3.38963 0 38 -3.38963 1
gene 1 2 18 -4.90699 0 131 -4.90699 1
gene 2 3 9 -2.6062 0 167 -2.6062 1
gene 2 1 9 -2.88568 0 572 -2.88568 1
gene 1 2 186 -2.68163 0 580 -2.68163 1
gene 1 186 4 2.13393 0 581 2.13393 1
gene 2 3 209 5.57659 0 648 5.57659 1
gene 2 209 4 0.633393 0 649 0.633393 1
gene 1 18 9 -1.17145 0 720 -1.17145 1
gene 1 186 9 -0.624714 0 809 -0.624714 1
genomeend 36

/* Organism #37 Fitness: 9 Error: 1 */
genomestart 37
trait 1 0 0.622322 0 0.392834 0 0.135914 0.845393 0.347583 
trait 2 0.2 0 0 0.415387 0.966033 0 0.819452 0 
trait 3 1 0 0 0 0 0 0.0453352 0.421766 
node 1 1 1 3
node 2 1 1 1
node 3 3 1 1
node 4 2 0 2
node 9 2 0 0
node 18 1 0 0
node 186 2 0 0
node 209 1 0 0
gene 2 1 4 -3.18194 0 1 -3.18194 1
gene 1 2 4 1.14872 0 2 1.14872 1
gene 2 3 4 -8 0 3 -8 1
gene 1 2 9 7.19218 0 12 7.19218 1
gene 1 9 4 8 0 13 8 1
gene 2 3 18 7.70283 0 37 7.70283 1
gene 2 18 4 -0.845851 0 38 -0.845851 1
gene 1 2 18 -5.17014 0 131 -5.17014 1
gene 2 3 9 -2.8036 0 167 -2.8036 1
gene 2 1 9 -3.59123 0 572 -3.59123 1
gene 1 2 186 -0.969275 0 580 -0.969275 1
gene 1 186 4 -3.24454 0 581 -3.24454 1
gene 2 3 209 5.32722 0 648 5.32722 1
gene 2 209 4 0.630055 0 649 0.630055 1
gene 1 18 9 -1.38791 0 720 -1.38791 1
gene 1 186 9 -2.15522 0 809 -2.15522 1
gene 2 2 209 0.738151 0 1038 0.738151 1
genomeend 37

/* Organism #38 Fitness: 9 Error: 1 */
genomestart 38
trait 1 0 0.622322 0 0.392834 0 0.135914 0.845393 0.347583 
trait 2 0.2 0 0 0.415387 0.966033 0 0.819452 0 
trait 3 1 0 0 0 0 0 0.0453352 0.421766 
node 1 1 1 3
node 2 1 1 1
node 3 3 1 1
node 4 2 0 2
node 9 2 0 0
node 18 1 0 0
node 186 2 0 0
node 209 1 0 0
gene 2 1 4 -2.51381 0 1 -2.51381 1
gene 1 2 4 1.73582 0 2 1.73582 1
gene 2 3 4 -8 0 3 -8 1
gene 1 2 9 7.13396 0 12 7.13396 1
gene 1 9 4 6.79177 0 13 6.79177 1
gene 2 3 18 6.32446 0 37 6.32446 1
gene 2 18 4 -2.65903 0 38 -2.65903 1
gene 1 2 18 -5.57283 0 131 -5.57283 1
gene 2 3 9 -4.63166 0 167 -4.63166 1
gene 2 1 9 -4.19313 0 572 -4.19313 1
gene 1 2 186 -2.11601 0 580 -2.11601 1
gene 1 186 4 -3.54225 0 581 -3.54225 1
gene 2 3 209 6.70215 0 648 6.70215 1
gene 2 209 4 0.630055 0 649 0.630055 1
gene 1 18 9 -1.38791 0 720 -1.38791 1
gene 1 186 9 0.256966 0 809 0.256966 1
genomeend 38

/* Species #61 : (Size 12) (AF 6.71238) (Age 16)  */


/* Organism #39 Fitness: 9 Error: 1 */
genomestart 39
trait 1 0 0.947954 0 0 0 0 0.845393 0.695166 
trait 2 0.1 0 0.117206 0 0 0.114399 0.491836 0 
trait 3 1 0 0 0 0 0 0.0453352 0.421766 
node 1 1 1 3
node 2 1 1 1
node 3 3 1 1
node 4 2 0 2
node 9 2 0 0
node 18 1 0 0
node 186 1 0 0
node 203 1 0 0
node 233 1 0 0
node 265 1 0 0
gene 2 1 4 -4.50995 0 1 -4.50995 1
gene 1 2 4 -0.984565 0 2 -0.984565 0
gene 2 3 4 -8 0 3 -8 1
gene 1 2 9 6.91575 0 12 6.91575 1
gene 1 9 4 7.94013 0 13 7.94013 1
gene 2 3 18 7.44571 0 37 7.44571 1
gene 2 18 4 -8 0 38 -8 1
gene 1 2 18 -4.2967 0 131 -4.2967 1
gene 2 3 9 2.69158 0 167 2.69158 1
gene 2 1 9 -2.65375 0 572 -2.65375 1
gene 1 2 186 0.0671064 0 580 0.0671064 1
gene 1 186 4 6.62011 0 581 6.62011 1
gene 1 9 203 2.93503 0 629 2.93503 1
gene 1 203 4 1.34072 0 630 1.34072 1
gene 1 2 233 -2.90507 0 733 -2.90507 1
gene 1 233 4 -5.89755 0 734 -5.89755 1
gene 3 233 203 -0.214965 0 814 -0.214965 1
gene 2 203 18 0.265275 0 830 0.265275 1
gene 3 233 9 -0.939268 0 849 -0.939268 1
gene 2 3 265 2.07814 0 857 2.07814 1
gene 2 265 9 0.224845 0 858 0.224845 1
genomeend 39

/* Organism #40 Fitness: 3.96787 Error: 2.00805 */
genomestart 40
trait 1 0 0.947954 0 0 0 0 0.845393 0.695166 
trait 2 0.1 0 0.117206 0 0 0.114399 0.491836 0 
trait 3 1 0 0 0 0 0 0.0396683 0.449347 
node 1 1 1 3
node 2 3 1 1
node 3 3 1 1
node 4 2 0 2
node 9 2 0 0
node 18 1 0 0
node 186 1 0 0
node 203 1 0 0
node 233 1 0 0
node 265 1 0 0
gene 2 1 4 -3.44523 0 1 -3.44523 1
gene 1 2 4 -1.09611 0 2 -1.09611 0
gene 2 3 4 -7.32363 0 3 -7.32363 1
gene 1 2 9 7.38413 0 12 7.38413 1
gene 1 9 4 7.62365 0 13 7.62365 1
gene 2 3 18 6.24038 0 37 6.24038 1
gene 2 18 4 -5.76147 0 38 -5.76147 1
gene 1 2 18 -5.82789 0 131 -5.82789 1
gene 2 3 9 -0.728477 0 167 -0.728477 1
gene 2 1 9 -3.37086 0 572 -3.37086 1
gene 1 2 186 3.63991 0 580 3.63991 1
gene 1 186 4 3.75678 0 581 3.75678 1
gene 1 9 203 2.68195 0 629 2.68195 1
gene 1 203 4 3.0155 0 630 3.0155 1
gene 1 2 233 -2.27891 0 733 -2.27891 1
gene 1 233 4 -4.78042 0 734 -4.78042 1
gene 3 233 203 1.79308 0 814 1.79308 1
gene 2 203 18 -2.53098 0 830 -2.53098 1
gene 3 233 9 -3.01704 0 849 -3.01704 1
gene 2 3 265 -0.852535 0 857 -0.852535 1
gene 2 265 9 -2.00743 0 858 -2.00743 1
genomeend 40

/* Organism #41 Fitness: 9 Error: 1 */
genomestart 41
trait 1 0 0.947954 0 0 0 0 0.845393 0.695166 
trait 2 0.1 0 0.117206 0 0 0.114399 0.491836 0 
trait 3 1 0 0 0 0 0 0.0425018 0.435556 
node 1 1 1 3
node 2 3 1 1
node 3 3 1 1
node 4 2 0 2
node 9 2 0 0
node 18 1 0 0
node 186 1 0 0
node 203 1 0 0
node 233 1 0 0
node 265 1 0 0
gene 2 1 4 -4.50995 0 1 -4.50995 1
gene 1 2 4 -0.984565 0 2 -0.984565 0
gene 2 3 4 -8 0 3 -8 1
gene 1 2 9 7.45234 0 12 7.45234 1
gene 1 9 4 7.94013 0 13 7.94013 1
gene 2 3 18 7.21438 0 37 7.21438 1
gene 2 18 4 -8 0 38 -8 1
gene 1 2 18 -4.2967 0 131 -4.2967 1
gene 2 3 9 2.69158 0 167 2.69158 1
gene 2 1 9 -4.12383 0 572 -4.12383 1
gene 1 2 186 2.21958 0 580 2.21958 1
gene 1 186 4 6.62011 0 581 6.62011 1
gene 1 9 203 2.93503 0 629 2.93503 1
gene 1 203 4 1.34072 0 630 1.34072 1
gene 1 2 233 -2.90507 0 733 -2.90507 1
gene 1 233 4 -5.89755 0 734 -5.89755 1
gene 3 233 203 -0.214965 0 814 -0.214965 1
gene 2 203 18 0.265275 0 830 0.265275 1
gene 3 233 9 -0.939268 0 849 -0.939268 1
gene 2 3 265 2.07814 0 857 2.07814 1
gene 2 265 9 -2.00743 0 858 -2.00743 1
genomeend 41

/* Organism #42 Fitness: 5.35916 Error: 1.68501 */
genomestart 42
trait 1 0 0.947954 0 0 0 0 0.845393 0.695166 
trait 2 0.1 0 0.117206 0 0 0.114399 0.491836 0 
trait 3 1 0 0 0 0 0 0.0425018 0.435556 
node 1 1 1 3
node 2 3 1 1
node 3 3 1 1
node 4 2 0 2
node 9 2 0 0
node 18 1 0 0
node 186 1 0 0
node 203 1 0 0
node 233 1 0 0
node 265 1 0 0
gene 2 1 4 2.46086 0 1 2.46086 1
gene 1 2 4 -1.26148 0 2 -1.26148 0
gene 2 3 4 -7.05095 0 3 -7.05095 1
gene 1 2 9 8 0 12 8 1
gene 1 9 4 1.81303 0 13 1.81303 1
gene 2 3 18 -0.541322 0 37 -0.541322 1
gene 2 18 4 -0.98796 0 38 -0.98796 1
gene 1 2 18 -3.23366 0 131 -3.23366 1
gene 2 3 9 2.69158 0 167 2.69158 1
gene 2 1 9 -2.07642 0 572 -2.07642 1
gene 1 2 186 -0.836089 0 580 -0.836089 1
gene 1 186 4 5.54769 0 581 5.54769 1
gene 1 9 203 3.07976 0 629 3.07976 1
gene 1 203 4 1.57991 0 630 1.57991 1
gene 1 2 233 -3.83047 0 733 -3.83047 1
gene 1 233 4 -3.44729 0 734 -3.44729 1
gene 3 233 203 1.75832 0 814 1.75832 1
gene 2 203 18 -0.472198 0 830 -0.472198 1
gene 3 233 9 -0.665151 0 849 -0.665151 1
gene 2 3 265 1.29183 0 857 1.29183 1
gene 2 265 9 1.62358 0 858 1.62358 1
genomeend 42

/* Organism #43 Fitness: 3.26287 Error: 2.19366 */
genomestart 43
trait 1 0 0.947954 0 0 0 0 0.845393 0.695166 
trait 2 0.1 0 0.117206 0 0 0.114399 0.491836 0 
trait 3 1 0 0 0 0 0 0.0425018 0.435556 
node 1 1 1 3
node 2 1 1 1
node 3 3 1 1
node 4 2 0 2
node 9 2 0 0
node 18 1 0 0
node 186 1 0 0
node 203 1 0 0
node 233 1 0 0
node 265 1 0 0
gene 2 1 4 2.45781 0 1 2.45781 1
gene 1 2 4 0.308084 0 2 0.308084 0
gene 2 3 4 -1.10668 0 3 -1.10668 1
gene 1 2 9 5.53414 0 12 5.53414 1
gene 1 9 4 8 0 13 8 1
gene 2 3 18 6.6539 0 37 6.6539 1
gene 2 18 4 -0.124058 0 38 -0.124058 1
gene 1 2 18 -6.71854 0 131 -6.71854 1
gene 2 3 9 1.62496 0 167 1.62496 1
gene 2 1 9 -3.26229 0 572 -3.26229 1
gene 1 2 186 1.97451 0 580 1.97451 1
gene 1 186 4 0.89053 0 581 0.89053 1
gene 1 9 203 2.04183 0 629 2.04183 1
gene 1 203 4 -0.577105 0 630 -0.577105 1
gene 1 2 233 -1.55512 0 733 -1.55512 1
gene 1 233 4 -5.78169 0 734 -5.78169 1
gene 3 233 203 -0.36565 0 814 -0.36565 1
gene 2 203 18 1.86117 0 830 1.86117 1
gene 3 233 9 2.30903 0 849 2.30903 1
gene 2 3 265 -2.06984 0 857 -2.06984 1
gene 2 265 9 1.00452 0 858 1.00452 1
genomeend 43

/* Organism #44 Fitness: 9 Error: 1 */
genomestart 44
trait 1 0 0.947954 0 0 0 0 0.845393 0.695166 
trait 2 0.1 0 0.117206 0 0 0.114399 0.491836 0 
trait 3 1 0 0 0 0 0 0.0453352 0.421766 
node 1 1 1 3
node 2 1 1 1
node 3 3 1 1
node 4 2 0 2
node 9 2 0 0
node 18 1 0 0
node 186 1 0 0
node 203 1 0 0
node 233 1 0 0
node 265 1 0 0
gene 2 1 4 -6.33366 0 1 -6.33366 1
gene 1 2 4 1.22719 0 2 1.22719 0
gene 2 3 4 -8 0 3 -8 1
gene 1 2 9 1.81463 0 12 1.81463 1
gene 1 9 4 8 0 13 8 1
gene 2 3 18 7.91363 0 37 7.91363 1
gene 2 18 4 -6.34262 0 38 -6.34262 1
gene 1 2 18 -0.501419 0 131 -0.501419 1
gene 2 3 9 4.74807 0 167 4.74807 1
gene 2 1 9 -1.3133 0 572 -1.3133 1
gene 1 2 186 0.755333 0 580 0.755333 1
gene 1 186 4 7.45349 0 581 7.45349 1
gene 1 9 203 3.93603 0 629 3.93603 1
gene 1 203 4 -0.609493 0 630 -0.609493 1
gene 1 2 233 -5.01878 0 733 -5.01878 1
gene 1 233 4 -8 0 734 -8 1
gene 3 233 203 0.436834 0 814 0.436834 1
gene 2 203 18 -0.906095 0 830 -0.906095 1
gene 3 233 9 -0.502853 0 849 -0.502853 1
gene 2 3 265 0.788049 0 857 0.788049 1
gene 2 265 9 0.869472 0 858 0.869472 1
genomeend 44

/* Organism #45 Fitness: 9 Error: 1 */
genomestart 45
trait 1 0 0.947954 0 0 0 0 0.845393 0.695166 
trait 2 0.1 0 0.117206 0 0 0.114399 0.491836 0 
trait 3 1 0 0 0 0 0 0.0425018 0.435556 
node 1 1 1 3
node 2 3 1 1
node 3 3 1 1
node 4 2 0 2
node 9 2 0 0
node 18 1 0 0
node 186 1 0 0
node 203 1 0 0
node 233 1 0 0
node 265 1 0 0
gene 2 1 4 -4.50995 0 1 -4.50995 1
gene 1 2 4 -0.984565 0 2 -0.984565 0
gene 2 3 4 -8 0 3 -8 1
gene 1 2 9 7.45234 0 12 7.45234 1
gene 1 9 4 7.94013 0 13 7.94013 1
gene 2 3 18 7.21438 0 37 7.21438 1
gene 2 18 4 -8 0 38 -8 1
gene 1 2 18 -4.2967 0 131 -4.2967 1
gene 2 3 9 2.69158 0 167 2.69158 1
gene 2 1 9 -4.12383 0 572 -4.12383 1
gene 1 2 186 2.21958 0 580 2.21958 1
gene 1 186 4 5.41905 0 581 5.41905 1
gene 1 9 203 3.9516 0 629 3.9516 1
gene 1 203 4 0.57432 0 630 0.57432 1
gene 1 2 233 -2.90507 0 733 -2.90507 1
gene 1 233 4 -5.98354 0 734 -5.98354 1
gene 3 233 203 -0.516335 0 814 -0.516335 1
gene 2 203 18 -1.57559 0 830 -1.57559 1
gene 3 233 9 -0.939268 0 849 -0.939268 1
gene 2 3 265 2.07814 0 857 2.07814 1
gene 2 265 9 -2.00743 0 858 -2.00743 1
genomeend 45

/* Organism #46 Fitness: 3.99856 Error: 2.00036 */
genomestart 46
trait 1 0 0.947954 0 0 0 0 0.845393 0.695166 
trait 2 0.1 0 0.117206 0 0 0.114399 0.491836 0 
trait 3 1 0 0 0 0 0 0.0425018 0.435556 
node 1 1 1 3
node 2 3 1 1
node 3 3 1 1
node 4 2 0 2
node 9 2 0 0
node 18 1 0 0
node 186 1 0 0
node 203 1 0 0
node 233 1 0 0
node 265 1 0 0
gene 2 1 4 -2.43316 0 1 -2.43316 1
gene 1 2 4 -0.686666 0 2 -0.686666 0
gene 2 3 4 2.03719 0 3 2.03719 1
gene 1 2 9 6.92288 0 12 6.92288 1
gene 1 9 4 6.59121 0 13 6.59121 1
gene 2 3 18 7.07521 0 37 7.07521 1
gene 2 18 4 -8 0 38 -8 1
gene 1 2 18 -6.7515 0 131 -6.7515 1
gene 2 3 9 0.239532 0 167 0.239532 1
gene 2 1 9 -3.38879 0 572 -3.38879 1
gene 1 2 186 0.0388768 0 580 0.0388768 1
gene 1 186 4 6.95138 0 581 6.95138 1
gene 1 9 203 4.56754 0 629 4.56754 1
gene 1 203 4 1.57445 0 630 1.57445 1
gene 1 2 233 0.508766 0 733 0.508766 1
gene 1 233 4 -6.55183 0 734 -6.55183 1
gene 3 233 203 -0.114635 0 814 -0.114635 1
gene 2 203 18 -2.398 0 830 -2.398 1
gene 3 233 9 -2.67631 0 849 -2.67631 1
gene 2 3 265 2.17695 0 857 2.17695 1
gene 2 265 9 -2.85676 0 858 -2.85676 1
genomeend 46

/* Organism #47 Fitness: 9 Error: 1 */
genomestart 47
trait 1 0 0.947954 0 0 0 0 0.845393 0.695166 
trait 2 0.1 0 0.117206 0 0 0.114399 0.491836 0 
trait 3 1 0 0 0 0 0 0.0453352 0.421766 
node 1 1 1 3
node 2 1 1 1
node 3 3 1 1
node 4 2 0 2
node 9 2 0 0
node 18 1 0 0
node 186 1 0 0
node 203 1 0 0
node 233 1 0 0
node 265 1 0 0
gene 2 1 4 -4.50995 0 1 -4.50995 1
gene 1 2 4 -0.984565 0 2 -0.984565 0
gene 2 3 4 -8 0 3 -8 1
gene 1 2 9 6.91575 0 12 6.91575 1
gene 1 9 4 7.94013 0 13 7.94013 1
gene 2 3 18 7.44571 0 37 7.44571 1
gene 2 18 4 -8 0 38 -8 1
gene 1 2 18 -4.2967 0 131 -4.2967 1
gene 2 3 9 2.69158 0 167 2.69158 1
gene 2 1 9 -2.65375 0 572 -2.65375 1
gene 1 2 186 0.0671064 0 580 0.0671064 1
gene 1 186 4 6.62011 0 581 6.62011 1
gene 1 9 203 2.93503 0 629 2.93503 1
gene 1 203 4 1.34072 0 630 1.34072 1
gene 1 2 233 -2.90507 0 733 -2.90507 1
gene 1 233 4 -5.89755 0 734 -5.89755 1
gene 3 233 203 -0.214965 0 814 -0.214965 1
gene 2 203 18 0.265275 0 830 0.265275 1
gene 3 233 9 -0.939268 0 849 -0.939268 1
gene 2 3 265 2.07814 0 857 2.07814 1
gene 2 265 9 0.224845 0 858 0.224845 1
genomeend 47

/* Organism #48 Fitness: 8.96003 Error: 1.00667 */
genomestart 48
trait 1 0 0.947954 0 0 0 0 0.845393 0.695166 
trait 2 0.1 0 0.117206 0 0 0.114399 0.491836 0 
trait 3 1 0 0 0 0 0 0.0396683 0.449347 
node 1 1 1 3
node 2 3 1 1
node 3 3 1 1
node 4 2 0 2
node 9 2 0 0
node 18 1 0 0
node 186 1 0 0
node 203 1 0 0
node 233 1 0 0
node 265 1 0 0
gene 2 1 4 -3.01957 0 1 -3.01957 1
gene 1 2 4 0.779214 0 2 0.779214 0
gene 2 3 4 -5.98013 0 3 -5.98013 1
gene 1 2 9 8 0 12 8 1
gene 1 9 4 5.39328 0 13 5.39328 1
gene 2 3 18 1.273 0 37 1.273 1
gene 2 18 4 -5.80465 0 38 -5.80465 1
gene 1 2 18 -0.0121311 0 131 -0.0121311 1
gene 2 3 9 1.54263 0 167 1.54263 1
gene 2 1 9 -1.91458 0 572 -1.91458 1
gene 1 2 186 4.21717 0 580 4.21717 1
gene 3 186 4 6.40464 0 581 6.40464 1
gene 1 9 203 3.79199 0 629 3.79199 1
gene 1 203 4 0.591639 0 630 0.591639 1
gene 1 2 233 0.242164 0 733 0.242164 1
gene 1 233 4 -4.41771 0 734 -4.41771 1
gene 3 233 203 -2.25459 0 814 -2.25459 1
gene 2 203 18 -1.57559 0 830 -1.57559 1
gene 3 233 9 -1.45984 0 849 -1.45984 1
gene 2 3 265 1.17907 0 857 1.17907 1
gene 2 265 9 -2.68899 0 858 -2.68899 1
genomeend 48

/* Organism #49 Fitness: 1.00011 Error: 2.99994 */
genomestart 49
trait 1 0 0.947954 0 0 0 0 0.845393 0.695166 
trait 2 0.1 0 0.117206 0 0 0.114399 0.491836 0 
trait 3 1 0 0 0 0 0 0.0425018 0.435556 
node 1 1 1 3
node 2 3 1 1
node 3 3 1 1
node 4 2 0 2
node 9 2 0 0
node 18 1 0 0
node 186 1 0 0
node 203 1 0 0
node 233 1 0 0
node 265 1 0 0
gene 2 1 4 -5.3978 0 1 -5.3978 1
gene 1 2 4 2.04505 0 2 2.04505 0
gene 2 3 4 2.26127 0 3 2.26127 1
gene 1 2 9 6.95668 0 12 6.95668 1
gene 1 9 4 8 0 13 8 1
gene 2 3 18 -2.04138 0 37 -2.04138 1
gene 2 18 4 -0.415891 0 38 -0.415891 1
gene 1 2 18 -6.70694 0 131 -6.70694 1
gene 2 3 9 2.99718 0 167 2.99718 1
gene 2 1 9 -3.02898 0 572 -3.02898 1
gene 1 2 186 1.14334 0 580 1.14334 1
gene 1 186 4 0.774331 0 581 0.774331 1
gene 1 9 203 3.01422 0 629 3.01422 1
gene 1 203 4 2.59598 0 630 2.59598 1
gene 1 2 233 0.255387 0 733 0.255387 1
gene 1 233 4 -7.70795 0 734 -7.70795 1
gene 3 233 203 2.0093 0 814 2.0093 1
gene 2 203 18 -2.28996 0 830 -2.28996 1
gene 3 233 9 -2.80914 0 849 -2.80914 1
gene 2 3 265 -2.14873 0 857 -2.14873 1
gene 2 265 9 -3.04209 0 858 -3.04209 1
genomeend 49

/* Organism #50 Fitness: 9 Error: 1 */
genomestart 50
trait 1 0 0.947954 0 0 0 0 0.845393 0.695166 
trait 2 0.1 0 0.117206 0 0 0.114399 0.491836 0 
trait 3 1 0 0 0 0 0 0.0425018 0.435556 
node 1 1 1 3
node 2 3 1 1
node 3 3 1 1
node 4 2 0 2
node 9 2 0 0
node 18 1 0 0
node 186 1 0 0
node 203 1 0 0
node 233 1 0 0
node 265 1 0 0
gene 2 1 4 -5.12489 0 1 -5.12489 1
gene 1 2 4 -0.984565 0 2 -0.984565 0
gene 2 3 4 -8 0 3 -8 1
gene 1 2 9 7.45234 0 12 7.45234 1
gene 1 9 4 6.58053 0 13 6.58053 1
gene 2 3 18 7.21438 0 37 7.21438 1
gene 2 18 4 -8 0 38 -8 1
gene 1 2 18 -4.2967 0 131 -4.2967 1
gene 2 3 9 2.69158 0 167 2.69158 1
gene 2 1 9 -4.12383 0 572 -4.12383 1
gene 1 2 186 0.0671064 0 580 0.0671064 1
gene 1 186 4 6.62011 0 581 6.62011 1
gene 1 9 203 2.93503 0 629 2.93503 1
gene 1 203 4 1.34072 0 630 1.34072 1
gene 1 2 233 -0.726585 0 733 -0.726585 1
gene 1 233 4 -5.98354 0 734 -5.98354 1
gene 3 233 203 -0.214965 0 814 -0.214965 1
gene 2 203 18 -1.57559 0 830 -1.57559 1
gene 3 233 9 -0.939268 0 849 -0.939268 1
gene 2 3 265 2.07814 0 857 2.07814 1
gene 2 265 9 -2.00743 0 858 -2.00743 1
gene 3 186 233 -0.204169 0 1039 -0.204169 1
genomeend 50

/* Species #62 : (Size 11) (AF 7.492) (Age 15)  */


/* Organism #51 Fitness: 9 Error: 1 */
genomestart 51
trait 1 0 0.947954 0 0 0 0 0.845393 0.695166 
trait 2 0 0 0.117206 0.400037 0 0.114399 0.491836 0.801233 
trait 3 1 0 0 0 0 0 0.0453352 0.421766 
node 1 1 1 3
node 2 1 1 1
node 3 3 1 1
node 4 2 0 2
node 9 2 0 0
node 18 1 0 0
node 186 1 0 0
node 203 1 0 0
node 233 1 0 0
node 269 1 0 0
gene 2 1 4 -1.41911 0 1 -1.41911 1
gene 1 2 4 -1.7605 0 2 -1.7605 0
gene 2 3 4 -4.09651 0 3 -4.09651 0
gene 1 2 9 7.1892 0 12 7.1892 1
gene 1 9 4 8 0 13 8 1
gene 2 3 18 6.69045 0 37 6.69045 1
gene 2 18 4 -8 0 38 -8 1
gene 1 2 18 -3.76911 0 131 -3.76911 1
gene 2 3 9 -1.86735 0 167 -1.86735 0
gene 2 1 9 -4.72096 0 572 -4.72096 1
gene 1 2 186 2.00366 0 580 2.00366 1
gene 1 186 4 -1.00047 0 581 -1.00047 1
gene 1 9 203 -0.776406 0 629 -0.776406 1
gene 1 203 4 -2.44583 0 630 -2.44583 1
gene 1 2 233 2.60497 0 733 2.60497 1
gene 1 233 4 1.08898 0 734 1.08898 0
gene 2 3 269 1 0 868 1 1
gene 2 269 4 -5.72461 0 869 -5.72461 1
gene 2 1 269 -0.66097 0 936 -0.66097 1
gene 2 233 9 0.724113 0 1026 0.724113 1
genomeend 51

/* Organism #52 Fitness: 8.97004 Error: 1.005 */
genomestart 52
trait 1 0 1 0.494369 0 0 0.0132145 0.32728 0.695166 
trait 2 0 0 0.117206 0.400037 0 0.114399 0.491836 0.801233 
trait 3 1 0 0 0 0 0 0.0453352 0.421766 
node 1 1 1 3
node 2 1 1 1
node 3 3 1 1
node 4 2 0 2
node 9 2 0 0
node 18 1 0 0
node 186 1 0 0
node 203 1 0 0
node 233 1 0 0
node 269 1 0 0
gene 2 1 4 -1.41911 0 1 -1.41911 1
gene 1 2 4 -0.675909 0 2 -0.675909 1
gene 2 3 4 -2.93536 0 3 -2.93536 0
gene 1 2 9 6.96687 0 12 6.96687 1
gene 1 9 4 8 0 13 8 1
gene 2 3 18 7.76279 0 37 7.76279 1
gene 2 18 4 -6.81123 0 38 -6.81123 1
gene 1 2 18 -5.66561 0 131 -5.66561 1
gene 2 3 9 -3.52893 0 167 -3.52893 0
gene 2 1 9 -4.72096 0 572 -4.72096 1
gene 1 2 186 2.22003 0 580 2.22003 1
gene 1 186 4 -1.14872 0 581 -1.14872 1
gene 1 9 203 -0.929441 0 629 -0.929441 1
gene 1 203 4 -1.01382 0 630 -1.01382 1
gene 1 2 233 2.27842 0 733 2.27842 1
gene 1 233 4 0.549638 0 734 0.549638 0
gene 2 3 269 -0.301462 0 868 -0.301462 1
gene 2 269 4 1.40233 0 869 1.40233 1
gene 2 1 269 0.479431 0 936 0.479431 1
genomeend 52

/* Organism #53 Fitness: 9 Error: 1 */
genomestart 53
trait 1 0 0.947954 0 0 0 0 0.845393 0.695166 
trait 2 0 0 0.117206 0.400037 0 0.114399 0.491836 0.801233 
trait 3 1 0 0 0 0 0 0.0453352 0.421766 
node 1 1 1 3
node 2 1 1 1
node 3 3 1 1
node 4 2 0 2
node 9 2 0 0
node 18 1 0 0
node 186 1 0 0
node 203 1 0 0
node 233 1 0 0
node 269 1 0 0
gene 2 1 4 -1.41911 0 1 -1.41911 1
gene 1 2 4 -4.24783 0 2 -4.24783 0
gene 2 3 4 -1.76763 0 3 -1.76763 0
gene 1 2 9 6.27616 0 12 6.27616 1
gene 1 9 4 5.978 0 13 5.978 1
gene 2 3 18 7.75188 0 37 7.75188 1
gene 2 18 4 -8 0 38 -8 1
gene 1 2 18 -6.17855 0 131 -6.17855 1
gene 2 3 9 -1.86735 0 167 -1.86735 0
gene 2 1 9 -5.4399 0 572 -5.4399 1
gene 1 2 186 3.36372 0 580 3.36372 1
gene 1 186 4 0.620746 0 581 0.620746 1
gene 1 9 203 -1.04512 0 629 -1.04512 1
gene 1 203 4 -4.08063 0 630 -4.08063 1
gene 1 2 233 4.94818 0 733 4.94818 1
gene 1 233 4 1.08898 0 734 1.08898 0
gene 2 3 269 0.52353 0 868 0.52353 1
gene 2 269 4 -1.43017 0 869 -1.43017 1
gene 2 1 269 1.9097 0 936 1.9097 1
genomeend 53

/* Organism #54 Fitness: 4 Error: 2 */
genomestart 54
trait 1 0 0.947954 0 0 0 0 0.845393 0.695166 
trait 2 0 0 0.117206 0.400037 0 0.114399 0.491836 0.801233 
trait 3 1 0 0 0 0 0 0.0453352 0.421766 
node 1 1 1 3
node 2 1 1 1
node 3 3 1 1
node 4 2 0 2
node 9 2 0 0
node 18 1 0 0
node 186 1 0 0
node 203 1 0 0
node 233 1 0 0
node 269 1 0 0
gene 2 1 4 -2.05535 0 1 -2.05535 1
gene 1 2 4 -3.77281 0 2 -3.77281 1
gene 2 3 4 -5.90588 0 3 -5.90588 0
gene 1 2 9 -1.12171 0 12 -1.12171 1
gene 1 9 4 7.77943 0 13 7.77943 1
gene 2 3 18 6.68519 0 37 6.68519 1
gene 2 18 4 -8 0 38 -8 1
gene 1 2 18 -2.15964 0 131 -2.15964 1
gene 2 3 9 -1.86735 0 167 -1.86735 1
gene 2 1 9 -2.57292 0 572 -2.57292 1
gene 1 2 186 4.33367 0 580 4.33367 1
gene 1 186 4 -1.1887 0 581 -1.1887 1
gene 1 9 203 -0.379208 0 629 -0.379208 1
gene 1 203 4 -2.25318 0 630 -2.25318 1
gene 1 2 233 2.23341 0 733 2.23341 1
gene 1 233 4 0.268487 0 734 0.268487 0
gene 2 3 269 1 0 868 1 1
gene 2 269 4 -8 0 869 -8 1
gene 2 1 269 -1.4201 0 936 -1.4201 1
gene 2 233 9 0.479659 0 1026 0.479659 1
genomeend 54

/* Organism #55 Fitness: 3.99344 Error: 2.00164 */
genomestart 55
trait 1 0 0.947954 0 0 0 0 0.845393 0.695166 
trait 2 0 0 0.117206 0.400037 0 0.114399 0.491836 0.801233 
trait 3 1 0 0 0 0 0 0.0453352 0.421766 
node 1 1 1 3
node 2 1 1 1
node 3 3 1 1
node 4 2 0 2
node 9 2 0 0
node 18 1 0 0
node 186 1 0 0
node 203 1 0 0
node 233 1 0 0
node 269 1 0 0
gene 2 1 4 -2.17025 0 1 -2.17025 1
gene 1 2 4 1.01482 0 2 1.01482 0
gene 2 3 4 -1.669 0 3 -1.669 0
gene 1 2 9 5.818 0 12 5.818 1
gene 1 9 4 8 0 13 8 1
gene 2 3 18 1.86186 0 37 1.86186 1
gene 2 18 4 -8 0 38 -8 1
gene 1 2 18 -3.76911 0 131 -3.76911 1
gene 2 3 9 -3.00089 0 167 -3.00089 0
gene 2 1 9 -7.12422 0 572 -7.12422 1
gene 1 2 186 -0.914258 0 580 -0.914258 1
gene 1 186 4 0.102924 0 581 0.102924 1
gene 1 9 203 1.38942 0 629 1.38942 1
gene 1 203 4 -0.962096 0 630 -0.962096 1
gene 1 2 233 0.985824 0 733 0.985824 1
gene 1 233 4 1.6512 0 734 1.6512 0
gene 2 3 269 1.61525 0 868 1.61525 1
gene 2 269 4 1.35136 0 869 1.35136 1
gene 2 1 269 -0.66097 0 936 -0.66097 1
genomeend 55

/* Organism #56 Fitness: 9 Error: 1 */
genomestart 56
trait 1 0 0.947954 0 0 0 0 0.845393 0.695166 
trait 2 0 0 0.117206 0.400037 0 0.114399 0.491836 0.801233 
trait 3 1 0 0 0 0 0 0.0453352 0.421766 
node 1 1 1 3
node 2 1 1 1
node 3 3 1 1
node 4 2 0 2
node 9 2 0 0
node 18 1 0 0
node 186 1 0 0
node 203 1 0 0
node 233 1 0 0
node 269 1 0 0
gene 2 1 4 -1.41911 0 1 -1.41911 1
gene 1 2 4 -1.7605 0 2 -1.7605 0
gene 2 3 4 -4.09651 0 3 -4.09651 0
gene 1 2 9 7.1892 0 12 7.1892 1
gene 1 9 4 8 0 13 8 1
gene 2 3 18 6.69045 0 37 6.69045 1
gene 2 18 4 -8 0 38 -8 1
gene 1 2 18 -3.76911 0 131 -3.76911 1
gene 2 3 9 -1.86735 0 167 -1.86735 0
gene 2 1 9 -4.72096 0 572 -4.72096 1
gene 1 2 186 2.00366 0 580 2.00366 1
gene 1 186 4 -1.00047 0 581 -1.00047 1
gene 1 9 203 -0.776406 0 629 -0.776406 1
gene 1 203 4 -2.44583 0 630 -2.44583 1
gene 1 2 233 2.60497 0 733 2.60497 1
gene 1 233 4 1.08898 0 734 1.08898 0
gene 2 3 269 1 0 868 1 1
gene 2 269 4 -5.72461 0 869 -5.72461 1
gene 2 1 269 -0.66097 0 936 -0.66097 1
gene 2 233 9 0.724113 0 1026 0.724113 1
genomeend 56

/* Organism #57 Fitness: 9 Error: 1 */
genomestart 57
trait 1 0 0.947954 0 0 0 0 0.845393 0.695166 
trait 2 0 0 0.117206 0.400037 0 0.114399 0.491836 0.801233 
trait 3 1 0 0 0 0 0 0.0453352 0.421766 
node 1 1 1 3
node 2 1 1 1
node 3 3 1 1
node 4 2 0 2
node 9 2 0 0
node 18 1 0 0
node 186 1 0 0
node 203 1 0 0
node 233 1 0 0
node 269 1 0 0
gene 2 1 4 -1.41911 0 1 -1.41911 1
gene 1 2 4 -1.7605 0 2 -1.7605 0
gene 2 3 4 -4.09651 0 3 -4.09651 0
gene 1 2 9 7.1892 0 12 7.1892 1
gene 1 9 4 8 0 13 8 1
gene 2 3 18 6.69045 0 37 6.69045 1
gene 2 18 4 -8 0 38 -8 1
gene 1 2 18 -3.76911 0 131 -3.76911 1
gene 2 3 9 -1.86735 0 167 -1.86735 0
gene 2 1 9 -4.72096 0 572 -4.72096 1
gene 1 2 186 2.00366 0 580 2.00366 1
gene 1 186 4 -1.00047 0 581 -1.00047 1
gene 1 9 203 -0.776406 0 629 -0.776406 1
gene 1 203 4 -2.44583 0 630 -2.44583 1
gene 1 2 233 2.60497 0 733 2.60497 1
gene 1 233 4 1.08898 0 734 1.08898 0
gene 2 3 269 1 0 868 1 1
gene 2 269 4 -5.72461 0 869 -5.72461 1
gene 2 1 269 -0.66097 0 936 -0.66097 1
gene 2 233 9 0.724113 0 1026 0.724113 1
genomeend 57

/* Organism #58 Fitness: 9 Error: 1 */
genomestart 58
trait 1 0 0.947954 0 0 0 0 0.845393 0.695166 
trait 2 0 0 0.117206 0.400037 0 0.114399 0.491836 0.801233 
trait 3 1 0 0 0 0 0 0.0453352 0.421766 
node 1 1 1 3
node 2 1 1 1
node 3 3 1 1
node 4 2 0 2
node 9 2 0 0
node 18 1 0 0
node 186 1 0 0
node 203 1 0 0
node 233 1 0 0
node 269 1 0 0
gene 2 1 4 -1.41911 0 1 -1.41911 1
gene 1 2 4 -1.7605 0 2 -1.7605 0
gene 2 3 4 -4.09651 0 3 -4.09651 0
gene 1 2 9 7.1892 0 12 7.1892 1
gene 1 9 4 8 0 13 8 1
gene 2 3 18 6.69045 0 37 6.69045 1
gene 2 18 4 -8 0 38 -8 1
gene 1 2 18 -3.76911 0 131 -3.76911 1
gene 2 3 9 -1.86735 0 167 -1.86735 0
gene 2 1 9 -4.72096 0 572 -4.72096 1
gene 1 2 186 2.00366 0 580 2.00366 1
gene 1 186 4 -1.00047 0 581 -1.00047 1
gene 1 9 203 -0.776406 0 629 -0.776406 1
gene 1 203 4 -2.44583 0 630 -2.44583 1
gene 1 2 233 2.60497 0 733 2.60497 1
gene 1 233 4 1.08898 0 734 1.08898 0
gene 2 3 269 1 0 868 1 1
gene 2 269 4 -5.72461 0 869 -5.72461 1
gene 2 1 269 -0.66097 0 936 -0.66097 1
gene 2 233 9 0.724113 0 1026 0.724113 1
genomeend 58

/* Organism #59 Fitness: 4.11581 Error: 1.97125 */
genomestart 59
trait 1 0 0.947954 0 0 0 0 0.845393 0.695166 
trait 2 0 0 0.117206 0.400037 0 0.114399 0.491836 0.801233 
trait 3 1 0 0 0 0 0 0.0453352 0.421766 
node 1 1 1 3
node 2 1 1 1
node 3 3 1 1
node 4 2 0 2
node 9 2 0 0
node 18 1 0 0
node 186 1 0 0
node 203 1 0 0
node 233 1 0 0
node 269 1 0 0
gene 2 1 4 0.481811 0 1 0.481811 1
gene 1 2 4 0.710662 0 2 0.710662 0
gene 2 3 4 -3.97375 0 3 -3.97375 0
gene 1 2 9 2.21732 0 12 2.21732 1
gene 1 9 4 8 0 13 8 1
gene 2 3 18 4.59238 0 37 4.59238 1
gene 2 18 4 0.00755333 0 38 0.00755333 1
gene 1 2 18 -3.76911 0 131 -3.76911 1
gene 2 3 9 -0.967589 0 167 -0.967589 0
gene 2 1 9 1.61618 0 572 1.61618 1
gene 1 2 186 1.92778 0 580 1.92778 1
gene 1 186 4 -2.2766 0 581 -2.2766 1
gene 1 9 203 -1.14835 0 629 -1.14835 1
gene 1 203 4 -4.9147 0 630 -4.9147 1
gene 1 2 233 1.43124 0 733 1.43124 1
gene 1 233 4 2.16559 0 734 2.16559 0
gene 2 3 269 3.3191 0 868 3.3191 1
gene 2 269 4 -6.69578 0 869 -6.69578 1
gene 2 1 269 0.830164 0 936 0.830164 1
genomeend 59

/* Organism #60 Fitness: 9 Error: 1 */
genomestart 60
trait 1 0 0.947954 0.291391 0 0 0 0.272073 0.678503 
trait 2 0 0 0.117206 0.400037 0 0.114399 0.491836 0.801233 
trait 3 1 0 0 0 0 0 0.0453352 0.421766 
node 1 1 1 3
node 2 1 1 1
node 3 3 1 1
node 4 2 0 2
node 9 2 0 0
node 18 1 0 0
node 186 1 0 0
node 203 3 0 0
node 233 1 0 0
node 269 1 0 0
gene 2 1 4 -0.954466 0 1 -0.954466 1
gene 1 2 4 0.178724 0 2 0.178724 0
gene 2 3 4 -4.22568 0 3 -4.22568 0
gene 1 2 9 7.63111 0 12 7.63111 1
gene 1 9 4 8 0 13 8 1
gene 2 3 18 5.27035 0 37 5.27035 1
gene 2 18 4 -8 0 38 -8 1
gene 1 2 18 -4.46852 0 131 -4.46852 1
gene 2 3 9 -0.706503 0 167 -0.706503 0
gene 2 1 9 -3.53829 0 572 -3.53829 1
gene 1 2 186 3.48342 0 580 3.48342 1
gene 1 186 4 -1.00047 0 581 -1.00047 1
gene 1 9 203 1.57367 0 629 1.57367 1
gene 1 203 4 -1.41377 0 630 -1.41377 1
gene 1 2 233 -1.85095 0 733 -1.85095 1
gene 1 233 4 0.944777 0 734 0.944777 0
gene 2 3 269 1.46161 0 868 1.46161 1
gene 2 269 4 -5.72461 0 869 -5.72461 1
gene 2 1 269 -0.66097 0 936 -0.66097 1
gene 2 233 9 0.386975 0 1026 0.386975 1
genomeend 60

/* Organism #61 Fitness: 7.33272 Error: 1.2921 */
genomestart 61
trait 1 0 0.947954 0 0 0 0 0.845393 0.695166 
trait 2 0 0 0.117206 0.400037 0 0.114399 0.491836 0.801233 
trait 3 1 0 0 0 0 0 0.0453352 0.421766 
node 1 1 1 3
node 2 1 1 1
node 3 3 1 1
node 4 2 0 2
node 9 2 0 0
node 18 1 0 0
node 186 1 0 0
node 203 1 0 0
node 233 1 0 0
node 269 1 0 0
gene 2 1 4 -1.24599 0 1 -1.24599 1
gene 1 2 4 -3.13131 0 2 -3.13131 1
gene 2 3 4 -2.12807 0 3 -2.12807 0
gene 1 2 9 6.29501 0 12 6.29501 1
gene 1 9 4 8 0 13 8 1
gene 2 3 18 7.52292 0 37 7.52292 1
gene 2 18 4 -7.61478 0 38 -7.61478 1
gene 1 2 18 -2.02513 0 131 -2.02513 1
gene 2 3 9 -1.98538 0 167 -1.98538 1
gene 2 1 9 -7.05876 0 572 -7.05876 1
gene 1 2 186 2.98185 0 580 2.98185 1
gene 1 186 4 -3.14058 0 581 -3.14058 1
gene 1 9 203 -2.74287 0 629 -2.74287 1
gene 1 203 4 -1.72338 0 630 -1.72338 1
gene 1 2 233 0.588076 0 733 0.588076 1
gene 1 233 4 2.08213 0 734 2.08213 0
gene 2 3 269 2.5688 0 868 2.5688 1
gene 2 269 4 -7.13616 0 869 -7.13616 1
gene 2 1 269 -0.66097 0 936 -0.66097 1
gene 2 233 9 1.95798 0 1026 1.95798 1
genomeend 61

/* Species #63 : (Size 11) (AF 6.25093) (Age 14)  */


/* Organism #62 Fitness: 9 Error: 1 */
genomestart 62
trait 1 0 0.947954 0 0 0 0 0.845393 0.695166 
trait 2 0.1 0 0.117206 0 0 0.114399 0.491836 0 
trait 3 1 0 0 0 0 0 0.0453352 0.421766 
node 1 1 1 3
node 2 1 1 1
node 3 3 1 1
node 4 2 0 2
node 9 2 0 0
node 18 1 0 0
node 186 1 0 0
node 203 1 0 0
node 233 1 0 0
node 273 1 0 0
gene 1 1 4 -6.13066 0 1 -6.13066 1
gene 1 2 4 0.750908 0 2 0.750908 1
gene 2 3 4 -7.81841 0 3 -7.81841 1
gene 1 2 9 8 0 12 8 1
gene 1 9 4 8 0 13 8 1
gene 2 3 18 8 0 37 8 0
gene 2 18 4 -6.02995 0 38 -6.02995 1
gene 1 2 18 -3.87547 0 131 -3.87547 1
gene 2 3 9 -1.48469 0 167 -1.48469 1
gene 2 1 9 -7.51264 0 572 -7.51264 1
gene 1 2 186 0.325938 0 580 0.325938 1
gene 1 186 4 6.89355 0 581 6.89355 1
gene 1 9 203 -0.195486 0 629 -0.195486 1
gene 1 203 4 2.14545 0 630 2.14545 1
gene 1 2 233 -4.14504 0 733 -4.14504 1
gene 1 233 4 -0.884274 0 734 -0.884274 1
gene 2 3 273 0.888607 0 878 0.888607 1
gene 2 273 18 6.72913 0 879 6.72913 1
genomeend 62

/* Organism #63 Fitness: 9 Error: 1 */
genomestart 63
trait 1 0 0.947954 0 0 0 0 0.845393 0.695166 
trait 2 0.1 0 0.117206 0 0 0.150122 0.491836 0 
trait 3 1 0 0 0 0 0 0.0453352 0.421766 
node 1 1 1 3
node 2 1 1 1
node 3 3 1 1
node 4 2 0 2
node 9 2 0 0
node 18 1 0 0
node 186 1 0 0
node 203 1 0 0
node 233 1 0 0
node 273 1 0 0
gene 1 1 4 -5.37083 0 1 -5.37083 1
gene 1 2 4 -0.551088 0 2 -0.551088 1
gene 2 3 4 -7.1937 0 3 -7.1937 1
gene 1 2 9 8 0 12 8 1
gene 1 9 4 7.1126 0 13 7.1126 1
gene 2 3 18 8 0 37 8 0
gene 2 18 4 -6.43043 0 38 -6.43043 1
gene 1 2 18 -4.77859 0 131 -4.77859 1
gene 2 3 9 -2.89769 0 167 -2.89769 1
gene 2 1 9 -8 0 572 -8 1
gene 1 2 186 2.46544 0 580 2.46544 1
gene 1 186 4 6.8609 0 581 6.8609 1
gene 1 9 203 0.662618 0 629 0.662618 1
gene 1 203 4 3.8567 0 630 3.8567 1
gene 1 2 233 -2.70273 0 733 -2.70273 1
gene 1 233 4 0.109638 0 734 0.109638 1
gene 2 3 273 0.803766 0 878 0.803766 1
gene 2 273 18 6.72913 0 879 6.72913 1
genomeend 63

/* Organism #64 Fitness: 9 Error: 1 */
genomestart 64
trait 1 0 0.947954 0 0 0 0 0.845393 0.695166 
trait 2 0.1 0 0.117206 0 0 0.114399 0.491836 0 
trait 3 1 0 0 0 0 0 0.0453352 0.421766 
node 1 1 1 3
node 2 1 1 1
node 3 3 1 1
node 4 2 0 2
node 9 2 0 0
node 18 1 0 0
node 186 1 0 0
node 203 1 0 0
node 233 1 0 0
node 273 1 0 0
gene 1 1 4 -6.13066 0 1 -6.13066 1
gene 1 2 4 0.750908 0 2 0.750908 1
gene 2 3 4 -7.81841 0 3 -7.81841 1
gene 1 2 9 8 0 12 8 1
gene 1 9 4 8 0 13 8 1
gene 2 3 18 8 0 37 8 0
gene 2 18 4 -6.02995 0 38 -6.02995 1
gene 1 2 18 -3.87547 0 131 -3.87547 1
gene 2 3 9 -1.48469 0 167 -1.48469 1
gene 2 1 9 -7.51264 0 572 -7.51264 1
gene 1 2 186 0.325938 0 580 0.325938 1
gene 1 186 4 6.89355 0 581 6.89355 1
gene 1 9 203 -0.195486 0 629 -0.195486 1
gene 1 203 4 2.14545 0 630 2.14545 1
gene 1 2 233 -4.14504 0 733 -4.14504 1
gene 1 233 4 -0.884274 0 734 -0.884274 1
gene 2 3 273 0.888607 0 878 0.888607 1
gene 2 273 18 6.72913 0 879 6.72913 1
gene 1 273 233 0.0652486 0 1040 0.0652486 1
genomeend 64

/* Organism #65 Fitness: 4.0017 Error: 1.99957 */
genomestart 65
trait 1 0 0.947954 0 0 0 0 0.845393 0.695166 
trait 2 0.1 0 0.117206 0 0 0.150122 0.491836 0 
trait 3 1 0 0 0 0 0 0.0453352 0.421766 
node 1 1 1 3
node 2 1 1 1
node 3 1 1 1
node 4 2 0 2
node 9 2 0 0
node 18 1 0 0
node 186 1 0 0
node 203 1 0 0
node 233 1 0 0
node 273 1 0 0
gene 1 1 4 0.0460829 0 1 0.0460829 1
gene 1 2 4 -0.874279 0 2 -0.874279 1
gene 2 3 4 -0.246895 0 3 -0.246895 1
gene 1 2 9 6.29134 0 12 6.29134 1
gene 1 9 4 -0.240562 0 13 -0.240562 1
gene 2 3 18 0.380871 0 37 0.380871 1
gene 2 18 4 -4.70354 0 38 -4.70354 1
gene 1 2 18 -7.48306 0 131 -7.48306 1
gene 2 3 9 -2.17524 0 167 -2.17524 1
gene 2 1 9 -7.51264 0 572 -7.51264 1
gene 1 2 186 2.2203 0 580 2.2203 1
gene 1 186 4 8 0 581 8 1
gene 1 9 203 1.84019 0 629 1.84019 1
gene 1 203 4 -0.440535 0 630 -0.440535 1
gene 1 2 233 -2.58547 0 733 -2.58547 1
gene 1 233 4 -2.0629 0 734 -2.0629 1
gene 2 3 273 -1.48924 0 878 -1.48924 1
gene 2 273 18 5.38281 0 879 5.38281 1
genomeend 65

/* Organism #66 Fitness: 8.81645 Error: 1.03075 */
genomestart 66
trait 1 0 0.947954 0 0 0 0 0.845393 0.695166 
trait 2 0.1 0 0.117206 0 0 0.185846 0.491836 0 
trait 3 1 0 0 0 0 0 0.0453352 0.421766 
node 1 1 1 3
node 2 1 1 1
node 3 3 1 1
node 4 2 0 2
node 9 2 0 0
node 18 1 0 0
node 186 1 0 0
node 203 1 0 0
node 233 1 0 0
node 273 1 0 0
gene 1 1 4 -3.40941 0 1 -3.40941 1
gene 1 2 4 -2.25898 0 2 -2.25898 1
gene 2 3 4 1.67623 0 3 1.67623 1
gene 1 2 9 -0.467849 0 12 -0.467849 1
gene 1 9 4 6.27097 0 13 6.27097 1
gene 2 3 18 1.85209 0 37 1.85209 1
gene 2 18 4 -5.74751 0 38 -5.74751 1
gene 1 2 18 -5.47281 0 131 -5.47281 1
gene 2 3 9 -3.78121 0 167 -3.78121 1
gene 2 1 9 -5.63771 0 572 -5.63771 1
gene 1 2 186 2.2203 0 580 2.2203 1
gene 1 186 4 6.11457 0 581 6.11457 1
gene 1 9 203 1.95294 0 629 1.95294 1
gene 1 203 4 1.03137 0 630 1.03137 1
gene 1 2 233 -5.64289 0 733 -5.64289 1
gene 1 233 4 -2.0629 0 734 -2.0629 1
gene 2 3 273 3.26241 0 878 3.26241 1
gene 2 273 18 3.69712 0 879 3.69712 1
genomeend 66

/* Organism #67 Fitness: 8.91478 Error: 1.01424 */
genomestart 67
trait 1 0 0.947954 0 0 0 0 0.845393 0.695166 
trait 2 0.1 0 0.117206 0 0 0.114399 0.491836 0 
trait 3 1 0 0 0 0 0 0.0453352 0.421766 
node 1 1 1 3
node 2 1 1 1
node 3 3 1 1
node 4 2 0 2
node 9 2 0 0
node 18 1 0 0
node 186 1 0 0
node 203 1 0 0
node 233 1 0 0
node 273 1 0 0
gene 1 1 4 -6.46271 0 1 -6.46271 1
gene 1 2 4 0.105213 0 2 0.105213 1
gene 2 3 4 -8 0 3 -8 1
gene 1 2 9 8 0 12 8 1
gene 1 9 4 8 0 13 8 1
gene 2 3 18 8 0 37 8 0
gene 2 18 4 -8 0 38 -8 1
gene 1 2 18 -5.19105 0 131 -5.19105 1
gene 2 3 9 -3.26041 0 167 -3.26041 1
gene 2 1 9 -7.479 0 572 -7.479 1
gene 1 2 186 2.331 0 580 2.331 1
gene 1 186 4 8 0 581 8 1
gene 1 9 203 0.421995 0 629 0.421995 1
gene 1 203 4 3.48277 0 630 3.48277 1
gene 1 2 233 -2.09067 0 733 -2.09067 1
gene 1 233 4 -0.166173 0 734 -0.166173 1
gene 2 3 273 -1.27714 0 878 -1.27714 1
gene 2 273 18 -2.01147 0 879 -2.01147 1
genomeend 67

/* Organism #68 Fitness: 4 Error: 2 */
genomestart 68
trait 1 0 0.947954 0 0 0 0 0.845393 0.695166 
trait 2 0.1 0 0.117206 0 0 0.114399 0.491836 0 
trait 3 1 0 0 0 0 0 0.0453352 0.421766 
node 1 1 1 3
node 2 1 1 1
node 3 3 1 1
node 4 2 0 2
node 9 2 0 0
node 18 1 0 0
node 186 1 0 0
node 203 1 0 0
node 233 1 0 0
node 273 1 0 0
gene 1 1 4 -7.96178 0 1 -7.96178 1
gene 1 2 4 1.0773 0 2 1.0773 1
gene 2 3 4 -5.42477 0 3 -5.42477 1
gene 1 2 9 8 0 12 8 1
gene 1 9 4 8 0 13 8 1
gene 2 3 18 -0.149617 0 37 -0.149617 0
gene 2 18 4 -5.31346 0 38 -5.31346 1
gene 1 2 18 1.63297 0 131 1.63297 1
gene 2 3 9 -1.01272 0 167 -1.01272 1
gene 2 1 9 -6.33242 0 572 -6.33242 1
gene 1 2 186 -2.40852 0 580 -2.40852 1
gene 1 186 4 8 0 581 8 1
gene 1 9 203 -0.195486 0 629 -0.195486 1
gene 1 203 4 3.96481 0 630 3.96481 1
gene 1 2 233 -1.13277 0 733 -1.13277 1
gene 1 233 4 0.312967 0 734 0.312967 1
gene 2 3 273 0.0185247 0 878 0.0185247 1
gene 2 273 18 5.06053 0 879 5.06053 1
genomeend 68

/* Organism #69 Fitness: 4.0273 Error: 1.99319 */
genomestart 69
trait 1 0 0.947954 0 0 0 0 0.845393 0.695166 
trait 2 0.1 0 0.117206 0 0 0.114399 0.491836 0 
trait 3 1 0 0 0 0 0 0.0453352 0.421766 
node 1 1 1 3
node 2 1 1 1
node 3 3 1 1
node 4 2 0 2
node 9 2 0 0
node 18 1 0 0
node 186 1 0 0
node 203 1 0 0
node 233 1 0 0
node 273 1 0 0
gene 1 1 4 -6.13066 0 1 -6.13066 1
gene 1 2 4 -0.818583 0 2 -0.818583 1
gene 2 3 4 -6.29363 0 3 -6.29363 1
gene 1 2 9 8 0 12 8 1
gene 1 9 4 6.31606 0 13 6.31606 1
gene 2 3 18 8 0 37 8 0
gene 2 18 4 -6.02995 0 38 -6.02995 1
gene 1 2 18 -4.5584 0 131 -4.5584 1
gene 2 3 9 -0.530602 0 167 -0.530602 1
gene 2 1 9 -5.91378 0 572 -5.91378 1
gene 3 2 186 -0.0888089 0 580 -0.0888089 1
gene 1 186 4 -0.959197 0 581 -0.959197 1
gene 1 9 203 -1.97662 0 629 -1.97662 1
gene 1 203 4 3.67206 0 630 3.67206 1
gene 1 2 233 -2.39868 0 733 -2.39868 1
gene 1 233 4 -3.13028 0 734 -3.13028 1
gene 2 3 273 -0.402081 0 878 -0.402081 1
gene 2 273 18 5.89369 0 879 5.89369 1
genomeend 69

/* Organism #70 Fitness: 4 Error: 2 */
genomestart 70
trait 1 0 0.947954 0 0 0 0 0.845393 0.695166 
trait 2 0.1 0 0.117206 0 0 0.150122 0.491836 0 
trait 3 1 0 0 0 0 0 0.0453352 0.421766 
node 1 1 1 3
node 2 1 1 1
node 3 3 1 1
node 4 2 0 2
node 9 2 0 0
node 18 1 0 0
node 186 1 0 0
node 203 1 0 0
node 233 1 0 0
node 273 1 0 0
gene 1 1 4 -3.48608 0 1 -3.48608 1
gene 1 2 4 -0.618076 0 2 -0.618076 1
gene 2 3 4 -8 0 3 -8 1
gene 1 2 9 8 0 12 8 1
gene 1 9 4 -1.73215 0 13 -1.73215 1
gene 2 3 18 6.33514 0 37 6.33514 0
gene 2 18 4 -7.32615 0 38 -7.32615 1
gene 1 2 18 2.28195 0 131 2.28195 1
gene 2 3 9 -0.970641 0 167 -0.970641 1
gene 2 1 9 -8 0 572 -8 1
gene 1 2 186 4.69398 0 580 4.69398 1
gene 1 186 4 1.50487 0 581 1.50487 1
gene 1 9 203 1.67057 0 629 1.67057 1
gene 1 203 4 3.21841 0 630 3.21841 1
gene 1 2 233 -4.50722 0 733 -4.50722 1
gene 1 233 4 -1.12346 0 734 -1.12346 1
gene 2 3 273 0.997711 0 878 0.997711 1
gene 2 273 18 6.56403 0 879 6.56403 1
genomeend 70

/* Organism #71 Fitness: 4 Error: 2 */
genomestart 71
trait 1 0 0.947954 0 0 0 0 0.845393 0.695166 
trait 2 0.1 0 0.117206 0 0 0.114399 0.491836 0 
trait 3 1 0 0 0 0 0 0.0453352 0.421766 
node 1 1 1 3
node 2 1 1 1
node 3 3 1 1
node 4 2 0 2
node 9 2 0 0
node 18 1 0 0
node 186 1 0 0
node 203 1 0 0
node 233 1 0 0
node 273 1 0 0
gene 1 1 4 -6.08229 0 1 -6.08229 1
gene 1 2 4 -1.07051 0 2 -1.07051 1
gene 2 3 4 -8 0 3 -8 1
gene 1 2 9 7.81002 0 12 7.81002 1
gene 1 9 4 5.84051 0 13 5.84051 1
gene 2 3 18 6.74256 0 37 6.74256 0
gene 2 18 4 -5.78413 0 38 -5.78413 1
gene 1 2 18 -2.26035 0 131 -2.26035 1
gene 2 3 9 0.76487 0 167 0.76487 1
gene 2 1 9 -6.56008 0 572 -6.56008 1
gene 1 2 186 -1.52989 0 580 -1.52989 1
gene 1 186 4 4.71422 0 581 4.71422 1
gene 1 9 203 -0.974761 0 629 -0.974761 1
gene 1 203 4 0.736106 0 630 0.736106 1
gene 1 2 233 -2.60645 0 733 -2.60645 1
gene 1 233 4 -0.63448 0 734 -0.63448 1
gene 2 3 273 0.251381 0 878 0.251381 1
gene 2 273 18 4.34648 0 879 4.34648 1
genomeend 71

/* Organism #72 Fitness: 4.00006 Error: 1.99999 */
genomestart 72
trait 1 0 0.947954 0 0 0 0 0.845393 0.695166 
trait 2 0.1 0 0.117206 0 0 0.185846 0.491836 0 
trait 3 1 0 0 0 0 0 0.0453352 0.421766 
node 1 1 1 3
node 2 1 1 1
node 3 3 1 1
node 4 2 0 2
node 9 2 0 0
node 18 1 0 0
node 186 1 0 0
node 203 1 0 0
node 233 1 0 0
node 273 1 0 0
gene 1 1 4 -6.32186 0 1 -6.32186 1
gene 1 2 4 -1.26186 0 2 -1.26186 1
gene 2 3 4 -5.3294 0 3 -5.3294 1
gene 1 2 9 7.12572 0 12 7.12572 1
gene 1 9 4 7.09215 0 13 7.09215 1
gene 2 3 18 5.8177 0 37 5.8177 1
gene 2 18 4 -8 0 38 -8 1
gene 1 2 18 -3.53458 0 131 -3.53458 1
gene 2 3 9 -4.27835 0 167 -4.27835 1
gene 2 1 9 -8 0 572 -8 1
gene 1 2 186 1.37753 0 580 1.37753 1
gene 1 186 4 6.58776 0 581 6.58776 1
gene 1 9 203 2.09912 0 629 2.09912 1
gene 1 203 4 1.00703 0 630 1.00703 1
gene 1 2 233 -5.93892 0 733 -5.93892 1
gene 1 233 4 -3.79688 0 734 -3.79688 1
gene 2 3 273 0.888607 0 878 0.888607 1
gene 2 273 18 6.59607 0 879 6.59607 1
genomeend 72

/* Species #64 : (Size 8) (AF 5.87884) (Age 13)  */


/* Organism #73 Fitness: 9 Error: 1 */
genomestart 73
trait 1 0 0.622322 0 0.392834 0 0.135914 0.845393 0.347583 
trait 2 0.2 0 0 0 0 0 0 0 
trait 3 1 0 0 0 0 0 0.0453352 0.421766 
node 1 1 1 3
node 2 1 1 1
node 3 3 1 1
node 4 2 0 2
node 9 2 0 0
node 18 1 0 0
node 186 1 0 0
node 209 1 0 0
node 267 1 0 0
gene 2 1 4 -4.6603 0 1 -4.6603 1
gene 1 2 4 8 0 2 8 1
gene 2 3 4 -4.93618 0 3 -4.93618 1
gene 1 2 9 3.95403 0 12 3.95403 1
gene 1 9 4 7.30406 0 13 7.30406 1
gene 2 3 18 6.72135 0 37 6.72135 1
gene 2 18 4 -7.86114 0 38 -7.86114 1
gene 1 2 18 -4.95881 0 131 -4.95881 1
gene 2 3 9 -4.40704 0 167 -4.40704 1
gene 2 1 9 -2.99951 0 572 -2.99951 1
gene 1 2 186 -0.648793 0 580 -0.648793 1
gene 1 186 4 6.64559 0 581 6.64559 1
gene 2 3 209 -0.387257 0 648 -0.387257 1
gene 2 209 4 -8 0 649 -8 1
gene 1 18 9 -1.2402 0 720 -1.2402 1
gene 2 1 186 -1.07894 0 823 -1.07894 1
gene 1 18 186 1.27783 0 847 1.27783 1
gene 2 18 267 -1.0519 0 864 -1.0519 1
gene 2 267 4 -4.96104 0 865 -4.96104 1
gene 3 1 209 -1.36502 0 895 -1.36502 1
gene 2 186 9 -2.28367 0 958 -2.28367 1
genomeend 73

/* Organism #74 Fitness: 4 Error: 2 */
genomestart 74
trait 1 0 0.622322 0 0.392834 0 0.135914 0.845393 0.347583 
trait 2 0.2 0 0 0 0 0 0 0 
trait 3 1 0 0 0 0 0 0.0453352 0.421766 
node 1 1 1 3
node 2 1 1 1
node 3 3 1 1
node 4 2 0 2
node 9 2 0 0
node 18 1 0 0
node 186 1 0 0
node 209 1 0 0
node 267 1 0 0
gene 2 1 4 -5.51291 0 1 -5.51291 1
gene 3 2 4 8 0 2 8 1
gene 2 3 4 -5.48284 0 3 -5.48284 1
gene 1 2 9 6.29114 0 12 6.29114 1
gene 1 9 4 4.8313 0 13 4.8313 1
gene 2 3 18 4.47786 0 37 4.47786 1
gene 2 18 4 -7.30441 0 38 -7.30441 1
gene 1 2 18 -4.02364 0 131 -4.02364 1
gene 2 3 9 -2.35314 0 167 -2.35314 1
gene 2 1 9 -3.02049 0 572 -3.02049 1
gene 1 2 186 -2.50371 0 580 -2.50371 1
gene 1 186 4 7.50552 0 581 7.50552 1
gene 2 3 209 0.468482 0 648 0.468482 1
gene 2 209 4 -8 0 649 -8 1
gene 1 18 9 -0.351421 0 720 -0.351421 1
gene 2 1 186 -2.027 0 823 -2.027 1
gene 1 18 186 0.0605258 0 847 0.0605258 1
gene 2 18 267 -1.0519 0 864 -1.0519 1
gene 2 267 4 -5.79481 0 865 -5.79481 1
gene 3 1 209 1.78976 0 895 1.78976 1
gene 2 186 9 -3.6335 0 958 -3.6335 1
genomeend 74

/* Organism #75 Fitness: 9 Error: 1 */
genomestart 75
trait 1 0 0.622322 0 0.392834 0 0.135914 0.845393 0.347583 
trait 2 0.2 0 0 0 0 0 0 0 
trait 3 1 0 0 0 0 0 0.0453352 0.421766 
node 1 1 1 3
node 2 1 1 1
node 3 3 1 1
node 4 2 0 2
node 9 2 0 0
node 18 1 0 0
node 186 1 0 0
node 209 1 0 0
node 267 1 0 0
gene 2 1 4 -2.79951 0 1 -2.79951 1
gene 1 2 4 6.11045 0 2 6.11045 1
gene 2 3 4 -2.73251 0 3 -2.73251 1
gene 1 2 9 3.64541 0 12 3.64541 1
gene 1 9 4 5.35271 0 13 5.35271 1
gene 2 3 18 8 0 37 8 1
gene 2 18 4 -7.93019 0 38 -7.93019 1
gene 1 2 18 -5.65547 0 131 -5.65547 1
gene 2 3 9 -6.75925 0 167 -6.75925 1
gene 2 1 9 -1.84637 0 572 -1.84637 1
gene 1 2 186 1.49017 0 580 1.49017 1
gene 1 186 4 4.80639 0 581 4.80639 1
gene 2 3 209 -0.301195 0 648 -0.301195 1
gene 2 209 4 -7.47821 0 649 -7.47821 1
gene 1 18 9 -0.733512 0 720 -0.733512 1
gene 2 1 186 1.30005 0 823 1.30005 1
gene 1 18 186 -0.492698 0 847 -0.492698 1
gene 2 18 267 -0.581919 0 864 -0.581919 1
gene 2 267 4 -3.23148 0 865 -3.23148 1
gene 3 1 209 0.768067 0 895 0.768067 1
gene 2 186 9 -0.246025 0 958 -0.246025 1
genomeend 75

/* Organism #76 Fitness: 9 Error: 1 */
genomestart 76
trait 1 0 0.622322 0 0.392834 0 0.135914 0.845393 0.347583 
trait 2 0.2 0 0 0 0 0 0 0 
trait 3 1 0 0 0 0 0 0.0453352 0.421766 
node 1 1 1 3
node 2 1 1 1
node 3 3 1 1
node 4 2 0 2
node 9 2 0 0
node 18 1 0 0
node 186 1 0 0
node 209 1 0 0
node 267 1 0 0
gene 2 1 4 -4.6603 0 1 -4.6603 1
gene 1 2 4 8 0 2 8 1
gene 2 3 4 -4.93618 0 3 -4.93618 1
gene 1 2 9 3.95403 0 12 3.95403 1
gene 1 9 4 7.30406 0 13 7.30406 1
gene 2 3 18 6.72135 0 37 6.72135 1
gene 2 18 4 -7.86114 0 38 -7.86114 1
gene 1 2 18 -4.95881 0 131 -4.95881 1
gene 2 3 9 -4.40704 0 167 -4.40704 1
gene 2 1 9 -2.99951 0 572 -2.99951 1
gene 1 2 186 -0.648793 0 580 -0.648793 1
gene 1 186 4 6.64559 0 581 6.64559 1
gene 2 3 209 -0.387257 0 648 -0.387257 1
gene 2 209 4 -8 0 649 -8 1
gene 1 18 9 -1.2402 0 720 -1.2402 1
gene 2 1 186 -1.07894 0 823 -1.07894 1
gene 1 18 186 1.27783 0 847 1.27783 1
gene 2 18 267 -1.0519 0 864 -1.0519 1
gene 2 267 4 -4.96104 0 865 -4.96104 1
gene 3 1 209 -1.36502 0 895 -1.36502 1
gene 2 186 9 -2.28367 0 958 -2.28367 1
genomeend 76

/* Organism #77 Fitness: 4 Error: 2 */
genomestart 77
trait 1 0 0.622322 0 0.392834 0 0.135914 0.845393 0.347583 
trait 2 0.2 0 0 0 0 0 0 0 
trait 3 1 0 0 0 0 0 0.0453352 0.421766 
node 1 1 1 3
node 2 1 1 1
node 3 3 1 1
node 4 2 0 2
node 9 2 0 0
node 18 1 0 0
node 186 1 0 0
node 209 1 0 0
node 267 1 0 0
gene 2 1 4 -6.88159 0 1 -6.88159 1
gene 1 2 4 6.61446 0 2 6.61446 1
gene 2 3 4 -6.04949 0 3 -6.04949 1
gene 1 2 9 3.34839 0 12 3.34839 1
gene 1 9 4 8 0 13 8 1
gene 2 3 18 6.49719 0 37 6.49719 1
gene 2 18 4 -6.93361 0 38 -6.93361 1
gene 1 2 18 -3.45081 0 131 -3.45081 1
gene 2 3 9 -6.65442 0 167 -6.65442 1
gene 2 1 9 -4.72236 0 572 -4.72236 1
gene 1 2 186 -0.858531 0 580 -0.858531 1
gene 1 186 4 8 0 581 8 1
gene 2 3 209 -1.59678 0 648 -1.59678 1
gene 2 209 4 -8 0 649 -8 1
gene 1 18 9 0.467315 0 720 0.467315 1
gene 2 1 186 -0.0535981 0 823 -0.0535981 1
gene 1 18 186 1.43233 0 847 1.43233 1
gene 2 18 267 -1.9171 0 864 -1.9171 1
gene 2 267 4 -5.35061 0 865 -5.35061 1
gene 3 1 209 -0.230956 0 895 -0.230956 1
gene 2 186 9 -2.28367 0 958 -2.28367 1
genomeend 77

/* Organism #78 Fitness: 4 Error: 2 */
genomestart 78
trait 1 0 0.622322 0 0.392834 0 0.135914 0.845393 0.347583 
trait 2 0.2 0 0 0 0 0 0 0 
trait 3 1 0 0 0 0 0 0.0453352 0.421766 
node 1 1 1 3
node 2 1 1 1
node 3 3 1 1
node 4 2 0 2
node 9 2 0 0
node 18 1 0 0
node 186 1 0 0
node 209 1 0 0
node 267 1 0 0
gene 2 1 4 -5.98778 0 1 -5.98778 1
gene 1 2 4 0.314722 0 2 0.314722 1
gene 2 3 4 -4.42163 0 3 -4.42163 1
gene 1 2 9 -1.46397 0 12 -1.46397 1
gene 1 9 4 1.99683 0 13 1.99683 1
gene 2 3 18 7.10924 0 37 7.10924 1
gene 2 18 4 -7.38528 0 38 -7.38528 1
gene 1 2 18 -4.73648 0 131 -4.73648 1
gene 2 3 9 -3.0669 0 167 -3.0669 1
gene 2 1 9 -3.87936 0 572 -3.87936 1
gene 1 2 186 -2.99055 0 580 -2.99055 1
gene 1 186 4 7.01753 0 581 7.01753 1
gene 2 3 209 1.51428 0 648 1.51428 1
gene 2 209 4 0.23339 0 649 0.23339 1
gene 1 18 9 -3.12815 0 720 -3.12815 1
gene 2 1 186 -1.07894 0 823 -1.07894 1
gene 1 18 186 0.9035 0 847 0.9035 1
gene 2 18 267 -0.814394 0 864 -0.814394 1
gene 2 267 4 1.01398 0 865 1.01398 1
gene 3 1 209 -0.117725 0 895 -0.117725 1
gene 2 186 9 -1.7573 0 958 -1.7573 1
genomeend 78

/* Organism #79 Fitness: 4.03068 Error: 1.99234 */
genomestart 79
trait 1 0 0.622322 0 0.392834 0 0.135914 0.845393 0.347583 
trait 2 0.2 0 0 0 0 0 0 0 
trait 3 1 0 0 0 0 0 0.0453352 0.421766 
node 1 1 1 3
node 2 1 1 1
node 3 3 1 1
node 4 2 0 2
node 9 2 0 0
node 18 1 0 0
node 186 1 0 0
node 209 1 0 0
node 267 1 0 0
gene 2 1 4 -4.59232 0 1 -4.59232 1
gene 1 2 4 6.64681 0 2 6.64681 1
gene 2 3 4 -3.79501 0 3 -3.79501 1
gene 1 2 9 3.75826 0 12 3.75826 1
gene 1 9 4 7.07861 0 13 7.07861 1
gene 2 3 18 5.95312 0 37 5.95312 1
gene 2 18 4 -7.22895 0 38 -7.22895 1
gene 1 2 18 -4.11337 0 131 -4.11337 1
gene 2 3 9 -2.08992 0 167 -2.08992 1
gene 2 1 9 -3.16355 0 572 -3.16355 1
gene 1 2 186 -0.243049 0 580 -0.243049 1
gene 1 186 4 5.66594 0 581 5.66594 1
gene 2 3 209 -0.105342 0 648 -0.105342 1
gene 2 209 4 -8 0 649 -8 1
gene 1 18 9 -2.97761 0 720 -2.97761 1
gene 2 1 186 -0.585459 0 823 -0.585459 1
gene 1 18 186 3.46319 0 847 3.46319 1
gene 2 18 267 -1.0519 0 864 -1.0519 1
gene 2 267 4 -4.96104 0 865 -4.96104 1
gene 3 1 209 0.502403 0 895 0.502403 1
gene 2 186 9 0.108905 0 958 0.108905 1
genomeend 79

/* Organism #80 Fitness: 4.00002 Error: 1.99999 */
genomestart 80
trait 1 0 0.622322 0 0.392834 0 0.135914 0.845393 0.347583 
trait 2 0.2 0 0 0 0 0 0 0 
trait 3 1 0 0 0 0 0 0.0453352 0.421766 
node 1 1 1 3
node 2 1 1 1
node 3 3 1 1
node 4 2 0 2
node 9 2 0 0
node 18 1 0 0
node 186 1 0 0
node 209 1 0 0
node 267 1 0 0
gene 2 1 4 -4.6603 0 1 -4.6603 1
gene 1 2 4 6.5123 0 2 6.5123 1
gene 2 3 4 -6.85457 0 3 -6.85457 1
gene 1 2 9 4.15095 0 12 4.15095 1
gene 1 9 4 -1.83134 0 13 -1.83134 1
gene 2 3 18 4.36013 0 37 4.36013 1
gene 2 18 4 -8 0 38 -8 1
gene 1 2 18 -5.5807 0 131 -5.5807 1
gene 2 3 9 -6.5779 0 167 -6.5779 1
gene 2 1 9 0.200049 0 572 0.200049 1
gene 1 2 186 -2.97179 0 580 -2.97179 1
gene 1 186 4 2.39914 0 581 2.39914 1
gene 2 3 209 -2.06211 0 648 -2.06211 1
gene 2 209 4 1.54584 0 649 1.54584 1
gene 1 18 9 0.140843 0 720 0.140843 1
gene 2 1 186 -1.39008 0 823 -1.39008 1
gene 1 18 186 1.08122 0 847 1.08122 1
gene 2 18 267 -2.55204 0 864 -2.55204 1
gene 2 267 4 -4.96104 0 865 -4.96104 1
gene 3 1 209 -1.68921 0 895 -1.68921 1
gene 2 186 9 -1.6659 0 958 -1.6659 1
genomeend 80

/* Species #65 : (Size 12) (AF 7.31445) (Age 13)  */


/* Organism #81 Fitness: 9 Error: 1 */
genomestart 81
trait 1 0 0.622322 0 0.392834 0 0.135914 0.845393 0.347583 
trait 2 0.2 0 0 0 0 0 0 0 
trait 3 1 0 0 0 0 0 0.0453352 0.421766 
node 1 1 1 3
node 2 1 1 1
node 3 3 1 1
node 4 2 0 2
node 9 2 0 0
node 18 1 0 0
node 186 1 0 0
node 209 1 0 0
node 267 1 0 0
node 279 1 0 0
gene 2 1 4 -7.57837 0 1 -7.57837 1
gene 1 2 4 7.58296 0 2 7.58296 1
gene 2 3 4 -6.94738 0 3 -6.94738 1
gene 1 2 9 3.77741 0 12 3.77741 1
gene 1 9 4 7.84787 0 13 7.84787 1
gene 2 3 18 7.03974 0 37 7.03974 1
gene 2 18 4 -6.36676 0 38 -6.36676 0
gene 1 2 18 -3.95509 0 131 -3.95509 1
gene 2 3 9 -2.93502 0 167 -2.93502 1
gene 2 1 9 -1.42224 0 572 -1.42224 1
gene 1 2 186 0.151173 0 580 0.151173 1
gene 1 186 4 8 0 581 8 1
gene 2 3 209 2.0942 0 648 2.0942 1
gene 2 209 4 -6.21811 0 649 -6.21811 1
gene 1 18 9 -0.995056 0 720 -0.995056 1
gene 2 1 186 0.680677 0 823 0.680677 1
gene 1 18 186 1.84269 0 847 1.84269 0
gene 2 18 267 1 0 864 0 1
gene 2 267 4 -5.76814 0 865 0 1
gene 1 18 279 1 0 900 0 1
gene 1 279 186 1.84269 0 901 0 1
genomeend 81

/* Organism #82 Fitness: 9 Error: 1 */
genomestart 82
trait 1 0 0.622322 0 0.392834 0 0.135914 0.845393 0.347583 
trait 2 0.2 0 0 0 0 0 0 0 
trait 3 1 0 0 0 0 0 0.0453352 0.421766 
node 1 1 1 3
node 2 1 1 1
node 3 3 1 1
node 4 2 0 2
node 9 2 0 0
node 18 1 0 0
node 186 1 0 0
node 209 1 0 0
node 267 1 0 0
node 279 1 0 0
gene 2 1 4 -7.57837 0 1 -7.57837 1
gene 1 2 4 7.58296 0 2 7.58296 1
gene 2 3 4 -8 0 3 -8 1
gene 1 2 9 3.77741 0 12 3.77741 1
gene 1 9 4 7.15426 0 13 7.15426 1
gene 2 3 18 5.10776 0 37 5.10776 1
gene 2 18 4 -6.36676 0 38 -6.36676 0
gene 1 2 18 -3.95509 0 131 -3.95509 1
gene 2 3 9 -2.93502 0 167 -2.93502 1
gene 2 1 9 -1.42224 0 572 -1.42224 1
gene 3 2 186 2.09734 0 580 2.09734 1
gene 1 186 4 6.31606 0 581 6.31606 1
gene 2 3 209 2.0942 0 648 2.0942 1
gene 2 209 4 -6.21811 0 649 -6.21811 1
gene 1 18 9 -0.995056 0 720 -0.995056 1
gene 2 1 186 -1.33965 0 823 -1.33965 1
gene 1 18 186 2.86811 0 847 2.86811 0
gene 2 18 267 1 0 864 0 1
gene 2 267 4 -5.01632 0 865 -5.01632 1
gene 1 18 279 1 0 900 0 1
gene 1 279 186 1.84269 0 901 0 1
genomeend 82

/* Organism #83 Fitness: 8.75189 Error: 1.04164 */
genomestart 83
trait 1 0 0.622322 0 0.392834 0 0.135914 0.845393 0.347583 
trait 2 0.2 0 0 0 0 0 0 0 
trait 3 1 0 0 0 0 0 0.0453352 0.421766 
node 1 1 1 3
node 2 1 1 1
node 3 3 1 1
node 4 2 0 2
node 9 2 0 0
node 18 1 0 0
node 186 1 0 0
node 209 1 0 0
node 267 1 0 0
node 279 1 0 0
gene 2 1 4 -6.33781 0 1 -6.33781 1
gene 1 2 4 7.18821 0 2 7.18821 1
gene 2 3 4 -7.33393 0 3 -7.33393 1
gene 1 2 9 2.91457 0 12 2.91457 1
gene 1 9 4 5.5 0 13 5.5 1
gene 2 3 18 5.63642 0 37 5.63642 1
gene 2 18 4 -3.75644 0 38 -3.75644 1
gene 1 2 18 -2.73962 0 131 -2.73962 1
gene 2 3 9 -3.62748 0 167 -3.62748 1
gene 2 1 9 -1.1652 0 572 -1.1652 1
gene 1 2 186 3.50691 0 580 3.50691 1
gene 1 186 4 8 0 581 8 1
gene 2 3 209 -1.94446 0 648 -1.94446 1
gene 2 209 4 -8 0 649 -8 1
gene 1 18 9 1.69866 0 720 1.69866 1
gene 2 1 186 -0.897511 0 823 -0.897511 1
gene 1 18 186 0.651555 0 847 0.651555 1
gene 2 18 267 -1.22839 0 864 -1.22839 1
gene 2 267 4 -1.98096 0 865 -1.98096 1
gene 1 18 279 -1.05283 0 900 -1.05283 1
gene 1 279 186 0.037141 0 901 0.037141 1
genomeend 83

/* Organism #84 Fitness: 4.00001 Error: 2 */
genomestart 84
trait 1 0 0.622322 0 0.392834 0 0.135914 0.845393 0.347583 
trait 2 0.2 0 0 0 0 0 0 0 
trait 3 1 0 0 0 0 0 0.0453352 0.421766 
node 1 1 1 3
node 2 1 1 1
node 3 3 1 1
node 4 2 0 2
node 9 2 0 0
node 18 1 0 0
node 186 1 0 0
node 209 1 0 0
node 267 1 0 0
node 279 1 0 0
gene 2 1 4 -8 0 1 -8 1
gene 1 2 4 8 0 2 8 1
gene 2 3 4 -8 0 3 -8 1
gene 1 2 9 2.39731 0 12 2.39731 1
gene 1 9 4 2.09128 0 13 2.09128 1
gene 2 3 18 8 0 37 8 1
gene 2 18 4 -4.36132 0 38 -4.36132 0
gene 1 2 18 -0.0361339 0 131 -0.0361339 1
gene 2 3 9 -1.71786 0 167 -1.71786 1
gene 2 1 9 0.829798 0 572 0.829798 1
gene 1 2 186 -1.35105 0 580 -1.35105 1
gene 1 186 4 7.19446 0 581 7.19446 1
gene 2 3 209 1.50115 0 648 1.50115 1
gene 2 209 4 -8 0 649 -8 1
gene 1 18 9 2.14072 0 720 2.14072 1
gene 2 1 186 -3.14123 0 823 -3.14123 1
gene 1 18 186 2.75062 0 847 2.75062 0
gene 2 18 267 -0.876659 0 864 -0.876659 1
gene 2 267 4 -6.35608 0 865 -6.35608 1
gene 1 18 279 -0.474425 0 900 -0.474425 1
gene 1 279 186 -0.428114 0 901 -0.428114 1
genomeend 84

/* Organism #85 Fitness: 4.0013 Error: 1.99968 */
genomestart 85
trait 1 0 0.622322 0 0.392834 0 0.135914 0.845393 0.347583 
trait 2 0.2 0 0 0 0 0 0 0 
trait 3 1 0 0 0 0 0 0.0453352 0.421766 
node 1 1 1 3
node 2 1 1 1
node 3 3 1 1
node 4 2 0 2
node 9 2 0 0
node 18 1 0 0
node 186 1 0 0
node 209 1 0 0
node 267 1 0 0
node 279 1 0 0
gene 2 1 4 -7.98716 0 1 -7.98716 1
gene 1 2 4 5.64763 0 2 5.64763 1
gene 2 3 4 -6.32603 0 3 -6.32603 1
gene 1 2 9 2.22676 0 12 2.22676 1
gene 1 9 4 8 0 13 8 1
gene 2 3 18 6.39885 0 37 6.39885 1
gene 2 18 4 -8 0 38 -8 0
gene 1 2 18 -2.08683 0 131 -2.08683 1
gene 2 3 9 -2.33129 0 167 -2.33129 1
gene 2 1 9 -3.49445 0 572 -3.49445 1
gene 1 2 186 -1.60051 0 580 -1.60051 1
gene 1 186 4 5.99379 0 581 5.99379 1
gene 2 3 209 3.56359 0 648 3.56359 1
gene 2 209 4 -4.83173 0 649 -4.83173 1
gene 1 18 9 -0.440535 0 720 -0.440535 1
gene 2 1 186 2.43366 0 823 2.43366 1
gene 1 18 186 3.14484 0 847 3.14484 0
gene 2 18 267 1.14359 0 864 1.14359 1
gene 2 267 4 -5.76814 0 865 -5.76814 1
gene 1 18 279 1.96965 0 900 1.96965 1
gene 1 279 186 1.92448 0 901 1.92448 1
genomeend 85

/* Organism #86 Fitness: 8.99999 Error: 1 */
genomestart 86
trait 1 0 0.622322 0 0.392834 0 0.135914 0.845393 0.347583 
trait 2 0.2 0 0 0 0 0 0 0 
trait 3 1 0 0 0 0 0 0.0453352 0.421766 
node 1 1 1 3
node 2 1 1 1
node 3 3 1 1
node 4 2 0 2
node 9 2 0 0
node 18 1 0 0
node 186 1 0 0
node 209 1 0 0
node 267 1 0 0
node 279 1 0 0
gene 2 1 4 -8 0 1 -8 1
gene 1 2 4 7.44479 0 2 7.44479 1
gene 2 3 4 -6.12693 0 3 -6.12693 1
gene 1 2 9 5.20491 0 12 5.20491 1
gene 1 9 4 4.71751 0 13 4.71751 1
gene 2 3 18 5.84364 0 37 5.84364 1
gene 2 18 4 -5.56298 0 38 -5.56298 1
gene 1 2 18 -2.87588 0 131 -2.87588 1
gene 2 3 9 -0.0234001 0 167 -0.0234001 1
gene 2 1 9 0.356227 0 572 0.356227 1
gene 1 2 186 3.90907 0 580 3.90907 1
gene 1 186 4 4.56522 0 581 4.56522 1
gene 2 3 209 1.60629 0 648 1.60629 1
gene 2 209 4 -5.7443 0 649 -5.7443 1
gene 1 18 9 1.62038 0 720 1.62038 1
gene 2 1 186 0.976478 0 823 0.976478 1
gene 1 18 186 3.89216 0 847 3.89216 1
gene 2 18 267 0.0524766 0 864 0.0524766 1
gene 2 267 4 -6.2189 0 865 -6.2189 1
gene 1 18 279 1.34005 0 900 1.34005 1
gene 1 279 186 -0.774422 0 901 -0.774422 1
genomeend 86

/* Organism #87 Fitness: 9 Error: 1 */
genomestart 87
trait 1 0 0.622322 0 0.392834 0 0.135914 0.845393 0.347583 
trait 2 0.2 0 0 0 0 0 0 0 
trait 3 1 0 0 0 0 0 0.0453352 0.421766 
node 1 1 1 3
node 2 1 1 1
node 3 3 1 1
node 4 2 0 2
node 9 2 0 0
node 18 1 0 0
node 186 1 0 0
node 209 1 0 0
node 267 1 0 0
node 279 1 0 0
gene 2 1 4 -8 0 1 -8 1
gene 1 2 4 8 0 2 8 1
gene 2 3 4 -8 0 3 -8 1
gene 1 2 9 5.34408 0 12 5.34408 1
gene 1 9 4 7.15426 0 13 7.15426 1
gene 2 3 18 5.10776 0 37 5.10776 1
gene 2 18 4 -5.70337 0 38 -5.70337 1
gene 1 2 18 -2.30007 0 131 -2.30007 1
gene 2 3 9 -2.3348 0 167 -2.3348 1
gene 2 1 9 -1.59848 0 572 -1.59848 1
gene 1 2 186 2.09734 0 580 2.09734 1
gene 1 186 4 6.31606 0 581 6.31606 1
gene 2 3 209 0.143765 0 648 0.143765 1
gene 2 209 4 -8 0 649 -8 1
gene 1 18 9 0.340434 0 720 0.340434 1
gene 2 1 186 -1.33965 0 823 -1.33965 1
gene 1 18 186 2.86811 0 847 2.86811 1
gene 2 18 267 1 0 864 1 1
gene 2 267 4 -5.01632 0 865 -5.01632 1
gene 1 18 279 -1.05283 0 900 -1.05283 1
gene 1 279 186 0.037141 0 901 0.037141 1
genomeend 87

/* Organism #88 Fitness: 4.02023 Error: 1.99495 */
genomestart 88
trait 1 0 0.622322 0 0.392834 0 0.135914 0.845393 0.347583 
trait 2 0.2 0 0 0 0 0 0 0 
trait 3 1 0 0 0 0 0 0.0453352 0.421766 
node 1 1 1 3
node 2 1 1 1
node 3 3 1 1
node 4 2 0 2
node 9 2 0 0
node 18 1 0 0
node 186 1 0 0
node 209 1 0 0
node 267 1 0 0
node 279 1 0 0
gene 2 1 4 -8 0 1 -8 1
gene 1 2 4 7.51476 0 2 7.51476 1
gene 2 3 4 -7.74693 0 3 -7.74693 1
gene 1 2 9 7.07722 0 12 7.07722 1
gene 1 9 4 8 0 13 8 1
gene 2 3 18 5.12958 0 37 5.12958 1
gene 2 18 4 -8 0 38 -8 1
gene 1 2 18 -0.292795 0 131 -0.292795 1
gene 2 3 9 -1.92959 0 167 -1.92959 1
gene 2 1 9 -2.2293 0 572 -2.2293 1
gene 1 2 186 -0.374737 0 580 -0.374737 1
gene 1 186 4 6.31606 0 581 6.31606 1
gene 2 3 209 0.521966 0 648 0.521966 1
gene 2 209 4 -5.71149 0 649 -5.71149 1
gene 1 18 9 -1.05846 0 720 -1.05846 1
gene 2 1 186 -0.857494 0 823 -0.857494 1
gene 1 18 186 -2.05176 0 847 -2.05176 1
gene 2 18 267 1 0 864 1 1
gene 2 267 4 -5.84024 0 865 -5.84024 1
gene 1 18 279 -0.16451 0 900 -0.16451 1
gene 1 279 186 -1.16025 0 901 -1.16025 1
genomeend 88

/* Organism #89 Fitness: 9 Error: 1 */
genomestart 89
trait 1 0 0.622322 0 0.392834 0 0.135914 0.845393 0.347583 
trait 2 0.2 0 0 0 0 0 0 0 
trait 3 1 0 0 0 0 0 0.0453352 0.421766 
node 1 1 1 3
node 2 1 1 1
node 3 3 1 1
node 4 2 0 2
node 9 2 0 0
node 18 1 0 0
node 186 1 0 0
node 209 1 0 0
node 267 1 0 0
node 279 1 0 0
gene 2 1 4 -8 0 1 -8 1
gene 1 2 4 8 0 2 8 1
gene 2 3 4 -8 0 3 -8 1
gene 1 2 9 5.34408 0 12 5.34408 1
gene 1 9 4 7.15426 0 13 7.15426 1
gene 2 3 18 5.10776 0 37 5.10776 1
gene 2 18 4 -5.70337 0 38 -5.70337 1
gene 1 2 18 -2.30007 0 131 -2.30007 1
gene 2 3 9 -2.3348 0 167 -2.3348 1
gene 2 1 9 -1.59848 0 572 -1.59848 1
gene 1 2 186 2.09734 0 580 2.09734 1
gene 1 186 4 6.31606 0 581 6.31606 1
gene 2 3 209 0.143765 0 648 0.143765 1
gene 2 209 4 -8 0 649 -8 1
gene 1 18 9 0.340434 0 720 0.340434 1
gene 2 1 186 -1.33965 0 823 -1.33965 1
gene 1 18 186 2.86811 0 847 2.86811 1
gene 2 18 267 1 0 864 1 1
gene 2 267 4 -5.01632 0 865 -5.01632 1
gene 1 18 279 -1.05283 0 900 -1.05283 1
gene 1 279 186 0.037141 0 901 0.037141 1
genomeend 89

/* Organism #90 Fitness: 9 Error: 1 */
genomestart 90
trait 1 0 0.622322 0 0.392834 0 0.135914 0.845393 0.347583 
trait 2 0.2 0 0 0 0 0 0 0 
trait 3 1 0 0 0 0 0 0.0453352 0.421766 
node 1 1 1 3
node 2 1 1 1
node 3 3 1 1
node 4 2 0 2
node 9 2 0 0
node 18 1 0 0
node 186 1 0 0
node 209 1 0 0
node 267 1 0 0
node 279 1 0 0
gene 2 1 4 -6.78224 0 1 -6.78224 1
gene 1 2 4 8 0 2 8 1
gene 2 3 4 -8 0 3 -8 1
gene 1 2 9 3.93839 0 12 3.93839 1
gene 1 9 4 8 0 13 8 1
gene 2 3 18 -0.458159 0 37 -0.458159 1
gene 2 18 4 -7.85897 0 38 -7.85897 1
gene 1 2 18 -3.98195 0 131 -3.98195 1
gene 2 3 9 -2.77365 0 167 -2.77365 1
gene 2 1 9 1.01207 0 572 1.01207 1
gene 1 2 186 -0.0372021 0 580 -0.0372021 1
gene 1 186 4 6.23077 0 581 6.23077 1
gene 2 3 209 0.0731681 0 648 0.0731681 1
gene 2 209 4 -7.04347 0 649 -7.04347 1
gene 1 18 9 -1.72079 0 720 -1.72079 1
gene 2 1 186 -2.05035 0 823 -2.05035 1
gene 1 18 186 2.11431 0 847 2.11431 1
gene 2 18 267 2.49808 0 864 2.49808 1
gene 2 267 4 -3.31728 0 865 -3.31728 1
gene 1 18 279 -0.541871 0 900 -0.541871 1
gene 1 279 186 0.716025 0 901 0.716025 1
genomeend 90

/* Organism #91 Fitness: 4 Error: 2 */
genomestart 91
trait 1 0 0.622322 0 0.392834 0 0.135914 0.845393 0.347583 
trait 2 0.2 0 0 0 0 0 0 0 
trait 3 1 0 0 0 0 0 0.0453352 0.421766 
node 1 1 1 3
node 2 1 1 1
node 3 3 1 1
node 4 2 0 2
node 9 2 0 0
node 18 1 0 0
node 186 1 0 0
node 209 1 0 0
node 267 1 0 0
node 279 1 0 0
gene 2 1 4 -7.73853 0 1 -7.73853 1
gene 1 2 4 5.89346 0 2 5.89346 1
gene 2 3 4 -8 0 3 -8 1
gene 1 2 9 4.70441 0 12 4.70441 1
gene 1 9 4 4.69965 0 13 4.69965 1
gene 2 3 18 0.914869 0 37 0.914869 1
gene 2 18 4 -4.22986 0 38 -4.22986 1
gene 1 2 18 0.700476 0 131 0.700476 1
gene 2 3 9 -0.40994 0 167 -0.40994 1
gene 2 1 9 -2.28996 0 572 -2.28996 1
gene 1 2 186 4.11797 0 580 4.11797 1
gene 1 186 4 7.77752 0 581 7.77752 1
gene 2 3 209 1.26654 0 648 1.26654 1
gene 2 209 4 -5.80587 0 649 -5.80587 1
gene 1 18 9 2.10822 0 720 2.10822 1
gene 2 1 186 0.126194 0 823 0.126194 1
gene 1 18 186 -0.160985 0 847 -0.160985 1
gene 2 18 267 2.95898 0 864 2.95898 1
gene 2 267 4 -7.47161 0 865 -7.47161 1
gene 1 18 279 1.41308 0 900 1.41308 1
gene 1 279 186 -0.302301 0 901 -0.302301 1
genomeend 91

/* Organism #92 Fitness: 9 Error: 1 */
genomestart 92
trait 1 0 0.622322 0 0.392834 0 0.135914 0.845393 0.347583 
trait 2 0.2 0.419324 0 0 0 0 0.112827 0.447981 
trait 3 1 0 0 0 0 0 0.0453352 0.421766 
node 1 1 1 3
node 2 1 1 1
node 3 3 1 1
node 4 2 0 2
node 9 2 0 0
node 18 1 0 0
node 186 1 0 0
node 209 1 0 0
node 267 1 0 0
node 279 1 0 0
gene 2 1 4 -7.58134 0 1 -7.58134 1
gene 1 2 4 5.53998 0 2 5.53998 1
gene 2 3 4 -8 0 3 -8 1
gene 1 2 9 3.30925 0 12 3.30925 1
gene 1 9 4 8 0 13 8 1
gene 2 3 18 8 0 37 8 1
gene 2 18 4 -4.38031 0 38 -4.38031 0
gene 1 2 18 -4.20031 0 131 -4.20031 1
gene 2 3 9 -2.66302 0 167 -2.66302 1
gene 2 1 9 -0.47792 0 572 -0.47792 1
gene 1 2 186 2.58823 0 580 2.58823 1
gene 1 186 4 8 0 581 8 1
gene 2 3 209 1.61079 0 648 1.61079 1
gene 2 209 4 -4.45978 0 649 -4.45978 1
gene 1 18 9 -2.238 0 720 -2.238 1
gene 2 1 186 0.0736641 0 823 0.0736641 1
gene 1 18 186 4.12746 0 847 4.12746 0
gene 2 18 267 -0.550096 0 864 -0.550096 1
gene 2 267 4 -7.80289 0 865 -7.80289 1
gene 1 18 279 1 0 900 1 1
gene 1 279 186 -0.119037 0 901 -0.119037 1
genomeend 92

/* Species #66 : (Size 10) (AF 7.04923) (Age 12)  */


/* Organism #93 Fitness: 9.70459 Error: 0.884781 */
genomestart 93
trait 1 0.0035783 0.947954 0.155034 0 0 0 0.845393 0.703421 
trait 2 0.1 0 0.117206 0 0 0.114399 0.491836 0 
trait 3 1 0 0 0 0 0 0.0453352 0.421766 
node 1 1 1 3
node 2 1 1 1
node 3 3 1 1
node 4 2 0 2
node 9 2 0 0
node 18 1 0 0
node 186 1 0 0
node 203 1 0 0
node 233 1 0 0
node 277 1 0 0
node 298 1 0 0
gene 2 1 4 -4.70025 0 1 -4.70025 1
gene 1 2 4 0.0423444 0 2 0.0423444 1
gene 2 3 4 0.764946 0 3 0.764946 1
gene 1 2 9 7.99771 0 12 7.99771 1
gene 1 9 4 4.54178 0 13 4.54178 0
gene 2 3 18 5.24738 0 37 5.24738 1
gene 2 18 4 -6.48442 0 38 -6.48442 1
gene 1 2 18 -4.05789 0 131 -4.05789 1
gene 2 3 9 -0.130238 0 167 -0.130238 0
gene 2 1 9 2.91726 0 572 2.91726 1
gene 1 2 186 6.4586 0 580 6.4586 0
gene 1 186 4 2.13419 0 581 2.13419 1
gene 1 9 203 0.0492721 0 629 0.0492721 1
gene 1 203 4 4.41374 0 630 4.41374 1
gene 1 2 233 -4.19286 0 733 -4.19286 1
gene 1 233 4 1.55019 0 734 1.55019 1
gene 3 233 203 1.14826 0 814 1.14826 1
gene 2 203 18 1.88428 0 830 1.88428 1
gene 1 2 277 -3.07009 0 893 -3.07009 1
gene 1 277 186 1.5624 0 894 1.5624 1
gene 2 233 9 2.66051 0 920 2.66051 1
gene 1 9 298 1 0 977 0 1
gene 1 298 4 4.54178 0 978 0 1
genomeend 93

/* Organism #94 Fitness: 4.138 Error: 1.96579 */
genomestart 94
trait 1 0.0035783 0.947954 0.155034 0 0 0 0.845393 0.703421 
trait 2 0.1 0 0.117206 0 0 0.114399 0.491836 0 
trait 3 1 0 0 0 0 0 0.0453352 0.421766 
node 1 1 1 3
node 2 1 1 1
node 3 3 1 1
node 4 2 0 2
node 9 2 0 0
node 18 1 0 0
node 186 1 0 0
node 203 1 0 0
node 233 1 0 0
node 277 1 0 0
node 298 1 0 0
gene 2 1 4 -1.52776 0 1 -1.52776 1
gene 1 2 4 0.312052 0 2 0.312052 1
gene 2 3 4 2.52052 0 3 2.52052 1
gene 1 2 9 7.99771 0 12 7.99771 1
gene 1 9 4 5.48281 0 13 5.48281 0
gene 2 3 18 -1.25942 0 37 -1.25942 1
gene 2 18 4 -6.48442 0 38 -6.48442 1
gene 1 2 18 -4.84825 0 131 -4.84825 1
gene 2 3 9 -0.130238 0 167 -0.130238 0
gene 2 1 9 4.8587 0 572 4.8587 1
gene 1 2 186 6.4586 0 580 6.4586 0
gene 1 186 4 4.15963 0 581 4.15963 1
gene 1 9 203 -2.19582 0 629 -2.19582 1
gene 1 203 4 6.43544 0 630 6.43544 1
gene 1 2 233 1.83287 0 733 1.83287 1
gene 1 233 4 2.78314 0 734 2.78314 1
gene 3 233 203 2.79229 0 814 2.79229 1
gene 2 203 18 1.02007 0 830 1.02007 1
gene 1 2 277 -4.60738 0 893 -4.60738 1
gene 1 277 186 1.5624 0 894 1.5624 1
gene 2 233 9 2.66051 0 920 2.66051 1
gene 1 9 298 -0.994766 0 977 -0.994766 1
gene 1 298 4 2.2441 0 978 2.2441 1
genomeend 94

/* Organism #95 Fitness: 9.70459 Error: 0.884781 */
genomestart 95
trait 1 0.0035783 0.947954 0.155034 0 0 0 0.845393 0.703421 
trait 2 0.1 0 0.117206 0 0 0.114399 0.491836 0 
trait 3 1 0 0 0 0 0 0.0453352 0.421766 
node 1 1 1 3
node 2 1 1 1
node 3 3 1 1
node 4 2 0 2
node 9 2 0 0
node 18 1 0 0
node 186 1 0 0
node 203 1 0 0
node 233 1 0 0
node 277 1 0 0
node 298 1 0 0
gene 2 1 4 -4.70025 0 1 -4.70025 1
gene 1 2 4 0.0423444 0 2 0.0423444 1
gene 2 3 4 0.764946 0 3 0.764946 1
gene 1 2 9 7.99771 0 12 7.99771 1
gene 1 9 4 4.54178 0 13 4.54178 0
gene 2 3 18 5.24738 0 37 5.24738 1
gene 2 18 4 -6.48442 0 38 -6.48442 1
gene 1 2 18 -4.05789 0 131 -4.05789 1
gene 2 3 9 -0.130238 0 167 -0.130238 0
gene 2 1 9 2.91726 0 572 2.91726 1
gene 1 2 186 6.4586 0 580 6.4586 0
gene 1 186 4 2.13419 0 581 2.13419 1
gene 1 9 203 0.0492721 0 629 0.0492721 1
gene 1 203 4 4.41374 0 630 4.41374 1
gene 1 2 233 -4.19286 0 733 -4.19286 1
gene 1 233 4 1.55019 0 734 1.55019 1
gene 3 233 203 1.14826 0 814 1.14826 1
gene 2 203 18 1.88428 0 830 1.88428 1
gene 1 2 277 -3.07009 0 893 -3.07009 1
gene 1 277 186 1.5624 0 894 1.5624 1
gene 2 233 9 2.66051 0 920 2.66051 1
gene 1 9 298 1 0 977 0 1
gene 1 298 4 4.54178 0 978 0 1
genomeend 95

/* Organism #96 Fitness: 4 Error: 2 */
genomestart 96
trait 1 0.0035783 0.947954 0.155034 0 0 0 0.845393 0.703421 
trait 2 0.1 0 0.117206 0 0 0.114399 0.491836 0 
trait 3 1 0 0 0 0 0 0.0453352 0.421766 
node 1 1 1 3
node 2 1 1 1
node 3 3 1 1
node 4 2 0 2
node 9 2 0 0
node 18 1 0 0
node 186 1 0 0
node 203 1 0 0
node 233 1 0 0
node 277 1 0 0
node 298 1 0 0
gene 2 1 4 -6.39555 0 1 -6.39555 1
gene 1 2 4 3.61454 0 2 3.61454 1
gene 2 3 4 -0.223243 0 3 -0.223243 1
