
/* Species #1 : (Size 8) (AF 7.42324) (Age 26)  */


/* Organism #0 Fitness: 9 Error: 1 */
genomestart 0
trait 1 0.1 0.168004 0 0.0213095 0 0 0 0.050737 
trait 2 0.21875 0.00227244 0.0103207 0 0 0 0.0173805 0.00751757 
trait 3 0.484548 0 0.0141417 0 0.0154018 0.349133 0.00893704 0 
node 1 2 1 3
node 2 1 1 1
node 3 3 1 1
node 4 3 0 2
gene 3 1 4 -3.91392 0 1 -3.91392 1
gene 3 2 4 8 0 2 8 1
gene 2 3 4 8 0 3 8 1
genomeend 0

/* Organism #1 Fitness: 9 Error: 1 */
genomestart 1
trait 1 0.1 0.168004 0 0.0213095 0 0 0 0.050737 
trait 2 0.21875 0.00227244 0.0103207 0 0 0 0.0173805 0.00751757 
trait 3 0.338517 0.768059 0 0 0 0.349133 0.00893704 0.443617 
node 1 2 1 3
node 2 1 1 1
node 3 3 1 1
node 4 3 0 2
gene 3 1 4 -3.46621 0 1 -3.46621 1
gene 3 2 4 8 0 2 8 1
gene 2 3 4 8 0 3 8 1
genomeend 1

/* Organism #2 Fitness: 9 Error: 1 */
genomestart 2
trait 1 0.1 0.168004 0 0.0213095 0 0 0 0.050737 
trait 2 0.21875 0.00227244 0.0103207 0 0 0 0.0173805 0.00751757 
trait 3 0.484548 0 0.0141417 0 0.0154018 0.349133 0.00893704 0 
node 1 2 1 3
node 2 1 1 1
node 3 3 1 1
node 4 3 0 2
gene 3 1 4 -3.91392 0 1 -3.91392 1
gene 3 2 4 8 0 2 8 1
gene 2 3 4 8 0 3 8 1
genomeend 2

/* Organism #3 Fitness: 8.99999 Error: 1 */
genomestart 3
trait 1 0.1 0.168004 0 0.0213095 0 0 0 0.050737 
trait 2 0.21875 0.564545 0.449818 0 0 0 0.0173805 0.448418 
trait 3 0.484548 0 0.0141417 0 0.0154018 0.349133 0.00893704 0 
node 1 2 1 3
node 2 1 1 1
node 3 3 1 1
node 4 3 0 2
gene 3 1 4 -3.4228 0 1 -3.4228 1
gene 3 2 4 6.27006 0 2 6.27006 1
gene 2 3 4 8 0 3 8 1
genomeend 3

/* Organism #4 Fitness: 4.00002 Error: 2 */
genomestart 4
trait 1 0.1 0.168004 0 0.0213095 0 0 0 0.050737 
trait 2 0.21875 0.00227244 0.0103207 0 0 0 0.0173805 0.00751757 
trait 3 0.484548 0 0.0141417 0 0.0154018 0.349133 0.00893704 0 
node 1 2 1 3
node 2 1 1 1
node 3 3 1 1
node 4 3 0 2
gene 3 1 4 -3.80275 0 1 -3.80275 1
gene 2 2 4 8 0 2 8 1
gene 2 3 4 -1.66501 0 3 -1.66501 1
genomeend 4

/* Organism #5 Fitness: 1.3883 Error: 2.82174 */
genomestart 5
trait 1 0.1 0.168004 0 0.0213095 0 0 0 0.050737 
trait 2 0.21875 0.00227244 0.0103207 0 0 0 0.0173805 0.00751757 
trait 3 0.484548 0 0.0141417 0 0.0154018 0.349133 0.00893704 0 
node 1 2 1 3
node 2 1 1 1
node 3 1 1 1
node 4 3 0 2
gene 3 1 4 -1.74169 0 1 -1.74169 1
gene 3 2 4 1.21624 0 2 1.21624 1
gene 2 3 4 1.01932 0 3 1.01932 1
genomeend 5

/* Organism #6 Fitness: 8.99762 Error: 1.0004 */
genomestart 6
trait 1 0.1 0.168004 0 0.0213095 0 0 0 0.050737 
trait 2 0.21875 0.00227244 0.0103207 0 0 0 0.0173805 0.00751757 
trait 3 0.484548 0 0.0141417 0 0.0154018 0.349133 0.00893704 0 
node 1 2 1 3
node 2 1 1 1
node 3 3 1 1
node 4 3 0 2
gene 3 1 4 -4.80628 0 1 -4.80628 1
gene 3 2 4 7.58502 0 2 7.58502 1
gene 2 3 4 6.3977 0 3 6.3977 1
genomeend 6

/* Organism #7 Fitness: 8.99997 Error: 1 */
genomestart 7
trait 1 0.1 0.168004 0 0.0213095 0 0 0 0.050737 
trait 2 0.21875 0.00227244 0.0103207 0 0 0 0.0173805 0.00751757 
trait 3 0.484548 0 0.0141417 0 0.0154018 0.349133 0.00893704 0 
node 1 2 1 3
node 2 1 1 1
node 3 3 1 1
node 4 3 0 2
gene 3 1 4 -5.35912 0 1 -5.35912 1
gene 2 2 4 8 0 2 8 1
gene 2 3 4 7.96017 0 3 7.96017 1
genomeend 7

/* Species #2 : (Size 9) (AF 8.41696) (Age 23)  */


/* Organism #8 Fitness: 9 Error: 1 */
genomestart 8
trait 1 0.220374 0 0.173076 0.169106 0 0.17123 0 0 
trait 2 0.1 0.191656 0.0665914 0 0 0 0 0.480819 
trait 3 0.103125 0 0 0.555871 0.5338 0 0 0.499453 
node 1 2 1 3
node 2 3 1 1
node 3 1 1 1
node 4 3 0 2
node 9 1 0 0
gene 1 1 4 -7.37884 0 1 -7.37884 1
gene 2 2 4 -8 0 2 -8 1
gene 3 3 4 4.8062 0 3 4.8062 1
gene 3 3 9 5.28668 0 12 5.28668 1
gene 3 9 4 6.55852 0 13 6.55852 1
genomeend 8

/* Organism #9 Fitness: 8.99799 Error: 1.00034 */
genomestart 9
trait 1 0.220374 0 0.332962 0.126829 0 0.128423 0 0 
trait 2 0.1 0.191656 0.0665914 0 0 0 0 0.480819 
trait 3 0.103125 0 0 0.555871 0.5338 0 0 0.499453 
node 1 2 1 3
node 2 3 1 1
node 3 1 1 1
node 4 3 0 2
node 9 3 0 0
gene 1 1 4 -5.88084 0 1 -5.88084 1
gene 2 2 4 -8 0 2 -8 1
gene 3 3 4 1.36424 0 3 1.36424 1
gene 3 3 9 3.13284 0 12 3.13284 1
gene 3 9 4 6.14186 0 13 6.14186 1
gene 2 2 9 -1.24567 0 202 -1.24567 1
genomeend 9

/* Organism #10 Fitness: 9 Error: 1 */
genomestart 10
trait 1 0.220374 0 0.173076 0.169106 0 0.17123 0 0 
trait 2 0.1 0.191656 0.0665914 0 0 0 0 0.480819 
trait 3 0.103125 0 0 0.555871 0.5338 0 0 0.499453 
node 1 2 1 3
node 2 3 1 1
node 3 1 1 1
node 4 3 0 2
node 9 1 0 0
gene 1 1 4 -7.37884 0 1 -7.37884 1
gene 2 2 4 -8 0 2 -8 1
gene 3 3 4 4.8062 0 3 4.8062 1
gene 1 3 9 5.28668 0 12 5.28668 1
gene 3 9 4 6.55852 0 13 6.55852 1
genomeend 10

/* Organism #11 Fitness: 9 Error: 1 */
genomestart 11
trait 1 0.220374 0 0.253019 0.147968 0 0.149827 0 0 
trait 2 0.1 0.191656 0.0665914 0 0 0 0 0.480819 
trait 3 0.103125 0 0 0.555871 0.5338 0 0 0.499453 
node 1 2 1 3
node 2 3 1 1
node 3 1 1 1
node 4 3 0 2
node 9 1 0 0
gene 1 1 4 -6.99393 0 1 -6.99393 1
gene 2 2 4 -8 0 2 -8 1
gene 3 3 4 3.57867 0 3 3.57867 1
gene 3 3 9 5.28668 0 12 5.28668 1
gene 3 9 4 6.55852 0 13 6.55852 1
genomeend 11

/* Organism #12 Fitness: 9 Error: 1 */
genomestart 12
trait 1 0.220374 0 0.332962 0.126829 0 0.128423 0 0 
trait 2 0.1 0.191656 0.0665914 0 0 0 0 0.480819 
trait 3 0.103125 0 0 0.555871 0.5338 0 0 0.499453 
node 1 2 1 3
node 2 3 1 1
node 3 1 1 1
node 4 3 0 2
node 9 3 0 0
gene 1 1 4 -7.46017 0 1 -7.46017 1
gene 2 2 4 -8 0 2 -8 1
gene 3 3 4 3.57867 0 3 3.57867 1
gene 3 3 9 2.95186 0 12 2.95186 1
gene 3 9 4 8 0 13 8 1
gene 2 2 9 -1.40255 0 202 -1.40255 1
genomeend 12

/* Organism #13 Fitness: 8.99942 Error: 1.0001 */
genomestart 13
trait 1 0.38786 0 0.253019 0.266135 0 1 0 0 
trait 2 0.1 0.191656 0.0665914 0 0 0 0 0.480819 
trait 3 0.103125 0 0 0.555871 0.5338 0 0 0.499453 
node 1 2 1 3
node 2 3 1 1
node 3 1 1 1
node 4 2 0 2
node 9 1 0 0
gene 1 1 4 -7.85409 0 1 -7.85409 1
gene 2 2 4 -8 0 2 -8 1
gene 3 3 4 2.65563 0 3 2.65563 1
gene 3 3 9 5.22366 0 12 5.22366 1
gene 3 9 4 7.07443 0 13 7.07443 1
genomeend 13

/* Organism #14 Fitness: 8.97985 Error: 1.00336 */
genomestart 14
trait 1 0.220374 0 0.173076 0.169106 0 0.17123 0 0 
trait 2 0.1 0.191656 0.0665914 0 0 0 0 0.480819 
trait 3 0.103125 0 0 0.555871 0.5338 0 0 0.499453 
node 1 2 1 3
node 2 3 1 1
node 3 1 1 1
node 4 3 0 2
node 9 1 0 0
gene 1 1 4 -8 0 1 -8 1
gene 2 2 4 -6.4682 0 2 -6.4682 1
gene 3 3 4 6.09034 0 3 6.09034 1
gene 3 3 9 5.14797 0 12 5.14797 1
gene 3 9 4 7.22184 0 13 7.22184 1
genomeend 14

/* Organism #15 Fitness: 4.00112 Error: 1.99972 */
genomestart 15
trait 1 0 0 0.173076 0.103003 0 0.17123 0 0 
trait 2 0.1 0.191656 0.0665914 0 0 0 0 0.480819 
trait 3 0.103125 0 0 0.555871 0.5338 0 0 0.499453 
node 1 2 1 3
node 2 3 1 1
node 3 1 1 1
node 4 3 0 2
node 9 1 0 0
gene 1 1 4 1.64914 0 1 1.64914 1
gene 2 2 4 -2.36839 0 2 -2.36839 1
gene 3 3 4 2.37792 0 3 2.37792 1
gene 3 3 9 -1.96471 0 12 -1.96471 1
gene 3 9 4 6.55852 0 13 6.55852 1
genomeend 15

/* Organism #16 Fitness: 8.77429 Error: 1.03786 */
genomestart 16
trait 1 0.220374 0 0.173076 0.169106 0 0.17123 0 0 
trait 2 0.1 0.191656 0.0665914 0 0 0 0 0.480819 
trait 3 0.103125 0 0 0.555871 0.5338 0 0 0.499453 
node 1 2 1 3
node 2 3 1 1
node 3 1 1 1
node 4 3 0 2
node 9 1 0 0
gene 1 1 4 -6.56781 0 1 -6.56781 1
gene 2 2 4 -5.81587 0 2 -5.81587 1
gene 3 3 4 6.85704 0 3 6.85704 1
gene 3 3 9 5.83693 0 12 5.83693 1
gene 3 9 4 4.86962 0 13 4.86962 1
genomeend 16

/* Species #3 : (Size 10) (AF 8.12034) (Age 22)  */


/* Organism #17 Fitness: 9 Error: 1 */
genomestart 17
trait 1 0.1 0 0 0 0 0 0 0 
trait 2 0.2 0 0 0 0 0 0 0 
trait 3 0.344443 0 0.114475 0 0.124676 0 0.0723441 0 
node 1 2 1 3
node 2 2 1 1
node 3 2 1 1
node 4 1 0 2
node 11 1 0 0
node 72 1 0 0
gene 3 1 4 -3.83971 0 1 -3.83971 1
gene 3 2 4 8 0 2 8 1
gene 2 3 4 8 0 3 8 1
gene 2 3 11 -0.207503 0 16 -0.207503 0
gene 2 11 4 6.87527 0 17 6.87527 1
gene 2 1 11 -2.91646 0 32 -2.91646 1
gene 2 3 72 1 0 214 0 1
gene 2 72 11 -0.207503 0 215 0 1
genomeend 17

/* Organism #18 Fitness: 8.99984 Error: 1.00003 */
genomestart 18
trait 1 0.1 0 0 0 0 0 0 0 
trait 2 0.2 0 0 0 0 0 0 0 
trait 3 0.344443 0 0.114475 0 0.124676 0 0.0723441 0 
node 1 2 1 3
node 2 2 1 1
node 3 2 1 1
node 4 1 0 2
node 11 1 0 0
gene 3 1 4 -3.74784 0 1 -3.74784 1
gene 3 2 4 5.84616 0 2 5.84616 1
gene 2 3 4 8 0 3 8 1
gene 2 3 11 -0.951315 0 16 -0.951315 1
gene 2 11 4 5.12976 0 17 5.12976 1
gene 2 1 11 -1.01111 0 32 -1.01111 1
genomeend 18

/* Organism #19 Fitness: 8.99551 Error: 1.00075 */
genomestart 19
trait 1 0.1 0 0 0 0 0 0 0 
trait 2 0.2 0 0 0 0 0 0 0 
trait 3 0.344443 0 0.114475 0 0.124676 0 0.0723441 0 
node 1 2 1 3
node 2 2 1 1
node 3 2 1 1
node 4 1 0 2
node 11 1 0 0
node 72 1 0 0
gene 3 1 4 -1.46163 0 1 -1.46163 1
gene 3 2 4 8 0 2 8 1
gene 2 3 4 8 0 3 8 1
gene 2 3 11 -0.207503 0 16 -0.207503 1
gene 2 11 4 4.82236 0 17 4.82236 1
gene 2 1 11 -3.23858 0 32 -3.23858 1
gene 2 3 72 2.63617 0 214 2.63617 1
gene 2 72 11 1.58513 0 215 1.58513 1
genomeend 19

/* Organism #20 Fitness: 5.30778 Error: 1.69614 */
genomestart 20
trait 1 0.1 0 0 0 0 0 0 0 
trait 2 0.2 0 0 0 0 0 0 0 
trait 3 0.344443 0 0.114475 0 0.124676 0 0.0723441 0 
node 1 1 1 3
node 2 2 1 1
node 3 2 1 1
node 4 1 0 2
node 11 1 0 0
node 72 1 0 0
gene 3 1 4 -6.27714 0 1 -6.27714 1
gene 3 2 4 8 0 2 8 1
gene 2 3 4 6.109 0 3 6.109 1
gene 2 3 11 1.33048 0 16 1.33048 0
gene 2 11 4 8 0 17 8 1
gene 2 1 11 -4.67982 0 32 -4.67982 1
gene 2 3 72 2.00459 0 214 2.00459 1
gene 1 72 11 -2.64189 0 215 -2.64189 1
genomeend 20

/* Organism #21 Fitness: 4.00002 Error: 2 */
genomestart 21
trait 1 0.1 0 0 0 0 0 0 0 
trait 2 0.2 0 0 0 0 0 0 0 
trait 3 0.344443 0 0.114475 0 0.124676 0 0.0723441 0 
node 1 2 1 3
node 2 2 1 1
node 3 2 1 1
node 4 1 0 2
node 11 1 0 0
node 72 1 0 0
gene 3 1 4 2.44736 0 1 2.44736 1
gene 3 2 4 0.243995 0 2 0.243995 1
gene 2 3 4 8 0 3 8 1
gene 2 3 11 -2.29604 0 16 -2.29604 0
gene 2 11 4 0.409253 0 17 0.409253 1
gene 2 1 11 -4.10324 0 32 -4.10324 1
gene 2 3 72 -1.26377 0 214 -1.26377 1
gene 2 72 11 -1.97369 0 215 -1.97369 1
genomeend 21

/* Organism #22 Fitness: 9 Error: 1 */
genomestart 22
trait 1 0.1 0 0 0 0 0 0 0 
trait 2 0.2 0 0 0 0 0 0 0 
trait 3 0.344443 0 0.114475 0 0.124676 0 0.0723441 0 
node 1 2 1 3
node 2 2 1 1
node 3 2 1 1
node 4 1 0 2
node 11 1 0 0
node 72 1 0 0
gene 3 1 4 -4.71452 0 1 -4.71452 1
gene 3 2 4 8 0 2 8 1
gene 2 3 4 7.67093 0 3 7.67093 1
gene 2 3 11 -1.74602 0 16 -1.74602 0
gene 2 11 4 7.99491 0 17 7.99491 1
gene 2 1 11 -0.467116 0 32 -0.467116 1
gene 2 3 72 -0.0324412 0 214 -0.0324412 1
gene 2 72 11 -2.25323 0 215 -2.25323 1
genomeend 22

/* Organism #23 Fitness: 8.99987 Error: 1.00002 */
genomestart 23
trait 1 0.1 0 0 0 0 0 0 0 
trait 2 0.2 0 0 0 0 0 0 0 
trait 3 0.344443 0 0.114475 0 0.124676 0 0.0723441 0 
node 1 2 1 3
node 2 2 1 1
node 3 2 1 1
node 4 1 0 2
node 11 1 0 0
node 72 1 0 0
gene 3 1 4 -3.37773 0 1 -3.37773 1
gene 3 2 4 8 0 2 8 1
gene 2 3 4 5.55669 0 3 5.55669 1
gene 2 3 11 0.573923 0 16 0.573923 0
gene 2 11 4 8 0 17 8 1
gene 2 1 11 -1.30164 0 32 -1.30164 1
gene 2 3 72 0.216514 0 214 0.216514 1
gene 2 72 11 -0.710906 0 215 -0.710906 1
genomeend 23

/* Organism #24 Fitness: 8.90035 Error: 1.01665 */
genomestart 24
trait 1 0.1 0 0 0 0 0 0 0 
trait 2 0.2 0 0 0 0 0 0 0 
trait 3 0.344443 0 0.114475 0 0.124676 0 0.0723441 0 
node 1 2 1 3
node 2 2 1 1
node 3 2 1 1
node 4 1 0 2
node 11 1 0 0
node 72 1 0 0
gene 3 1 4 -4.80493 0 1 -4.80493 1
gene 3 2 4 8 0 2 8 1
gene 2 3 4 5.63276 0 3 5.63276 1
gene 2 3 11 -2.28124 0 16 -2.28124 0
gene 2 11 4 6.16068 0 17 6.16068 1
gene 2 1 11 -0.848369 0 32 -0.848369 1
gene 2 3 72 1.10681 0 214 1.10681 1
gene 2 72 11 -1.13069 0 215 -1.13069 1
genomeend 24

/* Organism #25 Fitness: 9 Error: 1 */
genomestart 25
trait 1 0.1 0 0 0 0 0 0 0 
trait 2 0.2 0 0 0 0 0 0 0 
trait 3 0.344443 0 0.114475 0 0.124676 0 0.0723441 0 
node 1 2 1 3
node 2 2 1 1
node 3 2 1 1
node 4 1 0 2
node 11 1 0 0
node 72 1 0 0
gene 3 1 4 -3.83971 0 1 -3.83971 1
gene 3 2 4 7.40985 0 2 7.40985 1
gene 2 3 4 8 0 3 8 1
gene 2 3 11 -0.658589 0 16 -0.658589 0
gene 2 11 4 -0.403455 0 17 -0.403455 1
gene 2 1 11 -2.91646 0 32 -2.91646 1
gene 2 3 72 2.45909 0 214 2.45909 1
gene 2 72 11 2.30247 0 215 2.30247 1
genomeend 25

/* Organism #26 Fitness: 9 Error: 1 */
genomestart 26
trait 1 0.1 0 0 0 0 0 0 0 
trait 2 0.2 0 0 0 0 0 0 0 
trait 3 0.344443 0 0.114475 0 0.124676 0 0.0723441 0 
node 1 2 1 3
node 2 2 1 1
node 3 2 1 1
node 4 1 0 2
node 11 1 0 0
node 72 1 0 0
gene 1 1 4 -3.83971 0 1 -3.83971 1
gene 3 2 4 7.27877 0 2 7.27877 1
gene 2 3 4 7.40367 0 3 7.40367 1
gene 2 3 11 1.20947 0 16 1.20947 0
gene 2 11 4 5.22948 0 17 5.22948 1
gene 2 1 11 -1.61255 0 32 -1.61255 1
gene 2 3 72 1.10308 0 214 1.10308 1
gene 2 72 11 0.329012 0 215 0.329012 1
genomeend 26

/* Species #4 : (Size 6) (AF 6.01959) (Age 22)  */


/* Organism #27 Fitness: 9 Error: 1 */
genomestart 27
trait 1 0.1 0 0 0 0 0 0 0 
trait 2 0.2 0 0 0 0 0 0 0 
trait 3 0.3 0 0 0 0 0 0 0 
node 1 1 1 3
node 2 3 1 1
node 3 1 1 1
node 4 2 0 2
node 12 1 0 0
gene 3 1 4 4.04691 0 1 4.04691 1
gene 1 2 4 -2.76193 0 2 -2.76193 1
gene 1 3 4 1.75176 0 3 1.75176 1
gene 3 2 12 2.21456 0 18 2.21456 1
gene 1 12 4 -8 0 19 -8 1
gene 2 3 12 -2.65336 0 38 -2.65336 1
gene 2 1 12 1.25302 0 69 1.25302 1
genomeend 27

/* Organism #28 Fitness: 1.13114 Error: 2.93645 */
genomestart 28
trait 1 0.1 0 0 0 0 0 0 0 
trait 2 0.2 0 0 0 0 0 0 0 
trait 3 0.3 0 0 0 0 0 0 0 
node 1 1 1 3
node 2 2 1 1
node 3 1 1 1
node 4 2 0 2
node 12 1 0 0
gene 3 1 4 6.38173 0 1 6.38173 1
gene 1 2 4 -1.06532 0 2 -1.06532 1
gene 1 3 4 1.50861 0 3 1.50861 1
gene 3 2 12 1.45068 0 18 1.45068 1
gene 1 12 4 -5.87042 0 19 -5.87042 1
gene 2 3 12 -0.950423 0 38 -0.950423 1
gene 2 1 12 -0.0253227 0 69 -0.0253227 1
genomeend 28

/* Organism #29 Fitness: 8.99857 Error: 1.00024 */
genomestart 29
trait 1 0.1 0 0 0 0 0 0 0 
trait 2 0.2 0 0 0 0 0 0 0 
trait 3 0.3 0 0 0 0 0 0 0 
node 1 1 1 3
node 2 3 1 1
node 3 1 1 1
node 4 2 0 2
node 12 1 0 0
gene 3 1 4 6.30558 0 1 6.30558 1
gene 1 2 4 -4.84489 0 2 -4.84489 1
gene 1 3 4 1.87277 0 3 1.87277 1
gene 3 2 12 3.6661 0 18 3.6661 1
gene 1 12 4 -8 0 19 -8 1
gene 2 3 12 -3.83847 0 38 -3.83847 1
gene 1 1 12 2.16739 0 69 2.16739 1
genomeend 29

/* Organism #30 Fitness: 9 Error: 1 */
genomestart 30
trait 1 0.1 0 0 0 0 0 0 0 
trait 2 0.2 0 0 0 0 0 0 0 
trait 3 0.3 0 0 0 0 0 0 0 
node 1 1 1 3
node 2 3 1 1
node 3 1 1 1
node 4 2 0 2
node 12 1 0 0
gene 3 1 4 4.04691 0 1 4.04691 1
gene 1 2 4 -2.76193 0 2 -2.76193 1
gene 1 3 4 1.75176 0 3 1.75176 1
gene 3 2 12 2.21456 0 18 2.21456 1
gene 1 12 4 -8 0 19 -8 1
gene 2 3 12 -2.65336 0 38 -2.65336 1
gene 2 1 12 1.25302 0 69 1.25302 1
genomeend 30

/* Organism #31 Fitness: 3.98783 Error: 2.00304 */
genomestart 31
trait 1 0.1 0 0 0 0 0 0 0 
trait 2 0.2 0 0 0 0 0 0 0 
trait 3 0.3 0 0 0 0 0 0 0 
node 1 1 1 3
node 2 3 1 1
node 3 1 1 1
node 4 2 0 2
node 12 1 0 0
gene 3 1 4 2.81201 0 1 2.81201 1
gene 1 2 4 -5.60018 0 2 -5.60018 1
gene 1 3 4 -1.714 0 3 -1.714 1
gene 3 2 12 4.81458 0 18 4.81458 1
gene 1 12 4 -1.76084 0 19 -1.76084 1
gene 2 3 12 -2.75315 0 38 -2.75315 1
gene 2 1 12 2.24842 0 69 2.24842 1
genomeend 31

/* Organism #32 Fitness: 3.99999 Error: 2 */
genomestart 32
trait 1 0.1 0 0 0 0 0 0 0 
trait 2 0.2 0 0 0 0 0 0 0 
trait 3 0.3 0 0 0 0 0 0 0 
node 1 1 1 3
node 2 3 1 1
node 3 1 1 1
node 4 2 0 2
node 12 1 0 0
gene 3 1 4 3.98957 0 1 3.98957 1
gene 1 2 4 -4.75375 0 2 -4.75375 1
gene 1 3 4 3.39862 0 3 3.39862 1
gene 3 2 12 -0.142079 0 18 -0.142079 1
gene 1 12 4 -6.47743 0 19 -6.47743 1
gene 2 3 12 -2.99402 0 38 -2.99402 1
gene 2 1 12 1.18668 0 69 1.18668 1
genomeend 32

/* Species #5 : (Size 7) (AF 6.78695) (Age 21)  */


/* Organism #33 Fitness: 9 Error: 1 */
genomestart 33
trait 1 0.1 0 0 0 0 0 0 0 
trait 2 0.2 0 0 0 0 0 0 0 
trait 3 0.241666 0.0733436 0.0662252 0.0348369 0.055146 0 0.018086 0 
node 1 1 1 3
node 2 3 1 1
node 3 1 1 1
node 4 2 0 2
node 15 1 0 0
gene 3 1 4 -4.54263 0 1 -4.54263 1
gene 2 2 4 6.44042 0 2 6.44042 1
gene 3 3 4 -1.79411 0 3 -1.79411 0
gene 3 3 15 2.74451 0 26 2.74451 1
gene 3 15 4 8 0 27 8 1
gene 3 2 15 4.00549 0 61 4.00549 1
gene 1 1 15 -0.590236 0 72 -0.590236 1
genomeend 33

/* Organism #34 Fitness: 8.50862 Error: 1.08305 */
genomestart 34
trait 1 0.1 0 0 0 0 0 0 0 
trait 2 0.2 0 0 0 0 0 0 0 
trait 3 0.241666 0.0733436 0.0662252 0.0348369 0.055146 0 0.018086 0 
node 1 1 1 3
node 2 3 1 1
node 3 1 1 1
node 4 2 0 2
node 15 1 0 0
gene 3 1 4 -6.85112 0 1 -6.85112 1
gene 2 2 4 5.72221 0 2 5.72221 1
gene 3 3 4 -1.18778 0 3 -1.18778 0
gene 3 3 15 5.19179 0 26 5.19179 1
gene 3 15 4 7.33897 0 27 7.33897 1
gene 3 2 15 5.8144 0 61 5.8144 1
gene 1 1 15 -2.9666 0 72 -2.9666 1
genomeend 34

/* Organism #35 Fitness: 4 Error: 2 */
genomestart 35
trait 1 0.1 0 0 0 0 0 0 0 
trait 2 0.2 0 0 0 0 0 0 0 
trait 3 0.241666 0.0733436 0.0662252 0.0348369 0.055146 0 0.018086 0 
node 1 1 1 3
node 2 3 1 1
node 3 1 1 1
node 4 2 0 2
node 15 1 0 0
gene 3 1 4 -4.46473 0 1 -4.46473 1
gene 2 2 4 5.77802 0 2 5.77802 1
gene 3 3 4 -3.47789 0 3 -3.47789 0
gene 3 3 15 1.6312 0 26 1.6312 1
gene 3 15 4 8 0 27 8 1
gene 3 2 15 5.25355 0 61 5.25355 1
gene 1 1 15 -2.5364 0 72 -2.5364 1
genomeend 35

/* Organism #36 Fitness: 9 Error: 1 */
genomestart 36
trait 1 0.1 0 0 0 0 0 0 0 
trait 2 0.2 0 0 0 0 0 0 0 
trait 3 0.241666 0.0733436 0.0662252 0.0348369 0.055146 0 0.018086 0 
node 1 1 1 3
node 2 3 1 1
node 3 1 1 1
node 4 2 0 2
node 15 1 0 0
gene 3 1 4 -4.54263 0 1 -4.54263 1
gene 2 2 4 4.11102 0 2 4.11102 1
gene 3 3 4 0.681021 0 3 0.681021 0
gene 3 3 15 3.55516 0 26 3.55516 1
gene 3 15 4 8 0 27 8 1
gene 3 2 15 3.91287 0 61 3.91287 1
gene 1 1 15 -0.638752 0 72 -0.638752 1
genomeend 36

/* Organism #37 Fitness: 4.00001 Error: 2 */
genomestart 37
trait 1 0.1 0 0 0 0 0 0 0 
trait 2 0.2 0 0 0 0 0 0 0 
trait 3 0.241666 0.0733436 0.0662252 0.0348369 0.055146 0 0.018086 0 
node 1 1 1 3
node 2 3 1 1
node 3 1 1 1
node 4 1 0 2
node 15 1 0 0
gene 3 1 4 -5.99676 0 1 -5.99676 1
gene 2 2 4 5.1501 0 2 5.1501 1
gene 3 3 4 -1.79411 0 3 -1.79411 0
gene 3 3 15 0.89288 0 26 0.89288 1
gene 3 15 4 8 0 27 8 1
gene 3 2 15 4.00549 0 61 4.00549 1
gene 1 1 15 1.28613 0 72 1.28613 1
genomeend 37

/* Organism #38 Fitness: 9 Error: 1 */
genomestart 38
trait 1 0.1 0 0 0 0 0 0 0 
trait 2 0.2 0 0 0 0 0 0 0 
trait 3 0.241666 0.0733436 0.0662252 0.0348369 0.055146 0 0.018086 0 
node 1 1 1 3
node 2 3 1 1
node 3 1 1 1
node 4 2 0 2
node 15 1 0 0
gene 3 1 4 -4.54263 0 1 -4.54263 1
gene 2 2 4 6.44042 0 2 6.44042 1
gene 3 3 4 -1.79411 0 3 -1.79411 0
gene 3 3 15 2.74451 0 26 2.74451 1
gene 3 15 4 8 0 27 8 1
gene 3 2 15 4.00549 0 61 4.00549 1
gene 1 1 15 -0.590236 0 72 -0.590236 1
genomeend 38

/* Organism #39 Fitness: 4 Error: 2 */
genomestart 39
trait 1 0.1 0 0 0 0 0 0 0 
trait 2 0.2 0 0 0 0 0 0 0 
trait 3 0.241666 0.0733436 0.0662252 0.0348369 0.055146 0 0.018086 0 
node 1 1 1 3
node 2 3 1 1
node 3 1 1 1
node 4 1 0 2
node 15 1 0 0
gene 3 1 4 -4.30725 0 1 -4.30725 1
gene 2 2 4 2.92553 0 2 2.92553 1
gene 3 3 4 -0.901212 0 3 -0.901212 0
gene 3 3 15 3.19764 0 26 3.19764 1
gene 3 15 4 8 0 27 8 1
gene 3 2 15 5.4507 0 61 5.4507 1
gene 1 1 15 0.57664 0 72 0.57664 1
genomeend 39

/* Species #6 : (Size 8) (AF 6.47318) (Age 20)  */


/* Organism #40 Fitness: 8.99955 Error: 1.00008 */
genomestart 40
trait 1 0.1 0 0 0 0 0 0 0 
trait 2 0.2 0 0 0 0 0 0 0 
trait 3 0.492724 0 0.391247 0 0.48793 0 0 0 
node 1 2 1 3
node 2 2 1 1
node 3 1 1 1
node 4 3 0 2
node 9 1 0 0
node 19 1 0 0
gene 1 1 4 -1.96211 0 1 -1.96211 1
gene 2 2 4 1.26197 0 2 1.26197 1
gene 3 3 4 3.87967 0 3 3.87967 1
gene 3 3 9 -0.373783 0 12 -0.373783 1
gene 3 9 4 3.5234 0 13 3.5234 1
gene 1 1 9 0.843978 0 29 0.843978 1
gene 3 3 19 -4.83375 0 39 -4.83375 1
gene 3 19 9 -1.83563 0 40 -1.83563 1
gene 2 2 19 -1.83227 0 53 -1.83227 1
gene 2 1 19 1.49409 0 187 1.49409 1
genomeend 40

/* Organism #41 Fitness: 3.99628 Error: 2.00093 */
genomestart 41
trait 1 0.1 0 0 0 0 0 0 0 
trait 2 0.2 0 0 0 0 0 0 0 
trait 3 0.492724 0 0.391247 0 0.48793 0 0 0 
node 1 2 1 3
node 2 2 1 1
node 3 1 1 1
node 4 3 0 2
node 9 1 0 0
node 19 1 0 0
gene 1 1 4 -2.7842 0 1 -2.7842 1
gene 2 2 4 -0.774983 0 2 -0.774983 1
gene 3 3 4 1.88894 0 3 1.88894 1
gene 3 3 9 -1.66929 0 12 -1.66929 1
gene 3 9 4 4.15361 0 13 4.15361 1
gene 1 1 9 2.32359 0 29 2.32359 1
gene 3 3 19 -2.60452 0 39 -2.60452 1
gene 3 19 9 -2.46859 0 40 -2.46859 1
gene 2 2 19 0.585788 0 53 0.585788 1
gene 2 1 19 1.42001 0 187 1.42001 1
genomeend 41

/* Organism #42 Fitness: 8.99953 Error: 1.00008 */
genomestart 42
trait 1 0.1 0 0 0 0 0 0 0 
trait 2 0.2 0 0 0 0 0 0 0 
trait 3 0.492724 0 0.391247 0 0.48793 0 0 0 
node 1 2 1 3
node 2 2 1 1
node 3 1 1 1
node 4 3 0 2
node 9 1 0 0
node 19 1 0 0
node 79 1 0 0
gene 1 1 4 -1.96211 0 1 -1.96211 1
gene 2 2 4 1.26197 0 2 1.26197 1
gene 3 3 4 3.87967 0 3 3.87967 1
gene 3 3 9 -0.373783 0 12 -0.373783 0
gene 3 9 4 3.5234 0 13 3.5234 1
gene 1 1 9 0.843978 0 29 0.843978 1
gene 3 3 19 -4.83375 0 39 -4.83375 1
gene 3 19 9 -1.83563 0 40 -1.83563 1
gene 2 2 19 -1.83227 0 53 -1.83227 1
gene 2 1 19 1.49409 0 187 1.49409 1
gene 3 3 79 1 0 231 0 1
gene 3 79 9 -0.373783 0 232 0 1
genomeend 42

/* Organism #43 Fitness: 8.99955 Error: 1.00008 */
genomestart 43
trait 1 0.1 0 0 0 0 0 0 0 
trait 2 0.283804 0 0 0 0 0.857997 0.941008 0 
trait 3 0.492724 0 0.391247 0 0.48793 0 0 0 
node 1 2 1 3
node 2 2 1 1
node 3 1 1 1
node 4 3 0 2
node 9 1 0 0
node 19 1 0 0
gene 1 1 4 -1.96211 0 1 -1.96211 1
gene 2 2 4 1.26197 0 2 1.26197 1
gene 3 3 4 3.87967 0 3 3.87967 1
gene 3 3 9 -0.373783 0 12 -0.373783 1
gene 3 9 4 3.5234 0 13 3.5234 1
gene 1 1 9 0.843978 0 29 0.843978 1
gene 3 3 19 -4.83375 0 39 -4.83375 1
gene 3 19 9 -1.83563 0 40 -1.83563 1
gene 2 2 19 -1.83227 0 53 -1.83227 1
gene 2 1 19 1.49409 0 187 1.49409 1
genomeend 43

/* Organism #44 Fitness: 4 Error: 2 */
genomestart 44
trait 1 0.1 0 0 0 0 0 0 0 
trait 2 0.2 0 0 0 0 0 0 0 
trait 3 0.492724 0 0.391247 0 0.48793 0 0 0 
node 1 2 1 3
node 2 2 1 1
node 3 1 1 1
node 4 3 0 2
node 9 1 0 0
node 19 1 0 0
gene 1 1 4 -1.29589 0 1 -1.29589 1
gene 2 2 4 3.09743 0 2 3.09743 1
gene 3 3 4 5.48502 0 3 5.48502 1
gene 3 3 9 0.203169 0 12 0.203169 1
gene 3 9 4 5.91636 0 13 5.91636 1
gene 1 1 9 1.26368 0 29 1.26368 1
gene 3 3 19 -3.98602 0 39 -3.98602 1
gene 3 19 9 -3.35866 0 40 -3.35866 1
gene 2 2 19 -0.247826 0 53 -0.247826 1
gene 2 1 19 -0.846049 0 187 -0.846049 1
genomeend 44

/* Organism #45 Fitness: 3.96079 Error: 2.00983 */
genomestart 45
trait 1 0.1 0 0 0 0 0 0 0 
trait 2 0.2 0 0 0 0 0 0 0 
trait 3 0.492724 0 0.391247 0 0.48793 0 0 0 
node 1 2 1 3
node 2 2 1 1
node 3 1 1 1
node 4 3 0 2
node 9 1 0 0
node 19 1 0 0
gene 1 1 4 -0.929823 0 1 -0.929823 1
gene 2 2 4 2.23613 0 2 2.23613 1
gene 3 3 4 2.1765 0 3 2.1765 1
gene 3 3 9 -0.124973 0 12 -0.124973 1
gene 3 9 4 -2.47703 0 13 -2.47703 1
gene 1 1 9 0.843978 0 29 0.843978 1
gene 3 3 19 -4.61493 0 39 -4.61493 1
gene 3 19 9 -2.79262 0 40 -2.79262 1
gene 2 2 19 0.444029 0 53 0.444029 1
gene 2 1 19 -0.523789 0 187 -0.523789 1
genomeend 45

/* Organism #46 Fitness: 3.83022 Error: 2.0429 */
genomestart 46
trait 1 0.1 0 0 0 0 0 0 0 
trait 2 0.2 0 0 0 0 0 0 0 
trait 3 0.492724 0 0.391247 0 0.48793 0 0 0 
node 1 2 1 3
node 2 2 1 1
node 3 1 1 1
node 4 3 0 2
node 9 1 0 0
node 19 1 0 0
gene 1 1 4 -0.629215 0 1 -0.629215 1
gene 2 2 4 -1.04103 0 2 -1.04103 1
gene 3 3 4 4.80499 0 3 4.80499 1
gene 3 3 9 -1.68013 0 12 -1.68013 1
gene 3 9 4 2.57649 0 13 2.57649 1
gene 1 1 9 0.0141797 0 29 0.0141797 1
gene 3 3 19 -6.04793 0 39 -6.04793 1
gene 3 19 9 -4.11498 0 40 -4.11498 1
gene 2 2 19 -1.84005 0 53 -1.84005 1
gene 2 1 19 2.64563 0 187 2.64563 1
genomeend 46

/* Organism #47 Fitness: 8.99955 Error: 1.00008 */
genomestart 47
trait 1 0.1 0 0 0 0 0 0 0 
trait 2 0.2 0 0 0 0 0 0 0 
trait 3 0.492724 0 0.391247 0 0.48793 0 0 0 
node 1 2 1 3
node 2 2 1 1
node 3 1 1 1
node 4 3 0 2
node 9 1 0 0
node 19 1 0 0
gene 1 1 4 -1.96211 0 1 -1.96211 1
gene 2 2 4 1.26197 0 2 1.26197 1
gene 3 3 4 3.87967 0 3 3.87967 1
gene 3 3 9 -0.373783 0 12 -0.373783 1
gene 3 9 4 3.5234 0 13 3.5234 1
gene 1 1 9 0.843978 0 29 0.843978 1
gene 3 3 19 -4.83375 0 39 -4.83375 1
gene 3 19 9 -1.83563 0 40 -1.83563 1
gene 2 2 19 -1.83227 0 53 -1.83227 1
gene 2 1 19 1.49409 0 187 1.49409 1
genomeend 47

/* Species #7 : (Size 6) (AF 4.60632) (Age 19)  */


/* Organism #48 Fitness: 8.21236 Error: 1.13428 */
genomestart 48
trait 1 0.1 0 0 0 0 0 0 0 
trait 2 0.6 0 0 0 0 0 0.0698111 0.13538 
trait 3 0.3 0 0 0 0 0 0 0 
node 1 1 1 3
node 2 3 1 1
node 3 1 1 1
node 4 2 0 2
node 12 1 0 0
node 22 1 0 0
node 48 1 0 0
gene 3 1 4 -1.95471 0 1 -1.95471 1
gene 1 2 4 0.988838 0 2 0.988838 1
gene 1 3 4 4.98592 0 3 4.98592 1
gene 1 2 12 -2.29154 0 18 -2.29154 1
gene 1 12 4 -4.51248 0 19 -4.51248 1
gene 1 2 22 2.35085 0 50 2.35085 1
gene 1 22 12 3.16353 0 51 3.16353 1
gene 2 1 22 -2.54969 0 77 -2.54969 1
gene 1 3 22 -0.188437 0 112 -0.188437 0
gene 1 3 48 0.494705 0 134 0.494705 1
gene 1 48 22 1.26926 0 135 1.26926 1
genomeend 48

/* Organism #49 Fitness: 4.03218 Error: 1.99197 */
genomestart 49
trait 1 0.1 0 0 0 0 0 0 0 
trait 2 0.6 0 0 0 0 0 0.0698111 0.13538 
trait 3 0.3 0 0 0 0 0 0 0 
node 1 1 1 3
node 2 3 1 1
node 3 1 1 1
node 4 2 0 2
node 12 1 0 0
node 22 1 0 0
node 48 1 0 0
gene 3 1 4 -1.95471 0 1 -1.95471 1
gene 1 2 4 0.988838 0 2 0.988838 1
gene 1 3 4 7.35744 0 3 7.35744 1
gene 1 2 12 -0.358493 0 18 -0.358493 1
gene 1 12 4 -4.51248 0 19 -4.51248 1
gene 1 2 22 1.48557 0 50 1.48557 1
gene 1 22 12 -2.07274 0 51 -2.07274 1
gene 2 1 22 -1.67511 0 77 -1.67511 1
gene 1 3 22 -0.351558 0 112 -0.351558 0
gene 1 3 48 1.53027 0 134 1.53027 1
gene 1 48 22 0.224006 0 135 0.224006 1
genomeend 49

/* Organism #50 Fitness: 5.54175 Error: 1.64591 */
genomestart 50
trait 1 0.1 0 0 0 0 0 0 0 
trait 2 0.6 0 0 0 0 0 0.0698111 0.13538 
trait 3 0.3 0 0 0 0 0 0 0 
node 1 1 1 3
node 2 3 1 1
node 3 1 1 1
node 4 2 0 2
node 12 1 0 0
node 22 1 0 0
node 48 1 0 0
gene 3 1 4 -2.83494 0 1 -2.83494 1
gene 1 2 4 0.163617 0 2 0.163617 1
gene 1 3 4 6.19728 0 3 6.19728 1
gene 1 2 12 -2.49105 0 18 -2.49105 1
gene 1 12 4 -6.50755 0 19 -6.50755 1
gene 1 2 22 3.74775 0 50 3.74775 1
gene 1 22 12 4.25098 0 51 4.25098 1
gene 2 1 22 -3.35095 0 77 -3.35095 1
gene 1 3 22 -1.45289 0 112 -1.45289 0
gene 1 3 48 1.20289 0 134 1.20289 1
gene 1 48 22 2.34458 0 135 2.34458 1
genomeend 50

/* Organism #51 Fitness: 1.3125 Error: 2.85436 */
genomestart 51
trait 1 0.1 0 0 0 0 0 0 0 
trait 2 0.6 0 0 0 0 0 0.0698111 0.13538 
trait 3 1 0 0 0 0.596484 0 0 0 
node 1 1 1 3
node 2 3 1 1
node 3 1 1 1
node 4 2 0 2
node 12 1 0 0
node 22 1 0 0
node 48 1 0 0
gene 3 1 4 0.641499 0 1 0.641499 1
gene 1 2 4 -1.03778 0 2 -1.03778 1
gene 1 3 4 -2.43072 0 3 -2.43072 1
gene 1 2 12 -1.6422 0 18 -1.6422 1
gene 1 12 4 2.01025 0 19 2.01025 1
gene 1 2 22 2.7147 0 50 2.7147 1
gene 1 22 12 -1.40484 0 51 -1.40484 1
gene 2 1 22 -4.88436 0 77 -4.88436 1
gene 1 3 22 2.47429 0 112 2.47429 0
gene 1 3 48 2.63984 0 134 2.63984 1
gene 1 48 22 0.283746 0 135 0.283746 1
genomeend 51

/* Organism #52 Fitness: 7.51871 Error: 1.25797 */
genomestart 52
trait 1 0.1 0 0 0 0 0 0 0 
trait 2 0.6 0 0 0 0 0 0.0698111 0.13538 
trait 3 1 0 0 0 0.596484 0 0 0 
node 1 1 1 3
node 2 3 1 1
node 3 1 1 1
node 4 2 0 2
node 12 1 0 0
node 22 1 0 0
node 48 1 0 0
gene 3 1 4 0.890759 0 1 0.890759 1
gene 1 2 4 -0.408147 0 2 -0.408147 1
gene 1 3 4 -0.0614605 0 3 -0.0614605 1
gene 1 2 12 -3.13829 0 18 -3.13829 1
gene 1 12 4 -2.62918 0 19 -2.62918 1
gene 1 2 22 1.21151 0 50 1.21151 1
gene 1 22 12 -0.543229 0 51 -0.543229 1
gene 2 1 22 -1.99494 0 77 -1.99494 1
gene 1 3 22 4.08155 0 112 4.08155 0
gene 1 3 48 3.29347 0 134 3.29347 1
gene 1 48 22 3.1538 0 135 3.1538 1
genomeend 52

/* Organism #53 Fitness: 1.02044 Error: 2.98983 */
genomestart 53
trait 1 0.1 0 0 0 0 0 0 0 
trait 2 0.6 0 0 0 0 0 0.0698111 0.13538 
trait 3 0.65 0 0 0 0.298242 0 0 0 
node 1 1 1 3
node 2 3 1 1
node 3 1 1 1
node 4 2 0 2
node 12 1 0 0
node 22 1 0 0
node 48 1 0 0
gene 3 1 4 -0.464949 0 1 -0.464949 1
gene 1 2 4 2.24357 0 2 2.24357 1
gene 1 3 4 3.07947 0 3 3.07947 1
gene 1 2 12 -0.0363437 0 18 -0.0363437 1
gene 1 12 4 -4.83395 0 19 -4.83395 1
gene 1 2 22 2.68689 0 50 2.68689 1
gene 1 22 12 0.210349 0 51 0.210349 1
gene 2 1 22 -0.181738 0 77 -0.181738 1
gene 1 3 22 2.93425 0 112 2.93425 0
gene 1 3 48 1.38237 0 134 1.38237 1
gene 1 48 22 1.98165 0 135 1.98165 1
genomeend 53

/* Species #8 : (Size 8) (AF 7.0811) (Age 18)  */


/* Organism #54 Fitness: 8.99999 Error: 1 */
genomestart 54
trait 1 0.1 0 0 0 0.632221 0.120914 0 0 
trait 2 0.2 0 0.891171 0.618244 0 0 0 0 
trait 3 0.3 0 0 0 0 0 0 0 
node 1 3 1 3
node 2 2 1 1
node 3 1 1 1
node 4 1 0 2
node 9 1 0 0
node 19 1 0 0
node 25 1 0 0
gene 1 1 4 -2.70211 0 1 -2.70211 1
gene 2 2 4 6.16914 0 2 6.16914 1
gene 3 3 4 8 0 3 8 1
gene 3 3 9 5.10873 0 12 5.10873 1
gene 3 9 4 -2.35676 0 13 -2.35676 0
gene 1 1 9 -0.0222327 0 29 -0.0222327 1
gene 3 3 19 -0.505364 0 39 -0.505364 1
gene 2 19 9 4.77795 0 40 4.77795 1
gene 3 9 25 -0.956008 0 62 -0.956008 1
gene 3 25 4 -1.92981 0 63 -1.92981 1
gene 3 2 25 0.748314 0 99 0.748314 1
genomeend 54

/* Organism #55 Fitness: 4.04085 Error: 1.98981 */
genomestart 55
trait 1 0.1 0 0 0 0.632221 0.120914 0 0 
trait 2 0.2 0 0.891171 0.618244 0 0 0 0 
trait 3 0.3 0 0 0 0 0 0 0 
node 1 3 1 3
node 2 2 1 1
node 3 1 1 1
node 4 1 0 2
node 9 1 0 0
node 19 1 0 0
node 25 1 0 0
gene 1 1 4 -4.91165 0 1 -4.91165 1
gene 2 2 4 3.98539 0 2 3.98539 1
gene 3 3 4 8 0 3 8 1
gene 3 3 9 7.13364 0 12 7.13364 1
gene 3 9 4 -2.7271 0 13 -2.7271 0
gene 1 1 9 1.14598 0 29 1.14598 1
gene 3 3 19 -2.97727 0 39 -2.97727 1
gene 2 19 9 3.36487 0 40 3.36487 1
gene 3 9 25 -2.62545 0 62 -2.62545 1
gene 3 25 4 -3.90394 0 63 -3.90394 1
gene 3 2 25 1.17561 0 99 1.17561 1
genomeend 55

/* Organism #56 Fitness: 8.99999 Error: 1 */
genomestart 56
trait 1 0.1 0 0 0 0.632221 0.120914 0 0 
trait 2 0.2 0 0.891171 0.618244 0 0 0 0 
trait 3 0.3 0 0 0 0 0 0 0 
node 1 3 1 3
node 2 2 1 1
node 3 1 1 1
node 4 1 0 2
node 9 1 0 0
node 19 1 0 0
node 25 1 0 0
gene 1 1 4 -2.70211 0 1 -2.70211 1
gene 2 2 4 6.16914 0 2 6.16914 1
gene 3 3 4 8 0 3 8 1
gene 3 3 9 5.10873 0 12 5.10873 1
gene 3 9 4 -2.35676 0 13 -2.35676 0
gene 1 1 9 -0.0222327 0 29 -0.0222327 1
gene 3 3 19 -0.505364 0 39 -0.505364 1
gene 2 19 9 4.77795 0 40 4.77795 1
gene 3 9 25 -0.956008 0 62 -0.956008 1
gene 3 25 4 -2.04769 0 63 -2.04769 1
gene 3 2 25 0.748314 0 99 0.748314 1
gene 1 2 19 0.00473037 0 233 0.00473037 1
genomeend 56

/* Organism #57 Fitness: 8.86147 Error: 1.02318 */
genomestart 57
trait 1 0.1 0 0 0 0.632221 0.120914 0 0 
trait 2 0.2 0 0.891171 0.618244 0 0 0 0 
trait 3 0.3 0 0 0 0 0 0 0 
node 1 3 1 3
node 2 2 1 1
node 3 1 1 1
node 4 3 0 2
node 9 1 0 0
node 19 1 0 0
node 25 1 0 0
gene 1 1 4 -0.75251 0 1 -0.75251 1
gene 2 2 4 5.8145 0 2 5.8145 1
gene 3 3 4 6.2973 0 3 6.2973 1
gene 3 3 9 6.35556 0 12 6.35556 1
gene 3 9 4 -0.93952 0 13 -0.93952 0
gene 1 1 9 1.55361 0 29 1.55361 1
gene 3 3 19 -2.8359 0 39 -2.8359 1
gene 2 19 9 6.9176 0 40 6.9176 1
gene 3 9 25 -1.2787 0 62 -1.2787 1
gene 3 25 4 -3.92497 0 63 -3.92497 1
gene 3 2 25 -0.868576 0 99 -0.868576 1
genomeend 57

/* Organism #58 Fitness: 4 Error: 2 */
genomestart 58
trait 1 0.1 0 0 0 0.632221 0.120914 0 0 
trait 2 0.2 0 0.891171 0.618244 0 0 0 0 
trait 3 0.3 0 0 0 0 0 0 0 
node 1 3 1 3
node 2 2 1 1
node 3 1 1 1
node 4 3 0 2
node 9 1 0 0
node 19 1 0 0
node 25 1 0 0
gene 1 1 4 -2.70211 0 1 -2.70211 1
gene 2 2 4 5.85606 0 2 5.85606 1
gene 3 3 4 -0.427107 0 3 -0.427107 1
gene 3 3 9 2.69676 0 12 2.69676 1
gene 3 9 4 -1.6588 0 13 -1.6588 0
gene 1 1 9 -1.55422 0 29 -1.55422 1
gene 3 3 19 0.113681 0 39 0.113681 1
gene 2 19 9 6.67513 0 40 6.67513 1
gene 3 9 25 -3.6044 0 62 -3.6044 1
gene 3 25 4 -3.90577 0 63 -3.90577 1
gene 3 2 25 0.137906 0 99 0.137906 1
genomeend 58

/* Organism #59 Fitness: 4.06936 Error: 1.98273 */
genomestart 59
trait 1 0.1 0 0 0 0.632221 0.120914 0 0 
trait 2 0.2 0 0.891171 0.618244 0 0 0 0 
trait 3 0.3 0 0 0 0 0 0 0 
node 1 3 1 3
node 2 2 1 1
node 3 1 1 1
node 4 1 0 2
node 9 1 0 0
node 19 1 0 0
node 25 1 0 0
gene 2 1 4 -3.42334 0 1 -3.42334 1
gene 2 2 4 5.5083 0 2 5.5083 1
gene 3 3 4 8 0 3 8 1
gene 3 3 9 4.89739 0 12 4.89739 1
gene 3 9 4 -1.2996 0 13 -1.2996 0
gene 1 1 9 -0.773942 0 29 -0.773942 1
gene 3 3 19 -1.21095 0 39 -1.21095 1
gene 2 19 9 6.4139 0 40 6.4139 1
gene 3 9 25 -0.170614 0 62 -0.170614 1
gene 3 25 4 -3.07467 0 63 -3.07467 1
gene 3 2 25 0.748314 0 99 0.748314 1
genomeend 59

/* Organism #60 Fitness: 8.99999 Error: 1 */
genomestart 60
trait 1 0.1 0 0 0 0.632221 0.120914 0 0 
trait 2 0.2 0 0.891171 0.618244 0 0 0 0 
trait 3 0.3 0 0 0 0 0 0 0 
node 1 3 1 3
node 2 2 1 1
node 3 1 1 1
node 4 1 0 2
node 9 1 0 0
node 19 1 0 0
node 25 1 0 0
gene 1 1 4 -2.70211 0 1 -2.70211 1
gene 2 2 4 5.66784 0 2 5.66784 1
gene 3 3 4 8 0 3 8 1
gene 3 3 9 5.10873 0 12 5.10873 1
gene 3 9 4 -2.39361 0 13 -2.39361 0
gene 1 1 9 -1.46568 0 29 -1.46568 1
gene 3 3 19 -0.505364 0 39 -0.505364 1
gene 2 19 9 4.77795 0 40 4.77795 1
gene 3 9 25 -2.24679 0 62 -2.24679 1
gene 3 25 4 -2.04769 0 63 -2.04769 1
gene 3 2 25 0.207183 0 99 0.207183 1
genomeend 60

/* Organism #61 Fitness: 8.67712 Error: 1.0543 */
genomestart 61
trait 1 0.1 0 0 0 0.632221 0.120914 0 0 
trait 2 0.2 0 0.891171 0.618244 0 0 0 0 
trait 3 0.3 0 0 0 0 0 0 0 
node 1 3 1 3
node 2 2 1 1
node 3 1 1 1
node 4 1 0 2
node 9 1 0 0
node 19 1 0 0
node 25 1 0 0
gene 1 1 4 -2.70211 0 1 -2.70211 1
gene 2 2 4 5.66784 0 2 5.66784 1
gene 3 3 4 8 0 3 8 1
gene 3 3 9 5.10873 0 12 5.10873 1
gene 3 9 4 -2.35676 0 13 -2.35676 1
gene 1 1 9 -0.743957 0 29 -0.743957 1
gene 3 3 19 -0.505364 0 39 -0.505364 1
gene 2 19 9 4.77795 0 40 4.77795 1
gene 3 9 25 -1.6014 0 62 -1.6014 1
gene 3 25 4 -1.98875 0 63 -1.98875 1
gene 3 2 25 0.748314 0 99 0.748314 1
genomeend 61

/* Species #9 : (Size 7) (AF 8.81621) (Age 17)  */


/* Organism #62 Fitness: 9 Error: 1 */
genomestart 62
trait 1 0.1 0 0 0 0 0 0 0 
trait 2 0.2 0.90463 0.0636616 0 0 0 0 0 
trait 3 0.3 0 0 0 0 0 0 0 
node 1 1 1 3
node 2 3 1 1
node 3 1 1 1
node 4 2 0 2
node 12 1 0 0
node 22 1 0 0
node 29 2 0 0
gene 3 1 4 -8 0 1 -8 1
gene 1 2 4 -3.76505 0 2 -3.76505 1
gene 1 3 4 5.01238 0 3 5.01238 1
gene 1 2 12 3.90024 0 18 3.90024 1
gene 1 12 4 3.2326 0 19 3.2326 1
gene 1 2 22 1.81036 0 50 1.81036 1
gene 1 22 12 -2.47421 0 51 -2.47421 1
gene 1 3 12 2.75919 0 64 2.75919 1
gene 1 2 29 -2.71828 0 75 -2.71828 1
gene 2 29 22 -4.08971 0 76 -4.08971 1
gene 1 3 22 0.705512 0 100 0.705512 1
gene 3 29 4 5.87191 0 120 5.87191 1
genomeend 62

/* Organism #63 Fitness: 8.44082 Error: 1.09469 */
genomestart 63
trait 1 0.1 0 0 0 0 0 0 0 
trait 2 0.2 0.90463 0.0636616 0.0148015 0.647664 0 0 0 
trait 3 0.3 0 0 0 0 0 0 0 
node 1 1 1 3
node 2 2 1 1
node 3 1 1 1
node 4 2 0 2
node 12 2 0 0
node 22 1 0 0
node 29 2 0 0
gene 3 1 4 -6.0916 0 1 -6.0916 1
gene 1 2 4 -7.17534 0 2 -7.17534 1
gene 1 3 4 8 0 3 8 1
gene 1 2 12 1.54604 0 18 1.54604 1
gene 1 12 4 4.79011 0 19 4.79011 1
gene 1 2 22 3.46859 0 50 3.46859 1
gene 1 22 12 3.58728 0 51 3.58728 1
gene 1 3 12 0.548196 0 64 0.548196 1
gene 1 2 29 -3.08305 0 75 -3.08305 1
gene 1 29 22 -3.77041 0 76 -3.77041 1
gene 1 3 22 -1.30566 0 100 -1.30566 1
gene 3 29 4 5.40337 0 120 5.40337 1
genomeend 63

/* Organism #64 Fitness: 8.99996 Error: 1.00001 */
genomestart 64
trait 1 0.1 0 0 0 0 0 0 0 
trait 2 0.2 0.90463 0.0636616 0.00740074 0.323832 0 0 0 
trait 3 0.3 0 0 0 0 0 0 0 
node 1 1 1 3
node 2 3 1 1
node 3 1 1 1
node 4 2 0 2
node 12 2 0 0
node 22 1 0 0
node 29 2 0 0
gene 3 1 4 -8 0 1 -8 1
gene 1 2 4 -3.76505 0 2 -3.76505 1
gene 1 3 4 5.01238 0 3 5.01238 1
gene 1 2 12 0.465384 0 18 0.465384 1
gene 1 12 4 3.01241 0 19 3.01241 1
gene 1 2 22 3.68405 0 50 3.68405 1
gene 1 22 12 4.87417 0 51 4.87417 1
gene 1 3 12 2.75919 0 64 2.75919 1
gene 1 2 29 -2.71828 0 75 -2.71828 1
gene 2 29 22 -4.08971 0 76 -4.08971 1
gene 1 3 22 0.705512 0 100 0.705512 1
gene 3 29 4 4.82115 0 120 4.82115 1
genomeend 64

/* Organism #65 Fitness: 8.99782 Error: 1.00036 */
genomestart 65
trait 1 0.1 0 0 0 0 0 0 0 
trait 2 0.2 0.90463 0.0636616 0.00740074 0.323832 0 0 0 
trait 3 0.3 0 0 0 0 0 0 0 
node 1 1 1 3
node 2 3 1 1
node 3 1 1 1
node 4 2 0 2
node 12 1 0 0
node 22 1 0 0
node 29 2 0 0
gene 3 1 4 -6.16004 0 1 -6.16004 1
gene 1 2 4 -5.61729 0 2 -5.61729 1
gene 1 3 4 5.01238 0 3 5.01238 1
gene 1 2 12 3.90024 0 18 3.90024 1
gene 1 12 4 3.2326 0 19 3.2326 1
gene 1 2 22 3.68405 0 50 3.68405 1
gene 1 22 12 -2.47421 0 51 -2.47421 1
gene 1 3 12 2.75919 0 64 2.75919 1
gene 1 2 29 -2.71828 0 75 -2.71828 1
gene 1 29 22 -4.27907 0 76 -4.27907 1
gene 1 3 22 -0.670263 0 100 -0.670263 1
gene 3 29 4 5.87191 0 120 5.87191 1
genomeend 65

/* Organism #66 Fitness: 8.75938 Error: 1.04037 */
genomestart 66
trait 1 0.1 0 0 0 0 0 0 0 
trait 2 0.2 0.90463 0.0636616 0 0 0 0 0 
trait 3 0.3 0 0 0 0 0 0 0 
node 1 1 1 3
node 2 3 1 1
node 3 1 1 1
node 4 2 0 2
node 12 1 0 0
node 22 1 0 0
node 29 2 0 0
gene 3 1 4 -8 0 1 -8 1
gene 1 2 4 -1.6051 0 2 -1.6051 1
gene 1 3 4 7.0446 0 3 7.0446 1
gene 1 2 12 4.19612 0 18 4.19612 1
gene 1 12 4 1.91198 0 19 1.91198 1
gene 1 2 22 1.85934 0 50 1.85934 1
gene 1 22 12 -2.89438 0 51 -2.89438 1
gene 1 3 12 4.15403 0 64 4.15403 1
gene 1 2 29 -1.43116 0 75 -1.43116 1
gene 2 29 22 -6.44436 0 76 -6.44436 1
gene 1 3 22 0.29191 0 100 0.29191 1
gene 3 29 4 5.87191 0 120 5.87191 1
genomeend 66

/* Organism #67 Fitness: 8.51546 Error: 1.08187 */
genomestart 67
trait 1 0.1 0 0 0 0 0 0 0 
trait 2 0.2 0.90463 0.0636616 0.0148015 0.647664 0 0 0 
trait 3 0.3 0 0 0 0 0 0 0 
node 1 1 1 3
node 2 3 1 1
node 3 1 1 1
node 4 2 0 2
node 12 2 0 0
node 22 1 0 0
node 29 2 0 0
gene 3 1 4 -6.50444 0 1 -6.50444 1
gene 1 2 4 -7.53027 0 2 -7.53027 1
gene 1 3 4 4.16541 0 3 4.16541 1
gene 1 2 12 0.511773 0 18 0.511773 1
gene 1 12 4 2.18253 0 19 2.18253 1
gene 1 2 22 1.69485 0 50 1.69485 1
gene 1 22 12 3.82258 0 51 3.82258 1
gene 1 3 12 1.15368 0 64 1.15368 1
gene 1 2 29 -0.597396 0 75 -0.597396 1
gene 1 29 22 -4.64156 0 76 -4.64156 1
gene 1 3 22 0.692923 0 100 0.692923 1
gene 3 29 4 1.30947 0 120 1.30947 1
genomeend 67

/* Organism #68 Fitness: 9 Error: 1 */
genomestart 68
trait 1 0.1 0 0 0 0 0 0 0 
trait 2 0.2 0.90463 0.0636616 0.00740074 0.323832 0 0 0 
trait 3 0.3 0 0 0 0 0 0 0 
node 1 1 1 3
node 2 3 1 1
node 3 1 1 1
node 4 2 0 2
node 12 1 0 0
node 22 1 0 0
node 29 2 0 0
gene 3 1 4 -8 0 1 -8 1
gene 1 2 4 -5.61729 0 2 -5.61729 1
gene 1 3 4 6.51663 0 3 6.51663 1
gene 1 2 12 3.90024 0 18 3.90024 1
gene 1 12 4 3.2326 0 19 3.2326 1
gene 1 2 22 1.81036 0 50 1.81036 1
gene 1 22 12 -2.47421 0 51 -2.47421 1
gene 1 3 12 2.75919 0 64 2.75919 1
gene 1 2 29 -2.71828 0 75 -2.71828 1
gene 1 29 22 -4.27907 0 76 -4.27907 1
gene 1 3 22 -0.670263 0 100 -0.670263 1
gene 3 29 4 4.82115 0 120 4.82115 1
genomeend 68

/* Species #10 : (Size 8) (AF 6.90056) (Age 16)  */


/* Organism #69 Fitness: 9 Error: 1 */
genomestart 69
trait 1 0.1 0 0 0 0 0 0 0 
trait 2 0.147931 0 0 0 0.507964 0 0.0152497 0 
trait 3 0.3 0 0 0.291925 0 0 0 0 
node 1 1 1 3
node 2 3 1 1
node 3 1 1 1
node 4 2 0 2
node 12 1 0 0
node 27 1 0 0
gene 3 1 4 -2.11666 0 1 -2.11666 1
gene 3 2 4 -6.58164 0 2 -6.58164 1
gene 1 3 4 7.75225 0 3 7.75225 1
gene 1 2 12 6.87424 0 18 6.87424 1
gene 1 12 4 -6.66863 0 19 -6.66863 1
gene 2 3 12 -0.424081 0 38 -0.424081 1
gene 2 3 27 -2.42637 0 70 -2.42637 1
gene 2 27 12 0.390076 0 71 0.390076 1
genomeend 69

/* Organism #70 Fitness: 4.00003 Error: 1.99999 */
genomestart 70
trait 1 0.1 0 0 0 0 0 0 0 
trait 2 0.147931 0 0 0 0.507964 0 0.0152497 0 
trait 3 0.3 0 0 0.291925 0 0 0 0 
node 1 1 1 3
node 2 3 1 1
node 3 1 1 1
node 4 2 0 2
node 12 1 0 0
node 27 1 0 0
gene 3 1 4 -3.19762 0 1 -3.19762 1
gene 3 2 4 -2.38329 0 2 -2.38329 1
gene 1 3 4 0.80958 0 3 0.80958 1
gene 1 2 12 4.01077 0 18 4.01077 1
gene 1 12 4 -8 0 19 -8 1
gene 2 3 12 -0.615101 0 38 -0.615101 0
gene 2 3 27 0.410249 0 70 0.410249 1
gene 2 27 12 -4.12285 0 71 -4.12285 1
genomeend 70

/* Organism #71 Fitness: 8.90609 Error: 1.01569 */
genomestart 71
trait 1 0.1 0 0 0 0 0 0 0 
trait 2 0.147931 0 0 0 0.507964 0 0.0152497 0 
trait 3 0.3 0.959471 0 0.291925 0 0 0.699271 0 
node 1 1 1 3
node 2 3 1 1
node 3 1 1 1
node 4 2 0 2
node 12 1 0 0
node 27 1 0 0
gene 3 1 4 -5.26243 0 1 -5.26243 1
gene 3 2 4 -7.50406 0 2 -7.50406 1
gene 1 3 4 8 0 3 8 1
gene 1 2 12 -1.70217 0 18 -1.70217 1
gene 1 12 4 -2.83436 0 19 -2.83436 1
gene 2 3 12 0.143334 0 38 0.143334 1
gene 2 3 27 -1.46977 0 70 -1.46977 1
gene 2 27 12 -0.204653 0 71 -0.204653 1
genomeend 71

/* Organism #72 Fitness: 5.09448 Error: 1.7429 */
genomestart 72
trait 1 0.1 0 0 0 0 0 0 0 
trait 2 0.147931 0 0 0 0.507964 0 0.0152497 0 
trait 3 0.3 0 0 0.291925 0 0 0 0 
node 1 1 1 3
node 2 3 1 1
node 3 1 1 1
node 4 1 0 2
node 12 1 0 0
node 27 1 0 0
gene 3 1 4 -5.54923 0 1 -5.54923 1
gene 3 2 4 -1.95191 0 2 -1.95191 1
gene 1 3 4 8 0 3 8 1
gene 1 2 12 2.41411 0 18 2.41411 1
gene 1 12 4 -5.53395 0 19 -5.53395 1
gene 2 3 12 -2.05049 0 38 -2.05049 0
gene 2 3 27 -1.1272 0 70 -1.1272 1
gene 2 27 12 -3.82186 0 71 -3.82186 1
genomeend 72

/* Organism #73 Fitness: 1.20413 Error: 2.90267 */
genomestart 73
trait 1 0.1 0 0 0 0 0 0 0 
trait 2 0.147931 0 0 0 0.507964 0 0.0152497 0 
trait 3 0.3 0 0 0.291925 0 0 0 0 
node 1 1 1 3
node 2 3 1 1
node 3 1 1 1
node 4 2 0 2
node 12 1 0 0
node 27 1 0 0
gene 3 1 4 -1.20019 0 1 -1.20019 1
gene 3 2 4 -5.59879 0 2 -5.59879 1
gene 1 3 4 5.81025 0 3 5.81025 1
gene 1 2 12 5.64118 0 18 5.64118 1
gene 1 12 4 1.84591 0 19 1.84591 1
gene 2 3 12 0.657266 0 38 0.657266 0
gene 2 3 27 0.386483 0 70 0.386483 1
gene 2 27 12 0.963443 0 71 0.963443 1
genomeend 73

/* Organism #74 Fitness: 8.99987 Error: 1.00002 */
genomestart 74
trait 1 0.1 0 0 0 0 0 0 0 
trait 2 0.147931 0 0 0 0.507964 0 0.0152497 0 
trait 3 0.3 0 0 0.291925 0 0 0 0 
node 1 1 1 3
node 2 3 1 1
node 3 1 1 1
node 4 2 0 2
node 12 1 0 0
node 27 1 0 0
gene 3 1 4 -2.11666 0 1 -2.11666 1
gene 3 2 4 -4.40201 0 2 -4.40201 1
gene 1 3 4 7.5332 0 3 7.5332 1
gene 1 2 12 4.38561 0 18 4.38561 1
gene 1 12 4 -4.79388 0 19 -4.79388 1
gene 2 3 12 0.0343066 0 38 0.0343066 0
gene 2 3 27 -2.42637 0 70 -2.42637 1
gene 2 27 12 -1.72745 0 71 -1.72745 1
genomeend 74

/* Organism #75 Fitness: 9 Error: 1 */
genomestart 75
trait 1 0.1 0 0 0 0 0 0 0 
trait 2 0.147931 0 0 0 0.507964 0 0.0152497 0 
trait 3 0.3 0 0 0.291925 0 0 0 0 
node 1 1 1 3
node 2 3 1 1
node 3 1 1 1
node 4 2 0 2
node 12 1 0 0
node 27 1 0 0
gene 3 1 4 -4.54364 0 1 -4.54364 1
gene 3 2 4 -6.66549 0 2 -6.66549 1
gene 1 3 4 8 0 3 8 1
gene 1 2 12 7.23894 0 18 7.23894 1
gene 1 12 4 0.0964385 0 19 0.0964385 1
gene 2 3 12 1.88991 0 38 1.88991 0
gene 2 3 27 -2.0909 0 70 -2.0909 1
gene 2 27 12 -0.586287 0 71 -0.586287 1
genomeend 75

/* Organism #76 Fitness: 8.9999 Error: 1.00002 */
genomestart 76
trait 1 0.1 0 0 0 0 0 0 0 
trait 2 0.147931 0 0 0 0.507964 0 0.0152497 0 
trait 3 0.3 0 0 0.291925 0 0 0 0 
node 1 1 1 3
node 2 3 1 1
node 3 1 1 1
node 4 2 0 2
node 12 1 0 0
node 27 1 0 0
gene 3 1 4 -3.30665 0 1 -3.30665 1
gene 3 2 4 -6.64665 0 2 -6.64665 1
gene 1 3 4 6.43004 0 3 6.43004 1
gene 1 2 12 7.87449 0 18 7.87449 1
gene 1 12 4 -8 0 19 -8 1
gene 2 3 12 -0.424081 0 38 -0.424081 1
gene 2 3 27 -3.01316 0 70 -3.01316 1
gene 2 27 12 -0.88575 0 71 -0.88575 1
genomeend 76

/* Species #11 : (Size 9) (AF 8.18858) (Age 16)  */


/* Organism #77 Fitness: 8.99999 Error: 1 */
genomestart 77
trait 1 0.1 0 0.673421 0.00289926 0.73806 0.480819 0 0 
trait 2 0.2 0 0 0 0 0 0 0 
trait 3 0.322221 0 0.0572375 0 0.0623379 0 0.0361721 0 
node 1 1 1 3
node 2 3 1 1
node 3 1 1 1
node 4 2 0 2
node 15 1 0 0
gene 3 1 4 -4.07415 0 1 -4.07415 1
gene 3 2 4 7.74152 0 2 7.74152 1
gene 3 3 4 -6.33201 0 3 -6.33201 1
gene 3 3 15 -6.20426 0 26 -6.20426 1
gene 3 15 4 1.72453 0 27 1.72453 1
genomeend 77

/* Organism #78 Fitness: 8.99999 Error: 1 */
genomestart 78
trait 1 0.1 0 0.673421 0.00289926 0.73806 0.480819 0 0 
trait 2 0.2 0 0 0 0 0 0 0 
trait 3 0.322221 0 0.0572375 0 0.0623379 0 0.0361721 0 
node 1 1 1 3
node 2 3 1 1
node 3 1 1 1
node 4 2 0 2
node 15 1 0 0
gene 3 1 4 -4.09953 0 1 -4.09953 1
gene 3 2 4 6.55225 0 2 6.55225 1
gene 3 3 4 -5.19009 0 3 -5.19009 1
gene 3 3 15 -5.6429 0 26 -5.6429 1
gene 3 15 4 2.10891 0 27 2.10891 1
genomeend 78

/* Organism #79 Fitness: 8.99668 Error: 1.00055 */
genomestart 79
trait 1 0.1 0 0.673421 0.00289926 0.73806 0.480819 0 0 
trait 2 0.2 0 0 0 0 0 0 0 
trait 3 0.322221 0 0.0572375 0 0.0623379 0 0.0361721 0 
node 1 1 1 3
node 2 3 1 1
node 3 1 1 1
node 4 2 0 2
node 15 1 0 0
gene 3 1 4 -4.12491 0 1 -4.12491 1
gene 2 2 4 5.36297 0 2 5.36297 1
gene 3 3 4 -4.04817 0 3 -4.04817 1
gene 3 3 15 -5.08154 0 26 -5.08154 1
gene 3 15 4 2.49329 0 27 2.49329 1
gene 2 1 15 -0.415845 0 234 -0.415845 1
genomeend 79

/* Organism #80 Fitness: 8.84172 Error: 1.0265 */
genomestart 80
trait 1 0.1 0 0.673421 0.00289926 0.73806 0.480819 0 0 
trait 2 0.2 0 0 0 0 0 0 0 
trait 3 0.322221 0 0.0572375 0 0.0623379 0 0.0361721 0 
node 1 1 1 3
node 2 3 1 1
node 3 1 1 1
node 4 2 0 2
node 15 1 0 0
gene 3 1 4 -6.37471 0 1 -6.37471 1
gene 2 2 4 5.01399 0 2 5.01399 1
gene 3 3 4 -2.04851 0 3 -2.04851 1
gene 3 3 15 -6.2369 0 26 -6.2369 1
gene 3 15 4 4.18516 0 27 4.18516 1
genomeend 80

/* Organism #81 Fitness: 8.99994 Error: 1.00001 */
genomestart 81
trait 1 0.1 0 0.673421 0.00289926 0.73806 0.480819 0 0 
trait 2 0.2 0 0 0 0 0 0 0 
trait 3 0.829561 0 0.0572375 0 0.924486 0 0.970588 0.313944 
node 1 1 1 3
node 2 3 1 1
node 3 1 1 1
node 4 2 0 2
node 15 1 0 0
gene 3 1 4 -4.66433 0 1 -4.66433 1
gene 2 2 4 6.67039 0 2 6.67039 1
gene 3 3 4 -4.39204 0 3 -4.39204 1
gene 3 3 15 -6.11933 0 26 -6.11933 1
gene 3 15 4 1.39119 0 27 1.39119 1
genomeend 81

/* Organism #82 Fitness: 6.77538 Error: 1.39704 */
genomestart 82
trait 1 0.1 0 0.673421 0.00289926 0.73806 0.480819 0 0 
trait 2 0.2 0 0 0 0 0 0 0 
trait 3 0.322221 0 0.0572375 0 0.0623379 0 0.0361721 0 
node 1 1 1 3
node 2 3 1 1
node 3 1 1 1
node 4 2 0 2
node 15 1 0 0
gene 3 1 4 -4.67086 0 1 -4.67086 1
gene 2 2 4 4.49946 0 2 4.49946 1
gene 3 3 4 -3.93639 0 3 -3.93639 1
gene 3 3 15 -3.79787 0 26 -3.79787 1
gene 3 15 4 0.512489 0 27 0.512489 1
genomeend 82

/* Organism #83 Fitness: 8.99997 Error: 1.00001 */
genomestart 83
trait 1 0.1 0 0.673421 0.00289926 0.73806 0.480819 0 0 
trait 2 0.2 0 0 0 0 0 0 0 
trait 3 0.322221 0 0.0572375 0 0.0623379 0 0.0361721 0 
node 1 1 1 3
node 2 3 1 1
node 3 1 1 1
node 4 2 0 2
node 15 1 0 0
gene 3 1 4 -4.12491 0 1 -4.12491 1
gene 2 2 4 5.47323 0 2 5.47323 1
gene 3 3 4 -4.04817 0 3 -4.04817 1
gene 3 3 15 -5.00984 0 26 -5.00984 1
gene 3 15 4 2.49924 0 27 2.49924 1
genomeend 83

/* Organism #84 Fitness: 4.08364 Error: 1.9792 */
genomestart 84
trait 1 0.1 0 0.673421 0.00289926 0.73806 0.480819 0 0 
trait 2 0.2 0 0 0 0 0 0 0 
trait 3 0.322221 0 0.0572375 0 0.0623379 0 0.0361721 0 
node 1 1 1 3
node 2 3 1 1
node 3 1 1 1
node 4 2 0 2
node 15 1 0 0
gene 3 1 4 -2.19131 0 1 -2.19131 1
gene 2 2 4 5.47323 0 2 5.47323 1
gene 3 3 4 1.40988 0 3 1.40988 1
gene 3 3 15 -6.95791 0 26 -6.95791 1
gene 3 15 4 0.533545 0 27 0.533545 1
genomeend 84

/* Organism #85 Fitness: 8.99989 Error: 1.00002 */
genomestart 85
trait 1 0.1 0 0.673421 0.00289926 0.73806 0.480819 0 0 
trait 2 0.2 0 0 0 0 0 0 0 
trait 3 0.322221 0 0.0572375 0 0.0623379 0 0.0361721 0 
node 1 1 1 3
node 2 3 1 1
node 3 1 1 1
node 4 2 0 2
node 15 1 0 0
gene 3 1 4 -4.07415 0 1 -4.07415 1
gene 2 2 4 5.47323 0 2 5.47323 1
gene 3 3 4 -3.93639 0 3 -3.93639 1
gene 3 3 15 -5.00984 0 26 -5.00984 1
gene 3 15 4 1.72453 0 27 1.72453 1
genomeend 85

/* Species #12 : (Size 6) (AF 4.69034) (Age 16)  */


/* Organism #86 Fitness: 8.99908 Error: 1.00015 */
genomestart 86
trait 1 0.1 0 0 0 0 0 0 0 
trait 2 0.2 0 0 0 0 0 0 0 
trait 3 0.341963 0.40556 0 0 0.569079 0 0 0 
node 1 1 1 3
node 2 3 1 1
node 3 1 1 1
node 4 2 0 2
node 12 1 0 0
node 22 1 0 0
node 34 1 0 0
gene 3 1 4 2.11241 0 1 2.11241 1
gene 1 2 4 4.85763 0 2 4.85763 1
gene 1 3 4 8 0 3 8 1
gene 1 2 12 5.20522 0 18 5.20522 1
gene 1 12 4 -1.37883 0 19 -1.37883 0
gene 3 2 22 -1.68714 0 50 -1.68714 1
gene 1 22 12 1.13765 0 51 1.13765 1
gene 1 12 34 2.50258 0 87 2.50258 1
gene 1 34 4 -5.11849 0 88 -5.11849 1
gene 1 22 4 1.93068 0 147 1.93068 1
genomeend 86

/* Organism #87 Fitness: 4.1825 Error: 1.95488 */
genomestart 87
trait 1 0.1 0 0 0 0 0 0 0 
trait 2 0.2 0 0 0 0 0 0 0 
trait 3 0.341963 0.40556 0 0 0.569079 0 0 0 
node 1 1 1 3
node 2 3 1 1
node 3 1 1 1
node 4 2 0 2
node 12 1 0 0
node 22 1 0 0
node 34 1 0 0
gene 3 1 4 -2.22007 0 1 -2.22007 1
gene 1 2 4 5.75968 0 2 5.75968 1
gene 1 3 4 7.7898 0 3 7.7898 1
gene 1 2 12 4.98083 0 18 4.98083 1
gene 1 12 4 -1.68554 0 19 -1.68554 0
gene 3 2 22 -0.801111 0 50 -0.801111 1
gene 1 22 12 -1.41621 0 51 -1.41621 1
gene 1 12 34 0.895474 0 87 0.895474 1
gene 1 34 4 -4.26092 0 88 -4.26092 1
gene 1 22 4 2.64695 0 147 2.64695 1
genomeend 87

/* Organism #88 Fitness: 1.02545 Error: 2.98736 */
genomestart 88
trait 1 0.1 0 0 0 0 0 0 0 
trait 2 0.268056 0.534043 0 0.00268563 0 0.269356 0 0 
trait 3 0.341963 0.40556 0 0 0.569079 0 0 0 
node 1 1 1 3
node 2 3 1 1
node 3 1 1 1
node 4 2 0 2
node 12 1 0 0
node 22 1 0 0
node 34 1 0 0
gene 3 1 4 2.4852 0 1 2.4852 1
gene 3 2 4 1.0509 0 2 1.0509 1
gene 1 3 4 8 0 3 8 1
gene 1 2 12 4.49895 0 18 4.49895 1
gene 1 12 4 -0.0237281 0 19 -0.0237281 0
gene 3 2 22 -2.45453 0 50 -2.45453 1
gene 1 22 12 -1.63762 0 51 -1.63762 1
gene 1 12 34 0.241554 0 87 0.241554 1
gene 1 34 4 -6.82905 0 88 -6.82905 1
gene 1 22 4 3.70701 0 147 3.70701 1
genomeend 88

/* Organism #89 Fitness: 5.55226 Error: 1.64368 */
genomestart 89
trait 1 0.1 0 0 0 0 0 0 0 
trait 2 0.2 0 0 0 0 0 0 0 
trait 3 0.670981 0.70278 0 0 0.569079 0 0 0 
node 1 1 1 3
node 2 3 1 1
node 3 1 1 1
node 4 2 0 2
node 12 1 0 0
node 22 1 0 0
node 34 1 0 0
gene 3 1 4 2.38086 0 1 2.38086 1
gene 1 2 4 4.32808 0 2 4.32808 1
gene 1 3 4 7.8347 0 3 7.8347 1
gene 1 2 12 5.16404 0 18 5.16404 1
gene 1 12 4 -1.80979 0 19 -1.80979 1
gene 3 2 22 -2.01949 0 50 -2.01949 1
gene 1 22 12 1.58313 0 51 1.58313 1
gene 1 12 34 2.48761 0 87 2.48761 1
gene 1 34 4 -5.01934 0 88 -5.01934 1
gene 1 22 4 1.49648 0 147 1.49648 1
genomeend 89

/* Organism #90 Fitness: 4 Error: 2 */
genomestart 90
trait 1 0.1 0 0 0 0 0 0 0 
trait 2 0.2 0 0 0 0 0 0 0 
trait 3 0.670981 0.70278 0 0 0.569079 0 0 0 
node 1 1 1 3
node 2 3 1 1
node 3 1 1 1
node 4 2 0 2
node 12 1 0 0
node 22 1 0 0
node 34 1 0 0
gene 3 1 4 4.71725 0 1 4.71725 1
gene 1 2 4 2.63245 0 2 2.63245 1
gene 1 3 4 8 0 3 8 1
gene 1 2 12 4.13635 0 18 4.13635 1
gene 1 12 4 -2.74445 0 19 -2.74445 0
gene 3 2 22 -2.16582 0 50 -2.16582 1
gene 1 22 12 3.15806 0 51 3.15806 1
gene 1 12 34 0.588153 0 87 0.588153 1
gene 1 34 4 -2.43553 0 88 -2.43553 1
gene 1 22 4 3.97763 0 147 3.97763 1
genomeend 90

/* Organism #91 Fitness: 4.38272 Error: 1.90651 */
genomestart 91
trait 1 0.1 0 0 0 0 0 0 0 
trait 2 0.2 0 0 0 0 0 0 0 
trait 3 0.670981 0.70278 0 0 0.569079 0 0 0 
node 1 1 1 3
node 2 3 1 1
node 3 1 1 1
node 4 2 0 2
node 12 1 0 0
node 22 1 0 0
node 34 1 0 0
gene 3 1 4 3.3908 0 1 3.3908 1
gene 1 2 4 3.69421 0 2 3.69421 1
gene 1 3 4 5.3466 0 3 5.3466 1
gene 1 2 12 6.31024 0 18 6.31024 1
gene 1 12 4 -3.14566 0 19 -3.14566 0
gene 3 2 22 0.159688 0 50 0.159688 1
gene 1 22 12 3.54921 0 51 3.54921 1
gene 1 12 34 3.52554 0 87 3.52554 1
gene 1 34 4 -3.40934 0 88 -3.40934 1
gene 1 22 4 0.959731 0 147 0.959731 1
genomeend 91

/* Species #13 : (Size 9) (AF 4.62366) (Age 15)  */


/* Organism #92 Fitness: 9 Error: 1 */
genomestart 92
trait 1 0.025 0.164968 0 0 0 0.380856 0 0 
trait 2 0.2 0 0 0 0 0 0 0 
trait 3 0.3 0 0 0 0 0 0 0 
node 1 1 1 3
node 2 3 1 1
node 3 1 1 1
node 4 2 0 2
node 12 1 0 0
node 22 3 0 0
gene 3 1 4 0.319262 0 1 0.319262 1
gene 1 2 4 -3.16897 0 2 -3.16897 1
gene 1 3 4 5.35777 0 3 5.35777 1
gene 1 2 12 5.48069 0 18 5.48069 1
gene 1 12 4 -6.03637 0 19 -6.03637 1
gene 1 2 22 -3.15787 0 50 -3.15787 1
gene 1 22 12 0.14874 0 51 0.14874 1
gene 1 3 12 -1.42582 0 64 -1.42582 1
gene 2 3 22 1.83071 0 93 1.83071 0
gene 2 1 12 0.0360881 0 139 0.0360881 1
genomeend 92

/* Organism #93 Fitness: 1.00039 Error: 2.9998 */
genomestart 93
trait 1 0.025 0.164968 0 0 0 0.380856 0 0 
trait 2 0.2 0 0 0 0 0 0 0 
trait 3 0.3 0 0 0 0 0 0 0 
node 1 1 1 3
node 2 3 1 1
node 3 1 1 1
node 4 2 0 2
node 12 1 0 0
node 22 3 0 0
gene 3 1 4 2.67811 0 1 2.67811 1
gene 1 2 4 -2.66594 0 2 -2.66594 1
gene 1 3 4 6.10723 0 3 6.10723 1
gene 1 2 12 4.70415 0 18 4.70415 1
gene 1 12 4 -4.36594 0 19 -4.36594 1
gene 1 2 22 -3.76344 0 50 -3.76344 1
gene 1 22 12 -1.60485 0 51 -1.60485 1
gene 1 3 12 -2.54806 0 64 -2.54806 1
gene 2 3 22 4.10922 0 93 4.10922 0
gene 2 1 12 0.369961 0 139 0.369961 1
genomeend 93

/* Organism #94 Fitness: 4.04366 Error: 1.98911 */
genomestart 94
trait 1 0.025 0.164968 0 0 0 0.380856 0 0 
trait 2 0.2 0 0 0 0 0 0 0 
trait 3 0.3 0 0 0 0 0 0 0 
node 1 1 1 3
node 2 1 1 1
node 3 1 1 1
node 4 2 0 2
node 12 1 0 0
node 22 3 0 0
gene 3 1 4 -1.00555 0 1 -1.00555 1
gene 1 2 4 -3.24419 0 2 -3.24419 1
gene 1 3 4 4.45183 0 3 4.45183 1
gene 1 2 12 3.51125 0 18 3.51125 1
gene 1 12 4 -7.3067 0 19 -7.3067 1
gene 1 2 22 -4.30567 0 50 -4.30567 1
gene 1 22 12 0.0220878 0 51 0.0220878 1
gene 1 3 12 0.163663 0 64 0.163663 1
gene 2 3 22 -0.642361 0 93 -0.642361 0
gene 2 1 12 -0.0949126 0 139 -0.0949126 1
genomeend 94

/* Organism #95 Fitness: 2.36303 Error: 2.46279 */
genomestart 95
trait 1 0.025 0.164968 0 0 0 0.380856 0 0 
trait 2 0.2 0 0 0 0 0 0 0 
trait 3 1 0 0 0 0 0 0 0.477981 
node 1 1 1 3
node 2 3 1 1
node 3 1 1 1
node 4 2 0 2
node 12 1 0 0
node 22 3 0 0
gene 1 1 4 2.32471 0 1 2.32471 1
gene 1 2 4 -3.85182 0 2 -3.85182 1
gene 1 3 4 7.02118 0 3 7.02118 1
gene 1 2 12 0.470367 0 18 0.470367 1
gene 1 12 4 -2.35664 0 19 -2.35664 1
gene 1 2 22 -0.394604 0 50 -0.394604 1
gene 1 22 12 0.402959 0 51 0.402959 1
gene 1 3 12 0.75206 0 64 0.75206 1
gene 2 3 22 1.40322 0 93 1.40322 0
gene 2 1 12 1.27415 0 139 1.27415 1
genomeend 95

/* Organism #96 Fitness: 8.86974 Error: 1.02179 */
genomestart 96
trait 1 0.025 0.164968 0 0 0 0.380856 0 0 
trait 2 0.2 0 0 0 0 0 0 0 
trait 3 0.3 0 0 0 0 0 0 0 
node 1 1 1 3
node 2 3 1 1
node 3 1 1 1
node 4 2 0 2
node 12 1 0 0
node 22 3 0 0
gene 3 1 4 -0.795656 0 1 -0.795656 1
gene 1 2 4 -2.40509 0 2 -2.40509 1
gene 1 3 4 6.37251 0 3 6.37251 1
gene 1 2 12 4.92907 0 18 4.92907 1
gene 1 12 4 -4.09501 0 19 -4.09501 1
gene 1 2 22 -1.78713 0 50 -1.78713 1
gene 1 22 12 -1.01463 0 51 -1.01463 1
gene 1 3 12 0.913503 0 64 0.913503 1
gene 2 3 22 2.56567 0 93 2.56567 0
gene 2 1 12 -0.21691 0 139 -0.21691 1
genomeend 96

/* Organism #97 Fitness: 4.00063 Error: 1.99984 */
genomestart 97
trait 1 0.025 0.164968 0 0 0 0.380856 0 0 
trait 2 0.2 0 0 0 0 0 0 0 
trait 3 0.3 0 0 0 0 0 0 0 
node 1 1 1 3
node 2 3 1 1
node 3 1 1 1
node 4 2 0 2
node 12 1 0 0
node 22 3 0 0
gene 3 1 4 1.45028 0 1 1.45028 1
gene 1 2 4 1.74009 0 2 1.74009 1
gene 1 3 4 4.37538 0 3 4.37538 1
gene 1 2 12 5.48069 0 18 5.48069 1
gene 1 12 4 0.327692 0 19 0.327692 1
gene 1 2 22 2.22411 0 50 2.22411 1
gene 1 22 12 2.03738 0 51 2.03738 1
gene 1 3 12 0.911367 0 64 0.911367 1
gene 2 3 22 3.36289 0 93 3.36289 0
gene 2 1 12 0.145192 0 139 0.145192 1
genomeend 97

/* Organism #98 Fitness: 3.80064 Error: 2.05048 */
genomestart 98
trait 1 1 0.670293 0 0 0.251473 1 0 0.857692 
trait 2 0.2 0 0 0 0 0 0 0 
trait 3 0.3 0 0 0 0 0 0 0 
node 1 1 1 3
node 2 3 1 1
node 3 1 1 1
node 4 2 0 2
node 12 1 0 0
node 22 3 0 0
gene 3 1 4 -0.446524 0 1 -0.446524 1
gene 1 2 4 2.31658 0 2 2.31658 1
gene 1 3 4 -0.871838 0 3 -0.871838 1
gene 1 2 12 5.48069 0 18 5.48069 1
gene 1 12 4 -8 0 19 -8 1
gene 1 2 22 -2.07996 0 50 -2.07996 1
gene 1 22 12 2.6064 0 51 2.6064 1
gene 1 3 12 -1.74062 0 64 -1.74062 1
gene 2 3 22 4.05917 0 93 4.05917 0
gene 2 1 12 -2.11669 0 139 -2.11669 1
genomeend 98

/* Organism #99 Fitness: 4.01383 Error: 1.99655 */
genomestart 99
trait 1 0.025 0.164968 0 0 0 0.380856 0 0 
trait 2 0.2 0 0 0 0 0 0 0 
trait 3 0.3 0 0 0 0 0 0 0 
node 1 1 1 3
node 2 3 1 1
node 3 1 1 1
node 4 2 0 2
node 12 1 0 0
node 22 3 0 0
gene 3 1 4 1.15036 0 1 1.15036 1
gene 1 2 4 -1.46344 0 2 -1.46344 1
gene 1 3 4 3.6839 0 3 3.6839 1
gene 1 2 12 3.70466 0 18 3.70466 1
gene 1 12 4 -8 0 19 -8 1
gene 1 2 22 -5.19643 0 50 -5.19643 1
gene 1 22 12 -2.04379 0 51 -2.04379 1
gene 1 3 12 -1.33342 0 64 -1.33342 1
gene 2 3 22 0.982063 0 93 0.982063 0
gene 2 1 12 -1.4861 0 139 -1.4861 1
genomeend 99

/* Organism #100 Fitness: 4.52099 Error: 1.87374 */
genomestart 100
trait 1 0.025 0.164968 0 0 0 0.380856 0 0 
trait 2 0.2 0 0 0 0 0 0 0 
trait 3 0.3 0 0 0 0 0 0 0 
node 1 1 1 3
node 2 3 1 1
node 3 1 1 1
node 4 2 0 2
node 12 1 0 0
node 22 3 0 0
gene 3 1 4 -1.60699 0 1 -1.60699 1
gene 1 2 4 -2.11966 0 2 -2.11966 1
gene 1 3 4 6.0294 0 3 6.0294 1
gene 1 2 12 4.63563 0 18 4.63563 1
gene 1 12 4 -4.81586 0 19 -4.81586 1
gene 1 2 22 -2.8417 0 50 -2.8417 1
gene 1 22 12 2.61486 0 51 2.61486 1
gene 1 3 12 0.476173 0 64 0.476173 1
gene 2 3 22 4.00378 0 93 4.00378 0
gene 2 1 12 0.0360881 0 139 0.0360881 1
genomeend 100

/* Species #14 : (Size 9) (AF 8.66242) (Age 13)  */


/* Organism #101 Fitness: 9.69569 Error: 0.88621 */
genomestart 101
trait 1 0.228399 0 0.184614 0.18038 0 0.182646 0 0 
trait 2 0.2 0 0 0 0 0 0 0 
trait 3 0.0515625 0 0 0.555871 0.5338 0.24485 0 0.749726 
node 1 2 1 3
node 2 3 1 1
node 3 1 1 1
node 4 3 0 2
node 9 1 0 0
node 41 1 0 0
gene 1 1 4 -2.64792 0 1 -2.64792 1
gene 2 2 4 -1.39142 0 2 -1.39142 1
gene 3 3 4 -1.64142 0 3 -1.64142 1
gene 3 3 9 5.9754 0 12 5.9754 1
gene 3 9 4 8 0 13 8 1
gene 1 2 9 3.02493 0 68 3.02493 1
gene 2 2 41 4.23681 0 107 4.23681 1
gene 2 41 4 -4.34367 0 108 -4.34367 1
genomeend 101

/* Organism #102 Fitness: 8.99712 Error: 1.00048 */
genomestart 102
trait 1 0.228399 0 0.487342 0.18038 0 0.586604 0 0 
trait 2 0.2 0 0 0 0 0 0 0 
trait 3 0.0515625 0 0 0.555871 0.5338 0.24485 0 0.749726 
node 1 2 1 3
node 2 3 1 1
node 3 1 1 1
node 4 3 0 2
node 9 1 0 0
node 41 1 0 0
gene 1 1 4 -2.64792 0 1 -2.64792 1
gene 2 2 4 -1.39142 0 2 -1.39142 1
gene 3 3 4 -0.468211 0 3 -0.468211 1
gene 3 3 9 5.9754 0 12 5.9754 1
gene 3 9 4 7.088 0 13 7.088 1
gene 1 2 9 3.02493 0 68 3.02493 1
gene 2 2 41 4.23681 0 107 4.23681 1
gene 2 41 4 -4.34367 0 108 -4.34367 1
genomeend 102

/* Organism #103 Fitness: 8.97138 Error: 1.00477 */
genomestart 103
trait 1 0.228399 0 0.487342 0.18038 0 0.586604 0 0 
trait 2 1 0 0 0 0 0 0.564867 0 
trait 3 0.0515625 0 0 0.555871 0.5338 0.24485 0 0.749726 
node 1 2 1 3
node 2 3 1 1
node 3 1 1 1
node 4 3 0 2
node 9 1 0 0
node 41 1 0 0
gene 1 1 4 -2.7867 0 1 -2.7867 1
gene 2 2 4 -1.95856 0 2 -1.95856 1
gene 3 3 4 0.176683 0 3 0.176683 1
gene 3 3 9 8 0 12 8 1
gene 3 9 4 8 0 13 8 1
gene 1 2 9 5.68561 0 68 5.68561 1
gene 2 2 41 -0.978805 0 107 -0.978805 1
gene 2 41 4 -4.59533 0 108 -4.59533 1
genomeend 103

/* Organism #104 Fitness: 15.0426 Error: 0.121524 */
/* ##------$ WINNER 104 SPECIES #14 $------## */
genomestart 104
trait 1 0.228399 0 0.790071 0.18038 0 0.990562 0 0 
trait 2 0.2 0 0 0 0 0 0 0 
trait 3 0.0515625 0 0 0.555871 0.5338 0.24485 0 0.749726 
node 1 2 1 3
node 2 3 1 1
node 3 1 1 1
node 4 3 0 2
node 9 1 0 0
node 41 1 0 0
gene 1 1 4 -4.54632 0 1 -4.54632 1
gene 2 2 4 1.13018 0 2 1.13018 1
gene 3 3 4 -2.88215 0 3 -2.88215 1
gene 3 3 9 5.54433 0 12 5.54433 1
gene 3 9 4 8 0 13 8 1
gene 1 2 9 1.97905 0 68 1.97905 1
gene 2 2 41 5.1516 0 107 5.1516 1
gene 2 41 4 -3.49777 0 108 -3.49777 1
gene 3 9 41 -2.29701 0 210 -2.29701 1
genomeend 104

/* Organism #105 Fitness: 4.10932 Error: 1.97286 */
genomestart 105
trait 1 0.228399 0 0.487342 0.18038 0 0.586604 0 0 
trait 2 0.2 0 0 0 0 0 0 0 
trait 3 0.0515625 0 0 0.555871 0.5338 0.24485 0 0.749726 
node 1 2 1 3
node 2 3 1 1
node 3 1 1 1
node 4 3 0 2
node 9 1 0 0
node 41 1 0 0
gene 1 1 4 -4.54632 0 1 -4.54632 1
gene 2 2 4 1.06006 0 2 1.06006 1
gene 3 3 4 -1.64142 0 3 -1.64142 1
gene 3 3 9 8 0 12 8 1
gene 3 9 4 7.088 0 13 7.088 1
gene 1 2 9 3.67558 0 68 3.67558 1
gene 2 2 41 2.67716 0 107 2.67716 1
gene 2 41 4 -4.34367 0 108 -4.34367 1
genomeend 105

/* Organism #106 Fitness: 8.95886 Error: 1.00686 */
genomestart 106
trait 1 0.228399 0 0.487342 0.18038 0 0.586604 0 0 
trait 2 0.2 0 0 0 0 0 0 0 
trait 3 0.0515625 0 0 0.555871 0.5338 0.24485 0 0.749726 
node 1 2 1 3
node 2 3 1 1
node 3 1 1 1
node 4 3 0 2
node 9 1 0 0
node 41 1 0 0
gene 1 1 4 -3.25608 0 1 -3.25608 1
gene 2 2 4 -0.600528 0 2 -0.600528 1
gene 3 3 4 0.787397 0 3 0.787397 1
gene 3 3 9 7.54779 0 12 7.54779 1
gene 3 9 4 6.04541 0 13 6.04541 1
gene 1 2 9 5.35913 0 68 5.35913 1
gene 2 2 41 1.16474 0 107 1.16474 1
gene 2 41 4 -4.00888 0 108 -4.00888 1
genomeend 106

/* Organism #107 Fitness: 3.28986 Error: 2.1862 */
genomestart 107
trait 1 0.228399 0 0.790071 0.18038 0 0.990562 0 0 
trait 2 0.2 0 0 0 0 0 0 0 
trait 3 0.0515625 0 0 0.555871 0.5338 0.24485 0 0.749726 
node 1 2 1 3
node 2 3 1 1
node 3 1 1 1
node 4 3 0 2
node 9 1 0 0
node 41 1 0 0
gene 1 1 4 -6.32761 0 1 -6.32761 1
gene 2 2 4 1.7729 0 2 1.7729 1
gene 3 3 4 0.297193 0 3 0.297193 1
gene 3 3 9 7.59449 0 12 7.59449 1
gene 3 9 4 4.76165 0 13 4.76165 1
gene 1 2 9 2.65733 0 68 2.65733 1
gene 2 2 41 0.397809 0 107 0.397809 1
gene 2 41 4 0.0139927 0 108 0.0139927 1
gene 3 9 41 -2.88273 0 210 -2.88273 1
genomeend 107

/* Organism #108 Fitness: 8.65129 Error: 1.05869 */
genomestart 108
trait 1 0.228399 0 0.184614 0.18038 0 0.182646 0 0 
trait 2 0.2 0 0 0 0 0 0 0 
trait 3 0.0515625 0 0 0.555871 0.5338 0.24485 0 0.749726 
node 1 2 1 3
node 2 3 1 1
node 3 1 1 1
node 4 3 0 2
node 9 1 0 0
node 41 1 0 0
gene 1 1 4 -1.22631 0 1 -1.22631 1
gene 2 2 4 -2.21183 0 2 -2.21183 1
gene 3 3 4 -1.64142 0 3 -1.64142 1
gene 3 3 9 7.14426 0 12 7.14426 1
gene 3 9 4 8 0 13 8 1
gene 1 2 9 1.9184 0 68 1.9184 1
gene 2 2 41 6.47237 0 107 6.47237 1
gene 2 41 4 -6.67528 0 108 -6.67528 1
genomeend 108

/* Organism #109 Fitness: 10.2457 Error: 0.799107 */
genomestart 109
trait 1 0.228399 0 0.487342 0.18038 0 0.586604 0 0 
trait 2 0.2 0 0 0 0 0 0 0 
trait 3 0.0515625 0 0 0.555871 0.5338 0.24485 0 0.749726 
node 1 2 1 3
node 2 3 1 1
node 3 1 1 1
node 4 3 0 2
node 9 1 0 0
node 41 1 0 0
node 80 1 0 0
gene 1 1 4 -3.59712 0 1 -3.59712 1
gene 2 2 4 -0.165677 0 2 -0.165677 1
gene 3 3 4 -1.05482 0 3 -1.05482 1
gene 3 3 9 6.9877 0 12 6.9877 1
gene 3 9 4 7.544 0 13 7.544 1
gene 1 2 9 3.35025 0 68 3.35025 1
gene 2 2 41 3.45698 0 107 3.45698 1
gene 2 41 4 -3.28517 0 108 -3.28517 0
gene 2 41 80 1 0 235 0 1
gene 2 80 4 -3.28517 0 236 0 1
genomeend 109

/* Species #15 : (Size 6) (AF 5.66365) (Age 10)  */


/* Organism #110 Fitness: 9 Error: 1 */
genomestart 110
trait 1 0.1 0 0 0 0 0 0 0 
trait 2 0.2 0 0 0 0 0 0 0 
trait 3 0.3 0 0 0 0 0.262734 0 0 
node 1 1 1 3
node 2 3 1 1
node 3 1 1 1
node 4 2 0 2
node 12 1 0 0
node 22 1 0 0
node 60 1 0 0
gene 3 1 4 -1.57052 0 1 -1.57052 1
gene 1 2 4 -4.56729 0 2 -4.56729 1
gene 1 3 4 5.4024 0 3 5.4024 1
gene 1 2 12 -0.99324 0 18 -0.99324 1
gene 1 12 4 -2.8877 0 19 -2.8877 1
gene 1 2 22 1.64511 0 50 1.64511 1
gene 1 22 12 6.0568 0 51 6.0568 1
gene 2 1 22 1.87956 0 77 1.87956 1
gene 1 1 12 -3.04575 0 127 -3.04575 1
gene 3 3 22 -1.94788 0 136 -1.94788 1
gene 1 12 60 -1.41046 0 170 -1.41046 1
gene 1 60 4 -0.79371 0 171 -0.79371 1
genomeend 110

/* Organism #111 Fitness: 3.99171 Error: 2.00207 */
genomestart 111
trait 1 0.1 0 0 0 0 0 0 0 
trait 2 0.2 0 0 0 0 0 0 0 
trait 3 0.3 0 0 0 0 0.262734 0 0 
node 1 1 1 3
node 2 3 1 1
node 3 1 1 1
node 4 2 0 2
node 12 1 0 0
node 22 1 0 0
node 60 1 0 0
gene 3 1 4 -1.49873 0 1 -1.49873 1
gene 1 2 4 -1.37394 0 2 -1.37394 1
gene 1 3 4 7.81382 0 3 7.81382 1
gene 1 2 12 -1.77062 0 18 -1.77062 1
gene 1 12 4 -1.49106 0 19 -1.49106 1
gene 1 2 22 1.10165 0 50 1.10165 1
gene 1 22 12 8 0 51 8 1
gene 2 1 22 -0.381252 0 77 -0.381252 1
gene 1 1 12 -3.23924 0 127 -3.23924 1
gene 3 3 22 -3.33777 0 136 -3.33777 1
gene 1 12 60 -0.583865 0 170 -0.583865 1
gene 1 60 4 0.489059 0 171 0.489059 1
genomeend 111

/* Organism #112 Fitness: 4 Error: 2 */
genomestart 112
trait 1 0.1 0 0 0 0 0 0 0 
trait 2 0.2 0 0 0 0 0 0 0 
trait 3 0.3 0 0 0 0 0.262734 0 0 
node 1 1 1 3
node 2 3 1 1
node 3 1 1 1
node 4 2 0 2
node 12 1 0 0
node 22 1 0 0
node 60 1 0 0
gene 3 1 4 -2.3112 0 1 -2.3112 1
gene 1 2 4 -2.69253 0 2 -2.69253 1
gene 1 3 4 3.26466 0 3 3.26466 1
gene 1 2 12 -1.75315 0 18 -1.75315 1
gene 1 12 4 -1.75653 0 19 -1.75653 1
gene 1 2 22 0.10469 0 50 0.10469 1
gene 1 22 12 7.09832 0 51 7.09832 1
gene 2 1 22 3.01271 0 77 3.01271 1
gene 1 1 12 -3.76469 0 127 -3.76469 1
gene 3 3 22 -1.94788 0 136 -1.94788 1
gene 1 12 60 2.32253 0 170 2.32253 1
gene 1 60 4 -2.22427 0 171 -2.22427 1
genomeend 112

/* Organism #113 Fitness: 4 Error: 2 */
genomestart 113
trait 1 0.1 0 0 0 0 0 0 0 
trait 2 0.2 0 0 0 0 0 0 0 
trait 3 0.3 0 0 0 0 0.262734 0 0 
node 1 1 1 3
node 2 3 1 1
node 3 1 1 1
node 4 2 0 2
node 12 1 0 0
node 22 1 0 0
node 60 1 0 0
gene 3 1 4 -1.28029 0 1 -1.28029 1
gene 1 2 4 -6.67657 0 2 -6.67657 0
gene 1 3 4 6.73408 0 3 6.73408 0
gene 1 2 12 -0.587863 0 18 -0.587863 1
gene 1 12 4 -3.5741 0 19 -3.5741 1
gene 1 2 22 0.636933 0 50 0.636933 1
gene 1 22 12 4.52062 0 51 4.52062 1
gene 2 1 22 1.36708 0 77 1.36708 1
gene 1 1 12 -3.39431 0 127 -3.39431 1
gene 3 3 22 -1.94788 0 136 -1.94788 1
gene 1 12 60 -1.39494 0 170 -1.39494 1
gene 1 60 4 -2.67083 0 171 -2.67083 1
genomeend 113

/* Organism #114 Fitness: 8.9902 Error: 1.00163 */
genomestart 114
trait 1 0.1 0 0 0 0 0 0 0 
trait 2 0.2 0 0 0 0 0 0 0 
trait 3 0.3 0 0 0 0 0.262734 0 0 
node 1 1 1 3
node 2 3 1 1
node 3 1 1 1
node 4 2 0 2
node 12 1 0 0
node 22 1 0 0
node 60 1 0 0
node 71 1 0 0
gene 3 1 4 -2.49088 0 1 -2.49088 1
gene 1 2 4 -4.21888 0 2 -4.21888 0
gene 1 3 4 4.8404 0 3 4.8404 0
gene 1 2 12 -1.49004 0 18 -1.49004 1
gene 1 12 4 -4.06964 0 19 -4.06964 1
gene 1 2 22 1.37846 0 50 1.37846 1
gene 1 22 12 5.46348 0 51 5.46348 1
gene 2 1 22 1.68188 0 77 1.68188 1
gene 1 1 12 -3.54187 0 127 -3.54187 1
gene 3 3 22 -1.90687 0 136 -1.90687 1
gene 1 12 60 -0.75428 0 170 -0.75428 1
gene 1 60 4 -0.79371 0 171 -0.79371 1
gene 1 3 71 1 0 211 0 1
gene 1 71 4 4.8404 0 212 0 1
genomeend 114

/* Organism #115 Fitness: 4 Error: 2 */
genomestart 115
trait 1 0.1 0 0 0 0 0 0 0 
trait 2 0.2 0 0 0 0 0 0 0 
trait 3 0.3 0 0 0 0 0.262734 0 0 
node 1 1 1 3
node 2 1 1 1
node 3 1 1 1
node 4 2 0 2
node 12 1 0 0
node 22 1 0 0
node 60 1 0 0
gene 3 1 4 -2.62406 0 1 -2.62406 1
gene 1 2 4 -3.49591 0 2 -3.49591 0
gene 1 3 4 3.39688 0 3 3.39688 0
gene 1 2 12 -0.219882 0 18 -0.219882 1
gene 1 12 4 -4.07867 0 19 -4.07867 1
gene 1 2 22 1.51178 0 50 1.51178 1
gene 1 22 12 4.55749 0 51 4.55749 1
gene 2 1 22 4.0252 0 77 4.0252 1
gene 1 1 12 -3.29381 0 127 -3.29381 1
gene 3 3 22 -0.917596 0 136 -0.917596 1
gene 1 12 60 -0.362941 0 170 -0.362941 1
gene 1 60 4 1.32412 0 171 1.32412 1
genomeend 115

/* Species #17 : (Size 7) (AF 6.85886) (Age 9)  */


/* Organism #116 Fitness: 9 Error: 1 */
genomestart 116
trait 1 0.025 0.164968 0 0 0 0.380856 0 0 
trait 2 0.2 0 0 0 0 0 0 0 
trait 3 0.3 0 0 0 0 0 0 0 
node 1 1 1 3
node 2 3 1 1
node 3 1 1 1
node 4 2 0 2
node 12 1 0 0
node 22 3 0 0
node 52 1 0 0
gene 3 1 4 -0.778871 0 1 -0.778871 1
gene 1 2 4 -0.818964 0 2 -0.818964 1
gene 1 3 4 4.45152 0 3 4.45152 1
gene 1 2 12 4.20334 0 18 4.20334 1
gene 1 12 4 -6.49262 0 19 -6.49262 1
gene 1 2 22 -4.36282 0 50 -4.36282 0
gene 1 22 12 0.278138 0 51 0.278138 1
gene 1 3 12 -0.55398 0 64 -0.55398 1
gene 2 3 22 -0.331301 0 93 -0.331301 0
gene 1 2 52 3.07495 0 148 3.07495 1
gene 1 52 22 -3.15787 0 149 -3.15787 1
genomeend 116

/* Organism #117 Fitness: 4.02767 Error: 1.9931 */
genomestart 117
trait 1 0.904757 0 0 0 0 0.808817 0 0.563555 
trait 2 0.2 0 0 0 0 0 0 0 
trait 3 0.3 0 0 0 0 0 0 0 
node 1 1 1 3
node 2 3 1 1
node 3 1 1 1
node 4 2 0 2
node 12 1 0 0
node 22 3 0 0
node 52 1 0 0
gene 3 1 4 -1.92335 0 1 -1.92335 1
gene 1 2 4 -1.32038 0 2 -1.32038 1
gene 1 3 4 5.049 0 3 5.049 1
gene 1 2 12 3.59165 0 18 3.59165 1
gene 1 12 4 -5.94291 0 19 -5.94291 1
gene 1 2 22 -3.97752 0 50 -3.97752 0
gene 1 22 12 -1.5252 0 51 -1.5252 1
gene 1 3 12 0.200507 0 64 0.200507 1
gene 2 3 22 -1.11624 0 93 -1.11624 0
gene 1 2 52 2.63236 0 148 2.63236 1
gene 1 52 22 -1.55367 0 149 -1.55367 1
genomeend 117

/* Organism #118 Fitness: 4.00018 Error: 1.99996 */
genomestart 118
trait 1 0.025 0.164968 0 0 0 0.380856 0 0 
trait 2 0.2 0 0 0 0 0 0 0 
trait 3 0.3 0 0 0 0 0 0 0 
node 1 1 1 3
node 2 3 1 1
node 3 1 1 1
node 4 2 0 2
node 12 1 0 0
node 22 3 0 0
node 52 1 0 0
gene 3 1 4 -0.543344 0 1 -0.543344 1
gene 1 2 4 -1.62748 0 2 -1.62748 1
gene 1 3 4 2.81817 0 3 2.81817 1
gene 1 2 12 5.50709 0 18 5.50709 1
gene 1 12 4 -6.56816 0 19 -6.56816 1
gene 1 2 22 -3.32641 0 50 -3.32641 0
gene 1 22 12 1.38268 0 51 1.38268 1
gene 1 3 12 0.131008 0 64 0.131008 1
gene 2 3 22 1.72961 0 93 1.72961 0
gene 1 2 52 3.07495 0 148 3.07495 1
gene 1 52 22 -3.15787 0 149 -3.15787 1
genomeend 118

/* Organism #119 Fitness: 8.98646 Error: 1.00226 */
genomestart 119
trait 1 0.025 0.164968 0 0 0 0.380856 0 0 
trait 2 0.2 0 0 0 0 0 0 0 
trait 3 0.3 0 0 0 0 0 0 0 
node 1 1 1 3
node 2 3 1 1
node 3 1 1 1
node 4 2 0 2
node 12 1 0 0
node 22 3 0 0
node 52 1 0 0
gene 3 1 4 -1.23713 0 1 -1.23713 1
gene 1 2 4 -2.55615 0 2 -2.55615 1
gene 1 3 4 3.91733 0 3 3.91733 1
gene 1 2 12 4.35046 0 18 4.35046 1
gene 1 12 4 -8 0 19 -8 1
gene 1 2 22 -2.80851 0 50 -2.80851 0
gene 1 22 12 -2.34237 0 51 -2.34237 1
gene 1 3 12 -1.31157 0 64 -1.31157 1
gene 2 3 22 -1.71951 0 93 -1.71951 0
gene 1 2 52 4.57933 0 148 4.57933 1
gene 1 52 22 2.31521 0 149 2.31521 1
genomeend 119

/* Organism #120 Fitness: 9 Error: 1 */
genomestart 120
trait 1 0.025 0.164968 0 0 0 0.380856 0 0 
trait 2 0.2 0 0 0 0 0 0 0 
trait 3 0.3 0 0 0 0 0 0 0 
node 1 1 1 3
node 2 3 1 1
node 3 1 1 1
node 4 2 0 2
node 12 1 0 0
node 22 3 0 0
node 52 1 0 0
gene 3 1 4 -0.778871 0 1 -0.778871 1
gene 1 2 4 -0.818964 0 2 -0.818964 1
gene 1 3 4 4.45152 0 3 4.45152 1
gene 1 2 12 2.47864 0 18 2.47864 1
gene 1 12 4 -6.49262 0 19 -6.49262 1
gene 1 2 22 -4.36282 0 50 -4.36282 0
gene 1 22 12 -0.296754 0 51 -0.296754 1
gene 1 3 12 -0.55398 0 64 -0.55398 1
gene 2 3 22 -0.331301 0 93 -0.331301 0
gene 1 2 52 2.63236 0 148 2.63236 1
gene 1 52 22 -1.9456 0 149 -1.9456 1
genomeend 120

/* Organism #121 Fitness: 3.99993 Error: 2.00002 */
genomestart 121
trait 1 0.025 0.164968 0 0 0 0.380856 0 0 
trait 2 0.2 0 0 0 0 0 0 0 
trait 3 0.3 0 0 0 0 0 0 0 
node 1 1 1 3
node 2 3 1 1
node 3 1 1 1
node 4 2 0 2
node 12 1 0 0
node 22 3 0 0
node 52 1 0 0
gene 3 1 4 -3.80772 0 1 -3.80772 1
gene 1 2 4 0.0132756 0 2 0.0132756 1
gene 1 3 4 5.42766 0 3 5.42766 1
gene 1 2 12 1.80715 0 18 1.80715 1
gene 1 12 4 -8 0 19 -8 1
gene 1 2 22 -2.82263 0 50 -2.82263 0
gene 1 22 12 0.0131611 0 51 0.0131611 1
gene 1 3 12 -3.47476 0 64 -3.47476 1
gene 2 3 22 1.57099 0 93 1.57099 0
gene 1 2 52 2.63236 0 148 2.63236 1
gene 1 52 22 -4.39013 0 149 -4.39013 1
genomeend 121

/* Organism #122 Fitness: 8.99779 Error: 1.00037 */
genomestart 122
trait 1 0.025 0.164968 0 0 0 0.380856 0 0 
trait 2 0.2 0 0 0 0 0 0 0 
trait 3 0.3 0 0 0 0 0 0 0 
node 1 1 1 3
node 2 3 1 1
node 3 1 1 1
node 4 2 0 2
node 12 1 0 0
node 22 3 0 0
node 52 1 0 0
gene 3 1 4 -0.789132 0 1 -0.789132 1
gene 1 2 4 -1.32023 0 2 -1.32023 1
gene 1 3 4 5.36143 0 3 5.36143 1
gene 1 2 12 3.27746 0 18 3.27746 1
gene 1 12 4 -4.85836 0 19 -4.85836 1
gene 1 2 22 -6.52979 0 50 -6.52979 0
gene 1 22 12 -0.0509278 0 51 -0.0509278 1
gene 1 3 12 -1.50571 0 64 -1.50571 1
gene 2 3 22 -1.35955 0 93 -1.35955 0
gene 1 2 52 2.63236 0 148 2.63236 1
gene 1 52 22 -1.34156 0 149 -1.34156 1
genomeend 122

/* Species #18 : (Size 6) (AF 7.18644) (Age 7)  */


/* Organism #123 Fitness: 8.99792 Error: 1.00035 */
genomestart 123
trait 1 0.1 0 0 0 0 0 0 0 
trait 2 0.2 0 0 0 0 0 0 0 
trait 3 0.3 0 0 0 0 0 0 0 
node 1 1 1 3
node 2 3 1 1
node 3 1 1 1
node 4 2 0 2
node 12 1 0 0
node 22 1 0 0
node 34 1 0 0
node 59 1 0 0
node 64 1 0 0
gene 3 1 4 6.44498 0 1 6.44498 1
gene 1 2 4 -5.74572 0 2 -5.74572 1
gene 1 3 4 3.25663 0 3 3.25663 0
gene 1 2 12 -1.90825 0 18 -1.90825 0
gene 1 12 4 -3.07649 0 19 -3.07649 1
gene 3 2 22 1.10973 0 50 1.10973 1
gene 1 22 12 5.70841 0 51 5.70841 0
gene 1 12 34 -1.66128 0 87 -1.66128 1
gene 1 34 4 0.81286 0 88 0.81286 1
gene 1 3 59 -1.83103 0 167 -1.83103 1
gene 1 59 4 8 0 168 8 1
gene 1 22 64 0.798059 0 182 0.798059 1
gene 1 64 12 4.4161 0 183 4.4161 1
genomeend 123

/* Organism #124 Fitness: 8.98478 Error: 1.00254 */
genomestart 124
trait 1 0.1 0 0 0 0 0 0 0 
trait 2 0.2 0 0 0 0 0 0 0 
trait 3 0.3 0 0 0 0 0 0 0 
node 1 1 1 3
node 2 3 1 1
node 3 1 1 1
node 4 2 0 2
node 12 1 0 0
node 22 1 0 0
node 34 1 0 0
node 59 1 0 0
node 64 1 0 0
gene 3 1 4 6.2714 0 1 6.2714 1
gene 1 2 4 -4.69657 0 2 -4.69657 1
gene 1 3 4 1.24165 0 3 1.24165 0
gene 1 2 12 -1.56087 0 18 -1.56087 0
gene 1 12 4 -4.47981 0 19 -4.47981 1
gene 3 2 22 -0.88168 0 50 -0.88168 1
gene 1 22 12 3.46278 0 51 3.46278 0
gene 1 12 34 -0.584658 0 87 -0.584658 1
gene 1 34 4 2.34428 0 88 2.34428 1
gene 1 3 59 -2.96861 0 167 -2.96861 1
gene 1 59 4 8 0 168 8 1
gene 1 22 64 3.17866 0 182 3.17866 1
gene 1 64 12 4.4161 0 183 4.4161 1
genomeend 124

/* Organism #125 Fitness: 3.98721 Error: 2.0032 */
genomestart 125
trait 1 0.1 0 0 0 0 0 0 0 
trait 2 0.2 0 0 0 0 0 0 0 
trait 3 0.3 0 0 0 0 0 0 0 
node 1 1 1 3
node 2 3 1 1
node 3 1 1 1
node 4 2 0 2
node 12 1 0 0
node 22 1 0 0
node 34 1 0 0
node 59 1 0 0
node 64 1 0 0
gene 3 1 4 3.73112 0 1 3.73112 1
gene 1 2 4 -6.82989 0 2 -6.82989 1
gene 1 3 4 4.63614 0 3 4.63614 0
gene 1 2 12 -2.96297 0 18 -2.96297 0
gene 1 12 4 -1.50563 0 19 -1.50563 1
gene 3 2 22 0.563829 0 50 0.563829 1
gene 1 22 12 4.81632 0 51 4.81632 0
gene 1 12 34 0.501534 0 87 0.501534 1
gene 1 34 4 -1.16619 0 88 -1.16619 1
gene 1 3 59 -4.05034 0 167 -4.05034 1
gene 1 59 4 8 0 168 8 1
gene 1 22 64 1.05579 0 182 1.05579 1
gene 1 64 12 4.4161 0 183 4.4161 1
genomeend 125

/* Organism #126 Fitness: 4 Error: 2 */
genomestart 126
trait 1 0.1 0 0 0 0 0 0 0 
trait 2 0.2 0 0 0 0 0 0 0 
trait 3 0.3 0 0 0 0 0 0 0 
node 1 1 1 3
node 2 3 1 1
node 3 1 1 1
node 4 2 0 2
node 12 3 0 0
node 22 1 0 0
node 34 1 0 0
node 59 1 0 0
node 64 1 0 0
gene 3 1 4 6.99866 0 1 6.99866 1
gene 1 2 4 -1.23882 0 2 -1.23882 1
gene 1 3 4 4.30845 0 3 4.30845 0
gene 1 2 12 0.461135 0 18 0.461135 0
gene 1 12 4 -2.59293 0 19 -2.59293 1
gene 3 2 22 2.8901 0 50 2.8901 1
gene 1 22 12 6.58475 0 51 6.58475 0
gene 1 12 34 -2.07602 0 87 -2.07602 1
gene 1 34 4 0.530641 0 88 0.530641 1
gene 1 3 59 -4.68375 0 167 -4.68375 1
gene 1 59 4 5.95152 0 168 5.95152 1
gene 1 22 64 3.09351 0 182 3.09351 1
gene 1 64 12 -0.81698 0 183 -0.81698 1
genomeend 126

/* Organism #127 Fitness: 8.51987 Error: 1.08112 */
genomestart 127
trait 1 0.1 0 0 0 0 0 0 0 
trait 2 0.2 0 0 0 0 0 0 0 
trait 3 0.3 0 0 0 0 0 0 0 
node 1 1 1 3
node 2 3 1 1
node 3 1 1 1
node 4 2 0 2
node 12 1 0 0
node 22 1 0 0
node 34 1 0 0
node 59 1 0 0
node 64 1 0 0
gene 3 1 4 6.19701 0 1 6.19701 1
gene 1 2 4 -4.02348 0 2 -4.02348 1
gene 1 3 4 3.25663 0 3 3.25663 0
gene 1 2 12 -1.49777 0 18 -1.49777 0
gene 1 12 4 -5.54315 0 19 -5.54315 1
gene 3 2 22 3.53214 0 50 3.53214 1
gene 1 22 12 7.97243 0 51 7.97243 0
gene 1 12 34 -1.66128 0 87 -1.66128 1
gene 1 34 4 0.656987 0 88 0.656987 1
gene 1 3 59 -1.83103 0 167 -1.83103 1
gene 1 59 4 8 0 168 8 1
gene 1 22 64 2.32383 0 182 2.32383 1
gene 1 64 12 3.1064 0 183 3.1064 1
genomeend 127

/* Organism #128 Fitness: 8.62886 Error: 1.06251 */
genomestart 128
trait 1 0.1 0 0 0 0 0 0 0 
trait 2 0.2 0 0 0 0 0 0 0 
trait 3 0.3 0 0 0 0 0 0 0 
node 1 1 1 3
node 2 3 1 1
node 3 1 1 1
node 4 2 0 2
node 12 1 0 0
node 22 1 0 0
node 34 1 0 0
node 59 1 0 0
node 64 1 0 0
gene 3 1 4 5.24941 0 1 5.24941 1
gene 1 2 4 -5.74572 0 2 -5.74572 1
gene 1 3 4 3.25663 0 3 3.25663 0
gene 1 2 12 -1.73322 0 18 -1.73322 0
gene 1 12 4 -3.07649 0 19 -3.07649 1
gene 3 2 22 1.10973 0 50 1.10973 1
gene 1 22 12 4.48027 0 51 4.48027 0
gene 1 12 34 -0.434965 0 87 -0.434965 1
gene 1 34 4 1.1681 0 88 1.1681 1
gene 1 3 59 -1.83103 0 167 -1.83103 1
gene 1 59 4 8 0 168 8 1
gene 1 22 64 1.31352 0 182 1.31352 1
gene 1 64 12 4.4161 0 183 4.4161 1
genomeend 128

/* Species #19 : (Size 11) (AF 7.53923) (Age 6)  */


/* Organism #129 Fitness: 9 Error: 1 */
genomestart 129
trait 1 0.1 0 0 0 0 0 0 0 
trait 2 0.2 0 0 0 0 0 0 0 
trait 3 0.3 0 0 0 0 0 0 0 
node 1 1 1 3
node 2 3 1 1
node 3 1 1 1
node 4 2 0 2
node 12 1 0 0
node 22 1 0 0
node 34 1 0 0
gene 3 1 4 1.87407 0 1 1.87407 1
gene 1 2 4 5.2839 0 2 5.2839 1
gene 1 3 4 6.92978 0 3 6.92978 1
gene 1 2 12 -1.94128 0 18 -1.94128 0
gene 1 12 4 -7.86546 0 19 -7.86546 1
gene 3 2 22 -4.32989 0 50 -4.32989 1
gene 1 22 12 4.11588 0 51 4.11588 1
gene 1 12 34 1.45718 0 87 1.45718 1
gene 1 34 4 1.48938 0 88 1.48938 1
gene 3 3 22 -2.31307 0 166 -2.31307 1
genomeend 129

/* Organism #130 Fitness: 9 Error: 1 */
genomestart 130
trait 1 0.1 0 0 0 0 0 0 0 
trait 2 0.2 0 0 0 0 0 0 0 
trait 3 0.3 0 0 0 0 0 0 0 
node 1 1 1 3
node 2 3 1 1
node 3 1 1 1
node 4 2 0 2
node 12 1 0 0
node 22 2 0 0
node 34 1 0 0
gene 3 1 4 1.48076 0 1 1.48076 1
gene 1 2 4 5.71909 0 2 5.71909 1
gene 1 3 4 8 0 3 8 1
gene 1 2 12 -2.05947 0 18 -2.05947 0
gene 1 12 4 -8 0 19 -8 1
gene 2 2 22 -8 0 50 -8 1
gene 1 22 12 5.86634 0 51 5.86634 1
gene 1 12 34 0.951109 0 87 0.951109 1
gene 1 34 4 2.91467 0 88 2.91467 1
gene 3 3 22 -0.35165 0 166 -0.35165 1
gene 1 3 12 0.109531 0 237 0.109531 1
genomeend 130

/* Organism #131 Fitness: 8.99811 Error: 1.00031 */
genomestart 131
trait 1 0.1 0 0 0 0 0 0 0 
trait 2 0.2 0 0 0 0 0 0 0 
trait 3 0.3 0 0 0 0 0 0 0 
node 1 1 1 3
node 2 3 1 1
node 3 1 1 1
node 4 2 0 2
node 12 1 0 0
node 22 2 0 0
node 34 1 0 0
gene 3 1 4 0.549371 0 1 0.549371 1
gene 1 2 4 4.83657 0 2 4.83657 1
gene 1 3 4 5.05324 0 3 5.05324 1
gene 1 2 12 -2.16777 0 18 -2.16777 0
gene 1 12 4 -8 0 19 -8 1
gene 2 2 22 -8 0 50 -8 1
gene 1 22 12 4.67708 0 51 4.67708 1
gene 1 12 34 2.6128 0 87 2.6128 1
gene 1 34 4 0.312471 0 88 0.312471 1
gene 3 3 22 -2.83578 0 166 -2.83578 1
genomeend 131

/* Organism #132 Fitness: 8.98776 Error: 1.00204 */
genomestart 132
trait 1 0.1 0 0 0 0 0 0 0 
trait 2 0.2 0 0 0 0 0 0 0 
trait 3 0.3 0 0 0 0 0 0 0 
node 1 2 1 3
node 2 3 1 1
node 3 1 1 1
node 4 2 0 2
node 12 1 0 0
node 22 2 0 0
node 34 1 0 0
gene 3 1 4 2.77238 0 1 2.77238 1
gene 1 2 4 5.89389 0 2 5.89389 1
gene 1 3 4 8 0 3 8 1
gene 1 2 12 -4.10436 0 18 -4.10436 0
gene 1 12 4 -8 0 19 -8 1
gene 2 2 22 -8 0 50 -8 1
gene 1 22 12 3.41456 0 51 3.41456 1
gene 1 12 34 3.15371 0 87 3.15371 1
gene 1 34 4 3.96825 0 88 3.96825 1
gene 3 3 22 -0.35165 0 166 -0.35165 1
genomeend 132

/* Organism #133 Fitness: 8.99259 Error: 1.00124 */
genomestart 133
trait 1 0.1 0 0 0 0 0 0 0 
trait 2 0.2 0 0 0 0 0 0 0 
trait 3 0.3 0 0 0 0 0 0 0 
node 1 1 1 3
node 2 3 1 1
node 3 1 1 1
node 4 2 0 2
node 12 1 0 0
node 22 1 0 0
node 34 1 0 0
node 81 1 0 0
gene 3 1 4 1.87407 0 1 1.87407 1
gene 1 2 4 5.2839 0 2 5.2839 1
gene 1 3 4 6.92978 0 3 6.92978 1
gene 1 2 12 -1.94128 0 18 -1.94128 0
gene 1 12 4 -7.86546 0 19 -7.86546 0
gene 3 2 22 -4.32989 0 50 -4.32989 1
gene 1 22 12 4.11588 0 51 4.11588 1
gene 1 12 34 1.45718 0 87 1.45718 1
gene 1 34 4 1.48938 0 88 1.48938 1
gene 3 3 22 -2.31307 0 166 -2.31307 1
gene 1 12 81 1 0 238 0 1
gene 1 81 4 -7.86546 0 239 0 1
genomeend 133

/* Organism #134 Fitness: 8.99979 Error: 1.00004 */
genomestart 134
trait 1 0.1 0 0 0 0 0 0 0 
trait 2 0.2 0 0 0 0 0 0 0 
trait 3 0.3 0 0 0 0 0 0 0 
node 1 1 1 3
node 2 3 1 1
node 3 1 1 1
node 4 2 0 2
node 12 1 0 0
node 22 1 0 0
node 34 1 0 0
gene 3 1 4 0.979415 0 1 0.979415 1
gene 1 2 4 4.29022 0 2 4.29022 1
gene 1 3 4 6.96954 0 3 6.96954 1
gene 1 2 12 -0.84315 0 18 -0.84315 0
gene 1 12 4 -6.23783 0 19 -6.23783 1
gene 3 2 22 -5.98849 0 50 -5.98849 1
gene 1 22 12 3.96779 0 51 3.96779 1
gene 1 12 34 -0.356838 0 87 -0.356838 1
gene 1 34 4 -0.239189 0 88 -0.239189 1
gene 3 3 22 -2.12264 0 166 -2.12264 1
genomeend 134

/* Organism #135 Fitness: 4.00433 Error: 1.99892 */
genomestart 135
trait 1 0.1 0 0 0 0 0 0 0 
trait 2 0.2 0 0 0 0 0 0 0 
trait 3 0.3 0 0 0 0 0 0 0 
node 1 1 1 3
node 2 3 1 1
node 3 1 1 1
node 4 2 0 2
node 12 1 0 0
node 22 2 0 0
node 34 1 0 0
gene 3 1 4 1.48076 0 1 1.48076 1
gene 1 2 4 5.74747 0 2 5.74747 1
gene 1 3 4 1.067 0 3 1.067 1
gene 1 2 12 -0.922575 0 18 -0.922575 0
gene 1 12 4 -8 0 19 -8 1
gene 2 2 22 1.84362 0 50 1.84362 1
gene 1 22 12 0.107196 0 51 0.107196 1
gene 1 12 34 1.86674 0 87 1.86674 1
gene 1 34 4 4.44227 0 88 4.44227 1
gene 3 3 22 1.53829 0 166 1.53829 1
genomeend 135

/* Organism #136 Fitness: 2.88984 Error: 2.30005 */
genomestart 136
trait 1 0.1 0 0 0 0 0 0 0 
trait 2 0.2 0 0 0 0 0 0 0 
trait 3 0.3 0 0 0 0 0 0 0 
node 1 1 1 3
node 2 3 1 1
node 3 1 1 1
node 4 2 0 2
node 12 1 0 0
node 22 2 0 0
node 34 1 0 0
gene 3 1 4 -0.535371 0 1 -0.535371 1
gene 1 2 4 4.49011 0 2 4.49011 1
gene 1 3 4 6.2197 0 3 6.2197 1
gene 1 2 12 -1.81295 0 18 -1.81295 0
gene 1 12 4 -7.9678 0 19 -7.9678 1
gene 2 2 22 -8 0 50 -8 1
gene 1 22 12 -0.868099 0 51 -0.868099 1
gene 1 12 34 2.3075 0 87 2.3075 1
gene 1 34 4 -1.53455 0 88 -1.53455 1
gene 3 3 22 -1.98859 0 166 -1.98859 1
genomeend 136

/* Organism #137 Fitness: 4.05918 Error: 1.98526 */
genomestart 137
trait 1 0 0 0 0 0 0 0 0.39848 
trait 2 0.2 0 0 0 0 0 0 0 
trait 3 0.3 0 0 0 0 0 0 0 
node 1 1 1 3
node 2 3 1 1
node 3 1 1 1
node 4 2 0 2
node 12 1 0 0
node 22 1 0 0
node 34 1 0 0
gene 3 1 4 0.731376 0 1 0.731376 1
gene 1 2 4 5.2839 0 2 5.2839 1
gene 1 3 4 6.13157 0 3 6.13157 1
gene 1 2 12 -4.3318 0 18 -4.3318 0
gene 1 12 4 -7.97136 0 19 -7.97136 1
gene 3 2 22 2.46025 0 50 2.46025 1
gene 1 22 12 5.33296 0 51 5.33296 1
gene 1 12 34 1.42109 0 87 1.42109 1
gene 1 34 4 1.1037 0 88 1.1037 1
gene 3 3 22 -2.29804 0 166 -2.29804 1
genomeend 137

/* Organism #138 Fitness: 8.99994 Error: 1.00001 */
genomestart 138
trait 1 0.1 0 0 0 0 0 0 0 
trait 2 0.2 0 0 0 0 0 0 0 
trait 3 0.3 0 0 0 0 0 0 0 
node 1 1 1 3
node 2 3 1 1
node 3 1 1 1
node 4 2 0 2
node 12 1 0 0
node 22 1 0 0
node 34 1 0 0
gene 3 1 4 1.87407 0 1 1.87407 1
gene 1 2 4 5.11109 0 2 5.11109 1
gene 1 3 4 2.35855 0 3 2.35855 1
gene 1 2 12 2.09052 0 18 2.09052 1
gene 1 12 4 -5.57962 0 19 -5.57962 1
gene 3 2 22 -3.26388 0 50 -3.26388 1
gene 1 22 12 4.66399 0 51 4.66399 1
gene 1 12 34 -0.198065 0 87 -0.198065 1
gene 1 34 4 3.62362 0 88 3.62362 1
gene 3 3 22 -1.98714 0 166 -1.98714 1
genomeend 138

/* Organism #139 Fitness: 9 Error: 1 */
genomestart 139
trait 1 0.1 0 0 0 0 0 0 0 
trait 2 0.2 0 0 0 0 0 0 0 
trait 3 0.3 0 0 0 0 0 0 0 
node 1 1 1 3
node 2 3 1 1
node 3 1 1 1
node 4 2 0 2
node 12 1 0 0
node 22 2 0 0
node 34 1 0 0
gene 3 1 4 0.637989 0 1 0.637989 1
gene 1 2 4 3.73333 0 2 3.73333 1
gene 1 3 4 8 0 3 8 1
gene 1 2 12 -2.12111 0 18 -2.12111 0
gene 1 12 4 -8 0 19 -8 1
gene 2 2 22 -8 0 50 -8 1
gene 1 22 12 7.96152 0 51 7.96152 1
gene 1 12 34 2.88736 0 87 2.88736 1
gene 1 34 4 2.57294 0 88 2.57294 1
gene 3 3 22 -2.26913 0 166 -2.26913 1
genomeend 139

/* Species #20 : (Size 6) (AF 5.15203) (Age 5)  */


/* Organism #140 Fitness: 8.27069 Error: 1.12412 */
genomestart 140
trait 1 0.1 0 0 0 0 0 0 0 
trait 2 0.2 0 0 0 0 0 0 0 
trait 3 0.3 0 0 0 0 0 0 0 
node 1 1 1 3
node 2 3 1 1
node 3 1 1 1
node 4 2 0 2
node 12 1 0 0
node 22 1 0 0
node 34 1 0 0
node 59 1 0 0
node 65 1 0 0
gene 3 1 4 -1.68096 0 1 -1.68096 1
gene 1 2 4 4.34877 0 2 4.34877 1
gene 1 3 4 7.19018 0 3 7.19018 1
gene 1 2 12 -0.0523392 0 18 -0.0523392 1
gene 2 12 4 -5.09686 0 19 -5.09686 1
gene 3 2 22 -1.40004 0 50 -1.40004 1
gene 1 22 12 1.26911 0 51 1.26911 1
gene 1 12 34 3.30962 0 87 3.30962 1
gene 1 34 4 2.59781 0 88 2.59781 1
gene 1 3 59 3.027 0 167 3.027 1
gene 1 59 4 5.48553 0 168 5.48553 1
gene 1 1 22 0.780694 0 175 0.780694 1
gene 1 2 65 3.43614 0 185 3.43614 1
gene 1 65 4 2.05847 0 186 2.05847 1
genomeend 140

/* Organism #141 Fitness: 4.23041 Error: 1.9432 */
genomestart 141
trait 1 0.1 0 0 0 0 0 0 0 
trait 2 0.2 0 0 0 0 0 0 0 
trait 3 0.3 0 0 0 0 0 0 0 
node 1 1 1 3
node 2 3 1 1
node 3 1 1 1
node 4 2 0 2
node 12 1 0 0
node 22 1 0 0
node 34 1 0 0
node 59 1 0 0
node 65 1 0 0
gene 3 1 4 -0.571612 0 1 -0.571612 1
gene 1 2 4 3.15138 0 2 3.15138 1
gene 1 3 4 4.69536 0 3 4.69536 1
gene 1 2 12 -2.22839 0 18 -2.22839 1
gene 2 12 4 -2.76105 0 19 -2.76105 1
gene 3 2 22 -2.85951 0 50 -2.85951 1
gene 1 22 12 3.61423 0 51 3.61423 1
gene 1 12 34 5.79985 0 87 5.79985 1
gene 1 34 4 0.886792 0 88 0.886792 1
gene 1 3 59 3.53475 0 167 3.53475 1
gene 1 59 4 6.9292 0 168 6.9292 1
gene 1 1 22 2.83177 0 175 2.83177 1
gene 1 2 65 1.29168 0 185 1.29168 1
gene 1 65 4 -0.896252 0 186 -0.896252 1
genomeend 141

/* Organism #142 Fitness: 6.41105 Error: 1.46799 */
genomestart 142
trait 1 0.1 0 0 0 0 0 0 0 
trait 2 0.2 0 0 0 0 0 0 0 
trait 3 0.3 0 0 0 0 0 0 0 
node 1 1 1 3
node 2 3 1 1
node 3 1 1 1
node 4 2 0 2
node 12 1 0 0
node 22 1 0 0
node 34 1 0 0
node 59 1 0 0
node 65 1 0 0
gene 3 1 4 0.51355 0 1 0.51355 1
gene 1 2 4 5.58119 0 2 5.58119 1
gene 1 3 4 5.68035 0 3 5.68035 1
gene 1 2 12 2.37495 0 18 2.37495 1
gene 2 12 4 -6.33728 0 19 -6.33728 1
gene 3 2 22 -0.485855 0 50 -0.485855 1
gene 1 22 12 1.34106 0 51 1.34106 1
gene 1 12 34 3.42689 0 87 3.42689 1
gene 1 34 4 3.45462 0 88 3.45462 1
gene 1 3 59 0.824709 0 167 0.824709 1
gene 1 59 4 6.2652 0 168 6.2652 1
gene 1 1 22 2.30464 0 175 2.30464 1
gene 1 2 65 3.43614 0 185 3.43614 1
gene 1 65 4 -1.59619 0 186 -1.59619 1
genomeend 142

/* Organism #143 Fitness: 4 Error: 2 */
genomestart 143
trait 1 0.1 0 0 0 0 0 0 0 
trait 2 0.2 0 0 0 0 0 0 0 
trait 3 0.279675 0 0 0 0 0 0 0.407483 
node 1 1 1 3
node 2 3 1 1
node 3 1 1 1
node 4 2 0 2
node 12 1 0 0
node 22 1 0 0
node 34 1 0 0
node 59 1 0 0
node 65 1 0 0
gene 3 1 4 -2.93947 0 1 -2.93947 1
gene 1 2 4 2.03608 0 2 2.03608 1
gene 1 3 4 8 0 3 8 1
gene 1 2 12 -2.24837 0 18 -2.24837 1
gene 2 12 4 -7.52094 0 19 -7.52094 1
gene 3 2 22 -0.112384 0 50 -0.112384 1
gene 1 22 12 2.56973 0 51 2.56973 1
gene 1 12 34 3.86567 0 87 3.86567 1
gene 1 34 4 0.322733 0 88 0.322733 1
gene 1 3 59 5.0239 0 167 5.0239 1
gene 1 59 4 4.24663 0 168 4.24663 1
gene 1 1 22 0.985244 0 175 0.985244 1
gene 1 2 65 -0.712378 0 185 -0.712378 1
gene 1 65 4 2.06221 0 186 2.06221 1
genomeend 143

/* Organism #144 Fitness: 4 Error: 2 */
genomestart 144
trait 1 0.1 0 0 0 0 0 0 0 
trait 2 0.2 0 0 0 0 0 0 0 
trait 3 0.3 0 0 0 0 0 0 0 
node 1 1 1 3
node 2 3 1 1
node 3 1 1 1
node 4 2 0 2
node 12 1 0 0
node 22 1 0 0
node 34 1 0 0
node 59 1 0 0
node 65 1 0 0
gene 3 1 4 0.0456252 0 1 0.0456252 1
gene 1 2 4 6.11847 0 2 6.11847 1
gene 1 3 4 6.65175 0 3 6.65175 1
gene 1 2 12 2.2045 0 18 2.2045 1
gene 2 12 4 -4.40188 0 19 -4.40188 1
gene 3 2 22 -3.4328 0 50 -3.4328 1
gene 1 22 12 0.76899 0 51 0.76899 1
gene 1 12 34 1.74638 0 87 1.74638 1
gene 1 34 4 3.76606 0 88 3.76606 1
gene 1 3 59 2.21536 0 167 2.21536 1
gene 1 59 4 3.53448 0 168 3.53448 1
gene 1 1 22 -1.24116 0 175 -1.24116 1
gene 1 2 65 3.43614 0 185 3.43614 1
gene 1 65 4 -0.278024 0 186 -0.278024 1
genomeend 144

/* Organism #145 Fitness: 4 Error: 2 */
genomestart 145
trait 1 0.1 0 0 0 0 0 0 0 
trait 2 0.2 0 0 0 0 0 0 0 
trait 3 0.3 0 0 0 0 0 0 0 
node 1 1 1 3
node 2 3 1 1
node 3 1 1 1
node 4 2 0 2
node 12 1 0 0
node 22 1 0 0
node 34 1 0 0
node 59 1 0 0
node 65 1 0 0
gene 3 1 4 -1.68096 0 1 -1.68096 1
gene 1 2 4 6.32591 0 2 6.32591 1
gene 1 3 4 7.92636 0 3 7.92636 1
gene 1 2 12 -1.95181 0 18 -1.95181 1
gene 2 12 4 -5.88355 0 19 -5.88355 1
gene 3 2 22 -2.01857 0 50 -2.01857 1
gene 1 22 12 -0.135044 0 51 -0.135044 1
gene 1 12 34 1.31153 0 87 1.31153 1
gene 1 34 4 3.83358 0 88 3.83358 1
gene 1 3 59 5.15613 0 167 5.15613 1
gene 1 59 4 5.48553 0 168 5.48553 1
gene 1 1 22 0.780694 0 175 0.780694 1
gene 1 2 65 -2.41699 0 185 -2.41699 1
gene 1 65 4 3.74042 0 186 3.74042 1
genomeend 145

/* Species #21 : (Size 4) (AF 3.27625) (Age 3)  */


/* Organism #146 Fitness: 1.01971 Error: 2.99019 */
genomestart 146
trait 1 0.1 0 0 0 0 0 0 0 
trait 2 0.147931 0 0 0 0.507964 0 0.0152497 0 
trait 3 0.3 0 0 0.291925 0 0 0 0 
node 1 3 1 3
node 2 3 1 1
node 3 1 1 1
node 4 2 0 2
node 12 1 0 0
node 27 1 0 0
gene 3 1 4 1.05281 0 1 1.05281 1
gene 3 2 4 -5.6838 0 2 -5.6838 1
gene 1 3 4 -3.81672 0 3 -3.81672 1
gene 1 2 12 6.9145 0 18 6.9145 1
gene 1 12 4 -7.6189 0 19 -7.6189 1
gene 2 3 12 0.431734 0 38 0.431734 0
gene 2 3 27 0.552309 0 70 0.552309 1
gene 2 27 12 -5.33718 0 71 -5.33718 1
gene 2 2 27 3.01866 0 191 3.01866 1
gene 2 1 27 -0.338603 0 199 -0.338603 1
genomeend 146

/* Organism #147 Fitness: 4.00004 Error: 1.99999 */
genomestart 147
trait 1 0.1 0 0 0 0 0 0 0 
trait 2 0.147931 0 0 0 0.507964 0 0.0152497 0 
trait 3 0.3 0 0 0.291925 0 0 0 0 
node 1 3 1 3
node 2 3 1 1
node 3 1 1 1
node 4 2 0 2
node 12 1 0 0
node 27 1 0 0
gene 3 1 4 -0.352107 0 1 -0.352107 1
gene 3 2 4 -1.97005 0 2 -1.97005 1
gene 1 3 4 -4.60868 0 3 -4.60868 1
gene 1 2 12 4.54535 0 18 4.54535 1
gene 1 12 4 -5.7691 0 19 -5.7691 1
gene 2 3 12 1.07346 0 38 1.07346 0
gene 2 3 27 0.43878 0 70 0.43878 1
gene 2 27 12 -6.12898 0 71 -6.12898 1
gene 2 2 27 4.48515 0 191 4.48515 1
gene 2 1 27 -1.91473 0 199 -1.91473 1
genomeend 147

/* Organism #148 Fitness: 4.08523 Error: 1.9788 */
genomestart 148
trait 1 0.1 0 0 0 0 0 0 0 
trait 2 0.147931 0 0 0 0.507964 0 0.0152497 0 
trait 3 0.3 0 0 0.291925 0 0 0 0 
node 1 3 1 3
node 2 3 1 1
node 3 1 1 1
node 4 2 0 2
node 12 1 0 0
node 27 1 0 0
gene 3 1 4 0.355083 0 1 0.355083 1
gene 3 2 4 -8 0 2 -8 1
gene 1 3 4 1.13865 0 3 1.13865 1
gene 1 2 12 -0.965148 0 18 -0.965148 1
gene 1 12 4 -4.54248 0 19 -4.54248 1
gene 2 3 12 1.47058 0 38 1.47058 0
gene 2 3 27 -0.4429 0 70 -0.4429 1
gene 2 27 12 -6.22466 0 71 -6.22466 1
gene 2 2 27 3.97717 0 191 3.97717 1
gene 2 1 27 -3.93391 0 199 -3.93391 1
genomeend 148

/* Organism #149 Fitness: 4 Error: 2 */
genomestart 149
trait 1 0.1 0 0 0 0 0 0 0 
trait 2 0.147931 0 0 0 0.507964 0 0.0152497 0 
trait 3 0.3 0 0 0.291925 0 0 0 0 
node 1 3 1 3
node 2 3 1 1
node 3 1 1 1
node 4 2 0 2
node 12 1 0 0
node 27 1 0 0
gene 3 1 4 -0.394147 0 1 -0.394147 1
gene 3 2 4 -8 0 2 -8 1
gene 1 3 4 -2.99142 0 3 -2.99142 1
gene 1 2 12 4.54535 0 18 4.54535 1
gene 1 12 4 -6.58768 0 19 -6.58768 1
gene 2 3 12 1.77539 0 38 1.77539 0
gene 2 3 27 -1.49083 0 70 -1.49083 1
gene 2 27 12 -3.74709 0 71 -3.74709 1
gene 2 2 27 4.48515 0 191 4.48515 1
gene 2 1 27 -1.65899 0 199 -1.65899 1
genomeend 149
