
/* Species #1 : (Size 6) (AF 8.1648) (Age 33)  */


/* Organism #0 Fitness: 9 Error: 1 */
genomestart 0
trait 1 0.1 0 0.0293121 0 0 0 0 0.137316 
trait 2 0.450313 0 0 0 0 0 0 0 
trait 3 0.3 0 0 0 0 0 0 0 
node 1 2 1 3
node 2 2 1 1
node 3 3 1 1
node 4 2 0 2
gene 1 1 4 -4.01644 0 1 -4.01644 1
gene 2 2 4 8 0 2 8 1
gene 1 3 4 8 0 3 8 1
genomeend 0

/* Organism #1 Fitness: 8.97758 Error: 1.00374 */
genomestart 1
trait 1 0.1 0 0.0293121 0 0 0 0 0.137316 
trait 2 0.450313 0 0 0 0 0 0 0 
trait 3 0.3 0 0 0 0 0 0 0 
node 1 2 1 3
node 2 2 1 1
node 3 3 1 1
node 4 2 0 2
gene 1 1 4 -5.02393 0 1 -5.02393 1
gene 2 2 4 6.15821 0 2 6.15821 1
gene 1 3 4 8 0 3 8 1
genomeend 1

/* Organism #2 Fitness: 8.99993 Error: 1.00001 */
genomestart 2
trait 1 0.1 0 0.0293121 0 0 0 0 0.137316 
trait 2 0 0 0 0 0 0 0 0 
trait 3 0.3 0 0 0 0 0 0 0 
node 1 2 1 3
node 2 2 1 1
node 3 3 1 1
node 4 2 0 2
gene 1 1 4 -2.31022 0 1 -2.31022 1
gene 2 2 4 8 0 2 8 1
gene 1 3 4 7.02623 0 3 7.02623 1
genomeend 2

/* Organism #3 Fitness: 4.01179 Error: 1.99706 */
genomestart 3
trait 1 0.1 0 0.0293121 0 0 0 0 0.137316 
trait 2 0.450313 0 0 0 0 0 0 0 
trait 3 0.3 0 0 0 0 0 0 0 
node 1 2 1 3
node 2 2 1 1
node 3 3 1 1
node 4 2 0 2
gene 1 1 4 -3.50953 0 1 -3.50953 1
gene 2 2 4 -2.42027 0 2 -2.42027 1
gene 1 3 4 7.11267 0 3 7.11267 1
genomeend 3

/* Organism #4 Fitness: 8.99951 Error: 1.00008 */
genomestart 4
trait 1 0.1 0 0.0293121 0 0 0 0 0.802375 
trait 2 0.450313 0 0 0 0 0 0 0 
trait 3 0.3 0 0 0 0 0 0 0 
node 1 2 1 3
node 2 2 1 1
node 3 3 1 1
node 4 2 0 2
gene 1 1 4 -4.01644 0 1 -4.01644 1
gene 2 2 4 7.32043 0 2 7.32043 1
gene 1 3 4 5.92756 0 3 5.92756 1
genomeend 4

/* Organism #5 Fitness: 9 Error: 1 */
genomestart 5
trait 1 0.1 0 0.136646 0 0 0.179601 0 0 
trait 2 0.450313 0 0 0 0 0 0 0 
trait 3 0.3 0 0 0 0 0 0 0 
node 1 2 1 3
node 2 2 1 1
node 3 3 1 1
node 4 2 0 2
gene 1 1 4 -3.52189 0 1 -3.52189 1
gene 2 2 4 6.98503 0 2 6.98503 1
gene 1 3 4 6.91743 0 3 6.91743 1
genomeend 5

/* Species #2 : (Size 8) (AF 6.86297) (Age 30)  */


/* Organism #6 Fitness: 9 Error: 1 */
genomestart 6
trait 1 0.1 0 0 0 0 0 0 0 
trait 2 0.2 0 0 0 0 0 0 0 
trait 3 0.3 0 0 0 0 0 0 0 
node 1 3 1 3
node 2 3 1 1
node 3 1 1 1
node 4 2 0 2
node 7 1 0 0
gene 2 1 4 -4.87686 0 1 -4.87686 1
gene 1 2 4 3.52775 0 2 3.52775 1
gene 2 3 4 -8 0 3 -8 1
gene 1 2 7 8 0 8 8 1
gene 1 7 4 5.34214 0 9 5.34214 1
gene 2 3 7 1.64624 0 25 1.64624 1
gene 2 1 7 -5.44502 0 113 -5.44502 1
genomeend 6

/* Organism #7 Fitness: 7.18065 Error: 1.32033 */
genomestart 7
trait 1 0.1 0 0 0 0 0 0 0 
trait 2 0.2 0 0 0 0 0 0 0 
trait 3 0.3 0 0 0 0 0 0 0 
node 1 3 1 3
node 2 3 1 1
node 3 1 1 1
node 4 2 0 2
node 7 1 0 0
gene 2 1 4 -2.58652 0 1 -2.58652 1
gene 1 2 4 2.6978 0 2 2.6978 1
gene 2 3 4 -1.45535 0 3 -1.45535 1
gene 1 2 7 8 0 8 8 1
gene 1 7 4 1.18976 0 9 1.18976 1
gene 2 3 7 3.87898 0 25 3.87898 1
gene 2 1 7 -1.23127 0 113 -1.23127 1
genomeend 7

/* Organism #8 Fitness: 8.45726 Error: 1.09186 */
genomestart 8
trait 1 0.1 0 0 0 0 0 0 0 
trait 2 0.2 0 0 0 0 0 0 0 
trait 3 0.3 0 0 0 0 0 0 0 
node 1 3 1 3
node 2 3 1 1
node 3 1 1 1
node 4 2 0 2
node 7 1 0 0
gene 2 1 4 -4.87686 0 1 -4.87686 1
gene 1 2 4 3.52775 0 2 3.52775 0
gene 2 3 4 -8 0 3 -8 1
gene 1 2 7 8 0 8 8 1
gene 1 7 4 5.34214 0 9 5.34214 1
gene 2 3 7 0.199973 0 25 0.199973 1
gene 3 1 7 -5.44502 0 113 -5.44502 1
genomeend 8

/* Organism #9 Fitness: 8.9988 Error: 1.0002 */
genomestart 9
trait 1 0.1 0 0 0 0 0 0 0 
trait 2 0.2 0 0 0 0 0 0 0 
trait 3 0.3 0 0 0 0 0 0 0 
node 1 3 1 3
node 2 3 1 1
node 3 1 1 1
node 4 2 0 2
node 7 1 0 0
gene 2 1 4 -3.27177 0 1 -3.27177 1
gene 1 2 4 1.97819 0 2 1.97819 1
gene 2 3 4 -8 0 3 -8 1
gene 1 2 7 8 0 8 8 1
gene 1 7 4 7.56324 0 9 7.56324 1
gene 2 3 7 2.2702 0 25 2.2702 1
gene 2 1 7 -5.19458 0 113 -5.19458 1
genomeend 9

/* Organism #10 Fitness: 4.25115 Error: 1.93817 */
genomestart 10
trait 1 0.1 0 0 0 0 0 0 0 
trait 2 0.2 0 0 0 0 0 0 0 
trait 3 0.3 0 0 0 0 0 0 0 
node 1 3 1 3
node 2 3 1 1
node 3 1 1 1
node 4 2 0 2
node 7 1 0 0
gene 2 1 4 -5.88206 0 1 -5.88206 1
gene 1 2 4 2.5425 0 2 2.5425 0
gene 2 3 4 -8 0 3 -8 1
gene 1 2 7 6.84228 0 8 6.84228 1
gene 1 7 4 7.60532 0 9 7.60532 1
gene 2 3 7 -0.0649281 0 25 -0.0649281 1
gene 2 1 7 0.345851 0 113 0.345851 1
genomeend 10

/* Organism #11 Fitness: 4 Error: 2 */
genomestart 11
trait 1 0.1 0 0 0 0 0 0 0 
trait 2 0.2 0 0 0 0 0 0 0 
trait 3 0.3 0 0 0 0 0 0 0 
node 1 3 1 3
node 2 3 1 1
node 3 1 1 1
node 4 2 0 2
node 7 1 0 0
gene 2 1 4 -5.81656 0 1 -5.81656 1
gene 1 2 4 3.02231 0 2 3.02231 0
gene 2 3 4 -5.59621 0 3 -5.59621 1
gene 1 2 7 7.07994 0 8 7.07994 1
gene 1 7 4 1.79037 0 9 1.79037 1
gene 2 3 7 0.923109 0 25 0.923109 1
gene 2 1 7 -2.92293 0 113 -2.92293 1
genomeend 11

/* Organism #12 Fitness: 8.99984 Error: 1.00003 */
genomestart 12
trait 1 0.1 0 0.0980865 0 0 0 0 0.17243 
trait 2 0.2 0 0 0 0 0 0 0 
trait 3 0.3 0 0 0 0 0 0 0 
node 1 3 1 3
node 2 3 1 1
node 3 1 1 1
node 4 2 0 2
node 7 1 0 0
gene 2 1 4 -4.33908 0 1 -4.33908 1
gene 1 2 4 3.03512 0 2 3.03512 0
gene 2 3 4 -8 0 3 -8 1
gene 1 2 7 8 0 8 8 1
gene 1 7 4 6.47373 0 9 6.47373 1
gene 2 3 7 0.923109 0 25 0.923109 1
gene 2 1 7 -3.80286 0 113 -3.80286 1
genomeend 12

/* Organism #13 Fitness: 4.01604 Error: 1.99599 */
genomestart 13
trait 1 0.1 0 0 0 0 0 0 0 
trait 2 0.2 0 0 0 0 0 0 0 
trait 3 0.3 0 0 0 0 0 0 0 
node 1 3 1 3
node 2 3 1 1
node 3 1 1 1
node 4 2 0 2
node 7 1 0 0
gene 2 1 4 -5.92887 0 1 -5.92887 1
gene 1 2 4 -2.33757 0 2 -2.33757 1
gene 2 3 4 -7.38429 0 3 -7.38429 1
gene 1 2 7 8 0 8 8 1
gene 1 7 4 7.14628 0 9 7.14628 1
gene 2 3 7 2.49062 0 25 2.49062 1
gene 2 1 7 -0.324717 0 113 -0.324717 1
genomeend 13

/* Species #3 : (Size 7) (AF 5.49996) (Age 29)  */


/* Organism #14 Fitness: 9 Error: 1 */
genomestart 14
trait 1 0 0 0 0.706168 0 0 0.724021 0 
trait 2 0.2 0 0.437223 0 0 0 0 0.496994 
trait 3 0.3 0 0 0 0 0 0 0 
node 1 1 1 3
node 2 2 1 1
node 3 1 1 1
node 4 1 0 2
node 10 1 0 0
gene 1 1 4 -7.18981 0 1 -7.18981 1
gene 1 2 4 5.31197 0 2 5.31197 0
gene 1 3 4 3.31024 0 3 3.31024 1
gene 1 2 10 -3.71423 0 14 -3.71423 1
gene 1 10 4 8 0 15 8 1
gene 1 3 10 2.54355 0 161 2.54355 1
genomeend 14

/* Organism #15 Fitness: 4 Error: 2 */
genomestart 15
trait 1 0 0 0 0.706168 0 0 0.724021 0 
trait 2 0.2 0 0.437223 0 0 0 0 0.496994 
trait 3 0.3 0 0 0 0 0 0 0 
node 1 1 1 3
node 2 2 1 1
node 3 1 1 1
node 4 1 0 2
node 10 1 0 0
gene 1 1 4 -8 0 1 -8 1
gene 1 2 4 3.90392 0 2 3.90392 0
gene 1 3 4 2.44367 0 3 2.44367 1
gene 1 2 10 -6.476 0 14 -6.476 1
gene 1 10 4 8 0 15 8 1
gene 1 3 10 -1.27096 0 161 -1.27096 1
genomeend 15

/* Organism #16 Fitness: 2.44961 Error: 2.43488 */
genomestart 16
trait 1 0 0 0 0.706168 0 0 0.724021 0 
trait 2 0.2 0 0.437223 0 0 0 0 0.496994 
trait 3 0.3 0 0 0 0 0 0 0 
node 1 3 1 3
node 2 2 1 1
node 3 1 1 1
node 4 1 0 2
node 10 1 0 0
gene 1 1 4 0.0236518 0 1 0.0236518 1
gene 1 2 4 -1.7616 0 2 -1.7616 0
gene 1 3 4 4.33155 0 3 4.33155 1
gene 1 2 10 -4.0317 0 14 -4.0317 1
gene 1 10 4 1.2875 0 15 1.2875 1
gene 1 3 10 0.608867 0 161 0.608867 1
genomeend 16

/* Organism #17 Fitness: 8.99942 Error: 1.0001 */
genomestart 17
trait 1 0 0 0 0.706168 0 0 0.724021 0 
trait 2 0.2 0 0.437223 0 0 0 0 0.496994 
trait 3 0.3 0 0 0 0 0 0 0 
node 1 1 1 3
node 2 2 1 1
node 3 1 1 1
node 4 1 0 2
node 10 1 0 0
gene 1 1 4 -8 0 1 -8 1
gene 1 2 4 2.16048 0 2 2.16048 0
gene 1 3 4 1.87969 0 3 1.87969 1
gene 1 2 10 -2.86353 0 14 -2.86353 1
gene 1 10 4 8 0 15 8 1
gene 1 3 10 1.78677 0 161 1.78677 1
genomeend 17

/* Organism #18 Fitness: 3.99963 Error: 2.00009 */
genomestart 18
trait 1 0 0 0 0.706168 0 0 0.724021 0 
trait 2 0.2 0 0.437223 0 0 0 0 0.496994 
trait 3 0.3 0 0 0 0 0 0 0 
node 1 1 1 3
node 2 2 1 1
node 3 1 1 1
node 4 1 0 2
node 10 1 0 0
gene 1 1 4 -5.875 0 1 -5.875 1
gene 1 2 4 0.470595 0 2 0.470595 0
gene 1 3 4 1.89497 0 3 1.89497 1
gene 1 2 10 -4.42371 0 14 -4.42371 1
gene 1 10 4 8 0 15 8 1
gene 1 3 10 4.72097 0 161 4.72097 1
genomeend 18

/* Organism #19 Fitness: 8.9987 Error: 1.00022 */
genomestart 19
trait 1 0 0 0 0.706168 0 0 0.724021 0 
trait 2 0.2 0 0.437223 0 0 0 0 0.496994 
trait 3 0.3 0 0 0 0 0 0 0 
node 1 1 1 3
node 2 2 1 1
node 3 1 1 1
node 4 1 0 2
node 10 1 0 0
gene 1 1 4 -7.56687 0 1 -7.56687 1
gene 1 2 4 3.28844 0 2 3.28844 0
gene 1 3 4 4.38289 0 3 4.38289 1
gene 1 2 10 -1.56458 0 14 -1.56458 1
gene 1 10 4 8 0 15 8 1
gene 1 3 10 1.262 0 161 1.262 1
genomeend 19

/* Organism #20 Fitness: 1.05239 Error: 2.97414 */
genomestart 20
trait 1 0 0 0 0.706168 0 0 0.724021 0 
trait 2 0.2 0 0.437223 0 0 0 0 0.496994 
trait 3 0.3 0 0 0 0 0 0 0 
node 1 1 1 3
node 2 2 1 1
node 3 1 1 1
node 4 1 0 2
node 10 1 0 0
gene 1 1 4 -7.18981 0 1 -7.18981 1
gene 1 2 4 5.31197 0 2 5.31197 1
gene 1 3 4 3.31024 0 3 3.31024 1
gene 1 2 10 -4.0317 0 14 -4.0317 1
gene 1 10 4 8 0 15 8 1
gene 1 3 10 1.6349 0 161 1.6349 1
gene 2 1 10 0.973785 0 331 0.973785 1
genomeend 20

/* Species #4 : (Size 8) (AF 8.22609) (Age 28)  */


/* Organism #21 Fitness: 9.01669 Error: 0.997219 */
genomestart 21
trait 1 0.05 0 0 0.000320444 0 0 0 0 
trait 2 0.2 0 0 0 0 0 0 0 
trait 3 0.3 0 0 0 0 0 0 0 
node 1 3 1 3
node 2 1 1 1
node 3 1 1 1
node 4 3 0 2
node 13 1 0 0
gene 1 1 4 -5.19303 0 1 -5.19303 1
gene 1 2 4 -0.168691 0 2 -0.168691 1
gene 2 3 4 -1.56102 0 3 -1.56102 1
gene 1 2 13 5.67452 0 21 5.67452 1
gene 3 13 4 8 0 22 8 1
gene 2 1 13 -0.237758 0 38 -0.237758 1
gene 2 3 13 5.29472 0 143 5.29472 1
genomeend 21

/* Organism #22 Fitness: 6.01393 Error: 1.54767 */
genomestart 22
trait 1 0.05 0 0 0.000320444 0 0 0 0 
trait 2 0.2 0 0 0 0 0 0 0 
trait 3 0.3 0 0 0 0 0 0 0 
node 1 3 1 3
node 2 1 1 1
node 3 1 1 1
node 4 3 0 2
node 13 1 0 0
gene 1 1 4 -7.41234 0 1 -7.41234 1
gene 1 2 4 0.48059 0 2 0.48059 1
gene 2 3 4 -1.58879 0 3 -1.58879 1
gene 1 2 13 3.82067 0 21 3.82067 1
gene 3 13 4 7.36193 0 22 7.36193 1
gene 2 1 13 1.86245 0 38 1.86245 1
gene 2 3 13 4.39259 0 143 4.39259 1
genomeend 22

/* Organism #23 Fitness: 9 Error: 1 */
genomestart 23
trait 1 0.05 0 0 0.000320444 0 0 0 0 
trait 2 0.2 0 0 0 0 0 0 0 
trait 3 0.3 0 0 0 0 0 0 0 
node 1 3 1 3
node 2 1 1 1
node 3 1 1 1
node 4 3 0 2
node 13 1 0 0
gene 1 1 4 -5.19303 0 1 -5.19303 1
gene 1 2 4 5.21805 0 2 5.21805 1
gene 2 3 4 6.64687 0 3 6.64687 1
gene 1 2 13 5.67452 0 21 5.67452 1
gene 3 13 4 8 0 22 8 1
gene 2 1 13 -0.237758 0 38 -0.237758 1
gene 2 3 13 7.83439 0 143 7.83439 1
genomeend 23

/* Organism #24 Fitness: 9 Error: 1 */
genomestart 24
trait 1 0.05 0 0 0.000320444 0 0 0 0 
trait 2 0.2 0 0 0 0 0 0 0 
trait 3 0.3 0 0 0 0 0 0 0 
node 1 3 1 3
node 2 1 1 1
node 3 1 1 1
node 4 3 0 2
node 13 1 0 0
gene 1 1 4 -4.66194 0 1 -4.66194 1
gene 1 2 4 -0.294733 0 2 -0.294733 1
gene 2 3 4 0.830714 0 3 0.830714 1
gene 1 2 13 6.72451 0 21 6.72451 1
gene 3 13 4 8 0 22 8 1
gene 2 1 13 -1.26753 0 38 -1.26753 1
gene 2 3 13 1.77793 0 143 1.77793 1
genomeend 24

/* Organism #25 Fitness: 8.82314 Error: 1.02962 */
genomestart 25
trait 1 0.05 0 0 0.000320444 0 0 0 0 
trait 2 0.2 0 0 0 0 0 0 0 
trait 3 0.3 0 0 0 0 0 0 0 
node 1 3 1 3
node 2 1 1 1
node 3 1 1 1
node 4 3 0 2
node 13 1 0 0
gene 1 1 4 -0.70864 0 1 -0.70864 1
gene 1 2 4 7.10883 0 2 7.10883 1
gene 2 3 4 8 0 3 8 1
gene 2 2 13 3.80862 0 21 3.80862 1
gene 3 13 4 0.355083 0 22 0.355083 1
gene 2 1 13 -1.69761 0 38 -1.69761 1
gene 2 3 13 -0.13947 0 143 -0.13947 1
genomeend 25

/* Organism #26 Fitness: 15.9536 Error: 0.00580047 */
/* ##------$ WINNER 26 SPECIES #4 $------## */
genomestart 26
trait 1 0.05 0 0 0.000320444 0 0 0 0 
trait 2 0.2 0 0 0 0 0 0 0 
trait 3 0.3 0 0 0 0 0 0 0 
node 1 3 1 3
node 2 1 1 1
node 3 1 1 1
node 4 3 0 2
node 13 1 0 0
gene 1 1 4 -2.92742 0 1 -2.92742 1
gene 1 2 4 -2.41646 0 2 -2.41646 1
gene 2 3 4 -3.96123 0 3 -3.96123 1
gene 1 2 13 7.7085 0 21 7.7085 1
gene 3 13 4 8 0 22 8 1
gene 2 1 13 -2.41907 0 38 -2.41907 1
gene 2 3 13 6.61975 0 143 6.61975 1
genomeend 26

/* Organism #27 Fitness: 4.00132 Error: 1.99967 */
genomestart 27
trait 1 0.05 0 0 0.000320444 0 0 0 0 
trait 2 0.2 0 0 0 0 0 0 0 
trait 3 0.3 0 0 0 0 0 0 0 
node 1 3 1 3
node 2 1 1 1
node 3 1 1 1
node 4 3 0 2
node 13 1 0 0
gene 1 1 4 -6.38829 0 1 -6.38829 1
gene 1 2 4 4.60028 0 2 4.60028 1
gene 2 3 4 0.517212 0 3 0.517212 1
gene 1 2 13 6.40017 0 21 6.40017 1
gene 3 13 4 8 0 22 8 1
gene 2 1 13 2.24128 0 38 2.24128 1
gene 2 3 13 7.83439 0 143 7.83439 1
genomeend 27

/* Organism #28 Fitness: 4 Error: 2 */
genomestart 28
trait 1 0.05 0 0 0.000320444 0 0 0 0 
trait 2 0.2 0 0 0 0 0 0 0 
trait 3 0.3 0 0 0 0 0 0 0 
node 1 3 1 3
node 2 1 1 1
node 3 1 1 1
node 4 3 0 2
node 13 1 0 0
gene 1 1 4 -6.51994 0 1 -6.51994 1
gene 1 2 4 3.32983 0 2 3.32983 1
gene 2 3 4 1.67192 0 3 1.67192 1
gene 1 2 13 -0.725425 0 21 -0.725425 1
gene 3 13 4 8 0 22 8 1
gene 2 1 13 -3.25314 0 38 -3.25314 1
gene 2 3 13 6.56455 0 143 6.56455 1
genomeend 28

/* Species #5 : (Size 6) (AF 4.919) (Age 27)  */


/* Organism #29 Fitness: 9 Error: 1 */
genomestart 29
trait 1 0.1 0 0 0 0 0 0 0 
trait 2 0.2 0 0 0.558763 0 0 0 0.359935 
trait 3 0.3 0 0 0 0 0 0.0264595 0 
node 1 2 1 3
node 2 1 1 1
node 3 3 1 1
node 4 3 0 2
node 16 1 0 0
gene 2 1 4 -3.79646 0 1 -3.79646 1
gene 1 2 4 3.68018 0 2 3.68018 1
gene 1 3 4 3.1745 0 3 3.1745 0
gene 1 3 16 4.69572 0 31 4.69572 1
gene 1 16 4 8 0 32 8 1
gene 3 1 16 -1.50766 0 50 -1.50766 1
gene 2 2 16 2.15967 0 215 2.15967 1
genomeend 29

/* Organism #30 Fitness: 2.50875 Error: 2.4161 */
genomestart 30
trait 1 0.1 0 0 0 0 0 0 0 
trait 2 0.2 0 0 0.558763 0 0 0 0.359935 
trait 3 0.3 0 0 0 0 0 0.0264595 0 
node 1 2 1 3
node 2 1 1 1
node 3 3 1 1
node 4 3 0 2
node 16 1 0 0
gene 2 1 4 -5.65347 0 1 -5.65347 1
gene 1 2 4 4.7642 0 2 4.7642 1
gene 1 3 4 2.42131 0 3 2.42131 0
gene 1 3 16 2.0081 0 31 2.0081 1
gene 1 16 4 4.91824 0 32 4.91824 1
gene 3 1 16 -3.97863 0 50 -3.97863 1
gene 2 2 16 1.64696 0 215 1.64696 1
genomeend 30

/* Organism #31 Fitness: 4.00009 Error: 1.99998 */
genomestart 31
trait 1 0.1 0 0 0 0 0 0 0 
trait 2 0.2 0 0 0.558763 0 0 0 0.359935 
trait 3 0.3 0 0 0 0 0 0.0264595 0 
node 1 2 1 3
node 2 1 1 1
node 3 3 1 1
node 4 3 0 2
node 16 1 0 0
gene 2 1 4 -3.84897 0 1 -3.84897 1
gene 1 2 4 3.86634 0 2 3.86634 1
gene 1 3 4 2.50645 0 3 2.50645 0
gene 1 3 16 2.39096 0 31 2.39096 1
gene 1 16 4 6.49078 0 32 6.49078 1
gene 3 1 16 0.511654 0 50 0.511654 1
gene 2 2 16 5.11211 0 215 5.11211 1
genomeend 31

/* Organism #32 Fitness: 1.00544 Error: 2.99728 */
genomestart 32
trait 1 0.1 0 0 0 0 0 0 0 
trait 2 0.2 0 0 0.558763 0 0 0 0.359935 
trait 3 0.3 0 0 0 0 0 0.0264595 0 
node 1 2 1 3
node 2 1 1 1
node 3 3 1 1
node 4 3 0 2
node 16 1 0 0
gene 2 1 4 -1.30565 0 1 -1.30565 1
gene 1 2 4 -0.796075 0 2 -0.796075 1
gene 1 3 4 3.08837 0 3 3.08837 0
gene 1 3 16 1.56848 0 31 1.56848 1
gene 1 16 4 8 0 32 8 1
gene 3 1 16 -4.05058 0 50 -4.05058 1
gene 2 2 16 3.63173 0 215 3.63173 1
genomeend 32

/* Organism #33 Fitness: 3.99988 Error: 2.00003 */
genomestart 33
trait 1 0.1 0 0 0 0 0 0 0 
trait 2 0.2 0 0 0.558763 0 0 0 0.359935 
trait 3 0.3 0 0 0 0 0 0.0264595 0 
node 1 2 1 3
node 2 1 1 1
node 3 3 1 1
node 4 3 0 2
node 16 1 0 0
gene 2 1 4 -3.62407 0 1 -3.62407 1
gene 1 2 4 1.37214 0 2 1.37214 1
gene 1 3 4 2.74595 0 3 2.74595 0
gene 1 3 16 1.38217 0 31 1.38217 1
gene 1 16 4 0.299997 0 32 0.299997 1
gene 3 1 16 -4.26505 0 50 -4.26505 1
gene 2 2 16 3.08309 0 215 3.08309 1
genomeend 33

/* Organism #34 Fitness: 8.99982 Error: 1.00003 */
genomestart 34
trait 1 0.1 0 0 0 0 0 0 0 
trait 2 0.2 0 0 0.558763 0 0 0 0.359935 
trait 3 0.3 0 0 0 0 0 0.0264595 0 
node 1 2 1 3
node 2 1 1 1
node 3 3 1 1
node 4 3 0 2
node 16 1 0 0
gene 2 1 4 -2.1139 0 1 -2.1139 1
gene 1 2 4 5.24548 0 2 5.24548 1
gene 1 3 4 3.65311 0 3 3.65311 0
gene 1 3 16 2.66311 0 31 2.66311 1
gene 1 16 4 8 0 32 8 1
gene 3 1 16 -2.22301 0 50 -2.22301 1
gene 2 2 16 1.90385 0 215 1.90385 1
genomeend 34

/* Species #7 : (Size 7) (AF 6.21092) (Age 26)  */


/* Organism #35 Fitness: 9 Error: 1 */
genomestart 35
trait 1 0.1 0 0 0 0 0 0 0 
trait 2 0.2 0 0 0 0 0 0 0 
trait 3 0.3 0 0 0 0 0 0 0 
node 1 3 1 3
node 2 3 1 1
node 3 1 1 1
node 4 2 0 2
node 7 1 0 0
node 20 1 0 0
gene 2 1 4 -3.62056 0 1 -3.62056 1
gene 1 2 4 3.05193 0 2 3.05193 0
gene 3 3 4 -8 0 3 -8 1
gene 1 2 7 5.01584 0 8 5.01584 1
gene 1 7 4 7.60483 0 9 7.60483 1
gene 3 3 7 2.44026 0 18 2.44026 0
gene 3 3 20 1.20123 0 43 1.20123 1
gene 3 20 7 -2.45061 0 44 -2.45061 1
gene 2 1 7 0.661962 0 113 0.661962 1
genomeend 35

/* Organism #36 Fitness: 4.00132 Error: 1.99967 */
genomestart 36
trait 1 0.1 0 0 0 0 0 0 0 
trait 2 0.2 0 0 0 0 0 0 0 
trait 3 0.3 0 0 0 0 0 0 0 
node 1 3 1 3
node 2 3 1 1
node 3 1 1 1
node 4 2 0 2
node 7 1 0 0
node 20 1 0 0
gene 2 1 4 -5.57604 0 1 -5.57604 1
gene 1 2 4 4.9826 0 2 4.9826 0
gene 3 3 4 -0.799661 0 3 -0.799661 1
gene 1 2 7 5.01584 0 8 5.01584 1
gene 1 7 4 8 0 9 8 1
gene 3 3 7 0.797601 0 18 0.797601 0
gene 3 3 20 1.20123 0 43 1.20123 1
gene 3 20 7 -1.04671 0 44 -1.04671 1
gene 2 1 7 -1.04753 0 113 -1.04753 1
genomeend 36

/* Organism #37 Fitness: 3.98932 Error: 2.00267 */
genomestart 37
trait 1 0.1 0 0 0 0 0 0 0 
trait 2 0.2 0 0 0 0 0 0 0 
trait 3 0.3 0 0 0 0 0 0 0 
node 1 3 1 3
node 2 3 1 1
node 3 1 1 1
node 4 2 0 2
node 7 1 0 0
node 20 1 0 0
gene 2 1 4 -0.931272 0 1 -0.931272 1
gene 1 2 4 0.124516 0 2 0.124516 0
gene 3 3 4 -0.564058 0 3 -0.564058 1
gene 1 2 7 1.93904 0 8 1.93904 1
gene 1 7 4 -1.32565 0 9 -1.32565 1
gene 3 3 7 0.708831 0 18 0.708831 1
gene 3 3 20 0.272057 0 43 0.272057 1
gene 3 20 7 -2.59851 0 44 -2.59851 1
gene 2 1 7 -1.23522 0 113 -1.23522 1
genomeend 37

/* Organism #38 Fitness: 9 Error: 1 */
genomestart 38
trait 1 0.1 0 0 0 0 0 0 0 
trait 2 0.2 0 0 0 0 0 0 0 
trait 3 0.3 0 0 0 0 0 0 0 
node 1 3 1 3
node 2 3 1 1
node 3 1 1 1
node 4 2 0 2
node 7 1 0 0
node 20 1 0 0
gene 2 1 4 -3.42095 0 1 -3.42095 1
gene 1 2 4 2.5778 0 2 2.5778 0
gene 3 3 4 -7.60057 0 3 -7.60057 1
gene 1 2 7 4.62506 0 8 4.62506 1
gene 1 7 4 7.17837 0 9 7.17837 1
gene 3 3 7 2.17088 0 18 2.17088 0
gene 3 3 20 0.554373 0 43 0.554373 1
gene 3 20 7 -2.82139 0 44 -2.82139 1
gene 2 1 7 0.517266 0 113 0.517266 1
gene 1 2 20 -0.33314 0 332 -0.33314 1
genomeend 38

/* Organism #39 Fitness: 4.48121 Error: 1.88311 */
genomestart 39
trait 1 0.1 0 0 0 0 0 0 0 
trait 2 0.2 0 0 0 0 0 0 0 
trait 3 0.3 0 0 0 0 0 0 0 
node 1 3 1 3
node 2 3 1 1
node 3 1 1 1
node 4 2 0 2
node 7 1 0 0
node 20 1 0 0
gene 2 1 4 -1.80471 0 1 -1.80471 1
gene 1 2 4 0.00160222 0 2 0.00160222 0
gene 3 3 4 -5.78489 0 3 -5.78489 1
gene 1 2 7 4.67991 0 8 4.67991 1
gene 1 7 4 8 0 9 8 1
gene 3 3 7 1.32313 0 18 1.32313 0
gene 3 3 20 -0.734939 0 43 -0.734939 1
gene 3 20 7 -4.58469 0 44 -4.58469 1
gene 2 1 7 -0.241844 0 113 -0.241844 1
genomeend 39

/* Organism #40 Fitness: 9 Error: 1 */
genomestart 40
trait 1 0.1 0 0 0 0 0 0 0 
trait 2 0.2 0 0 0 0 0 0 0 
trait 3 0.3 0 0 0 0 0 0 0 
node 1 3 1 3
node 2 3 1 1
node 3 1 1 1
node 4 2 0 2
node 7 1 0 0
node 20 1 0 0
gene 2 1 4 -4.74719 0 1 -4.74719 1
gene 1 2 4 2.97624 0 2 2.97624 0
gene 3 3 4 -8 0 3 -8 1
gene 1 2 7 5.22703 0 8 5.22703 1
gene 1 7 4 8 0 9 8 1
gene 3 3 7 2.04752 0 18 2.04752 0
gene 3 3 20 1.8124 0 43 1.8124 1
gene 3 20 7 -2.66855 0 44 -2.66855 1
gene 2 1 7 1.00941 0 113 1.00941 1
genomeend 40

/* Organism #41 Fitness: 4.00458 Error: 1.99886 */
genomestart 41
trait 1 0.1 0 0 0 0 0 0 0 
trait 2 0.2 0 0 0 0 0 0 0 
trait 3 0.3 0 0 0 0 0 0 0 
node 1 3 1 3
node 2 3 1 1
node 3 1 1 1
node 4 2 0 2
node 7 1 0 0
node 20 1 0 0
gene 2 1 4 1.3731 0 1 1.3731 1
gene 1 2 4 3.05193 0 2 3.05193 0
gene 3 3 4 -8 0 3 -8 1
gene 1 2 7 4.03925 0 8 4.03925 1
gene 1 7 4 1.22654 0 9 1.22654 1
gene 3 3 7 0.479293 0 18 0.479293 0
gene 3 3 20 -1.26924 0 43 -1.26924 1
gene 3 20 7 -2.23304 0 44 -2.23304 1
gene 2 1 7 -0.218207 0 113 -0.218207 1
genomeend 41

/* Species #8 : (Size 8) (AF 7.56023) (Age 26)  */


/* Organism #42 Fitness: 9 Error: 1 */
genomestart 42
trait 1 0.1 0 0.0335704 0 0.0531938 0.645711 0 0 
trait 2 0.2 0 0 0 0 0 0 0 
trait 3 0.3 0 0 0 0 0 0 0 
node 1 3 1 3
node 2 1 1 1
node 3 1 1 1
node 4 3 0 2
node 13 2 0 0
node 22 1 0 0
node 105 1 0 0
gene 1 1 4 -3.75142 0 1 -3.75142 1
gene 3 2 4 8 0 2 8 1
gene 2 3 4 8 0 3 8 1
gene 1 2 13 -4.46377 0 21 -4.46377 1
gene 1 13 4 -0.354396 0 22 -0.354396 1
gene 1 13 22 -0.941115 0 47 -0.941115 0
gene 1 22 4 6.8131 0 48 6.8131 1
gene 3 1 22 -0.439467 0 173 -0.439467 1
gene 1 3 22 1.73865 0 289 1.73865 1
gene 1 13 105 1 0 314 0 1
gene 1 105 22 -0.941115 0 315 0 1
genomeend 42

/* Organism #43 Fitness: 4.00006 Error: 1.99999 */
genomestart 43
trait 1 0.1 0 0.0335704 0 0.0531938 0.645711 0 0 
trait 2 0.2 0 0 0 0 0 0 0 
trait 3 0.3 0 0 0 0 0 0 0 
node 1 3 1 3
node 2 1 1 1
node 3 1 1 1
node 4 3 0 2
node 13 2 0 0
node 22 1 0 0
node 105 1 0 0
gene 1 1 4 -4.39558 0 1 -4.39558 1
gene 3 2 4 6.46507 0 2 6.46507 1
gene 2 3 4 6.36558 0 3 6.36558 1
gene 1 2 13 -6.49767 0 21 -6.49767 1
gene 1 13 4 1.00917 0 22 1.00917 1
gene 1 13 22 -1.50128 0 47 -1.50128 0
gene 1 22 4 7.06876 0 48 7.06876 1
gene 3 1 22 0.114902 0 173 0.114902 1
gene 1 3 22 3.45204 0 289 3.45204 1
gene 1 13 105 1 0 314 1 1
gene 1 105 22 0.293588 0 315 0.293588 1
genomeend 43

/* Organism #44 Fitness: 4 Error: 2 */
genomestart 44
trait 1 0.1 0 0.0335704 0 0.0531938 0.645711 0 0 
trait 2 0.2 0 0 0 0 0 0 0 
trait 3 0.3 0 0 0 0 0 0 0 
node 1 3 1 3
node 2 1 1 1
node 3 1 1 1
node 4 3 0 2
node 13 2 0 0
node 22 1 0 0
node 105 1 0 0
gene 1 1 4 -1.8212 0 1 -1.8212 1
gene 3 2 4 1.09424 0 2 1.09424 1
gene 2 3 4 7.9208 0 3 7.9208 1
gene 1 2 13 2.27409 0 21 2.27409 1
gene 1 13 4 1.50449 0 22 1.50449 1
gene 1 13 22 1.06273 0 47 1.06273 0
gene 1 22 4 6.99773 0 48 6.99773 1
gene 3 1 22 0.211264 0 173 0.211264 1
gene 1 3 22 0.374783 0 289 0.374783 1
gene 1 13 105 2.32673 0 314 2.32673 1
gene 1 105 22 0.811182 0 315 0.811182 1
genomeend 44

/* Organism #45 Fitness: 9 Error: 1 */
genomestart 45
trait 1 0.1 0 0.0335704 0 0.0531938 0.645711 0 0 
trait 2 0.2 0 0 0 0 0 0 0 
trait 3 0.3 0 0 0 0 0 0 0 
node 1 3 1 3
node 2 1 1 1
node 3 1 1 1
node 4 3 0 2
node 13 2 0 0
node 22 1 0 0
node 105 1 0 0
gene 1 1 4 -2.49382 0 1 -2.49382 1
gene 3 2 4 8 0 2 8 1
gene 2 3 4 6.74943 0 3 6.74943 1
gene 1 2 13 -2.703 0 21 -2.703 1
gene 1 13 4 -1.25858 0 22 -1.25858 1
gene 1 13 22 0.786004 0 47 0.786004 1
gene 1 22 4 7.88498 0 48 7.88498 1
gene 3 1 22 -2.69105 0 173 -2.69105 1
gene 1 3 22 0.102939 0 289 0.102939 1
gene 1 13 105 1 0 314 1 1
gene 1 105 22 0.29252 0 315 0.29252 1
genomeend 45

/* Organism #46 Fitness: 9 Error: 1 */
genomestart 46
trait 1 0.1 0 0.0335704 0 0.0531938 0.645711 0 0 
trait 2 0.2 0 0 0 0 0 0 0 
trait 3 0.3 0 0 0 0 0 0 0 
node 1 3 1 3
node 2 1 1 1
node 3 1 1 1
node 4 3 0 2
node 13 2 0 0
node 22 1 0 0
node 105 1 0 0
gene 1 1 4 -2.96335 0 1 -2.96335 1
gene 3 2 4 8 0 2 8 1
gene 2 3 4 5.59568 0 3 5.59568 1
gene 1 2 13 -4.39441 0 21 -4.39441 1
gene 1 13 4 -0.354396 0 22 -0.354396 1
gene 1 13 22 -1.13254 0 47 -1.13254 0
gene 1 22 4 6.44306 0 48 6.44306 1
gene 3 1 22 -1.16497 0 173 -1.16497 1
gene 1 3 22 2.98923 0 289 2.98923 1
gene 1 13 105 -1.44276 0 314 -1.44276 1
gene 1 105 22 -0.926542 0 315 -0.926542 1
genomeend 46

/* Organism #47 Fitness: 7.48227 Error: 1.26463 */
genomestart 47
trait 1 0.1 0 0.0335704 0 0.0531938 0.645711 0 0 
trait 2 0.2 0 0 0 0 0 0 0 
trait 3 0.3 0 0 0 0 0 0 0 
node 1 3 1 3
node 2 1 1 1
node 3 1 1 1
node 4 3 0 2
node 13 2 0 0
node 22 1 0 0
node 105 1 0 0
gene 1 1 4 -1.83813 0 1 -1.83813 1
gene 3 2 4 6.50787 0 2 6.50787 1
gene 2 3 4 1.62282 0 3 1.62282 1
gene 1 2 13 -4.25067 0 21 -4.25067 1
gene 1 13 4 0.847728 0 22 0.847728 1
gene 1 13 22 -2.35511 0 47 -2.35511 0
gene 1 22 4 4.6871 0 48 4.6871 1
gene 3 1 22 -0.627461 0 173 -0.627461 1
gene 1 3 22 -2.23975 0 289 -2.23975 1
gene 1 13 105 3.11776 0 314 3.11776 1
gene 1 105 22 -0.937147 0 315 -0.937147 1
genomeend 47

/* Organism #48 Fitness: 9 Error: 1 */
genomestart 48
trait 1 0.1 0 0.0335704 0 0.0531938 0.645711 0 0 
trait 2 0.2 0 0 0 0 0 0 0 
trait 3 0.3 0 0 0 0 0 0 0 
node 1 3 1 3
node 2 1 1 1
node 3 1 1 1
node 4 3 0 2
node 13 2 0 0
node 22 1 0 0
node 105 1 0 0
gene 1 1 4 -4.02318 0 1 -4.02318 1
gene 3 2 4 7.84931 0 2 7.84931 1
gene 2 3 4 7.90944 0 3 7.90944 1
gene 1 2 13 -2.82431 0 21 -2.82431 1
gene 1 13 4 -0.0997192 0 22 -0.0997192 1
gene 1 13 22 -1.56156 0 47 -1.56156 0
gene 1 22 4 7.94388 0 48 7.94388 1
gene 3 1 22 -1.17946 0 173 -1.17946 1
gene 1 3 22 1.60331 0 289 1.60331 1
gene 1 13 105 1 0 314 1 1
gene 1 105 22 -1.23196 0 315 -1.23196 1
genomeend 48

/* Organism #49 Fitness: 8.99948 Error: 1.00009 */
genomestart 49
trait 1 0.1 0 0.0335704 0 0.0531938 0.645711 0 0 
trait 2 0.2 0 0 0 0 0 0 0 
trait 3 0.3 0 0 0 0 0 0 0 
node 1 3 1 3
node 2 1 1 1
node 3 1 1 1
node 4 3 0 2
node 13 2 0 0
node 22 1 0 0
node 105 1 0 0
gene 1 1 4 -2.81579 0 1 -2.81579 1
gene 3 2 4 8 0 2 8 1
gene 2 3 4 7.17524 0 3 7.17524 1
gene 1 2 13 -4.95977 0 21 -4.95977 1
gene 1 13 4 1.81822 0 22 1.81822 1
gene 1 13 22 -2.58248 0 47 -2.58248 0
gene 1 22 4 6.59741 0 48 6.59741 1
gene 3 1 22 0.577486 0 173 0.577486 1
gene 1 3 22 0.268349 0 289 0.268349 1
gene 1 13 105 0.242225 0 314 0.242225 1
gene 1 105 22 -3.04041 0 315 -3.04041 1
genomeend 49

/* Species #9 : (Size 7) (AF 7.53096) (Age 25)  */


/* Organism #50 Fitness: 9 Error: 1 */
genomestart 50
trait 1 0.1 0 0 0 0 0 0 0 
trait 2 0.65613 0.277612 0.0699942 0.0788751 0 0 0 0 
trait 3 0.3 0.567827 0 0 0 0 0.677145 0 
node 1 3 1 3
node 2 3 1 1
node 3 1 1 1
node 4 2 0 2
node 7 2 0 0
node 108 1 0 0
gene 2 1 4 3.14501 0 1 3.14501 1
gene 1 2 4 2.96038 0 2 2.96038 0
gene 3 3 4 -6.95835 0 3 -6.95835 1
gene 2 2 7 -3.63702 0 8 -3.63702 1
gene 1 7 4 7.75051 0 9 7.75051 1
gene 3 1 7 1.07694 0 51 1.07694 1
gene 3 3 7 0.835114 0 253 0.835114 0
gene 3 3 108 1 0 321 0 1
gene 3 108 7 0.835114 0 322 0 1
genomeend 50

/* Organism #51 Fitness: 9 Error: 1 */
genomestart 51
trait 1 0.1 0 0 0 0 0 0 0 
trait 2 0.65613 0.483779 0.139988 0 0 0 0 0 
trait 3 0.3 0.567827 0 0 0 0 0.677145 0 
node 1 3 1 3
node 2 3 1 1
node 3 1 1 1
node 4 2 0 2
node 7 2 0 0
gene 2 1 4 3.14501 0 1 3.14501 1
gene 1 2 4 3.87507 0 2 3.87507 0
gene 3 3 4 -7.7613 0 3 -7.7613 1
gene 2 2 7 -3.63702 0 8 -3.63702 1
gene 1 7 4 8 0 9 8 1
gene 3 1 7 1.07694 0 51 1.07694 1
gene 3 3 7 1.89414 0 253 1.89414 1
genomeend 51

/* Organism #52 Fitness: 9 Error: 1 */
genomestart 52
trait 1 0.1 0 0 0 0 0 0 0 
trait 2 0.65613 0.483779 0.139988 0 0 0 0 0 
trait 3 0.3 0.567827 0 0 0 0 0.677145 0 
node 1 3 1 3
node 2 3 1 1
node 3 1 1 1
node 4 2 0 2
node 7 2 0 0
gene 2 1 4 3.14501 0 1 3.14501 1
gene 1 2 4 3.87507 0 2 3.87507 0
gene 3 3 4 -7.7613 0 3 -7.7613 1
gene 2 2 7 -3.63702 0 8 -3.63702 1
gene 1 7 4 8 0 9 8 1
gene 3 1 7 1.07694 0 51 1.07694 1
gene 3 3 7 1.89414 0 253 1.89414 1
genomeend 52

/* Organism #53 Fitness: 8.71674 Error: 1.04759 */
genomestart 53
trait 1 0.1 0 0 0 0 0 0 0 
trait 2 0.65613 0.380696 0.104991 0.0394375 0 0 0 0 
trait 3 0.3 0.567827 0 0 0 0 0.677145 0 
node 1 3 1 3
node 2 3 1 1
node 3 1 1 1
node 4 2 0 2
node 7 2 0 0
node 108 1 0 0
gene 2 1 4 3.68648 0 1 3.68648 1
gene 1 2 4 2.05136 0 2 2.05136 0
gene 3 3 4 -8 0 3 -8 1
gene 2 2 7 -1.85764 0 8 -1.85764 1
gene 1 7 4 6.80467 0 9 6.80467 1
gene 3 1 7 1.77665 0 51 1.77665 1
gene 3 3 7 3.96474 0 253 3.96474 0
gene 3 3 108 -0.667531 0 321 -0.667531 1
gene 3 108 7 3.25439 0 322 3.25439 1
genomeend 53

/* Organism #54 Fitness: 4 Error: 2 */
genomestart 54
trait 1 0.1 0 0 0 0 0 0 0 
trait 2 0.65613 0.277612 0.0699942 0.0788751 0 0 0 0 
trait 3 0.3 0.567827 0 0 0 0 0.677145 0 
node 1 3 1 3
node 2 3 1 1
node 3 1 1 1
node 4 2 0 2
node 7 2 0 0
node 108 1 0 0
gene 2 1 4 3.69694 0 1 3.69694 1
gene 1 2 4 5.21745 0 2 5.21745 0
gene 3 3 4 -5.65536 0 3 -5.65536 1
gene 2 2 7 -2.41765 0 8 -2.41765 1
gene 1 7 4 7.75051 0 9 7.75051 1
gene 3 1 7 2.4135 0 51 2.4135 1
gene 3 3 7 1.99428 0 253 1.99428 0
gene 3 3 108 0.766839 0 321 0.766839 1
gene 3 108 7 0.731046 0 322 0.731046 1
genomeend 54

/* Organism #55 Fitness: 4 Error: 2 */
genomestart 55
trait 1 0.1 0 0 0 0 0 0 0 
trait 2 0.65613 0.277612 0.0699942 0.0788751 0 0 0 0 
trait 3 0.3 0.567827 0 0 0 0 0.677145 0 
node 1 3 1 3
node 2 3 1 1
node 3 1 1 1
node 4 2 0 2
node 7 2 0 0
node 108 1 0 0
gene 2 1 4 3.14043 0 1 3.14043 1
gene 1 2 4 5.07936 0 2 5.07936 0
gene 3 3 4 -6.95835 0 3 -6.95835 1
gene 2 2 7 -1.6743 0 8 -1.6743 1
gene 1 7 4 7.35179 0 9 7.35179 1
gene 3 1 7 2.3549 0 51 2.3549 1
gene 3 3 7 -1.4861 0 253 -1.4861 0
gene 3 3 108 0.0781884 0 321 0.0781884 1
gene 3 108 7 0.851594 0 322 0.851594 1
genomeend 55

/* Organism #56 Fitness: 9 Error: 1 */
genomestart 56
trait 1 0.1 0 0 0 0 0 0 0 
trait 2 0.65613 0.380696 0.104991 0.0394375 0 0 0 0 
trait 3 0.3 0.567827 0 0 0 0 0.677145 0 
node 1 3 1 3
node 2 3 1 1
node 3 1 1 1
node 4 2 0 2
node 7 2 0 0
node 108 1 0 0
gene 2 1 4 3.14501 0 1 3.14501 1
gene 1 2 4 3.87507 0 2 3.87507 0
gene 3 3 4 -6.95835 0 3 -6.95835 1
gene 2 2 7 -3.63702 0 8 -3.63702 1
gene 1 7 4 8 0 9 8 1
gene 3 1 7 1.07694 0 51 1.07694 1
gene 3 3 7 1.89414 0 253 1.89414 0
gene 3 3 108 1 0 321 0 1
gene 3 108 7 0.835114 0 322 0 1
genomeend 56

/* Species #11 : (Size 8) (AF 7.97985) (Age 24)  */


/* Organism #57 Fitness: 9 Error: 1 */
genomestart 57
trait 1 0.1 0 0.0032569 0 0 0 0 0.0152573 
trait 2 0.2 0 0 0 0 0 0 0 
trait 3 0.3 0 0 0 0 0 0 0 
node 1 2 1 3
node 2 2 1 1
node 3 3 1 1
node 4 1 0 2
node 23 1 0 0
gene 2 1 4 -8 0 1 -8 1
gene 3 2 4 5.03647 0 2 5.03647 1
gene 1 3 4 8 0 3 8 1
gene 3 2 23 4.20307 0 56 4.20307 1
gene 3 23 4 8 0 57 8 1
gene 1 3 23 2.56734 0 268 2.56734 1
gene 2 1 23 -1.70557 0 290 -1.70557 1
genomeend 57

/* Organism #58 Fitness: 6.32844 Error: 1.48436 */
genomestart 58
trait 1 0.1 0 0.0032569 0 0 0 0 0.0152573 
trait 2 0.2 0 0 0 0 0 0 0 
trait 3 0.3 0 0 0 0 0 0 0 
node 1 2 1 3
node 2 2 1 1
node 3 3 1 1
node 4 1 0 2
node 23 1 0 0
gene 2 1 4 -8 0 1 -8 1
gene 3 2 4 6.77969 0 2 6.77969 1
gene 1 3 4 8 0 3 8 1
gene 3 2 23 -1.34777 0 56 -1.34777 1
gene 3 23 4 8 0 57 8 1
gene 1 3 23 0.581271 0 268 0.581271 1
gene 2 1 23 1.12163 0 290 1.12163 1
genomeend 58

/* Organism #59 Fitness: 6.26225 Error: 1.49755 */
genomestart 59
trait 1 0.1 0 0.0032569 0 0 0 0 0.0152573 
trait 2 0.2 0 0 0 0 0 0 0 
trait 3 0.3 0 0 0 0 0 0 0 
node 1 2 1 3
node 2 2 1 1
node 3 3 1 1
node 4 1 0 2
node 23 1 0 0
gene 2 1 4 -8 0 1 -8 1
gene 3 2 4 3.04643 0 2 3.04643 1
gene 1 3 4 8 0 3 8 1
gene 3 2 23 3.78443 0 56 3.78443 1
gene 3 23 4 7.70939 0 57 7.70939 1
gene 1 3 23 0.919568 0 268 0.919568 1
gene 2 1 23 -2.59732 0 290 -2.59732 1
genomeend 59

/* Organism #60 Fitness: 9 Error: 1 */
genomestart 60
trait 1 0.1 0 0.0032569 0 0 0 0 0.0152573 
trait 2 0.2 0 0 0 0 0 0 0 
trait 3 0.3 0 0 0 0 0 0 0 
node 1 2 1 3
node 2 2 1 1
node 3 3 1 1
node 4 1 0 2
node 23 1 0 0
gene 2 1 4 -8 0 1 -8 1
gene 3 2 4 5.03647 0 2 5.03647 1
gene 1 3 4 8 0 3 8 1
gene 3 2 23 2.8276 0 56 2.8276 1
gene 3 23 4 8 0 57 8 1
gene 1 3 23 2.56734 0 268 2.56734 1
gene 2 1 23 -0.144932 0 290 -0.144932 1
genomeend 60

/* Organism #61 Fitness: 8.99988 Error: 1.00002 */
genomestart 61
trait 1 0.1 0 0.0032569 0 0 0 0 0.0152573 
trait 2 0.2 0 0 0 0 0 0 0 
trait 3 0.3 0 0 0 0 0 0 0 
node 1 2 1 3
node 2 2 1 1
node 3 3 1 1
node 4 1 0 2
node 23 1 0 0
gene 2 1 4 -2.28187 0 1 -2.28187 1
gene 3 2 4 3.32316 0 2 3.32316 1
gene 1 3 4 5.79519 0 3 5.79519 1
gene 3 2 23 2.18336 0 56 2.18336 1
gene 3 23 4 7.45502 0 57 7.45502 1
gene 1 3 23 1.77493 0 268 1.77493 1
gene 2 1 23 -0.925253 0 290 -0.925253 1
genomeend 61

/* Organism #62 Fitness: 9 Error: 1 */
genomestart 62
trait 1 0.1 0 0.0032569 0 0 0 0 0.0152573 
trait 2 0.2 0 0 0 0 0 0 0 
trait 3 0.3 0 0 0 0 0 0 0 
node 1 2 1 3
node 2 2 1 1
node 3 3 1 1
node 4 1 0 2
node 23 1 0 0
gene 2 1 4 -8 0 1 -8 1
gene 3 2 4 5.40353 0 2 5.40353 1
gene 1 3 4 7.38177 0 3 7.38177 1
gene 3 2 23 5.88968 0 56 5.88968 1
gene 3 23 4 8 0 57 8 1
gene 1 3 23 4.76635 0 268 4.76635 1
gene 2 1 23 -0.502647 0 290 -0.502647 1
genomeend 62

/* Organism #63 Fitness: 8.99731 Error: 1.00045 */
genomestart 63
trait 1 0.1 0 0.0032569 0 0 0 0 0.0152573 
trait 2 0.2 0 0 0 0 0 0 0 
trait 3 0.3 0 0 0 0 0 0 0 
node 1 2 1 3
node 2 2 1 1
node 3 3 1 1
node 4 1 0 2
node 23 1 0 0
gene 2 1 4 -6.62278 0 1 -6.62278 1
gene 3 2 4 4.37017 0 2 4.37017 1
gene 1 3 4 8 0 3 8 1
gene 3 2 23 2.89154 0 56 2.89154 1
gene 3 23 4 8 0 57 8 1
gene 1 3 23 1.40306 0 268 1.40306 1
gene 2 1 23 -2.15923 0 290 -2.15923 1
genomeend 63

/* Organism #64 Fitness: 6.25092 Error: 1.49982 */
genomestart 64
trait 1 0.1 0 0.0032569 0 0 0 0 0.0152573 
trait 2 0.2 0 0 0 0 0 0 0 
trait 3 0.3 0 0 0 0 0 0 0 
node 1 2 1 3
node 2 2 1 1
node 3 3 1 1
node 4 1 0 2
node 23 1 0 0
gene 2 1 4 -8 0 1 -8 1
gene 3 2 4 5.39262 0 2 5.39262 1
gene 1 3 4 8 0 3 8 1
gene 3 2 23 4.19903 0 56 4.19903 1
gene 3 23 4 8 0 57 8 1
gene 1 3 23 0.207144 0 268 0.207144 1
gene 2 1 23 -2.4176 0 290 -2.4176 1
genomeend 64

/* Species #12 : (Size 5) (AF 4.83445) (Age 24)  */


/* Organism #65 Fitness: 4.04049 Error: 1.9899 */
genomestart 65
trait 1 0.1 0 0 0 0 0 0 0 
trait 2 0.2 0.926664 0.369915 0 0.335887 0 0.368206 0 
trait 3 0.859313 0.512925 0 0 0 0.650472 0 0 
node 1 3 1 3
node 2 3 1 1
node 3 1 1 1
node 4 3 0 2
node 7 3 0 0
node 24 2 0 0
node 69 1 0 0
gene 2 1 4 0.864284 0 1 0.864284 1
gene 1 2 4 2.58515 0 2 2.58515 1
gene 3 3 4 2.06702 0 3 2.06702 1
gene 1 2 7 0.878628 0 8 0.878628 1
gene 1 7 4 0.164037 0 9 0.164037 1
gene 3 3 24 0.155644 0 58 0.155644 1
gene 3 24 4 1.18633 0 59 1.18633 0
gene 3 24 69 -2.54639 0 202 -2.54639 1
gene 3 69 4 -8 0 203 -8 1
genomeend 65

/* Organism #66 Fitness: 4.00689 Error: 1.99828 */
genomestart 66
trait 1 0.1 0 0 0 0 0 0 0 
trait 2 0.2 0.926664 0.369915 0 0.335887 0 0.368206 0 
trait 3 0.859313 0.512925 0 0 0 0.650472 0 0 
node 1 3 1 3
node 2 3 1 1
node 3 1 1 1
node 4 3 0 2
node 7 3 0 0
node 24 2 0 0
node 69 1 0 0
gene 2 1 4 1.97951 0 1 1.97951 1
gene 1 2 4 1.76862 0 2 1.76862 1
gene 3 3 4 2.90071 0 3 2.90071 1
gene 1 2 7 2.73919 0 8 2.73919 1
gene 1 7 4 -1.36387 0 9 -1.36387 1
gene 3 3 24 0.0531785 0 58 0.0531785 1
gene 3 24 4 -2.41203 0 59 -2.41203 0
gene 3 24 69 -2.89651 0 202 -2.89651 1
gene 3 69 4 -8 0 203 -8 1
genomeend 66

/* Organism #67 Fitness: 7.62503 Error: 1.23865 */
genomestart 67
trait 1 0.1 0 0 0 0 0 0 0 
trait 2 0.2 0.926664 0.369915 0 0.335887 0 0.368206 0 
trait 3 0.859313 0.512925 0 0 0 0.650472 0 0 
node 1 3 1 3
node 2 3 1 1
node 3 1 1 1
node 4 3 0 2
node 7 3 0 0
node 24 2 0 0
node 69 1 0 0
gene 2 1 4 -0.243461 0 1 -0.243461 1
gene 1 2 4 2.49931 0 2 2.49931 1
gene 3 3 4 0.679037 0 3 0.679037 1
gene 1 2 7 0.947905 0 8 0.947905 1
gene 1 7 4 -0.276269 0 9 -0.276269 1
gene 3 3 24 0.450682 0 58 0.450682 1
gene 3 24 4 -1.00978 0 59 -1.00978 0
gene 3 24 69 -1.27895 0 202 -1.27895 1
gene 3 69 4 -8 0 203 -8 1
genomeend 67

/* Organism #68 Fitness: 4.05383 Error: 1.98659 */
genomestart 68
trait 1 0.1 0 0 0 0 0 0 0 
trait 2 0.2 0.926664 0.369915 0 0.335887 0 0.368206 0 
trait 3 0.859313 0.512925 0 0 0 0.650472 0 0 
node 1 3 1 3
node 2 3 1 1
node 3 1 1 1
node 4 2 0 2
node 7 3 0 0
node 24 2 0 0
node 69 1 0 0
gene 2 1 4 -0.243461 0 1 -0.243461 1
gene 1 2 4 3.61751 0 2 3.61751 1
gene 3 3 4 2.89331 0 3 2.89331 1
gene 1 2 7 -0.599536 0 8 -0.599536 1
gene 1 7 4 -0.276269 0 9 -0.276269 1
gene 3 3 24 1.89314 0 58 1.89314 1
gene 3 24 4 -1.65723 0 59 -1.65723 0
gene 3 24 69 1.52242 0 202 1.52242 1
gene 3 69 4 1.28399 0 203 1.28399 1
genomeend 68

/* Organism #69 Fitness: 4.44601 Error: 1.89144 */
genomestart 69
trait 1 0.1 0 0 0 0 0 0 0 
trait 2 0.2 0.926664 0.369915 0 0.335887 0 0.368206 0 
trait 3 0.859313 0.512925 0 0 0 0.650472 0 0 
node 1 3 1 3
node 2 3 1 1
node 3 1 1 1
node 4 3 0 2
node 7 3 0 0
node 24 2 0 0
node 69 1 0 0
gene 2 1 4 0.828883 0 1 0.828883 1
gene 1 2 4 0.555208 0 2 0.555208 1
gene 3 3 4 0.51355 0 3 0.51355 1
gene 1 2 7 -1.08631 0 8 -1.08631 1
gene 1 7 4 -0.804697 0 9 -0.804697 1
gene 3 3 24 -1.88292 0 58 -1.88292 1
gene 3 24 4 -1.00978 0 59 -1.00978 0
gene 3 24 69 -3.45363 0 202 -3.45363 1
gene 3 69 4 -7.49744 0 203 -7.49744 1
genomeend 69

/* Species #13 : (Size 6) (AF 8.99999) (Age 23)  */


/* Organism #70 Fitness: 9 Error: 1 */
genomestart 70
trait 1 0.1 0 0 0 0 0 0 0 
trait 2 0.1 0.0221107 0 0.101642 0 0.0532853 0 0 
trait 3 0.3 0 0 0 0 0 0 0 
node 1 3 1 3
node 2 3 1 1
node 3 1 1 1
node 4 2 0 2
node 7 3 0 0
node 26 1 0 0
gene 2 1 4 -3.41277 0 1 -3.41277 1
gene 1 2 4 8 0 2 8 1
gene 3 3 4 -8 0 3 -8 1
gene 3 2 7 -0.261696 0 8 -0.261696 0
gene 1 7 4 -2.6632 0 9 -2.6632 1
gene 1 2 26 1.54746 0 65 1.54746 1
gene 1 26 7 -0.345584 0 66 -0.345584 1
gene 1 1 26 1.18526 0 187 1.18526 1
genomeend 70

/* Organism #71 Fitness: 9 Error: 1 */
genomestart 71
trait 1 0.1 0 0 0 0 0 0 0 
trait 2 0.1 0.0221107 0 0.101642 0 0.0532853 0 0 
trait 3 0.3 0 0 0 0 0 0 0 
node 1 3 1 3
node 2 3 1 1
node 3 1 1 1
node 4 2 0 2
node 7 3 0 0
node 26 1 0 0
gene 2 1 4 -3.38012 0 1 -3.38012 1
gene 1 2 4 8 0 2 8 1
gene 3 3 4 -8 0 3 -8 1
gene 2 2 7 0.0263413 0 8 0.0263413 0
gene 1 7 4 -1.95456 0 9 -1.95456 1
gene 1 2 26 1.19475 0 65 1.19475 1
gene 3 26 7 -0.315256 0 66 -0.315256 1
gene 1 1 26 0.757431 0 187 0.757431 1
genomeend 71

/* Organism #72 Fitness: 8.99998 Error: 1 */
genomestart 72
trait 1 0.1 0 0 0 0 0 0 0 
trait 2 0.1 0.0221107 0 0.101642 0 0.0532853 0 0 
trait 3 0.3 0 0 0 0 0 0 0 
node 1 3 1 3
node 2 3 1 1
node 3 1 1 1
node 4 2 0 2
node 7 3 0 0
node 26 1 0 0
gene 2 1 4 -5.59637 0 1 -5.59637 1
gene 1 2 4 7.80865 0 2 7.80865 1
gene 3 3 4 -6.82336 0 3 -6.82336 1
gene 3 2 7 -0.261696 0 8 -0.261696 0
gene 1 7 4 2.24746 0 9 2.24746 1
gene 1 2 26 -0.646512 0 65 -0.646512 1
gene 1 26 7 0.493332 0 66 0.493332 1
gene 1 1 26 2.07541 0 187 2.07541 1
genomeend 72

/* Organism #73 Fitness: 9 Error: 1 */
genomestart 73
trait 1 0.1 0 0 0 0 0 0 0 
trait 2 0.1 0.0221107 0 0.101642 0 0.0532853 0 0 
trait 3 0.3 0 0 0 0 0 0 0 
node 1 3 1 3
node 2 3 1 1
node 3 1 1 1
node 4 2 0 2
node 7 3 0 0
node 26 1 0 0
gene 2 1 4 -4.43133 0 1 -4.43133 1
gene 1 2 4 7.47592 0 2 7.47592 1
gene 3 3 4 -8 0 3 -8 1
gene 2 2 7 -1.88409 0 8 -1.88409 0
gene 1 7 4 -2.96556 0 9 -2.96556 1
gene 1 2 26 1.56032 0 65 1.56032 1
gene 1 26 7 -2.74672 0 66 -2.74672 1
gene 1 1 26 1.81679 0 187 1.81679 1
genomeend 73

/* Organism #74 Fitness: 8.99999 Error: 1 */
genomestart 74
trait 1 0.1 0 0 0 0 0 0 0 
trait 2 0.1 0.0221107 0 0.101642 0 0.0532853 0 0 
trait 3 0.3 0 0 0 0 0 0 0 
node 1 3 1 3
node 2 3 1 1
node 3 1 1 1
node 4 2 0 2
node 7 3 0 0
node 26 1 0 0
gene 2 1 4 -4.95273 0 1 -4.95273 1
gene 1 2 4 8 0 2 8 1
gene 3 3 4 -6.03102 0 3 -6.03102 1
gene 3 2 7 0.149617 0 8 0.149617 0
gene 1 7 4 -3.19971 0 9 -3.19971 1
gene 1 2 26 1.01038 0 65 1.01038 1
gene 1 26 7 -0.491501 0 66 -0.491501 1
gene 1 1 26 2.49681 0 187 2.49681 1
genomeend 74

/* Organism #75 Fitness: 9 Error: 1 */
genomestart 75
trait 1 0.1 0 0 0 0 0 0 0 
trait 2 0.1 0.0221107 0 0.101642 0 0.0532853 0 0 
trait 3 0.3 0 0 0 0 0 0 0 
node 1 3 1 3
node 2 3 1 1
node 3 1 1 1
node 4 2 0 2
node 7 3 0 0
node 26 1 0 0
gene 2 1 4 -1.78003 0 1 -1.78003 1
gene 1 2 4 8 0 2 8 1
gene 3 3 4 -7.13114 0 3 -7.13114 1
gene 2 2 7 -1.39903 0 8 -1.39903 0
gene 1 7 4 -4.34973 0 9 -4.34973 1
gene 1 2 26 0.466956 0 65 0.466956 1
gene 1 26 7 0.273446 0 66 0.273446 1
gene 1 1 26 -0.396168 0 187 -0.396168 1
genomeend 75

/* Species #15 : (Size 7) (AF 8.28567) (Age 22)  */


/* Organism #76 Fitness: 9 Error: 1 */
genomestart 76
trait 1 0.1 0 0.0260552 0 0 0 0 0.122059 
trait 2 0.2 0 0 0 0 0 0 0 
trait 3 0.3 0.141568 0 0 0 0 0 0 
node 1 2 1 3
node 2 2 1 1
node 3 3 1 1
node 4 1 0 2
node 16 1 0 0
node 32 1 0 0
node 97 1 0 0
gene 1 1 4 -3.95898 0 1 -3.95898 1
gene 1 2 4 7.12297 0 2 7.12297 1
gene 3 3 4 7.95575 0 3 7.95575 1
gene 1 3 16 1.70353 0 31 1.70353 0
gene 1 16 4 1.06392 0 32 1.06392 0
gene 1 16 32 -1.60313 0 80 -1.60313 1
gene 1 32 4 6.08872 0 81 6.08872 1
gene 2 2 32 2.0378 0 269 2.0378 1
gene 1 3 97 2.30886 0 291 2.30886 1
gene 1 97 16 4.48987 0 292 4.48987 1
genomeend 76

/* Organism #77 Fitness: 8.99976 Error: 1.00004 */
genomestart 77
trait 1 0.1 0 0.0260552 0 0 0 0 0.122059 
trait 2 0.2 0 0 0 0 0 0 0 
trait 3 0.3 0.141568 0 0 0 0 0 0 
node 1 2 1 3
node 2 2 1 1
node 3 3 1 1
node 4 1 0 2
node 16 1 0 0
node 32 1 0 0
node 97 1 0 0
gene 1 1 4 -2.10025 0 1 -2.10025 1
gene 1 2 4 5.34771 0 2 5.34771 1
gene 3 3 4 7.15853 0 3 7.15853 1
gene 1 3 16 2.03298 0 31 2.03298 0
gene 1 16 4 1.20049 0 32 1.20049 0
gene 1 16 32 -0.956519 0 80 -0.956519 1
gene 1 32 4 5.28166 0 81 5.28166 1
gene 2 2 32 1.40553 0 269 1.40553 1
gene 1 3 97 3.64359 0 291 3.64359 1
gene 1 97 16 5.01234 0 292 5.01234 1
genomeend 77

/* Organism #78 Fitness: 9 Error: 1 */
genomestart 78
trait 1 0.1 0 0.0260552 0 0 0 0 0.122059 
trait 2 0.2 0 0 0 0 0 0 0 
trait 3 0.3 0.141568 0 0 0 0 0 0 
node 1 2 1 3
node 2 2 1 1
node 3 3 1 1
node 4 1 0 2
node 16 1 0 0
node 32 1 0 0
node 97 1 0 0
gene 1 1 4 -3.95898 0 1 -3.95898 1
gene 1 2 4 7.12297 0 2 7.12297 1
gene 3 3 4 7.95575 0 3 7.95575 1
gene 1 3 16 1.70353 0 31 1.70353 0
gene 1 16 4 1.06392 0 32 1.06392 0
gene 1 16 32 -1.60313 0 80 -1.60313 1
gene 1 32 4 6.08872 0 81 6.08872 1
gene 2 2 32 2.0378 0 269 2.0378 1
gene 1 3 97 2.30886 0 291 2.30886 1
gene 1 97 16 4.48987 0 292 4.48987 1
gene 3 2 16 0.0588702 0 333 0.0588702 1
genomeend 78

/* Organism #79 Fitness: 9 Error: 1 */
genomestart 79
trait 1 0.1 0 0.0260552 0 0 0 0 0.122059 
trait 2 0.2 0 0 0 0 0 0 0 
trait 3 0.3 0.141568 0 0 0 0 0 0 
node 1 2 1 3
node 2 2 1 1
node 3 3 1 1
node 4 1 0 2
node 16 3 0 0
node 32 1 0 0
node 97 1 0 0
gene 1 1 4 -3.65379 0 1 -3.65379 1
gene 1 2 4 8 0 2 8 1
gene 3 3 4 8 0 3 8 1
gene 1 3 16 2.40103 0 31 2.40103 0
gene 1 16 4 2.41772 0 32 2.41772 0
gene 1 16 32 -3.27432 0 80 -3.27432 1
gene 1 32 4 5.73859 0 81 5.73859 1
gene 2 2 32 0.598621 0 269 0.598621 1
gene 1 3 97 1 0 291 0 1
gene 1 97 16 2.40103 0 292 0 1
genomeend 79

/* Organism #80 Fitness: 4 Error: 2 */
genomestart 80
trait 1 0.1 0 0.0260552 0 0 0 0 0.122059 
trait 2 0.2 0 0 0 0 0 0 0 
trait 3 0 0.141568 0 0 0 0.591021 0.526322 0 
node 1 2 1 3
node 2 2 1 1
node 3 3 1 1
node 4 3 0 2
node 16 1 0 0
node 32 1 0 0
node 97 1 0 0
gene 1 1 4 2.30155 0 1 2.30155 1
gene 1 2 4 6.04521 0 2 6.04521 1
gene 3 3 4 6.25289 0 3 6.25289 1
gene 1 3 16 0.540696 0 31 0.540696 0
gene 1 16 4 4.37983 0 32 4.37983 1
gene 1 16 32 -5.12489 0 80 -5.12489 1
gene 1 32 4 5.73859 0 81 5.73859 1
gene 2 2 32 -2.36381 0 269 -2.36381 1
gene 1 3 97 -0.632893 0 291 -0.632893 1
gene 1 97 16 2.40103 0 292 2.40103 1
genomeend 80

/* Organism #81 Fitness: 8.99992 Error: 1.00001 */
genomestart 81
trait 1 0.1 0 0.0260552 0 0 0 0 0.122059 
trait 2 0.2 0 0 0 0 0 0 0 
trait 3 0.3 0.141568 0 0 0 0 0 0 
node 1 2 1 3
node 2 2 1 1
node 3 3 1 1
node 4 1 0 2
node 16 1 0 0
node 32 1 0 0
node 97 1 0 0
gene 1 1 4 -4.56271 0 1 -4.56271 1
gene 1 2 4 8 0 2 8 1
gene 3 3 4 6.745 0 3 6.745 1
gene 1 3 16 4.60591 0 31 4.60591 0
gene 1 16 4 2.09018 0 32 2.09018 0
gene 1 16 32 -3.70067 0 80 -3.70067 1
gene 1 32 4 5.12418 0 81 5.12418 1
gene 2 2 32 3.362 0 269 3.362 1
gene 1 3 97 2.00299 0 291 2.00299 1
gene 1 97 16 -0.267037 0 292 -0.267037 1
genomeend 81

/* Organism #82 Fitness: 9 Error: 1 */
genomestart 82
trait 1 0.1 0 0.0260552 0 0 0 0 0.122059 
trait 2 0.2 0 0 0 0 0 0 0 
trait 3 0.3 0.141568 0 0 0 0 0 0 
node 1 2 1 3
node 2 2 1 1
node 3 3 1 1
node 4 1 0 2
node 16 1 0 0
node 32 1 0 0
node 97 1 0 0
gene 1 1 4 -4.57301 0 1 -4.57301 1
gene 1 2 4 8 0 2 8 1
gene 3 3 4 8 0 3 8 1
gene 1 3 16 2.985 0 31 2.985 0
gene 1 16 4 4.49908 0 32 4.49908 0
gene 1 16 32 -5.01884 0 80 -5.01884 1
gene 1 32 4 5.75065 0 81 5.75065 1
gene 2 2 32 1.12552 0 269 1.12552 1
gene 1 3 97 2.28645 0 291 2.28645 1
gene 1 97 16 1.30093 0 292 1.30093 1
genomeend 82

/* Species #16 : (Size 7) (AF 8.99813) (Age 22)  */


/* Organism #83 Fitness: 9 Error: 1 */
genomestart 83
trait 1 0.1 0 0.0521104 0 0 0 0 0.244118 
trait 2 0.2 0 0 0 0 0 0 0 
trait 3 0.3 0 0 0 0 0 0 0 
node 1 2 1 3
node 2 1 1 1
node 3 1 1 1
node 4 3 0 2
node 19 1 0 0
node 36 1 0 0
gene 1 1 4 -3.64575 0 1 -3.64575 1
gene 3 2 4 6.61237 0 2 6.61237 1
gene 3 3 4 7.21345 0 3 7.21345 1
gene 1 2 19 7.53145 0 41 7.53145 1
gene 3 19 4 0.834567 0 42 0.834567 1
gene 1 2 36 -0.434751 0 90 -0.434751 1
gene 1 36 19 -0.881069 0 91 -0.881069 1
gene 1 3 19 -0.421522 0 131 -0.421522 1
genomeend 83

/* Organism #84 Fitness: 8.99792 Error: 1.00035 */
genomestart 84
trait 1 0.1 0 0.0521104 0 0 0 0 0.244118 
trait 2 0.2 0 0 0 0 0 0 0 
trait 3 0.3 0 0 0 0 0 0 0 
node 1 2 1 3
node 2 1 1 1
node 3 1 1 1
node 4 3 0 2
node 19 1 0 0
node 36 1 0 0
gene 1 1 4 -1.61749 0 1 -1.61749 1
gene 3 2 4 7.05832 0 2 7.05832 1
gene 3 3 4 6.62497 0 3 6.62497 1
gene 1 2 19 5.12079 0 41 5.12079 1
gene 3 19 4 -1.0044 0 42 -1.0044 1
gene 1 2 36 1.57604 0 90 1.57604 1
gene 1 36 19 -3.29028 0 91 -3.29028 1
gene 1 3 19 -0.455321 0 131 -0.455321 1
genomeend 84

/* Organism #85 Fitness: 8.99848 Error: 1.00025 */
genomestart 85
trait 1 0.1 0 0.0521104 0 0 0 0 0.244118 
trait 2 0.2 0 0 0 0 0 0 0 
trait 3 0.3 0 0 0 0 0 0 0 
node 1 2 1 3
node 2 1 1 1
node 3 1 1 1
node 4 3 0 2
node 19 1 0 0
node 36 1 0 0
gene 1 1 4 -3.43342 0 1 -3.43342 1
gene 3 2 4 6.50021 0 2 6.50021 1
gene 3 3 4 5.15131 0 3 5.15131 1
gene 1 2 19 5.5025 0 41 5.5025 1
gene 3 19 4 -1.00135 0 42 -1.00135 1
gene 1 2 36 -0.192892 0 90 -0.192892 1
gene 1 36 19 -2.50458 0 91 -2.50458 1
gene 1 3 19 0.0407575 0 131 0.0407575 1
genomeend 85

/* Organism #86 Fitness: 9 Error: 1 */
genomestart 86
trait 1 0.1 0 0.0521104 0 0 0 0 0.244118 
trait 2 0.2 0 0 0 0 0 0 0 
trait 3 0.3 0 0 0 0 0 0 0 
node 1 2 1 3
node 2 1 1 1
node 3 1 1 1
node 4 3 0 2
node 19 1 0 0
node 36 1 0 0
gene 1 1 4 -3.64575 0 1 -3.64575 1
gene 3 2 4 6.61237 0 2 6.61237 1
gene 3 3 4 7.21345 0 3 7.21345 1
gene 1 2 19 7.53145 0 41 7.53145 1
gene 3 19 4 0.834567 0 42 0.834567 1
gene 1 2 36 -0.434751 0 90 -0.434751 1
gene 1 36 19 -0.881069 0 91 -0.881069 1
gene 1 3 19 -0.421522 0 131 -0.421522 1
genomeend 86

/* Organism #87 Fitness: 8.99921 Error: 1.00013 */
genomestart 87
trait 1 0.748335 0 0 0 0.0681173 0 0 0.244118 
trait 2 0.2 0 0 0 0 0 0 0 
trait 3 0.3 0 0 0 0 0 0 0 
node 1 2 1 3
node 2 1 1 1
node 3 1 1 1
node 4 3 0 2
node 19 1 0 0
node 36 1 0 0
gene 1 1 4 -1.91085 0 1 -1.91085 1
gene 3 2 4 6.15108 0 2 6.15108 1
gene 3 3 4 7.64193 0 3 7.64193 1
gene 1 2 19 8 0 41 8 1
gene 3 19 4 1.60745 0 42 1.60745 1
gene 1 2 36 0.660863 0 90 0.660863 1
gene 1 36 19 -1.11278 0 91 -1.11278 1
gene 1 3 19 0.48793 0 131 0.48793 1
genomeend 87

/* Organism #88 Fitness: 8.99867 Error: 1.00022 */
genomestart 88
trait 1 0.1 0 0.0521104 0 0 0 0 0.244118 
trait 2 0.2 0 0 0 0 0 0 0 
trait 3 0.3 0 0 0 0 0 0 0 
node 1 2 1 3
node 2 1 1 1
node 3 1 1 1
node 4 3 0 2
node 19 1 0 0
node 36 1 0 0
gene 1 1 4 -1.62833 0 1 -1.62833 1
gene 3 2 4 7.78893 0 2 7.78893 1
gene 3 3 4 5.72193 0 3 5.72193 1
gene 1 2 19 6.09387 0 41 6.09387 1
gene 3 19 4 -1.20613 0 42 -1.20613 1
gene 1 2 36 0.912717 0 90 0.912717 1
gene 1 36 19 -1.06891 0 91 -1.06891 1
gene 1 3 19 -0.17333 0 131 -0.17333 1
genomeend 88

/* Organism #89 Fitness: 8.99262 Error: 1.00123 */
genomestart 89
trait 1 0.1 0 0.0521104 0 0 0 0 0.244118 
trait 2 0.2 0 0 0 0 0 0 0 
trait 3 0.3 0 0 0 0 0 0 0 
node 1 2 1 3
node 2 1 1 1
node 3 1 1 1
node 4 3 0 2
node 19 1 0 0
node 36 1 0 0
gene 1 1 4 -3.64575 0 1 -3.64575 1
gene 3 2 4 6.61237 0 2 6.61237 1
gene 3 3 4 6.18848 0 3 6.18848 1
gene 1 2 19 6.36907 0 41 6.36907 1
gene 3 19 4 2.33509 0 42 2.33509 1
gene 1 2 36 -1.69829 0 90 -1.69829 1
gene 1 36 19 1.55332 0 91 1.55332 1
gene 1 3 19 1.46269 0 131 1.46269 1
genomeend 89

/* Species #17 : (Size 6) (AF 8.10149) (Age 21)  */


/* Organism #90 Fitness: 8.95685 Error: 1.0072 */
genomestart 90
trait 1 0.1 0 0 0 0 0 0 0 
trait 2 0.2 0 0 0 0 0 0 0 
trait 3 0.357924 0.106326 0 0.184454 0 0.979125 0 0 
node 1 1 1 3
node 2 1 1 1
node 3 1 1 1
node 4 3 0 2
node 10 1 0 0
node 34 1 0 0
gene 1 1 4 -6.37329 0 1 -6.37329 1
gene 1 2 4 4.06037 0 2 4.06037 1
gene 1 3 4 3.10645 0 3 3.10645 1
gene 1 2 10 -6.60239 0 14 -6.60239 1
gene 1 10 4 3.53976 0 15 3.53976 1
gene 1 3 34 5.12795 0 84 5.12795 1
gene 1 34 4 6.99005 0 85 6.99005 1
gene 1 3 10 0.794916 0 282 0.794916 1
genomeend 90

/* Organism #91 Fitness: 8.95685 Error: 1.0072 */
genomestart 91
trait 1 0.1 0 0 0 0 0 0 0 
trait 2 0.2 0 0 0 0 0 0 0 
trait 3 0.357924 0.106326 0 0.184454 0 0.979125 0 0 
node 1 1 1 3
node 2 1 1 1
node 3 1 1 1
node 4 3 0 2
node 10 1 0 0
node 34 1 0 0
gene 1 1 4 -6.37329 0 1 -6.37329 1
gene 1 2 4 4.06037 0 2 4.06037 1
gene 1 3 4 3.10645 0 3 3.10645 1
gene 1 2 10 -6.60239 0 14 -6.60239 1
gene 1 10 4 3.53976 0 15 3.53976 1
gene 1 3 34 5.12795 0 84 5.12795 1
gene 1 34 4 6.99005 0 85 6.99005 1
gene 1 3 10 0.794916 0 282 0.794916 1
genomeend 91

/* Organism #92 Fitness: 8.9492 Error: 1.00848 */
genomestart 92
trait 1 0.1 0 0 0 0 0 0 0 
trait 2 0.2 0 0 0 0 0 0 0 
trait 3 0.357924 0.106326 0 0.184454 0 0.979125 0 0 
node 1 1 1 3
node 2 1 1 1
node 3 1 1 1
node 4 3 0 2
node 10 1 0 0
node 34 1 0 0
gene 1 1 4 -8 0 1 -8 1
gene 1 2 4 5.92725 0 2 5.92725 1
gene 1 3 4 1.05432 0 3 1.05432 1
gene 1 2 10 -6.10242 0 14 -6.10242 1
gene 1 10 4 1.52027 0 15 1.52027 1
gene 1 3 34 6.50351 0 84 6.50351 1
gene 1 34 4 7.85029 0 85 7.85029 1
gene 1 3 10 -0.631214 0 282 -0.631214 1
genomeend 92

/* Organism #93 Fitness: 8.97453 Error: 1.00425 */
genomestart 93
trait 1 0.1 0 0 0 0 0 0 0 
trait 2 0.2 0 0 0 0 0 0 0 
trait 3 0.357924 0.106326 0 0.184454 0 0.979125 0 0 
node 1 1 1 3
node 2 1 1 1
node 3 1 1 1
node 4 3 0 2
node 10 1 0 0
node 34 1 0 0
gene 1 1 4 -6.37329 0 1 -6.37329 1
gene 1 2 4 4.06037 0 2 4.06037 1
gene 1 3 4 3.10645 0 3 3.10645 1
gene 1 2 10 -6.60239 0 14 -6.60239 1
gene 1 10 4 3.53976 0 15 3.53976 1
gene 1 3 34 5.12795 0 84 5.12795 1
gene 1 34 4 6.99005 0 85 6.99005 1
gene 1 3 10 0.794916 0 282 0.794916 1
gene 3 2 34 0.171209 0 334 0.171209 1
genomeend 93

/* Organism #94 Fitness: 4.73169 Error: 1.82475 */
genomestart 94
trait 1 0.1 0 0 0 0 0 0 0 
trait 2 0.2 0 0 0 0 0 0 0 
trait 3 0.357924 0.106326 0 0.184454 0 0.979125 0 0 
node 1 1 1 3
node 2 1 1 1
node 3 1 1 1
node 4 3 0 2
node 10 1 0 0
node 34 1 0 0
gene 1 1 4 -5.02322 0 1 -5.02322 1
gene 1 2 4 5.36122 0 2 5.36122 1
gene 1 3 4 3.57773 0 3 3.57773 1
gene 1 2 10 -8 0 14 -8 1
gene 1 10 4 5.50492 0 15 5.50492 1
gene 1 3 34 3.26891 0 84 3.26891 1
gene 3 34 4 5.17061 0 85 5.17061 1
gene 1 3 10 3.1012 0 282 3.1012 1
genomeend 94

/* Organism #95 Fitness: 8.0398 Error: 1.16455 */
genomestart 95
trait 1 0.1 0 0 0 0 0 0 0 
trait 2 0.2 0 0 0 0 0 0 0 
trait 3 0.357924 0.106326 0 0.184454 0 0.979125 0 0 
node 1 1 1 3
node 2 1 1 1
node 3 1 1 1
node 4 3 0 2
node 10 1 0 0
node 34 1 0 0
gene 1 1 4 -6.62745 0 1 -6.62745 1
gene 1 2 4 5.31726 0 2 5.31726 1
gene 1 3 4 1.02075 0 3 1.02075 1
gene 1 2 10 -6.50862 0 14 -6.50862 1
gene 1 10 4 1.64121 0 15 1.64121 1
gene 1 3 34 7.45722 0 84 7.45722 1
gene 1 34 4 5.61016 0 85 5.61016 1
gene 1 3 10 -0.282144 0 282 -0.282144 1
genomeend 95

/* Species #18 : (Size 5) (AF 2.32403) (Age 20)  */


/* Organism #96 Fitness: 1.01735 Error: 2.99136 */
genomestart 96
trait 1 0.1 0 0.0032569 0 0 0 0 0.0152573 
trait 2 0.2 0 0 0 0 0 0 0 
trait 3 0.3 0 0 0 0.949248 0 0.700278 0 
node 1 1 1 3
node 2 2 1 1
node 3 3 1 1
node 4 1 0 2
node 23 1 0 0
node 45 1 0 0
gene 2 1 4 -2.54959 0 1 -2.54959 1
gene 3 2 4 -0.796075 0 2 -0.796075 0
gene 1 3 4 -2.66785 0 3 -2.66785 1
gene 2 2 23 6.40038 0 56 6.40038 1
gene 3 23 4 -4.69039 0 57 -4.69039 1
gene 3 23 45 2.96203 0 125 2.96203 1
gene 3 45 4 5.90643 0 126 5.90643 1
genomeend 96

/* Organism #97 Fitness: 4.0001 Error: 1.99997 */
genomestart 97
trait 1 0.1 0 0.0032569 0 0 0 0 0.0152573 
trait 2 0.2 0 0 0 0 0 0 0 
trait 3 0.3 0 0 0 0.949248 0 0.700278 0 
node 1 1 1 3
node 2 2 1 1
node 3 3 1 1
node 4 1 0 2
node 23 1 0 0
node 45 1 0 0
node 109 1 0 0
gene 2 1 4 2.22198 0 1 2.22198 1
gene 3 2 4 0.737709 0 2 0.737709 1
gene 1 3 4 -3.12548 0 3 -3.12548 1
gene 2 2 23 3.46572 0 56 3.46572 1
gene 3 23 4 -5.68255 0 57 -5.68255 1
gene 3 23 45 1.20594 0 125 1.20594 0
gene 3 45 4 8 0 126 8 1
gene 3 23 109 3.11333 0 324 3.11333 1
gene 3 109 45 4.95268 0 325 4.95268 1
genomeend 97

/* Organism #98 Fitness: 1.19834 Error: 2.90531 */
genomestart 98
trait 1 0.1 0 0.0032569 0 0 0 0 0.0152573 
trait 2 0.2 0 0 0 0 0 0 0 
trait 3 0.3 0 0 0 0.949248 0 0.700278 0 
node 1 1 1 3
node 2 2 1 1
node 3 3 1 1
node 4 1 0 2
node 23 1 0 0
node 45 1 0 0
node 109 1 0 0
gene 2 1 4 -2.36587 0 1 -2.36587 1
gene 3 2 4 2.95656 0 2 2.95656 0
gene 1 3 4 -5.06207 0 3 -5.06207 1
gene 2 2 23 4.28529 0 56 4.28529 1
gene 3 23 4 -7.72118 0 57 -7.72118 1
gene 3 23 45 1.35211 0 125 1.35211 0
gene 3 45 4 6.68496 0 126 6.68496 1
gene 3 23 109 3.03528 0 324 3.03528 1
gene 3 109 45 2.73322 0 325 2.73322 1
genomeend 98

/* Organism #99 Fitness: 3.99138 Error: 2.00216 */
genomestart 99
trait 1 0.1 0 0.0032569 0 0 0 0 0.0152573 
trait 2 0.2 0 0 0 0 0 0 0 
trait 3 0.3 0 0 0 0.949248 0 0.700278 0 
node 1 1 1 3
node 2 2 1 1
node 3 2 1 1
node 4 1 0 2
node 23 1 0 0
node 45 1 0 0
node 109 1 0 0
gene 2 1 4 -0.752281 0 1 -0.752281 1
gene 3 2 4 1.45169 0 2 1.45169 0
gene 1 3 4 -1.57224 0 3 -1.57224 1
gene 2 2 23 3.35387 0 56 3.35387 1
gene 3 23 4 0.592669 0 57 0.592669 1
gene 3 23 45 2.45337 0 125 2.45337 0
gene 3 45 4 6.21802 0 126 6.21802 1
gene 3 23 109 0.61005 0 324 0.61005 1
gene 3 109 45 0.0186773 0 325 0.0186773 1
genomeend 99

/* Organism #100 Fitness: 1.41299 Error: 2.81131 */
genomestart 100
trait 1 0.1 0 0.0032569 0 0 0 0 0.0152573 
trait 2 0.2 0 0 0 0 0 0 0 
trait 3 0.3 0 0 0 0.949248 0 0.700278 0 
node 1 1 1 3
node 2 2 1 1
node 3 3 1 1
node 4 1 0 2
node 23 1 0 0
node 45 1 0 0
node 109 1 0 0
gene 2 1 4 -1.10858 0 1 -1.10858 1
gene 3 2 4 2.2486 0 2 2.2486 0
gene 1 3 4 1.63083 0 3 1.63083 1
gene 2 2 23 4.69897 0 56 4.69897 1
gene 3 23 4 -5.60076 0 57 -5.60076 1
gene 3 23 45 3.17452 0 125 3.17452 0
gene 3 45 4 6.41128 0 126 6.41128 1
gene 3 23 109 2.732 0 324 2.732 1
gene 3 109 45 2.65723 0 325 2.65723 1
genomeend 100

/* Species #19 : (Size 6) (AF 7.62284) (Age 18)  */


/* Organism #101 Fitness: 9 Error: 1 */
genomestart 101
trait 1 0.1 0 0 0.503647 0 0.920408 0 0 
trait 2 0.2 0 0 0 0 0 0 0 
trait 3 0.248437 0.166766 0 0 0.0839259 0 0 0 
node 1 3 1 3
node 2 1 1 1
node 3 1 1 1
node 4 3 0 2
node 13 1 0 0
node 22 1 0 0
gene 1 1 4 -3.93395 0 1 -3.93395 1
gene 1 2 4 5.22133 0 2 5.22133 1
gene 2 3 4 8 0 3 8 1
gene 1 2 13 -1.74335 0 21 -1.74335 1
gene 1 13 4 -2.15235 0 22 -2.15235 1
gene 1 13 22 -1.15516 0 47 -1.15516 1
gene 1 22 4 4.7649 0 48 4.7649 1
gene 2 1 13 -1.34097 0 124 -1.34097 1
gene 2 2 22 3.83663 0 134 3.83663 1
gene 1 1 22 -2.65336 0 149 -2.65336 1
gene 1 3 13 -0.124546 0 251 -0.124546 1
gene 2 3 22 0.409314 0 272 0.409314 1
genomeend 101

/* Organism #102 Fitness: 8.99974 Error: 1.00004 */
genomestart 102
trait 1 0.1 0 0 0.503647 0 0.920408 0 0 
trait 2 0.2 0 0 0 0 0 0 0 
trait 3 0.248437 0.166766 0 0 0.0839259 0 0 0 
node 1 3 1 3
node 2 1 1 1
node 3 1 1 1
node 4 3 0 2
node 13 1 0 0
node 22 1 0 0
gene 1 1 4 -3.93395 0 1 -3.93395 1
gene 1 2 4 3.42143 0 2 3.42143 1
gene 2 3 4 5.97586 0 3 5.97586 1
gene 1 2 13 -1.34363 0 21 -1.34363 1
gene 1 13 4 -2.49191 0 22 -2.49191 1
gene 1 13 22 -1.15516 0 47 -1.15516 1
gene 1 22 4 6.34759 0 48 6.34759 1
gene 2 1 13 -1.34097 0 124 -1.34097 1
gene 2 2 22 3.52274 0 134 3.52274 1
gene 1 1 22 -1.1243 0 149 -1.1243 1
gene 1 3 13 -2.10108 0 251 -2.10108 1
gene 2 3 22 -1.77154 0 272 -1.77154 1
genomeend 102

/* Organism #103 Fitness: 1.00027 Error: 2.99987 */
genomestart 103
trait 1 0.1 0 0 0.503647 0 0.920408 0 0 
trait 2 0.2 0 0 0 0 0 0 0 
trait 3 0.248437 0.166766 0 0 0.0839259 0 0 0 
node 1 3 1 3
node 2 1 1 1
node 3 1 1 1
node 4 3 0 2
node 13 1 0 0
node 22 1 0 0
gene 1 1 4 -2.63997 0 1 -2.63997 1
gene 1 2 4 3.20337 0 2 3.20337 1
gene 2 3 4 -1.48633 0 3 -1.48633 1
gene 1 2 13 -1.00381 0 21 -1.00381 1
gene 1 13 4 -1.58986 0 22 -1.58986 1
gene 1 13 22 1.53764 0 47 1.53764 1
gene 1 22 4 6.22956 0 48 6.22956 1
gene 2 1 13 -0.369884 0 124 -0.369884 1
gene 2 2 22 3.83663 0 134 3.83663 1
gene 1 1 22 0.334254 0 149 0.334254 1
gene 1 3 13 -2.05618 0 251 -2.05618 1
gene 2 3 22 -0.440931 0 272 -0.440931 1
genomeend 103

/* Organism #104 Fitness: 8.737 Error: 1.04416 */
genomestart 104
trait 1 0.1 0 0 0.503647 0 0.920408 0 0 
trait 2 0.2 0 0 0 0 0 0 0 
trait 3 0.248437 0.166766 0 0 0.0839259 0 0 0 
node 1 3 1 3
node 2 1 1 1
node 3 1 1 1
node 4 3 0 2
node 13 1 0 0
node 22 1 0 0
gene 1 1 4 -5.36619 0 1 -5.36619 1
gene 1 2 4 4.95056 0 2 4.95056 1
gene 2 3 4 7.66674 0 3 7.66674 1
gene 1 2 13 -0.51101 0 21 -0.51101 1
gene 1 13 4 -1.70846 0 22 -1.70846 1
gene 1 13 22 -1.50391 0 47 -1.50391 1
gene 1 22 4 8 0 48 8 1
gene 2 1 13 1.22388 0 124 1.22388 1
gene 2 2 22 4.64048 0 134 4.64048 1
gene 1 1 22 0.263604 0 149 0.263604 1
gene 1 3 13 0.621204 0 251 0.621204 1
gene 2 3 22 0.120533 0 272 0.120533 1
genomeend 104

/* Organism #105 Fitness: 9 Error: 1 */
genomestart 105
trait 1 0.1 0 0 0.503647 0 0.920408 0 0 
trait 2 0.2 0 0 0 0 0 0 0 
trait 3 0.248437 0.166766 0 0 0.0839259 0 0 0 
node 1 3 1 3
node 2 1 1 1
node 3 1 1 1
node 4 3 0 2
node 13 1 0 0
node 22 1 0 0
gene 1 1 4 -2.91166 0 1 -2.91166 1
gene 1 2 4 7.71797 0 2 7.71797 1
gene 2 3 4 7.51132 0 3 7.51132 1
gene 1 2 13 0.001854 0 21 0.001854 1
gene 1 13 4 0.344753 0 22 0.344753 1
gene 1 13 22 -3.42818 0 47 -3.42818 1
gene 1 22 4 6.33111 0 48 6.33111 1
gene 2 1 13 -2.89703 0 124 -2.89703 1
gene 2 2 22 4.17576 0 134 4.17576 1
gene 1 1 22 -1.2817 0 149 -1.2817 1
gene 1 3 13 1.55309 0 251 1.55309 1
gene 2 3 22 0.409314 0 272 0.409314 1
genomeend 105

/* Organism #106 Fitness: 9 Error: 1 */
genomestart 106
trait 1 0.1 0 0 0.503647 0 0.920408 0 0 
trait 2 0.2 0 0 0 0 0 0 0 
trait 3 0.248437 0.166766 0 0 0.0839259 0 0 0 
node 1 3 1 3
node 2 1 1 1
node 3 1 1 1
node 4 3 0 2
node 13 1 0 0
node 22 1 0 0
node 111 1 0 0
gene 1 1 4 -4.08472 0 1 -4.08472 1
gene 1 2 4 6.08512 0 2 6.08512 1
gene 2 3 4 8 0 3 8 1
gene 1 2 13 -1.98067 0 21 -1.98067 1
gene 1 13 4 -2.31318 0 22 -2.31318 1
gene 1 13 22 -0.655267 0 47 -0.655267 0
gene 1 22 4 5.49723 0 48 5.49723 1
gene 2 1 13 -0.868732 0 124 -0.868732 1
gene 2 2 22 3.5752 0 134 3.5752 1
gene 1 1 22 -2.29484 0 149 -2.29484 1
gene 1 3 13 0.248329 0 251 0.248329 1
gene 2 3 22 0.328784 0 272 0.328784 1
gene 1 13 111 1 0 335 0 1
gene 1 111 22 -0.655267 0 336 0 1
genomeend 106

/* Species #20 : (Size 7) (AF 6.13633) (Age 16)  */


/* Organism #107 Fitness: 8.99998 Error: 1 */
genomestart 107
trait 1 0.1 0.302866 0.15347 0 0 0 0 0.122059 
trait 2 0 0 0 0.22676 0 0 0.194296 0 
trait 3 0.3 0.141568 0 0 0.0337077 0 0 0 
node 1 2 1 3
node 2 2 1 1
node 3 3 1 1
node 4 1 0 2
node 16 1 0 0
node 32 1 0 0
node 49 1 0 0
gene 1 1 4 -0.459819 0 1 -0.459819 1
gene 1 2 4 -6.31359 0 2 -6.31359 1
gene 3 3 4 -3.11831 0 3 -3.11831 1
gene 1 3 16 2.34169 0 31 2.34169 0
gene 1 16 4 7.78263 0 32 7.78263 1
gene 1 16 32 3.24696 0 80 3.24696 1
gene 1 32 4 3.59218 0 81 3.59218 1
gene 1 3 49 -4.14576 0 138 -4.14576 1
gene 1 49 16 0.833024 0 139 0.833024 1
gene 2 3 32 -0.92761 0 258 -0.92761 1
genomeend 107

/* Organism #108 Fitness: 5.39382 Error: 1.67754 */
genomestart 108
trait 1 0.1 0.302866 0.15347 0 0 0 0 0.122059 
trait 2 0 0 0 0.22676 0 0 0.194296 0 
trait 3 0.3 0.141568 0 0 0.0337077 0 0 0 
node 1 2 1 3
node 2 2 1 1
node 3 3 1 1
node 4 1 0 2
node 16 1 0 0
node 32 1 0 0
node 49 1 0 0
gene 1 1 4 0.341044 0 1 0.341044 1
gene 1 2 4 -8 0 2 -8 1
gene 3 3 4 1.6863 0 3 1.6863 1
gene 1 3 16 1.89284 0 31 1.89284 0
gene 1 16 4 -1.13079 0 32 -1.13079 1
gene 1 16 32 2.13607 0 80 2.13607 1
gene 1 32 4 0.305567 0 81 0.305567 1
gene 1 3 49 -5.11396 0 138 -5.11396 1
gene 1 49 16 -0.104734 0 139 -0.104734 1
gene 2 3 32 0.43199 0 258 0.43199 1
genomeend 108

/* Organism #109 Fitness: 8.99609 Error: 1.00065 */
genomestart 109
trait 1 0.1 0.302866 0.15347 0 0 0 0 0.122059 
trait 2 0 0 0 0.22676 0 0 0.194296 0 
trait 3 0.3 0.141568 0 0 0.0337077 0 0 0 
node 1 2 1 3
node 2 2 1 1
node 3 3 1 1
node 4 1 0 2
node 16 1 0 0
node 32 1 0 0
node 49 1 0 0
gene 1 1 4 -0.511814 0 1 -0.511814 1
gene 1 2 4 -4.80647 0 2 -4.80647 1
gene 3 3 4 -1.51368 0 3 -1.51368 1
gene 1 3 16 0.360812 0 31 0.360812 0
gene 1 16 4 8 0 32 8 1
gene 1 16 32 1.90712 0 80 1.90712 1
gene 1 32 4 1.34216 0 81 1.34216 1
gene 1 3 49 -5.38028 0 138 -5.38028 1
gene 3 49 16 3.41214 0 139 3.41214 1
gene 2 3 32 2.12333 0 258 2.12333 1
genomeend 109

/* Organism #110 Fitness: 3.2141 Error: 2.20721 */
genomestart 110
trait 1 0.1 0.302866 0.15347 0 0 0 0 0.122059 
trait 2 0 0 0 0.22676 0 0 0.194296 0 
trait 3 0.3 0.141568 0 0 0.0337077 0 0 0 
node 1 2 1 3
node 2 2 1 1
node 3 3 1 1
node 4 1 0 2
node 16 1 0 0
node 32 1 0 0
node 49 1 0 0
gene 1 1 4 -1.07221 0 1 -1.07221 1
gene 1 2 4 -7.71573 0 2 -7.71573 1
gene 3 3 4 -3.64708 0 3 -3.64708 1
gene 1 3 16 3.41732 0 31 3.41732 0
gene 1 16 4 8 0 32 8 1
gene 1 16 32 -0.307989 0 80 -0.307989 1
gene 1 32 4 5.86524 0 81 5.86524 1
gene 1 3 49 -2.93391 0 138 -2.93391 1
gene 1 49 16 2.11808 0 139 2.11808 1
gene 2 3 32 -0.82564 0 258 -0.82564 1
genomeend 110

/* Organism #111 Fitness: 3.35219 Error: 2.1691 */
genomestart 111
trait 1 0.1 0.302866 0.15347 0 0 0 0 0.122059 
trait 2 0 0 0 0.22676 0 0 0.194296 0 
trait 3 0.3 0.141568 0 0 0.0337077 0 0 0 
node 1 2 1 3
node 2 2 1 1
node 3 3 1 1
node 4 1 0 2
node 16 1 0 0
node 32 1 0 0
node 49 1 0 0
gene 1 1 4 -2.94624 0 1 -2.94624 1
gene 1 2 4 -5.48425 0 2 -5.48425 1
gene 3 3 4 -0.761284 0 3 -0.761284 1
gene 1 3 16 3.33423 0 31 3.33423 0
gene 1 16 4 8 0 32 8 1
gene 1 16 32 5.46939 0 80 5.46939 1
gene 1 32 4 4.98947 0 81 4.98947 1
gene 1 3 49 -1.92974 0 138 -1.92974 1
gene 1 49 16 -1.4094 0 139 -1.4094 1
gene 2 3 32 -1.91496 0 258 -1.91496 1
genomeend 111

/* Organism #112 Fitness: 8.99823 Error: 1.00029 */
genomestart 112
trait 1 0.1 0.302866 0.15347 0 0 0 0 0.122059 
trait 2 0 0 0 0.22676 0 0 0.194296 0 
trait 3 0.3 0.141568 0 0 0.0337077 0 0 0 
node 1 2 1 3
node 2 2 1 1
node 3 3 1 1
node 4 1 0 2
node 16 1 0 0
node 32 1 0 0
node 49 1 0 0
gene 1 1 4 0.68928 0 1 0.68928 1
gene 1 2 4 -5.23156 0 2 -5.23156 1
gene 3 3 4 -1.12232 0 3 -1.12232 1
gene 1 3 16 2.22481 0 31 2.22481 0
gene 1 16 4 8 0 32 8 1
gene 1 16 32 -0.563581 0 80 -0.563581 1
gene 1 32 4 1.91961 0 81 1.91961 1
gene 1 3 49 -3.99905 0 138 -3.99905 1
gene 1 49 16 4.07554 0 139 4.07554 1
gene 2 3 32 -0.72367 0 258 -0.72367 1
genomeend 112

/* Organism #113 Fitness: 3.99992 Error: 2.00002 */
genomestart 113
trait 1 0.1 0.302866 0.15347 0 0 0 0 0.122059 
trait 2 0 0 0 0.22676 0 0 0.194296 0 
trait 3 0.3 0.141568 0 0 0.0337077 0 0 0 
node 1 2 1 3
node 2 2 1 1
node 3 3 1 1
node 4 1 0 2
node 16 1 0 0
node 32 1 0 0
node 49 1 0 0
gene 1 1 4 -1.34892 0 1 -1.34892 1
gene 1 2 4 -7.99478 0 2 -7.99478 1
gene 3 3 4 0.508362 0 3 0.508362 1
gene 1 3 16 0.947371 0 31 0.947371 0
gene 1 16 4 6.83618 0 32 6.83618 1
gene 1 16 32 1.41539 0 80 1.41539 1
gene 1 32 4 -0.504624 0 81 -0.504624 1
gene 1 3 49 -1.11482 0 138 -1.11482 1
gene 1 49 16 3.25451 0 139 3.25451 1
gene 2 3 32 1.62915 0 258 1.62915 1
genomeend 113

/* Species #21 : (Size 5) (AF 7.98431) (Age 15)  */


/* Organism #114 Fitness: 9 Error: 1 */
genomestart 114
trait 1 0.1 0 0 0 0 0 0 0 
trait 2 0.2 0 0 0 0 0 0 0 
trait 3 0.3 0 0 0 0 0 0 0 
node 1 3 1 3
node 2 1 1 1
node 3 1 1 1
node 4 3 0 2
node 13 1 0 0
node 59 1 0 0
gene 1 1 4 -8 0 1 -8 1
gene 1 2 4 8 0 2 8 1
gene 2 3 4 4.43863 0 3 4.43863 1
gene 1 2 13 -1.05455 0 21 -1.05455 1
gene 1 13 4 7.45445 0 22 7.45445 1
gene 2 1 13 -1.34125 0 38 -1.34125 1
gene 2 3 59 3.21007 0 169 3.21007 1
gene 2 59 4 8 0 170 8 1
genomeend 114

/* Organism #115 Fitness: 4 Error: 2 */
genomestart 115
trait 1 0.1 0 0 0 0 0 0 0 
trait 2 0.2 0 0 0 0 0 0 0 
trait 3 0.3 0 0 0 0 0 0 0 
node 1 3 1 3
node 2 1 1 1
node 3 1 1 1
node 4 3 0 2
node 13 1 0 0
node 59 1 0 0
gene 1 1 4 -7.117 0 1 -7.117 1
gene 1 2 4 8 0 2 8 1
gene 2 3 4 2.46323 0 3 2.46323 1
gene 1 2 13 2.6203 0 21 2.6203 1
gene 1 13 4 6.45886 0 22 6.45886 1
gene 2 1 13 -1.02512 0 38 -1.02512 1
gene 2 3 59 5.47802 0 169 5.47802 1
gene 2 59 4 0.484939 0 170 0.484939 1
genomeend 115

/* Organism #116 Fitness: 8.99999 Error: 1 */
genomestart 116
trait 1 0.1 0 0 0 0 0 0 0 
trait 2 0.2 0 0 0 0 0 0 0 
trait 3 0.3 0 0 0 0 0 0 0 
node 1 3 1 3
node 2 1 1 1
node 3 1 1 1
node 4 3 0 2
node 13 1 0 0
node 59 1 0 0
gene 1 1 4 -6.80315 0 1 -6.80315 1
gene 1 2 4 6.55871 0 2 6.55871 1
gene 2 3 4 5.27956 0 3 5.27956 1
gene 1 2 13 -0.701525 0 21 -0.701525 1
gene 1 13 4 4.3057 0 22 4.3057 1
gene 2 1 13 -4.55576 0 38 -4.55576 1
gene 2 3 59 5.7306 0 169 5.7306 1
gene 2 59 4 8 0 170 8 1
genomeend 116

/* Organism #117 Fitness: 8.92162 Error: 1.01309 */
genomestart 117
trait 1 0.1 0 0 0 0 0 0 0 
trait 2 0.2 0 0 0 0 0 0 0 
trait 3 0.3 0 0 0 0 0 0 0 
node 1 3 1 3
node 2 1 1 1
node 3 1 1 1
node 4 3 0 2
node 13 1 0 0
node 59 2 0 0
gene 1 1 4 -4.37472 0 1 -4.37472 1
gene 1 2 4 7.78639 0 2 7.78639 1
gene 2 3 4 8 0 3 8 1
gene 1 2 13 0.701716 0 21 0.701716 1
gene 1 13 4 6.59726 0 22 6.59726 1
gene 2 1 13 -1.25664 0 38 -1.25664 1
gene 2 3 59 4.90759 0 169 4.90759 1
gene 2 59 4 6.96676 0 170 6.96676 1
genomeend 117

/* Organism #118 Fitness: 8.99995 Error: 1.00001 */
genomestart 118
trait 1 0.1 0 0 0 0 0 0 0 
trait 2 0.2 0 0 0 0 0 0 0 
trait 3 0.3 0 0 0 0 0 0 0 
node 1 3 1 3
node 2 1 1 1
node 3 1 1 1
node 4 3 0 2
node 13 1 0 0
node 59 1 0 0
gene 1 1 4 -6.30417 0 1 -6.30417 1
gene 1 2 4 7.85926 0 2 7.85926 1
gene 2 3 4 5.16199 0 3 5.16199 1
gene 1 2 13 1.64199 0 21 1.64199 1
gene 1 13 4 6.49037 0 22 6.49037 1
gene 2 1 13 -2.14534 0 38 -2.14534 1
gene 2 3 59 3.58316 0 169 3.58316 1
gene 2 59 4 7.82868 0 170 7.82868 1
genomeend 118

/* Species #22 : (Size 9) (AF 8.43196) (Age 12)  */


/* Organism #119 Fitness: 9 Error: 1 */
genomestart 119
trait 1 0.1 0 0.0335704 0 0.0531938 0.645711 0 0 
trait 2 0.2 0 0 0 0 0 0 0 
trait 3 0.3 0 0 0 0 0 0 0 
node 1 3 1 3
node 2 1 1 1
node 3 1 1 1
node 4 3 0 2
node 13 1 0 0
node 22 1 0 0
gene 1 1 4 -2.20878 0 1 -2.20878 1
gene 1 2 4 7.85426 0 2 7.85426 1
gene 2 3 4 8 0 3 8 1
gene 1 2 13 -1.79262 0 21 -1.79262 1
gene 1 13 4 -6.78457 0 22 -6.78457 1
gene 1 13 22 0.416076 0 47 0.416076 1
gene 1 22 4 3.89877 0 48 3.89877 1
gene 3 3 22 1.07791 0 200 1.07791 1
gene 3 3 13 -2.0378 0 211 -2.0378 1
gene 1 1 22 -2.64083 0 298 -2.64083 1
genomeend 119

/* Organism #120 Fitness: 4.08837 Error: 1.97803 */
genomestart 120
trait 1 0.1 0 0.0335704 0 0.0531938 0.645711 0 0 
trait 2 0.2 0 0 0 0 0 0 0 
trait 3 0.3 0 0 0 0 0 0 0 
node 1 3 1 3
node 2 1 1 1
node 3 1 1 1
node 4 3 0 2
node 13 1 0 0
node 22 1 0 0
gene 1 1 4 -2.88515 0 1 -2.88515 1
gene 1 2 4 7.85426 0 2 7.85426 1
gene 2 3 4 8 0 3 8 1
gene 1 2 13 -1.79262 0 21 -1.79262 1
gene 1 13 4 -8 0 22 -8 1
gene 1 13 22 0.416076 0 47 0.416076 1
gene 1 22 4 2.21979 0 48 2.21979 1
gene 3 3 22 -1.25622 0 200 -1.25622 1
gene 3 3 13 0.207907 0 211 0.207907 1
gene 1 1 22 -4.91301 0 298 -4.91301 1
genomeend 120

/* Organism #121 Fitness: 8.99989 Error: 1.00002 */
genomestart 121
trait 1 0.1 0 0.0335704 0 0.0531938 0.645711 0 0 
trait 2 0.2 0 0 0 0 0 0 0 
trait 3 0.3 0 0 0 0 0 0 0 
node 1 3 1 3
node 2 1 1 1
node 3 1 1 1
node 4 3 0 2
node 13 1 0 0
node 22 1 0 0
gene 1 1 4 -0.762581 0 1 -0.762581 1
gene 1 2 4 8 0 2 8 1
gene 2 3 4 6.27433 0 3 6.27433 1
gene 1 2 13 0.242241 0 21 0.242241 1
gene 1 13 4 -6.83619 0 22 -6.83619 1
gene 1 13 22 0.418365 0 47 0.418365 1
gene 1 22 4 2.17467 0 48 2.17467 1
gene 3 3 22 0.442824 0 200 0.442824 1
gene 3 3 13 -3.67435 0 211 -3.67435 1
gene 1 1 22 0.253685 0 298 0.253685 1
genomeend 121

/* Organism #122 Fitness: 8.80465 Error: 1.03274 */
genomestart 122
trait 1 0.1 0 0.0335704 0 0.0531938 0.645711 0 0 
trait 2 0.2 0 0 0 0 0 0 0 
trait 3 0.3 0 0 0 0 0 0 0 
node 1 3 1 3
node 2 1 1 1
node 3 1 1 1
node 4 3 0 2
node 13 3 0 0
node 22 1 0 0
gene 1 1 4 -0.771817 0 1 -0.771817 1
gene 1 2 4 7.96885 0 2 7.96885 1
gene 2 3 4 8 0 3 8 1
gene 1 2 13 -0.578097 0 21 -0.578097 1
gene 1 13 4 -5.81366 0 22 -5.81366 1
gene 1 13 22 2.70626 0 47 2.70626 1
gene 1 22 4 4.03912 0 48 4.03912 1
gene 3 3 22 -0.107273 0 200 -0.107273 1
gene 3 3 13 -6.04434 0 211 -6.04434 1
gene 1 1 22 -1.14017 0 298 -1.14017 1
genomeend 122

/* Organism #123 Fitness: 8.99999 Error: 1 */
genomestart 123
trait 1 0.1 0 0.0335704 0 0.0531938 0.645711 0 0 
trait 2 0.2 0 0 0 0 0 0 0 
trait 3 0.3 0 0 0 0 0 0 0 
node 1 3 1 3
node 2 1 1 1
node 3 1 1 1
node 4 3 0 2
node 13 1 0 0
node 22 1 0 0
gene 1 1 4 -1.15902 0 1 -1.15902 1
gene 1 2 4 7.16553 0 2 7.16553 1
gene 2 3 4 7.27831 0 3 7.27831 1
gene 1 2 13 -1.84336 0 21 -1.84336 1
gene 1 13 4 -4.52872 0 22 -4.52872 1
gene 1 13 22 -0.357416 0 47 -0.357416 1
gene 1 22 4 2.57762 0 48 2.57762 1
gene 2 3 22 1.07791 0 200 1.07791 1
gene 3 3 13 0.226447 0 211 0.226447 1
gene 1 1 22 -5.02097 0 298 -5.02097 1
genomeend 123

/* Organism #124 Fitness: 8.99988 Error: 1.00002 */
genomestart 124
trait 1 0.1 0 0.0335704 0 0.0531938 0.645711 0 0 
trait 2 0.2 0 0 0 0 0 0 0 
trait 3 0.3 0 0 0 0 0 0 0 
node 1 3 1 3
node 2 1 1 1
node 3 1 1 1
node 4 3 0 2
node 13 1 0 0
node 22 3 0 0
gene 1 1 4 -4.20118 0 1 -4.20118 1
gene 1 2 4 6.774 0 2 6.774 1
gene 2 3 4 6.13265 0 3 6.13265 1
gene 1 2 13 -0.815302 0 21 -0.815302 1
gene 1 13 4 -4.6289 0 22 -4.6289 1
gene 1 13 22 1.24107 0 47 1.24107 1
gene 1 22 4 0.542161 0 48 0.542161 1
gene 3 3 22 3.90011 0 200 3.90011 1
gene 3 3 13 -4.56778 0 211 -4.56778 1
gene 1 1 22 -3.8103 0 298 -3.8103 1
genomeend 124

/* Organism #125 Fitness: 8.99489 Error: 1.00085 */
genomestart 125
trait 1 0.1 0 0.0335704 0 0.0531938 0.645711 0 0 
trait 2 0.2 0 0 0 0 0 0 0 
trait 3 0.3 0 0 0 0 0 0 0 
node 1 3 1 3
node 2 1 1 1
node 3 1 1 1
node 4 2 0 2
node 13 1 0 0
node 22 1 0 0
gene 1 1 4 1.74146 0 1 1.74146 1
gene 1 2 4 5.37058 0 2 5.37058 1
gene 2 3 4 8 0 3 8 1
gene 1 2 13 -3.84529 0 21 -3.84529 1
gene 1 13 4 -6.34202 0 22 -6.34202 1
gene 1 13 22 -2.41478 0 47 -2.41478 1
gene 1 22 4 -2.07915 0 48 -2.07915 1
gene 2 3 22 1.096 0 200 1.096 1
gene 3 3 13 -1.52646 0 211 -1.52646 1
gene 1 1 22 0.00503555 0 298 0.00503555 1
genomeend 125

/* Organism #126 Fitness: 9 Error: 1 */
genomestart 126
trait 1 0.1 0 0.0335704 0 0.0531938 0.645711 0 0 
trait 2 0.2 0 0 0 0 0 0 0 
trait 3 0.3 0 0 0 0 0 0 0 
node 1 3 1 3
node 2 1 1 1
node 3 1 1 1
node 4 3 0 2
node 13 1 0 0
node 22 1 0 0
gene 1 1 4 -2.20878 0 1 -2.20878 1
gene 1 2 4 7.85426 0 2 7.85426 1
gene 2 3 4 8 0 3 8 1
gene 1 2 13 -1.52509 0 21 -1.52509 1
gene 1 13 4 -6.78457 0 22 -6.78457 1
gene 1 13 22 0.416076 0 47 0.416076 1
gene 1 22 4 2.0883 0 48 2.0883 1
gene 3 3 22 1.60726 0 200 1.60726 1
gene 3 3 13 -2.0378 0 211 -2.0378 1
gene 1 1 22 -2.76557 0 298 -2.76557 1
genomeend 126

/* Organism #127 Fitness: 9 Error: 1 */
genomestart 127
trait 1 0.1 0 0.0335704 0 0.0531938 0.645711 0 0 
trait 2 0.2 0 0 0 0 0 0 0 
trait 3 0.3 0 0 0 0 0 0 0 
node 1 3 1 3
node 2 1 1 1
node 3 1 1 1
node 4 3 0 2
node 13 1 0 0
node 22 1 0 0
gene 1 1 4 -2.20878 0 1 -2.20878 1
gene 1 2 4 8 0 2 8 1
gene 2 3 4 8 0 3 8 1
gene 1 2 13 -1.79262 0 21 -1.79262 1
gene 1 13 4 -6.78457 0 22 -6.78457 1
gene 1 13 22 -0.191624 0 47 -0.191624 1
gene 1 22 4 3.89877 0 48 3.89877 1
gene 3 3 22 1.07791 0 200 1.07791 1
gene 3 3 13 -2.0378 0 211 -2.0378 1
gene 1 1 22 -2.64083 0 298 -2.64083 1
genomeend 127

/* Species #23 : (Size 7) (AF 6.85319) (Age 11)  */


/* Organism #128 Fitness: 8.99954 Error: 1.00008 */
genomestart 128
trait 1 0.1 0 0 0 0 0 0 0 
trait 2 0.2 0 0 0 0 0 0 0 
trait 3 0.253125 0.151605 0 0 0.24073 0 0 0 
node 1 3 1 3
node 2 1 1 1
node 3 1 1 1
node 4 3 0 2
node 13 1 0 0
node 22 1 0 0
node 73 1 0 0
gene 1 1 4 -5.95194 0 1 -5.95194 1
gene 1 2 4 6.11736 0 2 6.11736 0
gene 2 3 4 4.83416 0 3 4.83416 1
gene 3 2 13 -6.07026 0 21 -6.07026 1
gene 1 13 4 1.53505 0 22 1.53505 1
gene 1 13 22 -2.98513 0 47 -2.98513 1
gene 1 22 4 8 0 48 8 1
gene 2 1 13 1.51372 0 124 1.51372 1
gene 2 2 22 3.27112 0 134 3.27112 1
gene 1 1 22 0.149922 0 149 0.149922 1
gene 2 3 22 1.0548 0 213 1.0548 1
gene 1 2 73 -1.88482 0 223 -1.88482 1
gene 1 73 4 3.35139 0 224 3.35139 1
genomeend 128

/* Organism #129 Fitness: 3.99991 Error: 2.00002 */
genomestart 129
trait 1 0.1 0 0 0 0 0 0 0 
trait 2 0.2 0 0 0 0 0 0 0 
trait 3 0.253125 0.151605 0 0 0.24073 0 0 0 
node 1 3 1 3
node 2 1 1 1
node 3 1 1 1
node 4 3 0 2
node 13 1 0 0
node 22 1 0 0
node 73 1 0 0
gene 1 1 4 -2.97341 0 1 -2.97341 1
gene 1 2 4 1.53813 0 2 1.53813 0
gene 2 3 4 6.49368 0 3 6.49368 1
gene 3 2 13 0.396664 0 21 0.396664 1
gene 1 13 4 -0.274239 0 22 -0.274239 1
gene 1 13 22 -4.81494 0 47 -4.81494 1
gene 1 22 4 8 0 48 8 1
gene 2 1 13 -0.0397504 0 124 -0.0397504 1
gene 2 2 22 3.07076 0 134 3.07076 1
gene 1 1 22 0.013657 0 149 0.013657 1
gene 2 3 22 1.88932 0 213 1.88932 1
gene 1 2 73 -3.34582 0 223 -3.34582 1
gene 1 73 4 1.84668 0 224 1.84668 1
genomeend 129

/* Organism #130 Fitness: 8.97351 Error: 1.00442 */
genomestart 130
trait 1 0.1 0 0 0 0 0 0 0 
trait 2 0.2 0 0 0 0 0 0 0 
trait 3 0.253125 0.151605 0 0 0.24073 0 0 0 
node 1 3 1 3
node 2 1 1 1
node 3 1 1 1
node 4 3 0 2
node 13 1 0 0
node 22 1 0 0
node 73 1 0 0
gene 1 1 4 -5.95194 0 1 -5.95194 1
gene 1 2 4 6.11736 0 2 6.11736 0
gene 2 3 4 4.83416 0 3 4.83416 1
gene 3 2 13 -6.07026 0 21 -6.07026 1
gene 1 13 4 1.53505 0 22 1.53505 1
gene 1 13 22 -2.98513 0 47 -2.98513 1
gene 1 22 4 8 0 48 8 1
gene 2 1 13 1.51372 0 124 1.51372 1
gene 2 2 22 3.27112 0 134 3.27112 1
gene 1 1 22 0.149922 0 149 0.149922 1
gene 2 3 22 1.0548 0 213 1.0548 1
gene 1 2 73 -1.88482 0 223 -1.88482 1
gene 1 73 4 3.35139 0 224 3.35139 1
gene 1 13 73 0.920591 0 337 0.920591 1
genomeend 130

/* Organism #131 Fitness: 8.99954 Error: 1.00008 */
genomestart 131
trait 1 1 0 0 0.758538 0 0 0 0 
trait 2 0.2 0 0 0 0 0 0 0 
trait 3 0.253125 0.151605 0 0 0.24073 0 0 0 
node 1 3 1 3
node 2 1 1 1
node 3 1 1 1
node 4 3 0 2
node 13 1 0 0
node 22 1 0 0
node 73 1 0 0
gene 1 1 4 -5.95194 0 1 -5.95194 1
gene 1 2 4 6.11736 0 2 6.11736 0
gene 2 3 4 4.83416 0 3 4.83416 1
gene 3 2 13 -6.07026 0 21 -6.07026 1
gene 1 13 4 1.53505 0 22 1.53505 1
gene 1 13 22 -2.98513 0 47 -2.98513 1
gene 1 22 4 8 0 48 8 1
gene 2 1 13 1.51372 0 124 1.51372 1
gene 2 2 22 3.27112 0 134 3.27112 1
gene 1 1 22 0.149922 0 149 0.149922 1
gene 2 3 22 1.0548 0 213 1.0548 1
gene 1 2 73 -1.88482 0 223 -1.88482 1
gene 1 73 4 3.35139 0 224 3.35139 1
genomeend 131

/* Organism #132 Fitness: 8.99997 Error: 1.00001 */
genomestart 132
trait 1 0.1 0 0 0 0 0 0 0 
trait 2 0.2 0 0 0 0 0 0 0 
trait 3 0.253125 0.151605 0 0 0.24073 0 0 0 
node 1 3 1 3
node 2 1 1 1
node 3 1 1 1
node 4 3 0 2
node 13 1 0 0
node 22 1 0 0
node 73 1 0 0
gene 1 1 4 -5.54765 0 1 -5.54765 1
gene 1 2 4 8 0 2 8 0
gene 2 3 4 6.46072 0 3 6.46072 1
gene 3 2 13 -6.0579 0 21 -6.0579 1
gene 1 13 4 2.71909 0 22 2.71909 1
gene 1 13 22 -3.0129 0 47 -3.0129 1
gene 1 22 4 8 0 48 8 1
gene 2 1 13 -0.857799 0 124 -0.857799 1
gene 2 2 22 2.21266 0 134 2.21266 1
gene 1 1 22 -0.686895 0 149 -0.686895 1
gene 2 3 22 2.97861 0 213 2.97861 1
gene 1 2 73 -1.88482 0 223 -1.88482 1
gene 1 73 4 2.55287 0 224 2.55287 1
genomeend 132

/* Organism #133 Fitness: 4 Error: 2 */
genomestart 133
trait 1 0.1 0 0 0 0 0 0 0 
trait 2 0.2 0 0 0 0 0 0 0 
trait 3 0.253125 0.130487 0 0 0.24073 0.562517 0.314524 0 
node 1 3 1 3
node 2 1 1 1
node 3 1 1 1
node 4 3 0 2
node 13 1 0 0
node 22 1 0 0
node 73 1 0 0
gene 1 1 4 -4.01737 0 1 -4.01737 1
gene 1 2 4 8 0 2 8 0
gene 2 3 4 5.18039 0 3 5.18039 1
gene 3 2 13 -5.85205 0 21 -5.85205 1
gene 1 13 4 3.92198 0 22 3.92198 1
gene 1 13 22 -3.81248 0 47 -3.81248 1
gene 1 22 4 8 0 48 8 1
gene 2 1 13 -1.54262 0 124 -1.54262 1
gene 3 2 22 0.878697 0 134 0.878697 1
gene 1 1 22 0.726035 0 149 0.726035 1
gene 2 3 22 3.12868 0 213 3.12868 1
gene 1 2 73 -3.34582 0 223 -3.34582 1
gene 1 73 4 -0.158315 0 224 -0.158315 1
genomeend 133

/* Organism #134 Fitness: 3.99988 Error: 2.00003 */
genomestart 134
trait 1 0.1 0 0 0 0 0 0 0 
trait 2 0.2 0 0 0 0 0 0 0 
trait 3 0.253125 0.151605 0 0 0.24073 0 0 0 
node 1 3 1 3
node 2 1 1 1
node 3 1 1 1
node 4 3 0 2
node 13 1 0 0
node 22 3 0 0
node 73 1 0 0
gene 1 1 4 -5.89255 0 1 -5.89255 1
gene 3 2 4 5.046 0 2 5.046 0
gene 2 3 4 4.2096 0 3 4.2096 1
gene 3 2 13 -6.43023 0 21 -6.43023 1
gene 1 13 4 1.4071 0 22 1.4071 1
gene 1 13 22 -3.9151 0 47 -3.9151 1
gene 1 22 4 8 0 48 8 1
gene 2 1 13 -0.869312 0 124 -0.869312 1
gene 2 2 22 3.22496 0 134 3.22496 1
gene 1 1 22 2.52899 0 149 2.52899 1
gene 2 3 22 2.74438 0 213 2.74438 1
gene 1 2 73 -3.30748 0 223 -3.30748 1
gene 1 73 4 2.59903 0 224 2.59903 1
genomeend 134

/* Species #24 : (Size 7) (AF 6.09012) (Age 7)  */


/* Organism #135 Fitness: 9 Error: 1 */
genomestart 135
trait 1 0.1 0 0 0.503647 0 0.920408 0 0 
trait 2 0.2 0 0 0 0 0 0 0 
trait 3 0.186328 0.344246 0 0 0.0629444 0.226585 0.00927763 0.073397 
node 1 3 1 3
node 2 1 1 1
node 3 1 1 1
node 4 3 0 2
node 13 1 0 0
node 22 1 0 0
node 91 1 0 0
gene 1 1 4 -3.93395 0 1 -3.93395 1
gene 1 2 4 5.35165 0 2 5.35165 1
gene 2 3 4 8 0 3 8 1
gene 1 2 13 -0.366581 0 21 -0.366581 1
gene 1 13 4 -2.15235 0 22 -2.15235 0
gene 1 13 22 -1.15516 0 47 -1.15516 1
gene 1 22 4 3.0445 0 48 3.0445 1
gene 2 1 13 -3.69349 0 124 -3.69349 1
gene 2 2 22 2.74132 0 134 2.74132 1
gene 1 1 22 -3.6372 0 149 -3.6372 1
gene 2 2 91 1 0 273 0 1
gene 2 91 22 3.83663 0 274 0 1
genomeend 135

/* Organism #136 Fitness: 8.24758 Error: 1.12814 */
genomestart 136
trait 1 0.1 0 0 0.503647 0 0.920408 0 0 
trait 2 0.2 0 0 0 0 0 0 0 
trait 3 0.248437 0.166766 0 0 0.0839259 0 0 0 
node 1 2 1 3
node 2 1 1 1
node 3 1 1 1
node 4 3 0 2
node 13 1 0 0
node 22 1 0 0
node 91 1 0 0
gene 1 1 4 -4.86431 0 1 -4.86431 1
gene 1 2 4 1.47114 0 2 1.47114 1
gene 2 3 4 8 0 3 8 1
gene 1 2 13 -0.972144 0 21 -0.972144 1
gene 1 13 4 -1.96359 0 22 -1.96359 0
gene 1 13 22 -0.453124 0 47 -0.453124 1
gene 1 22 4 3.79174 0 48 3.79174 1
gene 2 1 13 -2.99042 0 124 -2.99042 1
gene 2 2 22 -0.0591296 0 134 -0.0591296 1
gene 1 1 22 0.234611 0 149 0.234611 1
gene 2 2 91 2.17763 0 273 2.17763 1
gene 2 91 22 2.29567 0 274 2.29567 1
gene 1 3 91 0.52974 0 329 0.52974 1
genomeend 136

/* Organism #137 Fitness: 4 Error: 2 */
genomestart 137
trait 1 0.1 0 0 0.503647 0 0.920408 0 0 
trait 2 0.2 0 0 0 0 0 0 0 
trait 3 0.248437 0.166766 0 0 0.0839259 0 0 0 
node 1 3 1 3
node 2 1 1 1
node 3 1 1 1
node 4 3 0 2
node 13 1 0 0
node 22 1 0 0
node 91 1 0 0
gene 1 1 4 -0.762123 0 1 -0.762123 1
gene 1 2 4 4.27243 0 2 4.27243 1
gene 2 3 4 8 0 3 8 1
gene 1 2 13 0.405232 0 21 0.405232 1
gene 1 13 4 -2.55916 0 22 -2.55916 0
gene 1 13 22 -2.10215 0 47 -2.10215 1
gene 1 22 4 5.20544 0 48 5.20544 1
gene 2 1 13 -2.96593 0 124 -2.96593 1
gene 2 2 22 0.709098 0 134 0.709098 1
gene 1 1 22 -1.68126 0 149 -1.68126 1
gene 2 2 91 2.60321 0 273 2.60321 1
gene 2 91 22 3.83663 0 274 3.83663 1
gene 1 3 91 0.718345 0 329 0.718345 1
genomeend 137

/* Organism #138 Fitness: 8.99564 Error: 1.00073 */
genomestart 138
trait 1 0.1 0 0 0.503647 0 0.920408 0 0 
trait 2 0.2 0 0 0 0 0 0 0 
trait 3 0.248437 0.166766 0 0 0.0839259 0 0 0 
node 1 3 1 3
node 2 1 1 1
node 3 1 1 1
node 4 3 0 2
node 13 1 0 0
node 22 1 0 0
node 91 1 0 0
gene 1 1 4 -5.88783 0 1 -5.88783 1
gene 1 2 4 6.64906 0 2 6.64906 1
gene 2 3 4 8 0 3 8 1
gene 1 2 13 -2.46496 0 21 -2.46496 1
gene 1 13 4 -1.48041 0 22 -1.48041 1
gene 1 13 22 1.40561 0 47 1.40561 1
gene 1 22 4 4.7649 0 48 4.7649 1
gene 2 1 13 0.72689 0 124 0.72689 1
gene 2 2 22 2.29285 0 134 2.29285 1
gene 1 1 22 -2.65336 0 149 -2.65336 1
gene 2 2 91 -1.39067 0 273 -1.39067 1
gene 2 91 22 5.25482 0 274 5.25482 1
gene 1 3 91 2.49376 0 329 2.49376 1
genomeend 138

/* Organism #139 Fitness: 4.00001 Error: 2 */
genomestart 139
trait 1 0.1 0 0 0.503647 0 0.920408 0 0 
trait 2 0.2 0 0 0 0 0 0 0 
trait 3 0.186328 0.344246 0 0 0.0629444 0.226585 0.00927763 0.073397 
node 1 3 1 3
node 2 1 1 1
node 3 1 1 1
node 4 3 0 2
node 13 1 0 0
node 22 1 0 0
node 91 1 0 0
gene 1 1 4 -3.93395 0 1 -3.93395 1
gene 1 2 4 6.80829 0 2 6.80829 1
gene 2 3 4 -1.58132 0 3 -1.58132 1
gene 1 2 13 0.419652 0 21 0.419652 1
gene 1 13 4 -1.68221 0 22 -1.68221 0
gene 1 13 22 -1.15516 0 47 -1.15516 1
gene 1 22 4 1.42557 0 48 1.42557 1
gene 2 1 13 -1.35174 0 124 -1.35174 1
gene 2 2 22 4.7093 0 134 4.7093 1
gene 1 1 22 -3.6372 0 149 -3.6372 1
gene 2 2 91 -1.15712 0 273 -1.15712 1
gene 2 91 22 4.17676 0 274 4.17676 1
genomeend 139

/* Organism #140 Fitness: 4.38807 Error: 1.90523 */
genomestart 140
trait 1 0.1 0 0 0.503647 0 0.920408 0 0 
trait 2 0.2 0 0 0 0 0 0 0 
trait 3 0.186328 0.344246 0 0 0.0629444 0.226585 0.00927763 0.073397 
node 1 3 1 3
node 2 1 1 1
node 3 1 1 1
node 4 3 0 2
node 13 1 0 0
node 22 1 0 0
node 91 1 0 0
gene 1 1 4 -1.62381 0 1 -1.62381 1
gene 1 2 4 6.61954 0 2 6.61954 1
gene 2 3 4 7.08437 0 3 7.08437 1
gene 1 2 13 -0.0480438 0 21 -0.0480438 1
gene 1 13 4 -3.17617 0 22 -3.17617 1
gene 1 13 22 -2.32898 0 47 -2.32898 1
gene 1 22 4 3.06167 0 48 3.06167 1
gene 2 1 13 -4.42112 0 124 -4.42112 1
gene 2 2 22 1.3956 0 134 1.3956 1
gene 1 1 22 -1.76519 0 149 -1.76519 1
gene 2 2 91 2.41217 0 273 2.41217 1
gene 2 91 22 3.83663 0 274 3.83663 1
genomeend 140

/* Organism #141 Fitness: 3.99957 Error: 2.00011 */
genomestart 141
trait 1 0.1 0 0 0.503647 0 0.920408 0 0 
trait 2 0.2 0 0 0 0 0 0 0 
trait 3 0.186328 0.344246 0 0 0.0629444 0.226585 0.00927763 0.073397 
node 1 3 1 3
node 2 1 1 1
node 3 1 1 1
node 4 3 0 2
node 13 1 0 0
node 22 1 0 0
node 91 1 0 0
gene 1 1 4 -6.24451 0 1 -6.24451 1
gene 1 2 4 3.2226 0 2 3.2226 1
gene 2 3 4 2.31666 0 3 2.31666 1
gene 1 2 13 -1.99057 0 21 -1.99057 1
gene 1 13 4 -4.47214 0 22 -4.47214 0
gene 1 13 22 -2.94461 0 47 -2.94461 1
gene 1 22 4 4.87729 0 48 4.87729 1
gene 2 1 13 -3.94397 0 124 -3.94397 1
gene 2 2 22 2.74132 0 134 2.74132 1
gene 1 1 22 -2.76284 0 149 -2.76284 1
gene 2 2 91 0.132206 0 273 0.132206 1
gene 2 91 22 3.83663 0 274 3.83663 1
genomeend 141

/* Species #25 : (Size 8) (AF 7.37684) (Age 4)  */


/* Organism #142 Fitness: 8.99903 Error: 1.00016 */
genomestart 142
trait 1 0.1 0 0.0032569 0 0 0 0 0.0152573 
trait 2 0.2 0 0 0 0 0 0 0 
trait 3 0.3 0 0 0 0 0 0 0 
node 1 2 1 3
node 2 2 1 1
node 3 3 1 1
node 4 2 0 2
node 23 1 0 0
node 102 1 0 0
gene 2 1 4 -8 0 1 -8 1
gene 3 2 4 4.83352 0 2 4.83352 1
gene 1 3 4 8 0 3 8 1
gene 3 2 23 2.61905 0 56 2.61905 1
gene 3 23 4 4.93876 0 57 4.93876 1
gene 1 3 23 3.24733 0 268 3.24733 0
gene 1 3 102 -0.148717 0 303 -0.148717 1
gene 1 102 23 6.59338 0 304 6.59338 1
genomeend 142

/* Organism #143 Fitness: 8.93652 Error: 1.0106 */
genomestart 143
trait 1 0.1 0 0.0032569 0 0 0 0 0.0152573 
trait 2 0.2 0 0 0 0 0 0 0 
trait 3 0.3 0 0 0 0 0 0 0 
node 1 2 1 3
node 2 2 1 1
node 3 3 1 1
node 4 2 0 2
node 23 1 0 0
node 102 1 0 0
gene 2 1 4 -7.45349 0 1 -7.45349 1
gene 3 2 4 3.19117 0 2 3.19117 1
gene 1 3 4 8 0 3 8 1
gene 3 2 23 3.04119 0 56 3.04119 1
gene 3 23 4 6.53198 0 57 6.53198 1
gene 1 3 23 0.785325 0 268 0.785325 0
gene 1 3 102 -1.05435 0 303 -1.05435 1
gene 1 102 23 5.59756 0 304 5.59756 1
genomeend 143

/* Organism #144 Fitness: 8.98508 Error: 1.00249 */
genomestart 144
trait 1 0.1 0 0.0032569 0 0 0 0 0.0152573 
trait 2 0.2 0 0 0 0 0 0 0 
trait 3 0.3 0 0 0 0 0 0 0 
node 1 2 1 3
node 2 2 1 1
node 3 3 1 1
node 4 1 0 2
node 23 1 0 0
node 102 1 0 0
gene 2 1 4 -8 0 1 -8 1
gene 3 2 4 3.97481 0 2 3.97481 1
gene 1 3 4 8 0 3 8 1
gene 3 2 23 2.86777 0 56 2.86777 1
gene 3 23 4 6.79231 0 57 6.79231 1
gene 1 3 23 1.37639 0 268 1.37639 0
gene 1 3 102 1 0 303 0 1
gene 1 102 23 2.66092 0 304 0 1
genomeend 144

/* Organism #145 Fitness: 1.11352 Error: 2.94476 */
genomestart 145
trait 1 0.1 0 0.0032569 0 0 0 0 0.0152573 
trait 2 0.2 0 0 0 0 0 0 0 
trait 3 0.3 0 0 0 0 0 0 0 
node 1 2 1 3
node 2 2 1 1
node 3 3 1 1
node 4 2 0 2
node 23 1 0 0
node 102 1 0 0
gene 2 1 4 -6.82572 0 1 -6.82572 1
gene 3 2 4 4.83352 0 2 4.83352 1
gene 1 3 4 6.80039 0 3 6.80039 1
gene 3 2 23 2.56617 0 56 2.56617 1
gene 3 23 4 -1.10233 0 57 -1.10233 1
gene 1 3 23 4.29045 0 268 4.29045 0
gene 1 3 102 -2.34367 0 303 -2.34367 1
gene 1 102 23 7.9072 0 304 7.9072 1
genomeend 145

/* Organism #146 Fitness: 8.9783 Error: 1.00362 */
genomestart 146
trait 1 0.1 0 0.0032569 0 0 0 0 0.0152573 
trait 2 0.2 0 0 0 0 0 0 0 
trait 3 0.3 0 0 0 0 0 0 0 
node 1 2 1 3
node 2 2 1 1
node 3 3 1 1
node 4 1 0 2
node 23 1 0 0
node 102 1 0 0
gene 2 1 4 -8 0 1 -8 1
gene 3 2 4 3.76911 0 2 3.76911 1
gene 1 3 4 8 0 3 8 1
gene 3 2 23 1.92246 0 56 1.92246 1
gene 3 23 4 6.85907 0 57 6.85907 1
gene 1 3 23 0.321596 0 268 0.321596 0
gene 1 3 102 -1.43149 0 303 -1.43149 1
gene 1 102 23 4.76059 0 304 4.76059 1
genomeend 146

/* Organism #147 Fitness: 4.00252 Error: 1.99937 */
genomestart 147
trait 1 0.1 0 0.0032569 0 0 0 0 0.0152573 
trait 2 0.2 0 0 0 0 0 0 0 
trait 3 0.3 0.566576 0 0 0 0 0 0 
node 1 2 1 3
node 2 2 1 1
node 3 3 1 1
node 4 1 0 2
node 23 1 0 0
node 102 1 0 0
gene 2 1 4 0.102847 0 1 0.102847 1
gene 3 2 4 0.263527 0 2 0.263527 1
gene 1 3 4 6.39984 0 3 6.39984 1
gene 3 2 23 2.05682 0 56 2.05682 1
gene 3 23 4 -1.79792 0 57 -1.79792 1
gene 1 3 23 2.46491 0 268 2.46491 0
gene 1 3 102 0.811701 0 303 0.811701 1
gene 1 102 23 4.01998 0 304 4.01998 1
genomeend 147

/* Organism #148 Fitness: 8.99995 Error: 1.00001 */
genomestart 148
trait 1 0.1 0 0.0032569 0 0 0 0 0.0152573 
trait 2 0.2 0 0 0 0 0 0 0 
trait 3 0.3 0 0 0 0 0 0 0 
node 1 2 1 3
node 2 2 1 1
node 3 3 1 1
node 4 1 0 2
node 23 1 0 0
node 102 1 0 0
gene 2 1 4 -8 0 1 -8 1
gene 3 2 4 5.5179 0 2 5.5179 1
gene 1 3 4 6.51283 0 3 6.51283 1
gene 3 2 23 1.0671 0 56 1.0671 1
gene 3 23 4 5.63253 0 57 5.63253 1
gene 1 3 23 -0.0707953 0 268 -0.0707953 0
gene 1 3 102 1.55246 0 303 1.55246 1
gene 1 102 23 2.13904 0 304 2.13904 1
genomeend 148

/* Organism #149 Fitness: 8.99975 Error: 1.00004 */
genomestart 149
trait 1 0.1 0 0.0032569 0 0 0 0 0.0152573 
trait 2 0.2 0 0 0 0 0 0 0 
trait 3 0.3 0 0 0 0 0 0 0 
node 1 2 1 3
node 2 2 1 1
node 3 3 1 1
node 4 2 0 2
node 23 1 0 0
node 102 1 0 0
gene 2 1 4 -8 0 1 -8 1
gene 3 2 4 4.40416 0 2 4.40416 1
gene 1 3 4 8 0 3 8 1
gene 3 2 23 2.74341 0 56 2.74341 1
gene 3 23 4 5.86554 0 57 5.86554 1
gene 1 3 23 2.31186 0 268 2.31186 0
gene 1 3 102 0.425642 0 303 -0.0743583 1
gene 1 102 23 4.62715 0 304 3.29669 1
genomeend 149
