
/* Species #1 : (Size 12) (AF 7.69388) (Age 21)  */


/* Organism #0 Fitness: 9 Error: 1 */
genomestart 0
trait 1 0.1 0 0.783258 0 0 0 0 0.546953 
trait 2 0.257909 0.0316782 0 0.0662023 0 0 0.0638028 0 
trait 3 0.309375 0 0 0.31769 0.199032 0 0.430392 0.0949316 
node 1 2 1 3
node 2 1 1 1
node 3 2 1 1
node 4 2 0 2
gene 1 1 4 -3.93745 0 1 -3.93745 1
gene 1 2 4 7.96624 0 2 7.96624 1
gene 3 3 4 7.97821 0 3 7.97821 1
genomeend 0

/* Organism #1 Fitness: 8.99815 Error: 1.00031 */
genomestart 1
trait 1 0.1 0 0.783258 0 0 0 0 0.546953 
trait 2 0.257909 0.0316782 0 0.0662023 0 0 0.0638028 0 
trait 3 0.309375 0 0 0.31769 0.199032 0 0.430392 0.0949316 
node 1 2 1 3
node 2 1 1 1
node 3 2 1 1
node 4 2 0 2
gene 1 1 4 -4.87734 0 1 -4.87734 1
gene 1 2 4 6.55384 0 2 6.55384 1
gene 3 3 4 6.89554 0 3 6.89554 1
genomeend 1

/* Organism #2 Fitness: 5.49489 Error: 1.65588 */
genomestart 2
trait 1 0.1 0 0.783258 0 0 0 0 0.546953 
trait 2 0.257909 0.0316782 0 0.0662023 0 0 0.0638028 0 
trait 3 0.309375 0 0 0.31769 0.199032 0 0.430392 0.0949316 
node 1 2 1 3
node 2 1 1 1
node 3 2 1 1
node 4 2 0 2
gene 1 1 4 -5.47833 0 1 -5.47833 1
gene 1 2 4 5.40047 0 2 5.40047 1
gene 3 3 4 6.03285 0 3 6.03285 1
genomeend 2

/* Organism #3 Fitness: 3.99427 Error: 2.00143 */
genomestart 3
trait 1 0.1 0 0.783258 0 0 0 0 0.546953 
trait 2 0.257909 0.0316782 0 0.0662023 0 0 0.0638028 0 
trait 3 0.309375 0 0 0.31769 0.199032 0 0.430392 0.0949316 
node 1 2 1 3
node 2 1 1 1
node 3 2 1 1
node 4 2 0 2
gene 1 1 4 -1.32862 0 1 -1.32862 1
gene 1 2 4 8 0 2 8 1
gene 1 3 4 -1.11545 0 3 -1.11545 1
genomeend 3

/* Organism #4 Fitness: 9 Error: 1 */
genomestart 4
trait 1 0.325 0 0.587443 0.198309 0 0 0.158834 0.546953 
trait 2 0.257909 0.0316782 0 0.0662023 0 0 0.0576395 0 
trait 3 0.316016 0 0 0.314635 0.204066 0 0.435869 0.0988871 
node 1 2 1 3
node 2 1 1 1
node 3 2 1 1
node 4 2 0 2
gene 1 1 4 -3.57871 0 1 -3.57871 1
gene 1 2 4 7.00605 0 2 7.00605 1
gene 3 3 4 6.93216 0 3 6.93216 1
genomeend 4

/* Organism #5 Fitness: 9 Error: 1 */
genomestart 5
trait 1 0.325 0 0.587443 0.198309 0 0 0.158834 0.546953 
trait 2 0.257909 0.0316782 0 0.0662023 0 0 0.0576395 0 
trait 3 0.316016 0 0 0.314635 0.204066 0 0.435869 0.0988871 
node 1 2 1 3
node 2 1 1 1
node 3 2 1 1
node 4 2 0 2
gene 1 1 4 -4.1356 0 1 -4.1356 1
gene 1 2 4 7.94903 0 2 7.94903 1
gene 3 3 4 7.97821 0 3 7.97821 1
genomeend 5

/* Organism #6 Fitness: 8.99999 Error: 1 */
genomestart 6
trait 1 0.55 0 0.391629 0.396619 0 0 0.317667 0.546953 
trait 2 0.257909 0.0316782 0 0.0662023 0 0 0.0514761 0 
trait 3 0.322656 0 0 0.311581 0.2091 0 0.441346 0.102843 
node 1 2 1 3
node 2 1 1 1
node 3 2 1 1
node 4 2 0 2
gene 1 1 4 -2.7274 0 1 -2.7274 1
gene 1 2 4 8 0 2 8 1
gene 3 3 4 7.04105 0 3 7.04105 1
genomeend 6

/* Organism #7 Fitness: 4.19498 Error: 1.95184 */
genomestart 7
trait 1 0.1 0 0.783258 0 0 0 0 0.546953 
trait 2 0.257909 0.0316782 0 0.0662023 0 0 0.0638028 0 
trait 3 0.309375 0 0 0.31769 0.199032 0 0.430392 0.0949316 
node 1 2 1 3
node 2 1 1 1
node 3 2 1 1
node 4 2 0 2
gene 1 1 4 -6.43737 0 1 -6.43737 1
gene 1 2 4 8 0 2 8 1
gene 3 3 4 5.83345 0 3 5.83345 1
genomeend 7

/* Organism #8 Fitness: 9 Error: 1 */
genomestart 8
trait 1 0.325 0 0.587443 0.198309 0 0 0.158834 0.546953 
trait 2 0.257909 0.0316782 0 0.0662023 0 0 0.0576395 0 
trait 3 0.316016 0 0 0.314635 0.204066 0 0.435869 0.0988871 
node 1 2 1 3
node 2 1 1 1
node 3 2 1 1
node 4 2 0 2
gene 1 1 4 -4.1356 0 1 -4.1356 1
gene 1 2 4 7.96624 0 2 7.96624 1
gene 3 3 4 7.97821 0 3 7.97821 1
genomeend 8

/* Organism #9 Fitness: 8.99905 Error: 1.00016 */
genomestart 9
trait 1 0.1 0 0.783258 0 0 0 0 0.546953 
trait 2 0.257909 0.0316782 0 0.0662023 0 0 0.0638028 0 
trait 3 0.309375 0 0 0.31769 0.199032 0 0.430392 0.0949316 
node 1 2 1 3
node 2 1 1 1
node 3 2 1 1
node 4 2 0 2
gene 1 1 4 -3.93745 0 1 -3.93745 1
gene 1 2 4 7.96624 0 2 7.96624 1
gene 3 3 4 5.71412 0 3 5.71412 1
genomeend 9

/* Organism #10 Fitness: 6.68772 Error: 1.41394 */
genomestart 10
trait 1 0.1 0 0.391629 0 0 0 0 0.273476 
trait 2 0.228954 0.0158391 0 0.0331011 0 0 0.00724815 0 
trait 3 0.15 0 0 0.391003 0.0782189 0 0.298944 0 
node 1 2 1 3
node 2 2 1 1
node 3 2 1 1
node 4 2 0 2
node 14 1 0 0
gene 3 1 4 -3.32566 0 1 -3.32566 1
gene 1 2 4 3.27468 0 2 3.27468 1
gene 3 3 4 5.98687 0 3 5.98687 1
gene 1 2 14 0.273764 0 29 0.273764 1
gene 1 14 4 0.153169 0 30 0.153169 1
genomeend 10

/* Organism #11 Fitness: 8.9575 Error: 1.00709 */
genomestart 11
trait 1 0.1 0 0.391629 0 0 0 0 0.273476 
trait 2 0.228954 0.0158391 0 0.0331011 0 0 0.00724815 0 
trait 3 0.15 0 0 0.391003 0.0782189 0 0.298944 0 
node 1 2 1 3
node 2 2 1 1
node 3 2 1 1
node 4 2 0 2
node 14 1 0 0
gene 3 1 4 -2.99554 0 1 -2.99554 1
gene 1 2 4 5.97552 0 2 5.97552 1
gene 3 3 4 3.95726 0 3 3.95726 1
gene 1 2 14 -1.3722 0 29 -1.3722 1
gene 1 14 4 3.98393 0 30 3.98393 1
genomeend 11

/* Species #2 : (Size 8) (AF 7.45178) (Age 19)  */


/* Organism #12 Fitness: 9 Error: 1 */
genomestart 12
trait 1 0.1 0 0 0 0 0 0 0 
trait 2 0.2 0 0 0 0 0 0 0 
trait 3 0.3 0 0 0 0 0 0 0 
node 1 2 1 3
node 2 1 1 1
node 3 2 1 1
node 4 1 0 2
node 5 1 0 0
gene 3 1 4 -4.04942 0 1 -4.04942 1
gene 3 2 4 8 0 2 8 1
gene 2 3 4 -8 0 3 -8 1
gene 3 2 5 -5.95425 0 4 -5.95425 1
gene 2 5 4 -1.46785 0 5 -1.46785 1
gene 2 3 5 0.171941 0 86 0.171941 1
genomeend 12

/* Organism #13 Fitness: 8.99957 Error: 1.00007 */
genomestart 13
trait 1 0.1 0 0 0 0 0 0 0 
trait 2 0.2 0 0.555681 0.920103 0 0.189337 0 0 
trait 3 0.250407 0 0.0407727 0 0 0 0 0 
node 1 2 1 3
node 2 1 1 1
node 3 2 1 1
node 4 1 0 2
node 5 1 0 0
gene 3 1 4 -6.06097 0 1 -6.06097 1
gene 3 2 4 8 0 2 8 1
gene 2 3 4 -5.83685 0 3 -5.83685 1
gene 3 2 5 -6.26615 0 4 -6.26615 1
gene 2 5 4 -0.408933 0 5 -0.408933 1
gene 2 3 5 -0.521516 0 86 -0.521516 1
genomeend 13

/* Organism #14 Fitness: 1.55385 Error: 2.75347 */
genomestart 14
trait 1 0.1 0 0 0 0 0 0 0 
trait 2 0.2 0 0.0525758 0 0 0 0.0445265 0 
trait 3 0.3 0 0 0 0 0 0 0 
node 1 2 1 3
node 2 1 1 1
node 3 2 1 1
node 4 1 0 2
node 5 1 0 0
gene 3 1 4 1.39088 0 1 1.39088 1
gene 3 2 4 -1.61916 0 2 -1.61916 1
gene 2 3 4 -6.97107 0 3 -6.97107 1
gene 3 2 5 -6.03482 0 4 -6.03482 1
gene 2 5 4 -0.0782647 0 5 -0.0782647 1
gene 2 3 5 2.15885 0 86 2.15885 1
genomeend 14

/* Organism #15 Fitness: 9 Error: 1 */
genomestart 15
trait 1 0.1 0 0 0 0 0 0 0 
trait 2 0.2 0 0.0525758 0 0 0 0.0445265 0 
trait 3 0.3 0 0 0 0 0 0 0 
node 1 2 1 3
node 2 1 1 1
node 3 2 1 1
node 4 1 0 2
node 5 1 0 0
gene 3 1 4 -2.92018 0 1 -2.92018 1
gene 3 2 4 7.26697 0 2 7.26697 1
gene 2 3 4 -8 0 3 -8 1
gene 3 2 5 -5.92545 0 4 -5.92545 1
gene 2 5 4 -2.52375 0 5 -2.52375 1
gene 2 3 5 -0.531892 0 86 -0.531892 1
genomeend 15

/* Organism #16 Fitness: 8.99772 Error: 1.00038 */
genomestart 16
trait 1 0.1 0 0 0 0 0 0 0 
trait 2 0.2 0 0 0 0 0 0 0 
trait 3 0.250407 0 0.0407727 0 0 0 0 0 
node 1 2 1 3
node 2 1 1 1
node 3 2 1 1
node 4 1 0 2
node 5 1 0 0
gene 3 1 4 -5.10452 0 1 -5.10452 1
gene 3 2 4 6.70357 0 2 6.70357 1
gene 2 3 4 -8 0 3 -8 1
gene 3 2 5 -6.84463 0 4 -6.84463 1
gene 2 5 4 -2.26911 0 5 -2.26911 1
gene 2 3 5 -1.02309 0 86 -1.02309 1
genomeend 16

/* Organism #17 Fitness: 8.9999 Error: 1.00002 */
genomestart 17
trait 1 0.1 0 0 0 0 0 0 0 
trait 2 0.2 0 0.0525758 0 0 0 0.0445265 0 
trait 3 0.3 0 0 0 0 0 0 0 
node 1 2 1 3
node 2 1 1 1
node 3 2 1 1
node 4 1 0 2
node 5 1 0 0
gene 3 1 4 -1.16233 0 1 -1.16233 1
gene 3 2 4 6.91568 0 2 6.91568 1
gene 2 3 4 -8 0 3 -8 1
gene 3 2 5 -5.37234 0 4 -5.37234 1
gene 2 5 4 -3.44751 0 5 -3.44751 1
gene 3 3 5 2.43374 0 86 2.43374 1
genomeend 17

/* Organism #18 Fitness: 4.06343 Error: 1.98421 */
genomestart 18
trait 1 0.1 0 0 0 0 0 0 0 
trait 2 0.2 0 0 0 0 0 0 0 
trait 3 0.250407 0 0.0407727 0 0 0 0 0 
node 1 2 1 3
node 2 1 1 1
node 3 2 1 1
node 4 1 0 2
node 5 1 0 0
gene 3 1 4 -6.40514 0 1 -6.40514 1
gene 3 2 4 5.566 0 2 5.566 1
gene 2 3 4 -8 0 3 -8 1
gene 3 2 5 -7.56532 0 4 -7.56532 1
gene 2 5 4 -1.45152 0 5 -1.45152 1
gene 2 3 5 -1.10851 0 86 -1.10851 1
genomeend 18

/* Organism #19 Fitness: 8.99977 Error: 1.00004 */
genomestart 19
trait 1 0.1 0 0 0 0 0 0 0 
trait 2 0.2 0 0 0 0 0 0 0 
trait 3 0.3 0 0 0 0 0 0 0 
node 1 2 1 3
node 2 1 1 1
node 3 2 1 1
node 4 1 0 2
node 5 1 0 0
gene 3 1 4 -5.93233 0 1 -5.93233 1
gene 3 2 4 8 0 2 8 1
gene 2 3 4 -8 0 3 -8 1
gene 3 2 5 -1.40408 0 4 -1.40408 1
gene 2 5 4 -1.38629 0 5 -1.38629 1
gene 3 3 5 0.858226 0 86 0.858226 1
genomeend 19

/* Species #3 : (Size 7) (AF 7.50834) (Age 17)  */


/* Organism #20 Fitness: 8.96296 Error: 1.00618 */
genomestart 20
trait 1 0.1 0 0 0 0 0 0 0 
trait 2 0.758351 0 0 0.541322 0.640797 0 0 0.469428 
trait 3 0.3 0 0 0 0 0 0 0 
node 1 2 1 3
node 2 1 1 1
node 3 2 1 1
node 4 2 0 2
node 10 1 0 0
node 17 1 0 0
gene 3 1 4 -1.73517 0 1 -1.73517 1
gene 3 2 4 -4.3898 0 2 -4.3898 1
gene 2 3 4 -0.47335 0 3 -0.47335 0
gene 2 3 10 2.57769 0 16 2.57769 1
gene 2 10 4 6.80394 0 17 6.80394 1
gene 3 2 17 2.4333 0 36 2.4333 1
gene 3 17 4 -5.39752 0 37 -5.39752 1
genomeend 20

/* Organism #21 Fitness: 7.8308 Error: 1.20164 */
genomestart 21
trait 1 0.1 0 0 0 0 0 0 0 
trait 2 0.758351 0 0 0.541322 0.640797 0 0 0.469428 
trait 3 0.3 0 0 0 0 0 0 0 
node 1 2 1 3
node 2 1 1 1
node 3 2 1 1
node 4 2 0 2
node 10 1 0 0
node 17 1 0 0
gene 3 1 4 -1.40061 0 1 -1.40061 1
gene 3 2 4 -2.858 0 2 -2.858 1
gene 2 3 4 1.64669 0 3 1.64669 0
gene 2 3 10 1.77895 0 16 1.77895 1
gene 2 10 4 4.64895 0 17 4.64895 1
gene 3 2 17 0.631947 0 36 0.131947 1
gene 3 17 4 -4.07347 0 37 -2.20219 1
gene 3 1 17 -0.176519 0 175 -0.176519 1
genomeend 21

/* Organism #22 Fitness: 8.96296 Error: 1.00618 */
genomestart 22
trait 1 0.1 0 0 0 0 0 0 0 
trait 2 0.758351 0 0 0.541322 0.640797 0 0 0.469428 
trait 3 0.3 0 0 0 0 0 0 0 
node 1 2 1 3
node 2 1 1 1
node 3 2 1 1
node 4 2 0 2
node 10 1 0 0
node 17 1 0 0
gene 3 1 4 -1.73517 0 1 -1.73517 1
gene 3 2 4 -4.3898 0 2 -4.3898 1
gene 2 3 4 -0.47335 0 3 -0.47335 0
gene 2 3 10 2.57769 0 16 2.57769 1
gene 2 10 4 6.80394 0 17 6.80394 1
gene 3 2 17 2.4333 0 36 2.4333 1
gene 3 17 4 -5.39752 0 37 -5.39752 1
genomeend 22

/* Organism #23 Fitness: 4.28966 Error: 1.92885 */
genomestart 23
trait 1 0.1 0 0 0 0 0 0 0 
trait 2 0.758351 0 0 0.541322 0.640797 0 0 0.469428 
trait 3 0.3 0 0 0 0 0 0 0 
node 1 2 1 3
node 2 1 1 1
node 3 2 1 1
node 4 2 0 2
node 10 1 0 0
node 17 1 0 0
gene 3 1 4 -0.714705 0 1 -0.714705 1
gene 3 2 4 -2.63086 0 2 -2.63086 1
gene 2 3 4 -0.101253 0 3 -0.101253 0
gene 2 3 10 0.249817 0 16 0.249817 1
gene 2 10 4 8 0 17 8 1
gene 3 2 17 2.80189 0 36 2.80189 1
gene 3 17 4 -5.52715 0 37 -5.52715 1
genomeend 23

/* Organism #24 Fitness: 4.65823 Error: 1.84171 */
genomestart 24
trait 1 0.1 0 0 0 0 0 0 0 
trait 2 0.758351 0 0 0.541322 0.640797 0 0 0.469428 
trait 3 0.3 0 0 0 0 0 0 0 
node 1 2 1 3
node 2 1 1 1
node 3 2 1 1
node 4 2 0 2
node 10 1 0 0
node 17 1 0 0
gene 3 1 4 -1.73517 0 1 -1.73517 1
gene 3 2 4 -4.3898 0 2 -4.3898 1
gene 2 3 4 -0.47335 0 3 -0.47335 0
gene 2 3 10 2.57769 0 16 2.57769 1
gene 2 10 4 6.80394 0 17 6.80394 1
gene 3 2 17 2.4333 0 36 2.4333 1
gene 3 17 4 -5.39752 0 37 -5.39752 1
gene 1 17 10 0.347118 0 176 0.347118 1
genomeend 24

/* Organism #25 Fitness: 8.93754 Error: 1.01043 */
genomestart 25
trait 1 0.1 0 0 0 0 0 0 0 
trait 2 0.758351 0 0 0.541322 0.640797 0 0 0.469428 
trait 3 0.3 0 0 0 0 0 0 0 
node 1 2 1 3
node 2 1 1 1
node 3 2 1 1
node 4 2 0 2
node 10 1 0 0
node 17 1 0 0
gene 3 1 4 -3.53545 0 1 -3.53545 1
gene 3 2 4 -3.02226 0 2 -3.02226 1
gene 2 3 4 1.83576 0 3 1.83576 0
gene 2 3 10 2.57769 0 16 2.57769 1
gene 2 10 4 6.32961 0 17 6.32961 1
gene 3 2 17 1.23743 0 36 1.23743 1
gene 3 17 4 -3.73853 0 37 -3.73853 1
genomeend 25

/* Organism #26 Fitness: 8.91626 Error: 1.01399 */
genomestart 26
trait 1 0.1 0 0 0 0 0 0 0 
trait 2 0.758351 0 0 0.541322 0.640797 0 0 0.469428 
trait 3 0.3 0 0 0 0 0 0 0 
node 1 2 1 3
node 2 1 1 1
node 3 2 1 1
node 4 2 0 2
node 10 1 0 0
node 17 1 0 0
gene 3 1 4 -1.73517 0 1 -1.73517 1
gene 3 2 4 -2.858 0 2 -2.858 1
gene 2 3 4 1.64669 0 3 1.64669 0
gene 2 3 10 1.77895 0 16 1.77895 1
gene 2 10 4 4.64895 0 17 4.64895 1
gene 3 2 17 0.631947 0 36 0.131947 1
gene 3 17 4 -4.07347 0 37 -2.20219 1
genomeend 26

/* Species #4 : (Size 8) (AF 6.45655) (Age 16)  */


/* Organism #27 Fitness: 8.99911 Error: 1.00015 */
genomestart 27
trait 1 0.172802 0 0.106708 0.372799 0 0.110019 0 0.195593 
trait 2 0.200824 0 0 0 0 0 0 0 
trait 3 0.2625 0.084109 0 0 0.0478111 0.031663 0 0 
node 1 3 1 3
node 2 2 1 1
node 3 1 1 1
node 4 1 0 2
node 12 1 0 0
gene 2 1 4 -5.82337 0 1 -5.82337 1
gene 2 2 4 2.86852 0 2 2.86852 1
gene 2 3 4 0.532624 0 3 0.532624 0
gene 2 3 12 7.36784 0 22 7.36784 1
gene 2 12 4 8 0 23 8 1
gene 1 2 12 0.711097 0 124 0.711097 1
genomeend 27

/* Organism #28 Fitness: 7.70165 Error: 1.22482 */
genomestart 28
trait 1 0.172802 0 0.106708 0.372799 0 0.110019 0 0.195593 
trait 2 0.200824 0 0 0 0 0 0 0 
trait 3 0.2625 0.084109 0 0 0.0478111 0.031663 0 0 
node 1 3 1 3
node 2 2 1 1
node 3 1 1 1
node 4 1 0 2
node 12 1 0 0
gene 2 1 4 -7.74833 0 1 -7.74833 1
gene 2 2 4 1.58148 0 2 1.58148 1
gene 2 3 4 -2.24769 0 3 -2.24769 0
gene 2 3 12 7.36784 0 22 7.36784 1
gene 2 12 4 8 0 23 8 1
gene 1 2 12 0.711097 0 124 0.711097 1
genomeend 28

/* Organism #29 Fitness: 3.88237 Error: 2.02963 */
genomestart 29
trait 1 0.172802 0 0.106708 0.372799 0 0.110019 0 0.195593 
trait 2 0.200824 0 0 0 0 0 0 0 
trait 3 0.2625 0.084109 0 0 0.0478111 0.031663 0 0 
node 1 3 1 3
node 2 2 1 1
node 3 1 1 1
node 4 1 0 2
node 12 1 0 0
gene 2 1 4 -4.01622 0 1 -4.01622 1
gene 2 2 4 2.88394 0 2 2.88394 1
gene 2 3 4 0.220496 0 3 0.220496 0
gene 2 3 12 7.86125 0 22 7.86125 1
gene 2 12 4 6.66596 0 23 6.66596 1
gene 1 2 12 -1.73069 0 124 -1.73069 1
genomeend 29

/* Organism #30 Fitness: 5.04974 Error: 1.75284 */
genomestart 30
trait 1 0.172802 0 0.106708 0.372799 0 0.110019 0 0.195593 
trait 2 0 0.806482 0 0 0 0 0 0 
trait 3 0.2625 0.084109 0 0 0.0478111 0.031663 0 0 
node 1 3 1 3
node 2 2 1 1
node 3 1 1 1
node 4 1 0 2
node 12 1 0 0
gene 2 1 4 -5.95002 0 1 -5.95002 1
gene 2 2 4 3.53902 0 2 3.53902 1
gene 2 3 4 1.81631 0 3 1.81631 0
gene 2 3 12 5.01982 0 22 5.01982 1
gene 2 12 4 5.72385 0 23 5.72385 1
gene 1 2 12 0.301691 0 124 0.301691 1
genomeend 30

/* Organism #31 Fitness: 4.12497 Error: 1.969 */
genomestart 31
trait 1 0.172802 0 0.106708 0.372799 0 0.110019 0 0.195593 
trait 2 0 0.806482 0 0 0 0 0 0 
trait 3 0.2625 0.084109 0 0 0.0478111 0.031663 0 0 
node 1 3 1 3
node 2 2 1 1
node 3 1 1 1
node 4 1 0 2
node 12 1 0 0
gene 2 1 4 -7.5337 0 1 -7.5337 1
gene 2 2 4 3.27602 0 2 3.27602 1
gene 2 3 4 2.30995 0 3 2.30995 0
gene 2 3 12 7.28475 0 22 7.28475 1
gene 2 12 4 6.83694 0 23 6.83694 1
gene 1 2 12 0.368679 0 124 0.368679 1
genomeend 31

/* Organism #32 Fitness: 8.90195 Error: 1.01639 */
genomestart 32
trait 1 0.172802 0 0.106708 0.372799 0 0.110019 0 0.195593 
trait 2 0.100412 0.403241 0 0 0 0 0 0 
trait 3 0.2625 0.084109 0 0 0.0478111 0.031663 0 0 
node 1 3 1 3
node 2 2 1 1
node 3 1 1 1
node 4 1 0 2
node 12 1 0 0
gene 2 1 4 -4.2171 0 1 -4.2171 1
gene 2 2 4 5.3065 0 2 5.3065 1
gene 2 3 4 1.70766 0 3 1.70766 0
gene 2 3 12 2.33024 0 22 2.33024 1
gene 2 12 4 6.76949 0 23 6.76949 1
gene 1 2 12 -0.385891 0 124 -0.385891 1
genomeend 32

/* Organism #33 Fitness: 3.99265 Error: 2.00184 */
genomestart 33
trait 1 0.172802 0 0.106708 0.372799 0 0.110019 0 0.195593 
trait 2 0 0.806482 0 0 0 0 0 0 
trait 3 0.2625 0.084109 0 0 0.0478111 0.031663 0 0 
node 1 3 1 3
node 2 2 1 1
node 3 3 1 1
node 4 1 0 2
node 12 1 0 0
gene 2 1 4 -5.27045 0 1 -5.27045 1
gene 2 2 4 2.86852 0 2 2.86852 1
gene 2 3 4 1.60161 0 3 1.60161 0
gene 2 3 12 5.31005 0 22 5.31005 1
gene 2 12 4 8 0 23 8 1
gene 1 2 12 -0.558184 0 124 -0.558184 1
genomeend 33

/* Organism #34 Fitness: 8.99999 Error: 1 */
genomestart 34
trait 1 0.172802 0 0.106708 0.372799 0 0.110019 0 0.195593 
trait 2 0.200824 0 0 0 0 0 0 0 
trait 3 0.2625 0.084109 0 0 0.0478111 0.031663 0 0 
node 1 3 1 3
node 2 2 1 1
node 3 1 1 1
node 4 1 0 2
node 12 1 0 0
gene 2 1 4 -5.82337 0 1 -5.82337 1
gene 2 2 4 2.86852 0 2 2.86852 1
gene 2 3 4 0.532624 0 3 0.532624 1
gene 2 3 12 7.36784 0 22 7.36784 1
gene 2 12 4 8 0 23 8 1
gene 1 2 12 0.711097 0 124 0.711097 1
gene 1 1 12 -0.190558 0 177 -0.190558 1
genomeend 34

/* Species #5 : (Size 8) (AF 6.61307) (Age 15)  */


/* Organism #35 Fitness: 8.99871 Error: 1.00021 */
genomestart 35
trait 1 0.1 0 0.391629 0 0 0 0 0.273476 
trait 2 0.228954 0.0158391 0 0.0331011 0 0 0.00724815 0 
trait 3 0.15 0 0 0.391003 0.0782189 0 0.298944 0 
node 1 2 1 3
node 2 2 1 1
node 3 2 1 1
node 4 2 0 2
node 14 1 0 0
gene 3 1 4 -2.69219 0 1 -2.69219 1
gene 1 2 4 4.06484 0 2 4.06484 1
gene 3 3 4 4.11771 0 3 4.11771 1
gene 1 2 14 0.717551 0 29 0.717551 1
gene 1 14 4 1.93888 0 30 1.93888 1
genomeend 35

/* Organism #36 Fitness: 4 Error: 2 */
genomestart 36
trait 1 0.1 0 0.391629 0 0 0 0 0.273476 
trait 2 0.228954 0.0158391 0 0.0331011 0 0 0.00724815 0 
trait 3 0 0 0 0 0.0782189 0 1 0.799005 
node 1 2 1 3
node 2 2 1 1
node 3 2 1 1
node 4 2 0 2
node 14 1 0 0
gene 3 1 4 1.7217 0 1 1.7217 1
gene 1 2 4 -2.47795 0 2 -2.47795 1
gene 3 3 4 4.32569 0 3 4.32569 1
gene 1 2 14 0.841742 0 29 0.841742 1
gene 1 14 4 3.89809 0 30 3.89809 1
genomeend 36

/* Organism #37 Fitness: 3.99792 Error: 2.00052 */
genomestart 37
trait 1 0.1 0 0.391629 0 0 0 0 0.273476 
trait 2 0.228954 0.0158391 0 0.0331011 0 0 0.00724815 0 
trait 3 0.15 0 0 0.391003 0.0782189 0 0.298944 0 
node 1 2 1 3
node 2 2 1 1
node 3 2 1 1
node 4 2 0 2
node 14 1 0 0
gene 3 1 4 -2.46061 0 1 -2.46061 1
gene 1 2 4 -2.32498 0 2 -2.32498 1
gene 3 3 4 -0.949583 0 3 -0.949583 1
gene 1 2 14 2.96267 0 29 2.96267 1
gene 1 14 4 1.85397 0 30 1.85397 1
genomeend 37

/* Organism #38 Fitness: 8.99506 Error: 1.00082 */
genomestart 38
trait 1 0.1 0 0.391629 0 0 0 0 0.273476 
trait 2 0.228954 0.0158391 0 0.0331011 0 0 0.00724815 0 
trait 3 0.15 0 0 0.391003 0.884793 0.259346 0 0.328196 
node 1 2 1 3
node 2 2 1 1
node 3 2 1 1
node 4 2 0 2
node 14 1 0 0
gene 3 1 4 -2.20569 0 1 -2.20569 1
gene 1 2 4 3.07949 0 2 3.07949 1
gene 3 3 4 3.26651 0 3 3.26651 1
gene 1 2 14 0.647568 0 29 0.647568 1
gene 1 14 4 1.43075 0 30 1.43075 1
genomeend 38

/* Organism #39 Fitness: 8.99506 Error: 1.00082 */
genomestart 39
trait 1 0.1 0 0.391629 0 0 0 0 0.273476 
trait 2 0.228954 0.0158391 0 0.0331011 0 0 0.00724815 0 
trait 3 0.15 0 0 0.391003 0.0782189 0 0.298944 0 
node 1 2 1 3
node 2 2 1 1
node 3 2 1 1
node 4 2 0 2
node 14 1 0 0
gene 3 1 4 -2.20569 0 1 -2.20569 1
gene 1 2 4 3.07949 0 2 3.07949 1
gene 3 3 4 3.26651 0 3 3.26651 1
gene 1 2 14 0.647568 0 29 0.647568 1
gene 1 14 4 1.43075 0 30 1.43075 1
genomeend 39

/* Organism #40 Fitness: 8.91577 Error: 1.01407 */
genomestart 40
trait 1 0.1 0 0.391629 0 0 0 0 0.273476 
trait 2 0.228954 0.0158391 0 0.0331011 0 0 0.00724815 0 
trait 3 0.15 0 0 0.391003 0.0782189 0 0.298944 0 
node 1 2 1 3
node 2 2 1 1
node 3 2 1 1
node 4 2 0 2
node 14 1 0 0
gene 3 1 4 -0.699332 0 1 -0.699332 1
gene 1 2 4 6.36608 0 2 6.36608 1
gene 3 3 4 2.57805 0 3 2.57805 1
gene 1 2 14 2.78236 0 29 2.78236 1
gene 1 14 4 -0.333678 0 30 -0.333678 1
genomeend 40

/* Organism #41 Fitness: 7.9469 Error: 1.18098 */
genomestart 41
trait 1 0.1 0 0.391629 0 0 0 0 0.273476 
trait 2 0.228954 0.0158391 0 0.0331011 0 0 0.00724815 0 
trait 3 0.15 0 0 0.391003 0.0782189 0 0.298944 0 
node 1 2 1 3
node 2 2 1 1
node 3 2 1 1
node 4 2 0 2
node 14 1 0 0
gene 3 1 4 -1.11099 0 1 -1.11099 1
gene 1 2 4 2.03469 0 2 2.03469 1
gene 3 3 4 0.968463 0 3 0.968463 1
gene 1 2 14 1.13083 0 29 1.13083 1
gene 1 14 4 1.43075 0 30 1.43075 1
genomeend 41

/* Organism #42 Fitness: 1.05511 Error: 2.97281 */
genomestart 42
trait 1 0.1 0 0.391629 0 0 0 0 0.273476 
trait 2 0.228954 0.0158391 0 0.0331011 0 0 0.00724815 0 
trait 3 0.15 0 0 0.391003 0.0782189 0 0.298944 0 
node 1 2 1 3
node 2 2 1 1
node 3 2 1 1
node 4 2 0 2
node 14 1 0 0
gene 3 1 4 -4.34652 0 1 -4.34652 1
gene 1 2 4 4.13068 0 2 4.13068 1
gene 3 3 4 4.61913 0 3 4.61913 1
gene 1 2 14 2.24928 0 29 2.24928 1
gene 1 14 4 -1.99858 0 30 -1.99858 1
genomeend 42

/* Species #6 : (Size 9) (AF 8.03184) (Age 15)  */


/* Organism #43 Fitness: 9 Error: 1 */
genomestart 43
trait 1 0.1 0 0 0 0 0 0 0 
trait 2 0.214477 0.00791955 0 0.0165506 0 0 0.00362407 0 
trait 3 0.3 0 0 0 0 0 0 0 
node 1 2 1 3
node 2 2 1 1
node 3 2 1 1
node 4 2 0 2
node 5 1 0 0
node 15 1 0 0
node 18 1 0 0
gene 3 1 4 -2.06702 0 1 -2.06702 1
gene 3 2 4 8 0 2 8 1
gene 2 3 4 -8 0 3 -8 1
gene 2 2 5 0.205542 0 4 0.205542 0
gene 2 5 4 -2.05573 0 5 -2.05573 1
gene 2 2 15 2.03751 0 31 2.03751 0
gene 2 15 5 0.599536 0 32 0.599536 1
gene 2 2 18 0.404508 0 38 0.404508 1
gene 2 18 15 5.39524 0 39 5.39524 1
genomeend 43

/* Organism #44 Fitness: 9 Error: 1 */
genomestart 44
trait 1 0.1 0 0 0 0 0 0 0 
trait 2 0.214477 0.00791955 0 0.0165506 0 0 0.00362407 0 
trait 3 0.3 0 0 0 0 0 0 0 
node 1 2 1 3
node 2 2 1 1
node 3 2 1 1
node 4 2 0 2
node 5 1 0 0
node 15 1 0 0
node 18 1 0 0
gene 3 1 4 -2.06702 0 1 -2.06702 1
gene 3 2 4 8 0 2 8 1
gene 2 3 4 -8 0 3 -8 1
gene 2 2 5 0.205542 0 4 0.205542 0
gene 2 5 4 -2.05573 0 5 -2.05573 1
gene 2 2 15 1.56445 0 31 1.56445 0
gene 2 15 5 0.599536 0 32 0.599536 1
gene 2 2 18 0.206082 0 38 0.206082 1
gene 2 18 15 5.39524 0 39 5.39524 1
genomeend 44

/* Organism #45 Fitness: 6.9934 Error: 1.3555 */
genomestart 45
trait 1 0.1 0 0 0 0 0 0 0 
trait 2 0.214477 0.00791955 0 0.0165506 0 0 0.00362407 0 
trait 3 0.3 0 0 0 0 0 0 0 
node 1 2 1 3
node 2 2 1 1
node 3 2 1 1
node 4 2 0 2
node 5 1 0 0
node 15 1 0 0
node 18 1 0 0
gene 3 1 4 -0.595187 0 1 -0.595187 1
gene 2 2 4 7.27656 0 2 7.27656 1
gene 2 3 4 -6.85952 0 3 -6.85952 1
gene 2 2 5 2.6558 0 4 2.6558 0
gene 2 5 4 0.572527 0 5 0.572527 1
gene 2 2 15 1.55876 0 31 1.55876 0
gene 2 15 5 -0.846431 0 32 -0.846431 1
gene 2 2 18 0.404508 0 38 0.404508 1
gene 2 18 15 7.06536 0 39 7.06536 1
genomeend 45

/* Organism #46 Fitness: 9 Error: 1 */
genomestart 46
trait 1 0.1 0 0 0 0 0 0 0 
trait 2 0.214477 0.00791955 0 0.0165506 0 0 0.00362407 0 
trait 3 0.3 0 0 0 0 0 0 0 
node 1 2 1 3
node 2 2 1 1
node 3 2 1 1
node 4 2 0 2
node 5 1 0 0
node 15 1 0 0
node 18 1 0 0
gene 3 1 4 -2.06702 0 1 -2.06702 1
gene 3 2 4 8 0 2 8 1
gene 2 3 4 -8 0 3 -8 1
gene 2 2 5 0.205542 0 4 0.205542 0
gene 2 5 4 -2.05573 0 5 -2.05573 1
gene 2 2 15 1.56445 0 31 1.56445 0
gene 2 15 5 0.599536 0 32 0.599536 1
gene 2 2 18 0.206082 0 38 0.206082 1
gene 2 18 15 5.39524 0 39 5.39524 1
genomeend 46

/* Organism #47 Fitness: 9 Error: 1 */
genomestart 47
trait 1 0.1 0 0 0 0 0 0 0 
trait 2 0.214477 0.00791955 0 0.0165506 0 0 0.00362407 0 
trait 3 0.3 0 0 0 0 0 0 0 
node 1 2 1 3
node 2 2 1 1
node 3 2 1 1
node 4 2 0 2
node 5 1 0 0
node 15 1 0 0
node 18 1 0 0
gene 3 1 4 -2.06702 0 1 -2.06702 1
gene 3 2 4 8 0 2 8 1
gene 2 3 4 -8 0 3 -8 1
gene 2 2 5 0.205542 0 4 0.205542 1
gene 2 5 4 -2.05573 0 5 -2.05573 1
gene 2 2 15 2.03751 0 31 2.03751 0
gene 2 15 5 0.599536 0 32 0.599536 1
gene 2 2 18 0.404508 0 38 0.404508 1
gene 2 18 15 5.39524 0 39 5.39524 1
genomeend 47

/* Organism #48 Fitness: 9 Error: 1 */
genomestart 48
trait 1 0.1 0 0 0 0 0 0 0 
trait 2 0.214477 0.00791955 0 0.0165506 0 0 0.00362407 0 
trait 3 0.3 0 0 0 0 0 0 0 
node 1 2 1 3
node 2 2 1 1
node 3 2 1 1
node 4 2 0 2
node 5 1 0 0
node 15 1 0 0
node 18 1 0 0
gene 3 1 4 -2.71943 0 1 -2.71943 1
gene 3 2 4 7.51926 0 2 7.51926 1
gene 2 3 4 -8 0 3 -8 1
gene 2 2 5 0.216987 0 4 0.216987 0
gene 2 5 4 -1.85217 0 5 -1.85217 1
gene 2 2 15 -0.33301 0 31 -0.33301 0
gene 2 15 5 1.33534 0 32 1.33534 1
gene 2 2 18 0.397412 0 38 0.397412 1
gene 2 18 15 3.08766 0 39 3.08766 1
genomeend 48

/* Organism #49 Fitness: 8.99998 Error: 1 */
genomestart 49
trait 1 0.1 0 0 0 0 0 0 0 
trait 2 0.214477 0.00791955 0 0.0165506 0 0 0.00362407 0 
trait 3 0.3 0 0 0 0 0 0 0 
node 1 2 1 3
node 2 2 1 1
node 3 2 1 1
node 4 2 0 2
node 5 1 0 0
node 15 1 0 0
node 18 1 0 0
gene 3 1 4 -2.06702 0 1 -2.06702 1
gene 3 2 4 8 0 2 8 1
gene 2 3 4 -8 0 3 -8 1
gene 2 2 5 2.6812 0 4 2.6812 0
gene 2 5 4 -1.06006 0 5 -1.06006 1
gene 2 2 15 2.03751 0 31 2.03751 0
gene 2 15 5 0.0711081 0 32 0.0711081 1
gene 2 2 18 0.404508 0 38 0.404508 1
gene 2 18 15 5.14682 0 39 5.14682 1
genomeend 49

/* Organism #50 Fitness: 7.26624 Error: 1.3044 */
genomestart 50
trait 1 0.1 0 0 0 0 0 0 0 
trait 2 0.214477 0.00791955 0 0.0165506 0 0 0.00362407 0 
trait 3 0.3 0 0 0 0 0 0 0 
node 1 2 1 3
node 2 2 1 1
node 3 2 1 1
node 4 2 0 2
node 5 1 0 0
node 15 1 0 0
node 18 1 0 0
gene 3 1 4 0.0196844 0 1 0.0196844 1
gene 3 2 4 8 0 2 8 1
gene 2 3 4 -8 0 3 -8 1
gene 2 2 5 0.437407 0 4 0.437407 0
gene 2 5 4 -0.368816 0 5 -0.368816 1
gene 2 2 15 3.23468 0 31 3.23468 0
gene 2 15 5 2.49802 0 32 2.49802 1
gene 2 2 18 -1.42225 0 38 -1.42225 1
gene 2 18 15 6.08496 0 39 6.08496 1
genomeend 50

/* Organism #51 Fitness: 4.02698 Error: 1.99327 */
genomestart 51
trait 1 0.1 0 0 0 0 0 0 0 
trait 2 0.214477 0.00791955 0 0.0165506 0 0 0.00362407 0 
trait 3 0.3 0 0 0 0 0 0 0 
node 1 2 1 3
node 2 2 1 1
node 3 2 1 1
node 4 2 0 2
node 5 1 0 0
node 15 1 0 0
node 18 3 0 0
gene 3 1 4 -2.78489 0 1 -2.78489 1
gene 3 2 4 -1.38142 0 2 -1.38142 1
gene 2 3 4 1.72323 0 3 1.72323 1
gene 2 2 5 1.30749 0 4 1.30749 0
gene 2 5 4 0.0920896 0 5 0.0920896 1
gene 2 2 15 -2.48337 0 31 -2.48337 1
gene 2 15 5 0.0156407 0 32 0.0156407 1
gene 2 2 18 -1.21867 0 38 -1.21867 1
gene 2 18 15 7.39237 0 39 7.39237 1
genomeend 51

/* Species #7 : (Size 4) (AF 5.09935) (Age 13)  */


/* Organism #52 Fitness: 5.01299 Error: 1.76103 */
genomestart 52
trait 1 0.1 0 0 0 0 0 0 0 
trait 2 0.200824 0 0 0 0 0 0 0 
trait 3 0.3 0 0 0 0 0 0 0.156682 
node 1 2 1 3
node 2 1 1 1
node 3 2 1 1
node 4 2 0 2
node 10 1 0 0
node 39 1 0 0
gene 3 1 4 -3.65291 0 1 -3.65291 1
gene 3 2 4 -4.94813 0 2 -4.94813 1
gene 2 3 4 4.50437 0 3 4.50437 1
gene 2 3 10 4.89508 0 16 4.89508 1
gene 2 10 4 4.3308 0 17 4.3308 1
gene 1 2 10 -0.766854 0 48 -0.766854 0
gene 1 2 39 -1.91513 0 116 -1.91513 1
gene 1 39 10 0.0312815 0 117 0.0312815 1
genomeend 52

/* Organism #53 Fitness: 7.02931 Error: 1.34872 */
genomestart 53
trait 1 0.1 0 0 0 0 0 0 0 
trait 2 0.200824 0 0 0 0 0 0 0 
trait 3 0.3 0 0 0 0 0 0 0 
node 1 2 1 3
node 2 1 1 1
node 3 2 1 1
node 4 2 0 2
node 10 1 0 0
node 39 1 0 0
gene 3 1 4 -2.25177 0 1 -2.25177 1
gene 3 2 4 -5.00646 0 2 -5.00646 1
gene 2 3 4 2.37864 0 3 2.37864 1
gene 2 3 10 6.27715 0 16 6.27715 1
gene 2 10 4 4.91061 0 17 4.91061 0
gene 1 2 10 -1.64811 0 48 -1.64811 0
gene 1 2 39 -0.640561 0 116 -0.640561 1
gene 1 39 10 -0.797334 0 117 -0.797334 1
genomeend 53

/* Organism #54 Fitness: 4.35496 Error: 1.91315 */
genomestart 54
trait 1 0.1 0 0 0 0 0 0 0 
trait 2 0.200824 0 0 0 0 0 0 0 
trait 3 0.3 0 0 0 0 0 0 0 
node 1 2 1 3
node 2 1 1 1
node 3 2 1 1
node 4 2 0 2
node 10 1 0 0
node 39 1 0 0
gene 3 1 4 0.477767 0 1 0.477767 1
gene 3 2 4 -6.19794 0 2 -6.19794 1
gene 2 3 4 3.0333 0 3 3.0333 1
gene 2 3 10 4.52222 0 16 4.52222 1
gene 2 10 4 5.59404 0 17 5.59404 0
gene 1 2 10 1.46664 0 48 1.46664 0
gene 1 2 39 0.0661336 0 116 0.0661336 1
gene 1 39 10 -2.49207 0 117 -2.49207 1
genomeend 54

/* Organism #55 Fitness: 4.00015 Error: 1.99996 */
genomestart 55
trait 1 0.1 0 0 0 0 0 0 0 
trait 2 0.200824 0 0 0 0 0 0 0 
trait 3 0.3 0 0 0 0 0 0 0 
node 1 2 1 3
node 2 1 1 1
node 3 2 1 1
node 4 2 0 2
node 10 1 0 0
node 39 1 0 0
gene 3 1 4 -4.79987 0 1 -4.79987 1
gene 3 2 4 -7.00882 0 2 -7.00882 1
gene 2 3 4 2.72751 0 3 2.72751 1
gene 2 3 10 6.47426 0 16 6.47426 1
gene 2 10 4 7.02734 0 17 7.02734 0
gene 1 2 10 -1.99995 0 48 -1.99995 0
gene 1 2 39 0.493927 0 116 0.493927 1
gene 1 39 10 -0.564898 0 117 -0.564898 1
genomeend 55

/* Species #8 : (Size 7) (AF 7.52969) (Age 13)  */


/* Organism #56 Fitness: 8.99988 Error: 1.00002 */
genomestart 56
trait 1 0.328065 0.43675 0.0871303 0 0 0 0 0 
trait 2 0.200824 0 0 0 0 0 0 0 
trait 3 0.3 0 0 0 0 0 0 0 
node 1 2 1 3
node 2 1 1 1
node 3 2 1 1
node 4 2 0 2
node 10 1 0 0
node 21 1 0 0
gene 3 1 4 5.30335 0 1 5.30335 1
gene 3 2 4 -5.69354 0 2 -5.69354 1
gene 2 3 4 -4.47371 0 3 -4.47371 1
gene 2 3 10 -0.873669 0 16 -0.873669 1
gene 2 10 4 0.275735 0 17 0.275735 1
gene 2 10 21 2.90117 0 46 2.90117 1
gene 2 21 4 5.37995 0 47 5.37995 1
gene 3 1 21 -0.0417951 0 104 -0.0417951 1
genomeend 56

/* Organism #57 Fitness: 3.96719 Error: 2.00822 */
genomestart 57
trait 1 0.328065 0.43675 0.752312 0.910916 0 0 0 0 
trait 2 0.200824 0 0 0 0 0 0 0 
trait 3 0.3 0 0 0 0 0 0 0 
node 1 2 1 3
node 2 1 1 1
node 3 2 1 1
node 4 2 0 2
node 10 1 0 0
node 21 1 0 0
gene 3 1 4 -1.95738 0 1 -1.95738 1
gene 3 2 4 -4.83742 0 2 -4.83742 1
gene 2 3 4 -2.88751 0 3 -2.88751 1
gene 2 3 10 -0.530259 0 16 -0.530259 1
gene 2 10 4 1.02809 0 17 1.02809 1
gene 2 10 21 1.53645 0 46 1.53645 1
gene 2 21 4 5.50294 0 47 5.50294 1
gene 3 1 21 1.05412 0 104 1.05412 1
genomeend 57

/* Organism #58 Fitness: 4 Error: 2 */
genomestart 58
trait 1 0.328065 0.43675 0.0871303 0 0 0 0 0 
trait 2 0.200824 0 0 0 0 0 0 0 
trait 3 0.3 0 0 0 0 0 0 0 
node 1 2 1 3
node 2 1 1 1
node 3 2 1 1
node 4 2 0 2
node 10 1 0 0
node 21 1 0 0
gene 3 1 4 4.74754 0 1 4.74754 1
gene 3 2 4 -4.4638 0 2 -4.4638 1
gene 2 3 4 -6.09416 0 3 -6.09416 1
gene 2 3 10 0.225532 0 16 0.225532 1
gene 2 10 4 2.39792 0 17 2.39792 1
gene 2 10 21 3.1193 0 46 3.1193 1
gene 2 21 4 7.15513 0 47 7.15513 1
gene 3 1 21 -0.993591 0 104 -0.993591 1
genomeend 58

/* Organism #59 Fitness: 8.74228 Error: 1.04327 */
genomestart 59
trait 1 0.328065 0.43675 0.0871303 0 0 0 0 0 
trait 2 0.200824 0 0 0 0 0 0 0 
trait 3 0.3 0 0 0 0 0 0 0 
node 1 2 1 3
node 2 1 1 1
node 3 2 1 1
node 4 2 0 2
node 10 1 0 0
node 21 1 0 0
gene 3 1 4 6.13514 0 1 6.13514 1
gene 3 2 4 -4.27481 0 2 -4.27481 1
gene 2 3 4 -5.50851 0 3 -5.50851 1
gene 2 3 10 -0.57123 0 16 -0.57123 1
gene 2 10 4 -1.81974 0 17 -1.81974 1
gene 2 10 21 5.22843 0 46 5.22843 1
gene 2 21 4 5.27931 0 47 5.27931 1
gene 3 1 21 -1.08721 0 104 -1.08721 1
genomeend 59

/* Organism #60 Fitness: 8.99876 Error: 1.00021 */
genomestart 60
trait 1 0.328065 0.43675 0.0871303 0 0 0 0 0 
trait 2 0.200824 0 0 0 0 0 0 0 
trait 3 0.3 0 0 0 0 0 0 0 
node 1 2 1 3
node 2 1 1 1
node 3 2 1 1
node 4 2 0 2
node 10 1 0 0
node 21 1 0 0
gene 3 1 4 5.30335 0 1 5.30335 1
gene 3 2 4 -5.69354 0 2 -5.69354 1
gene 2 3 4 -4.47371 0 3 -4.47371 1
gene 2 3 10 -0.873669 0 16 -0.873669 1
gene 2 10 4 0.275735 0 17 0.275735 1
gene 2 10 21 2.90117 0 46 2.90117 1
gene 2 21 4 5.37995 0 47 5.37995 1
gene 3 1 21 -0.0417951 0 104 -0.0417951 1
gene 1 1 10 0.21482 0 178 0.21482 1
genomeend 60

/* Organism #61 Fitness: 8.99988 Error: 1.00002 */
genomestart 61
trait 1 0.328065 0.43675 0.0871303 0 0 0 0 0 
trait 2 0.200824 0 0 0 0 0 0 0 
trait 3 0.3 0 0 0 0 0 0 0 
node 1 2 1 3
node 2 1 1 1
node 3 2 1 1
node 4 2 0 2
node 10 1 0 0
node 21 1 0 0
gene 3 1 4 5.30335 0 1 5.30335 1
gene 3 2 4 -5.69354 0 2 -5.69354 1
gene 2 3 4 -4.47371 0 3 -4.47371 1
gene 2 3 10 -0.873669 0 16 -0.873669 1
gene 2 10 4 0.275735 0 17 0.275735 1
gene 2 10 21 2.90117 0 46 2.90117 1
gene 2 21 4 5.37995 0 47 5.37995 1
gene 3 1 21 -0.0417951 0 104 -0.0417951 1
genomeend 61

/* Organism #62 Fitness: 8.99988 Error: 1.00002 */
genomestart 62
trait 1 0.328065 0.43675 0.0871303 0 0 0 0 0 
trait 2 0.200824 0 0 0 0 0 0 0 
trait 3 0.3 0 0 0 0 0 0 0 
node 1 2 1 3
node 2 1 1 1
node 3 2 1 1
node 4 2 0 2
node 10 1 0 0
node 21 1 0 0
gene 3 1 4 5.30335 0 1 5.30335 1
gene 3 2 4 -5.69354 0 2 -5.69354 1
gene 2 3 4 -4.47371 0 3 -4.47371 1
gene 2 3 10 -0.873669 0 16 -0.873669 1
gene 2 10 4 0.275735 0 17 0.275735 1
gene 2 10 21 2.90117 0 46 2.90117 1
gene 3 21 4 5.37995 0 47 5.37995 1
gene 3 1 21 -0.0417951 0 104 -0.0417951 1
genomeend 62

/* Species #9 : (Size 9) (AF 6.67934) (Age 12)  */


/* Organism #63 Fitness: 9 Error: 1 */
genomestart 63
trait 1 0.187161 0.428495 0 0.082934 0 0.0283212 0 0 
trait 2 0.157239 0.00395978 0 0.00827528 0 0 0.00362407 0 
trait 3 0.3 0 0 0 0 0 0 0 
node 1 2 1 3
node 2 3 1 1
node 3 2 1 1
node 4 2 0 2
node 5 1 0 0
node 15 1 0 0
gene 1 1 4 -4.16192 0 1 -4.16192 1
gene 3 2 4 8 0 2 8 1
gene 2 3 4 -8 0 3 -8 1
gene 3 2 5 -0.0301838 0 4 -0.0301838 0
gene 1 5 4 -1.20859 0 5 -1.20859 1
gene 2 2 15 0.445276 0 31 0.445276 1
gene 2 15 5 0.778642 0 32 0.778642 1
gene 1 15 4 1.47038 0 56 1.47038 1
genomeend 63

/* Organism #64 Fitness: 1.00305 Error: 2.99848 */
genomestart 64
trait 1 0.187161 0.428495 0 0.082934 0 0.0283212 0 0 
trait 2 0.157239 0.00395978 0 0.00827528 0 0 0.00362407 0 
trait 3 0.3 0 0 0 0 0 0 0 
node 1 2 1 3
node 2 3 1 1
node 3 2 1 1
node 4 2 0 2
node 5 1 0 0
node 15 3 0 0
gene 1 1 4 -1.84404 0 1 -1.84404 1
gene 3 2 4 8 0 2 8 1
gene 2 3 4 -7.71397 0 3 -7.71397 1
gene 3 2 5 -1.60013 0 4 -1.60013 0
gene 1 5 4 2.32637 0 5 2.32637 1
gene 2 2 15 0.0100826 0 31 0.0100826 1
gene 2 15 5 0.261505 0 32 0.261505 1
gene 1 15 4 3.34315 0 56 3.34315 1
genomeend 64

/* Organism #65 Fitness: 9 Error: 1 */
genomestart 65
trait 1 0.187161 0.428495 0 0.082934 0 0.0283212 0 0 
trait 2 0.157239 0.00395978 0 0.00827528 0 0 0.00362407 0 
trait 3 0.3 0 0 0 0 0 0 0 
node 1 2 1 3
node 2 3 1 1
node 3 2 1 1
node 4 2 0 2
node 5 1 0 0
node 15 1 0 0
gene 1 1 4 -4.16192 0 1 -4.16192 1
gene 3 2 4 8 0 2 8 1
gene 2 3 4 -8 0 3 -8 1
gene 3 2 5 -0.0301838 0 4 -0.0301838 0
gene 1 5 4 -1.20859 0 5 -1.20859 1
gene 2 2 15 0.445276 0 31 0.445276 1
gene 2 15 5 0.778642 0 32 0.778642 1
gene 1 15 4 1.47038 0 56 1.47038 1
genomeend 65

/* Organism #66 Fitness: 8.9697 Error: 1.00505 */
genomestart 66
trait 1 0.187161 0.428495 0 0.082934 0 0.0283212 0 0 
trait 2 0.157239 0.00395978 0 0.00827528 0 0 0.00362407 0 
trait 3 0.3 0 0 0 0 0 0 0 
node 1 2 1 3
node 2 1 1 1
node 3 2 1 1
node 4 2 0 2
node 5 1 0 0
node 15 1 0 0
node 34 1 0 0
gene 3 1 4 -2.3265 0 1 -2.3265 1
gene 3 2 4 8 0 2 8 1
gene 2 3 4 -6.74271 0 3 -6.74271 1
gene 3 2 5 -0.584201 0 4 -0.584201 0
gene 2 5 4 -1.59011 0 5 -1.59011 1
gene 2 2 15 -4.26528 0 31 -4.26528 1
gene 2 15 5 1.96303 0 32 1.96303 0
gene 1 15 4 -3.83694 0 56 -3.83694 1
gene 2 15 34 6.30099 0 93 6.30099 1
gene 2 34 5 -2.48108 0 94 -2.48108 1
genomeend 66

/* Organism #67 Fitness: 1.13688 Error: 2.93375 */
genomestart 67
trait 1 0.187161 0.428495 0 0.082934 0 0.0283212 0 0 
trait 2 0.157239 0.00395978 0 0.00827528 0 0 0.00362407 0 
trait 3 0.3 0 0 0 0 0 0 0 
node 1 2 1 3
node 2 1 1 1
node 3 2 1 1
node 4 2 0 2
node 5 1 0 0
node 15 1 0 0
node 34 1 0 0
gene 3 1 4 0.125507 0 1 0.125507 1
gene 3 2 4 4.83104 0 2 4.83104 1
gene 2 3 4 -5.55615 0 3 -5.55615 1
gene 3 2 5 -0.353566 0 4 -0.353566 0
gene 2 5 4 -0.570103 0 5 -0.570103 1
gene 2 2 15 2.41465 0 31 2.41465 1
gene 2 15 5 0.884732 0 32 0.884732 1
gene 3 15 4 1.23814 0 56 1.23814 1
gene 2 15 34 5.51811 0 93 5.51811 1
gene 2 34 5 -3.81649 0 94 -3.81649 1
genomeend 67

/* Organism #68 Fitness: 9 Error: 1 */
genomestart 68
trait 1 0.187161 0.428495 0 0.082934 0 0.0283212 0 0 
trait 2 0.157239 0.00395978 0 0.00827528 0 0 0.00362407 0 
trait 3 0.3 0 0 0 0 0 0 0 
node 1 2 1 3
node 2 1 1 1
node 3 2 1 1
node 4 2 0 2
node 5 3 0 0
node 15 1 0 0
node 34 1 0 0
gene 3 1 4 -2.3265 0 1 -2.3265 1
gene 3 2 4 5.56822 0 2 5.56822 1
gene 2 3 4 -6.63109 0 3 -6.63109 1
gene 3 2 5 -0.584201 0 4 -0.584201 0
gene 2 5 4 -1.59011 0 5 -1.59011 1
gene 2 2 15 -4.26528 0 31 -4.26528 1
gene 2 15 5 -0.615406 0 32 -0.615406 1
gene 1 15 4 -3.83694 0 56 -3.83694 1
gene 2 15 34 6.30099 0 93 6.30099 1
gene 2 34 5 -2.48108 0 94 -2.48108 1
genomeend 68

/* Organism #69 Fitness: 9 Error: 1 */
genomestart 69
trait 1 0.187161 0.428495 0 0.082934 0 0.0283212 0 0 
trait 2 0.157239 0.00395978 0 0.00827528 0 0 0.00362407 0 
trait 3 0.3 0 0 0 0 0 0 0 
node 1 2 1 3
node 2 3 1 1
node 3 2 1 1
node 4 2 0 2
node 5 1 0 0
node 15 1 0 0
gene 1 1 4 -5.09526 0 1 -5.09526 1
gene 3 2 4 5.84341 0 2 5.84341 1
gene 2 3 4 -8 0 3 -8 1
gene 3 2 5 -0.274256 0 4 -0.274256 0
gene 1 5 4 -2.4394 0 5 -2.4394 1
gene 2 2 15 1.44216 0 31 1.44216 1
gene 2 15 5 -1.23856 0 32 -1.23856 1
gene 1 15 4 2.25974 0 56 2.25974 1
genomeend 69

/* Organism #70 Fitness: 8.99998 Error: 1 */
genomestart 70
trait 1 0.187161 0.428495 0 0.082934 0 0.0283212 0 0 
trait 2 0.157239 0.00395978 0 0.00827528 0 0 0.00362407 0 
trait 3 0.3 0 0 0 0 0 0 0 
node 1 2 1 3
node 2 1 1 1
node 3 2 1 1
node 4 2 0 2
node 5 1 0 0
node 15 1 0 0
gene 3 1 4 -3.94997 0 1 -3.94997 1
gene 3 2 4 6.33598 0 2 6.33598 1
gene 2 3 4 -8 0 3 -8 1
gene 3 2 5 -2.54678 0 4 -2.54678 0
gene 1 5 4 0.364183 0 5 0.364183 1
gene 2 2 15 4.8456 0 31 4.8456 1
gene 2 15 5 1.38836 0 32 1.38836 1
gene 3 15 4 1.99057 0 56 1.99057 1
genomeend 70

/* Organism #71 Fitness: 4.00445 Error: 1.99889 */
genomestart 71
trait 1 0.187161 0.428495 0.775719 0 0 0.754326 0 0 
trait 2 0.157239 0.00395978 0 0.00827528 0 0 0.00362407 0 
trait 3 0.3 0 0 0 0 0 0 0 
node 1 2 1 3
node 2 1 1 1
node 3 2 1 1
node 4 2 0 2
node 5 1 0 0
node 15 1 0 0
node 34 1 0 0
gene 3 1 4 -3.48277 0 1 -3.48277 1
gene 3 2 4 2.12664 0 2 2.12664 1
gene 2 3 4 -6.83671 0 3 -6.83671 1
gene 3 2 5 0.734657 0 4 0.734657 0
gene 2 5 4 -3.56427 0 5 -3.56427 1
gene 2 2 15 -7.99022 0 31 -7.99022 1
gene 2 15 5 0.378811 0 32 0.378811 0
gene 1 15 4 1.79868 0 56 1.79868 1
gene 2 15 34 5.51659 0 93 5.51659 1
gene 2 34 5 -2.02391 0 94 -2.02391 1
genomeend 71

/* Species #10 : (Size 7) (AF 5.62386) (Age 11)  */


/* Organism #72 Fitness: 8.99987 Error: 1.00002 */
genomestart 72
trait 1 0.1 0 0 0 0 0 0 0 
trait 2 0.2 0 0 0 0 0 0 0 
trait 3 0.3 0 0 0 0 0 0 0 
node 1 2 1 3
node 2 1 1 1
node 3 2 1 1
node 4 1 0 2
node 5 1 0 0
node 23 1 0 0
node 25 1 0 0
gene 3 1 4 -4.85091 0 1 -4.85091 1
gene 3 2 4 -1.20548 0 2 -1.20548 0
gene 2 3 4 -5.09997 0 3 -5.09997 1
gene 3 2 5 -3.4303 0 4 -3.4303 0
gene 2 5 4 0.621982 0 5 0.621982 1
gene 3 2 23 0.729625 0 52 0.729625 1
gene 3 23 5 -2.5071 0 53 -2.5071 1
gene 3 2 25 2.61888 0 60 2.61888 1
gene 3 25 4 6.84201 0 61 6.84201 1
gene 3 1 23 -1.2907 0 105 -1.2907 1
gene 1 5 25 -0.601062 0 138 -0.601062 1
gene 2 1 25 -0.654592 0 151 -0.654592 1
genomeend 72

/* Organism #73 Fitness: 8.99995 Error: 1.00001 */
genomestart 73
trait 1 0.1 0 0 0 0 0 0 0 
trait 2 0.2 0 0 0 0 0 0 0 
trait 3 0.3 0 0 0 0 0 0 0 
node 1 2 1 3
node 2 1 1 1
node 3 2 1 1
node 4 1 0 2
node 5 1 0 0
node 23 1 0 0
node 25 1 0 0
gene 3 1 4 -4.37452 0 1 -4.37452 1
gene 3 2 4 -3.79856 0 2 -3.79856 0
gene 2 3 4 -6.11188 0 3 -6.11188 1
gene 3 2 5 -4.74656 0 4 -4.74656 0
gene 2 5 4 -1.20417 0 5 -1.20417 1
gene 3 2 23 -0.260701 0 52 -0.260701 1
gene 3 23 5 -1.43864 0 53 -1.43864 1
gene 3 2 25 4.61608 0 60 4.61608 1
gene 3 25 4 6.75877 0 61 6.75877 1
gene 3 1 23 2.41424 0 105 2.41424 1
gene 1 5 25 -0.0962859 0 138 -0.0962859 1
gene 2 1 25 -1.51071 0 151 -1.51071 1
genomeend 73

/* Organism #74 Fitness: 1.10803 Error: 2.94737 */
genomestart 74
trait 1 0.1 0 0 0 0 0 0 0 
trait 2 0.2 0 0 0 0 0 0 0 
trait 3 0.3 0 0 0 0 0 0 0 
node 1 2 1 3
node 2 1 1 1
node 3 2 1 1
node 4 1 0 2
node 5 1 0 0
node 23 1 0 0
node 25 1 0 0
gene 3 1 4 0.735115 0 1 0.735115 1
gene 3 2 4 -2.45575 0 2 -2.45575 0
gene 2 3 4 -5.51471 0 3 -5.51471 1
gene 3 2 5 -7.18094 0 4 -7.18094 0
gene 2 5 4 -0.530244 0 5 -0.530244 1
gene 3 2 23 1.08631 0 52 1.08631 1
gene 3 23 5 -5.13199 0 53 -5.13199 1
gene 3 2 25 2.57882 0 60 2.57882 1
gene 3 25 4 5.52132 0 61 5.52132 1
gene 3 1 23 -0.0166326 0 105 -0.0166326 1
gene 1 5 25 -3.03484 0 138 -3.03484 1
gene 2 1 25 -1.39055 0 151 -1.39055 1
genomeend 74

/* Organism #75 Fitness: 4.00004 Error: 1.99999 */
genomestart 75
trait 1 0.1 0 0 0 0 0 0 0 
trait 2 0.2 0 0 0 0 0 0 0 
trait 3 0.3 0 0 0 0 0 0 0 
node 1 2 1 3
node 2 1 1 1
node 3 2 1 1
node 4 1 0 2
node 5 1 0 0
node 23 1 0 0
node 25 1 0 0
gene 3 1 4 -4.70976 0 1 -4.70976 1
gene 3 2 4 -0.151448 0 2 -0.151448 0
gene 2 3 4 -2.81161 0 3 -2.81161 1
gene 3 2 5 -7.08618 0 4 -7.08618 0
gene 2 5 4 1.35183 0 5 1.35183 1
gene 3 2 23 0.996891 0 52 0.996891 1
gene 3 23 5 -1.64899 0 53 -1.64899 1
gene 3 2 25 1.37097 0 60 1.37097 1
gene 3 25 4 7.04343 0 61 7.04343 1
gene 3 1 23 1.65502 0 105 1.65502 1
gene 1 5 25 1.54462 0 138 1.54462 1
gene 2 1 25 -1.51071 0 151 -1.51071 1
genomeend 75

/* Organism #76 Fitness: 8.25916 Error: 1.12613 */
genomestart 76
trait 1 0.1 0 0 0 0 0 0 0 
trait 2 0.2 0 0 0 0 0 0 0 
trait 3 0.3 0 0 0 0 0 0 0 
node 1 2 1 3
node 2 1 1 1
node 3 2 1 1
node 4 1 0 2
node 5 1 0 0
node 23 1 0 0
node 25 1 0 0
node 56 1 0 0
gene 3 1 4 -4.03416 0 1 -4.03416 1
gene 3 2 4 -2.38319 0 2 -2.38319 0
gene 2 3 4 -4.8388 0 3 -4.8388 1
gene 3 2 5 -5.69782 0 4 -5.69782 0
gene 2 5 4 0.308481 0 5 0.308481 1
gene 3 2 23 2.1347 0 52 2.1347 1
gene 3 23 5 -2.94443 0 53 -2.94443 1
gene 3 2 25 3.10832 0 60 3.10832 1
gene 3 25 4 7.27056 0 61 7.27056 0
gene 3 1 23 0.798288 0 105 0.798288 1
gene 1 5 25 -0.601062 0 138 -0.601062 1
gene 2 1 25 -1.51071 0 151 -1.51071 1
gene 3 25 56 1 0 179 0 1
gene 3 56 4 7.27056 0 180 0 1
genomeend 76

/* Organism #77 Fitness: 4 Error: 2 */
genomestart 77
trait 1 0.1 0 0 0 0 0 0 0 
trait 2 0.2 0 0 0 0 0 0 0 
trait 3 0.3 0 0 0 0 0 0 0 
node 1 2 1 3
node 2 1 1 1
node 3 2 1 1
node 4 1 0 2
node 5 1 0 0
node 23 1 0 0
node 25 1 0 0
gene 3 1 4 -4.84046 0 1 -4.84046 1
gene 3 2 4 -2.74865 0 2 -2.74865 0
gene 2 3 4 -5.09997 0 3 -5.09997 1
gene 3 2 5 -3.1232 0 4 -3.1232 0
gene 2 5 4 -1.34753 0 5 -1.34753 1
gene 3 2 23 -1.94617 0 52 -1.94617 1
gene 3 23 5 -2.5071 0 53 -2.5071 1
gene 3 2 25 -0.861766 0 60 -0.861766 1
gene 3 25 4 1.83805 0 61 1.83805 1
gene 3 1 23 0.548647 0 105 0.548647 1
gene 1 5 25 -1.17855 0 138 -1.17855 1
gene 2 1 25 1.58707 0 151 1.58707 1
genomeend 77

/* Organism #78 Fitness: 4 Error: 2 */
genomestart 78
trait 1 0.1 0 0 0 0 0 0 0 
trait 2 0.2 0 0 0 0 0 0 0 
trait 3 0.3 0 0 0 0 0 0 0 
node 1 2 1 3
node 2 1 1 1
node 3 2 1 1
node 4 1 0 2
node 5 1 0 0
node 23 1 0 0
node 25 1 0 0
gene 3 1 4 -4.03416 0 1 -4.03416 1
gene 3 2 4 -2.38319 0 2 -2.38319 0
gene 2 3 4 -6.70936 0 3 -6.70936 1
gene 3 2 5 1.36311 0 4 1.36311 0
gene 2 5 4 0.732002 0 5 0.732002 1
gene 3 2 23 2.1347 0 52 2.1347 1
gene 3 23 5 -4.87373 0 53 -4.87373 1
gene 3 2 25 -0.757317 0 60 -0.757317 1
gene 3 25 4 4.79154 0 61 4.79154 1
gene 3 1 23 -0.931654 0 105 -0.931654 1
gene 1 5 25 -1.33236 0 138 -1.33236 1
gene 2 1 25 -1.04167 0 151 -1.04167 1
genomeend 78

/* Species #11 : (Size 9) (AF 7.38696) (Age 11)  */


/* Organism #79 Fitness: 9 Error: 1 */
genomestart 79
trait 1 0.1 0 0 0 0 0 0 0 
trait 2 0.2 0 0 0 0 0 0 0 
trait 3 0.3 0 0 0 0 0 0 0 
node 1 2 1 3
node 2 1 1 1
node 3 2 1 1
node 4 1 0 2
node 5 1 0 0
node 23 1 0 0
gene 1 1 4 -4.03484 0 1 -4.03484 1
gene 3 2 4 8 0 2 8 1
gene 2 3 4 -8 0 3 -8 1
gene 3 2 5 -2.88142 0 4 -2.88142 0
gene 2 5 4 -0.861072 0 5 -0.861072 1
gene 3 2 23 1.33322 0 52 1.33322 1
gene 1 23 5 -2.56057 0 53 -2.56057 1
gene 1 1 5 -0.491768 0 62 -0.491768 1
genomeend 79

/* Organism #80 Fitness: 2.41969 Error: 2.44446 */
genomestart 80
trait 1 0.1 0 0 0 0 0 0 0 
trait 2 0.2 0 0 0 0 0 0 0 
trait 3 0.3 0 0 0 0 0 0 0 
node 1 2 1 3
node 2 1 1 1
node 3 2 1 1
node 4 1 0 2
node 5 1 0 0
node 23 1 0 0
gene 1 1 4 -5.78737 0 1 -5.78737 1
gene 3 2 4 5.83242 0 2 5.83242 1
gene 2 3 4 1.60329 0 3 1.60329 1
gene 3 2 5 -2.52752 0 4 -2.52752 0
gene 2 5 4 0.363094 0 5 0.363094 1
gene 3 2 23 1.48391 0 52 1.48391 1
gene 1 23 5 -4.17445 0 53 -4.17445 1
gene 1 1 5 -0.0417341 0 62 -0.0417341 1
genomeend 80

/* Organism #81 Fitness: 8.9577 Error: 1.00706 */
genomestart 81
trait 1 0.1 0 0 0 0 0 0 0 
trait 2 0.2 0 0 0 0 0 0 0 
trait 3 0.3 0 0 0 0 0 0 0 
node 1 2 1 3
node 2 1 1 1
node 3 2 1 1
node 4 1 0 2
node 5 1 0 0
node 23 1 0 0
gene 1 1 4 -4.68191 0 1 -4.68191 1
gene 3 2 4 5.6867 0 2 5.6867 1
gene 2 3 4 -7.24818 0 3 -7.24818 1
gene 3 2 5 -1.43277 0 4 -1.43277 0
gene 2 5 4 -2.45345 0 5 -2.45345 1
gene 3 2 23 -0.0652104 0 52 -0.0652104 1
gene 1 23 5 -1.12049 0 53 -1.12049 1
gene 1 1 5 -1.39222 0 62 -1.39222 1
genomeend 81

/* Organism #82 Fitness: 1.10943 Error: 2.94671 */
genomestart 82
trait 1 0.1 0 0 0 0 0 0 0 
trait 2 0.2 0 0 0 0 0 0 0 
trait 3 0.3 0 0 0 0 0 0 0 
node 1 2 1 3
node 2 1 1 1
node 3 2 1 1
node 4 1 0 2
node 5 1 0 0
node 23 1 0 0
gene 1 1 4 1.55919 0 1 1.55919 1
gene 3 2 4 6.40274 0 2 6.40274 1
gene 2 3 4 -7.37651 0 3 -7.37651 1
gene 3 2 5 -2.79295 0 4 -2.79295 0
gene 2 5 4 1.14445 0 5 1.14445 1
gene 3 2 23 3.56993 0 52 3.56993 1
gene 1 23 5 -4.35997 0 53 -4.35997 1
gene 1 1 5 1.7058 0 62 1.7058 1
genomeend 82

/* Organism #83 Fitness: 8.99999 Error: 1 */
genomestart 83
trait 1 0.1 0 0 0 0 0 0 0 
trait 2 0.2 0 0 0 0 0 0 0 
trait 3 0.3 0 0 0 0 0 0 0 
node 1 2 1 3
node 2 1 1 1
node 3 2 1 1
node 4 1 0 2
node 5 1 0 0
node 23 1 0 0
gene 1 1 4 -2.81784 0 1 -2.81784 1
gene 3 2 4 8 0 2 8 1
gene 2 3 4 -8 0 3 -8 1
gene 3 2 5 -0.985591 0 4 -0.985591 0
gene 3 5 4 -3.51084 0 5 -3.51084 1
gene 3 2 23 3.22987 0 52 3.22987 1
gene 1 23 5 -1.92425 0 53 -1.92425 1
gene 1 1 5 -0.436415 0 62 -0.436415 1
genomeend 83

/* Organism #84 Fitness: 9 Error: 1 */
genomestart 84
trait 1 0.1 0 0 0 0 0 0 0 
trait 2 0.2 0 0 0 0 0 0 0 
trait 3 0.3 0 0 0 0 0 0 0 
node 1 2 1 3
node 2 1 1 1
node 3 2 1 1
node 4 1 0 2
node 5 1 0 0
node 23 1 0 0
gene 1 1 4 -3.50932 0 1 -3.50932 1
gene 3 2 4 7.76524 0 2 7.76524 1
gene 2 3 4 -7.2523 0 3 -7.2523 1
gene 3 2 5 -2.39608 0 4 -2.39608 0
gene 2 5 4 -0.478519 0 5 -0.478519 1
gene 3 2 23 2.60417 0 52 2.60417 1
gene 1 23 5 -4.10602 0 53 -4.10602 1
gene 1 1 5 0.905313 0 62 0.905313 1
genomeend 84

/* Organism #85 Fitness: 9 Error: 1 */
genomestart 85
trait 1 0.1 0 0 0 0 0 0 0 
trait 2 0.2 0 0 0 0 0 0 0 
trait 3 0.3 0 0 0 0 0 0 0 
node 1 2 1 3
node 2 1 1 1
node 3 2 1 1
node 4 1 0 2
node 5 1 0 0
node 23 1 0 0
gene 1 1 4 -4.03484 0 1 -4.03484 1
gene 3 2 4 8 0 2 8 1
gene 2 3 4 -8 0 3 -8 1
gene 3 2 5 -2.52752 0 4 -2.52752 0
gene 2 5 4 -0.861072 0 5 -0.861072 1
gene 3 2 23 1.33322 0 52 1.33322 1
gene 1 23 5 -2.56057 0 53 -2.56057 1
gene 1 1 5 -0.511872 0 62 -0.511872 1
gene 3 3 5 0.670186 0 181 0.670186 1
genomeend 85

/* Organism #86 Fitness: 8.99968 Error: 1.00005 */
genomestart 86
trait 1 0.1 0 0 0 0 0 0 0 
trait 2 0.2 0 0 0 0 0 0 0 
trait 3 0.3 0 0 0 0 0 0 0 
node 1 2 1 3
node 2 1 1 1
node 3 2 1 1
node 4 1 0 2
node 5 1 0 0
node 23 1 0 0
gene 1 1 4 -4.05399 0 1 -4.05399 1
gene 3 2 4 6.06314 0 2 6.06314 1
gene 2 3 4 -8 0 3 -8 1
gene 3 2 5 -1.81127 0 4 -1.81127 1
gene 2 5 4 2.06771 0 5 2.06771 1
gene 3 2 23 2.20201 0 52 2.20201 1
gene 1 23 5 0.701697 0 53 0.701697 1
gene 1 1 5 -0.117897 0 62 -0.117897 1
genomeend 86

/* Organism #87 Fitness: 8.99615 Error: 1.00064 */
genomestart 87
trait 1 0.1 0 0 0 0 0 0 0 
trait 2 0.2 0 0 0 0 0 0 0 
trait 3 0.3 0 0 0 0 0 0 0 
node 1 2 1 3
node 2 1 1 1
node 3 2 1 1
node 4 1 0 2
node 5 1 0 0
node 23 1 0 0
gene 1 1 4 -6.50707 0 1 -6.50707 1
gene 3 2 4 8 0 2 8 1
gene 2 3 4 -5.92138 0 3 -5.92138 1
gene 3 2 5 -0.499708 0 4 -0.499708 1
gene 2 5 4 0.940895 0 5 0.940895 1
gene 3 2 23 3.57679 0 52 3.57679 1
gene 1 23 5 -3.49638 0 53 -3.49638 1
gene 1 1 5 -2.6778 0 62 -2.6778 1
genomeend 87

/* Species #12 : (Size 6) (AF 7.71772) (Age 11)  */


/* Organism #88 Fitness: 9 Error: 1 */
genomestart 88
trait 1 0.1 0 0 0 0 0 0 0 
trait 2 0.1 0 0 0 0.134007 0 0.0903195 0.468902 
trait 3 0.3 0 0 0 0 0 0 0 
node 1 2 1 3
node 2 1 1 1
node 3 2 1 1
node 4 1 0 2
node 5 1 0 0
node 23 1 0 0
node 26 1 0 0
gene 3 1 4 -4.77802 0 1 -4.77802 1
gene 3 2 4 7.44924 0 2 7.44924 1
gene 2 3 4 -8 0 3 -8 1
gene 3 2 5 -0.201834 0 4 -0.201834 0
gene 2 5 4 1.93285 0 5 1.93285 0
gene 3 2 23 -2.26471 0 52 -2.26471 1
gene 3 23 5 -4.02449 0 53 -4.02449 1
gene 2 5 26 3.5367 0 63 3.5367 1
gene 2 26 4 1.41894 0 64 1.41894 1
genomeend 88

/* Organism #89 Fitness: 1.31184 Error: 2.85465 */
genomestart 89
trait 1 0.1 0 0 0 0 0 0 0 
trait 2 0.175 0 0 0 0.0335017 0 0.0225799 0.117225 
trait 3 0.3 0 0 0 0 0 0 0 
node 1 2 1 3
node 2 3 1 1
node 3 2 1 1
node 4 1 0 2
node 5 1 0 0
node 23 1 0 0
node 26 1 0 0
gene 3 1 4 1.36212 0 1 1.36212 1
gene 3 2 4 6.2988 0 2 6.2988 1
gene 2 3 4 -7.80609 0 3 -7.80609 1
gene 3 2 5 4.56468 0 4 4.56468 0
gene 2 5 4 2.7384 0 5 2.7384 0
gene 3 2 23 0.350276 0 52 0.350276 1
gene 3 23 5 -4.57077 0 53 -4.57077 1
gene 2 5 26 3.1794 0 63 3.1794 1
gene 2 26 4 1.0102 0 64 1.0102 1
genomeend 89

/* Organism #90 Fitness: 9 Error: 1 */
genomestart 90
trait 1 0.1 0 0 0 0 0 0 0 
trait 2 0.2 0 0 0 0 0 0 0 
trait 3 0.3 0 0 0 0 0 0 0 
node 1 2 1 3
node 2 3 1 1
node 3 2 1 1
node 4 1 0 2
node 5 1 0 0
node 23 1 0 0
node 26 1 0 0
node 57 1 0 0
gene 3 1 4 -3.11717 0 1 -3.11717 1
gene 3 2 4 7.57167 0 2 7.57167 1
gene 2 3 4 -7.95247 0 3 -7.95247 1
gene 3 2 5 2.44296 0 4 2.44296 0
gene 2 5 4 0.645444 0 5 0.645444 1
gene 3 2 23 2.62322 0 52 2.62322 1
gene 3 23 5 -4.31976 0 53 -4.31976 0
gene 2 5 26 2.68523 0 63 2.68523 1
gene 2 26 4 -1.60099 0 64 -1.60099 1
gene 3 23 57 1 0 182 0 1
gene 3 57 5 -4.31976 0 183 0 1
genomeend 90

/* Organism #91 Fitness: 9 Error: 1 */
genomestart 91
trait 1 0.1 0 0 0 0 0 0 0 
trait 2 0.15 0 0 0 0.0670034 0 0.0451598 0.234451 
trait 3 0.3 0 0 0 0 0 0 0 
node 1 2 1 3
node 2 1 1 1
node 3 2 1 1
node 4 1 0 2
node 5 1 0 0
node 23 1 0 0
node 26 1 0 0
node 57 1 0 0
gene 3 1 4 -4.84781 0 1 -4.84781 1
gene 3 2 4 7.72462 0 2 7.72462 1
gene 2 3 4 -7.80609 0 3 -7.80609 1
gene 3 2 5 1.14517 0 4 1.14517 0
gene 2 5 4 0.551132 0 5 0.551132 0
gene 3 2 23 -1.0593 0 52 -1.0593 1
gene 3 23 5 -4.63692 0 53 -4.63692 0
gene 2 5 26 3.11097 0 63 3.11097 1
gene 2 26 4 1.0102 0 64 1.0102 1
gene 3 23 57 1 0 182 0 1
gene 3 57 5 -4.63692 0 183 0 1
genomeend 91

/* Organism #92 Fitness: 9 Error: 1 */
genomestart 92
trait 1 0.1 0 0 0 0 0 0 0 
trait 2 0.2 0 0 0 0 0 0 0 
trait 3 0.3 0 0 0 0 0 0 0 
node 1 2 1 3
node 2 3 1 1
node 3 2 1 1
node 4 1 0 2
node 5 1 0 0
node 23 1 0 0
node 26 1 0 0
gene 3 1 4 -3.11717 0 1 -3.11717 1
gene 3 2 4 7.57167 0 2 7.57167 1
gene 2 3 4 -7.95247 0 3 -7.95247 1
gene 3 2 5 2.44296 0 4 2.44296 0
gene 2 5 4 0.645444 0 5 0.645444 0
gene 3 2 23 2.62322 0 52 2.62322 1
gene 3 23 5 -4.31976 0 53 -4.31976 1
gene 2 5 26 2.68523 0 63 2.68523 1
gene 2 26 4 -1.60099 0 64 -1.60099 1
gene 3 2 26 0.383251 0 184 0.383251 1
genomeend 92

/* Organism #93 Fitness: 8.9945 Error: 1.00092 */
genomestart 93
trait 1 0.1 0 0 0 0 0 0 0 
trait 2 0.125 0 0 0 0.100505 0 0.0677396 0.351676 
trait 3 0.3 0 0 0 0 0 0 0 
node 1 2 1 3
node 2 1 1 1
node 3 2 1 1
node 4 1 0 2
node 5 1 0 0
node 23 1 0 0
node 26 1 0 0
gene 3 1 4 -5.20607 0 1 -5.20607 1
gene 3 2 4 6.3713 0 2 6.3713 1
gene 2 3 4 -5.71975 0 3 -5.71975 1
gene 3 2 5 -1.13757 0 4 -1.13757 1
gene 2 5 4 1.1705 0 5 1.1705 0
gene 3 2 23 -2.71237 0 52 -2.71237 1
gene 3 23 5 -5.64758 0 53 -5.64758 1
gene 2 5 26 2.17328 0 63 2.17328 1
gene 2 26 4 0.500509 0 64 0.500509 1
genomeend 93

/* Species #14 : (Size 6) (AF 6.04556) (Age 7)  */


/* Organism #94 Fitness: 8.13975 Error: 1.14698 */
genomestart 94
trait 1 0.1 0 0 0 0 0 0 0 
trait 2 0.2 0 0 0 0 0 0 0 
trait 3 0.3 0 0 0 0 0 0 0 
node 1 2 1 3
node 2 1 1 1
node 3 2 1 1
node 4 1 0 2
node 5 1 0 0
gene 3 1 4 3.40907 0 1 3.40907 1
gene 3 2 4 -2.93054 0 2 -2.93054 1
gene 2 3 4 -1.0358 0 3 -1.0358 1
gene 3 2 5 -5.35821 0 4 -5.35821 1
gene 2 5 4 1.52806 0 5 1.52806 1
gene 2 1 5 2.46226 0 85 2.46226 1
genomeend 94

/* Organism #95 Fitness: 8.90924 Error: 1.01517 */
genomestart 95
trait 1 0.1 0 0 0 0 0 0 0 
trait 2 0.2 0 0 0 0 0 0 0 
trait 3 0.3 0 0 0 0 0 0 0 
node 1 2 1 3
node 2 1 1 1
node 3 2 1 1
node 4 1 0 2
node 5 1 0 0
gene 3 1 4 5.47426 0 1 5.47426 1
gene 3 2 4 -3.52763 0 2 -3.52763 1
gene 2 3 4 -2.79664 0 3 -2.79664 1
gene 3 2 5 -5.29092 0 4 -5.29092 1
gene 2 5 4 -0.836055 0 5 -0.836055 1
gene 2 1 5 3.21592 0 85 3.21592 1
genomeend 95

/* Organism #96 Fitness: 6.23324 Error: 1.50335 */
genomestart 96
trait 1 0.1 0 0 0 0 0 0 0 
trait 2 0.2 0 0 0 0 0 0 0 
trait 3 0.3 0 0 0 0 0 0 0 
node 1 2 1 3
node 2 1 1 1
node 3 2 1 1
node 4 1 0 2
node 5 1 0 0
gene 3 1 4 1.53951 0 1 1.53951 1
gene 3 2 4 0.539415 0 2 0.539415 1
gene 2 3 4 -0.791459 0 3 -0.791459 1
gene 2 2 5 0.82461 0 4 0.82461 1
gene 2 5 4 -1.96223 0 5 -1.96223 1
gene 2 1 5 2.26256 0 85 2.26256 1
genomeend 96

/* Organism #97 Fitness: 4 Error: 2 */
genomestart 97
trait 1 0.1 0 0 0 0 0 0 0 
trait 2 0.2 0 0 0 0 0 0 0 
trait 3 0.3 0 0 0 0 0 0 0 
node 1 2 1 3
node 2 1 1 1
node 3 2 1 1
node 4 1 0 2
node 5 1 0 0
gene 3 1 4 2.68662 0 1 2.68662 1
gene 3 2 4 -3.36337 0 2 -3.36337 1
gene 2 3 4 1.16367 0 3 1.16367 1
gene 3 2 5 1.07631 0 4 1.07631 1
gene 2 5 4 3.95245 0 5 3.95245 1
gene 2 1 5 1.20818 0 85 1.20818 1
genomeend 97

/* Organism #98 Fitness: 3.9848 Error: 2.0038 */
genomestart 98
trait 1 0.1 0 0 0 0 0 0 0 
trait 2 0.2 0 0 0 0 0 0 0 
trait 3 0.3 0 0 0 0 0 0 0 
node 1 2 1 3
node 2 1 1 1
node 3 2 1 1
node 4 1 0 2
node 5 1 0 0
gene 3 1 4 3.8036 0 1 3.8036 1
gene 3 2 4 -3.3195 0 2 -3.3195 1
gene 2 3 4 0.171819 0 3 0.171819 1
gene 3 2 5 -4.991 0 4 -4.991 1
gene 2 5 4 1.59032 0 5 1.59032 1
gene 2 1 5 4.8511 0 85 4.8511 1
genomeend 98

/* Organism #99 Fitness: 5.00636 Error: 1.76251 */
genomestart 99
trait 1 0.1 0 0 0 0 0 0 0 
trait 2 0.2 0 0 0 0 0 0 0 
trait 3 0.3 0 0 0 0 0 0 0 
node 1 2 1 3
node 2 1 1 1
node 3 2 1 1
node 4 1 0 2
node 5 1 0 0
gene 3 1 4 2.47429 0 1 2.47429 1
gene 3 2 4 -1.19556 0 2 -1.19556 1
gene 2 3 4 -0.913629 0 3 -0.913629 1
gene 3 2 5 -2.2668 0 4 -2.2668 1
gene 2 5 4 -0.217082 0 5 -0.217082 1
gene 2 1 5 2.36241 0 85 2.36241 1
genomeend 99

/* Species #15 : (Size 9) (AF 7.29559) (Age 7)  */


/* Organism #100 Fitness: 8.99998 Error: 1 */
genomestart 100
trait 1 0.1 0 0 0 0 0 0 0 
trait 2 0.2 0 0 0 0 0 0 0 
trait 3 0.3 0 0 0 0 0 0 0 
node 1 2 1 3
node 2 1 1 1
node 3 2 1 1
node 4 1 0 2
node 5 1 0 0
node 23 1 0 0
node 40 2 0 0
gene 1 1 4 -3.04391 0 1 -3.04391 1
gene 3 2 4 6.05268 0 2 6.05268 1
gene 2 3 4 -5.57073 0 3 -5.57073 1
gene 3 2 5 3.89782 0 4 3.89782 1
gene 2 5 4 -2.27445 0 5 -2.27445 0
gene 3 2 23 -1.73137 0 52 -1.73137 1
gene 3 23 5 -8 0 53 -8 1
gene 1 1 5 -4.23831 0 62 -4.23831 1
gene 2 5 40 1.31039 0 119 1.31039 1
gene 2 40 4 -0.0602588 0 120 -0.0602588 1
genomeend 100

/* Organism #101 Fitness: 8.92031 Error: 1.01331 */
genomestart 101
trait 1 0.1 0 0 0 0 0 0 0 
trait 2 0.2 0 0 0 0 0 0 0 
trait 3 0.3 0 0 0 0 0 0 0 
node 1 2 1 3
node 2 1 1 1
node 3 2 1 1
node 4 1 0 2
node 5 1 0 0
node 23 1 0 0
node 40 2 0 0
gene 1 1 4 -4.17439 0 1 -4.17439 1
gene 3 2 4 7.66498 0 2 7.66498 1
gene 2 3 4 -3.82751 0 3 -3.82751 1
gene 3 2 5 5.94752 0 4 5.94752 1
gene 2 5 4 -0.335765 0 5 -0.335765 1
gene 3 2 23 -0.579676 0 52 -0.579676 1
gene 3 23 5 -8 0 53 -8 1
gene 1 1 5 -5.87471 0 62 -5.87471 1
gene 2 5 40 3.21825 0 119 3.21825 1
gene 2 40 4 -0.539628 0 120 -0.539628 1
genomeend 101

/* Organism #102 Fitness: 4 Error: 2 */
genomestart 102
trait 1 0.1 0 0 0 0 0 0 0 
trait 2 0.2 0 0 0 0 0 0 0 
trait 3 0.3 0 0 0 0 0 0 0 
node 1 2 1 3
node 2 1 1 1
node 3 2 1 1
node 4 1 0 2
node 5 1 0 0
node 23 1 0 0
node 40 2 0 0
gene 1 1 4 -6.00405 0 1 -6.00405 1
gene 3 2 4 0.649129 0 2 0.649129 1
gene 2 3 4 -8 0 3 -8 1
gene 1 2 5 1.07784 0 4 1.07784 1
gene 2 5 4 -3.13363 0 5 -3.13363 0
gene 3 2 23 -5.26572 0 52 -5.26572 1
gene 3 23 5 -8 0 53 -8 1
gene 1 1 5 -0.0305719 0 62 -0.0305719 1
gene 2 5 40 -1.51296 0 119 -1.51296 1
gene 2 40 4 2.0645 0 120 2.0645 1
gene 3 3 23 -0.007828 0 161 -0.007828 1
genomeend 102

/* Organism #103 Fitness: 3.88811 Error: 2.02817 */
genomestart 103
trait 1 0.1 0 0 0 0 0 0 0 
trait 2 0.2 0 0 0 0 0 0 0 
trait 3 0.3 0 0.262307 0 0.593524 0.687155 0.976745 0.861019 
node 1 2 1 3
node 2 1 1 1
node 3 2 1 1
node 4 1 0 2
node 5 1 0 0
node 23 1 0 0
node 40 2 0 0
gene 1 1 4 -0.975211 0 1 -0.975211 1
gene 3 2 4 -1.66005 0 2 -1.66005 1
gene 2 3 4 -3.70856 0 3 -3.70856 1
gene 3 2 5 2.34931 0 4 2.34931 1
gene 2 5 4 -2.65494 0 5 -2.65494 0
gene 3 2 23 -3.2412 0 52 -3.2412 1
gene 3 23 5 1.53394 0 53 1.53394 1
gene 1 1 5 -4.94993 0 62 -4.94993 1
gene 2 5 40 1.58948 0 119 1.58948 1
gene 2 40 4 0.512421 0 120 0.512421 1
genomeend 103

/* Organism #104 Fitness: 8.95872 Error: 1.00689 */
genomestart 104
trait 1 0.1 0 0 0 0 0 0 0 
trait 2 0.2 0 0 0 0 0 0 0 
trait 3 0.3 0 0 0 0 0 0 0 
node 1 2 1 3
node 2 1 1 1
node 3 2 1 1
node 4 1 0 2
node 5 1 0 0
node 23 1 0 0
node 40 2 0 0
gene 1 1 4 -5.42519 0 1 -5.42519 1
gene 3 2 4 6.4347 0 2 6.4347 1
gene 2 3 4 -8 0 3 -8 1
gene 2 2 5 2.83242 0 4 2.83242 1
gene 2 5 4 -3.6793 0 5 -3.6793 0
gene 3 2 23 -4.56059 0 52 -4.56059 1
gene 3 23 5 -6.92155 0 53 -6.92155 1
gene 1 1 5 1.13791 0 62 1.13791 1
gene 2 5 40 -2.51343 0 119 -2.51343 1
gene 2 40 4 -1.41675 0 120 -1.41675 1
gene 3 3 23 -1.75677 0 161 -1.75677 1
genomeend 104

/* Organism #105 Fitness: 3.89448 Error: 2.02656 */
genomestart 105
trait 1 0.1 0 0 0 0 0 0 0 
trait 2 0.2 0 0 0 0 0 0 0 
trait 3 0.3 0 0 0 0 0 0 0 
node 1 2 1 3
node 2 1 1 1
node 3 2 1 1
node 4 1 0 2
node 5 1 0 0
node 23 1 0 0
node 40 2 0 0
gene 1 1 4 -2.37082 0 1 -2.37082 1
gene 3 2 4 5.15475 0 2 5.15475 1
gene 2 3 4 -6.60469 0 3 -6.60469 1
gene 1 2 5 3.62957 0 4 3.62957 1
gene 2 5 4 -3.91086 0 5 -3.91086 1
gene 3 2 23 -4.24243 0 52 -4.24243 1
gene 3 23 5 -7.60944 0 53 -7.60944 1
gene 1 1 5 -0.82535 0 62 -0.82535 1
gene 2 5 40 -2.49405 0 119 -2.49405 1
gene 2 40 4 3.33583 0 120 3.33583 1
gene 3 3 23 -2.40368 0 161 -2.40368 1
genomeend 105

/* Organism #106 Fitness: 9 Error: 1 */
genomestart 106
trait 1 0.1 0 0 0 0 0 0 0 
trait 2 0.2 0 0 0 0 0 0 0 
trait 3 0.3 0 0 0 0 0 0 0 
node 1 2 1 3
node 2 1 1 1
node 3 2 1 1
node 4 1 0 2
node 5 1 0 0
node 23 1 0 0
node 40 2 0 0
gene 1 1 4 -3.04391 0 1 -3.04391 1
gene 3 2 4 6.32292 0 2 6.32292 1
gene 2 3 4 -8 0 3 -8 1
gene 1 2 5 3.67084 0 4 3.67084 1
gene 2 5 4 -2.21288 0 5 -2.21288 0
gene 3 2 23 -4.70914 0 52 -4.70914 1
gene 3 23 5 -7.83802 0 53 -7.83802 1
gene 1 1 5 -0.627819 0 62 -0.627819 1
gene 2 5 40 0.132832 0 119 0.132832 1
gene 2 40 4 0.225547 0 120 0.225547 1
genomeend 106

/* Organism #107 Fitness: 8.99908 Error: 1.00015 */
genomestart 107
trait 1 0.1 0 0 0 0 0 0 0 
trait 2 0.2 0 0 0 0 0 0 0 
trait 3 0.3 0 0 0 0 0 0 0 
node 1 2 1 3
node 2 1 1 1
node 3 2 1 1
node 4 1 0 2
node 5 1 0 0
node 23 1 0 0
node 40 2 0 0
gene 1 1 4 -4.44402 0 1 -4.44402 1
gene 3 2 4 6.28874 0 2 6.28874 1
gene 2 3 4 -5.57073 0 3 -5.57073 1
gene 1 2 5 2.32093 0 4 2.32093 1
gene 2 5 4 -2.14193 0 5 -2.14193 0
gene 3 2 23 -3.47642 0 52 -3.47642 1
gene 3 23 5 -8 0 53 -8 1
gene 1 1 5 -0.627819 0 62 -0.627819 1
gene 2 5 40 1.31039 0 119 1.31039 1
gene 2 40 4 -0.0602588 0 120 -0.0602588 1
genomeend 107

/* Organism #108 Fitness: 8.99963 Error: 1.00006 */
genomestart 108
trait 1 0.1 0 0 0 0 0 0 0 
trait 2 0.2 0 0 0 0 0 0 0 
trait 3 0.3 0 0 0 0 0 0 0 
node 1 2 1 3
node 2 1 1 1
node 3 2 1 1
node 4 1 0 2
node 5 1 0 0
node 23 1 0 0
node 40 2 0 0
gene 1 1 4 -4.44402 0 1 -4.44402 1
gene 3 2 4 6.28874 0 2 6.28874 1
gene 2 3 4 -7.74052 0 3 -7.74052 1
gene 1 2 5 2.32093 0 4 2.32093 1
gene 2 5 4 -2.14193 0 5 -2.14193 0
gene 3 2 23 -3.47642 0 52 -3.47642 1
gene 3 23 5 -8 0 53 -8 1
gene 1 1 5 -0.627819 0 62 -0.627819 1
gene 2 5 40 -0.545747 0 119 -0.545747 1
gene 2 40 4 1.90481 0 120 1.90481 1
gene 3 3 23 0.0200201 0 161 0.0200201 1
genomeend 108

/* Species #16 : (Size 8) (AF 8.66295) (Age 6)  */


/* Organism #109 Fitness: 9 Error: 1 */
genomestart 109
trait 1 0.1 0 0 0 0 0 0 0 
trait 2 0.214477 0.00791955 0 0.0165506 0 0 0.00362407 0 
trait 3 0.3 0 0 0 0 0 0 0 
node 1 2 1 3
node 2 2 1 1
node 3 2 1 1
node 4 2 0 2
node 5 1 0 0
node 15 1 0 0
node 18 1 0 0
node 43 1 0 0
gene 3 1 4 -2.7426 0 1 -2.7426 1
gene 3 2 4 7.08678 0 2 7.08678 1
gene 2 3 4 -7.71098 0 3 -7.71098 1
gene 2 2 5 3.21459 0 4 3.21459 0
gene 2 5 4 -1.50848 0 5 -1.50848 0
gene 2 2 15 -0.881947 0 31 -0.881947 0
gene 2 15 5 -1.74154 0 32 -1.74154 1
gene 2 2 18 -0.499508 0 38 -0.499508 1
gene 2 18 15 7.77337 0 39 7.77337 1
gene 2 1 18 0.641324 0 115 0.641324 1
gene 2 5 43 2.90657 0 127 2.90657 1
gene 2 43 4 -1.50941 0 128 -1.50941 1
genomeend 109

/* Organism #110 Fitness: 8.97434 Error: 1.00428 */
genomestart 110
trait 1 0.1 0 0 0 0 0 0 0 
trait 2 0.214477 0.00791955 0 0.0165506 0 0 0.00362407 0 
trait 3 0.23054 0 0 0 0 0 0 0 
node 1 2 1 3
node 2 2 1 1
node 3 2 1 1
node 4 2 0 2
node 5 1 0 0
node 15 1 0 0
node 18 1 0 0
node 43 1 0 0
gene 3 1 4 -2.7426 0 1 -2.7426 1
gene 3 2 4 5.17197 0 2 5.17197 1
gene 2 3 4 -6.7295 0 3 -6.7295 1
gene 2 2 5 3.09847 0 4 3.09847 0
gene 2 5 4 0.631329 0 5 0.631329 0
gene 2 2 15 -0.979644 0 31 -0.979644 0
gene 2 15 5 0.818354 0 32 0.818354 1
gene 2 2 18 0.860702 0 38 0.860702 1
gene 2 18 15 6.30284 0 39 6.30284 1
gene 2 1 18 -0.193945 0 115 -0.193945 1
gene 2 5 43 2.90657 0 127 2.90657 1
gene 2 43 4 -1.32271 0 128 -1.32271 1
genomeend 110

/* Organism #111 Fitness: 9 Error: 1 */
genomestart 111
trait 1 0.1 0 0 0 0 0 0 0 
trait 2 0.214477 0.00791955 0 0.0165506 0 0 0.00362407 0 
trait 3 0.3 0 0 0 0 0 0 0 
node 1 2 1 3
node 2 2 1 1
node 3 2 1 1
node 4 2 0 2
node 5 1 0 0
node 15 1 0 0
node 18 1 0 0
node 43 1 0 0
gene 3 1 4 -3.24875 0 1 -3.24875 1
gene 3 2 4 7.35046 0 2 7.35046 1
gene 2 3 4 -7.85549 0 3 -7.85549 1
gene 2 2 5 3.02049 0 4 3.02049 0
gene 2 5 4 -0.567324 0 5 -0.567324 0
gene 2 2 15 -1.32115 0 31 -1.32115 0
gene 2 15 5 -1.4901 0 32 -1.4901 1
gene 2 2 18 0.639443 0 38 0.639443 1
gene 2 18 15 7.43908 0 39 7.43908 1
gene 2 1 18 0.553964 0 115 0.553964 1
gene 2 5 43 1.11232 0 127 1.11232 1
gene 2 43 4 -1.50941 0 128 -1.50941 1
genomeend 111

/* Organism #112 Fitness: 8.99998 Error: 1 */
genomestart 112
trait 1 0.1 0 0 0 0 0 0 0 
trait 2 0.214477 0.00791955 0 0.0165506 0 0 0.00362407 0 
trait 3 0.3 0 0 0 0 0 0 0 
node 1 2 1 3
node 2 2 1 1
node 3 2 1 1
node 4 2 0 2
node 5 1 0 0
node 15 1 0 0
node 18 1 0 0
node 43 1 0 0
gene 3 1 4 -3.24875 0 1 -3.24875 1
gene 3 2 4 7.35046 0 2 7.35046 1
gene 2 3 4 -7.85549 0 3 -7.85549 1
gene 2 2 5 3.02049 0 4 3.02049 1
gene 2 5 4 -0.567324 0 5 -0.567324 0
gene 2 2 15 -1.32115 0 31 -1.32115 0
gene 2 15 5 -1.4901 0 32 -1.4901 1
gene 2 2 18 0.639443 0 38 0.639443 1
gene 2 18 15 7.43908 0 39 7.43908 1
gene 2 1 18 0.553964 0 115 0.553964 1
gene 2 5 43 1.11232 0 127 1.11232 1
gene 2 43 4 -1.50941 0 128 -1.50941 1
genomeend 112

/* Organism #113 Fitness: 6.32941 Error: 1.48417 */
genomestart 113
trait 1 0.1 0 0 0 0 0 0 0 
trait 2 0.214477 0.00791955 0 0.0165506 0 0 0.00362407 0 
trait 3 0.3 0 0 0 0 0 0 0 
node 1 2 1 3
node 2 2 1 1
node 3 2 1 1
node 4 2 0 2
node 5 1 0 0
node 15 1 0 0
node 18 1 0 0
node 43 1 0 0
gene 3 1 4 -4.14424 0 1 -4.14424 1
gene 3 2 4 5.2221 0 2 5.2221 1
gene 2 3 4 -5.36174 0 3 -5.36174 1
gene 2 2 5 2.4868 0 4 2.4868 0
gene 2 5 4 -1.75003 0 5 -1.75003 0
gene 2 2 15 1.32164 0 31 1.32164 0
gene 2 15 5 -0.554979 0 32 -0.554979 1
gene 2 2 18 1.02573 0 38 1.02573 1
gene 2 18 15 7.56401 0 39 7.56401 1
gene 2 1 18 3.13835 0 115 3.13835 1
gene 2 5 43 2.90657 0 127 2.90657 1
gene 3 43 4 -1.50941 0 128 -1.50941 1
genomeend 113

/* Organism #114 Fitness: 9 Error: 1 */
genomestart 114
trait 1 0.1 0 0 0 0 0 0 0 
trait 2 0.214477 0.00791955 0 0.0165506 0 0 0.00362407 0 
trait 3 0.3 0 0 0 0 0 0 0 
node 1 2 1 3
node 2 2 1 1
node 3 2 1 1
node 4 2 0 2
node 5 1 0 0
node 15 1 0 0
node 18 1 0 0
node 43 1 0 0
gene 3 1 4 -4.88569 0 1 -4.88569 1
gene 3 2 4 7.61414 0 2 7.61414 1
gene 2 3 4 -8 0 3 -8 1
gene 2 2 5 2.21824 0 4 2.21824 1
gene 2 5 4 2.36051 0 5 2.36051 1
gene 2 2 15 0.527169 0 31 0.527169 0
gene 2 15 5 1.06601 0 32 1.06601 1
gene 2 2 18 -1.93335 0 38 -1.93335 1
gene 2 18 15 2.07373 0 39 2.07373 1
gene 2 1 18 2.44377 0 115 2.44377 1
gene 2 5 43 -0.121616 0 127 -0.121616 1
gene 2 43 4 -1.52925 0 128 -1.52925 1
genomeend 114

/* Organism #115 Fitness: 8.99986 Error: 1.00002 */
genomestart 115
trait 1 0.1 0 0 0 0 0 0 0 
trait 2 0.214477 0.00791955 0 0.0165506 0 0 0.00362407 0 
trait 3 0.3 0 0 0 0 0 0 0 
node 1 2 1 3
node 2 2 1 1
node 3 2 1 1
node 4 2 0 2
node 5 1 0 0
node 15 1 0 0
node 18 1 0 0
node 43 1 0 0
gene 3 1 4 -0.292596 0 1 -0.292596 1
gene 3 2 4 7.92901 0 2 7.92901 1
gene 2 3 4 -8 0 3 -8 1
gene 2 2 5 3.21459 0 4 3.21459 0
gene 2 5 4 -2.76988 0 5 -2.76988 0
gene 2 2 15 -0.881947 0 31 -0.881947 0
gene 2 15 5 0.133213 0 32 0.133213 1
gene 2 2 18 0.929216 0 38 0.929216 1
gene 1 18 15 8 0 39 8 1
gene 2 1 18 2.12531 0 115 2.12531 1
gene 2 5 43 0.502319 0 127 0.502319 1
gene 2 43 4 -2.37171 0 128 -2.37171 1
genomeend 115

/* Organism #116 Fitness: 9 Error: 1 */
genomestart 116
trait 1 0.1 0 0 0 0 0 0 0 
trait 2 0.214477 0.00791955 0 0.0165506 0 0 0.00362407 0 
trait 3 0.3 0 0 0 0 0 0 0 
node 1 2 1 3
node 2 2 1 1
node 3 2 1 1
node 4 2 0 2
node 5 1 0 0
node 15 1 0 0
node 18 1 0 0
node 43 1 0 0
gene 3 1 4 -3.3883 0 1 -3.3883 1
gene 3 2 4 6.19861 0 2 6.19861 1
gene 2 3 4 -8 0 3 -8 1
gene 2 2 5 0.16892 0 4 0.16892 1
gene 2 5 4 1.51671 0 5 1.51671 0
gene 2 2 15 -2.6841 0 31 -2.6841 0
gene 2 15 5 -1.56793 0 32 -1.56793 1
gene 2 2 18 0.900983 0 38 0.900983 1
gene 2 18 15 6.38085 0 39 6.38085 1
gene 2 1 18 2.39331 0 115 2.39331 1
gene 2 5 43 2.15475 0 127 2.15475 1
gene 2 43 4 0.184137 0 128 0.184137 1
genomeend 116

/* Species #18 : (Size 7) (AF 7.06146) (Age 5)  */


/* Organism #117 Fitness: 8.99925 Error: 1.00012 */
genomestart 117
trait 1 0.1 0 0 0 0 0 0 0 
trait 2 0.2 0 0 0 0 0 0 0 
trait 3 0.3 0 0 0 0 0 0 0 
node 1 2 1 3
node 2 1 1 1
node 3 2 1 1
node 4 1 0 2
node 5 1 0 0
node 23 1 0 0
node 46 1 0 0
gene 3 1 4 -2.07113 0 1 -2.07113 1
gene 3 2 4 8 0 2 8 1
gene 2 3 4 -8 0 3 -8 0
gene 3 2 5 -0.389088 0 4 -0.389088 0
gene 2 5 4 1.21809 0 5 1.21809 1
gene 3 2 23 1.1484 0 52 1.1484 1
gene 3 23 5 -4.92063 0 53 -4.92063 1
gene 1 1 5 1.10431 0 62 1.10431 1
gene 2 3 5 1.72259 0 86 1.72259 1
gene 2 3 46 1 0 139 1 1
gene 2 46 4 -8 0 140 -8 1
genomeend 117

/* Organism #118 Fitness: 4.00006 Error: 1.99999 */
genomestart 118
trait 1 0.1 0 0 0 0 0 0 0 
trait 2 0.2 0 0 0 0 0 0 0 
trait 3 0.3 0 0 0 0 0 0 0 
node 1 2 1 3
node 2 1 1 1
node 3 2 1 1
node 4 1 0 2
node 5 1 0 0
node 23 1 0 0
node 46 1 0 0
gene 3 1 4 2.24899 0 1 2.24899 1
gene 3 2 4 1.3036 0 2 1.3036 1
gene 2 3 4 -7.66063 0 3 -7.66063 0
gene 3 2 5 1.53882 0 4 1.53882 0
gene 2 5 4 -0.833369 0 5 -0.833369 1
gene 3 2 23 1.34272 0 52 1.34272 1
gene 3 23 5 -7.04403 0 53 -7.04403 1
gene 1 1 5 -2.19123 0 62 -2.19123 1
gene 2 3 5 1.14754 0 86 1.14754 1
gene 2 3 46 3.14141 0 139 3.14141 1
gene 2 46 4 0.788217 0 140 0.788217 1
gene 3 23 46 -2.34576 0 172 -2.34576 1
genomeend 118

/* Organism #119 Fitness: 8.63853 Error: 1.06086 */
genomestart 119
trait 1 0.1 0 0 0 0 0 0 0 
trait 2 0.2 0 0 0 0 0 0 0 
trait 3 0.3 0 0 0 0 0 0 0 
node 1 2 1 3
node 2 1 1 1
node 3 2 1 1
node 4 1 0 2
node 5 1 0 0
node 23 1 0 0
node 46 1 0 0
gene 3 1 4 -2.48984 0 1 -2.48984 1
gene 3 2 4 8 0 2 8 1
gene 2 3 4 -5.00323 0 3 -5.00323 0
gene 3 2 5 -0.702818 0 4 -0.702818 0
gene 2 5 4 0.0919523 0 5 0.0919523 1
gene 3 2 23 -1.52808 0 52 -1.52808 1
gene 3 23 5 -6.29717 0 53 -6.29717 1
gene 1 1 5 1.94464 0 62 1.94464 1
gene 2 3 5 4.88682 0 86 4.88682 1
gene 2 3 46 1.14245 0 139 1.14245 1
gene 2 46 4 -6.1801 0 140 -6.1801 1
gene 3 23 46 -1.57227 0 172 -1.57227 1
genomeend 119

/* Organism #120 Fitness: 5.79541 Error: 1.59263 */
genomestart 120
trait 1 0.1 0 0 0 0 0 0 0 
trait 2 0.2 0 0 0 0 0 0 0 
trait 3 0.3 0 0 0 0 0 0 0 
node 1 2 1 3
node 2 1 1 1
node 3 2 1 1
node 4 1 0 2
node 5 1 0 0
node 23 1 0 0
node 46 1 0 0
gene 3 1 4 -3.69189 0 1 -3.69189 1
gene 3 2 4 8 0 2 8 1
gene 2 3 4 -8 0 3 -8 0
gene 3 2 5 1.66305 0 4 1.66305 0
gene 2 5 4 1.19756 0 5 1.19756 1
gene 3 2 23 -2.61972 0 52 -2.61972 1
gene 3 23 5 -6.54315 0 53 -6.54315 1
gene 1 1 5 0.195242 0 62 0.195242 1
gene 2 3 5 5.99258 0 86 5.99258 1
gene 2 3 46 2.95761 0 139 2.95761 1
gene 2 46 4 2.41821 0 140 2.41821 1
genomeend 120

/* Organism #121 Fitness: 3.99993 Error: 2.00002 */
genomestart 121
trait 1 0.1 0 0 0 0 0 0 0 
trait 2 0.2 0 0 0 0 0 0 0 
trait 3 0.3 0 0 0 0 0 0 0 
node 1 2 1 3
node 2 1 1 1
node 3 2 1 1
node 4 1 0 2
node 5 1 0 0
node 23 1 0 0
node 46 1 0 0
gene 3 1 4 -1.88916 0 1 -1.88916 1
gene 3 2 4 8 0 2 8 1
gene 2 3 4 -7.0492 0 3 -7.0492 0
gene 3 2 5 -0.957648 0 4 -0.957648 1
gene 2 5 4 2.44279 0 5 2.44279 1
gene 3 2 23 0.148305 0 52 0.148305 1
gene 3 23 5 -3.71896 0 53 -3.71896 1
gene 1 1 5 0.631275 0 62 0.631275 1
gene 2 3 5 0.234809 0 86 0.234809 1
gene 2 3 46 -0.599017 0 139 -0.599017 1
gene 2 46 4 -8 0 140 -8 1
genomeend 121

/* Organism #122 Fitness: 8.99906 Error: 1.00016 */
genomestart 122
trait 1 0.1 0 0 0 0 0 0 0 
trait 2 0.2 0 0 0 0 0 0 0 
trait 3 0.849333 0 0.278817 0.25074 0.565142 0 0.4438 0 
node 1 2 1 3
node 2 1 1 1
node 3 2 1 1
node 4 1 0 2
node 5 1 0 0
node 23 1 0 0
node 46 1 0 0
gene 3 1 4 -3.20131 0 1 -3.20131 1
gene 3 2 4 8 0 2 8 1
gene 2 3 4 -6.80551 0 3 -6.80551 0
gene 3 2 5 -0.579142 0 4 -0.579142 0
gene 2 5 4 -0.833369 0 5 -0.833369 1
gene 3 2 23 -0.315119 0 52 -0.315119 1
gene 3 23 5 -4.55754 0 53 -4.55754 1
gene 1 1 5 -0.233467 0 62 -0.233467 1
gene 2 3 5 3.54981 0 86 3.54981 1
gene 2 3 46 2.07974 0 139 2.07974 1
gene 2 46 4 -6.1801 0 140 -6.1801 1
gene 3 23 46 -0.0761742 0 172 -0.0761742 1
genomeend 122

/* Organism #123 Fitness: 8.99798 Error: 1.00034 */
genomestart 123
trait 1 0.1 0 0 0 0 0 0 0 
trait 2 0.2 0 0 0 0 0 0 0 
trait 3 0.3 0 0 0 0 0 0 0 
node 1 2 1 3
node 2 1 1 1
node 3 2 1 1
node 4 1 0 2
node 5 1 0 0
node 23 1 0 0
node 46 1 0 0
gene 3 1 4 -2.63622 0 1 -2.63622 1
gene 3 2 4 8 0 2 8 1
gene 2 3 4 -7.40275 0 3 -7.40275 0
gene 3 2 5 -0.484115 0 4 -0.484115 1
gene 2 5 4 0.192358 0 5 0.192358 1
gene 3 2 23 0.416639 0 52 0.416639 1
gene 3 23 5 -4.73908 0 53 -4.73908 1
gene 1 1 5 0.435423 0 62 0.435423 1
gene 2 3 5 2.6362 0 86 2.6362 1
gene 2 3 46 1.53987 0 139 1.53987 1
gene 2 46 4 -7.09005 0 140 -7.09005 1
genomeend 123

/* Species #19 : (Size 7) (AF 6.85305) (Age 3)  */


/* Organism #124 Fitness: 8.99999 Error: 1 */
genomestart 124
trait 1 0.1 0 0 0 0 0 0 0 
trait 2 0.2 0 0 0 0 0 0 0 
trait 3 0.3 0 0 0 0 0 0 0 
node 1 2 1 3
node 2 1 1 1
node 3 2 1 1
node 4 1 0 2
node 5 1 0 0
node 23 1 0 0
node 40 2 0 0
node 51 1 0 0
gene 1 1 4 -4.02424 0 1 -4.02424 1
gene 3 2 4 6.21352 0 2 6.21352 1
gene 2 3 4 -8 0 3 -8 1
gene 3 2 5 2.91643 0 4 2.91643 1
gene 2 5 4 -0.164174 0 5 -0.164174 0
gene 3 2 23 -2.32076 0 52 -2.32076 1
gene 3 23 5 -8 0 53 -8 1
gene 1 1 5 0.954924 0 62 0.954924 1
gene 2 5 40 -1.29238 0 119 -1.29238 0
gene 2 40 4 0.594058 0 120 0.594058 1
gene 3 1 40 0.524934 0 153 0.524934 1
gene 2 5 51 0.635304 0 159 0.635304 1
gene 2 51 40 0.32075 0 160 0.32075 1
genomeend 124

/* Organism #125 Fitness: 8.99552 Error: 1.00075 */
genomestart 125
trait 1 0.1 0 0 0 0 0 0 0 
trait 2 0.2 0 0 0 0 0 0 0 
trait 3 0.3 0 0 0 0 0 0 0 
node 1 2 1 3
node 2 1 1 1
node 3 2 1 1
node 4 1 0 2
node 5 1 0 0
node 23 1 0 0
node 40 2 0 0
node 51 1 0 0
gene 1 1 4 -6.0258 0 1 -6.0258 1
gene 3 2 4 7.96062 0 2 7.96062 1
gene 2 3 4 -7.28426 0 3 -7.28426 1
gene 3 2 5 -0.663701 0 4 -0.663701 1
gene 2 5 4 -4.00317 0 5 -4.00317 0
gene 3 2 23 0.0319681 0 52 0.0319681 1
gene 3 23 5 -2.20794 0 53 -2.20794 1
gene 1 1 5 -2.9119 0 62 -2.9119 1
gene 2 5 40 2.22175 0 119 2.22175 0
gene 2 40 4 -0.472869 0 120 -0.472869 1
gene 3 1 40 1.98982 0 153 1.98982 1
gene 2 5 51 0.487838 0 159 0.487838 1
gene 2 51 40 1.61245 0 160 1.61245 1
genomeend 125

/* Organism #126 Fitness: 4 Error: 2 */
genomestart 126
trait 1 0.1 0 0 0 0 0 0 0 
trait 2 0 0 0 0.169225 0.653493 0 0 0 
trait 3 0.3 0 0 0 0 0 0 0 
node 1 2 1 3
node 2 1 1 1
node 3 2 1 1
node 4 1 0 2
node 5 1 0 0
node 23 1 0 0
node 40 2 0 0
node 51 1 0 0
gene 1 1 4 -4.82611 0 1 -4.82611 1
gene 3 2 4 5.15803 0 2 5.15803 1
gene 2 3 4 -8 0 3 -8 1
gene 3 2 5 2.92985 0 4 2.92985 1
gene 2 5 4 -1.69193 0 5 -1.69193 1
gene 3 2 23 -0.156613 0 52 -0.156613 1
gene 3 23 5 -5.78176 0 53 -5.78176 1
gene 1 1 5 2.04154 0 62 2.04154 1
gene 2 5 40 1.72376 0 119 1.72376 0
gene 2 40 4 -2.0867 0 120 -2.0867 1
gene 3 1 40 1.95083 0 153 1.95083 1
gene 2 5 51 1 0 159 1 1
gene 2 51 40 0.759682 0 160 0.759682 1
genomeend 126

/* Organism #127 Fitness: 8.99988 Error: 1.00002 */
genomestart 127
trait 1 0.1 0 0 0 0 0 0 0 
trait 2 0.2 0 0 0 0 0 0 0 
trait 3 0.3 0 0 0 0 0 0 0 
node 1 2 1 3
node 2 1 1 1
node 3 2 1 1
node 4 1 0 2
node 5 1 0 0
node 23 1 0 0
node 40 2 0 0
node 51 1 0 0
gene 1 1 4 -4.29868 0 1 -4.29868 1
gene 3 2 4 5.93389 0 2 5.93389 1
gene 2 3 4 -5.7411 0 3 -5.7411 1
gene 3 2 5 -1.69797 0 4 -1.69797 1
gene 2 5 4 -0.661397 0 5 -0.661397 0
gene 3 2 23 -1.26024 0 52 -1.26024 1
gene 3 23 5 -8 0 53 -8 1
gene 1 1 5 -2.7413 0 62 -2.7413 1
gene 2 5 40 0.72718 0 119 0.72718 0
gene 2 40 4 0.568789 0 120 0.568789 1
gene 3 1 40 0.476028 0 153 0.476028 1
gene 2 5 51 -0.490143 0 159 -0.490143 1
gene 2 51 40 1.27712 0 160 1.27712 1
genomeend 127

/* Organism #128 Fitness: 3.9762 Error: 2.00596 */
genomestart 128
trait 1 0.1 0 0 0 0 0 0 0 
trait 2 0.2 0 0 0 0 0 0 0 
trait 3 0.3 0 0 0 0 0 0 0 
node 1 2 1 3
node 2 1 1 1
node 3 2 1 1
node 4 1 0 2
node 5 1 0 0
node 23 1 0 0
node 40 2 0 0
node 51 1 0 0
gene 1 1 4 -2.31246 0 1 -2.31246 1
gene 3 2 4 -0.384381 0 2 -0.384381 1
gene 2 3 4 -0.942259 0 3 -0.942259 1
gene 3 2 5 0.76426 0 4 0.76426 1
gene 2 5 4 1.49213 0 5 1.49213 0
gene 3 2 23 2.33772 0 52 2.33772 1
gene 3 23 5 -6.17385 0 53 -6.17385 1
gene 1 1 5 -1.74182 0 62 -1.74182 1
gene 2 5 40 -3.77361 0 119 -3.77361 0
gene 2 40 4 1.30895 0 120 1.30895 1
gene 3 1 40 3.82994 0 153 3.82994 1
gene 2 5 51 -0.119572 0 159 -0.119572 1
gene 2 51 40 0.32075 0 160 0.32075 1
genomeend 128

/* Organism #129 Fitness: 4 Error: 2 */
genomestart 129
trait 1 0.1 0 0 0 0 0 0 0 
trait 2 0.2 0 0 0 0 0 0 0 
trait 3 0.3 0 0 0 0 0 0 0 
node 1 2 1 3
node 2 1 1 1
node 3 2 1 1
node 4 3 0 2
node 5 1 0 0
node 23 1 0 0
node 40 2 0 0
node 51 1 0 0
gene 1 1 4 -5.99734 0 1 -5.99734 1
gene 3 2 4 2.78964 0 2 2.78964 1
gene 2 3 4 -6.53511 0 3 -6.53511 1
gene 3 2 5 0.571078 0 4 0.571078 1
gene 2 5 4 -3.7749 0 5 -3.7749 0
gene 3 2 23 -1.24322 0 52 -1.24322 1
gene 3 23 5 -8 0 53 -8 1
gene 1 1 5 -2.27155 0 62 -2.27155 1
gene 2 5 40 2.46048 0 119 2.46048 0
gene 2 40 4 1.25639 0 120 1.25639 1
gene 3 1 40 -0.567629 0 153 -0.567629 1
gene 2 5 51 0.880612 0 159 0.880612 1
gene 2 51 40 0.589694 0 160 0.589694 1
genomeend 129

/* Organism #130 Fitness: 8.99975 Error: 1.00004 */
genomestart 130
trait 1 0.1 0 0 0 0 0 0 0 
trait 2 0.2 0 0 0 0 0 0 0 
trait 3 0.3 0 0 0 0 0 0 0 
node 1 2 1 3
node 2 1 1 1
node 3 2 1 1
node 4 1 0 2
node 5 1 0 0
node 23 1 0 0
node 40 2 0 0
node 51 1 0 0
gene 1 1 4 -4.09741 0 1 -4.09741 1
gene 3 2 4 6.82579 0 2 6.82579 1
gene 2 3 4 -5.5663 0 3 -5.5663 1
gene 3 2 5 0.811258 0 4 0.811258 1
gene 2 5 4 -0.861217 0 5 -0.861217 0
gene 3 2 23 -2.69667 0 52 -2.69667 1
gene 3 23 5 -6.053 0 53 -6.053 1
gene 1 1 5 -1.31723 0 62 -1.31723 1
gene 2 5 40 2.16292 0 119 2.16292 0
gene 2 40 4 0.791131 0 120 0.791131 1
gene 3 1 40 2.17431 0 153 2.17431 1
gene 2 5 51 1 0 159 1 1
gene 2 51 40 -0.021363 0 160 -0.021363 1
genomeend 130

/* Species #20 : (Size 11) (AF 6.23131) (Age 2)  */


/* Organism #131 Fitness: 8.96388 Error: 1.00603 */
genomestart 131
trait 1 0.1 0 0 0 0 0 0 0 
trait 2 0.200824 0 0 0 0 0 0 0 
trait 3 0.3 0 0 0 0 0 0 0 
node 1 2 1 3
node 2 1 1 1
node 3 2 1 1
node 4 2 0 2
node 10 1 0 0
node 39 1 0 0
node 50 1 0 0
gene 3 1 4 -3.69854 0 1 -3.69854 1
gene 3 2 4 -3.05057 0 2 -3.05057 1
gene 2 3 4 0.00228126 0 3 0.00228126 1
gene 2 3 10 6.39865 0 16 6.39865 1
gene 2 10 4 5.08956 0 17 5.08956 0
gene 1 2 10 -1.86308 0 48 -1.86308 0
gene 1 2 39 1 0 116 0 1
gene 1 39 10 -1.86308 0 117 0 1
gene 2 10 50 1 0 156 0 1
gene 2 50 4 5.08956 0 157 0 1
gene 3 2 50 0.724754 0 164 0.724754 1
genomeend 131

/* Organism #132 Fitness: 5.30533 Error: 1.69667 */
genomestart 132
trait 1 0.1 0 0 0 0 0 0 0 
trait 2 0.200824 0 0 0 0 0 0 0 
trait 3 0.3 0 0 0 0 0 0 0 
node 1 2 1 3
node 2 1 1 1
node 3 2 1 1
node 4 2 0 2
node 10 1 0 0
node 39 1 0 0
node 50 1 0 0
node 58 1 0 0
gene 3 1 4 -3.69854 0 1 -3.69854 1
gene 3 2 4 -3.05057 0 2 -3.05057 0
gene 2 3 4 0.00228126 0 3 0.00228126 1
gene 2 3 10 6.39865 0 16 6.39865 1
gene 2 10 4 5.08956 0 17 5.08956 0
gene 1 2 10 -1.86308 0 48 -1.86308 0
gene 1 2 39 1 0 116 0 1
gene 1 39 10 -1.86308 0 117 0 1
gene 2 10 50 1 0 156 0 1
gene 2 50 4 5.08956 0 157 0 1
gene 3 2 50 0.724754 0 164 0.724754 1
gene 3 2 58 1 0 185 0 1
gene 3 58 4 -3.05057 0 186 0 1
genomeend 132

/* Organism #133 Fitness: 4 Error: 2 */
genomestart 133
trait 1 0.1 0 0 0 0 0 0 0 
trait 2 0.200824 0 0 0 0 0 0 0 
trait 3 0.3 0 0 0 0 0 0 0 
node 1 2 1 3
node 2 1 1 1
node 3 2 1 1
node 4 2 0 2
node 10 1 0 0
node 39 1 0 0
node 50 1 0 0
gene 3 1 4 -4.55443 0 1 -4.55443 1
gene 3 2 4 -2.97359 0 2 -2.97359 1
gene 2 3 4 -2.05055 0 3 -2.05055 1
gene 2 3 10 6.45618 0 16 6.45618 1
gene 2 10 4 7.30559 0 17 7.30559 0
gene 1 2 10 -2.11432 0 48 -2.11432 0
gene 1 2 39 2.81204 0 116 2.81204 1
gene 1 39 10 -2.06931 0 117 -2.06931 1
gene 2 10 50 -0.621372 0 156 -0.621372 1
gene 2 50 4 0.63715 0 157 0.63715 1
gene 3 2 50 1.27888 0 164 1.27888 1
genomeend 133

/* Organism #134 Fitness: 9.45152 Error: 0.925667 */
/* ##------$ WINNER 134 SPECIES #20 $------## */
genomestart 134
trait 1 0.1 0 0 0 0 0 0 0 
trait 2 0.200824 0 0 0 0 0 0 0 
trait 3 0.3 0 0 0 0 0 0 0 
node 1 2 1 3
node 2 1 1 1
node 3 2 1 1
node 4 2 0 2
node 10 1 0 0
node 39 1 0 0
node 50 1 0 0
gene 3 1 4 -2.97861 0 1 -2.97861 1
gene 3 2 4 -1.70409 0 2 -1.70409 1
gene 2 3 4 -1.2383 0 3 -1.2383 1
gene 2 3 10 6.39865 0 16 6.39865 1
gene 2 10 4 6.48136 0 17 6.48136 0
gene 1 2 10 -0.250862 0 48 -0.250862 0
gene 1 2 39 1.94998 0 116 1.94998 1
gene 1 39 10 -2.60666 0 117 -2.60666 1
gene 2 10 50 0.516816 0 156 0.516816 1
gene 2 50 4 5.89434 0 157 5.89434 1
gene 3 2 50 0.686682 0 164 0.686682 1
genomeend 134

/* Organism #135 Fitness: 4 Error: 2 */
genomestart 135
trait 1 0.1 0 0 0 0 0 0 0 
trait 2 0.200824 0 0 0 0 0 0 0 
trait 3 0.3 0 0 0 0 0 0 0 
node 1 2 1 3
node 2 1 1 1
node 3 2 1 1
node 4 2 0 2
node 10 1 0 0
node 39 1 0 0
node 50 1 0 0
gene 3 1 4 1.8965 0 1 1.8965 1
gene 3 2 4 -3.26862 0 2 -3.26862 1
gene 2 3 4 0.0631733 0 3 0.0631733 1
gene 2 3 10 6.552 0 16 6.552 1
gene 2 10 4 0.0412 0 17 0.0412 0
gene 1 2 10 0.163961 0 48 0.163961 0
gene 1 2 39 1.79913 0 116 1.79913 1
gene 1 39 10 0.590381 0 117 0.590381 1
gene 2 10 50 2.96097 0 156 2.96097 1
gene 2 50 4 5.08956 0 157 5.08956 1
gene 1 2 50 2.13181 0 164 2.13181 1
genomeend 135

/* Organism #136 Fitness: 8.96388 Error: 1.00603 */
genomestart 136
trait 1 0.1 0 0 0 0 0 0 0 
trait 2 0.200824 0 0 0 0 0 0 0 
trait 3 0.3 0 0 0 0 0 0 0 
node 1 2 1 3
node 2 1 1 1
node 3 2 1 1
node 4 2 0 2
node 10 1 0 0
node 39 1 0 0
node 50 1 0 0
gene 3 1 4 -3.69854 0 1 -3.69854 1
gene 3 2 4 -3.05057 0 2 -3.05057 1
gene 2 3 4 0.00228126 0 3 0.00228126 1
gene 2 3 10 6.39865 0 16 6.39865 1
gene 2 10 4 5.08956 0 17 5.08956 0
gene 1 2 10 -1.86308 0 48 -1.86308 0
gene 1 2 39 1 0 116 0 1
gene 1 39 10 -1.86308 0 117 0 1
gene 2 10 50 1 0 156 0 1
gene 2 50 4 5.08956 0 157 0 1
gene 3 2 50 0.724754 0 164 0.724754 1
gene 3 3 39 0.455061 0 187 0.455061 1
genomeend 136

/* Organism #137 Fitness: 6.07799 Error: 1.53464 */
genomestart 137
trait 1 0.1 0 0 0 0 0 0 0 
trait 2 0.200824 0 0 0 0 0 0 0 
trait 3 0.3 0 0 0 0 0 0 0 
node 1 2 1 3
node 2 1 1 1
node 3 2 1 1
node 4 2 0 2
node 10 1 0 0
node 39 1 0 0
node 50 1 0 0
gene 3 1 4 -3.6813 0 1 -3.6813 1
gene 3 2 4 -1.82548 0 2 -1.82548 1
gene 2 3 4 -1.52807 0 3 -1.52807 1
gene 1 3 10 5.92264 0 16 5.92264 1
gene 2 10 4 2.82974 0 17 2.82974 0
gene 1 2 10 -2.23975 0 48 -2.23975 0
gene 1 2 39 -1.42302 0 116 -1.42302 1
gene 1 39 10 -2.31445 0 117 -2.31445 1
gene 2 10 50 2.01932 0 156 2.01932 1
gene 2 50 4 5.08956 0 157 5.08956 1
gene 3 2 50 1.97845 0 164 1.97845 1
genomeend 137

/* Organism #138 Fitness: 4.00057 Error: 1.99986 */
genomestart 138
trait 1 0.1 0 0 0 0 0 0 0 
trait 2 0.200824 0 0 0 0 0 0 0 
trait 3 0.3 0 0 0 0 0 0 0 
node 1 2 1 3
node 2 1 1 1
node 3 2 1 1
node 4 2 0 2
node 10 1 0 0
node 39 1 0 0
node 50 1 0 0
gene 3 1 4 -3.61614 0 1 -3.61614 1
gene 3 2 4 -1.0497 0 2 -1.0497 1
gene 2 3 4 -1.45009 0 3 -1.45009 1
gene 2 3 10 6.77227 0 16 6.77227 1
gene 1 10 4 5.01258 0 17 5.01258 0
gene 1 2 10 -3.23572 0 48 -3.23572 0
gene 1 2 39 0.269005 0 116 0.269005 1
gene 1 39 10 -1.17435 0 117 -1.17435 1
gene 2 10 50 -0.449934 0 156 -0.449934 1
gene 2 50 4 2.89292 0 157 2.89292 1
gene 3 2 50 1.28034 0 164 1.28034 1
genomeend 138

/* Organism #139 Fitness: 7.1165 Error: 1.33232 */
genomestart 139
trait 1 0.1 0 0 0 0 0 0 0 
trait 2 0.200824 0 0 0 0 0 0 0 
trait 3 0.3 0 0 0 0 0 0 0 
node 1 2 1 3
node 2 1 1 1
node 3 2 1 1
node 4 2 0 2
node 10 1 0 0
node 39 1 0 0
node 50 1 0 0
gene 3 1 4 -3.65879 0 1 -3.65879 1
gene 3 2 4 -4.96912 0 2 -4.96912 1
gene 2 3 4 -0.586039 0 3 -0.586039 1
gene 2 3 10 4.79063 0 16 4.79063 1
gene 2 10 4 2.85714 0 17 2.85714 0
gene 1 2 10 -3.36047 0 48 -3.36047 0
gene 1 2 39 3.26127 0 116 3.26127 1
gene 1 39 10 -0.827433 0 117 -0.827433 1
gene 2 10 50 1.39363 0 156 1.39363 1
gene 2 50 4 5.08956 0 157 5.08956 1
gene 3 2 50 0.41377 0 164 0.41377 1
genomeend 139

/* Organism #140 Fitness: 6.5665 Error: 1.43748 */
genomestart 140
trait 1 0.1 0 0 0 0 0 0 0 
trait 2 0.200824 0 0 0 0 0 0 0 
trait 3 0.3 0 0 0 0 0 0 0 
node 1 2 1 3
node 2 1 1 1
node 3 2 1 1
node 4 2 0 2
node 10 1 0 0
node 39 1 0 0
node 50 1 0 0
gene 3 1 4 -1.96196 0 1 -1.96196 1
gene 3 2 4 -3.00441 0 2 -3.00441 1
gene 2 3 4 2.25409 0 3 2.25409 1
gene 2 3 10 6.13886 0 16 6.13886 1
gene 2 10 4 5.60617 0 17 5.60617 0
gene 1 2 10 -2.6326 0 48 -2.6326 0
gene 1 2 39 1.18822 0 116 1.18822 1
gene 1 39 10 2.23708 0 117 2.23708 1
gene 2 10 50 -0.177786 0 156 -0.177786 1
gene 2 50 4 6.4806 0 157 6.4806 1
gene 3 2 50 -0.218955 0 164 -0.218955 1
genomeend 140

/* Organism #141 Fitness: 4.0983 Error: 1.97557 */
genomestart 141
trait 1 0.1 0 0 0 0 0 0 0 
trait 2 0.200824 0 0 0 0 0 0 0 
trait 3 0.3 0 0 0 0 0 0 0 
node 1 2 1 3
node 2 1 1 1
node 3 2 1 1
node 4 2 0 2
node 10 1 0 0
node 39 1 0 0
node 50 1 0 0
gene 3 1 4 -2.49496 0 1 -2.49496 1
gene 3 2 4 -2.86593 0 2 -2.86593 1
gene 2 3 4 -0.031518 0 3 -0.031518 1
gene 2 3 10 5.50667 0 16 5.50667 1
gene 2 10 4 6.50089 0 17 6.50089 0
gene 1 2 10 -1.19457 0 48 -1.19457 0
gene 1 2 39 2.87941 0 116 2.87941 1
gene 1 39 10 0.193258 0 117 0.193258 1
gene 2 10 50 1.49852 0 156 1.49852 1
gene 2 50 4 5.08956 0 157 5.08956 1
gene 3 2 50 2.41906 0 164 2.41906 1
genomeend 141

/* Species #21 : (Size 7) (AF 6.61284) (Age 2)  */


/* Organism #142 Fitness: 8.99752 Error: 1.00041 */
genomestart 142
trait 1 0.187161 0.428495 0.775719 0 0 0.754326 0 0 
trait 2 0.157239 0.00395978 0 0.00827528 0 0 0.00362407 0 
trait 3 0.3 0 0 0 0 0 0 0 
node 1 2 1 3
node 2 1 1 1
node 3 2 1 1
node 4 2 0 2
node 5 1 0 0
node 15 1 0 0
node 34 1 0 0
gene 3 1 4 -1.39294 0 1 -1.39294 1
gene 3 2 4 3.72246 0 2 3.72246 1
gene 2 3 4 -6.02316 0 3 -6.02316 1
gene 3 2 5 1.11988 0 4 1.11988 0
gene 2 5 4 -2.54816 0 5 -2.54816 1
gene 2 2 15 -6.75597 0 31 -6.75597 1
gene 2 15 5 0.378811 0 32 0.378811 0
gene 1 15 4 -1.62183 0 56 -1.62183 1
gene 2 15 34 5.51659 0 93 5.51659 1
gene 2 34 5 -0.35844 0 94 -0.35844 1
genomeend 142

/* Organism #143 Fitness: 7.96612 Error: 1.17757 */
genomestart 143
trait 1 0.187161 0.428495 0 0.082934 0 0.0283212 0 0 
trait 2 0.157239 0.00395978 0 0.00827528 0 0 0.00362407 0 
trait 3 0.3 0 0 0 0 0 0 0 
node 1 2 1 3
node 2 1 1 1
node 3 2 1 1
node 4 2 0 2
node 5 1 0 0
node 15 1 0 0
node 34 1 0 0
node 53 1 0 0
gene 1 1 4 -4.02436 0 1 -4.02436 1
gene 3 2 4 6.32876 0 2 6.32876 1
gene 2 3 4 -5.86172 0 3 -5.86172 1
gene 3 2 5 0.0163951 0 4 0.0163951 0
gene 1 5 4 -2.46694 0 5 -2.46694 1
gene 2 2 15 0.147732 0 31 0.147732 1
gene 2 15 5 -0.102542 0 32 -0.102542 0
gene 1 15 4 -2.78527 0 56 -2.78527 1
gene 2 15 34 4.67885 0 93 4.67885 0
gene 2 34 5 -0.612659 0 94 -0.612659 1
gene 2 15 53 1 0 166 0 1
gene 2 53 34 4.67885 0 167 0 1
genomeend 143

/* Organism #144 Fitness: 8.97242 Error: 1.0046 */
genomestart 144
trait 1 0.187161 0.428495 0.38786 0.041467 0 0.391324 0 0 
trait 2 0.157239 0.00395978 0 0.00827528 0 0 0.00362407 0 
trait 3 0.3 0 0 0 0 0 0 0 
node 1 2 1 3
node 2 1 1 1
node 3 2 1 1
node 4 2 0 2
node 5 1 0 0
node 15 1 0 0
node 34 1 0 0
node 53 1 0 0
gene 1 1 4 -4.02436 0 1 -4.02436 1
gene 3 2 4 6.32876 0 2 6.32876 1
gene 2 3 4 -6.02316 0 3 -6.02316 1
gene 3 2 5 0.0163951 0 4 0.0163951 0
gene 2 5 4 -2.54816 0 5 -2.54816 1
gene 2 2 15 0.147732 0 31 0.147732 1
gene 2 15 5 0.378811 0 32 0.378811 0
gene 1 15 4 -1.62183 0 56 -1.62183 1
gene 2 15 34 5.51659 0 93 5.51659 0
gene 2 34 5 -0.612659 0 94 -0.612659 1
gene 2 15 53 1 0 166 0 1
gene 2 53 34 4.67885 0 167 0 1
genomeend 144

/* Organism #145 Fitness: 5.2386 Error: 1.7112 */
genomestart 145
trait 1 0 0.428495 0.38786 0.041467 0.53798 0.0732902 0 0 
trait 2 0.157239 0.00395978 0 0.00827528 0 0 0.00362407 0 
trait 3 0.3 0 0 0 0 0 0 0 
node 1 2 1 3
node 2 1 1 1
node 3 2 1 1
node 4 2 0 2
node 5 1 0 0
node 15 1 0 0
node 34 1 0 0
node 53 1 0 0
gene 3 1 4 -3.82511 0 1 -3.82511 1
gene 3 2 4 3.72246 0 2 3.72246 1
gene 2 3 4 -5.24433 0 3 -5.24433 1
gene 3 2 5 -1.14811 0 4 -1.14811 0
gene 1 5 4 -2.46694 0 5 -2.46694 1
gene 2 2 15 -2.16961 0 31 -2.16961 1
gene 2 15 5 -1.72811 0 32 -1.72811 0
gene 1 15 4 -1.21731 0 56 -1.21731 1
gene 2 15 34 4.67885 0 93 4.67885 0
gene 2 34 5 -0.688726 0 94 -0.688726 1
gene 2 15 53 1.05806 0 166 1.05806 1
gene 2 53 34 4.73348 0 167 4.73348 1
genomeend 145

/* Organism #146 Fitness: 4.00087 Error: 1.99978 */
genomestart 146
trait 1 0.187161 0.428495 0.38786 0.041467 0 0.391324 0 0 
trait 2 0.157239 0.00395978 0 0.00827528 0 0 0.00362407 0 
trait 3 0.3 0 0 0 0 0 0 0 
node 1 2 1 3
node 2 1 1 1
node 3 2 1 1
node 4 2 0 2
node 5 1 0 0
node 15 1 0 0
node 34 1 0 0
node 53 1 0 0
gene 3 1 4 -3.84129 0 1 -3.84129 1
gene 3 2 4 3.97837 0 2 3.97837 1
gene 2 3 4 -5.84379 0 3 -5.84379 1
gene 3 2 5 -1.04724 0 4 -1.04724 0
gene 2 5 4 -1.80236 0 5 -1.80236 1
gene 2 2 15 1.18435 0 31 1.18435 1
gene 2 15 5 0.378811 0 32 0.378811 0
gene 1 15 4 -1.854 0 56 -1.854 1
gene 2 15 34 1.12201 0 93 1.12201 0
gene 2 34 5 -1.93777 0 94 -1.93777 1
gene 2 15 53 -0.0902738 0 166 -0.0902738 1
gene 2 53 34 2.39966 0 167 2.39966 1
genomeend 146

/* Organism #147 Fitness: 5.25075 Error: 1.70855 */
genomestart 147
trait 1 0.187161 0.428495 0.38786 0.041467 0 0.391324 0 0 
trait 2 0.157239 0.00395978 0 0.00827528 0 0 0.00362407 0 
trait 3 0.3 0 0 0 0 0 0 0 
node 1 2 1 3
node 2 1 1 1
node 3 2 1 1
node 4 2 0 2
node 5 1 0 0
node 15 1 0 0
node 34 1 0 0
node 53 1 0 0
gene 1 1 4 -5.10268 0 1 -5.10268 1
gene 3 2 4 5.10251 0 2 5.10251 1
gene 2 3 4 -5.30132 0 3 -5.30132 1
gene 3 2 5 1.11983 0 4 1.11983 0
gene 1 5 4 -4.6163 0 5 -4.6163 1
gene 2 2 15 -1.12403 0 31 -1.12403 1
gene 2 15 5 -0.703871 0 32 -0.703871 0
gene 1 15 4 -2.19844 0 56 -2.19844 1
gene 2 15 34 4.24419 0 93 4.24419 0
gene 2 34 5 -0.660878 0 94 -0.660878 1
gene 2 15 53 0.279 0 166 0.279 1
gene 2 53 34 4.67885 0 167 4.67885 1
genomeend 147

/* Organism #148 Fitness: 5.86357 Error: 1.57852 */
genomestart 148
trait 1 0.187161 0.428495 0.775719 0 0 0.754326 0 0 
trait 2 0.157239 0.00395978 0 0.00827528 0 0 0.00362407 0 
trait 3 0.3 0 0 0 0 0 0 0 
node 1 2 1 3
node 2 1 1 1
node 3 2 1 1
node 4 2 0 2
node 5 1 0 0
node 15 1 0 0
node 34 1 0 0
gene 3 1 4 0.266655 0 1 0.266655 1
gene 3 2 4 4.62191 0 2 4.62191 1
gene 2 3 4 -7.15296 0 3 -7.15296 1
gene 3 2 5 1.82325 0 4 1.82325 0
gene 2 5 4 -0.778621 0 5 -0.778621 1
gene 2 2 15 -4.56017 0 31 -4.56017 1
gene 2 15 5 -2.09593 0 32 -2.09593 0
gene 1 15 4 -0.177084 0 56 -0.177084 1
gene 2 15 34 4.61431 0 93 4.61431 1
gene 2 34 5 -0.35844 0 94 -0.35844 1
genomeend 148

/* Species #22 : (Size 1) (AF 8.99951) (Age 1)  */


/* Organism #149 Fitness: 8.99951 Error: 1.00008 */
genomestart 149
trait 1 0.187161 0.428495 0.775719 0 0 0.754326 0 0 
trait 2 0.157239 0.00395978 0 0.00827528 0 0 0.00362407 0 
trait 3 0.3 0 0 0 0 0 0 0 
node 1 2 1 3
node 2 1 1 1
node 3 2 1 1
node 4 2 0 2
node 5 1 0 0
node 15 1 0 0
node 34 1 0 0
gene 3 1 4 -1.39294 0 1 -1.39294 1
gene 3 2 4 3.72246 0 2 3.72246 1
gene 2 3 4 -6.02316 0 3 -6.02316 1
gene 3 2 5 1.11988 0 4 1.11988 0
gene 2 5 4 -2.54816 0 5 -2.54816 1
gene 2 2 15 -6.75597 0 31 -6.75597 1
gene 2 15 5 0.378811 0 32 0.378811 0
gene 1 15 4 -1.62183 0 56 -1.62183 1
gene 2 15 34 5.51659 0 93 5.51659 1
gene 2 34 5 -0.35844 0 94 -0.35844 1
gene 3 2 34 0.542314 0 188 0.542314 1
genomeend 149
