
/* Species #1 : (Size 11) (AF 7.72123) (Age 22)  */


/* Organism #0 Fitness: 9 Error: 1 */
genomestart 0
trait 1 0.1 0 0 0 0 0 0 0 
trait 2 0.2 0.90643 0 0.456771 0 0 0 0 
trait 3 0.475665 0 0.93939 0 0 0 0 0 
node 1 1 1 3
node 2 3 1 1
node 3 1 1 1
node 4 3 0 2
gene 3 1 4 -3.80489 0 1 -3.80489 1
gene 3 2 4 7.82326 0 2 7.82326 1
gene 3 3 4 -8 0 3 -8 1
genomeend 0

/* Organism #1 Fitness: 9 Error: 1 */
genomestart 1
trait 1 0.1 0 0 0 0 0 0 0 
trait 2 0.2 0.90643 0 0.456771 0 0 0 0 
trait 3 0.475665 0 0.93939 0 0 0 0 0 
node 1 1 1 3
node 2 3 1 1
node 3 1 1 1
node 4 3 0 2
gene 3 1 4 -3.80489 0 1 -3.80489 1
gene 1 2 4 7.91163 0 2 7.91163 1
gene 3 3 4 -8 0 3 -8 1
genomeend 1

/* Organism #2 Fitness: 7.41625 Error: 1.27672 */
genomestart 2
trait 1 0.1 0 0 0 0 0 0 0 
trait 2 0.2 0.90643 0 0.456771 0 0 0 0 
trait 3 0.475665 0 0.93939 0 0 0 0 0 
node 1 1 1 3
node 2 3 1 1
node 3 1 1 1
node 4 3 0 2
node 70 1 0 0
gene 3 1 4 -3.80489 0 1 -3.80489 1
gene 1 2 4 8 0 2 8 1
gene 3 3 4 -8 0 3 -8 0
gene 3 3 70 1 0 194 0 1
gene 3 70 4 -8 0 195 0 1
genomeend 2

/* Organism #3 Fitness: 9 Error: 1 */
genomestart 3
trait 1 0.1 0 0 0 0 0 0 0 
trait 2 0.2 0.90643 0 0.456771 0 0 0 0 
trait 3 0.475665 0 0.93939 0 0 0 0 0 
node 1 1 1 3
node 2 3 1 1
node 3 1 1 1
node 4 3 0 2
gene 3 1 4 -3.80489 0 1 -3.80489 1
gene 3 2 4 8 0 2 8 1
gene 1 3 4 -8 0 3 -8 1
genomeend 3

/* Organism #4 Fitness: 4.3131 Error: 1.9232 */
genomestart 4
trait 1 0.1 0 0 0 0 0 0 0 
trait 2 0.2 0.90643 0 0.456771 0 0 0 0 
trait 3 0.475665 0 0.93939 0 0 0 0 0 
node 1 1 1 3
node 2 3 1 1
node 3 1 1 1
node 4 3 0 2
gene 3 1 4 -1.39331 0 1 -1.39331 1
gene 3 2 4 7.96067 0 2 7.96067 1
gene 3 3 4 -6.06536 0 3 -6.06536 1
genomeend 4

/* Organism #5 Fitness: 9 Error: 1 */
genomestart 5
trait 1 0.1 0 0 0 0 0 0 0 
trait 2 0.2 0.90643 0 0.456771 0 0 0 0 
trait 3 0.475665 0 0.93939 0 0 0 0 0 
node 1 1 1 3
node 2 3 1 1
node 3 1 1 1
node 4 3 0 2
gene 3 1 4 -3.16743 0 1 -3.16743 1
gene 3 2 4 7.45395 0 2 7.45395 1
gene 3 3 4 -8 0 3 -8 1
genomeend 5

/* Organism #6 Fitness: 9 Error: 1 */
genomestart 6
trait 1 0.1 0 0 0 0 0 0 0 
trait 2 0.2 0.90643 0 0.456771 0 0 0 0 
trait 3 0.475665 0 0.93939 0 0 0 0 0 
node 1 1 1 3
node 2 3 1 1
node 3 1 1 1
node 4 3 0 2
gene 3 1 4 -3.80489 0 1 -3.80489 1
gene 3 2 4 8 0 2 8 1
gene 3 3 4 -8 0 3 -8 1
genomeend 6

/* Organism #7 Fitness: 1.20421 Error: 2.90264 */
genomestart 7
trait 1 0.1 0 0 0 0 0 0 0 
trait 2 0.2 0.90643 0 0.456771 0 0 0 0 
trait 3 0.475665 0 0.93939 0 0 0 0 0 
node 1 1 1 3
node 2 3 1 1
node 3 1 1 1
node 4 3 0 2
gene 3 1 4 0.462355 0 1 0.462355 1
gene 1 2 4 -1.56812 0 2 -1.56812 1
gene 3 3 4 -8 0 3 -8 1
genomeend 7

/* Organism #8 Fitness: 9 Error: 1 */
genomestart 8
trait 1 0.1 0 0 0 0 0 0 0 
trait 2 0.2 0.90643 0 0.456771 0 0 0 0 
trait 3 0.475665 0 0.93939 0 0 0 0 0 
node 1 1 1 3
node 2 3 1 1
node 3 1 1 1
node 4 3 0 2
gene 3 1 4 -3.80489 0 1 -3.80489 1
gene 3 2 4 7.91163 0 2 7.91163 1
gene 3 3 4 -8 0 3 -8 1
genomeend 8

/* Organism #9 Fitness: 8.99998 Error: 1 */
genomestart 9
trait 1 0.1 0 0 0 0 0 0 0 
trait 2 0.2 0.90643 0 0.456771 0 0 0 0 
trait 3 0.475665 0 0.93939 0 0 0 0 0 
node 1 1 1 3
node 2 3 1 1
node 3 1 1 1
node 4 3 0 2
gene 3 1 4 -5.45037 0 1 -5.45037 1
gene 3 2 4 8 0 2 8 1
gene 3 3 4 -6.31317 0 3 -6.31317 1
genomeend 9

/* Organism #10 Fitness: 9 Error: 1 */
genomestart 10
trait 1 0.1 0 0 0 0 0 0 0 
trait 2 0.2 0.90643 0 0.456771 0 0 0 0 
trait 3 0.475665 0 0.93939 0 0 0 0 0 
node 1 1 1 3
node 2 3 1 1
node 3 1 1 1
node 4 3 0 2
gene 3 1 4 -3.80489 0 1 -3.80489 1
gene 3 2 4 7.82326 0 2 7.82326 1
gene 3 3 4 -8 0 3 -8 1
genomeend 10

/* Species #2 : (Size 8) (AF 6.09462) (Age 20)  */


/* Organism #11 Fitness: 8.99276 Error: 1.00121 */
genomestart 11
trait 1 0.1 0 0 0 0 0 0 0 
trait 2 0.186084 0 0 0.0589002 0.0756163 0 0 0 
trait 3 0.194531 0 0.0971225 0 0.100527 0.675863 0 0 
node 1 2 1 3
node 2 2 1 1
node 3 1 1 1
node 4 3 0 2
node 8 3 0 0
node 40 1 0 0
gene 2 1 4 0.660474 0 1 0.660474 1
gene 2 2 4 3.24227 0 2 3.24227 1
gene 3 3 4 1.58509 0 3 1.58509 0
gene 3 3 8 2.92519 0 10 2.92519 1
gene 3 8 4 -7.69837 0 11 -7.69837 1
gene 3 2 8 -1.95292 0 39 -1.95292 1
gene 3 8 40 4.18472 0 106 4.18472 1
gene 3 40 4 -5.07221 0 107 -5.07221 1
genomeend 11

/* Organism #12 Fitness: 4 Error: 2 */
genomestart 12
trait 1 0.1 0 0 0 0 0 0 0 
trait 2 0.186084 0 0 0.0589002 0.0756163 0 0 0 
trait 3 0.194531 0.0673631 0.0971225 0.00833537 0.100527 0.337931 0 0 
node 1 2 1 3
node 2 2 1 1
node 3 1 1 1
node 4 3 0 2
node 8 1 0 0
node 40 1 0 0
gene 2 1 4 1.53025 0 1 1.53025 1
gene 2 2 4 0.644688 0 2 0.644688 1
gene 3 3 4 3.78082 0 3 3.78082 0
gene 3 3 8 2.24356 0 10 2.24356 1
gene 3 8 4 -6.65609 0 11 -6.65609 1
gene 3 2 8 0.0468078 0 39 0.0468078 1
gene 3 8 40 3.35332 0 106 3.35332 1
gene 3 40 4 -5.18628 0 107 -5.18628 1
genomeend 12

/* Organism #13 Fitness: 8.99266 Error: 1.00122 */
genomestart 13
trait 1 0.1 0 0 0 0 0 0 0 
trait 2 0.186084 0 0 0.0589002 0.0756163 0 0 0 
trait 3 0.194531 0.0673631 0.0971225 0.00833537 0.100527 0.337931 0 0 
node 1 2 1 3
node 2 2 1 1
node 3 1 1 1
node 4 3 0 2
node 8 3 0 0
node 40 1 0 0
gene 2 1 4 0.660474 0 1 0.660474 1
gene 2 2 4 3.24227 0 2 3.24227 1
gene 3 3 4 1.58509 0 3 1.58509 0
gene 3 3 8 1.78624 0 10 1.78624 1
gene 3 8 4 -5.89396 0 11 -5.89396 1
gene 3 2 8 -1.47256 0 39 -1.47256 1
gene 3 8 40 1.86341 0 106 1.36341 1
gene 3 40 4 -5.07221 0 107 -5.07221 1
gene 3 1 8 -0.181921 0 196 -0.181921 1
genomeend 13

/* Organism #14 Fitness: 4.94199 Error: 1.77694 */
genomestart 14
trait 1 0.1 0 0 0 0 0 0 0 
trait 2 0.186084 0 0 0.0589002 0.0756163 0 0 0 
trait 3 0.194531 0.134726 0.0971225 0.0166707 0.100527 0 0 0 
node 1 2 1 3
node 2 2 1 1
node 3 1 1 1
node 4 3 0 2
node 8 3 0 0
node 40 1 0 0
gene 2 1 4 3.09944 0 1 3.09944 1
gene 2 2 4 0.353313 0 2 0.353313 1
gene 3 3 4 -1.17271 0 3 -1.17271 0
gene 3 3 8 3.77315 0 10 3.77315 1
gene 2 8 4 -5.61274 0 11 -5.61274 1
gene 3 2 8 -1.47256 0 39 -1.47256 1
gene 3 8 40 0.114467 0 106 0.114467 1
gene 3 40 4 -7.40291 0 107 -7.40291 1
genomeend 14

/* Organism #15 Fitness: 4.8561 Error: 1.79634 */
genomestart 15
trait 1 0.1 0 0 0 0 0 0 0 
trait 2 0.186084 0 0 0.0589002 0.0756163 0 0 0 
trait 3 0.194531 0.0673631 0.0971225 0.00833537 0.100527 0.337931 0 0 
node 1 2 1 3
node 2 2 1 1
node 3 1 1 1
node 4 3 0 2
node 8 3 0 0
node 40 1 0 0
gene 2 1 4 1.87996 0 1 1.87996 1
gene 2 2 4 1.1009 0 2 1.1009 1
gene 3 3 4 2.30239 0 3 2.30239 1
gene 3 3 8 1.65921 0 10 1.65921 1
gene 3 8 4 -0.592669 0 11 -0.592669 1
gene 3 2 8 0.348483 0 39 0.348483 1
gene 3 8 40 -0.00747703 0 106 -0.00747703 1
gene 3 40 4 -5.55582 0 107 -5.55582 1
genomeend 15

/* Organism #16 Fitness: 4.00027 Error: 1.99993 */
genomestart 16
trait 1 0.1 0 0 0 0 0 0 0 
trait 2 0.186084 0 0 0.0589002 0.0756163 0 0 0 
trait 3 0.194531 0.0673631 0.0971225 0.00833537 0.100527 0.337931 0 0 
node 1 2 1 3
node 2 2 1 1
node 3 1 1 1
node 4 3 0 2
node 8 3 0 0
node 40 1 0 0
gene 2 1 4 -0.13213 0 1 -0.13213 1
gene 2 2 4 2.48309 0 2 2.48309 1
gene 3 3 4 3.22314 0 3 3.22314 0
gene 3 3 8 1.02969 0 10 1.02969 1
gene 3 8 4 -5.10834 0 11 -5.10834 1
gene 3 2 8 -0.627956 0 39 -0.627956 1
gene 3 8 40 1.62525 0 106 1.62525 1
gene 3 40 4 -6.95837 0 107 -6.95837 1
genomeend 16

/* Organism #17 Fitness: 3.97322 Error: 2.00671 */
genomestart 17
trait 1 0.1 0 0 0 0 0 0 0 
trait 2 0.186084 0 0 0.0589002 0.0756163 0 0 0 
trait 3 0.194531 0.0673631 0.0971225 0.00833537 0.100527 0.337931 0 0 
node 1 2 1 3
node 2 2 1 1
node 3 1 1 1
node 4 3 0 2
node 8 3 0 0
node 40 1 0 0
gene 2 1 4 4.82686 0 1 4.82686 1
gene 2 2 4 1.26757 0 2 1.26757 1
gene 3 3 4 1.24489 0 3 1.24489 0
gene 3 3 8 2.90947 0 10 2.90947 1
gene 3 8 4 -6.48686 0 11 -6.48686 1
gene 3 2 8 -3.10041 0 39 -3.10041 1
gene 3 8 40 1.17117 0 106 1.17117 1
gene 3 40 4 -2.7419 0 107 -2.7419 1
genomeend 17

/* Organism #18 Fitness: 9 Error: 1 */
genomestart 18
trait 1 0.1 0 0 0 0 0 0 0 
trait 2 0.186084 0 0 0.0589002 0.0756163 0 0 0 
trait 3 0.194531 0 0.0971225 0 0.100527 0.675863 0 0 
node 1 2 1 3
node 2 2 1 1
node 3 1 1 1
node 4 3 0 2
node 8 3 0 0
node 40 1 0 0
gene 2 1 4 3.04244 0 1 3.04244 1
gene 2 2 4 3.54929 0 2 3.54929 1
gene 1 3 4 2.58709 0 3 2.58709 0
gene 3 3 8 4.34644 0 10 4.34644 1
gene 3 8 4 -7.45643 0 11 -7.45643 1
gene 3 2 8 -2.73267 0 39 -2.73267 1
gene 3 8 40 5.06632 0 106 5.06632 1
gene 3 40 4 -5.57104 0 107 -5.57104 1
genomeend 18

/* Species #3 : (Size 10) (AF 8.51067) (Age 19)  */


/* Organism #19 Fitness: 9 Error: 1 */
genomestart 19
trait 1 0.1 0 0 0 0 0 0 0 
trait 2 0.2 0 0 0 0 0 0 0 
trait 3 0.3 0 0 0 0 0 0 0 
node 1 1 1 3
node 2 3 1 1
node 3 1 1 1
node 4 1 0 2
node 9 1 0 0
gene 3 1 4 -5.49036 0 1 -5.49036 1
gene 2 2 4 -7.23774 0 2 -7.23774 1
gene 3 3 4 7.90482 0 3 7.90482 1
gene 3 3 9 2.63527 0 12 2.63527 1
gene 3 9 4 3.42489 0 13 3.42489 1
gene 3 2 9 -3.09 0 24 -3.09 1
gene 1 1 9 -1.07005 0 147 -1.07005 1
genomeend 19

/* Organism #20 Fitness: 8.99986 Error: 1.00002 */
genomestart 20
trait 1 0.1 0 0 0 0 0 0 0 
trait 2 0.2 0 0 0 0 0 0 0 
trait 3 0.3 0 0 0 0 0 0 0 
node 1 1 1 3
node 2 3 1 1
node 3 1 1 1
node 4 1 0 2
node 9 1 0 0
gene 3 1 4 -3.64087 0 1 -3.64087 1
gene 2 2 4 -7.77097 0 2 -7.77097 1
gene 3 3 4 5.81095 0 3 5.81095 1
gene 3 3 9 1.34159 0 12 1.34159 1
gene 3 9 4 5.42179 0 13 5.42179 1
gene 3 2 9 -1.44749 0 24 -1.44749 1
gene 1 1 9 -3.3742 0 147 -3.3742 1
genomeend 20

/* Organism #21 Fitness: 4.11627 Error: 1.97114 */
genomestart 21
trait 1 0.1 0 0 0 0 0 0 0 
trait 2 0.2 0 0 0 0 0 0 0 
trait 3 0.3 0 0 0 0 0 0 0 
node 1 1 1 3
node 2 3 1 1
node 3 1 1 1
node 4 1 0 2
node 9 1 0 0
gene 3 1 4 -4.16494 0 1 -4.16494 1
gene 2 2 4 -5.47949 0 2 -5.47949 1
gene 3 3 4 8 0 3 8 1
gene 3 3 9 4.21658 0 12 4.21658 1
gene 1 9 4 2.35811 0 13 2.35811 1
gene 3 2 9 -3.76736 0 24 -3.76736 1
gene 1 1 9 1.22601 0 147 1.22601 1
genomeend 21

/* Organism #22 Fitness: 9 Error: 1 */
genomestart 22
trait 1 0.1 0 0 0 0 0 0 0 
trait 2 0.2 0 0 0 0 0 0 0 
trait 3 0.3 0 0 0 0 0 0 0 
node 1 1 1 3
node 2 3 1 1
node 3 1 1 1
node 4 1 0 2
node 9 1 0 0
gene 3 1 4 -5.49036 0 1 -5.49036 1
gene 2 2 4 -7.23774 0 2 -7.23774 1
gene 3 3 4 8 0 3 8 1
gene 3 3 9 3.90896 0 12 3.90896 1
gene 3 9 4 1.79085 0 13 1.79085 1
gene 3 2 9 -3.09 0 24 -3.09 1
gene 1 1 9 1.42278 0 147 1.42278 1
genomeend 22

/* Organism #23 Fitness: 8.99999 Error: 1 */
genomestart 23
trait 1 0.1 0 0 0 0 0 0 0 
trait 2 0.2 0 0 0 0 0 0 0 
trait 3 0.3 0 0 0 0 0 0 0 
node 1 1 1 3
node 2 3 1 1
node 3 1 1 1
node 4 1 0 2
node 9 1 0 0
gene 3 1 4 -5.479 0 1 -5.479 1
gene 2 2 4 -7.73489 0 2 -7.73489 1
gene 3 3 4 6.06647 0 3 6.06647 1
gene 3 3 9 1.36104 0 12 1.36104 1
gene 3 9 4 2.07055 0 13 2.07055 1
gene 3 2 9 -0.773721 0 24 -0.773721 1
gene 1 1 9 -0.0971938 0 147 -0.0971938 1
genomeend 23

/* Organism #24 Fitness: 9 Error: 1 */
genomestart 24
trait 1 0.1 0 0 0 0 0 0 0 
trait 2 0.2 0 0 0 0 0 0 0 
trait 3 0.3 0 0 0 0 0 0 0 
node 1 1 1 3
node 2 3 1 1
node 3 1 1 1
node 4 1 0 2
node 9 1 0 0
gene 3 1 4 -5.49036 0 1 -5.49036 1
gene 2 2 4 -7.57131 0 2 -7.57131 1
gene 3 3 4 7.95241 0 3 7.95241 1
gene 3 3 9 2.90251 0 12 2.90251 1
gene 3 9 4 2.8029 0 13 2.8029 1
gene 3 2 9 -3.59939 0 24 -3.59939 1
gene 1 1 9 -1.14507 0 147 -1.14507 1
genomeend 24

/* Organism #25 Fitness: 8.99069 Error: 1.00155 */
genomestart 25
trait 1 0.1 0 0 0 0 0 0 0 
trait 2 0.2 0 0 0 0 0 0 0 
trait 3 0.3 0 0 0 0.322642 0 0 0 
node 1 1 1 3
node 2 3 1 1
node 3 1 1 1
node 4 1 0 2
node 9 1 0 0
gene 3 1 4 -3.57884 0 1 -3.57884 1
gene 2 2 4 -6.92141 0 2 -6.92141 1
gene 3 3 4 6.4906 0 3 6.4906 1
gene 3 3 9 4.13823 0 12 4.13823 1
gene 3 9 4 2.58731 0 13 2.58731 1
gene 3 2 9 -0.627537 0 24 -0.627537 1
gene 1 1 9 0.290086 0 147 0.290086 1
genomeend 25

/* Organism #26 Fitness: 9 Error: 1 */
genomestart 26
trait 1 0.1 0 0 0 0 0 0 0 
trait 2 0.2 0 0 0 0 0 0 0 
trait 3 0.3 0 0 0 0 0 0 0 
node 1 1 1 3
node 2 3 1 1
node 3 1 1 1
node 4 1 0 2
node 9 1 0 0
gene 3 1 4 -5.49036 0 1 -5.49036 1
gene 2 2 4 -7.57131 0 2 -7.57131 1
gene 3 3 4 7.95241 0 3 7.95241 1
gene 3 3 9 2.90251 0 12 2.90251 1
gene 3 9 4 2.8029 0 13 2.8029 1
gene 3 2 9 -3.59939 0 24 -3.59939 1
gene 1 1 9 -1.14507 0 147 -1.14507 1
genomeend 26

/* Organism #27 Fitness: 8.99986 Error: 1.00002 */
genomestart 27
trait 1 0.1 0 0 0 0 0 0 0 
trait 2 0.2 0 0 0 0 0 0 0 
trait 3 0.3 0 0 0 0 0 0 0 
node 1 1 1 3
node 2 3 1 1
node 3 1 1 1
node 4 1 0 2
node 9 1 0 0
gene 3 1 4 -4.92371 0 1 -4.92371 1
gene 2 2 4 -6.62455 0 2 -6.62455 1
gene 3 3 4 5.62604 0 3 5.62604 1
gene 3 3 9 5.32841 0 12 5.32841 1
gene 3 9 4 1.46632 0 13 1.46632 1
gene 3 2 9 -2.29705 0 24 -2.29705 1
gene 1 1 9 -3.43771 0 147 -3.43771 1
genomeend 27

/* Organism #28 Fitness: 9 Error: 1 */
genomestart 28
trait 1 0.1 0 0 0 0 0 0 0 
trait 2 0.2 0 0 0 0 0 0 0 
trait 3 0.3 0 0 0 0 0 0 0 
node 1 1 1 3
node 2 3 1 1
node 3 1 1 1
node 4 1 0 2
node 9 1 0 0
gene 3 1 4 -5.49036 0 1 -5.49036 1
gene 2 2 4 -7.23774 0 2 -7.23774 1
gene 3 3 4 7.90482 0 3 7.90482 1
gene 3 3 9 2.63527 0 12 2.63527 1
gene 3 9 4 3.42489 0 13 3.42489 1
gene 3 2 9 -3.09 0 24 -3.09 1
gene 1 1 9 -1.07005 0 147 -1.07005 1
genomeend 28

/* Species #4 : (Size 8) (AF 6.13955) (Age 18)  */


/* Organism #29 Fitness: 8.99835 Error: 1.00027 */
genomestart 29
trait 1 0.116428 0.0364877 0 0 0 0.259282 0 0 
trait 2 0.6 0 0.140339 0.114414 0 0 0 0 
trait 3 0.343916 0 0.285844 0.0125917 0 0 0 0 
node 1 3 1 3
node 2 2 1 1
node 3 3 1 1
node 4 2 0 2
node 10 1 0 0
gene 3 1 4 -3.83027 0 1 -3.83027 1
gene 2 2 4 3.17457 0 2 3.17457 1
gene 3 3 4 -3.97269 0 3 -3.97269 1
gene 3 2 10 1.12505 0 14 1.12505 1
gene 2 10 4 2.34111 0 15 2.34111 1
genomeend 29

/* Organism #30 Fitness: 4 Error: 2 */
genomestart 30
trait 1 0.116428 0.0364877 0 0 0 0.259282 0 0 
trait 2 0.6 0 0.140339 0.114414 0 0 0 0 
trait 3 0.343916 0 0.285844 0.0125917 0 0 0 0 
node 1 3 1 3
node 2 2 1 1
node 3 3 1 1
node 4 2 0 2
node 10 1 0 0
gene 3 1 4 -3.69812 0 1 -3.69812 1
gene 2 2 4 -0.00961571 0 2 -0.00961571 1
gene 3 3 4 -2.72456 0 3 -2.72456 1
gene 3 2 10 -0.0658961 0 14 -0.0658961 1
gene 2 10 4 0.287141 0 15 0.287141 1
genomeend 30

/* Organism #31 Fitness: 8.99206 Error: 1.00132 */
genomestart 31
trait 1 0.116428 0.0364877 0 0 0 0.259282 0 0 
trait 2 0.6 0 0.140339 0.114414 0 0 0 0 
trait 3 0.343916 0 0.285844 0.0125917 0 0 0 0 
node 1 3 1 3
node 2 2 1 1
node 3 3 1 1
node 4 2 0 2
node 10 1 0 0
gene 3 1 4 -2.93554 0 1 -2.93554 1
gene 2 2 4 1.99774 0 2 1.99774 1
gene 3 3 4 -3.01578 0 3 -3.01578 1
gene 3 2 10 0.787554 0 14 0.787554 1
gene 2 10 4 2.3603 0 15 2.3603 1
gene 2 3 10 -2.53075 0 179 -2.53075 1
genomeend 31

/* Organism #32 Fitness: 4.12096 Error: 1.96999 */
genomestart 32
trait 1 0.116428 0.0364877 0 0 0 0.259282 0 0 
trait 2 0.6 0 0.140339 0.114414 0 0 0 0 
trait 3 0.343916 0 0.285844 0.0125917 0 0 0 0 
node 1 3 1 3
node 2 2 1 1
node 3 3 1 1
node 4 2 0 2
node 10 1 0 0
gene 3 1 4 -1.9549 0 1 -1.9549 1
gene 2 2 4 1.37447 0 2 1.37447 1
gene 3 3 4 -1.43141 0 3 -1.43141 1
gene 3 2 10 3.11047 0 14 3.11047 1
gene 2 10 4 2.5552 0 15 2.5552 1
genomeend 32

/* Organism #33 Fitness: 8.0347 Error: 1.16545 */
genomestart 33
trait 1 0.116428 0.0364877 0 0 0 0.259282 0 0 
trait 2 0.6 0 0.140339 0.114414 0 0 0 0 
trait 3 0.343916 0 0.285844 0.0125917 0 0 0 0 
node 1 3 1 3
node 2 2 1 1
node 3 3 1 1
node 4 2 0 2
node 10 1 0 0
gene 3 1 4 -2.93554 0 1 -2.93554 1
gene 2 2 4 2.26241 0 2 2.26241 1
gene 3 3 4 -3.7956 0 3 -3.7956 1
gene 3 2 10 1.89354 0 14 1.89354 1
gene 2 10 4 2.63447 0 15 2.63447 1
gene 2 3 10 -0.233161 0 179 -0.233161 1
gene 2 1 10 0.921903 0 197 0.921903 1
genomeend 33

/* Organism #34 Fitness: 7.07212 Error: 1.34065 */
genomestart 34
trait 1 0.116428 0.0364877 0 0 0 0.259282 0 0 
trait 2 0.6 0 0.140339 0.114414 0 0 0 0 
trait 3 0.343916 0 0.285844 0.0125917 0 0 0 0 
node 1 3 1 3
node 2 2 1 1
node 3 3 1 1
node 4 2 0 2
node 10 2 0 0
gene 3 1 4 -4.46116 0 1 -4.46116 1
gene 2 2 4 3.6613 0 2 3.6613 1
gene 3 3 4 -5.09088 0 3 -5.09088 1
gene 3 2 10 0.51861 0 14 0.51861 1
gene 2 10 4 1.00661 0 15 1.00661 1
gene 2 3 10 -0.872524 0 179 -0.872524 1
genomeend 34

/* Organism #35 Fitness: 3.89725 Error: 2.02586 */
genomestart 35
trait 1 0.116428 0.0364877 0 0 0 0.259282 0 0 
trait 2 0.6 0 0.140339 0.114414 0 0 0 0 
trait 3 0.343916 0 0.285844 0.0125917 0 0 0 0 
node 1 3 1 3
node 2 2 1 1
node 3 3 1 1
node 4 2 0 2
node 10 1 0 0
gene 3 1 4 0.873821 0 1 0.873821 1
gene 2 2 4 2.85041 0 2 2.85041 1
gene 3 3 4 -4.51313 0 3 -4.51313 1
gene 3 2 10 -0.665757 0 14 -0.665757 1
gene 2 10 4 1.50357 0 15 1.50357 1
genomeend 35

/* Organism #36 Fitness: 4.00095 Error: 1.99976 */
genomestart 36
trait 1 0.116428 0.0364877 0 0 0 0.259282 0 0 
trait 2 0.6 0 0.140339 0.114414 0 0 0 0 
trait 3 0.343916 0 0.285844 0.0125917 0 0 0 0 
node 1 3 1 3
node 2 2 1 1
node 3 3 1 1
node 4 2 0 2
node 10 1 0 0
gene 3 1 4 -3.46813 0 1 -3.46813 1
gene 2 2 4 1.76753 0 2 1.76753 1
gene 3 3 4 -2.37523 0 3 -2.37523 1
gene 3 2 10 1.96257 0 14 1.96257 1
gene 2 10 4 0.0061037 0 15 0.0061037 1
genomeend 36

/* Species #5 : (Size 7) (AF 7.02882) (Age 17)  */


/* Organism #37 Fitness: 8.9424 Error: 1.00962 */
genomestart 37
trait 1 0.05 0 0 0 0 0 0 0 
trait 2 0.2 0 0 0 0 0 0 0 
trait 3 0.38866 0 0 0 0 0 0.0246631 0 
node 1 2 1 3
node 2 1 1 1
node 3 1 1 1
node 4 2 0 2
node 15 1 0 0
gene 1 1 4 -2.42533 0 1 -2.42533 1
gene 3 2 4 -2.64666 0 2 -2.64666 1
gene 2 3 4 1.61939 0 3 1.61939 0
gene 2 3 15 2.42121 0 27 2.42121 1
gene 2 15 4 3.37188 0 28 3.37188 1
gene 3 1 15 -0.57094 0 128 -0.57094 1
gene 1 2 15 -0.752403 0 152 0 1
genomeend 37

/* Organism #38 Fitness: 4.12663 Error: 1.96859 */
genomestart 38
trait 1 0.05 0 0 0 0 0 0 0 
trait 2 0.2 0 0 0 0 0 0 0 
trait 3 0.38866 0 0 0 0 0 0.0246631 0 
node 1 2 1 3
node 2 1 1 1
node 3 1 1 1
node 4 2 0 2
node 15 1 0 0
gene 1 1 4 -2.85083 0 1 -2.85083 1
gene 3 2 4 -2.76934 0 2 -2.76934 1
gene 2 3 4 1.0802 0 3 1.0802 0
gene 2 3 15 1.69456 0 27 1.69456 1
gene 2 15 4 2.22072 0 28 2.22072 1
gene 3 1 15 0.398862 0 128 0.398862 1
gene 1 2 15 -1.96353 0 152 -1.96353 1
genomeend 38

/* Organism #39 Fitness: 8.98139 Error: 1.0031 */
genomestart 39
trait 1 0.05 0 0 0 0 0 0 0 
trait 2 0.2 0 0 0 0 0 0 0 
trait 3 0.38866 0 0 0 0 0 0.0246631 0 
node 1 2 1 3
node 2 1 1 1
node 3 1 1 1
node 4 2 0 2
node 15 1 0 0
gene 1 1 4 -2.64574 0 1 -2.64574 1
gene 3 2 4 -3.92645 0 2 -3.92645 1
gene 2 3 4 3.38191 0 3 3.38191 0
gene 2 3 15 3.5275 0 27 3.5275 1
gene 2 15 4 3.81821 0 28 3.81821 1
gene 3 1 15 -1.25669 0 128 -1.25669 1
gene 1 2 15 1.69358 0 152 1.69358 1
genomeend 39

/* Organism #40 Fitness: 5.89098 Error: 1.57287 */
genomestart 40
trait 1 0.05 0 0 0 0 0 0 0 
trait 2 0.2 0 0 0 0 0 0 0 
trait 3 0.38866 0 0 0 0 0 0.0246631 0 
node 1 2 1 3
node 2 1 1 1
node 3 1 1 1
node 4 2 0 2
node 15 1 0 0
gene 1 1 4 0.0563639 0 1 0.0563639 1
gene 3 2 4 -4.44923 0 2 -4.44923 1
gene 2 3 4 0.78486 0 3 0.78486 0
gene 2 3 15 2.25046 0 27 2.25046 1
gene 2 15 4 2.55764 0 28 2.55764 1
gene 3 1 15 -1.3603 0 128 -1.3603 1
gene 1 2 15 1.18194 0 152 1.18194 1
genomeend 40

/* Organism #41 Fitness: 4.01595 Error: 1.99602 */
genomestart 41
trait 1 0.05 0 0 0 0 0 0 0 
trait 2 0.2 0 0 0 0 0 0 0 
trait 3 0.38866 0 0 0 0 0 0.0246631 0 
node 1 2 1 3
node 2 1 1 1
node 3 1 1 1
node 4 3 0 2
node 15 1 0 0
gene 1 1 4 -2.42349 0 1 -2.42349 1
gene 3 2 4 -4.4178 0 2 -4.4178 1
gene 2 3 4 -0.673467 0 3 -0.673467 0
gene 2 3 15 1.2789 0 27 1.2789 1
gene 2 15 4 3.8649 0 28 3.8649 1
gene 1 1 15 -1.4163 0 128 -1.4163 1
gene 1 2 15 -2.08347 0 152 -2.08347 1
genomeend 41

/* Organism #42 Fitness: 8.58642 Error: 1.06974 */
genomestart 42
trait 1 0.05 0 0 0 0 0 0 0 
trait 2 0.2 0 0 0 0 0 0 0 
trait 3 0.38866 0 0 0 0 0 0.0246631 0 
node 1 2 1 3
node 2 1 1 1
node 3 1 1 1
node 4 2 0 2
node 15 1 0 0
gene 1 1 4 -0.737499 0 1 -0.737499 1
gene 3 2 4 -2.18039 0 2 -2.18039 1
gene 2 3 4 1.52478 0 3 1.52478 0
gene 2 3 15 0.606807 0 27 0.606807 1
gene 2 15 4 3.37188 0 28 3.37188 1
gene 3 1 15 -0.647847 0 128 -0.647847 1
gene 1 2 15 -0.215659 0 152 -0.215659 1
genomeend 42

/* Organism #43 Fitness: 8.65795 Error: 1.05756 */
genomestart 43
trait 1 0.05 0 0 0 0 0 0 0 
trait 2 0.2 0 0 0 0 0 0 0 
trait 3 0.38866 0 0 0 0 0 0.0246631 0 
node 1 2 1 3
node 2 1 1 1
node 3 1 1 1
node 4 2 0 2
node 15 1 0 0
gene 1 1 4 -1.93955 0 1 -1.93955 1
gene 3 2 4 -1.66472 0 2 -1.66472 1
gene 2 3 4 1.81867 0 3 1.81867 0
gene 2 3 15 4.42017 0 27 4.42017 1
gene 2 15 4 2.50782 0 28 2.50782 1
gene 3 1 15 -1.71249 0 128 -1.71249 1
gene 1 2 15 -2.56703 0 152 -2.56703 1
genomeend 43

/* Species #6 : (Size 10) (AF 5.76547) (Age 17)  */


/* Organism #44 Fitness: 8.9972 Error: 1.00047 */
genomestart 44
trait 1 0.1 0 0 0 0 0 0 0 
trait 2 0.2 0 0 0 0 0 0 0 
trait 3 1 0 0.132054 0 0 0 0 0 
node 1 1 1 3
node 2 3 1 1
node 3 1 1 1
node 4 1 0 2
node 9 1 0 0
node 17 1 0 0
gene 1 1 4 -4.36782 0 1 -4.36782 1
gene 3 2 4 -5.67668 0 2 -5.67668 1
gene 2 3 4 0.371738 0 3 0.371738 0
gene 3 3 9 4.83465 0 12 4.83465 1
gene 3 9 4 5.05526 0 13 5.05526 1
gene 3 2 9 0.672414 0 24 0.672414 1
gene 3 9 17 3.75576 0 33 3.75576 1
gene 3 17 4 0.985313 0 34 0.985313 1
gene 2 1 17 -2.29411 0 58 -2.29411 1
genomeend 44

/* Organism #45 Fitness: 8.94649 Error: 1.00893 */
genomestart 45
trait 1 0.1 0.0625629 0 0 0 0 0 0 
trait 2 0.2 0 0 0 0 0 0 0 
trait 3 0.65 0 0.0660268 0 0 0 0 0 
node 1 1 1 3
node 2 3 1 1
node 3 1 1 1
node 4 1 0 2
node 9 1 0 0
node 17 1 0 0
gene 1 1 4 -4.62471 0 1 -4.62471 1
gene 3 2 4 -6.40821 0 2 -6.40821 1
gene 2 3 4 0.863392 0 3 0.863392 0
gene 3 3 9 5.60723 0 12 5.60723 1
gene 3 9 4 6.20634 0 13 6.20634 1
gene 3 2 9 -0.432508 0 24 -0.432508 1
gene 3 9 17 3.05429 0 33 3.05429 1
gene 3 17 4 -0.623699 0 34 -0.623699 1
gene 2 1 17 -1.41441 0 58 -1.41441 1
genomeend 45

/* Organism #46 Fitness: 4.01956 Error: 1.99512 */
genomestart 46
trait 1 0.1 0.125126 0 0 0 0 0 0 
trait 2 0.2 0 0 0 0 0 0 0 
trait 3 0.3 0 0 0 0 0 0 0 
node 1 1 1 3
node 2 3 1 1
node 3 3 1 1
node 4 1 0 2
node 9 1 0 0
node 17 1 0 0
gene 1 1 4 -7.43798 0 1 -7.43798 1
gene 3 2 4 -0.183271 0 2 -0.183271 1
gene 2 3 4 -0.0408948 0 3 -0.0408948 0
gene 3 3 9 7.20098 0 12 7.20098 1
gene 3 9 4 6.37565 0 13 6.37565 1
gene 2 2 9 3.42701 0 24 3.42701 1
gene 3 9 17 -0.885113 0 33 -0.885113 1
gene 3 17 4 -0.62965 0 34 -0.62965 1
gene 2 1 17 0.162511 0 58 0.162511 1
genomeend 46

/* Organism #47 Fitness: 4.33832 Error: 1.91714 */
genomestart 47
trait 1 0.1 0 0 0 0 0 0 0 
trait 2 0.2 0 0 0 0 0 0 0 
trait 3 1 0 0.132054 0 0 0 0 0 
node 1 1 1 3
node 2 3 1 1
node 3 1 1 1
node 4 1 0 2
node 9 1 0 0
node 17 2 0 0
gene 1 1 4 -3.2516 0 1 -3.2516 1
gene 3 2 4 -5.67668 0 2 -5.67668 1
gene 2 3 4 0.77504 0 3 0.77504 0
gene 3 3 9 0.77044 0 12 0.77044 1
gene 3 9 4 1.96966 0 13 1.96966 1
gene 3 2 9 0.406735 0 24 0.406735 1
gene 3 9 17 6.16932 0 33 6.16932 1
gene 3 17 4 0.838519 0 34 0.838519 1
gene 2 1 17 -2.68085 0 58 -2.68085 1
genomeend 47

/* Organism #48 Fitness: 4 Error: 2 */
genomestart 48
trait 1 0.1 0.125126 0 0 0 0 0 0 
trait 2 0.2 0 0 0 0 0 0 0 
trait 3 0.3 0 0 0 0 0 0 0 
node 1 1 1 3
node 2 3 1 1
node 3 1 1 1
node 4 1 0 2
node 9 1 0 0
node 17 1 0 0
gene 1 1 4 -3.51116 0 1 -3.51116 1
gene 3 2 4 0.757614 0 2 0.757614 1
gene 2 3 4 -0.33404 0 3 -0.33404 0
gene 3 3 9 6.15053 0 12 6.15053 1
gene 3 9 4 -1.28925 0 13 -1.28925 1
gene 2 2 9 4.50348 0 24 4.50348 1
gene 3 9 17 -1.43788 0 33 -1.43788 1
gene 3 17 4 0.963187 0 34 0.963187 1
gene 2 1 17 0.479904 0 58 0.479904 1
genomeend 48

/* Organism #49 Fitness: 1.22252 Error: 2.89432 */
genomestart 49
trait 1 0.1 0.125126 0 0 0 0 0 0 
trait 2 0.2 0 0 0 0 0 0 0 
trait 3 0.3 0 0 0 0 0 0 0 
node 1 1 1 3
node 2 3 1 1
node 3 3 1 1
node 4 1 0 2
node 9 1 0 0
node 17 3 0 0
gene 1 1 4 -5.62461 0 1 -5.62461 1
gene 3 2 4 1.71735 0 2 1.71735 1
gene 2 3 4 -2.81272 0 3 -2.81272 1
gene 3 3 9 5.34268 0 12 5.34268 1
gene 3 9 4 8 0 13 8 1
gene 3 2 9 -2.41249 0 24 -2.41249 1
gene 3 9 17 3.69221 0 33 3.69221 1
gene 3 17 4 1.78944 0 34 1.78944 1
gene 2 1 17 -5.39826 0 58 -5.39826 1
genomeend 49

/* Organism #50 Fitness: 8.80452 Error: 1.03276 */
genomestart 50
trait 1 0.1 0.0625629 0 0 0 0 0 0 
trait 2 0.2 0 0 0 0 0 0 0 
trait 3 0.65 0 0.0660268 0 0 0 0 0 
node 1 1 1 3
node 2 3 1 1
node 3 1 1 1
node 4 1 0 2
node 9 1 0 0
node 17 1 0 0
gene 1 1 4 -4.98944 0 1 -4.98944 1
gene 3 2 4 -1.86922 0 2 -1.86922 1
gene 2 3 4 0.399186 0 3 0.399186 0
gene 3 3 9 3.2712 0 12 3.2712 1
gene 3 9 4 6.11376 0 13 6.11376 1
gene 3 2 9 0.782853 0 24 0.782853 1
gene 3 9 17 3.39236 0 33 3.39236 1
gene 3 17 4 0.324892 0 34 0.324892 1
gene 2 1 17 -3.33185 0 58 -3.33185 1
genomeend 50

/* Organism #51 Fitness: 5.37937 Error: 1.68065 */
genomestart 51
trait 1 0.1 0.125126 0 0 0 0 0 0 
trait 2 0.2 0 0 0 0 0 0 0 
trait 3 0.3 0 0 0 0 0 0 0 
node 1 1 1 3
node 2 3 1 1
node 3 3 1 1
node 4 1 0 2
node 9 1 0 0
node 17 1 0 0
gene 1 1 4 -6.63321 0 1 -6.63321 1
gene 3 2 4 -2.88881 0 2 -2.88881 1
gene 2 3 4 0.353389 0 3 0.353389 0
gene 3 3 9 4.94627 0 12 4.94627 1
gene 3 9 4 6.58218 0 13 6.58218 1
gene 3 2 9 -0.915082 0 24 -0.915082 1
gene 3 9 17 1.38981 0 33 1.38981 1
gene 3 17 4 -0.255875 0 34 -0.255875 1
gene 2 1 17 -1.47114 0 58 -1.47114 1
genomeend 51

/* Organism #52 Fitness: 3.99923 Error: 2.00019 */
genomestart 52
trait 1 0.1 0 0 0 0 0 0 0 
trait 2 0.2 0 0 0 0 0 0 0 
trait 3 1 0 0.132054 0 0 0 0 0 
node 1 1 1 3
node 2 3 1 1
node 3 1 1 1
node 4 1 0 2
node 9 1 0 0
node 17 1 0 0
gene 1 1 4 -1.94198 0 1 -1.94198 1
gene 3 2 4 -4.60052 0 2 -4.60052 1
gene 2 3 4 0.0887326 0 3 0.0887326 0
gene 3 3 9 5.83993 0 12 5.83993 1
gene 3 9 4 5.17558 0 13 5.17558 1
gene 3 2 9 1.96098 0 24 1.96098 1
gene 3 9 17 4.14083 0 33 4.14083 1
gene 3 17 4 1.72798 0 34 1.72798 1
gene 2 1 17 -0.2734 0 58 -0.2734 1
genomeend 52

/* Organism #53 Fitness: 7.94746 Error: 1.18088 */
genomestart 53
trait 1 0.1 0.125126 0 0 0 0 0 0 
trait 2 0.2 0 0 0 0 0 0 0 
trait 3 0.3 0 0 0 0 0 0 0 
node 1 1 1 3
node 2 3 1 1
node 3 1 1 1
node 4 1 0 2
node 9 1 0 0
node 17 1 0 0
gene 1 1 4 -5.61106 0 1 -5.61106 1
gene 3 2 4 -1.54989 0 2 -1.54989 1
gene 2 3 4 -3.4264 0 3 -3.4264 0
gene 3 3 9 4.94627 0 12 4.94627 1
gene 3 9 4 7.17225 0 13 7.17225 1
gene 2 2 9 3.86633 0 24 3.86633 1
gene 3 9 17 3.02896 0 33 3.02896 1
gene 3 17 4 -0.62965 0 34 -0.62965 1
gene 2 1 17 -4.36959 0 58 -4.36959 1
gene 1 1 9 0.211859 0 198 0.211859 1
genomeend 53

/* Species #7 : (Size 8) (AF 7.2018) (Age 17)  */


/* Organism #54 Fitness: 9.41453 Error: 0.931689 */
genomestart 54
trait 1 0.0375 0 0 0 0 0 0.398953 0 
trait 2 0.2 0 0 0 0 0 0 0 
trait 3 0.3 0 0 0 0 0 0 0 
node 1 1 1 3
node 2 3 1 1
node 3 1 1 1
node 4 2 0 2
node 9 1 0 0
node 16 1 0 0
node 59 1 0 0
gene 1 1 4 1.33727 0 1 1.33727 1
gene 3 2 4 -7.18211 0 2 -7.18211 0
gene 3 3 4 -0.835067 0 3 -0.835067 1
gene 3 3 9 1.02279 0 12 1.02279 0
gene 1 9 4 0.495367 0 13 0.495367 1
gene 3 2 9 -2.14588 0 24 -2.14588 1
gene 3 2 16 -6.24617 0 29 -6.24617 1
gene 3 16 4 -5.48903 0 30 -5.48903 1
gene 3 3 16 -3.78378 0 49 -3.78378 1
gene 3 9 16 0.21659 0 140 0.21659 1
gene 3 1 16 0.448317 0 148 0.448317 1
gene 3 3 59 1 0 165 0 1
gene 3 59 9 1.02279 0 166 0 1
genomeend 54

/* Organism #55 Fitness: 4.00246 Error: 1.99939 */
genomestart 55
trait 1 0.0375 0 0 0 0 0 0.398953 0 
trait 2 0.2 0 0 0 0 0 0 0 
trait 3 0.3 0 0 0 0 0 0 0 
node 1 1 1 3
node 2 3 1 1
node 3 1 1 1
node 4 2 0 2
node 9 1 0 0
node 16 1 0 0
node 59 1 0 0
gene 1 1 4 -1.498 0 1 -1.498 1
gene 3 2 4 -8 0 2 -8 0
gene 3 3 4 -0.815153 0 3 -0.815153 1
gene 3 3 9 -1.26793 0 12 -1.26793 0
gene 1 9 4 -1.06993 0 13 -1.06993 1
gene 3 2 9 -3.15566 0 24 -3.15566 1
gene 3 2 16 -4.99743 0 29 -4.99743 1
gene 3 16 4 -5.00096 0 30 -5.00096 1
gene 3 3 16 -1.8898 0 49 -1.8898 1
gene 3 9 16 2.36509 0 140 2.36509 1
gene 3 1 16 0.448317 0 148 0.448317 1
gene 3 3 59 -0.260552 0 165 -0.260552 1
gene 3 59 9 1.28235 0 166 1.28235 1
genomeend 55

/* Organism #56 Fitness: 8.88749 Error: 1.01881 */
genomestart 56
trait 1 0.0375 0 0 0 0.354015 0.596667 0.398953 0 
trait 2 0.2 0 0 0 0 0 0 0 
trait 3 0.3 0 0 0 0 0 0 0 
node 1 1 1 3
node 2 3 1 1
node 3 1 1 1
node 4 2 0 2
node 9 1 0 0
node 16 1 0 0
node 59 1 0 0
gene 1 1 4 1.27341 0 1 1.27341 1
gene 3 2 4 -8 0 2 -8 0
gene 3 3 4 -2.0983 0 3 -2.0983 1
gene 3 3 9 -1.39855 0 12 -1.39855 0
gene 1 9 4 -1.96916 0 13 -1.96916 1
gene 3 2 9 -4.67663 0 24 -4.67663 1
gene 3 2 16 -6.68434 0 29 -6.68434 1
gene 3 16 4 -3.29414 0 30 -3.29414 1
gene 3 3 16 -1.75895 0 49 -1.75895 1
gene 3 9 16 1.87962 0 140 1.87962 1
gene 3 1 16 -0.335322 0 148 -0.335322 1
gene 3 3 59 0.161061 0 165 0.161061 1
gene 3 59 9 1.02279 0 166 1.02279 1
genomeend 56

/* Organism #57 Fitness: 3.91821 Error: 2.02055 */
genomestart 57
trait 1 0.0375 0 0 0 0 0 0.398953 0 
trait 2 0 0 0 0 0.630573 0 0 0 
trait 3 0.3 0 0 0 0 0 0 0 
node 1 1 1 3
node 2 1 1 1
node 3 1 1 1
node 4 2 0 2
node 9 1 0 0
node 16 1 0 0
node 59 1 0 0
gene 1 1 4 -0.318358 0 1 -0.318358 1
gene 3 2 4 -8 0 2 -8 0
gene 3 3 4 0.318232 0 3 0.318232 1
gene 3 3 9 -0.885308 0 12 -0.885308 0
gene 1 9 4 -1.79306 0 13 -1.79306 1
gene 3 2 9 -6.0041 0 24 -6.0041 1
gene 3 2 16 -8 0 29 -8 1
gene 3 16 4 -1.95552 0 30 -1.95552 1
gene 3 3 16 -2.43059 0 49 -2.43059 1
gene 3 9 16 -0.156652 0 140 -0.156652 1
gene 3 1 16 1.93197 0 148 1.93197 1
gene 3 3 59 2.30337 0 165 2.30337 1
gene 3 59 9 -1.02279 0 166 -1.02279 1
genomeend 57

/* Organism #58 Fitness: 9.41452 Error: 0.931691 */
genomestart 58
trait 1 0.0375 0 0 0 0 0 0.398953 0 
trait 2 0.2 0 0 0 0 0 0 0 
trait 3 0.3 0 0 0 0 0 0 0 
node 1 1 1 3
node 2 3 1 1
node 3 1 1 1
node 4 2 0 2
node 9 1 0 0
node 16 1 0 0
node 59 1 0 0
gene 1 1 4 1.33727 0 1 1.33727 1
gene 3 2 4 -7.18211 0 2 -7.18211 0
gene 3 3 4 -0.835067 0 3 -0.835067 1
gene 3 3 9 1.02279 0 12 1.02279 0
gene 1 9 4 0.495367 0 13 0.495367 1
gene 3 2 9 -2.14588 0 24 -2.14588 1
gene 3 2 16 -6.24617 0 29 -6.24617 1
gene 3 16 4 -5.48903 0 30 -5.48903 1
gene 3 3 16 -3.78378 0 49 -3.78378 1
gene 3 9 16 0.21659 0 140 0.21659 1
gene 3 1 16 0.448317 0 148 0.448317 1
gene 3 3 59 1 0 165 0 1
gene 3 59 9 1.02279 0 166 0 1
gene 1 59 16 -0.648518 0 199 -0.648518 1
genomeend 58

/* Organism #59 Fitness: 8.99931 Error: 1.00011 */
genomestart 59
trait 1 0.0375 0 0 0 0 0 0.398953 0 
trait 2 0.2 0 0 0 0 0 0 0 
trait 3 0.3 0 0 0 0 0 0 0 
node 1 1 1 3
node 2 3 1 1
node 3 1 1 1
node 4 2 0 2
node 9 1 0 0
node 16 1 0 0
node 59 1 0 0
gene 1 1 4 1.84312 0 1 1.84312 1
gene 3 2 4 -8 0 2 -8 0
gene 3 3 4 2.34458 0 3 2.34458 1
gene 3 3 9 2.94431 0 12 2.94431 0
gene 1 9 4 0.00546854 0 13 0.00546854 1
gene 3 2 9 -3.88749 0 24 -3.88749 1
gene 3 2 16 -5.58491 0 29 -5.58491 1
gene 3 16 4 -5.96977 0 30 -5.96977 1
gene 3 3 16 -3.47364 0 49 -3.47364 1
gene 3 9 16 1.09308 0 140 1.09308 1
gene 3 1 16 0.190817 0 148 0.190817 1
gene 3 3 59 -0.347758 0 165 -0.347758 1
gene 3 59 9 0.499012 0 166 0.499012 1
genomeend 59

/* Organism #60 Fitness: 8.97787 Error: 1.00369 */
genomestart 60
trait 1 0.0375 0 0 0 0 0 0.398953 0 
trait 2 0.2 0 0 0 0 0 0 0 
trait 3 0.3 0 0 0 0 0 0 0 
node 1 1 1 3
node 2 3 1 1
node 3 1 1 1
node 4 2 0 2
node 9 1 0 0
node 16 1 0 0
node 59 1 0 0
gene 1 1 4 1.33727 0 1 1.33727 1
gene 3 2 4 -7.5703 0 2 -7.5703 0
gene 3 3 4 -0.835067 0 3 -0.835067 1
gene 3 3 9 1.02279 0 12 1.02279 0
gene 1 9 4 -0.204194 0 13 -0.204194 1
gene 3 2 9 -2.14588 0 24 -2.14588 1
gene 3 2 16 -6.24617 0 29 -6.24617 1
gene 3 16 4 -5.48903 0 30 -5.48903 1
gene 3 3 16 -1.70249 0 49 -1.70249 1
gene 3 9 16 0.21659 0 140 0.21659 1
gene 3 1 16 0.283135 0 148 0.283135 1
gene 3 3 59 1 0 165 0 1
gene 3 59 9 -1.02279 0 166 -1.02279 1
genomeend 60

/* Organism #61 Fitness: 4 Error: 2 */
genomestart 61
trait 1 0.0375 0 0 0 0 0 0.398953 0 
trait 2 0.2 0 0 0 0 0 0 0 
trait 3 0.3 0 0 0 0 0 0 0 
node 1 1 1 3
node 2 3 1 1
node 3 1 1 1
node 4 2 0 2
node 9 1 0 0
node 16 1 0 0
node 59 1 0 0
gene 1 1 4 3.78493 0 1 3.78493 1
gene 3 2 4 -8 0 2 -8 0
gene 3 3 4 -0.998341 0 3 -0.998341 1
gene 3 3 9 2.83955 0 12 2.83955 0
gene 1 9 4 2.54316 0 13 2.54316 1
gene 3 2 9 -3.08898 0 24 -3.08898 1
gene 3 2 16 -8 0 29 -8 1
gene 3 16 4 -7.31213 0 30 -7.31213 1
gene 3 3 16 -1.76933 0 49 -1.76933 1
gene 3 9 16 0.828333 0 140 0.828333 1
gene 3 1 16 -1.05281 0 148 -1.05281 1
gene 3 3 59 1 0 165 1 1
gene 3 59 9 -2.04199 0 166 -2.04199 1
genomeend 61

/* Species #8 : (Size 8) (AF 5.72932) (Age 14)  */


/* Organism #62 Fitness: 8.99999 Error: 1 */
genomestart 62
trait 1 0.1 0 0 0 0 0 0 0 
trait 2 0.6 0 0.140339 0.114414 0 0 0 0 
trait 3 0.343916 0 0.285844 0 0 0 0 0 
node 1 3 1 3
node 2 2 1 1
node 3 3 1 1
node 4 2 0 2
node 10 3 0 0
node 25 1 0 0
gene 3 1 4 -0.523087 0 1 -0.523087 1
gene 2 2 4 3.27738 0 2 3.27738 1
gene 3 3 4 1.3242 0 3 1.3242 1
gene 3 2 10 4.48088 0 14 4.48088 1
gene 2 10 4 2.98715 0 15 2.98715 1
gene 3 3 10 2.42664 0 54 2.42664 1
gene 3 3 25 -2.76498 0 63 -2.76498 1
gene 3 25 4 -4.54183 0 64 -4.54183 1
gene 1 25 10 -2.96516 0 154 -2.96516 1
genomeend 62

/* Organism #63 Fitness: 8.99992 Error: 1.00001 */
genomestart 63
trait 1 0.1 0 0 0 0 0 0 0 
trait 2 0.6 0 0.140339 0.114414 0 0 0 0 
trait 3 0.343916 0 0.285844 0 0 0 0 0 
node 1 3 1 3
node 2 2 1 1
node 3 3 1 1
node 4 2 0 2
node 10 1 0 0
node 25 1 0 0
gene 1 1 4 -1.46599 0 1 -1.46599 1
gene 2 2 4 2.37114 0 2 2.37114 1
gene 3 3 4 0.883436 0 3 0.883436 0
gene 3 2 10 2.21297 0 14 2.21297 1
gene 2 10 4 3.92937 0 15 3.92937 1
gene 3 3 10 1.62297 0 54 1.62297 1
gene 3 3 25 -3.90271 0 63 -3.90271 1
gene 3 25 4 -4.91107 0 64 -4.91107 1
gene 1 25 10 -1.57437 0 154 -1.57437 1
genomeend 63

/* Organism #64 Fitness: 4.05478 Error: 1.98635 */
genomestart 64
trait 1 0.1 0 0 0 0 0 0 0 
trait 2 0.6 0 0.140339 0.114414 0 0 0 0 
trait 3 0.343916 0 0.285844 0 0 0 0 0 
node 1 3 1 3
node 2 2 1 1
node 3 3 1 1
node 4 2 0 2
node 10 1 0 0
node 25 1 0 0
gene 1 1 4 1.05129 0 1 1.05129 1
gene 2 2 4 -0.157552 0 2 -0.157552 1
gene 3 3 4 0.883436 0 3 0.883436 0
gene 3 2 10 4.25077 0 14 4.25077 1
gene 2 10 4 6.19667 0 15 6.19667 1
gene 3 3 10 -0.12978 0 54 -0.12978 1
gene 3 3 25 -2.07244 0 63 -2.07244 1
gene 3 25 4 -0.434202 0 64 -0.434202 1
gene 1 25 10 -2.09944 0 154 -2.09944 1
genomeend 64

/* Organism #65 Fitness: 1.00404 Error: 2.99798 */
genomestart 65
trait 1 0.1 0 0 0 0 0 0 0 
trait 2 0.6 0 0.140339 0.114414 0 0 0 0 
trait 3 0.343916 0 0.285844 0 0 0 0 0 
node 1 3 1 3
node 2 2 1 1
node 3 3 1 1
node 4 2 0 2
node 10 3 0 0
node 25 1 0 0
gene 3 1 4 -0.656301 0 1 -0.656301 1
gene 2 2 4 2.98013 0 2 2.98013 1
gene 3 3 4 1.49106 0 3 1.49106 1
gene 3 2 10 4.48088 0 14 4.48088 1
gene 2 10 4 -2.12241 0 15 -2.12241 1
gene 3 3 10 4.42698 0 54 4.42698 1
gene 3 3 25 -2.52617 0 63 -2.52617 1
gene 3 25 4 -4.8899 0 64 -4.8899 1
gene 1 25 10 -1.39674 0 154 -1.39674 1
genomeend 65

/* Organism #66 Fitness: 4.40235 Error: 1.90182 */
genomestart 66
trait 1 0.1 0 0 0 0 0 0 0 
trait 2 0.6 0 0.140339 0.114414 0 0 0 0 
trait 3 0.343916 0 0.285844 0 0 0 0 0 
node 1 3 1 3
node 2 2 1 1
node 3 3 1 1
node 4 2 0 2
node 10 3 0 0
node 25 1 0 0
gene 3 1 4 0.994369 0 1 0.994369 1
gene 2 2 4 5.56398 0 2 5.56398 1
gene 3 3 4 2.09678 0 3 2.09678 1
gene 3 2 10 0.0929289 0 14 0.0929289 1
gene 2 10 4 4.1335 0 15 4.1335 1
gene 3 3 10 -0.899075 0 54 -0.899075 1
gene 3 3 25 -2.1511 0 63 -2.1511 1
gene 3 25 4 -1.08806 0 64 -1.08806 1
gene 1 25 10 -5.36972 0 154 -5.36972 1
genomeend 66

/* Organism #67 Fitness: 1.08711 Error: 2.95735 */
genomestart 67
trait 1 0.1 0 0 0 0 0 0 0 
trait 2 0.6 0 0.140339 0.114414 0 0 0 0 
trait 3 0.343916 0 0.285844 0 0 0 0 0 
node 1 3 1 3
node 2 2 1 1
node 3 3 1 1
node 4 2 0 2
node 10 3 0 0
node 25 1 0 0
gene 1 1 4 -1.46599 0 1 -1.46599 1
gene 2 2 4 2.37114 0 2 2.37114 1
gene 3 3 4 2.48558 0 3 2.48558 0
gene 3 2 10 1.72712 0 14 1.72712 1
gene 2 10 4 0.790887 0 15 0.790887 1
gene 3 3 10 2.95598 0 54 2.95598 1
gene 3 3 25 -5.24064 0 63 -5.24064 1
gene 3 25 4 -4.54183 0 64 -4.54183 1
gene 1 25 10 -3.4897 0 154 -3.4897 1
genomeend 67

/* Organism #68 Fitness: 8.28671 Error: 1.12134 */
genomestart 68
trait 1 0.1 0 0 0 0 0 0 0 
trait 2 0.496573 0 0.0671865 0.114414 0.0581988 0 0 0 
trait 3 0.343916 0 0.285844 0 0 0 0 0 
node 1 3 1 3
node 2 2 1 1
node 3 3 1 1
node 4 2 0 2
node 10 1 0 0
node 25 1 0 0
gene 3 1 4 0.642949 0 1 0.642949 1
gene 2 2 4 0.232398 0 2 0.232398 1
gene 3 3 4 2.87866 0 3 2.87866 0
gene 3 2 10 3.46622 0 14 3.46622 1
gene 2 10 4 1.96982 0 15 1.96982 1
gene 3 3 10 0.613231 0 54 0.613231 1
gene 3 3 25 -2.86439 0 63 -2.86439 1
gene 3 25 4 -2.12904 0 64 -2.12904 1
gene 1 25 10 -1.87658 0 154 -1.87658 1
genomeend 68

/* Organism #69 Fitness: 8.99968 Error: 1.00005 */
genomestart 69
trait 1 0.1 0 0 0 0 0 0 0 
trait 2 0.6 0 0.140339 0.114414 0 0 0 0 
trait 3 0.343916 0 0.285844 0 0 0 0 0 
node 1 3 1 3
node 2 2 1 1
node 3 3 1 1
node 4 2 0 2
node 10 1 0 0
node 25 1 0 0
gene 3 1 4 -0.188623 0 1 -0.188623 1
gene 2 2 4 3.61942 0 2 3.61942 1
gene 3 3 4 1.02912 0 3 1.02912 1
gene 3 2 10 5.59065 0 14 5.59065 1
gene 2 10 4 1.37484 0 15 1.37484 1
gene 3 3 10 0.538938 0 54 0.538938 1
gene 3 3 25 -4.20858 0 63 -4.20858 1
gene 3 25 4 -5.29959 0 64 -5.29959 1
gene 1 25 10 -2.58983 0 154 -2.58983 1
genomeend 69

/* Species #9 : (Size 9) (AF 6.48522) (Age 13)  */


/* Organism #70 Fitness: 8.99937 Error: 1.00011 */
genomestart 70
trait 1 0.1 0 0 0 0 0 0 0 
trait 2 0.184958 0 0 0.0248001 0.0577677 0 0 0.0519959 
trait 3 0.16875 0.167659 0.0834662 0.00701926 0.0423273 0 0 0 
node 1 2 1 3
node 2 2 1 1
node 3 1 1 1
node 4 3 0 2
node 8 3 0 0
node 28 1 0 0
gene 2 1 4 -2.55353 0 1 -2.55353 1
gene 2 2 4 -6.15615 0 2 -6.15615 1
gene 3 3 4 2.0653 0 3 2.0653 0
gene 3 3 8 -0.776315 0 10 -0.776315 1
gene 3 8 4 -4.91844 0 11 -4.91844 1
gene 3 3 28 4.05261 0 70 4.05261 1
gene 3 28 4 6.29151 0 71 6.29151 1
genomeend 70

/* Organism #71 Fitness: 4.00776 Error: 1.99806 */
genomestart 71
trait 1 0.1 0 0 0 0 0 0 0 
trait 2 0.189549 0 0 0.0248001 0.0448031 0 0 0.025998 
trait 3 0.16875 0.167659 0.0834662 0.00701926 0.0423273 0 0 0 
node 1 2 1 3
node 2 2 1 1
node 3 1 1 1
node 4 3 0 2
node 8 3 0 0
node 28 1 0 0
gene 2 1 4 -2.74652 0 1 -2.74652 1
gene 2 2 4 -4.22986 0 2 -4.22986 1
gene 3 3 4 3.13339 0 3 3.13339 1
gene 3 3 8 -1.5709 0 10 -1.5709 1
gene 3 8 4 -2.94216 0 11 -2.94216 1
gene 3 3 28 3.6949 0 70 3.6949 1
gene 3 28 4 5.08631 0 71 5.08631 1
genomeend 71

/* Organism #72 Fitness: 5.77325 Error: 1.59724 */
genomestart 72
trait 1 0.1 0 0 0 0 0 0 0 
trait 2 0.184958 0 0 0.0248001 0.0577677 0 0 0.0519959 
trait 3 0.16875 0.167659 0.0834662 0.00701926 0.0423273 0 0 0 
node 1 2 1 3
node 2 2 1 1
node 3 1 1 1
node 4 3 0 2
node 8 3 0 0
node 28 1 0 0
gene 2 1 4 -0.49353 0 1 -0.49353 1
gene 2 2 4 -5.04825 0 2 -5.04825 1
gene 3 3 4 1.36536 0 3 1.36536 0
gene 3 3 8 0.714286 0 10 0.714286 1
gene 3 8 4 0.162435 0 11 0.162435 1
gene 3 3 28 5.44433 0 70 5.44433 1
gene 3 28 4 0.876949 0 71 0.876949 1
genomeend 72

/* Organism #73 Fitness: 8.99832 Error: 1.00028 */
genomestart 73
trait 1 0.1 0 0 0 0 0 0 0 
trait 2 0.19414 0 0 0.0248001 0.0318384 0 0 0 
trait 3 0.16875 0.167659 0.0834662 0.00701926 0.0423273 0 0 0 
node 1 2 1 3
node 2 2 1 1
node 3 1 1 1
node 4 3 0 2
node 8 3 0 0
node 28 1 0 0
gene 2 1 4 -2.53591 0 1 -2.53591 1
gene 2 2 4 -4.60749 0 2 -4.60749 1
gene 3 3 4 6.09058 0 3 6.09058 0
gene 3 3 8 -2.89789 0 10 -2.89789 1
gene 3 8 4 -3.17061 0 11 -3.17061 1
gene 3 3 28 2.90788 0 70 2.90788 1
gene 3 28 4 4.23956 0 71 4.23956 1
genomeend 73

/* Organism #74 Fitness: 8.99205 Error: 1.00132 */
genomestart 74
trait 1 0.1 0 0 0 0 0 0 0 
trait 2 0.189549 0 0 0.0248001 0.0448031 0 0 0.025998 
trait 3 0.16875 0.167659 0.0834662 0.00701926 0.0423273 0 0 0 
node 1 2 1 3
node 2 2 1 1
node 3 1 1 1
node 4 3 0 2
node 8 3 0 0
node 28 1 0 0
gene 2 1 4 -3.23383 0 1 -3.23383 1
gene 2 2 4 -3.04299 0 2 -3.04299 1
gene 3 3 4 2.29596 0 3 2.29596 1
gene 3 3 8 -2.94294 0 10 -2.94294 1
gene 3 8 4 -4.2485 0 11 -4.2485 1
gene 3 3 28 1.27135 0 70 1.27135 1
gene 3 28 4 2.58738 0 71 2.58738 1
genomeend 74

/* Organism #75 Fitness: 8.99937 Error: 1.00011 */
genomestart 75
trait 1 0.1 0 0 0 0 0 0 0 
trait 2 0.184958 0 0 0.0248001 0.0577677 0 0 0.0519959 
trait 3 0.16875 0.167659 0.0834662 0.00701926 0.0423273 0 0 0 
node 1 2 1 3
node 2 2 1 1
node 3 1 1 1
node 4 3 0 2
node 8 3 0 0
node 28 1 0 0
gene 2 1 4 -2.55353 0 1 -2.55353 1
gene 2 2 4 -6.15615 0 2 -6.15615 1
gene 3 3 4 2.0653 0 3 2.0653 0
gene 3 3 8 -0.776315 0 10 -0.776315 1
gene 3 8 4 -4.91844 0 11 -4.91844 1
gene 3 3 28 4.05261 0 70 4.05261 1
gene 3 28 4 6.29151 0 71 6.29151 1
genomeend 75

/* Organism #76 Fitness: 1.00755 Error: 2.99623 */
genomestart 76
trait 1 0.1 0 0 0 0 0 0 0 
trait 2 0.184958 0 0 0.0248001 0.0577677 0 0 0.0519959 
trait 3 0.16875 0.167659 0.0834662 0.00701926 0.0423273 0 0 0 
node 1 2 1 3
node 2 2 1 1
node 3 1 1 1
node 4 3 0 2
node 8 3 0 0
node 28 1 0 0
gene 2 1 4 -1.34133 0 1 -1.34133 1
gene 2 2 4 -4.82623 0 2 -4.82623 1
gene 3 3 4 2.88167 0 3 2.88167 0
gene 3 3 8 -1.65136 0 10 -1.65136 1
gene 3 8 4 -3.03865 0 11 -3.03865 1
gene 3 3 28 2.89275 0 70 2.89275 1
gene 3 28 4 8 0 71 8 1
genomeend 76

/* Organism #77 Fitness: 2.59145 Error: 2.3902 */
genomestart 77
trait 1 0.1 0 0 0 0 0 0 0 
trait 2 0.184958 0 0 0.0248001 0.0577677 0 0 0.0519959 
trait 3 0.16875 0.167659 0.0834662 0.00701926 0.0423273 0 0 0 
node 1 2 1 3
node 2 2 1 1
node 3 1 1 1
node 4 3 0 2
node 8 3 0 0
node 28 1 0 0
gene 2 1 4 -0.626591 0 1 -0.626591 1
gene 2 2 4 -5.81755 0 2 -5.81755 1
gene 3 3 4 3.44031 0 3 3.44031 1
gene 3 3 8 -2.82151 0 10 -2.82151 1
gene 3 8 4 -6.47259 0 11 -6.47259 1
gene 3 3 28 6.11284 0 70 6.11284 1
gene 3 28 4 7.54444 0 71 7.54444 1
genomeend 77

/* Organism #78 Fitness: 8.99782 Error: 1.00036 */
genomestart 78
trait 1 0.1 0 0 0 0 0 0 0 
trait 2 0.189549 0 0 0.0248001 0.0448031 0 0 0.025998 
trait 3 0.16875 0.167659 0.0834662 0.00701926 0.0423273 0 0 0 
node 1 2 1 3
node 2 2 1 1
node 3 1 1 1
node 4 3 0 2
node 8 3 0 0
node 28 1 0 0
gene 2 1 4 -2.74652 0 1 -2.74652 1
gene 2 2 4 -4.22986 0 2 -4.22986 1
gene 3 3 4 3.13339 0 3 3.13339 0
gene 3 3 8 -1.5709 0 10 -1.5709 1
gene 3 8 4 -2.94216 0 11 -2.94216 1
gene 3 3 28 3.6949 0 70 3.6949 1
gene 3 28 4 5.08631 0 71 5.08631 1
genomeend 78

/* Species #10 : (Size 6) (AF 4.61811) (Age 13)  */


/* Organism #79 Fitness: 7.71469 Error: 1.22247 */
genomestart 79
trait 1 0.1 0 0 0 0 0 0 0 
trait 2 0.2 0 0 0 0 0 0 0 
trait 3 0 0 0 0 0.735893 0 0 0.493698 
node 1 2 1 3
node 2 3 1 1
node 3 1 1 1
node 4 1 0 2
node 9 1 0 0
node 17 1 0 0
gene 1 1 4 3.24697 0 1 3.24697 1
gene 3 2 4 -2.60404 0 2 -2.60404 1
gene 3 3 4 -0.637394 0 3 -0.637394 0
gene 3 3 9 -1.06807 0 12 -1.06807 1
gene 3 9 4 2.73399 0 13 2.73399 0
gene 3 2 9 1.48183 0 24 1.48183 1
gene 3 9 17 2.17718 0 33 2.17718 1
gene 3 17 4 -3.50606 0 34 -3.50606 1
gene 3 1 9 0.642415 0 61 0.642415 1
gene 2 1 17 -0.150578 0 78 -0.150578 1
genomeend 79

/* Organism #80 Fitness: 3.98222 Error: 2.00445 */
genomestart 80
trait 1 0.1 0 0 0 0 0 0 0 
trait 2 0.2 0 0 0 0 0 0 0 
trait 3 0 0 0 0 0.735893 0 0 0.493698 
node 1 2 1 3
node 2 3 1 1
node 3 1 1 1
node 4 1 0 2
node 9 1 0 0
node 17 1 0 0
gene 1 1 4 2.45566 0 1 2.45566 1
gene 3 2 4 -2.67885 0 2 -2.67885 1
gene 3 3 4 -0.226157 0 3 -0.226157 0
gene 3 3 9 0.471664 0 12 0.471664 1
gene 3 9 4 1.47282 0 13 1.47282 0
gene 3 2 9 1.22536 0 24 1.22536 1
gene 3 9 17 0.63184 0 33 0.63184 1
gene 3 17 4 -2.45733 0 34 -2.45733 1
gene 3 1 9 0.050737 0 61 0.050737 1
gene 2 1 17 0.890599 0 78 0.890599 1
genomeend 80

/* Organism #81 Fitness: 3.99893 Error: 2.00027 */
genomestart 81
trait 1 0.1 0 0 0 0 0 0 0 
trait 2 0.2 0 0 0 0 0 0 0 
trait 3 0 0 0 0 0.735893 0 0 0.493698 
node 1 2 1 3
node 2 3 1 1
node 3 1 1 1
node 4 1 0 2
node 9 1 0 0
node 17 1 0 0
gene 1 1 4 1.3599 0 1 1.3599 1
gene 3 2 4 -1.59544 0 2 -1.59544 1
gene 3 3 4 -1.24342 0 3 -1.24342 1
gene 3 3 9 0.721534 0 12 0.721534 1
gene 3 9 4 3.6716 0 13 3.6716 0
gene 1 2 9 0.0416196 0 24 0.0416196 1
gene 3 9 17 0.643513 0 33 0.643513 1
gene 3 17 4 -3.03108 0 34 -3.03108 1
gene 3 1 9 1.02123 0 61 1.02123 1
gene 1 1 17 0.900365 0 78 0.900365 1
genomeend 81

/* Organism #82 Fitness: 4.03061 Error: 1.99236 */
genomestart 82
trait 1 0.1 0 0 0 0 0 0 0 
trait 2 0.2 0 0 0 0 0 0 0 
trait 3 0 0 0 0 0.735893 0 0 0.493698 
node 1 2 1 3
node 2 3 1 1
node 3 1 1 1
node 4 1 0 2
node 9 1 0 0
node 17 1 0 0
gene 1 1 4 1.66436 0 1 1.66436 1
gene 3 2 4 -2.75365 0 2 -2.75365 1
gene 3 3 4 0.18508 0 3 0.18508 0
gene 3 3 9 2.0114 0 12 2.0114 1
gene 3 9 4 0.211646 0 13 0.211646 0
gene 1 2 9 0.968886 0 24 0.968886 1
gene 3 9 17 -0.913495 0 33 -0.913495 1
gene 3 17 4 -1.4086 0 34 -1.4086 1
gene 3 1 9 -0.540941 0 61 -0.540941 1
gene 2 1 17 1.93178 0 78 1.93178 1
genomeend 82

/* Organism #83 Fitness: 4 Error: 2 */
genomestart 83
trait 1 0.1 0 0 0 0 0 0 0 
trait 2 0.2 0 0 0 0 0 0 0 
trait 3 0 0 0 0 0.735893 0 0 0.493698 
node 1 2 1 3
node 2 3 1 1
node 3 1 1 1
node 4 1 0 2
node 9 1 0 0
node 17 1 0 0
gene 1 1 4 -1.6361 0 1 -1.6361 1
gene 3 2 4 0.656301 0 2 0.656301 1
gene 3 3 4 -0.680807 0 3 -0.680807 0
gene 3 3 9 2.64763 0 12 2.64763 1
gene 3 9 4 0.211646 0 13 0.211646 0
gene 1 2 9 -1.70576 0 24 -1.70576 1
gene 3 9 17 -1.17183 0 33 -1.17183 1
gene 3 17 4 -1.87385 0 34 -1.87385 1
gene 3 1 9 -3.00233 0 61 -3.00233 1
gene 2 1 17 1.45665 0 78 1.45665 1
genomeend 83

/* Organism #84 Fitness: 3.98222 Error: 2.00445 */
genomestart 84
trait 1 0.1 0 0 0 0 0 0 0 
trait 2 0.2 0 0 0 0 0 0 0 
trait 3 0 0 0 0 0.735893 0 0 0.493698 
node 1 2 1 3
node 2 3 1 1
node 3 1 1 1
node 4 1 0 2
node 9 1 0 0
node 17 1 0 0
gene 1 1 4 2.45566 0 1 2.45566 1
gene 3 2 4 -2.67885 0 2 -2.67885 1
gene 3 3 4 -0.226157 0 3 -0.226157 0
gene 3 3 9 0.471664 0 12 0.471664 1
gene 3 9 4 1.47282 0 13 1.47282 0
gene 3 2 9 1.22536 0 24 1.22536 1
gene 3 9 17 0.63184 0 33 0.63184 1
gene 3 17 4 -2.45733 0 34 -2.45733 1
gene 3 1 9 0.050737 0 61 0.050737 1
gene 2 1 17 0.890599 0 78 0.890599 1
genomeend 84

/* Species #11 : (Size 7) (AF 4.63921) (Age 12)  */


/* Organism #85 Fitness: 7.4265 Error: 1.27484 */
genomestart 85
trait 1 0.1 0 0 0 0 0 0 0 
trait 2 0.6 0.259987 0.751381 0.114414 0 0 0 0 
trait 3 0.343916 0 0.285844 0 0 0 0.20143 0.0325709 
node 1 3 1 3
node 2 2 1 1
node 3 3 1 1
node 4 2 0 2
node 10 1 0 0
gene 3 1 4 2.01159 0 1 2.01159 1
gene 2 2 4 0.737671 0 2 0.737671 0
gene 3 3 4 -1.37588 0 3 -1.37588 1
gene 3 2 10 5.56755 0 14 5.56755 1
gene 2 10 4 -0.88271 0 15 -0.88271 1
gene 3 3 10 -1.03565 0 54 -1.03565 1
gene 3 1 10 -0.0323801 0 77 -0.0323801 1
genomeend 85

/* Organism #86 Fitness: 3.87769 Error: 2.03081 */
genomestart 86
trait 1 0.1 0 0 0 0 0 0 0 
trait 2 0.6 0.259987 0.751381 0.114414 0 0 0 0 
trait 3 0.343916 0 0.285844 0 0 0 0.151072 0.0244282 
node 1 3 1 3
node 2 2 1 1
node 3 3 1 1
node 4 2 0 2
node 10 1 0 0
gene 3 1 4 2.10959 0 1 2.10959 1
gene 2 2 4 0.950938 0 2 0.950938 1
gene 3 3 4 -1.68467 0 3 -1.68467 1
gene 3 2 10 5.56755 0 14 5.56755 1
gene 2 10 4 -0.88271 0 15 -0.88271 1
gene 3 3 10 -1.03565 0 54 -1.03565 1
gene 3 1 10 -0.0323801 0 77 -0.0323801 1
genomeend 86

/* Organism #87 Fitness: 4.04081 Error: 1.98982 */
genomestart 87
trait 1 0.1 0 0 0 0 0 0 0 
trait 2 0.6 0.259987 0.751381 0.114414 0 0 0 0 
trait 3 0.343916 0 0.285844 0 0 0 0.20143 0.0325709 
node 1 3 1 3
node 2 2 1 1
node 3 2 1 1
node 4 2 0 2
node 10 1 0 0
gene 3 1 4 0.556619 0 1 0.556619 1
gene 2 2 4 0.347148 0 2 0.347148 0
gene 3 3 4 -1.37588 0 3 -1.37588 1
gene 3 2 10 3.74483 0 14 3.74483 1
gene 2 10 4 -3.38263 0 15 -3.38263 1
gene 3 3 10 -2.20801 0 54 -2.20801 1
gene 3 1 10 -0.0323801 0 77 -0.0323801 1
genomeend 87

/* Organism #88 Fitness: 4 Error: 2 */
genomestart 88
trait 1 0.1 0 0 0 0 0 0 0 
trait 2 0.6 0.259987 0.751381 0.114414 0 0 0 0 
trait 3 0.343916 0 0.285844 0 0 0 0.20143 0.0325709 
node 1 3 1 3
node 2 2 1 1
node 3 3 1 1
node 4 2 0 2
node 10 1 0 0
gene 3 1 4 4.42766 0 1 4.42766 1
gene 2 2 4 -0.387013 0 2 -0.387013 0
gene 3 3 4 -1.67229 0 3 -1.67229 1
gene 3 2 10 8 0 14 8 1
gene 2 10 4 0.118755 0 15 0.118755 1
gene 3 3 10 -1.84317 0 54 -1.84317 1
gene 3 1 10 -0.262719 0 77 -0.262719 1
genomeend 88

/* Organism #89 Fitness: 7.4265 Error: 1.27484 */
genomestart 89
trait 1 0.1 0 0 0 0 0 0 0 
trait 2 0.6 0.259987 0.751381 0.114414 0 0 0 0 
trait 3 0.343916 0 0.285844 0 0 0 0.20143 0.0325709 
node 1 3 1 3
node 2 2 1 1
node 3 3 1 1
node 4 2 0 2
node 10 1 0 0
gene 3 1 4 2.01159 0 1 2.01159 1
gene 2 2 4 0.737671 0 2 0.737671 0
gene 3 3 4 -1.37588 0 3 -1.37588 1
gene 3 2 10 5.56755 0 14 5.56755 1
gene 2 10 4 -0.88271 0 15 -0.88271 1
gene 3 3 10 -1.03565 0 54 -1.03565 1
gene 3 1 10 -0.0323801 0 77 -0.0323801 1
genomeend 89

/* Organism #90 Fitness: 3.82701 Error: 2.04373 */
genomestart 90
trait 1 0.1 0 0 0 0 0 0 0 
trait 2 0.6 0.259987 0.751381 0.114414 0 0 0 0 
trait 3 0.343916 0 0.285844 0 0 0 0.100715 0.0162854 
node 1 3 1 3
node 2 2 1 1
node 3 3 1 1
node 4 2 0 2
node 10 1 0 0
gene 3 1 4 2.32509 0 1 2.32509 1
gene 2 2 4 -0.48677 0 2 -0.48677 0
gene 3 3 4 -4.48888 0 3 -4.48888 1
gene 3 2 10 3.57637 0 14 3.57637 1
gene 2 10 4 1.53741 0 15 1.53741 1
gene 3 3 10 -1.98569 0 54 -1.98569 1
gene 3 1 10 0.88844 0 77 0.88844 1
genomeend 90

/* Organism #91 Fitness: 1.87592 Error: 2.63036 */
genomestart 91
trait 1 0.1 0 0 0 0 0 0 0 
trait 2 0.6 0.259987 0.751381 0.114414 0 0 0 0 
trait 3 0.343916 0 0.285844 0 0 0 0.151072 0.0244282 
node 1 3 1 3
node 2 2 1 1
node 3 3 1 1
node 4 2 0 2
node 10 1 0 0
gene 3 1 4 1.64182 0 1 1.64182 1
gene 2 2 4 1.3168 0 2 1.3168 1
gene 3 3 4 -1.68467 0 3 -1.68467 1
gene 3 2 10 5.56755 0 14 5.56755 1
gene 2 10 4 -0.88271 0 15 -0.88271 1
gene 3 3 10 -0.943709 0 54 -0.943709 1
gene 3 1 10 0.709525 0 77 0.709525 1
genomeend 91

/* Species #12 : (Size 10) (AF 7.65462) (Age 12)  */


/* Organism #92 Fitness: 9 Error: 1 */
genomestart 92
trait 1 0.1 0 0 0 0 0 0 0 
trait 2 0.2 0 0 0 0 0 0 0 
trait 3 0.3 0 0 0 0 0 0 0 
node 1 1 1 3
node 2 3 1 1
node 3 1 1 1
node 4 2 0 2
node 9 3 0 0
node 16 2 0 0
node 34 1 0 0
gene 1 1 4 -4.06893 0 1 -4.06893 1
gene 3 2 4 -4.60887 0 2 -4.60887 0
gene 3 3 4 2.75105 0 3 2.75105 0
gene 3 3 9 3.19043 0 12 3.19043 1
gene 3 9 4 8 0 13 8 1
gene 3 2 9 3.64349 0 24 3.64349 1
gene 3 2 16 -2.37569 0 29 -2.37569 1
gene 3 16 4 -3.41316 0 30 -3.41316 1
gene 3 3 16 -0.566271 0 49 -0.566271 0
gene 3 3 34 4.21921 0 91 4.21921 1
gene 3 34 16 -0.56444 0 92 -0.56444 1
gene 1 34 9 -1.57998 0 130 -1.57998 1
genomeend 92

/* Organism #93 Fitness: 9 Error: 1 */
genomestart 93
trait 1 0.1 0 0 0 0 0 0 0 
trait 2 1 0 0 0.00653096 0 0 0 0 
trait 3 0.3 0 0 0 0 0 0 0 
node 1 1 1 3
node 2 3 1 1
node 3 1 1 1
node 4 2 0 2
node 9 3 0 0
node 16 2 0 0
node 34 1 0 0
gene 1 1 4 -3.68279 0 1 -3.68279 1
gene 3 2 4 -6.56206 0 2 -6.56206 0
gene 3 3 4 2.18641 0 3 2.18641 0
gene 3 3 9 4.2622 0 12 4.2622 1
gene 3 9 4 8 0 13 8 1
gene 3 2 9 4.02522 0 24 4.02522 1
gene 3 2 16 -1.38441 0 29 -1.38441 1
gene 3 16 4 -2.37118 0 30 -2.37118 1
gene 3 3 16 -0.247314 0 49 -0.247314 0
gene 3 3 34 3.48764 0 91 3.48764 1
gene 3 34 16 -0.0946837 0 92 -0.0946837 1
gene 1 34 9 -1.7513 0 130 -1.7513 1
genomeend 93

/* Organism #94 Fitness: 9 Error: 1 */
genomestart 94
trait 1 0.1 0 0 0 0 0 0 0 
trait 2 0.2 0 0 0 0 0 0 0 
trait 3 0.3 0 0 0 0 0 0 0 
node 1 1 1 3
node 2 3 1 1
node 3 1 1 1
node 4 2 0 2
node 9 3 0 0
node 16 2 0 0
node 34 1 0 0
gene 1 1 4 -4.13027 0 1 -4.13027 1
gene 3 2 4 -6.80781 0 2 -6.80781 0
gene 3 3 4 2.41313 0 3 2.41313 0
gene 3 3 9 5.29254 0 12 5.29254 1
gene 3 9 4 8 0 13 8 1
gene 3 2 9 4.58911 0 24 4.58911 1
gene 3 2 16 -3.60101 0 29 -3.60101 1
gene 3 16 4 2.25013 0 30 2.25013 1
gene 3 3 16 -0.688879 0 49 -0.688879 0
gene 3 3 34 6.56211 0 91 6.56211 1
gene 3 34 16 -1.46863 0 92 -1.46863 1
gene 1 34 9 -3.62518 0 130 -3.62518 1
genomeend 94

/* Organism #95 Fitness: 4.02407 Error: 1.99399 */
genomestart 95
trait 1 0.1 0 0 0.717826 0 0 0 0 
trait 2 0.2 0 0 0 0 0 0 0 
trait 3 0.3 0 0 0 0 0 0 0 
node 1 1 1 3
node 2 3 1 1
node 3 1 1 1
node 4 2 0 2
node 9 3 0 0
node 16 2 0 0
node 34 1 0 0
gene 1 1 4 -1.65049 0 1 -1.65049 1
gene 3 2 4 -5.67779 0 2 -5.67779 0
gene 3 3 4 0.615329 0 3 0.615329 0
gene 3 3 9 3.06557 0 12 3.06557 1
gene 3 9 4 7.88479 0 13 7.88479 1
gene 3 2 9 6.48348 0 24 6.48348 1
gene 3 2 16 -0.401486 0 29 -0.401486 1
gene 3 16 4 -4.41493 0 30 -4.41493 1
gene 3 3 16 2.28687 0 49 2.28687 0
gene 3 3 34 3.48764 0 91 3.48764 1
gene 3 34 16 -0.549409 0 92 -0.549409 1
gene 1 34 9 -0.0717948 0 130 -0.0717948 1
genomeend 95

/* Organism #96 Fitness: 5.53035 Error: 1.64833 */
genomestart 96
trait 1 0.1 0.422651 0.0594806 0 0 0.08829 0 0 
trait 2 0.2 0 0 0 0 0 0 0 
trait 3 0.3 0 0 0 0 0 0 0 
node 1 1 1 3
node 2 3 1 1
node 3 1 1 1
node 4 2 0 2
node 9 3 0 0
node 16 2 0 0
node 34 1 0 0
gene 1 1 4 -1.9031 0 1 -1.9031 1
gene 3 2 4 -5.83473 0 2 -5.83473 0
gene 3 3 4 -0.0087054 0 3 -0.0087054 0
gene 3 3 9 2.91229 0 12 2.91229 1
gene 3 9 4 7.94598 0 13 7.94598 1
gene 3 2 9 4.10876 0 24 4.10876 1
gene 3 2 16 -1.34214 0 29 -1.34214 1
gene 3 16 4 -0.695181 0 30 -0.695181 1
gene 3 3 16 -0.285539 0 49 -0.285539 0
gene 3 3 34 2.77488 0 91 2.77488 1
gene 3 34 16 -0.22248 0 92 -0.22248 1
gene 1 34 9 -3.13997 0 130 -3.13997 1
genomeend 96

/* Organism #97 Fitness: 8.99371 Error: 1.00105 */
genomestart 97
trait 1 0.1 0 0 0 0 0 0 0 
trait 2 0.2 0 0 0 0 0 0 0 
trait 3 0.3 0 0 0 0 0 0 0 
node 1 1 1 3
node 2 3 1 1
node 3 1 1 1
node 4 2 0 2
node 9 3 0 0
node 16 2 0 0
node 34 1 0 0
gene 1 1 4 -5.39068 0 1 -5.39068 1
gene 3 2 4 -6.23582 0 2 -6.23582 0
gene 3 3 4 2.80167 0 3 2.80167 0
gene 3 3 9 5.64553 0 12 5.64553 1
gene 3 9 4 6.78788 0 13 6.78788 1
gene 3 2 9 3.09455 0 24 3.09455 1
gene 3 2 16 -2.78803 0 29 -2.78803 1
gene 3 16 4 -3.51349 0 30 -3.51349 1
gene 3 3 16 -1.54366 0 49 -1.54366 0
gene 3 3 34 3.87278 0 91 3.87278 1
gene 3 34 16 -1.38318 0 92 -1.38318 1
gene 1 34 9 -0.153661 0 130 -0.153661 1
genomeend 97

/* Organism #98 Fitness: 9 Error: 1 */
genomestart 98
trait 1 0.1 0 0 0 0 0 0 0 
trait 2 0.2 0 0 0 0 0 0 0 
trait 3 0.3 0 0 0 0 0 0 0 
node 1 1 1 3
node 2 3 1 1
node 3 1 1 1
node 4 2 0 2
node 9 3 0 0
node 16 2 0 0
node 34 1 0 0
gene 1 1 4 -3.87586 0 1 -3.87586 1
gene 3 2 4 -5.58547 0 2 -5.58547 0
gene 3 3 4 2.46873 0 3 2.46873 0
gene 3 3 9 3.72631 0 12 3.72631 1
gene 3 9 4 8 0 13 8 1
gene 3 2 9 3.83436 0 24 3.83436 1
gene 3 2 16 -1.88005 0 29 -1.88005 1
gene 3 16 4 -2.89217 0 30 -2.89217 1
gene 3 3 16 -0.406793 0 49 -0.406793 0
gene 3 3 34 3.85342 0 91 3.85342 1
gene 3 34 16 -0.329562 0 92 -0.329562 1
gene 1 34 9 -1.98685 0 130 -1.98685 1
genomeend 98

/* Organism #99 Fitness: 9 Error: 1 */
genomestart 99
trait 1 0.1 0 0 0 0 0 0 0 
trait 2 0.2 0 0 0 0 0 0 0 
trait 3 0.3 0 0 0 0 0 0 0 
node 1 1 1 3
node 2 3 1 1
node 3 1 1 1
node 4 2 0 2
node 9 3 0 0
node 16 2 0 0
node 34 1 0 0
gene 1 1 4 -3.68279 0 1 -3.68279 1
gene 3 2 4 -4.60887 0 2 -4.60887 0
gene 3 3 4 2.75105 0 3 2.75105 0
gene 3 3 9 3.19043 0 12 3.19043 1
gene 3 9 4 8 0 13 8 1
gene 3 2 9 3.64349 0 24 3.64349 1
gene 3 2 16 -1.38441 0 29 -1.38441 1
gene 3 16 4 -3.41316 0 30 -3.41316 1
gene 3 3 16 0.0342952 0 49 0.0342952 0
gene 3 3 34 3.48764 0 91 3.48764 1
gene 3 34 16 -0.56444 0 92 -0.56444 1
gene 1 34 9 -1.7513 0 130 -1.7513 1
genomeend 99

/* Organism #100 Fitness: 3.99963 Error: 2.00009 */
genomestart 100
trait 1 0.1 0 0 0 0 0 0 0 
trait 2 0.2 0 0 0 0 0 0 0 
trait 3 0.3 0 0 0 0 0 0 0 
node 1 1 1 3
node 2 3 1 1
node 3 1 1 1
node 4 2 0 2
node 9 3 0 0
node 16 2 0 0
node 34 1 0 0
gene 1 1 4 -4.49599 0 1 -4.49599 1
gene 3 2 4 -5.23679 0 2 -5.23679 0
gene 3 3 4 2.46873 0 3 2.46873 1
gene 3 3 9 -0.360271 0 12 -0.360271 1
gene 3 9 4 7.3981 0 13 7.3981 1
gene 3 2 9 -2.31811 0 24 -2.31811 1
gene 3 2 16 -0.847762 0 29 -0.847762 1
gene 3 16 4 -4.65416 0 30 -4.65416 1
gene 3 3 16 0.785413 0 49 0.785413 1
gene 3 3 34 5.04204 0 91 5.04204 1
gene 3 34 16 -2.22022 0 92 -2.22022 1
gene 1 34 9 1.87849 0 130 1.87849 1
genomeend 100

/* Organism #101 Fitness: 8.99845 Error: 1.00026 */
genomestart 101
trait 1 0.1 0 0 0 0 0 0 0 
trait 2 0.2 0 0 0 0 0 0 0 
trait 3 0.3 0 0 0 0 0 0 0 
node 1 1 1 3
node 2 3 1 1
node 3 1 1 1
node 4 1 0 2
node 9 3 0 0
node 16 2 0 0
node 34 1 0 0
gene 1 1 4 -6.00296 0 1 -6.00296 1
gene 3 2 4 -5.30111 0 2 -5.30111 0
gene 3 3 4 4.10355 0 3 4.10355 0
gene 3 3 9 3.60014 0 12 3.60014 1
gene 3 9 4 7.98695 0 13 7.98695 1
gene 3 2 9 2.67262 0 24 2.67262 1
gene 3 2 16 0.0851695 0 29 0.0851695 1
gene 3 16 4 -1.14144 0 30 -1.14144 1
gene 3 3 16 -0.410169 0 49 -0.410169 0
gene 3 3 34 4.84011 0 91 4.84011 1
gene 3 34 16 -0.56444 0 92 -0.56444 1
gene 1 34 9 -1.99419 0 130 -1.99419 1
genomeend 101

/* Species #13 : (Size 9) (AF 6.98273) (Age 10)  */


/* Organism #102 Fitness: 8.99542 Error: 1.00076 */
genomestart 102
trait 1 0.1 0 0.480827 0 0 0 0 0 
trait 2 0.2 0 0 0 0 0 0 0 
trait 3 0.367019 0 0 0 0 0 0.018643 0 
node 1 2 1 3
node 2 1 1 1
node 3 1 1 1
node 4 2 0 2
node 15 1 0 0
node 39 1 0 0
gene 1 1 4 -3.89828 0 1 -3.89828 1
gene 3 2 4 -1.94266 0 2 -1.94266 0
gene 2 3 4 0.817133 0 3 0.817133 0
gene 2 3 15 2.67985 0 27 2.67985 1
gene 2 15 4 6.42758 0 28 6.42758 1
gene 3 2 15 1.48119 0 100 1.48119 1
gene 3 2 39 -0.254769 0 103 -0.254769 1
gene 3 39 4 -1.72746 0 104 -1.72746 1
genomeend 102

/* Organism #103 Fitness: 8.99691 Error: 1.00052 */
genomestart 103
trait 1 0.1 0 0.42931 0 0 0 0 0 
trait 2 0.1 0 0 0.291345 0 0 0 0 
trait 3 0.374046 0.00291261 0.0177141 0.053209 0 0 0.018643 0 
node 1 2 1 3
node 2 1 1 1
node 3 1 1 1
node 4 2 0 2
node 15 1 0 0
node 39 1 0 0
node 71 1 0 0
gene 1 1 4 -3.83908 0 1 -3.83908 1
gene 3 2 4 -0.453276 0 2 -0.453276 0
gene 2 3 4 -1.04663 0 3 -1.04663 0
gene 2 3 15 1.27089 0 27 1.27089 1
gene 2 15 4 8 0 28 8 1
gene 3 2 15 1.18783 0 100 1.18783 1
gene 3 2 39 2.16733 0 103 2.16733 0
gene 3 39 4 -2.59556 0 104 -2.59556 1
gene 3 2 71 1 0 200 0 1
gene 3 71 39 2.16733 0 201 0 1
genomeend 103

/* Organism #104 Fitness: 8.98667 Error: 1.00222 */
genomestart 104
trait 1 0.1 0 0.455068 0 0 0 0 0 
trait 2 0.15 0 0 0.145672 0 0 0 0 
trait 3 0.370532 0.00145631 0.00885704 0.0266045 0 0 0.018643 0 
node 1 2 1 3
node 2 1 1 1
node 3 1 1 1
node 4 2 0 2
node 15 1 0 0
node 39 1 0 0
gene 1 1 4 -5.05348 0 1 -5.05348 1
gene 3 2 4 0.232856 0 2 0.232856 0
gene 2 3 4 -0.90701 0 3 -0.90701 0
gene 2 3 15 1.06729 0 27 1.06729 1
gene 2 15 4 6.44945 0 28 6.44945 1
gene 3 2 15 -1.04456 0 100 -1.04456 1
gene 3 2 39 1.93585 0 103 1.93585 1
gene 3 39 4 0.313463 0 104 0.313463 1
genomeend 104

/* Organism #105 Fitness: 3.99999 Error: 2 */
genomestart 105
trait 1 0.1 0 0.377792 0 0 0 0 0 
trait 2 0 0 0 0.58269 0 0 0 0 
trait 3 0.381072 0.00582522 0.0354282 0.106418 0 0 0.018643 0 
node 1 2 1 3
node 2 1 1 1
node 3 1 1 1
node 4 2 0 2
node 15 1 0 0
node 39 1 0 0
gene 1 1 4 -0.394681 0 1 -0.394681 1
gene 3 2 4 0.02472 0 2 0.02472 0
gene 2 3 4 1.21447 0 3 1.21447 0
gene 2 3 15 4.32972 0 27 4.32972 1
gene 2 15 4 -2.16079 0 28 -2.16079 1
gene 3 2 15 0.283849 0 100 0.283849 1
gene 3 2 39 2.02422 0 103 2.02422 1
gene 3 39 4 -2.2982 0 104 -2.2982 1
genomeend 105

/* Organism #106 Fitness: 8.98472 Error: 1.00255 */
genomestart 106
trait 1 0.1 0 0.403551 0 0 0 0 0 
trait 2 0.05 0 0 0.437017 0 0 0 0 
trait 3 0.377559 0.00436892 0.0265711 0.0798135 0 0 0.018643 0 
node 1 2 1 3
node 2 1 1 1
node 3 1 1 1
node 4 2 0 2
node 15 1 0 0
node 39 1 0 0
gene 1 1 4 -3.83908 0 1 -3.83908 1
gene 3 2 4 -0.453276 0 2 -0.453276 0
gene 2 3 4 3.02803 0 3 3.02803 0
gene 2 3 15 4.7801 0 27 4.7801 1
gene 2 15 4 6.51245 0 28 6.51245 1
gene 3 2 15 2.75333 0 100 2.75333 1
gene 3 2 39 2.16733 0 103 2.16733 1
gene 3 39 4 -5.80447 0 104 -5.80447 1
gene 3 15 39 -0.855434 0 202 -0.855434 1
genomeend 106

/* Organism #107 Fitness: 8.93433 Error: 1.01096 */
genomestart 107
trait 1 0.1 0 0.455068 0 0 0 0 0 
trait 2 0.15 0 0 0.145672 0 0 0 0 
trait 3 0.370532 0.00145631 0.00885704 0.0266045 0 0 0.018643 0 
node 1 2 1 3
node 2 1 1 1
node 3 1 1 1
node 4 2 0 2
node 15 1 0 0
node 39 1 0 0
gene 1 1 4 -5.91121 0 1 -5.91121 1
gene 3 2 4 -3.60652 0 2 -3.60652 0
gene 2 3 4 -3.24763 0 3 -3.24763 0
gene 2 3 15 1.38816 0 27 1.38816 1
gene 2 15 4 8 0 28 8 1
gene 3 2 15 2.92929 0 100 2.92929 1
gene 3 2 39 2.12682 0 103 2.12682 1
gene 3 39 4 -2.33173 0 104 -2.33173 1
genomeend 107

/* Organism #108 Fitness: 4.00011 Error: 1.99997 */
genomestart 108
trait 1 0.1 0 0.377792 0 0 0 0 0 
trait 2 0 0 0 0.58269 0 0 0 0 
trait 3 0.381072 0.00582522 0.0354282 0.106418 0 0 0.018643 0 
node 1 2 1 3
node 2 1 1 1
node 3 1 1 1
node 4 2 0 2
node 15 1 0 0
node 39 1 0 0
gene 1 1 4 -1.78732 0 1 -1.78732 1
gene 3 2 4 0.466094 0 2 0.466094 0
gene 2 3 4 1.60724 0 3 1.60724 0
gene 2 3 15 4.71448 0 27 4.71448 1
gene 2 15 4 6.4798 0 28 6.4798 1
gene 3 2 15 4.56842 0 100 4.56842 1
gene 3 2 39 2.3574 0 103 2.3574 1
gene 3 39 4 1.3715 0 104 1.3715 1
genomeend 108

/* Organism #109 Fitness: 1.1865 Error: 2.91073 */
genomestart 109
trait 1 0.1 0 0.455068 0 0 0 0 0 
trait 2 0.15 0 0 0.145672 0 0 0 0 
trait 3 0.370532 0.00145631 0.00885704 0.0266045 0 0 0.018643 0 
node 1 2 1 3
node 2 1 1 1
node 3 1 1 1
node 4 2 0 2
node 15 1 0 0
node 39 1 0 0
gene 1 1 4 -1.49365 0 1 -1.49365 1
gene 3 2 4 -2.23613 0 2 -2.23613 0
gene 2 3 4 -0.609226 0 3 -0.609226 0
gene 2 3 15 1.24897 0 27 1.24897 1
gene 2 15 4 6.75884 0 28 6.75884 1
gene 3 2 15 -0.549936 0 100 -0.549936 1
gene 3 2 39 2.98347 0 103 2.98347 1
gene 3 39 4 -2.82811 0 104 -2.82811 1
genomeend 109

/* Organism #110 Fitness: 8.75988 Error: 1.04029 */
genomestart 110
trait 1 0.1 0 0.403551 0 0 0 0 0 
trait 2 0.05 0 0 0.437017 0 0 0 0 
trait 3 0.377559 0.00436892 0.0265711 0.0798135 0 0 0.018643 0 
node 1 2 1 3
node 2 1 1 1
node 3 1 1 1
node 4 2 0 2
node 15 1 0 0
node 39 1 0 0
gene 1 1 4 -2.60231 0 1 -2.60231 1
gene 3 2 4 -0.453276 0 2 -0.453276 0
gene 2 3 4 -1.04663 0 3 -1.04663 0
gene 2 3 15 4.7801 0 27 4.7801 1
gene 2 15 4 6.51245 0 28 6.51245 1
gene 3 2 15 2.75333 0 100 2.75333 1
gene 3 2 39 2.02422 0 103 2.02422 1
gene 3 39 4 -2.59556 0 104 -2.59556 1
genomeend 110

/* Species #14 : (Size 8) (AF 5.1283) (Age 9)  */


/* Organism #111 Fitness: 8.85777 Error: 1.0238 */
genomestart 111
trait 1 0.1 0 0 0 0 0 0 0 
trait 2 0.187548 0.323984 0 0.0527002 0.0338283 0 0 0.0639668 
trait 3 0.189844 0.140714 0.0946396 0.0149159 0.0899454 0 0 0 
node 1 2 1 3
node 2 3 1 1
node 3 1 1 1
node 4 3 0 2
node 8 3 0 0
gene 2 1 4 5.8862 0 1 5.8862 1
gene 1 2 4 -5.12317 0 2 -5.12317 1
gene 3 3 4 1.9985 0 3 1.9985 0
gene 3 3 8 5.30979 0 10 5.30979 1
gene 3 8 4 -2.22854 0 11 -2.22854 1
gene 3 2 8 -4.58205 0 39 -4.58205 1
genomeend 111

/* Organism #112 Fitness: 3.86178 Error: 2.03486 */
genomestart 112
trait 1 0.1 0 0 0 0 0 0 0 
trait 2 0.187548 0.323984 0 0.0527002 0.0338283 0 0 0.0639668 
trait 3 0.189844 0.140714 0.0946396 0.0149159 0.0899454 0 0 0 
node 1 2 1 3
node 2 3 1 1
node 3 1 1 1
node 4 3 0 2
node 8 3 0 0
gene 2 1 4 4.99208 0 1 4.99208 1
gene 1 2 4 -4.31778 0 2 -4.31778 1
gene 3 3 4 1.86392 0 3 1.86392 1
gene 3 3 8 5.83471 0 10 5.83471 1
gene 3 8 4 2.00362 0 11 2.00362 1
gene 3 2 8 -1.98279 0 39 -1.98279 1
genomeend 112

/* Organism #113 Fitness: 4 Error: 2 */
genomestart 113
trait 1 0.1 0 0 0 0 0 0 0 
trait 2 0.187548 0.323984 0 0.0527002 0.0338283 0 0 0.0639668 
trait 3 0.189844 0.140714 0.0946396 0.0149159 0.0899454 0 0 0 
node 1 2 1 3
node 2 3 1 1
node 3 1 1 1
node 4 3 0 2
node 8 3 0 0
gene 2 1 4 6.83578 0 1 6.83578 1
gene 1 2 4 -1.37623 0 2 -1.37623 1
gene 3 3 4 0.671941 0 3 0.671941 0
gene 3 3 8 7.1055 0 10 7.1055 1
gene 3 8 4 0.717566 0 11 0.717566 1
gene 3 2 8 -1.18038 0 39 -1.18038 1
genomeend 113

/* Organism #114 Fitness: 4.00035 Error: 1.99991 */
genomestart 114
trait 1 0.1 0 0 0 0 0 0 0 
trait 2 0.187548 0.323984 0 0.0527002 0.0338283 0 0 0.0639668 
trait 3 0.189844 0.140714 0.0946396 0.0149159 0.0899454 0 0 0 
node 1 2 1 3
node 2 3 1 1
node 3 1 1 1
node 4 3 0 2
node 8 3 0 0
gene 2 1 4 3.08338 0 1 3.08338 1
gene 1 2 4 -4.91373 0 2 -4.91373 1
gene 3 3 4 3.71097 0 3 3.71097 0
gene 3 3 8 4.1697 0 10 4.1697 1
gene 3 8 4 -0.471358 0 11 -0.471358 1
gene 3 2 8 -4.12458 0 39 -4.12458 1
genomeend 114

/* Organism #115 Fitness: 3.80792 Error: 2.04861 */
genomestart 115
trait 1 0.1 0 0 0 0 0 0 0 
trait 2 0.187548 0.323984 0 0.0527002 0.0338283 0 0 0.0639668 
trait 3 0.189844 0.140714 0.0946396 0.0149159 0.0899454 0 0 0 
node 1 2 1 3
node 2 3 1 1
node 3 1 1 1
node 4 3 0 2
node 8 3 0 0
gene 2 1 4 2.61431 0 1 2.61431 1
gene 1 2 4 -4.37882 0 2 -4.37882 1
gene 3 3 4 2.13996 0 3 2.13996 0
gene 3 3 8 4.94571 0 10 4.94571 1
gene 3 8 4 -2.01193 0 11 -2.01193 1
gene 3 2 8 -6.72559 0 39 -6.72559 1
genomeend 115

/* Organism #116 Fitness: 4 Error: 2 */
genomestart 116
trait 1 0.1 0 0 0 0 0 0 0 
trait 2 0.187548 0.323984 0 0.0527002 0.0338283 0 0 0.0639668 
trait 3 0.189844 0.140714 0.0946396 0.0149159 0.0899454 0 0 0 
node 1 2 1 3
node 2 3 1 1
node 3 1 1 1
node 4 3 0 2
node 8 3 0 0
gene 2 1 4 7.6845 0 1 7.6845 1
gene 1 2 4 -3.55345 0 2 -3.55345 1
gene 3 3 4 0.922422 0 3 0.922422 1
gene 3 3 8 6.24854 0 10 6.24854 1
gene 3 8 4 -1.36593 0 11 -1.36593 1
gene 3 2 8 -2.8692 0 39 -2.8692 1
genomeend 116

/* Organism #117 Fitness: 8.49501 Error: 1.08538 */
genomestart 117
trait 1 0.1 0 0 0 0 0 0 0 
trait 2 0.187548 0.323984 0 0.0527002 0.0338283 0 0 0.0639668 
trait 3 0.189844 0.140714 0.0946396 0.0149159 0.0899454 0 0 0 
node 1 2 1 3
node 2 3 1 1
node 3 1 1 1
node 4 3 0 2
node 8 3 0 0
gene 2 1 4 7.03095 0 1 7.03095 1
gene 1 2 4 -5.16162 0 2 -5.16162 1
gene 3 3 4 5.3164 0 3 5.3164 0
gene 3 3 8 5.31979 0 10 5.31979 1
gene 3 8 4 -2.36068 0 11 -2.36068 1
gene 3 2 8 -4.20103 0 39 -4.20103 1
genomeend 117

/* Organism #118 Fitness: 4.00359 Error: 1.9991 */
genomestart 118
trait 1 0.1 0 0 0 0 0 0 0 
trait 2 0.187548 0.323984 0 0.0527002 0.0338283 0 0 0.0639668 
trait 3 0.189844 0.140714 0.0946396 0.0149159 0.0899454 0 0 0 
node 1 2 1 3
node 2 3 1 1
node 3 1 1 1
node 4 3 0 2
node 8 3 0 0
gene 2 1 4 4.2633 0 1 4.2633 1
gene 1 2 4 -5.67486 0 2 -5.67486 1
gene 3 3 4 2.39959 0 3 2.39959 0
gene 3 3 8 4.12774 0 10 4.12774 1
gene 3 8 4 -2.2821 0 11 -2.2821 1
gene 3 2 8 -1.68874 0 39 -1.68874 1
genomeend 118

/* Species #15 : (Size 6) (AF 5.45965) (Age 4)  */


/* Organism #119 Fitness: 8.21014 Error: 1.13467 */
genomestart 119
trait 1 0.1 0 0 0 0 0 0 0 
trait 2 0.6 0 0.140339 0.114414 0 0 0 0 
trait 3 0.343916 0 0.285844 0 0 0 0 0 
node 1 3 1 3
node 2 2 1 1
node 3 3 1 1
node 4 2 0 2
node 10 1 0 0
node 25 1 0 0
node 57 1 0 0
gene 3 1 4 2.41111 0 1 2.41111 1
gene 2 2 4 1.43796 0 2 1.43796 1
gene 3 3 4 -1.45413 0 3 -1.45413 0
gene 3 2 10 1.13445 0 14 1.13445 1
gene 2 10 4 -1.05007 0 15 -1.05007 0
gene 3 3 10 0.476852 0 54 0.476852 1
gene 3 3 25 -0.847346 0 63 -0.847346 1
gene 3 25 4 -2.42409 0 64 -2.42409 1
gene 2 10 57 1.42863 0 159 1.42863 1
gene 2 57 4 -1.74635 0 160 -1.74635 1
genomeend 119

/* Organism #120 Fitness: 4.12013 Error: 1.97019 */
genomestart 120
trait 1 0.1 0 0 0 0 0 0 0 
trait 2 0.6 0 0.140339 0.114414 0 0 0 0 
trait 3 0.343916 0 0.285844 0 0 0 0 0 
node 1 3 1 3
node 2 2 1 1
node 3 3 1 1
node 4 2 0 2
node 10 1 0 0
node 25 1 0 0
node 57 1 0 0
gene 3 1 4 4.0968 0 1 4.0968 1
gene 2 2 4 3.24511 0 2 3.24511 1
gene 3 3 4 0.722755 0 3 0.722755 0
gene 3 2 10 -1.13422 0 14 -1.13422 1
gene 2 10 4 1.22425 0 15 1.22425 0
gene 3 3 10 1.41896 0 54 1.41896 1
gene 3 3 25 -2.5882 0 63 -2.5882 1
gene 3 25 4 -3.28768 0 64 -3.28768 1
gene 2 10 57 3.26775 0 159 3.26775 1
gene 2 57 4 -1.74635 0 160 -1.74635 1
genomeend 120

/* Organism #121 Fitness: 1.29279 Error: 2.86299 */
genomestart 121
trait 1 0.1 0 0 0 0 0 0 0 
trait 2 0.6 0 0.140339 0.114414 0 0 0 0 
trait 3 0.343916 0 0.285844 0 0 0 0 0 
node 1 3 1 3
node 2 2 1 1
node 3 3 1 1
node 4 2 0 2
node 10 1 0 0
node 25 1 0 0
node 57 1 0 0
gene 3 1 4 2.17841 0 1 2.17841 1
gene 2 2 4 0.415433 0 2 0.415433 1
gene 3 3 4 -0.802255 0 3 -0.802255 0
gene 3 2 10 -0.873974 0 14 -0.873974 1
gene 2 10 4 -0.547807 0 15 -0.547807 0
gene 3 3 10 -1.8437 0 54 -1.8437 1
gene 3 3 25 -0.847346 0 63 -0.847346 1
gene 3 25 4 -1.91031 0 64 -1.91031 1
gene 2 10 57 -0.515015 0 159 -0.515015 1
gene 2 57 4 -3.86982 0 160 -3.86982 1
genomeend 121

/* Organism #122 Fitness: 6.83593 Error: 1.38544 */
genomestart 122
trait 1 0.1 0 0 0 0 0 0 0 
trait 2 0.6 0 0.140339 0.114414 0 0 0 0 
trait 3 0.343916 0 0.285844 0 0 0 0 0 
node 1 3 1 3
node 2 2 1 1
node 3 3 1 1
node 4 2 0 2
node 10 1 0 0
node 25 1 0 0
node 57 1 0 0
gene 3 1 4 1.46336 0 1 1.46336 1
gene 2 2 4 2.32856 0 2 2.32856 1
gene 3 3 4 -2.80793 0 3 -2.80793 0
gene 3 2 10 1.05159 0 14 1.05159 1
gene 2 10 4 1.90298 0 15 1.90298 0
gene 3 3 10 2.61002 0 54 2.61002 1
gene 3 3 25 -1.01405 0 63 -1.01405 1
gene 3 25 4 -2.10868 0 64 -2.10868 1
gene 2 10 57 1.42863 0 159 1.42863 1
gene 2 57 4 -0.528123 0 160 -0.528123 1
genomeend 122

/* Organism #123 Fitness: 8.29893 Error: 1.11921 */
genomestart 123
trait 1 0.1 0 0 0 0 0 0 0 
trait 2 0.6 0 0.140339 0.114414 0 0 0 0 
trait 3 0.343916 0 0.285844 0 0 0 0 0 
node 1 3 1 3
node 2 2 1 1
node 3 3 1 1
node 4 2 0 2
node 10 1 0 0
node 25 1 0 0
node 57 1 0 0
node 72 1 0 0
gene 3 1 4 2.41111 0 1 2.41111 1
gene 2 2 4 1.43796 0 2 1.43796 1
gene 3 3 4 -1.45413 0 3 -1.45413 0
gene 3 2 10 1.13445 0 14 1.13445 0
gene 2 10 4 -1.05007 0 15 -1.05007 0
gene 3 3 10 0.476852 0 54 0.476852 1
gene 3 3 25 -0.847346 0 63 -0.847346 1
gene 3 25 4 -2.42409 0 64 -2.42409 1
gene 2 10 57 1.42863 0 159 1.42863 1
gene 2 57 4 -1.74635 0 160 -1.74635 1
gene 3 2 72 1 0 203 0 1
gene 3 72 10 1.13445 0 204 0 1
genomeend 123

/* Organism #124 Fitness: 4 Error: 2 */
genomestart 124
trait 1 0.1 0 0 0 0 0 0 0 
trait 2 0.6 0 0.140339 0.114414 0 0 0 0 
trait 3 0.343916 0 0.285844 0 0 0 0 0 
node 1 3 1 3
node 2 2 1 1
node 3 3 1 1
node 4 2 0 2
node 10 1 0 0
node 25 1 0 0
node 57 1 0 0
gene 3 1 4 4.69817 0 1 4.69817 1
gene 2 2 4 -0.163656 0 2 -0.163656 1
gene 3 3 4 -1.88726 0 3 -1.88726 0
gene 3 2 10 2.48199 0 14 2.48199 1
gene 2 10 4 -1.1829 0 15 -1.1829 0
gene 3 3 10 2.88812 0 54 2.88812 1
gene 3 3 25 -0.416501 0 63 -0.416501 1
gene 3 25 4 -0.431532 0 64 -0.431532 1
gene 2 10 57 -0.783425 0 159 -0.783425 1
gene 2 57 4 -1.74635 0 160 -1.74635 1
genomeend 124

/* Species #16 : (Size 12) (AF 5.08026) (Age 2)  */


/* Organism #125 Fitness: 8.95684 Error: 1.0072 */
genomestart 125
trait 1 0.0375 0 0 0 0 0 0.398953 0 
trait 2 0.2 0 0 0 0 0 0 0 
trait 3 0.3 0 0 0 0 0 0 0 
node 1 1 1 3
node 2 3 1 1
node 3 1 1 1
node 4 2 0 2
node 9 1 0 0
node 16 1 0 0
node 65 1 0 0
gene 1 1 4 1.33727 0 1 1.33727 1
gene 3 2 4 -7.18211 0 2 -7.18211 1
gene 3 3 4 -0.835067 0 3 -0.835067 0
gene 3 3 9 1.02279 0 12 1.02279 1
gene 1 9 4 0.495367 0 13 0.495367 1
gene 3 2 9 -2.14588 0 24 -2.14588 1
gene 3 2 16 -6.24617 0 29 -6.24617 1
gene 3 16 4 -5.48903 0 30 -5.48903 1
gene 3 3 16 -3.78378 0 49 -3.78378 1
gene 3 9 16 0.21659 0 140 0.21659 1
gene 3 1 16 0.448317 0 148 0.448317 1
gene 3 3 65 1 0 181 0 1
gene 3 65 4 -0.835067 0 182 0 1
genomeend 125

/* Organism #126 Fitness: 1.29963 Error: 2.85998 */
genomestart 126
trait 1 0.0375 0.270699 0 0 0.367931 0 0.398953 0.299478 
trait 2 0.2 0 0 0 0 0 0 0 
trait 3 0.3 0 0 0 0 0 0 0 
node 1 1 1 3
node 2 3 1 1
node 3 1 1 1
node 4 2 0 2
node 9 1 0 0
node 16 1 0 0
node 65 1 0 0
gene 1 1 4 2.57213 0 1 2.57213 1
gene 3 2 4 2.33726 0 2 2.33726 1
gene 3 3 4 -1.9065 0 3 -1.9065 0
gene 3 3 9 1.38435 0 12 1.38435 1
gene 1 9 4 -1.66962 0 13 -1.66962 1
gene 3 2 9 -3.89703 0 24 -3.89703 1
gene 3 2 16 -6.22251 0 29 -6.22251 1
gene 3 16 4 -5.48903 0 30 -5.48903 1
gene 3 3 16 -5.96463 0 49 -5.96463 1
gene 3 9 16 1.12474 0 140 1.12474 1
gene 3 1 16 -1.09729 0 148 -1.09729 1
gene 3 3 65 1.21554 0 181 1.21554 1
gene 3 65 4 -1.33305 0 182 -1.33305 1
genomeend 126

/* Organism #127 Fitness: 4.78008 Error: 1.81366 */
genomestart 127
trait 1 0.0375 0 0 0 0 0 0.398953 0 
trait 2 0.2 0 0 0 0 0 0 0 
trait 3 0.3 0 0 0 0 0 0 0 
node 1 1 1 3
node 2 3 1 1
node 3 1 1 1
node 4 2 0 2
node 9 1 0 0
node 16 1 0 0
node 65 1 0 0
gene 1 1 4 0.971126 0 1 0.971126 1
gene 3 2 4 -2.42096 0 2 -2.42096 1
gene 3 3 4 -2.61636 0 3 -2.61636 0
gene 3 3 9 -0.492229 0 12 -0.492229 1
gene 1 9 4 -1.18277 0 13 -1.18277 1
gene 3 2 9 2.4218 0 24 2.4218 1
gene 3 2 16 -3.90639 0 29 -3.90639 1
gene 3 16 4 -5.48903 0 30 -5.48903 1
gene 3 3 16 -2.53664 0 49 -2.53664 1
gene 3 9 16 -1.33535 0 140 -1.33535 1
gene 3 1 16 -0.865886 0 148 -0.865886 1
gene 3 3 65 0.473632 0 181 0.473632 1
gene 3 65 4 -0.835067 0 182 -0.835067 1
genomeend 127

/* Organism #128 Fitness: 8.99946 Error: 1.00009 */
genomestart 128
trait 1 0.0375 0 0 0 0 0 0.398953 0 
trait 2 0.2 0 0 0 0 0 0 0 
trait 3 0.3 0 0 0 0 0 0 0 
node 1 1 1 3
node 2 3 1 1
node 3 1 1 1
node 4 2 0 2
node 9 1 0 0
node 16 1 0 0
node 65 1 0 0
gene 1 1 4 2.18538 0 1 2.18538 1
gene 3 2 4 -5.56173 0 2 -5.56173 1
gene 3 3 4 0.633179 0 3 0.633179 0
gene 3 3 9 -1.33675 0 12 -1.33675 1
gene 1 9 4 -0.702408 0 13 -0.702408 1
gene 3 2 9 -2.20875 0 24 -2.20875 1
gene 3 2 16 -4.28138 0 29 -4.28138 1
gene 3 16 4 -4.86424 0 30 -4.86424 1
gene 3 3 16 -2.23176 0 49 -2.23176 1
gene 3 9 16 -0.211356 0 140 -0.211356 1
gene 3 1 16 1.51608 0 148 1.51608 1
gene 3 3 65 -0.00154118 0 181 -0.00154118 1
gene 3 65 4 -0.30549 0 182 -0.30549 1
genomeend 128

/* Organism #129 Fitness: 3.99991 Error: 2.00002 */
genomestart 129
trait 1 0.0375 0 0 0 0 0 0.398953 0 
trait 2 0.2 0 0 0 0 0 0 0 
trait 3 0.3 0 0 0 0 0 0 0 
node 1 1 1 3
node 2 3 1 1
node 3 1 1 1
node 4 2 0 2
node 9 1 0 0
node 16 1 0 0
node 65 1 0 0
gene 1 1 4 3.44374 0 1 3.44374 1
gene 3 2 4 -5.83784 0 2 -5.83784 1
gene 3 3 4 -1.87659 0 3 -1.87659 0
gene 3 3 9 3.26124 0 12 3.26124 1
gene 1 9 4 0.157756 0 13 0.157756 1
gene 3 2 9 -3.84767 0 24 -3.84767 1
gene 3 2 16 -4.48731 0 29 -4.48731 1
gene 3 16 4 -5.16904 0 30 -5.16904 1
gene 3 3 16 -4.84621 0 49 -4.84621 1
gene 3 9 16 -0.663411 0 140 -0.663411 1
gene 3 1 16 -0.607318 0 148 -0.607318 1
gene 3 3 65 0.57886 0 181 0.57886 1
gene 3 65 4 -1.5331 0 182 -1.5331 1
genomeend 129

/* Organism #130 Fitness: 4.00012 Error: 1.99997 */
genomestart 130
trait 1 0.0375 0 0 0 0 0 0.398953 0 
trait 2 0.2 0 0 0 0 0 0 0 
trait 3 0.3 0 0 0 0 0 0 0 
node 1 1 1 3
node 2 3 1 1
node 3 1 1 1
node 4 2 0 2
node 9 1 0 0
node 16 1 0 0
node 65 1 0 0
gene 1 1 4 1.71799 0 1 1.71799 1
gene 3 2 4 -7.72953 0 2 -7.72953 1
gene 3 3 4 1.17359 0 3 1.17359 0
gene 3 3 9 0.469333 0 12 0.469333 1
gene 1 9 4 1.22972 0 13 1.22972 1
gene 3 2 9 -0.203986 0 24 -0.203986 1
gene 3 2 16 0.683309 0 29 0.683309 1
gene 3 16 4 -0.234153 0 30 -0.234153 1
gene 3 3 16 -4.99376 0 49 -4.99376 1
gene 3 9 16 1.69713 0 140 1.69713 1
gene 3 1 16 -0.182958 0 148 -0.182958 1
gene 3 3 65 -0.805017 0 181 -0.805017 1
gene 3 65 4 0.00732444 0 182 0.00732444 1
genomeend 130

/* Organism #131 Fitness: 4.00083 Error: 1.99979 */
genomestart 131
trait 1 0.0375 0 0 0 0 0 0.398953 0 
trait 2 0.2 0 0 0 0 0 0 0 
trait 3 0.3 0 0 0 0 0 0 0 
node 1 1 1 3
node 2 3 1 1
node 3 1 1 1
node 4 2 0 2
node 9 1 0 0
node 16 1 0 0
node 65 1 0 0
gene 1 1 4 2.03958 0 1 2.03958 1
gene 3 2 4 -8 0 2 -8 1
gene 3 3 4 -0.913419 0 3 -0.913419 0
gene 3 3 9 3.49799 0 12 3.49799 1
gene 1 9 4 -0.597806 0 13 -0.597806 1
gene 3 2 9 0.217322 0 24 0.217322 1
gene 3 2 16 -6.24617 0 29 -6.24617 1
gene 3 16 4 -4.19214 0 30 -4.19214 1
gene 3 3 16 1.83332 0 49 1.83332 1
gene 3 9 16 0.513092 0 140 0.513092 1
gene 3 1 16 0.944472 0 148 0.944472 1
gene 3 3 65 1.4622 0 181 1.4622 1
gene 3 65 4 1.10278 0 182 1.10278 1
genomeend 131

/* Organism #132 Fitness: 4.18919 Error: 1.95325 */
genomestart 132
trait 1 0.0375 0 0 0 0 0 0.398953 0 
trait 2 0.2 0 0 0 0 0 0 0 
trait 3 0.3 0 0 0 0 0 0 0 
node 1 1 1 3
node 2 3 1 1
node 3 1 1 1
node 4 2 0 2
node 9 1 0 0
node 16 1 0 0
node 65 1 0 0
gene 1 1 4 0.691424 0 1 0.691424 1
gene 3 2 4 -7.9202 0 2 -7.9202 1
gene 3 3 4 -2.69181 0 3 -2.69181 0
gene 3 3 9 -0.881264 0 12 -0.881264 1
gene 1 9 4 1.11375 0 13 1.11375 1
gene 3 2 9 -0.91728 0 24 -0.91728 1
gene 3 2 16 -6.95328 0 29 -6.95328 1
gene 3 16 4 -7.00092 0 30 -7.00092 1
gene 3 3 16 -5.24249 0 49 -5.24249 1
gene 3 9 16 2.33061 0 140 2.33061 1
gene 3 1 16 2.79672 0 148 2.79672 1
gene 3 3 65 1.41406 0 181 1.41406 1
gene 3 65 4 -1.31924 0 182 -1.31924 1
genomeend 132

/* Organism #133 Fitness: 4.00191 Error: 1.99952 */
genomestart 133
trait 1 0.0375 0 0 0 0 0 0.398953 0 
trait 2 0.2 0 0 0 0 0 0 0 
trait 3 0.3 0 0 0 0 0 0 0 
node 1 1 1 3
node 2 3 1 1
node 3 1 1 1
node 4 2 0 2
node 9 1 0 0
node 16 1 0 0
node 65 1 0 0
gene 1 1 4 -0.143105 0 1 -0.143105 1
gene 3 2 4 -6.25892 0 2 -6.25892 1
gene 3 3 4 -1.04755 0 3 -1.04755 0
gene 3 3 9 -0.911477 0 12 -0.911477 1
gene 1 9 4 1.3682 0 13 1.3682 1
gene 3 2 9 -0.269753 0 24 -0.269753 1
gene 3 2 16 -6.84067 0 29 -6.84067 1
gene 3 16 4 -3.31298 0 30 -3.31298 1
gene 3 3 16 -5.52562 0 49 -5.52562 1
gene 3 9 16 1.94028 0 140 1.94028 1
gene 3 1 16 -1.94029 0 148 -1.94029 1
gene 3 3 65 1 0 181 1 1
gene 3 65 4 1.38363 0 182 1.38363 1
genomeend 133

/* Organism #134 Fitness: 4 Error: 2 */
genomestart 134
trait 1 0.0375 0 0 0 0 0 0.398953 0 
trait 2 0.2 0 0 0 0 0 0 0 
trait 3 0.3 0 0 0 0 0 0 0 
node 1 1 1 3
node 2 3 1 1
node 3 1 1 1
node 4 2 0 2
node 9 1 0 0
node 16 1 0 0
node 65 1 0 0
gene 1 1 4 -1.57979 0 1 -1.57979 1
gene 3 2 4 -4.91099 0 2 -4.91099 1
gene 3 3 4 0.876335 0 3 0.876335 0
gene 3 3 9 -0.740192 0 12 -0.740192 1
gene 1 9 4 2.32251 0 13 2.32251 1
gene 3 2 9 -3.57292 0 24 -3.57292 1
gene 3 2 16 -7.39549 0 29 -7.39549 1
gene 3 16 4 -5.27532 0 30 -5.27532 1
gene 3 3 16 -1.8914 0 49 -1.8914 1
gene 3 9 16 -1.37373 0 140 -1.37373 1
gene 3 1 16 2.42553 0 148 2.42553 1
gene 3 3 65 0.855495 0 181 0.855495 1
gene 3 65 4 1.5926 0 182 1.5926 1
genomeend 134

/* Organism #135 Fitness: 4 Error: 2 */
genomestart 135
trait 1 0.0375 0 0 0 0 0 0.398953 0 
trait 2 0.2 0 0 0 0 0 0 0 
trait 3 0.3 0 0 0 0 0 0 0 
node 1 1 1 3
node 2 3 1 1
node 3 1 1 1
node 4 2 0 2
node 9 1 0 0
node 16 1 0 0
node 65 1 0 0
gene 1 1 4 3.77494 0 1 3.77494 1
gene 3 2 4 -6.98869 0 2 -6.98869 1
gene 3 3 4 1.47267 0 3 1.47267 0
gene 3 3 9 1.062 0 12 1.062 1
gene 1 9 4 0.765913 0 13 0.765913 1
gene 3 2 9 -0.0934324 0 24 -0.0934324 1
gene 3 2 16 -6.7041 0 29 -6.7041 1
gene 3 16 4 -5.50101 0 30 -5.50101 1
gene 3 3 16 -4.99483 0 49 -4.99483 1
gene 3 9 16 -2.18316 0 140 -2.18316 1
gene 3 1 16 -0.0712607 0 148 -0.0712607 1
gene 3 3 65 1 0 181 1 1
gene 3 65 4 -0.835067 0 182 -0.835067 1
genomeend 135

/* Organism #136 Fitness: 8.73514 Error: 1.04447 */
genomestart 136
trait 1 0.0375 0 0 0 0 0 0.398953 0 
trait 2 0.2 0 0 0 0 0 0 0 
trait 3 0.3 0 0 0 0 0 0 0 
node 1 1 1 3
node 2 3 1 1
node 3 1 1 1
node 4 2 0 2
node 9 1 0 0
node 16 1 0 0
node 65 1 0 0
gene 1 1 4 -1.18191 0 1 -1.18191 1
gene 3 2 4 -7.82849 0 2 -7.82849 1
gene 3 3 4 1.07326 0 3 1.07326 0
gene 3 3 9 -0.226871 0 12 -0.226871 1
gene 1 9 4 1.6715 0 13 1.6715 1
gene 3 2 9 0.970412 0 24 0.970412 1
gene 3 2 16 -7.88226 0 29 -7.88226 1
gene 3 16 4 -3.84751 0 30 -3.84751 1
gene 3 3 16 -3.34424 0 49 -3.34424 1
gene 3 9 16 2.10286 0 140 2.10286 1
gene 3 1 16 -0.861538 0 148 -0.861538 1
gene 3 3 65 0.207129 0 181 0.207129 1
gene 3 65 4 1.89512 0 182 1.89512 1
genomeend 136

/* Species #17 : (Size 13) (AF 5.96897) (Age 2)  */


/* Organism #137 Fitness: 9.16848 Error: 0.972049 */
genomestart 137
trait 1 0.0375 0 0 0 0 0 0.398953 0 
trait 2 0.2 0 0 0 0 0 0 0 
trait 3 0.3 0 0 0 0 0 0 0 
node 1 1 1 3
node 2 3 1 1
node 3 1 1 1
node 4 2 0 2
node 9 1 0 0
node 16 1 0 0
gene 1 1 4 1.33727 0 1 1.33727 1
gene 3 2 4 -7.18211 0 2 -7.18211 0
gene 3 3 4 -0.835067 0 3 -0.835067 1
gene 3 3 9 1.02279 0 12 1.02279 1
gene 1 9 4 0.495367 0 13 0.495367 1
gene 3 2 9 -2.14588 0 24 -2.14588 1
gene 3 2 16 -6.24617 0 29 -6.24617 1
gene 3 16 4 -5.48903 0 30 -5.48903 1
gene 3 3 16 -3.78378 0 49 -3.78378 1
gene 3 9 16 0.21659 0 140 0.21659 1
gene 3 1 16 0.448317 0 148 0.448317 1
gene 3 1 9 0.976196 0 183 0.976196 1
genomeend 137

/* Organism #138 Fitness: 3.71933 Error: 2.07144 */
genomestart 138
trait 1 0.0375 0 0 0 0 0 0.398953 0 
trait 2 0 0.2949 0 0 0.168798 0.161016 0 0 
trait 3 0.3 0 0 0 0 0 0 0 
node 1 1 1 3
node 2 3 1 1
node 3 1 1 1
node 4 2 0 2
node 9 1 0 0
node 16 1 0 0
gene 1 1 4 -0.824431 0 1 -0.824431 1
gene 3 2 4 -5.56272 0 2 -5.56272 0
gene 3 3 4 1.06998 0 3 1.06998 1
gene 3 3 9 -0.222404 0 12 -0.222404 1
gene 1 9 4 -1.71509 0 13 -1.71509 1
gene 3 2 9 -1.27015 0 24 -1.27015 1
gene 3 2 16 -5.41606 0 29 -5.41606 1
gene 3 16 4 -4.00972 0 30 -4.00972 1
gene 3 3 16 -2.76629 0 49 -2.76629 1
gene 3 9 16 0.544588 0 140 0.544588 1
gene 3 1 16 0.0702689 0 148 0.0702689 1
gene 3 1 9 -0.362957 0 183 -0.362957 1
genomeend 138

/* Organism #139 Fitness: 7.99813 Error: 1.1719 */
genomestart 139
trait 1 0.0375 0 0 0 0 0 0.398953 0 
trait 2 0.2 0 0 0 0 0 0 0 
trait 3 0.3 0 0 0 0 0 0 0 
node 1 1 1 3
node 2 3 1 1
node 3 1 1 1
node 4 2 0 2
node 9 1 0 0
node 16 1 0 0
gene 1 1 4 2.59776 0 1 2.59776 1
gene 3 2 4 -7.18211 0 2 -7.18211 0
gene 3 3 4 -0.112693 0 3 -0.112693 1
gene 3 3 9 -1.34041 0 12 -1.34041 1
gene 1 9 4 2.61724 0 13 2.61724 1
gene 3 2 9 -4.43156 0 24 -4.43156 1
gene 3 2 16 -6.24617 0 29 -6.24617 1
gene 3 16 4 -5.20437 0 30 -5.20437 1
gene 3 3 16 -2.93521 0 49 -2.93521 1
gene 3 9 16 -0.46115 0 140 -0.46115 1
gene 3 1 16 2.86393 0 148 2.86393 1
gene 3 1 9 0.173498 0 183 0.173498 1
genomeend 139

/* Organism #140 Fitness: 4.00017 Error: 1.99996 */
genomestart 140
trait 1 0.0375 0 0 0 0 0 0.398953 0 
trait 2 0.2 0 0 0 0 0 0 0 
trait 3 0.3 0 0 0 0 0 0 0 
node 1 1 1 3
node 2 3 1 1
node 3 1 1 1
node 4 2 0 2
node 9 1 0 0
node 16 1 0 0
gene 1 1 4 -0.169046 0 1 -0.169046 1
gene 3 2 4 -6.75416 0 2 -6.75416 0
gene 3 3 4 2.15102 0 3 2.15102 1
gene 3 3 9 0.613685 0 12 0.613685 1
gene 1 9 4 0.997396 0 13 0.997396 1
gene 3 2 9 -0.594699 0 24 -0.594699 1
gene 3 2 16 -8 0 29 -8 1
gene 3 16 4 -4.80389 0 30 -4.80389 1
gene 3 3 16 -5.83996 0 49 -5.83996 1
gene 3 9 16 0.0256966 0 140 0.0256966 1
gene 3 1 16 -1.82546 0 148 -1.82546 1
gene 3 1 9 2.36921 0 183 2.36921 1
genomeend 140

/* Organism #141 Fitness: 9.16848 Error: 0.972049 */
genomestart 141
trait 1 0.0375 0 0 0 0 0 0.398953 0 
trait 2 0.2 0 0 0 0 0 0 0 
trait 3 0.3 0 0 0 0 0 0 0 
node 1 1 1 3
node 2 3 1 1
node 3 1 1 1
node 4 2 0 2
node 9 1 0 0
node 16 1 0 0
gene 1 1 4 1.33727 0 1 1.33727 1
gene 3 2 4 -7.18211 0 2 -7.18211 0
gene 3 3 4 -0.835067 0 3 -0.835067 1
gene 3 3 9 1.02279 0 12 1.02279 1
gene 1 9 4 0.495367 0 13 0.495367 1
gene 3 2 9 -2.14588 0 24 -2.14588 1
gene 3 2 16 -6.24617 0 29 -6.24617 1
gene 3 16 4 -5.48903 0 30 -5.48903 1
gene 3 3 16 -3.78378 0 49 -3.78378 1
gene 3 9 16 0.21659 0 140 0.21659 1
gene 3 1 16 0.448317 0 148 0.448317 1
gene 3 1 9 0.976196 0 183 0.976196 1
genomeend 141

/* Organism #142 Fitness: 3.96138 Error: 2.00968 */
genomestart 142
trait 1 0.0375 0 0 0 0 0 0.398953 0 
trait 2 0.2 0 0 0 0 0 0 0 
trait 3 0.3 0 0 0 0 0 0 0 
node 1 1 1 3
node 2 3 1 1
node 3 1 1 1
node 4 2 0 2
node 9 1 0 0
node 16 1 0 0
gene 1 1 4 -0.751644 0 1 -0.751644 1
gene 3 2 4 -4.84042 0 2 -4.84042 0
gene 3 3 4 0.0706465 0 3 0.0706465 1
gene 3 3 9 1.74035 0 12 1.74035 1
gene 1 9 4 -1.98205 0 13 -1.98205 1
gene 3 2 9 -2.88351 0 24 -2.88351 1
gene 3 2 16 -7.21131 0 29 -7.21131 1
gene 3 16 4 -5.29875 0 30 -5.29875 1
gene 3 3 16 -3.90707 0 49 -3.90707 1
gene 3 9 16 1.12169 0 140 1.12169 1
gene 3 1 16 1.43208 0 148 1.43208 1
gene 3 1 9 -1.08571 0 183 -1.08571 1
genomeend 142

/* Organism #143 Fitness: 4.07289 Error: 1.98186 */
genomestart 143
trait 1 0.0375 0 0 0 0 0 0.398953 0 
trait 2 0.2 0 0 0 0 0 0 0 
trait 3 0.3 0 0 0 0 0 0 0 
node 1 1 1 3
node 2 3 1 1
node 3 1 1 1
node 4 2 0 2
node 9 1 0 0
node 16 1 0 0
gene 1 1 4 -0.891064 0 1 -0.891064 1
gene 3 2 4 -2.17627 0 2 -2.17627 0
gene 3 3 4 1.52462 0 3 1.52462 1
gene 3 3 9 0.123634 0 12 0.123634 1
gene 1 9 4 0.0809256 0 13 0.0809256 1
gene 3 2 9 -2.14588 0 24 -2.14588 1
gene 3 2 16 -4.44214 0 29 -4.44214 1
gene 3 16 4 -3.18572 0 30 -3.18572 1
gene 3 3 16 -2.56304 0 49 -2.56304 1
gene 3 9 16 -0.153279 0 140 -0.153279 1
gene 3 1 16 0.775704 0 148 0.775704 1
gene 3 1 9 3.34016 0 183 3.34016 1
genomeend 143

/* Organism #144 Fitness: 8.99772 Error: 1.00038 */
genomestart 144
trait 1 0.0375 0 0 0 0 0 0.398953 0 
trait 2 0.2 0 0 0 0 0 0 0 
trait 3 0.3 0 0 0 0 0 0 0 
node 1 3 1 3
node 2 3 1 1
node 3 1 1 1
node 4 2 0 2
node 9 1 0 0
node 16 1 0 0
gene 1 1 4 2.17294 0 1 2.17294 1
gene 3 2 4 -7.42908 0 2 -7.42908 0
gene 3 3 4 -3.04621 0 3 -3.04621 1
gene 3 3 9 1.32423 0 12 1.32423 1
gene 1 9 4 -0.293994 0 13 -0.293994 1
gene 3 2 9 -0.47087 0 24 -0.47087 1
gene 3 2 16 -5.7922 0 29 -5.7922 1
gene 3 16 4 -3.54195 0 30 -3.54195 1
gene 3 3 16 -5.05556 0 49 -5.05556 1
gene 3 9 16 1.00015 0 140 1.00015 1
gene 3 1 16 0.345851 0 148 0.345851 1
gene 3 1 9 1.98325 0 183 1.98325 1
genomeend 144

/* Organism #145 Fitness: 13.5299 Error: 0.321697 */
/* ##------$ WINNER 145 SPECIES #17 $------## */
genomestart 145
trait 1 0.0375 0 0 0 0 0 0.398953 0 
trait 2 0.2 0 0 0 0 0 0 0 
trait 3 0.3 0 0 0 0 0 0 0 
node 1 1 1 3
node 2 3 1 1
node 3 1 1 1
node 4 2 0 2
node 9 1 0 0
node 16 1 0 0
gene 1 1 4 0.822806 0 1 0.822806 1
gene 3 2 4 -5.24067 0 2 -5.24067 0
gene 3 3 4 -2.31628 0 3 -2.31628 1
gene 3 3 9 3.28337 0 12 3.28337 1
gene 1 9 4 1.66178 0 13 1.66178 1
gene 3 2 9 -4.4942 0 24 -4.4942 1
gene 3 2 16 -6.3732 0 29 -6.3732 1
gene 3 16 4 -5.48903 0 30 -5.48903 1
gene 3 3 16 -3.83284 0 49 -3.83284 1
gene 3 9 16 -2.06162 0 140 -2.06162 1
gene 3 1 16 0.771584 0 148 0.771584 1
gene 3 1 9 -1.20519 0 183 -1.20519 1
genomeend 145

/* Organism #146 Fitness: 1.42953 Error: 2.80437 */
genomestart 146
trait 1 0.0375 0 0 0 0 0 0.398953 0 
trait 2 0.2 0 0 0 0 0 0 0 
trait 3 0.3 0 0 0 0 0 0 0 
node 1 1 1 3
node 2 3 1 1
node 3 1 1 1
node 4 2 0 2
node 9 1 0 0
node 16 1 0 0
gene 1 1 4 -0.927355 0 1 -0.927355 1
gene 3 2 4 -7.06606 0 2 -7.06606 0
gene 3 3 4 1.45123 0 3 1.45123 1
gene 3 3 9 -0.890378 0 12 -0.890378 1
gene 1 9 4 0.794906 0 13 0.794906 1
gene 3 2 9 -2.14588 0 24 -2.14588 1
gene 3 2 16 -4.73237 0 29 -4.73237 1
gene 3 16 4 -3.80433 0 30 -3.80433 1
gene 3 3 16 0.978195 0 49 0.978195 1
gene 3 9 16 1.43246 0 140 1.43246 1
gene 3 1 16 -1.99881 0 148 -1.99881 1
gene 3 1 9 0.976196 0 183 0.976196 1
genomeend 146

/* Organism #147 Fitness: 4.0034 Error: 1.99915 */
genomestart 147
trait 1 0.0375 0 0 0 0 0 0.398953 0 
trait 2 0.2 0 0 0 0 0 0 0 
trait 3 0.3 0 0 0 0 0 0 0 
node 1 1 1 3
node 2 3 1 1
node 3 1 1 1
node 4 2 0 2
node 9 1 0 0
node 16 1 0 0
gene 1 1 4 1.84678 0 1 1.84678 1
gene 3 2 4 -8 0 2 -8 0
gene 3 3 4 -0.41559 0 3 -0.41559 1
gene 3 3 9 2.64927 0 12 2.64927 1
gene 1 9 4 2.10842 0 13 2.10842 1
gene 3 2 9 -4.37075 0 24 -4.37075 1
gene 3 2 16 -8 0 29 -8 1
gene 3 16 4 -5.43417 0 30 -5.43417 1
gene 3 3 16 -1.41058 0 49 -1.41058 1
gene 3 9 16 -0.28338 0 140 -0.28338 1
gene 3 1 16 -1.48206 0 148 -1.48206 1
gene 3 1 9 -0.805078 0 183 -0.805078 1
genomeend 147

/* Organism #148 Fitness: 4.49723 Error: 1.87933 */
genomestart 148
trait 1 0.0375 0 0 0 0 0 0.398953 0 
trait 2 0.2 0 0 0 0 0 0 0 
trait 3 0.3 0 0 0 0 0 0 0 
node 1 1 1 3
node 2 3 1 1
node 3 1 1 1
node 4 2 0 2
node 9 1 0 0
node 16 1 0 0
gene 1 1 4 -0.378582 0 1 -0.378582 1
gene 3 2 4 1.002 0 2 1.002 0
gene 3 3 4 -2.06153 0 3 -2.06153 1
gene 3 3 9 0.73225 0 12 0.73225 1
gene 1 9 4 -2.06076 0 13 -2.06076 1
gene 3 2 9 -1.11367 0 24 -1.11367 1
gene 3 2 16 -5.34679 0 29 -5.34679 1
gene 3 16 4 -2.9962 0 30 -2.9962 1
gene 1 3 16 -2.30508 0 49 -2.30508 1
gene 3 9 16 -1.76878 0 140 -1.76878 1
gene 3 1 16 -2.40188 0 148 -2.40188 1
gene 3 1 9 0.216819 0 183 0.216819 1
genomeend 148

/* Organism #149 Fitness: 3.04999 Error: 2.25358 */
genomestart 149
trait 1 0.0375 0 0 0 0 0 0.398953 0 
trait 2 0.2 0 0 0 0 0 0 0 
trait 3 0.3 0 0 0 0 0 0 0 
node 1 1 1 3
node 2 3 1 1
node 3 1 1 1
node 4 2 0 2
node 9 1 0 0
node 16 1 0 0
gene 1 1 4 0.318487 0 1 0.318487 1
gene 3 2 4 -8 0 2 -8 0
gene 3 3 4 0.741825 0 3 0.741825 1
gene 3 3 9 1.80078 0 12 1.80078 1
gene 1 9 4 0.783309 0 13 0.783309 1
gene 3 2 9 -3.98668 0 24 -3.98668 1
gene 3 2 16 -3.77234 0 29 -3.77234 1
gene 3 16 4 -7.15168 0 30 -7.15168 1
gene 3 3 16 -4.31557 0 49 -4.31557 1
gene 3 9 16 1.8726 0 140 1.8726 1
gene 3 1 16 2.91795 0 148 2.91795 1
gene 3 1 9 0.976196 0 183 0.976196 1
genomeend 149
