
/* Species #1 : (Size 8) (AF 7.85723) (Age 35)  */


/* Organism #0 Fitness: 9 Error: 1 */
genomestart 0
trait 1 0.0811523 0 0.0733095 0 0 0.0485356 0 0.0116046 
trait 2 0.505267 0.234202 0.54145 0.015472 0.279286 0 0 0 
trait 3 0.384521 0 0 0 0 0 0 0 
node 1 2 1 3
node 2 2 1 1
node 3 3 1 1
node 4 2 0 2
gene 3 1 4 -3.71621 0 1 -3.71621 1
gene 3 2 4 8 0 2 8 1
gene 2 3 4 8 0 3 8 1
genomeend 0

/* Organism #1 Fitness: 9 Error: 1 */
genomestart 1
trait 1 0.0811523 0 0.0733095 0 0 0.0485356 0 0.0116046 
trait 2 0.505267 0.234202 0.54145 0.015472 0.279286 0 0 0 
trait 3 0.384521 0 0 0 0 0 0 0 
node 1 2 1 3
node 2 2 1 1
node 3 3 1 1
node 4 2 0 2
gene 1 1 4 -3.57811 0 1 -3.57811 1
gene 3 2 4 8 0 2 8 1
gene 2 3 4 7.27236 0 3 7.27236 1
genomeend 1

/* Organism #2 Fitness: 9 Error: 1 */
genomestart 2
trait 1 0.0811523 0 0.0733095 0 0 0.0485356 0 0.0116046 
trait 2 0.505267 0.117101 0.54145 0.015472 0.279286 0.226112 0 0 
trait 3 0.39859 0 0 0 0.385022 0 0.703787 0 
node 1 2 1 3
node 2 2 1 1
node 3 3 1 1
node 4 2 0 2
gene 3 1 4 -3.71621 0 1 -3.71621 1
gene 3 2 4 8 0 2 8 1
gene 2 3 4 8 0 3 8 1
genomeend 2

/* Organism #3 Fitness: 4.83217 Error: 1.80178 */
genomestart 3
trait 1 0.0811523 0 0.0733095 0 0 0.0485356 0 0.0116046 
trait 2 0.505267 0.117101 0.54145 0.015472 0.279286 0.226112 0 0 
trait 3 0.39859 0 0 0 0.385022 0 0.703787 0 
node 1 2 1 3
node 2 2 1 1
node 3 3 1 1
node 4 2 0 2
node 113 1 0 0
gene 3 1 4 -3.71621 0 1 -3.71621 1
gene 3 2 4 8 0 2 8 0
gene 2 3 4 8 0 3 8 1
gene 3 2 113 1 0 339 0 1
gene 3 113 4 8 0 340 0 1
genomeend 3

/* Organism #4 Fitness: 8.9999 Error: 1.00002 */
genomestart 4
trait 1 0.0811523 0 0.0733095 0 0 0.0485356 0 0.0116046 
trait 2 0.505267 0.234202 0.54145 0.015472 0.279286 0 0 0 
trait 3 0.384521 0 0 0 0 0 0 0 
node 1 2 1 3
node 2 2 1 1
node 3 3 1 1
node 4 1 0 2
gene 3 1 4 -2.23278 0 1 -2.23278 1
gene 3 2 4 8 0 2 8 1
gene 2 3 4 6.1872 0 3 6.1872 1
genomeend 4

/* Organism #5 Fitness: 9 Error: 1 */
genomestart 5
trait 1 0.0811523 0 0.0733095 0 0 0.0485356 0 0.0116046 
trait 2 0.505267 0.117101 0.54145 0.015472 0.279286 0.226112 0 0 
trait 3 0.39859 0 0 0 0.385022 0 0.703787 0 
node 1 2 1 3
node 2 2 1 1
node 3 3 1 1
node 4 2 0 2
gene 3 1 4 -2.87871 0 1 -2.87871 1
gene 3 2 4 6.94879 0 2 6.94879 1
gene 2 3 4 8 0 3 8 1
genomeend 5

/* Organism #6 Fitness: 9 Error: 1 */
genomestart 6
trait 1 0.0811523 0 0.0733095 0 0 0.0485356 0 0.0116046 
trait 2 0.505267 0.175651 0.54145 0.015472 0.279286 0.113056 0 0 
trait 3 0.391556 0 0 0 0.192511 0 0.351894 0 
node 1 2 1 3
node 2 2 1 1
node 3 3 1 1
node 4 2 0 2
gene 3 1 4 -3.00627 0 1 -3.00627 1
gene 3 2 4 6.54137 0 2 6.54137 1
gene 2 3 4 8 0 3 8 1
genomeend 6

/* Organism #7 Fitness: 4.02579 Error: 1.99356 */
genomestart 7
trait 1 0.0811523 0 0.0733095 0 0 0.0485356 0 0.0116046 
trait 2 0.505267 0.234202 0.54145 0.015472 0.279286 0 0 0 
trait 3 0.384521 0 0 0 0.0463271 0.850215 0.386273 0 
node 1 2 1 3
node 2 3 1 1
node 3 3 1 1
node 4 2 0 2
gene 3 1 4 -1.77366 0 1 -1.77366 1
gene 1 2 4 -2.00865 0 2 -2.00865 1
gene 2 3 4 0.755409 0 3 0.755409 1
genomeend 7

/* Species #2 : (Size 8) (AF 8.37473) (Age 33)  */


/* Organism #8 Fitness: 9 Error: 1 */
genomestart 8
trait 1 0.1 0 0 0 0 0 0 0 
trait 2 0.2 0 0 0 0 0 0 0 
trait 3 0.24375 0 0.148005 0 0 0 0 0 
node 1 3 1 3
node 2 2 1 1
node 3 1 1 1
node 4 3 0 2
node 7 1 0 0
gene 1 1 4 -4.00433 0 1 -4.00433 1
gene 2 2 4 -8 0 2 -8 1
gene 3 3 4 8 0 3 8 1
gene 3 3 7 -1.55858 0 8 -1.55858 1
gene 3 7 4 1.00276 0 9 1.00276 1
gene 1 2 7 -2.13096 0 41 -2.13096 0
gene 2 1 7 -5.9642 0 90 -5.9642 1
genomeend 8

/* Organism #9 Fitness: 8.99955 Error: 1.00008 */
genomestart 9
trait 1 0.1 0 0 0 0 0 0 0 
trait 2 0.2 0 0 0 0 0 0 0 
trait 3 0.24375 0 0.148005 0 0 0 0 0 
node 1 3 1 3
node 2 2 1 1
node 3 1 1 1
node 4 3 0 2
node 7 1 0 0
gene 1 1 4 -6.07227 0 1 -6.07227 1
gene 2 2 4 -7.1966 0 2 -7.1966 1
gene 3 3 4 8 0 3 8 1
gene 3 3 7 -2.59949 0 8 -2.59949 1
gene 3 7 4 1.36181 0 9 1.36181 1
gene 1 2 7 -1.08883 0 41 -1.08883 0
gene 2 1 7 -3.54675 0 90 -3.54675 1
genomeend 9

/* Organism #10 Fitness: 8.99998 Error: 1 */
genomestart 10
trait 1 0.1 0 0 0 0 0 0 0 
trait 2 0.2 0 0 0 0 0 0 0 
trait 3 0.24375 0 0.148005 0 0 0 0 0 
node 1 3 1 3
node 2 2 1 1
node 3 1 1 1
node 4 3 0 2
node 7 1 0 0
gene 1 1 4 -5.45892 0 1 -5.45892 1
gene 2 2 4 -8 0 2 -8 1
gene 3 3 4 8 0 3 8 1
gene 3 3 7 -1.79205 0 8 -1.79205 1
gene 3 7 4 0.721229 0 9 0.721229 1
gene 1 2 7 2.27981 0 41 2.27981 0
gene 2 1 7 -4.59514 0 90 -4.59514 1
genomeend 10

/* Organism #11 Fitness: 8.99853 Error: 1.00024 */
genomestart 11
trait 1 0.1 0 0 0 0 0 0 0 
trait 2 0.2 0 0 0 0 0 0 0 
trait 3 0.24375 0 0.148005 0 0 0 0 0 
node 1 3 1 3
node 2 2 1 1
node 3 1 1 1
node 4 3 0 2
node 7 1 0 0
gene 1 1 4 -6.311 0 1 -6.311 1
gene 2 2 4 -8 0 2 -8 1
gene 3 3 4 8 0 3 8 1
gene 3 3 7 -0.501801 0 8 -0.501801 1
gene 3 7 4 -0.944319 0 9 -0.944319 1
gene 1 2 7 -1.77466 0 41 -1.77466 0
gene 2 1 7 -8 0 90 -8 1
genomeend 11

/* Organism #12 Fitness: 8.99999 Error: 1 */
genomestart 12
trait 1 0.1 0 0 0 0 0 0 0 
trait 2 0.2 0 0 0 0 0 0 0 
trait 3 0.24375 0 0.148005 0 0 0 0 0 
node 1 3 1 3
node 2 2 1 1
node 3 1 1 1
node 4 3 0 2
node 7 1 0 0
gene 1 1 4 -2.71912 0 1 -2.71912 1
gene 2 2 4 -8 0 2 -8 1
gene 3 3 4 6.56571 0 3 6.56571 1
gene 3 3 7 -0.426115 0 8 -0.426115 1
gene 3 7 4 2.85066 0 9 2.85066 1
gene 1 2 7 -3.58532 0 41 -3.58532 0
gene 2 1 7 -5.03133 0 90 -5.03133 1
genomeend 12

/* Organism #13 Fitness: 8.99999 Error: 1 */
genomestart 13
trait 1 0.1 0 0 0 0 0 0 0 
trait 2 0.2 0 0 0 0 0 0 0 
trait 3 0.24375 0 0.148005 0 0 0 0 0 
node 1 3 1 3
node 2 2 1 1
node 3 1 1 1
node 4 3 0 2
node 7 1 0 0
gene 1 1 4 -2.76368 0 1 -2.76368 1
gene 2 2 4 -8 0 2 -8 1
gene 3 3 4 8 0 3 8 1
gene 3 3 7 -3.93246 0 8 -3.93246 1
gene 3 7 4 0.708563 0 9 0.708563 1
gene 1 2 7 1.23119 0 41 1.23119 0
gene 2 1 7 -6.03974 0 90 -6.03974 1
genomeend 13

/* Organism #14 Fitness: 9 Error: 1 */
genomestart 14
trait 1 0.1 0 0 0 0 0 0 0 
trait 2 0.2 0 0 0 0 0 0 0 
trait 3 0.24375 0 0.148005 0 0 0 0 0 
node 1 3 1 3
node 2 2 1 1
node 3 1 1 1
node 4 3 0 2
node 7 1 0 0
gene 1 1 4 -3.31263 0 1 -3.31263 1
gene 2 2 4 -8 0 2 -8 1
gene 3 3 4 8 0 3 8 1
gene 3 3 7 -0.169225 0 8 -0.169225 1
gene 3 7 4 2.64588 0 9 2.64588 1
gene 1 2 7 0.685059 0 41 0.685059 0
gene 2 1 7 -7.22568 0 90 -7.22568 1
genomeend 14

/* Organism #15 Fitness: 3.99978 Error: 2.00005 */
genomestart 15
trait 1 0.1 0 0 0 0 0 0 0 
trait 2 0.2 0 0 0 0 0 0 0 
trait 3 0.24375 0 0.148005 0 0 0 0 0 
node 1 3 1 3
node 2 2 1 1
node 3 1 1 1
node 4 3 0 2
node 7 1 0 0
gene 1 1 4 -1.99103 0 1 -1.99103 1
gene 2 2 4 -1.05502 0 2 -1.05502 1
gene 3 3 4 8 0 3 8 1
gene 3 3 7 -3.78025 0 8 -3.78025 1
gene 3 7 4 0.520341 0 9 0.520341 1
gene 1 2 7 -2.13096 0 41 -2.13096 0
gene 2 1 7 -1.83599 0 90 -1.83599 1
genomeend 15

/* Species #3 : (Size 5) (AF 4.9934) (Age 32)  */


/* Organism #16 Fitness: 4.00639 Error: 1.9984 */
genomestart 16
trait 1 0 0.897336 0.299478 0 0 0 0 0 
trait 2 0.2 0 0 0 0 0 0 0 
trait 3 0.3 0 0 0 0 0 0 0 
node 1 1 1 3
node 2 1 1 1
node 3 3 1 1
node 4 3 0 2
node 8 1 0 0
gene 1 1 4 0.714286 0 1 0.714286 1
gene 3 2 4 -3.38209 0 2 -3.38209 1
gene 3 3 4 3.90958 0 3 3.90958 0
gene 3 3 8 -6.03194 0 10 -6.03194 1
gene 3 8 4 -5.67696 0 11 -5.67696 1
gene 1 2 8 -0.527017 0 35 -0.527017 1
gene 3 1 8 -1.26275 0 164 -1.26275 1
genomeend 16

/* Organism #17 Fitness: 4.00001 Error: 2 */
genomestart 17
trait 1 0 0.897336 0.299478 0 0 0 0 0 
trait 2 0.2 0 0 0 0 0 0 0 
trait 3 0.3 0 0 0 0 0 0 0 
node 1 1 1 3
node 2 1 1 1
node 3 3 1 1
node 4 1 0 2
node 8 1 0 0
gene 1 1 4 0.46411 0 1 0.46411 1
gene 3 2 4 -2.98268 0 2 -2.98268 1
gene 3 3 4 7.25716 0 3 7.25716 0
gene 3 3 8 -6.80581 0 10 -6.80581 1
gene 3 8 4 -4.05589 0 11 -4.05589 1
gene 1 2 8 -2.47433 0 35 -2.47433 1
gene 3 1 8 -2.84293 0 164 -2.84293 1
genomeend 17

/* Organism #18 Fitness: 4.02519 Error: 1.99371 */
genomestart 18
trait 1 0 0.897336 0.299478 0 0 0 0 0 
trait 2 0.2 0 0 0 0 0 0 0 
trait 3 0.3 0 0 0 0 0 0 0 
node 1 1 1 3
node 2 1 1 1
node 3 3 1 1
node 4 1 0 2
node 8 1 0 0
gene 1 1 4 0.0362407 0 1 0.0362407 1
gene 3 2 4 -1.9069 0 2 -1.9069 1
gene 3 3 4 4.35584 0 3 4.35584 0
gene 3 3 8 -8 0 10 -8 1
gene 3 8 4 -5.3836 0 11 -5.3836 1
gene 1 2 8 0.237472 0 35 0.237472 1
gene 3 1 8 -1.41169 0 164 -1.41169 1
genomeend 18

/* Organism #19 Fitness: 8.93289 Error: 1.01121 */
genomestart 19
trait 1 0 0.897336 0.299478 0 0 0 0 0 
trait 2 0.2 0 0 0 0 0 0 0 
trait 3 0.3 0 0.211646 0.836055 0.430403 0.878567 0.0930815 0 
node 1 1 1 3
node 2 1 1 1
node 3 3 1 1
node 4 1 0 2
node 8 1 0 0
gene 1 1 4 0.918912 0 1 0.918912 1
gene 3 2 4 -4.24302 0 2 -4.24302 1
gene 3 3 4 7.43058 0 3 7.43058 0
gene 3 3 8 -7.3556 0 10 -7.3556 1
gene 3 8 4 -5.95048 0 11 -5.95048 1
gene 2 2 8 -1.47279 0 35 -1.47279 1
gene 3 1 8 -0.0699389 0 164 -0.0699389 1
genomeend 19

/* Organism #20 Fitness: 4.00254 Error: 1.99936 */
genomestart 20
trait 1 0 0.897336 0.299478 0 0 0 0 0 
trait 2 0.2 0 0 0 0 0 0 0 
trait 3 0.3 0 0 0 0 0 0 0 
node 1 1 1 3
node 2 1 1 1
node 3 3 1 1
node 4 1 0 2
node 8 1 0 0
gene 1 1 4 0.409558 0 1 0.409558 1
gene 3 2 4 -4.20266 0 2 -4.20266 1
gene 3 3 4 6.24249 0 3 6.24249 0
gene 3 3 8 -8 0 10 -8 1
gene 3 8 4 -6.81377 0 11 -6.81377 1
gene 1 2 8 -1.52039 0 35 -1.52039 1
gene 3 1 8 -1.74823 0 164 -1.74823 1
genomeend 20

/* Species #4 : (Size 6) (AF 8.99995) (Age 32)  */


/* Organism #21 Fitness: 9 Error: 1 */
genomestart 21
trait 1 0.1 0 0 0 0 0 0 0 
trait 2 0.2 0 0 0 0 0 0 0 
trait 3 0 0 0 0.920774 0 0 0 0 
node 1 3 1 3
node 2 3 1 1
node 3 1 1 1
node 4 2 0 2
node 9 1 0 0
gene 2 1 4 0.483108 0 1 0.483108 1
gene 3 2 4 -4.4174 0 2 -4.4174 1
gene 1 3 4 5.88469 0 3 5.88469 1
gene 3 2 9 4.93701 0 12 4.93701 1
gene 3 9 4 -8 0 13 -8 1
gene 1 3 9 -5.2007 0 27 -5.2007 1
gene 2 1 9 2.12738 0 40 2.12738 1
genomeend 21

/* Organism #22 Fitness: 9 Error: 1 */
genomestart 22
trait 1 0.1 0 0 0 0 0 0 0 
trait 2 0.2 0 0 0 0 0 0 0 
trait 3 0 0 0 0.920774 0 0 0 0 
node 1 3 1 3
node 2 3 1 1
node 3 1 1 1
node 4 2 0 2
node 9 1 0 0
gene 2 1 4 2.75269 0 1 2.75269 1
gene 3 2 4 -3.76186 0 2 -3.76186 1
gene 1 3 4 3.6026 0 3 3.6026 1
gene 3 2 9 5.41356 0 12 5.41356 1
gene 3 9 4 -7.41229 0 13 -7.41229 1
gene 1 3 9 -5.41021 0 27 -5.41021 1
gene 2 1 9 3.17737 0 40 3.17737 1
genomeend 22

/* Organism #23 Fitness: 9 Error: 1 */
genomestart 23
trait 1 0.1 0 0 0 0 0 0 0 
trait 2 0.2 0 0 0 0 0 0 0 
trait 3 0 0 0 0.920774 0 0 0 0 
node 1 3 1 3
node 2 3 1 1
node 3 1 1 1
node 4 2 0 2
node 9 1 0 0
gene 1 1 4 -1.12781 0 1 -1.12781 1
gene 3 2 4 -4.71038 0 2 -4.71038 1
gene 1 3 4 5.74797 0 3 5.74797 1
gene 3 2 9 4.32969 0 12 4.32969 1
gene 3 9 4 -8 0 13 -8 1
gene 1 3 9 -3.08776 0 27 -3.08776 1
gene 2 1 9 0.000625629 0 40 0.000625629 1
genomeend 23

/* Organism #24 Fitness: 9 Error: 1 */
genomestart 24
trait 1 0.1 0 0 0 0 0 0 0 
trait 2 0.2 0 0 0 0 0 0 0 
trait 3 0 0 0 0.920774 0 0 0 0 
node 1 3 1 3
node 2 3 1 1
node 3 1 1 1
node 4 2 0 2
node 9 1 0 0
gene 2 1 4 0.731529 0 1 0.731529 1
gene 3 2 4 -6.38104 0 2 -6.38104 1
gene 1 3 4 6.1293 0 3 6.1293 1
gene 2 2 9 5.57172 0 12 5.57172 1
gene 3 9 4 -8 0 13 -8 1
gene 1 3 9 -3.20968 0 27 -3.20968 1
gene 2 1 9 1.86264 0 40 1.86264 1
genomeend 24

/* Organism #25 Fitness: 9 Error: 1 */
genomestart 25
trait 1 0.1 0 0 0 0 0 0 0 
trait 2 0.2 0 0 0 0 0 0 0 
trait 3 0 0 0 0.920774 0 0 0 0 
node 1 3 1 3
node 2 3 1 1
node 3 1 1 1
node 4 2 0 2
node 9 1 0 0
gene 2 1 4 -0.907086 0 1 -0.907086 1
gene 3 2 4 -3.9787 0 2 -3.9787 1
gene 1 3 4 6.14944 0 3 6.14944 1
gene 3 2 9 4.9348 0 12 4.9348 1
gene 3 9 4 -7.83886 0 13 -7.83886 1
gene 1 3 9 -6.4409 0 27 -6.4409 1
gene 2 1 9 2.04941 0 40 2.04941 1
genomeend 25

/* Organism #26 Fitness: 8.99968 Error: 1.00005 */
genomestart 26
trait 1 0.1 0 0 0 0 0 0 0 
trait 2 0.2 0 0 0 0 0 0 0 
trait 3 0 0 0 0.920774 0 0 0 0 
node 1 3 1 3
node 2 3 1 1
node 3 1 1 1
node 4 2 0 2
node 9 1 0 0
gene 2 1 4 -0.132145 0 1 -0.132145 1
gene 3 2 4 -4.49721 0 2 -4.49721 1
gene 1 3 4 2.15194 0 3 2.15194 1
gene 2 2 9 1.91733 0 12 1.91733 1
gene 3 9 4 -8 0 13 -8 1
gene 1 3 9 -6.1084 0 27 -6.1084 1
gene 2 1 9 2.22314 0 40 2.22314 1
genomeend 26

/* Species #5 : (Size 5) (AF 6.4247) (Age 30)  */


/* Organism #27 Fitness: 8.95185 Error: 1.00804 */
genomestart 27
trait 1 0.1 0 0 0 0 0 0 0 
trait 2 0.2 0 0 0 0 0 0 0 
trait 3 0.3 0 0 0 0 0 0 0 
node 1 3 1 3
node 2 2 1 1
node 3 1 1 1
node 4 3 0 2
node 7 1 0 0
node 13 1 0 0
node 90 1 0 0
node 101 1 0 0
gene 1 1 4 -6.34529 0 1 -6.34529 1
gene 2 2 4 2.15892 0 2 2.15892 0
gene 3 3 4 -0.477767 0 3 -0.477767 0
gene 3 3 7 8 0 8 8 1
gene 3 7 4 4.6807 0 9 4.6807 1
gene 3 3 13 -0.684339 0 22 -0.684339 1
gene 3 13 4 -1.01535 0 23 -1.01535 1
gene 2 1 13 3.90332 0 134 3.90332 1
gene 2 2 90 -2.66924 0 269 -2.66924 1
gene 2 90 4 8 0 270 8 1
gene 3 2 13 4.74001 0 290 4.74001 0
gene 3 2 101 -0.381939 0 302 -0.381939 1
gene 3 101 13 1.66115 0 303 1.66115 1
genomeend 27

/* Organism #28 Fitness: 4.42819 Error: 1.89567 */
genomestart 28
trait 1 0.1 0 0 0 0 0 0 0 
trait 2 0.2 0 0 0 0 0 0 0 
trait 3 0.3 0 0 0 0 0 0 0 
node 1 3 1 3
node 2 2 1 1
node 3 3 1 1
node 4 3 0 2
node 7 1 0 0
node 13 1 0 0
node 90 1 0 0
node 101 1 0 0
gene 1 1 4 -6.51581 0 1 -6.51581 1
gene 2 2 4 3.14009 0 2 3.14009 0
gene 3 3 4 -1.80906 0 3 -1.80906 0
gene 3 3 7 8 0 8 8 1
gene 3 7 4 0.602206 0 9 0.602206 1
gene 3 3 13 1.52871 0 22 1.52871 1
gene 3 13 4 2.72675 0 23 2.72675 1
gene 2 1 13 2.06214 0 134 2.06214 1
gene 2 2 90 -3.83345 0 269 -3.83345 1
gene 2 90 4 5.63619 0 270 5.63619 1
gene 3 2 13 5.13347 0 290 5.13347 0
gene 3 2 101 -0.938444 0 302 -0.938444 1
gene 3 101 13 0.0920438 0 303 0.0920438 1
genomeend 28

/* Organism #29 Fitness: 6.2533 Error: 1.49934 */
genomestart 29
trait 1 0.1 0 0 0 0 0 0 0 
trait 2 0 0 0.188421 0 0 0 0 0 
trait 3 0.3 0 0 0 0 0 0 0 
node 1 3 1 3
node 2 2 1 1
node 3 1 1 1
node 4 3 0 2
node 7 1 0 0
node 13 1 0 0
node 90 1 0 0
node 101 1 0 0
gene 1 1 4 -6.22649 0 1 -6.22649 1
gene 2 2 4 2.8423 0 2 2.8423 0
gene 3 3 4 -0.749611 0 3 -0.749611 0
gene 3 3 7 5.83952 0 8 5.83952 1
gene 3 7 4 2.99127 0 9 2.99127 1
gene 3 3 13 -0.845859 0 22 -0.845859 1
gene 3 13 4 1.96295 0 23 1.96295 1
gene 2 1 13 -0.0687429 0 134 -0.0687429 1
gene 2 2 90 -4.57131 0 269 -4.57131 1
gene 2 90 4 5.54135 0 270 5.54135 1
gene 3 2 13 -1.27201 0 290 -1.27201 0
gene 3 2 101 -0.938444 0 302 -0.938444 1
gene 3 101 13 2.51872 0 303 2.51872 1
genomeend 29

/* Organism #30 Fitness: 4.00002 Error: 1.99999 */
genomestart 30
trait 1 0.1 0 0 0 0 0 0 0 
trait 2 0.2 0 0 0 0 0 0 0 
trait 3 0.3 0 0 0 0 0 0 0 
node 1 3 1 3
node 2 2 1 1
node 3 1 1 1
node 4 3 0 2
node 7 1 0 0
node 13 1 0 0
node 90 1 0 0
node 101 1 0 0
gene 1 1 4 -8 0 1 -8 1
gene 2 2 4 4.01711 0 2 4.01711 0
gene 3 3 4 -0.724662 0 3 -0.724662 0
gene 3 3 7 7.34507 0 8 7.34507 1
gene 3 7 4 1.339 0 9 1.339 1
gene 3 3 13 0.297517 0 22 0.297517 1
gene 3 13 4 0.757317 0 23 0.757317 1
gene 2 1 13 4.40474 0 134 4.40474 1
gene 2 2 90 -0.489837 0 269 -0.489837 1
gene 2 90 4 6.88424 0 270 6.88424 1
gene 3 2 13 4.92846 0 290 4.92846 0
gene 3 2 101 -3.29012 0 302 -3.29012 1
gene 3 101 13 0.524918 0 303 0.524918 1
genomeend 30

/* Organism #31 Fitness: 8.49014 Error: 1.08622 */
genomestart 31
trait 1 0.1 0 0.349162 0 0 0.561357 0 0 
trait 2 0.2 0 0 0 0 0 0 0 
trait 3 0.3 0 0 0 0 0 0 0 
node 1 3 1 3
node 2 2 1 1
node 3 1 1 1
node 4 3 0 2
node 7 1 0 0
node 13 1 0 0
node 90 1 0 0
node 101 1 0 0
gene 1 1 4 -7.96872 0 1 -7.96872 1
gene 2 2 4 4.51861 0 2 4.51861 0
gene 3 3 4 -1.15665 0 3 -1.15665 0
gene 3 3 7 6.81603 0 8 6.81603 1
gene 3 7 4 2.99127 0 9 2.99127 1
gene 3 3 13 -0.3333 0 22 -0.3333 1
gene 3 13 4 1.47671 0 23 1.47671 1
gene 2 1 13 2.15133 0 134 2.15133 1
gene 2 2 90 -2.5107 0 269 -2.5107 1
gene 2 90 4 8 0 270 8 1
gene 3 2 13 2.64057 0 290 2.64057 0
gene 3 2 101 -0.938444 0 302 -0.938444 1
gene 3 101 13 0.0920438 0 303 0.0920438 1
genomeend 31

/* Species #6 : (Size 6) (AF 6.92194) (Age 30)  */


/* Organism #32 Fitness: 9 Error: 1 */
genomestart 32
trait 1 0.1 0 0.242656 0.0326739 0 0 0 0 
trait 2 0.15 0 0.154477 0.210906 0.213179 0.0996353 0.110225 0 
trait 3 0.3 0 0 0 0 0 0 0 
node 1 3 1 3
node 2 3 1 1
node 3 1 1 1
node 4 2 0 2
node 9 1 0 0
node 18 2 0 0
gene 2 1 4 7.75811 0 1 7.75811 1
gene 3 2 4 0.578707 0 2 0.578707 0
gene 1 3 4 -3.24763 0 3 -3.24763 1
gene 3 2 9 1.69072 0 12 1.69072 0
gene 3 9 4 -7.70496 0 13 -7.70496 1
gene 3 2 18 -6.05198 0 38 -6.05198 1
gene 3 18 9 2.52663 0 39 2.52663 1
gene 2 18 4 -8 0 115 -8 1
gene 2 3 9 1.87124 0 197 1.87124 1
genomeend 32

/* Organism #33 Fitness: 6.5797 Error: 1.43491 */
genomestart 33
trait 1 0.1 0 0.242656 0.0326739 0 0 0 0 
trait 2 0.15 0 0.154477 0.210906 0.213179 0.0996353 0.110225 0 
trait 3 0.3 0 0 0 0 0 0 0 
node 1 3 1 3
node 2 3 1 1
node 3 1 1 1
node 4 2 0 2
node 9 1 0 0
node 18 2 0 0
gene 2 1 4 7.75811 0 1 7.75811 1
gene 3 2 4 1.19087 0 2 1.19087 0
gene 1 3 4 -3.24763 0 3 -3.24763 1
gene 3 2 9 2.53772 0 12 2.53772 1
gene 3 9 4 -7.70496 0 13 -7.70496 1
gene 3 2 18 -6.05198 0 38 -6.05198 1
gene 3 18 9 2.43126 0 39 2.43126 1
gene 2 18 4 -7.6502 0 115 -7.6502 1
gene 2 3 9 1.87124 0 197 1.87124 1
genomeend 33

/* Organism #34 Fitness: 9 Error: 1 */
genomestart 34
trait 1 0.1 0 0.242656 0.0326739 0 0 0 0 
trait 2 0.15 0 0.154477 0.210906 0.213179 0.0996353 0.110225 0 
trait 3 0.3 0 0 0 0 0 0 0 
node 1 3 1 3
node 2 3 1 1
node 3 1 1 1
node 4 2 0 2
node 9 1 0 0
node 18 2 0 0
gene 2 1 4 7.75811 0 1 7.75811 1
gene 3 2 4 0.578707 0 2 0.578707 0
gene 1 3 4 -3.24763 0 3 -3.24763 1
gene 3 2 9 3.38472 0 12 3.38472 0
gene 3 9 4 -7.70496 0 13 -7.70496 1
gene 3 2 18 -6.05198 0 38 -6.05198 1
gene 3 18 9 2.33589 0 39 2.33589 1
gene 2 18 4 -8 0 115 -8 1
gene 2 3 9 1.87124 0 197 1.87124 1
gene 2 3 18 0.85577 0 341 0.85577 1
genomeend 34

/* Organism #35 Fitness: 3.95281 Error: 2.01183 */
genomestart 35
trait 1 0.1 0 0.242656 0.0326739 0 0 0 0 
trait 2 0.15 0 0.154477 0.210906 0.213179 0.0996353 0.110225 0 
trait 3 0.3 0 0 0 0 0 0 0 
node 1 3 1 3
node 2 3 1 1
node 3 1 1 1
node 4 2 0 2
node 9 1 0 0
node 18 2 0 0
gene 2 1 4 7.53182 0 1 7.53182 1
gene 3 2 4 1.19922 0 2 1.19922 0
gene 1 3 4 -1.85507 0 3 -1.85507 1
gene 3 2 9 2.26408 0 12 2.26408 0
gene 3 9 4 -5.54952 0 13 -5.54952 1
gene 3 2 18 -5.51707 0 38 -5.51707 1
gene 3 18 9 2.82197 0 39 2.82197 1
gene 2 18 4 -5.77242 0 115 -5.77242 1
gene 2 3 9 -0.0862911 0 197 -0.0862911 1
genomeend 35

/* Organism #36 Fitness: 4.00329 Error: 1.99918 */
genomestart 36
trait 1 0.1 0 0.242656 0.0326739 0 0 0 0 
trait 2 0.15 0 0.154477 0.210906 0.213179 0.0996353 0.110225 0 
trait 3 0.3 0 0 0 0 0 0 0 
node 1 3 1 3
node 2 3 1 1
node 3 1 1 1
node 4 2 0 2
node 9 1 0 0
node 18 2 0 0
gene 2 1 4 5.86222 0 1 5.86222 1
gene 3 2 4 1.35189 0 2 1.35189 0
gene 1 3 4 -1.00063 0 3 -1.00063 1
gene 3 2 9 1.91182 0 12 1.91182 0
gene 3 9 4 -7.70496 0 13 -7.70496 1
gene 3 2 18 -4.8246 0 38 -4.8246 1
gene 3 18 9 0.594882 0 39 0.594882 1
gene 2 18 4 -6.23554 0 115 -6.23554 1
gene 2 3 9 -0.369732 0 197 -0.369732 1
genomeend 36

/* Organism #37 Fitness: 8.99585 Error: 1.00069 */
genomestart 37
trait 1 0.1 0 0.242656 0.0326739 0 0 0 0 
trait 2 0.15 0 0.154477 0.210906 0.213179 0.0996353 0.110225 0 
trait 3 0.3 0 0 0 0 0 0 0 
node 1 3 1 3
node 2 3 1 1
node 3 1 1 1
node 4 2 0 2
node 9 1 0 0
node 18 2 0 0
gene 2 1 4 8 0 1 8 1
gene 3 2 4 -0.29313 0 2 -0.29313 0
gene 1 3 4 -1.77267 0 3 -1.77267 1
gene 3 2 9 3.32224 0 12 3.32224 0
gene 3 9 4 -7.70496 0 13 -7.70496 1
gene 3 2 18 -8 0 38 -8 1
gene 3 18 9 4.25222 0 39 4.25222 1
gene 2 18 4 -7.70325 0 115 -7.70325 1
gene 2 3 9 3.27952 0 197 3.27952 1
genomeend 37

/* Species #7 : (Size 8) (AF 7.94534) (Age 29)  */


/* Organism #38 Fitness: 9 Error: 1 */
genomestart 38
trait 1 0.1 0 0 0 0 0 0 0 
trait 2 0.2 0 0 0 0 0 0 0 
trait 3 0.3 0 0 0 0 0 0 0 
node 1 3 1 3
node 2 2 1 1
node 3 1 1 1
node 4 3 0 2
node 7 1 0 0
node 19 1 0 0
node 41 1 0 0
node 87 1 0 0
gene 1 1 4 -3.89523 0 1 -3.89523 1
gene 2 2 4 8 0 2 8 1
gene 3 3 4 8 0 3 8 1
gene 3 3 7 0.313349 0 8 0.313349 1
gene 3 7 4 -0.731246 0 9 -0.731246 0
gene 2 2 7 3.58318 0 32 3.58318 1
gene 3 7 19 4.06238 0 42 4.06238 1
gene 3 19 4 -0.158238 0 43 -0.158238 0
gene 3 19 41 -0.833995 0 107 -0.833995 0
gene 3 41 4 -1.57247 0 108 -1.57247 1
gene 3 19 87 1 0 257 0 1
gene 3 87 41 -0.833995 0 258 0 1
genomeend 38

/* Organism #39 Fitness: 4 Error: 2 */
genomestart 39
trait 1 0.1 0 0 0 0 0 0 0 
trait 2 0.2 0 0 0 0 0 0 0 
trait 3 0.3 0 0 0 0 0 0 0 
node 1 3 1 3
node 2 2 1 1
node 3 1 1 1
node 4 3 0 2
node 7 1 0 0
node 19 1 0 0
node 41 1 0 0
node 87 1 0 0
gene 1 1 4 -2.02612 0 1 -2.02612 1
gene 2 2 4 8 0 2 8 1
gene 3 3 4 -0.0499741 0 3 -0.0499741 1
gene 3 3 7 0.313349 0 8 0.313349 1
gene 3 7 4 0.735801 0 9 0.735801 0
gene 2 2 7 5.67049 0 32 5.67049 1
gene 3 7 19 3.95228 0 42 3.95228 1
gene 3 19 4 -0.341197 0 43 -0.341197 0
gene 3 19 41 -2.09876 0 107 -2.09876 0
gene 3 41 4 -3.62651 0 108 -3.62651 1
gene 3 19 87 -1.43284 0 257 -1.43284 1
gene 3 87 41 -0.351268 0 258 -0.351268 1
genomeend 39

/* Organism #40 Fitness: 9 Error: 1 */
genomestart 40
trait 1 0.1 0 0 0 0 0 0 0 
trait 2 0.2 0 0 0 0 0 0 0 
trait 3 0.3 0 0 0 0 0 0 0 
node 1 3 1 3
node 2 2 1 1
node 3 1 1 1
node 4 3 0 2
node 7 1 0 0
node 19 1 0 0
node 41 1 0 0
node 87 1 0 0
gene 1 1 4 -3.89523 0 1 -3.89523 1
gene 2 2 4 8 0 2 8 1
gene 3 3 4 8 0 3 8 1
gene 3 3 7 0.313349 0 8 0.313349 1
gene 3 7 4 -0.731246 0 9 -0.731246 0
gene 2 2 7 3.58318 0 32 3.58318 1
gene 3 7 19 4.06238 0 42 4.06238 1
gene 3 19 4 -0.158238 0 43 -0.158238 0
gene 3 19 41 -0.833995 0 107 -0.833995 0
gene 3 41 4 -1.57247 0 108 -1.57247 1
gene 3 19 87 1 0 257 0 1
gene 3 87 41 -0.833995 0 258 0 1
genomeend 40

/* Organism #41 Fitness: 8.99671 Error: 1.00055 */
genomestart 41
trait 1 0.1 0 0 0 0 0 0 0 
trait 2 0.2 0 0 0 0 0 0 0 
trait 3 0.3 0 0 0 0 0 0 0 
node 1 3 1 3
node 2 2 1 1
node 3 1 1 1
node 4 3 0 2
node 7 1 0 0
node 19 1 0 0
node 41 1 0 0
node 87 1 0 0
gene 1 1 4 -4.99847 0 1 -4.99847 1
gene 2 2 4 8 0 2 8 1
gene 3 3 4 6.28669 0 3 6.28669 1
gene 3 3 7 2.57111 0 8 2.57111 1
gene 3 7 4 -1.97182 0 9 -1.97182 0
gene 2 2 7 4.97925 0 32 4.97925 1
gene 3 7 19 4.72456 0 42 4.72456 1
gene 3 19 4 0.904492 0 43 0.904492 1
gene 3 19 41 -2.74514 0 107 -2.74514 0
gene 3 41 4 -2.11028 0 108 -2.11028 1
gene 3 19 87 -0.133076 0 257 -0.133076 1
gene 3 87 41 -0.457396 0 258 -0.457396 1
genomeend 41

/* Organism #42 Fitness: 5.56603 Error: 1.64076 */
genomestart 42
trait 1 0.1 0 0 0 0 0 0 0 
trait 2 0.2 0 0 0 0 0 0 0 
trait 3 0.3 0 0 0 0 0 0 0 
node 1 3 1 3
node 2 2 1 1
node 3 1 1 1
node 4 3 0 2
node 7 1 0 0
node 19 1 0 0
node 41 1 0 0
node 87 1 0 0
gene 1 1 4 -5.51271 0 1 -5.51271 1
gene 2 2 4 6.35658 0 2 6.35658 1
gene 3 3 4 8 0 3 8 1
gene 3 3 7 1.08669 0 8 1.08669 1
gene 3 7 4 -2.00799 0 9 -2.00799 0
gene 2 2 7 4.77836 0 32 4.77836 1
gene 3 7 19 4.60569 0 42 4.60569 1
gene 3 19 4 1.65021 0 43 1.65021 1
gene 3 19 41 0.423597 0 107 0.423597 0
gene 3 41 4 -2.6825 0 108 -2.6825 1
gene 3 19 87 0.694967 0 257 0.694967 1
gene 3 87 41 0.754799 0 258 0.754799 1
genomeend 42

/* Organism #43 Fitness: 9 Error: 1 */
genomestart 43
trait 1 0.1 0 0 0 0 0 0 0 
trait 2 0.2 0 0 0 0 0 0 0 
trait 3 0.3 0 0 0 0 0 0 0 
node 1 3 1 3
node 2 2 1 1
node 3 1 1 1
node 4 3 0 2
node 7 1 0 0
node 19 1 0 0
node 41 1 0 0
node 87 1 0 0
gene 1 1 4 -3.89523 0 1 -3.89523 1
gene 2 2 4 8 0 2 8 1
gene 3 3 4 8 0 3 8 1
gene 3 3 7 0.313349 0 8 0.313349 1
gene 3 7 4 -0.731246 0 9 -0.731246 0
gene 2 2 7 3.58318 0 32 3.58318 1
gene 3 7 19 4.06238 0 42 4.06238 1
gene 3 19 4 -0.158238 0 43 -0.158238 0
gene 3 19 41 -0.833995 0 107 -0.833995 0
gene 3 41 4 -1.57247 0 108 -1.57247 1
gene 3 19 87 1 0 257 0 1
gene 3 87 41 -0.833995 0 258 0 1
gene 2 2 19 0.908628 0 342 0.908628 1
genomeend 43

/* Organism #44 Fitness: 9 Error: 1 */
genomestart 44
trait 1 0.1 0 0 0 0 0 0 0 
trait 2 0.2 0 0 0 0 0 0 0 
trait 3 0.3 0 0 0 0 0 0 0 
node 1 3 1 3
node 2 2 1 1
node 3 1 1 1
node 4 3 0 2
node 7 1 0 0
node 19 1 0 0
node 41 1 0 0
node 87 1 0 0
node 114 1 0 0
gene 1 1 4 -3.89523 0 1 -3.89523 1
gene 2 2 4 8 0 2 8 1
gene 3 3 4 8 0 3 8 1
gene 3 3 7 0.313349 0 8 0.313349 1
gene 3 7 4 -0.731246 0 9 -0.731246 0
gene 2 2 7 3.58318 0 32 3.58318 1
gene 3 7 19 4.06238 0 42 4.06238 0
gene 3 19 4 -0.158238 0 43 -0.158238 0
gene 3 19 41 -0.833995 0 107 -0.833995 0
gene 3 41 4 -1.57247 0 108 -1.57247 1
gene 3 19 87 1 0 257 0 1
gene 3 87 41 -0.833995 0 258 0 1
gene 3 7 114 1 0 343 0 1
gene 3 114 19 4.06238 0 344 0 1
genomeend 44

/* Organism #45 Fitness: 8.99996 Error: 1.00001 */
genomestart 45
trait 1 0.1 0 0 0 0 0 0 0 
trait 2 0.2 0 0 0 0 0 0 0 
trait 3 0.3 0 0 0 0 0 0 0 
node 1 3 1 3
node 2 2 1 1
node 3 1 1 1
node 4 3 0 2
node 7 1 0 0
node 19 1 0 0
node 41 1 0 0
node 87 1 0 0
gene 1 1 4 -5.46434 0 1 -5.46434 1
gene 2 2 4 8 0 2 8 1
gene 3 3 4 8 0 3 8 1
gene 3 3 7 -0.536897 0 8 -0.536897 1
gene 3 7 4 -1.35604 0 9 -1.35604 0
gene 2 2 7 3.96161 0 32 3.96161 1
gene 3 7 19 4.06238 0 42 4.06238 1
gene 3 19 4 -0.158238 0 43 -0.158238 0
gene 3 19 41 -2.09731 0 107 -2.09731 0
gene 3 41 4 0.345164 0 108 0.345164 1
gene 3 19 87 1.11963 0 257 1.11963 1
gene 3 87 41 -0.833995 0 258 -0.833995 1
genomeend 45

/* Species #8 : (Size 5) (AF 4.84809) (Age 29)  */


/* Organism #46 Fitness: 1.00078 Error: 2.99961 */
genomestart 46
trait 1 0.1 0 0 0 0 0 0 0 
trait 2 0.2 0 0 0 0 0 0 0 
trait 3 0.3 0 0 0 0 0 0 0 
node 1 3 1 3
node 2 3 1 1
node 3 1 1 1
node 4 2 0 2
node 9 1 0 0
node 48 1 0 0
gene 2 1 4 5.63489 0 1 5.63489 1
gene 3 2 4 -7.22926 0 2 -7.22926 1
gene 1 3 4 -8 0 3 -8 1
gene 1 2 9 -1.26621 0 12 -1.26621 0
gene 3 9 4 -6.18742 0 13 -6.18742 1
gene 2 3 9 0.850169 0 45 0.850169 1
gene 3 2 48 5.71419 0 128 5.71419 1
gene 3 48 9 -3.80512 0 129 -3.80512 1
gene 2 1 9 0.529313 0 152 0.529313 1
genomeend 46

/* Organism #47 Fitness: 8.99691 Error: 1.00052 */
genomestart 47
trait 1 0.05 0 0.183096 0 0 0.463347 0 0.432646 
trait 2 0.2 0 0 0 0 0 0 0 
trait 3 0.3 0 0 0 0 0 0 0 
node 1 3 1 3
node 2 3 1 1
node 3 1 1 1
node 4 2 0 2
node 9 1 0 0
node 48 1 0 0
gene 2 1 4 8 0 1 8 1
gene 3 2 4 -5.68155 0 2 -5.68155 1
gene 1 3 4 -3.86013 0 3 -3.86013 1
gene 3 2 9 1.35709 0 12 1.35709 1
gene 3 9 4 -4.64013 0 13 -4.64013 1
gene 2 3 9 -0.271653 0 45 -0.271653 1
gene 3 2 48 4.32728 0 128 4.32728 1
gene 3 48 9 -2.61612 0 129 -2.61612 1
gene 2 1 9 -1.14928 0 152 -1.14928 1
genomeend 47

/* Organism #48 Fitness: 4 Error: 2 */
genomestart 48
trait 1 0 0 0.366192 0 0 0.926695 0 0.865291 
trait 2 0.2 0 0 0 0 0 0 0 
trait 3 0.3 0 0 0 0 0 0 0 
node 1 3 1 3
node 2 3 1 1
node 3 1 1 1
node 4 2 0 2
node 9 1 0 0
node 48 1 0 0
gene 2 1 4 8 0 1 8 1
gene 3 2 4 -3.83591 0 2 -3.83591 1
gene 1 3 4 2.15209 0 3 2.15209 1
gene 3 2 9 -1.01512 0 12 -1.01512 0
gene 3 9 4 -4.91777 0 13 -4.91777 1
gene 2 3 9 -0.547426 0 45 -0.547426 1
gene 3 2 48 1.39247 0 128 1.39247 1
gene 2 48 9 -1.22951 0 129 -1.22951 1
gene 2 1 9 -0.164678 0 152 -0.164678 1
genomeend 48

/* Organism #49 Fitness: 3.99359 Error: 2.0016 */
genomestart 49
trait 1 0.05 0 0.183096 0 0 0.463347 0 0.432646 
trait 2 0.2 0 0 0 0 0 0 0 
trait 3 0.3 0 0 0 0 0 0 0 
node 1 3 1 3
node 2 3 1 1
node 3 1 1 1
node 4 2 0 2
node 9 1 0 0
node 48 1 0 0
gene 2 1 4 8 0 1 8 1
gene 3 2 4 -1.83607 0 2 -1.83607 1
gene 1 3 4 -6.46958 0 3 -6.46958 1
gene 3 2 9 -0.42222 0 12 -0.42222 0
gene 3 9 4 -5.28384 0 13 -5.28384 1
gene 2 3 9 1.38142 0 45 1.38142 1
gene 3 2 48 3.94473 0 128 3.94473 1
gene 3 48 9 -3.15378 0 129 -3.15378 1
gene 2 1 9 1.47714 0 152 1.47714 1
genomeend 49

/* Organism #50 Fitness: 6.24918 Error: 1.50016 */
genomestart 50
trait 1 0.1 0 0 0 0 0 0 0 
trait 2 0.2 0 0 0 0 0 0 0 
trait 3 0.3 0 0 0 0 0 0 0 
node 1 3 1 3
node 2 3 1 1
node 3 1 1 1
node 4 2 0 2
node 9 1 0 0
node 48 1 0 0
gene 2 1 4 8 0 1 8 1
gene 3 2 4 -8 0 2 -8 1
gene 1 3 4 -6.22948 0 3 -6.22948 1
gene 3 2 9 0.918992 0 12 0.918992 0
gene 3 9 4 -4.70925 0 13 -4.70925 1
gene 2 3 9 -1.65868 0 45 -1.65868 1
gene 3 2 48 4.13562 0 128 4.13562 1
gene 3 48 9 -4.01196 0 129 -4.01196 1
gene 2 1 9 -0.0706046 0 152 -0.0706046 1
genomeend 50

/* Species #9 : (Size 7) (AF 3.84105) (Age 27)  */


/* Organism #51 Fitness: 9 Error: 1 */
genomestart 51
trait 1 0.1 0 0 0 0 0.208014 0 0.176435 
trait 2 0.6 0 0 0 0 0 0 0 
trait 3 0.3 0 0.375958 0 0 0 0 0 
node 1 3 1 3
node 2 2 1 1
node 3 1 1 1
node 4 3 0 2
node 7 1 0 0
node 13 1 0 0
node 23 1 0 0
node 28 1 0 0
node 82 1 0 0
gene 1 1 4 -3.08115 0 1 -3.08115 1
gene 2 2 4 7.55146 0 2 7.55146 1
gene 3 3 4 0.318842 0 3 0.318842 0
gene 3 3 7 1.83266 0 8 1.83266 1
gene 3 7 4 8 0 9 8 1
gene 3 3 13 -2.68555 0 22 -2.68555 0
gene 3 13 4 1.95199 0 23 1.95199 0
gene 3 13 23 3.23397 0 56 3.23397 1
gene 3 23 4 -2.18772 0 57 -2.18772 1
gene 3 3 28 2.39245 0 73 2.39245 0
gene 3 28 13 -7.07556 0 74 -7.07556 1
gene 1 23 7 -1.04572 0 87 -1.04572 1
gene 3 3 82 -1.26888 0 247 -1.26888 1
gene 3 82 28 3.23705 0 248 3.23705 1
gene 2 82 4 -1.33956 0 260 -1.33956 1
gene 3 2 23 -0.0518815 0 281 -0.0518815 1
genomeend 51

/* Organism #52 Fitness: 1.0037 Error: 2.99815 */
genomestart 52
trait 1 0.1 0 0 0 0 0.208014 0 0.176435 
trait 2 0.6 0 0 0 0 0 0 0 
trait 3 0.3 0 0.375958 0 0 0 0 0 
node 1 3 1 3
node 2 2 1 1
node 3 1 1 1
node 4 3 0 2
node 7 1 0 0
node 13 1 0 0
node 23 1 0 0
node 28 1 0 0
node 82 1 0 0
gene 1 1 4 -1.26621 0 1 -1.26621 1
gene 2 2 4 8 0 2 8 1
gene 3 3 4 -0.854213 0 3 -0.854213 0
gene 3 3 7 -0.542596 0 8 -0.542596 1
gene 3 7 4 5.90147 0 9 5.90147 1
gene 3 3 13 -1.27361 0 22 -1.27361 0
gene 3 13 4 0.282243 0 23 0.282243 0
gene 3 13 23 0.84666 0 56 0.84666 1
gene 3 23 4 -2.65778 0 57 -2.65778 1
gene 3 3 28 3.89061 0 73 3.89061 0
gene 3 28 13 -7.09502 0 74 -7.09502 1
gene 1 23 7 1.00917 0 87 1.00917 1
gene 3 3 82 0.499741 0 247 0.499741 1
gene 3 82 28 3.23705 0 248 3.23705 1
gene 2 82 4 -1.47766 0 260 -1.47766 1
gene 3 2 23 0.0605792 0 281 0.0605792 1
genomeend 52

/* Organism #53 Fitness: 1.03561 Error: 2.98235 */
genomestart 53
trait 1 0.1 0 0 0 0 0.208014 0 0.176435 
trait 2 0.6 0 0 0 0 0 0 0 
trait 3 0.3 0 0.375958 0 0 0 0 0 
node 1 3 1 3
node 2 2 1 1
node 3 1 1 1
node 4 3 0 2
node 7 1 0 0
node 13 3 0 0
node 23 1 0 0
node 28 1 0 0
node 82 1 0 0
gene 1 1 4 -3.08115 0 1 -3.08115 1
gene 2 2 4 6.14853 0 2 6.14853 1
gene 3 3 4 1.47511 0 3 1.47511 0
gene 3 3 7 1.76941 0 8 1.76941 1
gene 3 7 4 6.53381 0 9 6.53381 1
gene 3 3 13 -1.90626 0 22 -1.90626 0
gene 3 13 4 -1.77053 0 23 -1.77053 0
gene 3 13 23 3.23397 0 56 3.23397 1
gene 3 23 4 -3.26968 0 57 -3.26968 1
gene 3 3 28 2.39245 0 73 2.39245 0
gene 3 28 13 -8 0 74 -8 1
gene 1 23 7 -1.04572 0 87 -1.04572 1
gene 3 3 82 2.19115 0 247 2.19115 1
gene 3 82 28 -1.13948 0 248 -1.13948 1
gene 2 82 4 -1.33956 0 260 -1.33956 1
gene 3 2 23 1.32832 0 281 1.32832 1
genomeend 53

/* Organism #54 Fitness: 4 Error: 2 */
genomestart 54
trait 1 0.1 0.703757 0.396893 0 0.477248 0.917539 0 0.715972 
trait 2 0.6 0 0 0 0 0 0 0 
trait 3 0.3 0 0.375958 0 0 0 0 0 
node 1 3 1 3
node 2 2 1 1
node 3 1 1 1
node 4 3 0 2
node 7 1 0 0
node 13 1 0 0
node 23 1 0 0
node 28 1 0 0
node 82 1 0 0
gene 1 1 4 -3.25961 0 1 -3.25961 1
gene 2 2 4 7.35668 0 2 7.35668 1
gene 1 3 4 -1.47946 0 3 -1.47946 0
gene 3 3 7 4.26804 0 8 4.26804 1
gene 3 7 4 8 0 9 8 1
gene 3 3 13 -3.35597 0 22 -3.35597 0
gene 3 13 4 1.7569 0 23 1.7569 0
gene 3 13 23 5.71886 0 56 5.71886 1
gene 3 23 4 -0.375912 0 57 -0.375912 1
gene 3 3 28 2.60089 0 73 2.60089 0
gene 3 28 13 -6.1845 0 74 -6.1845 1
gene 1 23 7 0.739692 0 87 0.739692 1
gene 3 3 82 -3.62674 0 247 -3.62674 1
gene 3 82 28 3.23705 0 248 3.23705 1
gene 2 82 4 1.07646 0 260 1.07646 1
gene 3 2 23 -0.0518815 0 281 -0.0518815 1
genomeend 54

/* Organism #55 Fitness: 3.84566 Error: 2.03897 */
genomestart 55
trait 1 0.1 0 0 0 0 0.208014 0 0.176435 
trait 2 0.6 0 0 0 0 0 0 0 
trait 3 0.3 0 0.375958 0 0 0 0 0 
node 1 3 1 3
node 2 2 1 1
node 3 1 1 1
node 4 3 0 2
node 7 1 0 0
node 13 1 0 0
node 23 1 0 0
node 28 1 0 0
node 82 1 0 0
gene 1 1 4 -5.56642 0 1 -5.56642 1
gene 2 2 4 -1.554 0 2 -1.554 1
gene 3 3 4 -2.27172 0 3 -2.27172 0
gene 3 3 7 0.368763 0 8 0.368763 1
gene 3 7 4 8 0 9 8 1
gene 3 3 13 -2.0951 0 22 -2.0951 0
gene 3 13 4 1.95199 0 23 1.95199 0
gene 3 13 23 0.0304422 0 56 0.0304422 1
gene 3 23 4 1.36166 0 57 1.36166 1
gene 3 3 28 -1.6422 0 73 -1.6422 0
gene 3 28 13 -7.87149 0 74 -7.87149 1
gene 1 23 7 -1.04572 0 87 -1.04572 1
gene 3 3 82 -0.946455 0 247 -0.946455 1
gene 3 82 28 2.82536 0 248 2.82536 1
gene 2 82 4 1.14975 0 260 1.14975 1
gene 3 2 23 -0.460829 0 281 -0.460829 1
genomeend 55

/* Organism #56 Fitness: 4 Error: 2 */
genomestart 56
trait 1 0.1 0 0 0 0 0.208014 0 0.176435 
trait 2 0.6 0 0 0 0 0 0 0 
trait 3 0.3 0 0.375958 0 0 0 0 0 
node 1 3 1 3
node 2 2 1 1
node 3 1 1 1
node 4 3 0 2
node 7 1 0 0
node 13 1 0 0
node 23 1 0 0
node 28 1 0 0
node 82 1 0 0
gene 1 1 4 -4.4924 0 1 -4.4924 1
gene 2 2 4 0.86848 0 2 0.86848 1
gene 3 3 4 -0.242241 0 3 -0.242241 0
gene 3 3 7 1.4862 0 8 1.4862 1
gene 3 7 4 8 0 9 8 1
gene 3 3 13 0.140309 0 22 0.140309 0
gene 3 13 4 1.55532 0 23 1.55532 0
gene 3 13 23 4.54184 0 56 4.54184 1
gene 3 23 4 -0.103 0 57 -0.103 1
gene 3 3 28 2.4335 0 73 2.4335 0
gene 3 28 13 0.896863 0 74 0.896863 1
gene 1 23 7 1.38737 0 87 1.38737 1
gene 3 3 82 -1.78106 0 247 -1.78106 1
gene 3 82 28 2.05828 0 248 2.05828 1
gene 2 82 4 -0.400662 0 260 -0.400662 1
gene 3 2 23 -2.2103 0 281 -2.2103 1
genomeend 56

/* Organism #57 Fitness: 4.00239 Error: 1.9994 */
genomestart 57
trait 1 0.1 0 0 0 0 0.208014 0 0.176435 
trait 2 0.6 0 0 0 0 0 0 0 
trait 3 0.3 0 0.375958 0 0 0 0 0 
node 1 3 1 3
node 2 2 1 1
node 3 1 1 1
node 4 3 0 2
node 7 1 0 0
node 13 1 0 0
node 23 1 0 0
node 28 1 0 0
node 82 1 0 0
gene 1 1 4 -2.85836 0 1 -2.85836 1
gene 2 2 4 8 0 2 8 1
gene 3 3 4 1.56972 0 3 1.56972 0
gene 3 3 7 3.97575 0 8 3.97575 1
gene 3 7 4 8 0 9 8 1
gene 3 3 13 -2.05908 0 22 -2.05908 0
gene 3 13 4 4.38378 0 23 4.38378 0
gene 3 13 23 2.2673 0 56 2.2673 1
gene 3 23 4 -3.49689 0 57 -3.49689 1
gene 3 3 28 0.220145 0 73 0.220145 0
gene 3 28 13 -5.27749 0 74 -5.27749 1
gene 1 23 7 0.564669 0 87 0.564669 1
gene 3 3 82 -0.439619 0 247 -0.439619 1
gene 3 82 28 5.65 0 248 5.65 1
gene 2 82 4 -0.582553 0 260 -0.582553 1
gene 3 2 23 -1.75954 0 281 -1.75954 1
genomeend 57

/* Species #10 : (Size 7) (AF 9.87291) (Age 26)  */


/* Organism #58 Fitness: 9 Error: 1 */
genomestart 58
trait 1 0.1 0 0 0 0 0 0 0 
trait 2 0.2 0.762108 0 0 0 0 0.105899 0 
trait 3 0.3 0 0 0 0 0 0 0 
node 1 3 1 3
node 2 2 1 1
node 3 1 1 1
node 4 3 0 2
node 7 1 0 0
gene 1 1 4 -3.72822 0 1 -3.72822 1
gene 2 2 4 -2.82355 0 2 -2.82355 1
gene 2 3 4 -1.18025 0 3 -1.18025 0
gene 3 3 7 7.15707 0 8 7.15707 1
gene 3 7 4 8 0 9 8 1
gene 1 2 7 6.21721 0 32 6.21721 1
gene 1 1 7 -2.90368 0 272 -2.90368 1
genomeend 58

/* Organism #59 Fitness: 9 Error: 1 */
genomestart 59
trait 1 0.1 0 0 0 0 0 0 0 
trait 2 0.2 0.762108 0 0 0 0 0.105899 0 
trait 3 0.3 0 0 0 0 0 0 0 
node 1 3 1 3
node 2 2 1 1
node 3 1 1 1
node 4 3 0 2
node 7 1 0 0
gene 1 1 4 -3.49414 0 1 -3.49414 1
gene 2 2 4 -1.32578 0 2 -1.32578 1
gene 2 3 4 -3.32875 0 3 -3.32875 0
gene 3 3 7 4.91617 0 8 4.91617 1
gene 3 7 4 8 0 9 8 1
gene 1 2 7 7.71079 0 32 7.71079 1
gene 1 1 7 -3.39694 0 272 -3.39694 1
genomeend 59

/* Organism #60 Fitness: 8.99908 Error: 1.00015 */
genomestart 60
trait 1 0.1 0 0 0 0 0 0 0 
trait 2 0.2 0.571581 0 0 0 0 0.0794244 0 
trait 3 0.3 0 0 0 0 0 0 0 
node 1 3 1 3
node 2 2 1 1
node 3 1 1 1
node 4 3 0 2
node 7 1 0 0
gene 1 1 4 -1.78396 0 1 -1.78396 1
gene 2 2 4 -2.27948 0 2 -2.27948 1
gene 2 3 4 -1.19543 0 3 -1.19543 0
gene 3 3 7 5.28629 0 8 5.28629 1
gene 3 7 4 6.47276 0 9 6.47276 1
gene 1 2 7 8 0 32 8 1
gene 1 1 7 -3.65263 0 272 -3.65263 1
genomeend 60

/* Organism #61 Fitness: 9 Error: 1 */
genomestart 61
trait 1 0.1 0 0 0 0 0 0 0 
trait 2 0.2 0.571581 0 0 0 0 0.0794244 0 
trait 3 0.3 0 0 0 0 0 0 0 
node 1 3 1 3
node 2 2 1 1
node 3 1 1 1
node 4 3 0 2
node 7 1 0 0
gene 1 1 4 -4.64782 0 1 -4.64782 1
gene 2 2 4 -3.93412 0 2 -3.93412 1
gene 2 3 4 -3.66911 0 3 -3.66911 0
gene 3 3 7 6.04955 0 8 6.04955 1
gene 3 7 4 8 0 9 8 1
gene 1 2 7 7.01138 0 32 7.01138 1
gene 1 1 7 -2.66543 0 272 -2.66543 1
genomeend 61

/* Organism #62 Fitness: 9 Error: 1 */
genomestart 62
trait 1 0.1 0 0 0 0 0 0 0 
trait 2 0.2 0.381054 0 0 0 0 0.0529496 0 
trait 3 0.3 0 0 0 0 0 0 0 
node 1 3 1 3
node 2 2 1 1
node 3 1 1 1
node 4 3 0 2
node 7 1 0 0
gene 1 1 4 -3.14241 0 1 -3.14241 1
gene 2 2 4 -3.15796 0 2 -3.15796 1
gene 2 3 4 -1.9072 0 3 -1.9072 0
gene 3 3 7 4.30206 0 8 4.30206 1
gene 3 7 4 8 0 9 8 1
gene 1 2 7 6.56123 0 32 6.56123 1
gene 1 1 7 -2.99213 0 272 -2.99213 1
genomeend 62

/* Organism #63 Fitness: 8.99994 Error: 1.00001 */
genomestart 63
trait 1 0.1 0 0 0 0 0 0 0 
trait 2 0.2 0.762108 0 0 0 0 0.105899 0 
trait 3 0.3 0 0 0 0 0 0 0 
node 1 3 1 3
node 2 2 1 1
node 3 1 1 1
node 4 3 0 2
node 7 1 0 0
gene 1 1 4 -5.64859 0 1 -5.64859 1
gene 2 2 4 -0.566556 0 2 -0.566556 1
gene 2 3 4 -2.07467 0 3 -2.07467 0
gene 3 3 7 6.70814 0 8 6.70814 1
gene 3 7 4 8 0 9 8 1
gene 1 2 7 7.98271 0 32 7.98271 1
gene 1 1 7 -4.78195 0 272 -4.78195 1
genomeend 63

/* Organism #64 Fitness: 15.1113 Error: 0.112671 */
/* ##------$ WINNER 64 SPECIES #10 $------## */
genomestart 64
trait 1 0.1 0 0 0 0 0 0 0 
trait 2 0.2 0.571581 0 0 0 0 0.0794244 0 
trait 3 0.3 0 0 0 0 0 0 0 
node 1 3 1 3
node 2 2 1 1
node 3 1 1 1
node 4 3 0 2
node 7 1 0 0
gene 1 1 4 -3.75175 0 1 -3.75175 1
gene 2 2 4 -3.48584 0 2 -3.48584 1
gene 2 3 4 -2.29059 0 3 -2.29059 1
gene 3 3 7 6.53602 0 8 6.53602 1
gene 3 7 4 7.65761 0 9 7.65761 1
gene 1 2 7 6.1202 0 32 6.1202 1
gene 1 1 7 -2.36218 0 272 -2.36218 1
genomeend 64

/* Species #12 : (Size 7) (AF 7.54823) (Age 23)  */


/* Organism #65 Fitness: 9 Error: 1 */
genomestart 65
trait 1 0.1 0 0 0 0 0 0 0 
trait 2 0.2 0 0 0 0 0 0 0 
trait 3 0 0.25132 0 0 0.416334 0.284051 0.752907 0 
node 1 3 1 3
node 2 2 1 1
node 3 2 1 1
node 4 3 0 2
node 7 1 0 0
node 34 1 0 0
gene 1 1 4 -2.53979 0 1 -2.53979 1
gene 2 2 4 -8 0 2 -8 1
gene 3 3 4 7.3168 0 3 7.3168 1
gene 3 3 7 0.798288 0 8 0.798288 1
gene 1 7 4 1.45854 0 9 1.45854 0
gene 1 2 7 1.36204 0 41 1.36204 0
gene 1 7 34 -0.243851 0 88 -0.243851 1
gene 3 34 4 -4.04195 0 89 -4.04195 1
genomeend 65

/* Organism #66 Fitness: 9 Error: 1 */
genomestart 66
trait 1 0.1 0 0 0 0 0 0 0 
trait 2 0.2 0 0 0 0 0 0 0 
trait 3 0 0.25132 0 0 0.416334 0.284051 0.752907 0 
node 1 3 1 3
node 2 2 1 1
node 3 2 1 1
node 4 3 0 2
node 7 1 0 0
node 34 1 0 0
gene 1 1 4 -1.47633 0 1 -1.47633 1
gene 2 2 4 -7.75303 0 2 -7.75303 1
gene 3 3 4 6.90572 0 3 6.90572 1
gene 3 3 7 0.390828 0 8 0.390828 1
gene 1 7 4 1.92285 0 9 1.92285 0
gene 1 2 7 1.89005 0 41 1.89005 0
gene 1 7 34 -0.0586032 0 88 -0.0586032 1
gene 3 34 4 -4.61967 0 89 -4.61967 1
genomeend 66

/* Organism #67 Fitness: 1.16081 Error: 2.92259 */
genomestart 67
trait 1 0.1 0 0 0 0 0 0 0 
trait 2 0.2 0 0 0 0 0 0 0 
trait 3 0 0.25132 0 0 0.416334 0.284051 0.752907 0 
node 1 3 1 3
node 2 2 1 1
node 3 2 1 1
node 4 3 0 2
node 7 1 0 0
node 34 1 0 0
gene 1 1 4 -0.123867 0 1 -0.123867 1
gene 2 2 4 -5.72691 0 2 -5.72691 1
gene 3 3 4 8 0 3 8 1
gene 3 3 7 2.33665 0 8 2.33665 1
gene 1 7 4 2.16993 0 9 2.16993 1
gene 1 2 7 4.39077 0 41 4.39077 0
gene 1 7 34 -0.861164 0 88 -0.861164 1
gene 3 34 4 -4.27351 0 89 -4.27351 1
genomeend 67

/* Organism #68 Fitness: 8.64548 Error: 1.05968 */
genomestart 68
trait 1 0.1 0 0 0 0 0 0 0 
trait 2 0.2 0 0 0 0 0 0 0 
trait 3 0 0.25132 0 0 0.416334 0.284051 0.752907 0 
node 1 3 1 3
node 2 2 1 1
node 3 2 1 1
node 4 3 0 2
node 7 1 0 0
node 34 1 0 0
gene 1 1 4 -2.95202 0 1 -2.95202 1
gene 2 2 4 -7.95674 0 2 -7.95674 1
gene 3 3 4 7.21495 0 3 7.21495 1
gene 3 3 7 -0.0663015 0 8 -0.0663015 1
gene 1 7 4 -0.285894 0 9 -0.285894 0
gene 1 2 7 0.314798 0 41 0.314798 0
gene 1 7 34 2.22731 0 88 2.22731 1
gene 3 34 4 -3.74035 0 89 -3.74035 1
genomeend 68

/* Organism #69 Fitness: 8.78482 Error: 1.03608 */
genomestart 69
trait 1 0.1 0 0 0 0 0 0 0 
trait 2 0.2 0 0 0 0 0 0 0 
trait 3 0 0.25132 0 0 0.416334 0.284051 0.752907 0 
node 1 3 1 3
node 2 2 1 1
node 3 2 1 1
node 4 3 0 2
node 7 1 0 0
node 34 1 0 0
gene 1 1 4 -1.38287 0 1 -1.38287 1
gene 2 2 4 -8 0 2 -8 1
gene 3 3 4 7.09806 0 3 7.09806 1
gene 3 3 7 -1.59257 0 8 -1.59257 1
gene 1 7 4 1.50558 0 9 1.50558 1
gene 1 2 7 2.05653 0 41 2.05653 0
gene 1 7 34 -2.1141 0 88 -2.1141 1
gene 3 34 4 -6.80426 0 89 -6.80426 1
genomeend 69

/* Organism #70 Fitness: 7.25685 Error: 1.30615 */
genomestart 70
trait 1 0.1 0 0 0 0 0 0 0 
trait 2 0.2 0 0 0 0 0 0 0 
trait 3 0 0.25132 0 0 0.416334 0.284051 0.752907 0 
node 1 3 1 3
node 2 2 1 1
node 3 2 1 1
node 4 3 0 2
node 7 1 0 0
node 34 1 0 0
node 115 1 0 0
gene 1 1 4 -0.412877 0 1 -0.412877 1
gene 2 2 4 -7.50606 0 2 -7.50606 1
gene 3 3 4 6.49463 0 3 6.49463 0
gene 3 3 7 -0.0166326 0 8 -0.0166326 1
gene 1 7 4 2.38715 0 9 2.38715 0
gene 1 2 7 2.41806 0 41 2.41806 0
gene 1 7 34 0.126644 0 88 0.126644 1
gene 3 34 4 -5.19738 0 89 -5.19738 1
gene 3 3 115 1 0 345 0 1
gene 3 115 4 6.49463 0 346 0 1
genomeend 70

/* Organism #71 Fitness: 8.98966 Error: 1.00172 */
genomestart 71
trait 1 0.1 0 0 0 0 0 0 0 
trait 2 0.2 0 0 0 0 0 0 0 
trait 3 0 0.25132 0 0 0.416334 0.284051 0.752907 0 
node 1 3 1 3
node 2 2 1 1
node 3 2 1 1
node 4 3 0 2
node 7 1 0 0
node 34 1 0 0
gene 1 1 4 0.261544 0 1 0.261544 1
gene 2 2 4 -8 0 2 -8 1
gene 3 3 4 6.92334 0 3 6.92334 1
gene 3 3 7 -0.0166326 0 8 -0.0166326 1
gene 1 7 4 -1.60497 0 9 -1.60497 0
gene 1 2 7 -1.19587 0 41 -1.19587 0
gene 1 7 34 1.36089 0 88 1.36089 1
gene 3 34 4 -1.60902 0 89 -1.60902 1
genomeend 71

/* Species #13 : (Size 8) (AF 8.99416) (Age 23)  */


/* Organism #72 Fitness: 9 Error: 1 */
genomestart 72
trait 1 0.1 0 0 0 0 0 0 0 
trait 2 0.2 0 0 0 0 0 0 0 
trait 3 0.633171 0 0 0 0 0 0.367046 0 
node 1 3 1 3
node 2 2 1 1
node 3 1 1 1
node 4 3 0 2
node 7 1 0 0
node 38 1 0 0
node 63 1 0 0
gene 1 1 4 -1.41652 0 1 -1.41652 1
gene 2 2 4 -7.51132 0 2 -7.51132 1
gene 3 3 4 8 0 3 8 1
gene 2 3 7 -7.40474 0 8 -7.40474 1
gene 3 7 4 -5.65432 0 9 -5.65432 1
gene 1 2 7 5.61922 0 41 5.61922 1
gene 1 2 38 -2.07724 0 100 -2.07724 1
gene 1 38 7 -1.31557 0 101 -1.31557 0
gene 1 1 7 4.59025 0 131 4.59025 1
gene 1 38 63 -0.881924 0 186 -0.881924 1
gene 1 63 7 -1.26201 0 187 -1.26201 1
gene 3 63 4 1.98094 0 289 1.98094 1
gene 1 2 63 -0.599841 0 330 -0.599841 1
genomeend 72

/* Organism #73 Fitness: 9 Error: 1 */
genomestart 73
trait 1 0.1 0 0 0 0 0 0 0 
trait 2 0.2 0 0 0 0 0 0 0 
trait 3 0.633171 0 0 0 0 0 0.367046 0 
node 1 3 1 3
node 2 2 1 1
node 3 1 1 1
node 4 3 0 2
node 7 1 0 0
node 38 1 0 0
node 63 1 0 0
gene 1 1 4 -1.75382 0 1 -1.75382 1
gene 2 2 4 -7.56303 0 2 -7.56303 1
gene 3 3 4 8 0 3 8 1
gene 2 3 7 -6.79675 0 8 -6.79675 1
gene 3 7 4 -5.33755 0 9 -5.33755 1
gene 1 2 7 5.22492 0 41 5.22492 1
gene 1 2 38 -1.67966 0 100 -1.67966 1
gene 1 38 7 -1.89309 0 101 -1.89309 1
gene 1 1 7 3.97685 0 131 3.97685 1
gene 1 38 63 -0.335986 0 186 -0.335986 1
gene 1 63 7 -0.685608 0 187 -0.685608 1
gene 3 63 4 1.61962 0 289 1.61962 1
gene 1 2 63 -0.599841 0 330 -0.599841 1
gene 1 3 63 0.283303 0 347 0.283303 1
genomeend 73

/* Organism #74 Fitness: 9 Error: 1 */
genomestart 74
trait 1 0.1 0 0 0 0 0 0 0 
trait 2 0.2 0 0 0 0 0 0 0 
trait 3 0.633171 0 0 0 0 0 0.367046 0 
node 1 3 1 3
node 2 2 1 1
node 3 1 1 1
node 4 3 0 2
node 7 1 0 0
node 38 1 0 0
node 63 1 0 0
gene 1 1 4 -3.00203 0 1 -3.00203 1
gene 2 2 4 -5.70943 0 2 -5.70943 1
gene 3 3 4 7.99008 0 3 7.99008 1
gene 2 3 7 -8 0 8 -8 1
gene 3 7 4 -5.49188 0 9 -5.49188 1
gene 1 2 7 7.13248 0 41 7.13248 1
gene 1 2 38 -0.457091 0 100 -0.457091 1
gene 1 38 7 -0.495458 0 101 -0.495458 0
gene 1 1 7 5.86035 0 131 5.86035 1
gene 1 38 63 -0.461837 0 186 -0.461837 1
gene 1 63 7 -2.35465 0 187 -2.35465 1
gene 3 63 4 3.60598 0 289 3.60598 1
gene 1 2 63 -0.599841 0 330 -0.599841 1
genomeend 74

/* Organism #75 Fitness: 8.96063 Error: 1.00657 */
genomestart 75
trait 1 0.1 0 0 0 0 0 0 0 
trait 2 0.2 0 0 0 0 0 0 0 
trait 3 0.633171 0 0 0 0 0 0.367046 0 
node 1 3 1 3
node 2 2 1 1
node 3 1 1 1
node 4 3 0 2
node 7 1 0 0
node 38 1 0 0
node 63 1 0 0
gene 1 1 4 0.445875 0 1 0.445875 1
gene 2 2 4 -5.08815 0 2 -5.08815 1
gene 3 3 4 6.69495 0 3 6.69495 1
gene 2 3 7 -8 0 8 -8 1
gene 3 7 4 -3.02366 0 9 -3.02366 1
gene 1 2 7 6.70804 0 41 6.70804 1
gene 1 2 38 -1.28208 0 100 -1.28208 1
gene 1 38 7 0.0180918 0 101 0.0180918 0
gene 1 1 7 5.19211 0 131 5.19211 1
gene 1 38 63 -2.05734 0 186 -2.05734 1
gene 1 63 7 -1.03377 0 187 -1.03377 1
gene 3 63 4 -0.991623 0 289 -0.991623 1
gene 1 2 63 -0.599841 0 330 -0.599841 1
genomeend 75

/* Organism #76 Fitness: 9 Error: 1 */
genomestart 76
trait 1 0.1 0 0 0 0 0 0 0 
trait 2 0.2 0 0 0 0 0 0 0 
trait 3 0.633171 0 0 0 0 0 0.367046 0 
node 1 3 1 3
node 2 2 1 1
node 3 1 1 1
node 4 3 0 2
node 7 1 0 0
node 38 1 0 0
node 63 1 0 0
gene 1 1 4 -1.90428 0 1 -1.90428 1
gene 2 2 4 -7.06774 0 2 -7.06774 1
gene 3 3 4 8 0 3 8 1
gene 2 3 7 -7.7229 0 8 -7.7229 1
gene 3 7 4 -4.57511 0 9 -4.57511 1
gene 1 2 7 6.33572 0 41 6.33572 1
gene 1 2 38 -4.46051 0 100 -4.46051 1
gene 1 38 7 -3.51893 0 101 -3.51893 0
gene 1 1 7 5.65023 0 131 5.65023 1
gene 1 38 63 -1.60681 0 186 -1.60681 1
gene 1 63 7 -2.8566 0 187 -2.8566 1
gene 3 63 4 1.98094 0 289 1.98094 1
gene 1 2 63 -1.7333 0 330 -1.7333 1
genomeend 76

/* Organism #77 Fitness: 9 Error: 1 */
genomestart 77
trait 1 0.1 0 0 0 0 0 0 0 
trait 2 0.2 0 0 0 0 0 0 0 
trait 3 0.633171 0 0 0 0 0 0.367046 0 
node 1 3 1 3
node 2 2 1 1
node 3 1 1 1
node 4 3 0 2
node 7 1 0 0
node 38 1 0 0
node 63 1 0 0
gene 1 1 4 -1.75382 0 1 -1.75382 1
gene 2 2 4 -7.56303 0 2 -7.56303 1
gene 3 3 4 8 0 3 8 1
gene 2 3 7 -6.79675 0 8 -6.79675 1
gene 3 7 4 -5.33755 0 9 -5.33755 1
gene 1 2 7 5.22492 0 41 5.22492 1
gene 1 2 38 -1.67966 0 100 -1.67966 1
gene 1 38 7 -1.89309 0 101 -1.89309 0
gene 1 1 7 3.97685 0 131 3.97685 1
gene 1 38 63 -0.335986 0 186 -0.335986 1
gene 1 63 7 -0.685608 0 187 -0.685608 1
gene 3 63 4 1.61962 0 289 1.61962 1
gene 1 2 63 -0.599841 0 330 -0.599841 1
genomeend 77

/* Organism #78 Fitness: 8.99611 Error: 1.00065 */
genomestart 78
trait 1 0.1 0 0 0 0 0 0 0 
trait 2 0.2 0 0 0 0 0 0 0 
trait 3 0.633171 0 0 0 0 0 0.367046 0 
node 1 3 1 3
node 2 2 1 1
node 3 1 1 1
node 4 3 0 2
node 7 1 0 0
node 38 1 0 0
node 63 1 0 0
gene 1 1 4 0.654393 0 1 0.654393 1
gene 2 2 4 -8 0 2 -8 1
gene 3 3 4 5.99127 0 3 5.99127 1
gene 2 3 7 -5.16606 0 8 -5.16606 1
gene 3 7 4 -5.17403 0 9 -5.17403 1
gene 1 2 7 7.50427 0 41 7.50427 1
gene 1 2 38 0.0139622 0 100 0.0139622 1
gene 1 38 7 -3.21557 0 101 -3.21557 0
gene 1 1 7 6.83908 0 131 6.83908 1
gene 1 38 63 -1.69272 0 186 -1.69272 1
gene 1 63 7 -0.963994 0 187 -0.963994 1
gene 3 63 4 1.15839 0 289 1.15839 1
gene 1 2 63 -0.448317 0 330 -0.448317 1
genomeend 78

/* Organism #79 Fitness: 8.99656 Error: 1.00057 */
genomestart 79
trait 1 0.1 0 0 0 0 0 0 0 
trait 2 0.2 0 0 0 0 0 0 0 
trait 3 0.633171 0 0 0 0 0 0.367046 0 
node 1 3 1 3
node 2 2 1 1
node 3 1 1 1
node 4 3 0 2
node 7 3 0 0
node 38 1 0 0
node 63 1 0 0
gene 1 1 4 -3.70922 0 1 -3.70922 1
gene 2 2 4 -8 0 2 -8 1
gene 3 3 4 8 0 3 8 1
gene 2 3 7 -6.18877 0 8 -6.18877 1
gene 3 7 4 -5.02079 0 9 -5.02079 1
gene 1 2 7 3.22588 0 41 3.22588 1
gene 1 2 38 1.00917 0 100 1.00917 1
gene 1 38 7 -3.24197 0 101 -3.24197 0
gene 1 1 7 -2.02292 0 131 -2.02292 1
gene 1 38 63 1.10956 0 186 1.10956 1
gene 1 63 7 1.55588 0 187 1.55588 1
gene 3 63 4 2.17874 0 289 2.17874 1
genomeend 79

/* Species #14 : (Size 5) (AF 5.9999) (Age 23)  */


/* Organism #80 Fitness: 9 Error: 1 */
genomestart 80
trait 1 0.1 0 0 0 0 0.416028 0 0.35287 
trait 2 0.2 0 0 0 0 0 0 0 
trait 3 0.36457 0.0953742 0 0 0 0.0304918 0 0 
node 1 3 1 3
node 2 2 1 1
node 3 1 1 1
node 4 3 0 2
node 7 1 0 0
node 13 1 0 0
node 23 1 0 0
node 28 1 0 0
node 42 1 0 0
gene 1 1 4 -4.76062 0 1 -4.76062 1
gene 2 2 4 7.93481 0 2 7.93481 1
gene 3 3 4 0.905332 0 3 0.905332 0
gene 3 3 7 4.58486 0 8 4.58486 1
gene 3 7 4 -7.52304 0 9 -7.52304 1
gene 3 3 13 -3.27219 0 22 -3.27219 0
gene 3 13 4 -4.09312 0 23 -4.09312 1
gene 3 13 23 -1.49435 0 56 -1.49435 1
gene 3 23 4 -0.429525 0 57 -0.429525 1
gene 3 3 28 -5.83277 0 73 -5.83277 1
gene 3 28 13 -3.25549 0 74 -3.25549 1
gene 1 23 7 2.21839 0 87 2.21839 0
gene 1 23 42 3.34448 0 109 3.34448 1
gene 1 42 7 -1.65899 0 110 -1.65899 1
gene 2 13 7 -0.69422 0 188 -0.69422 1
gene 1 1 23 -0.60857 0 221 -0.60857 1
genomeend 80

/* Organism #81 Fitness: 8.99948 Error: 1.00009 */
genomestart 81
trait 1 0.1 0 0 0 0 0.416028 0 0.35287 
trait 2 0.2 0 0 0 0 0 0 0 
trait 3 0.36457 0.0953742 0 0 0 0.0304918 0 0 
node 1 3 1 3
node 2 2 1 1
node 3 1 1 1
node 4 3 0 2
node 7 1 0 0
node 13 1 0 0
node 23 1 0 0
node 28 1 0 0
node 42 1 0 0
gene 1 1 4 -4.76062 0 1 -4.76062 1
gene 2 2 4 7.31574 0 2 7.31574 1
gene 3 3 4 1.4378 0 3 1.4378 0
gene 3 3 7 5.616 0 8 5.616 1
gene 3 7 4 -7.33253 0 9 -7.33253 1
gene 3 3 13 -3.17408 0 22 -3.17408 0
gene 3 13 4 -4.09312 0 23 -4.09312 0
gene 3 13 23 0.865261 0 56 0.865261 1
gene 3 23 4 -0.429525 0 57 -0.429525 1
gene 3 3 28 1.77435 0 73 1.77435 1
gene 3 28 13 -1.9116 0 74 -1.9116 1
gene 1 23 7 -0.130238 0 87 -0.130238 0
gene 1 23 42 -1.31603 0 109 -1.31603 1
gene 1 42 7 -2.66259 0 110 -2.66259 1
gene 2 13 7 -0.69422 0 188 -0.69422 1
gene 1 1 23 -0.258217 0 221 -0.258217 1
genomeend 81

/* Organism #82 Fitness: 4 Error: 2 */
genomestart 82
trait 1 0.1 0 0 0 0 0.416028 0 0.35287 
trait 2 0.2 0 0 0 0 0 0 0 
trait 3 0.36457 0.0953742 0 0 0 0.0304918 0 0 
node 1 3 1 3
node 2 2 1 1
node 3 1 1 1
node 4 3 0 2
node 7 1 0 0
node 13 1 0 0
node 23 1 0 0
node 28 1 0 0
node 42 1 0 0
gene 1 1 4 -6.20621 0 1 -6.20621 1
gene 2 2 4 6.25736 0 2 6.25736 1
gene 3 3 4 2.84616 0 3 2.84616 0
gene 3 3 7 4.59035 0 8 4.59035 1
gene 3 7 4 -8 0 9 -8 1
gene 3 3 13 -3.67573 0 22 -3.67573 0
gene 3 13 4 -5.31279 0 23 -5.31279 0
gene 1 13 23 -0.12064 0 56 -0.12064 1
gene 3 23 4 1.26807 0 57 1.26807 1
gene 3 3 28 -5.67301 0 73 -5.67301 1
gene 3 28 13 -2.28126 0 74 -2.28126 1
gene 1 23 7 3.41319 0 87 3.41319 0
gene 1 23 42 2.22086 0 109 2.22086 1
gene 1 42 7 1.47198 0 110 1.47198 1
gene 2 13 7 -0.69422 0 188 -0.69422 1
gene 1 1 23 -2.10982 0 221 -2.10982 1
genomeend 82

/* Organism #83 Fitness: 4 Error: 2 */
genomestart 83
trait 1 0.1 0 0 0 0 0.416028 0 0.35287 
trait 2 0.2 0 0 0 0 0 0 0 
trait 3 0.36457 0.0953742 0 0 0 0.0304918 0 0 
node 1 3 1 3
node 2 2 1 1
node 3 1 1 1
node 4 3 0 2
node 7 1 0 0
node 13 1 0 0
node 23 1 0 0
node 28 1 0 0
node 42 1 0 0
gene 1 1 4 -6.97283 0 1 -6.97283 1
gene 2 2 4 5.98537 0 2 5.98537 1
gene 3 3 4 0.120853 0 3 0.120853 0
gene 3 3 7 6.70048 0 8 6.70048 1
gene 3 7 4 -7.22297 0 9 -7.22297 1
gene 3 3 13 -4.38505 0 22 -4.38505 0
gene 3 13 4 2.01079 0 23 2.01079 0
gene 3 13 23 -3.27259 0 56 -3.27259 1
gene 3 23 4 -0.429525 0 57 -0.429525 1
gene 3 3 28 -7.39586 0 73 -7.39586 1
gene 3 28 13 -3.90645 0 74 -3.90645 1
gene 1 23 7 1.23531 0 87 1.23531 0
gene 1 23 42 3.85101 0 109 3.85101 1
gene 1 42 7 0.290384 0 110 0.290384 1
gene 2 13 7 -2.9091 0 188 -2.9091 1
gene 1 1 23 -1.13623 0 221 -1.13623 1
gene 3 42 4 -1.51289 0 320 -1.51289 1
gene 2 28 7 -1.03377 0 331 -1.03377 1
genomeend 83

/* Organism #84 Fitness: 4 Error: 2 */
genomestart 84
trait 1 0.1 0 0 0 0 0.416028 0 0.35287 
trait 2 0.2 0 0 0 0 0 0 0 
trait 3 0.36457 0.0953742 0 0 0 0.0304918 0 0 
node 1 3 1 3
node 2 2 1 1
node 3 1 1 1
node 4 3 0 2
node 7 1 0 0
node 13 1 0 0
node 23 1 0 0
node 28 1 0 0
node 42 1 0 0
gene 1 1 4 -6.03156 0 1 -6.03156 1
gene 2 2 4 6.97745 0 2 6.97745 1
gene 3 3 4 -1.02916 0 3 -1.02916 0
gene 3 3 7 5.94156 0 8 5.94156 1
gene 3 7 4 -7.40715 0 9 -7.40715 1
gene 3 3 13 -1.67661 0 22 -1.67661 0
gene 3 13 4 -6.08453 0 23 -6.08453 0
gene 3 13 23 -1.58568 0 56 -1.58568 1
gene 3 23 4 -1.083 0 57 -1.083 1
gene 3 3 28 -7.60582 0 73 -7.60582 1
gene 3 28 13 -3.63498 0 74 -3.63498 1
gene 1 23 7 3.47308 0 87 3.47308 0
gene 1 23 42 4.55545 0 109 4.55545 1
gene 1 42 7 -0.336695 0 110 -0.336695 1
gene 2 13 7 0.652409 0 188 0.652409 1
gene 1 1 23 0.089465 0 221 0.089465 1
gene 3 42 4 -1.01657 0 320 -1.01657 1
gene 2 28 7 0.355205 0 331 0.355205 1
genomeend 84

/* Species #15 : (Size 8) (AF 7.45811) (Age 20)  */


/* Organism #85 Fitness: 9 Error: 1 */
genomestart 85
trait 1 0 0 0 0 0 0 0 0 
trait 2 0.617035 0 0.780602 0 0 0 0 0 
trait 3 0.3 0 0 0.503891 0 0.083224 0.447157 0.556902 
node 1 3 1 3
node 2 3 1 1
node 3 1 1 1
node 4 2 0 2
node 9 2 0 0
gene 3 1 4 -3.52985 0 1 -3.52985 1
gene 3 2 4 3.78056 0 2 3.78056 1
gene 1 3 4 -8 0 3 -8 1
gene 3 2 9 3.78363 0 12 3.78363 1
gene 3 9 4 2.62661 0 13 2.62661 1
gene 1 3 9 0.524117 0 45 0.524117 1
gene 1 1 9 -1.61518 0 271 -1.61518 1
genomeend 85

/* Organism #86 Fitness: 8.86739 Error: 1.02218 */
genomestart 86
trait 1 0 0 0 0 0 0 0 0 
trait 2 0.2 0 0 0 0 0 0 0 
trait 3 0.3 0 0 0.503891 0 0.083224 0.447157 0.556902 
node 1 3 1 3
node 2 3 1 1
node 3 2 1 1
node 4 2 0 2
node 9 2 0 0
gene 3 1 4 -1.54843 0 1 -1.54843 1
gene 3 2 4 2.1514 0 2 2.1514 1
gene 1 3 4 -8 0 3 -8 1
gene 3 2 9 2.78541 0 12 2.78541 1
gene 3 9 4 3.15992 0 13 3.15992 1
gene 1 3 9 3.30905 0 45 3.30905 1
gene 1 1 9 -3.36705 0 271 -3.36705 1
genomeend 86

/* Organism #87 Fitness: 9 Error: 1 */
genomestart 87
trait 1 0 0 0 0 0 0 0 0 
trait 2 0.2 0 0 0 0 0 0 0 
trait 3 0.3 0 0 0.503891 0 0.083224 0.447157 0.556902 
node 1 3 1 3
node 2 3 1 1
node 3 1 1 1
node 4 2 0 2
node 9 2 0 0
gene 3 1 4 -3.4357 0 1 -3.4357 1
gene 3 2 4 3.25076 0 2 3.25076 1
gene 1 3 4 -8 0 3 -8 1
gene 3 2 9 3.02559 0 12 3.02559 1
gene 3 9 4 3.2691 0 13 3.2691 1
gene 1 3 9 5.47807 0 45 5.47807 1
gene 1 1 9 -0.556299 0 271 -0.556299 1
genomeend 87

/* Organism #88 Fitness: 8.83766 Error: 1.02718 */
genomestart 88
trait 1 0 0 0 0 0 0 0 0 
trait 2 0.617035 0 0.780602 0 0 0 0 0 
trait 3 0.909668 0.260018 0 0.503891 0.410504 0.083224 0.926298 1 
node 1 3 1 3
node 2 3 1 1
node 3 1 1 1
node 4 2 0 2
node 9 2 0 0
gene 3 1 4 -3.73806 0 1 -3.73806 1
gene 3 2 4 2.87904 0 2 2.87904 1
gene 1 3 4 -6.73844 0 3 -6.73844 1
gene 3 2 9 3.88442 0 12 3.88442 1
gene 3 9 4 2.6334 0 13 2.6334 1
gene 1 3 9 1.80391 0 45 1.80391 1
gene 1 1 9 -3.8003 0 271 -3.8003 1
genomeend 88

/* Organism #89 Fitness: 8.99645 Error: 1.00059 */
genomestart 89
trait 1 0 0 0 0 0 0 0 0 
trait 2 0.617035 0 0.780602 0 0 0 0 0 
trait 3 0.3 0 0 0.503891 0 0.083224 0.447157 0.556902 
node 1 3 1 3
node 2 3 1 1
node 3 1 1 1
node 4 2 0 2
node 9 2 0 0
gene 3 1 4 -4.62973 0 1 -4.62973 1
gene 3 2 4 4.10329 0 2 4.10329 1
gene 1 3 4 -6.66192 0 3 -6.66192 1
gene 3 2 9 3.58587 0 12 3.58587 1
gene 3 9 4 2.03547 0 13 2.03547 1
gene 1 3 9 1.35979 0 45 1.35979 1
gene 1 1 9 -0.194693 0 271 -0.194693 1
genomeend 89

/* Organism #90 Fitness: 8.99999 Error: 1 */
genomestart 90
trait 1 0 0 0 0 0 0 0 0 
trait 2 0.408518 0 0.390301 0 0 0 0 0 
trait 3 0.3 0 0 0.503891 0 0.083224 0.447157 0.556902 
node 1 2 1 3
node 2 3 1 1
node 3 1 1 1
node 4 2 0 2
node 9 2 0 0
gene 3 1 4 -2.86683 0 1 -2.86683 1
gene 3 2 4 4.18489 0 2 4.18489 1
gene 1 3 4 -8 0 3 -8 1
gene 3 2 9 3.45546 0 12 3.45546 1
gene 3 9 4 2.65446 0 13 2.65446 1
gene 1 3 9 1.69467 0 45 1.69467 1
gene 1 1 9 -0.613693 0 271 -0.613693 1
genomeend 90

/* Organism #91 Fitness: 4.96035 Error: 1.77282 */
genomestart 91
trait 1 0 0 0 0 0 0 0 0 
trait 2 0.617035 0 0.780602 0 0 0 0 0 
trait 3 0.3 0 0 0.503891 0 0.083224 0.447157 0.556902 
node 1 3 1 3
node 2 3 1 1
node 3 1 1 1
node 4 2 0 2
node 9 2 0 0
gene 3 1 4 -2.11425 0 1 -2.11425 1
gene 3 2 4 1.8656 0 2 1.8656 1
gene 1 3 4 -6.57547 0 3 -6.57547 1
gene 3 2 9 1.4257 0 12 1.4257 1
gene 3 9 4 1.20483 0 13 1.20483 1
gene 1 3 9 0.876988 0 45 0.876988 1
gene 1 1 9 -3.43034 0 271 -3.43034 1
genomeend 91

/* Organism #92 Fitness: 1.00302 Error: 2.99849 */
genomestart 92
trait 1 0 0 0 0 0 0 0 0 
trait 2 0.408518 0 0.390301 0 0 0 0 0 
trait 3 0.3 0 0 0.503891 0 0.083224 0.447157 0.556902 
node 1 3 1 3
node 2 3 1 1
node 3 1 1 1
node 4 2 0 2
node 9 2 0 0
gene 3 1 4 1.31817 0 1 1.31817 1
gene 3 2 4 5.30892 0 2 5.30892 1
gene 1 3 4 -6.14752 0 3 -6.14752 1
gene 3 2 9 6.03208 0 12 6.03208 1
gene 3 9 4 2.62661 0 13 2.62661 1
gene 1 3 9 -1.26366 0 45 -1.26366 1
gene 1 1 9 -1.61518 0 271 -1.61518 1
genomeend 92

/* Species #16 : (Size 7) (AF 8.74317) (Age 19)  */


/* Organism #93 Fitness: 9 Error: 1 */
genomestart 93
trait 1 0.1 0 0 0 0 0 0 0 
trait 2 0.2 0 0 0 0 0 0 0 
trait 3 0.2625 0 0.0986702 0 0 0 0 0 
node 1 3 1 3
node 2 2 1 1
node 3 1 1 1
node 4 3 0 2
node 7 1 0 0
node 49 1 0 0
node 51 1 0 0
gene 1 1 4 -3.91633 0 1 -3.91633 1
gene 2 2 4 -8 0 2 -8 1
gene 3 3 4 8 0 3 8 1
gene 3 3 7 -0.487304 0 8 -0.487304 1
gene 3 7 4 -2.21427 0 9 -2.21427 1
gene 1 2 7 2.0233 0 41 2.0233 0
gene 2 1 7 0.311441 0 90 0.311441 1
gene 1 2 49 0.654607 0 132 0.654607 1
gene 1 49 7 -1.71118 0 133 -1.71118 1
gene 1 2 51 -2.38372 0 142 -2.38372 1
gene 1 51 49 -0.502655 0 143 -0.502655 0
genomeend 93

/* Organism #94 Fitness: 9 Error: 1 */
genomestart 94
trait 1 0.1 0 0 0 0 0 0 0 
trait 2 0.2 0 0 0 0 0 0 0 
trait 3 0.2625 0 0.0986702 0 0 0 0 0 
node 1 3 1 3
node 2 2 1 1
node 3 1 1 1
node 4 3 0 2
node 7 1 0 0
node 49 1 0 0
node 51 1 0 0
gene 1 1 4 -3.91633 0 1 -3.91633 1
gene 2 2 4 -8 0 2 -8 1
gene 3 3 4 8 0 3 8 1
gene 3 3 7 -0.487304 0 8 -0.487304 1
gene 3 7 4 -2.21427 0 9 -2.21427 1
gene 1 2 7 2.0233 0 41 2.0233 0
gene 2 1 7 0.311441 0 90 0.311441 1
gene 1 2 49 0.654607 0 132 0.654607 1
gene 1 49 7 -1.71118 0 133 -1.71118 1
gene 1 2 51 -2.38372 0 142 -2.38372 1
gene 1 51 49 -0.502655 0 143 -0.502655 0
genomeend 94

/* Organism #95 Fitness: 8.99788 Error: 1.00035 */
genomestart 95
trait 1 0.1 0 0 0 0 0 0 0 
trait 2 0.2 0 0 0 0 0 0 0 
trait 3 0.2625 0 0.0986702 0 0 0 0 0 
node 1 3 1 3
node 2 2 1 1
node 3 1 1 1
node 4 3 0 2
node 7 1 0 0
node 49 1 0 0
node 51 1 0 0
gene 1 1 4 -3.91633 0 1 -3.91633 1
gene 2 2 4 -6.11975 0 2 -6.11975 1
gene 3 3 4 8 0 3 8 1
gene 3 3 7 1.98683 0 8 1.98683 1
gene 3 7 4 -2.48657 0 9 -2.48657 1
gene 1 2 7 3.97092 0 41 3.97092 0
gene 2 1 7 -1.498 0 90 -1.498 1
gene 1 2 49 -1.50708 0 132 -1.50708 1
gene 1 49 7 1.05052 0 133 1.05052 1
gene 1 2 51 -2.38372 0 142 -2.38372 1
gene 1 51 49 -0.502655 0 143 -0.502655 0
genomeend 95

/* Organism #96 Fitness: 8.99999 Error: 1 */
genomestart 96
trait 1 0.1 0 0 0 0 0 0 0 
trait 2 0.2 0 0 0.882229 0 0 0 0 
trait 3 0.2625 0 0.0986702 0 0 0 0 0 
node 1 3 1 3
node 2 2 1 1
node 3 1 1 1
node 4 3 0 2
node 7 1 0 0
node 49 1 0 0
node 51 1 0 0
gene 1 1 4 -2.97796 0 1 -2.97796 1
gene 2 2 4 -8 0 2 -8 1
gene 3 3 4 8 0 3 8 1
gene 3 3 7 -0.436491 0 8 -0.436491 1
gene 3 7 4 -2.97319 0 9 -2.97319 1
gene 1 2 7 2.20504 0 41 2.20504 0
gene 2 1 7 -1.86163 0 90 -1.86163 1
gene 1 2 49 2.69927 0 132 2.69927 1
gene 1 49 7 -1.5582 0 133 -1.5582 1
gene 1 2 51 -3.55808 0 142 -3.55808 1
gene 1 51 49 -1.47871 0 143 -1.47871 0
gene 2 3 51 -0.39407 0 332 -0.39407 1
genomeend 96

/* Organism #97 Fitness: 7.20471 Error: 1.31584 */
genomestart 97
trait 1 0.1 0 0 0 0 0 0 0 
trait 2 0.2 0 0 0 0 0 0 0 
trait 3 0.2625 0 0.0986702 0 0 0 0 0 
node 1 3 1 3
node 2 2 1 1
node 3 1 1 1
node 4 3 0 2
node 7 1 0 0
node 49 1 0 0
node 51 1 0 0
gene 1 1 4 -5.50428 0 1 -5.50428 1
gene 2 2 4 -8 0 2 -8 1
gene 3 3 4 8 0 3 8 1
gene 3 3 7 0.390713 0 8 0.390713 1
gene 3 7 4 -2.33879 0 9 -2.33879 1
gene 1 2 7 -0.329524 0 41 -0.329524 0
gene 2 1 7 2.4221 0 90 2.4221 1
gene 1 2 49 3.07137 0 132 3.07137 1
gene 1 49 7 -1.10371 0 133 -1.10371 1
gene 1 2 51 -2.38372 0 142 -2.38372 1
gene 1 51 49 -0.502655 0 143 -0.502655 0
genomeend 97

/* Organism #98 Fitness: 8.99966 Error: 1.00006 */
genomestart 98
trait 1 0.1 0 0 0 0 0 0 0 
trait 2 0.2 0 0 0 0 0 0 0 
trait 3 0.2625 0 0.0986702 0 0 0 0 0 
node 1 3 1 3
node 2 2 1 1
node 3 1 1 1
node 4 3 0 2
node 7 1 0 0
node 49 1 0 0
node 51 1 0 0
gene 1 1 4 -2.28351 0 1 -2.28351 1
gene 2 2 4 -7.78774 0 2 -7.78774 1
gene 3 3 4 8 0 3 8 1
gene 3 3 7 0.849788 0 8 0.849788 1
gene 3 7 4 0.734199 0 9 0.734199 1
gene 1 2 7 0.825373 0 41 0.825373 0
gene 1 1 7 -1.47687 0 90 -1.47687 1
gene 1 2 49 -0.455107 0 132 -0.455107 1
gene 1 49 7 0.207602 0 133 0.207602 1
gene 1 2 51 -1.35502 0 142 -1.35502 1
gene 1 51 49 1.26453 0 143 1.26453 0
genomeend 98

/* Organism #99 Fitness: 8.99998 Error: 1 */
genomestart 99
trait 1 0.1 0 0 0 0 0 0 0 
trait 2 0.2 0 0 0 0 0 0 0 
trait 3 0.2625 0 0.0986702 0 0 0 0 0 
node 1 3 1 3
node 2 2 1 1
node 3 1 1 1
node 4 3 0 2
node 7 1 0 0
node 49 1 0 0
node 51 1 0 0
gene 1 1 4 -4.49557 0 1 -4.49557 1
gene 2 2 4 -6.30302 0 2 -6.30302 1
gene 3 3 4 7.10749 0 3 7.10749 1
gene 3 3 7 0.973006 0 8 0.973006 1
gene 3 7 4 -3.66092 0 9 -3.66092 1
gene 1 2 7 0.917463 0 41 0.917463 0
gene 2 1 7 -0.204169 0 90 -0.204169 1
gene 1 2 49 0.408933 0 132 0.408933 1
gene 1 49 7 -3.42922 0 133 -3.42922 1
gene 1 2 51 -2.5338 0 142 -2.5338 1
gene 1 51 49 -1.16712 0 143 -1.16712 0
gene 2 3 51 -1.45657 0 332 -1.45657 1
genomeend 99

/* Species #17 : (Size 7) (AF 8.28445) (Age 19)  */


/* Organism #100 Fitness: 9 Error: 1 */
genomestart 100
trait 1 0.1 0 0 0 0 0 0.0483108 0 
trait 2 0.2 0 0 0 0 0 0 0 
trait 3 0.2625 0 0.0986702 0 0 0 0 0 
node 1 3 1 3
node 2 2 1 1
node 3 1 1 1
node 4 3 0 2
node 7 1 0 0
node 49 1 0 0
gene 1 1 4 -4.74231 0 1 -4.74231 1
gene 2 2 4 -8 0 2 -8 1
gene 3 3 4 8 0 3 8 1
gene 3 3 7 1.33585 0 8 1.33585 1
gene 3 7 4 2.6503 0 9 2.6503 1
gene 1 2 7 -3.99915 0 41 -3.99915 0
gene 2 1 7 0.940153 0 90 0.940153 1
gene 1 2 49 7.23539 0 132 7.23539 1
gene 1 49 7 -6.29986 0 133 -6.29986 1
gene 1 3 49 -0.521058 0 144 -0.521058 1
gene 3 1 49 0.371792 0 173 0.371792 1
gene 2 49 4 -1.18007 0 191 -1.18007 1
genomeend 100

/* Organism #101 Fitness: 8.99999 Error: 1 */
genomestart 101
trait 1 0.1 0 0 0 0 0 0.0483108 0 
trait 2 0.2 0 0 0 0 0 0 0 
trait 3 0.2625 0 0.0986702 0 0 0 0 0 
node 1 3 1 3
node 2 2 1 1
node 3 1 1 1
node 4 3 0 2
node 7 1 0 0
node 49 1 0 0
gene 1 1 4 -4.74231 0 1 -4.74231 1
gene 2 2 4 -7.75181 0 2 -7.75181 1
gene 3 3 4 8 0 3 8 1
gene 3 3 7 2.3056 0 8 2.3056 1
gene 3 7 4 3.19544 0 9 3.19544 1
gene 1 2 7 -4.70375 0 41 -4.70375 0
gene 2 1 7 0.133396 0 90 0.133396 1
gene 1 2 49 8 0 132 8 1
gene 1 49 7 -4.96048 0 133 -4.96048 1
gene 1 3 49 -1.88234 0 144 -1.88234 1
gene 3 1 49 -1.99629 0 173 -1.99629 1
gene 2 49 4 -3.2448 0 191 -3.2448 1
genomeend 101

/* Organism #102 Fitness: 9 Error: 1 */
genomestart 102
trait 1 0.1 0 0 0 0 0 0.0483108 0 
trait 2 0.2 0 0 0 0 0 0 0 
trait 3 0.2625 0 0.0986702 0 0 0 0 0 
node 1 3 1 3
node 2 2 1 1
node 3 1 1 1
node 4 3 0 2
node 7 1 0 0
node 49 1 0 0
gene 1 1 4 -4.63511 0 1 -4.63511 1
gene 2 2 4 -6.99651 0 2 -6.99651 1
gene 3 3 4 7.4953 0 3 7.4953 1
gene 3 3 7 1.86256 0 8 1.86256 1
gene 3 7 4 3.06642 0 9 3.06642 1
gene 1 2 7 -2.89758 0 41 -2.89758 1
gene 2 1 7 -0.135815 0 90 -0.135815 1
gene 1 2 49 6.76022 0 132 6.76022 1
gene 1 49 7 -7.11417 0 133 -7.11417 1
gene 1 3 49 -1.04886 0 144 -1.04886 1
gene 3 1 49 -0.759529 0 173 -0.759529 1
gene 2 49 4 -2.20862 0 191 -2.20862 1
genomeend 102

/* Organism #103 Fitness: 8.99999 Error: 1 */
genomestart 103
trait 1 0.1 0 0 0 0 0 0.0483108 0 
trait 2 0.2 0 0 0 0 0 0 0 
trait 3 0.2625 0 0.0986702 0 0 0 0 0 
node 1 3 1 3
node 2 2 1 1
node 3 1 1 1
node 4 3 0 2
node 7 1 0 0
node 49 1 0 0
gene 1 1 4 -3.88833 0 1 -3.88833 1
gene 2 2 4 -7.97009 0 2 -7.97009 1
gene 3 3 4 8 0 3 8 1
gene 3 3 7 1.2376 0 8 1.2376 1
gene 3 7 4 4.24428 0 9 4.24428 1
gene 1 2 7 -3.75599 0 41 -3.75599 0
gene 2 1 7 1.92557 0 90 1.92557 1
gene 1 2 49 6.05585 0 132 6.05585 1
gene 1 49 7 -5.05913 0 133 -5.05913 1
gene 1 3 49 0.711692 0 144 0.711692 1
gene 3 1 49 0.371792 0 173 0.371792 1
gene 2 49 4 1.01001 0 191 1.01001 1
genomeend 103

/* Organism #104 Fitness: 8.99173 Error: 1.00138 */
genomestart 104
trait 1 0.1 0 0 0 0 0 0.0483108 0 
trait 2 0.2 0 0.706168 0 0 0.134495 0 0 
trait 3 0.2625 0 0.0986702 0 0 0 0 0 
node 1 3 1 3
node 2 2 1 1
node 3 1 1 1
node 4 3 0 2
node 7 1 0 0
node 49 1 0 0
gene 1 1 4 -5.31209 0 1 -5.31209 1
gene 2 2 4 -7.20576 0 2 -7.20576 1
gene 3 3 4 8 0 3 8 1
gene 3 3 7 0.868074 0 8 0.868074 1
gene 3 7 4 0.437937 0 9 0.437937 1
gene 1 2 7 -3.66161 0 41 -3.66161 0
gene 2 1 7 -2.3943 0 90 -2.3943 1
gene 1 2 49 7.48228 0 132 7.48228 1
gene 1 49 7 -8 0 133 -8 1
gene 1 3 49 1.75051 0 144 1.75051 1
gene 3 1 49 1.4156 0 173 1.4156 1
gene 2 49 4 -1.35052 0 191 -1.35052 1
genomeend 104

/* Organism #105 Fitness: 8.81306 Error: 1.03132 */
genomestart 105
trait 1 0.1 0 0 0 0 0 0.0483108 0 
trait 2 0.2 0 0 0 0 0 0 0 
trait 3 0.2625 0 0.0986702 0 0 0 0 0 
node 1 3 1 3
node 2 2 1 1
node 3 1 1 1
node 4 3 0 2
node 7 1 0 0
node 49 1 0 0
gene 1 1 4 -2.65835 0 1 -2.65835 1
gene 2 2 4 -3.96088 0 2 -3.96088 1
gene 3 3 4 1.72384 0 3 1.72384 1
gene 3 3 7 2.38927 0 8 2.38927 1
gene 3 7 4 1.63152 0 9 1.63152 1
gene 1 2 7 -1.79601 0 41 -1.79601 0
gene 2 1 7 -0.318354 0 90 -0.318354 1
gene 1 2 49 -2.12996 0 132 -2.12996 1
gene 1 49 7 0.862758 0 133 0.862758 1
gene 1 3 49 -3.59722 0 144 -3.59722 1
gene 3 1 49 -2.86531 0 173 -2.86531 1
gene 2 49 4 -1.7613 0 191 -1.7613 1
genomeend 105

/* Organism #106 Fitness: 4.18639 Error: 1.95393 */
genomestart 106
trait 1 0.1 0 0 0 0 0 0.0483108 0 
trait 2 0.2 0 0 0 0 0 0 0 
trait 3 0.2625 0 0.0986702 0 0 0 0 0 
node 1 3 1 3
node 2 2 1 1
node 3 1 1 1
node 4 3 0 2
node 7 1 0 0
node 49 3 0 0
gene 1 1 4 -6.98588 0 1 -6.98588 1
gene 2 2 4 -7.13266 0 2 -7.13266 1
gene 3 3 4 4.97668 0 3 4.97668 1
gene 3 3 7 4.51305 0 8 4.51305 1
gene 3 7 4 1.39378 0 9 1.39378 1
gene 1 2 7 -3.76385 0 41 -3.76385 0
gene 2 1 7 1.2284 0 90 1.2284 1
gene 1 2 49 4.59096 0 132 4.59096 1
gene 1 49 7 -8 0 133 -8 1
gene 1 3 49 -1.5849 0 144 -1.5849 1
gene 3 1 49 -3.89454 0 173 -3.89454 1
gene 2 49 4 -2.05962 0 191 -2.05962 1
genomeend 106

/* Species #19 : (Size 7) (AF 7.06644) (Age 15)  */


/* Organism #107 Fitness: 9 Error: 1 */
genomestart 107
trait 1 0.1 0 0.851314 0.975616 0 0 0.928068 0.437269 
trait 2 0.2 0 0 0 0 0 0 0 
trait 3 0.2625 0 0.0986702 0 0 0 0 0 
node 1 3 1 3
node 2 2 1 1
node 3 1 1 1
node 4 3 0 2
node 7 1 0 0
node 49 1 0 0
node 51 1 0 0
node 64 1 0 0
node 69 1 0 0
gene 1 1 4 -3.99646 0 1 -3.99646 1
gene 2 2 4 -8 0 2 -8 1
gene 3 3 4 8 0 3 8 1
gene 3 3 7 -0.892558 0 8 -0.892558 1
gene 3 7 4 -0.67694 0 9 -0.67694 1
gene 1 2 7 -2.06273 0 41 -2.06273 0
gene 2 1 7 -3.23335 0 90 -3.23335 1
gene 1 2 49 1.35522 0 132 1.35522 0
gene 1 49 7 -1.8434 0 133 -1.8434 1
gene 1 2 51 -2.11835 0 142 -2.11835 0
gene 1 51 49 -1.07562 0 143 -1.07562 1
gene 1 2 64 2.94487 0 189 2.94487 1
gene 1 64 49 1.26267 0 190 1.26267 1
gene 1 2 69 1 0 207 1 1
gene 1 69 51 0.883755 0 208 0.883755 1
genomeend 107

/* Organism #108 Fitness: 8.99998 Error: 1 */
genomestart 108
trait 1 0.1 0 0.851314 0.975616 0 0 0.928068 0.437269 
trait 2 0.2 0 0 0 0 0 0 0 
trait 3 0.2625 0 0.0986702 0 0 0 0 0 
node 1 3 1 3
node 2 2 1 1
node 3 1 1 1
node 4 3 0 2
node 7 1 0 0
node 49 1 0 0
node 51 1 0 0
node 64 1 0 0
node 69 1 0 0
gene 1 1 4 -2.73337 0 1 -2.73337 1
gene 2 2 4 -8 0 2 -8 1
gene 3 3 4 8 0 3 8 1
gene 3 3 7 -2.2369 0 8 -2.2369 1
gene 3 7 4 0.2171 0 9 0.2171 1
gene 1 2 7 -3.73347 0 41 -3.73347 0
gene 2 1 7 -3.59462 0 90 -3.59462 1
gene 1 2 49 1.15295 0 132 1.15295 0
gene 1 49 7 -3.7341 0 133 -3.7341 1
gene 1 2 51 -0.997635 0 142 -0.997635 0
gene 1 51 49 -0.750675 0 143 -0.750675 1
gene 1 2 64 3.8927 0 189 3.8927 1
gene 1 64 49 -0.0661069 0 190 -0.0661069 1
gene 1 2 69 2.99286 0 207 2.99286 1
gene 1 69 51 0.883755 0 208 0.883755 1
genomeend 108

/* Organism #109 Fitness: 6.2297 Error: 1.50406 */
genomestart 109
trait 1 0.1 0 0.851314 0.975616 0 0 0.928068 0.437269 
trait 2 0.2 0 0 0 0 0 0 0 
trait 3 0.2625 0 0.0986702 0 0 0 0 0 
node 1 3 1 3
node 2 2 1 1
node 3 1 1 1
node 4 3 0 2
node 7 1 0 0
node 49 1 0 0
node 51 1 0 0
node 64 1 0 0
node 69 1 0 0
gene 1 1 4 -2.77816 0 1 -2.77816 1
gene 2 2 4 -3.86253 0 2 -3.86253 1
gene 3 3 4 6.64399 0 3 6.64399 1
gene 3 3 7 -2.17243 0 8 -2.17243 1
gene 3 7 4 -1.41907 0 9 -1.41907 1
gene 1 2 7 -0.190664 0 41 -0.190664 0
gene 2 1 7 -2.27767 0 90 -2.27767 1
gene 1 2 49 2.70589 0 132 2.70589 0
gene 1 49 7 0.260928 0 133 0.260928 1
gene 1 2 51 -2.32923 0 142 -2.32923 0
gene 1 51 49 2.90529 0 143 2.90529 1
gene 1 2 64 0.459899 0 189 0.459899 1
gene 1 64 49 -3.4986 0 190 -3.4986 1
gene 1 2 69 2.49129 0 207 2.49129 1
gene 1 69 51 0.928007 0 208 0.928007 1
genomeend 109

/* Organism #110 Fitness: 4.00365 Error: 1.99909 */
genomestart 110
trait 1 0.1 0 0.851314 0.975616 0 0 0.928068 0.437269 
trait 2 0.2 0 0 0 0 0 0 0 
trait 3 0.2625 0 0.0986702 0 0 0 0 0 
node 1 3 1 3
node 2 2 1 1
node 3 1 1 1
node 4 3 0 2
node 7 1 0 0
node 49 1 0 0
node 51 1 0 0
node 64 1 0 0
node 69 1 0 0
gene 1 1 4 -2.03938 0 1 -2.03938 1
gene 2 2 4 0.63509 0 2 0.63509 1
gene 3 3 4 6.72639 0 3 6.72639 1
gene 3 3 7 0.398375 0 8 0.398375 1
gene 3 7 4 -2.91974 0 9 -2.91974 1
gene 1 2 7 -2.79777 0 41 -2.79777 0
gene 2 1 7 -0.911817 0 90 -0.911817 1
gene 1 2 49 2.38739 0 132 2.38739 0
gene 1 49 7 -4.03593 0 133 -4.03593 1
gene 1 2 51 -2.32618 0 142 -2.32618 0
gene 1 51 49 -0.346458 0 143 -0.346458 1
gene 1 2 64 3.06465 0 189 3.06465 1
gene 1 64 49 -0.169336 0 190 -0.169336 1
gene 1 2 69 2.32061 0 207 2.32061 1
gene 1 69 51 3.213 0 208 3.213 1
genomeend 110

/* Organism #111 Fitness: 4.00394 Error: 1.99902 */
genomestart 111
trait 1 0.1 0 0.851314 0.975616 0 0 0.928068 0.437269 
trait 2 0.2 0 0 0 0 0 0 0 
trait 3 0 0 0.261364 0 0.848476 0 0 0 
node 1 3 1 3
node 2 2 1 1
node 3 1 1 1
node 4 3 0 2
node 7 1 0 0
node 49 1 0 0
node 51 1 0 0
node 64 3 0 0
node 69 1 0 0
gene 1 1 4 -7.01176 0 1 -7.01176 1
gene 2 2 4 -6.27715 0 2 -6.27715 1
gene 3 3 4 5.6059 0 3 5.6059 1
gene 3 3 7 -2.36347 0 8 -2.36347 1
gene 3 7 4 -1.90981 0 9 -1.90981 1
gene 1 2 7 1.62214 0 41 1.62214 0
gene 2 1 7 -2.359 0 90 -2.359 1
gene 1 2 49 4.33878 0 132 4.33878 0
gene 1 49 7 -2.68762 0 133 -2.68762 1
gene 1 2 51 -3.47482 0 142 -3.47482 0
gene 1 51 49 -0.947977 0 143 -0.947977 1
gene 1 2 64 2.40072 0 189 2.40072 1
gene 1 64 49 -0.879578 0 190 -0.879578 1
gene 1 2 69 2.42239 0 207 2.42239 1
gene 1 69 51 -2.27293 0 208 -2.27293 1
genomeend 111

/* Organism #112 Fitness: 8.22781 Error: 1.13158 */
genomestart 112
trait 1 0.1 0 0.851314 0.975616 0 0 0.928068 0.437269 
trait 2 0.2 0 0 0 0 0 0 0 
trait 3 0.2625 0 0.0986702 0 0 0 0 0 
node 1 3 1 3
node 2 2 1 1
node 3 1 1 1
node 4 3 0 2
node 7 1 0 0
node 49 1 0 0
node 51 1 0 0
node 64 1 0 0
node 69 1 0 0
gene 1 1 4 -5.53207 0 1 -5.53207 1
gene 2 2 4 -5.24288 0 2 -5.24288 1
gene 3 3 4 5.91528 0 3 5.91528 1
gene 3 3 7 -3.34968 0 8 -3.34968 1
gene 3 7 4 -1.49438 0 9 -1.49438 1
gene 1 2 7 0.424741 0 41 0.424741 0
gene 2 1 7 -3.79291 0 90 -3.79291 1
gene 1 2 49 2.41215 0 132 2.41215 0
gene 1 49 7 0.582288 0 133 0.582288 1
gene 1 2 51 0.563921 0 142 0.563921 0
gene 1 51 49 2.87981 0 143 2.87981 1
gene 1 2 64 1.29229 0 189 1.29229 1
gene 1 64 49 -0.799924 0 190 -0.799924 1
gene 1 2 69 -0.979965 0 207 -0.979965 1
gene 1 69 51 -0.223304 0 208 -0.223304 1
genomeend 112

/* Organism #113 Fitness: 9 Error: 1 */
genomestart 113
trait 1 0.1 0 0.851314 0.975616 0 0 0.928068 0.437269 
trait 2 0.2 0 0 0 0 0 0 0 
trait 3 0.2625 0 0.0986702 0 0 0 0 0 
node 1 3 1 3
node 2 2 1 1
node 3 1 1 1
node 4 3 0 2
node 7 1 0 0
node 49 1 0 0
node 51 1 0 0
node 64 1 0 0
node 69 1 0 0
gene 1 1 4 -3.50534 0 1 -3.50534 1
gene 2 2 4 -8 0 2 -8 1
gene 3 3 4 8 0 3 8 1
gene 3 3 7 0.148123 0 8 0.148123 1
gene 3 7 4 1.79407 0 9 1.79407 1
gene 1 2 7 -4.48956 0 41 -4.48956 0
gene 2 1 7 -1.00741 0 90 -1.00741 1
gene 1 2 49 3.33304 0 132 3.33304 0
gene 1 49 7 -2.38915 0 133 -2.38915 1
gene 1 2 51 -0.861751 0 142 -0.861751 0
gene 1 51 49 -1.69866 0 143 -1.69866 1
gene 1 2 64 4.03888 0 189 4.03888 1
gene 1 64 49 1.16356 0 190 1.16356 1
gene 1 2 69 3.21976 0 207 3.21976 1
gene 1 69 51 -1.42924 0 208 -1.42924 1
genomeend 113

/* Species #20 : (Size 6) (AF 7.51752) (Age 14)  */


/* Organism #114 Fitness: 9 Error: 1 */
genomestart 114
trait 1 0.1 0 0 0 0 0 0 0 
trait 2 0.2 0 0 0 0 0 0 0 
trait 3 0.2625 0 0.0986702 0 0 0 0 0 
node 1 3 1 3
node 2 2 1 1
node 3 1 1 1
node 4 3 0 2
node 7 1 0 0
node 49 1 0 0
node 51 1 0 0
node 68 1 0 0
node 70 1 0 0
gene 1 1 4 -5.40609 0 1 -5.40609 1
gene 2 2 4 -8 0 2 -8 1
gene 3 3 4 8 0 3 8 1
gene 3 3 7 0.104043 0 8 0.104043 1
gene 3 7 4 -1.12308 0 9 -1.12308 0
gene 1 2 7 -0.059821 0 41 -0.059821 0
gene 2 1 7 -2.99577 0 90 -2.99577 1
gene 1 2 49 3.01437 0 132 3.01437 0
gene 1 49 7 -3.17492 0 133 -3.17492 1
gene 1 2 51 -0.264443 0 142 -0.264443 1
gene 1 51 49 -0.3258 0 143 -0.3258 1
gene 3 7 68 2.1211 0 205 2.1211 0
gene 3 68 4 1.8923 0 206 1.8923 1
gene 3 7 70 2.85209 0 211 2.85209 1
gene 3 70 68 0.320444 0 212 0.320444 1
gene 3 2 70 -0.753288 0 313 -0.753288 1
genomeend 114

/* Organism #115 Fitness: 8.85055 Error: 1.02501 */
genomestart 115
trait 1 0.1 0 0 0 0 0 0 0 
trait 2 0.2 0 0 0 0 0 0 0 
trait 3 0.2625 0 0.0986702 0 0 0 0 0 
node 1 3 1 3
node 2 2 1 1
node 3 1 1 1
node 4 3 0 2
node 7 1 0 0
node 49 1 0 0
node 51 1 0 0
node 68 1 0 0
node 70 1 0 0
gene 1 1 4 -7.0975 0 1 -7.0975 1
gene 2 2 4 -8 0 2 -8 1
gene 3 3 4 7.62096 0 3 7.62096 1
gene 3 3 7 0.104043 0 8 0.104043 1
gene 3 7 4 -3.28196 0 9 -3.28196 0
gene 1 2 7 -0.620522 0 41 -0.620522 0
gene 2 1 7 2.3587 0 90 2.3587 1
gene 1 2 49 4.44195 0 132 4.44195 0
gene 1 49 7 -5.04281 0 133 -5.04281 1
gene 1 2 51 -1.76206 0 142 -1.76206 1
gene 1 51 49 -0.610462 0 143 -0.610462 1
gene 3 7 68 2.01306 0 205 2.01306 0
gene 3 68 4 0.22042 0 206 0.22042 1
gene 3 7 70 2.0049 0 211 2.0049 1
gene 3 70 68 2.27172 0 212 2.27172 1
gene 3 2 70 1.25048 0 313 1.25048 1
gene 3 51 68 1.84301 0 333 1.84301 1
genomeend 115

/* Organism #116 Fitness: 9 Error: 1 */
genomestart 116
trait 1 0.1 0 0 0 0 0 0 0 
trait 2 0.2 0 0 0 0 0 0 0 
trait 3 0.2625 0 0.0986702 0 0 0 0 0 
node 1 3 1 3
node 2 2 1 1
node 3 1 1 1
node 4 3 0 2
node 7 1 0 0
node 49 1 0 0
node 51 1 0 0
node 68 1 0 0
node 70 1 0 0
gene 1 1 4 -5.40609 0 1 -5.40609 1
gene 2 2 4 -8 0 2 -8 1
gene 3 3 4 8 0 3 8 1
gene 3 3 7 0.104043 0 8 0.104043 1
gene 3 7 4 -1.12308 0 9 -1.12308 0
gene 1 2 7 -0.059821 0 41 -0.059821 0
gene 2 1 7 -2.99577 0 90 -2.99577 1
gene 1 2 49 3.01437 0 132 3.01437 0
gene 1 49 7 -3.17492 0 133 -3.17492 1
gene 1 2 51 -0.264443 0 142 -0.264443 1
gene 1 51 49 -0.3258 0 143 -0.3258 1
gene 3 7 68 2.1211 0 205 2.1211 0
gene 3 68 4 1.8923 0 206 1.8923 1
gene 3 7 70 2.85209 0 211 2.85209 1
gene 3 70 68 0.320444 0 212 0.320444 1
gene 3 2 70 -0.753288 0 313 -0.753288 1
genomeend 116

/* Organism #117 Fitness: 9 Error: 1 */
genomestart 117
trait 1 0.1 0 0 0 0 0 0 0 
trait 2 0.2 0 0 0 0 0 0 0 
trait 3 0.2625 0 0.0986702 0 0 0 0 0 
node 1 3 1 3
node 2 2 1 1
node 3 1 1 1
node 4 3 0 2
node 7 1 0 0
node 49 1 0 0
node 51 1 0 0
node 68 1 0 0
node 70 1 0 0
gene 1 1 4 -5.40609 0 1 -5.40609 1
gene 2 2 4 -8 0 2 -8 1
gene 3 3 4 8 0 3 8 1
gene 3 3 7 0.104043 0 8 0.104043 1
gene 3 7 4 -1.12308 0 9 -1.12308 0
gene 1 2 7 -0.059821 0 41 -0.059821 0
gene 2 1 7 -2.99577 0 90 -2.99577 1
gene 1 2 49 3.01437 0 132 3.01437 0
gene 1 49 7 -3.17492 0 133 -3.17492 1
gene 1 2 51 -0.264443 0 142 -0.264443 1
gene 1 51 49 -0.3258 0 143 -0.3258 1
gene 3 7 68 2.1211 0 205 2.1211 0
gene 3 68 4 1.8923 0 206 1.8923 1
gene 3 7 70 2.85209 0 211 2.85209 1
gene 3 70 68 0.320444 0 212 0.320444 1
gene 3 2 70 -0.753288 0 313 -0.753288 1
gene 3 3 68 0.941618 0 348 0.941618 1
genomeend 117

/* Organism #118 Fitness: 5.25306 Error: 1.70804 */
genomestart 118
trait 1 0.1 0 0 0 0 0 0 0 
trait 2 0.2 0 0 0 0 0 0 0 
trait 3 0.2625 0 0.0986702 0 0 0 0 0 
node 1 3 1 3
node 2 2 1 1
node 3 1 1 1
node 4 3 0 2
node 7 1 0 0
node 49 1 0 0
node 51 1 0 0
node 68 1 0 0
node 70 1 0 0
gene 1 1 4 -6.36017 0 1 -6.36017 1
gene 2 2 4 -8 0 2 -8 1
gene 3 3 4 6.14562 0 3 6.14562 1
gene 3 3 7 -1.69571 0 8 -1.69571 1
gene 3 7 4 -2.68654 0 9 -2.68654 0
gene 1 2 7 0.359122 0 41 0.359122 0
gene 2 1 7 -2.50999 0 90 -2.50999 1
gene 1 2 49 1.66332 0 132 1.66332 0
gene 1 49 7 -2.48246 0 133 -2.48246 1
gene 1 2 51 -1.24485 0 142 -1.24485 1
gene 1 51 49 -1.41279 0 143 -1.41279 1
gene 3 7 68 2.50174 0 205 2.50174 0
gene 3 68 4 0.25811 0 206 0.25811 1
gene 3 7 70 2.52799 0 211 2.52799 1
gene 3 70 68 -0.634175 0 212 -0.634175 1
gene 3 2 70 0.720756 0 313 0.720756 1
gene 3 51 68 -0.122913 0 333 -0.122913 1
genomeend 118

/* Organism #119 Fitness: 4.00152 Error: 1.99962 */
genomestart 119
trait 1 0.1 0 0 0 0 0 0 0 
trait 2 0.2 0 0 0 0 0 0 0 
trait 3 0.2625 0 0.0986702 0 0 0 0 0 
node 1 3 1 3
node 2 2 1 1
node 3 1 1 1
node 4 3 0 2
node 7 1 0 0
node 49 1 0 0
node 51 1 0 0
node 68 1 0 0
node 70 1 0 0
gene 1 1 4 -3.25468 0 1 -3.25468 1
gene 2 2 4 -8 0 2 -8 1
gene 3 3 4 2.20786 0 3 2.20786 1
gene 3 3 7 -0.104322 0 8 -0.104322 1
gene 3 7 4 -1.12308 0 9 -1.12308 0
gene 1 2 7 0.838644 0 41 0.838644 1
gene 2 1 7 -2.35908 0 90 -2.35908 1
gene 1 2 49 0.728614 0 132 0.728614 0
gene 1 49 7 -1.4713 0 133 -1.4713 1
gene 1 2 51 -2.51747 0 142 -2.51747 1
gene 1 51 49 -2.70663 0 143 -2.70663 1
gene 3 7 68 1.487 0 205 1.487 0
gene 3 68 4 -0.554903 0 206 -0.554903 1
gene 3 7 70 1.39584 0 211 1.39584 1
gene 3 70 68 2.13912 0 212 2.13912 1
gene 3 2 70 -2.39648 0 313 -2.39648 1
genomeend 119

/* Species #21 : (Size 8) (AF 5.37526) (Age 13)  */


/* Organism #120 Fitness: 9 Error: 1 */
genomestart 120
trait 1 0.1 0 0 0 0 0 0.0845439 0 
trait 2 0.279936 0 0 0 0 0.0676595 0 0 
trait 3 0.2625 0 0.0986702 0 0 0 0 0 
node 1 3 1 3
node 2 2 1 1
node 3 1 1 1
node 4 3 0 2
node 7 1 0 0
node 49 1 0 0
gene 1 1 4 -4.16456 0 1 -4.16456 1
gene 2 2 4 -7.71011 0 2 -7.71011 1
gene 3 3 4 7.85019 0 3 7.85019 1
gene 3 3 7 0.667796 0 8 0.667796 1
gene 1 7 4 4.37114 0 9 4.37114 1
gene 1 2 7 -0.727318 0 41 -0.727318 0
gene 2 1 7 0.237083 0 90 0.237083 1
gene 1 2 49 4.62114 0 132 4.62114 1
gene 1 49 7 -4.02936 0 133 -4.02936 1
gene 1 3 49 1.1434 0 144 1.1434 1
gene 3 1 49 0.0337611 0 213 0.0337611 1
genomeend 120

/* Organism #121 Fitness: 9 Error: 1 */
genomestart 121
trait 1 0.1 0 0 0 0 0 0.0845439 0 
trait 2 0.279936 0 0 0 0 0.0676595 0 0 
trait 3 0.2625 0 0.0986702 0 0 0 0 0 
node 1 3 1 3
node 2 2 1 1
node 3 1 1 1
node 4 3 0 2
node 7 1 0 0
node 49 1 0 0
gene 1 1 4 -4.16456 0 1 -4.16456 1
gene 2 2 4 -7.71011 0 2 -7.71011 1
gene 3 3 4 7.85019 0 3 7.85019 1
gene 3 3 7 0.667796 0 8 0.667796 1
gene 1 7 4 4.37114 0 9 4.37114 1
gene 1 2 7 -0.727318 0 41 -0.727318 0
gene 2 1 7 0.237083 0 90 0.237083 1
gene 1 2 49 4.62114 0 132 4.62114 1
gene 1 49 7 -4.02936 0 133 -4.02936 1
gene 1 3 49 1.1434 0 144 1.1434 1
gene 3 1 49 0.0337611 0 213 0.0337611 1
gene 2 49 4 -0.388134 0 349 -0.388134 1
genomeend 121

/* Organism #122 Fitness: 9 Error: 1 */
genomestart 122
trait 1 0.1 0 0 0 0 0 0.0845439 0 
trait 2 0.259952 0 0 0 0 0.0507447 0 0 
trait 3 0.2625 0 0.0986702 0 0 0 0 0 
node 1 3 1 3
node 2 2 1 1
node 3 1 1 1
node 4 3 0 2
node 7 1 0 0
node 49 1 0 0
node 116 1 0 0
gene 1 1 4 -4.16456 0 1 -4.16456 1
gene 2 2 4 -8 0 2 -8 1
gene 3 3 4 7.85019 0 3 7.85019 1
gene 3 3 7 1.62032 0 8 1.62032 0
gene 1 7 4 7.71405 0 9 7.71405 1
gene 1 2 7 -0.727318 0 41 -0.727318 0
gene 2 1 7 0.294496 0 90 0.294496 1
gene 1 2 49 4.62114 0 132 4.62114 1
gene 1 49 7 -2.87782 0 133 -2.87782 1
gene 1 3 49 1.1434 0 144 1.1434 1
gene 3 1 49 1.80864 0 213 1.80864 1
gene 3 3 116 1 0 350 0 1
gene 3 116 7 1.62032 0 351 0 1
genomeend 122

/* Organism #123 Fitness: 1.00028 Error: 2.99986 */
genomestart 123
trait 1 0.1 0 0 0 0 0 0.0845439 0 
trait 2 0.259952 0 0 0 0 0.0507447 0 0 
trait 3 0.2625 0 0.0986702 0 0 0 0 0 
node 1 3 1 3
node 2 2 1 1
node 3 1 1 1
node 4 3 0 2
node 7 1 0 0
node 49 1 0 0
gene 1 1 4 -2.22732 0 1 -2.22732 1
gene 2 2 4 -7.17096 0 2 -7.17096 1
gene 3 3 4 7.79347 0 3 7.79347 1
gene 3 3 7 1.96045 0 8 1.96045 1
gene 1 7 4 8 0 9 8 1
gene 1 2 7 -2.7832 0 41 -2.7832 0
gene 2 1 7 2.45025 0 90 2.45025 1
gene 1 2 49 7.06658 0 132 7.06658 1
gene 1 49 7 -1.85515 0 133 -1.85515 1
gene 1 3 49 1.28101 0 144 1.28101 1
gene 3 1 49 1.29803 0 213 1.29803 1
genomeend 123

/* Organism #124 Fitness: 1.0038 Error: 2.9981 */
genomestart 124
trait 1 0.1 0 0 0 0 0 0.0845439 0 
trait 2 0.259952 0 0 0 0 0.0507447 0 0 
trait 3 0.2625 0 0.0986702 0 0 0 0 0 
node 1 3 1 3
node 2 2 1 1
node 3 1 1 1
node 4 3 0 2
node 7 1 0 0
node 49 1 0 0
gene 1 1 4 0.803476 0 1 0.803476 1
gene 2 2 4 -8 0 2 -8 1
gene 3 3 4 6.91034 0 3 6.91034 1
gene 3 3 7 3.01654 0 8 3.01654 1
gene 1 7 4 8 0 9 8 1
gene 1 2 7 3.10474 0 41 3.10474 0
gene 2 1 7 0.237083 0 90 0.237083 1
gene 1 2 49 2.87403 0 132 2.87403 1
gene 1 49 7 -0.802868 0 133 -0.802868 1
gene 1 3 49 -0.846412 0 144 -0.846412 1
gene 3 1 49 1.2265 0 213 1.2265 1
genomeend 124

/* Organism #125 Fitness: 3.99709 Error: 2.00073 */
genomestart 125
trait 1 0.1 0 0 0 0 0 0.0845439 0 
trait 2 0.239968 0 0 0 0 0.0338298 0 0 
trait 3 0.2625 0 0.0986702 0 0 0 0 0 
node 1 3 1 3
node 2 2 1 1
node 3 1 1 1
node 4 3 0 2
node 7 1 0 0
node 49 1 0 0
gene 1 1 4 -1.47202 0 1 -1.47202 1
gene 2 2 4 -8 0 2 -8 1
gene 3 3 4 8 0 3 8 1
gene 3 3 7 -0.0246303 0 8 -0.0246303 1
gene 1 7 4 6.10046 0 9 6.10046 1
gene 1 2 7 2.72768 0 41 2.72768 0
gene 2 1 7 2.51395 0 90 2.51395 1
gene 1 2 49 4.24065 0 132 4.24065 1
gene 1 49 7 -3.94139 0 133 -3.94139 1
gene 1 3 49 1.28101 0 144 1.28101 1
gene 3 1 49 -0.0431455 0 213 -0.0431455 1
genomeend 125

/* Organism #126 Fitness: 1.00091 Error: 2.99954 */
genomestart 126
trait 1 0.1 0 0 0 0 0 0.0845439 0 
trait 2 0.239968 0 0 0 0 0.0338298 0 0 
trait 3 0.2625 0 0.0986702 0 0 0 0 0 
node 1 3 1 3
node 2 2 1 1
node 3 1 1 1
node 4 1 0 2
node 7 1 0 0
node 49 1 0 0
gene 1 1 4 1.60604 0 1 1.60604 1
gene 2 2 4 -7.42396 0 2 -7.42396 1
gene 3 3 4 7.66361 0 3 7.66361 1
gene 3 3 7 -0.240549 0 8 -0.240549 1
gene 1 7 4 8 0 9 8 1
gene 1 2 7 2.26868 0 41 2.26868 0
gene 2 1 7 -0.75969 0 90 -0.75969 1
gene 1 2 49 -2.49641 0 132 -2.49641 1
gene 1 49 7 -2.87782 0 133 -2.87782 1
gene 1 3 49 0.0108341 0 144 0.0108341 1
gene 3 1 49 1.55168 0 213 1.55168 1
genomeend 126

/* Organism #127 Fitness: 9 Error: 1 */
genomestart 127
trait 1 0.1 0 0 0 0 0 0.0845439 0 
trait 2 0.279936 0 0 0 0 0.0676595 0 0 
trait 3 0.2625 0 0.0986702 0 0 0 0 0 
node 1 3 1 3
node 2 2 1 1
node 3 1 1 1
node 4 3 0 2
node 7 1 0 0
node 49 1 0 0
gene 1 1 4 -4.83314 0 1 -4.83314 1
gene 2 2 4 -8 0 2 -8 1
gene 3 3 4 8 0 3 8 1
gene 3 3 7 1.34714 0 8 1.34714 1
gene 1 7 4 4.37114 0 9 4.37114 1
gene 1 2 7 -2.82806 0 41 -2.82806 0
gene 2 1 7 -1.93393 0 90 -1.93393 1
gene 1 2 49 1.13247 0 132 1.13247 1
gene 1 49 7 -0.922651 0 133 -0.922651 1
gene 1 3 49 2.50582 0 144 2.50582 1
gene 3 1 49 -0.10857 0 213 -0.10857 1
genomeend 127

/* Species #22 : (Size 7) (AF 6.42987) (Age 12)  */


/* Organism #128 Fitness: 9 Error: 1 */
genomestart 128
trait 1 0.1 0 0 0 0 0 0 0 
trait 2 0.2 0 0 0 0 0 0 0 
trait 3 0 0.25132 0 0 0.416334 0.284051 0.752907 0 
node 1 3 1 3
node 2 2 1 1
node 3 1 1 1
node 4 3 0 2
node 7 1 0 0
node 34 1 0 0
node 73 1 0 0
gene 1 1 4 -0.777802 0 1 -0.777802 1
gene 2 2 4 -8 0 2 -8 1
gene 3 3 4 8 0 3 8 1
gene 3 3 7 -1.24056 0 8 -1.24056 1
gene 1 7 4 -2.82122 0 9 -2.82122 0
gene 1 2 7 -6.28916 0 41 -6.28916 1
gene 1 7 34 0.4551 0 88 0.4551 1
gene 3 34 4 -3.36116 0 89 -3.36116 1
gene 1 2 73 0.953993 0 219 0.953993 1
gene 1 73 7 0.949583 0 220 0.949583 1
gene 1 2 34 2.45369 0 228 2.45369 1
genomeend 128

/* Organism #129 Fitness: 1.0092 Error: 2.99541 */
genomestart 129
trait 1 0.1 0 0 0 0 0 0 0 
trait 2 0.2 0 0 0 0 0 0 0 
trait 3 0 0.25132 0 0 0.416334 0.284051 0.752907 0 
node 1 3 1 3
node 2 2 1 1
node 3 1 1 1
node 4 3 0 2
node 7 1 0 0
node 34 1 0 0
node 73 1 0 0
gene 1 1 4 1.55107 0 1 1.55107 1
gene 2 2 4 -5.72095 0 2 -5.72095 1
gene 3 3 4 7.55878 0 3 7.55878 1
gene 3 3 7 -2.29871 0 8 -2.29871 1
gene 1 7 4 -2.53984 0 9 -2.53984 0
gene 1 2 7 -7.10294 0 41 -7.10294 1
gene 1 7 34 0.711074 0 88 0.711074 1
gene 3 34 4 -0.472427 0 89 -0.472427 1
gene 1 2 73 -2.25265 0 219 -2.25265 1
gene 1 73 7 3.42341 0 220 3.42341 1
gene 3 2 34 4.53795 0 228 4.53795 1
genomeend 129

/* Organism #130 Fitness: 4 Error: 2 */
genomestart 130
trait 1 0.1 0 0 0 0 0 0 0 
trait 2 0.2 0 0 0 0 0 0 0 
trait 3 0 0.25132 0 0 0.416334 0.284051 0.752907 0 
node 1 3 1 3
node 2 2 1 1
node 3 1 1 1
node 4 3 0 2
node 7 1 0 0
node 34 1 0 0
node 73 1 0 0
gene 1 1 4 -1.17481 0 1 -1.17481 1
gene 2 2 4 -6.42036 0 2 -6.42036 1
gene 3 3 4 -1.39821 0 3 -1.39821 1
gene 3 3 7 -1.07088 0 8 -1.07088 1
gene 1 7 4 -5.24332 0 9 -5.24332 0
gene 1 2 7 -4.31431 0 41 -4.31431 1
gene 1 7 34 1.35234 0 88 1.35234 1
gene 3 34 4 -3.16187 0 89 -3.16187 1
gene 1 2 73 1.09842 0 219 1.09842 1
gene 1 73 7 -1.18709 0 220 -1.18709 1
gene 1 2 34 2.94778 0 228 2.94778 1
genomeend 130

/* Organism #131 Fitness: 4 Error: 2 */
genomestart 131
trait 1 0.1 0 0 0 0 0 0 0 
trait 2 0.2 0 0 0 0 0 0 0 
trait 3 0 0.25132 0 0 0.416334 0.284051 0.752907 0 
node 1 3 1 3
node 2 2 1 1
node 3 1 1 1
node 4 3 0 2
node 7 1 0 0
node 34 1 0 0
node 73 1 0 0
gene 1 1 4 -2.43389 0 1 -2.43389 1
gene 2 2 4 -8 0 2 -8 1
gene 3 3 4 -1.30314 0 3 -1.30314 1
gene 3 3 7 0.850112 0 8 0.850112 1
gene 1 7 4 -2.82122 0 9 -2.82122 0
gene 1 2 7 -6.40574 0 41 -6.40574 1
gene 1 7 34 0.4551 0 88 0.4551 1
gene 3 34 4 -2.46712 0 89 -2.46712 1
gene 1 2 73 2.56522 0 219 2.56522 1
gene 1 73 7 -0.855892 0 220 -0.855892 1
gene 1 2 34 4.02989 0 228 4.02989 1
genomeend 131

/* Organism #132 Fitness: 8.99991 Error: 1.00001 */
genomestart 132
trait 1 0.1 0 0 0 0 0 0 0 
trait 2 0.2 0 0 0 0 0 0 0 
trait 3 0 0.25132 0 0 0.416334 0.284051 0.752907 0 
node 1 3 1 3
node 2 2 1 1
node 3 1 1 1
node 4 3 0 2
node 7 1 0 0
node 34 1 0 0
node 73 1 0 0
gene 1 1 4 -0.953055 0 1 -0.953055 1
gene 2 2 4 -8 0 2 -8 1
gene 3 3 4 6.90225 0 3 6.90225 1
gene 3 3 7 -2.09744 0 8 -2.09744 1
gene 1 7 4 -3.40267 0 9 -3.40267 0
gene 1 2 7 -2.23058 0 41 -2.23058 1
gene 1 7 34 -0.773957 0 88 -0.773957 1
gene 3 34 4 -2.84883 0 89 -2.84883 1
gene 1 2 73 -0.144444 0 219 -0.144444 1
gene 1 73 7 -1.27232 0 220 -1.27232 1
gene 1 2 34 2.45369 0 228 2.45369 1
genomeend 132

/* Organism #133 Fitness: 9 Error: 1 */
genomestart 133
trait 1 0.1 0 0 0 0 0 0 0 
trait 2 0.2 0 0 0 0 0 0 0 
trait 3 0 0.25132 0 0 0.416334 0.284051 0.752907 0 
node 1 3 1 3
node 2 2 1 1
node 3 1 1 1
node 4 3 0 2
node 7 1 0 0
node 34 1 0 0
node 73 1 0 0
gene 1 1 4 -2.89846 0 1 -2.89846 1
gene 2 2 4 -7.59998 0 2 -7.59998 1
gene 3 3 4 8 0 3 8 1
gene 3 3 7 -1.24056 0 8 -1.24056 1
gene 1 7 4 -2.29249 0 9 -2.29249 0
gene 1 2 7 -7.52813 0 41 -7.52813 1
gene 1 7 34 0.4551 0 88 0.4551 1
gene 3 34 4 -3.36116 0 89 -3.36116 1
gene 1 2 73 1.955 0 219 1.955 1
gene 1 73 7 0.949583 0 220 0.949583 1
gene 1 2 34 2.45369 0 228 2.45369 1
genomeend 133

/* Organism #134 Fitness: 8.99997 Error: 1.00001 */
genomestart 134
trait 1 0.1 0 0 0 0 0 0 0 
trait 2 0.2 0 0 0 0 0 0 0 
trait 3 0 0.25132 0 0 0.416334 0.284051 0.752907 0 
node 1 3 1 3
node 2 2 1 1
node 3 1 1 1
node 4 3 0 2
node 7 1 0 0
node 34 1 0 0
node 73 1 0 0
gene 1 1 4 -0.166135 0 1 -0.166135 1
gene 2 2 4 -8 0 2 -8 1
gene 3 3 4 8 0 3 8 1
gene 3 3 7 -2.19075 0 8 -2.19075 1
gene 1 7 4 -3.66124 0 9 -3.66124 0
gene 1 2 7 -6.66911 0 41 -6.66911 1
gene 1 7 34 1.42025 0 88 1.42025 1
gene 3 34 4 -2.52739 0 89 -2.52739 1
gene 1 2 73 -2.23809 0 219 -2.23809 1
gene 1 73 7 -0.201956 0 220 -0.201956 1
gene 1 2 34 1.90062 0 228 1.90062 1
genomeend 134

/* Species #23 : (Size 6) (AF 6.61725) (Age 12)  */


/* Organism #135 Fitness: 8.65733 Error: 1.05767 */
genomestart 135
trait 1 0.1 0 0 0 0 0.416028 0 0.35287 
trait 2 0.2 0.269921 0.25753 0.189383 0 0 0 0.0976745 
trait 3 0.36457 0.0953742 0 0 0 0.0304918 0 0 
node 1 3 1 3
node 2 2 1 1
node 3 1 1 1
node 4 3 0 2
node 7 1 0 0
node 13 1 0 0
node 23 1 0 0
node 28 1 0 0
node 42 1 0 0
node 76 1 0 0
gene 1 1 4 -0.9719 0 1 -0.9719 1
gene 1 2 4 3.29325 0 2 3.29325 1
gene 2 3 4 -2.52235 0 3 -2.52235 0
gene 3 3 7 4.98988 0 8 4.98988 1
gene 3 7 4 -3.90347 0 9 -3.90347 1
gene 3 3 13 -4.66086 0 22 -4.66086 1
gene 3 13 4 0.294656 0 23 0.294656 1
gene 3 13 23 -1.21296 0 56 -1.21296 1
gene 3 23 4 1.6344 0 57 1.6344 1
gene 3 3 28 -0.264748 0 73 -0.264748 1
gene 3 28 13 3.13486 0 74 3.13486 1
gene 1 23 7 -3.07924 0 87 -3.07924 0
gene 1 23 42 3.62339 0 109 3.62339 1
gene 1 42 7 -4.68051 0 110 -4.68051 0
gene 2 13 7 -1.20869 0 188 -1.20869 1
gene 1 42 76 5.33273 0 229 5.33273 1
gene 1 76 7 -1.51135 0 230 -1.51135 1
genomeend 135

/* Organism #136 Fitness: 8.65733 Error: 1.05767 */
genomestart 136
trait 1 0.1 0 0 0 0 0.416028 0 0.35287 
trait 2 0.2 0.269921 0.25753 0.189383 0 0 0 0.0976745 
trait 3 0.36457 0.0953742 0 0 0 0.0304918 0 0 
node 1 3 1 3
node 2 2 1 1
node 3 1 1 1
node 4 3 0 2
node 7 1 0 0
node 13 1 0 0
node 23 1 0 0
node 28 1 0 0
node 42 1 0 0
node 76 1 0 0
gene 1 1 4 -0.9719 0 1 -0.9719 1
gene 1 2 4 3.29325 0 2 3.29325 1
gene 2 3 4 -2.52235 0 3 -2.52235 0
gene 3 3 7 4.98988 0 8 4.98988 1
gene 3 7 4 -3.90347 0 9 -3.90347 1
gene 3 3 13 -4.66086 0 22 -4.66086 1
gene 3 13 4 0.294656 0 23 0.294656 1
gene 3 13 23 -1.21296 0 56 -1.21296 1
gene 3 23 4 1.6344 0 57 1.6344 1
gene 3 3 28 -0.264748 0 73 -0.264748 1
gene 3 28 13 3.13486 0 74 3.13486 1
gene 1 23 7 -3.07924 0 87 -3.07924 0
gene 1 23 42 3.62339 0 109 3.62339 1
gene 1 42 7 -4.68051 0 110 -4.68051 0
gene 2 13 7 -1.20869 0 188 -1.20869 1
gene 1 42 76 5.33273 0 229 5.33273 1
gene 1 76 7 -1.51135 0 230 -1.51135 1
genomeend 136

/* Organism #137 Fitness: 5.1162 Error: 1.7381 */
genomestart 137
trait 1 0.1 0 0 0 0 0.416028 0 0.35287 
trait 2 0.2 0.269921 0.25753 0.189383 0 0 0 0.0976745 
trait 3 0.36457 0.0953742 0 0 0 0.0304918 0 0 
node 1 3 1 3
node 2 2 1 1
node 3 1 1 1
node 4 3 0 2
node 7 1 0 0
node 13 1 0 0
node 23 1 0 0
node 28 1 0 0
node 42 1 0 0
node 76 1 0 0
gene 1 1 4 0.64951 0 1 0.64951 1
gene 1 2 4 1.51967 0 2 1.51967 1
gene 2 3 4 -4.61989 0 3 -4.61989 0
gene 3 3 7 4.98988 0 8 4.98988 1
gene 3 7 4 0.685522 0 9 0.685522 1
gene 3 3 13 -1.43368 0 22 -1.43368 1
gene 3 13 4 -1.53523 0 23 -1.53523 1
gene 3 13 23 1.49709 0 56 1.49709 1
gene 3 23 4 1.0708 0 57 1.0708 1
gene 3 3 28 0.741752 0 73 0.741752 1
gene 3 28 13 1.68546 0 74 1.68546 1
gene 1 23 7 -1.21754 0 87 -1.21754 0
gene 1 23 42 2.50374 0 109 2.50374 1
gene 1 42 7 -5.48856 0 110 -5.48856 0
gene 2 13 7 -3.22336 0 188 -3.22336 1
gene 1 42 76 7.5998 0 229 7.5998 1
gene 1 76 7 -1.51135 0 230 -1.51135 1
genomeend 137

/* Organism #138 Fitness: 4.28289 Error: 1.93049 */
genomestart 138
trait 1 0.1 0 0 0 0 0.416028 0 0.35287 
trait 2 0.2 0.269921 0.25753 0.189383 0 0 0 0.0976745 
trait 3 0.36457 0.0953742 0 0 0 0.0304918 0 0 
node 1 3 1 3
node 2 2 1 1
node 3 1 1 1
node 4 3 0 2
node 7 1 0 0
node 13 1 0 0
node 23 1 0 0
node 28 1 0 0
node 42 1 0 0
node 76 1 0 0
gene 1 1 4 0.983268 0 1 0.983268 1
gene 1 2 4 3.29325 0 2 3.29325 1
gene 3 3 4 1.71522 0 3 1.71522 0
gene 3 3 7 6.91659 0 8 6.91659 1
gene 3 7 4 -2.09548 0 9 -2.09548 1
gene 3 3 13 -5.82034 0 22 -5.82034 1
gene 3 13 4 -1.22097 0 23 -1.22097 1
gene 3 13 23 -0.615101 0 56 -0.615101 1
gene 3 23 4 1.19251 0 57 1.19251 1
gene 3 3 28 -2.45926 0 73 -2.45926 1
gene 3 28 13 5.38522 0 74 5.38522 1
gene 1 23 7 -4.68215 0 87 -4.68215 0
gene 1 23 42 1.39927 0 109 1.39927 1
gene 1 42 7 -5.54067 0 110 -5.54067 0
gene 2 13 7 -1.20869 0 188 -1.20869 1
gene 1 42 76 3.43532 0 229 3.43532 1
gene 1 76 7 1.75756 0 230 1.75756 1
genomeend 138

/* Organism #139 Fitness: 8.99189 Error: 1.00135 */
genomestart 139
trait 1 0.1 0 0 0 0 0.416028 0 0.35287 
trait 2 0.2 0.269921 0.25753 0.189383 0 0 0 0.0976745 
trait 3 0.36457 0.0953742 0 0 0 0.0304918 0 0 
node 1 3 1 3
node 2 2 1 1
node 3 1 1 1
node 4 3 0 2
node 7 1 0 0
node 13 1 0 0
node 23 1 0 0
node 28 1 0 0
node 42 1 0 0
node 76 1 0 0
gene 1 1 4 -0.668928 0 1 -0.668928 1
gene 1 2 4 4.41443 0 2 4.41443 1
gene 3 3 4 -0.0331126 0 3 -0.0331126 0
gene 3 3 7 2.97291 0 8 2.97291 1
gene 3 7 4 -6.02542 0 9 -6.02542 1
gene 3 3 13 -3.36993 0 22 -3.36993 1
gene 3 13 4 -2.19947 0 23 -2.19947 1
gene 3 13 23 -0.193945 0 56 -0.193945 1
gene 3 23 4 1.87306 0 57 1.87306 1
gene 3 3 28 -0.344172 0 73 -0.344172 1
gene 3 28 13 1.42903 0 74 1.42903 1
gene 1 23 7 -3.76469 0 87 -3.76469 0
gene 1 23 42 5.7757 0 109 5.7757 1
gene 1 42 7 -4.44918 0 110 -4.44918 0
gene 2 13 7 -1.45184 0 188 -1.45184 1
gene 1 42 76 -0.859935 0 229 -0.859935 1
gene 1 76 7 -1.51135 0 230 -1.51135 1
gene 3 2 28 -0.85461 0 334 -0.85461 1
genomeend 139

/* Organism #140 Fitness: 3.99784 Error: 2.00054 */
genomestart 140
trait 1 0.1 0 0 0 0 0.416028 0 0.35287 
trait 2 0.2 0.269921 0.25753 0.189383 0 0 0 0.0976745 
trait 3 0.36457 0.0953742 0 0 0 0.0304918 0 0 
node 1 3 1 3
node 2 2 1 1
node 3 1 1 1
node 4 3 0 2
node 7 1 0 0
node 13 1 0 0
node 23 1 0 0
node 28 1 0 0
node 42 1 0 0
node 76 1 0 0
gene 1 1 4 1.35109 0 1 1.35109 1
gene 1 2 4 2.85661 0 2 2.85661 1
gene 3 3 4 -2.53624 0 3 -2.53624 0
gene 3 3 7 2.86075 0 8 2.86075 1
gene 3 7 4 -5.42573 0 9 -5.42573 1
gene 3 3 13 -2.22648 0 22 -2.22648 1
gene 3 13 4 0.280694 0 23 0.280694 1
gene 3 13 23 -0.714743 0 56 -0.714743 1
gene 3 23 4 3.75552 0 57 3.75552 1
gene 3 3 28 2.18818 0 73 2.18818 1
gene 3 28 13 1.51181 0 74 1.51181 1
gene 1 23 7 -5.2092 0 87 -5.2092 0
gene 1 23 42 1.43239 0 109 1.43239 1
gene 1 42 7 -5.51595 0 110 -5.51595 0
gene 2 13 7 -2.90292 0 188 -2.90292 1
gene 1 42 76 1.81623 0 229 1.81623 1
gene 1 76 7 -2.94145 0 230 -2.94145 1
gene 3 2 28 -0.85461 0 334 -0.85461 1
genomeend 140

/* Species #25 : (Size 7) (AF 8.99821) (Age 5)  */


/* Organism #141 Fitness: 9 Error: 1 */
genomestart 141
trait 1 0.1 0 0 0 0 0 0 0 
trait 2 0.2 0 0 0 0 0 0 0 
trait 3 0.633171 0 0 0 0 0 0.367046 0 
node 1 3 1 3
node 2 2 1 1
node 3 1 1 1
node 4 3 0 2
node 7 1 0 0
node 38 1 0 0
node 63 1 0 0
node 98 1 0 0
gene 1 1 4 -3.70304 0 1 -3.70304 1
gene 2 2 4 -7.21201 0 2 -7.21201 1
gene 3 3 4 8 0 3 8 1
gene 2 3 7 -6.17629 0 8 -6.17629 1
gene 3 7 4 -4.99077 0 9 -4.99077 1
gene 1 2 7 6.71583 0 41 6.71583 0
gene 1 2 38 -1.69164 0 100 -1.69164 1
gene 1 38 7 -6.13925 0 101 -6.13925 1
gene 1 1 7 1.31306 0 131 1.31306 1
gene 1 38 63 1.61434 0 186 1.61434 1
gene 1 63 7 -0.2813 0 187 -0.2813 1
gene 1 2 98 0.986724 0 291 0.986724 1
gene 1 98 7 5.33586 0 292 5.33586 1
gene 2 98 63 -1.84899 0 295 -1.84899 1
genomeend 141

/* Organism #142 Fitness: 8.98973 Error: 1.00171 */
genomestart 142
trait 1 0.1 0 0 0 0 0 0 0 
trait 2 0.2 0 0 0 0 0 0 0 
trait 3 0.633171 0 0 0 0 0 0.367046 0 
node 1 3 1 3
node 2 2 1 1
node 3 1 1 1
node 4 3 0 2
node 7 1 0 0
node 38 1 0 0
node 63 1 0 0
node 98 1 0 0
gene 1 1 4 -5.00999 0 1 -5.00999 1
gene 2 2 4 -5.59037 0 2 -5.59037 1
gene 3 3 4 6.30325 0 3 6.30325 1
gene 2 3 7 -6.29333 0 8 -6.29333 1
gene 3 7 4 -3.95501 0 9 -3.95501 1
gene 1 2 7 6.85595 0 41 6.85595 0
gene 1 2 38 -2.17605 0 100 -2.17605 1
gene 1 38 7 -6.6964 0 101 -6.6964 1
gene 1 1 7 3.22791 0 131 3.22791 1
gene 1 38 63 1.61201 0 186 1.61201 1
gene 1 63 7 -0.276569 0 187 -0.276569 1
gene 1 2 98 0.986724 0 291 0.986724 1
gene 1 98 7 4.34843 0 292 4.34843 1
gene 2 98 63 0.454291 0 295 0.454291 1
genomeend 142

/* Organism #143 Fitness: 9 Error: 1 */
genomestart 143
trait 1 0.1 0 0 0 0 0 0 0 
trait 2 0.2 0 0 0 0 0 0 0 
trait 3 0.633171 0 0 0 0 0 0.367046 0 
node 1 3 1 3
node 2 2 1 1
node 3 1 1 1
node 4 3 0 2
node 7 1 0 0
node 38 1 0 0
node 63 1 0 0
node 98 1 0 0
node 117 1 0 0
gene 1 1 4 -3.70304 0 1 -3.70304 1
gene 2 2 4 -7.8957 0 2 -7.8957 1
gene 3 3 4 8 0 3 8 1
gene 2 3 7 -6.17629 0 8 -6.17629 1
gene 3 7 4 -7.18039 0 9 -7.18039 1
gene 1 2 7 6.99606 0 41 6.99606 0
gene 1 2 38 -1.69164 0 100 -1.69164 1
gene 1 38 7 -3.07954 0 101 -3.07954 1
gene 1 1 7 1.41219 0 131 1.41219 1
gene 1 38 63 1.60968 0 186 1.60968 1
gene 1 63 7 -0.2813 0 187 -0.2813 1
gene 1 2 98 0.986724 0 291 0.986724 1
gene 1 98 7 5.33586 0 292 5.33586 1
gene 2 98 63 1.1491 0 295 1.1491 0
gene 2 98 117 1 0 352 0 1
gene 2 117 63 1.1491 0 353 0 1
genomeend 143

/* Organism #144 Fitness: 8.9979 Error: 1.00035 */
genomestart 144
trait 1 0.1 0 0 0 0 0 0 0 
trait 2 0.2 0 0 0 0 0 0 0 
trait 3 0.633171 0 0 0 0 0 0.367046 0 
node 1 3 1 3
node 2 2 1 1
node 3 1 1 1
node 4 3 0 2
node 7 1 0 0
node 38 1 0 0
node 63 1 0 0
node 98 1 0 0
gene 1 1 4 -1.61374 0 1 -1.61374 1
gene 2 2 4 -8 0 2 -8 1
gene 3 3 4 8 0 3 8 1
gene 2 3 7 -6.81199 0 8 -6.81199 1
gene 3 7 4 -8 0 9 -8 1
gene 1 2 7 4.93896 0 41 4.93896 0
gene 1 2 38 -3.82389 0 100 -3.82389 1
gene 1 38 7 -5.16944 0 101 -5.16944 1
gene 1 1 7 1.04558 0 131 1.04558 1
gene 1 38 63 3.41104 0 186 3.41104 1
gene 1 63 7 -2.32024 0 187 -2.32024 1
gene 1 2 98 3.06847 0 291 3.06847 1
gene 1 98 7 5.33586 0 292 5.33586 1
gene 2 98 63 -0.573366 0 295 -0.573366 1
genomeend 144

/* Organism #145 Fitness: 9 Error: 1 */
genomestart 145
trait 1 0.1 0 0 0 0 0 0 0 
trait 2 0.2 0 0 0 0 0 0 0 
trait 3 0.633171 0 0 0 0 0 0.367046 0 
node 1 3 1 3
node 2 2 1 1
node 3 1 1 1
node 4 3 0 2
node 7 1 0 0
node 38 1 0 0
node 63 1 0 0
node 98 1 0 0
gene 1 1 4 -3.70304 0 1 -3.70304 1
gene 2 2 4 -7.55386 0 2 -7.55386 1
gene 3 3 4 8 0 3 8 1
gene 2 3 7 -6.17629 0 8 -6.17629 1
gene 3 7 4 -6.08558 0 9 -6.08558 1
gene 1 2 7 6.85595 0 41 6.85595 0
gene 1 2 38 -1.69164 0 100 -1.69164 1
gene 1 38 7 -4.60939 0 101 -4.60939 1
gene 1 1 7 1.36262 0 131 1.36262 1
gene 1 38 63 1.61201 0 186 1.61201 1
gene 1 63 7 -0.2813 0 187 -0.2813 1
gene 1 2 98 0.986724 0 291 0.986724 1
gene 1 98 7 5.33586 0 292 5.33586 1
gene 2 98 63 -0.349948 0 295 -0.349948 1
genomeend 145

/* Organism #146 Fitness: 9 Error: 1 */
genomestart 146
trait 1 0.1 0 0 0 0 0 0 0 
trait 2 0 0 0 0 0 0.702261 0.870937 0 
trait 3 0.633171 0 0 0 0 0 0.367046 0 
node 1 3 1 3
node 2 2 1 1
node 3 1 1 1
node 4 3 0 2
node 7 1 0 0
node 38 1 0 0
node 63 1 0 0
node 98 1 0 0
gene 1 1 4 -3.99739 0 1 -3.99739 1
gene 2 2 4 -7.47844 0 2 -7.47844 1
gene 3 3 4 8 0 3 8 1
gene 2 3 7 -5.63238 0 8 -5.63238 1
gene 3 7 4 -6.17725 0 9 -6.17725 1
gene 1 2 7 7.78535 0 41 7.78535 0
gene 1 2 38 -4.06743 0 100 -4.06743 1
gene 1 38 7 -3.53129 0 101 -3.53129 1
gene 1 1 7 2.85998 0 131 2.85998 1
gene 1 38 63 0.267556 0 186 0.267556 1
gene 1 63 7 1.892 0 187 1.892 1
gene 1 2 98 2.28491 0 291 2.28491 1
gene 1 98 7 4.22163 0 292 4.22163 1
gene 2 98 63 0.382473 0 295 0.382473 1
genomeend 146

/* Organism #147 Fitness: 8.99985 Error: 1.00003 */
genomestart 147
trait 1 0.1 0 0 0 0 0 0 0 
trait 2 0.2 0 0 0 0 0 0 0 
trait 3 0.633171 0 0 0 0 0 0.367046 0 
node 1 3 1 3
node 2 2 1 1
node 3 1 1 1
node 4 3 0 2
node 7 1 0 0
node 38 1 0 0
node 63 1 0 0
node 98 1 0 0
gene 1 1 4 -4.63347 0 1 -4.63347 1
gene 2 2 4 -8 0 2 -8 1
gene 3 3 4 6.78079 0 3 6.78079 1
gene 2 3 7 -7.44007 0 8 -7.44007 1
gene 3 7 4 -4.81643 0 9 -4.81643 1
gene 1 2 7 6.15123 0 41 6.15123 0
gene 1 2 38 0.629749 0 100 0.629749 1
gene 1 38 7 -7.90894 0 101 -7.90894 1
gene 1 1 7 1.27293 0 131 1.27293 1
gene 1 38 63 2.83271 0 186 2.83271 1
gene 1 63 7 -0.613875 0 187 -0.613875 1
gene 1 2 98 -1.02582 0 291 -1.02582 1
gene 1 98 7 6.69439 0 292 6.69439 1
gene 2 98 63 -0.701621 0 295 -0.701621 1
genomeend 147

/* Species #26 : (Size 2) (AF 3.95759) (Age 4)  */


/* Organism #148 Fitness: 3.96525 Error: 2.00871 */
genomestart 148
trait 1 0.0811523 0 0.0733095 0 0 0.0485356 0 0.0116046 
trait 2 0.505267 0.234202 0.54145 0.015472 0.279286 0 0 0 
trait 3 0.384521 0 0 0 0.0463271 0.850215 0.386273 0 
node 1 2 1 3
node 2 2 1 1
node 3 3 1 1
node 4 2 0 2
node 115 1 0 0
gene 3 1 4 1.21494 0 1 1.21494 1
gene 3 2 4 -4.23513 0 2 -4.23513 1
gene 2 3 4 -0.366146 0 3 -0.366146 0
gene 2 3 115 1 0 345 0 1
gene 2 115 4 -0.366146 0 346 0 1
genomeend 148

/* Organism #149 Fitness: 3.94993 Error: 2.01256 */
genomestart 149
trait 1 0.0811523 0 0.0733095 0 0 0.0485356 0 0.0116046 
trait 2 0.505267 0.234202 0.54145 0.015472 0.279286 0 0 0 
trait 3 0.384521 0 0 0 0.0463271 0.850215 0.386273 0 
node 1 2 1 3
node 2 2 1 1
node 3 3 1 1
node 4 2 0 2
gene 3 1 4 1.21494 0 1 1.21494 1
gene 3 2 4 -4.23513 0 2 -4.23513 1
gene 2 3 4 -0.366146 0 3 -0.366146 1
genomeend 149
