
/* Species #1 : (Size 11) (AF 8.35774) (Age 27)  */


/* Organism #0 Fitness: 9 Error: 1 */
genomestart 0
trait 1 0.10993 0 0 0.00543277 0.0306272 0.0412706 0.00817705 0.00588292 
trait 2 0.484296 0.275861 0.469283 0.067364 0.0926912 0 0 0 
trait 3 0.258809 0 0.00064546 0.0063156 0.200647 0.00404996 0 0.264093 
node 1 3 1 3
node 2 3 1 1
node 3 1 1 1
node 4 1 0 2
node 16 1 0 0
gene 1 1 4 -8 0 1 -8 1
gene 2 2 4 8 0 2 8 1
gene 1 3 4 8 0 3 8 1
gene 1 3 16 8 0 29 8 1
gene 1 16 4 8 0 30 8 1
genomeend 0

/* Organism #1 Fitness: 9 Error: 1 */
genomestart 1
trait 1 0.108689 0 0 0.00475368 0.0267988 0.0361117 0.00715492 0.00514755 
trait 2 0.442509 0.241378 0.436959 0.0735704 0.0811048 0 0.0212685 0 
trait 3 0.256406 0 0.000564777 0.00552615 0.207562 0.00354371 0 0.269576 
node 1 3 1 3
node 2 2 1 1
node 3 1 1 1
node 4 1 0 2
node 16 1 0 0
gene 1 1 4 -8 0 1 -8 1
gene 3 2 4 8 0 2 8 1
gene 1 3 4 8 0 3 8 1
gene 1 3 16 8 0 29 8 1
gene 1 16 4 7.52971 0 30 7.52971 1
genomeend 1

/* Organism #2 Fitness: 6.7641 Error: 1.39921 */
genomestart 2
trait 1 0.107448 0 0 0.00407458 0.0229704 0.0309529 0.00613279 0.00441219 
trait 2 0.400722 0.206896 0.404635 0.0797769 0.0695184 0 0.0425371 0 
trait 3 0.254002 0 0.000484095 0.0047367 0.214476 0.00303747 0 0.275058 
node 1 3 1 3
node 2 2 1 1
node 3 1 1 1
node 4 1 0 2
node 16 1 0 0
gene 1 1 4 -8 0 1 -8 1
gene 2 2 4 8 0 2 8 1
gene 1 3 4 5.8058 0 3 5.8058 1
gene 1 3 16 3.42611 0 29 3.42611 1
gene 1 16 4 7.84954 0 30 7.84954 1
gene 1 1 16 -0.92169 0 206 -0.92169 1
genomeend 2

/* Organism #3 Fitness: 8.99994 Error: 1.00001 */
genomestart 3
trait 1 0.107448 0 0 0.00407458 0.0229704 0.0309529 0.00613279 0.00441219 
trait 2 0.400722 0.206896 0.404635 0.0797769 0.0695184 0 0.0425371 0 
trait 3 0.254002 0 0.000484095 0.0047367 0.214476 0.00303747 0 0.275058 
node 1 3 1 3
node 2 2 1 1
node 3 1 1 1
node 4 1 0 2
node 16 1 0 0
gene 1 1 4 -6.35788 0 1 -6.35788 1
gene 2 2 4 5.55333 0 2 5.55333 1
gene 1 3 4 7.35476 0 3 7.35476 1
gene 1 3 16 5.23647 0 29 5.23647 1
gene 1 16 4 8 0 30 8 1
genomeend 3

/* Organism #4 Fitness: 8.99999 Error: 1 */
genomestart 4
trait 1 0.108689 0 0 0.00475368 0.0267988 0.0361117 0.00715492 0.00514755 
trait 2 0.442509 0.241378 0.436959 0.0735704 0.0811048 0 0.0212685 0 
trait 3 0.256406 0 0.000564777 0.00552615 0.207562 0.00354371 0 0.269576 
node 1 3 1 3
node 2 3 1 1
node 3 1 1 1
node 4 1 0 2
node 16 1 0 0
gene 1 1 4 -5.903 0 1 -5.903 1
gene 2 2 4 8 0 2 8 1
gene 1 3 4 8 0 3 8 1
gene 1 3 16 5.51717 0 29 5.51717 1
gene 1 16 4 6.51161 0 30 6.51161 1
genomeend 4

/* Organism #5 Fitness: 8.99977 Error: 1.00004 */
genomestart 5
trait 1 0.107448 0 0 0.00407458 0.0229704 0.0309529 0.00613279 0.00441219 
trait 2 0.400722 0.206896 0.404635 0 0.884973 0 0.0425371 0 
trait 3 0.254002 0 0.000484095 0.0047367 0.214476 0.00303747 0 0.275058 
node 1 3 1 3
node 2 2 1 1
node 3 1 1 1
node 4 1 0 2
node 16 1 0 0
gene 1 1 4 -6.61759 0 1 -6.61759 1
gene 2 2 4 6.28288 0 2 6.28288 1
gene 1 3 4 7.98856 0 3 7.98856 1
gene 1 3 16 6.4891 0 29 6.4891 1
gene 1 16 4 4.79449 0 30 4.79449 1
genomeend 5

/* Organism #6 Fitness: 4.17716 Error: 1.95619 */
genomestart 6
trait 1 0.108689 0 0 0.00475368 0.0267988 0.0361117 0.00715492 0.00514755 
trait 2 0.442509 0.241378 0.436959 0.0735704 0.0811048 0 0.0212685 0 
trait 3 0.256406 0 0.000564777 0.00552615 0.207562 0.00354371 0 0.269576 
node 1 3 1 3
node 2 2 1 1
node 3 1 1 1
node 4 1 0 2
node 16 1 0 0
gene 1 1 4 -6.71857 0 1 -6.71857 1
gene 2 2 4 2.23876 0 2 2.23876 1
gene 1 3 4 8 0 3 8 1
gene 1 3 16 6.75858 0 29 6.75858 1
gene 1 16 4 7.7074 0 30 7.7074 1
genomeend 6

/* Organism #7 Fitness: 8.99595 Error: 1.00068 */
genomestart 7
trait 1 0.107448 0 0 0.00407458 0.0229704 0.0309529 0.00613279 0.00441219 
trait 2 0.400722 0.206896 0.404635 0.0797769 0.0695184 0 0.0425371 0 
trait 3 0.254002 0 0.000484095 0.0047367 0.214476 0.00303747 0 0.275058 
node 1 3 1 3
node 2 2 1 1
node 3 1 1 1
node 4 1 0 2
node 16 1 0 0
gene 1 1 4 -8 0 1 -8 1
gene 2 2 4 6.4505 0 2 6.4505 1
gene 1 3 4 6.87814 0 3 6.87814 1
gene 1 3 16 8 0 29 8 1
gene 1 16 4 6.06345 0 30 6.06345 1
genomeend 7

/* Organism #8 Fitness: 9 Error: 1 */
genomestart 8
trait 1 0.108689 0 0 0.00475368 0.0267988 0.0361117 0.00715492 0.00514755 
trait 2 0.442509 0.241378 0.436959 0.0735704 0.0811048 0 0.0212685 0 
trait 3 0.256406 0 0.000564777 0.00552615 0.207562 0.00354371 0 0.269576 
node 1 3 1 3
node 2 3 1 1
node 3 1 1 1
node 4 1 0 2
node 16 1 0 0
gene 1 1 4 -6.98755 0 1 -6.98755 1
gene 2 2 4 8 0 2 8 1
gene 1 3 4 8 0 3 8 1
gene 1 3 16 6.74393 0 29 6.74393 1
gene 1 16 4 8 0 30 8 1
genomeend 8

/* Organism #9 Fitness: 8.99999 Error: 1 */
genomestart 9
trait 1 0.108689 0 0 0.00475368 0.0267988 0.0361117 0.00715492 0.00514755 
trait 2 0.442509 0.241378 0.436959 0.0735704 0.0811048 0 0.0212685 0 
trait 3 0.256406 0 0.000564777 0.00552615 0.207562 0.00354371 0 0.269576 
node 1 3 1 3
node 2 2 1 1
node 3 1 1 1
node 4 1 0 2
node 16 1 0 0
gene 1 1 4 -5.903 0 1 -5.903 1
gene 2 2 4 8 0 2 8 1
gene 1 3 4 8 0 3 8 1
gene 1 3 16 5.51717 0 29 5.51717 1
gene 1 16 4 6.51161 0 30 6.51161 1
genomeend 9

/* Organism #10 Fitness: 8.99824 Error: 1.00029 */
genomestart 10
trait 1 0.119861 0 0 0.0108655 0.0612545 0.0825411 0.0163541 0.0117658 
trait 2 0.498574 0.00898047 0.165052 0.0177123 0.0652004 0 0.126703 0.148573 
trait 3 0.278035 0 0.00129092 0.0126312 0.14533 0.00809991 0 0.220236 
node 1 1 1 3
node 2 3 1 1
node 3 1 1 1
node 4 1 0 2
gene 3 1 4 -4.19761 0 1 -4.19761 1
gene 3 2 4 5.84938 0 2 5.84938 1
gene 1 3 4 7.07315 0 3 7.07315 1
genomeend 10

/* Species #2 : (Size 9) (AF 6.8453) (Age 24)  */


/* Organism #11 Fitness: 9.09298 Error: 0.984543 */
genomestart 11
trait 1 0.05 0.270379 0 0 0 0 0 0.237037 
trait 2 0.2 0 0 0 0 0 0 0 
trait 3 0.350729 0 0 0 0.0715011 0.0227554 0 0 
node 1 3 1 3
node 2 1 1 1
node 3 1 1 1
node 4 1 0 2
node 10 1 0 0
gene 1 1 4 1.02367 0 1 1.02367 1
gene 2 2 4 -0.376997 0 2 -0.376997 1
gene 2 3 4 2.3484 0 3 2.3484 1
gene 3 2 10 -0.552438 0 14 -0.552438 1
gene 2 10 4 -3.66425 0 15 -3.66425 1
gene 2 3 10 1.35629 0 60 1.35629 1
genomeend 11

/* Organism #12 Fitness: 3.95651 Error: 2.0109 */
genomestart 12
trait 1 0.05 0.270379 0 0 0 0 0 0.237037 
trait 2 0.2 0 0 0 0 0 0 0 
trait 3 0.350729 0 0 0 0.0715011 0.644784 0 0 
node 1 3 1 3
node 2 1 1 1
node 3 1 1 1
node 4 1 0 2
node 10 1 0 0
gene 1 1 4 0.450911 0 1 0.450911 1
gene 2 2 4 -2.66421 0 2 -2.66421 1
gene 2 3 4 -0.0579852 0 3 -0.0579852 1
gene 3 2 10 -0.397862 0 14 -0.397862 1
gene 2 10 4 -2.73214 0 15 -2.73214 1
gene 2 3 10 1.16929 0 60 1.16929 1
genomeend 12

/* Organism #13 Fitness: 6.86727 Error: 1.37945 */
genomestart 13
trait 1 0.05 0.270379 0 0 0 0 0 0.237037 
trait 2 0.2 0 0 0 0 0 0 0 
trait 3 0.350729 0 0 0 0.0715011 0.0227554 0 0 
node 1 3 1 3
node 2 1 1 1
node 3 1 1 1
node 4 1 0 2
node 10 1 0 0
gene 1 1 4 1.02367 0 1 1.02367 1
gene 2 2 4 -4.59244 0 2 -4.59244 1
gene 2 3 4 6.81013 0 3 6.81013 1
gene 3 2 10 -2.81462 0 14 -2.81462 1
gene 2 10 4 -7.73389 0 15 -7.73389 1
gene 2 3 10 6.84397 0 60 6.84397 1
gene 3 1 10 -0.0663167 0 207 -0.0663167 1
genomeend 13

/* Organism #14 Fitness: 4.42601 Error: 1.89619 */
genomestart 14
trait 1 0.05 0.270379 0 0 0 0 0 0.237037 
trait 2 0.2 0 0 0 0 0 0 0 
trait 3 0.350729 0 0 0 0.0715011 0.0227554 0 0 
node 1 3 1 3
node 2 1 1 1
node 3 1 1 1
node 4 1 0 2
node 10 1 0 0
gene 1 1 4 2.56096 0 1 2.56096 1
gene 2 2 4 -4.57318 0 2 -4.57318 1
gene 2 3 4 4.90688 0 3 4.90688 1
gene 3 2 10 -1.11192 0 14 -1.11192 1
gene 2 10 4 -4.25166 0 15 -4.25166 1
gene 2 3 10 6.39642 0 60 6.39642 1
genomeend 14

/* Organism #15 Fitness: 8.91407 Error: 1.01436 */
/* ##------$ WINNER 15 SPECIES #2 $------## */
genomestart 15
trait 1 0.05 0.270379 0 0 0 0 0 0.237037 
trait 2 0.2 0 0 0 0 0 0 0 
trait 3 0.350729 0 0 0 0.0715011 0.0227554 0 0 
node 1 3 1 3
node 2 1 1 1
node 3 1 1 1
node 4 1 0 2
node 10 1 0 0
gene 1 1 4 1.02367 0 1 1.02367 1
gene 2 2 4 -0.376997 0 2 -0.376997 1
gene 2 3 4 6.81013 0 3 6.81013 1
gene 3 2 10 -0.552438 0 14 -0.552438 1
gene 2 10 4 -7.73389 0 15 -7.73389 1
gene 2 3 10 1.35629 0 60 1.35629 1
genomeend 15

/* Organism #16 Fitness: 4.11827 Error: 1.97065 */
genomestart 16
trait 1 0.05 0.270379 0 0 0 0 0 0.237037 
trait 2 0.2 0 0 0 0 0 0 0 
trait 3 0.350729 0 0 0 0.0715011 0.0227554 0 0 
node 1 3 1 3
node 2 1 1 1
node 3 1 1 1
node 4 1 0 2
node 10 1 0 0
gene 1 1 4 0.277032 0 1 0.277032 1
gene 2 2 4 1.74709 0 2 1.74709 1
gene 2 3 4 6.94136 0 3 6.94136 1
gene 3 2 10 -1.43763 0 14 -1.43763 1
gene 2 10 4 -8 0 15 -8 1
gene 2 3 10 7.11338 0 60 7.11338 1
genomeend 16

/* Organism #17 Fitness: 7.31586 Error: 1.29522 */
genomestart 17
trait 1 0.05 0.270379 0 0 0 0 0 0.237037 
trait 2 0.2 0 0 0 0 0 0 0 
trait 3 0.350729 0 0 0 0.0715011 0.0227554 0 0 
node 1 3 1 3
node 2 1 1 1
node 3 1 1 1
node 4 1 0 2
node 10 1 0 0
gene 1 1 4 1.01062 0 1 1.01062 1
gene 2 2 4 -0.590457 0 2 -0.590457 1
gene 2 3 4 0.527894 0 3 0.527894 1
gene 3 2 10 -0.552438 0 14 -0.552438 1
gene 2 10 4 -3.66425 0 15 -3.66425 1
gene 2 3 10 2.26086 0 60 2.26086 1
genomeend 17

/* Organism #18 Fitness: 8.76302 Error: 1.03976 */
genomestart 18
trait 1 0.05 0.270379 0 0 0 0 0 0.237037 
trait 2 0.2 0 0 0 0 0 0 0 
trait 3 0.350729 0 0 0 0.0715011 0.0227554 0 0 
node 1 3 1 3
node 2 1 1 1
node 3 1 1 1
node 4 1 0 2
node 10 1 0 0
gene 1 1 4 1.02367 0 1 1.02367 1
gene 2 2 4 -0.376997 0 2 -0.376997 1
gene 2 3 4 2.3484 0 3 2.3484 1
gene 3 2 10 -2.81462 0 14 -2.81462 1
gene 2 10 4 -7.73389 0 15 -7.73389 1
gene 2 3 10 6.84397 0 60 6.84397 1
genomeend 18

/* Organism #19 Fitness: 8.15373 Error: 1.14453 */
genomestart 19
trait 1 0.05 0.270379 0 0 0 0 0 0.237037 
trait 2 0.2 0 0 0 0 0 0 0 
trait 3 0.350729 0 0 0 0.0715011 0.0227554 0 0 
node 1 3 1 3
node 2 1 1 1
node 3 1 1 1
node 4 1 0 2
node 10 1 0 0
gene 1 1 4 1.47191 0 1 1.47191 1
gene 2 2 4 -2.48472 0 2 -2.48472 1
gene 2 3 4 4.57926 0 3 4.57926 1
gene 3 2 10 -1.68353 0 14 -1.68353 1
gene 2 10 4 -5.69907 0 15 -5.69907 1
gene 2 3 10 4.10013 0 60 4.10013 1
genomeend 19

/* Species #4 : (Size 15) (AF 7.98169) (Age 20)  */


/* Organism #20 Fitness: 9 Error: 1 */
genomestart 20
trait 1 1 0 0 0.0907659 0.592486 0 0.577166 0.181818 
trait 2 0.181974 0.00915937 0.255484 0.0292539 0 0 0.0425371 0 
trait 3 0.26375 0 0 0 0.153579 0 0 0.184771 
node 1 3 1 3
node 2 1 1 1
node 3 1 1 1
node 4 3 0 2
node 19 3 0 0
gene 3 1 4 -8 0 1 -8 1
gene 2 2 4 7.98629 0 2 7.98629 1
gene 1 3 4 5.6933 0 3 5.6933 1
gene 1 3 19 4.88114 0 36 4.88114 1
gene 1 19 4 7.70588 0 37 7.70588 1
genomeend 20

/* Organism #21 Fitness: 8.99472 Error: 1.00088 */
genomestart 21
trait 1 0.335472 0 0 0.0434622 0 0 0.0331736 0.182018 
trait 2 0.181974 0.00915937 0.255484 0.0292539 0 0 0.0425371 0 
trait 3 0.26375 0 0 0 0.153579 0 0 0.184771 
node 1 3 1 3
node 2 1 1 1
node 3 1 1 1
node 4 3 0 2
node 19 1 0 0
gene 3 1 4 -7.9236 0 1 -7.9236 1
gene 2 2 4 7.28671 0 2 7.28671 1
gene 1 3 4 1.35205 0 3 1.35205 1
gene 1 3 19 3.13449 0 36 3.13449 1
gene 1 19 4 8 0 37 8 1
gene 3 2 19 0.0796686 0 193 0.0796686 1
genomeend 21

/* Organism #22 Fitness: 6.85374 Error: 1.38204 */
genomestart 22
trait 1 0.667736 0 0 0.067114 0.296243 0 0.30517 0.181918 
trait 2 0.181974 0.00915937 0.255484 0.0292539 0 0 0.0425371 0 
trait 3 0.26375 0 0 0 0.153579 0 0 0.184771 
node 1 3 1 3
node 2 1 1 1
node 3 1 1 1
node 4 3 0 2
node 19 3 0 0
gene 3 1 4 -8 0 1 -8 1
gene 2 2 4 8 0 2 8 1
gene 1 3 4 -1.7465 0 3 -1.7465 1
gene 1 3 19 4.88206 0 36 4.88206 1
gene 1 19 4 0.196158 0 37 0.196158 1
genomeend 22

/* Organism #23 Fitness: 9 Error: 1 */
genomestart 23
trait 1 0.335472 0 0 0.0434622 0 0 0.0331736 0.182018 
trait 2 0.181974 0.00915937 0.255484 0.0292539 0 0 0.0425371 0 
trait 3 0.26375 0 0 0 0.153579 0 0 0.184771 
node 1 3 1 3
node 2 1 1 1
node 3 1 1 1
node 4 3 0 2
node 19 1 0 0
gene 3 1 4 -7.1443 0 1 -7.1443 1
gene 2 2 4 8 0 2 8 1
gene 1 3 4 3.20135 0 3 3.20135 1
gene 1 3 19 5.08657 0 36 5.08657 1
gene 1 19 4 6.86143 0 37 6.86143 1
gene 3 2 19 0.104465 0 193 0 1
genomeend 23

/* Organism #24 Fitness: 5.89729 Error: 1.57157 */
genomestart 24
trait 1 0.335472 0 0 0.0434622 0 0 0.0331736 0.182018 
trait 2 0.181974 0.00915937 0.255484 0.0292539 0 0 0.0425371 0 
trait 3 0.26375 0 0 0 0.153579 0 0 0.184771 
node 1 3 1 3
node 2 1 1 1
node 3 1 1 1
node 4 3 0 2
node 19 1 0 0
gene 3 1 4 -8 0 1 -8 1
gene 2 2 4 8 0 2 8 1
gene 1 3 4 1.64956 0 3 1.64956 1
gene 1 3 19 4.08404 0 36 4.08404 1
gene 1 19 4 6.86143 0 37 6.86143 1
gene 3 2 19 -1.60244 0 193 -1.60244 1
genomeend 24

/* Organism #25 Fitness: 4 Error: 2 */
genomestart 25
trait 1 0.667736 0 0 0.067114 0.296243 0 0.30517 0.181918 
trait 2 0.181974 0.00915937 0.255484 0.0292539 0 0 0.0425371 0 
trait 3 0.26375 0 0 0 0.153579 0 0 0.184771 
node 1 3 1 3
node 2 1 1 1
node 3 1 1 1
node 4 3 0 2
node 19 1 0 0
gene 3 1 4 0.581072 0 1 0.581072 1
gene 2 2 4 7.29182 0 2 7.29182 1
gene 1 3 4 4.83085 0 3 4.83085 1
gene 1 3 19 1.74017 0 36 1.74017 1
gene 1 19 4 6.95299 0 37 6.95299 1
genomeend 25

/* Organism #26 Fitness: 4 Error: 2 */
genomestart 26
trait 1 0.667736 0 0 0.067114 0.296243 0 0.30517 0.181918 
trait 2 0.181974 0.00915937 0.255484 0.0292539 0 0 0.0425371 0 
trait 3 0.26375 0 0 0 0.153579 0 0 0.184771 
node 1 3 1 3
node 2 1 1 1
node 3 1 1 1
node 4 3 0 2
node 19 1 0 0
gene 3 1 4 1.01039 0 1 1.01039 1
gene 2 2 4 2.49252 0 2 2.49252 1
gene 1 3 4 -1.61184 0 3 -1.61184 1
gene 1 3 19 5.35231 0 36 5.35231 1
gene 1 19 4 7.434 0 37 7.434 1
genomeend 26

/* Organism #27 Fitness: 8.99999 Error: 1 */
genomestart 27
trait 1 0.335472 0 0 0.0434622 0 0 0.0331736 0.182018 
trait 2 0.181974 0.00915937 0.255484 0.0292539 0 0 0.0425371 0 
trait 3 0.26375 0 0 0 0.153579 0 0 0.184771 
node 1 3 1 3
node 2 1 1 1
node 3 1 1 1
node 4 3 0 2
node 19 1 0 0
gene 3 1 4 -6.79761 0 1 -6.79761 1
gene 2 2 4 8 0 2 8 1
gene 1 3 4 1.98607 0 3 1.98607 1
gene 1 3 19 5.08657 0 36 5.08657 1
gene 1 19 4 8 0 37 8 1
gene 3 2 19 0.104465 0 193 0 1
genomeend 27

/* Organism #28 Fitness: 8.9804 Error: 1.00327 */
genomestart 28
trait 1 0.667736 0 0 0.067114 0.296243 0 0.30517 0.181918 
trait 2 0.181974 0.00915937 0.255484 0.0292539 0 0 0.0425371 0 
trait 3 0.26375 0 0 0 0.153579 0 0 0.184771 
node 1 3 1 3
node 2 1 1 1
node 3 1 1 1
node 4 3 0 2
node 19 3 0 0
gene 3 1 4 -6.39803 0 1 -6.39803 1
gene 2 2 4 6.56007 0 2 6.56007 1
gene 1 3 4 -1.32397 0 3 -1.32397 1
gene 1 3 19 -2.15072 0 36 -2.15072 1
gene 1 19 4 7.23467 0 37 7.23467 1
genomeend 28

/* Organism #29 Fitness: 8.99986 Error: 1.00002 */
genomestart 29
trait 1 0.335472 0 0 0.0434622 0 0 0.0331736 0.182018 
trait 2 0.181974 0.00915937 0.255484 0.0292539 0 0 0.0425371 0 
trait 3 0.26375 0 0 0 0.153579 0 0 0.184771 
node 1 3 1 3
node 2 1 1 1
node 3 1 1 1
node 4 3 0 2
node 19 1 0 0
gene 3 1 4 -5.80874 0 1 -5.80874 1
gene 2 2 4 8 0 2 8 1
gene 1 3 4 5.13943 0 3 5.13943 1
gene 1 3 19 5.08657 0 36 5.08657 1
gene 1 19 4 6.47446 0 37 6.47446 1
gene 3 2 19 -1.38224 0 193 -1.38224 1
genomeend 29

/* Organism #30 Fitness: 8.99999 Error: 1 */
genomestart 30
trait 1 0.335472 0 0 0.0434622 0 0 0.0331736 0.182018 
trait 2 0.181974 0.00915937 0.876749 0.0292539 0.143773 0.0636311 0.0425371 0.100864 
trait 3 0.26375 0 0 0 0.153579 0 0 0.184771 
node 1 3 1 3
node 2 1 1 1
node 3 1 1 1
node 4 3 0 2
node 19 1 0 0
gene 3 1 4 -6.79761 0 1 -6.79761 1
gene 2 2 4 8 0 2 8 1
gene 1 3 4 1.98607 0 3 1.98607 1
gene 1 3 19 3.86846 0 36 3.86846 1
gene 1 19 4 8 0 37 8 1
gene 3 2 19 0.104465 0 193 0 1
genomeend 30

/* Organism #31 Fitness: 8.99997 Error: 1 */
genomestart 31
trait 1 0.119861 0 0 0.0108655 0.0612545 0.0825411 0.0163541 0.0117658 
trait 2 0.498574 0.00898047 0.165052 0.0177123 0.0652004 0 0.126703 0.148573 
trait 3 0.278035 0 0.00129092 0.0126312 0.14533 0.00809991 0 0.220236 
node 1 1 1 3
node 2 3 1 1
node 3 1 1 1
node 4 1 0 2
gene 3 1 4 -2.49376 0 1 -2.49376 1
gene 3 2 4 7.33517 0 2 7.33517 1
gene 1 3 4 6.5139 0 3 6.5139 1
genomeend 31

/* Organism #32 Fitness: 8.99997 Error: 1 */
genomestart 32
trait 1 0.119861 0 0 0.0108655 0.0612545 0.0825411 0.0163541 0.0117658 
trait 2 0.498574 0.00898047 0.165052 0.0177123 0.0652004 0 0.126703 0.148573 
trait 3 0.278035 0 0.00129092 0.0126312 0.14533 0.00809991 0 0.220236 
node 1 2 1 3
node 2 3 1 1
node 3 1 1 1
node 4 1 0 2
gene 3 1 4 -2.49376 0 1 -2.49376 1
gene 1 2 4 7.33517 0 2 7.33517 1
gene 1 3 4 6.5139 0 3 6.5139 1
genomeend 32

/* Organism #33 Fitness: 8.99997 Error: 1 */
genomestart 33
trait 1 0.119861 0 0 0.0108655 0.0612545 0.0825411 0.0163541 0.0117658 
trait 2 0.498574 0.00898047 0.165052 0.0177123 0.0652004 0 0.126703 0.148573 
trait 3 0.278035 0 0.00129092 0.0126312 0.14533 0.00809991 0 0.220236 
node 1 1 1 3
node 2 3 1 1
node 3 1 1 1
node 4 1 0 2
gene 3 1 4 -2.49376 0 1 -2.49376 1
gene 1 2 4 7.33517 0 2 7.33517 1
gene 1 3 4 6.5139 0 3 6.5139 1
genomeend 33

/* Organism #34 Fitness: 8.9995 Error: 1.00008 */
genomestart 34
trait 1 0.119861 0 0 0.0108655 0.0612545 0.0825411 0.0163541 0.0117658 
trait 2 0.498574 0.00898047 0.165052 0.0177123 0.0652004 0 0.126703 0.148573 
trait 3 0.278035 0 0.00129092 0.0126312 0.14533 0.00809991 0 0.220236 
node 1 1 1 3
node 2 3 1 1
node 3 1 1 1
node 4 1 0 2
gene 3 1 4 -3.20713 0 1 -3.20713 1
gene 3 2 4 7.29077 0 2 7.29077 1
gene 1 3 4 5.11348 0 3 5.11348 1
genomeend 34

/* Species #5 : (Size 7) (AF 4.24946) (Age 19)  */


/* Organism #35 Fitness: 5.75934 Error: 1.60014 */
genomestart 35
trait 1 0.0276855 0.309743 0 0.0650593 0.0156555 0 0.236272 0.397665 
trait 2 0.2 0 0 0 0 0 0 0 
trait 3 0.429744 0.240013 0.421649 0.0947218 0.489458 0.404251 0 0 
node 1 3 1 3
node 2 1 1 1
node 3 1 1 1
node 4 1 0 2
node 10 1 0 0
node 44 1 0 0
gene 1 1 4 0.685446 0 1 0.685446 1
gene 2 2 4 1.17473 0 2 1.17473 0
gene 2 3 4 -3.33446 0 3 -3.33446 1
gene 3 2 10 -1.04671 0 14 -1.04671 0
gene 2 10 4 -1.03298 0 15 -1.03298 1
gene 1 1 10 0.994598 0 46 0.994598 1
gene 2 2 44 1.99849 0 106 1.99849 1
gene 2 44 10 -0.928297 0 107 -0.928297 1
genomeend 35

/* Organism #36 Fitness: 4 Error: 2 */
genomestart 36
trait 1 0.0276855 0.309743 0 0.0650593 0.0156555 0 0.236272 0.397665 
trait 2 0.2 0 0 0 0 0 0 0 
trait 3 0.429744 0.240013 0.421649 0.0947218 0.489458 0.404251 0 0 
node 1 3 1 3
node 2 1 1 1
node 3 1 1 1
node 4 1 0 2
node 10 1 0 0
node 44 1 0 0
gene 1 1 4 3.20505 0 1 3.20505 1
gene 2 2 4 0.804731 0 2 0.804731 0
gene 2 3 4 -3.28761 0 3 -3.28761 0
gene 3 2 10 -2.47124 0 14 -2.47124 0
gene 2 10 4 -0.974227 0 15 -0.974227 1
gene 1 1 10 1.40828 0 46 1.40828 1
gene 2 2 44 0.879452 0 106 0.879452 1
gene 2 44 10 -4.82055 0 107 -4.82055 1
genomeend 36

/* Organism #37 Fitness: 4 Error: 2 */
genomestart 37
trait 1 0.0276855 0.309743 0 0.0650593 0.0156555 0 0.236272 0.397665 
trait 2 0.2 0 0 0 0 0 0 0 
trait 3 0.429744 0.240013 0.421649 0.0947218 0.489458 0.404251 0 0 
node 1 3 1 3
node 2 1 1 1
node 3 1 1 1
node 4 1 0 2
node 10 1 0 0
node 44 1 0 0
gene 1 1 4 0.953398 0 1 0.953398 1
gene 2 2 4 2.49317 0 2 2.49317 0
gene 2 3 4 -5.10614 0 3 -5.10614 0
gene 3 2 10 -0.388424 0 14 -0.388424 0
gene 2 10 4 0.273904 0 15 0.273904 1
gene 1 1 10 2.43492 0 46 2.43492 1
gene 2 2 44 2.84935 0 106 2.84935 1
gene 2 44 10 -3.19903 0 107 -3.19903 1
genomeend 37

/* Organism #38 Fitness: 4 Error: 2 */
genomestart 38
trait 1 0.0276855 0.309743 0 0.0650593 0.0156555 0 0.236272 0.397665 
trait 2 0.2 0 0 0 0 0 0 0 
trait 3 0.429744 0.240013 0.421649 0.0947218 0.489458 0.404251 0 0 
node 1 3 1 3
node 2 1 1 1
node 3 1 1 1
node 4 1 0 2
node 10 1 0 0
node 44 1 0 0
gene 1 1 4 0.273942 0 1 0.273942 1
gene 2 2 4 0.221599 0 2 0.221599 0
gene 2 3 4 -5.40644 0 3 -5.40644 0
gene 3 2 10 -0.276574 0 14 -0.276574 0
gene 2 10 4 -0.264367 0 15 -0.264367 1
gene 1 1 10 4.50476 0 46 4.50476 1
gene 2 2 44 1.40574 0 106 1.40574 1
gene 2 44 10 -4.8442 0 107 -4.8442 1
genomeend 38

/* Organism #39 Fitness: 3.99606 Error: 2.00099 */
genomestart 39
trait 1 0.0276855 0.309743 0 0.0650593 0.0156555 0 0.236272 0.397665 
trait 2 0.2 0 0 0 0 0 0 0 
trait 3 0.429744 0.240013 0.421649 0.0947218 0.489458 0.404251 0 0 
node 1 3 1 3
node 2 1 1 1
node 3 1 1 1
node 4 1 0 2
node 10 1 0 0
node 44 1 0 0
gene 1 1 4 1.05367 0 1 1.05367 1
gene 2 2 4 -0.396571 0 2 -0.396571 0
gene 2 3 4 -4.23186 0 3 -4.23186 1
gene 3 2 10 -0.91052 0 14 -0.91052 0
gene 2 10 4 0.0450911 0 15 0.0450911 1
gene 1 1 10 2.27817 0 46 2.27817 1
gene 2 2 44 0.694166 0 106 0.694166 1
gene 2 44 10 -3.72017 0 107 -3.72017 1
genomeend 39

/* Organism #40 Fitness: 4 Error: 2 */
genomestart 40
trait 1 0.0276855 0.309743 0 0.0650593 0.0156555 0 0.236272 0.397665 
trait 2 0.2 0 0 0 0 0 0 0 
trait 3 0.429744 0.240013 0.421649 0.0947218 0.489458 0.404251 0 0 
node 1 3 1 3
node 2 1 1 1
node 3 1 1 1
node 4 1 0 2
node 10 1 0 0
node 44 1 0 0
gene 1 1 4 1.05367 0 1 1.05367 1
gene 2 2 4 -0.396571 0 2 -0.396571 0
gene 2 3 4 -4.23186 0 3 -4.23186 0
gene 3 2 10 -0.91052 0 14 -0.91052 0
gene 2 10 4 0.0450911 0 15 0.0450911 1
gene 1 1 10 2.27817 0 46 2.27817 1
gene 2 2 44 0.694166 0 106 0.694166 1
gene 2 44 10 -3.72017 0 107 -3.72017 1
genomeend 40

/* Organism #41 Fitness: 3.99083 Error: 2.00229 */
genomestart 41
trait 1 0.0276855 0.309743 0 0.0650593 0.0156555 0 0.236272 0.397665 
trait 2 0.2 0 0 0 0 0 0 0 
trait 3 0.429744 0.240013 0.421649 0.0947218 0.489458 0.404251 0 0 
node 1 3 1 3
node 2 1 1 1
node 3 1 1 1
node 4 1 0 2
node 10 1 0 0
node 44 1 0 0
node 66 1 0 0
gene 1 1 4 0.927381 0 1 0.927381 1
gene 2 2 4 2.84245 0 2 2.84245 0
gene 2 3 4 -3.24603 0 3 -3.24603 0
gene 3 2 10 -4.31433 0 14 -4.31433 0
gene 2 10 4 0.602359 0 15 0.602359 1
gene 1 1 10 4.57877 0 46 4.57877 1
gene 2 2 44 2.83569 0 106 2.83569 1
gene 2 44 10 -3.47125 0 107 -3.47125 1
gene 2 3 66 -0.171377 0 188 -0.171377 1
gene 2 66 4 -2.71081 0 189 -2.71081 1
genomeend 41

/* Species #7 : (Size 13) (AF 8.07406) (Age 17)  */


/* Organism #42 Fitness: 9 Error: 1 */
genomestart 42
trait 1 0.0549652 0 0 0.00543277 0 0.0582446 0.385552 0.00294146 
trait 2 0.191168 0.0939999 0.0451037 0.207395 0 0 0.117044 0 
trait 3 0.298577 0 0.00114748 0.0124516 0.0847882 0.00656196 0 0.153136 
node 1 3 1 3
node 2 1 1 1
node 3 1 1 1
node 4 3 0 2
node 29 1 0 0
gene 1 1 4 0.351005 0 1 0.351005 1
gene 2 2 4 8 0 2 8 1
gene 3 3 4 -8 0 3 -8 1
gene 3 3 29 4.96359 0 64 4.96359 1
gene 3 29 4 -8 0 65 -8 1
gene 3 2 29 -4.00176 0 118 -4.00176 1
gene 2 1 29 1.35556 0 173 1.35556 1
genomeend 42

/* Organism #43 Fitness: 3.99531 Error: 2.00117 */
genomestart 43
trait 1 0.0687065 0 0 0.00543277 0 0.0436834 0.290201 0.00367682 
trait 2 0.191168 0.0939999 0.0451037 0.207395 0 0 0.117044 0 
trait 3 0.298577 0 0.00114748 0.0124516 0.0847882 0.00656196 0 0.153136 
node 1 3 1 3
node 2 1 1 1
node 3 1 1 1
node 4 3 0 2
node 29 1 0 0
gene 1 1 4 -1.83404 0 1 -1.83404 1
gene 2 2 4 7.31233 0 2 7.31233 1
gene 2 3 4 0.877255 0 3 0.877255 1
gene 3 3 29 6.93169 0 64 6.93169 1
gene 3 29 4 -7.72282 0 65 -7.72282 1
gene 3 2 29 2.25761 0 118 2.25761 1
gene 2 1 29 1.95761 0 173 1.95761 1
genomeend 43

/* Organism #44 Fitness: 9 Error: 1 */
genomestart 44
trait 1 0.0652712 0 0 0.00543277 0 0.0473237 0.314038 0.00349298 
trait 2 0.191168 0.0939999 0.0451037 0.207395 0 0 0.117044 0 
trait 3 0.298577 0 0.00114748 0.0124516 0.0847882 0.00656196 0 0.153136 
node 1 3 1 3
node 2 1 1 1
node 3 1 1 1
node 4 3 0 2
node 29 1 0 0
gene 1 1 4 -0.493976 0 1 -0.493976 1
gene 2 2 4 7.74233 0 2 7.74233 1
gene 3 3 4 -5.71828 0 3 -5.71828 1
gene 3 3 29 7.01379 0 64 7.01379 1
gene 3 29 4 -7.70946 0 65 -7.70946 1
gene 3 2 29 -3.82229 0 118 -3.82229 1
gene 2 1 29 1.36158 0 173 1.36158 1
genomeend 44

/* Organism #45 Fitness: 9 Error: 1 */
genomestart 45
trait 1 0.0549652 0 0 0.00543277 0 0.0582446 0.385552 0.00294146 
trait 2 0.191168 0.0939999 0.0451037 0.207395 0 0 0.117044 0 
trait 3 0.298577 0 0.00114748 0.0124516 0.0847882 0.00656196 0 0.153136 
node 1 3 1 3
node 2 1 1 1
node 3 1 1 1
node 4 3 0 2
node 29 1 0 0
gene 1 1 4 2.8259 0 1 2.8259 1
gene 2 2 4 6.66733 0 2 6.66733 1
gene 3 3 4 -5.96365 0 3 -5.96365 1
gene 3 3 29 3.35458 0 64 3.35458 1
gene 3 29 4 -8 0 65 -8 1
gene 3 2 29 -6.23205 0 118 -6.23205 1
gene 2 1 29 3.22703 0 173 3.22703 1
genomeend 45

/* Organism #46 Fitness: 8.73496 Error: 1.0445 */
genomestart 46
trait 1 0.0584005 0 0 0.00543277 0 0.0546043 0.361714 0.0031253 
trait 2 0.191168 0.0939999 0.0451037 0.207395 0 0 0.117044 0 
trait 3 0.298577 0 0.00114748 0.0124516 0.0847882 0.00656196 0 0.153136 
node 1 3 1 3
node 2 1 1 1
node 3 1 1 1
node 4 3 0 2
node 29 1 0 0
gene 1 1 4 2.50462 0 1 2.50462 1
gene 2 2 4 8 0 2 8 1
gene 3 3 4 -5.69654 0 3 -5.69654 1
gene 3 3 29 2.84019 0 64 2.84019 1
gene 3 29 4 -5.75399 0 65 -5.75399 1
gene 3 2 29 -4.77548 0 118 -4.77548 1
gene 2 1 29 2.50832 0 173 2.50832 1
genomeend 46

/* Organism #47 Fitness: 9 Error: 1 */
genomestart 47
trait 1 0.0687065 0 0 0.00543277 0 0.0436834 0.290201 0.00367682 
trait 2 0.191168 0.0939999 0.0451037 0.207395 0 0 0.117044 0 
trait 3 0.298577 0 0.00114748 0.0124516 0.0847882 0.00656196 0 0.153136 
node 1 3 1 3
node 2 1 1 1
node 3 1 1 1
node 4 3 0 2
node 29 1 0 0
gene 1 1 4 -1.83404 0 1 -1.83404 1
gene 2 2 4 7.95528 0 2 7.95528 1
gene 3 3 4 -7.97039 0 3 -7.97039 1
gene 3 3 29 7.01379 0 64 7.01379 1
gene 3 29 4 -7.62813 0 65 -7.62813 1
gene 3 2 29 -4.54131 0 118 -4.54131 1
gene 2 1 29 0.992004 0 173 0.992004 1
genomeend 47

/* Organism #48 Fitness: 9 Error: 1 */
genomestart 48
trait 1 0.0687065 0 0 0.00543277 0 0.0436834 0.290201 0.00367682 
trait 2 0.191168 0.0939999 0.0451037 0.207395 0 0 0.117044 0 
trait 3 0.298577 0 0.00114748 0.0124516 0.0847882 0.00656196 0 0.153136 
node 1 3 1 3
node 2 1 1 1
node 3 1 1 1
node 4 3 0 2
node 29 1 0 0
gene 1 1 4 0.444849 0 1 0.444849 1
gene 2 2 4 8 0 2 8 1
gene 3 3 4 -7.76035 0 3 -7.76035 1
gene 3 3 29 6.50802 0 64 6.50802 1
gene 3 29 4 -8 0 65 -8 1
gene 3 2 29 -3.21421 0 118 -3.21421 1
gene 2 1 29 1.24676 0 173 1.24676 1
genomeend 48

/* Organism #49 Fitness: 9 Error: 1 */
genomestart 49
trait 1 0.0618359 0 0 0.00543277 0 0.050964 0.337876 0.00330914 
trait 2 0.191168 0.0939999 0.0451037 0.207395 0 0 0.117044 0 
trait 3 0.298577 0 0.00114748 0.0124516 0.0847882 0.00656196 0 0.153136 
node 1 3 1 3
node 2 1 1 1
node 3 1 1 1
node 4 3 0 2
node 29 1 0 0
node 70 1 0 0
gene 1 1 4 -1.85834 0 1 -1.85834 1
gene 2 2 4 7.95528 0 2 7.95528 0
gene 3 3 4 -7.80705 0 3 -7.80705 1
gene 3 3 29 6.7182 0 64 6.7182 1
gene 3 29 4 -7.40295 0 65 -7.40295 1
gene 3 2 29 -4.21973 0 118 -4.21973 1
gene 2 1 29 0.992004 0 173 0.992004 1
gene 2 2 70 1 0 208 0 1
gene 2 70 4 7.95528 0 209 0 1
genomeend 49

/* Organism #50 Fitness: 2.38503 Error: 2.45564 */
genomestart 50
trait 1 0.0687065 0 0 0.00543277 0 0.0436834 0.290201 0.00367682 
trait 2 0.191168 0.0939999 0.0451037 0.207395 0 0 0.117044 0 
trait 3 0.298577 0 0.00114748 0.0124516 0.0847882 0.00656196 0 0.153136 
node 1 3 1 3
node 2 1 1 1
node 3 1 1 1
node 4 3 0 2
node 29 1 0 0
gene 1 1 4 -1.60447 0 1 -1.60447 1
gene 2 2 4 8 0 2 8 1
gene 3 3 4 -8 0 3 -8 1
gene 3 3 29 7.52512 0 64 7.52512 1
gene 3 29 4 1.82058 0 65 1.82058 1
gene 3 2 29 -3.18957 0 118 -3.18957 1
gene 2 1 29 0.816065 0 173 0.816065 1
genomeend 50

/* Organism #51 Fitness: 9 Error: 1 */
genomestart 51
trait 1 0.0584005 0 0 0.00543277 0 0.0546043 0.361714 0.0031253 
trait 2 0.191168 0.0939999 0.0451037 0.207395 0 0 0.117044 0 
trait 3 0.298577 0 0.00114748 0.0124516 0.0847882 0.00656196 0 0.153136 
node 1 3 1 3
node 2 1 1 1
node 3 1 1 1
node 4 3 0 2
node 29 1 0 0
gene 1 1 4 -4.08749 0 1 -4.08749 1
gene 2 2 4 8 0 2 8 1
gene 3 3 4 -0.928983 0 3 -0.928983 1
gene 3 3 29 7.80351 0 64 7.80351 1
gene 1 29 4 -7.29011 0 65 -7.29011 1
gene 3 2 29 -1.23898 0 118 -1.23898 1
gene 2 1 29 -0.607318 0 173 -0.607318 1
genomeend 51

/* Organism #52 Fitness: 8.98415 Error: 1.00264 */
genomestart 52
trait 1 0.0584005 0 0 0.00543277 0 0.0546043 0.361714 0.0031253 
trait 2 0.191168 0.0939999 0.0451037 0.207395 0 0 0.117044 0 
trait 3 0.298577 0 0.00114748 0.0124516 0.0847882 0.00656196 0 0.153136 
node 1 3 1 3
node 2 1 1 1
node 3 1 1 1
node 4 3 0 2
node 29 1 0 0
gene 1 1 4 -0.147629 0 1 -0.147629 1
gene 2 2 4 8 0 2 8 1
gene 3 3 4 -6.69191 0 3 -6.69191 1
gene 3 3 29 8 0 64 8 1
gene 3 29 4 -6.64747 0 65 -6.64747 1
gene 3 2 29 1.62877 0 118 1.62877 1
gene 2 1 29 1.35556 0 173 1.35556 1
genomeend 52

/* Organism #53 Fitness: 9 Error: 1 */
genomestart 53
trait 1 0.0687065 0 0 0.00543277 0 0.0436834 0.290201 0.00367682 
trait 2 0.191168 0.0939999 0.0451037 0.207395 0 0 0.117044 0 
trait 3 0.298577 0 0.00114748 0.0124516 0.0847882 0.00656196 0 0.153136 
node 1 3 1 3
node 2 1 1 1
node 3 1 1 1
node 4 3 0 2
node 29 1 0 0
gene 1 1 4 0.208026 0 1 0.208026 1
gene 2 2 4 7.12822 0 2 7.12822 1
gene 3 3 4 -7.49888 0 3 -7.49888 1
gene 3 3 29 8 0 64 8 1
gene 3 29 4 -8 0 65 -8 1
gene 3 2 29 -5.95798 0 118 -5.95798 1
gene 2 1 29 -0.0966674 0 173 -0.0966674 1
genomeend 53

/* Organism #54 Fitness: 8.8634 Error: 1.02285 */
genomestart 54
trait 1 0.0618359 0 0 0.00543277 0 0.050964 0.337876 0.00330914 
trait 2 0.191168 0.0939999 0.0451037 0.207395 0 0 0.117044 0 
trait 3 0.298577 0 0.00114748 0.0124516 0.0847882 0.00656196 0 0.153136 
node 1 3 1 3
node 2 1 1 1
node 3 1 1 1
node 4 3 0 2
node 29 1 0 0
gene 1 1 4 -0.74152 0 1 -0.74152 1
gene 2 2 4 7.76286 0 2 7.76286 1
gene 3 3 4 -8 0 3 -8 1
gene 3 3 29 5.56448 0 64 5.56448 1
gene 3 29 4 -8 0 65 -8 1
gene 3 2 29 -4.91051 0 118 -4.91051 1
gene 2 1 29 -1.16882 0 173 -1.16882 1
genomeend 54

/* Species #9 : (Size 12) (AF 6.99967) (Age 15)  */


/* Organism #55 Fitness: 9 Error: 1 */
genomestart 55
trait 1 0.1 0 0.00333917 0 0 0 0 0.0341912 
trait 2 0.198655 0 0.000136899 0.00314787 0 0 0 0.00718937 
trait 3 0.396222 0 0 0 0.144797 0.0438906 0 0.00828426 
node 1 1 1 3
node 2 1 1 1
node 3 1 1 1
node 4 1 0 2
node 10 1 0 0
gene 1 1 4 -1.89764 0 1 -1.89764 1
gene 2 2 4 -6.44985 0 2 -6.44985 1
gene 2 3 4 8 0 3 8 1
gene 2 2 10 8 0 14 8 1
gene 2 10 4 -8 0 15 -8 1
gene 3 3 10 -4.917 0 38 -4.917 1
gene 3 1 10 0.460219 0 161 0.460219 1
genomeend 55

/* Organism #56 Fitness: 3.99999 Error: 2 */
genomestart 56
trait 1 0.1 0 0.00333917 0 0 0 0 0.0341912 
trait 2 0.198655 0 0.000136899 0.00314787 0 0 0 0.00718937 
trait 3 0.396222 0 0 0 0.144797 0.0438906 0 0.00828426 
node 1 1 1 3
node 2 1 1 1
node 3 1 1 1
node 4 1 0 2
node 10 1 0 0
gene 1 1 4 -1.89764 0 1 -1.89764 1
gene 2 2 4 -0.960417 0 2 -0.960417 1
gene 2 3 4 8 0 3 8 1
gene 2 2 10 8 0 14 8 1
gene 2 10 4 -0.725196 0 15 -0.725196 1
gene 3 3 10 -4.00007 0 38 -4.00007 1
gene 3 1 10 0.460219 0 161 0.460219 1
genomeend 56

/* Organism #57 Fitness: 9 Error: 1 */
genomestart 57
trait 1 0.1 0 0.00333917 0 0 0 0 0.0341912 
trait 2 0.198655 0 0.000136899 0.00314787 0 0 0 0.00718937 
trait 3 0.396222 0 0 0 0.144797 0.0438906 0 0.00828426 
node 1 1 1 3
node 2 1 1 1
node 3 1 1 1
node 4 1 0 2
node 10 1 0 0
gene 1 1 4 -1.89764 0 1 -1.89764 1
gene 2 2 4 -6.45573 0 2 -6.45573 1
gene 2 3 4 8 0 3 8 1
gene 2 2 10 7.04649 0 14 7.04649 1
gene 2 10 4 -8 0 15 -8 1
gene 3 3 10 -2.42897 0 38 -2.42897 1
gene 3 1 10 0.0392468 0 161 0 1
genomeend 57

/* Organism #58 Fitness: 9 Error: 1 */
genomestart 58
trait 1 0.1 0 0.00333917 0 0 0 0 0.0341912 
trait 2 0.198655 0 0.000136899 0.00314787 0 0 0 0.00718937 
trait 3 0.396222 0 0 0 0.144797 0.0438906 0 0.00828426 
node 1 1 1 3
node 2 1 1 1
node 3 1 1 1
node 4 1 0 2
node 10 1 0 0
gene 1 1 4 -2.71302 0 1 -2.71302 1
gene 2 2 4 -7.85187 0 2 -7.85187 1
gene 2 3 4 8 0 3 8 1
gene 2 2 10 8 0 14 8 1
gene 2 10 4 -8 0 15 -8 1
gene 3 3 10 -3.36849 0 38 -3.36849 1
gene 3 1 10 2.30216 0 161 2.30216 1
genomeend 58

/* Organism #59 Fitness: 8.99545 Error: 1.00076 */
genomestart 59
trait 1 0.1 0 0.00333039 0 0 0 0 0.0341012 
trait 2 0.198654 0 0.000136958 0.0031492 0 0 0 0.00719243 
trait 3 0.396222 0 0 0 0.144802 0.0438911 0 0.00828779 
node 1 1 1 3
node 2 1 1 1
node 3 1 1 1
node 4 1 0 2
node 10 1 0 0
gene 1 1 4 -1.25324 0 1 -1.25324 1
gene 2 2 4 -5.47451 0 2 -5.47451 1
gene 2 3 4 7.91551 0 3 7.91551 1
gene 2 2 10 8 0 14 8 1
gene 2 10 4 -8 0 15 -8 1
gene 3 3 10 -1.70802 0 38 -1.70802 1
gene 3 1 10 -0.738166 0 161 -0.738166 1
genomeend 59

/* Organism #60 Fitness: 9 Error: 1 */
genomestart 60
trait 1 0.1 0 0.0033216 0 0 0 0 0.0340113 
trait 2 0.198654 0 0.000137016 0.00315054 0 0 0 0.00719549 
trait 3 0.396223 0 0 0 0.144806 0.0438916 0 0.00829131 
node 1 2 1 3
node 2 1 1 1
node 3 1 1 1
node 4 1 0 2
node 10 3 0 0
gene 1 1 4 -0.835444 0 1 -0.835444 1
gene 2 2 4 -7.37638 0 2 -7.37638 1
gene 2 3 4 7.9502 0 3 7.9502 1
gene 2 2 10 8 0 14 8 1
gene 2 10 4 -6.58661 0 15 -6.58661 1
gene 3 3 10 -0.644565 0 38 -0.644565 1
gene 3 1 10 0.575915 0 161 0.575915 1
genomeend 60

/* Organism #61 Fitness: 4 Error: 2 */
genomestart 61
trait 1 0.1 0 0.00333039 0 0 0 0 0.0341012 
trait 2 0.198654 0 0.000136958 0.0031492 0 0 0 0.00719243 
trait 3 0.396222 0 0 0 0.144802 0.0438911 0 0.00828779 
node 1 1 1 3
node 2 1 1 1
node 3 1 1 1
node 4 1 0 2
node 10 1 0 0
gene 1 1 4 -4.35507 0 1 -4.35507 1
gene 2 2 4 -6.45573 0 2 -6.45573 1
gene 2 3 4 7.3013 0 3 7.3013 1
gene 2 2 10 5.71428 0 14 5.71428 1
gene 2 10 4 -5.83555 0 15 -5.83555 1
gene 3 3 10 -0.968053 0 38 -0.968053 1
gene 2 1 10 2.36377 0 161 2.36377 1
genomeend 61

/* Organism #62 Fitness: 5.07284 Error: 1.7477 */
genomestart 62
trait 1 0.242033 0 0.00333917 0 0 0 0 0.0341912 
trait 2 0.198655 0 0.000136899 0.00314787 0 0 0 0.00718937 
trait 3 0.396222 0 0 0 0.144797 0.0438906 0 0.00828426 
node 1 1 1 3
node 2 1 1 1
node 3 1 1 1
node 4 1 0 2
node 10 1 0 0
gene 1 1 4 0.358669 0 1 0.358669 1
gene 2 2 4 -5.19791 0 2 -5.19791 1
gene 2 3 4 6.17629 0 3 6.17629 1
gene 2 2 10 7.48775 0 14 7.48775 1
gene 2 10 4 -8 0 15 -8 1
gene 3 3 10 -5.04693 0 38 -5.04693 1
gene 3 1 10 -0.820872 0 161 -0.820872 1
genomeend 62

/* Organism #63 Fitness: 9 Error: 1 */
genomestart 63
trait 1 0.1 0 0.00333917 0 0 0 0 0.0341912 
trait 2 0.198655 0 0.000136899 0.00314787 0 0 0 0.00718937 
trait 3 0.396222 0 0 0 0.144797 0.0438906 0 0.00828426 
node 1 1 1 3
node 2 1 1 1
node 3 1 1 1
node 4 1 0 2
node 10 1 0 0
gene 1 1 4 -1.9863 0 1 -1.9863 1
gene 2 2 4 -4.43792 0 2 -4.43792 1
gene 2 3 4 8 0 3 8 1
gene 2 2 10 8 0 14 8 1
gene 2 10 4 -8 0 15 -8 1
gene 3 3 10 -4.52132 0 38 -4.52132 1
gene 3 1 10 -0.161061 0 161 -0.161061 1
genomeend 63

/* Organism #64 Fitness: 4 Error: 2 */
genomestart 64
trait 1 0.1 0 0.00333917 0 0 0 0 0.0341912 
trait 2 0.55093 0 0.0551618 0 0 0 0 0.826245 
trait 3 0.396222 0 0 0 0.144797 0.0438906 0 0.00828426 
node 1 1 1 3
node 2 1 1 1
node 3 1 1 1
node 4 1 0 2
node 10 1 0 0
gene 1 1 4 -1.37585 0 1 -1.37585 1
gene 2 2 4 -5.13191 0 2 -5.13191 1
gene 2 3 4 5.71439 0 3 5.71439 1
gene 2 2 10 5.01907 0 14 5.01907 1
gene 2 10 4 -8 0 15 -8 1
gene 3 3 10 -0.492117 0 38 -0.492117 1
gene 1 1 10 2.42206 0 161 2.42206 1
genomeend 64

/* Organism #65 Fitness: 3.92906 Error: 2.01781 */
genomestart 65
trait 1 0.1 0 0.00333917 0 0 0 0 0.0341912 
trait 2 0.198655 0 0.000136899 0.00314787 0 0 0 0.00718937 
trait 3 0.396222 0 0 0 0.144797 0.0438906 0 0.00828426 
node 1 1 1 3
node 2 1 1 1
node 3 1 1 1
node 4 1 0 2
node 10 1 0 0
gene 1 1 4 -0.776238 0 1 -0.776238 1
gene 2 2 4 -4.63606 0 2 -4.63606 1
gene 2 3 4 8 0 3 8 1
gene 2 2 10 5.52163 0 14 5.52163 1
gene 2 10 4 -8 0 15 -8 1
gene 3 3 10 -4.85802 0 38 -4.85802 1
gene 3 1 10 -1.09711 0 161 -1.09711 1
genomeend 65

/* Organism #66 Fitness: 8.99867 Error: 1.00022 */
genomestart 66
trait 1 0.1 0 0.00333039 0 0 0 0 0.0341012 
trait 2 0.198654 0 0.000136958 0.0031492 0 0 0 0.00719243 
trait 3 0.396222 0 0 0 0.144802 0.0438911 0 0.00828779 
node 1 1 1 3
node 2 1 1 1
node 3 1 1 1
node 4 1 0 2
node 10 1 0 0
gene 1 1 4 -1.69126 0 1 -1.69126 1
gene 2 2 4 -8 0 2 -8 1
gene 2 3 4 6.21663 0 3 6.21663 1
gene 2 2 10 5.62524 0 14 5.62524 1
gene 2 10 4 -8 0 15 -8 1
gene 3 3 10 -0.191504 0 38 -0.191504 1
gene 3 1 10 -1.25001 0 161 -1.25001 1
genomeend 66

/* Species #10 : (Size 11) (AF 7.63241) (Age 14)  */


/* Organism #67 Fitness: 8.99986 Error: 1.00002 */
genomestart 67
trait 1 0.10993 0 0 0.00543277 0 0 0.817587 0.00588292 
trait 2 0.191168 0.0939999 0.0451037 0.207395 0 0 0.117044 0 
trait 3 0.298577 0 0.00114748 0.0124516 0.0847882 0.00656196 0 0.153136 
node 1 3 1 3
node 2 1 1 1
node 3 1 1 1
node 4 1 0 2
node 29 1 0 0
node 40 1 0 0
gene 1 1 4 -3.43842 0 1 -3.43842 1
gene 3 2 4 1.37997 0 2 1.37997 0
gene 3 3 4 -0.36523 0 3 -0.36523 0
gene 3 3 29 -2.34268 0 64 -2.34268 1
gene 3 29 4 -6.31606 0 65 -6.31606 1
gene 2 2 40 4.2693 0 94 4.2693 1
gene 2 40 4 5.59772 0 95 5.59772 1
gene 3 2 29 6.40709 0 97 6.40709 1
gene 3 3 40 2.30293 0 153 2.30293 1
genomeend 67

/* Organism #68 Fitness: 8.99789 Error: 1.00035 */
genomestart 68
trait 1 0.10993 0 0 0.00543277 0 0 0.614227 0.00588292 
trait 2 0.191168 0.0939999 0.0451037 0.207395 0 0 0.117044 0 
trait 3 0.298577 0 0.00114748 0.0124516 0.0847882 0.00656196 0 0.153136 
node 1 3 1 3
node 2 1 1 1
node 3 1 1 1
node 4 1 0 2
node 29 1 0 0
node 40 1 0 0
gene 1 1 4 -1.17399 0 1 -1.17399 1
gene 3 2 4 4.01014 0 2 4.01014 0
gene 3 3 4 -5.56682 0 3 -5.56682 0
gene 3 3 29 -4.46905 0 64 -4.46905 1
gene 3 29 4 -7.01264 0 65 -7.01264 1
gene 2 2 40 3.8246 0 94 3.8246 1
gene 2 40 4 6.13168 0 95 6.13168 1
gene 3 2 29 7.97059 0 97 7.97059 1
gene 3 3 40 2.43828 0 153 2.43828 1
genomeend 68

/* Organism #69 Fitness: 8.99984 Error: 1.00003 */
genomestart 69
trait 1 0.10993 0 0 0.00543277 0 0 0.410867 0.00588292 
trait 2 0.191168 0.0939999 0.0451037 0.207395 0 0 0.117044 0 
trait 3 0.298577 0 0.00114748 0.0124516 0.0847882 0.00656196 0 0.153136 
node 1 3 1 3
node 2 1 1 1
node 3 1 1 1
node 4 1 0 2
node 29 3 0 0
node 40 1 0 0
gene 1 1 4 -3.5603 0 1 -3.5603 1
gene 3 2 4 3.18866 0 2 3.18866 1
gene 3 3 4 -3.99145 0 3 -3.99145 0
gene 3 3 29 -1.63122 0 64 -1.63122 1
gene 3 29 4 -6.42917 0 65 -6.42917 1
gene 2 2 40 4.32823 0 94 4.32823 1
gene 2 40 4 5.7077 0 95 5.7077 1
gene 3 2 29 5.51301 0 97 5.51301 1
gene 3 3 40 1.63569 0 153 1.63569 1
genomeend 69

/* Organism #70 Fitness: 4 Error: 2 */
genomestart 70
trait 1 0.10993 0 0 0.00543277 0 0 0.614227 0.00588292 
trait 2 0.191168 0.0939999 0.0451037 0.207395 0 0 0.117044 0 
trait 3 0.298577 0 0.00114748 0.0124516 0.0847882 0.00656196 0 0.153136 
node 1 3 1 3
node 2 1 1 1
node 3 1 1 1
node 4 1 0 2
node 29 1 0 0
node 40 1 0 0
gene 1 1 4 -4.18031 0 1 -4.18031 1
gene 3 2 4 2.79565 0 2 2.79565 1
gene 3 3 4 -2.45484 0 3 -2.45484 1
gene 3 3 29 -2.58725 0 64 -2.58725 1
gene 3 29 4 -6.54451 0 65 -6.54451 1
gene 2 2 40 2.28355 0 94 2.28355 1
gene 2 40 4 3.15683 0 95 3.15683 1
gene 3 2 29 3.75051 0 97 3.75051 1
gene 3 3 40 0.329089 0 153 0.329089 1
genomeend 70

/* Organism #71 Fitness: 8.99984 Error: 1.00003 */
genomestart 71
trait 1 0.10993 0 0 0.00543277 0 0 0.410867 0.00588292 
trait 2 0.191168 0.0939999 0.0451037 0.207395 0 0 0.117044 0 
trait 3 0.298577 0 0.00114748 0.0124516 0.0847882 0.00656196 0 0.153136 
node 1 3 1 3
node 2 1 1 1
node 3 1 1 1
node 4 1 0 2
node 29 1 0 0
node 40 1 0 0
gene 1 1 4 -3.5603 0 1 -3.5603 1
gene 2 2 4 4.99734 0 2 4.99734 0
gene 3 3 4 -3.99145 0 3 -3.99145 0
gene 3 3 29 -1.63122 0 64 -1.63122 1
gene 3 29 4 -6.42917 0 65 -6.42917 1
gene 2 2 40 4.38717 0 94 4.38717 1
gene 2 40 4 5.7077 0 95 5.7077 1
gene 3 2 29 5.51301 0 97 5.51301 1
gene 3 3 40 1.63569 0 153 1.63569 1
genomeend 71

/* Organism #72 Fitness: 8.99994 Error: 1.00001 */
genomestart 72
trait 1 0.10993 0 0 0.00543277 0 0 0.410867 0.00588292 
trait 2 0.191168 0.0939999 0.0451037 0.207395 0 0 0.117044 0 
trait 3 0.298577 0 0.00114748 0.0124516 0.0847882 0.00656196 0 0.153136 
node 1 3 1 3
node 2 1 1 1
node 3 1 1 1
node 4 1 0 2
node 29 1 0 0
node 40 1 0 0
node 70 1 0 0
gene 1 1 4 -3.5603 0 1 -3.5603 1
gene 3 2 4 3.18866 0 2 3.18866 0
gene 3 3 4 -3.99145 0 3 -3.99145 0
gene 3 3 29 -1.63122 0 64 -1.63122 1
gene 3 29 4 -6.42917 0 65 -6.42917 1
gene 2 2 40 4.32823 0 94 4.32823 1
gene 2 40 4 5.7077 0 95 5.7077 1
gene 3 2 29 5.51301 0 97 5.51301 1
gene 3 3 40 1.63569 0 153 1.63569 1
gene 3 2 70 1 0 208 0 1
gene 3 70 4 3.18866 0 209 0 1
genomeend 72

/* Organism #73 Fitness: 4.00002 Error: 2 */
genomestart 73
trait 1 0.10993 0 0 0.00543277 0 0 0.614227 0.00588292 
trait 2 0.191168 0.0939999 0.0451037 0.207395 0 0 0.117044 0 
trait 3 0.298577 0 0.00114748 0.0124516 0.0847882 0.00656196 0 0.153136 
node 1 3 1 3
node 2 1 1 1
node 3 1 1 1
node 4 1 0 2
node 29 1 0 0
node 40 1 0 0
gene 1 1 4 2.27264 0 1 2.27264 1
gene 3 2 4 4.69451 0 2 4.69451 0
gene 3 3 4 -3.28181 0 3 -3.28181 0
gene 3 3 29 -1.98695 0 64 -1.98695 1
gene 3 29 4 -6.37261 0 65 -6.37261 1
gene 2 2 40 1.90436 0 94 1.90436 1
gene 2 40 4 6.83537 0 95 6.83537 1
gene 3 2 29 0.683004 0 97 0.683004 1
gene 3 3 40 0.0309763 0 153 0.0309763 1
genomeend 73

/* Organism #74 Fitness: 8.98271 Error: 1.00288 */
genomestart 74
trait 1 0.10993 0 0 0.00543277 0 0 0.410867 0.00588292 
trait 2 0.191168 0.0939999 0.0451037 0.207395 0 0 0.117044 0 
trait 3 0.298577 0 0.00114748 0.0124516 0.0847882 0.00656196 0 0.153136 
node 1 3 1 3
node 2 1 1 1
node 3 1 1 1
node 4 3 0 2
node 29 1 0 0
node 40 1 0 0
gene 1 1 4 -3.68219 0 1 -3.68219 1
gene 2 2 4 4.99734 0 2 4.99734 0
gene 3 3 4 -7.61767 0 3 -7.61767 0
gene 3 3 29 -2.34268 0 64 -2.34268 1
gene 3 29 4 -6.31606 0 65 -6.31606 1
gene 2 2 40 4.38717 0 94 4.38717 1
gene 2 40 4 5.81768 0 95 5.81768 1
gene 3 2 29 4.61893 0 97 4.61893 1
gene 3 3 40 2.30293 0 153 2.30293 1
gene 1 1 29 -0.538713 0 210 -0.538713 1
genomeend 74

/* Organism #75 Fitness: 8.99952 Error: 1.00008 */
genomestart 75
trait 1 0.10993 0 0 0.00543277 0 0 0.614227 0.00588292 
trait 2 0.191168 0.0939999 0.0451037 0.207395 0 0 0.117044 0 
trait 3 0.298577 0 0.00114748 0.0124516 0.0847882 0.00656196 0 0.153136 
node 1 3 1 3
node 2 1 1 1
node 3 1 1 1
node 4 1 0 2
node 29 1 0 0
node 40 1 0 0
gene 1 1 4 -3.68219 0 1 -3.68219 1
gene 2 2 4 4.99734 0 2 4.99734 0
gene 3 3 4 -7.61767 0 3 -7.61767 0
gene 3 3 29 -2.34268 0 64 -2.34268 1
gene 3 29 4 -6.31606 0 65 -6.31606 1
gene 2 2 40 4.38717 0 94 4.38717 1
gene 2 40 4 5.59772 0 95 5.59772 1
gene 3 2 29 6.40709 0 97 6.40709 1
gene 3 3 40 2.30293 0 153 2.30293 1
genomeend 75

/* Organism #76 Fitness: 3.99996 Error: 2.00001 */
genomestart 76
trait 1 0.10993 0 0 0.00543277 0 0 0.410867 0.00588292 
trait 2 0.191168 0.0939999 0.0451037 0.207395 0 0 0.117044 0 
trait 3 0.298577 0 0.00114748 0.0124516 0.0847882 0.00656196 0 0.153136 
node 1 3 1 3
node 2 1 1 1
node 3 1 1 1
node 4 1 0 2
node 29 1 0 0
node 40 1 0 0
gene 1 1 4 -2.01193 0 1 -2.01193 1
gene 2 2 4 5.91915 0 2 5.91915 0
gene 3 3 4 -7.6504 0 3 -7.6504 0
gene 3 3 29 0.220149 0 64 0.220149 1
gene 3 29 4 -6.06949 0 65 -6.06949 1
gene 2 2 40 5.99617 0 94 5.99617 1
gene 2 40 4 5.41539 0 95 5.41539 1
gene 3 2 29 7.55773 0 97 7.55773 1
gene 3 3 40 0.067011 0 153 0.067011 1
genomeend 76

/* Organism #77 Fitness: 8.97691 Error: 1.00385 */
genomestart 77
trait 1 0.10993 0 0 0.00543277 0 0 0.410867 0.00588292 
trait 2 0.191168 0.0939999 0.0451037 0.207395 0 0 0.117044 0 
trait 3 0.298577 0 0.00114748 0.0124516 0.0847882 0.00656196 0 0.153136 
node 1 3 1 3
node 2 1 1 1
node 3 1 1 1
node 4 1 0 2
node 29 1 0 0
node 40 1 0 0
gene 1 1 4 -3.5603 0 1 -3.5603 1
gene 3 2 4 3.18866 0 2 3.18866 1
gene 3 3 4 -3.99145 0 3 -3.99145 0
gene 3 3 29 -1.63122 0 64 -1.63122 1
gene 3 29 4 -6.42917 0 65 -6.42917 1
gene 2 2 40 4.32823 0 94 4.32823 1
gene 2 40 4 5.7077 0 95 5.7077 1
gene 3 2 29 5.51301 0 97 5.51301 1
gene 3 3 40 1.63569 0 153 1.63569 1
gene 1 1 29 -0.538713 0 210 0 1
genomeend 77

/* Species #11 : (Size 10) (AF 6.00032) (Age 12)  */


/* Organism #78 Fitness: 9 Error: 1 */
genomestart 78
trait 1 0.084375 0.0844934 0 0.199393 0 0.289377 0.462355 0.0296297 
trait 2 0.198828 0 0.000119273 0.00274255 0 0 0 0.00626369 
trait 3 0.373885 0 0 0 0.112134 0.0337775 0 0.0072176 
node 1 3 1 3
node 2 1 1 1
node 3 1 1 1
node 4 1 0 2
node 10 1 0 0
node 44 1 0 0
gene 1 1 4 0.3983 0 1 0.3983 1
gene 2 2 4 -5.90077 0 2 -5.90077 1
gene 2 3 4 5.98692 0 3 5.98692 1
gene 2 2 10 5.55422 0 14 5.55422 0
gene 2 10 4 -7.16943 0 15 -7.16943 1
gene 2 3 10 -6.3488 0 60 -6.3488 1
gene 1 1 10 0.430967 0 96 0.430967 1
gene 2 2 44 4.0773 0 106 4.0773 1
gene 2 44 10 8 0 107 8 1
genomeend 78

/* Organism #79 Fitness: 4 Error: 2 */
genomestart 79
trait 1 0.084375 0.0844934 0 0.199393 0 0.289377 0.462355 0.0296297 
trait 2 0.198828 0 0.000119273 0.00274255 0 0 0 0.00626369 
trait 3 0.373885 0 0 0 0.112134 0.0337775 0 0.0072176 
node 1 3 1 3
node 2 3 1 1
node 3 1 1 1
node 4 1 0 2
node 10 1 0 0
node 44 1 0 0
gene 1 1 4 0.0605363 0 1 0.0605363 1
gene 2 2 4 -3.77958 0 2 -3.77958 1
gene 2 3 4 6.65345 0 3 6.65345 1
gene 2 2 10 7.35604 0 14 7.35604 0
gene 2 10 4 -6.62037 0 15 -6.62037 1
gene 2 3 10 -7.3907 0 60 -7.3907 1
gene 1 1 10 -0.933058 0 96 -0.933058 1
gene 2 2 44 2.14174 0 106 2.14174 1
gene 2 44 10 7.35095 0 107 7.35095 1
genomeend 79

/* Organism #80 Fitness: 4.00286 Error: 1.99929 */
genomestart 80
trait 1 0.084375 0 0.135838 0.199393 0 0.289377 0.0562456 0 
trait 2 0.198828 0 0.000119273 0.00274255 0 0 0 0.00626369 
trait 3 0.373885 0 0 0 0.112134 0.0337775 0 0.0072176 
node 1 3 1 3
node 2 1 1 1
node 3 1 1 1
node 4 1 0 2
node 10 1 0 0
node 44 1 0 0
gene 1 1 4 0.597433 0 1 0.597433 1
gene 2 2 4 -6.18848 0 2 -6.18848 1
gene 2 3 4 5.93168 0 3 5.93168 1
gene 2 2 10 4.55886 0 14 4.55886 0
gene 2 10 4 -8 0 15 -8 1
gene 2 3 10 -1.33839 0 60 -1.33839 1
gene 1 1 10 0.982818 0 96 0.982818 1
gene 2 2 44 -0.219123 0 106 -0.219123 1
gene 2 44 10 8 0 107 8 1
genomeend 80

/* Organism #81 Fitness: 9 Error: 1 */
genomestart 81
trait 1 0.084375 0.0844934 0 0.199393 0 0.289377 0.462355 0.0296297 
trait 2 0.198828 0 0.000119273 0.00274255 0 0 0 0.00626369 
trait 3 0.373885 0 0 0 0.112134 0.0337775 0 0.0072176 
node 1 3 1 3
node 2 3 1 1
node 3 1 1 1
node 4 1 0 2
node 10 1 0 0
node 44 1 0 0
gene 1 1 4 -1.93777 0 1 -1.93777 1
gene 2 2 4 -4.85605 0 2 -4.85605 1
gene 2 3 4 5.5972 0 3 5.5972 1
gene 2 2 10 8 0 14 8 0
gene 2 10 4 -5.2111 0 15 -5.2111 1
gene 2 3 10 -5.39841 0 60 -5.39841 1
gene 1 1 10 2.40864 0 96 2.40864 1
gene 2 2 44 2.93224 0 106 2.93224 1
gene 2 44 10 8 0 107 8 1
gene 3 3 44 -0.816034 0 180 -0.816034 1
genomeend 81

/* Organism #82 Fitness: 4 Error: 2 */
genomestart 82
trait 1 0.084375 0.0844934 0 0.199393 0 0.289377 0.462355 0.0296297 
trait 2 0.198828 0 0.000119273 0.00274255 0 0 0 0.00626369 
trait 3 0.373885 0 0 0 0.112134 0.0337775 0 0.0072176 
node 1 3 1 3
node 2 1 1 1
node 3 1 1 1
node 4 1 0 2
node 10 1 0 0
node 44 1 0 0
gene 1 1 4 -3.81848 0 1 -3.81848 1
gene 2 2 4 -5.47496 0 2 -5.47496 1
gene 2 3 4 0.207297 0 3 0.207297 1
gene 2 2 10 5.15779 0 14 5.15779 0
gene 2 10 4 -8 0 15 -8 1
gene 2 3 10 1.7967 0 60 1.7967 1
gene 1 1 10 1.38467 0 96 1.38467 1
gene 2 2 44 0.365177 0 106 0.365177 1
gene 2 44 10 8 0 107 8 1
gene 3 3 44 -2.5224 0 180 -2.5224 1
genomeend 82

/* Organism #83 Fitness: 4.00018 Error: 1.99995 */
genomestart 83
trait 1 0.084375 0.0844934 0 0.199393 0 0.289377 0.462355 0.0296297 
trait 2 0.198828 0 0.000119273 0.00274255 0 0 0 0.00626369 
trait 3 0.373885 0 0 0 0.112134 0.0337775 0 0.0072176 
node 1 3 1 3
node 2 3 1 1
node 3 1 1 1
node 4 1 0 2
node 10 1 0 0
node 44 1 0 0
gene 1 1 4 -0.662404 0 1 -0.662404 1
gene 2 2 4 -3.7657 0 2 -3.7657 1
gene 2 3 4 5.70028 0 3 5.70028 1
gene 2 2 10 3.40175 0 14 3.40175 0
gene 2 10 4 -7.06625 0 15 -7.06625 1
gene 2 3 10 1.16077 0 60 1.16077 1
gene 1 1 10 1.18806 0 96 1.18806 1
gene 2 2 44 0.3914 0 106 0.3914 1
gene 2 44 10 8 0 107 8 1
gene 3 3 44 0.646107 0 180 0.646107 1
genomeend 83

/* Organism #84 Fitness: 9 Error: 1 */
genomestart 84
trait 1 0.084375 0.0844934 0 0.199393 0 0.289377 0.462355 0.0296297 
trait 2 0.198828 0 0.000119273 0.00274255 0 0 0 0.00626369 
trait 3 0.373885 0 0 0 0.112134 0.0337775 0 0.0072176 
node 1 3 1 3
node 2 1 1 1
node 3 1 1 1
node 4 1 0 2
node 10 1 0 0
node 44 1 0 0
gene 1 1 4 0.173574 0 1 0.173574 1
gene 2 2 4 -3.50057 0 2 -3.50057 1
gene 2 3 4 8 0 3 8 1
gene 2 2 10 7.2757 0 14 7.2757 0
gene 2 10 4 -8 0 15 -8 1
gene 2 3 10 -5.16449 0 60 -5.16449 1
gene 1 1 10 -1.29928 0 96 -1.29928 1
gene 2 2 44 3.35668 0 106 3.35668 1
gene 2 44 10 8 0 107 8 1
gene 3 3 44 -0.816034 0 180 -0.816034 1
genomeend 84

/* Organism #85 Fitness: 4.00014 Error: 1.99997 */
genomestart 85
trait 1 0.084375 0.0844934 0 0.199393 0 0.289377 0.462355 0.0296297 
trait 2 0.198828 0 0.000119273 0.00274255 0 0 0 0.00626369 
trait 3 0.373885 0 0 0 0.112134 0.0337775 0 0.0072176 
node 1 3 1 3
node 2 3 1 1
node 3 1 1 1
node 4 1 0 2
node 10 1 0 0
node 44 1 0 0
gene 1 1 4 0.267571 0 1 0.267571 1
gene 2 2 4 1.82051 0 2 1.82051 1
gene 2 3 4 8 0 3 8 1
gene 2 2 10 -0.229575 0 14 -0.229575 0
gene 2 10 4 -8 0 15 -8 1
gene 2 3 10 -5.81697 0 60 -5.81697 1
gene 1 1 10 0.600833 0 96 0.600833 1
gene 2 2 44 2.08894 0 106 2.08894 1
gene 2 44 10 8 0 107 8 1
gene 3 3 44 -0.816034 0 180 -0.816034 1
genomeend 85

/* Organism #86 Fitness: 4 Error: 2 */
genomestart 86
trait 1 0.084375 0.0844934 0 0.199393 0 0.289377 0.462355 0.0296297 
trait 2 0.198828 0 0.000119273 0.00274255 0 0 0 0.00626369 
trait 3 0.373885 0 0 0 0.112134 0.0337775 0 0.0072176 
node 1 3 1 3
node 2 1 1 1
node 3 1 1 1
node 4 1 0 2
node 10 1 0 0
node 44 1 0 0
gene 1 1 4 -2.37999 0 1 -2.37999 1
gene 2 2 4 -5.90077 0 2 -5.90077 1
gene 2 3 4 7.55138 0 3 7.55138 1
gene 2 2 10 3.61012 0 14 3.61012 0
gene 2 10 4 -8 0 15 -8 1
gene 2 3 10 -3.98918 0 60 -3.98918 1
gene 1 1 10 1.01761 0 96 1.01761 1
gene 2 2 44 4.0773 0 106 4.0773 1
gene 2 44 10 8 0 107 8 1
genomeend 86

/* Organism #87 Fitness: 9 Error: 1 */
genomestart 87
trait 1 0.084375 0.0844934 0 0.199393 0 0.289377 0.462355 0.0296297 
trait 2 0.198828 0 0.000119273 0.00274255 0 0 0 0.00626369 
trait 3 0.373885 0 0 0 0.112134 0.0337775 0 0.0072176 
node 1 3 1 3
node 2 3 1 1
node 3 1 1 1
node 4 1 0 2
node 10 1 0 0
node 44 1 0 0
gene 1 1 4 -0.854289 0 1 -0.854289 1
gene 2 2 4 -5.33564 0 2 -5.33564 1
gene 2 3 4 8 0 3 8 1
gene 2 2 10 6.77344 0 14 6.77344 1
gene 2 10 4 -7.42232 0 15 -7.42232 1
gene 2 3 10 -7.0207 0 60 -7.0207 1
gene 1 1 10 -1.5934 0 96 -1.5934 1
gene 2 2 44 3.21149 0 106 3.21149 1
gene 2 44 10 6.01172 0 107 6.01172 1
gene 3 3 44 -2.68262 0 180 -2.68262 1
genomeend 87

/* Species #13 : (Size 11) (AF 7.01661) (Age 9)  */


/* Organism #88 Fitness: 9 Error: 1 */
genomestart 88
trait 1 0.1 0 0 0 0 0 0 0 
trait 2 0.15 0 0.210692 0.117016 0 0 0.170148 0 
trait 3 0.239583 0 0 0 0.255964 0 0 0.307951 
node 1 2 1 3
node 2 2 1 1
node 3 1 1 1
node 4 1 0 2
node 16 1 0 0
node 50 1 0 0
gene 1 1 4 -4.15961 0 1 -4.15961 1
gene 2 2 4 5.56714 0 2 5.56714 1
gene 3 3 4 5.01795 0 3 5.01795 1
gene 1 3 16 3.68308 0 29 3.68308 1
gene 1 16 4 5.57736 0 30 5.57736 1
gene 2 2 16 -5.38316 0 121 -5.38316 0
gene 2 2 50 -0.993965 0 128 -0.993965 1
gene 1 50 16 -2.05947 0 129 -2.05947 1
gene 1 50 4 -0.497177 0 201 -0.497177 1
genomeend 88

/* Organism #89 Fitness: 9 Error: 1 */
genomestart 89
trait 1 0.1 0 0 0 0 0 0 0 
trait 2 0.15 0 0.210692 0.117016 0 0 0.170148 0 
trait 3 0.239583 0 0 0 0.255964 0 0 0.307951 
node 1 2 1 3
node 2 2 1 1
node 3 1 1 1
node 4 1 0 2
node 16 1 0 0
node 50 1 0 0
gene 1 1 4 -4.57321 0 1 -4.57321 1
gene 2 2 4 8 0 2 8 1
gene 3 3 4 2.93888 0 3 2.93888 1
gene 1 3 16 0.617008 0 29 0.617008 1
gene 1 16 4 6.4125 0 30 6.4125 1
gene 2 2 16 -2.02437 0 121 -2.02437 0
gene 2 2 50 1.21275 0 128 1.21275 1
gene 1 50 16 -0.796762 0 129 -0.796762 1
genomeend 89

/* Organism #90 Fitness: 8.92113 Error: 1.01317 */
genomestart 90
trait 1 0.1 0 0 0 0 0 0 0 
trait 2 0.15 0 0.210692 0.117016 0 0 0.170148 0 
trait 3 0.239583 0 0 0 0.255964 0 0 0.307951 
node 1 2 1 3
node 2 2 1 1
node 3 1 1 1
node 4 1 0 2
node 16 1 0 0
node 50 1 0 0
gene 1 1 4 -4.28253 0 1 -4.28253 1
gene 2 2 4 8 0 2 8 1
gene 3 3 4 3.32036 0 3 3.32036 1
gene 1 3 16 0.868131 0 29 0.868131 1
gene 1 16 4 5.89918 0 30 5.89918 1
gene 2 2 16 0.596179 0 121 0.596179 0
gene 2 2 50 -0.966422 0 128 -0.966422 1
gene 1 50 16 -2.22198 0 129 -2.22198 1
gene 1 50 4 0.937727 0 201 0.937727 1
genomeend 90

/* Organism #91 Fitness: 3.99984 Error: 2.00004 */
genomestart 91
trait 1 0.1 0 0 0 0 0 0 0 
trait 2 0.15 0 0.210692 0.117016 0 0 0.170148 0 
trait 3 0.239583 0 0 0 0.255964 0 0 0.307951 
node 1 2 1 3
node 2 2 1 1
node 3 1 1 1
node 4 1 0 2
node 16 1 0 0
node 50 1 0 0
gene 1 1 4 -4.36065 0 1 -4.36065 1
gene 2 2 4 2.26806 0 2 2.26806 1
gene 3 3 4 0.800216 0 3 0.800216 1
gene 1 3 16 3.53698 0 29 3.53698 1
gene 1 16 4 -0.750984 0 30 -0.750984 1
gene 2 2 16 -4.35247 0 121 -4.35247 0
gene 2 2 50 0.705687 0 128 0.705687 1
gene 1 50 16 0.234993 0 129 0.234993 1
genomeend 91

/* Organism #92 Fitness: 8.9834 Error: 1.00277 */
genomestart 92
trait 1 0.1 0 0 0 0 0 0 0 
trait 2 0.15 0 0.210692 0.117016 0 0 0.170148 0 
trait 3 0.239583 0 0 0 0.255964 0 0 0.307951 
node 1 1 1 3
node 2 2 1 1
node 3 1 1 1
node 4 1 0 2
node 16 1 0 0
node 50 1 0 0
gene 1 1 4 -6.84577 0 1 -6.84577 1
gene 2 2 4 8 0 2 8 1
gene 3 3 4 4.48159 0 3 4.48159 1
gene 1 3 16 2.63721 0 29 2.63721 1
gene 1 16 4 3.80859 0 30 3.80859 1
gene 2 2 16 -5.13749 0 121 -5.13749 0
gene 2 2 50 -1.74869 0 128 -1.74869 1
gene 1 50 16 -1.41552 0 129 -1.41552 1
gene 1 50 4 -0.497177 0 201 -0.497177 1
genomeend 92

/* Organism #93 Fitness: 4.02429 Error: 1.99394 */
genomestart 93
trait 1 0.1 0 0 0 0 0 0 0 
trait 2 0.15 0 0.210692 0.117016 0 0 0.170148 0 
trait 3 0.239583 0 0 0 0.255964 0 0 0.307951 
node 1 2 1 3
node 2 2 1 1
node 3 1 1 1
node 4 1 0 2
node 16 1 0 0
node 50 1 0 0
gene 1 1 4 1.74337 0 1 1.74337 1
gene 2 2 4 6.85151 0 2 6.85151 1
gene 3 3 4 3.47326 0 3 3.47326 1
gene 1 3 16 5.71821 0 29 5.71821 1
gene 1 16 4 3.40117 0 30 3.40117 1
gene 2 2 16 -7.2467 0 121 -7.2467 0
gene 2 2 50 0.726974 0 128 0.726974 1
gene 1 50 16 -1.16214 0 129 -1.16214 1
gene 1 50 4 -1.78353 0 201 -1.78353 1
genomeend 93

/* Organism #94 Fitness: 8.99971 Error: 1.00005 */
genomestart 94
trait 1 0.1 0 0 0 0 0 0 0 
trait 2 0.15 0 0.210692 0.117016 0 0 0.170148 0 
trait 3 0.239583 0 0 0 0.255964 0 0 0.307951 
node 1 2 1 3
node 2 2 1 1
node 3 1 1 1
node 4 1 0 2
node 16 1 0 0
node 50 1 0 0
gene 1 1 4 -2.76156 0 1 -2.76156 1
gene 2 2 4 6.17362 0 2 6.17362 1
gene 3 3 4 7.33492 0 3 7.33492 1
gene 1 3 16 2.29594 0 29 2.29594 1
gene 1 16 4 -2.27607 0 30 -2.27607 1
gene 2 2 16 1.57231 0 121 1.57231 0
gene 2 2 50 0.271104 0 128 0.271104 1
gene 1 50 16 -0.877865 0 129 -0.877865 1
gene 1 50 4 1.95689 0 201 1.95689 1
genomeend 94

/* Organism #95 Fitness: 7.25609 Error: 1.30629 */
genomestart 95
trait 1 0.1 0 0 0 0 0 0 0 
trait 2 0.15 0 0.210692 0.117016 0 0 0.170148 0 
trait 3 0.239583 0 0 0 0.255964 0 0 0.307951 
node 1 2 1 3
node 2 2 1 1
node 3 1 1 1
node 4 1 0 2
node 16 1 0 0
node 50 1 0 0
gene 1 1 4 -2.33392 0 1 -2.33392 1
gene 2 2 4 6.24206 0 2 6.24206 1
gene 3 3 4 6.94168 0 3 6.94168 1
gene 1 3 16 5.13683 0 29 5.13683 1
gene 1 16 4 5.13569 0 30 5.13569 1
gene 2 2 16 -3.86677 0 121 -3.86677 0
gene 2 2 50 0.274918 0 128 0.274918 1
gene 1 50 16 0.259026 0 129 0.259026 1
gene 1 50 4 -2.38421 0 201 -2.38421 1
genomeend 95

/* Organism #96 Fitness: 8.99461 Error: 1.0009 */
genomestart 96
trait 1 0.1 0 0 0 0 0 0 0 
trait 2 0.15 0 0.210692 0.117016 0 0 0.170148 0 
trait 3 0.239583 0 0 0 0.255964 0 0 0.307951 
node 1 2 1 3
node 2 2 1 1
node 3 1 1 1
node 4 1 0 2
node 16 1 0 0
node 50 1 0 0
gene 1 1 4 -6.26318 0 1 -6.26318 1
gene 2 2 4 7.93461 0 2 7.93461 1
gene 3 3 4 3.41611 0 3 3.41611 1
gene 1 3 16 2.9543 0 29 2.9543 1
gene 1 16 4 4.97409 0 30 4.97409 1
gene 2 2 16 0.906171 0 121 0.906171 0
gene 2 2 50 -1.04348 0 128 -1.04348 1
gene 1 50 16 1.4333 0 129 1.4333 1
genomeend 96

/* Organism #97 Fitness: 4.00277 Error: 1.99931 */
genomestart 97
trait 1 0.1 0 0 0 0 0 0 0 
trait 2 0.15 0 0.210692 0.117016 0 0 0.170148 0 
trait 3 0.239583 0 0 0 0.255964 0 0 0.307951 
node 1 2 1 3
node 2 2 1 1
node 3 1 1 1
node 4 1 0 2
node 16 1 0 0
node 50 1 0 0
gene 1 1 4 -5.00223 0 1 -5.00223 1
gene 2 2 4 3.51668 0 2 3.51668 1
gene 3 3 4 3.00014 0 3 3.00014 1
gene 1 3 16 1.73875 0 29 1.73875 1
gene 1 16 4 7.91974 0 30 7.91974 1
gene 2 2 16 -4.75326 0 121 -4.75326 0
gene 2 2 50 -3.41424 0 128 -3.41424 1
gene 1 50 16 -4.26977 0 129 -4.26977 1
gene 1 50 4 -0.919706 0 201 -0.919706 1
genomeend 97

/* Organism #98 Fitness: 4.00089 Error: 1.99978 */
genomestart 98
trait 1 0.1 0 0 0 0 0 0 0 
trait 2 0.15 0 0.210692 0.117016 0 0 0.170148 0 
trait 3 0.239583 0 0 0 0.255964 0 0 0.307951 
node 1 2 1 3
node 2 2 1 1
node 3 1 1 1
node 4 1 0 2
node 16 1 0 0
node 50 1 0 0
gene 1 1 4 -3.70359 0 1 -3.70359 1
gene 2 2 4 3.33509 0 2 3.33509 1
gene 3 3 4 6.70395 0 3 6.70395 1
gene 1 3 16 2.01921 0 29 2.01921 1
gene 1 16 4 5.14576 0 30 5.14576 1
gene 2 2 16 -3.47201 0 121 -3.47201 0
gene 2 2 50 0.0438169 0 128 0.0438169 1
gene 1 50 16 -3.56632 0 129 -3.56632 1
gene 1 50 4 -2.419 0 201 -2.419 1
genomeend 98

/* Species #15 : (Size 8) (AF 7.49371) (Age 8)  */


/* Organism #99 Fitness: 8.99907 Error: 1.00016 */
genomestart 99
trait 1 0.119861 0 0 0.0108655 0.0612545 0.0825411 0.0163541 0.0117658 
trait 2 0.498574 0.00898047 0.165052 0.0177123 0.0652004 0 0.126703 0.148573 
trait 3 0.278035 0 0.00129092 0.0126312 0.14533 0.00809991 0 0.220236 
node 1 1 1 3
node 2 3 1 1
node 3 1 1 1
node 4 1 0 2
gene 3 1 4 -3.29373 0 1 -3.29373 1
gene 3 2 4 5.19743 0 2 5.19743 1
gene 1 3 4 5.23579 0 3 5.23579 1
genomeend 99

/* Organism #100 Fitness: 4.0917 Error: 1.9772 */
genomestart 100
trait 1 0.119861 0 0 0.0108655 0.0612545 0.0825411 0.0163541 0.0117658 
trait 2 0.498574 0.00898047 0.165052 0.0177123 0.0652004 0 0.126703 0.148573 
trait 3 0.278035 0 0.00129092 0.0126312 0.14533 0.00809991 0 0.220236 
node 1 1 1 3
node 2 3 1 1
node 3 1 1 1
node 4 1 0 2
node 71 1 0 0
gene 3 1 4 -2.49376 0 1 -2.49376 1
gene 3 2 4 7.33517 0 2 7.33517 1
gene 1 3 4 6.5139 0 3 6.5139 0
gene 1 3 71 1 0 211 0 1
gene 1 71 4 6.5139 0 212 0 1
genomeend 100

/* Organism #101 Fitness: 6.64595 Error: 1.42203 */
genomestart 101
trait 1 0.119861 0 0 0.0108655 0.0612545 0.0825411 0.0163541 0.0117658 
trait 2 0.498574 0.00898047 0.165052 0.0177123 0.0652004 0 0.126703 0.148573 
trait 3 0.278035 0 0.00129092 0.0126312 0.14533 0.00809991 0 0.220236 
node 1 1 1 3
node 2 3 1 1
node 3 1 1 1
node 4 1 0 2
gene 3 1 4 -0.0640126 0 1 -0.0640126 1
gene 1 2 4 1.81188 0 2 1.81188 1
gene 1 3 4 4.75115 0 3 4.75115 1
genomeend 101

/* Organism #102 Fitness: 8.6138 Error: 1.06507 */
genomestart 102
trait 1 0.119861 0 0 0.0108655 0.0612545 0.0825411 0.0163541 0.0117658 
trait 2 0.498574 0.00898047 0.165052 0.0177123 0.0652004 0 0.126703 0.148573 
trait 3 0.278035 0 0.00129092 0.0126312 0.14533 0.00809991 0 0.220236 
node 1 1 1 3
node 2 3 1 1
node 3 1 1 1
node 4 1 0 2
gene 3 1 4 -0.541189 0 1 -0.541189 1
gene 1 2 4 8 0 2 8 1
gene 1 3 4 4.02245 0 3 4.02245 1
genomeend 102

/* Organism #103 Fitness: 7.65443 Error: 1.23334 */
genomestart 103
trait 1 0.119861 0 0 0.0108655 0.0612545 0.0825411 0.0163541 0.0117658 
trait 2 0.498574 0.00898047 0.165052 0.0177123 0.0652004 0 0.126703 0.148573 
trait 3 0.278035 0 0.00129092 0.0126312 0.14533 0.00809991 0 0.220236 
node 1 1 1 3
node 2 3 1 1
node 3 1 1 1
node 4 1 0 2
gene 3 1 4 -0.241573 0 1 -0.241573 1
gene 3 2 4 7.188 0 2 7.188 1
gene 1 3 4 4.12362 0 3 4.12362 1
genomeend 103

/* Organism #104 Fitness: 8.25264 Error: 1.12726 */
genomestart 104
trait 1 0.119861 0 0 0.0108655 0.0612545 0.0825411 0.0163541 0.0117658 
trait 2 0.498574 0.00898047 0.165052 0.0177123 0.0652004 0 0.126703 0.148573 
trait 3 0.278035 0 0.00129092 0.0126312 0.14533 0.00809991 0 0.220236 
node 1 1 1 3
node 2 3 1 1
node 3 1 1 1
node 4 1 0 2
gene 3 1 4 -0.573843 0 1 -0.573843 1
gene 1 2 4 5.85297 0 2 5.85297 1
gene 1 3 4 1.09508 0 3 1.09508 1
genomeend 104

/* Organism #105 Fitness: 8.61259 Error: 1.06528 */
genomestart 105
trait 1 0.119861 0 0 0.0108655 0.0612545 0.0825411 0.0163541 0.0117658 
trait 2 0 0.00898047 0.165052 0.359398 0.0652004 0 0.126703 0.148573 
trait 3 0.278035 0 0.00129092 0.0126312 0.14533 0.00809991 0 0.220236 
node 1 1 1 3
node 2 3 1 1
node 3 1 1 1
node 4 1 0 2
gene 3 1 4 -0.540502 0 1 -0.540502 1
gene 3 2 4 7.89503 0 2 7.89503 1
gene 1 3 4 6.00584 0 3 6.00584 1
genomeend 105

/* Organism #106 Fitness: 7.07953 Error: 1.33926 */
genomestart 106
trait 1 0.119861 0 0 0.0108655 0.0612545 0.0825411 0.0163541 0.0117658 
trait 2 0.498574 0.00898047 0.165052 0.0177123 0.0652004 0 0.126703 0.148573 
trait 3 0.278035 0 0.00129092 0.0126312 0.14533 0.00809991 0 0.220236 
node 1 1 1 3
node 2 3 1 1
node 3 1 1 1
node 4 1 0 2
gene 3 1 4 -0.999119 0 1 -0.999119 1
gene 3 2 4 7.33517 0 2 7.33517 1
gene 1 3 4 1.14109 0 3 1.14109 1
genomeend 106

/* Species #16 : (Size 6) (AF 3.63642) (Age 5)  */


/* Organism #107 Fitness: 5.63797 Error: 1.62556 */
genomestart 107
trait 1 0.117378 0 0 0.00950735 0.0535977 0.0722235 0.0143098 0.0102951 
trait 2 0.455002 0.00785791 0.170757 0.0301252 0.0570504 0 0.132133 0.130001 
trait 3 0.273229 0 0.00112955 0.0110523 0.159159 0.00708743 0 0.2312 
node 1 1 1 3
node 2 3 1 1
node 3 1 1 1
node 4 2 0 2
node 60 1 0 0
gene 3 1 4 -2.12601 0 1 -2.12601 1
gene 3 2 4 -0.906095 0 2 -0.906095 1
gene 1 3 4 -2.00228 0 3 -2.00228 0
gene 1 3 60 1.67325 0 164 1.67325 1
gene 1 60 4 3.08508 0 165 3.08508 1
genomeend 107

/* Organism #108 Fitness: 3.97791 Error: 2.00553 */
genomestart 108
trait 1 0.117378 0 0 0.00950735 0.0535977 0.0722235 0.0143098 0.0102951 
trait 2 0.455002 0.00785791 0.170757 0.0301252 0.0570504 0 0.132133 0.130001 
trait 3 0.273229 0 0.00112955 0.0110523 0.159159 0.00708743 0 0.2312 
node 1 1 1 3
node 2 3 1 1
node 3 1 1 1
node 4 2 0 2
node 60 1 0 0
gene 3 1 4 -3.46855 0 1 -3.46855 1
gene 3 2 4 0.325938 0 2 0.325938 1
gene 1 3 4 -2.76435 0 3 -2.76435 0
gene 1 3 60 2.98399 0 164 2.98399 1
gene 1 60 4 4.32079 0 165 4.32079 1
genomeend 108

/* Organism #109 Fitness: 1.32483 Error: 2.84899 */
genomestart 109
trait 1 0.117378 0 0 0.00950735 0.0535977 0.0722235 0.0143098 0.0102951 
trait 2 0.455002 0.00785791 0.170757 0.0301252 0.0570504 0 0.132133 0.130001 
trait 3 0.273229 0 0.00112955 0.0110523 0.159159 0.00708743 0 0.2312 
node 1 1 1 3
node 2 3 1 1
node 3 1 1 1
node 4 2 0 2
node 60 1 0 0
gene 3 1 4 -0.553453 0 1 -0.553453 1
gene 3 2 4 -1.35746 0 2 -1.35746 1
gene 1 3 4 -1.42201 0 3 -1.42201 0
gene 1 3 60 1.13544 0 164 1.13544 1
gene 1 60 4 3.08508 0 165 3.08508 1
genomeend 109

/* Organism #110 Fitness: 4.09642 Error: 1.97604 */
genomestart 110
trait 1 0.117378 0 0 0.00950735 0.0535977 0.0722235 0.0143098 0.0102951 
trait 2 0.455002 0.00785791 0.170757 0.0301252 0.0570504 0 0.132133 0.130001 
trait 3 0.273229 0 0.00112955 0.0110523 0.159159 0.00708743 0 0.2312 
node 1 1 1 3
node 2 3 1 1
node 3 1 1 1
node 4 2 0 2
node 60 1 0 0
gene 3 1 4 -2.12601 0 1 -2.12601 1
gene 3 2 4 -0.906095 0 2 -0.906095 1
gene 1 3 4 -2.00228 0 3 -2.00228 0
gene 1 3 60 1.13544 0 164 1.13544 1
gene 1 60 4 1.38813 0 165 1.38813 1
genomeend 110

/* Organism #111 Fitness: 2.55221 Error: 2.40244 */
genomestart 111
trait 1 0.117378 0 0 0.00950735 0.0535977 0.0722235 0.0143098 0.0102951 
trait 2 0.455002 0.00785791 0.170757 0.0301252 0.0570504 0 0.132133 0.130001 
trait 3 0.273229 0 0.00112955 0.0110523 0.159159 0.00708743 0 0.2312 
node 1 1 1 3
node 2 3 1 1
node 3 1 1 1
node 4 1 0 2
node 60 1 0 0
gene 3 1 4 -0.2746 0 1 -0.2746 1
gene 3 2 4 -1.53371 0 2 -1.53371 1
gene 1 3 4 -1.12831 0 3 -1.12831 0
gene 1 3 60 1.80418 0 164 1.80418 1
gene 1 60 4 3.77647 0 165 3.77647 1
genomeend 111

/* Organism #112 Fitness: 4.2292 Error: 1.9435 */
genomestart 112
trait 1 0.117378 0 0 0.00950735 0.0535977 0.0722235 0.0143098 0.0102951 
trait 2 0.455002 0.00785791 0.170757 0.0301252 0.0570504 0 0.132133 0.130001 
trait 3 0.273229 0 0.00112955 0.0110523 0.159159 0.00708743 0 0.2312 
node 1 1 1 3
node 2 3 1 1
node 3 1 1 1
node 4 2 0 2
node 60 1 0 0
gene 3 1 4 -1.33973 0 1 -1.33973 1
gene 3 2 4 -2.31071 0 2 -2.31071 1
gene 1 3 4 -2.36501 0 3 -2.36501 0
gene 1 3 60 0.398762 0 164 0.398762 1
gene 1 60 4 0.927744 0 165 0.927744 1
genomeend 112

/* Species #17 : (Size 6) (AF 4.00574) (Age 5)  */


/* Organism #113 Fitness: 4.01719 Error: 1.99571 */
genomestart 113
trait 1 0.119861 0 0 0.0108655 0.0612545 0.0825411 0.0163541 0.0117658 
trait 2 0.498574 0.00898047 0.165052 0.0177123 0.0652004 0 0.126703 0.148573 
trait 3 0.278035 0 0.00129092 0.0126312 0.14533 0.00809991 0 0.220236 
node 1 1 1 3
node 2 3 1 1
node 3 1 1 1
node 4 1 0 2
node 59 1 0 0
gene 3 1 4 1.09043 0 1 1.09043 1
gene 3 2 4 5.2821 0 2 5.2821 0
gene 1 3 4 0.839869 0 3 0.839869 1
gene 3 2 59 2.06204 0 162 2.06204 1
gene 3 59 4 5.57584 0 163 5.57584 1
gene 1 1 59 -1.24178 0 184 -1.24178 1
genomeend 113

/* Organism #114 Fitness: 4.00005 Error: 1.99999 */
genomestart 114
trait 1 0.119861 0 0 0.0108655 0.0612545 0.0825411 0.0163541 0.0117658 
trait 2 0.498574 0.00898047 0.165052 0.0177123 0.0652004 0 0.126703 0.148573 
trait 3 0.278035 0 0.00129092 0.0126312 0.14533 0.00809991 0 0.220236 
node 1 1 1 3
node 2 3 1 1
node 3 1 1 1
node 4 1 0 2
node 59 1 0 0
gene 3 1 4 0.680563 0 1 0.680563 1
gene 3 2 4 5.38731 0 2 5.38731 0
gene 1 3 4 0.0782037 0 3 0.0782037 1
gene 3 2 59 1.82255 0 162 1.82255 1
gene 3 59 4 0.0997955 0 163 0.0997955 1
gene 1 1 59 -3.04817 0 184 -3.04817 1
genomeend 114

/* Organism #115 Fitness: 4 Error: 2 */
genomestart 115
trait 1 0.119861 0 0 0.0108655 0.0612545 0.0825411 0.0163541 0.0117658 
trait 2 0.498574 0.00898047 0.165052 0.0177123 0.0652004 0 0.126703 0.148573 
trait 3 0.278035 0.878842 0.400198 0 0 0.00809991 0 0.205953 
node 1 1 1 3
node 2 3 1 1
node 3 1 1 1
node 4 1 0 2
node 59 1 0 0
gene 3 1 4 0.349933 0 1 0.349933 1
gene 3 2 4 6.77148 0 2 6.77148 0
gene 1 3 4 1.24573 0 3 1.24573 1
gene 3 2 59 0.149411 0 162 0.149411 1
gene 3 59 4 8 0 163 8 1
gene 1 1 59 1.44518 0 184 1.44518 1
genomeend 115

/* Organism #116 Fitness: 4 Error: 2 */
genomestart 116
trait 1 0.119861 0.917997 0 0.0488916 0.0612545 0.153832 0.315313 0.0117658 
trait 2 0.498574 0.00898047 0.165052 0.0177123 0.0652004 0 0.126703 0.148573 
trait 3 0.278035 0 0.00129092 0.0126312 0.14533 0.00809991 0 0.220236 
node 1 1 1 3
node 2 3 1 1
node 3 1 1 1
node 4 1 0 2
node 59 1 0 0
gene 3 1 4 -0.0138859 0 1 -0.0138859 1
gene 3 2 4 7.7663 0 2 7.7663 0
gene 1 3 4 -0.182501 0 3 -0.182501 1
gene 3 2 59 2.06204 0 162 2.06204 1
gene 3 59 4 5.54013 0 163 5.54013 1
gene 1 1 59 2.079 0 184 2.079 1
genomeend 116

/* Organism #117 Fitness: 4 Error: 2 */
genomestart 117
trait 1 0.119861 0 0 0.0108655 0.0612545 0.0825411 0.0163541 0.0117658 
trait 2 0.498574 0.00898047 0.165052 0.0177123 0.0652004 0 0.126703 0.148573 
trait 3 0.278035 0 0.00129092 0.0126312 0.14533 0.00809991 0 0.220236 
node 1 1 1 3
node 2 3 1 1
node 3 1 1 1
node 4 1 0 2
node 59 1 0 0
gene 3 1 4 2.16636 0 1 2.16636 1
gene 3 2 4 1.75192 0 2 1.75192 0
gene 1 3 4 -1.39813 0 3 -1.39813 1
gene 3 2 59 1.26635 0 162 1.26635 1
gene 3 59 4 6.69976 0 163 6.69976 1
gene 1 1 59 2.43988 0 184 2.43988 1
genomeend 117

/* Organism #118 Fitness: 4.01719 Error: 1.99571 */
genomestart 118
trait 1 0.119861 0 0 0.0108655 0.0612545 0.0825411 0.0163541 0.0117658 
trait 2 0.498574 0.00898047 0.165052 0.0177123 0.0652004 0 0.126703 0.148573 
trait 3 0.278035 0 0.00129092 0.0126312 0.14533 0.00809991 0 0.220236 
node 1 1 1 3
node 2 3 1 1
node 3 1 1 1
node 4 1 0 2
node 59 1 0 0
gene 3 1 4 1.09043 0 1 1.09043 1
gene 3 2 4 5.2821 0 2 5.2821 0
gene 1 3 4 0.839869 0 3 0.839869 1
gene 3 2 59 2.06204 0 162 2.06204 1
gene 3 59 4 5.57584 0 163 5.57584 1
gene 1 1 59 -1.24178 0 184 -1.24178 1
genomeend 118

/* Species #18 : (Size 7) (AF 6.46699) (Age 4)  */


/* Organism #119 Fitness: 6.34199 Error: 1.48167 */
genomestart 119
trait 1 0.1 0 0.00330402 0 0 0 0 0.0338313 
trait 2 0.198653 0 0.000137132 0.00315322 0 0 0 0.00720161 
trait 3 0.396224 0 0 0 0.144815 0.0438927 0 0.00829836 
node 1 1 1 3
node 2 1 1 1
node 3 1 1 1
node 4 1 0 2
node 10 1 0 0
node 62 1 0 0
gene 1 1 4 -2.64763 0 1 -2.64763 1
gene 2 2 4 -8 0 2 -8 1
gene 2 3 4 8 0 3 8 1
gene 2 2 10 7.54001 0 14 7.54001 0
gene 2 10 4 -8 0 15 -8 1
gene 3 3 10 -3.27418 0 38 -3.27418 1
gene 2 2 62 2.84202 0 174 2.84202 1
gene 2 62 10 6.83084 0 175 6.83084 1
genomeend 119

/* Organism #120 Fitness: 9 Error: 1 */
genomestart 120
trait 1 0.1 0 0.00330402 0 0 0 0 0.0338313 
trait 2 0.198653 0 0.000137132 0.00315322 0 0 0 0.00720161 
trait 3 0.396224 0 0 0 0.144815 0.0438927 0 0.00829836 
node 1 1 1 3
node 2 1 1 1
node 3 1 1 1
node 4 1 0 2
node 10 1 0 0
node 62 1 0 0
gene 1 1 4 -2.94649 0 1 -2.94649 1
gene 2 2 4 -8 0 2 -8 1
gene 2 3 4 8 0 3 8 1
gene 2 2 10 8 0 14 8 0
gene 2 10 4 -5.88965 0 15 -5.88965 1
gene 3 3 10 -5.44687 0 38 -5.44687 1
gene 2 2 62 4.93033 0 174 4.93033 1
gene 2 62 10 5.31536 0 175 5.31536 1
genomeend 120

/* Organism #121 Fitness: 6.34199 Error: 1.48167 */
genomestart 121
trait 1 0.1 0 0.00330402 0 0 0 0 0.0338313 
trait 2 0.198653 0 0.000137132 0.00315322 0 0 0 0.00720161 
trait 3 0.396224 0 0 0 0.144815 0.0438927 0 0.00829836 
node 1 2 1 3
node 2 1 1 1
node 3 1 1 1
node 4 1 0 2
node 10 1 0 0
node 62 1 0 0
gene 1 1 4 -2.64763 0 1 -2.64763 1
gene 2 2 4 -8 0 2 -8 1
gene 2 3 4 8 0 3 8 1
gene 2 2 10 7.54001 0 14 7.54001 0
gene 2 10 4 -8 0 15 -8 1
gene 3 3 10 -3.27418 0 38 -3.27418 1
gene 2 2 62 2.84202 0 174 2.84202 1
gene 2 62 10 6.83084 0 175 6.83084 1
genomeend 121

/* Organism #122 Fitness: 9 Error: 1 */
genomestart 122
trait 1 0.1 0 0.00330402 0 0 0 0 0.0338313 
trait 2 0.198653 0 0.000137132 0.00315322 0 0 0 0.00720161 
trait 3 0.396224 0 0 0 0.144815 0.0438927 0 0.00829836 
node 1 1 1 3
node 2 1 1 1
node 3 1 1 1
node 4 1 0 2
node 10 1 0 0
node 62 1 0 0
gene 1 1 4 -1.61306 0 1 -1.61306 1
gene 2 2 4 -8 0 2 -8 1
gene 2 3 4 8 0 3 8 1
gene 2 2 10 7.84596 0 14 7.84596 1
gene 2 10 4 -8 0 15 -8 1
gene 3 3 10 -5.53332 0 38 -5.53332 1
gene 2 2 62 1.35394 0 174 1.35394 1
gene 2 62 10 4.8759 0 175 4.8759 1
genomeend 122

/* Organism #123 Fitness: 4.24293 Error: 1.94016 */
genomestart 123
trait 1 0.1 0 0.00330402 0 0 0 0 0.0338313 
trait 2 0.198653 0 0.000137132 0.00315322 0 0 0 0.00720161 
trait 3 0.396224 0 0 0 0.144815 0.0438927 0 0.00829836 
node 1 1 1 3
node 2 1 1 1
node 3 1 1 1
node 4 1 0 2
node 10 1 0 0
node 62 1 0 0
gene 1 1 4 -1.2421 0 1 -1.2421 1
gene 2 2 4 -6.19819 0 2 -6.19819 1
gene 2 3 4 8 0 3 8 1
gene 2 2 10 0.145039 0 14 0.145039 0
gene 2 10 4 -8 0 15 -8 1
gene 3 3 10 -3.27418 0 38 -3.27418 1
gene 2 2 62 1.74358 0 174 1.74358 1
gene 2 62 10 1.23898 0 175 1.23898 1
genomeend 123

/* Organism #124 Fitness: 4 Error: 2 */
genomestart 124
trait 1 0.1 0 0.00330402 0 0 0 0 0.0338313 
trait 2 0.198653 0 0.000137132 0.00315322 0 0 0 0.00720161 
trait 3 0.396224 0 0 0 0.144815 0.0438927 0 0.00829836 
node 1 1 1 3
node 2 1 1 1
node 3 1 1 1
node 4 1 0 2
node 10 1 0 0
node 62 1 0 0
gene 1 1 4 -2.90323 0 1 -2.90323 1
gene 2 2 4 -0.435194 0 2 -0.435194 1
gene 2 3 4 6.19323 0 3 6.19323 1
gene 2 2 10 5.66854 0 14 5.66854 0
gene 2 10 4 -8 0 15 -8 1
gene 3 3 10 -0.976598 0 38 -0.976598 1
gene 2 2 62 2.84202 0 174 2.84202 1
gene 2 62 10 -0.0894955 0 175 -0.0894955 1
genomeend 124

/* Organism #125 Fitness: 6.34199 Error: 1.48167 */
genomestart 125
trait 1 0.1 0 0.00330402 0 0 0 0 0.0338313 
trait 2 0.198653 0 0.000137132 0.00315322 0 0 0 0.00720161 
trait 3 0.396224 0 0 0 0.144815 0.0438927 0 0.00829836 
node 1 1 1 3
node 2 1 1 1
node 3 1 1 1
node 4 1 0 2
node 10 1 0 0
node 62 1 0 0
gene 1 1 4 -2.64763 0 1 -2.64763 1
gene 2 2 4 -8 0 2 -8 1
gene 2 3 4 8 0 3 8 1
gene 2 2 10 7.54001 0 14 7.54001 0
gene 2 10 4 -8 0 15 -8 1
gene 3 3 10 -3.27418 0 38 -3.27418 1
gene 2 2 62 2.84202 0 174 2.84202 1
gene 3 62 10 6.83084 0 175 6.83084 1
genomeend 125

/* Species #20 : (Size 10) (AF 5.26199) (Age 3)  */


/* Organism #126 Fitness: 8.75702 Error: 1.04077 */
genomestart 126
trait 1 0.0276855 0.309743 0 0.0650593 0.0156555 0 0.236272 0.397665 
trait 2 0.2 0 0 0 0 0 0 0 
trait 3 0.429744 0.240013 0.421649 0.0947218 0.489458 0.404251 0 0 
node 1 3 1 3
node 2 1 1 1
node 3 1 1 1
node 4 1 0 2
node 10 1 0 0
node 44 1 0 0
node 66 1 0 0
gene 1 1 4 0.953398 0 1 0.953398 1
gene 2 2 4 2.49317 0 2 2.49317 0
gene 2 3 4 -5.10614 0 3 -5.10614 0
gene 3 2 10 -1.02634 0 14 -1.02634 0
gene 2 10 4 -2.19008 0 15 -2.19008 1
gene 1 1 10 3.24122 0 46 3.24122 1
gene 2 2 44 0.37315 0 106 0.37315 1
gene 2 44 10 -4.27267 0 107 -4.27267 1
gene 2 3 66 1 0 188 0 1
gene 2 66 4 -5.10614 0 189 0 1
gene 2 44 66 -0.946013 0 205 -0.946013 1
genomeend 126

/* Organism #127 Fitness: 4 Error: 2 */
genomestart 127
trait 1 0.0276855 0.309743 0 0.0650593 0.0156555 0 0.236272 0.397665 
trait 2 0.2 0 0 0 0 0 0 0 
trait 3 0.429744 0.240013 0.421649 0.0947218 0.489458 0.404251 0 0 
node 1 3 1 3
node 2 1 1 1
node 3 1 1 1
node 4 1 0 2
node 10 1 0 0
node 44 1 0 0
node 66 1 0 0
gene 1 1 4 1.20869 0 1 1.20869 1
gene 2 2 4 0.344512 0 2 0.344512 0
gene 2 3 4 -4.59831 0 3 -4.59831 0
gene 3 2 10 -1.93808 0 14 -1.93808 0
gene 2 10 4 -3.35726 0 15 -3.35726 1
gene 1 1 10 4.12084 0 46 4.12084 1
gene 2 2 44 -0.0501419 0 106 -0.0501419 1
gene 2 44 10 -3.00905 0 107 -3.00905 1
gene 2 3 66 1.83544 0 188 1.83544 1
gene 2 66 4 -4.79256 0 189 -4.79256 1
gene 2 44 66 1.23736 0 205 1.23736 1
genomeend 127

/* Organism #128 Fitness: 4 Error: 2 */
genomestart 128
trait 1 0.0276855 0.309743 0 0.0650593 0.0156555 0 0.236272 0.397665 
trait 2 0.2 0 0 0 0.957884 0 0 0 
trait 3 0.429744 0.240013 0.421649 0.0947218 0.489458 0.404251 0 0 
node 1 3 1 3
node 2 1 1 1
node 3 1 1 1
node 4 1 0 2
node 10 1 0 0
node 44 1 0 0
node 66 1 0 0
gene 1 1 4 -2.03421 0 1 -2.03421 1
gene 2 2 4 0.765515 0 2 0.765515 0
gene 2 3 4 -4.26924 0 3 -4.26924 0
gene 3 2 10 -1.95341 0 14 -1.95341 0
gene 2 10 4 0.265511 0 15 0.265511 1
gene 1 1 10 4.85969 0 46 4.85969 1
gene 2 2 44 1.28314 0 106 1.28314 1
gene 2 44 10 -5.07958 0 107 -5.07958 1
gene 2 3 66 1.29382 0 188 1.29382 1
gene 2 66 4 -5.65768 0 189 -5.65768 1
gene 2 44 66 1.10384 0 205 1.10384 1
genomeend 128

/* Organism #129 Fitness: 8.75702 Error: 1.04077 */
genomestart 129
trait 1 0.0276855 0.309743 0 0.0650593 0.0156555 0 0.236272 0.397665 
trait 2 0.2 0 0 0 0 0 0 0 
trait 3 0.429744 0.240013 0.421649 0.0947218 0.489458 0.404251 0 0 
node 1 3 1 3
node 2 1 1 1
node 3 1 1 1
node 4 3 0 2
node 10 1 0 0
node 44 1 0 0
node 66 1 0 0
gene 1 1 4 0.953398 0 1 0.953398 1
gene 2 2 4 2.49317 0 2 2.49317 0
gene 2 3 4 -5.10614 0 3 -5.10614 0
gene 3 2 10 -1.02634 0 14 -1.02634 0
gene 2 10 4 -2.19008 0 15 -2.19008 1
gene 1 1 10 3.24122 0 46 3.24122 1
gene 2 2 44 0.37315 0 106 0.37315 1
gene 2 44 10 -4.27267 0 107 -4.27267 1
gene 2 3 66 1 0 188 0 1
gene 2 66 4 -5.10614 0 189 0 1
gene 2 44 66 -0.946013 0 205 -0.946013 1
genomeend 129

/* Organism #130 Fitness: 5.34707 Error: 1.68763 */
genomestart 130
trait 1 0.0276855 0.309743 0 0.0650593 0.0156555 0 0.236272 0.397665 
trait 2 0.2 0 0 0 0 0 0 0 
trait 3 0.429744 0.240013 0.421649 0.0947218 0.489458 0.404251 0 0 
node 1 3 1 3
node 2 1 1 1
node 3 2 1 1
node 4 1 0 2
node 10 1 0 0
node 44 1 0 0
node 66 1 0 0
gene 1 1 4 0.58092 0 1 0.58092 1
gene 2 2 4 0.624672 0 2 0.624672 0
gene 2 3 4 -6.75543 0 3 -6.75543 0
gene 3 2 10 -2.61208 0 14 -2.61208 0
gene 2 10 4 -0.544145 0 15 -0.544145 1
gene 1 1 10 4.73838 0 46 4.73838 1
gene 2 2 44 1.87992 0 106 1.87992 1
gene 2 44 10 -4.17638 0 107 -4.17638 1
gene 2 3 66 1.65111 0 188 1.65111 1
gene 2 66 4 -3.09748 0 189 -3.09748 1
gene 2 44 66 -0.946013 0 205 -0.946013 1
genomeend 130

/* Organism #131 Fitness: 4 Error: 2 */
genomestart 131
trait 1 0.0276855 0.309743 0 0.0650593 0.0156555 0 0.236272 0.397665 
trait 2 0.2 0 0 0 0 0 0 0 
trait 3 0.429744 0.240013 0.421649 0.0947218 0.489458 0.404251 0 0 
node 1 3 1 3
node 2 1 1 1
node 3 1 1 1
node 4 1 0 2
node 10 1 0 0
node 44 1 0 0
node 66 1 0 0
gene 1 1 4 -0.830485 0 1 -0.830485 1
gene 2 2 4 4.04259 0 2 4.04259 0
gene 2 3 4 -6.34374 0 3 -6.34374 0
gene 3 2 10 -0.0879696 0 14 -0.0879696 0
gene 2 10 4 -3.05208 0 15 -3.05208 1
gene 1 1 10 3.9787 0 46 3.9787 1
gene 2 2 44 2.71461 0 106 2.71461 1
gene 2 44 10 -3.72639 0 107 -3.72639 1
gene 2 3 66 -1.03093 0 188 -1.03093 1
gene 2 66 4 -7.52862 0 189 -7.52862 1
gene 2 44 66 1.73116 0 205 1.73116 1
genomeend 131

/* Organism #132 Fitness: 1.00181 Error: 2.99909 */
genomestart 132
trait 1 0.0276855 0.309743 0 0.0650593 0.0156555 0 0.236272 0.397665 
trait 2 0.2 0 0 0 0 0 0 0 
trait 3 0.429744 0.240013 0.421649 0.0947218 0.489458 0.404251 0 0 
node 1 3 1 3
node 2 1 1 1
node 3 1 1 1
node 4 1 0 2
node 10 1 0 0
node 44 1 0 0
node 66 1 0 0
gene 1 1 4 1.81722 0 1 1.81722 1
gene 2 2 4 2.74601 0 2 2.74601 0
gene 2 3 4 -3.66147 0 3 -3.66147 0
gene 3 2 10 0.777078 0 14 0.777078 0
gene 2 10 4 -1.52249 0 15 -1.52249 1
gene 1 1 10 1.49579 0 46 1.49579 1
gene 2 2 44 -0.512497 0 106 -0.512497 1
gene 2 44 10 -6.07654 0 107 -6.07654 1
gene 2 3 66 2.08913 0 188 2.08913 1
gene 2 66 4 -5.10614 0 189 -5.10614 1
gene 2 44 66 -1.72835 0 205 -1.72835 1
genomeend 132

/* Organism #133 Fitness: 8.75702 Error: 1.04077 */
genomestart 133
trait 1 0.0276855 0.309743 0 0.0650593 0.0156555 0 0.236272 0.397665 
trait 2 0.2 0 0 0 0 0 0 0 
trait 3 0.429744 0.240013 0.421649 0.0947218 0.489458 0.404251 0 0 
node 1 3 1 3
node 2 1 1 1
node 3 1 1 1
node 4 1 0 2
node 10 1 0 0
node 44 1 0 0
node 66 1 0 0
gene 1 1 4 0.953398 0 1 0.953398 1
gene 2 2 4 2.49317 0 2 2.49317 0
gene 2 3 4 -5.10614 0 3 -5.10614 0
gene 3 2 10 -1.02634 0 14 -1.02634 0
gene 2 10 4 -2.19008 0 15 -2.19008 1
gene 1 1 10 3.24122 0 46 3.24122 1
gene 2 2 44 0.37315 0 106 0.37315 1
gene 2 44 10 -4.27267 0 107 -4.27267 1
gene 2 3 66 1 0 188 0 1
gene 2 66 4 -5.10614 0 189 0 1
gene 2 44 66 -0.946013 0 205 -0.946013 1
genomeend 133

/* Organism #134 Fitness: 4 Error: 2 */
genomestart 134
trait 1 0.0276855 0.309743 0 0.0650593 0.0156555 0 0.236272 0.397665 
trait 2 0.2 0 0 0 0 0 0 0 
trait 3 0.429744 0.240013 0.421649 0.0947218 0.489458 0.404251 0 0 
node 1 3 1 3
node 2 1 1 1
node 3 1 1 1
node 4 1 0 2
node 10 1 0 0
node 44 1 0 0
node 66 1 0 0
gene 1 1 4 -0.959502 0 1 -0.959502 1
gene 2 2 4 4.89848 0 2 4.89848 0
gene 2 3 4 -4.39818 0 3 -4.39818 0
gene 3 2 10 -0.786462 0 14 -0.786462 0
gene 2 10 4 -3.33491 0 15 -3.33491 1
gene 1 1 10 -1.88353 0 46 -1.88353 1
gene 2 2 44 0.37315 0 106 0.37315 1
gene 2 44 10 2.13507 0 107 2.13507 1
gene 2 3 66 1 0 188 1 1
gene 2 66 4 -4.33715 0 189 -4.33715 1
gene 2 44 66 0.384518 0 205 0.384518 1
genomeend 134

/* Organism #135 Fitness: 4 Error: 2 */
genomestart 135
trait 1 0.0276855 0.309743 0 0.0650593 0.0156555 0 0.236272 0.397665 
trait 2 0.2 0 0 0 0 0 0 0 
trait 3 0.429744 0.240013 0.421649 0.0947218 0.489458 0.404251 0 0 
node 1 3 1 3
node 2 1 1 1
node 3 1 1 1
node 4 1 0 2
node 10 1 0 0
node 44 1 0 0
node 66 1 0 0
gene 1 1 4 1.0419 0 1 1.0419 1
gene 2 2 4 3.37988 0 2 3.37988 0
gene 2 3 4 0.333262 0 3 0.333262 0
gene 3 2 10 -2.13919 0 14 -2.13919 0
gene 2 10 4 -1.25423 0 15 -1.25423 1
gene 1 1 10 0.548265 0 46 0.548265 1
gene 2 2 44 2.74329 0 106 2.74329 1
gene 2 44 10 -3.34452 0 107 -3.34452 1
gene 2 3 66 1.33677 0 188 1.33677 1
gene 2 66 4 -6.27103 0 189 -6.27103 1
gene 2 44 66 0.428846 0 205 0.428846 1
genomeend 135

/* Species #21 : (Size 14) (AF 7.19689) (Age 2)  */


/* Organism #136 Fitness: 9 Error: 1 */
genomestart 136
trait 1 0.0687065 0 0 0.00543277 0 0.0436834 0.290201 0.00367682 
trait 2 0.191168 0.0939999 0.0451037 0.207395 0 0 0.117044 0 
trait 3 0.298577 0 0.00114748 0.0124516 0.0847882 0.00656196 0 0.153136 
node 1 3 1 3
node 2 1 1 1
node 3 1 1 1
node 4 3 0 2
node 29 1 0 0
node 68 1 0 0
gene 1 1 4 -1.81285 0 1 -1.81285 1
gene 2 2 4 8 0 2 8 1
gene 3 3 4 -7.97039 0 3 -7.97039 1
gene 3 3 29 7.22555 0 64 7.22555 0
gene 3 29 4 -7.91474 0 65 -7.91474 1
gene 3 2 29 -4.68871 0 118 -4.68871 1
gene 3 3 68 1 0 196 0 1
gene 3 68 29 7.22555 0 197 0 1
genomeend 136

/* Organism #137 Fitness: 9 Error: 1 */
genomestart 137
trait 1 0.0687065 0 0 0.00543277 0 0.0436834 0.290201 0.00367682 
trait 2 0.191168 0.0939999 0.0451037 0.207395 0 0 0.117044 0 
trait 3 0.298577 0 0.00114748 0.0124516 0.0847882 0.00656196 0 0.153136 
node 1 3 1 3
node 2 1 1 1
node 3 1 1 1
node 4 3 0 2
node 29 1 0 0
node 68 1 0 0
gene 1 1 4 -1.81285 0 1 -1.81285 1
gene 2 2 4 8 0 2 8 1
gene 3 3 4 -7.97039 0 3 -7.97039 1
gene 3 3 29 7.22555 0 64 7.22555 0
gene 3 29 4 -7.91474 0 65 -7.91474 1
gene 3 2 29 -4.68871 0 118 -4.68871 1
gene 3 3 68 1 0 196 0 1
gene 3 68 29 7.22555 0 197 0 1
genomeend 137

/* Organism #138 Fitness: 4 Error: 2 */
genomestart 138
trait 1 0.0687065 0 0 0.00543277 0 0.0436834 0.290201 0.00367682 
trait 2 0.191168 0.0939999 0.0209636 0.207395 0 0 0.117044 0 
trait 3 0.298577 0 0.00114748 0.0124516 0.0847882 0.00656196 0 0.153136 
node 1 3 1 3
node 2 1 1 1
node 3 1 1 1
node 4 3 0 2
node 29 1 0 0
node 68 1 0 0
gene 1 1 4 -2.28696 0 1 -2.28696 1
gene 2 2 4 7.08155 0 2 7.08155 1
gene 3 3 4 -8 0 3 -8 1
gene 3 3 29 7.02344 0 64 7.02344 0
gene 3 29 4 -8 0 65 -8 1
gene 3 2 29 -2.65877 0 118 -2.65877 1
gene 3 3 68 0.240547 0 196 0.240547 1
gene 3 68 29 8 0 197 8 1
genomeend 138

/* Organism #139 Fitness: 9 Error: 1 */
genomestart 139
trait 1 0.0687065 0 0 0.00543277 0 0.0436834 0.290201 0.00367682 
trait 2 0.191168 0.0939999 0.0451037 0.207395 0 0 0.117044 0 
trait 3 0.298577 0 0.00114748 0.0124516 0.0847882 0.00656196 0 0.153136 
node 1 3 1 3
node 2 1 1 1
node 3 1 1 1
node 4 3 0 2
node 29 1 0 0
node 68 2 0 0
gene 1 1 4 -2.38469 0 1 -2.38469 1
gene 2 2 4 5.90056 0 2 5.90056 1
gene 3 3 4 -7.34469 0 3 -7.34469 1
gene 3 3 29 4.76591 0 64 4.76591 0
gene 3 29 4 -7.52654 0 65 -7.52654 1
gene 3 2 29 -4.24528 0 118 -4.24528 1
gene 3 3 68 2.25172 0 196 2.25172 1
gene 3 68 29 7.33251 0 197 7.33251 1
genomeend 139

/* Organism #140 Fitness: 8.99394 Error: 1.00101 */
genomestart 140
trait 1 0.0687065 0 0 0.00543277 0 0.0436834 0.290201 0.00367682 
trait 2 0.191168 0.0939999 0.0451037 0.207395 0 0 0.117044 0 
trait 3 0.298577 0 0.00114748 0.0124516 0.0847882 0.00656196 0 0.153136 
node 1 3 1 3
node 2 1 1 1
node 3 1 1 1
node 4 3 0 2
node 29 1 0 0
node 68 1 0 0
gene 1 1 4 -0.0245445 0 1 -0.0245445 1
gene 2 2 4 8 0 2 8 1
gene 3 3 4 -5.98661 0 3 -5.98661 1
gene 3 3 29 1.18839 0 64 1.18839 0
gene 3 29 4 -6.57749 0 65 -6.57749 1
gene 3 2 29 -2.41852 0 118 -2.41852 1
gene 3 3 68 1.99025 0 196 1.99025 1
gene 3 68 29 8 0 197 8 1
genomeend 140

/* Organism #141 Fitness: 5.2815 Error: 1.70185 */
genomestart 141
trait 1 0.0687065 0 0 0.00543277 0 0.0436834 0.290201 0.00367682 
trait 2 0.191168 0 0.0451037 0 0 0 0.117044 0 
trait 3 0.298577 0 0.00114748 0.0124516 0.0847882 0.00656196 0 0.153136 
node 1 3 1 3
node 2 1 1 1
node 3 1 1 1
node 4 3 0 2
node 29 1 0 0
node 68 1 0 0
gene 1 1 4 -2.55461 0 1 -2.55461 1
gene 2 2 4 2.38075 0 2 2.38075 1
gene 3 3 4 -7.97039 0 3 -7.97039 1
gene 3 3 29 7.36235 0 64 7.36235 0
gene 3 29 4 -8 0 65 -8 1
gene 3 2 29 -6.43651 0 118 -6.43651 1
gene 3 3 68 1.53591 0 196 1.53591 1
gene 3 68 29 2.45964 0 197 2.45964 1
genomeend 141

/* Organism #142 Fitness: 4.00001 Error: 2 */
genomestart 142
trait 1 0.0687065 0 0 0.00543277 0 0.0436834 0.290201 0.00367682 
trait 2 0.191168 0.0939999 0.0451037 0.207395 0 0 0.117044 0 
trait 3 0.298577 0 0.00114748 0.0124516 0.0847882 0.00656196 0 0.153136 
node 1 3 1 3
node 2 1 1 1
node 3 1 1 1
node 4 3 0 2
node 29 1 0 0
node 68 1 0 0
gene 1 1 4 -3.28972 0 1 -3.28972 1
gene 2 2 4 6.86998 0 2 6.86998 1
gene 3 3 4 -8 0 3 -8 1
gene 3 3 29 4.7888 0 64 4.7888 0
gene 3 29 4 -6.16633 0 65 -6.16633 1
gene 3 2 29 -2.23487 0 118 -2.23487 1
gene 3 3 68 0.236351 0 196 0.236351 1
gene 3 68 29 6.65142 0 197 6.65142 1
genomeend 142

/* Organism #143 Fitness: 7.87942 Error: 1.19297 */
genomestart 143
trait 1 0.0687065 0 0 0.00543277 0 0.0436834 0.290201 0.00367682 
trait 2 0.191168 0.0939999 0.0451037 0.207395 0 0 0.117044 0 
trait 3 0.298577 0 0.00114748 0.0124516 0.0847882 0.00656196 0 0.153136 
node 1 3 1 3
node 2 1 1 1
node 3 1 1 1
node 4 3 0 2
node 29 1 0 0
node 68 1 0 0
gene 1 1 4 -0.736389 0 1 -0.736389 1
gene 2 2 4 8 0 2 8 1
gene 3 3 4 -6.01896 0 3 -6.01896 1
gene 3 3 29 7.22555 0 64 7.22555 0
gene 3 29 4 -1.53523 0 65 -1.53523 1
gene 3 2 29 -3.49902 0 118 -3.49902 1
gene 3 3 68 1.04692 0 196 1.04692 1
gene 3 68 29 6.39964 0 197 6.39964 1
genomeend 143

/* Organism #144 Fitness: 8.74072 Error: 1.04353 */
genomestart 144
trait 1 0.0687065 0 0 0.00543277 0 0.0436834 0.290201 0.00367682 
trait 2 0.191168 0.0939999 0.0451037 0.207395 0 0 0.117044 0 
trait 3 0 0 0 0 0 0 0 0.792469 
node 1 3 1 3
node 2 1 1 1
node 3 1 1 1
node 4 3 0 2
node 29 1 0 0
node 68 1 0 0
gene 1 1 4 -3.7726 0 1 -3.7726 1
gene 2 2 4 8 0 2 8 1
gene 3 3 4 -6.9098 0 3 -6.9098 1
gene 3 3 29 5.96467 0 64 5.96467 0
gene 3 29 4 -7.41874 0 65 -7.41874 1
gene 3 2 29 -3.56632 0 118 -3.56632 1
gene 3 3 68 0.0956603 0 196 0.0956603 1
gene 3 68 29 7.10866 0 197 7.10866 1
genomeend 144

/* Organism #145 Fitness: 8.99997 Error: 1.00001 */
genomestart 145
trait 1 0.0687065 0 0 0.00543277 0 0.0436834 0.290201 0.00367682 
trait 2 0.191168 0.0939999 0.0451037 0.207395 0 0 0.117044 0 
trait 3 0.298577 0 0.00114748 0.0124516 0.0847882 0.00656196 0 0.153136 
node 1 3 1 3
node 2 1 1 1
node 3 1 1 1
node 4 3 0 2
node 29 1 0 0
node 68 1 0 0
gene 1 1 4 -4.04841 0 1 -4.04841 1
gene 2 2 4 6.52298 0 2 6.52298 1
gene 3 3 4 -6.47674 0 3 -6.47674 1
gene 3 3 29 4.73478 0 64 4.73478 0
gene 3 29 4 -7.47062 0 65 -7.47062 1
gene 3 2 29 -5.68926 0 118 -5.68926 1
gene 3 3 68 2.66417 0 196 2.66417 1
gene 3 68 29 7.38539 0 197 7.38539 1
genomeend 145

/* Organism #146 Fitness: 4.00053 Error: 1.99987 */
genomestart 146
trait 1 0.0687065 0 0 0.00543277 0 0.0436834 0.290201 0.00367682 
trait 2 0.191168 0.0939999 0.0451037 0.207395 0 0 0.117044 0 
trait 3 0.298577 0 0.00114748 0.0124516 0.0847882 0.00656196 0 0.153136 
node 1 3 1 3
node 2 1 1 1
node 3 1 1 1
node 4 3 0 2
node 29 1 0 0
node 68 1 0 0
gene 1 1 4 -1.81285 0 1 -1.81285 1
gene 2 2 4 8 0 2 8 1
gene 3 3 4 -8 0 3 -8 1
gene 3 3 29 -2.18543 0 64 -2.18543 0
gene 3 29 4 -8 0 65 -8 1
gene 3 2 29 1.91076 0 118 1.91076 1
gene 3 3 68 2.40707 0 196 2.40707 1
gene 3 68 29 8 0 197 8 1
genomeend 146

/* Organism #147 Fitness: 4.00004 Error: 1.99999 */
genomestart 147
trait 1 0.0687065 0 0 0.00543277 0 0.0436834 0.290201 0.00367682 
trait 2 0.191168 0.0939999 0.0451037 0.207395 0 0 0.117044 0 
trait 3 0.298577 0 0.00114748 0.0124516 0.0847882 0.00656196 0 0.153136 
node 1 3 1 3
node 2 1 1 1
node 3 1 1 1
node 4 3 0 2
node 29 1 0 0
node 68 1 0 0
gene 1 1 4 -1.23132 0 1 -1.23132 1
gene 2 2 4 6.34132 0 2 6.34132 1
gene 3 3 4 -8 0 3 -8 1
gene 3 3 29 6.91235 0 64 6.91235 0
gene 3 29 4 -8 0 65 -8 1
gene 3 2 29 -3.21322 0 118 -3.21322 1
gene 3 3 68 2.34487 0 196 2.34487 1
gene 3 68 29 7.50494 0 197 7.50494 1
genomeend 147

/* Organism #148 Fitness: 9 Error: 1 */
genomestart 148
trait 1 0.0687065 0 0 0.00543277 0 0.0436834 0.290201 0.00367682 
trait 2 0.191168 0.0939999 0.0451037 0.207395 0 0 0.117044 0 
trait 3 0.298577 0 0.00114748 0.0124516 0.0847882 0.00656196 0 0.153136 
node 1 3 1 3
node 2 1 1 1
node 3 1 1 1
node 4 3 0 2
node 29 1 0 0
node 68 1 0 0
gene 1 1 4 -0.278687 0 1 -0.278687 1
gene 2 2 4 8 0 2 8 1
gene 3 3 4 -6.24228 0 3 -6.24228 1
gene 3 3 29 5.88418 0 64 5.88418 0
gene 3 29 4 -6.54125 0 65 -6.54125 1
gene 3 2 29 -6.72178 0 118 -6.72178 1
gene 3 3 68 0.46997 0 196 0.46997 1
gene 3 68 29 8 0 197 8 1
genomeend 148

/* Organism #149 Fitness: 8.86025 Error: 1.02338 */
genomestart 149
trait 1 0.0687065 0 0 0.00543277 0 0.0436834 0.290201 0.00367682 
trait 2 0.191168 0.0939999 0.0451037 0.207395 0 0 0.117044 0 
trait 3 0.298577 0 0.00114748 0.0124516 0.0847882 0.00656196 0 0.153136 
node 1 3 1 3
node 2 1 1 1
node 3 1 1 1
node 4 3 0 2
node 29 1 0 0
node 68 1 0 0
gene 1 1 4 -0.757904 0 1 -0.757904 1
gene 2 2 4 8 0 2 8 1
gene 3 3 4 -8 0 3 -8 1
gene 3 3 29 6.10903 0 64 6.10903 0
gene 3 29 4 -6.38195 0 65 -6.38195 1
gene 3 2 29 -4.91348 0 118 -4.91348 1
gene 3 3 68 -1.1321 0 196 -1.1321 1
gene 3 68 29 8 0 197 8 1
genomeend 149
