
/* Species #1 : (Size 8) (AF 8.85794) (Age 32)  */


/* Organism #0 Fitness: 9 Error: 1 */
genomestart 0
trait 1 0.0890625 0 0.0956526 0.0118097 0.0958162 0.0183187 0 0.000470027 
trait 2 0.318384 0 0 0.125901 0 0 0 0 
trait 3 0.215625 0.165032 0.170934 0 0 0 0 0 
node 1 2 1 3
node 2 3 1 1
node 3 3 1 1
node 4 2 0 2
gene 3 1 4 -4.1428 0 1 -4.1428 1
gene 2 2 4 8 0 2 8 1
gene 2 3 4 -8 0 3 -8 1
genomeend 0

/* Organism #1 Fitness: 9 Error: 1 */
genomestart 1
trait 1 0.0890625 0 0.0956526 0.0118097 0.0958162 0.0183187 0 0.000470027 
trait 2 0.318384 0 0 0.125901 0 0 0 0 
trait 3 0.215625 0.165032 0.170934 0 0 0 0 0 
node 1 2 1 3
node 2 3 1 1
node 3 3 1 1
node 4 2 0 2
gene 3 1 4 -4.1428 0 1 -4.1428 1
gene 2 2 4 8 0 2 8 1
gene 2 3 4 -8 0 3 -8 1
genomeend 1

/* Organism #2 Fitness: 8.61944 Error: 1.06411 */
genomestart 2
trait 1 0.0890625 0 0.0956526 0.0118097 0.0958162 0.0183187 0 0.000470027 
trait 2 0.318384 0 0 0.125901 0 0 0 0 
trait 3 0.215625 0.165032 0.170934 0 0 0 0 0 
node 1 2 1 3
node 2 3 1 1
node 3 3 1 1
node 4 2 0 2
gene 3 1 4 -0.552004 0 1 -0.552004 1
gene 2 2 4 8 0 2 8 1
gene 2 3 4 1.7938 0 3 1.7938 1
genomeend 2

/* Organism #3 Fitness: 9 Error: 1 */
genomestart 3
trait 1 0.0890625 0 0.0956526 0.0118097 0.0958162 0.0183187 0 0.000470027 
trait 2 0.318384 0 0 0.125901 0 0 0 0 
trait 3 0.215625 0.165032 0.170934 0 0 0 0 0 
node 1 2 1 3
node 2 3 1 1
node 3 3 1 1
node 4 2 0 2
gene 3 1 4 -4.1428 0 1 -4.1428 1
gene 2 2 4 8 0 2 8 1
gene 2 3 4 -8 0 3 -8 1
genomeend 3

/* Organism #4 Fitness: 9 Error: 1 */
genomestart 4
trait 1 0.0890625 0 0.0956526 0.0118097 0.0958162 0.0183187 0 0.000470027 
trait 2 0.318384 0 0 0.125901 0 0 0 0 
trait 3 0.215625 0.165032 0.170934 0 0 0 0 0 
node 1 2 1 3
node 2 2 1 1
node 3 3 1 1
node 4 2 0 2
gene 3 1 4 -4.1428 0 1 -4.1428 1
gene 2 2 4 8 0 2 8 1
gene 2 3 4 -8 0 3 -8 1
genomeend 4

/* Organism #5 Fitness: 8.24608 Error: 1.1284 */
genomestart 5
trait 1 0.0890625 0 0.0956526 0.0118097 0.0958162 0.0183187 0 0.000470027 
trait 2 0.318384 0 0 0.125901 0 0 0 0 
trait 3 0.215625 0.165032 0.170934 0 0 0 0 0 
node 1 2 1 3
node 2 3 1 1
node 3 3 1 1
node 4 2 0 2
gene 3 1 4 -0.446257 0 1 -0.446257 1
gene 2 2 4 6.8435 0 2 6.8435 1
gene 2 3 4 -7.11443 0 3 -7.11443 1
genomeend 5

/* Organism #6 Fitness: 8.99804 Error: 1.00033 */
genomestart 6
trait 1 0.0890625 0 0.0956526 0.0118097 0.0958162 0.224746 0 0.000470027 
trait 2 0.318384 0 0 0.125901 0 0 0 0 
trait 3 0.215625 0.165032 0.170934 0 0 0 0 0 
node 1 2 1 3
node 2 3 1 1
node 3 3 1 1
node 4 2 0 2
gene 3 1 4 -2.45162 0 1 -2.45162 1
gene 2 2 4 6.85067 0 2 6.85067 1
gene 2 3 4 -6.03209 0 3 -6.03209 1
genomeend 6

/* Organism #7 Fitness: 9 Error: 1 */
genomestart 7
trait 1 0.0890625 0 0.0956526 0.0118097 0.0958162 0.0183187 0 0.000470027 
trait 2 0.318384 0 0 0.125901 0 0 0 0 
trait 3 0.215625 0.165032 0.170934 0 0 0 0 0 
node 1 2 1 3
node 2 3 1 1
node 3 3 1 1
node 4 2 0 2
gene 3 1 4 -4.27335 0 1 -4.27335 1
gene 2 2 4 8 0 2 8 1
gene 2 3 4 -8 0 3 -8 1
genomeend 7

/* Species #2 : (Size 9) (AF 6.77777) (Age 29)  */


/* Organism #8 Fitness: 9 Error: 1 */
genomestart 8
trait 1 0.090625 0 0 0 0.0572251 0.00792814 0 0.0103854 
trait 2 0.2 0 0 0 0 0 0 0 
trait 3 0.3 0 0 0 0 0 0 0 
node 1 3 1 3
node 2 3 1 1
node 3 2 1 1
node 4 2 0 2
node 9 3 0 0
gene 1 1 4 -4.15697 0 1 -4.15697 1
gene 1 2 4 -1.59626 0 2 -1.59626 1
gene 2 3 4 2.09874 0 3 2.09874 0
gene 2 3 9 3.63147 0 12 3.63147 1
gene 3 9 4 7.76001 0 13 7.76001 1
gene 2 2 9 4.27259 0 20 4.27259 1
gene 3 1 9 -1.41777 0 138 -1.41777 1
genomeend 8

/* Organism #9 Fitness: 9 Error: 1 */
genomestart 9
trait 1 0.090625 0 0 0 0.0572251 0.00792814 0 0.0103854 
trait 2 0.2 0 0 0 0 0 0 0 
trait 3 0.3 0 0 0 0 0 0 0 
node 1 3 1 3
node 2 3 1 1
node 3 2 1 1
node 4 2 0 2
node 9 3 0 0
gene 1 1 4 -4.15697 0 1 -4.15697 1
gene 1 2 4 -1.59626 0 2 -1.59626 1
gene 2 3 4 2.09874 0 3 2.09874 0
gene 2 3 9 3.63147 0 12 3.63147 1
gene 3 9 4 7.76001 0 13 7.76001 1
gene 2 2 9 4.27259 0 20 4.27259 1
gene 3 1 9 -1.41777 0 138 -1.41777 1
genomeend 9

/* Organism #10 Fitness: 4 Error: 2 */
genomestart 10
trait 1 0 0 0 0 0 0 0 0 
trait 2 0.2 0 0 0 0 0 0 0 
trait 3 0.3 0 0 0 0 0 0 0 
node 1 3 1 3
node 2 3 1 1
node 3 1 1 1
node 4 2 0 2
node 9 3 0 0
gene 1 1 4 -6.26336 0 1 -6.26336 1
gene 1 2 4 -1.32311 0 2 -1.32311 1
gene 2 3 4 -2.69099 0 3 -2.69099 0
gene 2 3 9 3.22405 0 12 3.22405 1
gene 3 9 4 8 0 13 8 1
gene 2 2 9 8 0 20 8 1
gene 3 1 9 -3.30191 0 138 -3.30191 1
genomeend 10

/* Organism #11 Fitness: 9 Error: 1 */
genomestart 11
trait 1 0.0453125 0 0 0 0.0286125 0.00396407 0 0.00519268 
trait 2 0.2 0 0 0 0 0 0 0 
trait 3 0.3 0 0 0 0 0 0 0 
node 1 3 1 3
node 2 3 1 1
node 3 1 1 1
node 4 2 0 2
node 9 3 0 0
gene 1 1 4 -4.59705 0 1 -4.59705 1
gene 1 2 4 -1.59626 0 2 -1.59626 1
gene 2 3 4 -1.84502 0 3 -1.84502 0
gene 2 3 9 3.63147 0 12 3.63147 1
gene 3 9 4 7.76001 0 13 7.76001 1
gene 2 2 9 6.67241 0 20 6.67241 1
gene 3 1 9 -0.820982 0 138 -0.820982 1
genomeend 11

/* Organism #12 Fitness: 4 Error: 2 */
genomestart 12
trait 1 0.090625 0 0 0 0.0572251 0.00792814 0 0.0103854 
trait 2 0.2 0 0 0 0 0 0 0 
trait 3 0.3 0 0 0 0 0 0 0 
node 1 3 1 3
node 2 3 1 1
node 3 2 1 1
node 4 2 0 2
node 9 3 0 0
gene 1 1 4 -4.15697 0 1 -4.15697 1
gene 1 2 4 0.39523 0 2 0.39523 1
gene 2 3 4 3.24837 0 3 3.24837 0
gene 2 3 9 2.03871 0 12 2.03871 1
gene 3 9 4 7.22945 0 13 7.22945 1
gene 2 2 9 6.45062 0 20 6.45062 1
gene 3 1 9 -2.83627 0 138 -2.83627 1
genomeend 12

/* Organism #13 Fitness: 4.00002 Error: 2 */
genomestart 13
trait 1 0 0 0 0 0 0 0 0 
trait 2 0.2 0 0 0 0 0 0 0 
trait 3 0.3 0 0 0 0 0 0 0 
node 1 3 1 3
node 2 3 1 1
node 3 1 1 1
node 4 2 0 2
node 9 3 0 0
gene 1 1 4 -4.59705 0 1 -4.59705 1
gene 1 2 4 -4.17728 0 2 -4.17728 1
gene 3 3 4 -1.12486 0 3 -1.12486 0
gene 2 3 9 2.83906 0 12 2.83906 1
gene 3 9 4 2.18017 0 13 2.18017 1
gene 2 2 9 -0.567644 0 20 -0.567644 1
gene 3 1 9 -2.2494 0 138 -2.2494 1
genomeend 13

/* Organism #14 Fitness: 8.99995 Error: 1.00001 */
genomestart 14
trait 1 0.0453125 0 0 0 0.0286125 0.00396407 0 0.00519268 
trait 2 0.2 0 0 0 0 0 0 0 
trait 3 0.3 0 0 0 0 0 0 0 
node 1 3 1 3
node 2 3 1 1
node 3 2 1 1
node 4 2 0 2
node 9 3 0 0
gene 1 1 4 -4.59705 0 1 -4.59705 1
gene 1 2 4 -3.32833 0 2 -3.32833 1
gene 2 3 4 2.09874 0 3 2.09874 0
gene 2 3 9 3.60141 0 12 3.60141 1
gene 3 9 4 8 0 13 8 1
gene 2 2 9 4.27259 0 20 4.27259 1
gene 3 1 9 -1.41777 0 138 -1.41777 1
genomeend 14

/* Organism #15 Fitness: 8.99999 Error: 1 */
genomestart 15
trait 1 0 0 0 0 0 0 0 0 
trait 2 0.2 0 0 0 0 0 0 0 
trait 3 0.3 0 0 0 0 0 0 0 
node 1 3 1 3
node 2 3 1 1
node 3 1 1 1
node 4 2 0 2
node 9 3 0 0
gene 1 1 4 -2.72848 0 1 -2.72848 1
gene 1 2 4 -2.73818 0 2 -2.73818 1
gene 2 3 4 -0.810362 0 3 -0.810362 0
gene 2 3 9 3.56067 0 12 3.56067 1
gene 3 9 4 6.27227 0 13 6.27227 1
gene 2 2 9 6.38859 0 20 6.38859 1
gene 3 1 9 -2.9971 0 138 -2.9971 1
genomeend 15

/* Organism #16 Fitness: 4 Error: 2 */
genomestart 16
trait 1 0.0453125 0 0 0 0.0286125 0.00396407 0 0.00519268 
trait 2 0.2 0 0 0 0 0 0 0 
trait 3 0.3 0 0 0 0 0 0 0 
node 1 3 1 3
node 2 3 1 1
node 3 1 1 1
node 4 2 0 2
node 9 3 0 0
gene 1 1 4 -3.30413 0 1 -3.30413 1
gene 1 2 4 -0.317301 0 2 -0.317301 1
gene 2 3 4 1.95835 0 3 1.95835 0
gene 2 3 9 2.59804 0 12 2.59804 1
gene 3 9 4 8 0 13 8 1
gene 2 2 9 7.76444 0 20 7.76444 1
gene 3 1 9 0.371757 0 138 0.371757 1
genomeend 16

/* Species #3 : (Size 10) (AF 8.49373) (Age 28)  */


/* Organism #17 Fitness: 9 Error: 1 */
genomestart 17
trait 1 0.03125 0 0.601245 0.0742325 0.602273 0.115146 0 0.000447645 
trait 2 0.226455 0 0 0.0281343 0 0 0 0 
trait 3 0.3 0 0 0 0 0 0 0 
node 1 2 1 3
node 2 2 1 1
node 3 3 1 1
node 4 1 0 2
gene 3 1 4 -3.93564 0 1 -3.93564 1
gene 1 2 4 -8 0 2 -8 1
gene 1 3 4 8 0 3 8 1
genomeend 17

/* Organism #18 Fitness: 9 Error: 1 */
genomestart 18
trait 1 0.03125 0 0.601245 0.0742325 0.602273 0.115146 0 0.000447645 
trait 2 0.226455 0 0 0.0281343 0 0 0 0 
trait 3 0.3 0 0 0 0 0 0 0 
node 1 2 1 3
node 2 2 1 1
node 3 3 1 1
node 4 1 0 2
gene 3 1 4 -3.3918 0 1 -3.3918 1
gene 1 2 4 -8 0 2 -8 1
gene 1 3 4 7.16257 0 3 7.16257 1
genomeend 18

/* Organism #19 Fitness: 9 Error: 1 */
genomestart 19
trait 1 0.03125 0 0.601245 0.0742325 0.602273 0.115146 0 0.000447645 
trait 2 0.226455 0 0 0 0.0265206 0 0.0658284 0 
trait 3 0.3 0 0 0 0 0 0 0 
node 1 2 1 3
node 2 2 1 1
node 3 3 1 1
node 4 1 0 2
gene 3 1 4 -5.00821 0 1 -5.00821 1
gene 1 2 4 -8 0 2 -8 1
gene 1 3 4 8 0 3 8 1
genomeend 19

/* Organism #20 Fitness: 9 Error: 1 */
genomestart 20
trait 1 0.03125 0 0.601245 0.0742325 0.602273 0.115146 0 0.000447645 
trait 2 0.226455 0 0 0.0281343 0 0 0 0 
trait 3 0.3 0 0 0 0 0 0 0 
node 1 2 1 3
node 2 2 1 1
node 3 3 1 1
node 4 1 0 2
gene 3 1 4 -4.57721 0 1 -4.57721 1
gene 1 2 4 -6.38511 0 2 -6.38511 1
gene 1 3 4 8 0 3 8 1
genomeend 20

/* Organism #21 Fitness: 8.99954 Error: 1.00008 */
genomestart 21
trait 1 0.03125 0 0.601245 0.0742325 0.602273 0.115146 0 0.000447645 
trait 2 0.226455 0 0 0.0281343 0 0 0 0 
trait 3 0.3 0 0 0 0 0 0 0 
node 1 2 1 3
node 2 2 1 1
node 3 3 1 1
node 4 1 0 2
gene 3 1 4 -2.16987 0 1 -2.16987 1
gene 1 2 4 -7.8278 0 2 -7.8278 1
gene 1 3 4 8 0 3 8 1
genomeend 21

/* Organism #22 Fitness: 8.93832 Error: 1.0103 */
genomestart 22
trait 1 0.03125 0 0.601245 0.0742325 0.602273 0.115146 0 0.000447645 
trait 2 0.226455 0 0 0.0281343 0 0 0 0 
trait 3 0.3 0 0 0 0 0 0 0 
node 1 2 1 3
node 2 2 1 1
node 3 3 1 1
node 4 1 0 2
gene 3 1 4 -4.71218 0 1 -4.71218 1
gene 1 2 4 -6.88371 0 2 -6.88371 1
gene 1 3 4 5.63932 0 3 5.63932 1
genomeend 22

/* Organism #23 Fitness: 9 Error: 1 */
genomestart 23
trait 1 0.03125 0 0.601245 0.0742325 0.602273 0.115146 0 0.000447645 
trait 2 0.226455 0 0 0.0281343 0 0 0 0 
trait 3 0.3 0 0 0 0 0 0 0 
node 1 2 1 3
node 2 2 1 1
node 3 3 1 1
node 4 1 0 2
gene 3 1 4 -3.78426 0 1 -3.78426 1
gene 1 2 4 -7.66941 0 2 -7.66941 1
gene 1 3 4 7.82688 0 3 7.82688 1
genomeend 23

/* Organism #24 Fitness: 9 Error: 1 */
genomestart 24
trait 1 0.03125 0 0.601245 0.0742325 0.602273 0.115146 0 0.000447645 
trait 2 0.226455 0 0 0.0281343 0 0 0 0 
trait 3 0.3 0 0 0 0 0 0 0 
node 1 2 1 3
node 2 2 1 1
node 3 3 1 1
node 4 1 0 2
gene 3 1 4 -3.50067 0 1 -3.50067 1
gene 1 2 4 -8 0 2 -8 1
gene 1 3 4 8 0 3 8 1
genomeend 24

/* Organism #25 Fitness: 8.9993 Error: 1.00012 */
genomestart 25
trait 1 0.03125 0 0.601245 0.0742325 0.602273 0.115146 0 0.000447645 
trait 2 0.226455 0 0 0.0281343 0 0 0 0 
trait 3 0.3 0 0 0 0 0 0 0 
node 1 2 1 3
node 2 2 1 1
node 3 3 1 1
node 4 1 0 2
gene 3 1 4 -1.97948 0 1 -1.97948 1
gene 1 2 4 -8 0 2 -8 1
gene 1 3 4 8 0 3 8 1
genomeend 25

/* Organism #26 Fitness: 4.00018 Error: 1.99995 */
genomestart 26
trait 1 0.03125 0 0.601245 0.0742325 0.602273 0.115146 0 0.000447645 
trait 2 0.226455 0 0 0.0281343 0 0 0 0 
trait 3 0.3 0 0 0 0 0 0 0 
node 1 2 1 3
node 2 2 1 1
node 3 3 1 1
node 4 1 0 2
gene 3 1 4 1.9686 0 1 1.9686 1
gene 1 2 4 -8 0 2 -8 1
gene 1 3 4 0.274895 0 3 0.274895 1
genomeend 26

/* Species #4 : (Size 9) (AF 8.20194) (Age 28)  */


/* Organism #27 Fitness: 9 Error: 1 */
genomestart 27
trait 1 0.1 0 0 0 0 0 0 0 
trait 2 0.2 0.375713 0 0 0.225547 0.280023 0 0 
trait 3 0.3 0 0 0 0 0 0 0 
node 1 1 1 3
node 2 3 1 1
node 3 2 1 1
node 4 2 0 2
node 12 1 0 0
gene 3 1 4 -6.92029 0 1 -6.92029 1
gene 1 2 4 7.71004 0 2 7.71004 1
gene 2 3 4 8 0 3 8 1
gene 1 2 12 2.59937 0 18 2.59937 1
gene 1 12 4 4.35984 0 19 4.35984 1
gene 1 3 12 2.34332 0 104 2.34332 1
gene 1 1 12 -0.371838 0 290 -0.371838 1
genomeend 27

/* Organism #28 Fitness: 8.98186 Error: 1.00302 */
genomestart 28
trait 1 0.1 0 0 0 0 0 0 0 
trait 2 0.2 0 0 0 0 0 0 0 
trait 3 0.3 0 0 0 0 0 0 0 
node 1 1 1 3
node 2 3 1 1
node 3 2 1 1
node 4 2 0 2
node 12 1 0 0
gene 3 1 4 -7.23921 0 1 -7.23921 1
gene 3 2 4 8 0 2 8 1
gene 2 3 4 5.75079 0 3 5.75079 1
gene 1 2 12 2.73564 0 18 2.73564 1
gene 1 12 4 2.66644 0 19 2.66644 1
gene 1 3 12 1.72288 0 104 1.72288 1
genomeend 28

/* Organism #29 Fitness: 9 Error: 1 */
genomestart 29
trait 1 0.1 0 0 0 0 0 0 0 
trait 2 0.2 0.187857 0 0 0.112774 0.140011 0 0 
trait 3 0.3 0 0 0 0 0 0 0 
node 1 1 1 3
node 2 3 1 1
node 3 2 1 1
node 4 2 0 2
node 12 1 0 0
gene 3 1 4 -6.92029 0 1 -6.92029 1
gene 1 2 4 7.71004 0 2 7.71004 1
gene 2 3 4 8 0 3 8 1
gene 1 2 12 2.59937 0 18 2.59937 1
gene 1 12 4 4.35984 0 19 4.35984 1
gene 1 3 12 2.34332 0 104 2.34332 1
gene 1 1 12 -0.371838 0 290 -0.371838 1
genomeend 29

/* Organism #30 Fitness: 4.00008 Error: 1.99998 */
genomestart 30
trait 1 0.1 0 0 0 0 0 0 0 
trait 2 0.2 0.375713 0 0 0.225547 0.280023 0 0 
trait 3 0.3 0 0 0 0 0 0 0 
node 1 1 1 3
node 2 3 1 1
node 3 2 1 1
node 4 2 0 2
node 12 1 0 0
gene 3 1 4 -4.58227 0 1 -4.58227 1
gene 1 2 4 8 0 2 8 1
gene 2 3 4 8 0 3 8 1
gene 1 2 12 2.00952 0 18 2.00952 1
gene 1 12 4 6.80109 0 19 6.80109 1
gene 1 3 12 1.71448 0 104 1.71448 1
gene 1 1 12 1.13334 0 290 1.13334 1
genomeend 30

/* Organism #31 Fitness: 8.99915 Error: 1.00014 */
genomestart 31
trait 1 1 0 0 0 0 0 0 0 
trait 2 0.2 0 0 0 0 0 0 0 
trait 3 0.3 0 0 0 0 0 0 0 
node 1 1 1 3
node 2 3 1 1
node 3 2 1 1
node 4 2 0 2
node 12 1 0 0
gene 3 1 4 -7.02093 0 1 -7.02093 1
gene 3 2 4 5.50966 0 2 5.50966 1
gene 2 3 4 5.71142 0 3 5.71142 1
gene 1 2 12 3.19051 0 18 3.19051 1
gene 1 12 4 3.37561 0 19 3.37561 1
gene 1 3 12 3.54003 0 104 3.54003 1
genomeend 31

/* Organism #32 Fitness: 6.90035 Error: 1.37315 */
genomestart 32
trait 1 0.1 0 0 0 0 0 0 0 
trait 2 0.2 0 0 0 0 0 0 0 
trait 3 0.3 0 0 0 0 0 0 0 
node 1 1 1 3
node 2 3 1 1
node 3 2 1 1
node 4 3 0 2
node 12 1 0 0
gene 3 1 4 -8 0 1 -8 1
gene 1 2 4 5.88649 0 2 5.88649 1
gene 2 3 4 5.54112 0 3 5.54112 1
gene 1 2 12 1.27403 0 18 1.27403 1
gene 1 12 4 2.63173 0 19 2.63173 1
gene 1 3 12 4.66509 0 104 4.66509 1
genomeend 32

/* Organism #33 Fitness: 8.94599 Error: 1.00901 */
genomestart 33
trait 1 0.1 0 0 0 0 0 0 0 
trait 2 0.2 0.375713 0 0 0.225547 0.280023 0 0 
trait 3 0.3 0 0 0 0 0 0 0 
node 1 1 1 3
node 2 3 1 1
node 3 2 1 1
node 4 2 0 2
node 12 1 0 0
gene 3 1 4 -5.2697 0 1 -5.2697 1
gene 1 2 4 6.38661 0 2 6.38661 1
gene 2 3 4 6.34651 0 3 6.34651 1
gene 1 2 12 0.873243 0 18 0.873243 1
gene 1 12 4 6.29845 0 19 6.29845 1
gene 1 3 12 0.201147 0 104 0.201147 1
gene 1 1 12 -2.79814 0 290 -2.79814 1
genomeend 33

/* Organism #34 Fitness: 9 Error: 1 */
genomestart 34
trait 1 0.1 0 0 0 0 0 0 0 
trait 2 0.2 0.375713 0 0 0.225547 0.280023 0 0 
trait 3 0.3 0 0 0 0 0 0 0 
node 1 1 1 3
node 2 3 1 1
node 3 2 1 1
node 4 2 0 2
node 12 1 0 0
gene 3 1 4 -8 0 1 -8 1
gene 1 2 4 6.00772 0 2 6.00772 1
gene 2 3 4 8 0 3 8 1
gene 1 2 12 1.56289 0 18 1.56289 1
gene 1 12 4 5.00797 0 19 5.00797 1
gene 1 3 12 2.07628 0 104 2.07628 1
gene 1 1 12 1.6053 0 290 1.6053 1
genomeend 34

/* Organism #35 Fitness: 8.99 Error: 1.00167 */
genomestart 35
trait 1 0.1 0 0 0 0 0 0 0 
trait 2 0.2 0.187857 0 0 0.112774 0.140011 0 0 
trait 3 0.3 0 0 0 0 0 0 0 
node 1 1 1 3
node 2 3 1 1
node 3 2 1 1
node 4 2 0 2
node 12 1 0 0
gene 3 1 4 -8 0 1 -8 1
gene 1 2 4 7.21046 0 2 7.21046 1
gene 2 3 4 6.36238 0 3 6.36238 1
gene 1 2 12 4.75909 0 18 4.75909 1
gene 1 12 4 2.93943 0 19 2.93943 1
gene 1 3 12 3.88916 0 104 3.88916 1
gene 1 1 12 -1.47012 0 290 -1.47012 1
genomeend 35

/* Species #5 : (Size 10) (AF 7.36999) (Age 26)  */


/* Organism #36 Fitness: 9 Error: 1 */
genomestart 36
trait 1 0.05 0 0.437269 0.0539872 0.438017 0.0837428 0 0.00143246 
trait 2 0.2 0 0 0 0 0 0 0.231445 
trait 3 0.3 0 0 0 0 0 0 0 
node 1 1 1 3
node 2 2 1 1
node 3 3 1 1
node 4 2 0 2
node 16 1 0 0
gene 3 1 4 -5.89411 0 1 -5.89411 1
gene 3 2 4 7.19634 0 2 7.19634 1
gene 2 3 4 6.2524 0 3 6.2524 1
gene 3 2 16 4.62444 0 32 4.62444 1
gene 3 16 4 5.82975 0 33 5.82975 1
gene 1 1 16 -2.70287 0 53 -2.70287 1
gene 3 3 16 5.2754 0 158 5.2754 1
genomeend 36

/* Organism #37 Fitness: 4.2789 Error: 1.93145 */
genomestart 37
trait 1 0.05 0 0.437269 0.0539872 0.438017 0.0837428 0 0.00143246 
trait 2 0.2 0 0 0 0 0 0 0.231445 
trait 3 0.65 0 0 0 0 0 0.372082 0 
node 1 1 1 3
node 2 2 1 1
node 3 3 1 1
node 4 2 0 2
node 16 1 0 0
gene 3 1 4 -6.75607 0 1 -6.75607 1
gene 3 2 4 6.14074 0 2 6.14074 1
gene 2 3 4 1.69747 0 3 1.69747 1
gene 3 2 16 4.11983 0 32 4.11983 1
gene 3 16 4 8 0 33 8 1
gene 1 1 16 -5.03924 0 53 -5.03924 1
gene 3 3 16 5.48987 0 158 5.48987 1
genomeend 37

/* Organism #38 Fitness: 6.63122 Error: 1.42488 */
genomestart 38
trait 1 0.05 0 0.437269 0.0539872 0.438017 0.0837428 0 0.00143246 
trait 2 0.2 0 0 0 0 0 0 0.231445 
trait 3 1 0 0 0 0 0 0.744163 0 
node 1 1 1 3
node 2 3 1 1
node 3 3 1 1
node 4 2 0 2
node 16 1 0 0
gene 3 1 4 -7.25214 0 1 -7.25214 1
gene 3 2 4 1.79037 0 2 1.79037 1
gene 2 3 4 6.10823 0 3 6.10823 1
gene 2 2 16 3.55184 0 32 3.55184 1
gene 3 16 4 5.52342 0 33 5.52342 1
gene 1 1 16 1.43195 0 53 1.43195 1
gene 3 3 16 3.19124 0 173 3.19124 1
genomeend 38

/* Organism #39 Fitness: 8.99999 Error: 1 */
genomestart 39
trait 1 0.05 0 0.437269 0.0539872 0.438017 0.0837428 0 0.00143246 
trait 2 0.2 0 0 0 0 0 0 0.231445 
trait 3 0.3 0 0 0 0 0 0 0 
node 1 1 1 3
node 2 2 1 1
node 3 3 1 1
node 4 2 0 2
node 16 1 0 0
gene 3 1 4 -6.11682 0 1 -6.11682 1
gene 3 2 4 7.52014 0 2 7.52014 1
gene 2 3 4 8 0 3 8 1
gene 3 2 16 5.52206 0 32 5.52206 1
gene 3 16 4 3.35852 0 33 3.35852 1
gene 1 1 16 1.00505 0 53 1.00505 1
gene 3 3 16 3.78045 0 158 3.78045 1
genomeend 39

/* Organism #40 Fitness: 4.03683 Error: 1.99081 */
genomestart 40
trait 1 0.05 0 0.437269 0.0539872 0.438017 0.0837428 0 0.00143246 
trait 2 0.2 0 0 0 0 0.969787 0.697653 0 
trait 3 0.3 0 0 0 0 0 0 0 
node 1 1 1 3
node 2 2 1 1
node 3 3 1 1
node 4 2 0 2
node 16 1 0 0
gene 3 1 4 0.950575 0 1 0.950575 1
gene 3 2 4 4.12377 0 2 4.12377 1
gene 2 3 4 2.50614 0 3 2.50614 1
gene 3 2 16 4.5299 0 32 4.5299 1
gene 3 16 4 6.13814 0 33 6.13814 1
gene 1 1 16 -4.52301 0 53 -4.52301 1
gene 3 3 16 3.98569 0 158 3.98569 1
genomeend 40

/* Organism #41 Fitness: 9 Error: 1 */
genomestart 41
trait 1 0.05 0 0.437269 0.0539872 0.438017 0.0837428 0 0.00143246 
trait 2 0.2 0 0 0 0 0 0 0.231445 
trait 3 1 0 0 0 0 0 0.744163 0 
node 1 1 1 3
node 2 3 1 1
node 3 3 1 1
node 4 2 0 2
node 16 1 0 0
gene 3 1 4 -8 0 1 -8 1
gene 3 2 4 8 0 2 8 1
gene 2 3 4 6.72082 0 3 6.72082 1
gene 2 2 16 4.96912 0 32 4.96912 1
gene 3 16 4 6.18964 0 33 6.18964 1
gene 1 1 16 -0.51994 0 53 -0.51994 1
gene 3 3 16 4.45891 0 173 4.45891 1
genomeend 41

/* Organism #42 Fitness: 4.78499 Error: 1.81254 */
genomestart 42
trait 1 0.05 0 0.437269 0.0539872 0.438017 0.0837428 0 0.00143246 
trait 2 0.2 0 0 0 0 0 0 0.231445 
trait 3 0.65 0 0 0 0 0 0.372082 0 
node 1 1 1 3
node 2 3 1 1
node 3 3 1 1
node 4 2 0 2
node 16 1 0 0
gene 3 1 4 -6.67386 0 1 -6.67386 1
gene 3 2 4 8 0 2 8 1
gene 2 3 4 6.24702 0 3 6.24702 1
gene 2 2 16 5.13339 0 32 5.13339 1
gene 3 16 4 3.45221 0 33 3.45221 1
gene 1 1 16 -2.52554 0 53 -2.52554 1
gene 3 3 16 1.86579 0 158 1.86579 1
genomeend 42

/* Organism #43 Fitness: 9 Error: 1 */
genomestart 43
trait 1 0.05 0 0.437269 0.0539872 0.438017 0.0837428 0 0.00143246 
trait 2 0.2 0 0 0 0 0 0 0.231445 
trait 3 0.3 0 0 0 0 0 0 0 
node 1 1 1 3
node 2 2 1 1
node 3 3 1 1
node 4 2 0 2
node 16 1 0 0
gene 3 1 4 -4.03145 0 1 -4.03145 1
gene 3 2 4 2.49683 0 2 2.49683 1
gene 2 3 4 2.59304 0 3 2.59304 1
gene 3 2 16 3.57355 0 32 3.57355 1
gene 3 16 4 8 0 33 8 1
gene 1 1 16 -2.31935 0 53 -2.31935 1
gene 3 3 16 6.97322 0 158 6.97322 1
genomeend 43

/* Organism #44 Fitness: 9 Error: 1 */
genomestart 44
trait 1 0.05 0 0.437269 0.0539872 0.438017 0.0837428 0 0.00143246 
trait 2 0.2 0 0 0 0 0 0 0.231445 
trait 3 0.3 0 0 0 0 0 0 0 
node 1 1 1 3
node 2 2 1 1
node 3 3 1 1
node 4 2 0 2
node 16 1 0 0
gene 3 1 4 -5.58675 0 1 -5.58675 1
gene 3 2 4 7.19634 0 2 7.19634 1
gene 2 3 4 2.50614 0 3 2.50614 1
gene 3 2 16 5.41816 0 32 5.41816 1
gene 3 16 4 8 0 33 8 1
gene 1 1 16 -4.52042 0 53 -4.52042 1
gene 3 3 16 5.2754 0 158 5.2754 1
genomeend 44

/* Organism #45 Fitness: 8.96801 Error: 1.00534 */
genomestart 45
trait 1 0.05 0 0.437269 0.0539872 0.438017 0.0837428 0 0.00143246 
trait 2 0.2 0 0 0 0 0 0 0.231445 
trait 3 0.3 0 0 0 0 0 0 0 
node 1 1 1 3
node 2 2 1 1
node 3 3 1 1
node 4 2 0 2
node 16 1 0 0
gene 3 1 4 -7.97318 0 1 -7.97318 1
gene 3 2 4 8 0 2 8 1
gene 2 3 4 6.09076 0 3 6.09076 1
gene 3 2 16 4.26653 0 32 4.26653 1
gene 3 16 4 4.64769 0 33 4.64769 1
gene 1 1 16 -4.52042 0 53 -4.52042 1
gene 3 3 16 8 0 158 8 1
genomeend 45

/* Species #7 : (Size 9) (AF 7.88379) (Age 25)  */


/* Organism #46 Fitness: 9 Error: 1 */
genomestart 46
trait 1 0.1 0 0 0 0 0 0 0.00143246 
trait 2 0.271493 0.0994007 0 0.0450148 0 0 0 0 
trait 3 0.3 0 0 0 0 0 0 0 
node 1 1 1 3
node 2 2 1 1
node 3 2 1 1
node 4 2 0 2
node 19 1 0 0
gene 3 1 4 -3.87034 0 1 -3.87034 1
gene 1 2 4 8 0 2 8 1
gene 2 3 4 7.82598 0 3 7.82598 1
gene 1 2 19 3.69011 0 41 3.69011 1
gene 1 19 4 0.00942259 0 42 0.00942259 1
gene 2 1 19 -0.856075 0 255 -0.856075 1
genomeend 46

/* Organism #47 Fitness: 9 Error: 1 */
genomestart 47
trait 1 0.1 0 0 0 0 0 0 0.00143246 
trait 2 0.271493 0.0994007 0 0.0450148 0 0 0 0 
trait 3 0.3 0 0 0 0 0 0 0 
node 1 1 1 3
node 2 2 1 1
node 3 2 1 1
node 4 2 0 2
node 19 1 0 0
gene 3 1 4 -3.87034 0 1 -3.87034 1
gene 1 2 4 8 0 2 8 1
gene 2 3 4 7.82598 0 3 7.82598 1
gene 1 2 19 3.94043 0 41 3.94043 1
gene 1 19 4 -0.0471892 0 42 -0.0471892 1
gene 2 1 19 -0.0599994 0 255 -0.0599994 1
genomeend 47

/* Organism #48 Fitness: 9 Error: 1 */
genomestart 48
trait 1 0.1 0 0 0 0 0 0 0.00143246 
trait 2 0.271493 0.0994007 0 0.0450148 0 0 0 0 
trait 3 0.3 0 0 0 0 0 0 0 
node 1 1 1 3
node 2 2 1 1
node 3 2 1 1
node 4 2 0 2
node 19 1 0 0
gene 3 1 4 -3.87034 0 1 -3.87034 1
gene 1 2 4 8 0 2 8 1
gene 2 3 4 7.82598 0 3 7.82598 1
gene 1 2 19 2.86836 0 41 2.86836 1
gene 1 19 4 0.00942259 0 42 0.00942259 1
gene 2 1 19 -0.856075 0 255 -0.856075 1
genomeend 48

/* Organism #49 Fitness: 8.99822 Error: 1.0003 */
genomestart 49
trait 1 0.1 0 0 0 0 0 0 0.00143246 
trait 2 0.271493 0.0994007 0 0.0450148 0 0 0 0 
trait 3 0.3 0 0 0 0 0 0 0 
node 1 1 1 3
node 2 2 1 1
node 3 2 1 1
node 4 2 0 2
node 19 1 0 0
gene 3 1 4 -1.64996 0 1 -1.64996 1
gene 1 2 4 5.90773 0 2 5.90773 1
gene 2 3 4 6.56595 0 3 6.56595 1
gene 1 2 19 3.09839 0 41 3.09839 1
gene 1 19 4 -0.555094 0 42 -0.555094 1
gene 2 1 19 -1.85243 0 255 -1.85243 1
genomeend 49

/* Organism #50 Fitness: 4.00006 Error: 1.99998 */
genomestart 50
trait 1 0.1 0 0 0 0 0 0 0.00143246 
trait 2 0.271493 0.0994007 0 0.0450148 0 0 0 0 
trait 3 0.3 0 0 0 0 0 0 0 
node 1 1 1 3
node 2 2 1 1
node 3 2 1 1
node 4 2 0 2
node 19 1 0 0
gene 3 1 4 -2.26476 0 1 -2.26476 1
gene 1 2 4 8 0 2 8 1
gene 2 3 4 -1.91389 0 3 -1.91389 1
gene 1 2 19 1.53205 0 41 1.53205 1
gene 1 19 4 -1.57136 0 42 -1.57136 1
gene 2 1 19 1.14586 0 255 1.14586 1
genomeend 50

/* Organism #51 Fitness: 8.99876 Error: 1.00021 */
genomestart 51
trait 1 0.1 0 0 0 0 0 0 0.00143246 
trait 2 0.271493 0.0994007 0 0.0450148 0 0 0 0 
trait 3 0.3 0 0 0 0 0 0 0 
node 1 1 1 3
node 2 2 1 1
node 3 2 1 1
node 4 2 0 2
node 19 1 0 0
gene 3 1 4 -5.64209 0 1 -5.64209 1
gene 1 2 4 8 0 2 8 1
gene 2 3 4 7.36523 0 3 7.36523 1
gene 1 2 19 4.59326 0 41 4.59326 1
gene 1 19 4 1.48293 0 42 1.48293 1
gene 2 1 19 -1.88009 0 255 -1.88009 1
genomeend 51

/* Organism #52 Fitness: 9 Error: 1 */
genomestart 52
trait 1 0.1 0 0 0 0 0 0 0.00143246 
trait 2 0.271493 0.0994007 0 0.0450148 0 0 0 0 
trait 3 0.3 0 0 0 0 0 0 0 
node 1 1 1 3
node 2 2 1 1
node 3 2 1 1
node 4 2 0 2
node 19 1 0 0
gene 3 1 4 -4.47537 0 1 -4.47537 1
gene 1 2 4 8 0 2 8 1
gene 2 3 4 7.95279 0 3 7.95279 1
gene 1 2 19 0.475173 0 41 0.475173 1
gene 1 19 4 1.66932 0 42 1.66932 1
gene 2 1 19 -3.1178 0 255 -3.1178 1
genomeend 52

/* Organism #53 Fitness: 8.95723 Error: 1.00714 */
genomestart 53
trait 1 1 0.92346 0 0 0 0 0 0 
trait 2 0.271493 0.0994007 0 0.0450148 0 0 0 0 
trait 3 0.3 0 0 0 0 0 0 0 
node 1 1 1 3
node 2 2 1 1
node 3 2 1 1
node 4 2 0 2
node 19 1 0 0
gene 3 1 4 -1.57138 0 1 -1.57138 1
gene 1 2 4 5.89315 0 2 5.89315 1
gene 2 3 4 8 0 3 8 1
gene 1 2 19 3.81018 0 41 3.81018 1
gene 1 19 4 0.743164 0 42 0.743164 1
gene 2 1 19 0.240608 0 255 0.240608 1
genomeend 53

/* Organism #54 Fitness: 3.99979 Error: 2.00005 */
genomestart 54
trait 1 0.1 0 0 0 0 0 0 0.00143246 
trait 2 0.271493 0.0994007 0 0.0450148 0 0 0 0 
trait 3 0.3 0 0 0 0 0 0 0 
node 1 1 1 3
node 2 2 1 1
node 3 2 1 1
node 4 2 0 2
node 19 1 0 0
gene 3 1 4 -1.95622 0 1 -1.95622 1
gene 1 2 4 1.50739 0 2 1.50739 1
gene 2 3 4 7.72047 0 3 7.72047 1
gene 2 2 19 5.018 0 41 5.018 1
gene 1 19 4 -2.0135 0 42 -2.0135 1
gene 2 1 19 -0.909635 0 255 -0.909635 1
genomeend 54

/* Species #9 : (Size 9) (AF 6.74654) (Age 24)  */


/* Organism #55 Fitness: 8.99998 Error: 1 */
genomestart 55
trait 1 0.090625 0 0.081988 0.0101226 0.0821282 0.0157018 0 0.00505838 
trait 2 0.275395 0 0 0.0801826 0 0 0 0 
trait 3 0.3 0 0 0 0 0 0 0 
node 1 3 1 3
node 2 1 1 1
node 3 1 1 1
node 4 3 0 2
node 11 1 0 0
gene 2 1 4 -3.98871 0 1 -3.98871 1
gene 2 2 4 -5.55715 0 2 -5.55715 1
gene 2 3 4 -0.371555 0 3 -0.371555 0
gene 2 3 11 1.6805 0 16 1.6805 1
gene 2 11 4 6.68935 0 17 6.68935 1
gene 3 2 11 2.45411 0 34 2.45411 1
gene 2 1 11 -0.823763 0 55 -0.823763 1
genomeend 55

/* Organism #56 Fitness: 8.98146 Error: 1.00309 */
genomestart 56
trait 1 0.090625 0 0.081988 0.0101226 0.0821282 0.0157018 0 0.00505838 
trait 2 1 0 0 0.979655 0 0.297739 0 0 
trait 3 0.3 0 0 0 0 0 0 0 
node 1 3 1 3
node 2 1 1 1
node 3 1 1 1
node 4 3 0 2
node 11 1 0 0
gene 2 1 4 -2.951 0 1 -2.951 1
gene 2 2 4 -4.414 0 2 -4.414 1
gene 2 3 4 1.68944 0 3 1.68944 0
gene 2 3 11 2.87217 0 16 2.87217 1
gene 3 11 4 6.19198 0 17 6.19198 1
gene 3 2 11 1.16401 0 34 1.16401 1
gene 3 1 11 -1.01344 0 55 -1.01344 1
genomeend 56

/* Organism #57 Fitness: 4 Error: 2 */
genomestart 57
trait 1 0.090625 0 0.081988 0.0101226 0.0821282 0.0157018 0 0.00505838 
trait 2 0.637698 0 0 0.529919 0 0.148869 0 0 
trait 3 0.3 0 0 0 0 0 0 0 
node 1 3 1 3
node 2 1 1 1
node 3 1 1 1
node 4 3 0 2
node 11 1 0 0
gene 2 1 4 -4.57321 0 1 -4.57321 1
gene 2 2 4 1.41392 0 2 1.41392 1
gene 2 3 4 1.81662 0 3 1.81662 0
gene 2 3 11 3.38724 0 16 3.38724 1
gene 3 11 4 7.85379 0 17 7.85379 1
gene 3 2 11 2.45411 0 34 2.45411 1
gene 3 1 11 0.970267 0 55 0.970267 1
genomeend 57

/* Organism #58 Fitness: 4.0001 Error: 1.99998 */
genomestart 58
trait 1 0.090625 0 0.081988 0.0101226 0.0821282 0.0157018 0 0.00505838 
trait 2 0.275395 0 0 0.0801826 0 0 0 0 
trait 3 0.3 0 0 0 0 0 0 0 
node 1 3 1 3
node 2 1 1 1
node 3 1 1 1
node 4 3 0 2
node 11 1 0 0
gene 2 1 4 -1.83006 0 1 -1.83006 1
gene 2 2 4 -5.18429 0 2 -5.18429 1
gene 2 3 4 -1.45962 0 3 -1.45962 0
gene 2 3 11 -0.102701 0 16 -0.102701 1
gene 2 11 4 6.70217 0 17 6.70217 1
gene 3 2 11 3.85247 0 34 3.85247 1
gene 1 1 11 -1.47419 0 55 -1.47419 1
genomeend 58

/* Organism #59 Fitness: 8.73948 Error: 1.04374 */
genomestart 59
trait 1 0.090625 0 0.081988 0.0101226 0.0821282 0.0157018 0 0.00505838 
trait 2 0.637698 0 0 0.529919 0 0.148869 0 0 
trait 3 0.3 0 0 0 0 0 0 0 
node 1 3 1 3
node 2 1 1 1
node 3 1 1 1
node 4 3 0 2
node 11 1 0 0
gene 2 1 4 -2.20405 0 1 -2.20405 1
gene 2 2 4 -6.13082 0 2 -6.13082 1
gene 2 3 4 -1.25652 0 3 -1.25652 0
gene 2 3 11 3.68732 0 16 3.68732 1
gene 2 11 4 8 0 17 8 1
gene 3 2 11 3.82988 0 34 3.82988 1
gene 3 1 11 -2.88224 0 55 -2.88224 1
genomeend 59

/* Organism #60 Fitness: 4.00002 Error: 2 */
genomestart 60
trait 1 0.090625 0 0.081988 0.0101226 0.0821282 0.0157018 0 0.00505838 
trait 2 1 0 0 0.979655 0 0.297739 0 0 
trait 3 0.3 0 0 0 0 0 0 0 
node 1 3 1 3
node 2 1 1 1
node 3 1 1 1
node 4 3 0 2
node 11 1 0 0
gene 2 1 4 1.97401 0 1 1.97401 1
gene 2 2 4 -5.55715 0 2 -5.55715 1
gene 2 3 4 -0.371555 0 3 -0.371555 0
gene 2 3 11 1.18777 0 16 1.18777 1
gene 3 11 4 0.284127 0 17 0.284127 1
gene 3 2 11 2.45411 0 34 2.45411 1
gene 3 1 11 0.310228 0 55 0.310228 1
genomeend 60

/* Organism #61 Fitness: 4 Error: 2 */
genomestart 61
trait 1 0.090625 0 0.081988 0.0101226 0.0821282 0.0157018 0 0.00505838 
trait 2 1 0 0 0.979655 0 0.297739 0 0 
trait 3 0.3 0 0 0 0 0 0 0 
node 1 3 1 3
node 2 1 1 1
node 3 1 1 1
node 4 3 0 2
node 11 1 0 0
gene 2 1 4 -2.90271 0 1 -2.90271 1
gene 2 2 4 -5.14362 0 2 -5.14362 1
gene 2 3 4 -0.10902 0 3 -0.10902 0
gene 2 3 11 0.188522 0 16 0.188522 1
gene 3 11 4 -0.496994 0 17 -0.496994 1
gene 3 2 11 0.627956 0 34 0.627956 1
gene 3 1 11 -0.545824 0 55 -0.545824 1
genomeend 61

/* Organism #62 Fitness: 8.9978 Error: 1.00037 */
genomestart 62
trait 1 0.090625 0 0.081988 0.0101226 0.0821282 0.0157018 0 0.00505838 
trait 2 0.637698 0 0 0.529919 0 0.148869 0 0 
trait 3 0.3 0 0 0 0 0 0 0 
node 1 3 1 3
node 2 1 1 1
node 3 1 1 1
node 4 3 0 2
node 11 1 0 0
gene 2 1 4 -1.6075 0 1 -1.6075 1
gene 2 2 4 -3.27047 0 2 -3.27047 1
gene 2 3 4 1.51113 0 3 1.51113 0
gene 2 3 11 2.85615 0 16 2.85615 1
gene 3 11 4 6.71392 0 17 6.71392 1
gene 3 2 11 3.55773 0 34 3.55773 1
gene 2 1 11 -1.97538 0 55 -1.97538 1
genomeend 62

/* Organism #63 Fitness: 8.99998 Error: 1 */
genomestart 63
trait 1 0.090625 0 0.081988 0.0101226 0.0821282 0.0157018 0 0.00505838 
trait 2 0.637698 0 0 0.529919 0 0.148869 0 0 
trait 3 0.3 0 0 0 0 0 0 0 
node 1 3 1 3
node 2 1 1 1
node 3 1 1 1
node 4 3 0 2
node 11 1 0 0
gene 2 1 4 -3.98871 0 1 -3.98871 1
gene 2 2 4 -5.55715 0 2 -5.55715 1
gene 2 3 4 -0.371555 0 3 -0.371555 0
gene 2 3 11 1.6805 0 16 1.6805 1
gene 2 11 4 6.68935 0 17 6.68935 1
gene 3 2 11 2.45411 0 34 2.45411 1
gene 2 1 11 -0.823763 0 55 -0.823763 1
genomeend 63

/* Species #10 : (Size 10) (AF 8.04992) (Age 23)  */


/* Organism #64 Fitness: 9 Error: 1 */
genomestart 64
trait 1 0.1 0 0 0 0 0 0 0.00143246 
trait 2 0.242327 0 0 0.0450148 0 0 0 0 
trait 3 0.3 0.269478 0 0 0.0277413 0.140446 0 0 
node 1 1 1 3
node 2 2 1 1
node 3 2 1 1
node 4 1 0 2
node 19 1 0 0
node 28 1 0 0
gene 3 1 4 -7.14837 0 1 -7.14837 1
gene 1 2 4 7.26816 0 2 7.26816 1
gene 2 3 4 6.85799 0 3 6.85799 1
gene 1 2 19 5.04494 0 41 5.04494 1
gene 1 19 4 8 0 42 8 1
gene 1 3 19 2.78107 0 58 2.78107 1
gene 1 3 28 -7.31908 0 73 -7.31908 1
gene 1 28 19 -8 0 74 -8 1
genomeend 64

/* Organism #65 Fitness: 9 Error: 1 */
genomestart 65
trait 1 0.1 0 0 0 0 0 0 0.00143246 
trait 2 0.242327 0 0 0.0450148 0 0 0 0 
trait 3 0.3 0.269478 0 0 0.0277413 0.140446 0 0 
node 1 1 1 3
node 2 2 1 1
node 3 2 1 1
node 4 1 0 2
node 19 1 0 0
node 28 1 0 0
gene 3 1 4 -5.93797 0 1 -5.93797 1
gene 1 2 4 7.31801 0 2 7.31801 1
gene 2 3 4 7.9583 0 3 7.9583 1
gene 1 2 19 6.66181 0 41 6.66181 1
gene 1 19 4 6.57059 0 42 6.57059 1
gene 1 3 19 3.05013 0 58 3.05013 1
gene 1 3 28 -6.41241 0 73 -6.41241 1
gene 1 28 19 -6.58982 0 74 -6.58982 1
genomeend 65

/* Organism #66 Fitness: 9 Error: 1 */
genomestart 66
trait 1 0.1 0 0 0 0 0 0 0.00143246 
trait 2 0.242327 0 0 0.0450148 0 0 0 0 
trait 3 0.3 0.269478 0 0 0.0277413 0.140446 0 0 
node 1 1 1 3
node 2 2 1 1
node 3 2 1 1
node 4 1 0 2
node 19 1 0 0
node 28 1 0 0
gene 3 1 4 -7.31168 0 1 -7.31168 1
gene 1 2 4 8 0 2 8 1
gene 2 3 4 6.98804 0 3 6.98804 1
gene 1 2 19 3.89546 0 41 3.89546 1
gene 1 19 4 8 0 42 8 1
gene 1 3 19 5.96328 0 58 5.96328 1
gene 1 3 28 -7.56479 0 73 -7.56479 1
gene 1 28 19 -8 0 74 -8 1
genomeend 66

/* Organism #67 Fitness: 9 Error: 1 */
genomestart 67
trait 1 0.1 0 0 0 0 0 0 0.00143246 
trait 2 0.242327 0 0 0.0450148 0 0 0 0 
trait 3 0.3 0.269478 0 0 0.0277413 0.140446 0 0 
node 1 1 1 3
node 2 2 1 1
node 3 2 1 1
node 4 1 0 2
node 19 1 0 0
node 28 1 0 0
gene 3 1 4 -4.24663 0 1 -4.24663 1
gene 1 2 4 8 0 2 8 1
gene 2 3 4 5.2684 0 3 5.2684 1
gene 1 2 19 8 0 41 8 1
gene 1 19 4 7.89319 0 42 7.89319 1
gene 1 3 19 5.19864 0 58 5.19864 1
gene 1 3 28 -5.88078 0 73 -5.88078 1
gene 1 28 19 -8 0 74 -8 1
genomeend 67

/* Organism #68 Fitness: 4.52866 Error: 1.87193 */
genomestart 68
trait 1 0.1 0 0 0 0 0 0 0.00143246 
trait 2 0.242327 0 0 0.0450148 0 0 0 0 
trait 3 0.3 0.269478 0 0 0.0277413 0.140446 0 0 
node 1 1 1 3
node 2 2 1 1
node 3 2 1 1
node 4 1 0 2
node 19 1 0 0
node 28 1 0 0
node 100 1 0 0
gene 3 1 4 -6.66705 0 1 -6.66705 1
gene 1 2 4 6.27535 0 2 6.27535 1
gene 2 3 4 6.39072 0 3 6.39072 1
gene 1 2 19 5.70376 0 41 5.70376 1
gene 1 19 4 8 0 42 8 1
gene 1 3 19 3.95073 0 58 3.95073 1
gene 1 3 28 -6.7102 0 73 -6.7102 1
gene 1 28 19 -8 0 74 -8 0
gene 1 28 100 1 0 298 0 1
gene 1 100 19 -8 0 299 0 1
genomeend 68

/* Organism #69 Fitness: 9 Error: 1 */
genomestart 69
trait 1 0.1 0 0 0 0 0 0 0.00143246 
trait 2 0.242327 0 0 0.0450148 0 0 0 0 
trait 3 0.3 0.269478 0 0 0.0277413 0.140446 0 0 
node 1 1 1 3
node 2 2 1 1
node 3 2 1 1
node 4 1 0 2
node 19 1 0 0
node 28 1 0 0
gene 3 1 4 -7.57418 0 1 -7.57418 1
gene 1 2 4 7.09658 0 2 7.09658 1
gene 2 3 4 7.12192 0 3 7.12192 1
gene 1 2 19 4.92169 0 41 4.92169 1
gene 1 19 4 8 0 42 8 1
gene 1 3 19 2.3932 0 58 2.3932 1
gene 1 3 28 -7.65954 0 73 -7.65954 1
gene 1 28 19 -6.76904 0 74 -6.76904 1
genomeend 69

/* Organism #70 Fitness: 9 Error: 1 */
genomestart 70
trait 1 0.1 0 0 0 0 0 0 0.00143246 
trait 2 0.242327 0 0 0.0450148 0 0 0 0 
trait 3 0.3 0.269478 0 0 0.0277413 0.140446 0 0 
node 1 1 1 3
node 2 2 1 1
node 3 2 1 1
node 4 1 0 2
node 19 1 0 0
node 28 1 0 0
gene 3 1 4 -8 0 1 -8 1
gene 1 2 4 4.68793 0 2 4.68793 1
gene 2 3 4 8 0 3 8 1
gene 1 2 19 6.39294 0 41 6.39294 1
gene 1 19 4 6.5139 0 42 6.5139 1
gene 1 3 19 2.85497 0 58 2.85497 1
gene 1 3 28 -8 0 73 -8 1
gene 1 28 19 -4.20174 0 74 -4.20174 1
genomeend 70

/* Organism #71 Fitness: 9 Error: 1 */
genomestart 71
trait 1 0.1 0 0 0 0 0 0 0.00143246 
trait 2 0.242327 0 0 0.0450148 0 0 0 0 
trait 3 0.3 0.269478 0 0 0.0277413 0.140446 0 0 
node 1 1 1 3
node 2 2 1 1
node 3 2 1 1
node 4 1 0 2
node 19 1 0 0
node 28 1 0 0
gene 3 1 4 -6.90771 0 1 -6.90771 1
gene 1 2 4 6.77175 0 2 6.77175 1
gene 2 3 4 6.62436 0 3 6.62436 1
gene 1 2 19 5.37435 0 41 5.37435 1
gene 1 19 4 8 0 42 8 1
gene 1 3 19 3.3659 0 58 3.3659 1
gene 1 3 28 -7.01464 0 73 -7.01464 1
gene 1 28 19 -8 0 74 -8 1
genomeend 71

/* Organism #72 Fitness: 3.97049 Error: 2.00739 */
genomestart 72
trait 1 0.1 0 0 0 0 0 0 0.00143246 
trait 2 0.242327 0 0 0.0450148 0 0 0 0 
trait 3 0.3 0.269478 0 0 0.0277413 0.140446 0 0 
node 1 1 1 3
node 2 2 1 1
node 3 2 1 1
node 4 1 0 2
node 19 1 0 0
node 28 1 0 0
gene 3 1 4 -7.52996 0 1 -7.52996 1
gene 1 2 4 1.7201 0 2 1.7201 1
gene 2 3 4 7.04645 0 3 7.04645 1
gene 1 2 19 4.46768 0 41 4.46768 1
gene 1 19 4 1.47855 0 42 1.47855 1
gene 1 3 19 4.19675 0 58 4.19675 1
gene 1 3 28 -7.39499 0 73 -7.39499 1
gene 1 28 19 -6.2638 0 74 -6.2638 1
genomeend 72

/* Organism #73 Fitness: 9 Error: 1 */
genomestart 73
trait 1 0.1 0 0 0 0 0 0 0.00143246 
trait 2 0.242327 0 0 0.0450148 0 0 0 0 
trait 3 0.3 0.269478 0 0 0.0277413 0.140446 0 0 
node 1 1 1 3
node 2 2 1 1
node 3 2 1 1
node 4 1 0 2
node 19 1 0 0
node 28 1 0 0
gene 3 1 4 -8 0 1 -8 1
gene 1 2 4 4.06535 0 2 4.06535 1
gene 2 3 4 8 0 3 8 1
gene 1 2 19 6.39294 0 41 6.39294 1
gene 1 19 4 8 0 42 8 1
gene 1 3 19 6.4193 0 58 6.4193 1
gene 1 3 28 -1.99011 0 73 -1.99011 1
gene 1 28 19 -5.53807 0 74 -5.53807 1
genomeend 73

/* Species #11 : (Size 9) (AF 6.09594) (Age 23)  */


/* Organism #74 Fitness: 8.99999 Error: 1 */
genomestart 74
trait 1 0.05 0 0.437269 0.0539872 0.438017 0.0837428 0 0.000716231 
trait 2 0.242327 0 0 0.0450148 0 0 0 0 
trait 3 0.3 0 0 0 0 0 0 0 
node 1 2 1 3
node 2 2 1 1
node 3 3 1 1
node 4 1 0 2
node 20 1 0 0
node 26 1 0 0
gene 2 1 4 -5.25034 0 1 -5.25034 1
gene 1 2 4 -6.72369 0 2 -6.72369 1
gene 2 3 4 8 0 3 8 1
gene 2 3 20 -1.11211 0 43 -1.11211 0
gene 2 20 4 0.326853 0 44 0.326853 1
gene 2 3 26 -8 0 64 -8 1
gene 2 26 20 1.34436 0 65 1.34436 1
gene 2 1 20 -1.58336 0 75 -1.58336 1
genomeend 74

/* Organism #75 Fitness: 4.00019 Error: 1.99995 */
genomestart 75
trait 1 0.05 0 0.437269 0.0539872 0.438017 0.0837428 0 0.000716231 
trait 2 0.242327 0 0 0.0450148 0 0 0 0 
trait 3 0.3 0 0 0 0 0 0 0 
node 1 2 1 3
node 2 2 1 1
node 3 3 1 1
node 4 1 0 2
node 20 1 0 0
node 26 1 0 0
gene 2 1 4 -4.63821 0 1 -4.63821 1
gene 1 2 4 -6.72369 0 2 -6.72369 1
gene 2 3 4 2.49573 0 3 2.49573 1
gene 2 3 20 0.629238 0 43 0.629238 0
gene 2 20 4 1.45077 0 44 1.45077 1
gene 2 3 26 -5.96768 0 64 -5.96768 1
gene 2 26 20 3.64456 0 65 3.64456 1
gene 2 1 20 -0.492512 0 75 -0.492512 1
genomeend 75

/* Organism #76 Fitness: 2.52328 Error: 2.41152 */
genomestart 76
trait 1 0.05 0 0.437269 0.0539872 0.438017 0.0837428 0 0.000716231 
trait 2 0.242327 0 0 0.0450148 0 0 0 0 
trait 3 0.3 0 0 0 0 0 0 0 
node 1 2 1 3
node 2 2 1 1
node 3 3 1 1
node 4 1 0 2
node 20 1 0 0
node 26 1 0 0
gene 2 1 4 0.345012 0 1 0.345012 1
gene 1 2 4 -8 0 2 -8 1
gene 2 3 4 -0.322657 0 3 -0.322657 1
gene 2 3 20 0.261528 0 43 0.261528 0
gene 2 20 4 1.58559 0 44 1.58559 1
gene 2 3 26 -5.52258 0 64 -5.52258 1
gene 2 26 20 1.18017 0 65 1.18017 1
gene 2 1 20 -0.770039 0 75 -0.770039 1
genomeend 76

/* Organism #77 Fitness: 8.87635 Error: 1.02068 */
genomestart 77
trait 1 0.05 0 0.437269 0.0539872 0.438017 0.0837428 0 0.000716231 
trait 2 0.242327 0 0 0.0450148 0 0 0 0 
trait 3 0.3 0 0 0 0 0 0 0 
node 1 2 1 3
node 2 2 1 1
node 3 3 1 1
node 4 1 0 2
node 20 1 0 0
node 26 1 0 0
gene 2 1 4 -4.76189 0 1 -4.76189 1
gene 1 2 4 -4.98302 0 2 -4.98302 1
gene 2 3 4 5.5454 0 3 5.5454 1
gene 2 3 20 -2.13398 0 43 -2.13398 0
gene 2 20 4 -0.6695 0 44 -0.6695 1
gene 2 3 26 -2.49443 0 64 -2.49443 1
gene 2 26 20 3.24218 0 65 3.24218 1
gene 2 1 20 -1.77513 0 75 -1.77513 1
genomeend 77

/* Organism #78 Fitness: 4.05134 Error: 1.98721 */
genomestart 78
trait 1 0.05 0 0.437269 0.0539872 0.438017 0.0837428 0 0.000716231 
trait 2 0.242327 0 0 0.0450148 0 0 0 0 
trait 3 0.3 0 0 0 0 0 0 0 
node 1 2 1 3
node 2 2 1 1
node 3 3 1 1
node 4 1 0 2
node 20 1 0 0
node 26 1 0 0
gene 2 1 4 -2.8203 0 1 -2.8203 1
gene 1 2 4 -4.29716 0 2 -4.29716 1
gene 2 3 4 8 0 3 8 1
gene 2 3 20 -3.00388 0 43 -3.00388 1
gene 2 20 4 -0.1236 0 44 -0.1236 1
gene 2 3 26 -5.53021 0 64 -5.53021 1
gene 2 26 20 1.35329 0 65 1.35329 1
gene 2 1 20 -0.550306 0 75 -0.550306 1
genomeend 78

/* Organism #79 Fitness: 4 Error: 2 */
genomestart 79
trait 1 0.05 0 0.437269 0.0539872 0.438017 0.0837428 0 0.000716231 
trait 2 0.242327 0 0 0.0450148 0 0 0 0 
trait 3 0.3 0 0 0 0 0 0 0 
node 1 2 1 3
node 2 2 1 1
node 3 3 1 1
node 4 1 0 2
node 20 1 0 0
node 26 1 0 0
gene 2 1 4 -3.24908 0 1 -3.24908 1
gene 1 2 4 -0.0842311 0 2 -0.0842311 1
gene 2 3 4 7.45257 0 3 7.45257 1
gene 2 3 20 -0.0274056 0 43 -0.0274056 0
gene 2 20 4 -0.110782 0 44 -0.110782 1
gene 2 3 26 -8 0 64 -8 1
gene 2 26 20 0.530215 0 65 0.530215 1
gene 2 1 20 -0.983001 0 75 -0.983001 1
genomeend 79

/* Organism #80 Fitness: 4.41239 Error: 1.89943 */
genomestart 80
trait 1 0.05 0 0.437269 0.0539872 0.438017 0.0837428 0 0.000716231 
trait 2 0.242327 0 0 0.0450148 0 0 0 0 
trait 3 0.3 0 0 0 0 0 0 0 
node 1 2 1 3
node 2 2 1 1
node 3 3 1 1
node 4 1 0 2
node 20 1 0 0
node 26 3 0 0
gene 2 1 4 0.204398 0 1 0.204398 1
gene 1 2 4 0.777459 0 2 0.777459 1
gene 2 3 4 8 0 3 8 1
gene 2 3 20 -1.11211 0 43 -1.11211 0
gene 2 20 4 -1.42125 0 44 -1.42125 1
gene 2 3 26 1.56903 0 64 1.56903 1
gene 2 26 20 5.68816 0 65 5.68816 1
gene 2 1 20 2.41081 0 75 2.41081 1
genomeend 80

/* Organism #81 Fitness: 8.99998 Error: 1 */
genomestart 81
trait 1 0.05 0 0.437269 0.0539872 0.438017 0.0837428 0 0.000716231 
trait 2 0.242327 0 0 0.0450148 0 0 0 0 
trait 3 0.3 0 0 0 0 0 0 0 
node 1 2 1 3
node 2 2 1 1
node 3 3 1 1
node 4 1 0 2
node 20 1 0 0
node 26 1 0 0
gene 2 1 4 -2.90934 0 1 -2.90934 1
gene 1 2 4 -6.07299 0 2 -6.07299 1
gene 2 3 4 5.53594 0 3 5.53594 1
gene 2 3 20 0.570185 0 43 0.570185 1
gene 2 20 4 2.25333 0 44 2.25333 1
gene 2 3 26 -6.24662 0 64 -6.24662 1
gene 2 26 20 3.79998 0 65 3.79998 1
gene 2 1 20 -3.15739 0 75 -3.15739 1
genomeend 81

/* Organism #82 Fitness: 8.99998 Error: 1 */
genomestart 82
trait 1 0.05 0 0.437269 0.0539872 0.438017 0.0837428 0 0.000716231 
trait 2 0.242327 0 0 0.0450148 0 0 0 0 
trait 3 0.3 0 0 0 0 0 0 0 
node 1 2 1 3
node 2 2 1 1
node 3 3 1 1
node 4 1 0 2
node 20 1 0 0
node 26 1 0 0
gene 2 1 4 -5.25034 0 1 -5.25034 1
gene 1 2 4 -5.50901 0 2 -5.50901 1
gene 2 3 4 8 0 3 8 1
gene 2 3 20 -1.68231 0 43 -1.68231 1
gene 2 20 4 0.326853 0 44 0.326853 1
gene 2 3 26 -7.00936 0 64 -7.00936 1
gene 2 26 20 3.24218 0 65 3.24218 1
gene 2 1 20 -1.77513 0 75 -1.77513 1
gene 1 26 4 -0.904874 0 300 -0.904874 1
genomeend 82

/* Species #13 : (Size 8) (AF 6.2677) (Age 19)  */


/* Organism #83 Fitness: 8.98816 Error: 1.00197 */
genomestart 83
trait 1 0.0835937 0 0.143479 0.0177146 0.143724 0.0274781 0 0.00070504 
trait 2 0.690653 0 0 0.0432344 0 0 0.265259 0.161143 
trait 3 0.248438 0.100853 0 0 0 0 0 0 
node 1 2 1 3
node 2 3 1 1
node 3 3 1 1
node 4 2 0 2
node 41 1 0 0
gene 1 1 4 -1.05697 0 1 -1.05697 1
gene 3 2 4 2.63131 0 2 2.63131 1
gene 2 3 4 -0.109046 0 3 -0.109046 0
gene 2 3 41 2.04228 0 113 2.04228 1
gene 2 41 4 -2.93712 0 114 -2.93712 1
gene 2 2 41 -0.661641 0 165 -0.661641 1
genomeend 83

/* Organism #84 Fitness: 8.99992 Error: 1.00001 */
genomestart 84
trait 1 0.0835937 0 0.143479 0.0177146 0.143724 0.0274781 0 0.00070504 
trait 2 0.690653 0 0 0.0432344 0 0 0.265259 0.161143 
trait 3 0.248438 0.100853 0 0 0 0 0 0 
node 1 2 1 3
node 2 3 1 1
node 3 3 1 1
node 4 2 0 2
node 41 1 0 0
gene 1 1 4 -1.78605 0 1 -1.78605 1
gene 3 2 4 4.18836 0 2 4.18836 1
gene 2 3 4 -1.53396 0 3 -1.53396 0
gene 2 3 41 2.20655 0 113 2.20655 1
gene 2 41 4 -5.00429 0 114 -5.00429 1
gene 2 2 41 -1.54454 0 165 -1.54454 1
genomeend 84

/* Organism #85 Fitness: 2.04919 Error: 2.5685 */
genomestart 85
trait 1 0.0835937 0 0.143479 0.0177146 0.143724 0.0274781 0 0.00070504 
trait 2 0.685129 0 0 0.0440065 0 0 0.318034 0.120858 
trait 3 0.248438 0.100853 0 0 0 0 0 0 
node 1 2 1 3
node 2 3 1 1
node 3 3 1 1
node 4 2 0 2
node 41 1 0 0
gene 1 1 4 1.2262 0 1 1.2262 1
gene 3 2 4 4.32505 0 2 4.32505 1
gene 2 3 4 0.567015 0 3 0.567015 0
gene 2 3 41 1.77044 0 113 1.77044 1
gene 2 41 4 -2.33331 0 114 -2.33331 1
gene 2 2 41 -0.0126652 0 165 -0.0126652 1
genomeend 85

/* Organism #86 Fitness: 7.54735 Error: 1.25276 */
genomestart 86
trait 1 0.0835937 0 0.143479 0.0177146 0.143724 0.0274781 0 0.00070504 
trait 2 0.679605 0 0 0.0447785 0 0 0.370809 0.0805717 
trait 3 0.248438 0.100853 0 0 0 0 0 0 
node 1 2 1 3
node 2 2 1 1
node 3 3 1 1
node 4 2 0 2
node 41 1 0 0
gene 1 1 4 0.251285 0 1 0.251285 1
gene 3 2 4 1.03645 0 2 1.03645 1
gene 2 3 4 -3.21411 0 3 -3.21411 0
gene 2 3 41 -4.43301 0 113 -4.43301 1
gene 2 41 4 -0.977488 0 114 -0.977488 1
gene 3 2 41 -5.43527 0 165 -5.43527 1
gene 3 1 41 1.07602 0 295 1.07602 1
genomeend 86

/* Organism #87 Fitness: 5.0229 Error: 1.75882 */
genomestart 87
trait 1 0.0835937 0 0.143479 0.0177146 0.143724 0.0274781 0 0.00070504 
trait 2 0.679605 0 0 0.0447785 0 0 0.370809 0.0805717 
trait 3 0.248438 0.100853 0 0 0 0 0 0 
node 1 2 1 3
node 2 3 1 1
node 3 3 1 1
node 4 2 0 2
node 41 1 0 0
gene 1 1 4 -0.232281 0 1 -0.232281 1
gene 3 2 4 3.74145 0 2 3.74145 1
gene 2 3 4 -2.19281 0 3 -2.19281 0
gene 2 3 41 -3.9615 0 113 -3.9615 1
gene 2 41 4 -1.34165 0 114 -1.34165 1
gene 3 2 41 -1.61626 0 165 -1.61626 1
gene 3 1 41 1.43942 0 295 1.43942 1
genomeend 87

/* Organism #88 Fitness: 8.81604 Error: 1.03082 */
genomestart 88
trait 1 0.0835937 0 0.143479 0.0177146 0.143724 0.0274781 0 0.00070504 
trait 2 0.679605 0 0 0.0447785 0 0 0.370809 0.0805717 
trait 3 0.248438 0.100853 0 0 0 0 0 0 
node 1 2 1 3
node 2 3 1 1
node 3 3 1 1
node 4 2 0 2
node 41 1 0 0
gene 1 1 4 0.700288 0 1 0.700288 1
gene 3 2 4 3.36432 0 2 3.36432 1
gene 2 3 4 -1.29435 0 3 -1.29435 0
gene 2 3 41 -3.69294 0 113 -3.69294 1
gene 2 41 4 -3.40577 0 114 -3.40577 1
gene 3 2 41 -2.98608 0 165 -2.98608 1
gene 3 1 41 0.933042 0 295 0.933042 1
genomeend 88

/* Organism #89 Fitness: 3.69241 Error: 2.07843 */
genomestart 89
trait 1 0.0835937 0 0.143479 0.0177146 0.143724 0.0274781 0 0.00070504 
trait 2 0.679605 0 0 0.0447785 0 0 0.370809 0.0805717 
trait 3 0.248438 0.100853 0 0 0 0 0 0 
node 1 2 1 3
node 2 3 1 1
node 3 3 1 1
node 4 2 0 2
node 41 1 0 0
gene 1 1 4 3.08569 0 1 3.08569 1
gene 3 2 4 1.51135 0 2 1.51135 1
gene 2 3 4 -0.943079 0 3 -0.943079 1
gene 2 3 41 2.43866 0 113 2.43866 1
gene 2 41 4 -1.64455 0 114 -1.64455 1
gene 3 2 41 1.26896 0 165 1.26896 1
gene 3 1 41 0.933042 0 295 0.933042 1
genomeend 89

/* Organism #90 Fitness: 5.02566 Error: 1.7582 */
genomestart 90
trait 1 0.0835937 0 0.143479 0.0177146 0.143724 0.0274781 0 0.00070504 
trait 2 0.685129 0 0 0.0440065 0 0 0.318034 0.120858 
trait 3 0.248438 0.100853 0 0 0 0 0 0 
node 1 2 1 3
node 2 3 1 1
node 3 3 1 1
node 4 2 0 2
node 41 1 0 0
gene 1 1 4 -0.17834 0 1 -0.17834 1
gene 3 2 4 2.99781 0 2 2.99781 1
gene 2 3 4 -0.701696 0 3 -0.701696 0
gene 2 3 41 -0.825327 0 113 -0.825327 1
gene 2 41 4 -3.17144 0 114 -3.17144 1
gene 2 2 41 -1.82386 0 165 -1.82386 1
genomeend 90

/* Species #15 : (Size 10) (AF 7.62093) (Age 17)  */


/* Organism #91 Fitness: 9 Error: 1 */
genomestart 91
trait 1 0.295929 0 0 0 0 0 0.0268258 0.197346 
trait 2 0.242327 0 0 0.0450148 0 0 0 0 
trait 3 0.142494 0 0 0 0 0 0.859645 0.960204 
node 1 1 1 3
node 2 2 1 1
node 3 2 1 1
node 4 3 0 2
node 19 1 0 0
node 28 1 0 0
node 43 1 0 0
gene 3 1 4 -4.52513 0 1 -4.52513 1
gene 1 2 4 6.05208 0 2 6.05208 1
gene 2 3 4 7.42904 0 3 7.42904 1
gene 1 2 19 0.970222 0 41 0.970222 1
gene 1 19 4 3.41433 0 42 3.41433 1
gene 1 3 19 -3.80718 0 58 -3.80718 0
gene 1 3 28 -3.15075 0 73 -3.15075 1
gene 1 28 19 -4.52806 0 74 -4.52806 1
gene 1 3 43 3.87173 0 119 3.87173 1
gene 1 43 19 1.77276 0 120 1.77276 1
gene 2 28 43 0.448744 0 265 0.448744 1
genomeend 91

/* Organism #92 Fitness: 8.91231 Error: 1.01465 */
genomestart 92
trait 1 0.295929 0 0 0 0 0 0.0268258 0.197346 
trait 2 0.242327 0 0 0.0450148 0 0 0 0 
trait 3 0.142494 0 0 0 0 0 0.859645 0.960204 
node 1 1 1 3
node 2 2 1 1
node 3 2 1 1
node 4 3 0 2
node 19 1 0 0
node 28 1 0 0
node 43 1 0 0
gene 3 1 4 -7.24509 0 1 -7.24509 1
gene 1 2 4 8 0 2 8 1
gene 2 3 4 7.56081 0 3 7.56081 1
gene 1 2 19 2.47105 0 41 2.47105 1
gene 1 19 4 1.10027 0 42 1.10027 1
gene 1 3 19 -2.22343 0 58 -2.22343 0
gene 1 3 28 -4.01503 0 73 -4.01503 1
gene 1 28 19 -7.57137 0 74 -7.57137 1
gene 1 3 43 4.87281 0 119 4.87281 1
gene 1 43 19 0.880169 0 120 0.880169 1
gene 2 28 43 2.30888 0 265 2.30888 1
genomeend 92

/* Organism #93 Fitness: 8.99999 Error: 1 */
genomestart 93
trait 1 0.295929 0 0 0 0 0 0.0268258 0.197346 
trait 2 0.242327 0 0 0.0450148 0 0 0 0 
trait 3 0.142494 0 0 0 0 0 0.859645 0.960204 
node 1 1 1 3
node 2 2 1 1
node 3 2 1 1
node 4 3 0 2
node 19 1 0 0
node 28 2 0 0
node 43 1 0 0
gene 3 1 4 -2.84951 0 1 -2.84951 1
gene 1 2 4 6.05208 0 2 6.05208 1
gene 2 3 4 7.42904 0 3 7.42904 1
gene 1 2 19 0.970222 0 41 0.970222 1
gene 1 19 4 2.14301 0 42 2.14301 1
gene 1 3 19 -2.21488 0 58 -2.21488 0
gene 1 3 28 -3.15075 0 73 -3.15075 1
gene 1 28 19 -4.52806 0 74 -4.52806 1
gene 1 3 43 3.87173 0 119 3.87173 1
gene 1 43 19 1.86218 0 120 1.86218 1
gene 2 28 43 -0.242119 0 265 -0.242119 1
genomeend 93

/* Organism #94 Fitness: 8.99997 Error: 1 */
genomestart 94
trait 1 0.295929 0 0 0 0 0 0.0268258 0.197346 
trait 2 0.242327 0 0 0.0450148 0 0 0 0 
trait 3 0.142494 0 0 0 0 0 0.859645 0.960204 
node 1 1 1 3
node 2 2 1 1
node 3 2 1 1
node 4 3 0 2
node 19 1 0 0
node 28 1 0 0
node 43 1 0 0
gene 3 1 4 -2.84951 0 1 -2.84951 1
gene 1 2 4 6.05208 0 2 6.05208 1
gene 2 3 4 8 0 3 8 1
gene 1 2 19 2.14312 0 41 2.14312 1
gene 1 19 4 3.15302 0 42 3.15302 1
gene 1 3 19 -2.21488 0 58 -2.21488 0
gene 1 3 28 -3.0331 0 73 -3.0331 1
gene 1 28 19 -4.38691 0 74 -4.38691 1
gene 1 3 43 3.6362 0 119 3.6362 1
gene 1 43 19 1.79 0 120 1.79 1
gene 2 28 43 1.87732 0 265 1.87732 1
genomeend 94

/* Organism #95 Fitness: 1.03198 Error: 2.98414 */
genomestart 95
trait 1 0.295929 0 0 0 0 0 0.0268258 0.197346 
trait 2 0.242327 0.819483 0 0.572466 0 0 0 0 
trait 3 0.142494 0 0 0 0 0 0.859645 0.960204 
node 1 1 1 3
node 2 2 1 1
node 3 2 1 1
node 4 3 0 2
node 19 1 0 0
node 28 1 0 0
node 43 1 0 0
gene 3 1 4 -7.4971 0 1 -7.4971 1
gene 1 2 4 6.07382 0 2 6.07382 1
gene 2 3 4 6.30604 0 3 6.30604 1
gene 1 2 19 0.39449 0 41 0.39449 1
gene 1 19 4 0.340739 0 42 0.340739 1
gene 1 3 19 -4.50278 0 58 -4.50278 0
gene 1 3 28 -1.18435 0 73 -1.18435 1
gene 1 28 19 -5.86317 0 74 -5.86317 1
gene 1 3 43 4.99901 0 119 4.99901 1
gene 1 43 19 2.31544 0 120 2.31544 1
gene 2 28 43 -0.242119 0 265 -0.242119 1
genomeend 95

/* Organism #96 Fitness: 9 Error: 1 */
genomestart 96
trait 1 0.295929 0 0 0 0 0 0.0268258 0.197346 
trait 2 0.242327 0 0 0.0450148 0 0 0 0 
trait 3 0.142494 0 0 0 0 0 0.859645 0.960204 
node 1 1 1 3
node 2 2 1 1
node 3 2 1 1
node 4 3 0 2
node 19 1 0 0
node 28 1 0 0
node 43 1 0 0
gene 3 1 4 -2.84951 0 1 -2.84951 1
gene 1 2 4 8 0 2 8 1
gene 2 3 4 7.42904 0 3 7.42904 1
gene 1 2 19 3.17465 0 41 3.17465 1
gene 1 19 4 1.73002 0 42 1.73002 1
gene 1 3 19 -2.21488 0 58 -2.21488 0
gene 1 3 28 -1.7456 0 73 -1.7456 1
gene 1 28 19 -6.37878 0 74 -6.37878 1
gene 1 3 43 3.87173 0 119 3.87173 1
gene 1 43 19 1.86218 0 120 1.86218 1
gene 2 28 43 -0.0345927 0 265 -0.0345927 1
genomeend 96

/* Organism #97 Fitness: 3.28131 Error: 2.18856 */
genomestart 97
trait 1 0.295929 0 0 0 0 0 0.0268258 0.197346 
trait 2 0.242327 0 0 0.0450148 0 0 0 0 
trait 3 0.142494 0 0 0 0 0 0.859645 0.960204 
node 1 1 1 3
node 2 2 1 1
node 3 2 1 1
node 4 3 0 2
node 19 1 0 0
node 28 1 0 0
node 43 1 0 0
gene 3 1 4 -7.60147 0 1 -7.60147 1
gene 1 2 4 8 0 2 8 1
gene 2 3 4 1.44513 0 3 1.44513 1
gene 1 2 19 4.74139 0 41 4.74139 1
gene 1 19 4 -0.102313 0 42 -0.102313 1
gene 1 3 19 -0.642109 0 58 -0.642109 0
gene 1 3 28 1.11843 0 73 1.11843 1
gene 1 28 19 -8 0 74 -8 1
gene 1 3 43 -2.12195 0 119 -2.12195 1
gene 1 43 19 1.86218 0 120 1.86218 1
gene 2 28 43 1.15238 0 265 1.15238 1
genomeend 97

/* Organism #98 Fitness: 8.99987 Error: 1.00002 */
genomestart 98
trait 1 0.295929 0 0 0 0 0 0.0268258 0.197346 
trait 2 0.242327 0 0 0.0450148 0 0 0 0 
trait 3 0.142494 0 0 0 0 0 0.859645 0.960204 
node 1 1 1 3
node 2 2 1 1
node 3 2 1 1
node 4 3 0 2
node 19 1 0 0
node 28 1 0 0
node 43 1 0 0
gene 3 1 4 -2.1778 0 1 -2.1778 1
gene 1 2 4 7.6427 0 2 7.6427 1
gene 2 3 4 6.77213 0 3 6.77213 1
gene 1 2 19 1.21323 0 41 1.21323 1
gene 1 19 4 1.96577 0 42 1.96577 1
gene 1 3 19 -4.31043 0 58 -4.31043 0
gene 1 3 28 -2.43776 0 73 -2.43776 1
gene 1 28 19 -5.05718 0 74 -5.05718 1
gene 1 3 43 4.10573 0 119 4.10573 1
gene 1 43 19 0.715506 0 120 0.715506 1
gene 2 28 43 -0.242119 0 265 -0.242119 1
genomeend 98

/* Organism #99 Fitness: 8.98388 Error: 1.00269 */
genomestart 99
trait 1 0.295929 0 0 0 0 0 0.0268258 0.197346 
trait 2 0.242327 0 0 0.0450148 0 0 0 0 
trait 3 0.142494 0 0 0 0 0 0.859645 0.960204 
node 1 2 1 3
node 2 2 1 1
node 3 2 1 1
node 4 3 0 2
node 19 1 0 0
node 28 1 0 0
node 43 1 0 0
gene 3 1 4 -4.98535 0 1 -4.98535 1
gene 1 2 4 8 0 2 8 1
gene 2 3 4 6.18664 0 3 6.18664 1
gene 1 2 19 2.54131 0 41 2.54131 1
gene 1 19 4 2.58644 0 42 2.58644 1
gene 1 3 19 -3.1518 0 58 -3.1518 0
gene 1 3 28 -2.96367 0 73 -2.96367 1
gene 1 28 19 -7.64507 0 74 -7.64507 1
gene 1 3 43 2.55379 0 119 2.55379 1
gene 1 43 19 -1.86911 0 120 -1.86911 1
gene 2 28 43 -0.0345927 0 265 -0.0345927 1
genomeend 99

/* Organism #100 Fitness: 9 Error: 1 */
genomestart 100
trait 1 0.295929 0 0 0 0 0 0.0268258 0.197346 
trait 2 0.242327 0 0 0.0450148 0 0 0 0 
trait 3 0.142494 0 0 0 0 0 0.859645 0.960204 
node 1 1 1 3
node 2 2 1 1
node 3 2 1 1
node 4 3 0 2
node 19 1 0 0
node 28 1 0 0
node 43 1 0 0
gene 3 1 4 -5.29992 0 1 -5.29992 1
gene 1 2 4 8 0 2 8 1
gene 2 3 4 6.71232 0 3 6.71232 1
gene 1 2 19 3.17465 0 41 3.17465 1
gene 1 19 4 1.73002 0 42 1.73002 1
gene 1 3 19 -3.6726 0 58 -3.6726 0
gene 1 3 28 -1.7456 0 73 -1.7456 1
gene 1 28 19 -6.37878 0 74 -6.37878 1
gene 1 3 43 3.33476 0 119 3.33476 1
gene 1 43 19 1.86218 0 120 1.86218 1
gene 2 28 43 -0.0345927 0 265 -0.0345927 1
gene 3 43 4 -0.167089 0 301 -0.167089 1
genomeend 100

/* Species #16 : (Size 6) (AF 6.0328) (Age 16)  */


/* Organism #101 Fitness: 8.33993 Error: 1.11211 */
genomestart 101
trait 1 0.0835937 0 0.143479 0.0177146 0.143724 0.0274781 0 0.00070504 
trait 2 0.292922 0 0 0.0988216 0 0 0 0 
trait 3 0.248438 0.500111 0 0 0.138981 0 0 0.188208 
node 1 2 1 3
node 2 2 1 1
node 3 3 1 1
node 4 2 0 2
node 41 1 0 0
node 50 1 0 0
node 91 1 0 0
gene 3 1 4 -1.20739 0 1 -1.20739 1
gene 3 2 4 5.93466 0 2 5.93466 0
gene 2 3 4 4.72472 0 3 4.72472 0
gene 2 3 41 -2.33444 0 113 -2.33444 1
gene 2 41 4 4.29543 0 114 4.29543 1
gene 1 2 50 -1.56697 0 145 -1.56697 1
gene 1 50 4 1.8023 0 146 1.8023 1
gene 2 41 91 2.6007 0 269 2.6007 1
gene 2 91 4 1.2831 0 270 1.2831 1
gene 1 91 50 0.229041 0 296 0.229041 1
genomeend 101

/* Organism #102 Fitness: 7.65185 Error: 1.2338 */
genomestart 102
trait 1 0.0835937 0 0.143479 0.0177146 0.143724 0.0274781 0 0.00070504 
trait 2 0.292922 0 0 0.0988216 0 0 0 0 
trait 3 0.248438 0.500111 0 0 0.138981 0 0 0.188208 
node 1 2 1 3
node 2 2 1 1
node 3 3 1 1
node 4 2 0 2
node 41 1 0 0
node 50 1 0 0
node 91 1 0 0
gene 3 1 4 0.250328 0 1 0.250328 1
gene 3 2 4 7.19889 0 2 7.19889 0
gene 2 3 4 3.96809 0 3 3.96809 0
gene 2 3 41 -1.52303 0 113 -1.52303 1
gene 2 41 4 2.92561 0 114 2.92561 1
gene 1 2 50 -1.70507 0 145 -1.70507 1
gene 1 50 4 2.86084 0 146 2.86084 1
gene 2 41 91 4.29142 0 269 4.29142 1
gene 2 91 4 -1.11306 0 270 -1.11306 1
genomeend 102

/* Organism #103 Fitness: 4.30559 Error: 1.92501 */
genomestart 103
trait 1 0.0835937 0 0.143479 0.0177146 0.143724 0.0274781 0 0.00070504 
trait 2 0.292922 0 0 0.0988216 0 0 0 0 
trait 3 0.248438 0.500111 0 0 0.138981 0 0 0.188208 
node 1 2 1 3
node 2 2 1 1
node 3 3 1 1
node 4 2 0 2
node 41 1 0 0
node 50 1 0 0
node 91 1 0 0
gene 3 1 4 -1.20739 0 1 -1.20739 1
gene 3 2 4 3.67629 0 2 3.67629 0
gene 2 3 4 5.73077 0 3 5.73077 0
gene 2 3 41 -1.75382 0 113 -1.75382 1
gene 2 41 4 2.34649 0 114 2.34649 1
gene 1 2 50 -3.75469 0 145 -3.75469 1
gene 1 50 4 3.34547 0 146 3.34547 1
gene 3 41 91 -2.13683 0 269 -2.13683 1
gene 2 91 4 -0.730537 0 270 -0.730537 1
genomeend 103

/* Organism #104 Fitness: 4.15626 Error: 1.96131 */
genomestart 104
trait 1 0.0835937 0 0.143479 0.0177146 0.143724 0.0274781 0 0.00070504 
trait 2 0.292922 0 0 0.0988216 0 0 0 0 
trait 3 0.248438 0.500111 0 0 0.138981 0 0 0.188208 
node 1 2 1 3
node 2 2 1 1
node 3 3 1 1
node 4 2 0 2
node 41 1 0 0
node 50 1 0 0
node 91 1 0 0
gene 3 1 4 -3.212 0 1 -3.212 1
gene 3 2 4 4.64014 0 2 4.64014 0
gene 2 3 4 6.07753 0 3 6.07753 0
gene 2 3 41 -1.27743 0 113 -1.27743 1
gene 2 41 4 4.73635 0 114 4.73635 1
gene 1 2 50 -1.72742 0 145 -1.72742 1
gene 1 50 4 -0.157826 0 146 -0.157826 1
gene 2 41 91 2.38203 0 269 2.38203 1
gene 2 91 4 0.380442 0 270 0.380442 1
gene 1 91 50 0.229041 0 296 0.229041 1
genomeend 104

/* Organism #105 Fitness: 4 Error: 2 */
genomestart 105
trait 1 0.0835937 0 0.143479 0.0177146 0.143724 0.0274781 0 0.00070504 
trait 2 0.292922 0 0 0.0988216 0 0 0 0 
trait 3 0.248438 0.500111 0 0 0.138981 0 0 0.188208 
node 1 2 1 3
node 2 2 1 1
node 3 3 1 1
node 4 2 0 2
node 41 1 0 0
node 50 1 0 0
node 91 1 0 0
gene 3 1 4 -2.78787 0 1 -2.78787 1
gene 3 2 4 7.59922 0 2 7.59922 0
gene 2 3 4 3.20177 0 3 3.20177 0
gene 2 3 41 -1.56377 0 113 -1.56377 1
gene 2 41 4 -2.14484 0 114 -2.14484 1
gene 1 2 50 -0.360271 0 145 -0.360271 1
gene 1 50 4 -0.207419 0 146 -0.207419 1
gene 2 41 91 2.6007 0 269 2.6007 1
gene 2 91 4 0.137057 0 270 0.137057 1
gene 1 91 50 -1.96478 0 296 -1.96478 1
genomeend 105

/* Organism #106 Fitness: 7.74319 Error: 1.21734 */
genomestart 106
trait 1 0.0835937 0 0.143479 0.0177146 0.143724 0.0274781 0 0.00070504 
trait 2 0.292922 0 0 0.0988216 0 0 0 0 
trait 3 0.248438 0.500111 0 0 0.138981 0 0 0.188208 
node 1 2 1 3
node 2 2 1 1
node 3 3 1 1
node 4 2 0 2
node 41 1 0 0
node 50 1 0 0
node 91 1 0 0
gene 3 1 4 -1.84919 0 1 -1.84919 1
gene 3 2 4 6.66169 0 2 6.66169 0
gene 2 3 4 2.26394 0 3 2.26394 0
gene 2 3 41 -2.33444 0 113 -2.33444 1
gene 2 41 4 2.89685 0 114 2.89685 1
gene 1 2 50 -3.67481 0 145 -3.67481 1
gene 1 50 4 3.84109 0 146 3.84109 1
gene 2 41 91 1.64035 0 269 1.64035 1
gene 2 91 4 1.2831 0 270 1.2831 1
gene 1 91 50 -0.185934 0 296 -0.185934 1
genomeend 106

/* Species #17 : (Size 9) (AF 5.56979) (Age 15)  */


/* Organism #107 Fitness: 9 Error: 1 */
genomestart 107
trait 1 0.05 0 0.437269 0.0539872 0.438017 0.0837428 0 0.00143246 
trait 2 0.2 0 0 0 0 0 0 0.231445 
trait 3 0.304181 0 0 0 0 0 0 0 
node 1 1 1 3
node 2 3 1 1
node 3 3 1 1
node 4 2 0 2
node 16 1 0 0
node 54 1 0 0
gene 3 1 4 -4.62839 0 1 -4.62839 1
gene 3 2 4 -0.81019 0 2 -0.81019 0
gene 2 3 4 4.49648 0 3 4.49648 1
gene 3 2 16 0.897702 0 32 0.897702 0
gene 2 16 4 8 0 33 8 1
gene 3 1 16 -2.29408 0 53 -2.29408 1
gene 3 3 16 2.48749 0 147 2.48749 1
gene 3 2 54 1 0 156 1 1
gene 3 54 16 3.49083 0 157 3.49083 1
gene 2 54 4 1.02237 0 230 1.02237 1
genomeend 107

/* Organism #108 Fitness: 1 Error: 3 */
genomestart 108
trait 1 0.05 0 0.437269 0.0539872 0.438017 0.0837428 0 0.00143246 
trait 2 0.2 0 0 0 0 0 0 0.231445 
trait 3 0.304181 0 0 0 0 0 0 0 
node 1 1 1 3
node 2 3 1 1
node 3 3 1 1
node 4 2 0 2
node 16 1 0 0
node 54 1 0 0
gene 3 1 4 -3.07691 0 1 -3.07691 1
gene 3 2 4 -0.534303 0 2 -0.534303 0
gene 2 3 4 2.18097 0 3 2.18097 1
gene 3 2 16 2.70516 0 32 2.70516 0
gene 2 16 4 8 0 33 8 1
gene 3 1 16 -2.3912 0 53 -2.3912 1
gene 3 3 16 1.82119 0 147 1.82119 1
gene 3 2 54 -0.442839 0 156 -0.442839 1
gene 3 54 16 5.71883 0 157 5.71883 1
gene 2 54 4 1.02237 0 230 1.02237 1
genomeend 108

/* Organism #109 Fitness: 8.92887 Error: 1.01188 */
genomestart 109
trait 1 0.05 0 0.437269 0.0539872 0.438017 0.0837428 0 0.00143246 
trait 2 0.2 0 0 0 0 0 0 0.231445 
trait 3 0.304181 0 0 0 0 0 0 0 
node 1 1 1 3
node 2 3 1 1
node 3 3 1 1
node 4 2 0 2
node 16 1 0 0
node 54 1 0 0
gene 3 1 4 -0.713065 0 1 -0.713065 1
gene 3 2 4 0.854595 0 2 0.854595 1
gene 2 3 4 3.38782 0 3 3.38782 1
gene 3 2 16 -0.677969 0 32 -0.677969 0
gene 2 16 4 8 0 33 8 1
gene 3 1 16 -2.29408 0 53 -2.29408 1
gene 3 3 16 2.88125 0 147 2.88125 1
gene 3 2 54 1.92334 0 156 1.92334 1
gene 3 54 16 3.49083 0 157 3.49083 1
gene 2 54 4 -1.37539 0 230 -1.37539 1
genomeend 109

/* Organism #110 Fitness: 1.19361 Error: 2.90747 */
genomestart 110
trait 1 0.05 0 0.437269 0.0539872 0.438017 0.0837428 0 0.00143246 
trait 2 0.2 0 0 0 0 0 0 0.231445 
trait 3 0.304181 0 0 0 0 0 0 0 
node 1 1 1 3
node 2 3 1 1
node 3 3 1 1
node 4 2 0 2
node 16 1 0 0
node 54 1 0 0
gene 3 1 4 -5.64313 0 1 -5.64313 1
gene 3 2 4 0.866497 0 2 0.866497 0
gene 2 3 4 5.36199 0 3 5.36199 1
gene 3 2 16 1.0136 0 32 1.0136 0
gene 2 16 4 6.59989 0 33 6.59989 1
gene 3 1 16 -0.185553 0 53 -0.185553 1
gene 1 3 16 0.142064 0 147 0.142064 1
gene 3 2 54 -0.479156 0 156 -0.479156 1
gene 3 54 16 3.68103 0 157 3.68103 1
gene 2 54 4 -0.977203 0 230 -0.977203 1
genomeend 110

/* Organism #111 Fitness: 9 Error: 1 */
genomestart 111
trait 1 0.05 0 0.437269 0.0539872 0.438017 0.0837428 0 0.00143246 
trait 2 0.2 0 0 0 0 0 0 0.231445 
trait 3 0.304181 0 0 0 0 0 0 0 
node 1 1 1 3
node 2 3 1 1
node 3 3 1 1
node 4 2 0 2
node 16 1 0 0
node 54 1 0 0
gene 3 1 4 -4.62839 0 1 -4.62839 1
gene 3 2 4 -0.81019 0 2 -0.81019 0
gene 2 3 4 4.49648 0 3 4.49648 1
gene 3 2 16 0.897702 0 32 0.897702 0
gene 2 16 4 8 0 33 8 1
gene 3 1 16 -2.29408 0 53 -2.29408 1
gene 3 3 16 2.48749 0 147 2.48749 1
gene 3 2 54 1 0 156 1 1
gene 3 54 16 3.49083 0 157 3.49083 1
gene 2 54 4 1.02237 0 230 1.02237 1
gene 3 1 54 -0.259194 0 302 -0.259194 1
genomeend 111

/* Organism #112 Fitness: 4.00003 Error: 1.99999 */
genomestart 112
trait 1 0.05 0 0.437269 0.0539872 0.438017 0.0837428 0 0.00143246 
trait 2 0.2 0 0 0 0 0 0 0.231445 
trait 3 0.304181 0 0 0 0 0 0 0 
node 1 1 1 3
node 2 3 1 1
node 3 3 1 1
node 4 2 0 2
node 16 1 0 0
node 54 1 0 0
gene 3 1 4 -5.66335 0 1 -5.66335 1
gene 3 2 4 -2.6059 0 2 -2.6059 0
gene 2 3 4 1.83653 0 3 1.83653 1
gene 3 2 16 0.897702 0 32 0.897702 0
gene 2 16 4 7.31516 0 33 7.31516 1
gene 3 1 16 0.188681 0 53 0.188681 1
gene 3 3 16 3.67283 0 147 3.67283 1
gene 3 2 54 3.43736 0 156 3.43736 1
gene 3 54 16 4.28278 0 157 4.28278 1
gene 2 54 4 1.5315 0 230 1.5315 1
genomeend 112

/* Organism #113 Fitness: 3.99878 Error: 2.0003 */
genomestart 113
trait 1 0.05 0 0.437269 0.0539872 0.438017 0.0837428 0 0.00143246 
trait 2 0.2 0 0 0 0 0 0 0.231445 
trait 3 0.304181 0 0 0 0 0 0 0 
node 1 1 1 3
node 2 3 1 1
node 3 3 1 1
node 4 2 0 2
node 16 1 0 0
node 54 1 0 0
gene 3 1 4 -6.27746 0 1 -6.27746 1
gene 3 2 4 -0.81019 0 2 -0.81019 0
gene 2 3 4 2.21805 0 3 2.21805 1
gene 3 2 16 -1.27171 0 32 -1.27171 0
gene 2 16 4 7.90387 0 33 7.90387 1
gene 3 1 16 -3.90172 0 53 -3.90172 1
gene 3 3 16 2.1308 0 147 2.1308 1
gene 3 2 54 0.783166 0 156 0.783166 1
gene 3 54 16 4.17063 0 157 4.17063 1
gene 2 54 4 -1.66875 0 230 -1.66875 1
genomeend 113

/* Organism #114 Fitness: 9 Error: 1 */
genomestart 114
trait 1 0.05 0 0.437269 0.0539872 0.438017 0.0837428 0 0.00143246 
trait 2 0.2 0 0 0 0 0 0 0.231445 
trait 3 0.304181 0 0 0 0 0 0 0 
node 1 1 1 3
node 2 3 1 1
node 3 3 1 1
node 4 2 0 2
node 16 1 0 0
node 54 1 0 0
gene 3 1 4 -4.62839 0 1 -4.62839 1
gene 3 2 4 -0.81019 0 2 -0.81019 0
gene 2 3 4 4.49648 0 3 4.49648 1
gene 3 2 16 0.897702 0 32 0.897702 0
gene 2 16 4 8 0 33 8 1
gene 3 1 16 -2.29408 0 53 -2.29408 1
gene 3 3 16 2.48749 0 147 2.48749 1
gene 3 2 54 1 0 156 1 1
gene 3 54 16 3.49083 0 157 3.49083 1
gene 2 54 4 1.02237 0 230 1.02237 1
genomeend 114

/* Organism #115 Fitness: 4.00679 Error: 1.9983 */
genomestart 115
trait 1 0.05 0 0.437269 0.0539872 0.438017 0.0837428 0 0.00143246 
trait 2 0.2 0 0 0 0 0 0 0.231445 
trait 3 0.304181 0 0 0 0 0 0 0 
node 1 1 1 3
node 2 3 1 1
node 3 1 1 1
node 4 2 0 2
node 16 1 0 0
node 54 1 0 0
gene 3 1 4 -3.22096 0 1 -3.22096 1
gene 3 2 4 -0.0360118 0 2 -0.0360118 0
gene 2 3 4 4.49648 0 3 4.49648 1
gene 3 2 16 2.90986 0 32 2.90986 0
gene 2 16 4 6.97404 0 33 6.97404 1
gene 3 1 16 -3.60652 0 53 -3.60652 1
gene 3 3 16 0.34051 0 147 0.34051 1
gene 3 2 54 -1.23174 0 156 -1.23174 1
gene 3 54 16 3.49083 0 157 3.49083 1
gene 2 54 4 1.02237 0 230 1.02237 1
genomeend 115

/* Species #18 : (Size 3) (AF 1.35891) (Age 12)  */


/* Organism #116 Fitness: 1.71148 Error: 2.69176 */
genomestart 116
trait 1 0.05 0 0.437269 0.0539872 0.438017 0.0837428 0 0.00143246 
trait 2 0.2 0 0 0 0 0 0 0.231445 
trait 3 0.3 0 0 0 0 0 0 0 
node 1 1 1 3
node 2 3 1 1
node 3 3 1 1
node 4 2 0 2
node 16 1 0 0
gene 3 1 4 0.16419 0 1 0.16419 1
gene 3 2 4 8 0 2 8 1
gene 2 3 4 -2.28324 0 3 -2.28324 1
gene 2 2 16 1.71117 0 32 1.71117 1
gene 3 16 4 -0.263804 0 33 -0.263804 0
gene 1 1 16 2.12968 0 53 2.12968 1
gene 3 3 16 0.522706 0 173 0.522706 1
genomeend 116

/* Organism #117 Fitness: 1.00079 Error: 2.9996 */
genomestart 117
trait 1 0.05 0 0.437269 0.0539872 0.438017 0.0837428 0 0.00143246 
trait 2 0.2 0 0 0 0 0 0 0.231445 
trait 3 1 0 0 0 0 0 0.0225227 0 
node 1 1 1 3
node 2 3 1 1
node 3 3 1 1
node 4 3 0 2
node 16 1 0 0
gene 3 1 4 -7.47951 0 1 -7.47951 1
gene 3 2 4 5.88827 0 2 5.88827 1
gene 2 3 4 4.2656 0 3 4.2656 1
gene 2 2 16 -1.16192 0 32 -1.16192 1
gene 3 16 4 1.41448 0 33 1.41448 0
gene 1 1 16 1.95656 0 53 1.95656 1
gene 3 3 16 4.3141 0 173 4.3141 1
genomeend 117

/* Organism #118 Fitness: 1.36446 Error: 2.8319 */
genomestart 118
trait 1 0.05 0 0.437269 0.0539872 0.438017 0.0837428 0 0.00143246 
trait 2 0 0 0 0 0.184576 0.150273 0 0.231445 
trait 3 0.3 0 0 0 0 0 0 0 
node 1 1 1 3
node 2 3 1 1
node 3 3 1 1
node 4 2 0 2
node 16 1 0 0
node 97 1 0 0
gene 3 1 4 -7.99565 0 1 -7.99565 1
gene 3 2 4 1.48892 0 2 1.48892 1
gene 2 3 4 7.66605 0 3 7.66605 1
gene 2 2 16 5.24478 0 32 5.24478 1
gene 3 16 4 1.20914 0 33 1.20914 0
gene 1 1 16 -0.436319 0 53 -0.436319 1
gene 1 3 16 8 0 173 8 1
gene 3 16 97 -2.43057 0 286 -2.43057 1
gene 3 97 4 1.99812 0 287 1.99812 1
genomeend 118

/* Species #19 : (Size 9) (AF 5.92922) (Age 11)  */


/* Organism #119 Fitness: 8.98015 Error: 1.00331 */
genomestart 119
trait 1 0.1 0 0 0 0 0 0 0.00143246 
trait 2 0.242327 0 0 0.0450148 0 0 0 0 
trait 3 0.3 0 0 0 0 0 0 0 
node 1 1 1 3
node 2 2 1 1
node 3 2 1 1
node 4 3 0 2
node 19 1 0 0
node 28 1 0 0
node 43 1 0 0
node 67 1 0 0
node 83 1 0 0
gene 3 1 4 -3.02755 0 1 -3.02755 1
gene 1 2 4 5.43085 0 2 5.43085 0
gene 2 3 4 6.14681 0 3 6.14681 0
gene 1 2 19 1.26621 0 41 1.26621 1
gene 1 19 4 -6.18778 0 42 -6.18778 1
gene 1 3 19 0.692541 0 58 0.692541 1
gene 1 3 28 -5.36326 0 73 -5.36326 1
gene 1 28 19 0.805994 0 74 0.805994 1
gene 1 3 43 4.15699 0 119 4.15699 1
gene 1 43 19 0.0647755 0 120 0.0647755 1
gene 1 1 43 1.25813 0 176 1.25813 1
gene 2 3 67 -3.47179 0 200 -3.47179 1
gene 2 67 4 5.21981 0 201 5.21981 1
gene 1 2 83 1 0 245 1 1
gene 1 83 4 8 0 246 8 1
genomeend 119

/* Organism #120 Fitness: 4 Error: 2 */
genomestart 120
trait 1 0.1 0 0 0 0 0 0 0.00143246 
trait 2 0.242327 0 0 0.0450148 0 0 0 0 
trait 3 0.3 0 0 0 0 0 0 0 
node 1 1 1 3
node 2 2 1 1
node 3 2 1 1
node 4 3 0 2
node 19 1 0 0
node 28 1 0 0
node 43 1 0 0
node 67 1 0 0
node 83 1 0 0
gene 3 1 4 -2.14625 0 1 -2.14625 1
gene 1 2 4 7.21885 0 2 7.21885 0
gene 2 3 4 6.43406 0 3 6.43406 0
gene 1 2 19 0.734123 0 41 0.734123 1
gene 1 19 4 -4.89097 0 42 -4.89097 1
gene 1 3 19 1.53279 0 58 1.53279 1
gene 1 3 28 -4.03647 0 73 -4.03647 1
gene 1 28 19 1.54477 0 74 1.54477 1
gene 1 3 43 5.67086 0 119 5.67086 1
gene 1 43 19 2.30369 0 120 2.30369 1
gene 1 1 43 1.25813 0 176 1.25813 1
gene 2 3 67 -2.27363 0 200 -2.27363 1
gene 2 67 4 6.29917 0 201 6.29917 1
gene 1 2 83 0.748451 0 245 0.748451 1
gene 1 83 4 0.53415 0 246 0.53415 1
genomeend 120

/* Organism #121 Fitness: 4.00231 Error: 1.99942 */
genomestart 121
trait 1 0.1 0 0 0 0 0 0 0.00143246 
trait 2 0.242327 0 0 0.0450148 0 0 0 0 
trait 3 0.3 0 0 0 0 0 0 0 
node 1 1 1 3
node 2 2 1 1
node 3 2 1 1
node 4 3 0 2
node 19 1 0 0
node 28 1 0 0
node 43 1 0 0
node 67 1 0 0
node 83 1 0 0
gene 3 1 4 -4.61161 0 1 -4.61161 1
gene 1 2 4 3.29479 0 2 3.29479 0
gene 2 3 4 6.03312 0 3 6.03312 0
gene 1 2 19 0.754723 0 41 0.754723 1
gene 1 19 4 -6.43797 0 42 -6.43797 1
gene 1 3 19 0.692541 0 58 0.692541 1
gene 1 3 28 -5.91593 0 73 -5.91593 1
gene 1 28 19 -0.942898 0 74 -0.942898 1
gene 1 3 43 4.78407 0 119 4.78407 1
gene 1 43 19 -2.23464 0 120 -2.23464 1
gene 1 1 43 2.29739 0 176 2.29739 1
gene 2 3 67 0.325175 0 200 0.325175 1
gene 2 67 4 5.37767 0 201 5.37767 1
gene 1 2 83 0.526353 0 245 0.526353 1
gene 1 83 4 6.87463 0 246 6.87463 1
genomeend 121

/* Organism #122 Fitness: 4 Error: 2 */
genomestart 122
trait 1 0.1 0 0 0 0 0 0 0.00143246 
trait 2 0.242327 0 0 0.0450148 0 0 0 0 
trait 3 0.3 0 0 0 0 0 0 0 
node 1 1 1 3
node 2 2 1 1
node 3 2 1 1
node 4 3 0 2
node 19 1 0 0
node 28 1 0 0
node 43 1 0 0
node 67 1 0 0
node 83 1 0 0
gene 3 1 4 -4.1324 0 1 -4.1324 1
gene 1 2 4 7.23365 0 2 7.23365 0
gene 2 3 4 -2.38266 0 3 -2.38266 0
gene 1 2 19 -0.506531 0 41 -0.506531 1
gene 1 19 4 -7.60453 0 42 -7.60453 1
gene 1 3 19 0.153279 0 58 0.153279 1
gene 1 3 28 -5.36326 0 73 -5.36326 1
gene 1 28 19 -0.546663 0 74 -0.546663 1
gene 1 3 43 2.33724 0 119 2.33724 1
gene 1 43 19 1.34083 0 120 1.34083 1
gene 1 1 43 0.811716 0 176 0.811716 1
gene 2 3 67 -1.97287 0 200 -1.97287 1
gene 2 67 4 3.21505 0 201 3.21505 1
gene 1 2 83 -1.40661 0 245 -1.40661 1
gene 1 83 4 8 0 246 8 1
genomeend 122

/* Organism #123 Fitness: 4.00093 Error: 1.99977 */
genomestart 123
trait 1 0.1 0 0 0 0 0 0 0.00143246 
trait 2 0.242327 0 0 0.0450148 0 0 0 0 
trait 3 0.3 0 0 0 0 0 0 0 
node 1 1 1 3
node 2 2 1 1
node 3 2 1 1
node 4 3 0 2
node 19 1 0 0
node 28 1 0 0
node 43 1 0 0
node 67 1 0 0
node 83 1 0 0
gene 3 1 4 -4.83775 0 1 -4.83775 1
gene 1 2 4 5.66507 0 2 5.66507 0
gene 2 3 4 8 0 3 8 0
gene 1 2 19 2.76505 0 41 2.76505 1
gene 1 19 4 -6.44917 0 42 -6.44917 1
gene 1 3 19 -1.70667 0 58 -1.70667 1
gene 1 3 28 -6.78306 0 73 -6.78306 1
gene 1 28 19 0.91174 0 74 0.91174 1
gene 1 3 43 4.07672 0 119 4.07672 1
gene 1 43 19 -0.316858 0 120 -0.316858 1
gene 1 1 43 2.00766 0 176 2.00766 1
gene 2 3 67 -1.89489 0 200 -1.89489 1
gene 2 67 4 3.99083 0 201 3.99083 1
gene 1 2 83 1 0 245 1 1
gene 1 83 4 6.27662 0 246 6.27662 1
genomeend 123

/* Organism #124 Fitness: 8.98015 Error: 1.00331 */
genomestart 124
trait 1 0.1 0 0 0 0 0 0 0.00143246 
trait 2 0.242327 0 0 0.0450148 0 0 0 0 
trait 3 0.3 0 0 0 0 0 0 0 
node 1 1 1 3
node 2 2 1 1
node 3 2 1 1
node 4 3 0 2
node 19 1 0 0
node 28 1 0 0
node 43 1 0 0
node 67 1 0 0
node 83 1 0 0
gene 3 1 4 -3.02755 0 1 -3.02755 1
gene 1 2 4 5.43085 0 2 5.43085 0
gene 2 3 4 6.14681 0 3 6.14681 0
gene 1 2 19 1.26621 0 41 1.26621 1
gene 1 19 4 -6.18778 0 42 -6.18778 1
gene 1 3 19 0.692541 0 58 0.692541 1
gene 1 3 28 -5.36326 0 73 -5.36326 1
gene 1 28 19 0.805994 0 74 0.805994 1
gene 1 3 43 4.15699 0 119 4.15699 1
gene 1 43 19 0.0647755 0 120 0.0647755 1
gene 1 1 43 1.25813 0 176 1.25813 1
gene 2 3 67 -3.47179 0 200 -3.47179 1
gene 2 67 4 5.21981 0 201 5.21981 1
gene 1 2 83 1 0 245 1 1
gene 1 83 4 8 0 246 8 1
genomeend 124

/* Organism #125 Fitness: 1.02067 Error: 2.98972 */
genomestart 125
trait 1 0.1 0 0 0 0 0 0 0.00143246 
trait 2 0.242327 0 0 0.487259 0 0.896878 0.90173 0 
trait 3 0.3 0 0 0 0 0 0 0 
node 1 1 1 3
node 2 2 1 1
node 3 2 1 1
node 4 3 0 2
node 19 1 0 0
node 28 1 0 0
node 43 1 0 0
node 67 1 0 0
node 83 1 0 0
gene 3 1 4 -4.4459 0 1 -4.4459 1
gene 1 2 4 2.02261 0 2 2.02261 0
gene 2 3 4 8 0 3 8 0
gene 2 2 19 1.03885 0 41 1.03885 1
gene 1 19 4 -7.99615 0 42 -7.99615 1
gene 1 3 19 1.44002 0 58 1.44002 1
gene 1 3 28 -5.36326 0 73 -5.36326 1
gene 1 28 19 -0.989181 0 74 -0.989181 1
gene 1 3 43 2.64228 0 119 2.64228 1
gene 1 43 19 0.0647755 0 120 0.0647755 1
gene 1 1 43 0.543153 0 176 0.543153 1
gene 2 3 67 1.40233 0 200 1.40233 1
gene 2 67 4 6.02969 0 201 6.02969 1
gene 1 2 83 -0.807215 0 245 -0.807215 1
gene 1 83 4 6.40495 0 246 6.40495 1
genomeend 125

/* Organism #126 Fitness: 3.99985 Error: 2.00004 */
genomestart 126
trait 1 0.1 0 0 0.242042 0.380169 0 0 0.2114 
trait 2 0.242327 0 0 0.0450148 0 0 0 0 
trait 3 0.3 0 0 0 0 0 0 0 
node 1 1 1 3
node 2 2 1 1
node 3 2 1 1
node 4 3 0 2
node 19 1 0 0
node 28 1 0 0
node 43 1 0 0
node 67 1 0 0
node 83 1 0 0
gene 3 1 4 -0.402861 0 1 -0.402861 1
gene 1 2 4 4.09185 0 2 4.09185 0
gene 2 3 4 6.03312 0 3 6.03312 0
gene 1 2 19 -1.04747 0 41 -1.04747 1
gene 1 19 4 -6.22083 0 42 -6.22083 1
gene 3 3 19 0.809427 0 58 0.809427 1
gene 1 3 28 -7.40615 0 73 -7.40615 1
gene 1 28 19 -1.20124 0 74 -1.20124 1
gene 1 3 43 3.78298 0 119 3.78298 1
gene 1 43 19 0.158382 0 120 0.158382 1
gene 1 1 43 -0.320874 0 176 -0.320874 1
gene 2 3 67 -2.19794 0 200 -2.19794 1
gene 2 67 4 4.81812 0 201 4.81812 1
gene 1 2 83 -0.985977 0 245 -0.985977 1
gene 1 83 4 7.93713 0 246 7.93713 1
genomeend 126

/* Organism #127 Fitness: 14.3789 Error: 0.208042 */
/* ##------$ WINNER 127 SPECIES #19 $------## */
genomestart 127
trait 1 0.1 0 0 0 0 0 0 0.00143246 
trait 2 0.242327 0 0 0.0450148 0 0 0 0 
trait 3 0.3 0 0 0 0 0 0 0 
node 1 1 1 3
node 2 2 1 1
node 3 2 1 1
node 4 3 0 2
node 19 1 0 0
node 28 1 0 0
node 43 1 0 0
node 67 1 0 0
node 83 2 0 0
gene 3 1 4 -2.19035 0 1 -2.19035 1
gene 1 2 4 6.08058 0 2 6.08058 0
gene 2 3 4 6.71949 0 3 6.71949 1
gene 1 2 19 -0.660649 0 41 -0.660649 1
gene 1 19 4 -8 0 42 -8 1
gene 1 3 19 1.24561 0 58 1.24561 1
gene 1 3 28 -3.80178 0 73 -3.80178 1
gene 1 28 19 0.188986 0 74 0.188986 1
gene 1 3 43 2.05953 0 119 2.05953 1
gene 1 43 19 0.0513474 0 120 0.0513474 1
gene 1 1 43 -0.909986 0 176 -0.909986 1
gene 2 3 67 -2.66671 0 200 -2.66671 1
gene 2 67 4 3.83229 0 201 3.83229 1
gene 1 2 83 -0.301233 0 245 -0.301233 1
gene 1 83 4 7.56061 0 246 7.56061 1
genomeend 127

/* Species #20 : (Size 9) (AF 7.88658) (Age 6)  */


/* Organism #128 Fitness: 9 Error: 1 */
genomestart 128
trait 1 0.295929 0 0 0 0 0 0.0268258 0.197346 
trait 2 0.391746 0 0 0.981445 0 0 0 0 
trait 3 0.142494 0 0 0 0 0 0.859645 0.960204 
node 1 1 1 3
node 2 2 1 1
node 3 2 1 1
node 4 3 0 2
node 19 1 0 0
node 28 1 0 0
node 43 1 0 0
node 85 1 0 0
gene 3 1 4 -4.61573 0 1 -4.61573 1
gene 1 2 4 6.3256 0 2 6.3256 1
gene 2 3 4 7.64412 0 3 7.64412 1
gene 1 2 19 7.05809 0 41 7.05809 1
gene 3 19 4 6.30917 0 42 6.30917 1
gene 1 3 19 -4.1567 0 58 -4.1567 0
gene 1 3 28 -2.37962 0 73 -2.37962 1
gene 1 28 19 -7.65079 0 74 -7.65079 1
gene 1 3 43 0.741203 0 119 0.741203 0
gene 1 43 19 -3.49104 0 120 -3.49104 1
gene 1 2 28 -1.22138 0 243 -1.22138 1
gene 1 3 85 1.31487 0 250 1.31487 1
gene 1 85 43 -1.02084 0 251 -1.02084 1
gene 1 1 85 -0.435591 0 288 -0.435591 1
genomeend 128

/* Organism #129 Fitness: 8.99276 Error: 1.00121 */
genomestart 129
trait 1 0.258938 0 0 0 0 0 0.0234725 0.197346 
trait 2 0.373069 0 0 0.864391 0 0 0 0 
trait 3 0.142494 0 0 0 0 0 0.859645 0.960204 
node 1 1 1 3
node 2 2 1 1
node 3 2 1 1
node 4 3 0 2
node 19 1 0 0
node 28 1 0 0
node 43 1 0 0
node 85 1 0 0
gene 3 1 4 -4.04202 0 1 -4.04202 1
gene 1 2 4 7.82268 0 2 7.82268 1
gene 2 3 4 5.40607 0 3 5.40607 1
gene 1 2 19 7.05809 0 41 7.05809 1
gene 3 19 4 6.30917 0 42 6.30917 1
gene 1 3 19 -0.681478 0 58 -0.681478 0
gene 1 3 28 -2.37962 0 73 -2.37962 1
gene 1 28 19 -7.83428 0 74 -7.83428 1
gene 2 3 43 0.088889 0 119 0.088889 0
gene 1 43 19 -3.49104 0 120 -3.49104 1
gene 1 2 28 -2.09795 0 243 -2.09795 1
gene 1 3 85 1.31487 0 250 1.31487 1
gene 1 85 43 0.0900678 0 251 0.0900678 1
gene 1 1 85 -0.435591 0 288 -0.435591 1
genomeend 129

/* Organism #130 Fitness: 8.99985 Error: 1.00003 */
genomestart 130
trait 1 0.258938 0 0 0 0 0 0.0234725 0.197346 
trait 2 0.373069 0 0 0.864391 0 0 0 0 
trait 3 0.142494 0 0 0 0 0 0.859645 0.960204 
node 1 1 1 3
node 2 2 1 1
node 3 2 1 1
node 4 3 0 2
node 19 1 0 0
node 28 1 0 0
node 43 1 0 0
node 85 1 0 0
gene 3 1 4 -2.14648 0 1 -2.14648 1
gene 1 2 4 5.41958 0 2 5.41958 1
gene 2 3 4 5.45391 0 3 5.45391 1
gene 1 2 19 1.409 0 41 1.409 1
gene 3 19 4 4.42427 0 42 4.42427 1
gene 1 3 19 -1.74017 0 58 -1.74017 0
gene 1 3 28 -2.84892 0 73 -2.84892 1
gene 1 28 19 -5.79397 0 74 -5.79397 1
gene 2 3 43 -1.85751 0 119 -1.85751 0
gene 1 43 19 -1.53037 0 120 -1.53037 1
gene 1 2 28 0.425321 0 243 0.425321 1
gene 1 3 85 0.816889 0 250 0.816889 1
gene 1 85 43 2.40814 0 251 2.40814 1
gene 1 1 85 -1.91627 0 288 -1.91627 1
genomeend 130

/* Organism #131 Fitness: 9 Error: 1 */
genomestart 131
trait 1 0.258938 0 0 0 0 0 0.0234725 0.197346 
trait 2 0.373069 0 0 0.864391 0 0 0 0 
trait 3 0.142494 0 0 0 0 0 0.859645 0.960204 
node 1 1 1 3
node 2 2 1 1
node 3 2 1 1
node 4 3 0 2
node 19 1 0 0
node 28 1 0 0
node 43 1 0 0
node 85 1 0 0
gene 3 1 4 -4.2724 0 1 -4.2724 1
gene 1 2 4 8 0 2 8 1
gene 2 3 4 8 0 3 8 1
gene 1 2 19 1.9929 0 41 1.9929 1
gene 3 19 4 5.94501 0 42 5.94501 1
gene 1 3 19 1.58506 0 58 1.58506 0
gene 1 3 28 0.802393 0 73 0.802393 1
gene 1 28 19 -7.36506 0 74 -7.36506 1
gene 1 3 43 0.264657 0 119 0.264657 0
gene 1 43 19 3.03746 0 120 3.03746 1
gene 1 2 28 -0.856151 0 243 -0.856151 1
gene 1 3 85 0.336604 0 250 0.336604 1
gene 1 85 43 -0.792451 0 251 -0.792451 1
gene 1 1 85 -1.16422 0 288 -1.16422 1
genomeend 131

/* Organism #132 Fitness: 8.99999 Error: 1 */
genomestart 132
trait 1 0.258938 0 0 0 0 0 0.0234725 0.197346 
trait 2 0.373069 0 0 0.864391 0 0 0 0 
trait 3 0.142494 0 0 0 0 0 0.859645 0.960204 
node 1 1 1 3
node 2 2 1 1
node 3 2 1 1
node 4 3 0 2
node 19 1 0 0
node 28 1 0 0
node 43 1 0 0
node 85 1 0 0
gene 3 1 4 -3.86105 0 1 -3.86105 1
gene 1 2 4 7.1628 0 2 7.1628 1
gene 2 3 4 6.50212 0 3 6.50212 1
gene 1 2 19 7.49001 0 41 7.49001 1
gene 3 19 4 4.79389 0 42 4.79389 1
gene 1 3 19 -1.93373 0 58 -1.93373 1
gene 1 3 28 -1.96854 0 73 -1.96854 1
gene 1 28 19 -7.65968 0 74 -7.65968 1
gene 2 3 43 0.0334407 0 119 0.0334407 0
gene 1 43 19 -1.40689 0 120 -1.40689 1
gene 1 2 28 -2.44262 0 243 -2.44262 1
gene 1 3 85 1.42631 0 250 1.42631 1
gene 1 85 43 -0.150151 0 251 -0.150151 1
gene 1 1 85 -0.435591 0 288 -0.435591 1
genomeend 132

/* Organism #133 Fitness: 9 Error: 1 */
genomestart 133
trait 1 0.295929 0 0 0 0 0 0.0268258 0.197346 
trait 2 0.391746 0 0 0.981445 0 0 0 0 
trait 3 0.142494 0 0 0 0 0 0.859645 0.960204 
node 1 1 1 3
node 2 2 1 1
node 3 2 1 1
node 4 3 0 2
node 19 1 0 0
node 28 1 0 0
node 43 1 0 0
node 85 1 0 0
gene 3 1 4 -4.61573 0 1 -4.61573 1
gene 1 2 4 6.3256 0 2 6.3256 1
gene 2 3 4 7.64412 0 3 7.64412 1
gene 1 2 19 7.05809 0 41 7.05809 1
gene 3 19 4 6.30917 0 42 6.30917 1
gene 1 3 19 -4.1567 0 58 -4.1567 0
gene 1 3 28 -2.37962 0 73 -2.37962 1
gene 1 28 19 -7.65079 0 74 -7.65079 1
gene 1 3 43 0.741203 0 119 0.741203 0
gene 1 43 19 -3.49104 0 120 -3.49104 1
gene 1 2 28 -1.22138 0 243 -1.22138 1
gene 1 3 85 1.31487 0 250 1.31487 1
gene 1 85 43 -1.02084 0 251 -1.02084 1
gene 1 1 85 -0.435591 0 288 -0.435591 1
genomeend 133

/* Organism #134 Fitness: 8.98535 Error: 1.00244 */
genomestart 134
trait 1 0.221947 0 0 0 0 0 0.0201193 0.197346 
trait 2 0.354391 0 0 0.747337 0 0 0 0 
trait 3 0.142494 0 0 0 0 0 0.859645 0.960204 
node 1 1 1 3
node 2 2 1 1
node 3 2 1 1
node 4 3 0 2
node 19 1 0 0
node 28 1 0 0
node 43 1 0 0
node 85 1 0 0
gene 3 1 4 -1.22101 0 1 -1.22101 1
gene 1 2 4 8 0 2 8 1
gene 2 3 4 6.08905 0 3 6.08905 1
gene 1 2 19 6.0184 0 41 6.0184 1
gene 3 19 4 3.30477 0 42 3.30477 1
gene 1 3 19 -1.95021 0 58 -1.95021 0
gene 1 3 28 0.314173 0 73 0.314173 1
gene 1 28 19 -6.14745 0 74 -6.14745 1
gene 2 3 43 0.919507 0 119 0.919507 0
gene 1 43 19 1.3009 0 120 1.3009 1
gene 1 2 28 -6.11663 0 243 -6.11663 1
gene 1 3 85 1.40841 0 250 1.40841 1
gene 1 85 43 -1.71812 0 251 -1.71812 1
genomeend 134

/* Organism #135 Fitness: 4.00048 Error: 1.99988 */
genomestart 135
trait 1 0.221947 0 0 0 0 0 0.0201193 0.197346 
trait 2 0.354391 0 0 0.747337 0 0 0 0 
trait 3 0.142494 0 0 0 0 0 0.859645 0.960204 
node 1 1 1 3
node 2 2 1 1
node 3 2 1 1
node 4 3 0 2
node 19 1 0 0
node 28 1 0 0
node 43 1 0 0
node 85 1 0 0
gene 3 1 4 -4.86724 0 1 -4.86724 1
gene 1 2 4 6.64665 0 2 6.64665 1
gene 2 3 4 3.03371 0 3 3.03371 1
gene 1 2 19 0.880802 0 41 0.880802 1
gene 3 19 4 5.24752 0 42 5.24752 1
gene 1 3 19 -0.2163 0 58 -0.2163 0
gene 1 3 28 -0.1742 0 73 -0.1742 1
gene 1 28 19 -6.78819 0 74 -6.78819 1
gene 2 3 43 -0.977123 0 119 -0.977123 0
gene 1 43 19 0.636643 0 120 0.636643 1
gene 1 2 28 -3.64531 0 243 -3.64531 1
gene 1 3 85 2.60611 0 250 2.60611 1
gene 1 85 43 -1.67116 0 251 -1.67116 1
gene 3 1 85 -1.35137 0 297 -1.35137 1
genomeend 135

/* Organism #136 Fitness: 4.00076 Error: 1.99981 */
genomestart 136
trait 1 0.258938 0 0 0 0 0 0.0234725 0.197346 
trait 2 0.373069 0 0 1 0 0 0 0 
trait 3 0.142494 0 0 0 0 0 0.859645 0.960204 
node 1 1 1 3
node 2 2 1 1
node 3 2 1 1
node 4 3 0 2
node 19 1 0 0
node 28 1 0 0
node 43 1 0 0
node 85 1 0 0
gene 3 1 4 1.73818 0 1 1.73818 1
gene 1 2 4 1.02298 0 2 1.02298 1
gene 2 3 4 6.32345 0 3 6.32345 1
gene 1 2 19 1.93327 0 41 1.93327 1
gene 3 19 4 7.03528 0 42 7.03528 1
gene 1 3 19 -1.66311 0 58 -1.66311 0
gene 1 3 28 -0.517228 0 73 -0.517228 1
gene 1 28 19 -5.9722 0 74 -5.9722 1
gene 1 3 43 -0.249123 0 119 -0.249123 0
gene 1 43 19 -4.08073 0 120 -4.08073 1
gene 1 2 28 0.946196 0 243 0.946196 1
gene 1 3 85 -0.0304575 0 250 -0.0304575 1
gene 1 85 43 -1.02084 0 251 -1.02084 1
gene 1 1 85 -1.33985 0 288 -1.33985 1
genomeend 136

/* Species #21 : (Size 5) (AF 3.98424) (Age 4)  */


/* Organism #137 Fitness: 4.00233 Error: 1.99942 */
genomestart 137
trait 1 0.0835937 0 0.143479 0.0177146 0.143724 0.0274781 0 0.00070504 
trait 2 0.292922 0 0 0.0988216 0 0 0 0 
trait 3 0.248438 0.500111 0 0 0.138981 0 0 0.188208 
node 1 2 1 3
node 2 2 1 1
node 3 3 1 1
node 4 2 0 2
node 41 1 0 0
node 50 1 0 0
node 94 1 0 0
node 101 1 0 0
gene 3 1 4 -2.86489 0 1 -2.86489 1
gene 1 2 4 8 0 2 8 1
gene 2 3 4 0.746178 0 3 0.746178 1
gene 2 3 41 3.36627 0 113 3.36627 0
gene 2 41 4 0.887049 0 114 0.887049 0
gene 1 2 50 -0.987007 0 145 -0.987007 1
gene 1 50 4 4.81017 0 146 4.81017 1
gene 2 41 94 1.92345 0 277 1.42345 1
gene 2 94 4 1.96721 0 278 0.947118 1
gene 2 3 101 1 0 303 0 1
gene 2 101 41 3.36627 0 304 0 1
genomeend 137

/* Organism #138 Fitness: 4.00003 Error: 1.99999 */
genomestart 138
trait 1 0.0835937 0 0.143479 0.0177146 0.143724 0.0274781 0 0.00070504 
trait 2 0.292922 0 0 0.0988216 0 0 0 0 
trait 3 0.248438 0.500111 0 0 0.138981 0 0 0.188208 
node 1 2 1 3
node 2 2 1 1
node 3 3 1 1
node 4 2 0 2
node 41 1 0 0
node 50 1 0 0
node 94 1 0 0
gene 3 1 4 -2.72401 0 1 -2.72401 1
gene 1 2 4 7.71641 0 2 7.71641 1
gene 2 3 4 2.04398 0 3 2.04398 1
gene 2 3 41 4.49477 0 113 4.49477 1
gene 2 41 4 0.0805214 0 114 0.0805214 1
gene 3 2 50 0.098117 0 145 0.098117 1
gene 1 50 4 4.59627 0 146 4.59627 1
gene 2 41 94 4.17812 0 277 4.17812 1
gene 2 94 4 2.77706 0 278 2.77706 1
genomeend 138

/* Organism #139 Fitness: 3.99976 Error: 2.00006 */
genomestart 139
trait 1 0.0835937 0 0.143479 0.0177146 0.143724 0.0274781 0 0.00070504 
trait 2 0.292922 0 0 0.0988216 0 0 0 0 
trait 3 0.248438 0.500111 0 0 0.138981 0 0 0.188208 
node 1 2 1 3
node 2 2 1 1
node 3 3 1 1
node 4 2 0 2
node 41 1 0 0
node 50 1 0 0
node 94 1 0 0
gene 3 1 4 -0.294351 0 1 -0.294351 1
gene 1 2 4 7.66399 0 2 7.66399 1
gene 2 3 4 -2.04482 0 3 -2.04482 1
gene 2 3 41 4.40184 0 113 4.40184 1
gene 2 41 4 2.09985 0 114 2.09985 0
gene 3 2 50 1.42766 0 145 1.42766 1
gene 1 50 4 4.55278 0 146 4.55278 1
gene 2 41 94 1.44069 0 277 1.44069 1
gene 2 94 4 2.04019 0 278 2.04019 1
genomeend 139

/* Organism #140 Fitness: 4.00073 Error: 1.99982 */
genomestart 140
trait 1 0.0835937 0 0.143479 0.0177146 0.143724 0.0274781 0 0.00070504 
trait 2 0.292922 0 0 0.0988216 0 0 0 0 
trait 3 0.248438 0.500111 0 0 0.138981 0 0 0.188208 
node 1 2 1 3
node 2 2 1 1
node 3 3 1 1
node 4 2 0 2
node 41 1 0 0
node 50 1 0 0
node 94 1 0 0
gene 3 1 4 -2.14133 0 1 -2.14133 1
gene 1 2 4 8 0 2 8 1
gene 2 3 4 1.3406 0 3 1.3406 1
gene 2 3 41 4.43205 0 113 4.43205 1
gene 2 41 4 2.04019 0 114 2.04019 0
gene 3 2 50 -0.942259 0 145 -0.942259 1
gene 1 50 4 3.70437 0 146 3.70437 1
gene 2 41 94 2.8469 0 277 2.8469 1
gene 2 94 4 2.04019 0 278 0 1
genomeend 140

/* Organism #141 Fitness: 3.91834 Error: 2.02052 */
genomestart 141
trait 1 0.0835937 0 0.143479 0.0177146 0.143724 0.0274781 0 0.00070504 
trait 2 0.292922 0 0 0.0988216 0 0 0 0 
trait 3 0.248438 0.500111 0 0 0.138981 0 0 0.188208 
node 1 2 1 3
node 2 2 1 1
node 3 3 1 1
node 4 2 0 2
node 41 1 0 0
node 50 1 0 0
node 94 1 0 0
gene 3 1 4 -0.646687 0 1 -0.646687 1
gene 1 2 4 -0.889462 0 2 -0.889462 1
gene 2 3 4 2.64245 0 3 2.64245 1
gene 2 3 41 3.93109 0 113 3.93109 1
gene 2 41 4 2.04019 0 114 2.04019 0
gene 1 2 50 -0.818506 0 145 -0.818506 1
gene 1 50 4 0.815989 0 146 0.815989 1
gene 2 41 94 1 0 277 1 1
gene 2 94 4 -0.399153 0 278 -0.399153 1
genomeend 141

/* Species #22 : (Size 8) (AF 5.51016) (Age 2)  */


/* Organism #142 Fitness: 7.12137 Error: 1.33141 */
genomestart 142
trait 1 0.05 0 0.437269 0.0539872 0.438017 0.0837428 0 0.00143246 
trait 2 0 0 0 0 0.184576 0.150273 0 0.231445 
trait 3 0.3 0 0 0 0 0 0 0 
node 1 1 1 3
node 2 3 1 1
node 3 3 1 1
node 4 2 0 2
node 16 1 0 0
node 97 1 0 0
gene 3 1 4 -5.82785 0 1 -5.82785 1
gene 3 2 4 -0.985672 0 2 -0.985672 1
gene 2 3 4 5.79901 0 3 5.79901 1
gene 2 2 16 6.05741 0 32 6.05741 1
gene 3 16 4 0.667211 0 33 0.667211 0
gene 1 1 16 -2.81775 0 53 -2.81775 1
gene 1 3 16 5.94211 0 173 5.94211 1
gene 3 16 97 -0.515702 0 286 -0.515702 1
gene 3 97 4 2.55504 0 287 2.55504 1
genomeend 142

/* Organism #143 Fitness: 7.92689 Error: 1.18453 */
genomestart 143
trait 1 0.05 0 0.437269 0.0539872 0.438017 0.0837428 0 0.00143246 
trait 2 0 0 0 0 0.184576 0.150273 0 0.231445 
trait 3 0.3 0 0 0 0 0 0 0 
node 1 1 1 3
node 2 3 1 1
node 3 3 1 1
node 4 2 0 2
node 16 1 0 0
node 97 1 0 0
gene 3 1 4 -1.15101 0 1 -1.15101 1
gene 3 2 4 1.43445 0 2 1.43445 1
gene 2 3 4 3.71413 0 3 3.71413 1
gene 2 2 16 7.90462 0 32 7.90462 1
gene 3 16 4 0.667211 0 33 0.667211 0
gene 1 1 16 -4.7257 0 53 -4.7257 1
gene 1 3 16 4.62691 0 173 4.62691 1
gene 3 16 97 0.861904 0 286 0.861904 1
gene 3 97 4 1.69831 0 287 1.69831 1
genomeend 143

/* Organism #144 Fitness: 7.12137 Error: 1.33141 */
genomestart 144
trait 1 0.05 0 0.437269 0.0539872 0.438017 0.0837428 0 0.00143246 
trait 2 0 0 0 0 0.184576 0.150273 0 0.231445 
trait 3 0.3 0 0 0 0 0 0 0 
node 1 1 1 3
node 2 3 1 1
node 3 3 1 1
node 4 2 0 2
node 16 1 0 0
node 97 1 0 0
gene 3 1 4 -5.82785 0 1 -5.82785 1
gene 3 2 4 -0.985672 0 2 -0.985672 1
gene 2 3 4 5.79901 0 3 5.79901 1
gene 2 2 16 6.05741 0 32 6.05741 1
gene 3 16 4 0.667211 0 33 0.667211 0
gene 1 1 16 -2.81775 0 53 -2.81775 1
gene 1 3 16 5.94211 0 173 5.94211 1
gene 3 16 97 -0.515702 0 286 -0.515702 1
gene 3 97 4 2.55504 0 287 2.55504 1
genomeend 144

/* Organism #145 Fitness: 4.0939 Error: 1.97666 */
genomestart 145
trait 1 0.05 0 0.437269 0.0539872 0.438017 0.0837428 0 0.00143246 
trait 2 0 0 0 0 0.184576 0.150273 0 0.231445 
trait 3 0.3 0 0 0 0 0 0 0 
node 1 1 1 3
node 2 3 1 1
node 3 3 1 1
node 4 2 0 2
node 16 1 0 0
node 97 1 0 0
gene 3 1 4 -6.45592 0 1 -6.45592 1
gene 3 2 4 -2.75964 0 2 -2.75964 1
gene 2 3 4 8 0 3 8 1
gene 2 2 16 4.58566 0 32 4.58566 1
gene 3 16 4 2.56523 0 33 2.56523 0
gene 1 1 16 -4.59439 0 53 -4.59439 1
gene 1 3 16 7.22159 0 173 7.22159 1
gene 3 16 97 1.14405 0 286 1.14405 1
gene 3 97 4 1.98091 0 287 1.98091 1
genomeend 145

/* Organism #146 Fitness: 4.00238 Error: 1.99941 */
genomestart 146
trait 1 0.05 0 0.437269 0.0539872 0.438017 0.0837428 0 0.00143246 
trait 2 0 0 0 0 0.184576 0.150273 0 0.231445 
trait 3 0.3 0 0 0 0 0 0 0 
node 1 1 1 3
node 2 3 1 1
node 3 3 1 1
node 4 2 0 2
node 16 1 0 0
node 97 1 0 0
gene 3 1 4 -6.87509 0 1 -6.87509 1
gene 3 2 4 -2.17032 0 2 -2.17032 1
gene 2 3 4 3.42985 0 3 3.42985 1
gene 2 2 16 -1.86735 0 32 -1.86735 1
gene 3 16 4 2.15918 0 33 2.15918 0
gene 1 1 16 -3.91451 0 53 -3.91451 1
gene 1 3 16 7.92833 0 173 7.92833 1
gene 3 16 97 1.0238 0 286 1.0238 1
gene 3 97 4 1.94932 0 287 1.94932 1
genomeend 146

/* Organism #147 Fitness: 1.29884 Error: 2.86033 */
genomestart 147
trait 1 0.05 0 0.437269 0.0539872 0.438017 0.0837428 0 0.00143246 
trait 2 0 0 0 0 0.184576 0.150273 0 0.231445 
trait 3 0.3 0 0 0 0 0 0 0 
node 1 1 1 3
node 2 3 1 1
node 3 3 1 1
node 4 2 0 2
node 16 1 0 0
node 97 1 0 0
gene 3 1 4 -5.82785 0 1 -5.82785 1
gene 3 2 4 1.43147 0 2 1.43147 1
gene 2 3 4 5.26218 0 3 5.26218 1
gene 2 2 16 3.96705 0 32 3.96705 1
gene 3 16 4 -1.17031 0 33 -1.17031 0
gene 1 1 16 0.126728 0 53 0.126728 1
gene 1 3 16 6.87078 0 173 6.87078 1
gene 3 16 97 -0.515702 0 286 -0.515702 1
gene 3 97 4 2.55504 0 287 2.55504 1
genomeend 147

/* Organism #148 Fitness: 5.39518 Error: 1.67725 */
genomestart 148
trait 1 0.05 0 0.437269 0.0539872 0.438017 0.0837428 0 0.00143246 
trait 2 0 0 0 0 0.184576 0.150273 0 0.231445 
trait 3 0.580648 0 0 0.940092 0.9953 0 0 0 
node 1 1 1 3
node 2 3 1 1
node 3 3 1 1
node 4 2 0 2
node 16 1 0 0
node 97 1 0 0
gene 3 1 4 -4.8672 0 1 -4.8672 1
gene 3 2 4 -0.613269 0 2 -0.613269 1
gene 2 3 4 4.27331 0 3 4.27331 1
gene 2 2 16 8 0 32 8 1
gene 3 16 4 1.41148 0 33 1.41148 0
gene 1 1 16 -1.33799 0 53 -1.33799 1
gene 1 3 16 7.20763 0 173 7.20763 1
gene 3 16 97 -0.261711 0 286 -0.261711 1
gene 3 97 4 2.15921 0 287 2.15921 1
genomeend 148

/* Organism #149 Fitness: 7.12137 Error: 1.33141 */
genomestart 149
trait 1 0.05 0 0.437269 0.0539872 0.438017 0.0837428 0 0.00143246 
trait 2 0 0 0 0 0.184576 0.150273 0 0.231445 
trait 3 0.3 0 0 0 0 0 0 0 
node 1 1 1 3
node 2 3 1 1
node 3 3 1 1
node 4 2 0 2
node 16 1 0 0
node 97 1 0 0
gene 3 1 4 -5.82785 0 1 -5.82785 1
gene 3 2 4 -0.985672 0 2 -0.985672 1
gene 2 3 4 5.79901 0 3 5.79901 1
gene 2 2 16 6.05741 0 32 6.05741 1
gene 3 16 4 0.667211 0 33 0.667211 0
gene 1 1 16 -2.81775 0 53 -2.81775 1
gene 1 3 16 5.94211 0 173 5.94211 1
gene 3 16 97 -0.515702 0 286 -0.515702 1
gene 3 97 4 2.55504 0 287 2.55504 1
genomeend 149
