
/* Species #1 : (Size 7) (AF 8.75728) (Age 30)  */


/* Organism #0 Fitness: 9 Error: 1 */
genomestart 0
trait 1 0.1 0 0 0 0 0 0 0 
trait 2 0.2 0 0.201901 0 0.329997 0 0.0288636 0.0821239 
trait 3 0.3 0 0 0 0.390182 0 0.22975 0 
node 1 3 1 3
node 2 2 1 1
node 3 2 1 1
node 4 3 0 2
gene 2 1 4 -3.92466 0 1 -3.92466 1
gene 2 2 4 7.97336 0 2 7.97336 1
gene 3 3 4 8 0 3 8 1
genomeend 0

/* Organism #1 Fitness: 7.30292 Error: 1.29761 */
genomestart 1
trait 1 0.1 0 0 0 0 0 0 0 
trait 2 0.2 0 0.201901 0 0.329997 0 0.0288636 0.0821239 
trait 3 0.3 0 0 0 0.390182 0 0.22975 0 
node 1 3 1 3
node 2 2 1 1
node 3 2 1 1
node 4 3 0 2
gene 2 1 4 -5.41572 0 1 -5.41572 1
gene 2 2 4 7.97336 0 2 7.97336 1
gene 3 3 4 5.59011 0 3 5.59011 1
genomeend 1

/* Organism #2 Fitness: 9 Error: 1 */
genomestart 2
trait 1 0.1 0 0 0 0 0 0 0 
trait 2 0.2 0 0.201901 0 0.329997 0 0.0288636 0.0821239 
trait 3 0.3 0 0 0 0.390182 0 0.22975 0 
node 1 3 1 3
node 2 2 1 1
node 3 3 1 1
node 4 3 0 2
gene 2 1 4 -4.20093 0 1 -4.20093 1
gene 2 2 4 7.75835 0 2 7.75835 1
gene 3 3 4 8 0 3 8 1
genomeend 2

/* Organism #3 Fitness: 8.99809 Error: 1.00032 */
genomestart 3
trait 1 0.1 0 0 0 0 0 0 0 
trait 2 0.2 0 0.201901 0 0.329997 0 0.0288636 0.0821239 
trait 3 0.3 0 0 0 0.390182 0 0.22975 0 
node 1 3 1 3
node 2 2 1 1
node 3 2 1 1
node 4 3 0 2
gene 2 1 4 -1.6347 0 1 -1.6347 1
gene 2 2 4 6.3175 0 2 6.3175 1
gene 3 3 4 7.51842 0 3 7.51842 1
genomeend 3

/* Organism #4 Fitness: 8.99999 Error: 1 */
genomestart 4
trait 1 0.1 0 0 0 0 0 0 0 
trait 2 0.2 0 0.201901 0 0.329997 0 0.0288636 0.0821239 
trait 3 0.3 0 0 0 0.390182 0 0.22975 0 
node 1 3 1 3
node 2 2 1 1
node 3 2 1 1
node 4 3 0 2
gene 2 1 4 -5.15799 0 1 -5.15799 1
gene 2 2 4 8 0 2 8 1
gene 3 3 4 8 0 3 8 1
genomeend 4

/* Organism #5 Fitness: 9 Error: 1 */
genomestart 5
trait 1 0 0 0 0 0.227515 0 0 0 
trait 2 0.2 0 0.201901 0 0.329997 0 0.0288636 0.0821239 
trait 3 0.3 0 0 0 0.390182 0 0.22975 0 
node 1 3 1 3
node 2 2 1 1
node 3 2 1 1
node 4 3 0 2
gene 2 1 4 -3.92466 0 1 -3.92466 1
gene 2 2 4 6.79549 0 2 6.79549 1
gene 3 3 4 7.25932 0 3 7.25932 1
genomeend 5

/* Organism #6 Fitness: 9 Error: 1 */
genomestart 6
trait 1 0.1 0 0 0 0 0 0 0 
trait 2 0.966228 0 0 0 0.329997 0 0 0.0821239 
trait 3 0.3 0 0 0 0.390182 0 0.22975 0 
node 1 3 1 3
node 2 2 1 1
node 3 2 1 1
node 4 3 0 2
gene 2 1 4 -3.96907 0 1 -3.96907 1
gene 2 2 4 6.93916 0 2 6.93916 1
gene 3 3 4 8 0 3 8 1
genomeend 6

/* Species #2 : (Size 8) (AF 6.43651) (Age 28)  */


/* Organism #7 Fitness: 8.99999 Error: 1 */
genomestart 7
trait 1 0.1 0 0 0 0 0 0 0 
trait 2 0.2 0.12299 0 0 0 0 0 0 
trait 3 0 0 0 0 0.142491 0 0 0.570788 
node 1 2 1 3
node 2 1 1 1
node 3 1 1 1
node 4 1 0 2
node 7 1 0 0
gene 1 1 4 -1.34972 0 1 -1.34972 1
gene 1 2 4 8 0 2 8 1
gene 2 3 4 4.18424 0 3 4.18424 1
gene 1 2 7 -1.58464 0 8 -1.58464 1
gene 1 7 4 -8 0 9 -8 1
gene 3 3 7 -5.59908 0 23 -5.59908 1
genomeend 7

/* Organism #8 Fitness: 8.99999 Error: 1 */
genomestart 8
trait 1 0.1 0 0 0 0 0 0 0 
trait 2 0.2 0 0 0 0 0 0 0 
trait 3 0.3 0 0 0 0 0 0 0 
node 1 2 1 3
node 2 1 1 1
node 3 3 1 1
node 4 1 0 2
node 7 1 0 0
gene 1 1 4 0.586299 0 1 0.586299 1
gene 1 2 4 2.53368 0 2 2.53368 0
gene 2 3 4 2.56683 0 3 2.56683 1
gene 1 2 7 1.0398 0 8 1.0398 1
gene 1 7 4 -6.96577 0 9 -6.96577 1
gene 3 3 7 -0.62368 0 23 -0.62368 1
genomeend 8

/* Organism #9 Fitness: 8.99671 Error: 1.00055 */
genomestart 9
trait 1 0.1 0 0 0 0 0 0 0 
trait 2 0.2 0 0 0 0 0 0 0 
trait 3 0.3 0 0 0 0 0 0 0 
node 1 2 1 3
node 2 1 1 1
node 3 3 1 1
node 4 1 0 2
node 7 1 0 0
gene 1 1 4 2.17418 0 1 2.17418 1
gene 1 2 4 0.400441 0 2 0.400441 0
gene 2 3 4 1.52081 0 3 1.52081 1
gene 1 2 7 -1.37902 0 8 -1.37902 1
gene 1 7 4 -7.98601 0 9 -7.98601 1
gene 3 3 7 -0.208781 0 23 -0.208781 1
genomeend 9

/* Organism #10 Fitness: 3.98604 Error: 2.00349 */
genomestart 10
trait 1 0.1 0 0 0 0 0 0 0 
trait 2 0.2 0 0 0 0 0 0 0 
trait 3 0.3 0 0 0 0 0 0 0 
node 1 2 1 3
node 2 1 1 1
node 3 3 1 1
node 4 1 0 2
node 7 1 0 0
gene 1 1 4 1.49133 0 1 1.49133 1
gene 1 2 4 3.79494 0 2 3.79494 0
gene 2 3 4 2.56683 0 3 2.56683 1
gene 1 2 7 0.987693 0 8 0.987693 1
gene 1 7 4 -5.27871 0 9 -5.27871 1
gene 3 3 7 -2.75113 0 23 -2.75113 1
genomeend 10

/* Organism #11 Fitness: 8.99999 Error: 1 */
genomestart 11
trait 1 0.1 0 0 0 0 0 0 0 
trait 2 0.2 0.12299 0 0 0 0 0 0 
trait 3 0 0 0 0 0.142491 0 0 0.570788 
node 1 2 1 3
node 2 1 1 1
node 3 1 1 1
node 4 1 0 2
node 7 1 0 0
node 104 1 0 0
gene 1 1 4 -1.34972 0 1 -1.34972 1
gene 1 2 4 8 0 2 8 1
gene 2 3 4 4.18424 0 3 4.18424 0
gene 1 2 7 -1.58464 0 8 -1.58464 1
gene 1 7 4 -8 0 9 -8 1
gene 3 3 7 -5.59908 0 23 -5.59908 1
gene 2 3 104 1 0 310 0 1
gene 2 104 4 4.18424 0 311 0 1
genomeend 11

/* Organism #12 Fitness: 2.43773 Error: 2.43868 */
genomestart 12
trait 1 0.1 0 0 0 0 0 0 0 
trait 2 0.2 0 0 0 0 0 0 0 
trait 3 0.3 0 0 0 0 0 0 0 
node 1 2 1 3
node 2 1 1 1
node 3 3 1 1
node 4 1 0 2
node 7 1 0 0
gene 1 1 4 0.0500885 0 1 0.0500885 1
gene 1 2 4 1.1914 0 2 1.1914 0
gene 2 3 4 2.56683 0 3 2.56683 1
gene 1 2 7 -1.81501 0 8 -1.81501 1
gene 1 7 4 -5.33181 0 9 -5.33181 1
gene 3 3 7 0.235645 0 23 0.235645 1
genomeend 12

/* Organism #13 Fitness: 4.03172 Error: 1.99209 */
genomestart 13
trait 1 0.1 0 0 0 0 0 0 0 
trait 2 0.2 0.0614948 0 0 0 0 0 0 
trait 3 0.15 0 0 0 0.0712455 0 0 0.285394 
node 1 2 1 3
node 2 1 1 1
node 3 1 1 1
node 4 1 0 2
node 7 1 0 0
gene 1 1 4 1.31664 0 1 1.31664 1
gene 1 2 4 -1.55286 0 2 -1.55286 0
gene 2 3 4 1.08562 0 3 1.08562 1
gene 1 2 7 -1.5738 0 8 -1.5738 1
gene 1 7 4 -0.743431 0 9 -0.743431 1
gene 3 3 7 -1.75428 0 23 -1.75428 1
genomeend 13

/* Organism #14 Fitness: 5.03994 Error: 1.75502 */
genomestart 14
trait 1 0.1 0 0 0 0 0 0 0 
trait 2 0.2 0.0614948 0 0 0 0 0 0 
trait 3 0.15 0 0 0 0.0712455 0 0 0.285394 
node 1 2 1 3
node 2 1 1 1
node 3 3 1 1
node 4 1 0 2
node 7 1 0 0
gene 1 1 4 -1.34972 0 1 -1.34972 1
gene 1 2 4 1.1787 0 2 1.1787 1
gene 2 3 4 3.13455 0 3 3.13455 1
gene 1 2 7 -0.94779 0 8 -0.94779 1
gene 1 7 4 -6.16321 0 9 -6.16321 1
gene 3 3 7 -1.52619 0 23 -1.52619 1
genomeend 14

/* Species #3 : (Size 8) (AF 6.87901) (Age 28)  */


/* Organism #15 Fitness: 9 Error: 1 */
genomestart 15
trait 1 0.1 0 0.0122894 0 0.0277451 0 0 0 
trait 2 0.2 0 0 0 0 0 0 0 
trait 3 0.3 0 0 0 0 0 0 0 
node 1 3 1 3
node 2 2 1 1
node 3 1 1 1
node 4 3 0 2
node 8 1 0 0
gene 1 1 4 -2.5031 0 1 -2.5031 1
gene 2 2 4 -8 0 2 -8 1
gene 1 3 4 8 0 3 8 1
gene 1 3 8 -1.0122 0 10 -1.0122 1
gene 1 8 4 -8 0 11 -8 1
gene 3 2 8 1.4208 0 140 1.4208 1
genomeend 15

/* Organism #16 Fitness: 9 Error: 1 */
genomestart 16
trait 1 0.1 0 0.0122894 0 0.0277451 0 0 0 
trait 2 0.2 0 0 0 0 0 0 0 
trait 3 0.3 0 0 0 0 0 0 0 
node 1 3 1 3
node 2 2 1 1
node 3 1 1 1
node 4 3 0 2
node 8 1 0 0
gene 1 1 4 -0.818937 0 1 -0.818937 1
gene 2 2 4 -7.60646 0 2 -7.60646 1
gene 1 3 4 8 0 3 8 1
gene 1 3 8 -0.757671 0 10 -0.757671 1
gene 1 8 4 -8 0 11 -8 1
gene 3 2 8 3.52353 0 140 3.52353 1
genomeend 16

/* Organism #17 Fitness: 9 Error: 1 */
genomestart 17
trait 1 0.1 0 0.0122894 0 0.0277451 0 0 0 
trait 2 0.2 0 0 0 0 0 0 0 
trait 3 0.3 0 0 0 0 0 0 0 
node 1 3 1 3
node 2 2 1 1
node 3 1 1 1
node 4 3 0 2
node 8 1 0 0
gene 1 1 4 -2.5031 0 1 -2.5031 1
gene 2 2 4 -8 0 2 -8 1
gene 1 3 4 8 0 3 8 1
gene 1 3 8 -1.0122 0 10 -1.0122 1
gene 1 8 4 -8 0 11 -8 1
gene 3 2 8 1.4208 0 140 1.4208 1
genomeend 17

/* Organism #18 Fitness: 7.03099 Error: 1.3484 */
genomestart 18
trait 1 0.1 0 0.0122894 0 0.0277451 0 0 0 
trait 2 0.2 0 0 0 0 0 0 0 
trait 3 0.3 0 0 0 0 0 0 0 
node 1 3 1 3
node 2 2 1 1
node 3 1 1 1
node 4 3 0 2
node 8 1 0 0
gene 1 1 4 -0.127083 0 1 -0.127083 1
gene 2 2 4 -8 0 2 -8 1
gene 1 3 4 8 0 3 8 1
gene 1 3 8 -3.13285 0 10 -3.13285 1
gene 1 8 4 -8 0 11 -8 1
gene 3 2 8 0.737037 0 140 0.737037 1
genomeend 18

/* Organism #19 Fitness: 4.00106 Error: 1.99974 */
genomestart 19
trait 1 0.1 0 0.0122894 0 0.0277451 0 0 0 
trait 2 0.2 0 0 0 0 0 0 0 
trait 3 0.3 0 0 0 0 0 0 0 
node 1 3 1 3
node 2 2 1 1
node 3 1 1 1
node 4 3 0 2
node 8 3 0 0
gene 1 1 4 -2.69247 0 1 -2.69247 1
gene 2 2 4 -8 0 2 -8 1
gene 1 3 4 8 0 3 8 1
gene 1 3 8 0.390665 0 10 0.390665 1
gene 1 8 4 -8 0 11 -8 1
gene 3 2 8 1.26897 0 140 1.26897 1
genomeend 19

/* Organism #20 Fitness: 4 Error: 2 */
genomestart 20
trait 1 0.1 0 0.0122894 0 0.0277451 0 0 0 
trait 2 0.2 0 0 0 0 0 0 0 
trait 3 0.3 0 0 0.599017 0 0 0 0 
node 1 3 1 3
node 2 2 1 1
node 3 1 1 1
node 4 3 0 2
node 8 1 0 0
gene 1 1 4 -2.00092 0 1 -2.00092 1
gene 2 2 4 -8 0 2 -8 1
gene 1 3 4 0.974303 0 3 0.974303 1
gene 1 3 8 0.403836 0 10 0.403836 1
gene 1 8 4 -7.33699 0 11 -7.33699 1
gene 3 2 8 1.10829 0 140 1.10829 1
genomeend 20

/* Organism #21 Fitness: 9 Error: 1 */
genomestart 21
trait 1 0.1 0 0.0122894 0 0.0277451 0 0 0 
trait 2 0.2 0 0 0 0 0 0 0 
trait 3 0.3 0 0 0 0 0 0 0 
node 1 3 1 3
node 2 2 1 1
node 3 1 1 1
node 4 3 0 2
node 8 1 0 0
gene 1 1 4 -2.5031 0 1 -2.5031 1
gene 2 2 4 -8 0 2 -8 1
gene 1 3 4 8 0 3 8 1
gene 1 3 8 -1.0122 0 10 -1.0122 1
gene 1 8 4 -8 0 11 -8 1
gene 3 2 8 1.4208 0 140 1.4208 1
gene 2 1 8 -0.620289 0 312 -0.620289 1
genomeend 21

/* Organism #22 Fitness: 4 Error: 2 */
genomestart 22
trait 1 0.1 0 0.0122894 0 0.0277451 0 0 0 
trait 2 0.2 0 0 0 0 0 0 0 
trait 3 0.3 0 0 0 0 0 0 0 
node 1 3 1 3
node 2 2 1 1
node 3 1 1 1
node 4 3 0 2
node 8 1 0 0
gene 1 1 4 -4.82251 0 1 -4.82251 1
gene 2 2 4 -6.11754 0 2 -6.11754 1
gene 1 3 4 8 0 3 8 1
gene 1 3 8 1.33201 0 10 1.33201 1
gene 1 8 4 -8 0 11 -8 1
gene 3 2 8 3.74174 0 140 3.74174 1
genomeend 22

/* Species #4 : (Size 4) (AF 4.19993) (Age 26)  */


/* Organism #23 Fitness: 3.99993 Error: 2.00002 */
genomestart 23
trait 1 0.1 0 0 0 0 0 0 0 
trait 2 0.2 0 0.171941 0 0 0.0437178 0 0 
trait 3 0.3 0 0 0 0 0 0 0.00473037 
node 1 1 1 3
node 2 2 1 1
node 3 2 1 1
node 4 3 0 2
node 12 1 0 0
node 98 1 0 0
gene 3 1 4 -1.75993 0 1 -1.75993 1
gene 1 2 4 -2.36709 0 2 -2.36709 1
gene 3 3 4 2.02521 0 3 2.02521 0
gene 3 3 12 4.19738 0 20 4.19738 1
gene 3 12 4 -0.268036 0 21 -0.268036 1
gene 1 2 12 0.428663 0 141 0.428663 1
gene 3 3 98 1.31854 0 291 1.31854 1
gene 3 98 4 -0.589312 0 292 -0.589312 1
genomeend 23

/* Organism #24 Fitness: 4.8007 Error: 1.80895 */
genomestart 24
trait 1 0.1 0 0 0 0 0 0 0 
trait 2 0.2 0 0.171941 0 0 0.0437178 0 0 
trait 3 0.3 0 0 0 0 0 0 0.00473037 
node 1 1 1 3
node 2 2 1 1
node 3 2 1 1
node 4 3 0 2
node 12 1 0 0
node 98 1 0 0
node 105 1 0 0
gene 3 1 4 4.21783 0 1 4.21783 1
gene 1 2 4 -0.26616 0 2 -0.26616 1
gene 3 3 4 -0.252234 0 3 -0.252234 0
gene 3 3 12 2.34949 0 20 2.34949 1
gene 3 12 4 -1.90787 0 21 -1.90787 1
gene 1 2 12 -0.804132 0 141 -0.804132 1
gene 3 3 98 1.31854 0 291 1.31854 1
gene 3 98 4 -2.52556 0 292 -2.52556 0
gene 3 98 105 1 0 313 0 1
gene 3 105 4 -2.52556 0 314 0 1
genomeend 24

/* Organism #25 Fitness: 4 Error: 2 */
genomestart 25
trait 1 0.1 0 0 0 0 0 0 0 
trait 2 0.2 0 0.171941 0 0 0.0437178 0 0 
trait 3 0.3 0 0 0 0 0 0 0.00473037 
node 1 1 1 3
node 2 2 1 1
node 3 2 1 1
node 4 3 0 2
node 12 1 0 0
node 98 1 0 0
gene 3 1 4 6.42767 0 1 6.42767 1
gene 1 2 4 -0.26616 0 2 -0.26616 1
gene 3 3 4 -1.77221 0 3 -1.77221 0
gene 3 3 12 1.27615 0 20 1.27615 1
gene 3 12 4 -1.64205 0 21 -1.64205 1
gene 1 2 12 -0.178808 0 141 -0.178808 1
gene 3 3 98 1.44078 0 291 1.44078 1
gene 3 98 4 -0.552763 0 292 -0.552763 1
genomeend 25

/* Organism #26 Fitness: 3.9991 Error: 2.00023 */
genomestart 26
trait 1 0.1 0 0 0 0 0 0 0 
trait 2 0.2 0 0.171941 0 0 0.0437178 0 0 
trait 3 0.3 0 0 0 0 0 0 0.00473037 
node 1 1 1 3
node 2 2 1 1
node 3 2 1 1
node 4 3 0 2
node 12 1 0 0
node 98 1 0 0
gene 3 1 4 2.38786 0 1 2.38786 1
gene 1 2 4 -2.43839 0 2 -2.43839 1
gene 3 3 4 2.1955 0 3 2.1955 0
gene 3 3 12 0.179241 0 20 0.179241 1
gene 3 12 4 -4.36103 0 21 -4.36103 1
gene 1 2 12 -0.752556 0 141 -0.752556 1
gene 3 3 98 1.55116 0 291 1.55116 1
gene 3 98 4 -3.74935 0 292 -3.74935 1
genomeend 26

/* Species #5 : (Size 7) (AF 8.28032) (Age 26)  */


/* Organism #27 Fitness: 9 Error: 1 */
genomestart 27
trait 1 0.1 0 0 0 0 0 0 0 
trait 2 0.2 0 0 0 0 0 0 0 
trait 3 0.3 0 0 0 0 0 0 0 
node 1 2 1 3
node 2 1 1 1
node 3 3 1 1
node 4 1 0 2
node 7 1 0 0
node 13 1 0 0
gene 1 1 4 -3.28512 0 1 -3.28512 1
gene 1 2 4 -8 0 2 -8 1
gene 2 3 4 7.37091 0 3 7.37091 1
gene 1 2 7 -2.03816 0 8 -2.03816 0
gene 1 7 4 1.14322 0 9 1.14322 1
gene 1 2 13 1.68363 0 24 1.68363 1
gene 1 13 7 -6.2338 0 25 -6.2338 1
gene 2 3 7 -0.0701926 0 33 -0.0701926 1
gene 1 3 13 -0.996124 0 126 -0.996124 1
genomeend 27

/* Organism #28 Fitness: 9 Error: 1 */
genomestart 28
trait 1 0.0929579 0 0 0 0 0 0.22322 0 
trait 2 0.2 0 0 0 0 0 0 0 
trait 3 0.3 0 0 0 0 0 0 0 
node 1 2 1 3
node 2 1 1 1
node 3 3 1 1
node 4 1 0 2
node 7 1 0 0
node 13 1 0 0
gene 1 1 4 -3.79463 0 1 -3.79463 1
gene 1 2 4 -7.68094 0 2 -7.68094 1
gene 2 3 4 6.74554 0 3 6.74554 1
gene 1 2 7 -1.49241 0 8 -1.49241 1
gene 1 7 4 2.84963 0 9 2.84963 1
gene 1 2 13 4.84181 0 24 4.84181 1
gene 1 13 7 -7.1169 0 25 -7.1169 1
gene 2 3 7 -0.0922803 0 33 -0.0922803 1
gene 1 3 13 -0.945883 0 126 -0.945883 1
genomeend 28

/* Organism #29 Fitness: 9 Error: 1 */
genomestart 29
trait 1 0.1 0 0 0 0 0 0 0 
trait 2 0.2 0 0 0 0 0 0 0 
trait 3 0.3 0 0 0 0 0 0 0 
node 1 2 1 3
node 2 1 1 1
node 3 3 1 1
node 4 1 0 2
node 7 1 0 0
node 13 1 0 0
node 106 1 0 0
gene 1 1 4 -3.28512 0 1 -3.28512 1
gene 1 2 4 -8 0 2 -8 1
gene 2 3 4 7.37091 0 3 7.37091 1
gene 1 2 7 -2.03816 0 8 -2.03816 1
gene 1 7 4 1.14322 0 9 1.14322 1
gene 1 2 13 1.68363 0 24 1.68363 1
gene 1 13 7 -6.2338 0 25 -6.2338 0
gene 2 3 7 -0.0701926 0 33 -0.0701926 1
gene 1 3 13 -0.996124 0 126 -0.996124 1
gene 1 13 106 1 0 315 0 1
gene 1 106 7 -6.2338 0 316 0 1
genomeend 29

/* Organism #30 Fitness: 8.99972 Error: 1.00005 */
genomestart 30
trait 1 0.0929579 0 0 0 0 0 0.22322 0 
trait 2 0.2 0 0 0 0 0 0 0 
trait 3 0.3 0 0 0 0 0 0 0 
node 1 2 1 3
node 2 1 1 1
node 3 3 1 1
node 4 1 0 2
node 7 1 0 0
node 13 1 0 0
gene 1 1 4 -2.04965 0 1 -2.04965 1
gene 1 2 4 -6.94827 0 2 -6.94827 1
gene 2 3 4 6.55198 0 3 6.55198 1
gene 1 2 7 0.717055 0 8 0.717055 0
gene 1 7 4 0.693342 0 9 0.693342 1
gene 1 2 13 5.62584 0 24 5.62584 1
gene 1 13 7 -8 0 25 -8 1
gene 2 3 7 1.05499 0 33 1.05499 1
gene 1 3 13 1.2735 0 126 1.2735 1
genomeend 30

/* Organism #31 Fitness: 9 Error: 1 */
genomestart 31
trait 1 0.0859157 0 0 0 0 0 0.44644 0 
trait 2 0 0 0.540391 0.181829 0 0 0 0 
trait 3 0.3 0 0 0 0 0 0 0 
node 1 2 1 3
node 2 1 1 1
node 3 3 1 1
node 4 1 0 2
node 7 1 0 0
node 13 1 0 0
gene 1 1 4 -6.24473 0 1 -6.24473 1
gene 1 2 4 -7.58414 0 2 -7.58414 1
gene 2 3 4 7.82792 0 3 7.82792 1
gene 1 2 7 -2.96897 0 8 -2.96897 0
gene 1 7 4 2.97182 0 9 2.97182 1
gene 1 2 13 7.30555 0 24 7.30555 1
gene 1 13 7 -7.47081 0 25 -7.47081 1
gene 2 3 7 2.18734 0 33 2.18734 1
gene 1 3 13 -0.287561 0 126 -0.287561 1
genomeend 31

/* Organism #32 Fitness: 3.96279 Error: 2.00932 */
genomestart 32
trait 1 0.0929579 0 0 0 0 0 0.22322 0 
trait 2 0.2 0 0 0 0 0 0 0 
trait 3 0.3 0 0 0 0 0 0 0 
node 1 2 1 3
node 2 1 1 1
node 3 3 1 1
node 4 1 0 2
node 7 1 0 0
node 13 1 0 0
gene 1 1 4 -0.943587 0 1 -0.943587 1
gene 1 2 4 -1.73132 0 2 -1.73132 1
gene 2 3 4 4.42587 0 3 4.42587 1
gene 1 2 7 -1.48394 0 8 -1.48394 0
gene 1 7 4 6.99705 0 9 6.99705 1
gene 1 2 13 8 0 24 8 1
gene 1 13 7 -5.19007 0 25 -5.19007 1
gene 2 3 7 2.05313 0 33 2.05313 1
gene 1 3 13 0.221412 0 126 0.221412 1
genomeend 32

/* Organism #33 Fitness: 8.99972 Error: 1.00005 */
genomestart 33
trait 1 0.0929579 0 0 0 0 0 0.22322 0 
trait 2 0.2 0 0 0 0 0 0 0 
trait 3 0.3 0 0 0 0 0 0 0 
node 1 2 1 3
node 2 1 1 1
node 3 3 1 1
node 4 1 0 2
node 7 1 0 0
node 13 1 0 0
gene 1 1 4 -2.25901 0 1 -2.25901 1
gene 1 2 4 -5.78085 0 2 -5.78085 1
gene 2 3 4 6.23066 0 3 6.23066 1
gene 1 2 7 -2.97156 0 8 -2.97156 0
gene 1 7 4 -0.488296 0 9 -0.488296 1
gene 1 2 13 3.03652 0 24 3.03652 1
gene 1 13 7 -4.25788 0 25 -4.25788 1
gene 2 3 7 2.42302 0 33 2.42302 1
gene 1 3 13 -2.99654 0 126 -2.99654 1
genomeend 33

/* Species #6 : (Size 8) (AF 8.37471) (Age 26)  */


/* Organism #34 Fitness: 9 Error: 1 */
genomestart 34
trait 1 0.1 0 0 0 0 0 0 0 
trait 2 0.839729 0 0 0.570269 0 0 0 0 
trait 3 0.3 0 0 0 0 0.0207068 0.122578 0 
node 1 1 1 3
node 2 1 1 1
node 3 2 1 1
node 4 3 0 2
node 7 1 0 0
node 10 1 0 0
gene 3 1 4 -2.38689 0 1 -2.38689 1
gene 1 2 4 5.98916 0 2 5.98916 1
gene 2 3 4 7.87907 0 3 7.87907 1
gene 1 2 7 -4.39919 0 8 -4.39919 1
gene 3 7 4 -3.56965 0 9 -3.56965 1
gene 1 7 10 -1.52004 0 16 -1.52004 1
gene 1 10 4 1.26803 0 17 1.26803 1
genomeend 34

/* Organism #35 Fitness: 9 Error: 1 */
genomestart 35
trait 1 0.1 0 0 0 0 0 0 0 
trait 2 0.839729 0 0 0.570269 0 0 0 0 
trait 3 0.3 0 0 0 0 0.0207068 0.122578 0 
node 1 1 1 3
node 2 1 1 1
node 3 2 1 1
node 4 3 0 2
node 7 1 0 0
node 10 1 0 0
gene 3 1 4 -2.4041 0 1 -2.4041 1
gene 1 2 4 6.98128 0 2 6.98128 1
gene 2 3 4 6.59027 0 3 6.59027 1
gene 1 2 7 -1.91216 0 8 -1.91216 1
gene 3 7 4 -2.19006 0 9 -2.19006 1
gene 1 7 10 -4.22867 0 16 -4.22867 1
gene 1 10 4 2.25828 0 17 2.25828 1
genomeend 35

/* Organism #36 Fitness: 9 Error: 1 */
genomestart 36
trait 1 0.1 0 0 0 0 0 0 0 
trait 2 0.839729 0 0 0.570269 0 0 0 0 
trait 3 0.3 0 0 0 0 0.0207068 0.122578 0 
node 1 1 1 3
node 2 1 1 1
node 3 2 1 1
node 4 3 0 2
node 7 1 0 0
node 10 1 0 0
gene 3 1 4 -1.15703 0 1 -1.15703 1
gene 1 2 4 6.7324 0 2 6.7324 1
gene 2 3 4 7.62119 0 3 7.62119 1
gene 1 2 7 -1.89789 0 8 -1.89789 1
gene 3 7 4 -3.6863 0 9 -3.6863 1
gene 1 7 10 -0.920158 0 16 -0.920158 1
gene 1 10 4 -0.953717 0 17 -0.953717 1
genomeend 36

/* Organism #37 Fitness: 8.9982 Error: 1.0003 */
genomestart 37
trait 1 0.1 0 0 0 0 0 0 0 
trait 2 0.839729 0 0 0.570269 0 0 0 0 
trait 3 0.3 0 0 0 0 0.0207068 0.122578 0 
node 1 1 1 3
node 2 1 1 1
node 3 2 1 1
node 4 3 0 2
node 7 1 0 0
node 10 1 0 0
gene 1 1 4 -4.19557 0 1 -4.19557 1
gene 1 2 4 5.07871 0 2 5.07871 1
gene 2 3 4 8 0 3 8 1
gene 1 2 7 -5.5801 0 8 -5.5801 1
gene 3 7 4 -1.36964 0 9 -1.36964 1
gene 1 7 10 0.974317 0 16 0.974317 1
gene 1 10 4 1.52858 0 17 1.52858 1
genomeend 37

/* Organism #38 Fitness: 3.99953 Error: 2.00012 */
genomestart 38
trait 1 0.1 0 0 0 0 0 0 0 
trait 2 0.839729 0 0 0.570269 0 0 0 0 
trait 3 0.3 0 0 0 0 0.0207068 0.122578 0 
node 1 1 1 3
node 2 1 1 1
node 3 2 1 1
node 4 3 0 2
node 7 1 0 0
node 10 1 0 0
gene 3 1 4 -0.85921 0 1 -0.85921 1
gene 1 2 4 -2.47269 0 2 -2.47269 1
gene 2 3 4 1.08928 0 3 1.08928 1
gene 1 2 7 -4.23301 0 8 -4.23301 1
gene 3 7 4 -4.32315 0 9 -4.32315 1
gene 1 7 10 -2.06426 0 16 -2.06426 1
gene 1 10 4 1.01602 0 17 1.01602 1
genomeend 38

/* Organism #39 Fitness: 8.99998 Error: 1 */
genomestart 39
trait 1 0.1 0 0 0 0 0 0 0 
trait 2 0.839729 0 0 0.570269 0 0 0 0 
trait 3 0.3 0 0 0 0 0.0207068 0.122578 0 
node 1 1 1 3
node 2 1 1 1
node 3 2 1 1
node 4 3 0 2
node 7 1 0 0
node 10 1 0 0
gene 3 1 4 -2.16021 0 1 -2.16021 1
gene 1 2 4 8 0 2 8 1
gene 2 3 4 5.81037 0 3 5.81037 1
gene 1 2 7 -6.88126 0 8 -6.88126 1
gene 3 7 4 -1.02478 0 9 -1.02478 1
gene 1 7 10 -1.47247 0 16 -1.47247 1
gene 1 10 4 1.77624 0 17 1.77624 1
genomeend 39

/* Organism #40 Fitness: 8.99999 Error: 1 */
genomestart 40
trait 1 0.1 0 0 0 0 0 0 0 
trait 2 0.839729 0 0 0.570269 0 0 0 0 
trait 3 0.3 0 0 0 0 0.0207068 0.122578 0 
node 1 1 1 3
node 2 1 1 1
node 3 2 1 1
node 4 3 0 2
node 7 1 0 0
node 10 1 0 0
gene 3 1 4 -0.187841 0 1 -0.187841 1
gene 1 2 4 4.04175 0 2 4.04175 1
gene 2 3 4 8 0 3 8 1
gene 1 2 7 -1.88915 0 8 -1.88915 1
gene 3 7 4 -4.89781 0 9 -4.89781 1
gene 1 7 10 -1.68745 0 16 -1.68745 1
gene 1 10 4 0.773402 0 17 0.773402 1
genomeend 40

/* Organism #41 Fitness: 9 Error: 1 */
genomestart 41
trait 1 0.1 0 0 0 0 0 0 0 
trait 2 0.839729 0 0 0.570269 0 0 0 0 
trait 3 0.3 0 0 0 0 0.0207068 0.122578 0 
node 1 1 1 3
node 2 1 1 1
node 3 2 1 1
node 4 3 0 2
node 7 1 0 0
node 10 1 0 0
gene 3 1 4 -3.64624 0 1 -3.64624 1
gene 1 2 4 6.08193 0 2 6.08193 1
gene 2 3 4 8 0 3 8 1
gene 1 2 7 -3.1332 0 8 -3.1332 1
gene 3 7 4 -1.63744 0 9 -1.63744 1
gene 1 7 10 -0.0408052 0 16 -0.0408052 1
gene 1 10 4 1.97713 0 17 1.97713 1
genomeend 41

/* Species #8 : (Size 7) (AF 6.30774) (Age 25)  */


/* Organism #42 Fitness: 8.99999 Error: 1 */
genomestart 42
trait 1 0.1 0 0 0 0 0 0 0 
trait 2 0.2 0 0 0 0 0 0 0 
trait 3 0.250686 0.133976 0 0.110542 0.365246 0 0.0237129 0 
node 1 1 1 3
node 2 2 1 1
node 3 2 1 1
node 4 3 0 2
node 16 2 0 0
gene 1 1 4 2.19634 0 1 2.19634 1
gene 3 2 4 6.01964 0 2 6.01964 0
gene 1 3 4 -4.94394 0 3 -4.94394 1
gene 1 2 16 -2.89519 0 31 -2.89519 1
gene 1 16 4 5.75513 0 32 5.75513 1
gene 2 3 16 -2.47064 0 71 -2.47064 1
gene 1 1 16 3.36279 0 225 3.36279 1
genomeend 42

/* Organism #43 Fitness: 4.00003 Error: 1.99999 */
genomestart 43
trait 1 0.1 0 0 0 0 0 0 0 
trait 2 0.2 0 0 0 0 0 0 0 
trait 3 0.248631 0.117229 0 0.115148 0.36935 0 0.0247009 0 
node 1 1 1 3
node 2 2 1 1
node 3 2 1 1
node 4 3 0 2
node 16 2 0 0
gene 1 1 4 -2.27172 0 1 -2.27172 1
gene 1 2 4 3.27502 0 2 3.27502 0
gene 1 3 4 -4.53606 0 3 -4.53606 1
gene 1 2 16 1.27415 0 31 1.27415 1
gene 1 16 4 6.8081 0 32 6.8081 1
gene 2 3 16 -2.12975 0 71 -2.12975 1
gene 1 1 16 0.15801 0 225 0.15801 1
genomeend 43

/* Organism #44 Fitness: 4 Error: 2 */
genomestart 44
trait 1 0.1 0 0 0 0 0 0 0 
trait 2 0.2 0 0 0 0 0 0 0 
trait 3 0.250686 0.133976 0 0.110542 0.365246 0 0.0237129 0 
node 1 1 1 3
node 2 2 1 1
node 3 2 1 1
node 4 3 0 2
node 16 2 0 0
gene 1 1 4 0.0513474 0 1 0.0513474 1
gene 3 2 4 6.26173 0 2 6.26173 0
gene 1 3 4 -7.24885 0 3 -7.24885 1
gene 1 2 16 -2.5234 0 31 -2.5234 1
gene 1 16 4 3.60609 0 32 3.60609 1
gene 2 3 16 -4.42253 0 71 -4.42253 1
gene 1 1 16 4.17641 0 225 4.17641 1
genomeend 44

/* Organism #45 Fitness: 8.99999 Error: 1 */
genomestart 45
trait 1 0.1 0 0 0 0 0 0 0 
trait 2 0.2 0 0 0 0 0 0 0 
trait 3 0.248631 0.117229 0 0.115148 0.36935 0 0.0247009 0 
node 1 1 1 3
node 2 2 1 1
node 3 2 1 1
node 4 3 0 2
node 16 2 0 0
gene 1 1 4 2.19634 0 1 2.19634 1
gene 1 2 4 4.91651 0 2 4.91651 0
gene 1 3 4 -4.94394 0 3 -4.94394 1
gene 1 2 16 -2.89519 0 31 -2.89519 1
gene 1 16 4 5.75513 0 32 5.75513 1
gene 2 3 16 -2.47064 0 71 -2.47064 1
gene 1 1 16 3.36279 0 225 3.36279 1
genomeend 45

/* Organism #46 Fitness: 5.15419 Error: 1.72972 */
genomestart 46
trait 1 0.1 0 0 0 0 0 0 0 
trait 2 0.2 0 0 0 0 0 0 0.437849 
trait 3 0.246576 0.100482 0 0.119754 0.373455 0 0.025689 0 
node 1 1 1 3
node 2 2 1 1
node 3 2 1 1
node 4 3 0 2
node 16 2 0 0
gene 1 1 4 3.08329 0 1 3.08329 1
gene 1 2 4 6.43054 0 2 6.43054 0
gene 1 3 4 -3.87259 0 3 -3.87259 1
gene 1 2 16 -4.14782 0 31 -4.14782 1
gene 1 16 4 5.80892 0 32 5.80892 1
gene 2 3 16 -2.87936 0 71 -2.87936 1
gene 1 1 16 2.44342 0 225 2.44342 1
genomeend 46

/* Organism #47 Fitness: 8.99999 Error: 1 */
genomestart 47
trait 1 0.1 0 0 0 0 0 0 0 
trait 2 0.2 0 0 0 0 0 0 0 
trait 3 0.248631 0.117229 0 0.115148 0.36935 0 0.0247009 0 
node 1 1 1 3
node 2 2 1 1
node 3 2 1 1
node 4 3 0 2
node 16 2 0 0
gene 1 1 4 2.19634 0 1 2.19634 1
gene 1 2 4 4.91651 0 2 4.91651 0
gene 1 3 4 -4.94394 0 3 -4.94394 1
gene 1 2 16 -2.89519 0 31 -2.89519 1
gene 1 16 4 5.75513 0 32 5.75513 1
gene 2 3 16 -2.47064 0 71 -2.47064 1
gene 1 1 16 3.36279 0 225 3.36279 1
genomeend 47

/* Organism #48 Fitness: 4 Error: 2 */
genomestart 48
trait 1 0.1 0 0 0 0 0 0 0 
trait 2 0.2 0 0 0 0 0 0 0 
trait 3 0.248631 0.117229 0 0.115148 0.36935 0 0.0247009 0 
node 1 1 1 3
node 2 2 1 1
node 3 2 1 1
node 4 3 0 2
node 16 2 0 0
gene 1 1 4 3.127 0 1 3.127 1
gene 1 2 4 5.6324 0 2 5.6324 0
gene 1 3 4 -3.49499 0 3 -3.49499 1
gene 1 2 16 -2.2498 0 31 -2.2498 1
gene 1 16 4 4.85178 0 32 4.85178 1
gene 2 3 16 -1.83349 0 71 -1.83349 1
gene 1 1 16 5.64031 0 225 5.64031 1
genomeend 48

/* Species #9 : (Size 5) (AF 6.45019) (Age 25)  */


/* Organism #49 Fitness: 8.99852 Error: 1.00025 */
genomestart 49
trait 1 0.1 0 0 0 0 0 0 0 
trait 2 0.2 0 0 0 0 0 0 0 
trait 3 0.3 0 0 0 0 0 0 0 
node 1 3 1 3
node 2 2 1 1
node 3 1 1 1
node 4 3 0 2
node 8 1 0 0
node 14 1 0 0
gene 1 1 4 7.48448 0 1 7.48448 1
gene 2 2 4 -1.59977 0 2 -1.59977 0
gene 1 3 4 -4.83929 0 3 -4.83929 1
gene 3 3 8 -1.01518 0 10 -1.01518 0
gene 1 8 4 -1.39529 0 11 -1.39529 1
gene 2 2 14 2.65166 0 26 2.65166 1
gene 2 14 4 -4.32389 0 27 -4.32389 1
gene 3 2 8 -0.76434 0 169 -0.76434 1
gene 2 1 14 -0.844531 0 187 -0.844531 1
gene 2 1 8 -0.695334 0 281 -0.695334 1
gene 1 14 8 0.494339 0 317 0.494339 1
genomeend 49

/* Organism #50 Fitness: 8.99844 Error: 1.00026 */
genomestart 50
trait 1 0.1 0 0 0 0 0 0 0 
trait 2 0.2 0 0 0 0 0 0 0 
trait 3 0.3 0 0 0 0 0 0 0 
node 1 3 1 3
node 2 2 1 1
node 3 1 1 1
node 4 3 0 2
node 8 1 0 0
node 14 1 0 0
gene 1 1 4 7.48448 0 1 7.48448 1
gene 2 2 4 -1.59977 0 2 -1.59977 0
gene 1 3 4 -4.83929 0 3 -4.83929 1
gene 3 3 8 -1.01518 0 10 -1.01518 0
gene 1 8 4 -1.39529 0 11 -1.39529 1
gene 2 2 14 2.65166 0 26 2.65166 1
gene 2 14 4 -4.32389 0 27 -4.32389 1
gene 3 2 8 -0.76434 0 169 -0.76434 1
gene 2 1 14 -0.844531 0 187 -0.844531 1
gene 2 1 8 -0.695334 0 281 -0.695334 1
genomeend 50

/* Organism #51 Fitness: 3.96941 Error: 2.00766 */
genomestart 51
trait 1 0.1 0 0 0 0 0 0 0 
trait 2 0.2 0 0 0 0 0 0 0 
trait 3 0.3 0 0 0 0 0 0 0 
node 1 3 1 3
node 2 2 1 1
node 3 1 1 1
node 4 3 0 2
node 8 1 0 0
node 14 1 0 0
gene 1 1 4 6.84245 0 1 6.84245 1
gene 2 2 4 -2.43506 0 2 -2.43506 0
gene 1 3 4 -2.83102 0 3 -2.83102 1
gene 3 3 8 -2.92571 0 10 -2.92571 0
gene 1 8 4 -3.03544 0 11 -3.03544 1
gene 2 2 14 0.926222 0 26 0.926222 1
gene 2 14 4 -5.32871 0 27 -5.32871 1
gene 3 2 8 -2.8969 0 169 -2.8969 1
gene 2 1 14 -2.13256 0 187 -2.13256 1
gene 2 1 8 1.12568 0 281 1.12568 1
genomeend 51

/* Organism #52 Fitness: 2.30942 Error: 2.48032 */
genomestart 52
trait 1 0.1 0 0 0 0 0 0 0 
trait 2 0.2 0 0 0 0 0 0 0 
trait 3 0.3 0 0 0 0 0 0 0 
node 1 3 1 3
node 2 2 1 1
node 3 1 1 1
node 4 3 0 2
node 8 1 0 0
node 14 1 0 0
gene 3 1 4 6.83268 0 1 6.83268 1
gene 2 2 4 -3.25761 0 2 -3.25761 1
gene 1 3 4 -4.83929 0 3 -4.83929 1
gene 3 3 8 -2.17526 0 10 -2.17526 0
gene 1 8 4 -3.3156 0 11 -3.3156 1
gene 2 2 14 2.51219 0 26 2.51219 1
gene 2 14 4 -3.55947 0 27 -3.55947 1
gene 3 2 8 0.336768 0 169 0.336768 1
gene 2 1 14 1.07196 0 187 1.07196 1
gene 2 1 8 -2.95897 0 281 -2.95897 1
genomeend 52

/* Organism #53 Fitness: 7.97518 Error: 1.17596 */
genomestart 53
trait 1 0.1 0 0 0 0 0 0 0 
trait 2 0.2 0 0 0 0 0 0 0 
trait 3 0.3 0 0 0 0 0 0 0 
node 1 3 1 3
node 2 2 1 1
node 3 1 1 1
node 4 3 0 2
node 8 1 0 0
node 14 1 0 0
gene 1 1 4 7.91723 0 1 7.91723 1
gene 2 2 4 -2.59291 0 2 -2.59291 1
gene 1 3 4 -4.98761 0 3 -4.98761 1
gene 3 3 8 -2.94181 0 10 -2.94181 0
gene 1 8 4 0.321066 0 11 0.321066 1
gene 2 2 14 1.54239 0 26 1.54239 1
gene 2 14 4 -2.90401 0 27 -2.90401 1
gene 3 2 8 -0.786695 0 169 -0.786695 1
gene 2 1 14 1.5511 0 187 1.5511 1
gene 2 1 8 0.429731 0 281 0.429731 1
genomeend 53

/* Species #11 : (Size 9) (AF 8.29945) (Age 23)  */


/* Organism #54 Fitness: 9 Error: 1 */
genomestart 54
trait 1 0.1 0 0.0491577 0 0.110981 0 0 0 
trait 2 0.177531 0 0 0 0.195708 0 0 0 
trait 3 0.3 0 0 0 0 0 0 0 
node 1 2 1 3
node 2 1 1 1
node 3 2 1 1
node 4 3 0 2
node 8 1 0 0
node 23 1 0 0
gene 1 1 4 -2.00919 0 1 -2.00919 1
gene 2 2 4 -8 0 2 -8 1
gene 2 3 4 8 0 3 8 1
gene 1 3 8 -3.45808 0 10 -3.45808 0
gene 1 8 4 -2.34703 0 11 -2.34703 1
gene 1 3 23 7.58972 0 51 7.58972 1
gene 1 23 8 1.27997 0 52 1.27997 1
gene 1 2 23 0.444998 0 73 0.444998 1
genomeend 54

/* Organism #55 Fitness: 9 Error: 1 */
genomestart 55
trait 1 0.1 0 0.0491577 0 0.110981 0 0 0 
trait 2 0.177531 0 0 0 0.195708 0 0 0 
trait 3 0.3 0 0 0 0 0 0 0 
node 1 2 1 3
node 2 1 1 1
node 3 2 1 1
node 4 3 0 2
node 8 1 0 0
node 23 1 0 0
gene 1 1 4 -3.97813 0 1 -3.97813 1
gene 2 2 4 -8 0 2 -8 1
gene 2 3 4 8 0 3 8 1
gene 1 3 8 -1.46125 0 10 -1.46125 1
gene 1 8 4 -1.81151 0 11 -1.81151 1
gene 1 3 23 7.66021 0 51 7.66021 0
gene 1 23 8 2.12217 0 52 2.12217 1
gene 1 2 23 2.4828 0 73 2.4828 1
genomeend 55

/* Organism #56 Fitness: 8.98777 Error: 1.00204 */
genomestart 56
trait 1 0.1 0 0.0491577 0 0.110981 0 0 0 
trait 2 0.177531 0 0 0 0.195708 0 0 0 
trait 3 0.3 0 0 0 0 0 0 0 
node 1 2 1 3
node 2 1 1 1
node 3 2 1 1
node 4 3 0 2
node 8 1 0 0
node 23 1 0 0
gene 1 1 4 -2.73675 0 1 -2.73675 1
gene 2 2 4 -5.68258 0 2 -5.68258 1
gene 2 3 4 8 0 3 8 1
gene 1 3 8 -1.47728 0 10 -1.47728 0
gene 1 8 4 -4.63874 0 11 -4.63874 1
gene 1 3 23 6.27277 0 51 6.27277 1
gene 1 23 8 0.374638 0 52 0.374638 1
gene 1 2 23 -0.307283 0 73 -0.307283 1
genomeend 56

/* Organism #57 Fitness: 8.99463 Error: 1.0009 */
genomestart 57
trait 1 0.1 0 0.0491577 0 0.110981 0 0 0 
trait 2 0.177531 0 0 0 0.195708 0 0 0 
trait 3 0.3 0 0 0 0 0 0 0 
node 1 2 1 3
node 2 1 1 1
node 3 2 1 1
node 4 3 0 2
node 8 1 0 0
node 23 1 0 0
gene 1 1 4 -4.94861 0 1 -4.94861 1
gene 2 2 4 -6.77041 0 2 -6.77041 1
gene 2 3 4 7.66086 0 3 7.66086 1
gene 1 3 8 -1.31232 0 10 -1.31232 0
gene 1 8 4 -1.31467 0 11 -1.31467 1
gene 1 3 23 7.45299 0 51 7.45299 0
gene 1 23 8 1.56322 0 52 1.56322 1
gene 1 2 23 -2.04714 0 73 -2.04714 1
genomeend 57

/* Organism #58 Fitness: 8.74537 Error: 1.04274 */
genomestart 58
trait 1 0.1 0 0.0491577 0 0.110981 0 0 0 
trait 2 0.177531 0 0 0 0.195708 0 0 0 
trait 3 0.3 0 0 0 0 0 0 0 
node 1 2 1 3
node 2 1 1 1
node 3 2 1 1
node 4 3 0 2
node 8 1 0 0
node 23 1 0 0
gene 1 1 4 0.2575 0 1 0.2575 1
gene 2 2 4 -8 0 2 -8 1
gene 2 3 4 5.67609 0 3 5.67609 1
gene 1 3 8 -2.92431 0 10 -2.92431 0
gene 1 8 4 -0.889164 0 11 -0.889164 1
gene 1 3 23 6.90015 0 51 6.90015 1
gene 1 23 8 3.21438 0 52 3.21438 1
gene 1 2 23 1.79704 0 73 1.79704 1
genomeend 58

/* Organism #59 Fitness: 4.20552 Error: 1.94926 */
genomestart 59
trait 1 0.1 0 0.0491577 0 0.110981 0 0 0 
trait 2 0.177531 0 0 0 0.195708 0 0 0 
trait 3 0.3 0 0 0 0 0 0 0 
node 1 2 1 3
node 2 1 1 1
node 3 2 1 1
node 4 3 0 2
node 8 1 0 0
node 23 1 0 0
node 101 1 0 0
gene 1 1 4 -5.31014 0 1 -5.31014 1
gene 2 2 4 -6.90034 0 2 -6.90034 1
gene 2 3 4 8 0 3 8 1
gene 1 3 8 -0.368461 0 10 -0.368461 0
gene 1 8 4 -3.62851 0 11 -3.62851 1
gene 1 3 23 7.808 0 51 7.808 0
gene 1 23 8 0.458312 0 52 0.458312 1
gene 1 2 23 -1.08459 0 73 -1.08459 1
gene 1 3 101 2.29612 0 300 2.29612 1
gene 1 101 23 3.90827 0 301 3.90827 1
genomeend 59

/* Organism #60 Fitness: 8.99992 Error: 1.00001 */
genomestart 60
trait 1 0.1 0.995148 0.0491577 0 0.110981 0 0 0 
trait 2 0.177531 0 0 0 0.195708 0 0 0 
trait 3 0.3 0 0 0 0 0 0 0 
node 1 2 1 3
node 2 1 1 1
node 3 2 1 1
node 4 3 0 2
node 8 1 0 0
node 23 1 0 0
node 101 1 0 0
gene 1 1 4 -4.43266 0 1 -4.43266 1
gene 2 2 4 -6.66482 0 2 -6.66482 1
gene 1 3 4 6.3871 0 3 6.3871 1
gene 1 3 8 -4.37257 0 10 -4.37257 0
gene 1 8 4 0.360569 0 11 0.360569 1
gene 1 3 23 6.09263 0 51 6.09263 0
gene 1 23 8 0.479698 0 52 0.479698 1
gene 1 2 23 -1.09794 0 73 -1.09794 1
gene 1 3 101 -0.561464 0 300 -0.561464 1
gene 1 101 23 8 0 301 8 1
genomeend 60

/* Organism #61 Fitness: 7.79103 Error: 1.20876 */
genomestart 61
trait 1 0.1 0 0.0491577 0 0.110981 0 0 0 
trait 2 0.177531 0 0 0 0.195708 0 0 0 
trait 3 0.3 0 0 0 0 0 0 0 
node 1 2 1 3
node 2 3 1 1
node 3 2 1 1
node 4 3 0 2
node 8 1 0 0
node 23 1 0 0
gene 1 1 4 -0.853984 0 1 -0.853984 1
gene 2 2 4 -6.50764 0 2 -6.50764 1
gene 2 3 4 8 0 3 8 1
gene 1 3 8 -1.26693 0 10 -1.26693 0
gene 1 8 4 -1.63931 0 11 -1.63931 1
gene 1 3 23 6.14337 0 51 6.14337 0
gene 1 23 8 1.08839 0 52 1.08839 1
gene 1 2 23 -0.641079 0 73 -0.641079 1
genomeend 61

/* Organism #62 Fitness: 8.97085 Error: 1.00486 */
genomestart 62
trait 1 0 0 0.0491577 0 1 0.816767 0.443159 0 
trait 2 0.177531 0 0 0 0.195708 0 0 0 
trait 3 0.3 0 0 0 0 0 0 0 
node 1 2 1 3
node 2 1 1 1
node 3 2 1 1
node 4 3 0 2
node 8 1 0 0
node 23 1 0 0
gene 1 1 4 -2.56348 0 1 -2.56348 1
gene 2 2 4 -8 0 2 -8 1
gene 2 3 4 8 0 3 8 1
gene 1 3 8 -1.62514 0 10 -1.62514 0
gene 1 8 4 -4.35813 0 11 -4.35813 1
gene 1 3 23 8 0 51 8 1
gene 1 23 8 1.53869 0 52 1.53869 1
gene 1 2 23 -0.510079 0 73 -0.510079 1
genomeend 62

/* Species #12 : (Size 7) (AF 8.28534) (Age 22)  */


/* Organism #63 Fitness: 9 Error: 1 */
genomestart 63
trait 1 0.1 0 0 0 0 0 0.850144 0 
trait 2 0.2 0 0 0 0 0 0 0 
trait 3 0.3 0 0 0 0 0 0 0 
node 1 2 1 3
node 2 2 1 1
node 3 3 1 1
node 4 3 0 2
node 12 1 0 0
node 37 1 0 0
gene 1 1 4 -1.51622 0 1 -1.51622 1
gene 1 2 4 -3.32883 0 2 -3.32883 1
gene 3 3 4 8 0 3 8 1
gene 3 3 12 0.655255 0 20 0.655255 1
gene 3 12 4 -7.15367 0 21 -7.15367 1
gene 2 1 12 -3.6909 0 38 -3.6909 1
gene 3 2 12 3.93258 0 53 3.93258 1
gene 1 2 37 6.39792 0 96 6.39792 1
gene 1 37 4 -4.78349 0 97 -4.78349 1
gene 2 12 37 -2.18028 0 157 -2.18028 1
genomeend 63

/* Organism #64 Fitness: 9 Error: 1 */
genomestart 64
trait 1 0.1 0 0 0 0 0 0.850144 0 
trait 2 0.2 0 0 0 0 0 0 0 
trait 3 0.3 0 0 0 0 0 0 0 
node 1 2 1 3
node 2 2 1 1
node 3 3 1 1
node 4 3 0 2
node 12 1 0 0
node 37 1 0 0
gene 1 1 4 -2.5112 0 1 -2.5112 1
gene 1 2 4 -4.58443 0 2 -4.58443 1
gene 3 3 4 8 0 3 8 1
gene 3 3 12 2.39893 0 20 2.39893 1
gene 3 12 4 -6.68918 0 21 -6.68918 1
gene 2 1 12 -2.68379 0 38 -2.68379 1
gene 3 2 12 3.93258 0 53 3.93258 1
gene 1 2 37 5.67906 0 96 5.67906 1
gene 1 37 4 -6.43035 0 97 -6.43035 1
gene 2 12 37 -2.81911 0 157 -2.81911 1
genomeend 64

/* Organism #65 Fitness: 8.99997 Error: 1 */
genomestart 65
trait 1 0.1 0 0 0 0 0 0.850144 0 
trait 2 0.2 0 0 0 0 0 0 0 
trait 3 0.3 0 0 0 0 0 0 0 
node 1 2 1 3
node 2 2 1 1
node 3 3 1 1
node 4 3 0 2
node 12 1 0 0
node 37 1 0 0
gene 1 1 4 -1.51622 0 1 -1.51622 1
gene 1 2 4 -1.93192 0 2 -1.93192 1
gene 3 3 4 6.7569 0 3 6.7569 1
gene 3 3 12 2.51109 0 20 2.51109 1
gene 3 12 4 -6.11169 0 21 -6.11169 1
gene 2 1 12 -3.87431 0 38 -3.87431 1
gene 3 2 12 3.27483 0 53 3.27483 1
gene 1 2 37 1.58528 0 96 1.58528 1
gene 1 37 4 -2.04573 0 97 -2.04573 1
gene 2 12 37 -2.18028 0 157 -2.18028 1
genomeend 65

/* Organism #66 Fitness: 8.99737 Error: 1.00044 */
genomestart 66
trait 1 0.1 0 0 0 0 0 0.850144 0 
trait 2 0.2 0 0 0 0 0 0 0 
trait 3 0.3 0 0 0 0 0 0 0 
node 1 2 1 3
node 2 2 1 1
node 3 3 1 1
node 4 3 0 2
node 12 1 0 0
node 37 1 0 0
gene 1 1 4 -3.77085 0 1 -3.77085 1
gene 1 2 4 -4.61755 0 2 -4.61755 1
gene 3 3 4 8 0 3 8 1
gene 3 3 12 -0.828402 0 20 -0.828402 1
gene 3 12 4 -7.00016 0 21 -7.00016 1
gene 2 1 12 -6.13947 0 38 -6.13947 1
gene 3 2 12 3.23722 0 53 3.23722 1
gene 1 2 37 6.31484 0 96 6.31484 1
gene 1 37 4 -5.31795 0 97 -5.31795 1
gene 2 12 37 -0.487724 0 157 -0.487724 1
genomeend 66

/* Organism #67 Fitness: 9 Error: 1 */
genomestart 67
trait 1 0.1 0 0 0 0 0 0.850144 0 
trait 2 0.2 0 0 0 0 0 0 0 
trait 3 0.3 0 0 0 0 0 0 0 
node 1 2 1 3
node 2 2 1 1
node 3 3 1 1
node 4 3 0 2
node 12 1 0 0
node 37 1 0 0
gene 1 1 4 -1.51622 0 1 -1.51622 1
gene 1 2 4 -3.32883 0 2 -3.32883 1
gene 3 3 4 8 0 3 8 1
gene 3 3 12 0.655255 0 20 0.655255 1
gene 3 12 4 -7.15367 0 21 -7.15367 1
gene 2 1 12 -3.6909 0 38 -3.6909 1
gene 3 2 12 3.93258 0 53 3.93258 1
gene 1 2 37 6.39792 0 96 6.39792 1
gene 1 37 4 -4.78349 0 97 -4.78349 1
gene 2 12 37 -2.18028 0 157 -2.18028 1
genomeend 67

/* Organism #68 Fitness: 9 Error: 1 */
genomestart 68
trait 1 0.1 0 0 0 0 0 0.850144 0 
trait 2 0.2 0 0 0 0 0 0 0 
trait 3 0.3 0 0 0 0 0 0 0 
node 1 2 1 3
node 2 2 1 1
node 3 3 1 1
node 4 3 0 2
node 12 1 0 0
node 37 1 0 0
gene 1 1 4 -3.59781 0 1 -3.59781 1
gene 1 2 4 -4.15443 0 2 -4.15443 1
gene 3 3 4 8 0 3 8 1
gene 3 3 12 0.0646458 0 20 0.0646458 1
gene 3 12 4 -5.94979 0 21 -5.94979 1
gene 2 1 12 -1.29954 0 38 -1.29954 1
gene 3 2 12 2.0399 0 53 2.0399 1
gene 1 2 37 4.16496 0 96 4.16496 1
gene 1 37 4 -2.4003 0 97 -2.4003 1
gene 2 12 37 1.41987 0 157 1.41987 1
genomeend 68

/* Organism #69 Fitness: 4.00005 Error: 1.99999 */
genomestart 69
trait 1 0.1 0 0 0 0 0 0.850144 0 
trait 2 0.2 0 0 0 0 0 0 0 
trait 3 0.3 0 0 0 0 0 0 0 
node 1 2 1 3
node 2 2 1 1
node 3 3 1 1
node 4 3 0 2
node 12 1 0 0
node 37 1 0 0
gene 1 1 4 -1.51622 0 1 -1.51622 1
gene 1 2 4 -3.50072 0 2 -3.50072 1
gene 3 3 4 7.16829 0 3 7.16829 1
gene 3 3 12 2.59677 0 20 2.59677 1
gene 3 12 4 0.142903 0 21 0.142903 1
gene 2 1 12 -2.73124 0 38 -2.73124 1
gene 3 2 12 2.87413 0 53 2.87413 1
gene 1 2 37 1.81722 0 96 1.81722 1
gene 1 37 4 -3.91158 0 97 -3.91158 1
gene 2 12 37 -4.01093 0 157 -4.01093 1
genomeend 69

/* Species #13 : (Size 4) (AF 4.09803) (Age 20)  */


/* Organism #70 Fitness: 3.93906 Error: 2.01529 */
genomestart 70
trait 1 0.1 0 0.0368683 0 0.0832354 0 0 0 
trait 2 0.166296 0.178411 0 0 0.293561 0 0 0 
trait 3 0.3 0 0 0.0575655 0 0 0 0.248356 
node 1 2 1 3
node 2 1 1 1
node 3 1 1 1
node 4 2 0 2
node 8 1 0 0
node 33 1 0 0
gene 1 1 4 0.200736 0 1 0.200736 1
gene 2 2 4 -6.55031 0 2 -6.55031 0
gene 1 3 4 -2.20969 0 3 -2.20969 1
gene 1 3 8 -2.00221 0 10 -2.00221 1
gene 1 8 4 -6.18139 0 11 -6.18139 1
gene 3 1 8 -7.97746 0 76 -7.97746 1
gene 2 2 33 2.40791 0 84 2.40791 1
gene 2 33 4 -2.0906 0 85 -2.0906 1
genomeend 70

/* Organism #71 Fitness: 5.14082 Error: 1.73266 */
genomestart 71
trait 1 0.1 0 0.0368683 0 0.0832354 0 0 0 
trait 2 0.166296 0.178411 0 0 0.293561 0 0 0 
trait 3 0.3 0 0 0.0575655 0 0 0 0.248356 
node 1 2 1 3
node 2 1 1 1
node 3 1 1 1
node 4 2 0 2
node 8 1 0 0
node 33 1 0 0
gene 1 1 4 -0.200277 0 1 -0.200277 1
gene 2 2 4 -2.281 0 2 -2.281 0
gene 1 3 4 -3.66916 0 3 -3.66916 1
gene 1 3 8 -0.709369 0 10 -0.709369 1
gene 1 8 4 -7.67168 0 11 -7.67168 1
gene 3 1 8 -8 0 76 -8 1
gene 2 2 33 -1.57552 0 84 -1.57552 1
gene 2 33 4 -1.89063 0 85 -1.89063 1
genomeend 71

/* Organism #72 Fitness: 3.56272 Error: 2.11248 */
genomestart 72
trait 1 0.1 0 0.0368683 0 0.0832354 0 0 0 
trait 2 0.166296 0.178411 0 0 0.293561 0 0 0 
trait 3 0.3 0 0 0.0575655 0 0 0 0.248356 
node 1 2 1 3
node 2 1 1 1
node 3 1 1 1
node 4 2 0 2
node 8 1 0 0
node 33 1 0 0
gene 1 1 4 -1.18519 0 1 -1.18519 1
gene 2 2 4 -3.06662 0 2 -3.06662 0
gene 1 3 4 -2.20969 0 3 -2.20969 1
gene 1 3 8 1.82245 0 10 1.82245 1
gene 1 8 4 -6.18139 0 11 -6.18139 1
gene 3 1 8 -8 0 76 -8 1
gene 2 2 33 -1.6023 0 84 -1.6023 1
gene 2 33 4 1.54317 0 85 1.54317 1
genomeend 72

/* Organism #73 Fitness: 3.74951 Error: 2.06363 */
genomestart 73
trait 1 0.1 0 0.0368683 0 0.0832354 0 0 0 
trait 2 0.166296 0.178411 0 0 0.293561 0 0 0 
trait 3 0.3 0 0 0.0575655 0 0 0 0.248356 
node 1 2 1 3
node 2 1 1 1
node 3 1 1 1
node 4 2 0 2
node 8 1 0 0
node 33 1 0 0
gene 1 1 4 -0.808892 0 1 -0.808892 1
gene 2 2 4 -4.70684 0 2 -4.70684 0
gene 1 3 4 0.31869 0 3 0.31869 1
gene 1 3 8 1.14295 0 10 1.14295 1
gene 1 8 4 -7.82855 0 11 -7.82855 1
gene 3 1 8 -8 0 76 -8 1
gene 2 2 33 -1.73925 0 84 -1.73925 1
gene 2 33 4 -3.1673 0 85 -3.1673 1
genomeend 73

/* Species #14 : (Size 9) (AF 6.36125) (Age 20)  */


/* Organism #74 Fitness: 9 Error: 1 */
genomestart 74
trait 1 0.1 0 0 0 0 0 0 0 
trait 2 0.2 0 0 0 0 0 0 0 
trait 3 0.3 0 0 0 0 0.0207068 0.122578 0 
node 1 1 1 3
node 2 2 1 1
node 3 3 1 1
node 4 3 0 2
node 7 1 0 0
node 10 1 0 0
node 12 3 0 0
node 45 1 0 0
gene 1 1 4 8 0 1 8 1
gene 1 2 4 -8 0 2 -8 1
gene 2 3 4 -3.74928 0 3 -3.74928 1
gene 1 2 7 -2.64527 0 8 -2.64527 0
gene 1 7 4 -2.05664 0 9 -2.05664 0
gene 1 7 10 -3.59508 0 16 -3.59508 1
gene 1 10 4 0.672262 0 17 0.672262 1
gene 2 3 12 -5.24996 0 20 -5.24996 1
gene 2 12 4 8 0 21 8 1
gene 1 2 45 7.70573 0 119 7.70573 1
gene 2 45 7 0.895566 0 120 0.895566 1
genomeend 74

/* Organism #75 Fitness: 4.00585 Error: 1.99854 */
genomestart 75
trait 1 0.1 0 0 0 0 0 0 0 
trait 2 0.2 0 0 0 0 0 0 0 
trait 3 0.3 0 0 0 0 0.0207068 0.122578 0 
node 1 1 1 3
node 2 2 1 1
node 3 3 1 1
node 4 3 0 2
node 7 1 0 0
node 10 1 0 0
node 12 2 0 0
node 45 1 0 0
gene 1 1 4 8 0 1 8 1
gene 1 2 4 -6.5947 0 2 -6.5947 1
gene 2 3 4 -1.62404 0 3 -1.62404 1
gene 1 2 7 -3.29539 0 8 -3.29539 1
gene 1 7 4 -0.619449 0 9 -0.619449 0
gene 1 7 10 -2.31681 0 16 -2.31681 1
gene 1 10 4 3.08811 0 17 3.08811 1
gene 2 3 12 -6.40104 0 20 -6.40104 1
gene 2 12 4 8 0 21 8 1
gene 1 2 45 8 0 119 8 1
gene 2 45 7 0.0815607 0 120 0.0815607 1
genomeend 75

/* Organism #76 Fitness: 4.00005 Error: 1.99999 */
genomestart 76
trait 1 0.1 0 0 0 0 0 0 0 
trait 2 0.2 0 0 0 0 0 0 0 
trait 3 0.3 0 0 0 0 0.0207068 0.122578 0 
node 1 1 1 3
node 2 2 1 1
node 3 3 1 1
node 4 3 0 2
node 7 1 0 0
node 10 1 0 0
node 12 3 0 0
node 45 1 0 0
gene 1 1 4 8 0 1 8 1
gene 1 2 4 -2.19687 0 2 -2.19687 1
gene 2 3 4 -3.86448 0 3 -3.86448 1
gene 1 2 7 -2.38289 0 8 -2.38289 0
gene 1 7 4 -0.430998 0 9 -0.430998 0
gene 1 7 10 -1.35098 0 16 -1.35098 1
gene 1 10 4 0.672262 0 17 0.672262 1
gene 2 3 12 -5.32893 0 20 -5.32893 1
gene 2 12 4 8 0 21 8 1
gene 1 2 45 1.09226 0 119 1.09226 1
gene 2 45 7 -1.54447 0 120 -1.54447 1
genomeend 76

/* Organism #77 Fitness: 8.99985 Error: 1.00002 */
genomestart 77
trait 1 0.1 0 0 0 0 0 0 0 
trait 2 0.2 0.295755 0.454176 0 0.0740684 0 0.357204 0.338816 
trait 3 0.3 0 0 0 0 0.0207068 0.122578 0 
node 1 1 1 3
node 2 2 1 1
node 3 3 1 1
node 4 3 0 2
node 7 1 0 0
node 10 1 0 0
node 12 3 0 0
node 45 1 0 0
gene 1 1 4 8 0 1 8 1
gene 1 2 4 -7.43121 0 2 -7.43121 1
gene 2 3 4 -2.72202 0 3 -2.72202 1
gene 1 2 7 -0.845515 0 8 -0.845515 0
gene 1 7 4 -1.09951 0 9 -1.09951 0
gene 1 7 10 -1.43612 0 16 -1.43612 1
gene 1 10 4 -1.12436 0 17 -1.12436 1
gene 2 3 12 -3.85351 0 20 -3.85351 1
gene 2 12 4 8 0 21 8 1
gene 1 2 45 7.70573 0 119 7.70573 1
gene 2 45 7 1.08913 0 120 1.08913 1
genomeend 77

/* Organism #78 Fitness: 9 Error: 1 */
genomestart 78
trait 1 0.1 0 0 0 0 0 0 0 
trait 2 0.2 0 0 0 0 0 0 0 
trait 3 0.3 0 0 0 0 0.0207068 0.122578 0 
node 1 1 1 3
node 2 2 1 1
node 3 3 1 1
node 4 3 0 2
node 7 1 0 0
node 10 1 0 0
node 12 2 0 0
node 45 1 0 0
gene 1 1 4 8 0 1 8 1
gene 1 2 4 -8 0 2 -8 1
gene 2 3 4 -3.44005 0 3 -3.44005 1
gene 1 2 7 -4.20583 0 8 -4.20583 0
gene 1 7 4 -1.5202 0 9 -1.5202 0
gene 1 7 10 -1.14734 0 16 -1.14734 1
gene 1 10 4 3.10657 0 17 3.10657 1
gene 2 3 12 -5.86224 0 20 -5.86224 1
gene 2 12 4 8 0 21 8 1
gene 1 2 45 0.715735 0 119 0.715735 1
gene 2 45 7 0.895566 0 120 0.895566 1
genomeend 78

/* Organism #79 Fitness: 8.22898 Error: 1.13138 */
genomestart 79
trait 1 0.1 0 0 0 0 0 0 0 
trait 2 0.2 0 0 0 0 0 0 0 
trait 3 0.3 0 0 0 0 0.0207068 0.122578 0 
node 1 1 1 3
node 2 2 1 1
node 3 3 1 1
node 4 3 0 2
node 7 1 0 0
node 10 1 0 0
node 12 3 0 0
node 45 1 0 0
gene 1 1 4 6.42845 0 1 6.42845 1
gene 1 2 4 -5.55936 0 2 -5.55936 1
gene 2 3 4 -6.04488 0 3 -6.04488 1
gene 1 2 7 -3.77987 0 8 -3.77987 0
gene 1 7 4 -1.94082 0 9 -1.94082 0
gene 1 7 10 -5.54888 0 16 -5.54888 1
gene 1 10 4 -1.0573 0 17 -1.0573 1
gene 2 3 12 -6.57027 0 20 -6.57027 1
gene 2 12 4 6.1006 0 21 6.1006 1
gene 1 2 45 7.70573 0 119 7.70573 1
gene 2 45 7 0.895566 0 120 0.895566 1
genomeend 79

/* Organism #80 Fitness: 1.01666 Error: 2.99171 */
genomestart 80
trait 1 0.1 0 0 0 0 0 0 0 
trait 2 0.2 0.147877 0.227088 0 0.0370342 0 0.178602 0.169408 
trait 3 0.3 0 0 0 0 0.0207068 0.122578 0 
node 1 1 1 3
node 2 2 1 1
node 3 3 1 1
node 4 3 0 2
node 7 1 0 0
node 10 1 0 0
node 12 2 0 0
node 45 1 0 0
gene 1 1 4 1.71262 0 1 1.71262 1
gene 1 2 4 -8 0 2 -8 1
gene 2 3 4 -2.68441 0 3 -2.68441 1
gene 1 2 7 -4.00632 0 8 -4.00632 0
gene 1 7 4 -2.96915 0 9 -2.96915 0
gene 1 7 10 -2.40425 0 16 -2.40425 1
gene 1 10 4 -0.442045 0 17 -0.442045 1
gene 2 3 12 -3.97063 0 20 -3.97063 1
gene 2 12 4 8 0 21 8 1
gene 1 2 45 7.70573 0 119 7.70573 1
gene 2 45 7 1.51646 0 120 1.51646 1
genomeend 80

/* Organism #81 Fitness: 8.99988 Error: 1.00002 */
genomestart 81
trait 1 0.1 0 0 0 0 0 0 0 
trait 2 0.2 0.295755 0.454176 0 0.0740684 0 0.357204 0.338816 
trait 3 0.3 0 0 0 0 0.0207068 0.122578 0 
node 1 1 1 3
node 2 2 1 1
node 3 3 1 1
node 4 3 0 2
node 7 1 0 0
node 10 1 0 0
node 12 3 0 0
node 45 1 0 0
gene 1 1 4 6.25068 0 1 6.25068 1
gene 1 2 4 -8 0 2 -8 1
gene 2 3 4 -3.74928 0 3 -3.74928 1
gene 1 2 7 -2.57797 0 8 -2.57797 0
gene 1 7 4 -1.75611 0 9 -1.75611 0
gene 1 7 10 -1.62038 0 16 -1.62038 1
gene 1 10 4 2.3182 0 17 2.3182 1
gene 2 3 12 -2.27546 0 20 -2.27546 1
gene 2 12 4 8 0 21 8 1
gene 1 2 45 8 0 119 8 1
gene 2 45 7 0.895566 0 120 0.895566 1
genomeend 81

/* Organism #82 Fitness: 3.99999 Error: 2 */
genomestart 82
trait 1 0.1 0 0 0 0 0 0 0 
trait 2 0.2 0.147877 0.227088 0 0.0370342 0 0.178602 0.169408 
trait 3 0.3 0 0 0 0 0.0207068 0.122578 0 
node 1 1 1 3
node 2 2 1 1
node 3 3 1 1
node 4 3 0 2
node 7 1 0 0
node 10 1 0 0
node 12 2 0 0
node 45 1 0 0
gene 1 1 4 5.91528 0 1 5.91528 1
gene 1 2 4 1.21784 0 2 1.21784 1
gene 2 3 4 -3.39129 0 3 -3.39129 1
gene 1 2 7 -2.64527 0 8 -2.64527 0
gene 1 7 4 -1.94388 0 9 -1.94388 0
gene 1 7 10 -4.25527 0 16 -4.25527 1
gene 1 10 4 -0.151128 0 17 -0.151128 1
gene 2 3 12 0.0572985 0 20 0.0572985 1
gene 2 12 4 0.249184 0 21 0.249184 1
gene 1 2 45 -0.981552 0 119 -0.981552 1
gene 2 45 7 -0.41612 0 120 -0.41612 1
genomeend 82

/* Species #15 : (Size 8) (AF 7.67971) (Age 19)  */


/* Organism #83 Fitness: 8.9995 Error: 1.00008 */
genomestart 83
trait 1 0.1 0 0 0 0 0 0 0 
trait 2 0.2 0 0 0 0 0 0 0 
trait 3 0.3 0 0 0 0 0 0 0 
node 1 1 1 3
node 2 2 1 1
node 3 2 1 1
node 4 3 0 2
node 7 1 0 0
node 30 1 0 0
gene 1 1 4 6.41816 0 1 6.41816 1
gene 1 2 4 -4.35209 0 2 -4.35209 1
gene 3 3 4 -4.25409 0 3 -4.25409 1
gene 1 2 7 -1.63076 0 8 -1.63076 0
gene 1 7 4 -2.62999 0 9 -2.62999 0
gene 1 3 7 1.68409 0 23 1.68409 1
gene 1 2 30 -0.979911 0 74 -0.979911 1
gene 1 30 7 -2.85813 0 75 -2.85813 1
gene 3 4 30 0.44499 0 304 0.44499 1
genomeend 83

/* Organism #84 Fitness: 3.64347 Error: 2.09121 */
genomestart 84
trait 1 0.1 0 0 0 0 0 0 0 
trait 2 0.2 0 0 0 0 0 0 0 
trait 3 0.3 0 0 0 0 0 0 0 
node 1 1 1 3
node 2 2 1 1
node 3 2 1 1
node 4 3 0 2
node 7 1 0 0
node 30 1 0 0
gene 1 1 4 4.48611 0 1 4.48611 1
gene 1 2 4 -4.01929 0 2 -4.01929 1
gene 3 3 4 -6.73853 0 3 -6.73853 1
gene 1 2 7 0.481735 0 8 0.481735 0
gene 1 7 4 -2.77557 0 9 -2.77557 0
gene 1 3 7 1.60627 0 23 1.60627 1
gene 1 2 30 -2.0901 0 74 -2.0901 1
gene 1 30 7 -4.19354 0 75 -4.19354 1
gene 3 4 30 2.42808 0 304 2.42808 1
genomeend 84

/* Organism #85 Fitness: 8.86344 Error: 1.02285 */
genomestart 85
trait 1 0.1 0 0 0 0 0 0 0 
trait 2 0.2 0 0 0 0 0 0 0 
trait 3 0.3 0 0 0 0 0 0 0 
node 1 1 1 3
node 2 2 1 1
node 3 2 1 1
node 4 3 0 2
node 7 1 0 0
node 30 1 0 0
gene 1 1 4 5.93894 0 1 5.93894 1
gene 1 2 4 -5.17586 0 2 -5.17586 1
gene 3 3 4 -3.88337 0 3 -3.88337 1
gene 1 2 7 -2.19108 0 8 -2.19108 0
gene 1 7 4 -1.17891 0 9 -1.17891 0
gene 1 3 7 2.63634 0 23 2.63634 1
gene 1 2 30 0.42539 0 74 0.42539 1
gene 1 30 7 -1.45451 0 75 -1.45451 1
gene 3 4 30 -1.54848 0 304 -1.54848 1
genomeend 85

/* Organism #86 Fitness: 4.69504 Error: 1.8332 */
genomestart 86
trait 1 0.1 0 0 0 0 0 0 0 
trait 2 0.2 0 0 0 0 0 0 0 
trait 3 0.3 0 0 0 0 0 0 0 
node 1 1 1 3
node 2 2 1 1
node 3 2 1 1
node 4 3 0 2
node 7 1 0 0
node 30 1 0 0
gene 1 1 4 4.99176 0 1 4.99176 1
gene 1 2 4 -3.02179 0 2 -3.02179 1
gene 3 3 4 -1.64342 0 3 -1.64342 1
gene 1 2 7 0.199133 0 8 0.199133 0
gene 1 7 4 -2.90744 0 9 -2.90744 0
gene 1 3 7 0.830714 0 23 0.830714 1
gene 1 2 30 0.388882 0 74 0.388882 1
gene 1 30 7 -2.52414 0 75 -2.52414 1
genomeend 86

/* Organism #87 Fitness: 8.90527 Error: 1.01583 */
genomestart 87
trait 1 0.1 0 0 0 0 0 0 0 
trait 2 0.2 0 0 0 0 0 0 0 
trait 3 0.3 0 0 0 0 0 0 0 
node 1 1 1 3
node 2 2 1 1
node 3 2 1 1
node 4 3 0 2
node 7 1 0 0
node 30 1 0 0
gene 1 1 4 6.7098 0 1 6.7098 1
gene 1 2 4 -5.86085 0 2 -5.86085 1
gene 3 3 4 -5.25369 0 3 -5.25369 1
gene 1 2 7 -0.744041 0 8 -0.744041 0
gene 1 7 4 -4.61915 0 9 -4.61915 0
gene 1 3 7 3.92438 0 23 3.92438 1
gene 1 2 30 -1.00696 0 74 -1.00696 1
gene 1 30 7 -1.0797 0 75 -1.0797 1
genomeend 87

/* Organism #88 Fitness: 8.94412 Error: 1.00933 */
genomestart 88
trait 1 0.1 0 0 0 0 0 0 0 
trait 2 0.2 0 0 0 0 0 0 0 
trait 3 0.3 0 0 0 0 0 0 0 
node 1 1 1 3
node 2 2 1 1
node 3 2 1 1
node 4 3 0 2
node 7 1 0 0
node 30 1 0 0
gene 1 1 4 8 0 1 8 1
gene 1 2 4 -7.04855 0 2 -7.04855 1
gene 3 3 4 -4.81628 0 3 -4.81628 1
gene 1 2 7 -0.272607 0 8 -0.272607 0
gene 1 7 4 -1.57073 0 9 -1.57073 1
gene 1 3 7 0.03296 0 23 0.03296 1
gene 1 2 30 -0.229957 0 74 -0.229957 1
gene 1 30 7 -4.9747 0 75 -4.9747 1
genomeend 88

/* Organism #89 Fitness: 8.38721 Error: 1.10393 */
genomestart 89
trait 1 0.1 0 0 0 0 0 0 0 
trait 2 0.2 0 0 0 0 0 0 0 
trait 3 0.3 0 0 0 0 0 0 0 
node 1 1 1 3
node 2 2 1 1
node 3 2 1 1
node 4 3 0 2
node 7 1 0 0
node 30 1 0 0
gene 1 1 4 6.56831 0 1 6.56831 1
gene 1 2 4 -4.485 0 2 -4.485 1
gene 3 3 4 -6.13075 0 3 -6.13075 1
gene 1 2 7 -2.56302 0 8 -2.56302 0
gene 1 7 4 -0.305933 0 9 -0.305933 0
gene 1 3 7 1.73704 0 23 1.73704 1
gene 1 2 30 -0.351306 0 74 -0.351306 1
gene 1 30 7 -3.25312 0 75 -3.25312 1
gene 3 4 30 0.610477 0 304 0.610477 1
genomeend 89

/* Organism #90 Fitness: 8.99964 Error: 1.00006 */
genomestart 90
trait 1 0.1 0 0 0 0 0 0 0 
trait 2 0.2 0 0 0 0 0 0 0 
trait 3 0.3 0 0 0 0 0 0 0 
node 1 1 1 3
node 2 2 1 1
node 3 2 1 1
node 4 3 0 2
node 7 1 0 0
node 30 1 0 0
gene 1 1 4 6.87277 0 1 6.87277 1
gene 1 2 4 -4.79278 0 2 -4.79278 1
gene 3 3 4 -4.25409 0 3 -4.25409 1
gene 1 2 7 -1.63076 0 8 -1.63076 0
gene 1 7 4 -3.09086 0 9 -3.09086 0
gene 1 3 7 2.05382 0 23 2.05382 1
gene 1 2 30 -0.837428 0 74 -0.837428 1
gene 1 30 7 -2.71931 0 75 -2.71931 1
gene 3 4 30 0.44499 0 304 0.44499 1
gene 3 4 7 0.0120243 0 318 0.0120243 1
genomeend 90

/* Species #16 : (Size 17) (AF 8.16108) (Age 19)  */


/* Organism #91 Fitness: 9 Error: 1 */
genomestart 91
trait 1 0.1 0 0.0491577 0 0.110981 0 0 0 
trait 2 0.155061 0 0 0 0.391415 0 0 0 
trait 3 1 0 0 0.0767541 0 0 0 0 
node 1 2 1 3
node 2 1 1 1
node 3 1 1 1
node 4 3 0 2
node 8 1 0 0
node 35 1 0 0
gene 1 1 4 -2.97461 0 1 -2.97461 1
gene 2 2 4 -8 0 2 -8 1
gene 1 3 4 7.18075 0 3 7.18075 1
gene 1 3 8 -1.86209 0 10 -1.86209 1
gene 1 8 4 -3.82563 0 11 -3.82563 1
gene 1 8 35 -2.54915 0 88 -2.54915 1
gene 1 35 4 1.0333 0 89 1.0333 1
gene 2 1 35 -0.898251 0 244 -0.898251 1
gene 2 1 8 0.820307 0 307 0.820307 1
genomeend 91

/* Organism #92 Fitness: 8.99924 Error: 1.00013 */
genomestart 92
trait 1 0.1 0 0.0491577 0 0.110981 0 0 0 
trait 2 0.155061 0 0 0 0.391415 0 0 0 
trait 3 1 0 0 0.0767541 0 0 0 0 
node 1 2 1 3
node 2 1 1 1
node 3 1 1 1
node 4 3 0 2
node 8 1 0 0
node 35 2 0 0
gene 1 1 4 -3.88032 0 1 -3.88032 1
gene 2 2 4 -8 0 2 -8 1
gene 1 3 4 6.11084 0 3 6.11084 1
gene 1 3 8 -3.44738 0 10 -3.44738 1
gene 1 8 4 -3.82563 0 11 -3.82563 1
gene 1 8 35 1.34533 0 88 1.34533 1
gene 1 35 4 -0.440823 0 89 -0.440823 1
gene 2 1 35 0.516373 0 244 0.516373 1
genomeend 92

/* Organism #93 Fitness: 9 Error: 1 */
genomestart 93
trait 1 0.1 0 0.0491577 0 0.110981 0 0 0 
trait 2 0.155061 0 0 0 0.391415 0 0 0 
trait 3 1 0 0 0.0767541 0 0 0 0 
node 1 2 1 3
node 2 1 1 1
node 3 1 1 1
node 4 3 0 2
node 8 1 0 0
node 35 1 0 0
gene 1 1 4 -2.97461 0 1 -2.97461 1
gene 2 2 4 -8 0 2 -8 1
gene 1 3 4 7.18075 0 3 7.18075 1
gene 1 3 8 -1.86209 0 10 -1.86209 1
gene 1 8 4 -3.82563 0 11 -3.82563 1
gene 1 8 35 -2.54915 0 88 -2.54915 1
gene 1 35 4 1.0333 0 89 1.0333 1
gene 2 1 35 -0.898251 0 244 -0.898251 1
gene 2 1 8 0.820307 0 307 0.820307 1
genomeend 93

/* Organism #94 Fitness: 9 Error: 1 */
genomestart 94
trait 1 0.1 0 0.0491577 0 0.110981 0 0 0 
trait 2 0.155061 0 0 0 0.391415 0 0 0 
trait 3 1 0 0 0.0767541 0 0 0 0 
node 1 2 1 3
node 2 1 1 1
node 3 1 1 1
node 4 3 0 2
node 8 1 0 0
node 35 1 0 0
gene 1 1 4 -2.97461 0 1 -2.97461 1
gene 2 2 4 -8 0 2 -8 1
gene 1 3 4 7.18075 0 3 7.18075 1
gene 1 3 8 -1.86209 0 10 -1.86209 1
gene 1 8 4 -3.82563 0 11 -3.82563 1
gene 1 8 35 -2.54915 0 88 -2.54915 1
gene 1 35 4 1.0333 0 89 1.0333 1
gene 2 1 35 -0.898251 0 244 -0.898251 1
gene 2 1 8 0.820307 0 307 0.820307 1
genomeend 94

/* Organism #95 Fitness: 9 Error: 1 */
genomestart 95
trait 1 0.1 0 0.0491577 0 0.110981 0 0 0 
trait 2 0.155061 0 0 0 0.391415 0 0 0 
trait 3 1 0 0 0.0767541 0 0 0 0 
node 1 2 1 3
node 2 1 1 1
node 3 1 1 1
node 4 3 0 2
node 8 1 0 0
node 35 1 0 0
gene 1 1 4 -2.97461 0 1 -2.97461 1
gene 2 2 4 -8 0 2 -8 1
gene 1 3 4 7.18075 0 3 7.18075 1
gene 1 3 8 -1.86209 0 10 -1.86209 1
gene 1 8 4 -3.82563 0 11 -3.82563 1
gene 1 8 35 -2.54915 0 88 -2.54915 1
gene 1 35 4 1.0333 0 89 1.0333 1
gene 2 1 35 -0.898251 0 244 -0.898251 1
gene 2 1 8 0.820307 0 307 0.820307 1
genomeend 95

/* Organism #96 Fitness: 8.99986 Error: 1.00002 */
genomestart 96
trait 1 0.1 0 0.0491577 0 0.110981 0 0 0 
trait 2 0.155061 0 0 0 0.391415 0 0 0 
trait 3 1 0 0 0.0767541 0 0 0 0 
node 1 2 1 3
node 2 1 1 1
node 3 3 1 1
node 4 3 0 2
node 8 1 0 0
node 35 1 0 0
gene 1 1 4 -3.88612 0 1 -3.88612 1
gene 2 2 4 -8 0 2 -8 1
gene 1 3 4 5.8345 0 3 5.8345 1
gene 1 3 8 -2.79268 0 10 -2.79268 1
gene 1 8 4 -1.57214 0 11 -1.57214 1
gene 1 8 35 -3.63248 0 88 -3.63248 1
gene 1 35 4 2.63468 0 89 2.63468 1
gene 2 1 35 -0.494491 0 244 -0.494491 1
genomeend 96

/* Organism #97 Fitness: 9 Error: 1 */
genomestart 97
trait 1 0.1 0 0.0491577 0 0.110981 0 0 0 
trait 2 0.155061 0 0 0 0.391415 0 0 0 
trait 3 1 0 0 0.0767541 0 0 0 0 
node 1 2 1 3
node 2 1 1 1
node 3 1 1 1
node 4 3 0 2
node 8 1 0 0
node 35 1 0 0
gene 1 1 4 -2.97461 0 1 -2.97461 1
gene 2 2 4 -8 0 2 -8 1
gene 1 3 4 7.18075 0 3 7.18075 1
gene 1 3 8 -1.86209 0 10 -1.86209 1
gene 1 8 4 -3.82563 0 11 -3.82563 1
gene 1 8 35 -2.54915 0 88 -2.54915 1
gene 1 35 4 1.0333 0 89 1.0333 1
gene 2 1 35 -0.898251 0 244 -0.898251 1
gene 2 1 8 0.820307 0 307 0.820307 1
genomeend 97

/* Organism #98 Fitness: 9 Error: 1 */
genomestart 98
trait 1 0.1 0 0.0491577 0 0.110981 0 0 0 
trait 2 0.155061 0 0 0 0.391415 0 0 0 
trait 3 1 0 0 0.0767541 0 0 0 0 
node 1 2 1 3
node 2 1 1 1
node 3 1 1 1
node 4 3 0 2
node 8 1 0 0
node 35 1 0 0
gene 1 1 4 -2.50981 0 1 -2.50981 1
gene 2 2 4 -6.56388 0 2 -6.56388 1
gene 1 3 4 8 0 3 8 1
gene 1 3 8 -1.65777 0 10 -1.65777 1
gene 1 8 4 -2.43528 0 11 -2.43528 1
gene 1 8 35 -4.13367 0 88 -4.13367 1
gene 1 35 4 -0.65224 0 89 -0.65224 1
gene 2 1 35 -0.210364 0 244 -0.210364 1
gene 2 1 8 2.36935 0 307 2.36935 1
genomeend 98

/* Organism #99 Fitness: 9 Error: 1 */
genomestart 99
trait 1 0.1 0 0.0491577 0 0.110981 0 0 0 
trait 2 0.155061 0 0 0 0.391415 0 0 0 
trait 3 1 0 0 0.0767541 0 0 0 0 
node 1 2 1 3
node 2 1 1 1
node 3 1 1 1
node 4 3 0 2
node 8 1 0 0
node 35 1 0 0
node 99 1 0 0
gene 1 1 4 -2.97461 0 1 -2.97461 1
gene 2 2 4 -8 0 2 -8 1
gene 1 3 4 7.18075 0 3 7.18075 1
gene 1 3 8 -1.86209 0 10 -1.86209 1
gene 1 8 4 -3.82563 0 11 -3.82563 1
gene 1 8 35 -2.54915 0 88 -2.54915 1
gene 1 35 4 1.0333 0 89 1.0333 0
gene 2 1 35 -0.898251 0 244 -0.898251 1
gene 1 35 99 1 0 295 0 1
gene 1 99 4 1.0333 0 296 0 1
gene 2 1 8 0.820307 0 307 0 1
genomeend 99

/* Organism #100 Fitness: 9 Error: 1 */
genomestart 100
trait 1 0.1 0 0.0491577 0 0.110981 0 0 0 
trait 2 0.155061 0 0 0 0.391415 0 0 0 
trait 3 1 0 0 0.0767541 0 0 0 0 
node 1 2 1 3
node 2 1 1 1
node 3 1 1 1
node 4 3 0 2
node 8 1 0 0
node 35 1 0 0
node 99 1 0 0
gene 1 1 4 -2.97461 0 1 -2.97461 1
gene 2 2 4 -8 0 2 -8 1
gene 1 3 4 7.18075 0 3 7.18075 1
gene 1 3 8 -1.86209 0 10 -1.86209 1
gene 1 8 4 -3.82563 0 11 -3.82563 1
gene 1 8 35 -2.54915 0 88 -2.54915 1
gene 1 35 4 1.0333 0 89 1.0333 0
gene 2 1 35 -0.898251 0 244 -0.898251 1
gene 1 35 99 1 0 295 0 1
gene 1 99 4 1.0333 0 296 0 1
gene 2 1 8 0.820307 0 307 0 1
genomeend 100

/* Organism #101 Fitness: 9 Error: 1 */
genomestart 101
trait 1 0.1 0 0.0491577 0 0.110981 0 0 0 
trait 2 0.155061 0 0 0 0.391415 0 0 0 
trait 3 1 0 0 0.0767541 0 0 0 0 
node 1 2 1 3
node 2 1 1 1
node 3 1 1 1
node 4 3 0 2
node 8 1 0 0
node 35 1 0 0
node 99 1 0 0
gene 1 1 4 -5.23412 0 1 -5.23412 1
gene 2 2 4 -8 0 2 -8 1
gene 1 3 4 6.60402 0 3 6.60402 1
gene 1 3 8 -1.27384 0 10 -1.27384 1
gene 1 8 4 -5.82719 0 11 -5.82719 1
gene 1 8 35 -1.46565 0 88 -1.46565 1
gene 1 35 4 1.0333 0 89 1.0333 0
gene 2 1 35 0.918287 0 244 0.918287 1
gene 1 35 99 0.395428 0 295 0.395428 1
gene 1 99 4 2.33209 0 296 2.33209 1
gene 2 1 8 -0.0907468 0 307 -0.0907468 1
genomeend 101

/* Organism #102 Fitness: 8.99935 Error: 1.00011 */
genomestart 102
trait 1 0.1 0 0.0491577 0 0.110981 0 0 0 
trait 2 0.155061 0 0 0 0.391415 0 0 0 
trait 3 1 0 0 0.0767541 0 0 0 0 
node 1 2 1 3
node 2 1 1 1
node 3 1 1 1
node 4 3 0 2
node 8 1 0 0
node 35 1 0 0
node 99 2 0 0
gene 1 1 4 -1.12076 0 1 -1.12076 1
gene 2 2 4 -8 0 2 -8 1
gene 1 3 4 6.47668 0 3 6.47668 1
gene 1 3 8 -1.55775 0 10 -1.55775 1
gene 1 8 4 -2.37348 0 11 -2.37348 1
gene 1 8 35 -4.66256 0 88 -4.66256 1
gene 1 35 4 -0.773246 0 89 -0.773246 0
gene 2 1 35 -1.79344 0 244 -1.79344 1
gene 1 35 99 3.01399 0 295 3.01399 1
gene 1 99 4 -1.46151 0 296 -1.46151 1
gene 2 1 8 -1.52168 0 307 -1.52168 1
genomeend 102

/* Organism #103 Fitness: 1.13251 Error: 2.93581 */
genomestart 103
trait 1 0.1 0 0.0491577 0 0.110981 0 0 0 
trait 2 0.155061 0 0 0 0.391415 0 0 0 
trait 3 1 0 0 0.0767541 0 0 0 0 
node 1 2 1 3
node 2 1 1 1
node 3 1 1 1
node 4 3 0 2
node 8 1 0 0
node 35 1 0 0
node 99 1 0 0
gene 1 1 4 -0.308313 0 1 -0.308313 1
gene 2 2 4 -7.31089 0 2 -7.31089 1
gene 1 3 4 8 0 3 8 1
gene 1 3 8 -0.375004 0 10 -0.375004 1
gene 1 8 4 -3.82563 0 11 -3.82563 1
gene 1 8 35 -3.33493 0 88 -3.33493 1
gene 1 35 4 -1.09874 0 89 -1.09874 0
gene 2 1 35 -1.28887 0 244 -1.28887 1
gene 1 35 99 -0.928388 0 295 -0.928388 1
gene 1 99 4 1.8737 0 296 1.8737 1
gene 2 1 8 -0.791528 0 307 -0.791528 1
genomeend 103

/* Organism #104 Fitness: 8.94986 Error: 1.00837 */
genomestart 104
trait 1 0.1 0 0.0491577 0 0.110981 0 0 0 
trait 2 0.155061 0 0 0 0.391415 0.903623 0 0 
trait 3 1 0 0 0.0767541 0 0 0 0 
node 1 2 1 3
node 2 1 1 1
node 3 1 1 1
node 4 3 0 2
node 8 1 0 0
node 35 1 0 0
node 99 1 0 0
gene 1 1 4 -1.99596 0 1 -1.99596 1
gene 2 2 4 -6.37924 0 2 -6.37924 1
gene 1 3 4 8 0 3 8 1
gene 1 3 8 -3.68321 0 10 -3.68321 1
gene 1 8 4 -3.36175 0 11 -3.36175 1
gene 1 8 35 -2.54915 0 88 -2.54915 1
gene 1 35 4 -1.07195 0 89 -1.07195 0
gene 2 1 35 -0.898251 0 244 -0.898251 1
gene 1 35 99 1.38324 0 295 1.38324 1
gene 1 99 4 -1.14282 0 296 -1.14282 1
gene 2 1 8 0.820307 0 307 0.820307 1
genomeend 104

/* Organism #105 Fitness: 9 Error: 1 */
genomestart 105
trait 1 0.1 0 0.0491577 0 0.110981 0 0 0 
trait 2 0.155061 0 0 0 0.391415 0 0 0 
trait 3 1 0 0 0.0767541 0 0 0 0 
node 1 2 1 3
node 2 1 1 1
node 3 1 1 1
node 4 3 0 2
node 8 1 0 0
node 35 1 0 0
node 99 1 0 0
gene 1 1 4 -5.46858 0 1 -5.46858 1
gene 2 2 4 -8 0 2 -8 1
gene 1 3 4 8 0 3 8 1
gene 1 3 8 -4.36118 0 10 -4.36118 1
gene 1 8 4 -1.72069 0 11 -1.72069 1
gene 1 8 35 -4.78631 0 88 -4.78631 1
gene 1 35 4 2.42357 0 89 2.42357 0
gene 2 1 35 -0.864376 0 244 -0.864376 1
gene 1 35 99 2.19411 0 295 2.19411 1
gene 1 99 4 1.3426 0 296 1.3426 1
gene 2 1 8 0.820307 0 307 0.820307 1
genomeend 105

/* Organism #106 Fitness: 4 Error: 2 */
genomestart 106
trait 1 0.1 0 0.0491577 0 0.110981 0 0 0 
trait 2 0.155061 0 0 0 0.391415 0 0 0 
trait 3 1 0 0 0.0767541 0 0 0 0 
node 1 2 1 3
node 2 1 1 1
node 3 1 1 1
node 4 3 0 2
node 8 1 0 0
node 35 1 0 0
node 99 1 0 0
gene 1 1 4 -4.98219 0 1 -4.98219 1
gene 2 2 4 -5.71088 0 2 -5.71088 1
gene 1 3 4 4.81396 0 3 4.81396 1
gene 1 3 8 -0.0558565 0 10 -0.0558565 1
gene 1 8 4 -5.95063 0 11 -5.95063 1
gene 1 8 35 -2.72372 0 88 -2.72372 1
gene 1 35 4 1.93703 0 89 1.93703 0
gene 2 1 35 1.49333 0 244 1.49333 1
gene 1 35 99 3.29194 0 295 3.29194 1
gene 1 99 4 -2.11234 0 296 -2.11234 1
gene 2 1 8 0.820307 0 307 0.820307 1
genomeend 106

/* Organism #107 Fitness: 7.6575 Error: 1.23278 */
genomestart 107
trait 1 0.1 0 0.0491577 0 0.110981 0 0 0 
trait 2 0.155061 0 0 0 0.391415 0 0 0 
trait 3 0.151067 0 0 0.0793786 0 0 0.402387 0 
node 1 2 1 3
node 2 1 1 1
node 3 1 1 1
node 4 3 0 2
node 8 1 0 0
node 35 1 0 0
node 99 1 0 0
gene 1 1 4 -5.23176 0 1 -5.23176 1
gene 2 2 4 -8 0 2 -8 1
gene 1 3 4 7.18075 0 3 7.18075 1
gene 1 3 8 0.24559 0 10 0.24559 1
gene 1 8 4 -4.92529 0 11 -4.92529 1
gene 1 8 35 -2.22602 0 88 -2.22602 1
gene 1 35 4 1.62787 0 89 1.62787 0
gene 2 1 35 0.994217 0 244 0.994217 1
gene 1 35 99 2.81578 0 295 2.81578 1
gene 1 99 4 -1.38766 0 296 -1.38766 1
gene 2 1 8 -0.787713 0 307 -0.787713 1
genomeend 107

/* Species #18 : (Size 6) (AF 7.98801) (Age 15)  */


/* Organism #108 Fitness: 8.99999 Error: 1 */
genomestart 108
trait 1 0.1 0 0.0122894 0 0.0277451 0 0 0 
trait 2 0.2 0 0 0 0 0 0 0 
trait 3 0 0.628132 0 0 0 0.28724 0 0 
node 1 3 1 3
node 2 2 1 1
node 3 1 1 1
node 4 3 0 2
node 8 1 0 0
node 59 1 0 0
gene 1 1 4 -2.17365 0 1 -2.17365 1
gene 2 2 4 7.02887 0 2 7.02887 1
gene 1 3 4 6.21764 0 3 6.21764 1
gene 1 3 8 -2.00964 0 10 -2.00964 1
gene 1 8 4 -0.317927 0 11 -0.317927 1
gene 3 2 8 -1.79876 0 140 -1.79876 1
gene 1 8 59 2.18976 0 161 2.18976 1
gene 1 59 4 -2.56383 0 162 -2.56383 1
gene 1 1 8 1.01012 0 245 1.01012 1
genomeend 108

/* Organism #109 Fitness: 8.99999 Error: 1 */
genomestart 109
trait 1 0.1 0 0.0122894 0 0.0277451 0 0 0 
trait 2 0.2 0 0 0 0 0 0 0 
trait 3 0 0.628132 0 0 0 0.28724 0 0 
node 1 3 1 3
node 2 2 1 1
node 3 1 1 1
node 4 3 0 2
node 8 1 0 0
node 59 1 0 0
gene 1 1 4 -2.17365 0 1 -2.17365 1
gene 2 2 4 7.02887 0 2 7.02887 1
gene 1 3 4 6.21764 0 3 6.21764 1
gene 1 3 8 -2.00964 0 10 -2.00964 1
gene 1 8 4 -0.317927 0 11 -0.317927 1
gene 3 2 8 -1.79876 0 140 -1.79876 1
gene 1 8 59 2.18976 0 161 2.18976 1
gene 1 59 4 -2.56383 0 162 -2.56383 1
gene 1 1 8 1.01012 0 245 1.01012 1
genomeend 109

/* Organism #110 Fitness: 8.80846 Error: 1.03209 */
genomestart 110
trait 1 0.1 0 0.0122894 0 0.0277451 0 0 0 
trait 2 0.2 0 0 0 0 0 0 0 
trait 3 0 0.628132 0 0 0 0.28724 0 0 
node 1 1 1 3
node 2 2 1 1
node 3 1 1 1
node 4 3 0 2
node 8 1 0 0
node 59 1 0 0
gene 1 1 4 2.00171 0 1 2.00171 1
gene 2 2 4 8 0 2 8 1
gene 1 3 4 6.6063 0 3 6.6063 1
gene 1 3 8 -0.42951 0 10 -0.42951 1
gene 1 8 4 -1.8363 0 11 -1.8363 0
gene 3 2 8 -6.99881 0 140 -6.99881 1
gene 1 8 59 0.649358 0 161 0.649358 1
gene 1 59 4 -5.36703 0 162 -5.36703 1
gene 1 1 8 -1.23132 0 245 -1.23132 1
genomeend 110

/* Organism #111 Fitness: 8.99032 Error: 1.00161 */
genomestart 111
trait 1 0.1 0 0.0122894 0 0.0277451 0 0 0 
trait 2 0.2 0 0 0 0 0 0 0 
trait 3 0 0.628132 0 0 0 0.28724 0 0 
node 1 3 1 3
node 2 2 1 1
node 3 1 1 1
node 4 3 0 2
node 8 1 0 0
node 59 1 0 0
gene 1 1 4 -0.385193 0 1 -0.385193 1
gene 2 2 4 8 0 2 8 1
gene 1 3 4 8 0 3 8 1
gene 1 3 8 -4.49866 0 10 -4.49866 1
gene 1 8 4 -2.70585 0 11 -2.70585 1
gene 3 2 8 -1.50327 0 140 -1.50327 1
gene 1 8 59 2.70606 0 161 2.70606 1
gene 1 59 4 -3.62465 0 162 -3.62465 1
gene 1 1 8 2.48843 0 245 2.48843 1
genomeend 111

/* Organism #112 Fitness: 4.00003 Error: 1.99999 */
genomestart 112
trait 1 0.1 0 0.0122894 0 0.0277451 0 0 0 
trait 2 0.2 0 0 0 0 0 0 0 
trait 3 0 0.628132 0 0 0 0.28724 0 0 
node 1 3 1 3
node 2 2 1 1
node 3 1 1 1
node 4 3 0 2
node 8 1 0 0
node 59 1 0 0
gene 1 1 4 2.54921 0 1 2.54921 1
gene 2 2 4 3.87921 0 2 3.87921 1
gene 1 3 4 2.00667 0 3 2.00667 1
gene 1 3 8 -3.0802 0 10 -3.0802 1
gene 1 8 4 3.1006 0 11 3.1006 0
gene 3 2 8 -8 0 140 -8 1
gene 1 8 59 -1.04503 0 161 -1.04503 1
gene 1 59 4 -0.739006 0 162 -0.739006 1
gene 3 1 8 -0.223701 0 245 -0.223701 1
genomeend 112

/* Organism #113 Fitness: 8.12928 Error: 1.14881 */
genomestart 113
trait 1 0.1 0 0.0122894 0 0.0277451 0 0 0 
trait 2 0.2 0 0 0 0 0 0 0 
trait 3 0 0.628132 0 0 0 0.28724 0 0 
node 1 3 1 3
node 2 2 1 1
node 3 1 1 1
node 4 3 0 2
node 8 1 0 0
node 59 1 0 0
gene 1 1 4 -2.26826 0 1 -2.26826 1
gene 2 2 4 4.05751 0 2 4.05751 1
gene 1 3 4 8 0 3 8 1
gene 1 3 8 -0.563677 0 10 -0.563677 1
gene 1 8 4 2.41409 0 11 2.41409 0
gene 3 2 8 -2.41783 0 140 -2.41783 1
gene 1 8 59 3.50542 0 161 3.50542 1
gene 1 59 4 -1.4351 0 162 -1.4351 1
gene 1 1 8 2.60479 0 245 2.60479 1
genomeend 113

/* Species #19 : (Size 7) (AF 5.99424) (Age 15)  */


/* Organism #114 Fitness: 9 Error: 1 */
genomestart 114
trait 1 0.1 0 0 0 0 0 0.000618 0 
trait 2 0.2 0 0 0 0 0 0 0 
trait 3 0.3 0.553484 0 0 0.247414 0 0.404981 0 
node 1 1 1 3
node 2 2 1 1
node 3 1 1 1
node 4 3 0 2
node 8 1 0 0
node 14 1 0 0
node 55 1 0 0
gene 1 1 4 7.79308 0 1 7.79308 1
gene 2 2 4 -8 0 2 -8 1
gene 1 3 4 -6.24139 0 3 -6.24139 1
gene 1 3 8 -0.454649 0 10 -0.454649 1
gene 1 8 4 -1.21998 0 11 -1.21998 1
gene 2 2 14 0.0425733 0 26 0.0425733 1
gene 2 14 4 2.82968 0 27 2.82968 1
gene 1 3 55 -2.19581 0 150 -2.19581 1
gene 1 55 8 -5.379 0 151 -5.379 1
gene 3 3 14 4.07712 0 168 4.07712 1
gene 2 55 4 3.73638 0 236 3.73638 1
genomeend 114

/* Organism #115 Fitness: 8.99981 Error: 1.00003 */
genomestart 115
trait 1 0.1 0 0 0 0 0 0.000721 0 
trait 2 0.2 0 0 0 0 0 0 0 
trait 3 0.3 0.553484 0 0 0.247414 0 0.404981 0 
node 1 1 1 3
node 2 2 1 1
node 3 1 1 1
node 4 3 0 2
node 8 1 0 0
node 14 1 0 0
node 55 1 0 0
gene 1 1 4 6.57685 0 1 6.57685 1
gene 2 2 4 -8 0 2 -8 1
gene 1 3 4 -5.73798 0 3 -5.73798 1
gene 1 3 8 -2.93634 0 10 -2.93634 1
gene 1 8 4 -0.32136 0 11 -0.32136 1
gene 2 2 14 1.0229 0 26 1.0229 1
gene 2 14 4 1.69767 0 27 1.69767 1
gene 1 3 55 -4.19446 0 150 -4.19446 1
gene 1 55 8 -4.87194 0 151 -4.87194 1
gene 3 3 14 1.34819 0 168 1.34819 1
gene 2 55 4 3.73638 0 236 3.73638 1
genomeend 115

/* Organism #116 Fitness: 1.00105 Error: 2.99947 */
genomestart 116
trait 1 0.1 0 0 0 0 0 0.000721 0 
trait 2 0.2 0 0 0 0 0 0 0 
trait 3 0.3 0 0 0 0.247414 0 0.404981 0 
node 1 1 1 3
node 2 2 1 1
node 3 1 1 1
node 4 3 0 2
node 8 1 0 0
node 14 1 0 0
node 55 1 0 0
gene 1 1 4 -0.546434 0 1 -0.546434 1
gene 2 2 4 -8 0 2 -8 1
gene 1 3 4 -4.82807 0 3 -4.82807 1
gene 1 3 8 2.17765 0 10 2.17765 1
gene 1 8 4 -3.67092 0 11 -3.67092 1
gene 2 2 14 2.19352 0 26 2.19352 1
gene 2 14 4 0.381863 0 27 0.381863 1
gene 1 3 55 -2.71271 0 150 -2.71271 1
gene 1 55 8 -6.20468 0 151 -6.20468 1
gene 3 3 14 4.07712 0 168 4.07712 1
gene 2 55 4 3.77806 0 236 3.77806 1
genomeend 116

/* Organism #117 Fitness: 8.99939 Error: 1.0001 */
genomestart 117
trait 1 0.1 0 0 0 0 0 0.000618 0 
trait 2 0.2 0 0 0 0 0 0 0 
trait 3 0.3 0.553484 0 0 0.247414 0 0.404981 0 
node 1 1 1 3
node 2 2 1 1
node 3 1 1 1
node 4 3 0 2
node 8 1 0 0
node 14 1 0 0
node 55 1 0 0
gene 1 1 4 8 0 1 8 1
gene 2 2 4 -8 0 2 -8 1
gene 1 3 4 -4.78954 0 3 -4.78954 1
gene 1 3 8 -2.15911 0 10 -2.15911 1
gene 1 8 4 -0.669576 0 11 -0.669576 1
gene 2 2 14 -2.27973 0 26 -2.27973 1
gene 2 14 4 0.377972 0 27 0.377972 1
gene 1 3 55 -3.95306 0 150 -3.95306 1
gene 1 55 8 -7.85428 0 151 -7.85428 1
gene 3 3 14 4.07712 0 168 4.07712 1
gene 2 55 4 3.73638 0 236 3.73638 1
genomeend 117

/* Organism #118 Fitness: 3.95939 Error: 2.01018 */
genomestart 118
trait 1 0.1 0 0 0 0 0 0.000824 0 
trait 2 0.2 0 0 0 0 0 0 0 
trait 3 0.3 0.553484 0 0 0.247414 0 0.404981 0 
node 1 3 1 3
node 2 2 1 1
node 3 1 1 1
node 4 3 0 2
node 8 1 0 0
node 14 1 0 0
node 55 1 0 0
gene 1 1 4 6.69678 0 1 6.69678 1
gene 2 2 4 -8 0 2 -8 1
gene 1 3 4 -7.80432 0 3 -7.80432 1
gene 1 3 8 -0.128101 0 10 -0.128101 1
gene 1 8 4 -0.267655 0 11 -0.267655 1
gene 2 2 14 1.07154 0 26 1.07154 1
gene 2 14 4 -0.304422 0 27 -0.304422 1
gene 1 3 55 1.82251 0 150 1.82251 1
gene 1 55 8 -3.83324 0 151 -3.83324 1
gene 3 3 14 3.25652 0 168 3.25652 1
gene 2 55 4 1.98388 0 236 1.98388 1
genomeend 118

/* Organism #119 Fitness: 1.00049 Error: 2.99975 */
genomestart 119
trait 1 0.1 0 0 0 0 0 0.000721 0 
trait 2 0.2 0 0 0 0 0 0 0 
trait 3 0.3 0.553484 0 0 0.247414 0 0.404981 0 
node 1 3 1 3
node 2 2 1 1
node 3 1 1 1
node 4 3 0 2
node 8 1 0 0
node 14 1 0 0
node 55 1 0 0
gene 1 1 4 6.25968 0 1 6.25968 1
gene 2 2 4 -8 0 2 -8 1
gene 1 3 4 -8 0 3 -8 1
gene 1 3 8 -0.159154 0 10 -0.159154 1
gene 1 8 4 -3.01722 0 11 -3.01722 1
gene 2 2 14 -1.32426 0 26 -1.32426 1
gene 2 14 4 0.437902 0 27 0.437902 1
gene 1 3 55 -1.749 0 150 -1.749 1
gene 1 55 8 -6.64018 0 151 -6.64018 1
gene 3 3 14 0.383332 0 168 0.383332 1
gene 2 55 4 0.0852229 0 236 0.0852229 1
genomeend 119

/* Organism #120 Fitness: 8.99953 Error: 1.00008 */
genomestart 120
trait 1 0.1 0 0 0 0 0 0.000721 0 
trait 2 0.2 0 0 0 0 0 0 0 
trait 3 0.3 0.553484 0 0 0.247414 0 0.404981 0 
node 1 1 1 3
node 2 1 1 1
node 3 1 1 1
node 4 3 0 2
node 8 1 0 0
node 14 1 0 0
node 55 1 0 0
gene 1 1 4 6.37245 0 1 6.37245 1
gene 2 2 4 -5.83097 0 2 -5.83097 1
gene 1 3 4 -6.00655 0 3 -6.00655 1
gene 1 3 8 -0.223167 0 10 -0.223167 1
gene 1 8 4 -0.103458 0 11 -0.103458 1
gene 2 2 14 1.94269 0 26 1.94269 1
gene 2 14 4 3.15043 0 27 3.15043 1
gene 1 3 55 -0.432371 0 150 -0.432371 1
gene 1 55 8 -6.46821 0 151 -6.46821 1
gene 3 3 14 3.6198 0 168 3.6198 1
gene 2 55 4 3.71741 0 236 3.71741 1
genomeend 120

/* Species #20 : (Size 6) (AF 6.84949) (Age 14)  */


/* Organism #121 Fitness: 8.97369 Error: 1.00439 */
genomestart 121
trait 1 0.1 0 0 0 0 0 0 0 
trait 2 0.2 0 0 0 0 0 0 0 
trait 3 0.3 0 0 0 0 0 0 0 
node 1 3 1 3
node 2 2 1 1
node 3 1 1 1
node 4 3 0 2
node 8 1 0 0
node 14 1 0 0
node 63 1 0 0
gene 1 1 4 6.05221 0 1 6.05221 1
gene 2 2 4 -5.31917 0 2 -5.31917 0
gene 1 3 4 -4.19321 0 3 -4.19321 1
gene 1 3 8 -2.2808 0 10 -2.2808 1
gene 1 8 4 5.18883 0 11 5.18883 0
gene 2 2 14 4.0453 0 26 4.0453 1
gene 2 14 4 -6.72756 0 27 -6.72756 1
gene 1 8 63 1.22143 0 174 1.22143 1
gene 1 63 4 5.21439 0 175 5.21439 1
gene 2 8 14 2.09685 0 251 2.09685 1
genomeend 121

/* Organism #122 Fitness: 8.94735 Error: 1.00879 */
genomestart 122
trait 1 0.1 0 0 0 0 0 0 0 
trait 2 0.2 0 0 0 0 0 0 0 
trait 3 0 0 0 0 0 0 0 0 
node 1 3 1 3
node 2 2 1 1
node 3 1 1 1
node 4 3 0 2
node 8 1 0 0
node 14 1 0 0
node 63 1 0 0
gene 1 1 4 8 0 1 8 1
gene 2 2 4 -4.50776 0 2 -4.50776 0
gene 1 3 4 -4.76147 0 3 -4.76147 1
gene 1 3 8 -1.59673 0 10 -1.59673 1
gene 1 8 4 3.48933 0 11 3.48933 0
gene 2 2 14 4.15418 0 26 4.15418 1
gene 2 14 4 -5.67307 0 27 -5.67307 1
gene 1 8 63 0.794694 0 174 0.794694 1
gene 1 63 4 1.10359 0 175 1.10359 1
gene 2 8 14 -2.84372 0 251 -2.84372 1
genomeend 122

/* Organism #123 Fitness: 7.72564 Error: 1.2205 */
genomestart 123
trait 1 0.1 0 0 0 0 0 0 0 
trait 2 0.2 0 0 0 0 0 0 0 
trait 3 0 0 0.974181 0 0 0 0 0.0170598 
node 1 3 1 3
node 2 2 1 1
node 3 1 1 1
node 4 3 0 2
node 8 1 0 0
node 14 1 0 0
node 63 1 0 0
gene 1 1 4 8 0 1 8 1
gene 2 2 4 -5.82013 0 2 -5.82013 0
gene 1 3 4 -5.2535 0 3 -5.2535 1
gene 1 3 8 -2.94603 0 10 -2.94603 1
gene 1 8 4 3.40396 0 11 3.40396 0
gene 2 2 14 4.00517 0 26 4.00517 1
gene 2 14 4 -5.14724 0 27 -5.14724 1
gene 1 8 63 1.78197 0 174 1.78197 1
gene 1 63 4 0.167127 0 175 0.167127 1
gene 2 8 14 -3.10092 0 251 -3.10092 1
genomeend 123

/* Organism #124 Fitness: 4 Error: 2 */
genomestart 124
trait 1 0.1 0 0 0 0 0 0 0 
trait 2 0.2 0 0 0 0 0 0 0 
trait 3 0.3 0 0 0 0 0 0 0 
node 1 3 1 3
node 2 2 1 1
node 3 1 1 1
node 4 3 0 2
node 8 1 0 0
node 14 1 0 0
node 63 1 0 0
gene 1 1 4 -0.149693 0 1 -0.149693 1
gene 2 2 4 -2.94666 0 2 -2.94666 0
gene 1 3 4 -4.19321 0 3 -4.19321 1
gene 1 3 8 -3.41128 0 10 -3.41128 1
gene 1 8 4 6.38821 0 11 6.38821 0
gene 2 2 14 2.45186 0 26 2.45186 1
gene 2 14 4 -4.82084 0 27 -4.82084 1
gene 1 8 63 -0.540941 0 174 -0.540941 1
gene 1 63 4 6.74978 0 175 6.74978 1
gene 2 8 14 2.94076 0 251 2.94076 1
genomeend 124

/* Organism #125 Fitness: 3.75071 Error: 2.06332 */
genomestart 125
trait 1 0.1 0 0 0 0 0 0 0 
trait 2 0.2 0 0 0 0 0 0 0 
trait 3 0.3 0 0 0 0 0 0 0 
node 1 3 1 3
node 2 2 1 1
node 3 1 1 1
node 4 3 0 2
node 8 1 0 0
node 14 1 0 0
node 63 1 0 0
gene 1 1 4 4.44442 0 1 4.44442 1
gene 2 2 4 -3.57595 0 2 -3.57595 0
gene 1 3 4 -3.96463 0 3 -3.96463 1
gene 1 3 8 -1.96486 0 10 -1.96486 1
gene 1 8 4 3.17057 0 11 3.17057 0
gene 2 2 14 3.35665 0 26 3.35665 1
gene 2 14 4 -7.11499 0 27 -7.11499 1
gene 1 8 63 3.39801 0 174 3.39801 1
gene 1 63 4 3.21596 0 175 3.21596 1
gene 2 8 14 -0.171896 0 251 -0.171896 1
genomeend 125

/* Organism #126 Fitness: 7.69953 Error: 1.2252 */
genomestart 126
trait 1 0.1 0 0 0 0 0 0 0 
trait 2 0.2 0 0 0 0 0 0 0 
trait 3 0.15 0 0 0 0 0 0 0 
node 1 3 1 3
node 2 2 1 1
node 3 1 1 1
node 4 3 0 2
node 8 1 0 0
node 14 1 0 0
node 63 1 0 0
gene 1 1 4 7.0261 0 1 7.0261 1
gene 2 2 4 -5.56965 0 2 -5.56965 1
gene 1 3 4 -4.72336 0 3 -4.72336 1
gene 1 3 8 -2.61341 0 10 -2.61341 1
gene 1 8 4 4.2964 0 11 4.2964 1
gene 2 2 14 4.02524 0 26 4.02524 1
gene 2 14 4 -5.9374 0 27 -5.9374 1
gene 1 8 63 1.5017 0 174 1.5017 1
gene 1 63 4 2.69076 0 175 2.69076 1
gene 2 8 14 -0.502033 0 251 -0.502033 1
genomeend 126

/* Species #21 : (Size 6) (AF 5.30048) (Age 14)  */


/* Organism #127 Fitness: 8.9716 Error: 1.00474 */
genomestart 127
trait 1 0.362642 0 0.694655 0 0.107746 0.0543535 0 0 
trait 2 0.177531 0 0 0 0.195708 0 0 0 
trait 3 0.3 0 0 0 0 0 0 0 
node 1 2 1 3
node 2 1 1 1
node 3 2 1 1
node 4 3 0 2
node 8 1 0 0
node 23 1 0 0
node 48 1 0 0
gene 1 1 4 0.250399 0 1 0.250399 1
gene 2 2 4 1.99792 0 2 1.99792 1
gene 1 3 4 2.51955 0 3 2.51955 1
gene 1 3 8 -3.7492 0 10 -3.7492 0
gene 1 8 4 -0.989715 0 11 -0.989715 1
gene 3 3 23 -2.35909 0 51 -2.35909 1
gene 1 23 8 1.09198 0 52 1.09198 1
gene 1 2 23 -1.97089 0 73 -1.97089 1
gene 1 3 48 -4.04833 0 129 -4.04833 1
gene 1 48 8 -0.948515 0 130 -0.948515 1
gene 1 48 4 -1.65528 0 289 -1.65528 1
genomeend 127

/* Organism #128 Fitness: 4.67747 Error: 1.83725 */
genomestart 128
trait 1 0.362642 0 0.694655 0 0.107746 0.0543535 0 0 
trait 2 0.177531 0 0 0 0.195708 0 0 0 
trait 3 0.3 0 0 0 0 0 0 0 
node 1 2 1 3
node 2 1 1 1
node 3 2 1 1
node 4 3 0 2
node 8 1 0 0
node 23 1 0 0
node 48 1 0 0
gene 1 1 4 -1.52471 0 1 -1.52471 1
gene 2 2 4 1.24755 0 2 1.24755 1
gene 1 3 4 3.28465 0 3 3.28465 1
gene 3 3 8 -5.58893 0 10 -5.58893 0
gene 1 8 4 0.831172 0 11 0.831172 1
gene 3 3 23 -3.9565 0 51 -3.9565 1
gene 1 23 8 2.46844 0 52 2.46844 1
gene 1 2 23 -1.68638 0 73 -1.68638 1
gene 1 3 48 -4.35787 0 129 -4.35787 1
gene 1 48 8 0.928144 0 130 0.928144 1
gene 1 48 4 -1.61827 0 289 -1.61827 1
genomeend 128

/* Organism #129 Fitness: 1.31094 Error: 2.85504 */
genomestart 129
trait 1 0.362642 0 0.694655 0 0.107746 0.0543535 0 0 
trait 2 0.177531 0 0 0 0.195708 0 0 0 
trait 3 0.3 0 0 0 0 0 0 0 
node 1 2 1 3
node 2 1 1 1
node 3 2 1 1
node 4 3 0 2
node 8 1 0 0
node 23 1 0 0
node 48 1 0 0
gene 1 1 4 -1.99706 0 1 -1.99706 1
gene 2 2 4 2.22215 0 2 2.22215 1
gene 1 3 4 2.51955 0 3 2.51955 1
gene 1 3 8 -4.71335 0 10 -4.71335 0
gene 1 8 4 -1.74612 0 11 -1.74612 1
gene 3 3 23 -1.01772 0 51 -1.01772 1
gene 1 23 8 0.720717 0 52 0.720717 1
gene 1 2 23 -3.77209 0 73 -3.77209 1
gene 1 3 48 -3.91764 0 129 -3.91764 1
gene 1 48 8 -0.588778 0 130 -0.588778 1
gene 1 48 4 -3.32647 0 289 -3.32647 1
genomeend 129

/* Organism #130 Fitness: 8.98869 Error: 1.00189 */
genomestart 130
trait 1 0.1 0 0.0491577 0 0.107746 0.0543535 0 0 
trait 2 0.177531 0 0 0 0.195708 0 0 0 
trait 3 0.3 0 0 0 0 0 0 0 
node 1 2 1 3
node 2 1 1 1
node 3 2 1 1
node 4 3 0 2
node 8 1 0 0
node 23 1 0 0
node 48 1 0 0
gene 1 1 4 -1.2473 0 1 -1.2473 1
gene 2 2 4 -3.1546 0 2 -3.1546 1
gene 1 3 4 2.10205 0 3 2.10205 1
gene 1 3 8 -2.53334 0 10 -2.53334 0
gene 1 8 4 0.433821 0 11 0.433821 1
gene 3 3 23 1.03923 0 51 1.03923 1
gene 1 23 8 1.56232 0 52 1.56232 1
gene 1 2 23 0.625172 0 73 0.625172 1
gene 1 3 48 -1.45159 0 129 -1.45159 1
gene 1 48 8 0.228736 0 130 0.228736 1
gene 1 48 4 -4.52066 0 289 -4.52066 1
genomeend 130

/* Organism #131 Fitness: 3.85405 Error: 2.03683 */
genomestart 131
trait 1 0.231321 0 0.371906 0 0.107746 0.0543535 0 0 
trait 2 0.177531 0 0 0 0.195708 0 0 0 
trait 3 0.3 0 0 0 0 0 0 0 
node 1 2 1 3
node 2 1 1 1
node 3 2 1 1
node 4 3 0 2
node 8 1 0 0
node 23 1 0 0
node 48 1 0 0
gene 1 1 4 -1.38043 0 1 -1.38043 1
gene 2 2 4 1.99792 0 2 1.99792 1
gene 1 3 4 2.51955 0 3 2.51955 1
gene 1 3 8 -1.85842 0 10 -1.85842 0
gene 1 8 4 -0.989715 0 11 -0.989715 1
gene 3 3 23 -2.35909 0 51 -2.35909 1
gene 1 23 8 1.09198 0 52 1.09198 1
gene 1 2 23 1.26644 0 73 1.26644 1
gene 1 3 48 -4.04833 0 129 -4.04833 1
gene 1 48 8 -0.948515 0 130 -0.948515 1
gene 1 48 4 -1.65528 0 289 -1.65528 1
genomeend 131

/* Organism #132 Fitness: 4.00015 Error: 1.99996 */
genomestart 132
trait 1 0.362642 0 0.694655 0 0.107746 0.0543535 0 0 
trait 2 0.177531 0 0 0 0.195708 0 0 0 
trait 3 0.3 0 0 0 0 0 0 0 
node 1 2 1 3
node 2 1 1 1
node 3 2 1 1
node 4 3 0 2
node 8 1 0 0
node 23 1 0 0
node 48 1 0 0
gene 1 1 4 2.11874 0 1 2.11874 1
gene 2 2 4 1.1933 0 2 1.1933 1
gene 1 3 4 1.7047 0 3 1.7047 1
gene 1 3 8 -5.52889 0 10 -5.52889 0
gene 1 8 4 -0.404141 0 11 -0.404141 1
gene 3 3 23 -2.78139 0 51 -2.78139 1
gene 1 23 8 0.987831 0 52 0.987831 1
gene 1 2 23 -1.60184 0 73 -1.60184 1
gene 1 3 48 -3.68966 0 129 -3.68966 1
gene 1 48 8 -1.02252 0 130 -1.02252 1
gene 1 48 4 0.290048 0 289 0.290048 1
genomeend 132

/* Species #22 : (Size 9) (AF 8.23545) (Age 11)  */


/* Organism #133 Fitness: 9 Error: 1 */
genomestart 133
trait 1 0.1 0 0.0491577 0 0.110981 0 0 0 
trait 2 0.177531 0 0 0 0.195708 0 0 0 
trait 3 0.3 0 0 0 0 0 0 0 
node 1 2 1 3
node 2 1 1 1
node 3 2 1 1
node 4 3 0 2
node 8 1 0 0
node 23 1 0 0
node 73 1 0 0
gene 1 1 4 -2.94145 0 1 -2.94145 1
gene 2 2 4 -7.01019 0 2 -7.01019 1
gene 2 3 4 5.91286 0 3 5.91286 1
gene 1 3 8 -2.55412 0 10 -2.55412 0
gene 1 8 4 -2.23495 0 11 -2.23495 0
gene 1 3 23 6.61038 0 51 6.61038 1
gene 1 23 8 -1.64172 0 52 -1.64172 1
gene 1 2 23 -4.17848 0 73 -4.17848 1
gene 1 8 73 0.753792 0 208 0.753792 1
gene 1 73 4 -0.780129 0 209 -0.780129 1
gene 1 23 73 -1.28359 0 223 -1.28359 1
gene 1 1 23 -0.687185 0 252 -0.687185 1
genomeend 133

/* Organism #134 Fitness: 9 Error: 1 */
genomestart 134
trait 1 0.1 0 0.0491577 0 0.110981 0 0 0 
trait 2 0.177531 0 0 0 0.195708 0 0 0 
trait 3 0.3 0 0 0 0 0 0 0 
node 1 2 1 3
node 2 1 1 1
node 3 2 1 1
node 4 3 0 2
node 8 2 0 0
node 23 1 0 0
node 73 1 0 0
gene 1 1 4 -2.94145 0 1 -2.94145 1
gene 2 2 4 -7.01019 0 2 -7.01019 1
gene 2 3 4 5.91286 0 3 5.91286 1
gene 1 3 8 -2.55412 0 10 -2.55412 1
gene 1 8 4 -2.23495 0 11 -2.23495 1
gene 1 3 23 6.61038 0 51 6.61038 1
gene 1 23 8 -1.64172 0 52 -1.64172 1
gene 1 2 23 -4.17848 0 73 -4.17848 1
gene 1 8 73 0.753792 0 208 0.753792 1
gene 1 73 4 -0.780129 0 209 -0.780129 1
gene 1 23 73 -1.28359 0 223 -1.28359 1
gene 1 1 23 -0.687185 0 252 -0.687185 1
genomeend 134

/* Organism #135 Fitness: 7.15002 Error: 1.32605 */
genomestart 135
trait 1 0.1 0 0.0491577 0 0.110981 0 0 0 
trait 2 0.177531 0 0 0 0.195708 0 0 0 
trait 3 0.3 0 0 0 0 0 0 0 
node 1 2 1 3
node 2 1 1 1
node 3 2 1 1
node 4 3 0 2
node 8 1 0 0
node 23 1 0 0
node 73 1 0 0
gene 1 1 4 -2.61338 0 1 -2.61338 1
gene 2 2 4 -5.53409 0 2 -5.53409 1
gene 2 3 4 8 0 3 8 1
gene 1 3 8 -3.7651 0 10 -3.7651 1
gene 1 8 4 0.0353938 0 11 0.0353938 0
gene 1 3 23 4.64293 0 51 4.64293 1
gene 1 23 8 -2.25224 0 52 -2.25224 1
gene 1 2 23 -3.572 0 73 -3.572 1
gene 1 8 73 -0.219977 0 208 -0.219977 1
gene 1 73 4 0.885189 0 209 0.885189 1
gene 1 23 73 -3.63512 0 223 -3.63512 1
gene 1 1 23 -0.687185 0 252 -0.687185 1
genomeend 135

/* Organism #136 Fitness: 8.99078 Error: 1.00154 */
genomestart 136
trait 1 0.1 0 0.0491577 0 0.110981 0 0 0 
trait 2 0.177531 0 0 0 0.195708 0 0 0 
trait 3 0.3 0 0 0 0 0 0 0 
node 1 2 1 3
node 2 1 1 1
node 3 2 1 1
node 4 3 0 2
node 8 1 0 0
node 23 1 0 0
node 73 1 0 0
gene 1 1 4 -1.31603 0 1 -1.31603 1
gene 2 2 4 -7.01042 0 2 -7.01042 1
gene 2 3 4 5.91286 0 3 5.91286 1
gene 1 3 8 -0.33367 0 10 -0.33367 0
gene 1 8 4 -0.50959 0 11 -0.50959 0
gene 1 3 23 -0.245445 0 51 -0.245445 1
gene 1 23 8 0.377766 0 52 0.377766 1
gene 1 2 23 -4.24379 0 73 -4.24379 1
gene 1 8 73 -1.60215 0 208 -1.60215 1
gene 1 73 4 -0.780129 0 209 -0.780129 1
gene 1 23 73 -2.31962 0 223 -2.31962 1
gene 1 1 23 0.241401 0 252 0.241401 1
genomeend 136

/* Organism #137 Fitness: 8.99805 Error: 1.00033 */
genomestart 137
trait 1 0.1 0 0.0491577 0 0.110981 0 0 0 
trait 2 0.177531 0 0 0 0.195708 0 0 0 
trait 3 0.3 0 0 0 0 0 0 0 
node 1 2 1 3
node 2 1 1 1
node 3 2 1 1
node 4 3 0 2
node 8 1 0 0
node 23 1 0 0
node 73 1 0 0
gene 1 1 4 -0.811106 0 1 -0.811106 1
gene 2 2 4 -8 0 2 -8 1
gene 2 3 4 3.46978 0 3 3.46978 1
gene 1 3 8 -1.80741 0 10 -1.80741 0
gene 1 8 4 -3.00051 0 11 -3.00051 0
gene 1 3 23 8 0 51 8 1
gene 1 23 8 -0.00379192 0 52 -0.00379192 1
gene 1 2 23 -3.75114 0 73 -3.75114 1
gene 1 8 73 2.48961 0 208 2.48961 1
gene 1 73 4 -0.829569 0 209 -0.829569 1
gene 1 23 73 -1.28359 0 223 -1.28359 1
gene 1 1 23 -0.687185 0 252 -0.687185 1
genomeend 137

/* Organism #138 Fitness: 8.99999 Error: 1 */
genomestart 138
trait 1 0.1 0 0.0491577 0 0.110981 0 0 0 
trait 2 0.177531 0 0 0 0.195708 0 0 0 
trait 3 0.194528 0 0.6845 0 0 0 0 0 
node 1 2 1 3
node 2 1 1 1
node 3 1 1 1
node 4 3 0 2
node 8 1 0 0
node 23 1 0 0
node 73 1 0 0
gene 1 1 4 -4.33691 0 1 -4.33691 1
gene 2 2 4 -5.9747 0 2 -5.9747 1
gene 2 3 4 6.87793 0 3 6.87793 1
gene 1 3 8 -2.95292 0 10 -2.95292 0
gene 1 8 4 -2.81725 0 11 -2.81725 0
gene 1 3 23 4.88189 0 51 4.88189 1
gene 1 23 8 -0.530465 0 52 -0.530465 1
gene 1 2 23 -1.78407 0 73 -1.78407 1
gene 1 8 73 0.729911 0 208 0.729911 1
gene 1 73 4 0.481964 0 209 0.481964 1
gene 1 23 73 0.0406812 0 223 0.0406812 1
gene 3 1 23 -2.1063 0 252 -2.1063 1
genomeend 138

/* Organism #139 Fitness: 9 Error: 1 */
genomestart 139
trait 1 0.1 0 0.0491577 0 0.110981 0 0 0 
trait 2 0.177531 0 0 0 0.195708 0 0 0 
trait 3 0.3 0 0 0 0 0 0 0 
node 1 2 1 3
node 2 1 1 1
node 3 2 1 1
node 4 3 0 2
node 8 1 0 0
node 23 1 0 0
node 73 1 0 0
gene 1 1 4 -4.47523 0 1 -4.47523 1
gene 2 2 4 -7.43409 0 2 -7.43409 1
gene 2 3 4 7.56307 0 3 7.56307 1
gene 1 3 8 -3.74739 0 10 -3.74739 0
gene 1 8 4 -2.78978 0 11 -2.78978 0
gene 1 3 23 7.96197 0 51 7.96197 1
gene 1 23 8 0.238449 0 52 0.238449 1
gene 1 2 23 -2.94462 0 73 -2.94462 1
gene 1 8 73 0.634312 0 208 0.634312 1
gene 1 73 4 -1.22227 0 209 -1.22227 1
gene 1 23 73 -1.28359 0 223 -1.28359 1
gene 1 1 23 -0.687185 0 252 -0.687185 1
genomeend 139

/* Organism #140 Fitness: 8.97968 Error: 1.00339 */
genomestart 140
trait 1 0.1 0 0.0491577 0 0.110981 0 0 0 
trait 2 0.177531 0 0 0 0.195708 0 0 0 
trait 3 0.3 0 0 0 0 0 0 0 
node 1 2 1 3
node 2 1 1 1
node 3 2 1 1
node 4 3 0 2
node 8 1 0 0
node 23 1 0 0
node 73 1 0 0
gene 1 1 4 -1.28887 0 1 -1.28887 1
gene 2 2 4 -7.87669 0 2 -7.87669 1
gene 2 3 4 5.17866 0 3 5.17866 1
gene 1 3 8 -2.39169 0 10 -2.39169 0
gene 1 8 4 -2.92933 0 11 -2.92933 0
gene 1 3 23 8 0 51 8 1
gene 1 23 8 -2.4645 0 52 -2.4645 1
gene 1 2 23 -4.48656 0 73 -4.48656 1
gene 1 8 73 -1.37426 0 208 -1.37426 1
gene 1 73 4 1.4893 0 209 1.4893 1
gene 1 23 73 -1.8066 0 223 -1.8066 1
gene 1 1 23 -0.382305 0 252 -0.382305 1
genomeend 140

/* Organism #141 Fitness: 4.00058 Error: 1.99985 */
genomestart 141
trait 1 0.1 0 0.0491577 0 0.110981 0 0 0 
trait 2 0.177531 0 0 0 0.195708 0 0 0 
trait 3 0.3 0 0 0 0 0 0 0 
node 1 2 1 3
node 2 1 1 1
node 3 2 1 1
node 4 3 0 2
node 8 1 0 0
node 23 1 0 0
node 73 1 0 0
gene 1 1 4 -4.32989 0 1 -4.32989 1
gene 2 2 4 -5.91603 0 2 -5.91603 1
gene 2 3 4 4.39289 0 3 4.39289 1
gene 1 3 8 -3.76479 0 10 -3.76479 0
gene 1 8 4 -0.768006 0 11 -0.768006 0
gene 1 3 23 6.62548 0 51 6.62548 1
gene 1 23 8 0.364338 0 52 0.364338 1
gene 1 2 23 -6.34919 0 73 -6.34919 1
gene 1 8 73 0.0416425 0 208 0.0416425 1
gene 1 73 4 -2.54059 0 209 -2.54059 1
gene 1 23 73 0.167409 0 223 0.167409 1
gene 1 1 23 0.807764 0 252 0.807764 1
genomeend 141

/* Species #23 : (Size 7) (AF 6.85696) (Age 7)  */


/* Organism #142 Fitness: 8.99999 Error: 1 */
genomestart 142
trait 1 0.1 0 0 0 0 0 0 0 
trait 2 0.2 0 0 0 0 0 0 0 
trait 3 0.3 0.553484 0 0 0.247414 0 0.404981 0 
node 1 3 1 3
node 2 2 1 1
node 3 1 1 1
node 4 3 0 2
node 8 1 0 0
node 14 1 0 0
node 55 1 0 0
node 83 1 0 0
gene 1 1 4 7.8529 0 1 7.8529 1
gene 2 2 4 -5.8933 0 2 -5.8933 1
gene 1 3 4 -6.16112 0 3 -6.16112 1
gene 1 3 8 -1.44688 0 10 -1.44688 1
gene 1 8 4 -0.962409 0 11 -0.962409 1
gene 2 2 14 1.59783 0 26 1.59783 1
gene 2 14 4 1.04041 0 27 1.04041 1
gene 1 3 55 2.79888 0 150 2.79888 0
gene 1 55 8 -5.22629 0 151 -5.22629 1
gene 3 3 14 1.28224 0 168 1.28224 1
gene 1 3 83 1.05445 0 246 0.554445 1
gene 1 83 55 1.71909 0 247 0.859546 1
gene 3 55 14 0.656117 0 309 0.656117 1
genomeend 142

/* Organism #143 Fitness: 8.91329 Error: 1.01449 */
genomestart 143
trait 1 0.1 0 0 0 0 0 0 0 
trait 2 0.2 0 0 0 0 0 0 0 
trait 3 0.3 0.553484 0 0 0.247414 0 0.404981 0 
node 1 3 1 3
node 2 2 1 1
node 3 1 1 1
node 4 3 0 2
node 8 1 0 0
node 14 1 0 0
node 55 1 0 0
node 83 1 0 0
gene 1 1 4 8 0 1 8 1
gene 2 2 4 -5.19359 0 2 -5.19359 1
gene 1 3 4 -7.2633 0 3 -7.2633 1
gene 1 3 8 -3.36558 0 10 -3.36558 1
gene 1 8 4 -3.46149 0 11 -3.46149 1
gene 2 2 14 0.0938826 0 26 0.0938826 1
gene 2 14 4 0.120281 0 27 0.120281 1
gene 1 3 55 2.75737 0 150 2.75737 0
gene 1 55 8 -6.90802 0 151 -6.90802 1
gene 3 3 14 2.91559 0 168 2.91559 1
gene 1 3 83 2.19492 0 246 2.19492 1
gene 1 83 55 0.214011 0 247 0.214011 1
gene 3 55 14 3.02184 0 309 3.02184 1
genomeend 143

/* Organism #144 Fitness: 4 Error: 2 */
genomestart 144
trait 1 0.1 0 0 0 0 0 0 0 
trait 2 0.2 0 0 0 0 0 0 0 
trait 3 0.3 0.553484 0 0 0.247414 0 0.404981 0 
node 1 3 1 3
node 2 2 1 1
node 3 1 1 1
node 4 3 0 2
node 8 1 0 0
node 14 1 0 0
node 55 1 0 0
node 83 1 0 0
gene 1 1 4 6.65932 0 1 6.65932 1
gene 2 2 4 2.38517 0 2 2.38517 1
gene 1 3 4 -1.44917 0 3 -1.44917 1
gene 1 3 8 0.765404 0 10 0.765404 1
gene 1 8 4 -1.94663 0 11 -1.94663 1
gene 2 2 14 1.11999 0 26 1.11999 1
gene 2 14 4 2.90532 0 27 2.90532 1
gene 1 3 55 3.88259 0 150 3.88259 0
gene 1 55 8 -6.72704 0 151 -6.72704 1
gene 3 3 14 2.85813 0 168 2.85813 1
gene 1 3 83 -0.174459 0 246 -0.174459 1
gene 1 83 55 -1.79006 0 247 -1.79006 1
gene 3 55 14 0.689764 0 309 0.689764 1
genomeend 144

/* Organism #145 Fitness: 8.99999 Error: 1 */
genomestart 145
trait 1 0.1 0 0 0 0 0 0 0 
trait 2 0.2 0 0 0 0 0 0 0 
trait 3 0.3 0.553484 0 0 0.247414 0 0.404981 0 
node 1 3 1 3
node 2 2 1 1
node 3 1 1 1
node 4 3 0 2
node 8 1 0 0
node 14 1 0 0
node 55 1 0 0
node 83 1 0 0
node 107 1 0 0
gene 1 1 4 7.8529 0 1 7.8529 1
gene 2 2 4 -5.8933 0 2 -5.8933 1
gene 1 3 4 -6.16112 0 3 -6.16112 1
gene 1 3 8 -1.44688 0 10 -1.44688 0
gene 1 8 4 -0.962409 0 11 -0.962409 1
gene 2 2 14 1.59783 0 26 1.59783 1
gene 2 14 4 1.04041 0 27 1.04041 1
gene 1 3 55 2.79888 0 150 2.79888 0
gene 1 55 8 -5.22629 0 151 -5.22629 1
gene 3 3 14 1.28224 0 168 1.28224 1
gene 1 3 83 1.05445 0 246 0.554445 1
gene 1 83 55 1.71909 0 247 0.859546 1
gene 3 55 14 0.656117 0 309 0.656117 1
gene 1 3 107 1 0 319 0 1
gene 1 107 8 -1.44688 0 320 0 1
genomeend 145

/* Organism #146 Fitness: 4.00018 Error: 1.99995 */
genomestart 146
trait 1 0.1 0 0 0 0 0 0 0 
trait 2 0.929575 0 0.149236 0 0 0 0 0 
trait 3 0.3 0.553484 0 0 0.247414 0 0.404981 0 
node 1 3 1 3
node 2 2 1 1
node 3 1 1 1
node 4 3 0 2
node 8 1 0 0
node 14 1 0 0
node 55 1 0 0
node 83 1 0 0
gene 1 1 4 8 0 1 8 1
gene 2 2 4 -5.16131 0 2 -5.16131 1
gene 1 3 4 -0.108264 0 3 -0.108264 1
gene 1 3 8 -0.0593585 0 10 -0.0593585 1
gene 1 8 4 -2.74767 0 11 -2.74767 1
gene 2 2 14 2.09674 0 26 2.09674 1
gene 2 14 4 -0.879353 0 27 -0.879353 1
gene 1 3 55 4.31687 0 150 4.31687 0
gene 1 55 8 -3.22611 0 151 -3.22611 1
gene 3 3 14 -0.127415 0 168 -0.127415 1
gene 1 3 83 1.53806 0 246 1.53806 1
gene 1 83 55 1.55803 0 247 1.55803 1
genomeend 146

/* Organism #147 Fitness: 4.08529 Error: 1.97879 */
genomestart 147
trait 1 0.1 0 0 0 0 0 0 0 
trait 2 0.2 0 0 0 0 0 0 0 
trait 3 0.3 0.553484 0 0 0.247414 0 0.404981 0 
node 1 3 1 3
node 2 2 1 1
node 3 1 1 1
node 4 3 0 2
node 8 1 0 0
node 14 1 0 0
node 55 1 0 0
node 83 1 0 0
gene 1 1 4 8 0 1 8 1
gene 2 2 4 -5.74742 0 2 -5.74742 1
gene 1 3 4 -3.92488 0 3 -3.92488 1
gene 1 3 8 -3.17148 0 10 -3.17148 1
gene 1 8 4 -2.20626 0 11 -2.20626 1
gene 2 2 14 4.01368 0 26 4.01368 1
gene 2 14 4 2.45045 0 27 2.45045 1
gene 1 3 55 3.06805 0 150 3.06805 0
gene 1 55 8 -1.06182 0 151 -1.06182 1
gene 3 3 14 1.28224 0 168 1.28224 1
gene 1 3 83 1.60523 0 246 1.60523 1
gene 1 83 55 1.71909 0 247 1.71909 1
gene 3 55 14 -0.316202 0 309 -0.316202 1
genomeend 147

/* Organism #148 Fitness: 8.99999 Error: 1 */
genomestart 148
trait 1 0.1 0 0 0 0 0 0 0 
trait 2 0.2 0 0 0 0 0 0 0 
trait 3 0.3 0.553484 0 0 0.247414 0 0.404981 0 
node 1 3 1 3
node 2 2 1 1
node 3 1 1 1
node 4 3 0 2
node 8 1 0 0
node 14 1 0 0
node 55 1 0 0
node 83 1 0 0
gene 1 1 4 7.8529 0 1 7.8529 1
gene 2 2 4 -5.8933 0 2 -5.8933 1
gene 1 3 4 -6.16112 0 3 -6.16112 1
gene 1 3 8 -1.44688 0 10 -1.44688 1
gene 1 8 4 -0.962409 0 11 -0.962409 1
gene 2 2 14 1.59783 0 26 1.59783 1
gene 2 14 4 1.04041 0 27 1.04041 1
gene 1 3 55 2.79888 0 150 2.79888 0
gene 1 55 8 -5.22629 0 151 -5.22629 1
gene 3 3 14 1.28224 0 168 1.28224 1
gene 1 3 83 1.05445 0 246 0.554445 1
gene 1 83 55 1.71909 0 247 0.859546 1
gene 3 55 14 0.656117 0 309 0.656117 1
genomeend 148

/* Species #24 : (Size 1) (AF 9) (Age 2)  */


/* Organism #149 Fitness: 9 Error: 1 */
genomestart 149
trait 1 0.1 0 0.0491577 0 0.110981 0 0 0 
trait 2 0.155061 0 0 0 0.391415 0 0 0 
trait 3 1 0 0 0.0767541 0 0 0 0 
node 1 2 1 3
node 2 1 1 1
node 3 1 1 1
node 4 3 0 2
node 8 1 0 0
node 35 1 0 0
node 99 1 0 0
node 108 1 0 0
gene 1 1 4 -2.97461 0 1 -2.97461 1
gene 2 2 4 -8 0 2 -8 1
gene 1 3 4 7.18075 0 3 7.18075 1
gene 1 3 8 -1.86209 0 10 -1.86209 1
gene 1 8 4 -3.82563 0 11 -3.82563 1
gene 1 8 35 -2.54915 0 88 -2.54915 1
gene 1 35 4 1.0333 0 89 1.0333 0
gene 2 1 35 -0.898251 0 244 -0.898251 1
gene 1 35 99 1 0 295 0 0
gene 1 99 4 1.0333 0 296 0 1
gene 2 1 8 0.820307 0 307 0 1
gene 1 35 108 1 0 321 0 1
gene 1 108 99 1 0 322 0 1
genomeend 149
