
/* Species #34 : (Size 10) (AF 7.34385) (Age 15)  */


/* Organism #0 Fitness: 9 Error: 1 */
genomestart 0
trait 1 0.502676 0 0 0 0 0 0 0 
trait 2 0.2 0 0.57078 0 0.388379 0.29561 0 0.106192 
trait 3 0.3 0.436094 0.340175 0 0 0 0.394665 0 
node 1 3 1 3
node 2 3 1 1
node 3 2 1 1
node 4 1 0 2
node 11 3 0 0
node 37 1 0 0
node 63 1 0 0
node 80 1 0 0
node 94 1 0 0
node 204 1 0 0
node 213 1 0 0
gene 3 1 4 -6.87662 0 1 -6.87662 1
gene 3 2 4 8 0 2 8 1
gene 3 3 4 5.75444 0 3 5.75444 1
gene 3 2 11 -1.40879 0 16 -1.40879 1
gene 2 11 4 -1.00238 0 17 -1.00238 0
gene 1 11 37 1.38045 0 99 1.38045 1
gene 1 37 4 7.05499 0 100 7.05499 1
gene 1 2 37 2.69284 0 122 2.69284 1
gene 2 3 11 5.14908 0 177 5.14908 1
gene 2 3 63 -1.08558 0 184 -1.08558 1
gene 2 63 11 -4.47152 0 185 -4.47152 1
gene 2 3 80 -7.7559 0 237 -7.7559 1
gene 2 80 11 -0.520493 0 238 -0.520493 1
gene 2 3 94 -0.318537 0 275 -0.318537 1
gene 2 94 80 -1.13201 0 276 -1.13201 1
gene 1 94 37 -4.36014 0 282 -4.36014 1
gene 2 3 37 3.50787 0 337 3.50787 1
gene 2 3 204 0.196387 0 637 0.196387 1
gene 2 204 11 5.8056 0 638 5.8056 1
gene 2 11 213 0.976049 0 661 0.976049 1
gene 2 213 4 0.864435 0 662 0.864435 1
gene 1 63 4 -1.48401 0 715 -1.48401 1
gene 1 94 63 0.279275 0 792 0.279275 1
genomeend 0

/* Organism #1 Fitness: 8.99916 Error: 1.00014 */
genomestart 1
trait 1 0.502676 0 0 0 0 0 0 0 
trait 2 0.2 0 0.57078 0 0.388379 0.29561 0 0.106192 
trait 3 0.3 0.436094 0.340175 0 0 0 0.394665 0 
node 1 3 1 3
node 2 3 1 1
node 3 2 1 1
node 4 1 0 2
node 11 1 0 0
node 37 1 0 0
node 63 1 0 0
node 80 1 0 0
node 94 1 0 0
node 204 1 0 0
node 213 1 0 0
gene 3 1 4 -4.43285 0 1 -4.43285 1
gene 3 2 4 8 0 2 8 1
gene 3 3 4 7.36261 0 3 7.36261 1
gene 3 2 11 0.515557 0 16 0.515557 1
gene 2 11 4 1.6728 0 17 1.6728 0
gene 1 11 37 2.12905 0 99 2.12905 1
gene 1 37 4 5.12592 0 100 5.12592 1
gene 1 2 37 4.52128 0 122 4.52128 1
gene 2 3 11 3.85402 0 177 3.85402 1
gene 2 3 63 -3.4838 0 184 -3.4838 1
gene 3 63 11 -5.91757 0 185 -5.91757 1
gene 2 3 80 -5.59145 0 237 -5.59145 1
gene 2 80 11 -0.520493 0 238 -0.520493 1
gene 2 3 94 -0.349055 0 275 -0.349055 1
gene 2 94 80 -1.57392 0 276 -1.57392 1
gene 1 94 37 0.414594 0 282 0.414594 1
gene 2 3 37 1.46389 0 337 1.46389 1
gene 2 3 204 1.08226 0 637 1.08226 1
gene 2 204 11 7.13171 0 638 7.13171 1
gene 2 11 213 -0.0273999 0 661 -0.0273999 1
gene 2 213 4 0.666904 0 662 0.666904 1
gene 1 63 4 -1.48401 0 715 -1.48401 1
gene 1 94 63 1.93587 0 792 1.93587 1
genomeend 1

/* Organism #2 Fitness: 9 Error: 1 */
genomestart 2
trait 1 0 0.601367 0 0 0 0.494339 0 0 
trait 2 0.2 0 0.57078 0 0.388379 0.29561 0 0.106192 
trait 3 0.3 0.436094 0.340175 0 0 0 0.394665 0 
node 1 3 1 3
node 2 3 1 1
node 3 2 1 1
node 4 1 0 2
node 11 3 0 0
node 37 1 0 0
node 63 1 0 0
node 80 1 0 0
node 94 1 0 0
node 204 1 0 0
node 213 1 0 0
gene 3 1 4 -4.1697 0 1 -4.1697 1
gene 3 2 4 8 0 2 8 1
gene 3 3 4 6.83556 0 3 6.83556 1
gene 3 2 11 -1.9772 0 16 -1.9772 1
gene 2 11 4 2.01636 0 17 2.01636 0
gene 1 11 37 2.0018 0 99 2.0018 1
gene 1 37 4 5.53517 0 100 5.53517 1
gene 1 2 37 6.2986 0 122 6.2986 1
gene 2 3 11 3.30347 0 177 3.30347 1
gene 2 3 63 -0.210463 0 184 -0.210463 1
gene 2 63 11 -3.78562 0 185 -3.78562 1
gene 2 3 80 1.82875 0 237 1.82875 1
gene 2 80 11 -1.27949 0 238 -1.27949 1
gene 2 3 94 1.4246 0 275 1.4246 1
gene 2 94 80 -0.596561 0 276 -0.596561 1
gene 1 94 37 -2.53739 0 282 -2.53739 1
gene 2 3 37 1.19472 0 337 1.19472 1
gene 2 3 204 -0.168004 0 637 -0.168004 1
gene 2 204 11 2.34259 0 638 2.34259 1
gene 2 11 213 -1.8556 0 661 -1.8556 1
gene 2 213 4 4.1274 0 662 4.1274 1
gene 1 63 4 -1.21102 0 715 -1.21102 1
gene 1 94 63 1.28185 0 792 1.28185 1
genomeend 2

/* Organism #3 Fitness: 9 Error: 1 */
genomestart 3
trait 1 0.502676 0 0 0 0 0 0 0 
trait 2 0.2 0 0.778886 0 0.194189 0.29561 0 0.124762 
trait 3 0.3 0.436094 0.340175 0 0 0 0.394665 0 
node 1 3 1 3
node 2 3 1 1
node 3 2 1 1
node 4 1 0 2
node 11 3 0 0
node 37 1 0 0
node 63 1 0 0
node 80 1 0 0
node 94 1 0 0
node 204 1 0 0
node 213 1 0 0
gene 3 1 4 -6.85155 0 1 -6.85155 1
gene 3 2 4 7.19012 0 2 7.19012 1
gene 3 3 4 5.92389 0 3 5.92389 1
gene 3 2 11 -0.865978 0 16 -0.865978 1
gene 2 11 4 -0.721994 0 17 -0.721994 1
gene 1 11 37 1.41745 0 99 1.41745 1
gene 1 37 4 5.82701 0 100 5.82701 1
gene 1 2 37 3.02973 0 122 3.02973 1
gene 2 3 11 6.13906 0 177 6.13906 1
gene 2 3 63 -1.17084 0 184 -1.17084 1
gene 2 63 11 -5.61269 0 185 -5.61269 1
gene 2 3 80 -6.60257 0 237 -6.60257 1
gene 2 80 11 -0.89423 0 238 -0.89423 1
gene 2 3 94 -0.266923 0 275 -0.266923 1
gene 2 94 80 -1.08283 0 276 -1.08283 1
gene 1 94 37 -4.48271 0 282 -4.48271 1
gene 2 3 37 2.97677 0 337 2.97677 1
gene 2 3 204 0.960456 0 637 0.960456 1
gene 2 204 11 6.60526 0 638 6.60526 1
gene 2 11 213 0.616045 0 661 0.616045 1
gene 2 213 4 1.06181 0 662 1.06181 1
gene 1 63 4 -2.22446 0 715 -2.22446 1
gene 1 94 63 0.279275 0 792 0.279275 1
gene 2 63 37 -0.395642 0 825 -0.395642 1
genomeend 3

/* Organism #4 Fitness: 4.00083 Error: 1.99979 */
genomestart 4
trait 1 0.502676 0 0 0 0 0 0 0 
trait 2 0.2 0 0.57078 0 0.388379 0.29561 0 0.106192 
trait 3 0.3 0.436094 0.340175 0 0 0 0.394665 0 
node 1 3 1 3
node 2 3 1 1
node 3 2 1 1
node 4 1 0 2
node 11 3 0 0
node 37 1 0 0
node 63 1 0 0
node 80 1 0 0
node 94 1 0 0
node 204 1 0 0
node 213 1 0 0
gene 3 1 4 -6.87662 0 1 -6.87662 1
gene 3 2 4 8 0 2 8 1
gene 3 3 4 5.75444 0 3 5.75444 1
gene 3 2 11 -0.250076 0 16 -0.250076 1
gene 2 11 4 0.303812 0 17 0.303812 0
gene 1 11 37 1.38045 0 99 1.38045 1
gene 1 37 4 7.05499 0 100 7.05499 1
gene 1 2 37 2.69284 0 122 2.69284 1
gene 2 3 11 5.14908 0 177 5.14908 1
gene 2 3 63 1.34674 0 184 1.34674 1
gene 2 63 11 -5.30193 0 185 -5.30193 1
gene 2 3 80 -7.7559 0 237 -7.7559 1
gene 2 80 11 1.19366 0 238 1.19366 1
gene 2 3 94 0.943632 0 275 0.943632 1
gene 2 94 80 -1.13201 0 276 -1.13201 1
gene 1 94 37 -4.36014 0 282 -4.36014 1
gene 2 3 37 3.12738 0 337 3.12738 1
gene 2 3 204 -1.95906 0 637 -1.95906 1
gene 2 204 11 5.8056 0 638 5.8056 1
gene 2 11 213 0.976049 0 661 0.976049 1
gene 2 213 4 0.864435 0 662 0.864435 1
gene 1 63 4 -1.48401 0 715 -1.48401 1
gene 1 94 63 2.16834 0 792 2.16834 1
gene 2 204 37 -0.486312 0 826 -0.486312 1
genomeend 4

/* Organism #5 Fitness: 9 Error: 1 */
genomestart 5
trait 1 0.502676 0 0 0 0 0 0 0 
trait 2 0.2 0 0.778886 0 0.194189 0.29561 0 0.124762 
trait 3 0.3 0.436094 0.340175 0 0 0 0.394665 0 
node 1 3 1 3
node 2 3 1 1
node 3 2 1 1
node 4 1 0 2
node 11 3 0 0
node 37 1 0 0
node 63 1 0 0
node 80 1 0 0
node 94 1 0 0
node 204 1 0 0
node 213 1 0 0
gene 3 1 4 -5.79653 0 1 -5.79653 1
gene 3 2 4 7.19012 0 2 7.19012 1
gene 3 3 4 5.92389 0 3 5.92389 1
gene 3 2 11 -0.286622 0 16 -0.286622 1
gene 2 11 4 -0.0688965 0 17 -0.0688965 0
gene 1 11 37 1.41745 0 99 1.41745 1
gene 1 37 4 6.29951 0 100 6.29951 1
gene 1 2 37 3.60546 0 122 3.60546 1
gene 2 3 11 6.13906 0 177 6.13906 1
gene 2 3 63 0.04532 0 184 0.04532 1
gene 2 63 11 -6.02789 0 185 -6.02789 1
gene 2 3 80 -2.52796 0 237 -2.52796 1
gene 2 80 11 -0.0371563 0 238 -0.0371563 1
gene 2 3 94 0.364162 0 275 0.364162 1
gene 2 94 80 -0.960837 0 276 -0.960837 1
gene 1 94 37 -2.69728 0 282 -2.69728 1
gene 2 3 37 2.78652 0 337 2.78652 1
gene 2 3 204 -0.117267 0 637 -0.117267 1
gene 2 204 11 5.68009 0 638 5.68009 1
gene 2 11 213 0.616045 0 661 0.616045 1
gene 2 213 4 2.21835 0 662 2.21835 1
gene 1 63 4 -2.22446 0 715 -2.22446 1
gene 1 94 63 1.22381 0 792 1.22381 1
genomeend 5

/* Organism #6 Fitness: 8.99647 Error: 1.00059 */
genomestart 6
trait 1 0.502676 0 0 0 0 0 0 0 
trait 2 0.2 0 0.57078 0 0.388379 0.29561 0 0.106192 
trait 3 0.3 0.436094 0.340175 0 0 0 0.394665 0 
node 1 3 1 3
node 2 3 1 1
node 3 2 1 1
node 4 1 0 2
node 11 3 0 0
node 37 1 0 0
node 63 1 0 0
node 80 3 0 0
node 94 1 0 0
node 204 1 0 0
node 213 1 0 0
gene 3 1 4 -8 0 1 -8 1
gene 3 2 4 7.89669 0 2 7.89669 1
gene 3 3 4 3.51804 0 3 3.51804 1
gene 3 2 11 -3.72659 0 16 -3.72659 1
gene 2 11 4 -1.71606 0 17 -1.71606 0
gene 1 11 37 -0.483852 0 99 -0.483852 1
gene 1 37 4 8 0 100 8 1
gene 1 2 37 1.35498 0 122 1.35498 1
gene 2 3 11 3.86997 0 177 3.86997 1
gene 2 3 63 0.837848 0 184 0.837848 1
gene 2 63 11 -4.75558 0 185 -4.75558 1
gene 2 3 80 -0.580615 0 237 -0.580615 1
gene 2 80 11 -1.46519 0 238 -1.46519 1
gene 2 3 94 -0.54384 0 275 -0.54384 1
gene 2 94 80 -0.510651 0 276 -0.510651 1
gene 1 94 37 -6.80269 0 282 -6.80269 1
gene 2 3 37 1.35807 0 337 1.35807 1
gene 2 3 204 0.196387 0 637 0.196387 1
gene 2 204 11 6.31931 0 638 6.31931 1
gene 2 11 213 2.93534 0 661 2.93534 1
gene 2 213 4 3.24686 0 662 3.24686 1
gene 1 63 4 -1.01718 0 715 -1.01718 1
gene 1 94 63 -1.17898 0 792 -1.17898 1
genomeend 6

/* Organism #7 Fitness: 2.44205 Error: 2.43729 */
genomestart 7
trait 1 0.502676 0 0 0 0 0 0.954497 0.773247 
trait 2 0.2 0 0.986991 0 0 0.29561 0 0.143333 
trait 3 0.3 0.436094 0.340175 0 0 0 0.394665 0 
node 1 3 1 3
node 2 3 1 1
node 3 2 1 1
node 4 1 0 2
node 11 3 0 0
node 37 1 0 0
node 63 1 0 0
node 80 1 0 0
node 94 1 0 0
node 204 1 0 0
node 213 1 0 0
gene 3 1 4 -7.51362 0 1 -7.51362 1
gene 3 2 4 6.21612 0 2 6.21612 1
gene 3 3 4 6.14737 0 3 6.14737 1
gene 3 2 11 -2.46511 0 16 -2.46511 1
gene 2 11 4 1.3702 0 17 1.3702 0
gene 1 11 37 0.533177 0 99 0.533177 1
gene 1 37 4 4.59902 0 100 4.59902 1
gene 1 2 37 3.36661 0 122 3.36661 1
gene 2 3 11 6.71338 0 177 6.71338 1
gene 2 3 63 0.788102 0 184 0.788102 1
gene 2 63 11 -4.93991 0 185 -4.93991 1
gene 2 3 80 -4.16952 0 237 -4.16952 1
gene 2 80 11 -0.692083 0 238 -0.692083 1
gene 2 3 94 2.27569 0 275 2.27569 1
gene 2 94 80 -0.701239 0 276 -0.701239 1
gene 1 94 37 -4.60528 0 282 -4.60528 1
gene 2 3 37 2.49397 0 337 2.49397 1
gene 2 3 204 2.81503 0 637 2.81503 1
gene 2 204 11 -1.84179 0 638 -1.84179 1
gene 2 11 213 -1.29261 0 661 -1.29261 1
gene 2 213 4 1.19953 0 662 1.19953 1
gene 1 63 4 -3.83432 0 715 -3.83432 1
gene 1 94 63 2.48134 0 792 2.48134 1
genomeend 7

/* Organism #8 Fitness: 3.99998 Error: 2 */
genomestart 8
trait 1 0.502676 0 0 0 0 0 0 0 
trait 2 0.2 0 0.986991 0 0 0.29561 0 0.143333 
trait 3 0.3 0.436094 0.340175 0 0 0 0.394665 0 
node 1 3 1 3
node 2 3 1 1
node 3 2 1 1
node 4 1 0 2
node 11 3 0 0
node 37 1 0 0
node 63 1 0 0
node 80 1 0 0
node 94 1 0 0
node 204 1 0 0
node 213 1 0 0
gene 3 1 4 -6.82649 0 1 -6.82649 1
gene 3 2 4 5.50908 0 2 5.50908 1
gene 3 3 4 -1.38997 0 3 -1.38997 1
gene 3 2 11 -0.353076 0 16 -0.353076 1
gene 2 11 4 -1.35212 0 17 -1.35212 0
gene 1 11 37 0.727809 0 99 0.727809 1
gene 1 37 4 4.44147 0 100 4.44147 1
gene 1 2 37 0.880192 0 122 0.880192 1
gene 2 3 11 6.68988 0 177 6.68988 1
gene 2 3 63 -2.04234 0 184 -2.04234 1
gene 2 63 11 -6.75385 0 185 -6.75385 1
gene 2 3 80 -5.08263 0 237 -5.08263 1
gene 2 80 11 -2.37396 0 238 -2.37396 1
gene 2 3 94 1.49648 0 275 1.49648 1
gene 2 94 80 -2.32345 0 276 -2.32345 1
gene 1 94 37 -6.43486 0 282 -6.43486 1
gene 2 3 37 2.22128 0 337 2.22128 1
gene 2 3 204 -0.669195 0 637 -0.669195 1
gene 2 204 11 5.85931 0 638 5.85931 1
gene 2 11 213 0.256041 0 661 0.256041 1
gene 2 213 4 1.25919 0 662 1.25919 1
gene 1 63 4 -3.89787 0 715 -3.89787 1
gene 1 94 63 1.75881 0 792 1.75881 1
genomeend 8

/* Organism #9 Fitness: 9 Error: 1 */
genomestart 9
trait 1 0.502676 0 0 0 0 0 0 0 
trait 2 0.2 0 0.778886 0 0.194189 0.29561 0 0.124762 
trait 3 0.3 0.436094 0.340175 0 0 0 0.394665 0 
node 1 3 1 3
node 2 3 1 1
node 3 2 1 1
node 4 1 0 2
node 11 3 0 0
node 37 1 0 0
node 63 1 0 0
node 80 1 0 0
node 94 1 0 0
node 204 1 0 0
node 213 1 0 0
gene 3 1 4 -4.76657 0 1 -4.76657 1
gene 3 2 4 6.38023 0 2 6.38023 1
gene 3 3 4 5.75444 0 3 5.75444 1
gene 3 2 11 -0.250076 0 16 -0.250076 1
gene 2 11 4 -0.441605 0 17 -0.441605 0
gene 1 11 37 1.38045 0 99 1.38045 1
gene 1 37 4 4.59902 0 100 4.59902 1
gene 1 2 37 3.36661 0 122 3.36661 1
gene 2 3 11 7.12904 0 177 7.12904 1
gene 2 3 63 1.34674 0 184 1.34674 1
gene 2 63 11 -5.30193 0 185 -5.30193 1
gene 2 3 80 -5.44923 0 237 -5.44923 1
gene 2 80 11 1.19366 0 238 1.19366 1
gene 2 3 94 -0.215308 0 275 -0.215308 1
gene 2 94 80 -1.03366 0 276 -1.03366 1
gene 1 94 37 -4.60528 0 282 -4.60528 1
gene 2 3 37 3.12738 0 337 3.12738 1
gene 2 3 204 -1.95906 0 637 -1.95906 1
gene 2 204 11 7.40492 0 638 7.40492 1
gene 2 11 213 0.976049 0 661 0.976049 1
gene 2 213 4 1.25919 0 662 1.25919 1
gene 1 63 4 -2.96492 0 715 -2.96492 1
gene 1 94 63 0.279275 0 792 0.279275 1
genomeend 9

/* Species #35 : (Size 9) (AF 8.18589) (Age 13)  */


/* Organism #10 Fitness: 9 Error: 1 */
genomestart 10
trait 1 0.502676 0 0 0 0 0 0 0 
trait 2 0.58847 0 0.57078 0 0 0.29561 0.750206 1 
trait 3 0.3 0.436094 0.340175 0 0 0 0.394665 0 
node 1 3 1 3
node 2 3 1 1
node 3 2 1 1
node 4 1 0 2
node 11 3 0 0
node 37 1 0 0
node 63 1 0 0
node 80 1 0 0
node 94 1 0 0
node 216 1 0 0
gene 3 1 4 -8 0 1 -8 1
gene 3 2 4 7.77744 0 2 7.77744 1
gene 3 3 4 6.98693 0 3 6.98693 1
gene 3 2 11 1.64741 0 16 1.64741 1
gene 2 11 4 -0.0154139 0 17 -0.0154139 1
gene 1 11 37 1.26965 0 99 1.26965 1
gene 1 37 4 7.98199 0 100 7.98199 1
gene 1 2 37 2.41089 0 122 2.41089 1
gene 2 3 11 4.66566 0 177 4.66566 1
gene 2 3 63 1.50727 0 184 1.50727 1
gene 2 63 11 -1.10752 0 185 -1.10752 1
gene 2 3 80 -7.22907 0 237 -7.22907 1
gene 2 80 11 -1.47786 0 238 -1.47786 0
gene 2 3 94 -1.26553 0 275 -1.26553 0
gene 2 94 80 -0.716613 0 276 -0.716613 1
gene 1 94 37 -3.05361 0 282 -3.05361 1
gene 2 3 37 4.46812 0 337 4.46812 1
gene 1 63 4 1.45999 0 607 1.45999 1
gene 2 80 4 -2.28739 0 656 -2.28739 1
gene 2 3 216 0.771569 0 669 0.771569 1
gene 2 216 94 0.15656 0 670 0.15656 1
gene 1 216 63 -0.950438 0 687 -0.950438 1
gene 3 2 80 -0.220038 0 729 -0.220038 1
genomeend 10

/* Organism #11 Fitness: 9 Error: 1 */
genomestart 11
trait 1 0.502676 0 0 0 0 0 0 0 
trait 2 0.58847 0 0.57078 0 0 0.29561 0.750206 1 
trait 3 0.3 0.436094 0.340175 0 0 0 0.394665 0 
node 1 3 1 3
node 2 3 1 1
node 3 2 1 1
node 4 1 0 2
node 11 3 0 0
node 37 1 0 0
node 63 1 0 0
node 80 1 0 0
node 94 1 0 0
node 216 1 0 0
gene 3 1 4 -8 0 1 -8 1
gene 3 2 4 8 0 2 8 1
gene 3 3 4 7.07963 0 3 7.07963 1
gene 3 2 11 2.67283 0 16 2.67283 1
gene 2 11 4 -2.21275 0 17 -2.21275 1
gene 1 11 37 3.69327 0 99 3.69327 1
gene 1 37 4 6.36009 0 100 6.36009 1
gene 1 2 37 4.61745 0 122 4.61745 1
gene 2 3 11 3.88477 0 177 3.88477 1
gene 2 3 63 0.0519959 0 184 0.0519959 1
gene 2 63 11 -0.237892 0 185 -0.237892 1
gene 2 3 80 -8 0 237 -8 1
gene 2 80 11 -3.03934 0 238 -3.03934 0
gene 2 3 94 -0.629597 0 275 -0.629597 0
gene 2 94 80 -2.98429 0 276 -2.98429 1
gene 1 94 37 -4.24329 0 282 -4.24329 1
gene 2 3 37 6.92776 0 337 6.92776 1
gene 1 63 4 0.86259 0 607 0.86259 1
gene 2 80 4 -3.34089 0 656 -3.34089 1
gene 2 3 216 0.771569 0 669 0.771569 1
gene 2 216 94 0.211188 0 670 0.211188 1
gene 1 216 63 -0.28544 0 687 -0.28544 1
gene 3 2 80 -2.60651 0 729 -2.60651 1
genomeend 11

/* Organism #12 Fitness: 8.98901 Error: 1.00183 */
genomestart 12
trait 1 0.502676 0 0 0 0 0 0 0 
trait 2 0.58847 0 0.57078 0 0 0.29561 0.750206 1 
trait 3 0.3 0.436094 0.340175 0 0 0 0.394665 0 
node 1 3 1 3
node 2 3 1 1
node 3 2 1 1
node 4 1 0 2
node 11 3 0 0
node 37 1 0 0
node 63 1 0 0
node 80 1 0 0
node 94 1 0 0
node 216 1 0 0
gene 3 1 4 -8 0 1 -8 1
gene 3 2 4 8 0 2 8 1
gene 3 3 4 7.07963 0 3 7.07963 1
gene 3 2 11 2.22429 0 16 2.22429 1
gene 2 11 4 -3.49254 0 17 -3.49254 1
gene 1 11 37 3.68725 0 99 3.68725 1
gene 1 37 4 6.36009 0 100 6.36009 1
gene 1 2 37 1.48824 0 122 1.48824 1
gene 2 3 11 6.00321 0 177 6.00321 1
gene 2 3 63 0.0519959 0 184 0.0519959 1
gene 2 63 11 -0.502258 0 185 -0.502258 1
gene 2 3 80 1.27018 0 237 1.27018 1
gene 2 80 11 -3.03934 0 238 -3.03934 0
gene 2 3 94 0.443205 0 275 0.443205 0
gene 2 94 80 -4.23196 0 276 -4.23196 1
gene 1 94 37 -5.11567 0 282 -5.11567 1
gene 2 3 37 7.47847 0 337 7.47847 1
gene 1 63 4 2.68538 0 607 2.68538 1
gene 2 80 4 -3.34089 0 656 -3.34089 1
gene 2 3 216 2.82371 0 669 2.82371 1
gene 2 216 94 -0.767006 0 670 -0.767006 1
gene 1 216 63 0.917905 0 687 0.917905 1
gene 3 2 80 -0.170141 0 729 -0.170141 1
genomeend 12

/* Organism #13 Fitness: 9 Error: 1 */
genomestart 13
trait 1 0.502676 0 0 0 0 0 0 0 
trait 2 0.58847 0 0.57078 0 0 0.29561 0.750206 1 
trait 3 0.3 0.436094 0.340175 0 0 0 0.394665 0 
node 1 3 1 3
node 2 3 1 1
node 3 1 1 1
node 4 1 0 2
node 11 3 0 0
node 37 1 0 0
node 63 1 0 0
node 80 1 0 0
node 94 1 0 0
node 216 1 0 0
gene 3 1 4 -8 0 1 -8 1
gene 3 2 4 7.77744 0 2 7.77744 1
gene 3 3 4 6.98693 0 3 6.98693 1
gene 3 2 11 -1.48732 0 16 -1.48732 1
gene 2 11 4 -0.0154139 0 17 -0.0154139 1
gene 1 11 37 0.770058 0 99 0.770058 1
gene 1 37 4 7.98199 0 100 7.98199 1
gene 1 2 37 2.41089 0 122 2.41089 1
gene 2 3 11 4.66566 0 177 4.66566 1
gene 2 3 63 1.82749 0 184 1.82749 1
gene 2 63 11 -1.10752 0 185 -1.10752 1
gene 2 3 80 -5.25727 0 237 -5.25727 1
gene 2 80 11 -1.47786 0 238 -1.47786 0
gene 2 3 94 -1.26553 0 275 -1.26553 0
gene 2 94 80 -0.716613 0 276 -0.716613 1
gene 1 94 37 -1.88231 0 282 -1.88231 1
gene 2 3 37 2.05489 0 337 2.05489 1
gene 1 63 4 1.24545 0 607 1.24545 1
gene 2 80 4 -2.28739 0 656 -2.28739 1
gene 2 3 216 -0.548036 0 669 -0.548036 1
gene 2 216 94 0.15656 0 670 0.15656 1
gene 1 216 63 -0.950438 0 687 -0.950438 1
gene 3 2 80 2.03902 0 729 2.03902 1
genomeend 13

/* Organism #14 Fitness: 1.684 Error: 2.70231 */
genomestart 14
trait 1 0.502676 0 0 0 0 0 0 0 
trait 2 0.58847 0 0.57078 0 0 0.29561 0.750206 1 
trait 3 0.3 0.436094 0.340175 0 0 0 0.394665 0 
node 1 3 1 3
node 2 3 1 1
node 3 2 1 1
node 4 1 0 2
node 11 3 0 0
node 37 1 0 0
node 63 1 0 0
node 80 1 0 0
node 94 2 0 0
node 216 1 0 0
gene 3 1 4 -8 0 1 -8 1
gene 3 2 4 7.45021 0 2 7.45021 1
gene 3 3 4 4.93784 0 3 4.93784 1
gene 3 2 11 1.46603 0 16 1.46603 1
gene 2 11 4 -1.90939 0 17 -1.90939 1
gene 1 11 37 1.99034 0 99 1.99034 1
gene 1 37 4 2.17467 0 100 2.17467 1
gene 1 2 37 4.88403 0 122 4.88403 1
gene 2 3 11 3.13668 0 177 3.13668 1
gene 2 3 63 -0.97396 0 184 -0.97396 1
gene 2 63 11 -1.96173 0 185 -1.96173 1
gene 2 3 80 -8 0 237 -8 1
gene 2 80 11 0.961104 0 238 0.961104 0
gene 2 3 94 -1.26553 0 275 -1.26553 0
gene 2 94 80 -1.22215 0 276 -1.22215 1
gene 1 94 37 1.76374 0 282 1.76374 1
gene 2 3 37 5.22941 0 337 5.22941 1
gene 1 63 4 1.21729 0 607 1.21729 1
gene 2 80 4 -4.84942 0 656 -4.84942 1
gene 2 3 216 2.39744 0 669 2.39744 1
gene 2 216 94 2.48947 0 670 2.48947 1
gene 1 216 63 -0.950438 0 687 -0.950438 1
gene 3 2 80 -2.01903 0 729 -2.01903 1
genomeend 14

/* Organism #15 Fitness: 9 Error: 1 */
genomestart 15
trait 1 0.502676 0 0 0 0 0 0 0 
trait 2 0.58847 0 0.57078 0 0 0.29561 0.750206 1 
trait 3 0.3 0.436094 0.340175 0 0 0 0.394665 0 
node 1 3 1 3
node 2 3 1 1
node 3 2 1 1
node 4 1 0 2
node 11 3 0 0
node 37 1 0 0
node 63 1 0 0
node 80 1 0 0
node 94 1 0 0
node 216 1 0 0
gene 3 1 4 -7.86297 0 1 -7.86297 1
gene 3 2 4 8 0 2 8 1
gene 3 3 4 8 0 3 8 1
gene 3 2 11 1.61087 0 16 1.61087 1
gene 2 11 4 -0.885878 0 17 -0.885878 1
gene 1 11 37 4.54955 0 99 4.54955 1
gene 1 37 4 8 0 100 8 1
gene 1 2 37 2.78459 0 122 2.78459 1
gene 2 3 11 3.41051 0 177 3.41051 1
gene 2 3 63 3.02541 0 184 3.02541 1
gene 2 63 11 -0.122303 0 185 -0.122303 1
gene 2 3 80 -7.29334 0 237 -7.29334 1
gene 2 80 11 -4.90364 0 238 -4.90364 0
gene 2 3 94 -2.02017 0 275 -2.02017 0
gene 2 94 80 0.463004 0 276 0.463004 1
gene 1 94 37 -4.87594 0 282 -4.87594 1
gene 2 3 37 4.49162 0 337 4.49162 1
gene 1 63 4 -0.562777 0 607 -0.562777 1
gene 2 80 4 -4.48755 0 656 -4.48755 1
gene 2 3 216 -0.683462 0 669 -0.683462 1
gene 2 216 94 1.05487 0 670 1.05487 1
gene 1 216 63 -0.646153 0 687 -0.646153 1
gene 3 2 80 -2.60651 0 729 -2.60651 1
genomeend 15

/* Organism #16 Fitness: 9 Error: 1 */
genomestart 16
trait 1 0.502676 0 0 0 0 0 0 0 
trait 2 0.58847 0 0.57078 0 0 0.29561 0.750206 1 
trait 3 0.3 0.436094 0.340175 0 0 0 0.394665 0 
node 1 3 1 3
node 2 3 1 1
node 3 1 1 1
node 4 1 0 2
node 11 3 0 0
node 37 1 0 0
node 63 1 0 0
node 80 1 0 0
node 94 1 0 0
node 216 1 0 0
gene 3 1 4 -8 0 1 -8 1
gene 2 2 4 7.94911 0 2 7.94911 1
gene 3 3 4 6.98693 0 3 6.98693 1
gene 3 2 11 1.64741 0 16 1.64741 1
gene 2 11 4 -1.62389 0 17 -1.62389 1
gene 1 11 37 0.770058 0 99 0.770058 1
gene 1 37 4 7.98199 0 100 7.98199 1
gene 1 2 37 2.41089 0 122 2.41089 1
gene 2 3 11 4.66566 0 177 4.66566 1
gene 2 3 63 1.50727 0 184 1.50727 1
gene 2 63 11 -1.10752 0 185 -1.10752 1
gene 2 3 80 -5.25727 0 237 -5.25727 1
gene 2 80 11 -1.47786 0 238 -1.47786 0
gene 2 3 94 -1.26553 0 275 -1.26553 0
gene 2 94 80 -0.716613 0 276 -0.716613 1
gene 1 94 37 -1.88231 0 282 -1.88231 1
gene 2 3 37 4.46812 0 337 4.46812 1
gene 1 63 4 1.45999 0 607 1.45999 1
gene 2 80 4 -2.20454 0 656 -2.20454 1
gene 2 3 216 0.771569 0 669 0.771569 1
gene 2 216 94 0.193564 0 670 0.193564 1
gene 1 216 63 -0.950438 0 687 -0.950438 1
gene 3 2 80 2.03902 0 729 2.03902 1
genomeend 16

/* Organism #17 Fitness: 9 Error: 1 */
genomestart 17
trait 1 0.502676 0 0 0 0 0 0 0 
trait 2 0.58847 0 0.57078 0 0 0.29561 0.750206 1 
trait 3 0.3 0.436094 0.340175 0 0 0 0.394665 0 
node 1 3 1 3
node 2 3 1 1
node 3 2 1 1
node 4 1 0 2
node 11 3 0 0
node 37 1 0 0
node 63 1 0 0
node 80 3 0 0
node 94 1 0 0
node 216 1 0 0
gene 3 1 4 -8 0 1 -8 1
gene 3 2 4 7.77744 0 2 7.77744 1
gene 3 3 4 6.98693 0 3 6.98693 1
gene 3 2 11 -1.48732 0 16 -1.48732 1
gene 2 11 4 -0.0154139 0 17 -0.0154139 1
gene 1 11 37 0.770058 0 99 0.770058 1
gene 1 37 4 7.98199 0 100 7.98199 1
gene 1 2 37 2.41089 0 122 2.41089 1
gene 2 3 11 3.76658 0 177 3.76658 1
gene 2 3 63 1.50727 0 184 1.50727 1
gene 2 63 11 -1.10752 0 185 -1.10752 1
gene 2 3 80 -5.25727 0 237 -5.25727 1
gene 2 80 11 -1.72697 0 238 -1.72697 0
gene 2 3 94 -0.848491 0 275 -0.848491 0
gene 2 94 80 -0.716613 0 276 -0.716613 1
gene 1 94 37 -3.05361 0 282 -3.05361 1
gene 2 3 37 2.05489 0 337 2.05489 1
gene 1 63 4 1.45999 0 607 1.45999 1
gene 2 80 4 -2.28739 0 656 -2.28739 1
gene 2 3 216 0.771569 0 669 0.771569 1
gene 2 216 94 0.15656 0 670 0.15656 1
gene 1 216 63 0.975356 0 687 0.975356 1
gene 3 2 80 -0.220038 0 729 -0.220038 1
genomeend 17

/* Organism #18 Fitness: 9 Error: 1 */
genomestart 18
trait 1 0.502676 0 0 0 0 0 0 0 
trait 2 0.58847 0 0.57078 0 0 0.29561 0.750206 1 
trait 3 0.3 0.436094 0.340175 0 0 0 0.394665 0 
node 1 3 1 3
node 2 3 1 1
node 3 2 1 1
node 4 1 0 2
node 11 3 0 0
node 37 1 0 0
node 63 1 0 0
node 80 1 0 0
node 94 1 0 0
node 216 1 0 0
gene 3 1 4 -8 0 1 -8 1
gene 3 2 4 8 0 2 8 1
gene 3 3 4 6.98693 0 3 6.98693 1
gene 3 2 11 1.64741 0 16 1.64741 1
gene 2 11 4 -2.21275 0 17 -2.21275 1
gene 1 11 37 3.69327 0 99 3.69327 1
gene 1 37 4 7.98199 0 100 7.98199 1
gene 1 2 37 2.41089 0 122 2.41089 1
gene 2 3 11 3.88477 0 177 3.88477 1
gene 2 3 63 1.50727 0 184 1.50727 1
gene 2 63 11 -1.10752 0 185 -1.10752 1
gene 2 3 80 -8 0 237 -8 1
gene 2 80 11 -3.03934 0 238 -3.03934 0
gene 2 3 94 -1.26553 0 275 -1.26553 0
gene 2 94 80 -0.716613 0 276 -0.716613 1
gene 1 94 37 -4.24329 0 282 -4.24329 1
gene 2 3 37 4.46812 0 337 4.46812 1
gene 1 63 4 0.86259 0 607 0.86259 1
gene 2 80 4 -2.28739 0 656 -2.28739 1
gene 2 3 216 0.771569 0 669 0.771569 1
gene 2 216 94 0.211188 0 670 0.211188 1
gene 1 216 63 -0.950438 0 687 -0.950438 1
gene 3 2 80 -2.60651 0 729 -2.60651 1
genomeend 18

/* Species #36 : (Size 11) (AF 7.75493) (Age 12)  */


/* Organism #19 Fitness: 9 Error: 1 */
genomestart 19
trait 1 0.502676 0 0.54265 0 0 0 0 0 
trait 2 0.2 0 0.57078 0 0.388379 0.29561 0 0.106192 
trait 3 0.3 0 0.202124 0.278863 0 0 0 0 
node 1 2 1 3
node 2 3 1 1
node 3 2 1 1
node 4 1 0 2
node 11 3 0 0
node 37 1 0 0
node 214 1 0 0
gene 3 1 4 -8 0 1 -8 1
gene 3 2 4 8 0 2 8 1
gene 3 3 4 8 0 3 8 1
gene 3 2 11 6.7374 0 16 6.7374 0
gene 1 11 4 6.77969 0 17 6.77969 0
gene 1 11 37 -1.68613 0 99 -1.68613 1
gene 1 37 4 7.63218 0 100 7.63218 1
gene 1 2 37 4.37158 0 122 4.37158 1
gene 1 3 11 -6.11675 0 235 -6.11675 1
gene 2 1 11 1.01863 0 344 1.01863 1
gene 3 3 37 1.43169 0 454 1.43169 1
gene 3 2 214 1 0 664 0 1
gene 3 214 11 6.7374 0 665 0 1
gene 1 3 214 0.111087 0 679 0.111087 1
genomeend 19

/* Organism #20 Fitness: 8.17129 Error: 1.14145 */
genomestart 20
trait 1 0.502676 0 0.54265 0 0 0 0 0 
trait 2 0.2 0 0.57078 0 0.388379 0.29561 0 0.106192 
trait 3 0.401459 0 0.151593 0.459147 0 0 0 0.110073 
node 1 2 1 3
node 2 3 1 1
node 3 2 1 1
node 4 1 0 2
node 11 3 0 0
node 37 3 0 0
node 214 1 0 0
gene 3 1 4 -8 0 1 -8 1
gene 3 2 4 8 0 2 8 1
gene 3 3 4 7.23849 0 3 7.23849 1
gene 3 2 11 7.40485 0 16 7.40485 0
gene 1 11 4 7.7677 0 17 7.7677 0
gene 1 11 37 0.616773 0 99 0.616773 1
gene 1 37 4 8 0 100 8 1
gene 1 2 37 4.00116 0 122 4.00116 1
gene 1 3 11 -5.95725 0 235 -5.95725 1
gene 2 1 11 3.07323 0 344 3.07323 1
gene 3 3 37 1.27971 0 454 1.27971 1
gene 3 2 214 -0.964248 0 664 -0.964248 1
gene 3 214 11 0.445036 0 665 0.445036 1
gene 1 3 214 0.0979835 0 679 0.0979835 1
genomeend 20

/* Organism #21 Fitness: 4 Error: 2 */
genomestart 21
trait 1 0.502676 0 0.54265 0 0 0 0 0 
trait 2 0.2 0 0.57078 0 0.388379 0.29561 0 0.106192 
trait 3 0.350729 0 0.176859 0.369005 0 0 0 0.0550363 
node 1 2 1 3
node 2 3 1 1
node 3 2 1 1
node 4 1 0 2
node 11 3 0 0
node 37 1 0 0
node 214 1 0 0
gene 3 1 4 -0.226218 0 1 -0.226218 1
gene 3 2 4 7.5106 0 2 7.5106 1
gene 3 3 4 8 0 3 8 1
gene 3 2 11 7.52303 0 16 7.52303 0
gene 1 11 4 2.45468 0 17 2.45468 0
gene 1 11 37 0.223695 0 99 0.223695 1
gene 1 37 4 7.63218 0 100 7.63218 1
gene 1 2 37 4.70606 0 122 4.70606 1
gene 1 3 11 0.55681 0 235 0.55681 1
gene 2 1 11 2.03286 0 344 2.03286 1
gene 3 3 37 -1.60283 0 454 -1.60283 1
gene 3 2 214 -0.870937 0 664 -0.870937 1
gene 3 214 11 6.7374 0 665 6.7374 1
gene 1 3 214 2.44118 0 679 2.44118 1
genomeend 21

/* Organism #22 Fitness: 9 Error: 1 */
genomestart 22
trait 1 0.502676 0 0.54265 0 0 0 0 0 
trait 2 0.2 0 0.57078 0 0.388379 0.29561 0 0.106192 
trait 3 0.350729 0 0.176859 0.369005 0 0 0 0.0550363 
node 1 2 1 3
node 2 3 1 1
node 3 2 1 1
node 4 1 0 2
node 11 3 0 0
node 37 1 0 0
node 214 1 0 0
gene 3 1 4 -8 0 1 -8 1
gene 3 2 4 7.81265 0 2 7.81265 1
gene 3 3 4 8 0 3 8 1
gene 3 2 11 6.7374 0 16 6.7374 0
gene 1 11 4 6.77969 0 17 6.77969 0
gene 1 11 37 -1.52379 0 99 -1.52379 1
gene 1 37 4 7.72413 0 100 7.72413 1
gene 1 2 37 3.99857 0 122 3.99857 1
gene 1 3 11 -6.11675 0 235 -6.11675 1
gene 2 1 11 1.01863 0 344 1.01863 1
gene 3 3 37 1.43169 0 454 1.43169 1
gene 3 2 214 0.609134 0 664 0.109134 1
gene 3 214 11 6.7374 0 665 1.68435 1
gene 1 3 214 0.111087 0 679 0.111087 1
genomeend 22

/* Organism #23 Fitness: 8.99543 Error: 1.00076 */
genomestart 23
trait 1 0.502676 0 0.54265 0 0 0 0 0 
trait 2 0.2 0 0.57078 0 0.388379 0.29561 0 0.106192 
trait 3 0.401459 0 0.151593 0.459147 0 0 0 0.110073 
node 1 2 1 3
node 2 3 1 1
node 3 2 1 1
node 4 1 0 2
node 11 3 0 0
node 37 1 0 0
node 214 1 0 0
gene 3 1 4 -8 0 1 -8 1
gene 3 2 4 8 0 2 8 1
gene 3 3 4 8 0 3 8 1
gene 3 2 11 7.36877 0 16 7.36877 0
gene 1 11 4 7.17762 0 17 7.17762 0
gene 1 11 37 0.312199 0 99 0.312199 1
gene 1 37 4 8 0 100 8 1
gene 1 2 37 6.17355 0 122 6.17355 1
gene 1 3 11 -5.41601 0 235 -5.41601 1
gene 2 1 11 0.968905 0 344 0.968905 1
gene 3 3 37 2.414 0 454 2.414 1
gene 3 2 214 -1.79969 0 664 -1.79969 1
gene 3 214 11 -0.42375 0 665 -0.42375 1
gene 1 3 214 -1.50378 0 679 -1.50378 1
genomeend 23

/* Organism #24 Fitness: 9 Error: 1 */
genomestart 24
trait 1 0.502676 0 0.54265 0 0 0 0 0 
trait 2 0.2 0 0.57078 0 0.388379 0.29561 0 0.106192 
trait 3 0.3 0 0.202124 0.278863 0 0 0 0 
node 1 2 1 3
node 2 3 1 1
node 3 2 1 1
node 4 1 0 2
node 11 3 0 0
node 37 1 0 0
node 214 1 0 0
gene 3 1 4 -8 0 1 -8 1
gene 3 2 4 7.26092 0 2 7.26092 1
gene 3 3 4 8 0 3 8 1
gene 3 2 11 4.51382 0 16 4.51382 0
gene 1 11 4 5.60336 0 17 5.60336 0
gene 1 11 37 -3.24662 0 99 -3.24662 1
gene 1 37 4 7.87259 0 100 7.87259 1
gene 1 2 37 3.38652 0 122 3.38652 1
gene 1 3 11 -5.1632 0 235 -5.1632 1
gene 2 1 11 3.32186 0 344 3.32186 1
gene 3 3 37 0.246656 0 454 0.246656 1
gene 3 2 214 1.14306 0 664 1.14306 1
gene 3 214 11 -2.27889 0 665 -2.27889 1
gene 1 3 214 2.00735 0 679 2.00735 1
genomeend 24

/* Organism #25 Fitness: 3.99974 Error: 2.00007 */
genomestart 25
trait 1 0.502676 0 0.54265 0 0 0 0 0 
trait 2 0.2 0 0.57078 0 0.388379 0.29561 0 0.106192 
trait 3 0.401459 0 0.151593 0.459147 0 0 0 0.110073 
node 1 2 1 3
node 2 3 1 1
node 3 2 1 1
node 4 1 0 2
node 11 3 0 0
node 37 1 0 0
node 214 1 0 0
gene 3 1 4 -6.90797 0 1 -6.90797 1
gene 3 2 4 0.821482 0 2 0.821482 1
gene 3 3 4 0.338298 0 3 0.338298 1
gene 3 2 11 -0.184561 0 16 -0.184561 0
gene 1 11 4 7.59809 0 17 7.59809 0
gene 1 11 37 -2.45102 0 99 -2.45102 1
gene 1 37 4 8 0 100 8 1
gene 1 2 37 6.11777 0 122 6.11777 1
gene 1 3 11 -4.40928 0 235 -4.40928 1
gene 2 1 11 0.379727 0 344 0.379727 1
gene 3 3 37 1.2331 0 454 1.2331 1
gene 3 2 214 2.83882 0 664 2.83882 1
gene 3 214 11 7.64449 0 665 7.64449 1
gene 1 3 214 0.0979835 0 679 0.0979835 1
genomeend 25

/* Organism #26 Fitness: 8.93557 Error: 1.01076 */
genomestart 26
trait 1 0.502676 0 0.54265 0 0 0 0 0 
trait 2 0.2 0 0.57078 0 0.388379 0.29561 0 0.106192 
trait 3 0.3 0 0.202124 0.278863 0 0 0 0 
node 1 2 1 3
node 2 3 1 1
node 3 2 1 1
node 4 1 0 2
node 11 3 0 0
node 37 1 0 0
node 214 1 0 0
gene 3 1 4 -7.49286 0 1 -7.49286 1
gene 3 2 4 8 0 2 8 1
gene 3 3 4 6.27265 0 3 6.27265 1
gene 3 2 11 7.07662 0 16 7.07662 0
gene 1 11 4 4.32455 0 17 4.32455 0
gene 1 11 37 0.346627 0 99 0.346627 1
gene 1 37 4 7.7676 0 100 7.7676 1
gene 1 2 37 3.11475 0 122 3.11475 1
gene 1 3 11 -4.24001 0 235 -4.24001 1
gene 2 1 11 -1.24622 0 344 -1.24622 1
gene 3 3 37 0.135264 0 454 0.135264 1
gene 3 2 214 1.29672 0 664 1.29672 1
gene 3 214 11 6.7374 0 665 6.7374 1
gene 1 3 214 1.93724 0 679 1.93724 1
genomeend 26

/* Organism #27 Fitness: 8.96254 Error: 1.00625 */
genomestart 27
trait 1 0.502676 0 0.54265 0 0 0 0 0 
trait 2 0.2 0 0.57078 0 0.388379 0.29561 0 0.106192 
trait 3 0.350729 0 0.176859 0.369005 0 0 0 0.0550363 
node 1 2 1 3
node 2 3 1 1
node 3 2 1 1
node 4 1 0 2
node 11 3 0 0
node 37 1 0 0
node 214 1 0 0
gene 3 1 4 -8 0 1 -8 1
gene 3 2 4 5.50015 0 2 5.50015 1
gene 3 3 4 8 0 3 8 1
gene 3 2 11 8 0 16 8 0
gene 1 11 4 7.08477 0 17 7.08477 0
gene 1 11 37 0.719487 0 99 0.719487 1
gene 1 37 4 7.17228 0 100 7.17228 1
gene 1 2 37 5.55242 0 122 5.55242 1
gene 1 3 11 -5.03067 0 235 -5.03067 1
gene 2 1 11 -0.210864 0 344 -0.210864 1
gene 3 3 37 0.582131 0 454 0.582131 1
gene 3 2 214 0.102451 0 664 0.102451 1
gene 3 214 11 8 0 665 8 1
gene 1 3 214 -1.09638 0 679 -1.09638 1
genomeend 27

/* Organism #28 Fitness: 6.23972 Error: 1.50206 */
genomestart 28
trait 1 0.502676 0 0.54265 0 0 0 0 0 
trait 2 0.2 0 0.57078 0 0.388379 0.29561 0 0.106192 
trait 3 0.350729 0 0.176859 0.369005 0 0 0 0.0550363 
node 1 2 1 3
node 2 3 1 1
node 3 2 1 1
node 4 1 0 2
node 11 3 0 0
node 37 1 0 0
node 214 1 0 0
gene 3 1 4 -8 0 1 -8 1
gene 3 2 4 6.97229 0 2 6.97229 1
gene 3 3 4 8 0 3 8 1
gene 3 2 11 6.72589 0 16 6.72589 0
gene 1 11 4 7.3174 0 17 7.3174 0
gene 1 11 37 -3.9796 0 99 -3.9796 1
gene 1 37 4 2.28362 0 100 2.28362 1
gene 1 2 37 6.52451 0 122 6.52451 1
gene 1 3 11 -4.45444 0 235 -4.45444 1
gene 2 1 11 -0.359279 0 344 -0.359279 1
gene 3 3 37 -0.191055 0 454 -0.191055 1
gene 3 2 214 0.236045 0 664 0.236045 1
gene 3 214 11 5.57289 0 665 5.57289 1
gene 1 3 214 1.21494 0 679 1.21494 1
genomeend 28

/* Organism #29 Fitness: 9 Error: 1 */
genomestart 29
trait 1 0.502676 0 0.54265 0 0 0 0 0 
trait 2 0.2 0 0.57078 0 0.388379 0.29561 0 0.106192 
trait 3 0.3 0 0.202124 0.278863 0 0 0 0 
node 1 2 1 3
node 2 3 1 1
node 3 2 1 1
node 4 1 0 2
node 11 3 0 0
node 37 1 0 0
node 214 1 0 0
gene 3 1 4 -8 0 1 -8 1
gene 3 2 4 6.31851 0 2 6.31851 1
gene 3 3 4 5.90025 0 3 5.90025 1
gene 3 2 11 6.1735 0 16 6.1735 0
gene 1 11 4 8 0 17 8 0
gene 1 11 37 -3.58652 0 99 -3.58652 1
gene 1 37 4 5.41127 0 100 5.41127 1
gene 1 2 37 4.07029 0 122 4.07029 1
gene 1 3 11 -5.51202 0 235 -5.51202 1
gene 2 1 11 3.29295 0 344 3.29295 1
gene 3 3 37 0.654536 0 454 0.654536 1
gene 3 2 214 3.36702 0 664 3.36702 1
gene 3 214 11 8 0 665 8 1
gene 1 3 214 -1.08409 0 679 -1.08409 1
genomeend 29

/* Species #37 : (Size 14) (AF 7.85974) (Age 12)  */


/* Organism #30 Fitness: 9 Error: 1 */
genomestart 30
trait 1 0.502676 0 0 0 0 0 0 0 
trait 2 0.2 0 0.57078 0 0.388379 0.29561 0 0.106192 
trait 3 0.3 0.436094 0.340175 0 0 0 0.394665 0 
node 1 3 1 3
node 2 3 1 1
node 3 2 1 1
node 4 1 0 2
node 11 3 0 0
node 37 1 0 0
node 63 1 0 0
node 80 1 0 0
node 94 1 0 0
node 204 1 0 0
gene 3 1 4 -7.12084 0 1 -7.12084 1
gene 3 2 4 7.54516 0 2 7.54516 1
gene 3 3 4 5.84462 0 3 5.84462 1
gene 3 2 11 -0.223548 0 16 -0.223548 1
gene 2 11 4 -2.27073 0 17 -2.27073 1
gene 3 11 37 0.419267 0 99 0.419267 1
gene 1 37 4 7.92 0 100 7.92 1
gene 1 2 37 3.70466 0 122 3.70466 1
gene 2 3 11 5.80415 0 177 5.80415 0
gene 2 3 63 0.995247 0 184 0.995247 1
gene 2 63 11 -3.38586 0 185 -3.38586 1
gene 2 3 80 -6.96024 0 237 -6.96024 1
gene 2 80 11 0.797487 0 238 0.797487 1
gene 2 3 94 0.882748 0 275 0.882748 1
gene 2 94 80 -3.98854 0 276 -3.98854 1
gene 1 94 37 -2.83502 0 282 -2.83502 1
gene 2 3 37 5.45118 0 337 5.45118 1
gene 2 3 204 1.09519 0 637 0.595187 1
gene 2 204 11 1.33486 0 638 1.33486 1
gene 2 1 94 0.118564 0 686 0.118564 1
genomeend 30

/* Organism #31 Fitness: 9 Error: 1 */
genomestart 31
trait 1 0.502676 0 0 0 0 0 0 0 
trait 2 0.2 0 0.57078 0 0.388379 0.29561 0 0.106192 
trait 3 0.3 0.436094 0.340175 0 0 0 0.394665 0 
node 1 3 1 3
node 2 3 1 1
node 3 2 1 1
node 4 1 0 2
node 11 3 0 0
node 37 1 0 0
node 63 1 0 0
node 80 1 0 0
node 94 1 0 0
node 204 1 0 0
gene 3 1 4 -4.37166 0 1 -4.37166 1
gene 3 2 4 6.96111 0 2 6.96111 1
gene 3 3 4 8 0 3 8 1
gene 3 2 11 2.0809 0 16 2.0809 1
gene 2 11 4 -3.1505 0 17 -3.1505 1
gene 3 11 37 1.12463 0 99 1.12463 1
gene 3 37 4 1.70034 0 100 1.70034 1
gene 1 2 37 3.71229 0 122 3.71229 1
gene 2 3 11 8 0 177 8 0
gene 2 3 63 0.095294 0 184 0.095294 1
gene 2 63 11 -3.3429 0 185 -3.3429 1
gene 2 3 80 2.4237 0 237 2.4237 1
gene 2 80 11 -2.8365 0 238 -2.8365 1
gene 2 3 94 -0.655461 0 275 -0.655461 1
gene 2 94 80 0.701697 0 276 0.701697 1
gene 1 94 37 -3.50467 0 282 -3.50467 1
gene 2 3 37 -0.942946 0 337 -0.942946 1
gene 2 3 204 5.15812 0 637 5.15812 1
gene 2 204 11 0.185781 0 638 0.185781 1
gene 2 1 94 0.549638 0 686 0.549638 1
genomeend 31

/* Organism #32 Fitness: 6.45221 Error: 1.45988 */
genomestart 32
trait 1 0.502676 0 0 0 0 0 0 0 
trait 2 0.2 0 0.57078 0 0.388379 0.29561 0 0.106192 
trait 3 0.3 0.436094 0.340175 0 0 0 0.394665 0 
node 1 3 1 3
node 2 3 1 1
node 3 2 1 1
node 4 1 0 2
node 11 3 0 0
node 37 1 0 0
node 63 1 0 0
node 80 1 0 0
node 94 1 0 0
node 204 1 0 0
gene 3 1 4 -6.88318 0 1 -6.88318 1
gene 3 2 4 4.72769 0 2 4.72769 1
gene 3 3 4 8 0 3 8 1
gene 3 2 11 1.58269 0 16 1.58269 1
gene 2 11 4 -4.26046 0 17 -4.26046 1
gene 3 11 37 0.323668 0 99 0.323668 1
gene 1 37 4 6.44871 0 100 6.44871 1
gene 1 2 37 3.75021 0 122 3.75021 1
gene 2 3 11 8 0 177 8 0
gene 2 3 63 -4.29315 0 184 -4.29315 1
gene 2 63 11 -2.88276 0 185 -2.88276 1
gene 2 3 80 -5.20337 0 237 -5.20337 1
gene 2 80 11 2.17624 0 238 2.17624 1
gene 2 3 94 1.21746 0 275 1.21746 1
gene 2 94 80 1.90703 0 276 1.90703 1
gene 1 94 37 -2.20229 0 282 -2.20229 1
gene 2 3 37 3.82676 0 337 3.82676 1
gene 2 3 204 1.8805 0 637 1.8805 1
gene 2 204 11 1.86511 0 638 1.86511 1
gene 2 1 94 0.317774 0 686 0.317774 1
genomeend 32

/* Organism #33 Fitness: 9 Error: 1 */
genomestart 33
trait 1 0.502676 0 0 0 0 0 0 0 
trait 2 0.2 0 0.57078 0 0.388379 0.29561 0 0.106192 
trait 3 0.3 0.436094 0.340175 0 0 0 0.394665 0 
node 1 3 1 3
node 2 3 1 1
node 3 2 1 1
node 4 1 0 2
node 11 3 0 0
node 37 1 0 0
node 63 1 0 0
node 80 1 0 0
node 94 1 0 0
node 204 1 0 0
gene 3 1 4 -6.61401 0 1 -6.61401 1
gene 3 2 4 6.0361 0 2 6.0361 1
gene 3 3 4 5.84462 0 3 5.84462 1
gene 3 2 11 -0.223548 0 16 -0.223548 1
gene 2 11 4 -2.07327 0 17 -2.07327 1
gene 3 11 37 0.419267 0 99 0.419267 1
gene 1 37 4 7.92 0 100 7.92 1
gene 1 2 37 3.70466 0 122 3.70466 1
gene 2 3 11 8 0 177 8 0
gene 2 3 63 0.995247 0 184 0.995247 1
gene 2 63 11 -3.38586 0 185 -3.38586 1
gene 2 3 80 -2.69314 0 237 -2.69314 1
gene 2 80 11 -3.62686 0 238 -3.62686 1
gene 2 3 94 0.882748 0 275 0.882748 1
gene 2 94 80 -3.98854 0 276 -3.98854 1
gene 1 94 37 -2.1173 0 282 -2.1173 1
gene 2 3 37 5.45118 0 337 5.45118 1
gene 2 3 204 1.09519 0 637 0.595187 1
gene 2 204 11 1.33486 0 638 1.33486 1
gene 2 1 94 -0.0121311 0 686 -0.0121311 1
genomeend 33

/* Organism #34 Fitness: 3.99629 Error: 2.00093 */
genomestart 34
trait 1 0.502676 0 0 0 0 0 0 0 
trait 2 0.2 0 0.57078 0 0.388379 0.29561 0 0.106192 
trait 3 0.3 0.436094 0.340175 0 0 0 0.394665 0 
node 1 3 1 3
node 2 3 1 1
node 3 2 1 1
node 4 1 0 2
node 11 3 0 0
node 37 1 0 0
node 63 1 0 0
node 80 1 0 0
node 94 1 0 0
node 204 1 0 0
gene 3 1 4 1.16207 0 1 1.16207 1
gene 3 2 4 7.33626 0 2 7.33626 1
gene 3 3 4 1.33602 0 3 1.33602 1
gene 3 2 11 1.00238 0 16 1.00238 1
gene 2 11 4 -1.36914 0 17 -1.36914 1
gene 3 11 37 1.62025 0 99 1.62025 1
gene 3 37 4 8 0 100 8 1
gene 1 2 37 3.45716 0 122 3.45716 1
gene 2 3 11 5.99722 0 177 5.99722 0
gene 2 3 63 -2.13744 0 184 -2.13744 1
gene 2 63 11 -2.11606 0 185 -2.11606 1
gene 2 3 80 2.0246 0 237 2.0246 1
gene 2 80 11 -3.47465 0 238 -3.47465 1
gene 2 3 94 -0.188833 0 275 -0.188833 1
gene 2 94 80 1.27255 0 276 1.27255 1
gene 1 94 37 -1.01184 0 282 -1.01184 1
gene 2 3 37 -1.92541 0 337 -1.92541 1
gene 2 3 204 5.04962 0 637 5.04962 1
gene 2 204 11 4.46226 0 638 4.46226 1
gene 2 1 94 0.325251 0 686 0.325251 1
genomeend 34

/* Organism #35 Fitness: 8.99355 Error: 1.00108 */
genomestart 35
trait 1 0.502676 0 0 0 0 0 0 0 
trait 2 0.2 0 0.57078 0 0.388379 0.29561 0 0.106192 
trait 3 0.3 0.436094 0.340175 0 0 0 0.394665 0 
node 1 3 1 3
node 2 3 1 1
node 3 2 1 1
node 4 1 0 2
node 11 3 0 0
node 37 1 0 0
node 63 1 0 0
node 80 1 0 0
node 94 1 0 0
node 204 1 0 0
gene 3 1 4 -5.39208 0 1 -5.39208 1
gene 3 2 4 6.9465 0 2 6.9465 1
gene 3 3 4 4.65741 0 3 4.65741 1
gene 3 2 11 -2.46704 0 16 -2.46704 1
gene 2 11 4 -2.46231 0 17 -2.46231 1
gene 3 11 37 1.17273 0 99 1.17273 1
gene 3 37 4 8 0 100 8 1
gene 1 2 37 5.53188 0 122 5.53188 1
gene 2 3 11 6.14514 0 177 6.14514 1
gene 2 3 63 0.213248 0 184 0.213248 1
gene 2 63 11 -1.27264 0 185 -1.27264 1
gene 2 3 80 -7.14862 0 237 -7.14862 1
gene 2 80 11 -3.36634 0 238 -3.36634 1
gene 2 3 94 -0.472312 0 275 -0.472312 1
gene 2 94 80 -3.23675 0 276 -3.23675 1
gene 1 94 37 -2.38498 0 282 -2.38498 1
gene 2 3 37 4.23696 0 337 4.23696 1
gene 2 3 204 0.584841 0 637 0.584841 1
gene 2 204 11 2.31379 0 638 2.31379 1
gene 2 1 94 -1.36933 0 686 -1.36933 1
genomeend 35

/* Organism #36 Fitness: 9 Error: 1 */
genomestart 36
trait 1 0.502676 0 0 0 0 0 0 0 
trait 2 0.2 0 0.57078 0 0.388379 0.29561 0 0.106192 
trait 3 0.3 0.436094 0.340175 0 0 0 0.394665 0 
node 1 3 1 3
node 2 3 1 1
node 3 2 1 1
node 4 1 0 2
node 11 3 0 0
node 37 1 0 0
node 63 1 0 0
node 80 1 0 0
node 94 1 0 0
node 204 1 0 0
gene 3 1 4 -6.53183 0 1 -6.53183 1
gene 3 2 4 8 0 2 8 1
gene 3 3 4 7.18019 0 3 7.18019 1
gene 3 2 11 0.57268 0 16 0.57268 1
gene 2 11 4 -2.08098 0 17 -2.08098 1
gene 3 11 37 -0.257939 0 99 -0.257939 1
gene 3 37 4 6.04476 0 100 6.04476 1
gene 1 2 37 3.78859 0 122 3.78859 1
gene 2 3 11 8 0 177 8 0
gene 2 3 63 -2.99146 0 184 -2.99146 1
gene 2 63 11 -2.15176 0 185 -2.15176 1
gene 2 3 80 -3.41353 0 237 -3.41353 1
gene 2 80 11 -5.14561 0 238 -5.14561 1
gene 2 3 94 -1.99042 0 275 -1.99042 1
gene 2 94 80 2.77207 0 276 2.77207 1
gene 1 94 37 -3.2519 0 282 -3.2519 1
gene 2 3 37 1.05041 0 337 1.05041 1
gene 2 3 204 4.29566 0 637 4.29566 1
gene 2 204 11 0.978118 0 638 0.978118 1
gene 2 1 94 0.358516 0 686 0.358516 1
genomeend 36

/* Organism #37 Fitness: 9 Error: 1 */
genomestart 37
trait 1 0.502676 0 0 0 0 0 0 0 
trait 2 0.2 0 0.57078 0 0.388379 0.29561 0 0.106192 
trait 3 0.3 0.436094 0.340175 0 0 0 0.394665 0 
node 1 3 1 3
node 2 3 1 1
node 3 2 1 1
node 4 1 0 2
node 11 3 0 0
node 37 1 0 0
node 63 1 0 0
node 80 1 0 0
node 94 1 0 0
node 204 1 0 0
gene 3 1 4 -6.61401 0 1 -6.61401 1
gene 3 2 4 6.0361 0 2 6.0361 1
gene 3 3 4 5.84462 0 3 5.84462 1
gene 3 2 11 -0.223548 0 16 -0.223548 1
gene 2 11 4 -2.27073 0 17 -2.27073 1
gene 3 11 37 0.419267 0 99 0.419267 1
gene 3 37 4 8 0 100 8 1
gene 1 2 37 5.45749 0 122 5.45749 1
gene 2 3 11 8 0 177 8 0
gene 2 3 63 0.995247 0 184 0.995247 1
gene 2 63 11 -2.11606 0 185 -2.11606 1
gene 2 3 80 -6.96024 0 237 -6.96024 1
gene 2 80 11 0.797487 0 238 0.797487 1
gene 2 3 94 0.882748 0 275 0.882748 1
gene 2 94 80 0.277261 0 276 0.277261 1
gene 1 94 37 -2.83502 0 282 -2.83502 1
gene 2 3 37 3.30871 0 337 3.30871 1
gene 2 3 204 2.85351 0 637 2.85351 1
gene 2 204 11 1.33486 0 638 1.33486 1
gene 2 1 94 0.118564 0 686 0.118564 1
genomeend 37

/* Organism #38 Fitness: 9 Error: 1 */
genomestart 38
trait 1 0.502676 0.51207 0 0 0.0135197 0.973449 0 0 
trait 2 0.2 0 0.57078 0 0.388379 0.29561 0 0.106192 
trait 3 0.3 0.436094 0.340175 0 0 0 0.394665 0 
node 1 3 1 3
node 2 3 1 1
node 3 2 1 1
node 4 1 0 2
node 11 3 0 0
node 37 1 0 0
node 63 1 0 0
node 80 1 0 0
node 94 1 0 0
node 204 1 0 0
gene 3 1 4 -7.06743 0 1 -7.06743 1
gene 3 2 4 8 0 2 8 1
gene 3 3 4 6.84715 0 3 6.84715 1
gene 3 2 11 -2.61719 0 16 -2.61719 1
gene 2 11 4 -3.65741 0 17 -3.65741 1
gene 3 11 37 1.3896 0 99 1.3896 1
gene 3 37 4 7.79263 0 100 7.79263 1
gene 1 2 37 5.44368 0 122 5.44368 1
gene 2 3 11 6.72406 0 177 6.72406 0
gene 2 3 63 -0.768799 0 184 -0.768799 1
gene 2 63 11 -3.97212 0 185 -3.97212 1
gene 2 3 80 -8 0 237 -8 1
gene 2 80 11 0.48574 0 238 0.48574 1
gene 2 3 94 -1.62175 0 275 -1.62175 1
gene 2 94 80 -5.28993 0 276 -5.28993 1
gene 1 94 37 -3.94787 0 282 -3.94787 1
gene 2 3 37 3.38462 0 337 3.38462 1
gene 2 3 204 -1.54698 0 637 -1.54698 1
gene 2 204 11 2.01697 0 638 2.01697 1
gene 2 1 94 -0.0121311 0 686 -0.0121311 1
genomeend 38

/* Organism #39 Fitness: 8.91935 Error: 1.01347 */
genomestart 39
trait 1 0.502676 0 0 0 0 0 0 0 
trait 2 0.2 0 0.57078 0 0.388379 0.29561 0 0.106192 
trait 3 0.3 0.436094 0.340175 0 0 0 0.394665 0 
node 1 3 1 3
node 2 3 1 1
node 3 2 1 1
node 4 1 0 2
node 11 3 0 0
node 37 1 0 0
node 63 1 0 0
node 80 1 0 0
node 94 1 0 0
node 204 1 0 0
gene 3 1 4 -4.8717 0 1 -4.8717 1
gene 3 2 4 6.89504 0 2 6.89504 1
gene 3 3 4 8 0 3 8 1
gene 3 2 11 1.46161 0 16 1.46161 1
gene 2 11 4 -2.86073 0 17 -2.86073 1
gene 3 11 37 -0.0819994 0 99 -0.0819994 1
gene 3 37 4 8 0 100 8 1
gene 1 2 37 1.86676 0 122 1.86676 1
gene 2 3 11 5.37903 0 177 5.37903 0
gene 2 3 63 -2.10616 0 184 -2.10616 1
gene 2 63 11 -4.91094 0 185 -4.91094 1
gene 2 3 80 -4.09845 0 237 -4.09845 1
gene 2 80 11 -3.62686 0 238 -3.62686 1
gene 2 3 94 0.882748 0 275 0.882748 1
gene 2 94 80 -3.98854 0 276 -3.98854 1
gene 1 94 37 -1.02756 0 282 -1.02756 1
gene 2 3 37 1.8421 0 337 1.8421 1
gene 2 3 204 0.393109 0 637 0.393109 1
gene 2 204 11 -0.67784 0 638 -0.67784 1
gene 2 1 94 -2.17986 0 686 -2.17986 1
genomeend 39

/* Organism #40 Fitness: 8.99881 Error: 1.0002 */
genomestart 40
trait 1 0.502676 0 0 0 0 0 0 0 
trait 2 0.2 0 0.57078 0 0.388379 0.29561 0 0.106192 
trait 3 0.3 0.436094 0.340175 0 0 0 0.394665 0 
node 1 3 1 3
node 2 3 1 1
node 3 2 1 1
node 4 1 0 2
node 11 3 0 0
node 37 1 0 0
node 63 1 0 0
node 80 1 0 0
node 94 1 0 0
node 204 1 0 0
gene 3 1 4 -1.72788 0 1 -1.72788 1
gene 3 2 4 8 0 2 8 1
gene 3 3 4 7.29341 0 3 7.29341 1
gene 3 2 11 -1.98645 0 16 -1.98645 1
gene 2 11 4 -0.869854 0 17 -0.869854 1
gene 3 11 37 -1.18845 0 99 -1.18845 1
gene 1 37 4 6.7162 0 100 6.7162 1
gene 1 2 37 6.0111 0 122 6.0111 1
gene 2 3 11 5.80415 0 177 5.80415 0
gene 2 3 63 2.8391 0 184 2.8391 1
gene 2 63 11 -2.2305 0 185 -2.2305 1
gene 2 3 80 -7.04913 0 237 -7.04913 1
gene 2 80 11 1.5532 0 238 1.5532 1
gene 2 3 94 1.83264 0 275 1.83264 1
gene 2 94 80 -0.911054 0 276 -0.911054 1
gene 1 94 37 -3.83236 0 282 -3.83236 1
gene 2 3 37 5.07664 0 337 5.07664 1
gene 2 3 204 1.09519 0 637 1.09519 1
gene 2 204 11 -0.129575 0 638 -0.129575 1
gene 2 1 94 0.1648 0 686 0.1648 1
genomeend 40

/* Organism #41 Fitness: 9 Error: 1 */
genomestart 41
trait 1 0.502676 0 0 0 0 0 0 0 
trait 2 0.2 0 0.57078 0 0.388379 0.29561 0 0.106192 
trait 3 0.3 0.436094 0.340175 0 0 0 0.394665 0 
node 1 3 1 3
node 2 3 1 1
node 3 2 1 1
node 4 1 0 2
node 11 3 0 0
node 37 1 0 0
node 63 1 0 0
node 80 1 0 0
node 94 1 0 0
node 204 2 0 0
gene 3 1 4 -6.1478 0 1 -6.1478 1
gene 3 2 4 6.79063 0 2 6.79063 1
gene 3 3 4 6.5124 0 3 6.5124 1
gene 3 2 11 -0.462127 0 16 -0.462127 1
gene 2 11 4 -2.8309 0 17 -2.8309 1
gene 3 11 37 -0.806166 0 99 -0.806166 1
gene 3 37 4 5.50441 0 100 5.50441 1
gene 1 2 37 2.20819 0 122 2.20819 1
gene 2 3 11 0.166326 0 177 0.166326 1
gene 2 3 63 -0.718101 0 184 -0.718101 1
gene 2 63 11 0.432218 0 185 0.432218 1
gene 2 3 80 -3.7146 0 237 -3.7146 1
gene 2 80 11 -0.948134 0 238 -0.948134 1
gene 2 3 94 -0.364658 0 275 -0.364658 1
gene 2 94 80 -1.46958 0 276 -1.46958 1
gene 1 94 37 -0.363285 0 282 -0.363285 1
gene 2 3 37 6.11172 0 337 6.11172 1
gene 2 3 204 -0.0955992 0 637 -0.0955992 1
gene 2 204 11 4.0541 0 638 4.0541 1
gene 2 1 94 1.07269 0 686 1.07269 1
genomeend 41

/* Organism #42 Fitness: 5.67193 Error: 1.61842 */
genomestart 42
trait 1 0.502676 0 0 0 0 0 0 0 
trait 2 0.2 0 0.57078 0 0.388379 0.29561 0 0.106192 
trait 3 0.3 0.436094 0.340175 0 0 0 0.394665 0 
node 1 3 1 3
node 2 3 1 1
node 3 2 1 1
node 4 1 0 2
node 11 3 0 0
node 37 1 0 0
node 63 1 0 0
node 80 1 0 0
node 94 1 0 0
node 204 1 0 0
gene 3 1 4 -0.184484 0 1 -0.184484 1
gene 3 2 4 4.20163 0 2 4.20163 1
gene 3 3 4 0.826365 0 3 0.826365 1
gene 3 2 11 0.0324259 0 16 0.0324259 1
gene 2 11 4 -1.69607 0 17 -1.69607 1
gene 3 11 37 1.28347 0 99 1.28347 1
gene 3 37 4 8 0 100 8 1
gene 1 2 37 7.16302 0 122 7.16302 1
gene 2 3 11 1.16405 0 177 1.16405 0
gene 2 3 63 -4.4855 0 184 -4.4855 1
gene 2 63 11 -0.494228 0 185 -0.494228 1
gene 2 3 80 -2.69314 0 237 -2.69314 1
gene 2 80 11 -1.92743 0 238 -1.92743 1
gene 2 3 94 -0.321665 0 275 -0.321665 1
gene 2 94 80 0.330821 0 276 0.330821 1
gene 1 94 37 -3.61263 0 282 -3.61263 1
gene 2 3 37 4.48542 0 337 4.48542 1
gene 2 3 204 2.90417 0 637 2.90417 1
gene 2 204 11 2.07396 0 638 2.07396 1
gene 2 1 94 -0.277184 0 686 -0.277184 1
genomeend 42

/* Organism #43 Fitness: 4.00428 Error: 1.99893 */
genomestart 43
trait 1 0.502676 0 0 0 0 0 0 0 
trait 2 0.2 0 0.57078 0 0.388379 0.29561 0 0.106192 
trait 3 0.3 0.436094 0.340175 0 0 0 0.394665 0 
node 1 3 1 3
node 2 3 1 1
node 3 2 1 1
node 4 1 0 2
node 11 3 0 0
node 37 1 0 0
node 63 1 0 0
node 80 1 0 0
node 94 1 0 0
node 204 1 0 0
gene 3 1 4 -8 0 1 -8 1
gene 3 2 4 0.845134 0 2 0.845134 1
gene 3 3 4 8 0 3 8 1
gene 3 2 11 -0.886563 0 16 -0.886563 1
gene 2 11 4 -1.52753 0 17 -1.52753 1
gene 3 11 37 -1.47963 0 99 -1.47963 1
gene 3 37 4 5.76618 0 100 5.76618 1
gene 1 2 37 3.42511 0 122 3.42511 1
gene 2 3 11 4.97712 0 177 4.97712 0
gene 2 3 63 -0.165258 0 184 -0.165258 1
gene 2 63 11 -3.88678 0 185 -3.88678 1
gene 2 3 80 -4.82669 0 237 -4.82669 1
gene 2 80 11 -2.85485 0 238 -2.85485 1
gene 2 3 94 1.1779 0 275 1.1779 1
gene 2 94 80 0.333605 0 276 0.333605 1
gene 1 94 37 -1.53264 0 282 -1.53264 1
gene 2 3 37 0.864666 0 337 0.864666 1
gene 2 3 204 -2.41333 0 637 -2.41333 1
gene 2 204 11 0.748645 0 638 0.748645 1
gene 2 1 94 -1.93529 0 686 -1.93529 1
genomeend 43

/* Species #38 : (Size 11) (AF 8.00898) (Age 11)  */


/* Organism #44 Fitness: 9.0057 Error: 0.99905 */
genomestart 44
trait 1 0.502676 0 0 0 0 0 0 0 
trait 2 0.2 0 0.57078 0 0.388379 0.29561 0 0.106192 
trait 3 0.3 0.436094 0.340175 0 0 0 0.394665 0 
node 1 3 1 3
node 2 3 1 1
node 3 2 1 1
node 4 1 0 2
node 11 3 0 0
node 37 1 0 0
node 63 1 0 0
node 80 1 0 0
node 94 1 0 0
node 222 1 0 0
gene 3 1 4 -5.72363 0 1 -5.72363 1
gene 3 2 4 -1.67676 0 2 -1.67676 1
gene 3 3 4 -1.52394 0 3 -1.52394 1
gene 3 2 11 5.14327 0 16 5.14327 1
gene 2 11 4 2.63134 0 17 2.63134 1
gene 1 11 37 4.29994 0 99 4.29994 1
gene 1 37 4 7.70588 0 100 7.70588 1
gene 1 2 37 1.40599 0 122 1.40599 1
gene 2 3 11 2.92931 0 177 2.92931 1
gene 2 3 63 -2.05077 0 184 -2.05077 1
gene 2 63 11 -2.27763 0 185 -2.27763 1
gene 3 3 80 -0.96614 0 237 -0.96614 1
gene 2 80 11 -0.318003 0 238 -0.318003 0
gene 2 3 94 -1.93648 0 275 -1.93648 1
gene 2 94 80 0.166669 0 276 0.166669 1
gene 1 94 37 -3.64284 0 282 -3.64284 1
gene 2 3 37 2.01871 0 337 2.01871 1
gene 2 80 222 -0.443129 0 692 -0.443129 1
gene 2 222 11 3.23943 0 693 3.23943 1
genomeend 44

/* Organism #45 Fitness: 8.99996 Error: 1.00001 */
genomestart 45
trait 1 0.502676 0 0 0 0 0 0 0 
trait 2 0.2 0 0.57078 0 0.388379 0.29561 0 0.106192 
trait 3 0.3 0.436094 0.340175 0 0 0 0.394665 0 
node 1 3 1 3
node 2 3 1 1
node 3 2 1 1
node 4 1 0 2
node 11 3 0 0
node 37 1 0 0
node 63 1 0 0
node 80 1 0 0
node 94 1 0 0
node 222 1 0 0
gene 3 1 4 -5.59957 0 1 -5.59957 1
gene 3 2 4 -0.15595 0 2 -0.15595 1
gene 3 3 4 -0.00289926 0 3 -0.00289926 1
gene 3 2 11 4.45241 0 16 4.45241 1
gene 2 11 4 5.08122 0 17 5.08122 1
gene 1 11 37 0.00915555 0 99 0.00915555 1
gene 1 37 4 8 0 100 8 1
gene 1 2 37 1.36536 0 122 1.36536 1
gene 2 3 11 5.73793 0 177 5.73793 1
gene 2 3 63 -1.8202 0 184 -1.8202 1
gene 2 63 11 -1.85003 0 185 -1.85003 1
gene 2 3 80 0.643254 0 237 0.643254 1
gene 2 80 11 1.33023 0 238 1.33023 0
gene 2 3 94 -0.525071 0 275 -0.525071 1
gene 2 94 80 -1.1335 0 276 -1.1335 1
gene 1 94 37 -2.72652 0 282 -2.72652 1
gene 2 3 37 2.85049 0 337 2.85049 1
gene 2 80 222 -0.172124 0 692 -0.172124 1
gene 2 222 11 2.10459 0 693 2.10459 1
genomeend 45

/* Organism #46 Fitness: 9.00409 Error: 0.999318 */
genomestart 46
trait 1 0.502676 0 0 0 0 0 0 0 
trait 2 0.2 0 0.57078 0 0.388379 0.29561 0 0.106192 
trait 3 0.3 0.436094 0.340175 0 0 0 0.394665 0 
node 1 3 1 3
node 2 3 1 1
node 3 2 1 1
node 4 1 0 2
node 11 3 0 0
node 37 1 0 0
node 63 1 0 0
node 80 1 0 0
node 94 1 0 0
node 222 1 0 0
gene 3 1 4 -5.6616 0 1 -5.6616 1
gene 3 2 4 -1.64399 0 2 -1.64399 1
gene 3 3 4 -1.33412 0 3 -1.33412 1
gene 3 2 11 4.99537 0 16 4.99537 1
gene 2 11 4 2.63134 0 17 2.63134 1
gene 1 11 37 3.9209 0 99 3.9209 1
gene 1 37 4 7.48851 0 100 7.48851 1
gene 1 2 37 0.577048 0 122 0.577048 1
gene 2 3 11 3.82877 0 177 3.82877 1
gene 2 3 63 -2.97124 0 184 -2.97124 1
gene 2 63 11 -2.27763 0 185 -2.27763 1
gene 3 3 80 -1.15848 0 237 -1.15848 1
gene 2 80 11 0.774712 0 238 0.774712 0
gene 2 3 94 -1.67413 0 275 -1.67413 1
gene 2 94 80 0.166669 0 276 0.166669 1
gene 1 94 37 -3.33254 0 282 -3.33254 1
gene 2 3 37 1.20562 0 337 1.20562 1
gene 2 80 222 -1.23039 0 692 -1.23039 1
gene 2 222 11 2.3413 0 693 2.3413 1
genomeend 46

/* Organism #47 Fitness: 8.99487 Error: 1.00086 */
genomestart 47
trait 1 0.502676 0 0 0 0 0 0 0 
trait 2 0.2 0 0.57078 0 0.388379 0.29561 0 0.106192 
trait 3 0.3 0.436094 0.340175 0 0 0 0.394665 0 
node 1 3 1 3
node 2 3 1 1
node 3 2 1 1
node 4 1 0 2
node 11 3 0 0
node 37 1 0 0
node 63 1 0 0
node 80 1 0 0
node 94 1 0 0
node 222 1 0 0
gene 3 1 4 -6.41472 0 1 -6.41472 1
gene 3 2 4 0.0740074 0 2 0.0740074 1
gene 3 3 4 -2.68372 0 3 -2.68372 1
gene 3 2 11 7.33358 0 16 7.33358 1
gene 2 11 4 3.04754 0 17 3.04754 1
gene 1 11 37 3.21089 0 99 3.21089 1
gene 1 37 4 7.44212 0 100 7.44212 1
gene 1 2 37 -0.547159 0 122 -0.547159 1
gene 2 3 11 3.94191 0 177 3.94191 1
gene 2 3 63 -3.9552 0 184 -3.9552 1
gene 2 63 11 -0.13287 0 185 -0.13287 1
gene 3 3 80 1.13384 0 237 1.13384 1
gene 2 80 11 0.763268 0 238 0.763268 0
gene 2 3 94 -3.61415 0 275 -3.61415 1
gene 2 94 80 0.543725 0 276 0.543725 1
gene 1 94 37 -5.07935 0 282 -5.07935 1
gene 2 3 37 1.66919 0 337 1.66919 1
gene 2 80 222 -2.79717 0 692 -2.79717 1
gene 2 222 11 3.23943 0 693 3.23943 1
genomeend 47

/* Organism #48 Fitness: 8.84737 Error: 1.02555 */
genomestart 48
trait 1 0.502676 0 0 0 0 0 0 0 
trait 2 0.2 0 0.57078 0 0.388379 0.29561 0 0.106192 
trait 3 0.3 0.436094 0.340175 0 0 0 0.394665 0 
node 1 3 1 3
node 2 3 1 1
node 3 2 1 1
node 4 1 0 2
node 11 3 0 0
node 37 1 0 0
node 63 1 0 0
node 80 1 0 0
node 94 1 0 0
node 222 1 0 0
gene 3 1 4 -4.17664 0 1 -4.17664 1
gene 3 2 4 0.230262 0 2 0.230262 1
gene 3 3 4 -3.07253 0 3 -3.07253 1
gene 3 2 11 5.97291 0 16 5.97291 1
gene 2 11 4 2.29777 0 17 2.29777 1
gene 1 11 37 4.10089 0 99 4.10089 1
gene 1 37 4 5.60857 0 100 5.60857 1
gene 1 2 37 -0.939627 0 122 -0.939627 1
gene 2 3 11 2.67494 0 177 2.67494 1
gene 2 3 63 -4.86679 0 184 -4.86679 1
gene 2 63 11 -2.80622 0 185 -2.80622 1
gene 3 3 80 -1.45749 0 237 -1.45749 1
gene 2 80 11 -1.04549 0 238 -1.04549 0
gene 2 3 94 -2.63657 0 275 -2.63657 1
gene 2 94 80 2.24742 0 276 2.24742 1
gene 1 94 37 -1.93205 0 282 -1.93205 1
gene 2 3 37 0.00608844 0 337 0.00608844 1
gene 2 80 222 -3.6932 0 692 -3.6932 1
gene 2 222 11 -2.28843 0 693 -2.28843 1
genomeend 48

/* Organism #49 Fitness: 15.7519 Error: 0.0311362 */
/* ##------$ WINNER 49 SPECIES #38 $------## */
genomestart 49
trait 1 0.502676 0 0 0 0 0 0 0 
trait 2 0.2 0 0.57078 0 0.388379 0.29561 0 0.106192 
trait 3 0.3 0.436094 0.340175 0 0 0 0.394665 0 
node 1 3 1 3
node 2 3 1 1
node 3 2 1 1
node 4 1 0 2
node 11 3 0 0
node 37 1 0 0
node 63 1 0 0
node 80 1 0 0
node 94 1 0 0
node 222 1 0 0
gene 3 1 4 -6.18995 0 1 -6.18995 1
gene 3 2 4 -1.79472 0 2 -1.79472 1
gene 3 3 4 -2.144 0 3 -2.144 1
gene 3 2 11 7.24912 0 16 7.24912 1
gene 2 11 4 1.119 0 17 1.119 1
gene 1 11 37 2.3093 0 99 2.3093 1
gene 1 37 4 8 0 100 8 1
gene 1 2 37 1.35083 0 122 1.35083 1
gene 2 3 11 1.64074 0 177 1.64074 1
gene 2 3 63 -1.70461 0 184 -1.70461 1
gene 2 63 11 -1.02119 0 185 -1.02119 1
gene 3 3 80 -0.204169 0 237 -0.204169 1
gene 2 80 11 -2.1247 0 238 -2.1247 0
gene 2 3 94 0.266274 0 275 0.266274 1
gene 2 94 80 -0.26532 0 276 -0.26532 1
gene 1 94 37 -1.85911 0 282 -1.85911 1
gene 2 3 37 3.28973 0 337 3.28973 1
gene 2 80 222 -1.74787 0 692 -1.74787 1
gene 2 222 11 5.69884 0 693 5.69884 1
genomeend 49

/* Organism #50 Fitness: 4 Error: 2 */
genomestart 50
trait 1 0.502676 0 0 0 0 0 0 0 
trait 2 0.2 0 0.57078 0 0.388379 0.29561 0 0.106192 
trait 3 0.3 0.436094 0.340175 0 0 0 0.394665 0 
node 1 3 1 3
node 2 3 1 1
node 3 2 1 1
node 4 1 0 2
node 11 3 0 0
node 37 1 0 0
node 63 1 0 0
node 80 1 0 0
node 94 1 0 0
node 222 1 0 0
gene 3 1 4 -4.65983 0 1 -4.65983 1
gene 3 2 4 0.688574 0 2 0.688574 1
gene 3 3 4 -1.69965 0 3 -1.69965 1
gene 3 2 11 5.90989 0 16 5.90989 1
gene 2 11 4 1.83046 0 17 1.83046 1
gene 1 11 37 3.78433 0 99 3.78433 1
gene 1 37 4 8 0 100 8 1
gene 1 2 37 0.935278 0 122 0.935278 1
gene 2 3 11 2.96555 0 177 2.96555 1
gene 2 3 63 -4.58617 0 184 -4.58617 1
gene 2 63 11 -0.262803 0 185 -0.262803 1
gene 2 3 80 -0.952864 0 237 -0.952864 1
gene 2 80 11 2.60582 0 238 2.60582 0
gene 2 3 94 -1.19778 0 275 -1.19778 1
gene 2 94 80 -1.49613 0 276 -1.49613 1
gene 1 94 37 -2.17086 0 282 -2.17086 1
gene 2 3 37 -1.97166 0 337 -1.97166 1
gene 2 80 222 -2.01765 0 692 -2.01765 1
gene 2 222 11 1.44318 0 693 1.44318 1
genomeend 50

/* Organism #51 Fitness: 3.64476 Error: 2.09087 */
genomestart 51
trait 1 0.502676 0 0 0 0 0 0 0 
trait 2 0.2 0 0.57078 0 0.388379 0.29561 0 0.106192 
trait 3 0.3 0.436094 0.340175 0 0 0 0.394665 0 
node 1 3 1 3
node 2 3 1 1
node 3 2 1 1
node 4 1 0 2
node 11 3 0 0
node 37 1 0 0
node 63 1 0 0
node 80 1 0 0
node 94 1 0 0
node 222 1 0 0
gene 3 1 4 -7.33081 0 1 -7.33081 1
gene 3 2 4 0.15801 0 2 0.15801 1
gene 3 3 4 -3.42494 0 3 -3.42494 1
gene 3 2 11 4.79643 0 16 4.79643 1
gene 2 11 4 2.30403 0 17 2.30403 1
gene 1 11 37 1.45825 0 99 1.45825 1
gene 1 37 4 8 0 100 8 1
gene 1 2 37 -0.251892 0 122 -0.251892 1
gene 2 3 11 4.72822 0 177 4.72822 1
gene 2 3 63 -1.9937 0 184 -1.9937 1
gene 2 63 11 -2.53773 0 185 -2.53773 1
gene 2 3 80 -2.37983 0 237 -2.37983 1
gene 2 80 11 3.11953 0 238 3.11953 0
gene 2 3 94 -1.02092 0 275 -1.02092 1
gene 2 94 80 1.50285 0 276 1.50285 1
gene 1 94 37 -3.02225 0 282 -3.02225 1
gene 2 3 37 0.392529 0 337 0.392529 1
gene 2 80 222 -1.62809 0 692 -1.62809 1
gene 2 222 11 1.26461 0 693 1.26461 1
genomeend 51

/* Organism #52 Fitness: 9.00001 Error: 0.999999 */
genomestart 52
trait 1 0.502676 0 0 0 0 0 0 0 
trait 2 0.2 0 0.57078 0 0.388379 0.29561 0 0.106192 
trait 3 0.3 0.436094 0.340175 0 0 0 0.394665 0 
node 1 3 1 3
node 2 3 1 1
node 3 2 1 1
node 4 1 0 2
node 11 3 0 0
node 37 1 0 0
node 63 1 0 0
node 80 1 0 0
node 94 1 0 0
node 222 1 0 0
gene 3 1 4 -4.54027 0 1 -4.54027 1
gene 3 2 4 -2.62062 0 2 -2.62062 1
gene 3 3 4 -2.19977 0 3 -2.19977 1
gene 3 2 11 4.44081 0 16 4.44081 1
gene 2 11 4 4.10493 0 17 4.10493 1
gene 1 11 37 5.59591 0 99 5.59591 1
gene 1 37 4 8 0 100 8 1
gene 1 2 37 1.52867 0 122 1.52867 1
gene 2 3 11 5.36324 0 177 5.36324 1
gene 2 3 63 -2.93466 0 184 -2.93466 1
gene 2 63 11 -4.32962 0 185 -4.32962 1
gene 3 3 80 -3.38763 0 237 -3.38763 1
gene 2 80 11 1.74429 0 238 1.74429 0
gene 2 3 94 -0.318232 0 275 -0.318232 1
gene 2 94 80 -1.88692 0 276 -1.88692 1
gene 3 94 37 -3.28173 0 282 -3.28173 1
gene 2 3 37 2.01871 0 337 2.01871 1
gene 2 80 222 -0.443129 0 692 -0.443129 1
gene 2 222 11 3.23943 0 693 3.23943 1
genomeend 52

/* Organism #53 Fitness: 4 Error: 2 */
genomestart 53
trait 1 0.502676 0 0 0 0 0 0 0 
trait 2 0.2 0 0.57078 0 0.388379 0.29561 0 0.106192 
trait 3 0.3 0.436094 0.340175 0 0 0 0.394665 0 
node 1 3 1 3
node 2 3 1 1
node 3 2 1 1
node 4 1 0 2
node 11 3 0 0
node 37 1 0 0
node 63 1 0 0
node 80 1 0 0
node 94 1 0 0
node 222 1 0 0
gene 3 1 4 1.74444 0 1 1.74444 1
gene 3 2 4 -1.0535 0 2 -1.0535 1
gene 3 3 4 -0.442747 0 3 -0.442747 1
gene 3 2 11 2.79975 0 16 2.79975 1
gene 2 11 4 4.57751 0 17 4.57751 1
gene 1 11 37 4.21167 0 99 4.21167 1
gene 1 37 4 8 0 100 8 1
gene 1 2 37 -0.451064 0 122 -0.451064 1
gene 2 3 11 4.2046 0 177 4.2046 1
gene 2 3 63 -3.46042 0 184 -3.46042 1
gene 2 63 11 -0.429014 0 185 -0.429014 1
gene 3 3 80 0.327387 0 237 0.327387 1
gene 2 80 11 0.187994 0 238 0.187994 0
gene 2 3 94 -1.93648 0 275 -1.93648 1
gene 2 94 80 -0.810381 0 276 -0.810381 1
gene 1 94 37 -4.34019 0 282 -4.34019 1
gene 2 3 37 2.20481 0 337 2.20481 1
gene 2 80 222 0.944166 0 692 0.944166 1
gene 2 222 11 4.97112 0 693 4.97112 1
genomeend 53

/* Organism #54 Fitness: 6.85011 Error: 1.38273 */
genomestart 54
trait 1 0.502676 0 0 0 0 0 0 0 
trait 2 0.2 0 0.57078 0 0.388379 0.29561 0 0.106192 
trait 3 0.3 0.436094 0.340175 0 0 0 0.394665 0 
node 1 3 1 3
node 2 3 1 1
node 3 2 1 1
node 4 1 0 2
node 11 3 0 0
node 37 1 0 0
node 63 1 0 0
node 80 1 0 0
node 94 1 0 0
node 222 1 0 0
gene 3 1 4 -6.54244 0 1 -6.54244 1
gene 3 2 4 0.562342 0 2 0.562342 1
gene 3 3 4 -3.48643 0 3 -3.48643 1
gene 3 2 11 6.96725 0 16 6.96725 1
gene 2 11 4 1.38527 0 17 1.38527 1
gene 1 11 37 1.61561 0 99 1.61561 1
gene 1 37 4 5.35221 0 100 5.35221 1
gene 1 2 37 1.17986 0 122 1.17986 1
gene 2 3 11 3.88667 0 177 3.88667 1
gene 2 3 63 -3.14665 0 184 -3.14665 1
gene 2 63 11 -1.69771 0 185 -1.69771 1
gene 3 3 80 -1.26072 0 237 -1.26072 1
gene 2 80 11 0.535371 0 238 0.535371 0
gene 2 3 94 -0.0277337 0 275 -0.0277337 1
gene 2 94 80 1.40557 0 276 1.40557 1
gene 1 94 37 -2.09876 0 282 -2.09876 1
gene 2 3 37 1.20562 0 337 1.20562 1
gene 2 80 222 1.63244 0 692 1.63244 1
gene 2 222 11 2.3413 0 693 2.3413 1
genomeend 54

/* Species #39 : (Size 10) (AF 6.22846) (Age 11)  */


/* Organism #55 Fitness: 9 Error: 1 */
genomestart 55
trait 1 0.502676 0 0 0 0 0 0 0 
trait 2 0.2 0 0.57078 0 0.388379 0.29561 0 0.106192 
trait 3 0.3 0.436094 0.340175 0 0 0 0.394665 0 
node 1 3 1 3
node 2 3 1 1
node 3 2 1 1
node 4 1 0 2
node 11 3 0 0
node 37 1 0 0
node 63 1 0 0
node 80 1 0 0
node 94 1 0 0
node 204 1 0 0
node 225 1 0 0
gene 3 1 4 -6.31691 0 1 -6.31691 1
gene 3 2 4 7.14678 0 2 7.14678 1
gene 3 3 4 6.8058 0 3 6.8058 1
gene 3 2 11 1.40974 0 16 1.40974 1
gene 2 11 4 2.91902 0 17 2.91902 0
gene 1 11 37 2.35439 0 99 2.35439 1
gene 1 37 4 6.82183 0 100 6.82183 1
gene 1 2 37 2.43999 0 122 2.43999 1
gene 2 3 11 3.80817 0 177 3.80817 0
gene 2 3 63 -0.67074 0 184 -0.67074 1
gene 2 63 11 -2.92455 0 185 -2.92455 1
gene 2 3 80 -3.4356 0 237 -3.4356 0
gene 2 80 11 1.2281 0 238 1.2281 1
gene 2 3 94 -2.31998 0 275 -2.31998 1
gene 2 94 80 -0.631542 0 276 -0.631542 1
gene 1 94 37 -1.87021 0 282 -1.87021 1
gene 2 3 37 3.51347 0 337 3.51347 1
gene 2 3 204 1.17721 0 637 1.17721 1
gene 2 204 11 -0.261549 0 638 -0.261549 1
gene 2 3 225 -2.29966 0 704 -2.29966 1
gene 2 225 80 -6.03738 0 705 -6.03738 1
genomeend 55

/* Organism #56 Fitness: 9 Error: 1 */
genomestart 56
trait 1 0.502676 0 0 0 0 0 0 0.00173956 
trait 2 0.2 0 0.57078 0 0.388379 0.29561 0 0.106192 
trait 3 0.3 0.436094 0.340175 0 0 0 0.394665 0 
node 1 3 1 3
node 2 3 1 1
node 3 2 1 1
node 4 1 0 2
node 11 3 0 0
node 37 1 0 0
node 63 1 0 0
node 80 1 0 0
node 94 1 0 0
node 204 1 0 0
node 225 1 0 0
gene 3 1 4 -6.31691 0 1 -6.31691 1
gene 3 2 4 7.14678 0 2 7.14678 1
gene 3 3 4 6.8058 0 3 6.8058 1
gene 3 2 11 1.40974 0 16 1.40974 1
gene 2 11 4 2.91902 0 17 2.91902 0
gene 1 11 37 2.35439 0 99 2.35439 1
gene 1 37 4 6.82183 0 100 6.82183 1
gene 1 2 37 2.43999 0 122 2.43999 1
gene 2 3 11 3.80817 0 177 3.80817 0
gene 2 3 63 -0.67074 0 184 -0.67074 1
gene 2 63 11 -2.92455 0 185 -2.92455 1
gene 2 3 80 -3.4356 0 237 -3.4356 0
gene 2 80 11 1.2281 0 238 1.2281 1
gene 2 3 94 -2.31998 0 275 -2.31998 1
gene 2 94 80 -0.631542 0 276 -0.631542 1
gene 1 94 37 -1.87021 0 282 -1.87021 1
gene 2 3 37 3.51347 0 337 3.51347 1
gene 2 3 204 1.17721 0 637 1.17721 1
gene 2 204 11 -0.261549 0 638 -0.261549 1
gene 2 3 225 -2.29966 0 704 -2.29966 1
gene 2 225 80 -6.03738 0 705 -6.03738 1
genomeend 56

/* Organism #57 Fitness: 3.99645 Error: 2.00089 */
genomestart 57
trait 1 0.502676 0 0 0 0 0 0 0 
trait 2 0.2 0 0.57078 0 0.388379 0.29561 0 0.106192 
trait 3 0.273821 0.299815 0.340175 0 0.0152116 0 0.394665 0 
node 1 3 1 3
node 2 3 1 1
node 3 2 1 1
node 4 1 0 2
node 11 3 0 0
node 37 1 0 0
node 63 1 0 0
node 80 1 0 0
node 94 1 0 0
node 204 1 0 0
node 225 1 0 0
gene 3 1 4 -6.03866 0 1 -6.03866 1
gene 3 2 4 0.809961 0 2 0.809961 1
gene 3 3 4 4.95821 0 3 4.95821 1
gene 3 2 11 -0.0578326 0 16 -0.0578326 1
gene 2 11 4 5.91449 0 17 5.91449 0
gene 1 11 37 1.00745 0 99 1.00745 1
gene 1 37 4 -1.15246 0 100 -1.15246 1
gene 1 2 37 3.25133 0 122 3.25133 1
gene 2 3 11 0.443348 0 177 0.443348 0
gene 2 3 63 -2.31531 0 184 -2.31531 1
gene 2 63 11 -1.2867 0 185 -1.2867 1
gene 2 3 80 -3.4356 0 237 -3.4356 0
gene 2 80 11 -1.38256 0 238 -1.38256 1
gene 2 3 94 -2.37949 0 275 -2.37949 1
gene 2 94 80 -0.212981 0 276 -0.212981 1
gene 1 94 37 0.412725 0 282 0.412725 1
gene 2 3 37 1.39111 0 337 1.39111 1
gene 2 3 204 -0.518708 0 637 -0.518708 1
gene 2 204 11 -0.261549 0 638 -0.261549 1
gene 2 3 225 -1.7813 0 704 -1.7813 1
gene 2 225 80 -6.52491 0 705 -6.52491 1
genomeend 57

/* Organism #58 Fitness: 1.015 Error: 2.99253 */
genomestart 58
trait 1 0.502676 0 0 0 0 0 0 0 
trait 2 0.2 0 0.57078 0 0.388379 0.29561 0 0.106192 
trait 3 0.247642 0.319576 0.340175 0.349742 0.0304231 0.0217902 0.394665 0 
node 1 3 1 3
node 2 3 1 1
node 3 2 1 1
node 4 1 0 2
node 11 3 0 0
node 37 1 0 0
node 63 1 0 0
node 80 1 0 0
node 94 1 0 0
node 204 1 0 0
node 225 1 0 0
gene 3 1 4 -6.88112 0 1 -6.88112 1
gene 3 2 4 -0.292825 0 2 -0.292825 1
gene 3 3 4 6.62185 0 3 6.62185 1
gene 3 2 11 -2.21289 0 16 -2.21289 1
gene 2 11 4 4.14907 0 17 4.14907 0
gene 1 11 37 4.28995 0 99 4.28995 1
gene 1 37 4 8 0 100 8 1
gene 1 2 37 1.98126 0 122 1.98126 1
gene 2 3 11 2.33832 0 177 2.33832 0
gene 2 3 63 1.84147 0 184 1.84147 1
gene 2 63 11 1.10534 0 185 1.10534 1
gene 1 3 80 -1.87178 0 237 -1.87178 0
gene 2 80 11 3.42696 0 238 3.42696 1
gene 2 3 94 -4.03802 0 275 -4.03802 1
gene 2 94 80 -2.12992 0 276 -2.12992 1
gene 1 94 37 -3.96989 0 282 -3.96989 1
gene 2 3 37 1.2096 0 337 1.2096 1
gene 2 3 204 -1.73853 0 637 -1.73853 1
gene 2 204 11 -0.889467 0 638 -0.889467 1
gene 2 3 225 -0.222938 0 704 -0.222938 1
gene 2 225 80 0.14008 0 705 0.14008 1
gene 1 94 225 -0.0021363 0 818 -0.0021363 1
genomeend 58

/* Organism #59 Fitness: 4.00021 Error: 1.99995 */
genomestart 59
trait 1 0.502676 0 0 0 0 0 0 0 
trait 2 0.2 0 0.57078 0 0.388379 0.29561 0 0.106192 
trait 3 0.273821 0.299815 0.340175 0 0.0152116 0 0.394665 0 
node 1 3 1 3
node 2 3 1 1
node 3 2 1 1
node 4 1 0 2
node 11 3 0 0
node 37 1 0 0
node 63 1 0 0
node 80 1 0 0
node 94 1 0 0
node 204 1 0 0
node 225 3 0 0
gene 3 1 4 -5.16125 0 1 -5.16125 1
gene 3 2 4 7.14678 0 2 7.14678 1
gene 3 3 4 3.10604 0 3 3.10604 1
gene 3 2 11 -2.397 0 16 -2.397 1
gene 2 11 4 5.93699 0 17 5.93699 0
gene 1 11 37 3.24751 0 99 3.24751 1
gene 1 37 4 8 0 100 8 1
gene 1 2 37 3.96607 0 122 3.96607 1
gene 2 3 11 4.11915 0 177 4.11915 0
gene 2 3 63 0.429987 0 184 0.429987 1
gene 2 63 11 -3.54781 0 185 -3.54781 1
gene 1 3 80 -0.0370571 0 237 -0.0370571 0
gene 2 80 11 -0.784478 0 238 -0.784478 1
gene 2 3 94 -3.1806 0 275 -3.1806 1
gene 2 94 80 2.32269 0 276 2.32269 1
gene 1 94 37 -1.34186 0 282 -1.34186 1
gene 2 3 37 -1.03282 0 337 -1.03282 1
gene 2 3 204 3.17396 0 637 3.17396 1
gene 2 204 11 -0.963698 0 638 -0.963698 1
gene 2 3 225 0.167455 0 704 0.167455 1
gene 2 225 80 1.50906 0 705 1.50906 1
genomeend 59

/* Organism #60 Fitness: 9 Error: 1 */
genomestart 60
trait 1 0.502676 0 0 0 0 0 0 0 
trait 2 0.2 0 0.57078 0 0.388379 0.29561 0 0.106192 
trait 3 0.273821 0.299815 0.340175 0 0.0152116 0 0.394665 0 
node 1 3 1 3
node 2 3 1 1
node 3 2 1 1
node 4 1 0 2
node 11 3 0 0
node 37 1 0 0
node 63 1 0 0
node 80 1 0 0
node 94 1 0 0
node 204 1 0 0
node 225 1 0 0
gene 3 1 4 -6.59699 0 1 -6.59699 1
gene 3 2 4 6.58348 0 2 6.58348 1
gene 3 3 4 6.78719 0 3 6.78719 1
gene 3 2 11 3.54909 0 16 3.54909 1
gene 2 11 4 3.00653 0 17 3.00653 0
gene 1 11 37 2.95408 0 99 2.95408 1
gene 1 37 4 8 0 100 8 1
gene 1 2 37 4.37403 0 122 4.37403 1
gene 2 3 11 0.802474 0 177 0.802474 0
gene 2 3 63 -3.08994 0 184 -3.08994 1
gene 2 63 11 -2.48226 0 185 -2.48226 1
gene 2 3 80 -5.8928 0 237 -5.8928 0
gene 2 80 11 3.52851 0 238 3.52851 1
gene 2 3 94 -0.344668 0 275 -0.344668 1
gene 2 94 80 -1.95193 0 276 -1.95193 1
gene 1 94 37 -4.66456 0 282 -4.66456 1
gene 2 3 37 3.01739 0 337 3.01739 1
gene 2 3 204 1.17721 0 637 1.17721 1
gene 2 204 11 -1.77077 0 638 -1.77077 1
gene 2 3 225 -4.67377 0 704 -4.67377 1
gene 1 225 80 -1.72445 0 705 -1.72445 1
genomeend 60

/* Organism #61 Fitness: 4.27293 Error: 1.93289 */
genomestart 61
trait 1 0.502676 0 0 0 0 0 0 0 
trait 2 0.2 0 0.57078 0 0.388379 0.29561 0 0.106192 
trait 3 0.247642 0.163535 0.340175 0 0.0304231 0 0.394665 0 
node 1 3 1 3
node 2 2 1 1
node 3 2 1 1
node 4 1 0 2
node 11 3 0 0
node 37 1 0 0
node 63 1 0 0
node 80 1 0 0
node 94 1 0 0
node 204 1 0 0
node 225 1 0 0
gene 3 1 4 -5.88309 0 1 -5.88309 1
gene 3 2 4 4.816 0 2 4.816 1
gene 3 3 4 2.02927 0 3 2.02927 1
gene 3 2 11 -1.57345 0 16 -1.57345 1
gene 2 11 4 5.82491 0 17 5.82491 0
gene 1 11 37 3.1072 0 99 3.1072 1
gene 1 37 4 6.48621 0 100 6.48621 1
gene 1 2 37 6.59722 0 122 6.59722 1
gene 2 3 11 0.487752 0 177 0.487752 0
gene 2 3 63 0.33393 0 184 0.33393 1
gene 2 63 11 -1.61325 0 185 -1.61325 1
gene 1 3 80 -2.55384 0 237 -2.55384 0
gene 2 80 11 2.97262 0 238 2.97262 1
gene 2 3 94 -2.68658 0 275 -2.68658 1
gene 2 94 80 -3.32984 0 276 -3.32984 1
gene 1 94 37 -3.50364 0 282 -3.50364 1
gene 2 3 37 1.23091 0 337 1.23091 1
gene 2 3 204 -2.37248 0 637 -2.37248 1
gene 2 204 11 2.3497 0 638 2.3497 1
gene 2 3 225 -3.91966 0 704 -3.91966 1
gene 2 225 80 1.31634 0 705 1.31634 1
gene 1 94 225 -1.28649 0 818 -1.28649 1
genomeend 61

/* Organism #62 Fitness: 9 Error: 1 */
genomestart 62
trait 1 0.502676 0 0 0 0 0 0 0 
trait 2 0.2 0 0.57078 0 0.388379 0.29561 0 0.106192 
trait 3 0.3 0.436094 0.340175 0 0 0 0.394665 0 
node 1 3 1 3
node 2 3 1 1
node 3 2 1 1
node 4 1 0 2
node 11 3 0 0
node 37 1 0 0
node 63 1 0 0
node 80 1 0 0
node 94 1 0 0
node 204 1 0 0
node 225 1 0 0
gene 3 1 4 -6.31691 0 1 -6.31691 1
gene 3 2 4 7.14678 0 2 7.14678 1
gene 3 3 4 6.8058 0 3 6.8058 1
gene 3 2 11 1.40974 0 16 1.40974 1
gene 2 11 4 2.91902 0 17 2.91902 0
gene 1 11 37 2.35439 0 99 2.35439 1
gene 1 37 4 6.82183 0 100 6.82183 1
gene 1 2 37 2.43999 0 122 2.43999 1
gene 2 3 11 3.80817 0 177 3.80817 0
gene 2 3 63 -0.67074 0 184 -0.67074 1
gene 2 63 11 -2.92455 0 185 -2.92455 1
gene 2 3 80 -3.4356 0 237 -3.4356 0
gene 2 80 11 1.2281 0 238 1.2281 1
gene 2 3 94 -2.31998 0 275 -2.31998 1
gene 2 94 80 -0.631542 0 276 -0.631542 1
gene 1 94 37 -1.87021 0 282 -1.87021 1
gene 2 3 37 3.51347 0 337 3.51347 1
gene 2 3 204 1.17721 0 637 1.17721 1
gene 2 204 11 -0.261549 0 638 -0.261549 1
gene 2 3 225 -2.29966 0 704 -2.29966 1
gene 2 225 80 -6.03738 0 705 -6.03738 1
genomeend 62

/* Organism #63 Fitness: 4 Error: 2 */
genomestart 63
trait 1 0.502676 0 0 0 0 0 0 0 
trait 2 0.2 0 0.57078 0 0.388379 0.29561 0 0.106192 
trait 3 0.273821 0.299815 0.340175 0 0.0152116 0 0.394665 0 
node 1 3 1 3
node 2 3 1 1
node 3 2 1 1
node 4 1 0 2
node 11 3 0 0
node 37 1 0 0
node 63 1 0 0
node 80 1 0 0
node 94 1 0 0
node 204 1 0 0
node 225 1 0 0
gene 3 1 4 0.97354 0 1 0.97354 1
gene 3 2 4 8 0 2 8 1
gene 3 3 4 6.8058 0 3 6.8058 1
gene 3 2 11 1.2029 0 16 1.2029 1
gene 2 11 4 2.92276 0 17 2.92276 0
gene 1 11 37 3.36135 0 99 3.36135 1
gene 1 37 4 8 0 100 8 1
gene 1 2 37 4.5296 0 122 4.5296 1
gene 2 3 11 5.34073 0 177 5.34073 0
gene 2 3 63 -0.67074 0 184 -0.67074 1
gene 2 63 11 -0.777116 0 185 -0.777116 1
gene 1 3 80 -2.22533 0 237 -2.22533 0
gene 2 80 11 1.00303 0 238 1.00303 1
gene 2 3 94 -0.00606555 0 275 -0.00606555 1
gene 2 94 80 -2.12992 0 276 -2.12992 1
gene 1 94 37 -3.14688 0 282 -3.14688 1
gene 2 3 37 3.67361 0 337 3.67361 1
gene 2 3 204 -3.06113 0 637 -3.06113 1
gene 2 204 11 1.99659 0 638 1.99659 1
gene 2 3 225 -2.72654 0 704 -2.72654 1
gene 2 225 80 -0.727409 0 705 -0.727409 1
genomeend 63

/* Organism #64 Fitness: 9 Error: 1 */
genomestart 64
trait 1 0.502676 0 0 0 0 0 0 0 
trait 2 0.2 0 0.57078 0 0.388379 0.29561 0 0.106192 
trait 3 0.273821 0.299815 0.340175 0 0.0152116 0 0.394665 0 
node 1 3 1 3
node 2 3 1 1
node 3 2 1 1
node 4 1 0 2
node 11 3 0 0
node 37 1 0 0
node 63 1 0 0
node 80 1 0 0
node 94 1 0 0
node 204 1 0 0
node 225 1 0 0
gene 3 1 4 -4.53928 0 1 -4.53928 1
gene 3 2 4 6.08061 0 2 6.08061 1
gene 3 3 4 4.27704 0 3 4.27704 1
gene 3 2 11 1.45491 0 16 1.45491 1
gene 2 11 4 2.08594 0 17 2.08594 0
gene 1 11 37 1.01379 0 99 1.01379 1
gene 1 37 4 8 0 100 8 1
gene 1 2 37 4.32825 0 122 4.32825 1
gene 2 3 11 6.20143 0 177 6.20143 0
gene 2 3 63 -2.99511 0 184 -2.99511 1
gene 2 63 11 -3.52012 0 185 -3.52012 1
gene 2 3 80 -3.09173 0 237 -3.09173 0
gene 2 80 11 0.372211 0 238 0.372211 1
gene 2 3 94 -1.75493 0 275 -1.75493 1
gene 2 94 80 0.437979 0 276 0.437979 1
gene 1 94 37 -3.58581 0 282 -3.58581 1
gene 2 3 37 4.37508 0 337 4.37508 1
gene 2 3 204 0.134922 0 637 0.134922 1
gene 2 204 11 -0.989415 0 638 -0.989415 1
gene 2 3 225 -0.00633259 0 704 -0.00633259 1
gene 2 225 80 1.34899 0 705 1.34899 1
genomeend 64

/* Species #40 : (Size 10) (AF 6.91674) (Age 11)  */


/* Organism #65 Fitness: 9 Error: 1 */
genomestart 65
trait 1 0.502676 0 0 0 0 0 0.0450453 0 
trait 2 0.2 0 0.57078 0 0.388379 0.29561 0 0.106192 
trait 3 0.3 0.436094 0.340175 0 0 0 0.394665 0 
node 1 3 1 3
node 2 3 1 1
node 3 2 1 1
node 4 1 0 2
node 11 3 0 0
node 37 1 0 0
node 63 1 0 0
node 80 3 0 0
node 94 1 0 0
node 204 1 0 0
node 222 1 0 0
node 237 1 0 0
gene 3 1 4 -8 0 1 -8 1
gene 3 2 4 8 0 2 8 1
gene 3 3 4 -8 0 3 -8 1
gene 3 2 11 3.0536 0 16 3.0536 1
gene 2 11 4 -3.83685 0 17 -3.83685 0
gene 1 11 37 -0.230522 0 99 -0.230522 1
gene 1 37 4 4.11451 0 100 4.11451 1
gene 2 2 37 1.51988 0 122 1.51988 1
gene 2 3 11 7.18195 0 177 7.18195 1
gene 2 3 63 -1.51103 0 184 -1.51103 1
gene 2 63 11 1.36407 0 185 1.36407 1
gene 2 3 80 -2.03929 0 237 -2.03929 1
gene 2 80 11 0.356752 0 238 0.356752 1
gene 2 3 94 3.02171 0 275 3.02171 1
gene 2 94 80 -2.81845 0 276 -2.81845 1
gene 1 94 37 3.80444 0 282 3.80444 1
gene 2 3 37 2.92766 0 337 2.92766 0
gene 2 3 204 3.58664 0 637 3.58664 1
gene 2 204 11 -3.40261 0 638 -3.40261 1
gene 2 80 222 -0.938551 0 692 -0.938551 1
gene 2 222 11 -0.724873 0 693 -0.724873 1
gene 2 3 237 -1.78182 0 742 -1.78182 1
gene 2 237 37 8 0 743 8 1
genomeend 65

/* Organism #66 Fitness: 9 Error: 1 */
genomestart 66
trait 1 0.502676 0 0 0 0.88818 0 0.0225227 0 
trait 2 0.2 0 0.57078 0 0.388379 0.29561 0 0.106192 
trait 3 0.3 0.436094 0.340175 0 0 0 0.394665 0 
node 1 3 1 3
node 2 3 1 1
node 3 2 1 1
node 4 1 0 2
node 11 3 0 0
node 37 1 0 0
node 63 1 0 0
node 80 2 0 0
node 94 1 0 0
node 204 1 0 0
node 222 1 0 0
node 237 1 0 0
gene 3 1 4 -6.69633 0 1 -6.69633 1
gene 3 2 4 7.25298 0 2 7.25298 1
gene 3 3 4 -8 0 3 -8 1
gene 3 2 11 1.05098 0 16 1.05098 1
gene 2 11 4 -2.66471 0 17 -2.66471 0
gene 1 11 37 0.328026 0 99 0.328026 1
gene 1 37 4 2.69018 0 100 2.69018 1
gene 2 2 37 4.66246 0 122 4.66246 1
gene 2 3 11 8 0 177 8 1
gene 2 3 63 -2.91664 0 184 -2.91664 1
gene 2 63 11 1.77691 0 185 1.77691 1
gene 2 3 80 -1.52989 0 237 -1.52989 1
gene 2 80 11 -0.767283 0 238 -0.767283 0
gene 2 3 94 -0.252617 0 275 -0.252617 1
gene 2 94 80 -1.68819 0 276 -1.68819 1
gene 1 94 37 5.96614 0 282 5.96614 1
gene 2 3 37 4.92716 0 337 4.92716 0
gene 2 3 204 3.37309 0 637 3.37309 1
gene 2 204 11 -1.22648 0 638 -1.22648 1
gene 2 80 222 -3.34811 0 692 -3.34811 1
gene 2 222 11 -0.383312 0 693 -0.383312 1
gene 2 3 237 0.649663 0 742 0.649663 1
gene 2 237 37 8 0 743 8 1
genomeend 66

/* Organism #67 Fitness: 8.46269 Error: 1.09093 */
genomestart 67
trait 1 0.502676 0 0 0 0 0 0.0450453 0 
trait 2 0.2 0 0.57078 0 0.388379 0.29561 0 0.106192 
trait 3 0.3 0.436094 0.340175 0 0 0 0.394665 0 
node 1 3 1 3
node 2 3 1 1
node 3 2 1 1
node 4 1 0 2
node 11 3 0 0
node 37 1 0 0
node 63 1 0 0
node 80 3 0 0
node 94 1 0 0
node 204 1 0 0
node 222 1 0 0
node 237 1 0 0
gene 3 1 4 -7.16173 0 1 -7.16173 1
gene 3 2 4 5.77429 0 2 5.77429 1
gene 3 3 4 -7.29571 0 3 -7.29571 1
gene 3 2 11 5.2224 0 16 5.2224 1
gene 2 11 4 -2.79105 0 17 -2.79105 0
gene 1 11 37 1.77439 0 99 1.77439 1
gene 1 37 4 1.855 0 100 1.855 1
gene 2 2 37 3.24455 0 122 3.24455 1
gene 2 3 11 5.13477 0 177 5.13477 1
gene 2 3 63 -3.28393 0 184 -3.28393 1
gene 2 63 11 0.196509 0 185 0.196509 1
gene 2 3 80 -0.582338 0 237 -0.582338 1
gene 2 80 11 2.35755 0 238 2.35755 1
gene 2 3 94 3.18926 0 275 3.18926 1
gene 2 94 80 -5.24368 0 276 -5.24368 1
gene 1 94 37 2.39227 0 282 2.39227 1
gene 2 3 37 2.93483 0 337 2.93483 0
gene 2 3 204 5.74689 0 637 5.74689 1
gene 2 204 11 -1.89988 0 638 -1.89988 1
gene 2 80 222 -0.938551 0 692 -0.938551 1
gene 2 222 11 -1.88839 0 693 -1.88839 1
gene 2 3 237 -2.40944 0 742 -2.40944 1
gene 2 237 37 8 0 743 8 1
genomeend 67

/* Organism #68 Fitness: 8.38793 Error: 1.10381 */
genomestart 68
trait 1 0.502676 0 0 0 0 0 0.0225227 0 
trait 2 0.2 0 0.57078 0 0.388379 0.29561 0 0.106192 
trait 3 0.3 0.436094 0.340175 0 0 0 0.394665 0 
node 1 3 1 3
node 2 3 1 1
node 3 2 1 1
node 4 1 0 2
node 11 3 0 0
node 37 1 0 0
node 63 1 0 0
node 80 2 0 0
node 94 1 0 0
node 204 1 0 0
node 222 1 0 0
node 237 1 0 0
gene 3 1 4 -6.6259 0 1 -6.6259 1
gene 3 2 4 4.5096 0 2 4.5096 1
gene 3 3 4 -7.67499 0 3 -7.67499 1
gene 3 2 11 -0.329484 0 16 -0.329484 1
gene 2 11 4 -5.251 0 17 -5.251 0
gene 1 11 37 -0.0403917 0 99 -0.0403917 1
gene 1 37 4 6.19363 0 100 6.19363 1
gene 2 2 37 2.06326 0 122 2.06326 1
gene 2 3 11 8 0 177 8 1
gene 2 3 63 3.0617 0 184 3.0617 1
gene 2 63 11 0.50795 0 185 0.50795 1
gene 2 3 80 0.874048 0 237 0.874048 1
gene 2 80 11 1.08489 0 238 1.08489 0
gene 2 3 94 1.17237 0 275 1.17237 1
gene 2 94 80 -3.32188 0 276 -3.32188 1
gene 1 94 37 2.36911 0 282 2.36911 1
gene 2 3 37 7.27183 0 337 7.27183 0
gene 2 3 204 2.39054 0 637 2.39054 1
gene 2 204 11 -3.46639 0 638 -3.46639 1
gene 2 80 222 -1.57163 0 692 -1.57163 1
gene 2 222 11 -1.79983 0 693 -1.79983 1
gene 2 3 237 -2.15217 0 742 -2.15217 1
gene 2 237 37 0.485778 0 743 0.485778 1
genomeend 68

/* Organism #69 Fitness: 1.00006 Error: 2.99997 */
genomestart 69
trait 1 0.502676 0.974303 0 0.916501 0 0.976806 0.0225227 0 
trait 2 0.2 0 0.57078 0 0.388379 0.29561 0 0.106192 
trait 3 0.3 0.436094 0.340175 0 0 0 0.394665 0 
node 1 3 1 3
node 2 2 1 1
node 3 2 1 1
node 4 1 0 2
node 11 3 0 0
node 37 1 0 0
node 63 1 0 0
node 80 3 0 0
node 94 1 0 0
node 204 1 0 0
node 222 1 0 0
node 237 1 0 0
gene 3 1 4 0.605335 0 1 0.605335 1
gene 3 2 4 4.55049 0 2 4.55049 1
gene 3 3 4 -6.83706 0 3 -6.83706 1
gene 3 2 11 2.1703 0 16 2.1703 1
gene 2 11 4 -2.62023 0 17 -2.62023 0
gene 1 11 37 0.455869 0 99 0.455869 1
gene 1 37 4 4.04251 0 100 4.04251 1
gene 2 2 37 5.13243 0 122 5.13243 1
gene 2 3 11 1.23417 0 177 1.23417 1
gene 2 3 63 1.49546 0 184 1.49546 1
gene 2 63 11 -1.26848 0 185 -1.26848 1
gene 2 3 80 -1.56749 0 237 -1.56749 1
gene 2 80 11 1.4481 0 238 1.4481 1
gene 2 3 94 -0.295231 0 275 -0.295231 1
gene 2 94 80 -5.97968 0 276 -5.97968 1
gene 1 94 37 4.21707 0 282 4.21707 1
gene 2 3 37 6.56402 0 337 6.56402 0
gene 2 3 204 -0.256281 0 637 -0.256281 1
gene 2 204 11 -2.04953 0 638 -2.04953 1
gene 2 80 222 -2.14333 0 692 -2.14333 1
gene 2 222 11 -1.57239 0 693 -1.57239 1
gene 2 3 237 -0.301599 0 742 -0.301599 1
gene 2 237 37 8 0 743 8 1
genomeend 69

/* Organism #70 Fitness: 8.98875 Error: 1.00188 */
genomestart 70
trait 1 0.502676 0 0 0 0 0 0 0 
trait 2 0.2 0 0.57078 0 0.388379 0.29561 0 0.106192 
trait 3 0.3 0.436094 0.340175 0 0 0 0.394665 0 
node 1 3 1 3
node 2 3 1 1
node 3 2 1 1
node 4 1 0 2
node 11 3 0 0
node 37 1 0 0
node 63 1 0 0
node 80 2 0 0
node 94 1 0 0
node 204 1 0 0
node 222 1 0 0
node 237 1 0 0
gene 3 1 4 -7.54726 0 1 -7.54726 1
gene 3 2 4 3.65065 0 2 3.65065 1
gene 3 3 4 -3.81752 0 3 -3.81752 1
gene 3 2 11 -0.589806 0 16 -0.589806 1
gene 2 11 4 -2.66106 0 17 -2.66106 0
gene 1 11 37 1.40968 0 99 1.40968 1
gene 1 37 4 6.19707 0 100 6.19707 1
gene 2 2 37 4.17485 0 122 4.17485 1
gene 2 3 11 6.8386 0 177 6.8386 1
gene 2 3 63 6.01422 0 184 6.01422 1
gene 2 63 11 -3.9198 0 185 -3.9198 1
gene 2 3 80 -3.35002 0 237 -3.35002 1
gene 2 80 11 -0.217645 0 238 -0.217645 0
gene 2 3 94 -3.21032 0 275 -3.21032 1
gene 2 94 80 -5.52547 0 276 -5.52547 1
gene 1 94 37 2.72725 0 282 2.72725 1
gene 2 3 37 8 0 337 8 0
gene 2 3 204 1.32882 0 637 1.32882 1
gene 2 204 11 1.64982 0 638 1.64982 1
gene 2 80 222 -3.34811 0 692 -3.34811 1
gene 2 222 11 -2.38365 0 693 -2.38365 1
gene 2 3 237 1.97363 0 742 1.97363 1
gene 2 237 37 7.59311 0 743 7.59311 1
genomeend 70

/* Organism #71 Fitness: 8.9477 Error: 1.00873 */
genomestart 71
trait 1 0.502676 0 0 0 0 0 0 0 
trait 2 0.2 0 0.57078 0 0.388379 0.29561 0 0.106192 
trait 3 0.3 0.436094 0.340175 0 0 0 0.394665 0 
node 1 3 1 3
node 2 3 1 1
node 3 2 1 1
node 4 1 0 2
node 11 3 0 0
node 37 1 0 0
node 63 1 0 0
node 80 2 0 0
node 94 1 0 0
node 204 1 0 0
node 222 1 0 0
node 237 1 0 0
gene 3 1 4 -8 0 1 -8 1
gene 3 2 4 4.5157 0 2 4.5157 1
gene 3 3 4 -5.66389 0 3 -5.66389 1
gene 3 2 11 -3.71963 0 16 -3.71963 1
gene 2 11 4 -2.59529 0 17 -2.59529 0
gene 1 11 37 2.26794 0 99 2.26794 1
gene 1 37 4 4.4453 0 100 4.4453 1
gene 2 2 37 3.36893 0 122 3.36893 1
gene 2 3 11 4.64051 0 177 4.64051 1
gene 2 3 63 6.9358 0 184 6.9358 1
gene 2 63 11 -2.55753 0 185 -2.55753 1
gene 2 3 80 -1.08898 0 237 -1.08898 1
gene 2 80 11 0.473828 0 238 0.473828 0
gene 2 3 94 -1.14162 0 275 -1.14162 1
gene 2 94 80 -6.43065 0 276 -6.43065 1
gene 1 94 37 6.03286 0 282 6.03286 1
gene 2 3 37 7.7248 0 337 7.7248 0
gene 2 3 204 -1.20323 0 637 -1.20323 1
gene 2 204 11 1.26742 0 638 1.26742 1
gene 2 80 222 -5.74961 0 692 -5.74961 1
gene 2 222 11 -0.383312 0 693 -0.383312 1
gene 2 3 237 3.24137 0 742 3.24137 1
gene 2 237 37 5.83197 0 743 5.83197 1
gene 3 237 94 -1.57093 0 819 -1.57093 1
genomeend 71

/* Organism #72 Fitness: 8.99839 Error: 1.00027 */
genomestart 72
trait 1 0.502676 0 0 0 0 0 0.0225227 0 
trait 2 0.2 0 0.57078 0 0.388379 0.29561 0 0.106192 
trait 3 0.3 0.436094 0.340175 0 0 0 0.394665 0 
node 1 3 1 3
node 2 3 1 1
node 3 2 1 1
node 4 1 0 2
node 11 3 0 0
node 37 1 0 0
node 63 1 0 0
node 80 2 0 0
node 94 1 0 0
node 204 1 0 0
node 222 1 0 0
node 237 1 0 0
gene 3 1 4 -8 0 1 -8 1
gene 3 2 4 5.55562 0 2 5.55562 1
gene 3 3 4 -5.67412 0 3 -5.67412 1
gene 3 2 11 3.0536 0 16 3.0536 1
gene 2 11 4 -3.83685 0 17 -3.83685 0
gene 1 11 37 -0.230522 0 99 -0.230522 1
gene 1 37 4 4.11451 0 100 4.11451 1
gene 2 2 37 1.51988 0 122 1.51988 1
gene 2 3 11 6.28988 0 177 6.28988 1
gene 2 3 63 -1.51103 0 184 -1.51103 1
gene 2 63 11 -2.26966 0 185 -2.26966 1
gene 2 3 80 -1.61832 0 237 -1.61832 1
gene 2 80 11 0.356752 0 238 0.356752 1
gene 2 3 94 -1.10813 0 275 -1.10813 1
gene 2 94 80 -5.06655 0 276 -5.06655 1
gene 1 94 37 3.6235 0 282 3.6235 1
gene 2 3 37 8 0 337 8 0
gene 2 3 204 0.0459723 0 637 0.0459723 1
gene 2 204 11 -0.696447 0 638 -0.696447 1
gene 2 80 222 -3.34811 0 692 -3.34811 1
gene 2 222 11 -0.383312 0 693 -0.383312 1
gene 2 3 237 -1.78182 0 742 -1.78182 1
gene 2 237 37 7.59311 0 743 7.59311 1
gene 2 80 63 -0.384777 0 831 -0.384777 1
genomeend 72

/* Organism #73 Fitness: 4.00207 Error: 1.99948 */
genomestart 73
trait 1 0.502676 0 0 0 0 0 0 0 
trait 2 0.2 0 0.57078 0 0.388379 0.29561 0 0.106192 
trait 3 0.3 0.436094 0.340175 0 0 0 0.394665 0 
node 1 3 1 3
node 2 3 1 1
node 3 2 1 1
node 4 1 0 2
node 11 3 0 0
node 37 1 0 0
node 63 1 0 0
node 80 2 0 0
node 94 1 0 0
node 204 3 0 0
node 222 1 0 0
node 237 1 0 0
gene 3 1 4 -6.727 0 1 -6.727 1
gene 3 2 4 7.04927 0 2 7.04927 1
gene 3 3 4 -5.86188 0 3 -5.86188 1
gene 3 2 11 -2.89601 0 16 -2.89601 1
gene 2 11 4 -0.299463 0 17 -0.299463 0
gene 1 11 37 -1.6485 0 99 -1.6485 1
gene 1 37 4 7.07707 0 100 7.07707 1
gene 2 2 37 3.81007 0 122 3.81007 1
gene 2 3 11 5.76549 0 177 5.76549 1
gene 2 3 63 6.71835 0 184 6.71835 1
gene 2 63 11 -0.501877 0 185 -0.501877 1
gene 2 3 80 -0.177925 0 237 -0.177925 1
gene 2 80 11 1.60881 0 238 1.60881 0
gene 2 3 94 -0.911893 0 275 -0.911893 1
gene 2 94 80 -3.50354 0 276 -3.50354 1
gene 1 94 37 1.32241 0 282 1.32241 1
gene 2 3 37 6.36192 0 337 6.36192 0
gene 2 3 204 0.249531 0 637 0.249531 1
gene 2 204 11 1.56452 0 638 1.56452 1
gene 2 80 222 -3.1193 0 692 -3.1193 1
gene 2 222 11 0.793863 0 693 0.793863 1
gene 2 3 237 0.34547 0 742 0.34547 1
gene 2 237 37 -0.611972 0 743 -0.611972 1
gene 3 237 94 0.497085 0 819 0.497085 1
genomeend 73

/* Organism #74 Fitness: 2.3798 Error: 2.45734 */
genomestart 74
trait 1 0.502676 0 0 0 0 0 0 0 
trait 2 0.2 0 0.57078 0 0.388379 0.29561 0 0.106192 
trait 3 0.3 0.436094 0.340175 0 0 0 0.394665 0 
node 1 3 1 3
node 2 3 1 1
node 3 2 1 1
node 4 1 0 2
node 11 3 0 0
node 37 1 0 0
node 63 1 0 0
node 80 2 0 0
node 94 1 0 0
node 204 1 0 0
node 222 1 0 0
node 237 1 0 0
gene 3 1 4 -5.74499 0 1 -5.74499 1
gene 3 2 4 7.64812 0 2 7.64812 1
gene 3 3 4 -6.65284 0 3 -6.65284 1
gene 3 2 11 -2.44915 0 16 -2.44915 1
gene 2 11 4 -1.78526 0 17 -1.78526 0
gene 1 11 37 -1.14022 0 99 -1.14022 1
gene 1 37 4 5.71716 0 100 5.71716 1
gene 2 2 37 2.96494 0 122 2.96494 1
gene 2 3 11 7.90049 0 177 7.90049 1
gene 2 3 63 2.54983 0 184 2.54983 1
gene 2 63 11 -3.92338 0 185 -3.92338 1
gene 2 3 80 0.730077 0 237 0.730077 1
gene 2 80 11 0.4707 0 238 0.4707 0
gene 2 3 94 0.995895 0 275 0.995895 1
gene 2 94 80 -6.65191 0 276 -6.65191 1
gene 1 94 37 2.81034 0 282 2.81034 1
gene 2 3 37 6.15394 0 337 6.15394 0
gene 2 3 204 1.65872 0 637 1.65872 1
gene 2 204 11 -0.630527 0 638 -0.630527 1
gene 2 80 222 -3.30432 0 692 -3.30432 1
gene 2 222 11 0.70246 0 693 0.70246 1
gene 2 3 237 1.05441 0 742 1.05441 1
gene 2 237 37 5.99318 0 743 5.99318 1
genomeend 74

/* Species #41 : (Size 12) (AF 8.36423) (Age 10)  */


/* Organism #75 Fitness: 9 Error: 1 */
genomestart 75
trait 1 0.502676 0 0 0 0 0 0 0 
trait 2 0.2 0 0.57078 0 0.388379 0.29561 0 0.106192 
trait 3 0.3 0.436094 0.340175 0 0 0 0.394665 0 
node 1 3 1 3
node 2 3 1 1
node 3 2 1 1
node 4 1 0 2
node 11 3 0 0
node 37 1 0 0
node 63 1 0 0
node 80 1 0 0
node 94 1 0 0
node 228 1 0 0
gene 3 1 4 -8 0 1 -8 1
gene 3 2 4 8 0 2 8 1
gene 3 3 4 7.06674 0 3 7.06674 1
gene 3 2 11 0.601009 0 16 0.601009 1
gene 2 11 4 1.11423 0 17 1.11423 1
gene 1 11 37 1.10851 0 99 1.10851 1
gene 1 37 4 8 0 100 8 1
gene 1 2 37 1.66608 0 122 1.66608 1
gene 2 3 11 3.86295 0 177 3.86295 1
gene 2 3 63 -0.537851 0 184 -0.537851 1
gene 2 63 11 -1.82188 0 185 -1.82188 0
gene 2 3 80 -7.34642 0 237 -7.34642 1
gene 2 80 11 0.143742 0 238 0.143742 1
gene 2 3 94 -0.554216 0 275 -0.554216 1
gene 2 94 80 -0.825106 0 276 -0.825106 1
gene 1 94 37 -1.85415 0 282 -1.85415 1
gene 2 3 37 2.97897 0 337 2.97897 1
gene 1 63 80 2.61306 0 609 2.61306 1
gene 2 1 80 -0.138127 0 619 -0.138127 1
gene 2 63 4 0.933256 0 701 0.933256 1
gene 2 63 228 1 0 712 0 1
gene 2 228 11 -1.82188 0 713 0 1
genomeend 75

/* Organism #76 Fitness: 9 Error: 1 */
genomestart 76
trait 1 0.502676 0 0 0 0 0 0 0 
trait 2 0.2 0 0.57078 0 0.388379 0.29561 0 0.106192 
trait 3 0.3 0.436094 0.340175 0 0 0 0.394665 0 
node 1 3 1 3
node 2 3 1 1
node 3 2 1 1
node 4 1 0 2
node 11 3 0 0
node 37 1 0 0
node 63 1 0 0
node 80 1 0 0
node 94 2 0 0
node 228 1 0 0
gene 3 1 4 -8 0 1 -8 1
gene 3 2 4 8 0 2 8 1
gene 3 3 4 6.57207 0 3 6.57207 1
gene 3 2 11 0.0477462 0 16 0.0477462 1
gene 2 11 4 1.00822 0 17 1.00822 1
gene 1 11 37 1.10851 0 99 1.10851 1
gene 1 37 4 8 0 100 8 1
gene 1 2 37 2.15991 0 122 2.15991 1
gene 2 3 11 4.15735 0 177 4.15735 1
gene 2 3 63 0.0179487 0 184 0.0179487 1
gene 2 63 11 -2.74453 0 185 -2.74453 0
gene 2 3 80 -7.34642 0 237 -7.34642 1
gene 2 80 11 -0.358135 0 238 -0.358135 1
gene 2 3 94 -0.696337 0 275 -0.696337 1
gene 2 94 80 -1.91095 0 276 -1.91095 1
gene 1 94 37 -2.11192 0 282 -2.11192 1
gene 2 3 37 2.96734 0 337 2.96734 1
gene 1 63 80 2.61306 0 609 2.61306 1
gene 2 1 80 -0.138127 0 619 -0.138127 1
gene 2 63 4 0.933256 0 701 0.933256 1
gene 2 63 228 1.58239 0 712 0.832389 1
gene 2 228 11 -1.73193 0 713 -0.365516 1
genomeend 76

/* Organism #77 Fitness: 4.22874 Error: 1.94361 */
genomestart 77
trait 1 0.502676 0 0 0 0 0 0 0 
trait 2 0.2 0 0.57078 0 0.388379 0.29561 0 0.106192 
trait 3 0.3 0.436094 0.340175 0 0 0 0.394665 0 
node 1 3 1 3
node 2 3 1 1
node 3 2 1 1
node 4 1 0 2
node 11 3 0 0
node 37 1 0 0
node 63 1 0 0
node 80 1 0 0
node 94 2 0 0
node 228 1 0 0
gene 3 1 4 -8 0 1 -8 1
gene 3 2 4 7.38276 0 2 7.38276 1
gene 3 3 4 0.520798 0 3 0.520798 1
gene 3 2 11 1.89644 0 16 1.89644 1
gene 2 11 4 2.42401 0 17 2.42401 1
gene 1 11 37 1.60596 0 99 1.60596 1
gene 1 37 4 8 0 100 8 1
gene 1 2 37 1.06319 0 122 1.06319 1
gene 2 3 11 5.72919 0 177 5.72919 1
gene 2 3 63 0.573748 0 184 0.573748 1
gene 2 63 11 -3.09496 0 185 -3.09496 0
gene 2 3 80 -7.03192 0 237 -7.03192 1
gene 2 80 11 -2.3397 0 238 -2.3397 1
gene 2 3 94 -1.55618 0 275 -1.55618 1
gene 2 94 80 -3.15107 0 276 -3.15107 1
gene 1 94 37 -0.54239 0 282 -0.54239 1
gene 2 3 37 4.52184 0 337 4.52184 1
gene 1 63 80 3.00789 0 609 3.00789 1
gene 2 1 80 -2.25021 0 619 -2.25021 1
gene 2 63 4 0.933256 0 701 0.933256 1
gene 2 63 228 -0.957213 0 712 -0.957213 1
gene 2 228 11 -0.700858 0 713 -0.700858 1
genomeend 77

/* Organism #78 Fitness: 9 Error: 1 */
genomestart 78
trait 1 0.502676 0 0 0 0 0 0 0 
trait 2 0.2 0 0.57078 0 0.388379 0.29561 0 0.106192 
trait 3 0.3 0.436094 0.340175 0 0 0 0.394665 0 
node 1 3 1 3
node 2 3 1 1
node 3 2 1 1
node 4 1 0 2
node 11 3 0 0
node 37 1 0 0
node 63 1 0 0
node 80 1 0 0
node 94 1 0 0
node 228 1 0 0
gene 3 1 4 -8 0 1 -8 1
gene 3 2 4 8 0 2 8 1
gene 3 3 4 7.06674 0 3 7.06674 1
gene 3 2 11 -0.505516 0 16 -0.505516 1
gene 2 11 4 1.11423 0 17 1.11423 1
gene 1 11 37 1.10851 0 99 1.10851 1
gene 1 37 4 8 0 100 8 1
gene 1 2 37 1.66608 0 122 1.66608 1
gene 2 3 11 4.45176 0 177 4.45176 1
gene 2 3 63 0.573748 0 184 0.573748 1
gene 2 63 11 -1.82188 0 185 -1.82188 0
gene 2 3 80 -7.34642 0 237 -7.34642 1
gene 2 80 11 0.143742 0 238 0.143742 1
gene 2 3 94 -0.554216 0 275 -0.554216 1
gene 2 94 80 -0.825106 0 276 -0.825106 1
gene 1 94 37 -2.36969 0 282 -2.36969 1
gene 2 3 37 2.9557 0 337 2.9557 1
gene 1 63 80 2.61306 0 609 2.61306 1
gene 2 1 80 -0.138127 0 619 -0.138127 1
gene 2 63 4 0.933256 0 701 0.933256 1
gene 2 63 228 1 0 712 0 1
gene 2 228 11 -1.82188 0 713 0 1
genomeend 78

/* Organism #79 Fitness: 9 Error: 1 */
genomestart 79
trait 1 0.502676 0 0 0 0 0 0 0 
trait 2 0.2 0 0.57078 0 0.388379 0.29561 0 0.106192 
trait 3 0.3 0.436094 0.340175 0 0 0 0.394665 0 
node 1 3 1 3
node 2 3 1 1
node 3 2 1 1
node 4 1 0 2
node 11 3 0 0
node 37 1 0 0
node 63 1 0 0
node 80 1 0 0
node 94 1 0 0
node 228 1 0 0
gene 3 1 4 -8 0 1 -8 1
gene 3 2 4 8 0 2 8 1
gene 3 3 4 6.0774 0 3 6.0774 1
gene 3 2 11 -1.05878 0 16 -1.05878 1
gene 2 11 4 0.902201 0 17 0.902201 1
gene 1 11 37 1.10851 0 99 1.10851 1
gene 1 37 4 8 0 100 8 1
gene 1 2 37 3.14756 0 122 3.14756 1
gene 2 3 11 4.15735 0 177 4.15735 1
gene 2 3 63 1.12955 0 184 1.12955 1
gene 2 63 11 -3.66718 0 185 -3.66718 0
gene 2 3 80 -7.34642 0 237 -7.34642 1
gene 2 80 11 -0.358135 0 238 -0.358135 1
gene 2 3 94 -0.696337 0 275 -0.696337 1
gene 2 94 80 -2.9968 0 276 -2.9968 1
gene 1 94 37 -2.11192 0 282 -2.11192 1
gene 2 3 37 2.96734 0 337 2.96734 1
gene 1 63 80 2.61306 0 609 2.61306 1
gene 2 1 80 -0.138127 0 619 -0.138127 1
gene 2 63 4 0.933256 0 701 0.933256 1
gene 1 63 228 1.58239 0 712 0.832389 1
gene 2 228 11 -1.73193 0 713 -0.365516 1
genomeend 79

/* Organism #80 Fitness: 9 Error: 1 */
genomestart 80
trait 1 0.502676 0 0 0 0 0 0 0 
trait 2 0.2 0 0.57078 0 0.388379 0.29561 0 0.106192 
trait 3 0.3 0.436094 0.340175 0 0 0 0.394665 0 
node 1 3 1 3
node 2 3 1 1
node 3 2 1 1
node 4 1 0 2
node 11 3 0 0
node 37 1 0 0
node 63 1 0 0
node 80 1 0 0
node 94 1 0 0
node 228 1 0 0
gene 3 1 4 -8 0 1 -8 1
gene 3 2 4 8 0 2 8 1
gene 3 3 4 6.0774 0 3 6.0774 1
gene 3 2 11 -1.61204 0 16 -1.61204 1
gene 2 11 4 0.902201 0 17 0.902201 1
gene 1 11 37 1.10851 0 99 1.10851 1
gene 1 37 4 8 0 100 8 1
gene 1 2 37 3.64139 0 122 3.64139 1
gene 2 3 11 3.86295 0 177 3.86295 1
gene 2 3 63 1.68535 0 184 1.68535 1
gene 2 63 11 -3.66718 0 185 -3.66718 0
gene 2 3 80 -7.34642 0 237 -7.34642 1
gene 2 80 11 0.143742 0 238 0.143742 1
gene 2 3 94 -0.554216 0 275 -0.554216 1
gene 2 94 80 -2.9968 0 276 -2.9968 1
gene 1 94 37 -1.85415 0 282 -1.85415 1
gene 2 3 37 2.97897 0 337 2.97897 1
gene 1 63 80 2.61306 0 609 2.61306 1
gene 2 1 80 -0.138127 0 619 -0.138127 1
gene 2 63 4 0.933256 0 701 0.933256 1
gene 1 63 228 1 0 712 0 1
gene 2 228 11 -1.82188 0 713 0 1
gene 1 2 80 0.365764 0 832 0.365764 1
genomeend 80

/* Organism #81 Fitness: 8.99994 Error: 1.00001 */
genomestart 81
trait 1 0.502676 0 0 0 0 0 0 0 
trait 2 0 0 0.392552 0 0.388379 0.630032 0 0 
trait 3 0.3 0.436094 0.340175 0 0 0 0.394665 0 
node 1 3 1 3
node 2 3 1 1
node 3 2 1 1
node 4 1 0 2
node 11 3 0 0
node 37 1 0 0
node 63 1 0 0
node 80 1 0 0
node 94 1 0 0
node 228 1 0 0
gene 3 1 4 -8 0 1 -8 1
gene 3 2 4 8 0 2 8 1
gene 3 3 4 5.96208 0 3 5.96208 1
gene 3 2 11 0.396512 0 16 0.396512 1
gene 2 11 4 -0.163238 0 17 -0.163238 1
gene 1 11 37 1.52707 0 99 1.52707 1
gene 1 37 4 8 0 100 8 1
gene 1 2 37 4.32154 0 122 4.32154 1
gene 2 3 11 3.61031 0 177 3.61031 1
gene 2 3 63 -0.346385 0 184 -0.346385 1
gene 2 63 11 -4.90028 0 185 -4.90028 0
gene 2 3 80 -8 0 237 -8 1
gene 2 80 11 -1.6644 0 238 -1.6644 1
gene 2 3 94 1.1479 0 275 1.1479 1
gene 2 94 80 -2.61151 0 276 -2.61151 1
gene 3 94 37 -3.00687 0 282 -3.00687 1
gene 2 3 37 1.87844 0 337 1.87844 1
gene 1 63 80 0.755623 0 609 0.755623 1
gene 2 1 80 -0.138127 0 619 -0.138127 1
gene 2 63 4 3.21451 0 701 3.21451 1
gene 2 63 228 2.10395 0 712 2.10395 1
gene 2 228 11 1.35846 0 713 1.35846 1
genomeend 81

/* Organism #82 Fitness: 6.14215 Error: 1.52166 */
genomestart 82
trait 1 0.502676 0 0 0 0 0 0 0 
trait 2 0.2 0 0.57078 0 0.388379 0.29561 0 0.106192 
trait 3 0.3 0.436094 0.340175 0 0 0 0.394665 0 
node 1 3 1 3
node 2 3 1 1
node 3 2 1 1
node 4 1 0 2
node 11 3 0 0
node 37 1 0 0
node 63 1 0 0
node 80 1 0 0
node 94 1 0 0
node 228 1 0 0
gene 3 1 4 -5.75201 0 1 -5.75201 1
gene 3 2 4 5.97662 0 2 5.97662 1
gene 3 3 4 -0.288934 0 3 -0.288934 1
gene 3 2 11 -0.713981 0 16 -0.713981 1
gene 2 11 4 3.04689 0 17 3.04689 1
gene 1 11 37 1.10256 0 99 1.10256 1
gene 1 37 4 6.60225 0 100 6.60225 1
gene 1 2 37 4.86183 0 122 4.86183 1
gene 2 3 11 2.05236 0 177 2.05236 1
gene 2 3 63 1.64296 0 184 1.64296 1
gene 2 63 11 -3.65886 0 185 -3.65886 0
gene 2 3 80 -7.35618 0 237 -7.35618 1
gene 2 80 11 -0.288171 0 238 -0.288171 1
gene 2 3 94 0.740532 0 275 0.740532 1
gene 2 94 80 2.44591 0 276 2.44591 1
gene 1 94 37 -3.03865 0 282 -3.03865 1
gene 2 3 37 1.75527 0 337 1.75527 1
gene 1 63 80 0.971236 0 609 0.971236 1
gene 2 1 80 0.850749 0 619 0.850749 1
gene 2 63 4 1.28506 0 701 1.28506 1
gene 1 63 228 0.755852 0 712 0.755852 1
gene 2 228 11 -1.56911 0 713 -1.56911 1
genomeend 82

/* Organism #83 Fitness: 9 Error: 1 */
genomestart 83
trait 1 0.502676 0 0 0 0 0 0 0 
trait 2 0.2 0 0.57078 0 0.388379 0.29561 0 0.106192 
trait 3 0.3 0.436094 0.340175 0 0 0 0.394665 0 
node 1 3 1 3
node 2 3 1 1
node 3 2 1 1
node 4 1 0 2
node 11 3 0 0
node 37 1 0 0
node 63 1 0 0
node 80 1 0 0
node 94 1 0 0
node 228 1 0 0
gene 3 1 4 -8 0 1 -8 1
gene 3 2 4 7.588 0 2 7.588 1
gene 3 3 4 8 0 3 8 1
gene 3 2 11 -1.271 0 16 -1.271 1
gene 2 11 4 -0.969194 0 17 -0.969194 1
gene 1 11 37 0.371639 0 99 0.371639 1
gene 1 37 4 8 0 100 8 1
gene 1 2 37 1.66608 0 122 1.66608 1
gene 2 3 11 3.85707 0 177 3.85707 1
gene 2 3 63 0.511376 0 184 0.511376 1
gene 2 63 11 -3.21177 0 185 -3.21177 0
gene 2 3 80 -5.68751 0 237 -5.68751 1
gene 2 80 11 -2.03299 0 238 -2.03299 1
gene 2 3 94 -0.554216 0 275 -0.554216 1
gene 2 94 80 -0.825106 0 276 -0.825106 1
gene 1 94 37 -0.280313 0 282 -0.280313 1
gene 2 3 37 1.23995 0 337 1.23995 1
gene 1 63 80 1.93638 0 609 1.93638 1
gene 2 1 80 -0.902234 0 619 -0.902234 1
gene 2 63 4 -2.04428 0 701 -2.04428 1
gene 2 63 228 1.32502 0 712 1.32502 1
gene 2 228 11 -1.29231 0 713 -1.29231 1
genomeend 83

/* Organism #84 Fitness: 8.99999 Error: 1 */
genomestart 84
trait 1 0.502676 0 0 0 0 0 0 0 
trait 2 0.2 0 0.57078 0 0.388379 0.29561 0 0.106192 
trait 3 0.3 0.436094 0.340175 0 0 0 0.394665 0 
node 1 3 1 3
node 2 3 1 1
node 3 2 1 1
node 4 1 0 2
node 11 3 0 0
node 37 1 0 0
node 63 1 0 0
node 80 1 0 0
node 94 1 0 0
node 228 1 0 0
gene 3 1 4 -7.58083 0 1 -7.58083 1
gene 3 2 4 8 0 2 8 1
gene 3 3 4 3.69406 0 3 3.69406 1
gene 3 2 11 -1.62005 0 16 -1.62005 1
gene 2 11 4 -1.31779 0 17 -1.31779 1
gene 1 11 37 1.27209 0 99 1.27209 1
gene 1 37 4 8 0 100 8 1
gene 1 2 37 5.99345 0 122 5.99345 1
gene 2 3 11 -0.282983 0 177 -0.282983 1
gene 2 3 63 3.5717 0 184 3.5717 1
gene 2 63 11 -1.76771 0 185 -1.76771 0
gene 2 3 80 -5.34555 0 237 -5.34555 1
gene 2 80 11 1.60169 0 238 1.60169 1
gene 1 3 94 -0.554216 0 275 -0.554216 1
gene 2 94 80 -3.30115 0 276 -3.30115 1
gene 1 94 37 -3.58646 0 282 -3.58646 1
gene 2 3 37 5.21506 0 337 5.21506 1
gene 1 63 80 1.42634 0 609 1.42634 1
gene 2 1 80 1.05251 0 619 1.05251 1
gene 2 63 4 -1.42285 0 701 -1.42285 1
gene 1 63 228 1.66103 0 712 1.66103 1
gene 2 228 11 -1.82188 0 713 -1.82188 1
genomeend 84

/* Organism #85 Fitness: 9 Error: 1 */
genomestart 85
trait 1 0.502676 0 0 0 0 0 0 0 
trait 2 0.2 0 0.57078 0 0.388379 0.29561 0 0.106192 
trait 3 0.3 0.436094 0.340175 0 0 0 0.394665 0 
node 1 3 1 3
node 2 3 1 1
node 3 2 1 1
node 4 1 0 2
node 11 3 0 0
node 37 1 0 0
node 63 1 0 0
node 80 1 0 0
node 94 2 0 0
node 228 1 0 0
gene 3 1 4 -8 0 1 -8 1
gene 3 2 4 8 0 2 8 1
gene 3 3 4 6.0774 0 3 6.0774 1
gene 3 2 11 -0.505516 0 16 -0.505516 1
gene 2 11 4 0.902201 0 17 0.902201 1
gene 1 11 37 1.10851 0 99 1.10851 1
gene 1 37 4 8 0 100 8 1
gene 1 2 37 2.65374 0 122 2.65374 1
gene 2 3 11 4.45176 0 177 4.45176 1
gene 2 3 63 0.573748 0 184 0.573748 1
gene 2 63 11 -3.66718 0 185 -3.66718 0
gene 2 3 80 -7.34642 0 237 -7.34642 1
gene 2 80 11 -0.860012 0 238 -0.860012 1
gene 2 3 94 -0.838458 0 275 -0.838458 1
gene 2 94 80 -2.9968 0 276 -2.9968 1
gene 1 94 37 -2.36969 0 282 -2.36969 1
gene 2 3 37 2.9557 0 337 2.9557 1
gene 1 63 80 2.61306 0 609 2.61306 1
gene 2 1 80 -0.138127 0 619 -0.138127 1
gene 2 63 4 0.933256 0 701 0.933256 1
gene 2 63 228 2.16478 0 712 1.66478 1
gene 2 228 11 -1.64197 0 713 -0.731033 1
gene 3 228 94 0.234565 0 833 0.234565 1
genomeend 85

/* Organism #86 Fitness: 9 Error: 1 */
genomestart 86
trait 1 0.502676 0 0 0 0 0 0 0 
trait 2 0.2 0 0.57078 0 0.388379 0.29561 0 0.106192 
trait 3 0.3 0.436094 0.340175 0 0 0 0.394665 0 
node 1 3 1 3
node 2 3 1 1
node 3 2 1 1
node 4 1 0 2
node 11 3 0 0
node 37 1 0 0
node 63 1 0 0
node 80 1 0 0
node 94 2 0 0
node 228 1 0 0
gene 3 1 4 -8 0 1 -8 1
gene 3 2 4 8 0 2 8 1
gene 3 3 4 4.72467 0 3 4.72467 1
gene 3 2 11 -0.651624 0 16 -0.651624 1
gene 2 11 4 -0.800121 0 17 -0.800121 1
gene 1 11 37 0.93028 0 99 0.93028 1
gene 1 37 4 5.75407 0 100 5.75407 1
gene 1 2 37 5.11582 0 122 5.11582 1
gene 2 3 11 6.52527 0 177 6.52527 1
gene 2 3 63 1.39805 0 184 1.39805 1
gene 2 63 11 -1.3889 0 185 -1.3889 0
gene 2 3 80 -8 0 237 -8 1
gene 2 80 11 -1.13575 0 238 -1.13575 1
gene 2 3 94 -2.94462 0 275 -2.94462 1
gene 2 94 80 -4.70363 0 276 -4.70363 1
gene 1 94 37 -0.601215 0 282 -0.601215 1
gene 2 3 37 4.30332 0 337 4.30332 1
gene 1 63 80 4.89073 0 609 4.89073 1
gene 2 1 80 -0.138127 0 619 -0.138127 1
gene 2 63 4 1.37326 0 701 1.37326 1
gene 2 63 228 2.16478 0 712 2.16478 1
gene 2 228 11 0.00724815 0 713 0.00724815 1
genomeend 86

/* Species #42 : (Size 12) (AF 7.40823) (Age 9)  */


/* Organism #87 Fitness: 9 Error: 1 */
genomestart 87
trait 1 0.502676 0 0 0 0 0 0 0 
trait 2 0.2 0 0.57078 0 0.388379 0.29561 0 0.106192 
trait 3 0.431672 0.412061 0.340175 0.0906171 0.0606555 0.483261 0.697333 0 
node 1 3 1 3
node 2 3 1 1
node 3 2 1 1
node 4 1 0 2
node 11 3 0 0
node 37 1 0 0
node 63 1 0 0
node 80 1 0 0
node 94 1 0 0
node 230 1 0 0
gene 3 1 4 -8 0 1 -8 1
gene 3 2 4 8 0 2 8 1
gene 3 3 4 7.24832 0 3 7.24832 1
gene 3 2 11 0.528069 0 16 0.528069 1
gene 2 11 4 1.85739 0 17 1.85739 1
gene 1 11 37 2.84845 0 99 2.84845 1
gene 1 37 4 8 0 100 8 1
gene 1 2 37 2.31147 0 122 2.31147 1
gene 2 3 11 0.757459 0 177 0.757459 1
gene 2 3 63 2.32124 0 184 2.32124 1
gene 2 63 11 -1.30757 0 185 -1.30757 1
gene 2 3 80 -8 0 237 -8 1
gene 2 80 11 -1.20003 0 238 -1.20003 1
gene 2 3 94 -0.566643 0 275 -0.566643 1
gene 2 94 80 -1.99271 0 276 -1.99271 0
gene 1 94 37 -3.33922 0 282 -3.33922 1
gene 2 3 37 2.6892 0 337 2.6892 1
gene 1 80 63 0.882649 0 696 0.882649 1
gene 2 94 230 1.23846 0 721 1.23846 1
gene 2 230 80 -0.776467 0 722 -0.776467 1
genomeend 87

/* Organism #88 Fitness: 2.37771 Error: 2.45802 */
genomestart 88
trait 1 0.502676 0 0 0 0 0 0 0 
trait 2 0.2 0 0.57078 0 0.388379 0.29561 0 0.106192 
trait 3 0.431672 0.412061 0.340175 0.0906171 0.0606555 0.483261 0.697333 0 
node 1 3 1 3
node 2 3 1 1
node 3 2 1 1
node 4 1 0 2
node 11 3 0 0
node 37 1 0 0
node 63 1 0 0
node 80 1 0 0
node 94 1 0 0
node 230 1 0 0
gene 3 1 4 -7.99466 0 1 -7.99466 1
gene 3 2 4 8 0 2 8 1
gene 3 3 4 -1.79388 0 3 -1.79388 1
gene 3 2 11 0.559122 0 16 0.559122 1
gene 2 11 4 1.48251 0 17 1.48251 1
gene 1 11 37 1.70057 0 99 1.70057 1
gene 1 37 4 6.45508 0 100 6.45508 1
gene 1 2 37 0.371334 0 122 0.371334 1
gene 2 3 11 2.1768 0 177 2.1768 1
gene 2 3 63 0.318537 0 184 0.318537 1
gene 2 63 11 -3.43265 0 185 -3.43265 1
gene 2 3 80 -8 0 237 -8 1
gene 2 80 11 2.42943 0 238 2.42943 1
gene 2 3 94 -2.02429 0 275 -2.02429 1
gene 2 94 80 -1.95883 0 276 -1.95883 0
gene 1 94 37 -5.18117 0 282 -5.18117 1
gene 2 3 37 4.63086 0 337 4.63086 1
gene 1 80 63 2.11644 0 696 2.11644 1
gene 2 94 230 1.30133 0 721 1.30133 1
gene 2 230 80 0.374157 0 722 0.374157 1
genomeend 88

/* Organism #89 Fitness: 8.9477 Error: 1.00873 */
genomestart 89
trait 1 0.502676 0 0 0 0 0 0 0 
trait 2 0.2 0 0.57078 0 0.388379 0.29561 0 0.106192 
trait 3 0.431672 0.412061 0.340175 0.0906171 0.0606555 0.483261 0.697333 0 
node 1 3 1 3
node 2 3 1 1
node 3 2 1 1
node 4 1 0 2
node 11 3 0 0
node 37 1 0 0
node 63 1 0 0
node 80 1 0 0
node 94 1 0 0
node 230 1 0 0
gene 3 1 4 -8 0 1 -8 1
gene 3 2 4 8 0 2 8 1
gene 3 3 4 6.66717 0 3 6.66717 1
gene 3 2 11 -0.47042 0 16 -0.47042 1
gene 2 11 4 2.50263 0 17 2.50263 1
gene 1 11 37 1.09882 0 99 1.09882 1
gene 1 37 4 8 0 100 8 1
gene 1 2 37 4.19729 0 122 4.19729 1
gene 2 3 11 0.735333 0 177 0.735333 1
gene 2 3 63 3.31393 0 184 3.31393 1
gene 2 63 11 -0.601215 0 185 -0.601215 1
gene 2 3 80 -7.35362 0 237 -7.35362 1
gene 2 80 11 -3.52233 0 238 -3.52233 1
gene 2 3 94 1.08242 0 275 1.08242 1
gene 2 94 80 -4.3862 0 276 -4.3862 0
gene 1 94 37 -4.91749 0 282 -4.91749 1
gene 2 3 37 3.67457 0 337 3.67457 1
gene 1 80 63 0.882649 0 696 0.882649 1
gene 2 94 230 0.489006 0 721 0.489006 1
gene 2 230 80 0.221107 0 722 0.221107 1
genomeend 89

/* Organism #90 Fitness: 9 Error: 1 */
genomestart 90
trait 1 0.502676 0 0 0 0 0 0 0 
trait 2 0.2 0 0.57078 0 0.388379 0.29561 0 0.106192 
trait 3 0.431672 0.412061 0.340175 0.0906171 0.0606555 0.483261 0.697333 0 
node 1 3 1 3
node 2 3 1 1
node 3 2 1 1
node 4 1 0 2
node 11 3 0 0
node 37 1 0 0
node 63 1 0 0
node 80 1 0 0
node 94 1 0 0
node 230 1 0 0
gene 3 1 4 -8 0 1 -8 1
gene 3 2 4 8 0 2 8 1
gene 3 3 4 7.24832 0 3 7.24832 1
gene 3 2 11 0.528069 0 16 0.528069 1
gene 2 11 4 1.85739 0 17 1.85739 1
gene 1 11 37 2.84845 0 99 2.84845 1
gene 1 37 4 8 0 100 8 1
gene 1 2 37 2.31147 0 122 2.31147 1
gene 2 3 11 0.757459 0 177 0.757459 1
gene 2 3 63 2.32124 0 184 2.32124 1
gene 2 63 11 -1.30757 0 185 -1.30757 1
gene 2 3 80 -8 0 237 -8 1
gene 2 80 11 -1.20003 0 238 -1.20003 1
gene 2 3 94 -0.566643 0 275 -0.566643 1
gene 2 94 80 -1.99271 0 276 -1.99271 0
gene 1 94 37 -3.33922 0 282 -3.33922 1
gene 2 3 37 2.6892 0 337 2.6892 1
gene 1 80 63 0.882649 0 696 0.882649 1
gene 2 94 230 1.23846 0 721 1.23846 1
