
/* Species #1 : (Size 34) (AF 7.91483) (Age 12)  */


/* Organism #0 Fitness: 9 Error: 1 */
genomestart 0
trait 1 0 0.0762557 0.116142 0.493301 0.203589 0 0 0.427366 
trait 2 0.198438 0.00998885 0.00163226 0.0109612 0 0.00598067 0.00319371 0 
trait 3 0.233796 0.234466 0.158706 0.169607 0.0589422 0 0 0.0244606 
node 1 1 1 3
node 2 2 1 1
node 3 2 1 1
node 4 1 0 2
gene 1 1 4 -3.45698 0 1 -3.45698 1
gene 2 2 4 8 0 2 8 1
gene 1 3 4 7.62927 0 3 7.62927 1
genomeend 0

/* Organism #1 Fitness: 8.99997 Error: 1 */
genomestart 1
trait 1 0.05 0.348598 0 0.530808 0 0 0.265053 0 
trait 2 0.2 0 0 0 0 0 0 0 
trait 3 0.3 0 0 0 0 0 0 0 
node 1 1 1 3
node 2 3 1 1
node 3 2 1 1
node 4 1 0 2
node 11 1 0 0
gene 3 1 4 -6.53459 0 1 -6.53459 1
gene 2 2 4 5.88923 0 2 5.88923 1
gene 1 3 4 5.34242 0 3 5.34242 1
gene 2 2 11 5.04538 0 16 5.04538 1
gene 2 11 4 8 0 17 8 1
genomeend 1

/* Organism #2 Fitness: 8.99902 Error: 1.00016 */
genomestart 2
trait 1 0.0871094 0.0762557 0.00542133 0 0.0201117 0.161048 0.0579804 0.427366 
trait 2 0.198438 0.00998885 0.00163226 0.0109612 0 0.00598067 0.00319371 0 
trait 3 0.233796 0.234466 0.158706 0.169607 0.0589422 0 0 0.0244606 
node 1 1 1 3
node 2 2 1 1
node 3 2 1 1
node 4 1 0 2
gene 1 1 4 -1.76984 0 1 -1.76984 1
gene 2 2 4 5.54975 0 2 5.54975 1
gene 1 3 4 7.97283 0 3 7.97283 1
genomeend 2

/* Organism #3 Fitness: 8.99975 Error: 1.00004 */
genomestart 3
trait 1 0.0894531 0.0653621 0.004066 0 0.0301675 0.0206801 0.0496975 0 
trait 2 0.195313 0.00599331 0.00489679 0.00672146 0 0.017942 0.00958114 0 
trait 3 0 0.234466 0.0690696 0.0302286 0.0255693 0 0.0041622 0.0244606 
node 1 1 1 3
node 2 3 1 1
node 3 2 1 1
node 4 1 0 2
gene 2 1 4 -2.05002 0 1 -2.05002 1
gene 2 2 4 6.41444 0 2 6.41444 1
gene 1 3 4 5.85389 0 3 5.85389 1
genomeend 3

/* Organism #4 Fitness: 8.81744 Error: 1.03058 */
genomestart 4
trait 1 0.05 0.348598 0 0.530808 0 0 0.265053 0 
trait 2 0.2 0 0 0 0 0 0 0 
trait 3 0.181436 0 0 0 0 0.81753 0 0 
node 1 1 1 3
node 2 3 1 1
node 3 2 1 1
node 4 1 0 2
node 11 1 0 0
gene 3 1 4 -4.60323 0 1 -4.60323 1
gene 2 2 4 4.64759 0 2 4.64759 1
gene 1 3 4 6.18046 0 3 6.18046 1
gene 2 2 11 4.49796 0 16 4.49796 1
gene 2 11 4 7.8027 0 17 7.8027 1
genomeend 4

/* Organism #5 Fitness: 8.99992 Error: 1.00001 */
genomestart 5
trait 1 0.0679687 0.217874 0.00271066 0.265404 0.0201117 0.0137867 0.165658 0 
trait 2 0.196875 0.00399554 0.00326453 0.00448098 0 0.0119613 0.00638743 0 
trait 3 0.317591 0 0.0634823 0 0 0 0 0.67394 
node 1 1 1 3
node 2 3 1 1
node 3 2 1 1
node 4 1 0 2
gene 2 1 4 -2.41494 0 1 -2.41494 1
gene 2 2 4 4.84861 0 2 4.84861 1
gene 1 3 4 6.96097 0 3 6.96097 1
genomeend 5

/* Organism #6 Fitness: 8.99996 Error: 1.00001 */
genomestart 6
trait 1 0.0894531 0.0653621 0.004066 0 0.0301675 0.0206801 0.0496975 0 
trait 2 0.195313 0.00599331 0.00489679 0.00672146 0 0.017942 0.00958114 0 
trait 3 0.251387 0.234466 0.0690696 0.169607 0.0255693 0 0.0041622 0.0244606 
node 1 1 1 3
node 2 3 1 1
node 3 2 1 1
node 4 1 0 2
gene 2 1 4 -2.44218 0 1 -2.44218 1
gene 2 2 4 5.78347 0 2 5.78347 1
gene 1 3 4 6.04181 0 3 6.04181 1
genomeend 6

/* Organism #7 Fitness: 8.99999 Error: 1 */
genomestart 7
trait 1 0.0775391 0.147065 0.004066 0.132702 0.0201117 0.0874174 0.111819 0.213683 
trait 2 0.197656 0.0069922 0.0024484 0.00772106 0 0.00897101 0.00479057 0 
trait 3 0.275693 0.117233 0.111094 0.0848033 0.0418726 0 0 0.0122303 
node 1 1 1 3
node 2 3 1 1
node 3 2 1 1
node 4 1 0 2
gene 1 1 4 -2.73645 0 1 -2.73645 1
gene 2 2 4 5.79215 0 2 5.79215 1
gene 1 3 4 6.49199 0 3 6.49199 1
genomeend 7

/* Organism #8 Fitness: 6.32207 Error: 1.48563 */
genomestart 8
trait 1 0.0816406 0.114384 0.00609899 0.0663511 0.0251396 0.0908641 0.0869706 0.213683 
trait 2 0.198438 0.00998885 0.00163226 0.0109612 0 0.00598067 0.00319371 0 
trait 3 0.271296 0.117233 0.158706 0.0848033 0.0589422 0 0 0.0122303 
node 1 1 1 3
node 2 3 1 1
node 3 2 1 1
node 4 1 0 2
node 28 1 0 0
gene 1 1 4 -2.9463 0 1 -2.9463 1
gene 2 2 4 7.31972 0 2 7.31972 1
gene 1 3 4 5.86925 0 3 5.86925 0
gene 1 3 28 1 0 70 0 1
gene 1 28 4 5.86925 0 71 0 1
genomeend 8

/* Organism #9 Fitness: 7.45364 Error: 1.26986 */
genomestart 9
trait 1 0.0894531 0.0653621 0.004066 0 0.0301675 0.0206801 0.0496975 0 
trait 2 0.195313 0.00599331 0.00489679 0.00672146 0 0.017942 0.00958114 0 
trait 3 0.251387 0.234466 0.0690696 0.169607 0.0255693 0 0.0041622 0.0244606 
node 1 1 1 3
node 2 3 1 1
node 3 2 1 1
node 4 1 0 2
gene 2 1 4 -0.202124 0 1 -0.202124 1
gene 2 2 4 7.40026 0 2 7.40026 1
gene 1 3 4 7.39714 0 3 7.39714 1
genomeend 9

/* Organism #10 Fitness: 8.99991 Error: 1.00001 */
genomestart 10
trait 1 0.643548 0.217874 0.460153 0.265404 0 0.0137867 0.165658 0 
trait 2 0.196875 0.00399554 0.00326453 0.00448098 0 0.0119613 0.00638743 0 
trait 3 0.317591 0 0.0634823 0 0.024803 0 0 0 
node 1 1 1 3
node 2 3 1 1
node 3 2 1 1
node 4 1 0 2
gene 2 1 4 -2.26312 0 1 -2.26312 1
gene 2 2 4 6.8169 0 2 6.8169 1
gene 1 3 4 8 0 3 8 1
genomeend 10

/* Organism #11 Fitness: 8.99631 Error: 1.00061 */
genomestart 11
trait 1 0.0865234 0.0817026 0.00542133 0 0.0301675 0.0943108 0.0621219 0.213683 
trait 2 0.196094 0.00898997 0.00408066 0.00996155 0 0.0149517 0.00798429 0 
trait 3 0.284489 0.117233 0.142835 0.0848033 0.0542741 0 0 0.0122303 
node 1 1 1 3
node 2 2 1 1
node 3 2 1 1
node 4 1 0 2
gene 2 1 4 -4.76785 0 1 -4.76785 1
gene 2 2 4 6.26955 0 2 6.26955 1
gene 1 3 4 7.72353 0 3 7.72353 1
genomeend 11

/* Organism #12 Fitness: 8.99996 Error: 1.00001 */
genomestart 12
trait 1 0.0630859 0.250555 0.00338833 0.331755 0.0150838 0.0103401 0.190507 0 
trait 2 0.199219 0.00499443 0.000816132 0.00548058 0 0.00299034 0.00159686 0 
trait 3 0.304398 0 0.0793529 0 0.0294711 0 0 0 
node 1 1 1 3
node 2 3 1 1
node 3 2 1 1
node 4 1 0 2
gene 3 1 4 -3.29031 0 1 -3.29031 1
gene 2 2 4 6.33136 0 2 6.33136 1
gene 1 3 4 5.71054 0 3 5.71054 1
genomeend 12

/* Organism #13 Fitness: 8.94658 Error: 1.00892 */
genomestart 13
trait 1 0.0679687 0.217874 0.00271066 0.265404 0.0201117 0.0137867 0.165658 0 
trait 2 0.196875 0.00399554 0.00326453 0.00448098 0 0.0119613 0.00638743 0 
trait 3 0.317591 0 0.0634823 0 0.024803 0 0 0 
node 1 1 1 3
node 2 3 1 1
node 3 2 1 1
node 4 1 0 2
gene 2 1 4 -0.956923 0 1 -0.956923 1
gene 2 2 4 3.26584 0 2 3.26584 1
gene 1 3 4 5.3328 0 3 5.3328 1
genomeend 13

/* Organism #14 Fitness: 9 Error: 1 */
genomestart 14
trait 1 0.0871094 0.0762557 0.00542133 0 0.0201117 0.161048 0.0579804 0.427366 
trait 2 0.198438 0.00998885 0.00163226 0.0109612 0 0.00598067 0.00319371 0 
trait 3 0.233796 0.234466 0.158706 0.169607 0.0589422 0 0 0.0244606 
node 1 1 1 3
node 2 2 1 1
node 3 2 1 1
node 4 1 0 2
gene 1 1 4 -3.05795 0 1 -3.05795 1
gene 2 2 4 6.7357 0 2 6.7357 1
gene 1 3 4 6.02301 0 3 6.02301 1
genomeend 14

/* Organism #15 Fitness: 4.39518 Error: 1.90353 */
genomestart 15
trait 1 0.0865234 0.0817026 0.00542133 0 0.0301675 0.0943108 0.0621219 0.213683 
trait 2 0.196094 0.00898997 0.00408066 0.00996155 0 0.0149517 0.00798429 0 
trait 3 0.284489 0.117233 0.142835 0.0848033 0.0542741 0 0 0.0122303 
node 1 1 1 3
node 2 2 1 1
node 3 2 1 1
node 4 1 0 2
gene 2 1 4 -4.21249 0 1 -4.21249 1
gene 2 2 4 7.21181 0 2 7.21181 1
gene 1 3 4 3.75819 0 3 3.75819 1
genomeend 15

/* Organism #16 Fitness: 9 Error: 1 */
genomestart 16
trait 1 0.025 0.212427 0.0580712 0.512055 0.101794 0 0.132527 0.213683 
trait 2 0.199219 0.00499443 0.000816132 0.00548058 0 0.00299034 0.00159686 0 
trait 3 0.266898 0.117233 0.0793529 0.0848033 0.0294711 0 0 0.0122303 
node 1 1 1 3
node 2 2 1 1
node 3 2 1 1
node 4 1 0 2
gene 1 1 4 -3.93483 0 1 -3.93483 1
gene 2 2 4 7.98929 0 2 7.98929 1
gene 1 3 4 7.62927 0 3 7.62927 1
genomeend 16

/* Organism #17 Fitness: 8.99999 Error: 1 */
genomestart 17
trait 1 0.0828125 0.108937 0.00542133 0.0663511 0.0301675 0.0206801 0.0828291 0 
trait 2 0.196875 0.00799108 0.00326453 0.00884131 0 0.0119613 0.00638743 0 
trait 3 0.280091 0.117233 0.113888 0.0848033 0.0422557 0 0.0020811 0.0122303 
node 1 1 1 3
node 2 3 1 1
node 3 2 1 1
node 4 1 0 2
gene 2 1 4 -2.83465 0 1 -2.83465 1
gene 2 2 4 5.78347 0 2 5.78347 1
gene 1 3 4 6.04181 0 3 6.04181 1
genomeend 17

/* Organism #18 Fitness: 8.75243 Error: 1.04155 */
genomestart 18
trait 1 0.0787109 0.141618 0.00338833 0.132702 0.0251396 0.0172334 0.107678 0 
trait 2 0.196094 0.00499443 0.00408066 0.00560122 0 0.0149517 0.00798429 0 
trait 3 0.158796 0.117233 0.066276 0.0151143 0.0251861 0 0.0020811 0.0122303 
node 1 1 1 3
node 2 3 1 1
node 3 2 1 1
node 4 1 0 2
gene 2 1 4 -3.44143 0 1 -3.44143 1
gene 2 2 4 4.07878 0 2 4.07878 1
gene 1 3 4 6.19944 0 3 6.19944 1
genomeend 18

/* Organism #19 Fitness: 8.99996 Error: 1.00001 */
genomestart 19
trait 1 0.0859375 0.0871494 0.00542133 0 0.0402234 0.0275735 0.0662633 0 
trait 2 0.19375 0.00799108 0.00652905 0.00896195 0 0.0239227 0.0127749 0 
trait 3 0.335182 0 0.126965 0 0.0496059 0 0 0 
node 1 1 1 3
node 2 3 1 1
node 3 2 1 1
node 4 1 0 2
gene 2 1 4 -2.44409 0 1 -2.44409 1
gene 2 2 4 7.60748 0 2 7.60748 1
gene 1 3 4 8 0 3 8 1
genomeend 19

/* Organism #20 Fitness: 8.99996 Error: 1.00001 */
genomestart 20
trait 1 0.0783203 0.141618 0.00474366 0.132702 0.0251396 0.0172334 0.107678 0 
trait 2 0.197656 0.0069922 0.0024484 0.00772106 0 0.00897101 0.00479057 0 
trait 3 0.275693 0.117233 0.0980171 0.0848033 0.036055 0 0.0020811 0.0122303 
node 1 1 1 3
node 2 3 1 1
node 3 2 1 1
node 4 1 0 2
gene 2 1 4 -2.44218 0 1 -2.44218 1
gene 2 2 4 5.78347 0 2 5.78347 1
gene 1 3 4 6.04181 0 3 6.04181 1
genomeend 20

/* Organism #21 Fitness: 8.99997 Error: 1 */
genomestart 21
trait 1 0.05 0.348598 0 0.530808 0 0 0.265053 0 
trait 2 0.2 0 0 0 0 0 0 0 
trait 3 0.3 0 0 0 0 0 0 0 
node 1 1 1 3
node 2 3 1 1
node 3 2 1 1
node 4 1 0 2
node 11 1 0 0
gene 3 1 4 -6.53459 0 1 -6.53459 1
gene 2 2 4 5.88923 0 2 5.88923 1
gene 1 3 4 5.34242 0 3 5.34242 1
gene 3 2 11 5.04538 0 16 5.04538 1
gene 2 11 4 8 0 17 8 1
genomeend 21

/* Organism #22 Fitness: 4 Error: 2 */
genomestart 22
trait 1 0.0671875 0.217874 0.00542133 0.265404 0.0201117 0.0137867 0.165658 0 
trait 2 0.2 0.00799108 0 0.00872066 0 0 0 0 
trait 3 0.3 0 0.126965 0 0.0465407 0 0 0 
node 1 1 1 3
node 2 3 1 1
node 3 2 1 1
node 4 1 0 2
gene 2 1 4 -4.2543 0 1 -4.2543 1
gene 2 2 4 0.502792 0 2 0.502792 1
gene 1 3 4 7.78327 0 3 7.78327 1
genomeend 22

/* Organism #23 Fitness: 8.99992 Error: 1.00001 */
genomestart 23
trait 1 0.0787109 0.141618 0.00338833 0.132702 0.0251396 0.0172334 0.107678 0 
trait 2 0.196094 0.00499443 0.00408066 0.00560122 0 0.0149517 0.00798429 0 
trait 3 0.284489 0.117233 0.066276 0.0848033 0.0251861 0 0.0020811 0.0122303 
node 1 1 1 3
node 2 3 1 1
node 3 2 1 1
node 4 1 0 2
gene 2 1 4 -2.41494 0 1 -2.41494 1
gene 2 2 4 4.84861 0 2 4.84861 1
gene 1 3 4 6.96097 0 3 6.96097 1
genomeend 23

/* Organism #24 Fitness: 8.99944 Error: 1.00009 */
genomestart 24
trait 1 0.025 0.212427 0.0580712 0.512055 0.101794 0 0.132527 0.213683 
trait 2 0.199219 0.00499443 0.000816132 0.00548058 0 0.00299034 0.00159686 0 
trait 3 0.266898 0.117233 0.0793529 0.0848033 0.0294711 0 0 0.0122303 
node 1 1 1 3
node 2 2 1 1
node 3 2 1 1
node 4 1 0 2
gene 1 1 4 -3.45698 0 1 -3.45698 1
gene 2 2 4 8 0 2 8 1
gene 1 3 4 5.34242 0 3 5.34242 1
genomeend 24

/* Organism #25 Fitness: 4.01476 Error: 1.99631 */
genomestart 25
trait 1 0.0761719 0.152511 0.00677666 0.132702 0.0301675 0.0206801 0.115961 0 
trait 2 0.198438 0.00998885 0.00163226 0.0109612 0 0.00598067 0.00319371 0 
trait 3 0.308796 0 0.158706 0 0.0589422 0 0 0 
node 1 1 1 3
node 2 3 1 1
node 3 2 1 1
node 4 1 0 2
gene 2 1 4 -4.12825 0 1 -4.12825 1
gene 2 2 4 6.22492 0 2 6.22492 1
gene 1 3 4 -0.961409 0 3 -0.961409 1
genomeend 25

/* Organism #26 Fitness: 9 Error: 1 */
genomestart 26
trait 1 0.0865234 0.0817026 0.00542133 0 0.0301675 0.0943108 0.0621219 0.213683 
trait 2 0.196094 0.00898997 0.00408066 0.00996155 0 0.0149517 0.00798429 0 
trait 3 0.284489 0.117233 0.142835 0.0848033 0.0542741 0 0 0.0122303 
node 1 1 1 3
node 2 3 1 1
node 3 2 1 1
node 4 1 0 2
gene 1 1 4 -3.00753 0 1 -3.00753 1
gene 2 2 4 6.80896 0 2 6.80896 1
gene 1 3 4 6.11981 0 3 6.11981 1
genomeend 26

/* Organism #27 Fitness: 5.50727 Error: 1.65324 */
genomestart 27
trait 1 0.0871094 0.0762557 0.00542133 0 0.0201117 0.161048 0.0579804 0.427366 
trait 2 0.198438 0.00998885 0.00163226 0.0109612 0 0.00598067 0.00319371 0 
trait 3 0.233796 0.234466 0.158706 0.169607 0.0589422 0 0 0.0244606 
node 1 1 1 3
node 2 2 1 1
node 3 2 1 1
node 4 1 0 2
gene 1 1 4 -4.23307 0 1 -4.23307 1
gene 2 2 4 6.77881 0 2 6.77881 1
gene 1 3 4 4.10446 0 3 4.10446 1
genomeend 27

/* Organism #28 Fitness: 8.98604 Error: 1.00233 */
genomestart 28
trait 1 0.0671875 0.217874 0.00542133 0.265404 0.0201117 0.0137867 0.165658 0 
trait 2 0.2 0.00799108 0 0.00872066 0 0 0 0 
trait 3 0.3 0 0.126965 0 0.0465407 0 0 0 
node 1 1 1 3
node 2 3 1 1
node 3 2 1 1
node 4 1 0 2
gene 2 1 4 -1.23235 0 1 -1.23235 1
gene 2 2 4 3.44743 0 2 3.44743 1
gene 1 3 4 7.52219 0 3 7.52219 1
genomeend 28

/* Organism #29 Fitness: 4.83346 Error: 1.80149 */
genomestart 29
trait 1 0.0865234 0.0817026 0.00542133 0 0.0301675 0.0943108 0.0621219 0.213683 
trait 2 0.196094 0.00898997 0.00408066 0.00996155 0 0.0149517 0.00798429 0 
trait 3 0.284489 0.117233 0.142835 0.0848033 0.0542741 0 0 0.0122303 
node 1 1 1 3
node 2 2 1 1
node 3 2 1 1
node 4 1 0 2
gene 1 1 4 -5.40284 0 1 -5.40284 1
gene 2 2 4 7.53628 0 2 7.53628 1
gene 1 3 4 5.11946 0 3 5.11946 1
genomeend 29

/* Organism #30 Fitness: 4.00163 Error: 1.99959 */
genomestart 30
trait 1 0.0589844 0.283236 0.00135533 0.398106 0.0100558 0.00689337 0.215356 0 
trait 2 0.198438 0.00199777 0.00163226 0.00224049 0 0.00598067 0.00319371 0 
trait 3 0.308796 0 0.0317412 0 0.0124015 0 0 0 
node 1 1 1 3
node 2 3 1 1
node 3 2 1 1
node 4 1 0 2
node 11 1 0 0
gene 2 1 4 -2.41494 0 1 -2.41494 1
gene 2 2 4 4.84861 0 2 4.84861 1
gene 1 3 4 6.96097 0 3 6.96097 1
gene 2 2 11 5.04538 0 16 5.04538 1
gene 2 11 4 8 0 17 8 1
genomeend 30

/* Organism #31 Fitness: 4.28012 Error: 1.93115 */
genomestart 31
trait 1 0.0894531 0.0653621 0.004066 0 0.0301675 0.0206801 0.0496975 0 
trait 2 0.195313 0.00599331 0.00489679 0.00672146 0 0.017942 0.00958114 0 
trait 3 0.251387 0.234466 0.0690696 0.169607 0.0255693 0 0.0041622 0.0244606 
node 1 1 1 3
node 2 3 1 1
node 3 2 1 1
node 4 1 0 2
gene 2 1 4 -4.12078 0 1 -4.12078 1
gene 1 2 4 3.59186 0 2 3.59186 1
gene 1 3 4 7.03107 0 3 7.03107 1
genomeend 31

/* Organism #32 Fitness: 9 Error: 1 */
genomestart 32
trait 1 0.0876953 0.0762557 0.00474366 0 0.0351955 0.0241268 0.0579804 0 
trait 2 0.194531 0.0069922 0.00571292 0.00784171 0 0.0209324 0.011178 0 
trait 3 0.293284 0.117233 0.0980171 0.0848033 0.0375876 0 0.0020811 0.0122303 
node 1 1 1 3
node 2 3 1 1
node 3 2 1 1
node 4 1 0 2
gene 2 1 4 -2.95711 0 1 -2.95711 1
gene 2 2 4 6.88221 0 2 6.88221 1
gene 1 3 4 6.21661 0 3 6.21661 1
genomeend 32

/* Organism #33 Fitness: 8.79949 Error: 1.03361 */
genomestart 33
trait 1 0.0816406 0.114384 0.00609899 0.0663511 0.0251396 0.0908641 0.0869706 0.213683 
trait 2 0.198438 0.00998885 0.00163226 0.0109612 0 0.00598067 0.00319371 0 
trait 3 0.271296 0.117233 0.158706 0.0848033 0.0589422 0 0 0.0122303 
node 1 1 1 3
node 2 2 1 1
node 3 2 1 1
node 4 1 0 2
gene 2 1 4 -0.682104 0 1 -0.682104 1
gene 2 2 4 7.03005 0 2 7.03005 1
gene 1 3 4 3.48955 0 3 3.48955 1
genomeend 33

/* Species #2 : (Size 31) (AF 6.61783) (Age 8)  */


/* Organism #34 Fitness: 8.99917 Error: 1.00014 */
genomestart 34
trait 1 0.1 0 0 0 0 0 0 0.358379 
trait 2 0.2 0 0 0.947386 0 0 0.460982 0 
trait 3 0.3 0 0 0 0 0 0 0 
node 1 1 1 3
node 2 3 1 1
node 3 2 1 1
node 4 3 0 2
node 9 3 0 0
gene 2 1 4 -6.13082 0 1 -6.13082 1
gene 1 2 4 1.91206 0 2 1.91206 0
gene 3 3 4 -4.22153 0 3 -4.22153 1
gene 1 2 9 6.76647 0 12 6.76647 1
gene 1 9 4 8 0 13 8 1
genomeend 34

/* Organism #35 Fitness: 6.21016 Error: 1.50798 */
genomestart 35
trait 1 0.1 0 0 0 0 0 0 0.246385 
trait 2 0.2 0 0 0.947386 0 0 0.460982 0 
trait 3 0.3 0 0 0 0 0 0 0 
node 1 1 1 3
node 2 3 1 1
node 3 2 1 1
node 4 3 0 2
node 9 1 0 0
gene 2 1 4 -5.23533 0 1 -5.23533 1
gene 1 2 4 -1.8688 0 2 -1.8688 0
gene 3 3 4 -2.41813 0 3 -2.41813 1
gene 1 2 9 2.94946 0 12 2.94946 1
gene 1 9 4 5.22885 0 13 5.22885 1
gene 1 3 9 0.892392 0 55 0.892392 1
genomeend 35

/* Organism #36 Fitness: 5.01772 Error: 1.75997 */
genomestart 36
trait 1 0.1 0 0 0 0 0 0 0.358379 
trait 2 0.2 0 0 0.947386 0 0 0.460982 0 
trait 3 0.3 0 0 0 0 0 0 0 
node 1 1 1 3
node 2 3 1 1
node 3 2 1 1
node 4 3 0 2
node 9 3 0 0
gene 2 1 4 -3.81977 0 1 -3.81977 1
gene 1 2 4 -0.663015 0 2 -0.663015 1
gene 3 3 4 -3.12855 0 3 -3.12855 1
gene 1 2 9 5.18447 0 12 5.18447 1
gene 1 9 4 7.48771 0 13 7.48771 1
genomeend 36

/* Organism #37 Fitness: 8.93761 Error: 1.01042 */
genomestart 37
trait 1 0.1 0 0 0 0 0 0 0.33598 
trait 2 0.2 0 0 0.947386 0 0 0.460982 0 
trait 3 0.3 0 0 0 0 0 0 0 
node 1 1 1 3
node 2 3 1 1
node 3 2 1 1
node 4 3 0 2
node 9 3 0 0
gene 2 1 4 -4.648 0 1 -4.648 1
gene 1 2 4 -0.873135 0 2 -0.873135 0
gene 3 3 4 -3.55387 0 3 -3.55387 1
gene 1 2 9 6.90777 0 12 6.90777 1
gene 1 9 4 7.14404 0 13 7.14404 1
genomeend 37

/* Organism #38 Fitness: 4.20197 Error: 1.95013 */
genomestart 38
trait 1 0.1 0 0 0 0 0 0 0.313581 
trait 2 0.2 0 0 0.947386 0 0 0.460982 0 
trait 3 0.3 0 0 0 0 0 0 0 
node 1 1 1 3
node 2 3 1 1
node 3 2 1 1
node 4 3 0 2
node 9 3 0 0
gene 2 1 4 -6.6927 0 1 -6.6927 1
gene 1 2 4 0.865276 0 2 0.865276 0
gene 3 3 4 -3.19352 0 3 -3.19352 1
gene 1 2 9 6.64109 0 12 6.64109 1
gene 1 9 4 6.0942 0 13 6.0942 1
genomeend 38

/* Organism #39 Fitness: 4.22084 Error: 1.94553 */
genomestart 39
trait 1 0.1 0 0 0 0 0 0 0.313581 
trait 2 0.2 0 0 0.947386 0 0 0.460982 0 
trait 3 0.3 0 0 0 0 0 0 0 
node 1 1 1 3
node 2 3 1 1
node 3 2 1 1
node 4 3 0 2
node 9 3 0 0
gene 2 1 4 -0.0541704 0 1 -0.0541704 1
gene 1 2 4 1.52455 0 2 1.52455 0
gene 3 3 4 1.8273 0 3 1.8273 1
gene 1 2 9 8 0 12 8 1
gene 1 9 4 1.24577 0 13 1.24577 1
genomeend 39

/* Organism #40 Fitness: 5.04352 Error: 1.75422 */
genomestart 40
trait 1 0.1 0 0 0 0 0 0 0.313581 
trait 2 0.2 0 0 0.947386 0 0 0.460982 0 
trait 3 0.3 0 0 0 0 0 0 0 
node 1 1 1 3
node 2 3 1 1
node 3 2 1 1
node 4 3 0 2
node 9 3 0 0
gene 2 1 4 -3.92677 0 1 -3.92677 1
gene 1 2 4 -2.57088 0 2 -2.57088 0
gene 3 3 4 -6.47105 0 3 -6.47105 1
gene 1 2 9 7.3714 0 12 7.3714 1
gene 1 9 4 3.69911 0 13 3.69911 1
genomeend 40

/* Organism #41 Fitness: 8.64532 Error: 1.05971 */
genomestart 41
trait 1 0.1 0 0 0 0 0 0 0.313581 
trait 2 0.2 0 0 0.947386 0 0 0.460982 0 
trait 3 0.3 0 0 0 0 0 0 0 
node 1 1 1 3
node 2 3 1 1
node 3 2 1 1
node 4 3 0 2
node 9 3 0 0
gene 2 1 4 -7.44018 0 1 -7.44018 1
gene 1 2 4 0.15656 0 2 0.15656 0
gene 3 3 4 -3.80419 0 3 -3.80419 1
gene 1 2 9 3.27985 0 12 3.27985 1
gene 1 9 4 8 0 13 8 1
genomeend 41

/* Organism #42 Fitness: 8.99609 Error: 1.00065 */
genomestart 42
trait 1 0.1 0 0 0 0 0 0 0.313581 
trait 2 0.2 0 0 0.947386 0 0 0.460982 0 
trait 3 0.3 0 0 0 0 0 0 0 
node 1 1 1 3
node 2 3 1 1
node 3 2 1 1
node 4 3 0 2
node 9 3 0 0
gene 2 1 4 -6.20084 0 1 -6.20084 1
gene 1 2 4 0.909337 0 2 0.909337 0
gene 3 3 4 -6.47113 0 3 -6.47113 1
gene 1 2 9 7.97318 0 12 7.97318 1
gene 3 9 4 7.69326 0 13 7.69326 1
genomeend 42

/* Organism #43 Fitness: 1.05236 Error: 2.97416 */
genomestart 43
trait 1 0.1 0 0 0 0 0 0 0.291183 
trait 2 0.2 0 0 0.947386 0 0 0.460982 0 
trait 3 0.15 0 0.360149 0.270699 0 0.367992 0 0 
node 1 1 1 3
node 2 3 1 1
node 3 2 1 1
node 4 3 0 2
node 9 1 0 0
gene 2 1 4 -0.873592 0 1 -0.873592 1
gene 3 2 4 1.85652 0 2 1.85652 0
gene 3 3 4 -2.67432 0 3 -2.67432 1
gene 1 2 9 -1.20991 0 12 -1.20991 1
gene 1 9 4 7.28343 0 13 7.28343 1
gene 1 3 9 1.30248 0 55 1.30248 1
genomeend 43

/* Organism #44 Fitness: 3.99116 Error: 2.00221 */
genomestart 44
trait 1 0.1 0 0 0 0 0 0 0.358379 
trait 2 0.2 0 0 0.947386 0 0 0.460982 0 
trait 3 0 0 0.720298 0.541398 0 0.735984 0 0 
node 1 1 1 3
node 2 3 1 1
node 3 2 1 1
node 4 3 0 2
node 9 1 0 0
gene 2 1 4 -0.566729 0 1 -0.566729 1
gene 1 2 4 2.68677 0 2 2.68677 0
gene 3 3 4 -3.74773 0 3 -3.74773 1
gene 1 2 9 0.932035 0 12 0.932035 1
gene 1 9 4 -1.33206 0 13 -1.33206 1
genomeend 44

/* Organism #45 Fitness: 7.99428 Error: 1.17258 */
genomestart 45
trait 1 0.1 0 0 0 0 0 0 0.358379 
trait 2 0.2 0 0 0.947386 0 0 0.460982 0 
trait 3 0.15 0 0.360149 0.270699 0 0.367992 0 0 
node 1 1 1 3
node 2 3 1 1
node 3 2 1 1
node 4 3 0 2
node 9 3 0 0
gene 2 1 4 -5.64443 0 1 -5.64443 1
gene 1 2 4 3.38481 0 2 3.38481 0
gene 3 3 4 -2.67432 0 3 -2.67432 1
gene 1 2 9 6.76647 0 12 6.76647 1
gene 1 9 4 8 0 13 8 1
genomeend 45

/* Organism #46 Fitness: 8.82179 Error: 1.02985 */
genomestart 46
trait 1 0.1 0 0 0 0 0 0 0.291183 
trait 2 0.2 0 0 0.947386 0 0 0.460982 0 
trait 3 0.3 0 0 0 0 0 0 0 
node 1 1 1 3
node 2 3 1 1
node 3 2 1 1
node 4 3 0 2
node 9 1 0 0
gene 2 1 4 -4.94166 0 1 -4.94166 1
gene 1 2 4 -0.871342 0 2 -0.871342 0
gene 3 3 4 -3.63581 0 3 -3.63581 1
gene 1 2 9 5.18362 0 12 5.18362 1
gene 1 9 4 8 0 13 8 1
gene 1 3 9 0.892392 0 55 0.892392 1
genomeend 46

/* Organism #47 Fitness: 4.00617 Error: 1.99846 */
genomestart 47
trait 1 0.1 0 0 0 0 0 0 0.291183 
trait 2 0.2 0 0 0.947386 0 0 0.460982 0 
trait 3 0.3 0 0 0 0 0 0 0 
node 1 1 1 3
node 2 3 1 1
node 3 2 1 1
node 4 3 0 2
node 9 1 0 0
gene 2 1 4 -5.87221 0 1 -5.87221 1
gene 1 2 4 3.61789 0 2 3.61789 0
gene 3 3 4 -0.829215 0 3 -0.829215 1
gene 1 2 9 4.80496 0 12 4.80496 1
gene 1 9 4 8 0 13 8 1
genomeend 47

/* Organism #48 Fitness: 8.77847 Error: 1.03715 */
genomestart 48
trait 1 0.1 0 0 0 0 0 0 0.291183 
trait 2 0.2 0 0 0.947386 0 0 0.460982 0 
trait 3 0.3 0 0 0 0 0 0 0 
node 1 1 1 3
node 2 3 1 1
node 3 2 1 1
node 4 3 0 2
node 9 1 0 0
gene 2 1 4 -3.84372 0 1 -3.84372 1
gene 1 2 4 -1.01836 0 2 -1.01836 1
gene 3 3 4 -3.49008 0 3 -3.49008 1
gene 1 2 9 5.47473 0 12 5.47473 1
gene 1 9 4 5.5549 0 13 5.5549 1
genomeend 48

/* Organism #49 Fitness: 11.714 Error: 0.577428 */
/* ##------$ WINNER 49 SPECIES #2 $------## */
genomestart 49
trait 1 0.1 0 0 0 0 0 0 0.246385 
trait 2 0.2 0 0 0.947386 0 0 0.460982 0 
trait 3 0.3 0 0 0 0 0 0 0 
node 1 1 1 3
node 2 3 1 1
node 3 2 1 1
node 4 3 0 2
node 9 1 0 0
gene 2 1 4 -5.44747 0 1 -5.44747 1
gene 1 2 4 -0.43569 0 2 -0.43569 1
gene 3 3 4 -0.742275 0 3 -0.742275 1
gene 1 2 9 3.34904 0 12 3.34904 1
gene 1 9 4 6.41651 0 13 6.41651 1
gene 1 3 9 3.20997 0 55 3.20997 1
genomeend 49

/* Organism #50 Fitness: 8.99917 Error: 1.00014 */
genomestart 50
trait 1 0.1 0 0 0 0 0 0 0.358379 
trait 2 0.2 0 0 0.947386 0 0 0.460982 0 
trait 3 0.3 0 0 0 0 0 0 0 
node 1 1 1 3
node 2 3 1 1
node 3 2 1 1
node 4 3 0 2
node 9 3 0 0
gene 2 1 4 -6.13082 0 1 -6.13082 1
gene 1 2 4 1.91206 0 2 1.91206 0
gene 3 3 4 -4.22153 0 3 -4.22153 1
gene 1 2 9 6.76647 0 12 6.76647 1
gene 1 9 4 8 0 13 8 1
genomeend 50

/* Organism #51 Fitness: 8.96425 Error: 1.00596 */
genomestart 51
trait 1 0.1 0 0 0 0 0 0 0.268784 
trait 2 0.2 0 0 0.947386 0 0 0.460982 0 
trait 3 0.3 0 0 0 0 0 0 0 
node 1 1 1 3
node 2 3 1 1
node 3 2 1 1
node 4 3 0 2
node 9 1 0 0
gene 2 1 4 -3.69941 0 1 -3.69941 1
gene 1 2 4 -1.8688 0 2 -1.8688 0
gene 3 3 4 -2.9232 0 3 -2.9232 1
gene 1 2 9 2.94946 0 12 2.94946 1
gene 1 9 4 5.22885 0 13 5.22885 1
gene 3 3 9 0.646779 0 72 0.646779 1
genomeend 51

/* Organism #52 Fitness: 8.9726 Error: 1.00457 */
genomestart 52
trait 1 0.1 0 0 0 0 0 0 0.223987 
trait 2 0.2 0 0 0.947386 0 0 0.460982 0 
trait 3 0.3 0 0 0 0 0 0 0 
node 1 1 1 3
node 2 3 1 1
node 3 2 1 1
node 4 3 0 2
node 9 1 0 0
gene 2 1 4 -5.23533 0 1 -5.23533 1
gene 3 2 4 2.59308 0 2 2.59308 0
gene 3 3 4 -2.41813 0 3 -2.41813 1
gene 1 2 9 4.08478 0 12 4.08478 1
gene 1 9 4 6.3558 0 13 6.3558 1
gene 1 3 9 0.892392 0 55 0.892392 1
genomeend 52

/* Organism #53 Fitness: 2.55763 Error: 2.40074 */
genomestart 53
trait 1 0.1 0 0 0 0 0 0 0.291183 
trait 2 0.2 0 0 0.947386 0 0 0.460982 0 
trait 3 0.3 0 0 0 0 0 0 0 
node 1 1 1 3
node 2 3 1 1
node 3 2 1 1
node 4 3 0 2
node 9 1 0 0
gene 2 1 4 -3.69941 0 1 -3.69941 1
gene 1 2 4 -1.8688 0 2 -1.8688 0
gene 3 3 4 -2.9232 0 3 -2.9232 1
gene 1 2 9 2.94946 0 12 2.94946 1
gene 1 9 4 7.29434 0 13 7.29434 1
genomeend 53

/* Organism #54 Fitness: 8.99543 Error: 1.00076 */
genomestart 54
trait 1 0.1 0 0 0 0 0 0 0.33598 
trait 2 0.2 0 0 0.947386 0 0 0.460982 0 
trait 3 0.3 0 0 0 0 0 0 0 
node 1 1 1 3
node 2 3 1 1
node 3 2 1 1
node 4 3 0 2
node 9 3 0 0
gene 2 1 4 -5.4329 0 1 -5.4329 1
gene 1 2 4 0.410627 0 2 0.410627 0
gene 3 3 4 -4.88562 0 3 -4.88562 1
gene 1 2 9 5.26516 0 12 5.26516 1
gene 1 9 4 7.94332 0 13 7.94332 1
genomeend 54

/* Organism #55 Fitness: 4 Error: 2 */
genomestart 55
trait 1 0.1 0 0 0 0 0 0 0.291183 
trait 2 0.2 0 0 0.947386 0 0 0.460982 0 
trait 3 0.15 0 0.360149 0.270699 0 0.367992 0 0 
node 1 1 1 3
node 2 3 1 1
node 3 2 1 1
node 4 3 0 2
node 9 1 0 0
gene 2 1 4 -7.97452 0 1 -7.97452 1
gene 1 2 4 3.89027 0 2 3.89027 0
gene 3 3 4 -4.04224 0 3 -4.04224 1
gene 1 2 9 6.40239 0 12 6.40239 1
gene 1 9 4 -0.219886 0 13 -0.219886 1
gene 1 3 9 -0.541139 0 55 -0.541139 1
genomeend 55

/* Organism #56 Fitness: 3.80029 Error: 2.05057 */
genomestart 56
trait 1 0.1 0 0 0 0 0 0 0.358379 
trait 2 0.2 0 0 0.947386 0 0 0.460982 0 
trait 3 0.3 0 0 0 0 0 0 0 
node 1 1 1 3
node 2 3 1 1
node 3 2 1 1
node 4 3 0 2
node 9 3 0 0
gene 2 1 4 -4.59421 0 1 -4.59421 1
gene 1 2 4 -2.74598 0 2 -2.74598 0
gene 3 3 4 -1.7613 0 3 -1.7613 1
gene 1 2 9 6.54773 0 12 6.54773 1
gene 1 9 4 8 0 13 8 1
genomeend 56

/* Organism #57 Fitness: 8.72856 Error: 1.04559 */
genomestart 57
trait 1 0.1 0 0 0 0 0 0 0.291183 
trait 2 0.2 0 0 0.947386 0 0 0.460982 0 
trait 3 0.3 0 0 0 0 0 0 0 
node 1 2 1 3
node 2 3 1 1
node 3 2 1 1
node 4 3 0 2
node 9 3 0 0
gene 2 1 4 -4.47984 0 1 -4.47984 1
gene 3 2 4 2.87553 0 2 2.87553 0
gene 3 3 4 -4.26106 0 3 -4.26106 1
gene 1 2 9 8 0 12 8 1
gene 1 9 4 7.72433 0 13 7.72433 1
gene 1 3 9 2.21705 0 55 2.21705 1
genomeend 57

/* Organism #58 Fitness: 8.98487 Error: 1.00252 */
genomestart 58
trait 1 0.1 0 0 0 0 0 0 0.33598 
trait 2 0.2 0 0 0.947386 0 0 0.460982 0 
trait 3 0.3 0 0 0 0 0 0 0 
node 1 1 1 3
node 2 3 1 1
node 3 2 1 1
node 4 3 0 2
node 9 3 0 0
gene 2 1 4 -4.85383 0 1 -4.85383 1
gene 1 2 4 -0.729469 0 2 -0.729469 0
gene 3 3 4 -3.99036 0 3 -3.99036 1
gene 1 2 9 5.98705 0 12 5.98705 1
gene 1 9 4 7.21919 0 13 7.21919 1
genomeend 58

/* Organism #59 Fitness: 2.66204 Error: 2.36842 */
genomestart 59
trait 1 0.1 0 0 0 0 0 0 0.313581 
trait 2 0.2 0 0 0.947386 0 0 0.460982 0 
trait 3 0.3 0 0 0 0 0 0 0 
node 1 1 1 3
node 2 3 1 1
node 3 2 1 1
node 4 3 0 2
node 9 3 0 0
gene 2 1 4 -3.72104 0 1 -3.72104 1
gene 1 2 4 1.06006 0 2 1.06006 0
gene 3 3 4 -2.00414 0 3 -2.00414 1
gene 1 2 9 5.55776 0 12 5.55776 1
gene 1 9 4 7.2243 0 13 7.2243 1
genomeend 59

/* Organism #60 Fitness: 4.00021 Error: 1.99995 */
genomestart 60
trait 1 0.1 0 0 0 0 0 0 0.268784 
trait 2 0.2 0 0 0.947386 0 0 0.460982 0 
trait 3 0.3 0 0 0 0 0 0 0 
node 1 1 1 3
node 2 3 1 1
node 3 2 1 1
node 4 3 0 2
node 9 1 0 0
gene 2 1 4 -5.28477 0 1 -5.28477 1
gene 1 2 4 -1.47572 0 2 -1.47572 0
gene 3 3 4 -0.770653 0 3 -0.770653 1
gene 1 2 9 2.35801 0 12 2.35801 1
gene 1 9 4 3.28467 0 13 3.28467 1
genomeend 60

/* Organism #61 Fitness: 8.99927 Error: 1.00012 */
genomestart 61
trait 1 0.1 0 0 0 0 0 0 0.358379 
trait 2 0.2 0 0 0.947386 0 0 0.460982 0 
trait 3 0.3 0 0 0 0 0 0 0 
node 1 1 1 3
node 2 3 1 1
node 3 2 1 1
node 4 3 0 2
node 9 3 0 0
gene 2 1 4 -5.89186 0 1 -5.89186 1
gene 1 2 4 0.793405 0 2 0.793405 0
gene 3 3 4 -6.47891 0 3 -6.47891 1
gene 1 2 9 4.68305 0 12 4.68305 1
gene 1 9 4 8 0 13 8 1
genomeend 61

/* Organism #62 Fitness: 8.99385 Error: 1.00103 */
genomestart 62
trait 1 0.1 0 0 0 0 0 0 0.33598 
trait 2 0.2 0 0 0.947386 0 0 0.460982 0 
trait 3 0.3 0 0 0 0 0 0 0 
node 1 1 1 3
node 2 3 1 1
node 3 2 1 1
node 4 3 0 2
node 9 3 0 0
gene 2 1 4 -5.05966 0 1 -5.05966 1
gene 1 2 4 -0.585803 0 2 -0.585803 0
gene 3 3 4 -4.22153 0 3 -4.22153 1
gene 1 2 9 6.76647 0 12 6.76647 1
gene 1 9 4 7.29434 0 13 7.29434 1
genomeend 62

/* Organism #63 Fitness: 5.8633 Error: 1.57857 */
genomestart 63
trait 1 0.1 0 0 0 0 0 0 0.291183 
trait 2 0.2 0 0 0.947386 0 0 0.460982 0 
trait 3 0.3 0 0 0 0 0 0 0 
node 1 1 1 3
node 2 3 1 1
node 3 2 1 1
node 4 3 0 2
node 9 1 0 0
gene 2 1 4 -3.58618 0 1 -3.58618 1
gene 2 2 4 1.43422 0 2 1.43422 0
gene 3 3 4 -4.43493 0 3 -4.43493 1
gene 1 2 9 4.65823 0 12 4.65823 1
gene 1 9 4 7.26253 0 13 7.26253 1
gene 1 3 9 -0.223975 0 55 -0.223975 1
genomeend 63

/* Organism #64 Fitness: 4.00069 Error: 1.99983 */
genomestart 64
trait 1 0.1 0 0 0 0 0 0 0.313581 
trait 2 0.2 0 0 0.947386 0 0 0.460982 0 
trait 3 0.15 0 0.360149 0.270699 0 0.367992 0 0 
node 1 1 1 3
node 2 3 1 1
node 3 2 1 1
node 4 3 0 2
node 9 1 0 0
gene 2 1 4 -5.97323 0 1 -5.97323 1
gene 1 2 4 3.13929 0 2 3.13929 0
gene 3 3 4 -5.01852 0 3 -5.01852 1
gene 1 2 9 3.37671 0 12 3.37671 1
gene 1 9 4 4.21319 0 13 4.21319 1
genomeend 64

/* Species #3 : (Size 30) (AF 6.2697) (Age 8)  */


/* Organism #65 Fitness: 8.99894 Error: 1.00018 */
genomestart 65
trait 1 0.1 0 0 0 0 0 0 0 
trait 2 0.2 0 0 0 0 0 0 0 
trait 3 0.075 0 0 0 0 0.606189 0 0 
node 1 1 1 3
node 2 3 1 1
node 3 2 1 1
node 4 3 0 2
node 10 1 0 0
gene 3 1 4 -2.00956 0 1 -2.00956 1
gene 2 2 4 4.13739 0 2 4.13739 1
gene 2 3 4 -2.79314 0 3 -2.79314 0
gene 2 3 10 3.12302 0 14 3.12302 1
gene 2 10 4 -3.99587 0 15 -3.99587 1
gene 2 1 10 -0.958052 0 25 -0.958052 1
genomeend 65

/* Organism #66 Fitness: 8.99445 Error: 1.00092 */
genomestart 66
trait 1 0.125277 0 0.0596026 0.0800424 0 0 0 0 
trait 2 0.2 0 0 0 0 0 0 0 
trait 3 0.919411 0 0 0.81637 0.251442 0.101032 0 0.251473 
node 1 1 1 3
node 2 3 1 1
node 3 2 1 1
node 4 3 0 2
node 10 1 0 0
gene 3 1 4 -1.95638 0 1 -1.95638 1
gene 2 2 4 3.84213 0 2 3.84213 1
gene 2 3 4 -0.839911 0 3 -0.839911 0
gene 2 3 10 3.21374 0 14 3.21374 1
gene 2 10 4 -3.43227 0 15 -3.43227 1
gene 2 1 10 -1.33946 0 25 -1.33946 1
gene 2 2 10 0.848018 0 58 0.848018 1
genomeend 66

/* Organism #67 Fitness: 4.96579 Error: 1.7716 */
genomestart 67
trait 1 0.150554 0 0.119205 0.160085 0 0 0 0 
trait 2 0.2 0 0 0 0 0 0 0 
trait 3 0.225 0 0 0 0 0.202063 0 0 
node 1 1 1 3
node 2 3 1 1
node 3 2 1 1
node 4 3 0 2
node 10 1 0 0
gene 3 1 4 0.247208 0 1 0.247208 1
gene 2 2 4 2.4979 0 2 2.4979 1
gene 2 3 4 -5.33899 0 3 -5.33899 1
gene 2 3 10 4.6288 0 14 4.6288 1
gene 2 10 4 -2.86577 0 15 -2.86577 0
gene 2 1 10 -3.81527 0 25 -3.81527 1
genomeend 67

/* Organism #68 Fitness: 4 Error: 2 */
genomestart 68
trait 1 0.150554 0 0.119205 0.160085 0 0 0 0 
trait 2 0.2 0 0 0 0 0 0 0 
trait 3 0.225 0 0 0 0 0.202063 0 0 
node 1 1 1 3
node 2 3 1 1
node 3 2 1 1
node 4 3 0 2
node 10 1 0 0
gene 3 1 4 -3.9452 0 1 -3.9452 1
gene 2 2 4 1.94666 0 2 1.94666 1
gene 2 3 4 -3.69481 0 3 -3.69481 0
gene 2 3 10 2.0754 0 14 2.0754 1
gene 2 10 4 -2.05604 0 15 -2.05604 0
gene 2 1 10 -0.266121 0 25 -0.266121 1
genomeend 68

/* Organism #69 Fitness: 8.99675 Error: 1.00054 */
genomestart 69
trait 1 0.125277 0 0.0596026 0.0800424 0 0 0 0 
trait 2 0.2 0 0 0 0 0 0 0 
trait 3 0.15 0 0 0 0 0.404126 0 0 
node 1 1 1 3
node 2 3 1 1
node 3 2 1 1
node 4 3 0 2
node 10 1 0 0
gene 3 1 4 -1.98297 0 1 -1.98297 1
gene 2 2 4 4.13482 0 2 4.13482 1
gene 2 3 4 -3.15329 0 3 -3.15329 0
gene 2 3 10 3.16838 0 14 3.16838 1
gene 2 10 4 -3.71407 0 15 -3.71407 1
gene 2 1 10 -1.14875 0 25 -1.14875 1
gene 3 2 10 0.275094 0 73 0.275094 1
genomeend 69

/* Organism #70 Fitness: 8.99954 Error: 1.00008 */
genomestart 70
trait 1 0.131596 0 0.0745033 0.100053 0 0 0 0 
trait 2 0.2 0 0 0 0 0 0 0 
trait 3 0.58158 0 0 0.408185 0.125721 0.126289 0 0.125736 
node 1 1 1 3
node 2 3 1 1
node 3 2 1 1
node 4 3 0 2
node 10 1 0 0
gene 3 1 4 -2.36747 0 1 -2.36747 1
gene 2 2 4 4.5811 0 2 4.5811 1
gene 2 3 4 -3.82328 0 3 -3.82328 1
gene 2 3 10 1.58802 0 14 1.58802 1
gene 2 10 4 -4.25154 0 15 -4.25154 1
gene 2 1 10 -1.14383 0 25 -1.14383 1
gene 2 2 10 -0.903363 0 58 -0.903363 1
genomeend 70

/* Organism #71 Fitness: 4 Error: 2 */
genomestart 71
trait 1 0.150554 0 0.119205 0.160085 0 0 0 0 
trait 2 0.2 0 0 0 0 0 0 0 
trait 3 0.225 0 0 0 0 0.202063 0 0 
node 1 1 1 3
node 2 3 1 1
node 3 2 1 1
node 4 3 0 2
node 10 1 0 0
gene 3 1 4 -0.676969 0 1 -0.676969 1
gene 2 2 4 3.59359 0 2 3.59359 1
gene 2 3 4 -5.64257 0 3 -5.64257 0
gene 2 3 10 3.21374 0 14 3.21374 1
gene 2 10 4 -3.43227 0 15 -3.43227 0
gene 2 1 10 -0.935698 0 25 -0.935698 1
genomeend 71

/* Organism #72 Fitness: 4.00036 Error: 1.99991 */
genomestart 72
trait 1 0.125277 0 0.0596026 0.0800424 0 0 0 0 
trait 2 0.2 0 0 0 0 0 0 0 
trait 3 0.15 0 0 0 0 0.404126 0 0 
node 1 1 1 3
node 2 3 1 1
node 3 2 1 1
node 4 3 0 2
node 10 1 0 0
gene 3 1 4 -3.30362 0 1 -3.30362 1
gene 2 2 4 5.49306 0 2 5.49306 1
gene 2 3 4 -2.67465 0 3 -2.67465 0
gene 2 3 10 1.13794 0 14 1.13794 1
gene 2 10 4 -4.93714 0 15 -4.93714 1
gene 2 1 10 -1.66746 0 25 -1.66746 1
genomeend 72

/* Organism #73 Fitness: 8.4162 Error: 1.09893 */
genomestart 73
trait 1 0.150554 0 0.119205 0.160085 0 0 0 0 
trait 2 0.2 0 0 0 0 0 0 0 
trait 3 0.225 0 0 0 0 0.202063 0 0 
node 1 1 1 3
node 2 3 1 1
node 3 2 1 1
node 4 3 0 2
node 10 1 0 0
node 29 1 0 0
gene 3 1 4 -1.95638 0 1 -1.95638 1
gene 2 2 4 4.13224 0 2 4.13224 1
gene 2 3 4 -3.51345 0 3 -3.51345 0
gene 2 3 10 3.21374 0 14 3.21374 1
gene 2 10 4 -3.43227 0 15 -3.43227 0
gene 2 1 10 -1.33946 0 25 -1.33946 1
gene 2 10 29 1 0 74 0 1
gene 2 29 4 -3.43227 0 75 0 1
genomeend 73

/* Organism #74 Fitness: 4.00004 Error: 1.99999 */
genomestart 74
trait 1 0.1 0 0 0 0 0 0 0 
trait 2 0.2 0 0 0 0 0 0 0 
trait 3 0.075 0 0 0 0 0.606189 0 0 
node 1 1 1 3
node 2 3 1 1
node 3 2 1 1
node 4 3 0 2
node 10 1 0 0
gene 3 1 4 -3.18841 0 1 -3.18841 1
gene 2 2 4 3.91125 0 2 3.91125 1
gene 2 3 4 -0.672254 0 3 -0.672254 0
gene 2 3 10 1.094 0 14 1.094 1
gene 2 10 4 -6.40882 0 15 -6.40882 1
gene 2 1 10 -3.39145 0 25 -3.39145 1
genomeend 74

/* Organism #75 Fitness: 4 Error: 2 */
genomestart 75
trait 1 0.137915 0 0.089404 0.120064 0 0 0 0 
trait 2 0.2 0 0 0 0 0 0 0 
trait 3 0.572205 0 0 0.408185 0.125721 0.151547 0 0.125736 
node 1 1 1 3
node 2 3 1 1
node 3 2 1 1
node 4 3 0 2
node 10 1 0 0
gene 3 1 4 -0.707419 0 1 -0.707419 1
gene 2 2 4 5.22309 0 2 5.22309 1
gene 2 3 4 -1.30666 0 3 -1.30666 0
gene 2 3 10 2.07128 0 14 2.07128 1
gene 2 10 4 -5.08111 0 15 -5.08111 0
gene 2 1 10 0.993225 0 25 0.993225 1
gene 2 2 10 -1.51831 0 58 -1.51831 1
genomeend 75

/* Organism #76 Fitness: 4.38911 Error: 1.90498 */
genomestart 76
trait 1 0.144235 0 0.104305 0.140074 0 0 0 0 
trait 2 0.2 0 0 0 0 0 0 0 
trait 3 0.234375 0 0.120273 0.686331 0 0.176805 0 0 
node 1 1 1 3
node 2 3 1 1
node 3 2 1 1
node 4 1 0 2
node 10 1 0 0
gene 3 1 4 -2.67936 0 1 -2.67936 1
gene 2 2 4 4.88661 0 2 4.88661 1
gene 2 3 4 -1.7496 0 3 -1.7496 1
gene 2 3 10 1.12566 0 14 1.12566 1
gene 2 10 4 -4.53391 0 15 -4.53391 0
gene 2 1 10 -2.30369 0 25 -2.30369 1
gene 2 2 10 1.8681 0 58 1.8681 1
genomeend 76

/* Organism #77 Fitness: 4.00005 Error: 1.99999 */
genomestart 77
trait 1 0.144235 0 0.104305 0.140074 0 0 0 0 
trait 2 0.2 0 0 0 0 0 0 0 
trait 3 0.234375 0 0 0 0 0.176805 0 0 
node 1 1 1 3
node 2 3 1 1
node 3 2 1 1
node 4 3 0 2
node 10 1 0 0
gene 3 1 4 -1.8971 0 1 -1.8971 1
gene 2 2 4 5.32776 0 2 5.32776 1
gene 2 3 4 0.0295267 0 3 0.0295267 1
gene 2 3 10 3.21374 0 14 3.21374 1
gene 2 10 4 2.07083 0 15 2.07083 0
gene 2 1 10 -2.33055 0 25 -2.33055 1
gene 2 2 10 0.0410321 0 58 0.0410321 1
genomeend 77

/* Organism #78 Fitness: 5.23198 Error: 1.71265 */
genomestart 78
trait 1 0.125277 0 0.0596026 0.0800424 0 0 0 0 
trait 2 0.2 0 0 0 0 0 0 0 
trait 3 0.15 0 0 0 0 0.404126 0 0 
node 1 1 1 3
node 2 3 1 1
node 3 2 1 1
node 4 3 0 2
node 10 1 0 0
gene 3 1 4 -2.00018 0 1 -2.00018 1
gene 2 2 4 4.13224 0 2 4.13224 1
gene 2 3 4 -1.9477 0 3 -1.9477 1
gene 2 3 10 1.54979 0 14 1.54979 1
gene 2 10 4 -4.79553 0 15 -4.79553 0
gene 2 1 10 -3.36825 0 25 -3.36825 1
genomeend 78

/* Organism #79 Fitness: 4.00383 Error: 1.99904 */
genomestart 79
trait 1 0.137915 0 0.089404 0.120064 0 0 0 0 
trait 2 0.2 0 0 0 0 0 0 0 
trait 3 0.572205 0 0 0.408185 0.125721 0.151547 0 0.125736 
node 1 1 1 3
node 2 3 1 1
node 3 2 1 1
node 4 3 0 2
node 10 1 0 0
gene 3 1 4 -1.5527 0 1 -1.5527 1
gene 2 2 4 0.224464 0 2 0.224464 1
gene 2 3 4 -2.90846 0 3 -2.90846 0
gene 2 3 10 5.38276 0 14 5.38276 1
gene 2 10 4 -0.993767 0 15 -0.993767 1
gene 2 1 10 -3.49048 0 25 -3.49048 1
gene 2 2 10 0.848018 0 58 0.848018 1
genomeend 79

/* Organism #80 Fitness: 7.88726 Error: 1.19157 */
genomestart 80
trait 1 0.112638 0 0.0298013 0.0400212 0 0 0 0 
trait 2 0.2 0 0 0 0 0 0 0 
trait 3 0.497205 0 0 0.408185 0.125721 0.35361 0 0.125736 
node 1 1 1 3
node 2 3 1 1
node 3 2 1 1
node 4 3 0 2
node 10 1 0 0
gene 3 1 4 0.315188 0 1 0.315188 1
gene 2 2 4 3.98747 0 2 3.98747 1
gene 2 3 4 -2.06325 0 3 -2.06325 0
gene 2 3 10 1.07294 0 14 1.07294 1
gene 2 10 4 -4.63775 0 15 -4.63775 1
gene 2 1 10 0.243767 0 25 0.243767 1
genomeend 80

/* Organism #81 Fitness: 8.99935 Error: 1.00011 */
genomestart 81
trait 1 0.112638 0 0.0298013 0.0400212 0 0 0 0 
trait 2 0.2 0 0 0 0 0 0 0 
trait 3 0.497205 0 0 0.408185 0.125721 0.35361 0 0.125736 
node 1 1 1 3
node 2 3 1 1
node 3 2 1 1
node 4 3 0 2
node 10 1 0 0
gene 3 1 4 -1.98297 0 1 -1.98297 1
gene 2 2 4 3.98976 0 2 3.98976 1
gene 2 3 4 -1.81652 0 3 -1.81652 1
gene 2 3 10 3.16838 0 14 3.16838 1
gene 2 10 4 -3.71407 0 15 -3.71407 1
gene 2 1 10 -1.14875 0 25 -1.14875 1
genomeend 81

/* Organism #82 Fitness: 8.99445 Error: 1.00092 */
genomestart 82
trait 1 0.131596 0 0.0745033 0.100053 0 0 0 0 
trait 2 0.2 0 0 0 0 0 0 0 
trait 3 0.58158 0 0 0.408185 0.125721 0.126289 0 0.125736 
node 1 1 1 3
node 2 3 1 1
node 3 2 1 1
node 4 3 0 2
node 10 1 0 0
gene 3 1 4 -1.95638 0 1 -1.95638 1
gene 2 2 4 3.84213 0 2 3.84213 1
gene 2 3 4 -2.17668 0 3 -2.17668 0
gene 2 3 10 3.21374 0 14 3.21374 1
gene 2 10 4 -3.43227 0 15 -3.43227 1
gene 2 1 10 -1.33946 0 25 -1.33946 1
gene 2 2 10 0.848018 0 58 0.848018 1
genomeend 82

/* Organism #83 Fitness: 8.98678 Error: 1.0022 */
genomestart 83
trait 1 0.137915 0 0.089404 0.120064 0 0 0 0 
trait 2 0.2 0 0 0 0 0 0 0 
trait 3 0.572205 0 0 0.408185 0.125721 0.151547 0 0.125736 
node 1 1 1 3
node 2 3 1 1
node 3 2 1 1
node 4 3 0 2
node 10 1 0 0
gene 3 1 4 -1.95638 0 1 -1.95638 1
gene 2 2 4 4.13224 0 2 4.13224 1
gene 2 3 4 -0.839911 0 3 -0.839911 0
gene 2 3 10 3.21374 0 14 3.21374 1
gene 2 10 4 -3.43227 0 15 -3.43227 1
gene 2 1 10 -1.33946 0 25 -1.33946 1
gene 2 2 10 0.848018 0 58 0.848018 1
genomeend 83

/* Organism #84 Fitness: 4.00013 Error: 1.99997 */
genomestart 84
trait 1 0.137915 0 0.089404 0.120064 0 0 0 0 
trait 2 0.2 0 0 0 0 0 0 0 
trait 3 0.572205 0 0 0.408185 0.125721 0.151547 0 0.125736 
node 1 1 1 3
node 2 3 1 1
node 3 2 1 1
node 4 3 0 2
node 10 1 0 0
gene 3 1 4 -4.27861 0 1 -4.27861 1
gene 2 2 4 3.0734 0 2 3.0734 1
gene 2 3 4 -0.638718 0 3 -0.638718 0
gene 2 3 10 1.98277 0 14 1.98277 1
gene 2 10 4 -5.64532 0 15 -5.64532 1
gene 2 1 10 -2.43736 0 25 -2.43736 1
gene 2 2 10 -1.11051 0 58 -1.11051 1
genomeend 84

/* Organism #85 Fitness: 4 Error: 2 */
genomestart 85
trait 1 0.125277 0 0.0596026 0.0800424 0 0 0 0 
trait 2 0.2 0 0 0 0 0 0 0 
trait 3 0.15 0 0 0 0 0.404126 0 0 
node 1 1 1 3
node 2 3 1 1
node 3 2 1 1
node 4 3 0 2
node 10 1 0 0
gene 3 1 4 -1.95638 0 1 -1.95638 1
gene 2 2 4 4.13739 0 2 4.13739 1
gene 2 3 4 -2.79314 0 3 -2.79314 0
gene 2 3 10 3.12302 0 14 3.12302 1
gene 2 10 4 -3.43227 0 15 -3.43227 0
gene 2 1 10 -1.33946 0 25 -1.33946 1
gene 3 2 10 0.275094 0 73 0 1
genomeend 85

/* Organism #86 Fitness: 6.71054 Error: 1.40953 */
genomestart 86
trait 1 0.125277 0 0.0596026 0.0800424 0 0 0 0 
trait 2 0.2 0 0 0 0 0 0 0 
trait 3 0.919411 0 0 0.81637 0.251442 0.101032 0 0.251473 
node 1 1 1 3
node 2 3 1 1
node 3 2 1 1
node 4 3 0 2
node 10 1 0 0
gene 3 1 4 -2.86171 0 1 -2.86171 1
gene 2 2 4 4.65766 0 2 4.65766 1
gene 2 3 4 -0.391823 0 3 -0.391823 0
gene 2 3 10 2.66837 0 14 2.66837 1
gene 2 10 4 -1.98524 0 15 -1.98524 1
gene 2 1 10 0.528428 0 25 0.528428 1
gene 2 2 10 -0.349071 0 58 -0.349071 1
genomeend 86

/* Organism #87 Fitness: 4 Error: 2 */
genomestart 87
trait 1 0.144235 0 0.104305 0.140074 0 0 0 0 
trait 2 0.2 0 0 0 0 0 0 0 
trait 3 0.234375 0 0 0 0 0.176805 0 0 
node 1 1 1 3
node 2 3 1 1
node 3 2 1 1
node 4 3 0 2
node 10 1 0 0
gene 3 1 4 1.79624 0 1 1.79624 1
gene 2 2 4 1.91063 0 2 1.91063 1
gene 2 3 4 -2.04711 0 3 -2.04711 0
gene 2 3 10 1.3666 0 14 1.3666 1
gene 2 10 4 -2.71333 0 15 -2.71333 0
gene 2 1 10 -1.59444 0 25 -1.59444 1
gene 2 2 10 -1.38685 0 58 -1.38685 1
genomeend 87

/* Organism #88 Fitness: 8.00162 Error: 1.17129 */
genomestart 88
trait 1 0.112638 0 0.0298013 0.0400212 0 0 0 0 
trait 2 0.2 0 0 0 0 0 0 0 
trait 3 0.497205 0 0 0.408185 0.125721 0.35361 0 0.125736 
node 1 1 1 3
node 2 3 1 1
node 3 2 1 1
node 4 3 0 2
node 10 1 0 0
gene 3 1 4 -0.950949 0 1 -0.950949 1
gene 2 2 4 2.21198 0 2 2.21198 1
gene 2 3 4 -1.90966 0 3 -1.90966 0
gene 2 3 10 1.82636 0 14 1.82636 1
gene 2 10 4 -4.00945 0 15 -4.00945 1
gene 2 1 10 -0.240104 0 25 -0.240104 1
genomeend 88

/* Organism #89 Fitness: 8.96441 Error: 1.00594 */
genomestart 89
trait 1 0.131596 0 0.0745033 0.100053 0 0 0 0 
trait 2 0.2 0 0 0 0 0 0 0 
trait 3 0.58158 0 0 0.408185 0.125721 0.126289 0 0.125736 
node 1 1 1 3
node 2 3 1 1
node 3 2 1 1
node 4 3 0 2
node 10 1 0 0
gene 3 1 4 -1.06242 0 1 -1.06242 1
gene 2 2 4 3.59989 0 2 3.59989 1
gene 2 3 4 -0.847295 0 3 -0.847295 0
gene 2 3 10 2.41705 0 14 2.41705 1
gene 2 10 4 -4.0315 0 15 -4.0315 1
gene 2 1 10 -2.65397 0 25 -2.65397 1
gene 2 2 10 2.2212 0 58 2.2212 1
genomeend 89

/* Organism #90 Fitness: 8.99892 Error: 1.00018 */
genomestart 90
trait 1 0.118958 0 0.044702 0.0600318 0 0 0 0 
trait 2 0.2 0 0 0 0 0 0 0 
trait 3 0.159375 0 0 0 0 0.378868 0 0 
node 1 1 1 3
node 2 3 1 1
node 3 2 1 1
node 4 3 0 2
node 10 1 0 0
gene 3 1 4 -2.00956 0 1 -2.00956 1
gene 2 2 4 4.13739 0 2 4.13739 1
gene 2 3 4 -2.79314 0 3 -2.79314 0
gene 2 3 10 3.21374 0 14 3.21374 1
gene 2 10 4 -3.99587 0 15 -3.99587 1
gene 2 1 10 -1.33946 0 25 -1.33946 1
genomeend 90

/* Organism #91 Fitness: 4 Error: 2 */
genomestart 91
trait 1 0.137915 0 0.089404 0.120064 0 0 0 0 
trait 2 0.2 0 0 0 0 0 0 0 
trait 3 0.572205 0 0 0.408185 0.125721 0.151547 0 0.125736 
node 1 1 1 3
node 2 3 1 1
node 3 2 1 1
node 4 3 0 2
node 10 1 0 0
gene 3 1 4 -1.95638 0 1 -1.95638 1
gene 2 2 4 3.84213 0 2 3.84213 1
gene 2 3 4 -3.51345 0 3 -3.51345 0
gene 2 3 10 3.21374 0 14 3.21374 1
gene 2 10 4 -3.43227 0 15 -3.43227 0
gene 2 1 10 -1.33946 0 25 -1.33946 1
gene 2 2 10 0.848018 0 58 0.848018 1
genomeend 91

/* Organism #92 Fitness: 8.9925 Error: 1.00125 */
genomestart 92
trait 1 0.137915 0 0.089404 0.120064 0 0 0 0 
trait 2 0.2 0 0 0 0 0 0 0 
trait 3 0.24375 0 0 0 0 0.151547 0 0 
node 1 1 1 3
node 2 3 1 1
node 3 2 1 1
node 4 3 0 2
node 10 1 0 0
gene 3 1 4 -1.95638 0 1 -1.95638 1
gene 2 2 4 3.98719 0 2 3.98719 1
gene 2 3 4 -2.17668 0 3 -2.17668 0
gene 2 3 10 3.21374 0 14 3.21374 1
gene 2 10 4 -3.43227 0 15 -3.43227 1
gene 2 1 10 -1.33946 0 25 -1.33946 1
gene 2 2 10 0.848018 0 58 0.848018 1
genomeend 92

/* Organism #93 Fitness: 4 Error: 2 */
genomestart 93
trait 1 0.125277 0 0.0596026 0.0800424 0 0 0 0 
trait 2 0.2 0 0 0 0 0 0 0 
trait 3 0.763239 0 0 0 0 0.404126 0 0 
node 1 1 1 3
node 2 3 1 1
node 3 2 1 1
node 4 3 0 2
node 10 1 0 0
gene 3 1 4 -1.95638 0 1 -1.95638 1
gene 2 2 4 4.13739 0 2 4.13739 1
gene 2 3 4 -2.79314 0 3 -2.79314 0
gene 2 3 10 3.21374 0 14 3.21374 1
gene 2 10 4 -3.43227 0 15 -3.43227 0
gene 2 1 10 -0.958052 0 25 -0.958052 1
genomeend 93

/* Organism #94 Fitness: 4.5581 Error: 1.86503 */
genomestart 94
trait 1 0.137915 0 0.089404 0.120064 0 0 0 0 
trait 2 0.2 0 0 0 0 0 0 0 
trait 3 0.572205 0 0 0.408185 0.125721 0.151547 0 0.125736 
node 1 1 1 3
node 2 3 1 1
node 3 2 1 1
node 4 3 0 2
node 10 1 0 0
gene 3 1 4 -1.99033 0 1 -1.99033 1
gene 2 2 4 4.21287 0 2 4.21287 1
gene 2 3 4 -3.8153 0 3 -3.8153 0
gene 2 3 10 5.57015 0 14 5.57015 1
gene 2 10 4 -1.84615 0 15 -1.84615 1
gene 2 1 10 -3.46416 0 25 -3.46416 1
gene 2 2 10 -0.516923 0 58 -0.516923 1
genomeend 94

/* Species #4 : (Size 28) (AF 6.22618) (Age 7)  */


/* Organism #95 Fitness: 3.97291 Error: 2.00678 */
genomestart 95
trait 1 0.0589844 0.283236 0.00135533 0.398106 0.0100558 0.00689337 0.215356 0 
trait 2 0.198438 0.00199777 0.00163226 0.00224049 0 0.00598067 0.00319371 0 
trait 3 0.308796 0 0.0317412 0 0.0124015 0 0 0 
node 1 1 1 3
node 2 3 1 1
node 3 2 1 1
node 4 1 0 2
node 11 1 0 0
gene 3 1 4 -7.59915 0 1 -7.59915 1
gene 2 2 4 -1.43872 0 2 -1.43872 1
gene 1 3 4 4.48195 0 3 4.48195 1
gene 2 2 11 5.62439 0 16 5.62439 1
gene 2 11 4 8 0 17 8 1
genomeend 95

/* Organism #96 Fitness: 8.99913 Error: 1.00014 */
genomestart 96
trait 1 0.05 0.348598 0 0.530808 0 0 0.265053 0 
trait 2 0.2 0 0 0 0 0 0 0 
trait 3 0.3 0 0 0 0 0 0 0 
node 1 1 1 3
node 2 3 1 1
node 3 2 1 1
node 4 1 0 2
node 11 1 0 0
gene 3 1 4 -6.13789 0 1 -6.13789 1
gene 2 2 4 -0.870121 0 2 -0.870121 0
gene 1 3 4 4.41839 0 3 4.41839 1
gene 2 2 11 2.97761 0 16 2.97761 1
gene 2 11 4 8 0 17 8 1
genomeend 96

/* Organism #97 Fitness: 8.67704 Error: 1.05432 */
genomestart 97
trait 1 0.0544922 0.315917 0.000677666 0.464457 0.00502792 0.00344668 0.240205 0 
trait 2 0.199219 0.000998885 0.000816132 0.00112024 0 0.00299034 0.00159686 0 
trait 3 0.304398 0 0.0158706 0 0.00620074 0 0 0 
node 1 1 1 3
node 2 3 1 1
node 3 2 1 1
node 4 1 0 2
node 11 1 0 0
gene 3 1 4 -4.12933 0 1 -4.12933 1
gene 2 2 4 0.898789 0 2 0.898789 1
gene 1 3 4 3.93227 0 3 3.93227 1
gene 2 2 11 4.198 0 16 4.198 1
gene 2 11 4 7.09828 0 17 7.09828 1
genomeend 97

/* Organism #98 Fitness: 4 Error: 2 */
genomestart 98
trait 1 0.0544922 0.315917 0.000677666 0.464457 0.00502792 0.00344668 0.240205 0 
trait 2 0.199219 0.000998885 0.000816132 0.00112024 0 0.00299034 0.00159686 0 
trait 3 0.304398 0 0.0158706 0 0.00620074 0 0 0 
node 1 1 1 3
node 2 3 1 1
node 3 2 1 1
node 4 1 0 2
node 11 1 0 0
gene 3 1 4 -7.34026 0 1 -7.34026 1
gene 2 2 4 1.73477 0 2 1.73477 1
gene 1 3 4 -0.0111393 0 3 -0.0111393 1
gene 2 2 11 4.76198 0 16 4.76198 1
gene 2 11 4 -0.662786 0 17 -0.662786 1
genomeend 98

/* Organism #99 Fitness: 5.17056 Error: 1.72611 */
genomestart 99
trait 1 0.05 0.348598 0 0.530808 0 0 0.265053 0 
trait 2 0.2 0 0 0 0 0 0 0 
trait 3 0.3 0 0 0 0 0 0 0 
node 1 1 1 3
node 2 3 1 1
node 3 2 1 1
node 4 1 0 2
node 11 1 0 0
gene 3 1 4 -3.65109 0 1 -3.65109 1
gene 2 2 4 -0.502144 0 2 -0.502144 0
gene 1 3 4 5.8755 0 3 5.8755 1
gene 2 2 11 2.09029 0 16 2.09029 1
gene 2 11 4 7.69817 0 17 7.69817 1
genomeend 99

/* Organism #100 Fitness: 8.99884 Error: 1.00019 */
genomestart 100
trait 1 0.05 0.348598 0 0.530808 0 0 0.265053 0 
trait 2 0.2 0 0 0 0 0 0 0 
trait 3 0.3 0 0 0 0 0 0 0 
node 1 1 1 3
node 2 3 1 1
node 3 2 1 1
node 4 1 0 2
node 11 1 0 0
gene 3 1 4 -6.23723 0 1 -6.23723 1
gene 2 2 4 0.881108 0 2 0.881108 0
gene 1 3 4 4.96284 0 3 4.96284 1
gene 2 2 11 1.42554 0 16 1.42554 1
gene 2 11 4 8 0 17 8 1
genomeend 100

/* Organism #101 Fitness: 8.96256 Error: 1.00625 */
genomestart 101
trait 1 0.0567383 0.299576 0.0010165 0.431282 0.00754189 0.00517003 0.22778 0 
trait 2 0.198828 0.00149833 0.0012242 0.00168037 0 0.00448551 0.00239529 0 
trait 3 0.306597 0 0 0 0.00930111 0 0 0 
node 1 1 1 3
node 2 3 1 1
node 3 2 1 1
node 4 1 0 2
node 11 1 0 0
gene 3 1 4 -5.02949 0 1 -5.02949 1
gene 2 2 4 0.263689 0 2 0.263689 1
gene 1 3 4 6.178 0 3 6.178 1
gene 2 2 11 2.22496 0 16 2.22496 1
gene 2 11 4 8 0 17 8 1
genomeend 101

/* Organism #102 Fitness: 6.01904 Error: 1.54663 */
genomestart 102
trait 1 0.0567383 0.299576 0.0010165 0.431282 0.00754189 0.00517003 0.22778 0 
trait 2 0.198828 0.00149833 0.0012242 0.00168037 0 0.00448551 0.00239529 0 
trait 3 0.306597 0 0.0238059 0 0.00930111 0 0 0 
node 1 1 1 3
node 2 3 1 1
node 3 2 1 1
node 4 1 0 2
node 11 1 0 0
gene 3 1 4 -6.15387 0 1 -6.15387 1
gene 2 2 4 -1.43872 0 2 -1.43872 1
gene 1 3 4 -1.79609 0 3 -1.79609 1
gene 2 2 11 1.75354 0 16 1.75354 1
gene 2 11 4 7.55605 0 17 7.55605 1
genomeend 102

/* Organism #103 Fitness: 3.65546 Error: 2.08807 */
genomestart 103
trait 1 0.0589844 0.283236 0.00135533 0.398106 0.0100558 0.00689337 0.215356 0 
trait 2 0.198438 0.00199777 0.00163226 0.00224049 0 0.00598067 0.00319371 0 
trait 3 0.308796 0 0.0317412 0 0.0124015 0 0 0 
node 1 1 1 3
node 2 3 1 1
node 3 2 1 1
node 4 1 0 2
node 11 1 0 0
gene 3 1 4 -7.33013 0 1 -7.33013 1
gene 2 2 4 -1.68935 0 2 -1.68935 1
gene 1 3 4 4.02219 0 3 4.02219 1
gene 2 2 11 6.02312 0 16 6.02312 1
gene 2 11 4 7.56137 0 17 7.56137 1
genomeend 103

/* Organism #104 Fitness: 8.98076 Error: 1.00321 */
genomestart 104
trait 1 0.0544922 0.315917 0.000677666 0.464457 0.00502792 0.00344668 0.240205 0 
trait 2 0.199219 0.000998885 0.000816132 0.00112024 0 0.00299034 0.00159686 0 
trait 3 0.304398 0 0.0158706 0 0.00620074 0 0 0 
node 1 1 1 3
node 2 3 1 1
node 3 2 1 1
node 4 1 0 2
node 11 3 0 0
gene 3 1 4 -6.32981 0 1 -6.32981 1
gene 2 2 4 -0.504013 0 2 -0.504013 1
gene 1 3 4 5.06024 0 3 5.06024 1
gene 2 2 11 5.48881 0 16 5.48881 1
gene 2 11 4 8 0 17 8 1
genomeend 104

/* Organism #105 Fitness: 8.20964 Error: 1.13475 */
genomestart 105
trait 1 0.0589844 0.283236 0.00135533 0.398106 0.0100558 0.00689337 0.215356 0 
trait 2 0.198438 0.00199777 0.00163226 0.00224049 0 0.00598067 0.00319371 0 
trait 3 0.308796 0 0.0317412 0 0.0124015 0 0 0 
node 1 1 1 3
node 2 3 1 1
node 3 2 1 1
node 4 1 0 2
node 11 1 0 0
gene 3 1 4 -7.59915 0 1 -7.59915 1
gene 2 2 4 -1.43872 0 2 -1.43872 0
gene 1 3 4 4.48195 0 3 4.48195 1
gene 3 2 11 5.62439 0 16 5.62439 1
gene 2 11 4 8 0 17 8 1
genomeend 105

/* Organism #106 Fitness: 4 Error: 2 */
genomestart 106
trait 1 0.05 0.348598 0 0.530808 0 0 0.265053 0 
trait 2 0.2 0 0 0 0 0 0 0 
trait 3 0.3 0 0 0 0 0 0 0 
node 1 1 1 3
node 2 3 1 1
node 3 2 1 1
node 4 1 0 2
node 11 1 0 0
gene 3 1 4 -8 0 1 -8 1
gene 2 2 4 -2.85268 0 2 -2.85268 0
gene 1 3 4 3.74592 0 3 3.74592 1
gene 2 2 11 2.02818 0 16 2.02818 1
gene 2 11 4 0.694067 0 17 0.694067 1
genomeend 106

/* Organism #107 Fitness: 4.02389 Error: 1.99404 */
genomestart 107
trait 1 0.0589844 0.283236 0.00135533 0.398106 0.0100558 0.00689337 0.215356 0 
trait 2 0.198438 0.00199777 0.00163226 0.00224049 0 0.00598067 0.00319371 0 
trait 3 0.308796 0 0.0317412 0 0.0124015 0 0 0 
node 1 1 1 3
node 2 3 1 1
node 3 2 1 1
node 4 1 0 2
node 11 1 0 0
gene 3 1 4 -7.59915 0 1 -7.59915 1
gene 2 2 4 -1.43872 0 2 -1.43872 1
gene 1 3 4 5.70208 0 3 5.70208 1
gene 2 2 11 5.62439 0 16 5.62439 1
gene 2 11 4 8 0 17 8 1
genomeend 107

/* Organism #108 Fitness: 4 Error: 2 */
genomestart 108
trait 1 0.0589844 0.283236 0.00135533 0.398106 0.0100558 0.00689337 0.215356 0 
trait 2 0.198438 0.00199777 0.00163226 0.00224049 0 0.00598067 0.00319371 0 
trait 3 0.308796 0 0.0317412 0 0.0124015 0 0 0 
node 1 1 1 3
node 2 3 1 1
node 3 2 1 1
node 4 1 0 2
node 11 3 0 0
gene 3 1 4 -7.73469 0 1 -7.73469 1
gene 2 2 4 -0.218207 0 2 -0.218207 1
gene 1 3 4 4.48195 0 3 4.48195 1
gene 2 2 11 8 0 16 8 1
gene 2 11 4 -1.92518 0 17 -1.92518 1
genomeend 108

/* Organism #109 Fitness: 2.25148 Error: 2.49951 */
genomestart 109
trait 1 0.0522461 0.332257 0.000338833 0.497633 0.00251396 0.00172334 0.252629 0 
trait 2 0.199609 0.000499443 0.000408066 0.000560122 0 0.00149517 0.000798429 0 
trait 3 0.302199 0 0.00793529 0 0.00310037 0 0 0 
node 1 1 1 3
node 2 3 1 1
node 3 2 1 1
node 4 1 0 2
node 11 1 0 0
gene 3 1 4 -8 0 1 -8 1
gene 2 2 4 2.2066 0 2 2.2066 0
gene 1 3 4 2.45075 0 3 2.45075 1
gene 2 2 11 4.12666 0 16 4.12666 1
gene 2 11 4 8 0 17 8 1
genomeend 109

/* Organism #110 Fitness: 8.93139 Error: 1.01146 */
genomestart 110
trait 1 0.0589844 0.283236 0.00135533 0.398106 0.0100558 0.00689337 0.215356 0 
trait 2 0.198438 0.00199777 0.00163226 0.00224049 0 0.00598067 0.00319371 0 
trait 3 0.308796 0 0.0317412 0 0.0124015 0 0 0 
node 1 1 1 3
node 2 3 1 1
node 3 2 1 1
node 4 1 0 2
node 11 3 0 0
gene 3 1 4 -6.52174 0 1 -6.52174 1
gene 2 2 4 -1.43872 0 2 -1.43872 0
gene 1 3 4 4.48195 0 3 4.48195 1
gene 2 2 11 8 0 16 8 1
gene 2 11 4 8 0 17 8 1
gene 3 1 11 0.172521 0 76 0.172521 1
genomeend 110

/* Organism #111 Fitness: 8.94636 Error: 1.00895 */
genomestart 111
trait 1 0.05 0.348598 0 0.530808 0 0 0.265053 0 
trait 2 0.2 0 0 0 0 0 0 0 
trait 3 0.3 0 0 0 0 0 0 0 
node 1 1 1 3
node 2 3 1 1
node 3 2 1 1
node 4 1 0 2
node 11 1 0 0
gene 3 1 4 -4.95583 0 1 -4.95583 1
gene 2 2 4 1.20819 0 2 1.20819 0
gene 1 3 4 5.12268 0 3 5.12268 1
gene 2 2 11 1.89505 0 16 1.89505 1
gene 2 11 4 8 0 17 8 1
genomeend 111

/* Organism #112 Fitness: 4.00578 Error: 1.99855 */
genomestart 112
trait 1 0.05 0.348598 0 0.530808 0 0 0.265053 0 
trait 2 0.2 0 0 0 0 0 0 0 
trait 3 0.3 0 0 0 0 0 0 0 
node 1 1 1 3
node 2 3 1 1
node 3 2 1 1
node 4 1 0 2
node 11 1 0 0
gene 3 1 4 -6.23723 0 1 -6.23723 1
gene 2 2 4 2.30426 0 2 2.30426 0
gene 1 3 4 0.933943 0 3 0.933943 1
gene 2 2 11 3.80492 0 16 3.80492 1
gene 2 11 4 8 0 17 8 1
genomeend 112

/* Organism #113 Fitness: 4.01471 Error: 1.99632 */
genomestart 113
trait 1 0.0544922 0.315917 0.000677666 0.464457 0.00502792 0.00344668 0.240205 0 
trait 2 0.199219 0.000998885 0.000816132 0.00112024 0 0.00299034 0.00159686 0 
trait 3 0.304398 0 0.0158706 0 0.00620074 0 0 0 
node 1 1 1 3
node 2 3 1 1
node 3 2 1 1
node 4 1 0 2
node 11 1 0 0
gene 3 1 4 -7.31011 0 1 -7.31011 1
gene 2 2 4 0.0283441 0 2 0.0283441 0
gene 1 3 4 8 0 3 8 1
gene 2 2 11 -0.573725 0 16 -0.573725 1
gene 2 11 4 8 0 17 8 1
genomeend 113

/* Organism #114 Fitness: 8.93604 Error: 1.01068 */
genomestart 114
trait 1 0.05 0.348598 0 0.530808 0 0 0.265053 0 
trait 2 0.2 0 0 0 0 0 0 0 
trait 3 0.3 0 0 0 0 0 0 0 
node 1 1 1 3
node 2 3 1 1
node 3 2 1 1
node 4 1 0 2
node 11 1 0 0
gene 3 1 4 -6.33977 0 1 -6.33977 1
gene 2 2 4 1.58235 0 2 1.58235 0
gene 1 3 4 3.69533 0 3 3.69533 1
gene 2 2 11 1.87696 0 16 1.87696 1
gene 2 11 4 7.40542 0 17 7.40542 1
genomeend 114

/* Organism #115 Fitness: 8.99794 Error: 1.00034 */
genomestart 115
trait 1 0.05 0.348598 0 0.530808 0 0 0.265053 0 
trait 2 0.2 0 0 0 0 0 0 0 
trait 3 0.3 0 0 0 0 0 0 0 
node 1 1 1 3
node 2 3 1 1
node 3 2 1 1
node 4 1 0 2
node 11 1 0 0
gene 3 1 4 -5.38569 0 1 -5.38569 1
gene 2 2 4 -1.02218 0 2 -1.02218 0
gene 1 3 4 6.48465 0 3 6.48465 1
gene 2 2 11 2.97761 0 16 2.97761 1
gene 2 11 4 7.08925 0 17 7.08925 1
genomeend 115

/* Organism #116 Fitness: 1.02598 Error: 2.98709 */
genomestart 116
trait 1 0.0589844 0.283236 0.00135533 0.398106 0.0100558 0.00689337 0.215356 0 
trait 2 0.198438 0.00199777 0.00163226 0.00224049 0 0.00598067 0.00319371 0 
trait 3 0.308796 0 0.0317412 0 0.0124015 0 0 0 
node 1 1 1 3
node 2 3 1 1
node 3 2 1 1
node 4 1 0 2
node 11 1 0 0
gene 3 1 4 -7.80914 0 1 -7.80914 1
gene 2 2 4 -1.72866 0 2 -1.72866 0
gene 1 3 4 4.05766 0 3 4.05766 1
gene 2 2 11 5.24599 0 16 5.24599 1
gene 2 11 4 5.73843 0 17 5.73843 1
genomeend 116

/* Organism #117 Fitness: 4.48965 Error: 1.88112 */
genomestart 117
trait 1 0.05 0.348598 0 0.530808 0 0 0.265053 0 
trait 2 0.2 0 0 0 0 0 0 0 
trait 3 0.3 0 0 0 0 0 0 0 
node 1 1 1 3
node 2 3 1 1
node 3 3 1 1
node 4 1 0 2
node 11 1 0 0
gene 3 1 4 -5.46313 0 1 -5.46313 1
gene 2 2 4 1.83885 0 2 1.83885 0
gene 1 3 4 7.32589 0 3 7.32589 1
gene 2 2 11 0.110019 0 16 0.110019 1
gene 1 11 4 8 0 17 8 1
genomeend 117

/* Organism #118 Fitness: 4.0922 Error: 1.97708 */
genomestart 118
trait 1 0.0567383 0.299576 0.0010165 0.431282 0.00754189 0.00517003 0.22778 0 
trait 2 0.198828 0.00149833 0.0012242 0.00168037 0 0.00448551 0.00239529 0 
trait 3 0.306597 0 0.0238059 0 0.00930111 0 0 0 
node 1 1 1 3
node 2 3 1 1
node 3 2 1 1
node 4 1 0 2
node 11 1 0 0
gene 3 1 4 -6.302 0 1 -6.302 1
gene 2 2 4 0.189482 0 2 0.189482 0
gene 1 3 4 6.09432 0 3 6.09432 1
gene 2 2 11 4.90007 0 16 4.90007 1
gene 2 11 4 5.53998 0 17 5.53998 1
genomeend 118

/* Organism #119 Fitness: 4.03625 Error: 1.99096 */
genomestart 119
trait 1 0.0544922 0.315917 0.000677666 0.464457 0.00502792 0.00344668 0.240205 0 
trait 2 0.199219 0.000998885 0.000816132 0.00112024 0 0.00299034 0.00159686 0 
trait 3 0.304398 0 0.0158706 0 0.00620074 0 0 0 
node 1 1 1 3
node 2 3 1 1
node 3 2 1 1
node 4 1 0 2
node 11 1 0 0
gene 3 1 4 -6.44508 0 1 -6.44508 1
gene 2 2 4 3.21865 0 2 3.21865 1
gene 1 3 4 2.83544 0 3 2.83544 1
gene 2 2 11 5.81555 0 16 5.81555 1
gene 2 11 4 5.31325 0 17 5.31325 1
genomeend 119

/* Organism #120 Fitness: 8.94948 Error: 1.00843 */
genomestart 120
trait 1 0.0544922 0.315917 0.000677666 0.464457 0.00502792 0.00344668 0.240205 0 
trait 2 0.199219 0.000998885 0.000816132 0.00112024 0 0.00299034 0.00159686 0 
trait 3 0.304398 0 0.0158706 0 0.00620074 0 0 0 
node 1 1 1 3
node 2 3 1 1
node 3 2 1 1
node 4 1 0 2
node 11 1 0 0
gene 3 1 4 -6.70159 0 1 -6.70159 1
gene 2 2 4 0.352927 0 2 0.352927 0
gene 1 3 4 3.7149 0 3 3.7149 1
gene 2 2 11 4.72198 0 16 4.72198 1
gene 2 11 4 8 0 17 8 1
genomeend 120

/* Organism #121 Fitness: 8.99688 Error: 1.00052 */
genomestart 121
trait 1 0.0544922 0.315917 0.000677666 0.464457 0.00502792 0.00344668 0.240205 0 
trait 2 0.199219 0.000998885 0.000816132 0.00112024 0 0.00299034 0.00159686 0 
trait 3 0.304398 0 0.0158706 0 0.00620074 0 0 0 
node 1 1 1 3
node 2 3 1 1
node 3 2 1 1
node 4 1 0 2
node 11 1 0 0
gene 3 1 4 -5.3165 0 1 -5.3165 1
gene 2 2 4 1.73477 0 2 1.73477 1
gene 1 3 4 3.93227 0 3 3.93227 1
gene 2 2 11 3.41031 0 16 3.41031 1
gene 2 11 4 7.55605 0 17 7.55605 1
genomeend 121

/* Organism #122 Fitness: 8.98893 Error: 1.00185 */
genomestart 122
trait 1 0.0544922 0.315917 0.000677666 0.464457 0.00502792 0.00344668 0.240205 0 
trait 2 0.199219 0.000998885 0.000816132 0.00112024 0 0.00299034 0.00159686 0 
trait 3 0.304398 0 0.0158706 0 0.00620074 0 0 0 
node 1 1 1 3
node 2 3 1 1
node 3 2 1 1
node 4 1 0 2
node 11 1 0 0
gene 3 1 4 -5.3165 0 1 -5.3165 1
gene 2 2 4 0.606346 0 2 0.606346 1
gene 1 3 4 6.10931 0 3 6.10931 1
gene 2 2 11 3.41031 0 16 3.41031 1
gene 2 11 4 5.98939 0 17 5.98939 1
genomeend 122

/* Species #5 : (Size 27) (AF 6.02638) (Age 7)  */


/* Organism #123 Fitness: 8.97608 Error: 1.00399 */
genomestart 123
trait 1 0.09375 0 0.0216853 0 0 0 0 0 
trait 2 0.2 0.0319643 0 0.0348827 0 0 0 0 
trait 3 0.3 0 0 0 0 0 0 0 
node 1 1 1 3
node 2 3 1 1
node 3 2 1 1
node 4 1 0 2
node 12 1 0 0
gene 3 1 4 -4.15677 0 1 -4.15677 1
gene 2 2 4 3.21567 0 2 3.21567 1
gene 1 3 4 1.51105 0 3 1.51105 1
gene 3 3 12 0.511093 0 18 0.511093 1
gene 1 12 4 4.30479 0 19 4.30479 1
genomeend 123

/* Organism #124 Fitness: 8.9705 Error: 1.00492 */
genomestart 124
trait 1 0.09375 0 0.0216853 0 0 0 0 0 
trait 2 0.2 0.0319643 0 0.0348827 0 0 0 0 
trait 3 0.3 0 0 0 0 0 0 0 
node 1 1 1 3
node 2 3 1 1
node 3 2 1 1
node 4 1 0 2
node 12 1 0 0
gene 3 1 4 -4.47233 0 1 -4.47233 1
gene 2 2 4 2.73332 0 2 2.73332 1
gene 1 3 4 1.79167 0 3 1.79167 1
gene 3 3 12 1.44618 0 18 1.44618 1
gene 1 12 4 5.66088 0 19 5.66088 1
genomeend 124

/* Organism #125 Fitness: 2.46699 Error: 2.42934 */
genomestart 125
trait 1 0.09375 0 0.0216853 0 0 0 0 0 
trait 2 0.2 0.0319643 0 0.0348827 0 0 0 0 
trait 3 0.3 0 0 0 0 0 0 0 
node 1 1 1 3
node 2 3 1 1
node 3 2 1 1
node 4 1 0 2
node 12 1 0 0
gene 3 1 4 -3.0578 0 1 -3.0578 1
gene 2 2 4 -0.73793 0 2 -0.73793 1
gene 1 3 4 1.30207 0 3 1.30207 0
gene 1 3 12 0.592196 0 18 0.592196 1
gene 1 12 4 6.03511 0 19 6.03511 1
genomeend 125

/* Organism #126 Fitness: 1.72676 Error: 2.68594 */
genomestart 126
trait 1 0.09375 0 0.0216853 0 0 0 0 0 
trait 2 0.2 0.0319643 0 0.0348827 0 0 0 0 
trait 3 0.3 0 0 0 0 0 0 0 
node 1 1 1 3
node 2 3 1 1
node 3 2 1 1
node 4 1 0 2
node 12 1 0 0
gene 3 1 4 -4.87892 0 1 -4.87892 1
gene 2 2 4 3.36361 0 2 3.36361 1
gene 1 3 4 1.35117 0 3 1.35117 0
gene 3 3 12 1.82545 0 18 1.82545 1
gene 1 12 4 2.70798 0 19 2.70798 1
genomeend 126

/* Organism #127 Fitness: 5.29709 Error: 1.69846 */
genomestart 127
trait 1 0.09375 0 0.0216853 0 0 0 0 0 
trait 2 0.2 0.0319643 0 0.0348827 0 0 0 0 
trait 3 0.3 0 0 0 0 0 0 0 
node 1 1 1 3
node 2 3 1 1
node 3 2 1 1
node 4 1 0 2
node 12 3 0 0
gene 3 1 4 -4.87381 0 1 -4.87381 1
gene 2 2 4 5.67843 0 2 5.67843 1
gene 1 3 4 -0.921278 0 3 -0.921278 1
gene 3 3 12 1.18616 0 18 1.18616 1
gene 1 12 4 5.64089 0 19 5.64089 1
genomeend 127

/* Organism #128 Fitness: 8.82877 Error: 1.02868 */
genomestart 128
trait 1 0.09375 0 0.0216853 0 0 0 0 0 
trait 2 0.2 0.0319643 0 0.0348827 0 0 0 0 
trait 3 0.3 0 0 0 0 0 0 0 
node 1 1 1 3
node 2 3 1 1
node 3 2 1 1
node 4 1 0 2
node 12 1 0 0
gene 3 1 4 -3.97868 0 1 -3.97868 1
gene 2 2 4 3.49928 0 2 3.49928 1
gene 1 3 4 3.82109 0 3 3.82109 1
gene 1 3 12 -0.292764 0 18 -0.292764 1
gene 1 12 4 4.57797 0 19 4.57797 1
genomeend 128

/* Organism #129 Fitness: 5.04994 Error: 1.75279 */
genomestart 129
trait 1 0.09375 0 0.0216853 0 0 0 0 0 
trait 2 0.2 0.0319643 0 0.0348827 0 0 0 0 
trait 3 0.3 0 0 0 0 0 0 0 
node 1 3 1 3
node 2 3 1 1
node 3 2 1 1
node 4 1 0 2
node 12 1 0 0
gene 3 1 4 -2.40223 0 1 -2.40223 1
gene 2 2 4 2.89686 0 2 2.89686 1
gene 1 3 4 -0.117458 0 3 -0.117458 1
gene 1 3 12 3.05451 0 18 3.05451 1
gene 1 12 4 2.29614 0 19 2.29614 1
genomeend 129

/* Organism #130 Fitness: 8.79365 Error: 1.03459 */
genomestart 130
trait 1 0.09375 0 0.0216853 0 0 0 0 0 
trait 2 0.2 0.0319643 0 0.0348827 0 0 0 0 
trait 3 0.3 0 0 0 0 0 0 0 
node 1 1 1 3
node 2 3 1 1
node 3 2 1 1
node 4 1 0 2
node 12 1 0 0
gene 3 1 4 -3.44447 0 1 -3.44447 1
gene 2 2 4 2.32189 0 2 2.32189 1
gene 1 3 4 2.23457 0 3 2.23457 0
gene 3 3 12 -1.69845 0 18 -1.69845 1
gene 1 12 4 5.48074 0 19 5.48074 1
genomeend 130

/* Organism #131 Fitness: 1.13235 Error: 2.93588 */
genomestart 131
trait 1 0.09375 0 0.0216853 0 0 0 0 0 
trait 2 0.2 0.0319643 0 0.0348827 0 0 0 0 
trait 3 0.3 0 0 0 0 0 0 0 
node 1 1 1 3
node 2 3 1 1
node 3 2 1 1
node 4 1 0 2
node 12 1 0 0
gene 3 1 4 -2.06502 0 1 -2.06502 1
gene 2 2 4 -1.48106 0 2 -1.48106 1
gene 1 3 4 0.528676 0 3 0.528676 1
gene 3 3 12 0.179754 0 18 0.179754 1
gene 1 12 4 5.52328 0 19 5.52328 1
genomeend 131

/* Organism #132 Fitness: 4.14247 Error: 1.96469 */
genomestart 132
trait 1 0.09375 0 0.0216853 0 0 0 0 0 
trait 2 0.2 0.0319643 0 0.0348827 0 0 0 0 
trait 3 0.3 0 0 0 0 0 0 0 
node 1 1 1 3
node 2 3 1 1
node 3 2 1 1
node 4 1 0 2
node 12 1 0 0
gene 3 1 4 -2.99734 0 1 -2.99734 1
gene 2 2 4 2.32189 0 2 2.32189 1
gene 1 3 4 2.30251 0 3 2.30251 0
gene 3 3 12 1.63761 0 18 1.63761 1
gene 1 12 4 2.32727 0 19 2.32727 1
gene 1 2 12 0.931974 0 69 0.931974 1
genomeend 132

/* Organism #133 Fitness: 3.99921 Error: 2.0002 */
genomestart 133
trait 1 0.09375 0 0.0216853 0 0 0 0 0 
trait 2 0.2 0.0319643 0 0.0348827 0 0 0 0 
trait 3 0.3 0 0 0 0 0 0 0 
node 1 1 1 3
node 2 3 1 1
node 3 2 1 1
node 4 1 0 2
node 12 1 0 0
gene 3 1 4 -5.28043 0 1 -5.28043 1
gene 2 2 4 3.60199 0 2 3.60199 1
gene 1 3 4 3.1465 0 3 3.1465 0
gene 3 3 12 -0.737114 0 18 -0.737114 1
gene 1 12 4 -2.00362 0 19 -2.00362 1
genomeend 133

/* Organism #134 Fitness: 3.99603 Error: 2.00099 */
genomestart 134
trait 1 0.09375 0 0.0216853 0 0 0 0 0 
trait 2 0 0.0319643 0 0.0950346 0.816797 0 0 0 
trait 3 0.3 0 0 0 0 0 0 0 
node 1 1 1 3
node 2 3 1 1
node 3 2 1 1
node 4 1 0 2
node 12 1 0 0
gene 3 1 4 -3.94345 0 1 -3.94345 1
gene 2 2 4 1.96075 0 2 1.96075 1
gene 1 3 4 1.78789 0 3 1.78789 0
gene 1 3 12 0.129765 0 18 0.129765 1
gene 1 12 4 1.06693 0 19 1.06693 1
genomeend 134

/* Organism #135 Fitness: 8.94225 Error: 1.00964 */
genomestart 135
trait 1 0.09375 0 0.0216853 0 0 0 0 0 
trait 2 0.2 0.0319643 0 0.0348827 0 0 0 0 
trait 3 0.3 0 0 0 0 0 0 0 
node 1 1 1 3
node 2 3 1 1
node 3 2 1 1
node 4 1 0 2
node 12 1 0 0
gene 3 1 4 -4.15677 0 1 -4.15677 1
gene 2 2 4 2.30797 0 2 2.30797 1
gene 1 3 4 1.45054 0 3 1.45054 1
gene 3 3 12 1.4107 0 18 1.4107 1
gene 1 12 4 5.64287 0 19 5.64287 1
genomeend 135

/* Organism #136 Fitness: 7.87399 Error: 1.19394 */
genomestart 136
trait 1 0.09375 0 0.0216853 0 0 0 0 0 
trait 2 0.2 0.0319643 0 0.0348827 0 0 0 0 
trait 3 0.3 0 0 0 0 0 0 0 
node 1 1 1 3
node 2 3 1 1
node 3 2 1 1
node 4 1 0 2
node 12 1 0 0
gene 3 1 4 -5.05661 0 1 -5.05661 1
gene 2 2 4 1.36808 0 2 1.36808 1
gene 1 3 4 1.6361 0 3 1.6361 0
gene 3 3 12 -3.39367 0 18 -3.39367 1
gene 1 12 4 7.96899 0 19 7.96899 1
genomeend 136

/* Organism #137 Fitness: 8.72393 Error: 1.04637 */
genomestart 137
trait 1 0.09375 0 0.0216853 0 0 0 0 0 
trait 2 0.2 0.0319643 0 0.0348827 0 0 0 0 
trait 3 0.3 0 0 0 0 0 0 0 
node 1 1 1 3
node 2 3 1 1
node 3 2 1 1
node 4 1 0 2
node 12 1 0 0
gene 3 1 4 -1.80166 0 1 -1.80166 1
gene 2 2 4 4.41882 0 2 4.41882 1
gene 1 3 4 0.97726 0 3 0.97726 1
gene 1 3 12 0.43527 0 18 0.43527 1
gene 1 12 4 2.35874 0 19 2.35874 1
genomeend 137

/* Organism #138 Fitness: 3.90775 Error: 2.0232 */
genomestart 138
trait 1 0.09375 0 0.0216853 0 0 0 0 0 
trait 2 0.2 0.0319643 0 0.0348827 0 0 0 0 
trait 3 0.3 0 0 0 0 0 0 0 
node 1 1 1 3
node 2 3 1 1
node 3 2 1 1
node 4 1 0 2
node 12 1 0 0
gene 3 1 4 -4.20705 0 1 -4.20705 1
gene 2 2 4 3.24496 0 2 3.24496 1
gene 1 3 4 4.17432 0 3 4.17432 0
gene 3 3 12 1.29798 0 18 1.29798 1
gene 1 12 4 3.28803 0 19 3.28803 1
genomeend 138

/* Organism #139 Fitness: 7.98578 Error: 1.17409 */
genomestart 139
trait 1 0.09375 0 0.0216853 0 0 0 0 0 
trait 2 0.2 0.0319643 0 0.0348827 0 0 0 0 
trait 3 0.3 0 0 0 0 0 0 0 
node 1 1 1 3
node 2 3 1 1
node 3 2 1 1
node 4 1 0 2
node 12 1 0 0
gene 3 1 4 -2.99734 0 1 -2.99734 1
gene 2 2 4 2.32189 0 2 2.32189 1
gene 1 3 4 1.3694 0 3 1.3694 1
gene 1 3 12 1.97415 0 18 1.97415 1
gene 1 12 4 2.18535 0 19 2.18535 1
genomeend 139

/* Organism #140 Fitness: 7.81307 Error: 1.20481 */
genomestart 140
trait 1 0.09375 0 0.0216853 0 0 0 0 0 
trait 2 0.2 0.0319643 0 0.0348827 0 0 0 0 
trait 3 0.3 0 0 0 0 0 0 0 
node 1 1 1 3
node 2 3 1 1
node 3 2 1 1
node 4 1 0 2
node 12 1 0 0
gene 3 1 4 -4.36651 0 1 -4.36651 1
gene 2 2 4 1.58186 0 2 1.58186 1
gene 1 3 4 -0.811869 0 3 -0.811869 0
gene 3 3 12 -3.40886 0 18 -3.40886 1
gene 1 12 4 6.1243 0 19 6.1243 1
genomeend 140

/* Organism #141 Fitness: 8.94225 Error: 1.00964 */
genomestart 141
trait 1 0.09375 0 0.0216853 0 0 0 0 0 
trait 2 0.2 0.0319643 0 0.0348827 0 0 0 0 
trait 3 0.3 0 0 0 0 0 0 0 
node 1 1 1 3
node 2 3 1 1
node 3 2 1 1
node 4 1 0 2
node 12 1 0 0
gene 3 1 4 -4.15677 0 1 -4.15677 1
gene 2 2 4 2.30797 0 2 2.30797 1
gene 1 3 4 1.45054 0 3 1.45054 1
gene 3 3 12 1.4107 0 18 1.4107 1
gene 1 12 4 5.64287 0 19 5.64287 1
genomeend 141

/* Organism #142 Fitness: 3.52332 Error: 2.12295 */
genomestart 142
trait 1 0.09375 0 0.0216853 0 0 0 0 0 
trait 2 0.2 0.0319643 0 0.0348827 0 0 0 0 
trait 3 0.3 0 0 0 0 0 0 0 
node 1 1 1 3
node 2 3 1 1
node 3 2 1 1
node 4 1 0 2
node 12 1 0 0
gene 3 1 4 -5.11002 0 1 -5.11002 1
gene 2 2 4 1.8632 0 2 1.8632 1
gene 1 3 4 3.5762 0 3 3.5762 0
gene 3 3 12 1.36729 0 18 1.36729 1
gene 1 12 4 5.41314 0 19 5.41314 1
genomeend 142

/* Organism #143 Fitness: 4 Error: 2 */
genomestart 143
trait 1 0.09375 0 0.0216853 0 0 0 0 0 
trait 2 0.2 0.0319643 0 0.0348827 0 0 0 0 
trait 3 0.3 0 0 0 0 0 0 0 
node 1 1 1 3
node 2 3 1 1
node 3 2 1 1
node 4 1 0 2
node 12 1 0 0
gene 3 1 4 0.635472 0 1 0.635472 1
gene 2 2 4 3.9747 0 2 3.9747 1
gene 1 3 4 -0.741447 0 3 -0.741447 1
gene 1 3 12 2.26804 0 18 2.26804 1
gene 1 12 4 6.12934 0 19 6.12934 1
genomeend 143

/* Organism #144 Fitness: 8.99613 Error: 1.00064 */
genomestart 144
trait 1 0.09375 0 0.0216853 0 0 0 0 0 
trait 2 0.2 0.0319643 0 0.0348827 0 0 0 0 
trait 3 0.3 0 0 0 0 0 0 0 
node 1 1 1 3
node 2 3 1 1
node 3 2 1 1
node 4 1 0 2
node 12 1 0 0
gene 3 1 4 -5.41772 0 1 -5.41772 1
gene 2 2 4 4.82498 0 2 4.82498 1
gene 1 3 4 0.16213 0 3 0.16213 1
gene 3 3 12 2.72079 0 18 2.72079 1
gene 1 12 4 6.76214 0 19 6.76214 1
genomeend 144

/* Organism #145 Fitness: 8.97661 Error: 1.0039 */
genomestart 145
trait 1 0.09375 0 0.0216853 0 0 0 0 0 
trait 2 0.2 0.0319643 0 0.0348827 0 0 0 0 
trait 3 0.3 0 0 0 0 0 0 0 
node 1 1 1 3
node 2 3 1 1
node 3 2 1 1
node 4 1 0 2
node 12 1 0 0
gene 3 1 4 -3.57706 0 1 -3.57706 1
gene 2 2 4 2.76878 0 2 2.76878 1
gene 1 3 4 1.76357 0 3 1.76357 1
gene 3 3 12 1.07435 0 18 1.07435 1
gene 1 12 4 3.90893 0 19 3.90893 1
genomeend 145

/* Organism #146 Fitness: 4.08464 Error: 1.97895 */
genomestart 146
trait 1 0.09375 0 0.0216853 0 0 0 0 0 
trait 2 0.2 0.0319643 0 0.0348827 0 0 0 0 
trait 3 0.3 0 0 0 0 0 0 0 
node 1 1 1 3
node 2 3 1 1
node 3 2 1 1
node 4 1 0 2
node 12 1 0 0
gene 3 1 4 -3.03774 0 1 -3.03774 1
gene 1 2 4 1.96021 0 2 1.96021 1
gene 1 3 4 -0.283517 0 3 -0.283517 1
gene 3 3 12 0.845515 0 18 0.845515 1
gene 1 12 4 7.63489 0 19 7.63489 1
genomeend 146

/* Organism #147 Fitness: 2.57158 Error: 2.39638 */
genomestart 147
trait 1 0.09375 0 0.0216853 0 0 0 0 0 
trait 2 0.2 0.0319643 0 0.0348827 0 0 0 0 
trait 3 0.3 0 0 0 0 0 0 0 
node 1 1 1 3
node 2 3 1 1
node 3 2 1 1
node 4 1 0 2
node 12 1 0 0
gene 3 1 4 -2.97073 0 1 -2.97073 1
gene 2 2 4 3.50836 0 2 3.50836 1
gene 1 3 4 1.73332 0 3 1.73332 1
gene 3 3 12 1.63089 0 18 1.63089 1
gene 1 12 4 -2.31986 0 19 -2.31986 1
genomeend 147

/* Organism #148 Fitness: 8.99143 Error: 1.00143 */
genomestart 148
trait 1 0.09375 0 0.0216853 0 0 0 0 0 
trait 2 0.2 0.0319643 0 0.0348827 0 0 0 0 
trait 3 0.3 0 0 0 0 0 0 0 
node 1 1 1 3
node 2 3 1 1
node 3 2 1 1
node 4 1 0 2
node 12 1 0 0
gene 3 1 4 -4.15677 0 1 -4.15677 1
gene 2 2 4 3.21567 0 2 3.21567 1
gene 1 3 4 1.51105 0 3 1.51105 1
gene 3 3 12 0.511093 0 18 0.511093 1
gene 1 12 4 4.30479 0 19 4.30479 1
gene 2 2 12 0.743675 0 77 0.743675 1
genomeend 148

/* Organism #149 Fitness: 3.99978 Error: 2.00005 */
genomestart 149
trait 1 0.09375 0 0.0216853 0 0 0 0 0 
trait 2 0.2 0.0319643 0 0.0348827 0 0 0 0 
trait 3 0.3 0 0 0 0 0 0 0 
node 1 1 1 3
node 2 3 1 1
node 3 2 1 1
node 4 1 0 2
node 12 1 0 0
gene 3 1 4 -3.44447 0 1 -3.44447 1
gene 2 2 4 1.53356 0 2 1.53356 1
gene 1 3 4 2.23457 0 3 2.23457 0
gene 3 3 12 -1.69845 0 18 -1.69845 1
gene 1 12 4 5.48074 0 19 5.48074 1
gene 3 1 12 0.844844 0 78 0.844844 1
genomeend 149
