
/* Species #2 : (Size 7) (AF 6.855) (Age 32)  */


/* Organism #0 Fitness: 9 Error: 1 */
genomestart 0
trait 1 0.1 0 0 0 0 0 0 0 
trait 2 0.382889 0 0.096026 0 0 0.2006 0.0175601 0.0118021 
trait 3 0.3 0.0450682 0 0 0 0.332381 0 0 
node 1 1 1 3
node 2 1 1 1
node 3 2 1 1
node 4 1 0 2
node 7 1 0 0
gene 3 1 4 -5.71317 0 1 -5.71317 1
gene 3 2 4 -8 0 2 -8 1
gene 3 3 4 1.72454 0 3 1.72454 1
gene 1 3 7 6.89075 0 8 6.89075 1
gene 3 7 4 8 0 9 8 1
gene 3 1 7 -1.8281 0 195 -1.8281 1
genomeend 0

/* Organism #1 Fitness: 9 Error: 1 */
genomestart 1
trait 1 0.1 0 0 0 0 0 0 0 
trait 2 0.382889 0 0.096026 0 0 0.2006 0.0175601 0.0118021 
trait 3 0.3 0.0450682 0 0 0 0.332381 0 0 
node 1 1 1 3
node 2 1 1 1
node 3 2 1 1
node 4 1 0 2
node 7 1 0 0
gene 3 1 4 -4.14307 0 1 -4.14307 1
gene 3 2 4 -7.7766 0 2 -7.7766 1
gene 3 3 4 1.26523 0 3 1.26523 1
gene 1 3 7 8 0 8 8 1
gene 3 7 4 7.04241 0 9 7.04241 1
gene 3 1 7 -3.20159 0 195 -3.20159 1
genomeend 1

/* Organism #2 Fitness: 4 Error: 2 */
genomestart 2
trait 1 0.1 0 0 0 0 0 0 0 
trait 2 0.382889 0 0.096026 0 0 0.2006 0.0175601 0.0118021 
trait 3 0.3 0.0450682 0 0 0 0.332381 0 0 
node 1 1 1 3
node 2 1 1 1
node 3 2 1 1
node 4 1 0 2
node 7 1 0 0
gene 3 1 4 -4.08631 0 1 -4.08631 1
gene 3 2 4 -7.16288 0 2 -7.16288 1
gene 3 3 4 1.6799 0 3 1.6799 1
gene 1 3 7 8 0 8 8 1
gene 3 7 4 6.88226 0 9 6.88226 1
gene 3 1 7 1.04903 0 195 1.04903 1
genomeend 2

/* Organism #3 Fitness: 8.99998 Error: 1 */
genomestart 3
trait 1 0.1 0 0 0 0 0 0 0 
trait 2 0.382889 0 0.096026 0 0 0.2006 0.0175601 0.0118021 
trait 3 0.3 0.0450682 0 0 0 0.332381 0 0 
node 1 1 1 3
node 2 1 1 1
node 3 2 1 1
node 4 1 0 2
node 7 1 0 0
gene 3 1 4 -6.6919 0 1 -6.6919 1
gene 3 2 4 -8 0 2 -8 1
gene 3 3 4 1.60292 0 3 1.60292 1
gene 1 3 7 5.3723 0 8 5.3723 1
gene 3 7 4 7.65125 0 9 7.65125 1
gene 3 1 7 -3.96699 0 195 -3.96699 1
genomeend 3

/* Organism #4 Fitness: 4.00124 Error: 1.99969 */
genomestart 4
trait 1 0.1 0 0 0 0 0 0 0 
trait 2 0.382889 0 0.096026 0 0 0.2006 0.0175601 0.0118021 
trait 3 0.3 0.0450682 0 0 0 0.332381 0 0 
node 1 1 1 3
node 2 1 1 1
node 3 2 1 1
node 4 1 0 2
node 7 1 0 0
gene 3 1 4 -3.64852 0 1 -3.64852 1
gene 3 2 4 2.00842 0 2 2.00842 1
gene 3 3 4 -1.23675 0 3 -1.23675 1
gene 1 3 7 7.69008 0 8 7.69008 1
gene 3 7 4 8 0 9 8 1
gene 3 1 7 -0.667486 0 195 -0.667486 1
gene 1 2 7 -1.76579 0 346 -1.76579 1
genomeend 4

/* Organism #5 Fitness: 8.9988 Error: 1.0002 */
genomestart 5
trait 1 0.1 0 0 0 0 0 0 0 
trait 2 0.382889 0 0.096026 0 0 0.2006 0.0175601 0.0118021 
trait 3 0.3 0.0450682 0 0 0 0.332381 0 0 
node 1 1 1 3
node 2 1 1 1
node 3 2 1 1
node 4 3 0 2
node 7 1 0 0
gene 3 1 4 -3.75522 0 1 -3.75522 1
gene 3 2 4 -8 0 2 -8 1
gene 3 3 4 -1.07439 0 3 -1.07439 1
gene 1 3 7 8 0 8 8 1
gene 3 7 4 8 0 9 8 1
gene 3 1 7 -0.219779 0 195 -0.219779 1
genomeend 5

/* Organism #6 Fitness: 3.98495 Error: 2.00377 */
genomestart 6
trait 1 0.1 0 0 0 0 0 0 0 
trait 2 0.382889 0 0.096026 0 0 0.2006 0.0175601 0.0118021 
trait 3 0.3 0.0450682 0 0 0 0.332381 0 0 
node 1 1 1 3
node 2 1 1 1
node 3 2 1 1
node 4 1 0 2
node 7 1 0 0
gene 3 1 4 -4.8157 0 1 -4.8157 1
gene 3 2 4 -8 0 2 -8 1
gene 3 3 4 3.69939 0 3 3.69939 1
gene 1 3 7 5.60119 0 8 5.60119 1
gene 3 7 4 8 0 9 8 1
gene 3 1 7 0.289926 0 195 0.289926 1
genomeend 6

/* Species #3 : (Size 7) (AF 6.08224) (Age 30)  */


/* Organism #7 Fitness: 9 Error: 1 */
genomestart 7
trait 1 0.0875 0 0.0553301 0 0.104671 0.0363628 0 0 
trait 2 0.2 0 0 0 0 0 0 0 
trait 3 0.230859 0 0 0.0319026 0 0.15796 0.0172036 0.188767 
node 1 2 1 3
node 2 2 1 1
node 3 3 1 1
node 4 3 0 2
node 10 1 0 0
gene 2 1 4 -3.46319 0 1 -3.46319 1
gene 3 2 4 6.2216 0 2 6.2216 0
gene 3 3 4 -8 0 3 -8 1
gene 2 2 10 4.18459 0 16 4.18459 1
gene 2 10 4 7.39665 0 17 7.39665 1
gene 2 1 10 -2.80099 0 28 -2.80099 1
gene 2 3 10 -1.73707 0 103 -1.73707 1
genomeend 7

/* Organism #8 Fitness: 3.99425 Error: 2.00144 */
genomestart 8
trait 1 0.0875 0 0.0553301 0 0.104671 0.0363628 0 0 
trait 2 0.2 0 0 0 0 0 0 0 
trait 3 0.230859 0 0 0.0319026 0 0.15796 0.0172036 0.188767 
node 1 2 1 3
node 2 2 1 1
node 3 3 1 1
node 4 3 0 2
node 10 1 0 0
gene 2 1 4 -1.32888 0 1 -1.32888 1
gene 3 2 4 1.3905 0 2 1.3905 0
gene 3 3 4 -7.99298 0 3 -7.99298 1
gene 2 2 10 5.45233 0 16 5.45233 1
gene 2 10 4 -1.78655 0 17 -1.78655 1
gene 2 1 10 -4.40504 0 28 -4.40504 1
gene 2 3 10 -1.73707 0 103 -1.73707 1
genomeend 8

/* Organism #9 Fitness: 4 Error: 2 */
genomestart 9
trait 1 0.0875 0 0.0553301 0 0.104671 0.0363628 0 0 
trait 2 0.2 0 0 0 0 0 0 0 
trait 3 0.230859 0 0 0.0319026 0 0.15796 0.0172036 0.188767 
node 1 2 1 3
node 2 2 1 1
node 3 3 1 1
node 4 3 0 2
node 10 1 0 0
gene 2 1 4 -2.40763 0 1 -2.40763 1
gene 2 2 4 7.37597 0 2 7.37597 0
gene 3 3 4 -6.08969 0 3 -6.08969 1
gene 2 2 10 4.19916 0 16 4.19916 1
gene 2 10 4 6.6771 0 17 6.6771 1
gene 2 1 10 -6.12384 0 28 -6.12384 1
gene 2 3 10 0.32316 0 103 0.32316 1
genomeend 9

/* Organism #10 Fitness: 3.59378 Error: 2.10427 */
genomestart 10
trait 1 0.0875 0 0.0553301 0 0.104671 0.0363628 0 0 
trait 2 0.2 0 0 0 0 0 0 0 
trait 3 0.230859 0 0 0.0319026 0 0.15796 0.0172036 0.188767 
node 1 2 1 3
node 2 2 1 1
node 3 3 1 1
node 4 3 0 2
node 10 1 0 0
gene 2 1 4 0.519654 0 1 0.519654 1
gene 2 2 4 5.57148 0 2 5.57148 0
gene 3 3 4 -6.38298 0 3 -6.38298 1
gene 2 2 10 3.65585 0 16 3.65585 1
gene 2 10 4 7.89555 0 17 7.89555 1
gene 2 1 10 -5.66172 0 28 -5.66172 1
gene 2 3 10 2.16582 0 103 2.16582 1
genomeend 10

/* Organism #11 Fitness: 8.98783 Error: 1.00203 */
genomestart 11
trait 1 0.0875 0 0.0553301 0 0.104671 0.0363628 0 0 
trait 2 0.2 0 0 0 0 0 0 0 
trait 3 0.230859 0 0 0.0319026 0 0.15796 0.0172036 0.188767 
node 1 2 1 3
node 2 2 1 1
node 3 3 1 1
node 4 3 0 2
node 10 1 0 0
gene 2 1 4 -1.57249 0 1 -1.57249 1
gene 3 2 4 7.40183 0 2 7.40183 0
gene 3 3 4 -7.73457 0 3 -7.73457 1
gene 2 2 10 6.05209 0 16 6.05209 1
gene 2 10 4 8 0 17 8 1
gene 2 1 10 -4.88762 0 28 -4.88762 1
gene 2 3 10 0.75576 0 103 0.75576 1
genomeend 11

/* Organism #12 Fitness: 4 Error: 2 */
genomestart 12
trait 1 0.0875 0 0.0553301 0 0.104671 0.0363628 0 0 
trait 2 0.2 0 0 0 0 0 0 0 
trait 3 0.230859 0 0 0.0319026 0 0.15796 0.0172036 0.188767 
node 1 2 1 3
node 2 2 1 1
node 3 3 1 1
node 4 3 0 2
node 10 1 0 0
gene 2 1 4 -2.18614 0 1 -2.18614 1
gene 3 2 4 4.61709 0 2 4.61709 0
gene 3 3 4 -7.53673 0 3 -7.53673 1
gene 2 2 10 3.08241 0 16 3.08241 1
gene 2 10 4 7.33355 0 17 7.33355 1
gene 2 1 10 -4.39634 0 28 -4.39634 1
gene 2 3 10 -1.39808 0 103 -1.39808 1
genomeend 12

/* Organism #13 Fitness: 8.99981 Error: 1.00003 */
genomestart 13
trait 1 0.0875 0 0.0553301 0 0.104671 0.0363628 0 0 
trait 2 0.2 0 0 0 0 0 0 0 
trait 3 0.230859 0 0 0.0319026 0 0.15796 0.0172036 0.188767 
node 1 2 1 3
node 2 2 1 1
node 3 3 1 1
node 4 3 0 2
node 10 1 0 0
gene 2 1 4 -5.89467 0 1 -5.89467 1
gene 2 2 4 5.60215 0 2 5.60215 0
gene 3 3 4 -8 0 3 -8 1
gene 2 2 10 7.34981 0 16 7.34981 1
gene 2 10 4 8 0 17 8 1
gene 2 1 10 -4.19729 0 28 -4.19729 1
gene 2 3 10 -0.213202 0 103 -0.213202 1
genomeend 13

/* Species #4 : (Size 9) (AF 7.85958) (Age 30)  */


/* Organism #14 Fitness: 9 Error: 1 */
genomestart 14
trait 1 0.1 0 0 0.07935 0 0 0 0.0426019 
trait 2 0.24877 0 0.0256069 0 0 0.0534932 0.00468268 0.00314722 
trait 3 0 0 0.378201 0 0 0 0 0.923917 
node 1 1 1 3
node 2 1 1 1
node 3 2 1 1
node 4 3 0 2
node 7 1 0 0
node 9 1 0 0
gene 1 1 4 1.48043 0 1 1.48043 1
gene 3 2 4 -8 0 2 -8 1
gene 1 3 4 8 0 3 8 1
gene 3 3 7 -4.28314 0 8 -4.28314 1
gene 3 7 4 -0.39758 0 9 -0.39758 1
gene 3 2 9 1.1785 0 14 1.1785 1
gene 2 9 4 -7.86054 0 15 -7.86054 1
gene 3 7 9 4.52934 0 22 4.52934 1
gene 2 2 7 1.31443 0 297 1.31443 1
gene 2 1 7 2.25887 0 310 2.25887 1
genomeend 14

/* Organism #15 Fitness: 8.99878 Error: 1.0002 */
genomestart 15
trait 1 0.1 0 0 0.07935 0 0 0 0.0426019 
trait 2 0.24877 0 0.0256069 0 0 0.0534932 0.00468268 0.00314722 
trait 3 0 0 0.378201 0 0 0 0 0.923917 
node 1 1 1 3
node 2 1 1 1
node 3 2 1 1
node 4 3 0 2
node 7 1 0 0
node 9 1 0 0
gene 1 1 4 1.48043 0 1 1.48043 1
gene 3 2 4 -6.61568 0 2 -6.61568 1
gene 1 3 4 6.87707 0 3 6.87707 1
gene 3 3 7 -2.1325 0 8 -2.1325 1
gene 3 7 4 -0.888623 0 9 -0.888623 1
gene 3 2 9 3.2916 0 14 3.2916 1
gene 2 9 4 -6.634 0 15 -6.634 1
gene 1 7 9 4.1197 0 22 4.1197 1
gene 2 2 7 2.24921 0 297 2.24921 1
gene 2 1 7 0.595843 0 310 0.595843 1
gene 1 1 9 1.60691 0 333 1.60691 1
genomeend 15

/* Organism #16 Fitness: 8.99969 Error: 1.00005 */
genomestart 16
trait 1 0.1 0 0 0.07935 0 0 0 0.0426019 
trait 2 0.24877 0 0.0256069 0 0 0.0534932 0.00468268 0.00314722 
trait 3 0 0 0.378201 0 0 0 0 0.923917 
node 1 1 1 3
node 2 1 1 1
node 3 2 1 1
node 4 3 0 2
node 7 1 0 0
node 9 1 0 0
gene 1 1 4 1.87259 0 1 1.87259 1
gene 3 2 4 -8 0 2 -8 1
gene 1 3 4 8 0 3 8 1
gene 3 3 7 -5.06883 0 8 -5.06883 1
gene 3 7 4 -1.39576 0 9 -1.39576 1
gene 3 2 9 -0.981905 0 14 -0.981905 1
gene 2 9 4 -7.87114 0 15 -7.87114 1
gene 1 7 9 2.63986 0 22 2.63986 1
gene 2 2 7 3.16393 0 297 3.16393 1
gene 2 1 7 -2.03124 0 310 -2.03124 1
gene 1 1 9 1.69655 0 333 1.69655 1
genomeend 16

/* Organism #17 Fitness: 8.75837 Error: 1.04055 */
genomestart 17
trait 1 0.1 0 0 0.07935 0 0 0 0.0426019 
trait 2 0.24877 0 0.0256069 0 0 0.0534932 0.00468268 0.00314722 
trait 3 0 0 0.378201 0 0 0 0 0.923917 
node 1 1 1 3
node 2 1 1 1
node 3 2 1 1
node 4 3 0 2
node 7 1 0 0
node 9 1 0 0
gene 1 1 4 2.64998 0 1 2.64998 1
gene 3 2 4 -8 0 2 -8 1
gene 1 3 4 8 0 3 8 1
gene 3 3 7 -6.5782 0 8 -6.5782 1
gene 3 7 4 0.564669 0 9 0.564669 1
gene 3 2 9 -0.00828864 0 14 -0.00828864 1
gene 2 9 4 -6.72113 0 15 -6.72113 1
gene 3 7 9 3.78659 0 22 3.78659 1
gene 2 2 7 2.90185 0 297 2.90185 1
gene 2 1 7 1.43625 0 310 1.43625 1
genomeend 17

/* Organism #18 Fitness: 8.98039 Error: 1.00327 */
genomestart 18
trait 1 0.1 0 0 0.07935 0 0 0 0.0426019 
trait 2 0.24877 0 0.0256069 0 0 0.0534932 0.00468268 0.00314722 
trait 3 0 0 0.378201 0 0 0 0 0.923917 
node 1 1 1 3
node 2 1 1 1
node 3 2 1 1
node 4 3 0 2
node 7 1 0 0
node 9 1 0 0
gene 1 1 4 0.14906 0 1 0.14906 1
gene 3 2 4 -6.63285 0 2 -6.63285 1
gene 1 3 4 7.74906 0 3 7.74906 1
gene 3 3 7 -5.21708 0 8 -5.21708 1
gene 3 7 4 -2.72164 0 9 -2.72164 1
gene 3 2 9 1.46324 0 14 1.46324 1
gene 2 9 4 -8 0 15 -8 1
gene 1 7 9 5.35204 0 22 5.35204 1
gene 2 2 7 3.12929 0 297 3.12929 1
gene 2 1 7 1.38623 0 310 1.38623 1
gene 1 1 9 0.3399 0 333 0.3399 1
genomeend 18

/* Organism #19 Fitness: 8.99963 Error: 1.00006 */
genomestart 19
trait 1 0.1 0 0 0.07935 0 0 0 0.0426019 
trait 2 0.24877 0 0.0256069 0 0 0.0534932 0.00468268 0.00314722 
trait 3 0 0.875179 0.897046 0 0 0 0 1 
node 1 1 1 3
node 2 1 1 1
node 3 2 1 1
node 4 3 0 2
node 7 1 0 0
node 9 1 0 0
gene 1 1 4 3.14872 0 1 3.14872 1
gene 3 2 4 -7.36605 0 2 -7.36605 1
gene 1 3 4 7.46272 0 3 7.46272 1
gene 3 3 7 -2.30424 0 8 -2.30424 1
gene 3 7 4 -1.95257 0 9 -1.95257 1
gene 3 2 9 1.5226 0 14 1.5226 1
gene 2 9 4 -7.78592 0 15 -7.78592 1
gene 1 7 9 3.10374 0 22 3.10374 1
gene 2 2 7 1.47916 0 297 1.47916 1
gene 2 1 7 2.25887 0 310 2.25887 1
genomeend 19

/* Organism #20 Fitness: 3.99942 Error: 2.00015 */
genomestart 20
trait 1 0.1 0 0 0.07935 0 0 0 0.0426019 
trait 2 0.24877 0 0.0256069 0 0 0.0534932 0.00468268 0.00314722 
trait 3 0 0 0.378201 0 0 0 0 0.923917 
node 1 1 1 3
node 2 1 1 1
node 3 2 1 1
node 4 3 0 2
node 7 1 0 0
node 9 1 0 0
gene 1 1 4 2.33419 0 1 2.33419 1
gene 3 2 4 -6.01347 0 2 -6.01347 1
gene 1 3 4 -0.678884 0 3 -0.678884 1
gene 3 3 7 -6.33695 0 8 -6.33695 1
gene 3 7 4 0.236976 0 9 0.236976 1
gene 3 2 9 1.88149 0 14 1.88149 1
gene 2 9 4 -8 0 15 -8 1
gene 3 7 9 6.97013 0 22 6.97013 1
gene 2 2 7 1.22082 0 297 1.22082 1
gene 2 1 7 -1.29574 0 310 -1.29574 1
genomeend 20

/* Organism #21 Fitness: 4 Error: 2 */
genomestart 21
trait 1 0.1 0 0 0.07935 0 0 0 0.0426019 
trait 2 0.24877 0 0.0256069 0 0 0.0534932 0.00468268 0.00314722 
trait 3 0 0 0.378201 0 0 0 0 0.923917 
node 1 1 1 3
node 2 1 1 1
node 3 2 1 1
node 4 3 0 2
node 7 1 0 0
node 9 1 0 0
gene 1 1 4 2.20542 0 1 2.20542 1
gene 3 2 4 -7.39055 0 2 -7.39055 1
gene 1 3 4 1.30093 0 3 1.30093 1
gene 3 3 7 -2.43425 0 8 -2.43425 1
gene 3 7 4 0.751137 0 9 0.751137 1
gene 3 2 9 2.13815 0 14 2.13815 1
gene 2 9 4 -8 0 15 -8 1
gene 1 7 9 4.87801 0 22 4.87801 1
gene 2 2 7 -0.115436 0 297 -0.115436 1
gene 2 1 7 -0.295419 0 310 -0.295419 1
gene 1 1 9 0.393109 0 333 0.393109 1
genomeend 21

/* Organism #22 Fitness: 9 Error: 1 */
genomestart 22
trait 1 0.1 0 0 0.07935 0 0 0 0.0426019 
trait 2 0.24877 0 0.0256069 0 0 0.0534932 0.00468268 0.00314722 
trait 3 0 0 0.378201 0 0 0 0 0.923917 
node 1 1 1 3
node 2 1 1 1
node 3 2 1 1
node 4 3 0 2
node 7 1 0 0
node 9 1 0 0
gene 1 1 4 1.81814 0 1 1.81814 1
gene 3 2 4 -8 0 2 -8 1
gene 1 3 4 8 0 3 8 1
gene 3 3 7 -6.38144 0 8 -6.38144 1
gene 3 7 4 -0.0173193 0 9 -0.0173193 1
gene 3 2 9 0.331916 0 14 0.331916 1
gene 2 9 4 -8 0 15 -8 1
gene 3 7 9 4.52934 0 22 4.52934 1
gene 2 2 7 1.83729 0 297 1.83729 1
gene 2 1 7 2.41612 0 310 2.41612 1
genomeend 22

/* Species #5 : (Size 10) (AF 8.96095) (Age 28)  */


/* Organism #23 Fitness: 9 Error: 1 */
genomestart 23
trait 1 0.1 0 0 0 0 0 0 0 
trait 2 0.2 0 0 0 0.45555 0.325053 0.251534 0 
trait 3 0.3 0.120182 0 0 0 0.886349 0 0 
node 1 1 1 3
node 2 1 1 1
node 3 2 1 1
node 4 1 0 2
node 7 1 0 0
node 16 1 0 0
gene 3 1 4 -0.31312 0 1 -0.31312 1
gene 3 2 4 6.77114 0 2 6.77114 1
gene 3 3 4 7.16036 0 3 7.16036 1
gene 1 3 7 -2.14825 0 8 -2.14825 1
gene 3 7 4 -5.94825 0 9 -5.94825 1
gene 3 7 16 -6.37972 0 32 -6.37972 1
gene 3 16 4 4.46483 0 33 4.46483 1
gene 1 3 16 4.33388 0 48 4.33388 1
gene 3 1 16 -2.87901 0 254 -2.87901 1
genomeend 23

/* Organism #24 Fitness: 8.99975 Error: 1.00004 */
genomestart 24
trait 1 0.1 0 0 0 0 0 0 0 
trait 2 0.2 0 0 0 0.45555 0.325053 0.251534 0 
trait 3 0.3 0.120182 0 0 0 0.886349 0 0 
node 1 1 1 3
node 2 1 1 1
node 3 2 1 1
node 4 1 0 2
node 7 1 0 0
node 16 1 0 0
gene 3 1 4 0.468612 0 1 0.468612 1
gene 3 2 4 4.38292 0 2 4.38292 1
gene 3 3 4 7.93744 0 3 7.93744 1
gene 1 3 7 -0.976875 0 8 -0.976875 1
gene 3 7 4 -5.39068 0 9 -5.39068 1
gene 3 7 16 -5.64399 0 32 -5.64399 1
gene 3 16 4 6.05332 0 33 6.05332 1
gene 1 3 16 2.18561 0 48 2.18561 1
gene 3 1 16 -3.66959 0 254 -3.66959 1
genomeend 24

/* Organism #25 Fitness: 8.99855 Error: 1.00024 */
genomestart 25
trait 1 0.1 0 0 0 0 0 0 0 
trait 2 0.2 0 0 0 0.45555 0.325053 0.251534 0 
trait 3 0.3 0.120182 0 0 0 0.886349 0 0 
node 1 1 1 3
node 2 1 1 1
node 3 2 1 1
node 4 1 0 2
node 7 1 0 0
node 16 1 0 0
gene 3 1 4 -0.31312 0 1 -0.31312 1
gene 3 2 4 6.77114 0 2 6.77114 1
gene 3 3 4 7.16036 0 3 7.16036 1
gene 1 3 7 -2.14825 0 8 -2.14825 1
gene 3 7 4 -5.94825 0 9 -5.94825 1
gene 3 7 16 -6.37972 0 32 -6.37972 1
gene 3 16 4 4.46483 0 33 4.46483 1
gene 1 3 16 4.33388 0 48 4.33388 1
gene 3 1 16 -2.87901 0 254 -2.87901 1
gene 1 1 7 0.283212 0 353 0.283212 1
genomeend 25

/* Organism #26 Fitness: 8.99943 Error: 1.0001 */
genomestart 26
trait 1 0.1 0 0 0 0 0 0 0 
trait 2 0.2 0 0 0 0.45555 0.325053 0.251534 0 
trait 3 0.3 0.120182 0 0 0 0.886349 0 0 
node 1 1 1 3
node 2 1 1 1
node 3 2 1 1
node 4 1 0 2
node 7 1 0 0
node 16 1 0 0
gene 3 1 4 0.17449 0 1 0.17449 1
gene 3 2 4 6.39271 0 2 6.39271 1
gene 3 3 4 8 0 3 8 1
gene 1 3 7 0.471511 0 8 0.471511 1
gene 3 7 4 -4.10882 0 9 -4.10882 1
gene 3 7 16 -1.74558 0 32 -1.74558 1
gene 3 16 4 4.46483 0 33 4.46483 1
gene 1 3 16 4.33388 0 48 4.33388 1
gene 3 1 16 -3.56011 0 254 -3.56011 1
genomeend 26

/* Organism #27 Fitness: 9 Error: 1 */
genomestart 27
trait 1 0.1 0 0 0 0 0 0 0 
trait 2 0.2 0 0 0 0.45555 0.325053 0.251534 0 
trait 3 0.3 0.120182 0 0 0 0.886349 0 0 
node 1 1 1 3
node 2 1 1 1
node 3 2 1 1
node 4 1 0 2
node 7 1 0 0
node 16 1 0 0
gene 3 1 4 -0.31312 0 1 -0.31312 1
gene 3 2 4 6.77114 0 2 6.77114 1
gene 3 3 4 7.16036 0 3 7.16036 1
gene 1 3 7 -2.14825 0 8 -2.14825 1
gene 3 7 4 -5.94825 0 9 -5.94825 1
gene 3 7 16 -6.37972 0 32 -6.37972 1
gene 3 16 4 4.46483 0 33 4.46483 1
gene 1 3 16 4.33388 0 48 4.33388 1
gene 3 1 16 -2.87901 0 254 -2.87901 1
genomeend 27

/* Organism #28 Fitness: 8.99998 Error: 1 */
genomestart 28
trait 1 0.1 0 0 0 0 0 0 0 
trait 2 0.2 0 0 0 0.45555 0.325053 0.251534 0 
trait 3 0.3 0.120182 0 0 0 0.886349 0 0 
node 1 1 1 3
node 2 1 1 1
node 3 2 1 1
node 4 1 0 2
node 7 1 0 0
node 16 1 0 0
gene 3 1 4 -0.0466933 0 1 -0.0466933 1
gene 3 2 4 6.6406 0 2 6.6406 1
gene 3 3 4 5.20328 0 3 5.20328 1
gene 1 3 7 -3.9686 0 8 -3.9686 1
gene 3 7 4 -8 0 9 -8 1
gene 3 7 16 -6.74464 0 32 -6.74464 1
gene 3 16 4 4.32017 0 33 4.32017 1
gene 1 3 16 6.3552 0 48 6.3552 1
gene 3 1 16 -5.26922 0 254 -5.26922 1
genomeend 28

/* Organism #29 Fitness: 9 Error: 1 */
genomestart 29
trait 1 0.1 0 0 0 0 0 0 0 
trait 2 0.2 0 0 0 0.45555 0.325053 0.251534 0 
trait 3 0.3 0.120182 0 0 0 0.886349 0 0 
node 1 1 1 3
node 2 1 1 1
node 3 2 1 1
node 4 1 0 2
node 7 1 0 0
node 16 1 0 0
node 111 1 0 0
gene 3 1 4 -0.31312 0 1 -0.31312 1
gene 3 2 4 6.77114 0 2 6.77114 1
gene 3 3 4 7.16036 0 3 7.16036 1
gene 1 3 7 -2.14825 0 8 -2.14825 1
gene 3 7 4 -5.94825 0 9 -5.94825 1
gene 3 7 16 -6.37972 0 32 -6.37972 0
gene 3 16 4 4.46483 0 33 4.46483 1
gene 1 3 16 4.33388 0 48 4.33388 1
gene 3 1 16 -2.87901 0 254 -2.87901 1
gene 3 7 111 1 0 354 0 1
gene 3 111 16 -6.37972 0 355 0 1
genomeend 29

/* Organism #30 Fitness: 8.99998 Error: 1 */
genomestart 30
trait 1 0.1 0 0 0 0 0 0 0 
trait 2 0.2 0 0 0 0.45555 0.325053 0.251534 0 
trait 3 0.3 0.120182 0 0 0 0.886349 0 0 
node 1 1 1 3
node 2 1 1 1
node 3 2 1 1
node 4 1 0 2
node 7 1 0 0
node 16 1 0 0
gene 3 1 4 -1.5479 0 1 -1.5479 1
gene 3 2 4 7.75613 0 2 7.75613 1
gene 3 3 4 8 0 3 8 1
gene 1 3 7 -3.7198 0 8 -3.7198 1
gene 3 7 4 -7.38033 0 9 -7.38033 1
gene 3 7 16 -3.90162 0 32 -3.90162 1
gene 3 16 4 5.65101 0 33 5.65101 1
gene 1 3 16 6.63093 0 48 6.63093 1
gene 3 1 16 -0.700827 0 254 -0.700827 1
genomeend 30

/* Organism #31 Fitness: 9 Error: 1 */
genomestart 31
trait 1 0.1 0 0 0 0 0 0 0 
trait 2 0.2 0 0 0 0.45555 0.325053 0.251534 0 
trait 3 0.3 0.120182 0 0 0 0.886349 0 0 
node 1 1 1 3
node 2 1 1 1
node 3 2 1 1
node 4 1 0 2
node 7 1 0 0
node 16 1 0 0
gene 3 1 4 -0.31312 0 1 -0.31312 1
gene 3 2 4 6.77114 0 2 6.77114 1
gene 3 3 4 7.16036 0 3 7.16036 1
gene 1 3 7 -2.14825 0 8 -2.14825 1
gene 3 7 4 -5.94825 0 9 -5.94825 1
gene 3 7 16 -6.37972 0 32 -6.37972 1
gene 3 16 4 4.46483 0 33 4.46483 1
gene 1 3 16 4.33388 0 48 4.33388 1
gene 3 1 16 -2.87901 0 254 -2.87901 1
genomeend 31

/* Organism #32 Fitness: 8.61181 Error: 1.06541 */
genomestart 32
trait 1 0.1 0 0 0 0 0 0 0 
trait 2 0.2 0 0 0 0.45555 0.325053 0.251534 0 
trait 3 0.3 0.120182 0 0 0 0.886349 0 0 
node 1 1 1 3
node 2 1 1 1
node 3 2 1 1
node 4 1 0 2
node 7 1 0 0
node 16 1 0 0
gene 3 1 4 1.90291 0 1 1.90291 1
gene 3 2 4 6.22478 0 2 6.22478 1
gene 3 3 4 6.17751 0 3 6.17751 1
gene 1 3 7 -1.30052 0 8 -1.30052 1
gene 3 7 4 -4.88598 0 9 -4.88598 1
gene 3 7 16 -4.42592 0 32 -4.42592 1
gene 3 16 4 6.85313 0 33 6.85313 1
gene 1 3 16 3.59068 0 48 3.59068 1
gene 3 1 16 -0.391217 0 254 -0.391217 1
genomeend 32

/* Species #6 : (Size 8) (AF 6.31564) (Age 26)  */


/* Organism #33 Fitness: 8.99988 Error: 1.00002 */
genomestart 33
trait 1 0.1 0 0 0 0 0 0 0 
trait 2 0.2 0 0 0 0 0 0 0 
trait 3 0 0 0.0758003 0 0 0.17494 0.301431 0 
node 1 1 1 3
node 2 1 1 1
node 3 2 1 1
node 4 1 0 2
node 7 3 0 0
node 39 1 0 0
gene 3 1 4 -2.25018 0 1 -2.25018 1
gene 3 2 4 6.95875 0 2 6.95875 1
gene 3 3 4 2.64813 0 3 2.64813 0
gene 1 3 7 6.4038 0 8 6.4038 1
gene 3 7 4 4.7182 0 9 4.7182 1
gene 3 2 7 -4.9826 0 34 -4.9826 1
gene 3 2 39 2.70688 0 114 2.70688 1
gene 3 39 7 -3.59012 0 115 -3.59012 1
gene 1 3 39 4.86367 0 235 4.86367 1
genomeend 33

/* Organism #34 Fitness: 8.99957 Error: 1.00007 */
genomestart 34
trait 1 0.1 0 0 0 0 0 0 0 
trait 2 0.2 0 0 0 0 0 0 0 
trait 3 0 0 0.0758003 0 0 0.17494 0.301431 0 
node 1 1 1 3
node 2 1 1 1
node 3 2 1 1
node 4 1 0 2
node 7 3 0 0
node 39 2 0 0
gene 3 1 4 -1.73007 0 1 -1.73007 1
gene 3 2 4 8 0 2 8 1
gene 3 3 4 -1.54351 0 3 -1.54351 0
gene 1 3 7 4.9853 0 8 4.9853 1
gene 3 7 4 4.75177 0 9 4.75177 1
gene 3 2 7 1.67943 0 34 1.67943 1
gene 3 2 39 -0.450415 0 114 -0.450415 1
gene 3 39 7 -4.36506 0 115 -4.36506 1
gene 1 3 39 2.61057 0 235 2.61057 1
gene 1 39 4 -0.753624 0 356 -0.753624 1
genomeend 34

/* Organism #35 Fitness: 3.99514 Error: 2.00121 */
genomestart 35
trait 1 0.1 0 0 0 0 0 0 0 
trait 2 0.2 0 0 0 0 0 0 0 
trait 3 0 0 0.0758003 0 0 0.17494 0.301431 0 
node 1 1 1 3
node 2 1 1 1
node 3 2 1 1
node 4 1 0 2
node 7 3 0 0
node 39 1 0 0
gene 3 1 4 -0.720286 0 1 -0.720286 1
gene 3 2 4 5.71909 0 2 5.71909 1
gene 3 3 4 4.61894 0 3 4.61894 0
gene 1 3 7 0.107196 0 8 0.107196 1
gene 3 7 4 3.72406 0 9 3.72406 1
gene 3 2 7 -7.12775 0 34 -7.12775 1
gene 3 2 39 0.685751 0 114 0.685751 1
gene 3 39 7 -2.45025 0 115 -2.45025 1
gene 1 3 39 4.61007 0 235 4.61007 1
genomeend 35

/* Organism #36 Fitness: 7.53192 Error: 1.25557 */
genomestart 36
trait 1 0.1 0 0 0 0 0 0 0 
trait 2 0.2 0 0 0 0 0 0 0 
trait 3 0 0 0.0758003 0 0 0.17494 0.301431 0 
node 1 1 1 3
node 2 1 1 1
node 3 2 1 1
node 4 1 0 2
node 7 3 0 0
node 39 2 0 0
gene 3 1 4 -4.20481 0 1 -4.20481 1
gene 3 2 4 6.57898 0 2 6.57898 1
gene 3 3 4 0.751633 0 3 0.751633 0
gene 1 3 7 7.22803 0 8 7.22803 1
gene 3 7 4 4.42194 0 9 4.42194 1
gene 3 2 7 -0.18746 0 34 -0.18746 1
gene 3 2 39 1.9549 0 114 1.9549 1
gene 3 39 7 -4.60074 0 115 -4.60074 1
gene 1 3 39 0.14597 0 235 0.14597 1
genomeend 36

/* Organism #37 Fitness: 4 Error: 2 */
genomestart 37
trait 1 0.1 0 0 0 0 0 0 0 
trait 2 0.2 0 0 0 0 0 0 0 
trait 3 0 0 0.0758003 0 0 0.17494 0.301431 0 
node 1 1 1 3
node 2 1 1 1
node 3 2 1 1
node 4 1 0 2
node 7 3 0 0
node 39 2 0 0
gene 3 1 4 2.02666 0 1 2.02666 1
gene 3 2 4 7.31715 0 2 7.31715 1
gene 3 3 4 1.30016 0 3 1.30016 0
gene 1 3 7 3.80966 0 8 3.80966 1
gene 3 7 4 -1.15001 0 9 -1.15001 1
gene 3 2 7 0.196158 0 34 0.196158 1
gene 3 2 39 0.392125 0 114 0.392125 1
gene 3 39 7 -6.19503 0 115 -6.19503 1
gene 1 3 39 0.408795 0 235 0.408795 1
genomeend 37

/* Organism #38 Fitness: 8.99841 Error: 1.00027 */
genomestart 38
trait 1 0.1 0 0 0 0 0 0 0 
trait 2 0.2 0 0 0 0 0 0 0 
trait 3 0 0 0.0758003 0 0 0.17494 0.301431 0 
node 1 1 1 3
node 2 1 1 1
node 3 2 1 1
node 4 1 0 2
node 7 3 0 0
node 39 2 0 0
gene 3 1 4 -1.73007 0 1 -1.73007 1
gene 3 2 4 8 0 2 8 1
gene 3 3 4 -0.106738 0 3 -0.106738 0
gene 1 3 7 6.62209 0 8 6.62209 1
gene 3 7 4 4.75177 0 9 4.75177 1
gene 3 2 7 -0.285882 0 34 -0.285882 1
gene 3 2 39 0.950156 0 114 0.950156 1
gene 3 39 7 -1.78587 0 115 -1.78587 1
gene 1 3 39 -0.74015 0 235 -0.74015 1
genomeend 38

/* Organism #39 Fitness: 4.00015 Error: 1.99996 */
genomestart 39
trait 1 0.1 0 0 0 0 0 0 0 
trait 2 0.2 0 0 0 0 0 0 0 
trait 3 0 0 0.0758003 0 0 0.17494 0.301431 0 
node 1 1 1 3
node 2 1 1 1
node 3 2 1 1
node 4 1 0 2
node 7 3 0 0
node 39 1 0 0
gene 3 1 4 1.80021 0 1 1.80021 1
gene 3 2 4 8 0 2 8 1
gene 3 3 4 -1.13605 0 3 -1.13605 0
gene 1 3 7 2.51041 0 8 2.51041 1
gene 3 7 4 1.96364 0 9 1.96364 1
gene 3 2 7 -4.63126 0 34 -4.63126 1
gene 3 2 39 2.02334 0 114 2.02334 1
gene 3 39 7 -0.746254 0 115 -0.746254 1
gene 1 3 39 2.61057 0 235 2.61057 1
genomeend 39

/* Organism #40 Fitness: 4.00004 Error: 1.99999 */
genomestart 40
trait 1 0.1 0 0 0 0 0 0 0 
trait 2 0.2 0.798608 0 0 0 0 0.126682 0 
trait 3 0 0 0.0758003 0 0 0.17494 0.301431 0 
node 1 1 1 3
node 2 1 1 1
node 3 2 1 1
node 4 1 0 2
node 7 3 0 0
node 39 1 0 0
gene 3 1 4 -1.65003 0 1 -1.65003 1
gene 3 2 4 4.85732 0 2 4.85732 1
gene 1 3 4 -2.62272 0 3 -2.62272 0
gene 1 3 7 3.13825 0 8 3.13825 1
gene 3 7 4 5.09518 0 9 5.09518 1
gene 3 2 7 1.71934 0 34 1.71934 1
gene 3 2 39 2.70688 0 114 2.70688 1
gene 3 39 7 -4.47439 0 115 -4.47439 1
gene 1 3 39 5.54538 0 235 5.54538 1
genomeend 40

/* Species #7 : (Size 4) (AF 4.26641) (Age 26)  */


/* Organism #41 Fitness: 4.09836 Error: 1.97556 */
genomestart 41
trait 1 0.1 0 0.328791 0 0 0 0.284265 0 
trait 2 0 0.948454 0 0 0 0.0788903 0.467544 0 
trait 3 0.3 0.271142 0.257515 0 0 0 0 0 
node 1 2 1 3
node 2 3 1 1
node 3 3 1 1
node 4 2 0 2
node 10 1 0 0
node 22 1 0 0
gene 2 1 4 -2.51227 0 1 -2.51227 1
gene 2 2 4 -1.4852 0 2 -1.4852 1
gene 3 3 4 -5.18956 0 3 -5.18956 1
gene 2 2 10 -0.210402 0 16 -0.210402 1
gene 2 10 4 6.83663 0 17 6.83663 1
gene 2 1 10 0.542413 0 28 0.542413 1
gene 1 3 10 3.91301 0 43 3.91301 1
gene 2 2 22 5.71657 0 52 5.71657 1
gene 2 22 10 8 0 53 8 1
gene 1 22 4 0.406156 0 155 0.406156 1
gene 3 1 22 0.964919 0 170 0.964919 1
gene 3 3 22 -1.14843 0 250 -1.14843 1
genomeend 41

/* Organism #42 Fitness: 4 Error: 2 */
genomestart 42
trait 1 0.1 0 0.493187 0 0 0 0.426397 0 
trait 2 0.1 0.948454 0 0 0 0.0394452 0.467544 0 
trait 3 0.3 0.271142 0.257515 0 0 0 0 0 
node 1 2 1 3
node 2 3 1 1
node 3 3 1 1
node 4 2 0 2
node 10 1 0 0
node 22 1 0 0
gene 2 1 4 -2.38714 0 1 -2.38714 1
gene 2 2 4 -0.319391 0 2 -0.319391 1
gene 3 3 4 -3.38889 0 3 -3.38889 1
gene 2 2 10 -0.210402 0 16 -0.210402 0
gene 2 10 4 -0.956526 0 17 -0.956526 1
gene 2 1 10 1.6185 0 28 1.6185 1
gene 1 3 10 3.12686 0 43 3.12686 1
gene 2 2 22 5.71657 0 52 5.71657 1
gene 2 22 10 5.41923 0 53 5.41923 1
gene 1 22 4 0.0904111 0 155 0.0904111 1
gene 3 1 22 -2.15102 0 170 -2.15102 1
gene 3 3 22 -0.455687 0 250 -0.455687 1
genomeend 42

/* Organism #43 Fitness: 4.9674 Error: 1.77123 */
genomestart 43
trait 1 0.1 0 0.493187 0 0 0 0.426397 0 
trait 2 0.1 0.948454 0 0 0 0.0394452 0.467544 0 
trait 3 0.3 0.271142 0.257515 0 0 0 0 0 
node 1 2 1 3
node 2 3 1 1
node 3 3 1 1
node 4 2 0 2
node 10 1 0 0
node 22 1 0 0
gene 2 1 4 -3.05061 0 1 -3.05061 1
gene 2 2 4 -1.55802 0 2 -1.55802 1
gene 3 3 4 -6.08062 0 3 -6.08062 1
gene 2 2 10 -0.28441 0 16 -0.28441 0
gene 2 10 4 5.23502 0 17 5.23502 1
gene 2 1 10 -1.1102 0 28 -1.1102 1
gene 1 3 10 2.33521 0 43 2.33521 1
gene 2 2 22 7.75047 0 52 7.75047 1
gene 2 22 10 5.56099 0 53 5.56099 1
gene 1 22 4 -0.87318 0 155 -0.87318 1
gene 3 1 22 -2.57117 0 170 -2.57117 1
gene 3 3 22 -1.31278 0 250 -1.31278 1
genomeend 43

/* Organism #44 Fitness: 3.99987 Error: 2.00003 */
genomestart 44
trait 1 0 0 1 0 0 0 0 0 
trait 2 0 0.948454 0 0 0 0.0788903 0.467544 0 
trait 3 0.3 0.271142 0.257515 0 0 0 0 0 
node 1 2 1 3
node 2 3 1 1
node 3 3 1 1
node 4 2 0 2
node 10 1 0 0
node 22 1 0 0
gene 2 1 4 -4.01248 0 1 -4.01248 1
gene 2 2 4 -0.0798212 0 2 -0.0798212 1
gene 3 3 4 -7.03303 0 3 -7.03303 1
gene 2 2 10 0.837069 0 16 0.837069 1
gene 2 10 4 7.62394 0 17 7.62394 1
gene 2 1 10 0.32329 0 28 0.32329 1
gene 1 3 10 5.42765 0 43 5.42765 1
gene 2 2 22 4.33904 0 52 4.33904 1
gene 2 22 10 8 0 53 8 1
gene 1 22 4 -1.63396 0 155 -1.63396 1
gene 3 1 22 0.964919 0 170 0.964919 1
gene 3 3 22 -1.14843 0 250 -1.14843 1
genomeend 44

/* Species #9 : (Size 8) (AF 6.85829) (Age 26)  */


/* Organism #45 Fitness: 8.89439 Error: 1.01765 */
genomestart 45
trait 1 0.1 0 0 0 0 0 0 0 
trait 2 0.24877 0.850337 0 0 0 0.0534932 0.00468268 0.00314722 
trait 3 0.3 0 0 0 0 0 0 0 
node 1 1 1 3
node 2 1 1 1
node 3 2 1 1
node 4 1 0 2
node 7 1 0 0
node 9 3 0 0
node 17 1 0 0
node 24 1 0 0
gene 1 1 4 -3.72613 0 1 -3.72613 1
gene 3 2 4 0.629521 0 2 0.629521 0
gene 3 3 4 -3.32846 0 3 -3.32846 1
gene 3 3 7 1.86925 0 8 1.86925 1
gene 3 7 4 1.75921 0 9 1.75921 1
gene 1 2 9 2.44636 0 14 2.44636 0
gene 3 9 4 -2.77215 0 15 -2.77215 1
gene 3 7 9 -1.70614 0 22 -1.70614 1
gene 2 2 17 8 0 37 8 0
gene 3 17 9 1.4378 0 38 1.4378 1
gene 2 2 24 4.32585 0 57 4.32585 1
gene 3 24 4 3.89195 0 58 3.89195 1
genomeend 45

/* Organism #46 Fitness: 3.19171 Error: 2.21347 */
genomestart 46
trait 1 0.1 0 0 0 0 0 0 0 
trait 2 0.24877 0.850337 0 0 0 0.0534932 0.00468268 0.00314722 
trait 3 0.3 0 0 0 0 0 0 0 
node 1 1 1 3
node 2 1 1 1
node 3 2 1 1
node 4 1 0 2
node 7 1 0 0
node 9 3 0 0
node 17 1 0 0
node 24 1 0 0
gene 1 1 4 -4.7678 0 1 -4.7678 1
gene 3 2 4 0.629521 0 2 0.629521 0
gene 3 3 4 0.913648 0 3 0.913648 1
gene 3 3 7 1.86925 0 8 1.86925 1
gene 3 7 4 1.75921 0 9 1.75921 1
gene 1 2 9 2.44636 0 14 2.44636 0
gene 3 9 4 -3.35559 0 15 -3.35559 1
gene 3 7 9 -1.85873 0 22 -1.85873 1
gene 2 2 17 7.23322 0 37 7.23322 0
gene 3 17 9 -0.519425 0 38 -0.519425 1
gene 2 2 24 4.32585 0 57 4.32585 1
gene 3 24 4 3.89195 0 58 3.89195 1
genomeend 46

/* Organism #47 Fitness: 8.46206 Error: 1.09104 */
genomestart 47
trait 1 0.1 0 0 0 0 0 0 0 
trait 2 0.24877 0.850337 0 0 0 0.0534932 0.00468268 0.00314722 
trait 3 0.3 0 0 0 0 0 0 0 
node 1 1 1 3
node 2 1 1 1
node 3 2 1 1
node 4 1 0 2
node 7 1 0 0
node 9 3 0 0
node 17 1 0 0
node 24 1 0 0
gene 1 1 4 -4.7678 0 1 -4.7678 1
gene 3 2 4 1.80921 0 2 1.80921 0
gene 3 3 4 0.913648 0 3 0.913648 1
gene 3 3 7 2.08563 0 8 2.08563 1
gene 3 7 4 3.9821 0 9 3.9821 1
gene 1 2 9 2.39257 0 14 2.39257 0
gene 3 9 4 -3.35559 0 15 -3.35559 1
gene 3 7 9 -1.85873 0 22 -1.85873 1
gene 2 2 17 7.23322 0 37 7.23322 0
gene 3 17 9 -0.519425 0 38 -0.519425 1
gene 2 2 24 6.49716 0 57 6.49716 1
gene 3 24 4 3.28654 0 58 3.28654 1
genomeend 47

/* Organism #48 Fitness: 4 Error: 2 */
genomestart 48
trait 1 0.1 0 0 0 0 0 0 0 
trait 2 0.24877 0.850337 0 0 0 0.0534932 0.00468268 0.00314722 
trait 3 0.3 0 0 0 0 0 0 0 
node 1 1 1 3
node 2 1 1 1
node 3 2 1 1
node 4 1 0 2
node 7 1 0 0
node 9 3 0 0
node 17 1 0 0
node 24 1 0 0
gene 1 1 4 -3.65349 0 1 -3.65349 1
gene 3 2 4 -1.2653 0 2 -1.2653 0
gene 3 3 4 -3.70444 0 3 -3.70444 1
gene 3 3 7 3.30988 0 8 3.30988 1
gene 3 7 4 0.0288858 0 9 0.0288858 1
gene 1 2 9 4.44998 0 14 4.44998 0
gene 3 9 4 -5.24018 0 15 -5.24018 1
gene 3 7 9 0.594348 0 22 0.594348 1
gene 2 2 17 8 0 37 8 0
gene 3 17 9 2.72477 0 38 2.72477 1
gene 2 2 24 3.37497 0 57 3.37497 1
gene 3 24 4 3.53008 0 58 3.53008 1
genomeend 48

/* Organism #49 Fitness: 4.08073 Error: 1.97992 */
genomestart 49
trait 1 0.1 0 0 0 0 0 0 0 
trait 2 0.24877 0.850337 0 0 0 0.0534932 0.00468268 0.00314722 
trait 3 0.3 0 0 0 0 0 0 0 
node 1 1 1 3
node 2 1 1 1
node 3 2 1 1
node 4 1 0 2
node 7 1 0 0
node 9 3 0 0
node 17 1 0 0
node 24 1 0 0
gene 1 1 4 -3.72613 0 1 -3.72613 1
gene 3 2 4 -1.5936 0 2 -1.5936 0
gene 3 3 4 -3.32846 0 3 -3.32846 1
gene 3 3 7 2.97234 0 8 2.97234 1
gene 3 7 4 -1.84751 0 9 -1.84751 1
gene 1 2 9 0.120243 0 14 0.120243 0
gene 3 9 4 -4.23727 0 15 -4.23727 1
gene 3 7 9 -1.00246 0 22 -1.00246 1
gene 2 2 17 8 0 37 8 0
gene 3 17 9 3.88142 0 38 3.88142 1
gene 2 2 24 5.6428 0 57 5.6428 1
gene 3 24 4 4.19141 0 58 4.19141 1
genomeend 49

/* Organism #50 Fitness: 8.8858 Error: 1.01909 */
genomestart 50
trait 1 0.1 0 0 0 0 0 0 0 
trait 2 0.24877 0.850337 0 0 0 0.0534932 0.00468268 0.00314722 
trait 3 0.3 0 0 0 0 0 0 0 
node 1 1 1 3
node 2 1 1 1
node 3 2 1 1
node 4 1 0 2
node 7 1 0 0
node 9 3 0 0
node 17 1 0 0
node 24 1 0 0
gene 1 1 4 -4.7678 0 1 -4.7678 1
gene 3 2 4 0.629521 0 2 0.629521 0
gene 3 3 4 0.913648 0 3 0.913648 1
gene 3 3 7 1.86925 0 8 1.86925 1
gene 3 7 4 3.9821 0 9 3.9821 1
gene 1 2 9 2.39257 0 14 2.39257 0
gene 3 9 4 -2.77215 0 15 -2.77215 1
gene 3 7 9 -1.85873 0 22 -1.85873 1
gene 2 2 17 8 0 37 8 0
gene 3 17 9 1.4378 0 38 1.4378 1
gene 2 2 24 6.49716 0 57 6.49716 1
gene 3 24 4 3.89195 0 58 3.89195 1
genomeend 50

/* Organism #51 Fitness: 8.46206 Error: 1.09104 */
genomestart 51
trait 1 0.1 0 0 0 0 0 0 0 
trait 2 0.24877 0.850337 0 0 0 0.0534932 0.00468268 0.00314722 
trait 3 0.3 0 0 0 0 0 0 0 
node 1 1 1 3
node 2 1 1 1
node 3 2 1 1
node 4 1 0 2
node 7 1 0 0
node 9 3 0 0
node 17 1 0 0
node 24 1 0 0
gene 1 1 4 -4.7678 0 1 -4.7678 1
gene 3 2 4 1.80921 0 2 1.80921 0
gene 3 3 4 0.913648 0 3 0.913648 1
gene 3 3 7 2.08563 0 8 2.08563 1
gene 3 7 4 3.9821 0 9 3.9821 1
gene 1 2 9 2.44636 0 14 2.44636 0
gene 3 9 4 -3.35559 0 15 -3.35559 1
gene 3 7 9 -1.85873 0 22 -1.85873 1
gene 2 2 17 7.23322 0 37 7.23322 0
gene 3 17 9 1.4378 0 38 1.4378 1
gene 2 2 24 4.32585 0 57 4.32585 1
gene 3 24 4 3.28654 0 58 3.28654 1
genomeend 51

/* Organism #52 Fitness: 8.8896 Error: 1.01846 */
genomestart 52
trait 1 0.1 0 0 0 0 0 0 0 
trait 2 0.24877 0.850337 0 0 0 0.0534932 0.00468268 0.00314722 
trait 3 0.3 0 0 0 0 0 0 0 
node 1 1 1 3
node 2 1 1 1
node 3 2 1 1
node 4 1 0 2
node 7 1 0 0
node 9 3 0 0
node 17 1 0 0
node 24 1 0 0
node 112 1 0 0
gene 1 1 4 -3.72613 0 1 -3.72613 1
gene 3 2 4 0.629521 0 2 0.629521 0
gene 3 3 4 -3.32846 0 3 -3.32846 1
gene 3 3 7 1.86925 0 8 1.86925 1
gene 3 7 4 1.75921 0 9 1.75921 1
gene 1 2 9 2.44636 0 14 2.44636 0
gene 3 9 4 -2.77215 0 15 -2.77215 1
gene 3 7 9 -1.70614 0 22 -1.70614 0
gene 2 2 17 8 0 37 8 0
gene 3 17 9 1.4378 0 38 1.4378 1
gene 2 2 24 4.32585 0 57 4.32585 1
gene 3 24 4 3.89195 0 58 3.89195 1
gene 3 7 112 1 0 357 0 1
gene 3 112 9 -1.70614 0 358 0 1
genomeend 52

/* Species #10 : (Size 8) (AF 5.15708) (Age 26)  */


/* Organism #53 Fitness: 9 Error: 1 */
genomestart 53
trait 1 0.1 0 0 0 0 0 0 0 
trait 2 0.2 0 0 0 0 0 0 0 
trait 3 0.3 0.120182 0 0 0 0.886349 0 0 
node 1 1 1 3
node 2 1 1 1
node 3 2 1 1
node 4 1 0 2
node 7 1 0 0
node 16 3 0 0
node 25 1 0 0
gene 3 1 4 -5.72454 0 1 -5.72454 1
gene 3 2 4 -8 0 2 -8 1
gene 3 3 4 8 0 3 8 1
gene 1 3 7 0.114563 0 8 0.114563 0
gene 2 7 4 0.904233 0 9 0.904233 0
gene 3 7 16 2.22112 0 32 2.22112 1
gene 3 16 4 3.6023 0 33 3.6023 1
gene 1 3 25 -0.946623 0 61 -0.946623 1
gene 1 25 7 -2.22129 0 62 -2.22129 1
gene 1 2 7 -5.91639 0 141 -5.91639 1
gene 3 3 16 0.0287484 0 229 0.0287484 1
gene 1 1 16 -0.730033 0 347 -0.730033 1
genomeend 53

/* Organism #54 Fitness: 1.14401 Error: 2.93042 */
genomestart 54
trait 1 0.1 0 0 0 0 0 0 0 
trait 2 0.2 0 0 0 0 0 0 0 
trait 3 0.3 0.120182 0 0 0 0.886349 0 0 
node 1 1 1 3
node 2 1 1 1
node 3 2 1 1
node 4 1 0 2
node 7 1 0 0
node 16 3 0 0
node 25 1 0 0
gene 3 1 4 -3.9698 0 1 -3.9698 1
gene 3 2 4 -8 0 2 -8 1
gene 3 3 4 7.58815 0 3 7.58815 1
gene 1 3 7 2.48085 0 8 2.48085 0
gene 2 7 4 1.98611 0 9 1.98611 0
gene 3 7 16 3.50504 0 32 3.50504 1
gene 3 16 4 4.93687 0 33 4.93687 1
gene 1 3 25 -2.79521 0 61 -2.79521 1
gene 1 25 7 -0.43466 0 62 -0.43466 1
gene 1 2 7 -3.98408 0 141 -3.98408 1
gene 3 3 16 1.22217 0 229 1.22217 1
gene 1 1 16 0.799402 0 347 0.799402 1
genomeend 54

/* Organism #55 Fitness: 9 Error: 1 */
genomestart 55
trait 1 0.1 0 0 0 0 0 0 0 
trait 2 0.2 0 0 0 0 0 0 0 
trait 3 0.3 0.120182 0 0 0 0.886349 0 0 
node 1 2 1 3
node 2 1 1 1
node 3 2 1 1
node 4 1 0 2
node 7 1 0 0
node 16 3 0 0
node 25 1 0 0
gene 3 1 4 -3.9328 0 1 -3.9328 1
gene 3 2 4 -8 0 2 -8 1
gene 3 3 4 8 0 3 8 1
gene 1 3 7 -1.78773 0 8 -1.78773 0
gene 2 7 4 0.904233 0 9 0.904233 0
gene 3 7 16 0.777596 0 32 0.777596 1
gene 3 16 4 5.48247 0 33 5.48247 1
gene 1 3 25 -0.43437 0 61 -0.43437 1
gene 1 25 7 -4.63645 0 62 -4.63645 1
gene 1 2 7 -3.47507 0 141 -3.47507 1
gene 3 3 16 -0.817896 0 229 -0.817896 1
gene 1 1 16 -3.09865 0 347 -3.09865 1
genomeend 55

/* Organism #56 Fitness: 4.11439 Error: 1.9716 */
genomestart 56
trait 1 0.1 0 0 0 0 0 0 0 
trait 2 0.2 0 0 0 0 0 0 0 
trait 3 0.3 0.120182 0 0 0 0.886349 0 0 
node 1 1 1 3
node 2 1 1 1
node 3 2 1 1
node 4 1 0 2
node 7 1 0 0
node 16 3 0 0
node 25 1 0 0
gene 2 1 4 -5.91437 0 1 -5.91437 1
gene 3 2 4 -6.34872 0 2 -6.34872 1
gene 3 3 4 8 0 3 8 1
gene 1 3 7 0.728782 0 8 0.728782 0
gene 2 7 4 1.00398 0 9 1.00398 0
gene 3 7 16 -1.18847 0 32 -1.18847 1
gene 3 16 4 4.98051 0 33 4.98051 1
gene 1 3 25 -1.00484 0 61 -1.00484 1
gene 1 25 7 -1.46977 0 62 -1.46977 1
gene 1 2 7 -3.0417 0 141 -3.0417 1
gene 3 3 16 2.49098 0 229 2.49098 1
genomeend 56

/* Organism #57 Fitness: 1 Error: 3 */
genomestart 57
trait 1 0.1 0 0 0 0 0 0 0 
trait 2 0.2 0 0 0 0 0 0 0 
trait 3 0.3 0.120182 0 0 0 0.886349 0 0 
node 1 1 1 3
node 2 1 1 1
node 3 2 1 1
node 4 1 0 2
node 7 1 0 0
node 16 3 0 0
node 25 1 0 0
gene 3 1 4 2.31101 0 1 2.31101 1
gene 3 2 4 -6.34811 0 2 -6.34811 1
gene 3 3 4 7.25413 0 3 7.25413 1
gene 1 3 7 -1.77339 0 8 -1.77339 0
gene 2 7 4 0.904233 0 9 0.904233 0
gene 3 7 16 2.14956 0 32 2.14956 1
gene 3 16 4 1.89047 0 33 1.89047 1
gene 1 3 25 -2.9951 0 61 -2.9951 1
gene 1 25 7 -3.08756 0 62 -3.08756 1
gene 1 2 7 -2.63649 0 141 -2.63649 1
gene 3 3 16 0.0287484 0 229 0.0287484 1
genomeend 57

/* Organism #58 Fitness: 3.99826 Error: 2.00044 */
genomestart 58
trait 1 0.1 0 0 0 0 0 0 0 
trait 2 0.2 0 0 0 0 0 0 0 
trait 3 0.3 0.120182 0 0 0 0.886349 0 0 
node 1 1 1 3
node 2 1 1 1
node 3 2 1 1
node 4 1 0 2
node 7 1 0 0
node 16 3 0 0
node 25 1 0 0
gene 3 1 4 -8 0 1 -8 1
gene 3 2 4 1.87704 0 2 1.87704 1
gene 3 3 4 5.51694 0 3 5.51694 1
gene 1 3 7 2.44595 0 8 2.44595 0
gene 2 7 4 0.904233 0 9 0.904233 1
gene 3 7 16 2.57605 0 32 2.57605 1
gene 3 16 4 3.6023 0 33 3.6023 1
gene 1 3 25 -2.60179 0 61 -2.60179 1
gene 1 25 7 2.36099 0 62 2.36099 1
gene 1 2 7 -5.6505 0 141 -5.6505 1
gene 3 3 16 2.11293 0 229 2.11293 1
gene 1 1 16 -0.250282 0 347 -0.250282 1
genomeend 58

/* Organism #59 Fitness: 9 Error: 1 */
genomestart 59
trait 1 0.1 0 0 0 0 0 0 0 
trait 2 0.2 0 0 0 0 0 0 0 
trait 3 0.3 0.120182 0 0 0 0.886349 0 0 
node 1 1 1 3
node 2 1 1 1
node 3 2 1 1
node 4 1 0 2
node 7 1 0 0
node 16 3 0 0
node 25 1 0 0
gene 3 1 4 -6.1666 0 1 -6.1666 1
gene 3 2 4 -8 0 2 -8 1
gene 3 3 4 8 0 3 8 1
gene 1 3 7 1.28777 0 8 1.28777 0
gene 2 7 4 -0.0955535 0 9 -0.0955535 0
gene 3 7 16 0.531846 0 32 0.531846 1
gene 3 16 4 2.89663 0 33 2.89663 1
gene 1 3 25 0.806207 0 61 0.806207 1
gene 1 25 7 -0.649968 0 62 -0.649968 1
gene 1 2 7 -2.39116 0 141 -2.39116 1
gene 3 3 16 0.0287484 0 229 0.0287484 1
gene 1 1 16 -0.00941496 0 347 -0.00941496 1
genomeend 59

/* Organism #60 Fitness: 4 Error: 2 */
genomestart 60
trait 1 0.1 0 0 0 0 0 0 0 
trait 2 0.2 0 0 0 0 0 0 0 
trait 3 0.3 0.120182 0 0 0 0.886349 0 0 
node 1 1 1 3
node 2 1 1 1
node 3 2 1 1
node 4 1 0 2
node 7 1 0 0
node 16 3 0 0
node 25 1 0 0
gene 3 1 4 -7.9134 0 1 -7.9134 1
gene 3 2 4 -7.09337 0 2 -7.09337 1
gene 3 3 4 1.02283 0 3 1.02283 1
gene 1 3 7 -1.72196 0 8 -1.72196 0
gene 2 7 4 -1.2934 0 9 -1.2934 0
gene 3 7 16 0.643254 0 32 0.643254 1
gene 3 16 4 1.84416 0 33 1.84416 1
gene 1 3 25 0.375607 0 61 0.375607 1
gene 1 25 7 -1.4864 0 62 -1.4864 1
gene 1 2 7 -4.91508 0 141 -4.91508 1
gene 3 3 16 0.998321 0 229 0.998321 1
gene 1 1 16 -0.0551164 0 347 -0.0551164 1
genomeend 60

/* Species #11 : (Size 5) (AF 7.09069) (Age 25)  */


/* Organism #61 Fitness: 4.3856 Error: 1.90582 */
genomestart 61
trait 1 0.534874 0.281182 0 0 0 0.0846736 0.0677282 0 
trait 2 0.24877 0.416578 0.0256069 0 0.47264 0.0534932 0.00468268 0.939333 
trait 3 0.313352 0 0.319147 0 0 0 0.29545 0 
node 1 1 1 3
node 2 3 1 1
node 3 2 1 1
node 4 1 0 2
node 7 1 0 0
node 9 1 0 0
node 17 1 0 0
node 29 1 0 0
gene 1 1 4 -0.941725 0 1 -0.941725 1
gene 3 2 4 -2.09096 0 2 -2.09096 1
gene 3 3 4 2.14928 0 3 2.14928 0
gene 3 3 7 -3.09519 0 8 -3.09519 1
gene 3 7 4 -3.63872 0 9 -3.63872 1
gene 3 2 9 2.92673 0 14 2.92673 0
gene 3 9 4 -4.05263 0 15 -4.05263 1
gene 3 7 9 -1.98107 0 22 -1.98107 1
gene 3 2 17 0.834532 0 37 0.834532 1
gene 3 17 9 -0.953246 0 38 -0.953246 1
gene 1 9 29 3.5912 0 70 3.5912 1
gene 3 29 4 1.01436 0 71 1.01436 1
gene 2 17 7 0.692618 0 338 0.692618 1
genomeend 61

/* Organism #62 Fitness: 11.571 Error: 0.598388 */
/* ##------$ WINNER 62 SPECIES #11 $------## */
genomestart 62
trait 1 0.534874 0.281182 0 0 0 0.0846736 0.0677282 0 
trait 2 0.24877 0 0.0256069 0 0 0.0534932 0.00468268 0.00314722 
trait 3 0.313352 0 0.319147 0 0 0 0.29545 0 
node 1 1 1 3
node 2 3 1 1
node 3 2 1 1
node 4 1 0 2
node 7 1 0 0
node 9 1 0 0
node 17 1 0 0
node 29 1 0 0
gene 1 1 4 1.17046 0 1 1.17046 1
gene 3 2 4 1.4774 0 2 1.4774 1
gene 3 3 4 0.257819 0 3 0.257819 0
gene 3 3 7 -1.91588 0 8 -1.91588 1
gene 1 7 4 2.49855 0 9 2.49855 1
gene 3 2 9 1.14971 0 14 1.14971 1
gene 3 9 4 -4.47798 0 15 -4.47798 1
gene 3 7 9 2.41729 0 22 2.41729 1
gene 3 2 17 -1.06029 0 37 -1.06029 1
gene 3 17 9 0.130924 0 38 0.130924 1
gene 1 9 29 2.7424 0 70 2.7424 1
gene 3 29 4 1.68851 0 71 1.68851 1
gene 2 17 7 -0.2781 0 338 -0.2781 1
genomeend 62

/* Organism #63 Fitness: 7.92174 Error: 1.18544 */
genomestart 63
trait 1 0.534874 0.281182 0 0 0 0.0846736 0.0677282 0 
trait 2 0.24877 0 0.0256069 0 0 0.0534932 0.00468268 0.00314722 
trait 3 0.313352 0 0.319147 0 0 0 0.29545 0 
node 1 1 1 3
node 2 3 1 1
node 3 2 1 1
node 4 1 0 2
node 7 1 0 0
node 9 1 0 0
node 17 1 0 0
node 29 1 0 0
gene 1 1 4 -0.233467 0 1 -0.233467 1
gene 3 2 4 -0.215067 0 2 -0.215067 1
gene 3 3 4 0.257819 0 3 0.257819 0
gene 3 3 7 -1.91588 0 8 -1.91588 1
gene 3 7 4 -1.81104 0 9 -1.81104 1
gene 3 2 9 2.15949 0 14 2.15949 1
gene 3 9 4 -3.03064 0 15 -3.03064 1
gene 3 7 9 -3.71467 0 22 -3.71467 1
gene 3 2 17 -0.57939 0 37 -0.57939 1
gene 3 17 9 -0.825678 0 38 -0.825678 1
gene 1 9 29 3.53199 0 70 3.53199 1
gene 3 29 4 1.01436 0 71 1.01436 1
gene 2 17 7 0.345622 0 338 0.345622 1
gene 1 2 29 -0.32313 0 348 -0.32313 1
genomeend 63

/* Organism #64 Fitness: 8.29346 Error: 1.12016 */
genomestart 64
trait 1 0.534874 0.281182 0 0 0 0.0846736 0.0677282 0 
trait 2 0.24877 0 0.0256069 0 0 0.0534932 0.00468268 0.00314722 
trait 3 0.313352 0 0.319147 0 0 0 0.29545 0 
node 1 1 1 3
node 2 3 1 1
node 3 2 1 1
node 4 1 0 2
node 7 1 0 0
node 9 1 0 0
node 17 1 0 0
node 29 1 0 0
gene 1 1 4 -0.150227 0 1 -0.150227 1
gene 3 2 4 2.06016 0 2 2.06016 1
gene 3 3 4 -0.816204 0 3 -0.816204 0
gene 3 3 7 -3.87959 0 8 -3.87959 1
gene 3 7 4 -1.50243 0 9 -1.50243 1
gene 3 2 9 0.302744 0 14 0.302744 0
gene 3 9 4 -5.28207 0 15 -5.28207 1
gene 3 7 9 -2.45899 0 22 -2.45899 1
gene 3 2 17 -1.7204 0 37 -1.7204 1
gene 3 17 9 -3.27029 0 38 -3.27029 1
gene 1 9 29 5.07936 0 70 5.07936 1
gene 3 29 4 -1.44505 0 71 -1.44505 1
gene 2 17 7 -2.10601 0 338 -2.10601 1
genomeend 64

/* Organism #65 Fitness: 3.2817 Error: 2.18845 */
genomestart 65
trait 1 0.534874 0.281182 0 0 0 0.0846736 0.0677282 0 
trait 2 0.24877 0 0.0256069 0 0 0.0534932 0.00468268 0.00314722 
trait 3 0.313352 0 0.55118 0.453169 0 0.247414 0.29545 0 
node 1 1 1 3
node 2 3 1 1
node 3 2 1 1
node 4 1 0 2
node 7 1 0 0
node 9 1 0 0
node 17 1 0 0
node 29 1 0 0
gene 1 1 4 0.310755 0 1 0.310755 1
gene 3 2 4 -2.01657 0 2 -2.01657 1
gene 3 3 4 -0.86099 0 3 -0.86099 0
gene 3 3 7 -1.66845 0 8 -1.66845 1
gene 3 7 4 0.660802 0 9 0.660802 1
gene 3 2 9 4.49583 0 14 4.49583 0
gene 3 9 4 -0.487686 0 15 -0.487686 1
gene 3 7 9 -3.93555 0 22 -3.93555 1
gene 3 2 17 -2.15697 0 37 -2.15697 1
gene 3 17 9 1.64548 0 38 1.64548 1
gene 2 9 29 3.25694 0 70 3.25694 1
gene 3 29 4 3.33949 0 71 3.33949 1
gene 2 17 7 -1.53928 0 338 -1.53928 1
genomeend 65

/* Species #12 : (Size 8) (AF 7.24897) (Age 24)  */


/* Organism #66 Fitness: 9 Error: 1 */
genomestart 66
trait 1 0.1 0 0 0 0 0 0 0 
trait 2 0.2 0.166173 0 0 0 0 0 0 
trait 3 0.3 0.723502 0 0 0 0.735557 0 0.538194 
node 1 1 1 3
node 2 1 1 1
node 3 2 1 1
node 4 1 0 2
node 7 1 0 0
node 16 1 0 0
node 33 1 0 0
gene 3 1 4 -4.56388 0 1 -4.56388 1
gene 3 2 4 -8 0 2 -8 1
gene 3 3 4 6.20067 0 3 6.20067 1
gene 1 3 7 -1.86306 0 8 -1.86306 1
gene 3 7 4 1.23231 0 9 1.23231 0
gene 3 7 16 -4.03388 0 32 -4.03388 1
gene 3 16 4 2.34688 0 33 2.34688 1
gene 1 3 16 6.5913 0 48 6.5913 1
gene 1 3 33 -2.90175 0 83 -2.90175 1
gene 1 33 16 2.5257 0 84 2.5257 1
gene 2 1 7 2.76627 0 109 2.76627 1
gene 2 2 16 1.87625 0 314 1.87625 1
genomeend 66

/* Organism #67 Fitness: 8.98497 Error: 1.00251 */
genomestart 67
trait 1 0.1 0 0 0 0 0 0 0 
trait 2 0.2 0.166173 0 0 0 0 0 0 
trait 3 0.3 0.723502 0 0 0 0.735557 0 0.538194 
node 1 1 1 3
node 2 1 1 1
node 3 2 1 1
node 4 1 0 2
node 7 1 0 0
node 16 1 0 0
node 33 1 0 0
gene 3 1 4 -5.99097 0 1 -5.99097 1
gene 3 2 4 -6.95199 0 2 -6.95199 1
gene 3 3 4 6.86776 0 3 6.86776 1
gene 1 3 7 -4.23873 0 8 -4.23873 1
gene 3 7 4 2.51363 0 9 2.51363 0
gene 3 7 16 1.395 0 32 1.395 1
gene 3 16 4 0.677587 0 33 0.677587 1
gene 2 3 16 0.314875 0 48 0.314875 0
gene 1 3 33 -2.90175 0 83 -2.90175 1
gene 1 33 16 6.00687 0 84 6.00687 1
gene 2 1 7 2.45941 0 109 2.45941 1
gene 2 2 16 1.813 0 314 1.813 1
genomeend 67

/* Organism #68 Fitness: 8.99953 Error: 1.00008 */
genomestart 68
trait 1 0.1 0 0 0 0 0 0 0 
trait 2 0.2 0.166173 0 0 0 0 0 0 
trait 3 0.3 0.723502 0 0 0 0.735557 0 0.538194 
node 1 1 1 3
node 2 1 1 1
node 3 2 1 1
node 4 1 0 2
node 7 1 0 0
node 16 1 0 0
node 33 1 0 0
gene 3 1 4 -3.96839 0 1 -3.96839 1
gene 3 2 4 -8 0 2 -8 1
gene 3 3 4 7.02131 0 3 7.02131 1
gene 1 3 7 -1.32486 0 8 -1.32486 1
gene 3 7 4 0.357112 0 9 0.357112 0
gene 3 7 16 -4.14954 0 32 -4.14954 1
gene 3 16 4 3.02691 0 33 3.02691 1
gene 1 3 16 4.57227 0 48 4.57227 1
gene 1 3 33 -4.12837 0 83 -4.12837 1
gene 1 33 16 1.07485 0 84 1.07485 1
gene 2 1 7 3.4331 0 109 3.4331 1
gene 2 2 16 2.43873 0 314 2.43873 1
genomeend 68

/* Organism #69 Fitness: 9 Error: 1 */
genomestart 69
trait 1 0.1 0 0 0 0 0 0 0 
trait 2 0.2 0.166173 0 0 0 0 0 0 
trait 3 0.3 0.723502 0 0 0 0.735557 0 0.538194 
node 1 1 1 3
node 2 1 1 1
node 3 2 1 1
node 4 1 0 2
node 7 1 0 0
node 16 1 0 0
node 33 1 0 0
gene 3 1 4 -4.56388 0 1 -4.56388 1
gene 3 2 4 -8 0 2 -8 1
gene 3 3 4 6.20067 0 3 6.20067 1
gene 1 3 7 -3.52216 0 8 -3.52216 1
gene 3 7 4 3.61336 0 9 3.61336 0
gene 3 7 16 -6.15728 0 32 -6.15728 1
gene 3 16 4 5.25457 0 33 5.25457 1
gene 2 3 16 4.90385 0 48 4.90385 0
gene 1 3 33 -2.06276 0 83 -2.06276 1
gene 1 33 16 4.59119 0 84 4.59119 1
gene 2 1 7 2.76627 0 109 2.76627 1
gene 2 2 16 -0.216529 0 314 -0.216529 1
genomeend 69

/* Organism #70 Fitness: 9 Error: 1 */
genomestart 70
trait 1 0.1 0 0 0 0 0 0 0 
trait 2 0.2 0.166173 0 0 0 0 0 0 
trait 3 0.3 0.723502 0 0 0 0.735557 0 0.538194 
node 1 1 1 3
node 2 1 1 1
node 3 2 1 1
node 4 1 0 2
node 7 1 0 0
node 16 1 0 0
node 33 1 0 0
gene 3 1 4 -4.24851 0 1 -4.24851 1
gene 3 2 4 -5.9207 0 2 -5.9207 1
gene 3 3 4 6.47636 0 3 6.47636 1
gene 1 3 7 -2.82 0 8 -2.82 1
gene 3 7 4 3.17031 0 9 3.17031 0
gene 3 7 16 -8 0 32 -8 1
gene 3 16 4 3.86155 0 33 3.86155 1
gene 2 3 16 2.40614 0 48 2.40614 0
gene 1 3 33 -2.06276 0 83 -2.06276 1
gene 1 33 16 4.59119 0 84 4.59119 1
gene 2 1 7 1.38043 0 109 1.38043 1
gene 2 2 16 -1.64251 0 314 -1.64251 1
genomeend 70

/* Organism #71 Fitness: 6.29862 Error: 1.49029 */
genomestart 71
trait 1 0.1 0 0 0 0 0 0 0 
trait 2 0.2 0.166173 0 0 0 0 0 0 
trait 3 0.3 0.723502 0 0 0 0.735557 0 0.538194 
node 1 1 1 3
node 2 1 1 1
node 3 2 1 1
node 4 1 0 2
node 7 1 0 0
node 16 1 0 0
node 33 1 0 0
node 113 1 0 0
gene 3 1 4 -4.32948 0 1 -4.32948 1
gene 3 2 4 -7.99722 0 2 -7.99722 1
gene 3 3 4 6.5404 0 3 6.5404 1
gene 1 3 7 -2.69261 0 8 -2.69261 1
gene 3 7 4 2.42283 0 9 2.42283 1
gene 3 7 16 -5.09558 0 32 -5.09558 1
gene 3 16 4 3.80073 0 33 3.80073 0
gene 1 3 16 5.74757 0 48 5.74757 1
gene 1 3 33 -2.48226 0 83 -2.48226 1
gene 1 33 16 3.55844 0 84 3.55844 1
gene 2 1 7 1.48164 0 109 1.48164 1
gene 2 2 16 0.829859 0 314 0.829859 1
gene 3 16 113 1 0 359 0 1
gene 3 113 4 3.80073 0 360 0 1
genomeend 71

/* Organism #72 Fitness: 5.51043 Error: 1.65257 */
genomestart 72
trait 1 0.1 0 0 0 0 0 0 0 
trait 2 0.2 0.166173 0 0 0 0 0 0 
trait 3 0.3 0.723502 0 0 0 0.735557 0 0.538194 
node 1 1 1 3
node 2 1 1 1
node 3 2 1 1
node 4 1 0 2
node 7 1 0 0
node 16 1 0 0
node 33 1 0 0
gene 3 1 4 -2.22838 0 1 -2.22838 1
gene 3 2 4 1.39149 0 2 1.39149 1
gene 3 3 4 6.24461 0 3 6.24461 1
gene 1 3 7 0.141705 0 8 0.141705 1
gene 3 7 4 2.8356 0 9 2.8356 0
gene 3 7 16 0.431761 0 32 0.431761 1
gene 3 16 4 2.35588 0 33 2.35588 1
gene 1 3 16 6.58535 0 48 6.58535 1
gene 1 3 33 -2.90175 0 83 -2.90175 1
gene 1 33 16 4.69671 0 84 4.69671 1
gene 2 1 7 3.49933 0 109 3.49933 1
gene 3 2 16 2.72672 0 314 2.72672 1
genomeend 72

/* Organism #73 Fitness: 1.19821 Error: 2.90537 */
genomestart 73
trait 1 0.1 0 0 0 0 0 0 0 
trait 2 0.2 0.166173 0 0 0 0 0 0 
trait 3 0.3 0.558947 0.622944 0 0.995575 0.168462 0 0.909818 
node 1 1 1 3
node 2 1 1 1
node 3 2 1 1
node 4 1 0 2
node 7 1 0 0
node 16 1 0 0
node 33 1 0 0
gene 3 1 4 -4.03442 0 1 -4.03442 1
gene 3 2 4 -6.64078 0 2 -6.64078 1
gene 3 3 4 5.67052 0 3 5.67052 1
gene 1 3 7 -3.71458 0 8 -3.71458 1
gene 3 7 4 1.46677 0 9 1.46677 0
gene 3 7 16 -6.31033 0 32 -6.31033 1
gene 3 16 4 5.47942 0 33 5.47942 1
gene 2 3 16 3.02162 0 48 3.02162 0
gene 1 3 33 -3.06125 0 83 -3.06125 1
gene 1 33 16 3.03429 0 84 3.03429 1
gene 2 1 7 -1.87567 0 109 -1.87567 1
gene 2 2 16 1.20968 0 314 1.20968 1
genomeend 73

/* Species #13 : (Size 7) (AF 6.48491) (Age 24)  */


/* Organism #74 Fitness: 9 Error: 1 */
genomestart 74
trait 1 0.1 0 0 0 0 0 0 0 
trait 2 0.2 0 0 0 0 0 0 0 
trait 3 0.3 0.120182 0 0 0 0.886349 0 0 
node 1 1 1 3
node 2 1 1 1
node 3 2 1 1
node 4 1 0 2
node 7 1 0 0
node 16 1 0 0
node 37 1 0 0
node 42 1 0 0
gene 3 1 4 -4.29749 0 1 -4.29749 1
gene 3 2 4 -8 0 2 -8 1
gene 3 3 4 6.33934 0 3 6.33934 0
gene 3 3 7 0.17951 0 8 0.17951 1
gene 3 7 4 1.01077 0 9 1.01077 0
gene 2 7 16 -2.44493 0 32 -2.44493 1
gene 3 16 4 8 0 33 8 1
gene 1 3 16 2.90306 0 48 2.90306 1
gene 3 2 7 1.78541 0 85 1.78541 0
gene 3 2 37 4.16852 0 99 4.16852 0
gene 3 37 7 0.940748 0 100 0.940748 1
gene 3 2 42 2.17016 0 121 2.17016 1
gene 3 42 37 -0.40376 0 122 -0.40376 1
gene 1 42 7 -0.682623 0 200 -0.682623 1
gene 3 3 37 -0.505295 0 262 -0.505295 1
genomeend 74

/* Organism #75 Fitness: 8.99997 Error: 1.00001 */
genomestart 75
trait 1 0.1 0 0 0 0 0 0 0 
trait 2 0.2 0 0 0 0 0 0 0 
trait 3 0.3 0.120182 0 0 0 0.886349 0 0 
node 1 1 1 3
node 2 1 1 1
node 3 2 1 1
node 4 1 0 2
node 7 1 0 0
node 16 1 0 0
node 37 1 0 0
node 42 1 0 0
gene 3 1 4 -2.47439 0 1 -2.47439 1
gene 3 2 4 -8 0 2 -8 1
gene 3 3 4 3.92235 0 3 3.92235 0
gene 3 3 7 0.882427 0 8 0.882427 1
gene 3 7 4 1.82707 0 9 1.82707 0
gene 2 7 16 -2.44493 0 32 -2.44493 1
gene 3 16 4 8 0 33 8 1
gene 1 3 16 2.90306 0 48 2.90306 1
gene 3 2 7 1.00383 0 85 1.00383 0
gene 3 2 37 6.03092 0 99 6.03092 0
gene 3 37 7 0.940748 0 100 0.940748 1
gene 3 2 42 1.49516 0 121 1.49516 1
gene 3 42 37 -1.53706 0 122 -1.53706 1
gene 1 42 7 0.151143 0 200 0.151143 1
gene 3 3 37 -2.12972 0 262 -2.12972 1
genomeend 75

/* Organism #76 Fitness: 4 Error: 2 */
genomestart 76
trait 1 0.1 0 0 0 0 0 0 0 
trait 2 0.2 0 0 0 0 0 0 0 
trait 3 0.3 0.120182 0 0 0 0.886349 0 0 
node 1 1 1 3
node 2 1 1 1
node 3 2 1 1
node 4 1 0 2
node 7 1 0 0
node 16 1 0 0
node 37 1 0 0
node 42 1 0 0
gene 3 1 4 -3.1062 0 1 -3.1062 1
gene 3 2 4 -6.07138 0 2 -6.07138 1
gene 3 3 4 7.77172 0 3 7.77172 0
gene 3 3 7 1.69958 0 8 1.69958 1
gene 3 7 4 1.01077 0 9 1.01077 0
gene 2 7 16 -4.66576 0 32 -4.66576 1
gene 3 16 4 8 0 33 8 1
gene 1 3 16 3.37953 0 48 3.37953 1
gene 3 2 7 1.88421 0 85 1.88421 0
gene 3 2 37 5.59473 0 99 5.59473 0
gene 3 37 7 1.6773 0 100 1.6773 1
gene 3 2 42 3.23052 0 121 3.23052 1
gene 3 42 37 -1.60611 0 122 -1.60611 1
gene 1 42 7 -0.139164 0 200 -0.139164 1
gene 3 3 37 1.89148 0 262 1.89148 1
genomeend 76

/* Organism #77 Fitness: 8.99923 Error: 1.00013 */
genomestart 77
trait 1 0.1 0 0 0 0 0 0 0 
trait 2 0.2 0 0 0 0 0 0 0 
trait 3 0.3 0.120182 0 0 0 0.886349 0 0 
node 1 1 1 3
node 2 1 1 1
node 3 2 1 1
node 4 1 0 2
node 7 1 0 0
node 16 1 0 0
node 37 1 0 0
node 42 1 0 0
gene 3 1 4 -2.41435 0 1 -2.41435 1
gene 3 2 4 -6.31423 0 2 -6.31423 1
gene 3 3 4 4.18168 0 3 4.18168 1
gene 3 3 7 2.60772 0 8 2.60772 1
gene 3 7 4 -0.00839259 0 9 -0.00839259 0
gene 2 7 16 -4.43626 0 32 -4.43626 1
gene 3 16 4 6.43577 0 33 6.43577 1
gene 1 3 16 3.50397 0 48 3.50397 1
gene 3 2 7 -0.311747 0 85 -0.311747 1
gene 3 2 37 5.73466 0 99 5.73466 1
gene 3 37 7 2.90065 0 100 2.90065 1
gene 3 2 42 1.15374 0 121 1.15374 1
gene 3 42 37 -0.579012 0 122 -0.579012 1
gene 1 42 7 -0.682623 0 200 -0.682623 1
gene 3 3 37 -2.81982 0 262 -2.81982 1
genomeend 77

/* Organism #78 Fitness: 1.3944 Error: 2.81915 */
genomestart 78
trait 1 0.1 0 0 0 0 0 0 0 
trait 2 0.2 0 0 0 0 0 0 0 
trait 3 0.3 0.120182 0 0 0 0.886349 0 0 
node 1 1 1 3
node 2 1 1 1
node 3 2 1 1
node 4 1 0 2
node 7 1 0 0
node 16 1 0 0
node 37 1 0 0
node 42 1 0 0
gene 3 1 4 -1.87844 0 1 -1.87844 1
gene 3 2 4 -5.81472 0 2 -5.81472 1
gene 3 3 4 7.62294 0 3 7.62294 0
gene 3 3 7 1.65912 0 8 1.65912 1
gene 3 7 4 0.333033 0 9 0.333033 0
gene 2 7 16 -2.4843 0 32 -2.4843 1
gene 3 16 4 8 0 33 8 1
gene 1 3 16 4.89325 0 48 4.89325 1
gene 3 2 7 1.0284 0 85 1.0284 0
gene 3 2 37 1.9174 0 99 1.9174 0
gene 3 37 7 -0.703665 0 100 -0.703665 1
gene 3 2 42 3.28545 0 121 3.28545 1
gene 3 42 37 -0.277795 0 122 -0.277795 1
gene 1 42 7 -1.81768 0 200 -1.81768 1
gene 3 3 37 1.64794 0 262 1.64794 1
genomeend 78

/* Organism #79 Fitness: 8.99996 Error: 1.00001 */
genomestart 79
trait 1 0.1 0 0 0 0 0 0 0 
trait 2 0.2 0 0 0 0 0 0 0 
trait 3 0.3 0.120182 0 0 0 0.886349 0 0 
node 1 1 1 3
node 2 1 1 1
node 3 2 1 1
node 4 1 0 2
node 7 1 0 0
node 16 2 0 0
node 37 1 0 0
node 42 1 0 0
gene 3 1 4 -3.81973 0 1 -3.81973 1
gene 3 2 4 -7.70832 0 2 -7.70832 1
gene 3 3 4 6.33934 0 3 6.33934 0
gene 3 3 7 0.947737 0 8 0.947737 1
gene 3 7 4 1.10599 0 9 1.10599 1
gene 2 7 16 -3.61547 0 32 -3.61547 1
gene 3 16 4 6.10205 0 33 6.10205 1
gene 1 3 16 4.27624 0 48 4.27624 1
gene 3 2 7 0.1133 0 85 0.1133 0
gene 3 2 37 2.50855 0 99 2.50855 0
gene 3 37 7 1.92329 0 100 1.92329 1
gene 3 2 42 2.85842 0 121 2.85842 1
gene 3 42 37 0.340052 0 122 0.340052 1
gene 1 42 7 -2.69646 0 200 -2.69646 1
gene 3 3 37 -1.42695 0 262 -1.42695 1
genomeend 79

/* Organism #80 Fitness: 4.00085 Error: 1.99979 */
genomestart 80
trait 1 0.1 0 0 0 0 0 0 0 
trait 2 0.2 0 0 0 0 0 0 0 
trait 3 0.3 0.120182 0 0 0 0.886349 0 0 
node 1 1 1 3
node 2 1 1 1
node 3 2 1 1
node 4 1 0 2
node 7 1 0 0
node 16 1 0 0
node 37 1 0 0
node 42 1 0 0
gene 3 1 4 -3.3486 0 1 -3.3486 1
gene 3 2 4 -0.964385 0 2 -0.964385 1
gene 3 3 4 8 0 3 8 0
gene 3 3 7 1.94058 0 8 1.94058 1
gene 3 7 4 2.28568 0 9 2.28568 0
gene 2 7 16 -2.44493 0 32 -2.44493 1
gene 3 16 4 6.48514 0 33 6.48514 1
gene 1 3 16 2.01207 0 48 2.01207 1
gene 3 2 7 -0.555132 0 85 -0.555132 0
gene 3 2 37 5.50027 0 99 5.50027 0
gene 3 37 7 0.000473037 0 100 0.000473037 1
gene 3 2 42 2.78892 0 121 2.78892 1
gene 3 42 37 -1.16321 0 122 -1.16321 1
gene 1 42 7 -0.682623 0 200 -0.682623 1
gene 3 3 37 1.41852 0 262 1.41852 1
genomeend 80

/* Species #15 : (Size 9) (AF 8.11401) (Age 22)  */


/* Organism #81 Fitness: 9 Error: 1 */
genomestart 81
trait 1 0.1 0 0 0 0 0 0 0 
trait 2 0.2 0 0 0 0 0 0 0 
trait 3 0.3 0.120182 0 0 0 0.886349 0 0 
node 1 1 1 3
node 2 1 1 1
node 3 2 1 1
node 4 1 0 2
node 7 1 0 0
node 16 1 0 0
node 30 1 0 0
gene 3 1 4 -8 0 1 -8 1
gene 3 2 4 -8 0 2 -8 1
gene 3 3 4 6.95355 0 3 6.95355 1
gene 1 3 7 0.443991 0 8 0.443991 0
gene 3 7 4 6.76465 0 9 6.76465 1
gene 3 7 16 -4.34911 0 32 -4.34911 1
gene 3 16 4 2.83014 0 33 2.83014 1
gene 1 3 16 3.35698 0 48 3.35698 1
gene 1 3 30 -3.18203 0 72 -3.18203 1
gene 1 30 7 -2.59722 0 73 -2.59722 1
gene 2 2 16 -1.12503 0 93 -1.12503 1
gene 1 2 30 4.25672 0 106 4.25672 1
genomeend 81

/* Organism #82 Fitness: 2.8718 Error: 2.30536 */
genomestart 82
trait 1 0.1 0 0 0 0 0 0 0 
trait 2 0.2 0 0 0 0 0 0 0 
trait 3 0.3 0.120182 0 0 0 0.886349 0 0 
node 1 3 1 3
node 2 1 1 1
node 3 2 1 1
node 4 1 0 2
node 7 1 0 0
node 16 1 0 0
node 30 1 0 0
gene 3 1 4 1.40156 0 1 1.40156 1
gene 3 2 4 -8 0 2 -8 1
gene 3 3 4 -2.16277 0 3 -2.16277 1
gene 1 3 7 -1.98408 0 8 -1.98408 0
gene 3 7 4 -1.88047 0 9 -1.88047 1
gene 3 7 16 2.44782 0 32 2.44782 1
gene 3 16 4 1.86835 0 33 1.86835 1
gene 1 3 16 6.03658 0 48 6.03658 1
gene 1 3 30 -4.30038 0 72 -4.30038 1
gene 1 30 7 -0.90466 0 73 -0.90466 1
gene 2 2 16 -0.889351 0 93 -0.889351 1
gene 1 2 30 2.53578 0 106 2.53578 1
genomeend 82

/* Organism #83 Fitness: 8.85507 Error: 1.02425 */
genomestart 83
trait 1 0.1 0 0 0 0 0 0 0 
trait 2 0.2 0 0 0 0 0 0 0 
trait 3 0.3 0.120182 0 0 0 0.886349 0 0 
node 1 1 1 3
node 2 1 1 1
node 3 2 1 1
node 4 1 0 2
node 7 1 0 0
node 16 1 0 0
node 30 1 0 0
gene 3 1 4 -6.35389 0 1 -6.35389 1
gene 3 2 4 -5.90139 0 2 -5.90139 1
gene 3 3 4 7.10836 0 3 7.10836 1
gene 1 3 7 1.47178 0 8 1.47178 0
gene 3 7 4 -0.808817 0 9 -0.808817 1
gene 3 7 16 -3.39182 0 32 -3.39182 1
gene 3 16 4 1.86835 0 33 1.86835 1
gene 1 3 16 -1.44337 0 48 -1.44337 1
gene 1 3 30 -0.167867 0 72 -0.167867 1
gene 1 30 7 -3.32119 0 73 -3.32119 1
gene 2 2 16 0.185587 0 93 0.185587 1
gene 1 2 30 4.87129 0 106 4.87129 1
genomeend 83

/* Organism #84 Fitness: 9 Error: 1 */
genomestart 84
trait 1 0.1 0 0 0 0 0 0 0 
trait 2 0.2 0 0 0 0 0 0 0 
trait 3 0.3 0.120182 0 0 0 0.886349 0 0 
node 1 1 1 3
node 2 1 1 1
node 3 2 1 1
node 4 1 0 2
node 7 1 0 0
node 16 1 0 0
node 30 1 0 0
gene 3 1 4 -6.18932 0 1 -6.18932 1
gene 3 2 4 -8 0 2 -8 1
gene 3 3 4 7.10836 0 3 7.10836 1
gene 1 3 7 2.95544 0 8 2.95544 0
gene 3 7 4 5.00136 0 9 5.00136 1
gene 3 7 16 0.300153 0 32 0.300153 1
gene 3 16 4 1.86835 0 33 1.86835 1
gene 1 3 16 4.80463 0 48 4.80463 1
gene 1 3 30 -2.03621 0 72 -2.03621 1
gene 1 30 7 -2.20208 0 73 -2.20208 1
gene 2 2 16 -1.12503 0 93 -1.12503 1
gene 1 2 30 4.25672 0 106 4.25672 1
gene 1 1 7 0.283212 0 353 0 1
genomeend 84

/* Organism #85 Fitness: 9 Error: 1 */
genomestart 85
trait 1 0.1 0 0 0 0 0 0 0 
trait 2 0.2 0 0 0 0 0 0 0 
trait 3 0.3 0.120182 0 0 0 0.886349 0 0 
node 1 1 1 3
node 2 1 1 1
node 3 2 1 1
node 4 1 0 2
node 7 1 0 0
node 16 1 0 0
node 30 1 0 0
gene 3 1 4 -7.09466 0 1 -7.09466 1
gene 3 2 4 -8 0 2 -8 1
gene 3 3 4 7.03096 0 3 7.03096 1
gene 1 3 7 1.69971 0 8 1.69971 0
gene 3 7 4 5.883 0 9 5.883 1
gene 3 7 16 -2.02448 0 32 -2.02448 1
gene 3 16 4 2.34925 0 33 2.34925 1
gene 1 3 16 4.08081 0 48 4.08081 1
gene 1 3 30 -2.60912 0 72 -2.60912 1
gene 1 30 7 -2.39965 0 73 -2.39965 1
gene 2 2 16 -1.12503 0 93 -1.12503 1
gene 1 2 30 4.25672 0 106 4.25672 1
genomeend 85

/* Organism #86 Fitness: 9 Error: 1 */
genomestart 86
trait 1 0.1 0 0 0 0 0 0 0 
trait 2 0.2 0 0 0 0 0 0 0 
trait 3 0.3 0.120182 0 0 0 0.886349 0 0 
node 1 1 1 3
node 2 1 1 1
node 3 2 1 1
node 4 1 0 2
node 7 1 0 0
node 16 1 0 0
node 30 1 0 0
gene 3 1 4 -7.09466 0 1 -7.09466 1
gene 3 2 4 -8 0 2 -8 1
gene 3 3 4 7.03096 0 3 7.03096 1
gene 1 3 7 1.69971 0 8 1.69971 1
gene 3 7 4 5.883 0 9 5.883 1
gene 3 7 16 -2.02448 0 32 -2.02448 1
gene 3 16 4 2.34925 0 33 2.34925 1
gene 1 3 16 4.08081 0 48 4.08081 1
gene 1 3 30 -2.60912 0 72 -2.60912 1
gene 1 30 7 -2.39965 0 73 -2.39965 1
gene 2 2 16 -1.12503 0 93 -1.12503 1
gene 1 2 30 4.25672 0 106 4.25672 1
genomeend 86

/* Organism #87 Fitness: 8.99997 Error: 1 */
genomestart 87
trait 1 0.1 0 0 0 0 0 0 0 
trait 2 0.2 0 0 0 0 0 0 0 
trait 3 0.3 0.120182 0 0 0 0.886349 0 0 
node 1 1 1 3
node 2 1 1 1
node 3 2 1 1
node 4 1 0 2
node 7 1 0 0
node 16 1 0 0
node 30 1 0 0
gene 3 1 4 -8 0 1 -8 1
gene 3 2 4 -8 0 2 -8 1
gene 3 3 4 7.63145 0 3 7.63145 1
gene 1 3 7 1.51389 0 8 1.51389 0
gene 3 7 4 5.00083 0 9 5.00083 1
gene 3 7 16 -5.29168 0 32 -5.29168 1
gene 3 16 4 0.369968 0 33 0.369968 1
gene 1 3 16 3.92035 0 48 3.92035 1
gene 1 3 30 -2.81832 0 72 -2.81832 1
gene 1 30 7 -2.12449 0 73 -2.12449 1
gene 2 2 16 -2.33806 0 93 -2.33806 1
gene 1 2 30 4.25672 0 106 4.25672 1
genomeend 87

/* Organism #88 Fitness: 7.29928 Error: 1.29828 */
genomestart 88
trait 1 0.1 0 0 0 0 0 0 0 
trait 2 0.2 0 0 0 0 0 0 0 
trait 3 0.3 0.120182 0 0 0 0.886349 0 0 
node 1 1 1 3
node 2 1 1 1
node 3 2 1 1
node 4 1 0 2
node 7 1 0 0
node 16 1 0 0
node 30 1 0 0
gene 3 1 4 -7.48376 0 1 -7.48376 1
gene 3 2 4 -5.87202 0 2 -5.87202 1
gene 3 3 4 6.17739 0 3 6.17739 1
gene 1 3 7 2.47774 0 8 2.47774 0
gene 3 7 4 4.1602 0 9 4.1602 1
gene 3 7 16 -0.60266 0 32 -0.60266 1
gene 1 16 4 0.0293054 0 33 0.0293054 1
gene 1 3 16 5.59269 0 48 5.59269 1
gene 1 3 30 -0.384472 0 72 -0.384472 1
gene 1 30 7 -0.969207 0 73 -0.969207 1
gene 2 2 16 -1.12503 0 93 -1.12503 1
gene 1 2 30 4.9263 0 106 4.9263 1
genomeend 88

/* Organism #89 Fitness: 8.99999 Error: 1 */
genomestart 89
trait 1 0.1 0 0 0 0 0 0 0 
trait 2 0.2 0 0 0 0 0 0 0 
trait 3 0.3 0.120182 0 0 0 0.886349 0 0 
node 1 1 1 3
node 2 1 1 1
node 3 2 1 1
node 4 1 0 2
node 7 1 0 0
node 16 1 0 0
node 30 1 0 0
gene 3 1 4 -8 0 1 -8 1
gene 3 2 4 -8 0 2 -8 1
gene 3 3 4 8 0 3 8 1
gene 1 3 7 -0.0377438 0 8 -0.0377438 0
gene 3 7 4 4.62705 0 9 4.62705 1
gene 3 7 16 -3.04803 0 32 -3.04803 1
gene 3 16 4 0.608165 0 33 0.608165 1
gene 1 3 16 1.83777 0 48 1.83777 1
gene 1 3 30 -4.41894 0 72 -4.41894 1
gene 1 30 7 -2.48949 0 73 -2.48949 1
gene 2 2 16 -1.82772 0 93 -1.82772 1
gene 1 2 30 -2.49008 0 106 -2.49008 1
genomeend 89

/* Species #17 : (Size 8) (AF 6.49999) (Age 20)  */


/* Organism #90 Fitness: 9 Error: 1 */
genomestart 90
trait 1 0.1 0 0 0 0 0 0 0 
trait 2 0.382889 0 0.096026 0 0 0.2006 0.0175601 0.0118021 
trait 3 0.3 0.0450682 0 0 0 0.332381 0 0 
node 1 1 1 3
node 2 1 1 1
node 3 2 1 1
node 4 1 0 2
node 7 1 0 0
gene 3 1 4 -4.4539 0 1 -4.4539 1
gene 3 2 4 -7.96536 0 2 -7.96536 1
gene 2 3 4 -0.625095 0 3 -0.625095 0
gene 1 3 7 8 0 8 8 1
gene 2 7 4 7.7696 0 9 7.7696 1
gene 3 1 7 -5.41545 0 81 -5.41545 1
gene 3 2 7 0.471313 0 112 0.471313 1
genomeend 90

/* Organism #91 Fitness: 8.99995 Error: 1.00001 */
genomestart 91
trait 1 0.1 0 0 0 0 0 0 0 
trait 2 0.382889 0 0.096026 0 0 0.2006 0.0175601 0.0118021 
trait 3 0.3 0.0450682 0 0 0 0.332381 0 0 
node 1 1 1 3
node 2 1 1 1
node 3 2 1 1
node 4 1 0 2
node 7 1 0 0
gene 3 1 4 -4.64037 0 1 -4.64037 1
gene 3 2 4 -8 0 2 -8 1
gene 2 3 4 -1.66692 0 3 -1.66692 0
gene 1 3 7 8 0 8 8 1
gene 2 7 4 8 0 9 8 1
gene 3 1 7 -7.60416 0 81 -7.60416 1
gene 3 2 7 1.18079 0 112 1.18079 1
genomeend 91

/* Organism #92 Fitness: 9 Error: 1 */
genomestart 92
trait 1 0.1 0 0 0 0 0 0 0 
trait 2 0.382889 0 0.096026 0 0 0.2006 0.0175601 0.0118021 
trait 3 0.3 0.0450682 0 0 0 0.332381 0 0 
node 1 1 1 3
node 2 1 1 1
node 3 2 1 1
node 4 1 0 2
node 7 1 0 0
gene 3 1 4 -4.4539 0 1 -4.4539 1
gene 3 2 4 -7.96536 0 2 -7.96536 1
gene 2 3 4 -0.625095 0 3 -0.625095 0
gene 1 3 7 8 0 8 8 1
gene 2 7 4 7.7696 0 9 7.7696 1
gene 3 1 7 -5.41545 0 81 -5.41545 1
gene 3 2 7 0.471313 0 112 0.471313 1
genomeend 92

/* Organism #93 Fitness: 9 Error: 1 */
genomestart 93
trait 1 0.1 0 0 0 0 0 0 0 
trait 2 0.382889 0 0.096026 0 0 0.2006 0.0175601 0.0118021 
trait 3 0.3 0.0450682 0 0 0 0.332381 0 0 
node 1 1 1 3
node 2 1 1 1
node 3 2 1 1
node 4 1 0 2
node 7 1 0 0
gene 3 1 4 -4.64037 0 1 -4.64037 1
gene 3 2 4 -8 0 2 -8 1
gene 2 3 4 -0.486847 0 3 -0.486847 0
gene 1 3 7 8 0 8 8 1
gene 2 7 4 7.7696 0 9 7.7696 1
gene 3 1 7 -5.41545 0 81 -5.41545 1
gene 3 2 7 0.471313 0 112 0.471313 1
genomeend 93

/* Organism #94 Fitness: 4 Error: 2 */
genomestart 94
trait 1 0.1 0 0 0 0 0 0 0 
trait 2 0.382889 0 0.096026 0 0 0.2006 0.0175601 0.0118021 
trait 3 0.3 0.0450682 0 0 0 0.332381 0 0 
node 1 1 1 3
node 2 1 1 1
node 3 2 1 1
node 4 1 0 2
node 7 1 0 0
gene 3 1 4 -4.28834 0 1 -4.28834 1
gene 3 2 4 -6.54129 0 2 -6.54129 1
gene 2 3 4 -2.63604 0 3 -2.63604 0
gene 1 3 7 -0.57947 0 8 -0.57947 1
gene 2 7 4 -2.17689 0 9 -2.17689 1
gene 3 1 7 -6.05489 0 81 -6.05489 1
gene 3 2 7 2.52025 0 112 2.52025 1
genomeend 94

/* Organism #95 Fitness: 4 Error: 2 */
genomestart 95
trait 1 0.1 0 0 0 0 0 0 0 
trait 2 0.382889 0 0.096026 0 0 0.2006 0.0175601 0.0118021 
trait 3 0.3 0.0450682 0 0 0 0.332381 0 0 
node 1 1 1 3
node 2 1 1 1
node 3 2 1 1
node 4 1 0 2
node 7 1 0 0
gene 3 1 4 -4.64037 0 1 -4.64037 1
gene 3 2 4 -5.81228 0 2 -5.81228 1
gene 2 3 4 -2.64649 0 3 -2.64649 0
gene 1 3 7 6.37436 0 8 6.37436 1
gene 2 7 4 -1.64991 0 9 -1.64991 1
gene 3 1 7 1.04732 0 81 1.04732 1
gene 3 2 7 -0.23809 0 112 -0.23809 1
genomeend 95

/* Organism #96 Fitness: 4 Error: 2 */
genomestart 96
trait 1 0.1 0 0 0 0 0 0 0 
trait 2 0.382889 0 0.096026 0 0 0.2006 0.0175601 0.0118021 
trait 3 0.3 0.0450682 0 0 0 0.332381 0 0 
node 1 1 1 3
node 2 1 1 1
node 3 2 1 1
node 4 1 0 2
node 7 1 0 0
gene 3 1 4 -3.15244 0 1 -3.15244 1
gene 3 2 4 -8 0 2 -8 1
gene 2 3 4 -0.697806 0 3 -0.697806 0
gene 1 3 7 5.95022 0 8 5.95022 1
gene 2 7 4 8 0 9 8 1
gene 3 1 7 -7.4798 0 81 -7.4798 1
gene 3 2 7 2.35667 0 112 2.35667 1
genomeend 96

/* Organism #97 Fitness: 4.00001 Error: 2 */
genomestart 97
trait 1 0.1 0 0 0 0 0 0 0 
trait 2 0.382889 0 0.096026 0 0 0.2006 0.0175601 0.0118021 
trait 3 0.3 0.0450682 0 0 0 0.332381 0 0 
node 1 1 1 3
node 2 1 1 1
node 3 2 1 1
node 4 1 0 2
node 7 1 0 0
gene 3 1 4 -5.87553 0 1 -5.87553 1
gene 3 2 4 -6.49612 0 2 -6.49612 1
gene 2 3 4 -0.0574511 0 3 -0.0574511 0
gene 1 3 7 7.56656 0 8 7.56656 1
gene 2 7 4 7.38034 0 9 7.38034 1
gene 3 1 7 -7.62392 0 81 -7.62392 1
gene 3 2 7 -0.762017 0 112 -0.762017 1
genomeend 97

/* Species #18 : (Size 8) (AF 7.37813) (Age 19)  */


/* Organism #98 Fitness: 9 Error: 1 */
genomestart 98
trait 1 0.05 0 0.22132 0 0.418683 0.145451 0 0 
trait 2 0.2 0 0 0 0 0 0 0 
trait 3 0.234375 0 0 0.0510441 0 0.149928 0.0275258 0.179168 
node 1 2 1 3
node 2 2 1 1
node 3 3 1 1
node 4 3 0 2
node 10 1 0 0
node 47 1 0 0
gene 1 1 4 -4.84556 0 1 -4.84556 1
gene 2 2 4 8 0 2 8 1
gene 3 3 4 -7.23486 0 3 -7.23486 1
gene 2 2 10 -1.71125 0 16 -1.71125 1
gene 2 10 4 -1.28941 0 17 -1.28941 1
gene 2 1 10 0.0345851 0 28 0.0345851 1
gene 2 10 47 -1.51547 0 137 -1.51547 1
gene 2 47 4 7.30761 0 138 7.30761 1
gene 2 3 47 -0.818129 0 166 -0.818129 1
gene 2 3 10 -3.00975 0 288 -3.00975 1
genomeend 98

/* Organism #99 Fitness: 4.02493 Error: 1.99378 */
genomestart 99
trait 1 0.05 0 0.22132 0 0.418683 0.145451 0 0 
trait 2 0.2 0 0 0 0 0 0 0 
trait 3 0.234375 0 0 0.0510441 0 0.149928 0.0275258 0.179168 
node 1 2 1 3
node 2 2 1 1
node 3 3 1 1
node 4 3 0 2
node 10 1 0 0
node 47 1 0 0
gene 1 1 4 -1.50601 0 1 -1.50601 1
gene 2 2 4 7.58968 0 2 7.58968 1
gene 3 3 4 -8 0 3 -8 1
gene 2 2 10 -1.48923 0 16 -1.48923 1
gene 2 10 4 -0.81286 0 17 -0.81286 1
gene 2 1 10 -2.38309 0 28 -2.38309 1
gene 2 10 47 -2.82708 0 137 -2.82708 1
gene 2 47 4 5.06717 0 138 5.06717 1
gene 2 3 47 -1.13392 0 166 -1.13392 1
gene 2 3 10 1.11612 0 288 1.11612 1
genomeend 99

/* Organism #100 Fitness: 1.00031 Error: 2.99984 */
genomestart 100
trait 1 0.05 0 0.22132 0 0.418683 0.145451 0 0 
trait 2 0.2 0 0 0 0 0 0 0 
trait 3 0.234375 0 0 0.0510441 0 0.149928 0.0275258 0.179168 
node 1 2 1 3
node 2 2 1 1
node 3 3 1 1
node 4 3 0 2
node 10 1 0 0
node 47 1 0 0
gene 1 1 4 0.325175 0 1 0.325175 1
gene 2 2 4 7.39604 0 2 7.39604 1
gene 3 3 4 -7.9068 0 3 -7.9068 1
gene 2 2 10 -1.55736 0 16 -1.55736 1
gene 2 10 4 -1.71545 0 17 -1.71545 1
gene 2 1 10 -4.63688 0 28 -4.63688 1
gene 2 10 47 1.02199 0 137 1.02199 1
gene 2 47 4 5.8019 0 138 5.8019 1
gene 2 3 47 2.37587 0 166 2.37587 1
gene 2 3 10 -2.77384 0 288 -2.77384 1
gene 1 2 47 -0.418134 0 349 -0.418134 1
genomeend 100

/* Organism #101 Fitness: 9 Error: 1 */
genomestart 101
trait 1 0.05 0 0.22132 0 0.418683 0.145451 0 0 
trait 2 0.2 0 0 0 0 0 0 0 
trait 3 0.234375 0 0 0.0510441 0 0.149928 0.0275258 0.179168 
node 1 2 1 3
node 2 2 1 1
node 3 3 1 1
node 4 3 0 2
node 10 1 0 0
node 47 1 0 0
gene 1 1 4 -6.61956 0 1 -6.61956 1
gene 2 2 4 8 0 2 8 1
gene 3 3 4 -8 0 3 -8 1
gene 2 2 10 -1.51978 0 16 -1.51978 1
gene 2 10 4 1.29368 0 17 1.29368 1
gene 2 1 10 0.707976 0 28 0.707976 1
gene 2 10 47 -1.7703 0 137 -1.7703 1
gene 2 47 4 4.34682 0 138 4.34682 1
gene 2 3 47 -2.33818 0 166 -2.33818 1
gene 2 3 10 0.422758 0 288 0.422758 1
genomeend 101

/* Organism #102 Fitness: 8.99979 Error: 1.00003 */
genomestart 102
trait 1 0.05 0 0.22132 0 0.418683 0.145451 0 0 
trait 2 0.2 0 0 0 0 0 0 0 
trait 3 0.234375 0 0 0.0510441 0 0.149928 0.0275258 0.179168 
node 1 2 1 3
node 2 2 1 1
node 3 3 1 1
node 4 3 0 2
node 10 1 0 0
node 47 1 0 0
gene 1 1 4 -4.50391 0 1 -4.50391 1
gene 2 2 4 8 0 2 8 1
gene 3 3 4 -8 0 3 -8 1
gene 2 2 10 1.80448 0 16 1.80448 1
gene 2 10 4 -0.56444 0 17 -0.56444 1
gene 2 1 10 -4.22916 0 28 -4.22916 1
gene 2 10 47 -1.05075 0 137 -1.05075 1
gene 2 47 4 4.83569 0 138 4.83569 1
gene 2 3 47 -3.8577 0 166 -3.8577 1
gene 2 3 10 -0.981414 0 288 -0.981414 1
gene 1 2 47 -0.879955 0 349 -0.879955 1
genomeend 102

/* Organism #103 Fitness: 9 Error: 1 */
genomestart 103
trait 1 0.05 0 0.22132 0 0.418683 0.145451 0 0 
trait 2 0.2 0 0 0 0 0 0 0 
trait 3 0.234375 0 0 0.0510441 0 0.149928 0.0275258 0.179168 
node 1 2 1 3
node 2 2 1 1
node 3 3 1 1
node 4 3 0 2
node 10 1 0 0
node 47 1 0 0
gene 1 1 4 -7.10195 0 1 -7.10195 1
gene 2 2 4 7.08994 0 2 7.08994 1
gene 3 3 4 -8 0 3 -8 1
gene 2 2 10 -1.96463 0 16 -1.96463 1
gene 2 10 4 -2.08998 0 17 -2.08998 1
gene 2 1 10 -2.41712 0 28 -2.41712 1
gene 2 10 47 -2.07015 0 137 -2.07015 1
gene 2 47 4 4.13384 0 138 4.13384 1
gene 2 3 47 -3.79689 0 166 -3.79689 1
gene 2 3 10 -3.06957 0 288 -3.06957 1
gene 1 2 47 1.34141 0 349 1.34141 1
genomeend 103

/* Organism #104 Fitness: 8.99997 Error: 1 */
genomestart 104
trait 1 0.05 0 0.22132 0 0.418683 0.145451 0 0 
trait 2 0.2 0 0 0 0 0 0 0 
trait 3 0.234375 0 0 0.0510441 0 0.149928 0.0275258 0.179168 
node 1 2 1 3
node 2 2 1 1
node 3 3 1 1
node 4 3 0 2
node 10 1 0 0
node 47 1 0 0
gene 1 1 4 -6.5052 0 1 -6.5052 1
gene 2 2 4 8 0 2 8 1
gene 3 3 4 -8 0 3 -8 1
gene 2 2 10 -0.00194555 0 16 -0.00194555 1
gene 2 10 4 0.470901 0 17 0.470901 1
gene 2 1 10 -2.07546 0 28 -2.07546 1
gene 2 10 47 -1.99515 0 137 -1.99515 1
gene 2 47 4 8 0 138 8 1
gene 2 3 47 -1.68379 0 166 -1.68379 1
gene 2 3 10 -0.665052 0 288 -0.665052 1
genomeend 104

/* Organism #105 Fitness: 9 Error: 1 */
genomestart 105
trait 1 0.05 0 0.22132 0 0.418683 0.145451 0 0 
trait 2 0.2 0 0 0 0 0 0 0 
trait 3 0.234375 0 0 0.0510441 0 0.149928 0.0275258 0.179168 
node 1 2 1 3
node 2 2 1 1
node 3 3 1 1
node 4 3 0 2
node 10 1 0 0
node 47 1 0 0
gene 1 1 4 -6.42795 0 1 -6.42795 1
gene 2 2 4 8 0 2 8 1
gene 3 3 4 -8 0 3 -8 1
gene 2 2 10 -1.43429 0 16 -1.43429 1
gene 2 10 4 0.42375 0 17 0.42375 1
gene 2 1 10 -0.0585726 0 28 -0.0585726 1
gene 2 10 47 -2.23487 0 137 -2.23487 1
gene 2 47 4 4.62366 0 138 4.62366 1
gene 2 3 47 -4.9997 0 166 -4.9997 1
gene 2 3 10 -1.92511 0 288 -1.92511 1
genomeend 105

/* Species #19 : (Size 8) (AF 5.50692) (Age 18)  */


/* Organism #106 Fitness: 9 Error: 1 */
genomestart 106
trait 1 0.1 0 0 0 0 0 0 0 
trait 2 0.2 0 0 0 0 0 0 0 
trait 3 0.3 0.120182 0 0 0 0.886349 0 0 
node 1 1 1 3
node 2 1 1 1
node 3 2 1 1
node 4 1 0 2
node 7 1 0 0
node 16 3 0 0
node 25 1 0 0
node 49 1 0 0
gene 3 1 4 -8 0 1 -8 1
gene 3 2 4 -5.15728 0 2 -5.15728 1
gene 3 3 4 8 0 3 8 1
gene 1 3 7 -2.04566 0 8 -2.04566 0
gene 3 7 4 3.07345 0 9 3.07345 0
gene 3 7 16 0.10411 0 32 0.10411 1
gene 3 16 4 7.18273 0 33 7.18273 1
gene 1 3 25 0.70307 0 61 0.70307 0
gene 1 25 7 0.365459 0 62 0.365459 1
gene 1 3 49 0.560457 0 143 0.560457 1
gene 1 49 25 -2.02116 0 144 -2.02116 1
gene 3 2 16 -1.10866 0 160 -1.10866 1
gene 1 25 4 0.92906 0 201 0.92906 1
genomeend 106

/* Organism #107 Fitness: 4.01265 Error: 1.99684 */
genomestart 107
trait 1 0.1 0 0 0 0 0 0 0 
trait 2 0.2 0 0 0 0 0 0 0 
trait 3 0.3 0.120182 0 0 0 0.886349 0 0 
node 1 1 1 3
node 2 1 1 1
node 3 2 1 1
node 4 1 0 2
node 7 1 0 0
node 16 3 0 0
node 25 1 0 0
node 49 1 0 0
gene 3 1 4 -8 0 1 -8 1
gene 3 2 4 -3.43108 0 2 -3.43108 1
gene 3 3 4 6.81046 0 3 6.81046 1
gene 1 3 7 -4.3804 0 8 -4.3804 0
gene 3 7 4 2.23991 0 9 2.23991 0
gene 3 7 16 -2.32051 0 32 -2.32051 1
gene 3 16 4 6.37429 0 33 6.37429 1
gene 1 3 25 -0.255745 0 61 -0.255745 0
gene 1 25 7 -0.686361 0 62 -0.686361 1
gene 1 3 49 4.45784 0 143 4.45784 1
gene 1 49 25 -3.07733 0 144 -3.07733 1
gene 3 2 16 -0.0228889 0 160 -0.0228889 1
gene 1 25 4 0.92906 0 201 0.92906 1
genomeend 107

/* Organism #108 Fitness: 4 Error: 2 */
genomestart 108
trait 1 0.1 0 0 0 0 0 0 0 
trait 2 0.2 0 0 0 0 0 0 0 
trait 3 0.3 0.120182 0 0 0 0.886349 0 0 
node 1 1 1 3
node 2 1 1 1
node 3 2 1 1
node 4 1 0 2
node 7 1 0 0
node 16 3 0 0
node 25 1 0 0
node 49 1 0 0
gene 3 1 4 -5.97937 0 1 -5.97937 1
gene 3 2 4 -0.0121311 0 2 -0.0121311 1
gene 3 3 4 -1.00108 0 3 -1.00108 1
gene 1 3 7 -1.05007 0 8 -1.05007 0
gene 3 7 4 1.5798 0 9 1.5798 0
gene 3 7 16 -1.91293 0 32 -1.91293 1
gene 3 16 4 7.18273 0 33 7.18273 1
gene 1 3 25 -0.00892666 0 61 -0.00892666 0
gene 1 25 7 -1.7787 0 62 -1.7787 1
gene 1 3 49 0.364528 0 143 0.364528 1
gene 1 49 25 -0.71955 0 144 -0.71955 1
gene 3 2 16 -1.10866 0 160 -1.10866 1
gene 1 25 4 1.98263 0 201 1.98263 1
genomeend 108

/* Organism #109 Fitness: 1.04273 Error: 2.97886 */
genomestart 109
trait 1 0.1 0 0 0 0 0 0 0 
trait 2 0.2 0 0 0 0 0 0 0 
trait 3 0.3 0.120182 0 0 0 0.886349 0 0 
node 1 1 1 3
node 2 1 1 1
node 3 2 1 1
node 4 1 0 2
node 7 1 0 0
node 16 3 0 0
node 25 1 0 0
node 49 1 0 0
gene 3 1 4 -0.575579 0 1 -0.575579 1
gene 3 2 4 -6.13868 0 2 -6.13868 1
gene 3 3 4 1.94853 0 3 1.94853 1
gene 1 3 7 -1.22028 0 8 -1.22028 0
gene 3 7 4 1.09325 0 9 1.09325 0
gene 3 7 16 2.38956 0 32 2.38956 1
gene 3 16 4 5.39717 0 33 5.39717 1
gene 1 3 25 -0.144124 0 61 -0.144124 1
gene 1 25 7 -0.794321 0 62 -0.794321 1
gene 1 3 49 2.01788 0 143 2.01788 1
gene 1 49 25 0.142064 0 144 0.142064 1
gene 3 2 16 0.651341 0 160 0.651341 1
gene 1 25 4 0.92906 0 201 0.92906 1
genomeend 109

/* Organism #110 Fitness: 4.00001 Error: 2 */
genomestart 110
trait 1 0.1 0 0 0 0 0 0 0 
trait 2 0.2 0 0 0 0 0 0 0 
trait 3 0.3 0.120182 0 0 0 0.886349 0 0 
node 1 1 1 3
node 2 1 1 1
node 3 2 1 1
node 4 1 0 2
node 7 1 0 0
node 16 3 0 0
node 25 1 0 0
node 49 1 0 0
gene 3 1 4 -6.84991 0 1 -6.84991 1
gene 3 2 4 -3.83927 0 2 -3.83927 1
gene 3 3 4 7.42732 0 3 7.42732 1
gene 1 3 7 -1.71873 0 8 -1.71873 0
gene 3 7 4 1.16604 0 9 1.16604 0
gene 3 7 16 0.0668775 0 32 0.0668775 1
gene 3 16 4 5.97572 0 33 5.97572 1
gene 1 3 25 1.15146 0 61 1.15146 0
gene 1 25 7 -0.912046 0 62 -0.912046 1
gene 1 3 49 4.3141 0 143 4.3141 1
gene 1 49 25 -1.62229 0 144 -1.62229 1
gene 3 2 16 1.22517 0 160 1.22517 1
gene 1 25 4 0.92906 0 201 0.92906 1
genomeend 110

/* Organism #111 Fitness: 9 Error: 1 */
genomestart 111
trait 1 0.1 0 0 0 0 0 0 0 
trait 2 0.2 0 0 0 0 0 0 0 
trait 3 0.3 0.120182 0 0 0 0.886349 0 0 
node 1 1 1 3
node 2 1 1 1
node 3 2 1 1
node 4 1 0 2
node 7 1 0 0
node 16 3 0 0
node 25 1 0 0
node 49 1 0 0
gene 3 1 4 -6.13494 0 1 -6.13494 1
gene 3 2 4 -5.24075 0 2 -5.24075 1
gene 3 3 4 6.94375 0 3 6.94375 1
gene 1 3 7 -3.15966 0 8 -3.15966 0
gene 3 7 4 1.38532 0 9 1.38532 0
gene 3 7 16 -0.0649625 0 32 -0.0649625 1
gene 3 16 4 5.259 0 33 5.259 1
gene 1 3 25 1.55393 0 61 1.55393 0
gene 1 25 7 0.365459 0 62 0.365459 1
gene 1 3 49 -1.4423 0 143 -1.4423 1
gene 1 49 25 0.380947 0 144 0.380947 1
gene 3 2 16 -2.13324 0 160 -2.13324 1
gene 1 25 4 1.35571 0 201 1.35571 1
genomeend 111

/* Organism #112 Fitness: 4 Error: 2 */
genomestart 112
trait 1 0.1 0 0 0 0 0 0 0 
trait 2 0.2 0 0 0 0 0 0 0 
trait 3 0.3 0.120182 0 0 0 0.886349 0 0 
node 1 1 1 3
node 2 1 1 1
node 3 2 1 1
node 4 1 0 2
node 7 1 0 0
node 16 3 0 0
node 25 1 0 0
node 49 1 0 0
gene 3 1 4 -8 0 1 -8 1
gene 3 2 4 -5.15728 0 2 -5.15728 1
gene 3 3 4 8 0 3 8 1
gene 1 3 7 -4.17051 0 8 -4.17051 0
gene 3 7 4 5.52096 0 9 5.52096 0
gene 3 7 16 0.145539 0 32 0.145539 1
gene 3 16 4 8 0 33 8 1
gene 1 3 25 0.123218 0 61 0.123218 0
gene 1 25 7 -0.390942 0 62 -0.390942 1
gene 1 3 49 1.85415 0 143 1.85415 1
gene 1 49 25 0.296793 0 144 0.296793 1
gene 3 2 16 0.653401 0 160 0.653401 1
gene 1 25 4 0.89259 0 201 0.89259 1
genomeend 112

/* Organism #113 Fitness: 9 Error: 1 */
genomestart 113
trait 1 0.1 0 0 0 0 0 0 0 
trait 2 0.2 0 0 0 0 0 0 0 
trait 3 0.3 0.120182 0 0 0 0.886349 0 0 
node 1 1 1 3
node 2 1 1 1
node 3 2 1 1
node 4 1 0 2
node 7 1 0 0
node 16 3 0 0
node 25 1 0 0
node 49 1 0 0
gene 3 1 4 -8 0 1 -8 1
gene 3 2 4 -5.15728 0 2 -5.15728 1
gene 3 3 4 8 0 3 8 1
gene 1 3 7 -2.04566 0 8 -2.04566 0
gene 3 7 4 3.07345 0 9 3.07345 0
gene 3 7 16 0.10411 0 32 0.10411 1
gene 3 16 4 7.18273 0 33 7.18273 1
gene 1 3 25 0.70307 0 61 0.70307 0
gene 1 25 7 0.365459 0 62 0.365459 1
gene 1 3 49 0.560457 0 143 0.560457 1
gene 1 49 25 -2.02116 0 144 -2.02116 1
gene 3 2 16 -1.10866 0 160 -1.10866 1
gene 1 25 4 0.92906 0 201 0.92906 1
genomeend 113

/* Species #20 : (Size 6) (AF 6.12547) (Age 17)  */


/* Organism #114 Fitness: 9 Error: 1 */
genomestart 114
trait 1 0.05 0 0.22132 0 0.418683 0.145451 0 0 
trait 2 0.2 0 0 0 0 0 0 0 
trait 3 0.234375 0 0 0.0510441 0 0.149928 0.0275258 0.179168 
node 1 2 1 3
node 2 2 1 1
node 3 3 1 1
node 4 3 0 2
node 10 1 0 0
node 47 1 0 0
node 54 1 0 0
node 58 1 0 0
gene 2 1 4 -5.55428 0 1 -5.55428 1
gene 2 2 4 5.50259 0 2 5.50259 1
gene 3 3 4 -5.89315 0 3 -5.89315 1
gene 2 2 10 5.85902 0 16 5.85902 1
gene 2 10 4 8 0 17 8 0
gene 2 1 10 -6.12481 0 28 -6.12481 1
gene 2 10 47 3.53311 0 137 3.53311 1
gene 2 47 4 8 0 138 8 1
gene 2 3 47 -3.28263 0 166 -3.28263 1
gene 2 2 54 2.95822 0 172 2.95822 1
gene 2 54 10 2.04932 0 173 2.04932 1
gene 3 3 58 1.23997 0 183 1.23997 1
gene 2 58 4 -7.50537 0 184 -7.50537 1
genomeend 114

/* Organism #115 Fitness: 4 Error: 2 */
genomestart 115
trait 1 0.470804 0 0.382412 0 0.418683 0.479843 0 0 
trait 2 0.2 0 0 0 0 0 0 0 
trait 3 0.234375 0 0 0.0510441 0 0.149928 0.0275258 0.179168 
node 1 2 1 3
node 2 2 1 1
node 3 3 1 1
node 4 3 0 2
node 10 3 0 0
node 47 1 0 0
node 54 1 0 0
node 58 1 0 0
gene 2 1 4 -3.83883 0 1 -3.83883 1
gene 2 2 4 0.391095 0 2 0.391095 1
gene 3 3 4 -8 0 3 -8 1
gene 2 2 10 -1.44337 0 16 -1.44337 1
gene 2 10 4 8 0 17 8 1
gene 2 1 10 -1.9895 0 28 -1.9895 1
gene 2 10 47 0.964843 0 137 0.964843 1
gene 2 47 4 8 0 138 8 1
gene 2 3 47 1.00375 0 166 1.00375 1
gene 3 2 54 2.39387 0 172 2.39387 1
gene 2 54 10 1.39859 0 173 1.39859 1
gene 1 3 58 -0.652333 0 183 -0.652333 1
gene 3 58 4 -7.33897 0 184 -7.33897 1
gene 1 3 10 -1.94578 0 340 -1.94578 1
genomeend 115

/* Organism #116 Fitness: 7.41982 Error: 1.27607 */
genomestart 116
trait 1 0.260402 0 0.301866 0 0.418683 0.312647 0 0 
trait 2 0.2 0 0 0 0 0 0 0 
trait 3 0.234375 0 0 0.0510441 0 0.149928 0.0275258 0.179168 
node 1 2 1 3
node 2 2 1 1
node 3 3 1 1
node 4 3 0 2
node 10 3 0 0
node 47 1 0 0
node 54 1 0 0
node 58 1 0 0
gene 2 1 4 -5.55428 0 1 -5.55428 1
gene 2 2 4 5.50259 0 2 5.50259 1
gene 3 3 4 -5.89315 0 3 -5.89315 1
gene 2 2 10 -0.80958 0 16 -0.80958 1
gene 2 10 4 8 0 17 8 0
gene 2 1 10 -3.40348 0 28 -3.40348 1
gene 2 10 47 3.53311 0 137 3.53311 1
gene 2 47 4 8 0 138 8 1
gene 2 3 47 -1.64318 0 166 -1.64318 1
gene 2 2 54 0.328135 0 172 0.328135 1
gene 2 54 10 2.04932 0 173 2.04932 1
gene 1 3 58 -4.68879 0 183 -4.68879 1
gene 2 58 4 -7.50537 0 184 -7.50537 1
genomeend 116

/* Organism #117 Fitness: 4.18767 Error: 1.95362 */
genomestart 117
trait 1 0.260402 0 0.301866 0 0.418683 0.312647 0 0 
trait 2 0.2 0 0 0 0 0 0 0 
trait 3 0.234375 0 0 0.0510441 0 0.149928 0.0275258 0.179168 
node 1 2 1 3
node 2 2 1 1
node 3 3 1 1
node 4 3 0 2
node 10 3 0 0
node 47 1 0 0
node 54 1 0 0
node 58 1 0 0
gene 2 1 4 -1.41208 0 1 -1.41208 1
gene 2 2 4 8 0 2 8 1
gene 3 3 4 -7.64476 0 3 -7.64476 1
gene 2 2 10 -1.91855 0 16 -1.91855 1
gene 2 10 4 6.48277 0 17 6.48277 0
gene 2 1 10 -2.7899 0 28 -2.7899 1
gene 2 10 47 2.49022 0 137 2.49022 1
gene 2 47 4 8 0 138 8 1
gene 2 3 47 -4.96443 0 166 -4.96443 1
gene 2 2 54 1.09301 0 172 1.09301 1
gene 2 54 10 4.38826 0 173 4.38826 1
gene 1 3 58 -4.04805 0 183 -4.04805 1
gene 3 58 4 -6.39671 0 184 -6.39671 1
genomeend 117

/* Organism #118 Fitness: 3.99994 Error: 2.00001 */
genomestart 118
trait 1 0.470804 0 0.382412 0 0.418683 0.479843 0 0 
trait 2 0.2 0 0 0 0 0 0 0 
trait 3 0.234375 0 0 0.0510441 0 0.149928 0.0275258 0.179168 
node 1 2 1 3
node 2 2 1 1
node 3 3 1 1
node 4 3 0 2
node 10 3 0 0
node 47 1 0 0
node 54 1 0 0
node 58 1 0 0
gene 2 1 4 -3.83883 0 1 -3.83883 1
gene 2 2 4 6.06612 0 2 6.06612 1
gene 3 3 4 0.277642 0 3 0.277642 1
gene 2 2 10 -2.69799 0 16 -2.69799 1
gene 2 10 4 8 0 17 8 1
gene 2 1 10 -3.72011 0 28 -3.72011 1
gene 2 10 47 -8 0 137 -8 1
gene 2 47 4 8 0 138 8 1
gene 2 3 47 -2.35626 0 166 -2.35626 1
gene 2 2 54 2.69996 0 172 2.69996 1
gene 2 54 10 2.18826 0 173 2.18826 1
gene 1 3 58 -2.09082 0 183 -2.09082 1
gene 3 58 4 -4.74139 0 184 -4.74139 1
gene 1 3 10 0.426344 0 340 0.426344 1
genomeend 118

/* Organism #119 Fitness: 8.14541 Error: 1.14598 */
genomestart 119
trait 1 0.470804 0 0.755135 0.431806 0.333415 0.479843 0 0 
trait 2 0.2 0 0 0 0 0 0 0 
trait 3 0.234375 0 0 0.0510441 0 0.149928 0.0275258 0.179168 
node 1 2 1 3
node 2 2 1 1
node 3 3 1 1
node 4 3 0 2
node 10 3 0 0
node 47 1 0 0
node 54 1 0 0
node 58 1 0 0
gene 2 1 4 -5.63691 0 1 -5.63691 1
gene 2 2 4 8 0 2 8 1
gene 3 3 4 -1.6554 0 3 -1.6554 1
gene 2 2 10 0.892743 0 16 0.892743 1
gene 2 10 4 8 0 17 8 1
gene 2 1 10 -4.27821 0 28 -4.27821 1
gene 2 10 47 -5.60068 0 137 -5.60068 1
gene 2 47 4 6.21284 0 138 6.21284 1
gene 2 3 47 0.180609 0 166 0.180609 1
gene 2 2 54 1.70505 0 172 1.70505 1
gene 2 54 10 -0.0254028 0 173 -0.0254028 1
gene 1 3 58 0.3605 0 183 0.3605 1
gene 3 58 4 -6.39671 0 184 -6.39671 1
gene 1 3 10 -1.20051 0 340 -1.20051 1
genomeend 119

/* Species #21 : (Size 8) (AF 7.53122) (Age 16)  */


/* Organism #120 Fitness: 8.99982 Error: 1.00003 */
genomestart 120
trait 1 0.1 0.418699 0.463836 0 0 0 0 0.191427 
trait 2 0.1 0 0 0 0.366924 0 0 0 
trait 3 0.3 0.120182 0 0 0 0.886349 0 0 
node 1 1 1 3
node 2 1 1 1
node 3 2 1 1
node 4 1 0 2
node 7 1 0 0
node 16 3 0 0
node 25 1 0 0
node 49 1 0 0
gene 2 1 4 -2.11222 0 1 -2.11222 1
gene 3 2 4 1.24912 0 2 1.24912 1
gene 3 3 4 -4.52582 0 3 -4.52582 1
gene 1 3 7 1.6636 0 8 1.6636 1
gene 3 7 4 -0.437254 0 9 -0.437254 0
gene 3 7 16 -4.91819 0 32 -4.91819 1
gene 3 16 4 8 0 33 8 1
gene 1 3 25 1.83817 0 61 1.83817 1
gene 1 25 7 -3.60931 0 62 -3.60931 1
gene 1 3 49 6.83859 0 143 6.83859 1
gene 1 49 25 -1.7589 0 144 -1.7589 1
gene 2 2 49 -2.5157 0 159 -2.5157 1
gene 1 49 7 4.35493 0 219 4.35493 1
genomeend 120

/* Organism #121 Fitness: 8.60212 Error: 1.06706 */
genomestart 121
trait 1 0.1 0.418699 0.463836 0 0 0 0 0.191427 
trait 2 0.1 0 0 0 0.366924 0 0 0 
trait 3 0.3 0.120182 0 0 0 0.886349 0 0 
node 1 1 1 3
node 2 1 1 1
node 3 2 1 1
node 4 1 0 2
node 7 1 0 0
node 16 3 0 0
node 25 1 0 0
node 49 1 0 0
gene 2 1 4 -3.9856 0 1 -3.9856 1
gene 3 2 4 0.530717 0 2 0.530717 1
gene 3 3 4 -3.8773 0 3 -3.8773 1
gene 1 3 7 -0.501074 0 8 -0.501074 1
gene 3 7 4 0.0702689 0 9 0.0702689 0
gene 3 7 16 -1.63038 0 32 -1.63038 1
gene 3 16 4 8 0 33 8 1
gene 1 3 25 -0.305948 0 61 -0.305948 1
gene 1 25 7 -2.9788 0 62 -2.9788 1
gene 1 3 49 4.87766 0 143 4.87766 1
gene 1 49 25 -1.15341 0 144 -1.15341 1
gene 2 2 49 -3.87191 0 159 -3.87191 1
gene 1 49 7 4.93455 0 219 4.93455 1
genomeend 121

/* Organism #122 Fitness: 7.81012 Error: 1.20534 */
genomestart 122
trait 1 0.1 0.418699 0.463836 0 0 0 0 0.191427 
trait 2 0.1 0 0 0 0.366924 0 0 0 
trait 3 0.3 0.120182 0 0 0 0.886349 0 0 
node 1 1 1 3
node 2 1 1 1
node 3 2 1 1
node 4 1 0 2
node 7 1 0 0
node 16 3 0 0
node 25 1 0 0
node 49 1 0 0
gene 2 1 4 -1.51696 0 1 -1.51696 1
gene 3 2 4 3.35833 0 2 3.35833 1
gene 3 3 4 -5.05295 0 3 -5.05295 1
gene 1 3 7 -1.6343 0 8 -1.6343 1
gene 3 7 4 2.44835 0 9 2.44835 0
gene 3 7 16 -5.10916 0 32 -5.10916 1
gene 3 16 4 5.87225 0 33 5.87225 1
gene 1 3 25 2.12939 0 61 2.12939 1
gene 1 25 7 -1.12785 0 62 -1.12785 1
gene 1 3 49 3.34998 0 143 3.34998 1
gene 1 49 25 -3.80493 0 144 -3.80493 1
gene 2 2 49 -3.9952 0 159 -3.9952 1
gene 1 49 7 2.06452 0 219 2.06452 1
genomeend 122

/* Organism #123 Fitness: 3.99914 Error: 2.00022 */
genomestart 123
trait 1 0.1 0.418699 0.463836 0 0 0 0 0.191427 
trait 2 0.1 0 0 0 0.366924 0 0 0 
trait 3 0.3 0.120182 0 0 0 0.886349 0 0 
node 1 1 1 3
node 2 1 1 1
node 3 2 1 1
node 4 1 0 2
node 7 1 0 0
node 16 3 0 0
node 25 1 0 0
node 49 1 0 0
gene 2 1 4 -0.907048 0 1 -0.907048 1
gene 3 2 4 0.529496 0 2 0.529496 1
gene 3 3 4 -5.32006 0 3 -5.32006 1
gene 1 3 7 3.89809 0 8 3.89809 1
gene 3 7 4 0.813089 0 9 0.813089 1
gene 3 7 16 -3.65251 0 32 -3.65251 1
gene 3 16 4 8 0 33 8 1
gene 1 3 25 3.83866 0 61 3.83866 1
gene 1 25 7 -3.76297 0 62 -3.76297 1
gene 1 3 49 5.08591 0 143 5.08591 1
gene 1 49 25 0.690825 0 144 0.690825 1
gene 2 2 49 0.524232 0 159 0.524232 1
gene 1 49 7 -2.28576 0 219 -2.28576 1
genomeend 123

/* Organism #124 Fitness: 8.99975 Error: 1.00004 */
genomestart 124
trait 1 0.1 0.418699 0.463836 0 0 0 0 0.191427 
trait 2 0.1 0 0 0 0.366924 0 0 0 
trait 3 0.3 0.120182 0 0 0 0.886349 0 0 
node 1 1 1 3
node 2 1 1 1
node 3 2 1 1
node 4 1 0 2
node 7 1 0 0
node 16 3 0 0
node 25 1 0 0
node 49 1 0 0
gene 2 1 4 -2.04928 0 1 -2.04928 1
gene 3 2 4 1.54149 0 2 1.54149 1
gene 3 3 4 -3.86525 0 3 -3.86525 1
gene 1 3 7 0.823887 0 8 0.823887 1
gene 3 7 4 -0.437254 0 9 -0.437254 0
gene 3 7 16 -3.99172 0 32 -3.99172 1
gene 3 16 4 8 0 33 8 1
gene 1 3 25 1.83817 0 61 1.83817 1
gene 1 25 7 -2.91906 0 62 -2.91906 1
gene 1 3 49 6.83859 0 143 6.83859 1
gene 1 49 25 -1.15341 0 144 -1.15341 1
gene 2 2 49 -2.5157 0 159 -2.5157 1
gene 1 49 7 3.25825 0 219 3.25825 1
genomeend 124

/* Organism #125 Fitness: 8.99979 Error: 1.00004 */
genomestart 125
trait 1 0.1 0.418699 0.463836 0 0 0 0 0.191427 
trait 2 0.1 0 0 0 0.366924 0 0 0 
trait 3 0.3 0.120182 0 0 0 0.886349 0 0 
node 1 1 1 3
node 2 1 1 1
node 3 2 1 1
node 4 1 0 2
node 7 1 0 0
node 16 3 0 0
node 25 1 0 0
node 49 1 0 0
gene 2 1 4 -2.08075 0 1 -2.08075 1
gene 3 2 4 1.39531 0 2 1.39531 1
gene 3 3 4 -4.19553 0 3 -4.19553 1
gene 1 3 7 1.24375 0 8 1.24375 1
gene 3 7 4 -0.183493 0 9 -0.183493 0
gene 3 7 16 -4.45495 0 32 -4.45495 1
gene 3 16 4 8 0 33 8 1
gene 1 3 25 1.66313 0 61 1.66313 1
gene 1 25 7 -3.26418 0 62 -3.26418 1
gene 1 3 49 6.24735 0 143 6.24735 1
gene 1 49 25 -1.45615 0 144 -1.45615 1
gene 2 2 49 -2.5034 0 159 -2.5034 1
gene 1 49 7 3.80659 0 219 3.80659 1
genomeend 125

/* Organism #126 Fitness: 3.96417 Error: 2.00898 */
genomestart 126
trait 1 0.1 0.418699 0.463836 0 0 0 0 0.191427 
trait 2 0.1 0 0 0 0.366924 0 0 0 
trait 3 0.3 0.120182 0 0 0 0.886349 0 0 
node 1 1 1 3
node 2 1 1 1
node 3 2 1 1
node 4 1 0 2
node 7 1 0 0
node 16 3 0 0
node 25 1 0 0
node 49 1 0 0
gene 2 1 4 -1.6517 0 1 -1.6517 1
gene 3 2 4 0.689566 0 2 0.689566 1
gene 3 3 4 -4.06186 0 3 -4.06186 1
gene 1 3 7 0.62155 0 8 0.62155 1
gene 3 7 4 1.25172 0 9 1.25172 0
gene 3 7 16 2.20298 0 32 2.20298 1
gene 3 16 4 8 0 33 8 1
gene 1 3 25 3.01008 0 61 3.01008 1
gene 1 25 7 -2.95385 0 62 -2.95385 1
gene 1 3 49 5.66881 0 143 5.66881 1
gene 1 49 25 -0.05047 0 144 -0.05047 1
gene 2 2 49 -2.5157 0 159 -2.5157 1
gene 1 49 7 1.18427 0 219 1.18427 1
genomeend 126

/* Organism #127 Fitness: 8.87487 Error: 1.02093 */
genomestart 127
trait 1 0.1 0.418699 0.463836 0 0 0 0 0.191427 
trait 2 0.1 0 0 0 0.366924 0 0 0 
trait 3 0.3 0.120182 0 0 0 0.886349 0 0 
node 1 1 1 3
node 2 1 1 1
node 3 2 1 1
node 4 1 0 2
node 7 1 0 0
node 16 3 0 0
node 25 1 0 0
node 49 1 0 0
gene 2 1 4 -0.781007 0 1 -0.781007 1
gene 3 2 4 -0.8034 0 2 -0.8034 1
gene 3 3 4 -4.52582 0 3 -4.52582 1
gene 1 3 7 1.19957 0 8 1.19957 1
gene 3 7 4 0.156178 0 9 0.156178 0
gene 3 7 16 -4.71799 0 32 -4.71799 1
gene 3 16 4 8 0 33 8 1
gene 1 3 25 -0.892514 0 61 -0.892514 1
gene 1 25 7 -3.24797 0 62 -3.24797 1
gene 1 3 49 7.80412 0 143 7.80412 1
gene 1 49 25 -1.55206 0 144 -1.55206 1
gene 2 2 49 -1.57268 0 159 -1.57268 1
gene 1 49 7 3.76661 0 219 3.76661 1
genomeend 127

/* Species #22 : (Size 4) (AF 5.14435) (Age 13)  */


/* Organism #128 Fitness: 3.99998 Error: 2.00001 */
genomestart 128
trait 1 0.1 0 0 0 0 0 0 0 
trait 2 0.2 0 0 0 0 0 0 0 
trait 3 0 0 0.0758003 0 0 0.17494 0.301431 0 
node 1 1 1 3
node 2 1 1 1
node 3 2 1 1
node 4 1 0 2
node 7 1 0 0
node 39 1 0 0
node 67 1 0 0
node 108 1 0 0
gene 3 1 4 -2.0951 0 1 -2.0951 1
gene 3 2 4 5.12113 0 2 5.12113 1
gene 3 3 4 2.02543 0 3 2.02543 0
gene 1 3 7 -0.583209 0 8 -0.583209 1
gene 3 7 4 3.10325 0 9 3.10325 0
gene 3 2 7 -3.66607 0 34 -3.66607 0
gene 3 2 39 0.159154 0 114 0.159154 0
gene 3 39 7 2.12493 0 115 2.12493 1
gene 3 1 7 -0.0380718 0 195 -0.0380718 1
gene 3 7 67 -3.40131 0 208 -3.40131 1
gene 3 67 4 -0.0417341 0 209 -0.0417341 1
gene 3 3 67 3.38084 0 245 3.38084 1
gene 3 2 108 2.46252 0 342 2.46252 1
gene 3 108 39 -0.261448 0 343 -0.261448 1
genomeend 128

/* Organism #129 Fitness: 6.40133 Error: 1.46992 */
genomestart 129
trait 1 0.1 0 0 0 0 0 0 0 
trait 2 0.2 0 0 0 0 0 0 0 
trait 3 0 0 0.0758003 0 0 0.17494 0.301431 0 
node 1 1 1 3
node 2 1 1 1
node 3 2 1 1
node 4 1 0 2
node 7 1 0 0
node 39 1 0 0
node 67 1 0 0
node 108 1 0 0
gene 3 1 4 -2.38235 0 1 -2.38235 1
gene 3 2 4 7.79738 0 2 7.79738 1
gene 3 3 4 0.0553053 0 3 0.0553053 0
gene 1 3 7 -0.730308 0 8 -0.730308 1
gene 3 7 4 3.44056 0 9 3.44056 0
gene 3 2 7 -0.576609 0 34 -0.576609 0
gene 3 2 39 -5.26976 0 114 -5.26976 0
gene 3 39 7 -5.79709 0 115 -5.79709 1
gene 3 1 7 -0.622955 0 195 -0.622955 1
gene 3 7 67 -3.03508 0 208 -3.03508 1
gene 3 67 4 2.4078 0 209 2.4078 1
gene 3 3 67 4.46715 0 245 4.46715 1
gene 3 2 108 2.36914 0 342 2.36914 1
gene 3 108 39 -1.45373 0 343 -1.45373 1
genomeend 129

/* Organism #130 Fitness: 5.51309 Error: 1.652 */
genomestart 130
trait 1 0.1 0 0 0 0 0 0 0 
trait 2 0.2 0 0 0 0 0 0 0 
trait 3 0 0 0.0758003 0 0 0.17494 0.301431 0 
node 1 1 1 3
node 2 1 1 1
node 3 2 1 1
node 4 1 0 2
node 7 1 0 0
node 39 1 0 0
node 67 1 0 0
node 108 1 0 0
gene 3 1 4 -2.0951 0 1 -2.0951 1
gene 3 2 4 6.52063 0 2 6.52063 1
gene 3 3 4 1.49471 0 3 1.49471 0
gene 1 3 7 -0.583209 0 8 -0.583209 1
gene 3 7 4 2.53034 0 9 2.53034 0
gene 3 2 7 -2.49409 0 34 -2.49409 0
gene 3 2 39 -4.25541 0 114 -4.25541 0
gene 3 39 7 -5.59902 0 115 -5.59902 1
gene 3 1 7 0.33441 0 195 0.33441 1
gene 3 7 67 -2.5004 0 208 -2.5004 1
gene 3 67 4 1.96795 0 209 1.96795 1
gene 3 3 67 2.17444 0 245 2.17444 1
gene 3 2 108 0.231468 0 342 0.231468 1
gene 3 108 39 -1.69628 0 343 -1.69628 1
genomeend 130

/* Organism #131 Fitness: 4.66302 Error: 1.8406 */
genomestart 131
trait 1 0.1 0 0 0 0 0 0 0 
trait 2 0.2 0 0 0 0 0 0 0 
trait 3 0 0 0.0758003 0 0 0.17494 0.301431 0 
node 1 1 1 3
node 2 1 1 1
node 3 2 1 1
node 4 1 0 2
node 7 1 0 0
node 39 1 0 0
node 67 1 0 0
node 108 1 0 0
gene 3 1 4 -3.98274 0 1 -3.98274 1
gene 3 2 4 6.52559 0 2 6.52559 1
gene 3 3 4 0.809036 0 3 0.809036 0
gene 1 3 7 -2.82456 0 8 -2.82456 1
gene 3 7 4 1.36843 0 9 1.36843 0
gene 3 2 7 -1.35109 0 34 -1.35109 0
gene 3 2 39 -3.69982 0 114 -3.69982 0
gene 3 39 7 -6.84807 0 115 -6.84807 1
gene 3 1 7 0.661798 0 195 0.661798 1
gene 3 7 67 -2.79033 0 208 -2.79033 1
gene 3 67 4 3.64509 0 209 3.64509 1
gene 3 3 67 3.28555 0 245 3.28555 1
gene 3 2 108 -1.62108 0 342 -1.62108 1
gene 3 108 39 -2.02641 0 343 -2.02641 1
genomeend 131

/* Species #23 : (Size 9) (AF 7.33783) (Age 6)  */


/* Organism #132 Fitness: 8.99998 Error: 1 */
genomestart 132
trait 1 0.05 0 0.22132 0 0.418683 0.145451 0 0 
trait 2 0.2 0 0 0 0 0 0 0 
trait 3 0.234375 0 0 0.0510441 0 0.149928 0.0275258 0.179168 
node 1 2 1 3
node 2 2 1 1
node 3 3 1 1
node 4 3 0 2
node 10 1 0 0
node 47 1 0 0
node 96 1 0 0
gene 1 1 4 -2.8263 0 1 -2.8263 1
gene 2 2 4 7.17273 0 2 7.17273 1
gene 3 3 4 -6.64082 0 3 -6.64082 1
gene 2 2 10 3.22748 0 16 3.22748 1
gene 2 10 4 7.33439 0 17 7.33439 1
gene 2 1 10 -3.911 0 28 -3.911 1
gene 2 10 47 -6.40316 0 137 -6.40316 0
gene 2 47 4 8 0 138 8 1
gene 2 3 47 1.17763 0 166 1.17763 1
gene 2 10 96 2.05466 0 302 2.05466 1
gene 2 96 47 -4.89799 0 303 -4.89799 1
gene 2 96 4 -0.97589 0 352 -0.97589 1
genomeend 132

/* Organism #133 Fitness: 8.99999 Error: 1 */
genomestart 133
trait 1 0.05 0 0.22132 0 0.418683 0.145451 0 0 
trait 2 0.2 0 0 0 0 0 0 0 
trait 3 0.234375 0 0 0.0510441 0 0.149928 0.0275258 0.179168 
node 1 2 1 3
node 2 2 1 1
node 3 3 1 1
node 4 3 0 2
node 10 1 0 0
node 47 1 0 0
node 96 1 0 0
gene 1 1 4 -2.8263 0 1 -2.8263 1
gene 2 2 4 7.17273 0 2 7.17273 1
gene 3 3 4 -6.64082 0 3 -6.64082 1
gene 2 2 10 3.22748 0 16 3.22748 1
gene 2 10 4 7.33439 0 17 7.33439 0
gene 2 1 10 -3.911 0 28 -3.911 1
gene 2 10 47 -6.40316 0 137 -6.40316 0
gene 2 47 4 8 0 138 8 1
gene 2 3 47 1.17763 0 166 1.17763 1
gene 2 10 96 2.05466 0 302 2.05466 1
gene 2 96 47 -4.89799 0 303 -4.89799 1
gene 2 96 4 -0.97589 0 352 -0.97589 1
genomeend 133

/* Organism #134 Fitness: 4.01794 Error: 1.99552 */
genomestart 134
trait 1 0.05 0 0.22132 0 0.418683 0.145451 0 0 
trait 2 0.2 0 0 0 0 0 0 0 
trait 3 0.234375 0 0 0.0510441 0 0.149928 0.0275258 0.179168 
node 1 2 1 3
node 2 2 1 1
node 3 3 1 1
node 4 3 0 2
node 10 1 0 0
node 47 1 0 0
node 96 1 0 0
gene 1 1 4 -1.97737 0 1 -1.97737 1
gene 2 2 4 -0.548418 0 2 -0.548418 1
gene 3 3 4 -5.53117 0 3 -5.53117 1
gene 2 2 10 1.91488 0 16 1.91488 1
gene 2 10 4 -0.27192 0 17 -0.27192 1
gene 2 1 10 -2.1822 0 28 -2.1822 1
gene 2 10 47 -8 0 137 -8 0
gene 2 47 4 8 0 138 8 1
gene 2 3 47 2.29354 0 166 2.29354 1
gene 2 10 96 1.86758 0 302 1.86758 1
gene 2 96 47 -3.54258 0 303 -3.54258 1
gene 2 96 4 -2.04083 0 352 -2.04083 1
genomeend 134

/* Organism #135 Fitness: 8.99973 Error: 1.00005 */
genomestart 135
trait 1 0.05 0 0.22132 0 0.418683 0.145451 0 0 
trait 2 0.2 0 0 0 0 0 0 0 
trait 3 0.234375 0 0 0.0510441 0 0.149928 0.0275258 0.179168 
node 1 2 1 3
node 2 2 1 1
node 3 3 1 1
node 4 3 0 2
node 10 1 0 0
node 47 1 0 0
node 96 1 0 0
gene 1 1 4 -3.78588 0 1 -3.78588 1
gene 2 2 4 6.53673 0 2 6.53673 1
gene 3 3 4 -7.84523 0 3 -7.84523 1
gene 2 2 10 2.4086 0 16 2.4086 1
gene 2 10 4 8 0 17 8 0
gene 2 1 10 -2.36524 0 28 -2.36524 1
gene 2 10 47 -6.17221 0 137 -6.17221 0
gene 2 47 4 2.05733 0 138 2.05733 1
gene 2 3 47 -1.18122 0 166 -1.18122 1
gene 2 10 96 0.377285 0 302 0.377285 1
gene 2 96 47 -2.77283 0 303 -2.77283 1
gene 2 96 4 -0.97589 0 352 -0.97589 1
genomeend 135

/* Organism #136 Fitness: 9.02273 Error: 0.996215 */
genomestart 136
trait 1 0.05 0 0.22132 0 0.418683 0.145451 0 0 
trait 2 0.2 0 0 0 0 0 0 0 
trait 3 0.234375 0 0 0.0510441 0 0.149928 0.0275258 0.179168 
node 1 2 1 3
node 2 2 1 1
node 3 3 1 1
node 4 3 0 2
node 10 1 0 0
node 47 1 0 0
node 96 1 0 0
gene 1 1 4 -3.59911 0 1 -3.59911 1
gene 2 2 4 5.85715 0 2 5.85715 1
gene 3 3 4 -6.11499 0 3 -6.11499 1
gene 2 2 10 4.5938 0 16 4.5938 1
gene 2 10 4 5.50084 0 17 5.50084 0
gene 2 1 10 -3.6448 0 28 -3.6448 1
gene 2 10 47 -7.94007 0 137 -7.94007 0
gene 2 47 4 8 0 138 8 1
gene 2 3 47 3.63994 0 166 3.63994 1
gene 2 10 96 1.61306 0 302 1.61306 1
gene 2 96 47 -4.89799 0 303 -4.89799 1
gene 2 96 4 1.21038 0 352 1.21038 1
genomeend 136

/* Organism #137 Fitness: 8.99999 Error: 1 */
genomestart 137
trait 1 0.05 0 0.22132 0 0.418683 0.145451 0 0 
trait 2 0.2 0 0 0 0 0 0 0 
trait 3 0.234375 0 0 0.0510441 0 0.149928 0.0275258 0.179168 
node 1 2 1 3
node 2 2 1 1
node 3 3 1 1
node 4 3 0 2
node 10 1 0 0
node 47 1 0 0
node 96 1 0 0
gene 1 1 4 -2.8263 0 1 -2.8263 1
gene 2 2 4 7.17273 0 2 7.17273 1
gene 3 3 4 -6.64082 0 3 -6.64082 1
gene 2 2 10 3.22748 0 16 3.22748 1
gene 2 10 4 7.33439 0 17 7.33439 0
gene 2 1 10 -3.911 0 28 -3.911 1
gene 2 10 47 -6.40316 0 137 -6.40316 0
gene 2 47 4 8 0 138 8 1
gene 2 3 47 1.17763 0 166 1.17763 1
gene 2 10 96 2.05466 0 302 2.05466 1
gene 2 96 47 -4.89799 0 303 -4.89799 1
gene 2 96 4 -0.97589 0 352 -0.97589 1
genomeend 137

/* Organism #138 Fitness: 4.00012 Error: 1.99997 */
genomestart 138
trait 1 0.05 0 0.22132 0 0.418683 0.145451 0 0 
trait 2 0.2 0 0 0 0 0 0 0 
trait 3 0.234375 0 0 0.0510441 0 0.149928 0.0275258 0.179168 
node 1 2 1 3
node 2 2 1 1
node 3 3 1 1
node 4 3 0 2
node 10 1 0 0
node 47 1 0 0
node 96 1 0 0
gene 1 1 4 -2.95662 0 1 -2.95662 1
gene 2 2 4 0.863674 0 2 0.863674 1
gene 3 3 4 -0.479522 0 3 -0.479522 1
gene 2 2 10 3.82206 0 16 3.82206 1
gene 2 10 4 -0.0530259 0 17 -0.0530259 0
gene 2 1 10 0.132145 0 28 0.132145 1
gene 2 10 47 -4.906 0 137 -4.906 0
gene 2 47 4 6.68641 0 138 6.68641 1
gene 2 3 47 0.485851 0 166 0.485851 1
gene 2 10 96 2.82548 0 302 2.82548 1
gene 2 96 47 -3.86761 0 303 -3.86761 1
genomeend 138

/* Organism #139 Fitness: 3.99996 Error: 2.00001 */
genomestart 139
trait 1 0.05 0 0.22132 0 0.418683 0.145451 0 0 
trait 2 0.2 0 0 0 0 0 0 0 
trait 3 0.234375 0 0 0.0510441 0 0.149928 0.0275258 0.179168 
node 1 2 1 3
node 2 2 1 1
node 3 3 1 1
node 4 3 0 2
node 10 1 0 0
node 47 1 0 0
node 96 1 0 0
gene 1 1 4 -2.8263 0 1 -2.8263 1
gene 2 2 4 6.90661 0 2 6.90661 1
gene 3 3 4 -8 0 3 -8 1
gene 2 2 10 4.54146 0 16 4.54146 1
gene 2 10 4 8 0 17 8 1
gene 2 1 10 -3.58926 0 28 -3.58926 1
gene 2 10 47 -6.40316 0 137 -6.40316 0
gene 2 47 4 7.46623 0 138 7.46623 1
gene 2 3 47 2.77512 0 166 2.77512 1
gene 2 10 96 4.50972 0 302 4.50972 1
gene 2 96 47 -7.34153 0 303 -7.34153 1
gene 2 96 4 0.981414 0 352 0.981414 1
genomeend 139

/* Organism #140 Fitness: 8.99999 Error: 1 */
genomestart 140
trait 1 0.05 0 0.535783 0.546861 0.418683 0.145451 0 0 
trait 2 0.2 0 0 0 0 0 0 0 
trait 3 0.234375 0 0 0.0510441 0 0.149928 0.0275258 0.179168 
node 1 2 1 3
node 2 2 1 1
node 3 3 1 1
node 4 3 0 2
node 10 1 0 0
node 47 1 0 0
node 96 1 0 0
gene 1 1 4 -4.61995 0 1 -4.61995 1
gene 2 2 4 8 0 2 8 1
gene 3 3 4 -6.49372 0 3 -6.49372 1
gene 2 2 10 3.8921 0 16 3.8921 1
gene 2 10 4 5.00339 0 17 5.00339 0
gene 2 1 10 -5.53367 0 28 -5.53367 1
gene 2 10 47 -8 0 137 -8 0
gene 2 47 4 5.56973 0 138 5.56973 1
gene 2 3 47 -1.07921 0 166 -1.07921 1
gene 2 10 96 2.99959 0 302 2.99959 1
gene 2 96 47 -7.31215 0 303 -7.31215 1
gene 2 96 4 -1.38157 0 352 -1.38157 1
genomeend 140

/* Species #24 : (Size 4) (AF 5.18778) (Age 4)  */


/* Organism #141 Fitness: 4.24352 Error: 1.94002 */
genomestart 141
trait 1 0.1 0.418699 0.463836 0 0 0 0 0.191427 
trait 2 0.1 0 0 0 0.366924 0 0 0 
trait 3 0.3 0.120182 0 0 0 0.886349 0 0 
node 1 1 1 3
node 2 1 1 1
node 3 2 1 1
node 4 1 0 2
node 7 1 0 0
node 16 3 0 0
node 25 1 0 0
node 49 1 0 0
node 105 1 0 0
gene 2 1 4 -1.68916 0 1 -1.68916 1
gene 3 2 4 2.13729 0 2 2.13729 1
gene 3 3 4 -2.01056 0 3 -2.01056 0
gene 1 3 7 2.31212 0 8 2.31212 0
gene 3 7 4 -0.595035 0 9 -0.595035 0
gene 3 7 16 -3.29674 0 32 -3.29674 1
gene 3 16 4 7.27131 0 33 7.27131 1
gene 1 3 25 0.229461 0 61 0.229461 0
gene 2 25 7 -2.15136 0 62 -2.15136 1
gene 1 3 49 4.47363 0 143 4.47363 1
gene 1 49 25 -0.527779 0 144 -0.527779 1
gene 2 2 49 -3.61193 0 159 -3.61193 1
gene 1 49 7 0.975616 0 219 0.975616 1
gene 1 2 25 -0.611255 0 307 -0.611255 1
gene 3 3 105 1 0 329 0 1
gene 3 105 4 -2.01056 0 330 0 1
gene 1 1 7 0.283212 0 353 0 1
genomeend 141

/* Organism #142 Fitness: 4.03338 Error: 1.99167 */
genomestart 142
trait 1 0.1 0.418699 0.463836 0 0 0 0 0.191427 
trait 2 0.1 0 0 0 0.366924 0 0 0 
trait 3 0.3 0.120182 0 0 0 0.886349 0 0 
node 1 1 1 3
node 2 1 1 1
node 3 2 1 1
node 4 1 0 2
node 7 1 0 0
node 16 3 0 0
node 25 1 0 0
node 49 1 0 0
node 105 1 0 0
gene 2 1 4 -0.206305 0 1 -0.206305 1
gene 3 2 4 0.183416 0 2 0.183416 1
gene 3 3 4 -1.96043 0 3 -1.96043 0
gene 1 3 7 4.59208 0 8 4.59208 0
gene 3 7 4 -0.763955 0 9 -0.763955 0
gene 3 7 16 -3.29674 0 32 -3.29674 1
gene 3 16 4 0.775857 0 33 0.775857 1
gene 1 3 25 0.366031 0 61 0.366031 0
gene 2 25 7 -2.91883 0 62 -2.91883 1
gene 1 3 49 3.6095 0 143 3.6095 1
gene 1 49 25 -2.31704 0 144 -2.31704 1
gene 2 2 49 -2.03215 0 159 -2.03215 1
gene 1 49 7 -0.436094 0 219 -0.436094 1
gene 1 2 25 -1.78259 0 307 -1.78259 1
gene 3 3 105 2.62175 0 329 2.62175 1
gene 3 105 4 -0.32075 0 330 -0.32075 1
genomeend 142

/* Organism #143 Fitness: 4.07529 Error: 1.98127 */
genomestart 143
trait 1 0.1 0.418699 0.463836 0 0 0 0 0.191427 
trait 2 0.1 0 0 0 0.366924 0 0 0 
trait 3 0.3 0.120182 0 0 0 0.886349 0 0 
node 1 1 1 3
node 2 1 1 1
node 3 2 1 1
node 4 1 0 2
node 7 1 0 0
node 16 3 0 0
node 25 1 0 0
node 49 1 0 0
node 105 1 0 0
gene 2 1 4 2.32795 0 1 2.32795 1
gene 3 2 4 2.13729 0 2 2.13729 1
gene 3 3 4 -1.25095 0 3 -1.25095 0
gene 1 3 7 -0.123484 0 8 -0.123484 0
gene 3 7 4 -2.92337 0 9 -2.92337 0
gene 3 7 16 -3.66784 0 32 -3.66784 1
gene 3 16 4 -0.531404 0 33 -0.531404 1
gene 1 3 25 0.808931 0 61 0.808931 0
gene 2 25 7 0.319872 0 62 0.319872 1
gene 1 3 49 2.62772 0 143 2.62772 1
gene 1 49 25 1.23432 0 144 1.23432 1
gene 2 2 49 -5.87518 0 159 -5.87518 1
gene 1 49 7 1.6017 0 219 1.6017 1
gene 1 2 25 -2.70666 0 307 -2.70666 1
gene 3 3 105 -2.16887 0 329 -2.16887 1
gene 3 105 4 -3.04842 0 330 -3.04842 1
genomeend 143

/* Organism #144 Fitness: 8.39894 Error: 1.10191 */
genomestart 144
trait 1 0.1 0.418699 0.463836 0 0 0 0 0.191427 
trait 2 0.1 0 0 0 0.366924 0 0 0 
trait 3 0.3 0.120182 0 0 0 0.886349 0 0 
node 1 1 1 3
node 2 1 1 1
node 3 2 1 1
node 4 1 0 2
node 7 1 0 0
node 16 3 0 0
node 25 1 0 0
node 49 1 0 0
node 105 1 0 0
gene 2 1 4 -2.08045 0 1 -2.08045 1
gene 3 2 4 4.05873 0 2 4.05873 1
gene 3 3 4 -2.35015 0 3 -2.35015 0
gene 1 3 7 2.31212 0 8 2.31212 0
gene 3 7 4 -1.35601 0 9 -1.35601 0
gene 3 7 16 -3.29674 0 32 -3.29674 1
gene 3 16 4 8 0 33 8 1
gene 1 3 25 2.04806 0 61 2.04806 0
gene 2 25 7 0.242012 0 62 0.242012 1
gene 1 3 49 4.00586 0 143 4.00586 1
gene 1 49 25 -0.0192267 0 144 -0.0192267 1
gene 2 2 49 -3.61193 0 159 -3.61193 1
gene 1 49 7 1.5428 0 219 1.5428 1
gene 1 2 25 0.307093 0 307 0.307093 1
gene 3 3 105 2.00864 0 329 2.00864 1
gene 3 105 4 -3.04971 0 330 -3.04971 1
genomeend 144

/* Species #25 : (Size 5) (AF 3.55414) (Age 3)  */


/* Organism #145 Fitness: 4.02287 Error: 1.99429 */
genomestart 145
trait 1 0.1 0 0 0 0 0 0 0 
trait 2 0.2 0 0 0 0 0 0 0 
trait 3 0 0 0.0758003 0 0 0.17494 0.301431 0 
node 1 1 1 3
node 2 1 1 1
node 3 2 1 1
node 4 1 0 2
node 7 3 0 0
node 39 1 0 0
node 101 1 0 0
node 106 1 0 0
gene 3 1 4 -1.40283 0 1 -1.40283 1
gene 3 2 4 8 0 2 8 1
gene 3 3 4 0.38789 0 3 0.38789 1
gene 1 3 7 7.74296 0 8 7.74296 0
gene 2 7 4 2.74628 0 9 2.74628 1
gene 3 2 7 -5.69544 0 34 -5.69544 1
gene 3 2 39 2.0914 0 114 2.0914 1
gene 3 39 7 -1.52669 0 115 -1.52669 1
gene 1 3 39 0.189383 0 235 0.189383 0
gene 1 3 101 1.58161 0 320 1.58161 1
gene 1 101 39 1.81335 0 321 1.81335 1
gene 1 3 106 1 0 331 1 1
gene 1 106 7 -2.00415 0 332 -2.00415 1
genomeend 145

/* Organism #146 Fitness: 2.29199 Error: 2.48607 */
genomestart 146
trait 1 0.1 0 0 0 0 0 0 0 
trait 2 0.2 0 0 0 0 0 0 0 
trait 3 0 0 0.0758003 0 0 0.17494 0.301431 0 
node 1 1 1 3
node 2 1 1 1
node 3 2 1 1
node 4 1 0 2
