
/* Species #11 : (Size 75) (AF 6.99411) (Age 55)  */


/* Organism #0 Fitness: 4.00004 Error: 1.99999 */
genomestart 0
trait 1 0.075 0 0 0.159291 0 0 0 0 
trait 2 0.3 0 0.542493 0 0 0 0 0 
trait 3 0.3 0 0 0 0 0 0 0 
node 1 2 1 3
node 2 3 1 1
node 3 3 1 1
node 4 1 0 2
node 12 1 0 0
node 24 1 0 0
node 26 1 0 0
node 32 1 0 0
node 37 1 0 0
node 63 1 0 0
gene 3 1 4 -0.895489 0 1 -0.895489 1
gene 3 2 4 3.11599 0 2 3.11599 1
gene 3 3 4 -1.11327 0 3 -1.11327 1
gene 3 3 12 8 0 18 8 1
gene 3 12 4 8 0 19 8 1
gene 1 1 12 2.12141 0 24 2.12141 1
gene 1 2 12 1.64514 0 46 1.64514 1
gene 3 12 24 0.717132 0 53 0.717132 1
gene 3 24 4 3.22632 0 54 3.22632 1
gene 3 12 26 -0.226444 0 59 -0.226444 1
gene 3 26 24 -1.44164 0 60 -1.44164 1
gene 3 26 32 -1.63167 0 75 -1.63167 1
gene 3 32 24 2.15133 0 76 2.15133 1
gene 3 2 37 2.90349 0 90 2.90349 1
gene 1 37 12 -6.4537 0 91 -6.4537 1
gene 3 3 32 0.39079 0 101 0.39079 1
gene 3 26 63 1.55629 0 175 1.55629 1
gene 1 63 32 1.14947 0 176 1.14947 1
genomeend 0

/* Organism #1 Fitness: 3.99764 Error: 2.00059 */
genomestart 1
trait 1 0.075 0 0 0.159291 0 0 0 0 
trait 2 0.3 0 0.542493 0 0 0 0 0 
trait 3 0.3 0 0 0 0 0 0 0 
node 1 2 1 3
node 2 3 1 1
node 3 3 1 1
node 4 1 0 2
node 12 1 0 0
node 24 1 0 0
node 26 1 0 0
node 32 1 0 0
node 37 1 0 0
node 63 1 0 0
gene 3 1 4 -5.76495 0 1 -5.76495 1
gene 3 2 4 2.63158 0 2 2.63158 1
gene 3 3 4 -2.17745 0 3 -2.17745 1
gene 3 3 12 6.10892 0 18 6.10892 1
gene 3 12 4 8 0 19 8 1
gene 1 1 12 0.581902 0 24 0.581902 1
gene 1 2 12 -1.65712 0 46 -1.65712 1
gene 3 12 24 2.90447 0 53 2.90447 1
gene 3 24 4 1.45205 0 54 1.45205 1
gene 3 12 26 -0.66591 0 59 -0.66591 1
gene 3 26 24 -4.74778 0 60 -4.74778 1
gene 3 26 32 -1.82058 0 75 -1.82058 1
gene 3 32 24 0.953173 0 76 0.953173 1
gene 3 2 37 -0.120128 0 90 -0.120128 1
gene 1 37 12 -5.57851 0 91 -5.57851 1
gene 3 3 32 1.70614 0 101 1.70614 1
gene 3 26 63 -1.4597 0 175 -1.4597 1
gene 1 63 32 -1.23258 0 176 -1.23258 1
genomeend 1

/* Organism #2 Fitness: 4.09662 Error: 1.97599 */
genomestart 2
trait 1 0.075 0 0 0.159291 0 0 0 0 
trait 2 0.3 0 0.542493 0 0 0 0 0 
trait 3 0.3 0 0 0 0 0 0 0 
node 1 2 1 3
node 2 3 1 1
node 3 3 1 1
node 4 1 0 2
node 12 1 0 0
node 24 1 0 0
node 26 1 0 0
node 32 1 0 0
node 37 1 0 0
node 63 1 0 0
gene 3 1 4 -4.80514 0 1 -4.80514 1
gene 3 2 4 3.24913 0 2 3.24913 1
gene 3 3 4 2.31136 0 3 2.31136 1
gene 3 3 12 5.65473 0 18 5.65473 1
gene 3 12 4 8 0 19 8 1
gene 1 1 12 1.55079 0 24 1.55079 1
gene 1 2 12 -1.03057 0 46 -1.03057 1
gene 3 12 24 -1.79752 0 53 -1.79752 1
gene 3 24 4 3.69676 0 54 3.69676 1
gene 3 12 26 -2.70149 0 59 -2.70149 1
gene 3 26 24 -4.73908 0 60 -4.73908 1
gene 3 26 32 -1.85003 0 75 -1.85003 1
gene 3 32 24 2.73416 0 76 2.73416 1
gene 3 2 37 2.48455 0 90 2.48455 1
gene 1 37 12 -8 0 91 -8 1
gene 3 3 32 0.632191 0 101 0.632191 1
gene 3 26 63 -0.918302 0 175 -0.918302 1
gene 1 63 32 -1.23258 0 176 -1.23258 1
genomeend 2

/* Organism #3 Fitness: 1.00598 Error: 2.99702 */
genomestart 3
trait 1 0.075 0 0 0.159291 0 0 0 0 
trait 2 0.3 0 0.542493 0 0 0 0 0 
trait 3 0.3 0 0 0 0 0 0 0 
node 1 2 1 3
node 2 3 1 1
node 3 3 1 1
node 4 1 0 2
node 12 1 0 0
node 24 1 0 0
node 26 1 0 0
node 32 1 0 0
node 37 1 0 0
node 63 1 0 0
gene 3 1 4 -2.21885 0 1 -2.21885 1
gene 3 2 4 1.02695 0 2 1.02695 1
gene 3 3 4 0.648637 0 3 0.648637 1
gene 3 3 12 5.76643 0 18 5.76643 1
gene 3 12 4 8 0 19 8 1
gene 1 1 12 -0.718034 0 24 -0.718034 1
gene 1 2 12 -0.750641 0 46 -0.750641 1
gene 3 12 24 -0.791169 0 53 -0.791169 1
gene 3 24 4 0.844651 0 54 0.844651 1
gene 3 12 26 -0.5903 0 59 -0.5903 1
gene 3 26 24 -5.69515 0 60 -5.69515 1
gene 3 26 32 -3.68824 0 75 -3.68824 1
gene 3 32 24 1.55233 0 76 1.55233 1
gene 3 2 37 -0.970908 0 90 -0.970908 1
gene 1 37 12 1.46237 0 91 1.46237 1
gene 3 3 32 -1.42903 0 101 -1.42903 1
gene 3 26 63 0.719092 0 175 0.719092 1
gene 1 63 32 0.263823 0 176 0.263823 1
genomeend 3

/* Organism #4 Fitness: 4.0008 Error: 1.9998 */
genomestart 4
trait 1 0.075 0 0 0.159291 0 0 0 0 
trait 2 0.3 0 0.542493 0 0 0 0 0 
trait 3 0.3 0 0 0 0 0 0 0 
node 1 2 1 3
node 2 3 1 1
node 3 3 1 1
node 4 1 0 2
node 12 1 0 0
node 24 1 0 0
node 26 1 0 0
node 32 1 0 0
node 37 1 0 0
node 63 1 0 0
gene 3 1 4 -3.33369 0 1 -3.33369 1
gene 3 2 4 1.60726 0 2 1.60726 1
gene 3 3 4 -0.993107 0 3 -0.993107 1
gene 3 3 12 5.15979 0 18 5.15979 1
gene 3 12 4 0.406125 0 19 0.406125 1
gene 1 1 12 0.728315 0 24 0.728315 1
gene 1 2 12 1.23352 0 46 1.23352 1
gene 3 12 24 -1.44366 0 53 -1.44366 1
gene 3 24 4 3.10729 0 54 3.10729 1
gene 3 12 26 2.00415 0 59 2.00415 1
gene 3 26 24 -4.27642 0 60 -4.27642 1
gene 3 26 32 -0.419704 0 75 -0.419704 1
gene 3 32 24 2.40432 0 76 2.40432 1
gene 3 2 37 1.17096 0 90 1.17096 1
gene 1 37 12 -7.02615 0 91 -7.02615 1
gene 3 3 32 0.894269 0 101 0.894269 1
gene 3 26 63 -1.947 0 175 -1.947 1
gene 1 63 32 -1.425 0 176 -1.425 1
genomeend 4

/* Organism #5 Fitness: 1.81287 Error: 2.65357 */
genomestart 5
trait 1 0.075 0 0 0.159291 0 0 0 0 
trait 2 0.3 0 0.542493 0 0 0 0 0 
trait 3 0.3 0 0 0 0 0 0 0 
node 1 2 1 3
node 2 3 1 1
node 3 3 1 1
node 4 1 0 2
node 12 1 0 0
node 24 1 0 0
node 26 1 0 0
node 32 1 0 0
node 37 1 0 0
node 63 1 0 0
gene 3 1 4 -5.31419 0 1 -5.31419 1
gene 3 2 4 5.18415 0 2 5.18415 1
gene 3 3 4 1.59189 0 3 1.59189 1
gene 3 3 12 6.34811 0 18 6.34811 1
gene 3 12 4 0.765099 0 19 0.765099 1
gene 1 1 12 -0.0946169 0 24 -0.0946169 1
gene 1 2 12 1.43044 0 46 1.43044 1
gene 3 12 24 -1.35523 0 53 -1.35523 1
gene 3 24 4 0.890301 0 54 0.890301 1
gene 3 12 26 -1.4716 0 59 -1.4716 1
gene 3 26 24 -5.50846 0 60 -5.50846 1
gene 3 26 32 -0.707572 0 75 -0.707572 1
gene 3 32 24 2.30385 0 76 2.30385 1
gene 3 2 37 -0.09167 0 90 -0.09167 1
gene 1 37 12 -6.84571 0 91 -6.84571 1
gene 3 3 32 0.39079 0 101 0.39079 1
gene 3 26 63 -1.4597 0 175 -1.4597 1
gene 1 63 32 -1.59475 0 176 -1.59475 1
genomeend 5

/* Organism #6 Fitness: 4 Error: 2 */
genomestart 6
trait 1 0.075 0 0 0.159291 0 0 0 0 
trait 2 0.3 0 0.542493 0 0 0 0 0 
trait 3 0.3 0 0 0 0 0 0 0 
node 1 2 1 3
node 2 3 1 1
node 3 3 1 1
node 4 1 0 2
node 12 1 0 0
node 24 1 0 0
node 26 1 0 0
node 32 1 0 0
node 37 1 0 0
node 63 1 0 0
gene 3 1 4 -5.61541 0 1 -5.61541 1
gene 3 2 4 2.28192 0 2 2.28192 1
gene 3 3 4 -1.28982 0 3 -1.28982 1
gene 3 3 12 5.21969 0 18 5.21969 1
gene 3 12 4 6.52512 0 19 6.52512 1
gene 1 1 12 -1.57911 0 24 -1.57911 1
gene 1 2 12 -2.43496 0 46 -2.43496 1
gene 3 12 24 1.86043 0 53 1.86043 1
gene 3 24 4 0.66772 0 54 0.66772 1
gene 3 12 26 -2.3326 0 59 -2.3326 1
gene 3 26 24 -3.10512 0 60 -3.10512 1
gene 3 26 32 -3.28387 0 75 -3.28387 1
gene 3 32 24 1.89711 0 76 1.89711 1
gene 3 2 37 0.687391 0 90 0.687391 1
gene 1 37 12 -8 0 91 -8 1
gene 3 3 32 2.41928 0 101 2.41928 1
gene 3 26 63 -1.72445 0 175 -1.72445 1
gene 1 63 32 -1.32566 0 176 -1.32566 1
genomeend 6

/* Organism #7 Fitness: 9.19 Error: 0.968499 */
genomestart 7
trait 1 0.075 0 0 0.159291 0 0 0 0 
trait 2 0.3 0 0.542493 0 0 0 0 0 
trait 3 0.3 0 0 0 0 0 0 0 
node 1 2 1 3
node 2 3 1 1
node 3 3 1 1
node 4 1 0 2
node 12 1 0 0
node 24 1 0 0
node 26 1 0 0
node 32 1 0 0
node 37 1 0 0
node 63 1 0 0
gene 3 1 4 -3.33369 0 1 -3.33369 1
gene 3 2 4 3.15444 0 2 3.15444 1
gene 3 3 4 -0.0334521 0 3 -0.0334521 1
gene 3 3 12 7.07254 0 18 7.07254 1
gene 3 12 4 8 0 19 8 1
gene 1 1 12 -0.0946169 0 24 -0.0946169 1
gene 1 2 12 -0.750641 0 46 -0.750641 1
gene 3 12 24 0.587886 0 53 0.587886 1
gene 3 24 4 3.10729 0 54 3.10729 1
gene 3 12 26 -1.89878 0 59 -1.89878 1
gene 3 26 24 -3.28129 0 60 -3.28129 1
gene 3 26 32 -2.53395 0 75 -2.53395 1
gene 3 32 24 1.55233 0 76 1.55233 1
gene 3 2 37 1.17096 0 90 1.17096 1
gene 1 37 12 -8 0 91 -8 1
gene 3 3 32 0.39079 0 101 0.39079 1
gene 3 26 63 -1.4597 0 175 -1.4597 1
gene 1 63 32 -1.23258 0 176 -1.23258 1
gene 1 12 32 0.961394 0 666 0.961394 1
genomeend 7

/* Organism #8 Fitness: 4.00011 Error: 1.99997 */
genomestart 8
trait 1 0.075 0 0 0.159291 0 0 0 0 
trait 2 0.3 0 0.542493 0 0 0 0 0 
trait 3 0.3 0 0 0 0 0 0 0 
node 1 2 1 3
node 2 3 1 1
node 3 3 1 1
node 4 1 0 2
node 12 1 0 0
node 24 1 0 0
node 26 1 0 0
node 32 1 0 0
node 37 1 0 0
node 63 1 0 0
gene 3 1 4 -3.63819 0 1 -3.63819 1
gene 3 2 4 0.829085 0 2 0.829085 1
gene 3 3 4 1.50243 0 3 1.50243 1
gene 3 3 12 0.145344 0 18 0.145344 1
gene 3 12 4 8 0 19 8 1
gene 1 1 12 -0.0946169 0 24 -0.0946169 1
gene 1 2 12 1.11019 0 46 1.11019 1
gene 3 12 24 -0.579676 0 53 -0.579676 1
gene 3 24 4 1.24399 0 54 1.24399 1
gene 3 12 26 -0.383007 0 59 -0.383007 1
gene 3 26 24 -2.76187 0 60 -2.76187 1
gene 3 26 32 -4.30898 0 75 -4.30898 1
gene 3 32 24 1.38836 0 76 1.38836 1
gene 3 2 37 -1.92183 0 90 -1.92183 1
gene 1 37 12 -8 0 91 -8 1
gene 3 3 32 -1.12156 0 101 -1.12156 1
gene 3 26 63 -2.85646 0 175 -2.85646 1
gene 1 63 32 -3.27945 0 176 -3.27945 1
genomeend 8

/* Organism #9 Fitness: 4.41121 Error: 1.89971 */
genomestart 9
trait 1 0.075 0 0 0.159291 0 0 0 0 
trait 2 0.3 0 0.542493 0 0 0 0 0 
trait 3 0.3 0 0 0 0 0 0 0 
node 1 2 1 3
node 2 3 1 1
node 3 3 1 1
node 4 1 0 2
node 12 1 0 0
node 24 1 0 0
node 26 1 0 0
node 32 1 0 0
node 37 1 0 0
node 63 1 0 0
gene 3 1 4 -3.78353 0 1 -3.78353 1
gene 3 2 4 1.23562 0 2 1.23562 1
gene 3 3 4 -0.678232 0 3 -0.678232 1
gene 3 3 12 5.79221 0 18 5.79221 1
gene 3 12 4 5.73614 0 19 5.73614 1
gene 1 1 12 -1.63588 0 24 -1.63588 1
gene 1 2 12 -1.29265 0 46 -1.29265 1
gene 3 12 24 -1.27145 0 53 -1.27145 1
gene 3 24 4 5.19224 0 54 5.19224 1
gene 3 12 26 -1.9927 0 59 -1.9927 1
gene 3 26 24 -5.64197 0 60 -5.64197 1
gene 3 26 32 -3.88706 0 75 -3.88706 1
gene 3 32 24 0.41208 0 76 0.41208 1
gene 3 2 37 1.48164 0 90 1.48164 1
gene 1 37 12 -8 0 91 -8 1
gene 3 3 32 -0.223319 0 101 -0.223319 1
gene 3 26 63 0.809809 0 175 0.809809 1
gene 1 63 32 -0.198304 0 176 -0.198304 1
genomeend 9

/* Organism #10 Fitness: 4.23358 Error: 1.94243 */
genomestart 10
trait 1 0.075 0 0 0.159291 0 0 0 0 
trait 2 0.3 0 0.542493 0 0 0 0 0 
trait 3 0.3 0 0 0 0 0 0 0 
node 1 2 1 3
node 2 3 1 1
node 3 3 1 1
node 4 1 0 2
node 12 1 0 0
node 24 1 0 0
node 26 1 0 0
node 32 1 0 0
node 37 1 0 0
node 63 1 0 0
gene 3 1 4 -2.15766 0 1 -2.15766 1
gene 3 2 4 1.58971 0 2 1.58971 1
gene 3 3 4 -1.27907 0 3 -1.27907 1
gene 3 3 12 7.3144 0 18 7.3144 1
gene 3 12 4 7.24635 0 19 7.24635 1
gene 1 1 12 -1.39463 0 24 -1.39463 1
gene 1 2 12 0.651265 0 46 0.651265 1
gene 3 12 24 -0.901952 0 53 -0.901952 1
gene 3 24 4 1.06624 0 54 1.06624 1
gene 3 12 26 -2.03093 0 59 -2.03093 1
gene 3 26 24 -3.28129 0 60 -3.28129 1
gene 3 26 32 -3.3832 0 75 -3.3832 1
gene 3 32 24 2.14706 0 76 2.14706 1
gene 3 2 37 2.1712 0 90 2.1712 1
gene 1 37 12 -6.58013 0 91 -6.58013 1
gene 3 3 32 0.416272 0 101 0.416272 1
gene 3 26 63 -2.92016 0 175 -2.92016 1
gene 1 63 32 1.71552 0 176 1.71552 1
genomeend 10

/* Organism #11 Fitness: 9 Error: 1 */
genomestart 11
trait 1 0.075 0 0 0.159291 0 0 0 0 
trait 2 0.3 0 0.542493 0 0 0 0 0 
trait 3 0.3 0 0 0 0 0 0 0 
node 1 2 1 3
node 2 3 1 1
node 3 3 1 1
node 4 1 0 2
node 12 1 0 0
node 24 1 0 0
node 26 1 0 0
node 32 1 0 0
node 37 1 0 0
node 63 1 0 0
gene 3 1 4 -3.33369 0 1 -3.33369 1
gene 3 2 4 0.748466 0 2 0.748466 1
gene 3 3 4 -1.20315 0 3 -1.20315 1
gene 3 3 12 5.89773 0 18 5.89773 1
gene 3 12 4 6.56243 0 19 6.56243 1
gene 1 1 12 1.88886 0 24 1.88886 1
gene 1 2 12 -0.750641 0 46 -0.750641 1
gene 3 12 24 0.748238 0 53 0.748238 1
gene 3 24 4 3.4343 0 54 3.4343 1
gene 3 12 26 -3.63017 0 59 -3.63017 1
gene 3 26 24 -5.35296 0 60 -5.35296 1
gene 3 26 32 -0.527511 0 75 -0.527511 1
gene 3 32 24 2.34482 0 76 2.34482 1
gene 3 2 37 -1.13311 0 90 -1.13311 1
gene 1 37 12 -5.67769 0 91 -5.67769 1
gene 3 3 32 2.7945 0 101 2.7945 1
gene 3 26 63 -0.670949 0 175 -0.670949 1
gene 1 63 32 -2.46514 0 176 -2.46514 1
genomeend 11

/* Organism #12 Fitness: 14.5021 Error: 0.191841 */
/* ##------$ WINNER 12 SPECIES #11 $------## */
genomestart 12
trait 1 0.075 0 0 0.159291 0 0 0 0 
trait 2 0.3 0 0.542493 0 0 0 0 0 
trait 3 0.3 0 0 0 0 0 0 0 
node 1 2 1 3
node 2 3 1 1
node 3 3 1 1
node 4 1 0 2
node 12 1 0 0
node 24 1 0 0
node 26 1 0 0
node 32 1 0 0
node 37 1 0 0
node 63 1 0 0
gene 3 1 4 -0.891903 0 1 -0.891903 1
gene 3 2 4 1.19805 0 2 1.19805 1
gene 3 3 4 -2.41184 0 3 -2.41184 1
gene 3 3 12 5.96258 0 18 5.96258 1
gene 3 12 4 8 0 19 8 1
gene 1 1 12 0.101083 0 24 0.101083 1
gene 1 2 12 -2.84345 0 46 -2.84345 1
gene 3 12 24 -0.847858 0 53 -0.847858 1
gene 3 24 4 3.78007 0 54 3.78007 1
gene 3 12 26 -0.921808 0 59 -0.921808 1
gene 3 26 24 -2.96352 0 60 -2.96352 1
gene 3 26 32 -3.54442 0 75 -3.54442 1
gene 3 32 24 3.998 0 76 3.998 1
gene 3 2 37 2.1239 0 90 2.1239 1
gene 1 37 12 -7.99847 0 91 -7.99847 1
gene 3 3 32 0.39079 0 101 0.39079 1
gene 3 26 63 -1.4597 0 175 -1.4597 1
gene 1 63 32 -1.23258 0 176 -1.23258 1
genomeend 12

/* Organism #13 Fitness: 3.99904 Error: 2.00024 */
genomestart 13
trait 1 0.075 0 0 0.159291 0 0 0 0 
trait 2 0.3 0 0.542493 0 0 0 0 0 
trait 3 0.3 0 0 0 0 0 0 0 
node 1 2 1 3
node 2 3 1 1
node 3 3 1 1
node 4 1 0 2
node 12 1 0 0
node 24 1 0 0
node 26 1 0 0
node 32 1 0 0
node 37 1 0 0
node 63 1 0 0
gene 3 1 4 -1.28277 0 1 -1.28277 1
gene 3 2 4 2.89839 0 2 2.89839 1
gene 3 3 4 -0.0334521 0 3 -0.0334521 1
gene 3 3 12 4.87422 0 18 4.87422 1
gene 3 12 4 8 0 19 8 1
gene 1 1 12 -1.92222 0 24 -1.92222 1
gene 1 2 12 -0.54239 0 46 -0.54239 1
gene 3 12 24 1.37397 0 53 1.37397 1
gene 3 24 4 -0.670492 0 54 -0.670492 1
gene 3 12 26 0.237056 0 59 0.237056 1
gene 3 26 24 -4.39003 0 60 -4.39003 1
gene 3 26 32 -1.25202 0 75 -1.25202 1
gene 3 32 24 1.34991 0 76 1.34991 1
gene 3 2 37 -1.17248 0 90 -1.17248 1
gene 1 37 12 -8 0 91 -8 1
gene 3 3 32 0.526826 0 101 0.526826 1
gene 3 26 63 -1.64151 0 175 -1.64151 1
gene 1 63 32 -0.0850036 0 176 -0.0850036 1
genomeend 13

/* Organism #14 Fitness: 4.00001 Error: 2 */
genomestart 14
trait 1 0.075 0 0 0.159291 0 0 0 0 
trait 2 0.3 0 0.542493 0 0 0 0 0 
trait 3 0.3 0 0 0 0 0 0 0 
node 1 2 1 3
node 2 3 1 1
node 3 3 1 1
node 4 1 0 2
node 12 1 0 0
node 24 1 0 0
node 26 1 0 0
node 32 1 0 0
node 37 1 0 0
node 63 1 0 0
gene 3 1 4 -3.00378 0 1 -3.00378 1
gene 3 2 4 0.395901 0 2 0.395901 1
gene 3 3 4 -1.86388 0 3 -1.86388 1
gene 3 3 12 8 0 18 8 1
gene 3 12 4 8 0 19 8 1
gene 1 1 12 -2.26982 0 24 -2.26982 1
gene 1 2 12 -1.70854 0 46 -1.70854 1
gene 3 12 24 0.587886 0 53 0.587886 1
gene 3 24 4 1.62989 0 54 1.62989 1
gene 3 12 26 -3.82549 0 59 -3.82549 1
gene 3 26 24 -2.86014 0 60 -2.86014 1
gene 3 26 32 -4.87426 0 75 -4.87426 1
gene 3 32 24 1.96868 0 76 1.96868 1
gene 3 2 37 1.54153 0 90 1.54153 1
gene 1 37 12 -2.10021 0 91 -2.10021 1
gene 3 3 32 1.37593 0 101 1.37593 1
gene 3 26 63 -1.23806 0 175 -1.23806 1
gene 1 63 32 -1.84928 0 176 -1.84928 1
genomeend 14

/* Organism #15 Fitness: 8.99057 Error: 1.00157 */
genomestart 15
trait 1 0.075 0 0 0.159291 0 0 0 0 
trait 2 0.3 0 0.542493 0 0 0 0 0 
trait 3 0.3 0 0 0 0 0 0 0 
node 1 2 1 3
node 2 3 1 1
node 3 3 1 1
node 4 1 0 2
node 12 1 0 0
node 24 1 0 0
node 26 1 0 0
node 32 1 0 0
node 37 1 0 0
node 63 1 0 0
gene 3 1 4 -1.84904 0 1 -1.84904 1
gene 3 2 4 3.17466 0 2 3.17466 1
gene 3 3 4 0.493908 0 3 0.493908 1
gene 3 3 12 4.57888 0 18 4.57888 1
gene 3 12 4 8 0 19 8 1
gene 1 1 12 0.550544 0 24 0.550544 1
gene 1 2 12 -1.52825 0 46 -1.52825 1
gene 3 12 24 -1.28496 0 53 -1.28496 1
gene 3 24 4 1.60731 0 54 1.60731 1
gene 3 12 26 -1.71285 0 59 -1.71285 1
gene 3 26 24 -5.46008 0 60 -5.46008 1
gene 3 26 32 -3.55403 0 75 -3.55403 1
gene 3 32 24 3.74607 0 76 3.74607 1
gene 3 2 37 -0.192915 0 90 -0.192915 1
gene 1 37 12 -8 0 91 -8 1
gene 3 3 32 0.39079 0 101 0.39079 1
gene 3 26 63 -3.85289 0 175 -3.85289 1
gene 1 63 32 -0.0431074 0 176 -0.0431074 1
genomeend 15

/* Organism #16 Fitness: 4.01099 Error: 1.99725 */
genomestart 16
trait 1 0.075 0 0 0.159291 0 0 0 0 
trait 2 0.3 0 0.542493 0 0 0 0 0 
trait 3 0.3 0 0 0 0 0 0 0 
node 1 2 1 3
node 2 3 1 1
node 3 3 1 1
node 4 1 0 2
node 12 1 0 0
node 24 1 0 0
node 26 1 0 0
node 32 1 0 0
node 37 1 0 0
node 63 1 0 0
gene 3 1 4 1.1964 0 1 1.1964 1
gene 3 2 4 1.36133 0 2 1.36133 1
gene 3 3 4 1.55004 0 3 1.55004 1
gene 3 3 12 7.59738 0 18 7.59738 1
gene 3 12 4 7.167 0 19 7.167 1
gene 1 1 12 0.977193 0 24 0.977193 1
gene 1 2 12 -1.69801 0 46 -1.69801 1
gene 3 12 24 1.74825 0 53 1.74825 1
gene 3 24 4 1.36278 0 54 1.36278 1
gene 3 12 26 1.98462 0 59 1.98462 1
gene 3 26 24 -3.28129 0 60 -3.28129 1
gene 3 26 32 -3.98495 0 75 -3.98495 1
gene 3 32 24 1.92656 0 76 1.92656 1
gene 3 2 37 -0.615177 0 90 -0.615177 1
gene 1 37 12 -8 0 91 -8 1
gene 3 3 32 1.45253 0 101 1.45253 1
gene 3 26 63 -0.776467 0 175 -0.776467 1
gene 1 63 32 -0.788379 0 176 -0.788379 1
genomeend 16

/* Organism #17 Fitness: 7.88107 Error: 1.19268 */
genomestart 17
trait 1 0.075 0 0 0.159291 0 0 0 0 
trait 2 0.3 0 0.542493 0 0 0 0 0 
trait 3 0.3 0 0 0 0 0 0 0 
node 1 2 1 3
node 2 3 1 1
node 3 3 1 1
node 4 1 0 2
node 12 1 0 0
node 24 1 0 0
node 26 1 0 0
node 32 1 0 0
node 37 1 0 0
node 63 1 0 0
gene 3 1 4 -3.00775 0 1 -3.00775 1
gene 3 2 4 3.09386 0 2 3.09386 1
gene 3 3 4 0.873939 0 3 0.873939 1
gene 3 3 12 8 0 18 8 1
gene 3 12 4 8 0 19 8 1
gene 1 1 12 -2.23198 0 24 -2.23198 1
gene 1 2 12 1.3678 0 46 1.3678 1
gene 3 12 24 -0.101222 0 53 -0.101222 1
gene 3 24 4 5.08283 0 54 5.08283 1
gene 3 12 26 -2.10013 0 59 -2.10013 1
gene 3 26 24 -1.29476 0 60 -1.29476 1
gene 3 26 32 -1.32649 0 75 -1.32649 1
gene 3 32 24 0.051809 0 76 0.051809 1
gene 3 2 37 1.40473 0 90 1.40473 1
gene 1 37 12 -8 0 91 -8 1
gene 3 3 32 -0.597934 0 101 -0.597934 1
gene 3 26 63 -1.4597 0 175 -1.4597 1
gene 1 63 32 -1.23258 0 176 -1.23258 1
genomeend 17

/* Organism #18 Fitness: 9 Error: 1 */
genomestart 18
trait 1 0.075 0 0 0.159291 0 0 0 0 
trait 2 0.3 0 0.542493 0 0 0 0 0 
trait 3 0.3 0 0 0 0 0 0 0 
node 1 2 1 3
node 2 3 1 1
node 3 3 1 1
node 4 1 0 2
node 12 1 0 0
node 24 1 0 0
node 26 1 0 0
node 32 1 0 0
node 37 1 0 0
node 63 1 0 0
gene 3 1 4 -3.33369 0 1 -3.33369 1
gene 3 2 4 -0.748238 0 2 -0.748238 1
gene 3 3 4 0.948744 0 3 0.948744 1
gene 3 3 12 5.39418 0 18 5.39418 1
gene 3 12 4 8 0 19 8 1
gene 1 1 12 1.99354 0 24 1.99354 1
gene 1 2 12 -2.69436 0 46 -2.69436 1
gene 3 12 24 1.64192 0 53 1.64192 1
gene 3 24 4 1.8542 0 54 1.8542 1
gene 3 12 26 0.285428 0 59 0.285428 1
gene 3 26 24 -1.19939 0 60 -1.19939 1
gene 3 26 32 -2.13339 0 75 -2.13339 1
gene 3 32 24 2.94741 0 76 2.94741 1
gene 3 2 37 1.92568 0 90 1.92568 1
gene 1 37 12 -7.91111 0 91 -7.91111 1
gene 3 3 32 0.241173 0 101 0.241173 1
gene 3 26 63 -3.37184 0 175 -3.37184 1
gene 1 63 32 -0.654546 0 176 -0.654546 1
genomeend 18

/* Organism #19 Fitness: 4.00013 Error: 1.99997 */
genomestart 19
trait 1 0.075 0 0 0.159291 0 0 0 0 
trait 2 0.3 0 0.542493 0 0 0 0 0 
trait 3 0.3 0 0 0 0 0 0 0 
node 1 2 1 3
node 2 3 1 1
node 3 3 1 1
node 4 1 0 2
node 12 1 0 0
node 24 1 0 0
node 26 1 0 0
node 32 1 0 0
node 37 1 0 0
node 63 1 0 0
gene 3 1 4 -5.30824 0 1 -5.30824 1
gene 3 2 4 3.21334 0 2 3.21334 1
gene 3 3 4 -0.690744 0 3 -0.690744 1
gene 3 3 12 8 0 18 8 1
gene 3 12 4 7.71526 0 19 7.71526 1
gene 1 1 12 0.691998 0 24 0.691998 1
gene 1 2 12 0.775666 0 46 0.775666 1
gene 3 12 24 0.0907392 0 53 0.0907392 1
gene 3 24 4 1.88152 0 54 1.88152 1
gene 3 12 26 -2.07655 0 59 -2.07655 1
gene 3 26 24 -2.86174 0 60 -2.86174 1
gene 3 26 32 -4.45837 0 75 -4.45837 1
gene 3 32 24 1.71827 0 76 1.71827 1
gene 3 2 37 0.283555 0 90 0.283555 1
gene 1 37 12 -7.81155 0 91 -7.81155 1
gene 3 3 32 0.39079 0 101 0.39079 1
gene 3 26 63 0.897244 0 175 0.897244 1
gene 1 63 32 0.119251 0 176 0.119251 1
genomeend 19

/* Organism #20 Fitness: 4.24725 Error: 1.93911 */
genomestart 20
trait 1 0.075 0 0 0.159291 0 0 0 0 
trait 2 0.3 0 0.542493 0 0 0 0 0 
trait 3 0.3 0 0 0 0 0 0 0 
node 1 2 1 3
node 2 3 1 1
node 3 3 1 1
node 4 1 0 2
node 12 1 0 0
node 24 1 0 0
node 26 1 0 0
node 32 1 0 0
node 37 1 0 0
node 63 1 0 0
gene 3 1 4 -2.86882 0 1 -2.86882 1
gene 3 2 4 2.23469 0 2 2.23469 1
gene 3 3 4 1.60947 0 3 1.60947 1
gene 3 3 12 7.60692 0 18 7.60692 1
gene 3 12 4 7.32836 0 19 7.32836 1
gene 1 1 12 -1.30735 0 24 -1.30735 1
gene 1 2 12 0.259064 0 46 0.259064 1
gene 3 12 24 -0.211798 0 53 -0.211798 1
gene 3 24 4 4.83525 0 54 4.83525 1
gene 3 12 26 -0.359581 0 59 -0.359581 1
gene 3 26 24 -0.850644 0 60 -0.850644 1
gene 3 26 32 -0.171131 0 75 -0.171131 1
gene 3 32 24 1.55233 0 76 1.55233 1
gene 3 2 37 -0.68186 0 90 -0.68186 1
gene 1 37 12 -6.92468 0 91 -6.92468 1
gene 3 3 32 2.59125 0 101 2.59125 1
gene 3 26 63 -2.23441 0 175 -2.23441 1
gene 1 63 32 -1.29857 0 176 -1.29857 1
genomeend 20

/* Organism #21 Fitness: 13.5454 Error: 0.319589 */
/* ##------$ WINNER 21 SPECIES #11 $------## */
genomestart 21
trait 1 0.075 0 0 0.159291 0 0 0 0 
trait 2 0.3 0 0.542493 0 0 0 0 0 
trait 3 0.3 0 0 0 0 0 0 0 
node 1 2 1 3
node 2 3 1 1
node 3 3 1 1
node 4 1 0 2
node 12 1 0 0
node 24 1 0 0
node 26 1 0 0
node 32 1 0 0
node 37 1 0 0
node 63 1 0 0
gene 3 1 4 -2.89796 0 1 -2.89796 1
gene 3 2 4 3.15444 0 2 3.15444 1
gene 3 3 4 -0.70753 0 3 -0.70753 1
gene 3 3 12 6.19971 0 18 6.19971 1
gene 3 12 4 8 0 19 8 1
gene 1 1 12 -0.859563 0 24 -0.859563 1
gene 1 2 12 -1.70919 0 46 -1.70919 1
gene 3 12 24 -0.921941 0 53 -0.921941 1
gene 3 24 4 -0.274819 0 54 -0.274819 1
gene 3 12 26 -1.33999 0 59 -1.33999 1
gene 3 26 24 -1.8943 0 60 -1.8943 1
gene 3 26 32 -1.27903 0 75 -1.27903 1
gene 3 32 24 0.407197 0 76 0.407197 1
gene 3 2 37 1.17096 0 90 1.17096 1
gene 1 37 12 -8 0 91 -8 1
gene 3 3 32 -0.879086 0 101 -0.879086 1
gene 3 26 63 -3.79475 0 175 -3.79475 1
gene 1 63 32 0.0508801 0 176 0.0508801 1
genomeend 21

/* Organism #22 Fitness: 9.16306 Error: 0.972945 */
genomestart 22
trait 1 0.075 0 0 0.159291 0 0 0 0 
trait 2 0.3 0 0.542493 0 0 0 0 0 
trait 3 0.3 0 0 0 0 0 0 0 
node 1 2 1 3
node 2 3 1 1
node 3 3 1 1
node 4 1 0 2
node 12 1 0 0
node 24 1 0 0
node 26 1 0 0
node 32 1 0 0
node 37 1 0 0
node 63 1 0 0
gene 3 1 4 -3.33369 0 1 -3.33369 1
gene 3 2 4 3.15444 0 2 3.15444 1
gene 3 3 4 -0.0334521 0 3 -0.0334521 1
gene 3 3 12 7.07254 0 18 7.07254 1
gene 3 12 4 8 0 19 8 1
gene 1 1 12 -0.0946169 0 24 -0.0946169 1
gene 1 2 12 -0.750641 0 46 -0.750641 1
gene 3 12 24 0.587886 0 53 0.587886 1
gene 3 24 4 3.10729 0 54 3.10729 1
gene 3 12 26 -1.89878 0 59 -1.89878 1
gene 3 26 24 -3.28129 0 60 -3.28129 1
gene 3 26 32 -2.53395 0 75 -2.53395 1
gene 3 32 24 1.55233 0 76 1.55233 1
gene 3 2 37 1.17096 0 90 1.17096 1
gene 1 37 12 -8 0 91 -8 1
gene 3 3 32 0.39079 0 101 0.39079 1
gene 3 26 63 -1.4597 0 175 -1.4597 1
gene 1 63 32 -1.23258 0 176 -1.23258 1
gene 1 32 4 0.486862 0 667 0.486862 1
genomeend 22

/* Organism #23 Fitness: 4.0003 Error: 1.99993 */
genomestart 23
trait 1 0.075 0 0 0.159291 0 0 0 0 
trait 2 0.3 0 0.542493 0 0 0 0 0 
trait 3 0.3 0 0 0 0 0 0 0 
node 1 2 1 3
node 2 3 1 1
node 3 3 1 1
node 4 1 0 2
node 12 1 0 0
node 24 1 0 0
node 26 1 0 0
node 32 1 0 0
node 37 1 0 0
node 63 1 0 0
gene 3 1 4 1.91374 0 1 1.91374 1
gene 3 2 4 2.83255 0 2 2.83255 1
gene 3 3 4 -0.803816 0 3 -0.803816 1
gene 3 3 12 8 0 18 8 1
gene 3 12 4 8 0 19 8 1
gene 1 1 12 -0.110868 0 24 -0.110868 1
gene 1 2 12 -3.17732 0 46 -3.17732 1
gene 3 12 24 2.56114 0 53 2.56114 1
gene 3 24 4 1.42817 0 54 1.42817 1
gene 3 12 26 -0.222556 0 59 -0.222556 1
gene 3 26 24 -3.28129 0 60 -3.28129 1
gene 3 26 32 -4.53108 0 75 -4.53108 1
gene 3 32 24 3.70091 0 76 3.70091 1
gene 3 2 37 2.71741 0 90 2.71741 1
gene 1 37 12 -2.30193 0 91 -2.30193 1
gene 3 3 32 -1.06517 0 101 -1.06517 1
gene 3 26 63 -2.82617 0 175 -2.82617 1
gene 1 63 32 -1.23258 0 176 -1.23258 1
genomeend 23

/* Organism #24 Fitness: 4 Error: 2 */
genomestart 24
trait 1 0.075 0 0 0.159291 0 0 0 0 
trait 2 0.3 0 0.542493 0 0 0 0 0 
trait 3 0.3 0 0 0 0 0 0 0 
node 1 2 1 3
node 2 3 1 1
node 3 3 1 1
node 4 1 0 2
node 12 1 0 0
node 24 1 0 0
node 26 1 0 0
node 32 1 0 0
node 37 1 0 0
node 63 1 0 0
gene 3 1 4 -4.43136 0 1 -4.43136 1
gene 3 2 4 1.90967 0 2 1.90967 1
gene 3 3 4 0.634064 0 3 0.634064 1
gene 3 3 12 -0.779214 0 18 -0.779214 1
gene 3 12 4 6.00172 0 19 6.00172 1
gene 1 1 12 -0.281619 0 24 -0.281619 1
gene 1 2 12 1.74333 0 46 1.74333 1
gene 3 12 24 -1.60894 0 53 -1.60894 1
gene 3 24 4 2.92159 0 54 2.92159 1
gene 3 12 26 -3.05002 0 59 -3.05002 1
gene 3 26 24 -3.28129 0 60 -3.28129 1
gene 3 26 32 -4.35262 0 75 -4.35262 1
gene 3 32 24 1.55233 0 76 1.55233 1
gene 3 2 37 3.41742 0 90 3.41742 1
gene 1 37 12 -0.432905 0 91 -0.432905 1
gene 3 3 32 1.4613 0 101 1.4613 1
gene 3 26 63 -1.4597 0 175 -1.4597 1
gene 1 63 32 -3.28968 0 176 -3.28968 1
genomeend 24

/* Organism #25 Fitness: 9.04493 Error: 0.992521 */
genomestart 25
trait 1 0.075 0 0 0.159291 0 0 0 0 
trait 2 0.3 0 0.542493 0 0 0 0 0 
trait 3 0.3 0 0 0 0 0 0 0 
node 1 2 1 3
node 2 3 1 1
node 3 3 1 1
node 4 1 0 2
node 12 1 0 0
node 24 1 0 0
node 26 1 0 0
node 32 1 0 0
node 37 1 0 0
node 63 1 0 0
gene 3 1 4 -2.83029 0 1 -2.83029 1
gene 3 2 4 1.83543 0 2 1.83543 1
gene 3 3 4 -2.34813 0 3 -2.34813 1
gene 3 3 12 6.34674 0 18 6.34674 1
gene 3 12 4 6.83557 0 19 6.83557 1
gene 1 1 12 2.25393 0 24 2.25393 1
gene 1 2 12 -1.73616 0 46 -1.73616 1
gene 3 12 24 0.662503 0 53 0.662503 1
gene 3 24 4 3.25142 0 54 3.25142 1
gene 3 12 26 -1.21112 0 59 -1.21112 1
gene 3 26 24 -2.96359 0 60 -2.96359 1
gene 3 26 32 -2.93374 0 75 -2.93374 1
gene 3 32 24 0.868561 0 76 0.868561 1
gene 3 2 37 2.86916 0 90 2.86916 1
gene 1 37 12 -8 0 91 -8 1
gene 3 3 32 0.39079 0 101 0.39079 1
gene 3 26 63 -1.4597 0 175 -1.4597 1
gene 1 63 32 -0.0912599 0 176 -0.0912599 1
genomeend 25

/* Organism #26 Fitness: 6.7665 Error: 1.39875 */
genomestart 26
trait 1 0.075 0 0 0.159291 0 0 0 0 
trait 2 0.3 0 0.542493 0 0 0 0 0 
trait 3 0.3 0 0 0 0 0 0 0 
node 1 2 1 3
node 2 3 1 1
node 3 3 1 1
node 4 1 0 2
node 12 1 0 0
node 24 1 0 0
node 26 1 0 0
node 32 1 0 0
node 37 1 0 0
node 63 1 0 0
gene 3 1 4 -4.22391 0 1 -4.22391 1
gene 3 2 4 1.39078 0 2 1.39078 1
gene 3 3 4 -1.99663 0 3 -1.99663 1
gene 3 3 12 6.79925 0 18 6.79925 1
gene 3 12 4 7.85527 0 19 7.85527 1
gene 1 1 12 -2.5158 0 24 -2.5158 1
gene 1 2 12 -0.745224 0 46 -0.745224 1
gene 3 12 24 -1.45426 0 53 -1.45426 1
gene 3 24 4 1.66293 0 54 1.66293 1
gene 3 12 26 -2.74277 0 59 -2.74277 1
gene 3 26 24 -2.48865 0 60 -2.48865 1
gene 3 26 32 -2.24219 0 75 -2.24219 1
gene 3 32 24 2.5322 0 76 2.5322 1
gene 3 2 37 1.2262 0 90 1.2262 1
gene 1 37 12 -8 0 91 -8 1
gene 3 3 32 0.39079 0 101 0.39079 1
gene 3 26 63 0.277108 0 175 0.277108 1
gene 1 63 32 -2.1759 0 176 -2.1759 1
genomeend 26

/* Organism #27 Fitness: 8.99115 Error: 1.00147 */
genomestart 27
trait 1 0.075 0 0 0.159291 0 0 0 0 
trait 2 0.3 0 0.542493 0 0 0 0 0 
trait 3 0.3 0 0 0 0 0 0 0 
node 1 2 1 3
node 2 3 1 1
node 3 3 1 1
node 4 1 0 2
node 12 1 0 0
node 24 1 0 0
node 26 1 0 0
node 32 1 0 0
node 37 1 0 0
node 63 1 0 0
gene 3 1 4 -1.32519 0 1 -1.32519 1
gene 3 2 4 3.15444 0 2 3.15444 1
gene 3 3 4 -2.18295 0 3 -2.18295 1
gene 3 3 12 7.07254 0 18 7.07254 1
gene 3 12 4 5.96854 0 19 5.96854 1
gene 1 1 12 1.90045 0 24 1.90045 1
gene 1 2 12 -0.750641 0 46 -0.750641 1
gene 3 12 24 0.991417 0 53 0.991417 1
gene 3 24 4 4.54708 0 54 4.54708 1
gene 3 12 26 -0.939055 0 59 -0.939055 1
gene 3 26 24 -3.28129 0 60 -3.28129 1
gene 3 26 32 0.136113 0 75 0.136113 1
gene 3 32 24 0.562838 0 76 0.562838 1
gene 3 2 37 -1.74909 0 90 -1.74909 1
gene 1 37 12 -8 0 91 -8 1
gene 3 3 32 0.00129704 0 101 0.00129704 1
gene 3 26 63 0.470901 0 175 0.470901 1
gene 1 63 32 -1.71149 0 176 -1.71149 1
genomeend 27

/* Organism #28 Fitness: 8.99267 Error: 1.00122 */
genomestart 28
trait 1 0.075 0 0 0.159291 0 0 0 0 
trait 2 0.3 0 0.542493 0 0 0 0 0 
trait 3 0.3 0 0 0 0 0 0 0 
node 1 2 1 3
node 2 3 1 1
node 3 3 1 1
node 4 1 0 2
node 12 1 0 0
node 24 1 0 0
node 26 1 0 0
node 32 1 0 0
node 37 1 0 0
node 63 1 0 0
gene 3 1 4 -3.47179 0 1 -3.47179 1
gene 3 2 4 4.82846 0 2 4.82846 1
gene 3 3 4 0.737445 0 3 0.737445 1
gene 3 3 12 7.49042 0 18 7.49042 1
gene 3 12 4 8 0 19 8 1
gene 1 1 12 0.0756764 0 24 0.0756764 1
gene 1 2 12 1.42937 0 46 1.42937 1
gene 3 12 24 1.70738 0 53 1.70738 1
gene 3 24 4 3.75673 0 54 3.75673 1
gene 3 12 26 -1.85071 0 59 -1.85071 1
gene 3 26 24 -4.18639 0 60 -4.18639 1
gene 3 26 32 -3.0723 0 75 -3.0723 1
gene 3 32 24 1.57773 0 76 1.57773 1
gene 3 2 37 0.181166 0 90 0.181166 1
gene 1 37 12 -8 0 91 -8 1
gene 3 3 32 0.39079 0 101 0.39079 1
gene 3 26 63 0.871456 0 175 0.871456 1
gene 1 63 32 1.69919 0 176 1.69919 1
genomeend 28

/* Organism #29 Fitness: 12.3666 Error: 0.483382 */
/* ##------$ WINNER 29 SPECIES #11 $------## */
genomestart 29
trait 1 0.075 0 0 0.159291 0 0 0 0 
trait 2 0.3 0 0.542493 0 0 0 0 0 
trait 3 0.3 0 0 0 0 0 0 0 
node 1 2 1 3
node 2 3 1 1
node 3 3 1 1
node 4 1 0 2
node 12 1 0 0
node 24 1 0 0
node 26 1 0 0
node 32 1 0 0
node 37 1 0 0
node 63 1 0 0
gene 3 1 4 -2.7546 0 1 -2.7546 1
gene 3 2 4 3.15444 0 2 3.15444 1
gene 3 3 4 -0.516179 0 3 -0.516179 1
gene 3 3 12 5.60819 0 18 5.60819 1
gene 3 12 4 5.62688 0 19 5.62688 1
gene 1 1 12 1.42444 0 24 1.42444 1
gene 1 2 12 -2.10345 0 46 -2.10345 1
gene 3 12 24 1.21039 0 53 1.21039 1
gene 3 24 4 1.97117 0 54 1.97117 1
gene 3 12 26 -1.89878 0 59 -1.89878 1
gene 3 26 24 -3.25649 0 60 -3.25649 1
gene 3 26 32 -2.48489 0 75 -2.48489 1
gene 3 32 24 3.14303 0 76 3.14303 1
gene 3 2 37 0.664617 0 90 0.664617 1
gene 1 37 12 -8 0 91 -8 1
gene 3 3 32 -0.151143 0 101 -0.151143 1
gene 3 26 63 -0.00694296 0 175 -0.00694296 1
gene 1 63 32 1.3802 0 176 1.3802 1
genomeend 29

/* Organism #30 Fitness: 5.5547 Error: 1.64316 */
genomestart 30
trait 1 0.075 0 0 0.159291 0 0 0 0 
trait 2 0.3 0 0.542493 0 0 0 0 0 
trait 3 0.3 0 0 0 0 0 0 0 
node 1 2 1 3
node 2 3 1 1
node 3 3 1 1
node 4 1 0 2
node 12 1 0 0
node 24 1 0 0
node 26 1 0 0
node 32 1 0 0
node 37 1 0 0
node 63 1 0 0
gene 3 1 4 -4.88372 0 1 -4.88372 1
gene 3 2 4 4.43004 0 2 4.43004 1
gene 3 3 4 0.665498 0 3 0.665498 1
gene 3 3 12 5.74201 0 18 5.74201 1
gene 3 12 4 8 0 19 8 1
gene 1 1 12 -1.55798 0 24 -1.55798 1
gene 1 2 12 1.65323 0 46 1.65323 1
gene 3 12 24 1.43256 0 53 1.43256 1
gene 3 24 4 0.995031 0 54 0.995031 1
gene 3 12 26 -1.85789 0 59 -1.85789 1
gene 3 26 24 -3.07018 0 60 -3.07018 1
gene 3 26 32 -3.47934 0 75 -3.47934 1
gene 3 32 24 1.28537 0 76 1.28537 1
gene 3 2 37 1.94399 0 90 1.94399 1
gene 1 37 12 -8 0 91 -8 1
gene 3 3 32 0.39079 0 101 0.39079 1
gene 3 26 63 -2.01842 0 175 -2.01842 1
gene 1 63 32 -1.23258 0 176 -1.23258 1
genomeend 30

/* Organism #31 Fitness: 8.58954 Error: 1.06921 */
genomestart 31
trait 1 0.075 0 0 0.159291 0 0 0 0 
trait 2 0.3 0 0.542493 0 0 0 0 0 
trait 3 0.3 0 0 0 0 0 0 0 
node 1 2 1 3
node 2 3 1 1
node 3 3 1 1
node 4 1 0 2
node 12 1 0 0
node 24 1 0 0
node 26 1 0 0
node 32 1 0 0
node 37 1 0 0
node 63 1 0 0
gene 3 1 4 -2.52541 0 1 -2.52541 1
gene 3 2 4 3.04343 0 2 3.04343 1
gene 3 3 4 0.65062 0 3 0.65062 1
gene 3 3 12 6.6298 0 18 6.6298 1
gene 3 12 4 7.77485 0 19 7.77485 1
gene 1 1 12 -0.592298 0 24 -0.592298 1
gene 1 2 12 -1.51147 0 46 -1.51147 1
gene 3 12 24 0.417058 0 53 0.417058 1
gene 3 24 4 4.75033 0 54 4.75033 1
gene 3 12 26 -2.35023 0 59 -2.35023 1
gene 3 26 24 -5.37364 0 60 -5.37364 1
gene 3 26 32 -2.95854 0 75 -2.95854 1
gene 3 32 24 0.696589 0 76 0.696589 1
gene 3 2 37 3.2569 0 90 3.2569 1
gene 1 37 12 -8 0 91 -8 1
gene 3 3 32 0.39079 0 101 0.39079 1
gene 3 26 63 0.927152 0 175 0.927152 1
gene 1 63 32 1.14436 0 176 1.14436 1
genomeend 31

/* Organism #32 Fitness: 4 Error: 2 */
genomestart 32
trait 1 0.075 0 0 0.159291 0 0 0 0 
trait 2 0.3 0 0.542493 0 0 0 0 0 
trait 3 0.3 0 0 0 0 0 0 0 
node 1 2 1 3
node 2 3 1 1
node 3 3 1 1
node 4 1 0 2
node 12 1 0 0
node 24 1 0 0
node 26 1 0 0
node 32 1 0 0
node 37 1 0 0
node 63 1 0 0
gene 3 1 4 -0.255211 0 1 -0.255211 1
gene 3 2 4 5.5564 0 2 5.5564 1
gene 3 3 4 -0.698222 0 3 -0.698222 1
gene 3 3 12 6.57631 0 18 6.57631 1
gene 3 12 4 7.44334 0 19 7.44334 1
gene 1 1 12 0.0347053 0 24 0.0347053 1
gene 1 2 12 -0.750641 0 46 -0.750641 1
gene 3 12 24 2.53367 0 53 2.53367 1
gene 3 24 4 1.205 0 54 1.205 1
gene 3 12 26 -0.371715 0 59 -0.371715 1
gene 3 26 24 -2.18865 0 60 -2.18865 1
gene 3 26 32 -2.45521 0 75 -2.45521 1
gene 3 32 24 2.75933 0 76 2.75933 1
gene 3 2 37 3.23431 0 90 3.23431 1
gene 1 37 12 1.78098 0 91 1.78098 1
gene 3 3 32 -1.0477 0 101 -1.0477 1
gene 3 26 63 -1.88017 0 175 -1.88017 1
gene 1 63 32 -3.52879 0 176 -3.52879 1
genomeend 32

/* Organism #33 Fitness: 5.24602 Error: 1.70958 */
genomestart 33
trait 1 0.075 0 0 0.159291 0 0 0 0 
trait 2 0.3 0 0.542493 0 0 0 0 0 
trait 3 0.3 0 0 0 0 0 0 0 
node 1 2 1 3
node 2 3 1 1
node 3 3 1 1
node 4 1 0 2
node 12 1 0 0
node 24 1 0 0
node 26 1 0 0
node 32 1 0 0
node 37 1 0 0
node 63 1 0 0
gene 3 1 4 -3.75355 0 1 -3.75355 1
gene 3 2 4 3.32939 0 2 3.32939 1
gene 3 3 4 0.73096 0 3 0.73096 1
gene 3 3 12 7.71465 0 18 7.71465 1
gene 3 12 4 8 0 19 8 1
gene 1 1 12 0.192486 0 24 0.192486 1
gene 1 2 12 -2.63943 0 46 -2.63943 1
gene 3 12 24 -1.78783 0 53 -1.78783 1
gene 3 24 4 4.92696 0 54 4.92696 1
gene 3 12 26 -4.0514 0 59 -4.0514 1
gene 3 26 24 -2.85022 0 60 -2.85022 1
gene 3 26 32 -0.526061 0 75 -0.526061 1
gene 3 32 24 0.363098 0 76 0.363098 1
gene 3 2 37 0.465979 0 90 0.465979 1
gene 1 37 12 -7.92866 0 91 -7.92866 1
gene 3 3 32 -1.79586 0 101 -1.79586 1
gene 3 26 63 -1.4597 0 175 -1.4597 1
gene 1 63 32 -1.23258 0 176 -1.23258 1
genomeend 33

/* Organism #34 Fitness: 7.62229 Error: 1.23915 */
genomestart 34
trait 1 0.075 0 0 0.159291 0 0 0 0 
trait 2 0.3 0 0.542493 0 0 0 0 0 
trait 3 0.3 0 0 0 0 0 0 0 
node 1 2 1 3
node 2 3 1 1
node 3 3 1 1
node 4 1 0 2
node 12 1 0 0
node 24 1 0 0
node 26 1 0 0
node 32 1 0 0
node 37 1 0 0
node 63 1 0 0
gene 3 1 4 -3.56388 0 1 -3.56388 1
gene 3 2 4 4.64634 0 2 4.64634 1
gene 3 3 4 -2.40161 0 3 -2.40161 1
gene 3 3 12 7.57511 0 18 7.57511 1
gene 3 12 4 5.97525 0 19 5.97525 1
gene 1 1 12 0.0920038 0 24 0.0920038 1
gene 1 2 12 0.44187 0 46 0.44187 1
gene 3 12 24 0.697981 0 53 0.697981 1
gene 3 24 4 4.11479 0 54 4.11479 1
gene 3 12 26 -0.196612 0 59 -0.196612 1
gene 3 26 24 -5.5479 0 60 -5.5479 1
gene 3 26 32 -2.71256 0 75 -2.71256 1
gene 3 32 24 0.294431 0 76 0.294431 1
gene 3 2 37 2.95003 0 90 2.95003 1
gene 1 37 12 -8 0 91 -8 1
gene 3 3 32 1.39607 0 101 1.39607 1
gene 3 26 63 -0.950117 0 175 -0.950117 1
gene 1 63 32 -1.23258 0 176 -1.23258 1
genomeend 34

/* Organism #35 Fitness: 3.29813 Error: 2.18393 */
genomestart 35
trait 1 0.075 0 0 0.159291 0 0 0 0 
trait 2 0.3 0 0.542493 0 0 0 0 0 
trait 3 0.3 0 0 0 0 0 0 0 
node 1 2 1 3
node 2 3 1 1
node 3 3 1 1
node 4 1 0 2
node 12 1 0 0
node 24 1 0 0
node 26 1 0 0
node 32 1 0 0
node 37 1 0 0
node 63 1 0 0
gene 3 1 4 -4.04294 0 1 -4.04294 1
gene 3 2 4 2.85735 0 2 2.85735 1
gene 3 3 4 0.884392 0 3 0.884392 1
gene 3 3 12 4.62122 0 18 4.62122 1
gene 3 12 4 8 0 19 8 1
gene 1 1 12 -1.38807 0 24 -1.38807 1
gene 1 2 12 -1.58647 0 46 -1.58647 1
gene 3 12 24 0.468787 0 53 0.468787 1
gene 3 24 4 5.34377 0 54 5.34377 1
gene 3 12 26 -3.66779 0 59 -3.66779 1
gene 3 26 24 -3.10405 0 60 -3.10405 1
gene 3 26 32 -3.75034 0 75 -3.75034 1
gene 3 32 24 2.38121 0 76 2.38121 1
gene 3 2 37 3.38919 0 90 3.38919 1
gene 1 37 12 -8 0 91 -8 1
gene 3 3 32 0.39079 0 101 0.39079 1
gene 3 26 63 -2.26173 0 175 -2.26173 1
gene 1 63 32 -0.649596 0 176 -0.649596 1
genomeend 35

/* Organism #36 Fitness: 13.8154 Error: 0.283092 */
/* ##------$ WINNER 36 SPECIES #11 $------## */
genomestart 36
trait 1 0.075 0 0 0.159291 0 0 0 0 
trait 2 0.3 0 0.542493 0 0 0 0 0 
trait 3 0.3 0 0 0 0 0 0 0 
node 1 2 1 3
node 2 3 1 1
node 3 3 1 1
node 4 1 0 2
node 12 1 0 0
node 24 1 0 0
node 26 1 0 0
node 32 1 0 0
node 37 1 0 0
node 63 1 0 0
gene 3 1 4 -1.5508 0 1 -1.5508 1
gene 3 2 4 1.66506 0 2 1.66506 1
gene 3 3 4 -2.29258 0 3 -2.29258 1
gene 3 3 12 5.73995 0 18 5.73995 1
gene 3 12 4 8 0 19 8 1
gene 1 1 12 -1.09822 0 24 -1.09822 1
gene 1 2 12 -2.0225 0 46 -2.0225 1
gene 3 12 24 0.545007 0 53 0.545007 1
gene 3 24 4 3.70828 0 54 3.70828 1
gene 3 12 26 -1.8321 0 59 -1.8321 1
gene 3 26 24 -1.58294 0 60 -1.58294 1
gene 3 26 32 -2.4842 0 75 -2.4842 1
gene 3 32 24 1.55233 0 76 1.55233 1
gene 3 2 37 3.09225 0 90 3.09225 1
gene 1 37 12 -6.50078 0 91 -6.50078 1
gene 3 3 32 -0.591067 0 101 -0.591067 1
gene 3 26 63 -1.4597 0 175 -1.4597 1
gene 1 63 32 0.988104 0 176 0.988104 1
genomeend 36

/* Organism #37 Fitness: 9.18999 Error: 0.9685 */
genomestart 37
trait 1 0.075 0 0 0.159291 0 0 0 0 
trait 2 0.3 0 0.542493 0 0 0 0 0 
trait 3 0.3 0 0 0 0 0 0 0 
node 1 2 1 3
node 2 3 1 1
node 3 3 1 1
node 4 1 0 2
node 12 1 0 0
node 24 1 0 0
node 26 1 0 0
node 32 1 0 0
node 37 1 0 0
node 63 1 0 0
gene 3 1 4 -3.33369 0 1 -3.33369 1
gene 3 2 4 3.15444 0 2 3.15444 1
gene 3 3 4 -0.0334521 0 3 -0.0334521 1
gene 3 3 12 7.07254 0 18 7.07254 1
gene 3 12 4 8 0 19 8 1
gene 1 1 12 -0.0946169 0 24 -0.0946169 1
gene 1 2 12 -0.750641 0 46 -0.750641 1
gene 3 12 24 0.587886 0 53 0.587886 1
gene 3 24 4 3.10729 0 54 3.10729 1
gene 3 12 26 -1.89878 0 59 -1.89878 1
gene 3 26 24 -3.28129 0 60 -3.28129 1
gene 3 26 32 -2.53395 0 75 -2.53395 1
gene 3 32 24 1.55233 0 76 1.55233 1
gene 3 2 37 1.17096 0 90 1.17096 1
gene 1 37 12 -8 0 91 -8 1
gene 3 3 32 0.39079 0 101 0.39079 1
gene 3 26 63 -1.4597 0 175 -1.4597 1
gene 1 63 32 -1.23258 0 176 -1.23258 1
gene 3 63 24 0.546983 0 668 0.546983 1
genomeend 37

/* Organism #38 Fitness: 8.99958 Error: 1.00007 */
genomestart 38
trait 1 0.075 0 0 0.159291 0 0 0 0 
trait 2 0.3 0 0.542493 0 0 0 0 0 
trait 3 0.3 0 0 0 0 0 0 0 
node 1 2 1 3
node 2 3 1 1
node 3 3 1 1
node 4 1 0 2
node 12 1 0 0
node 24 1 0 0
node 26 1 0 0
node 32 1 0 0
node 37 1 0 0
node 63 1 0 0
gene 3 1 4 -3.84098 0 1 -3.84098 1
gene 3 2 4 0.764309 0 2 0.764309 1
gene 3 3 4 -2.21789 0 3 -2.21789 1
gene 3 3 12 8 0 18 8 1
gene 3 12 4 8 0 19 8 1
gene 1 1 12 -0.00260361 0 24 -0.00260361 1
gene 1 2 12 -3.04632 0 46 -3.04632 1
gene 3 12 24 -1.25589 0 53 -1.25589 1
gene 3 24 4 2.55537 0 54 2.55537 1
gene 3 12 26 -0.0129666 0 59 -0.0129666 1
gene 3 26 24 -2.42143 0 60 -2.42143 1
gene 3 26 32 -4.63996 0 75 -4.63996 1
gene 3 32 24 -0.573057 0 76 -0.573057 1
gene 3 2 37 1.66238 0 90 1.66238 1
gene 1 37 12 -8 0 91 -8 1
gene 3 3 32 0.39079 0 101 0.39079 1
gene 3 26 63 -1.4597 0 175 -1.4597 1
gene 1 63 32 -1.19603 0 176 -1.19603 1
genomeend 38

/* Organism #39 Fitness: 9.18996 Error: 0.968505 */
genomestart 39
trait 1 0.075 0 0 0.159291 0 0 0 0 
trait 2 0.3 0 0.542493 0 0 0 0 0 
trait 3 0.3 0 0 0 0 0 0 0 
node 1 2 1 3
node 2 3 1 1
node 3 3 1 1
node 4 1 0 2
node 12 1 0 0
node 24 1 0 0
node 26 1 0 0
node 32 1 0 0
node 37 1 0 0
node 63 1 0 0
gene 3 1 4 -3.33369 0 1 -3.33369 1
gene 3 2 4 3.15444 0 2 3.15444 1
gene 3 3 4 -0.0334521 0 3 -0.0334521 1
gene 3 3 12 7.07254 0 18 7.07254 1
gene 3 12 4 8 0 19 8 1
gene 1 1 12 -0.0946169 0 24 -0.0946169 1
gene 1 2 12 -0.750641 0 46 -0.750641 1
gene 3 12 24 0.587886 0 53 0.587886 1
gene 3 24 4 3.10729 0 54 3.10729 1
gene 3 12 26 -1.89878 0 59 -1.89878 1
gene 3 26 24 -3.28129 0 60 -3.28129 1
gene 3 26 32 -2.53395 0 75 -2.53395 1
gene 3 32 24 1.55233 0 76 1.55233 1
gene 3 2 37 1.17096 0 90 1.17096 1
gene 1 37 12 -8 0 91 -8 1
gene 3 3 32 0.39079 0 101 0.39079 1
gene 3 26 63 -1.4597 0 175 -1.4597 1
gene 1 63 32 -1.23258 0 176 -1.23258 1
gene 3 1 24 0.088992 0 669 0.088992 1
genomeend 39

/* Organism #40 Fitness: 8.19415 Error: 1.13746 */
genomestart 40
trait 1 0.075 0 0 0.159291 0 0 0 0 
trait 2 0.3 0 0.542493 0 0 0 0 0 
trait 3 0.3 0 0 0 0 0 0 0 
node 1 2 1 3
node 2 3 1 1
node 3 3 1 1
node 4 1 0 2
node 12 1 0 0
node 24 1 0 0
node 26 1 0 0
node 32 1 0 0
node 37 1 0 0
node 63 1 0 0
gene 3 1 4 -1.58177 0 1 -1.58177 1
gene 3 2 4 1.95514 0 2 1.95514 1
gene 3 3 4 -0.826781 0 3 -0.826781 1
gene 3 3 12 8 0 18 8 1
gene 3 12 4 8 0 19 8 1
gene 1 1 12 0.844819 0 24 0.844819 1
gene 1 2 12 1.18828 0 46 1.18828 1
gene 3 12 24 -1.34859 0 53 -1.34859 1
gene 3 24 4 1.46914 0 54 1.46914 1
gene 3 12 26 -3.1595 0 59 -3.1595 1
gene 3 26 24 -5.65716 0 60 -5.65716 1
gene 3 26 32 -1.44581 0 75 -1.44581 1
gene 3 32 24 3.23916 0 76 3.23916 1
gene 3 2 37 0.0101093 0 90 0.0101093 1
gene 1 37 12 -8 0 91 -8 1
gene 3 3 32 0.39079 0 101 0.39079 1
gene 3 26 63 -1.60199 0 175 -1.60199 1
gene 1 63 32 1.07119 0 176 1.07119 1
genomeend 40

/* Organism #41 Fitness: 8.99712 Error: 1.00048 */
genomestart 41
trait 1 0.075 0 0 0.159291 0 0 0 0 
trait 2 0.3 0 0.542493 0 0 0 0 0 
trait 3 0.3 0 0 0 0 0 0 0 
node 1 2 1 3
node 2 3 1 1
node 3 3 1 1
node 4 1 0 2
node 12 1 0 0
node 24 1 0 0
node 26 1 0 0
node 32 1 0 0
node 37 1 0 0
node 63 1 0 0
gene 3 1 4 -1.55347 0 1 -1.55347 1
gene 3 2 4 4.12173 0 2 4.12173 1
gene 3 3 4 1.54123 0 3 1.54123 1
gene 3 3 12 7.14243 0 18 7.14243 1
gene 3 12 4 5.55615 0 19 5.55615 1
gene 1 1 12 1.00466 0 24 1.00466 1
gene 1 2 12 0.937643 0 46 0.937643 1
gene 3 12 24 -0.00936155 0 53 -0.00936155 1
gene 3 24 4 3.07189 0 54 3.07189 1
gene 3 12 26 -3.3272 0 59 -3.3272 1
gene 3 26 24 -4.85246 0 60 -4.85246 1
gene 3 26 32 -0.291602 0 75 -0.291602 1
gene 3 32 24 1.31848 0 76 1.31848 1
gene 3 2 37 2.17006 0 90 2.17006 1
gene 1 37 12 -8 0 91 -8 1
gene 3 3 32 0.39079 0 101 0.39079 1
gene 3 26 63 -2.09067 0 175 -2.09067 1
gene 1 63 32 -0.358373 0 176 -0.358373 1
genomeend 41

/* Organism #42 Fitness: 8.99954 Error: 1.00008 */
genomestart 42
trait 1 0.075 0 0 0.159291 0 0 0 0 
trait 2 0.3 0 0.542493 0 0 0 0 0 
trait 3 0.3 0 0 0 0 0 0 0 
node 1 2 1 3
node 2 3 1 1
node 3 3 1 1
node 4 1 0 2
node 12 1 0 0
node 24 1 0 0
node 26 1 0 0
node 32 1 0 0
node 37 1 0 0
node 63 1 0 0
gene 3 1 4 -4.99863 0 1 -4.99863 1
gene 3 2 4 4.56119 0 2 4.56119 1
gene 3 3 4 2.32937 0 3 2.32937 1
gene 3 3 12 8 0 18 8 1
gene 3 12 4 8 0 19 8 1
gene 1 1 12 -0.79578 0 24 -0.79578 1
gene 1 2 12 -0.11578 0 46 -0.11578 1
gene 3 12 24 -0.116863 0 53 -0.116863 1
gene 3 24 4 4.74949 0 54 4.74949 1
gene 3 12 26 -0.926157 0 59 -0.926157 1
gene 3 26 24 -1.34314 0 60 -1.34314 1
gene 3 26 32 -0.0701907 0 75 -0.0701907 1
gene 3 32 24 1.73559 0 76 1.73559 1
gene 3 2 37 1.96177 0 90 1.96177 1
gene 1 37 12 -7.26794 0 91 -7.26794 1
gene 3 3 32 2.62734 0 101 2.62734 1
gene 3 26 63 -2.84013 0 175 -2.84013 1
gene 1 63 32 0.428928 0 176 0.428928 1
genomeend 42

/* Organism #43 Fitness: 8.96338 Error: 1.00611 */
genomestart 43
trait 1 0.075 0 0 0.159291 0 0 0 0 
trait 2 0.3 0 0.542493 0 0 0 0 0 
trait 3 0.3 0 0 0 0 0 0 0 
node 1 2 1 3
node 2 3 1 1
node 3 3 1 1
node 4 1 0 2
node 12 1 0 0
node 24 1 0 0
node 26 1 0 0
node 32 1 0 0
node 37 1 0 0
node 63 1 0 0
gene 3 1 4 -4.86618 0 1 -4.86618 1
gene 3 2 4 1.42763 0 2 1.42763 1
gene 3 3 4 0.0790849 0 3 0.0790849 1
gene 3 3 12 7.3453 0 18 7.3453 1
gene 3 12 4 5.86271 0 19 5.86271 1
gene 1 1 12 1.58794 0 24 1.58794 1
gene 1 2 12 -1.1338 0 46 -1.1338 1
gene 3 12 24 -1.4036 0 53 -1.4036 1
gene 3 24 4 2.63227 0 54 2.63227 1
gene 3 12 26 -3.58829 0 59 -3.58829 1
gene 3 26 24 -3.39566 0 60 -3.39566 1
gene 3 26 32 -1.8028 0 75 -1.8028 1
gene 3 32 24 3.92285 0 76 3.92285 1
gene 3 2 37 1.27861 0 90 1.27861 1
gene 1 37 12 -8 0 91 -8 1
gene 3 3 32 -1.09661 0 101 -1.09661 1
gene 3 26 63 -1.12224 0 175 -1.12224 1
gene 1 63 32 0.0532548 0 176 0.0532548 1
genomeend 43

/* Organism #44 Fitness: 7.53345 Error: 1.25529 */
genomestart 44
trait 1 0.075 0 0 0.159291 0 0 0 0 
trait 2 0.3 0 0.542493 0 0 0 0 0 
trait 3 0.3 0 0 0 0 0 0 0 
node 1 2 1 3
node 2 3 1 1
node 3 3 1 1
node 4 1 0 2
node 12 1 0 0
node 24 1 0 0
node 26 1 0 0
node 32 1 0 0
node 37 1 0 0
node 63 1 0 0
gene 3 1 4 -0.268181 0 1 -0.268181 1
gene 3 2 4 -2.23037 0 2 -2.23037 1
gene 3 3 4 2.44152 0 3 2.44152 1
gene 3 3 12 4.81829 0 18 4.81829 1
gene 3 12 4 8 0 19 8 1
gene 1 1 12 -2.04299 0 24 -2.04299 1
gene 1 2 12 1.35975 0 46 1.35975 1
gene 3 12 24 -0.646153 0 53 -0.646153 1
gene 3 24 4 3.37998 0 54 3.37998 1
gene 3 12 26 -2.99882 0 59 -2.99882 1
gene 3 26 24 -3.17265 0 60 -3.17265 1
gene 3 26 32 -2.45338 0 75 -2.45338 1
gene 3 32 24 1.39676 0 76 1.39676 1
gene 3 2 37 3.07386 0 90 3.07386 1
gene 1 37 12 2.0175 0 91 2.0175 1
gene 3 3 32 2.24189 0 101 2.24189 1
gene 3 26 63 -0.0229652 0 175 -0.0229652 1
gene 1 63 32 -0.0544755 0 176 -0.0544755 1
genomeend 44

/* Organism #45 Fitness: 8.98772 Error: 1.00205 */
genomestart 45
trait 1 0.075 0 0 0.159291 0 0 0 0 
trait 2 0.3 0 0.542493 0 0 0 0 0 
trait 3 0.3 0 0 0 0 0 0 0 
node 1 2 1 3
node 2 3 1 1
node 3 3 1 1
node 4 1 0 2
node 12 1 0 0
node 24 1 0 0
node 26 1 0 0
node 32 1 0 0
node 37 1 0 0
node 63 1 0 0
gene 3 1 4 -4.6765 0 1 -4.6765 1
gene 3 2 4 3.15444 0 2 3.15444 1
gene 3 3 4 -2.0862 0 3 -2.0862 1
gene 3 3 12 7.69275 0 18 7.69275 1
gene 3 12 4 7.58319 0 19 7.58319 1
gene 1 1 12 0.294733 0 24 0.294733 1
gene 1 2 12 -0.367977 0 46 -0.367977 1
gene 3 12 24 2.17553 0 53 2.17553 1
gene 3 24 4 4.10929 0 54 4.10929 1
gene 3 12 26 -0.788747 0 59 -0.788747 1
gene 3 26 24 0.628147 0 60 0.628147 1
gene 3 26 32 -1.50097 0 75 -1.50097 1
gene 3 32 24 3.47385 0 76 3.47385 1
gene 3 2 37 0.133099 0 90 0.133099 1
gene 1 37 12 -7.49461 0 91 -7.49461 1
gene 3 3 32 0.472121 0 101 0.472121 1
gene 3 26 63 0.683691 0 175 0.683691 1
gene 1 63 32 -0.577496 0 176 -0.577496 1
genomeend 45

/* Organism #46 Fitness: 2.31204 Error: 2.47946 */
genomestart 46
trait 1 0.075 0 0 0.159291 0 0 0 0 
trait 2 0.3 0 0.542493 0 0 0 0 0 
trait 3 0.3 0 0 0 0 0 0 0 
node 1 2 1 3
node 2 3 1 1
node 3 3 1 1
node 4 1 0 2
node 12 1 0 0
node 24 1 0 0
node 26 1 0 0
node 32 1 0 0
node 37 1 0 0
node 63 1 0 0
gene 3 1 4 -0.966369 0 1 -0.966369 1
gene 3 2 4 0.710471 0 2 0.710471 1
gene 3 3 4 0.684267 0 3 0.684267 1
gene 3 3 12 0.17922 0 18 0.17922 1
gene 3 12 4 -2.43362 0 19 -2.43362 1
gene 1 1 12 0.53086 0 24 0.53086 1
gene 1 2 12 -0.750641 0 46 -0.750641 1
gene 3 12 24 1.09144 0 53 1.09144 1
gene 3 24 4 3.0561 0 54 3.0561 1
gene 3 12 26 -3.14958 0 59 -3.14958 1
gene 3 26 24 -3.73182 0 60 -3.73182 1
gene 3 26 32 -0.277182 0 75 -0.277182 1
gene 3 32 24 0.915483 0 76 0.915483 1
gene 3 2 37 0.0851466 0 90 0.0851466 1
gene 1 37 12 -8 0 91 -8 1
gene 3 3 32 0.0360118 0 101 0.0360118 1
gene 3 26 63 -0.423673 0 175 -0.423673 1
gene 1 63 32 -3.51345 0 176 -3.51345 1
genomeend 46

/* Organism #47 Fitness: 8.99285 Error: 1.00119 */
genomestart 47
trait 1 0.075 0 0 0.159291 0 0 0 0 
trait 2 0.3 0 0.542493 0 0 0 0 0 
trait 3 0.3 0 0 0 0 0 0 0 
node 1 2 1 3
node 2 3 1 1
node 3 3 1 1
node 4 1 0 2
node 12 1 0 0
node 24 1 0 0
node 26 1 0 0
node 32 1 0 0
node 37 1 0 0
node 63 1 0 0
gene 3 1 4 -3.18331 0 1 -3.18331 1
gene 3 2 4 4.42035 0 2 4.42035 1
gene 3 3 4 2.30434 0 3 2.30434 1
gene 3 3 12 6.30393 0 18 6.30393 1
gene 3 12 4 6.81436 0 19 6.81436 1
gene 1 1 12 -0.0946169 0 24 -0.0946169 1
gene 1 2 12 -1.97722 0 46 -1.97722 1
gene 3 12 24 0.588572 0 53 0.588572 1
gene 3 24 4 3.51823 0 54 3.51823 1
gene 3 12 26 -4.20713 0 59 -4.20713 1
gene 3 26 24 -1.32422 0 60 -1.32422 1
gene 3 26 32 -4.56938 0 75 -4.56938 1
gene 3 32 24 -1.17832 0 76 -1.17832 1
gene 3 2 37 3.04479 0 90 3.04479 1
gene 1 37 12 -7.89975 0 91 -7.89975 1
gene 3 3 32 -0.0188452 0 101 -0.0188452 1
gene 3 26 63 -0.797296 0 175 -0.797296 1
gene 1 63 32 -1.23258 0 176 -1.23258 1
genomeend 47

/* Organism #48 Fitness: 8.93342 Error: 1.01112 */
genomestart 48
trait 1 0.075 0 0 0.159291 0 0 0 0 
trait 2 0.3 0 0.542493 0 0 0 0 0 
trait 3 0.3 0 0 0 0 0 0 0 
node 1 2 1 3
node 2 3 1 1
node 3 3 1 1
node 4 1 0 2
node 12 1 0 0
node 24 1 0 0
node 26 1 0 0
node 32 1 0 0
node 37 1 0 0
node 63 1 0 0
gene 3 1 4 -3.39328 0 1 -3.39328 1
gene 3 2 4 4.30469 0 2 4.30469 1
gene 3 3 4 -1.94834 0 3 -1.94834 1
gene 3 3 12 8 0 18 8 1
gene 3 12 4 -2.14904 0 19 -2.14904 1
gene 1 1 12 0.589379 0 24 0.589379 1
gene 1 2 12 2.40844 0 46 2.40844 1
gene 3 12 24 0.587886 0 53 0.587886 1
gene 3 24 4 0.144124 0 54 0.144124 1
gene 3 12 26 0.303278 0 59 0.303278 1
gene 3 26 24 -5.41156 0 60 -5.41156 1
gene 3 26 32 -4.27022 0 75 -4.27022 1
gene 3 32 24 2.02544 0 76 2.02544 1
gene 3 2 37 2.82117 0 90 2.82117 1
gene 1 37 12 -8 0 91 -8 1
gene 3 3 32 1.87239 0 101 1.87239 1
gene 3 26 63 1.41934 0 175 1.41934 1
gene 1 63 32 -1.23258 0 176 -1.23258 1
genomeend 48

/* Organism #49 Fitness: 8.95345 Error: 1.00777 */
genomestart 49
trait 1 0.075 0 0 0.159291 0 0 0 0 
trait 2 0.3 0 0.542493 0 0 0 0 0 
trait 3 0.3 0 0 0 0 0 0 0 
node 1 2 1 3
node 2 3 1 1
node 3 3 1 1
node 4 1 0 2
node 12 1 0 0
node 24 1 0 0
node 26 1 0 0
node 32 1 0 0
node 37 1 0 0
node 63 1 0 0
gene 3 1 4 -2.17826 0 1 -2.17826 1
gene 3 2 4 3.72201 0 2 3.72201 1
gene 3 3 4 0.62262 0 3 0.62262 1
gene 3 3 12 8 0 18 8 1
gene 3 12 4 8 0 19 8 1
gene 1 1 12 -1.91749 0 24 -1.91749 1
gene 1 2 12 0.393956 0 46 0.393956 1
gene 3 12 24 2.4222 0 53 2.4222 1
gene 3 24 4 3.82021 0 54 3.82021 1
gene 3 12 26 -0.416192 0 59 -0.416192 1
gene 3 26 24 -0.787013 0 60 -0.787013 1
gene 3 26 32 -0.35737 0 75 -0.35737 1
gene 3 32 24 1.56881 0 76 1.56881 1
gene 3 2 37 -1.06117 0 90 -1.06117 1
gene 1 37 12 -8 0 91 -8 1
gene 3 3 32 1.31954 0 101 1.31954 1
gene 3 26 63 -0.629292 0 175 -0.629292 1
gene 1 63 32 -1.00276 0 176 -1.00276 1
genomeend 49

/* Organism #50 Fitness: 4.05817 Error: 1.98551 */
genomestart 50
trait 1 0.075 0 0 0.159291 0 0 0 0 
trait 2 0.3 0 0.542493 0 0 0 0 0 
trait 3 0.3 0 0 0 0 0 0 0 
node 1 2 1 3
node 2 3 1 1
node 3 3 1 1
node 4 1 0 2
node 12 1 0 0
node 24 1 0 0
node 26 1 0 0
node 32 1 0 0
node 37 1 0 0
node 63 1 0 0
gene 3 1 4 -3.33369 0 1 -3.33369 1
gene 3 2 4 2.47678 0 2 2.47678 1
gene 3 3 4 -1.8596 0 3 -1.8596 1
gene 3 3 12 8 0 18 8 1
gene 3 12 4 -1.13117 0 19 -1.13117 1
gene 1 1 12 0.0397408 0 24 0.0397408 1
gene 1 2 12 0.896443 0 46 0.896443 1
gene 3 12 24 -0.295091 0 53 -0.295091 1
gene 3 24 4 1.69454 0 54 1.69454 1
gene 3 12 26 -0.68094 0 59 -0.68094 1
gene 3 26 24 -5.7188 0 60 -5.7188 1
gene 3 26 32 2.04993 0 75 2.04993 1
gene 3 32 24 0.406354 0 76 0.406354 1
gene 3 2 37 1.05796 0 90 1.05796 1
gene 1 37 12 -8 0 91 -8 1
gene 3 3 32 -0.333338 0 101 -0.333338 1
gene 3 26 63 -3.01706 0 175 -3.01706 1
gene 1 63 32 -1.23258 0 176 -1.23258 1
genomeend 50

/* Organism #51 Fitness: 8.55046 Error: 1.07588 */
genomestart 51
trait 1 0.075 0 0 0.159291 0 0 0 0 
trait 2 0.3 0 0.542493 0 0 0 0 0 
trait 3 0.3 0 0 0 0 0 0 0 
node 1 2 1 3
node 2 3 1 1
node 3 3 1 1
node 4 1 0 2
node 12 1 0 0
node 24 1 0 0
node 26 1 0 0
node 32 1 0 0
node 37 1 0 0
node 63 1 0 0
gene 3 1 4 -1.96402 0 1 -1.96402 1
gene 3 2 4 2.46732 0 2 2.46732 1
gene 3 3 4 0.81069 0 3 0.81069 1
gene 3 3 12 7.28976 0 18 7.28976 1
gene 3 12 4 7.75135 0 19 7.75135 1
gene 1 1 12 -2.1534 0 24 -2.1534 1
gene 1 2 12 -1.48804 0 46 -1.48804 1
gene 3 12 24 2.3588 0 53 2.3588 1
gene 3 24 4 2.80287 0 54 2.80287 1
gene 3 12 26 -2.09402 0 59 -2.09402 1
gene 3 26 24 -4.34036 0 60 -4.34036 1
gene 3 26 32 -2.27164 0 75 -2.27164 1
gene 3 32 24 0.988269 0 76 0.988269 1
gene 3 2 37 1.53146 0 90 1.53146 1
gene 1 37 12 -5.7646 0 91 -5.7646 1
gene 3 3 32 -0.193411 0 101 -0.193411 1
gene 3 26 63 -1.4597 0 175 -1.4597 1
gene 1 63 32 -0.835606 0 176 -0.835606 1
genomeend 51

/* Organism #52 Fitness: 4.00005 Error: 1.99999 */
genomestart 52
trait 1 0.075 0 0 0.159291 0 0 0 0 
trait 2 0.3 0 0.542493 0 0 0 0 0 
trait 3 0.3 0 0 0 0 0 0 0 
node 1 2 1 3
node 2 3 1 1
node 3 3 1 1
node 4 1 0 2
node 12 1 0 0
node 24 1 0 0
node 26 1 0 0
node 32 1 0 0
node 37 1 0 0
node 63 1 0 0
gene 3 1 4 -4.86991 0 1 -4.86991 1
gene 3 2 4 2.57055 0 2 2.57055 1
gene 3 3 4 2.39574 0 3 2.39574 1
gene 3 3 12 5.70775 0 18 5.70775 1
gene 3 12 4 8 0 19 8 1
gene 1 1 12 -0.692627 0 24 -0.692627 1
gene 1 2 12 0.658628 0 46 0.658628 1
gene 3 12 24 0.601924 0 53 0.601924 1
gene 3 24 4 5.54938 0 54 5.54938 1
gene 3 12 26 -4.08215 0 59 -4.08215 1
gene 3 26 24 -4.43802 0 60 -4.43802 1
gene 3 26 32 -0.640276 0 75 -0.640276 1
gene 3 32 24 2.25639 0 76 2.25639 1
gene 3 2 37 0.831973 0 90 0.831973 1
gene 1 37 12 -6.08405 0 91 -6.08405 1
gene 3 3 32 -1.04099 0 101 -1.04099 1
gene 3 26 63 -2.5267 0 175 -2.5267 1
gene 1 63 32 -3.08734 0 176 -3.08734 1
genomeend 52

/* Organism #53 Fitness: 8.90526 Error: 1.01583 */
genomestart 53
trait 1 0.075 0 0 0.159291 0 0 0 0 
trait 2 0.3 0 0.542493 0 0 0 0 0 
trait 3 0.3 0 0 0 0 0 0 0 
node 1 2 1 3
node 2 3 1 1
node 3 3 1 1
node 4 1 0 2
node 12 1 0 0
node 24 1 0 0
node 26 1 0 0
node 32 1 0 0
node 37 1 0 0
node 63 1 0 0
gene 3 1 4 -1.33694 0 1 -1.33694 1
gene 3 2 4 2.19441 0 2 2.19441 1
gene 3 3 4 2.30678 0 3 2.30678 1
gene 3 3 12 4.68439 0 18 4.68439 1
gene 3 12 4 8 0 19 8 1
gene 1 1 12 2.01765 0 24 2.01765 1
gene 1 2 12 -0.40891 0 46 -0.40891 1
gene 3 12 24 2.63926 0 53 2.63926 1
gene 3 24 4 4.67404 0 54 4.67404 1
gene 3 12 26 -0.414361 0 59 -0.414361 1
gene 3 26 24 -4.55887 0 60 -4.55887 1
gene 3 26 32 -3.18781 0 75 -3.18781 1
gene 3 32 24 1.79342 0 76 1.79342 1
gene 3 2 37 2.10246 0 90 2.10246 1
gene 1 37 12 -8 0 91 -8 1
gene 3 3 32 2.66778 0 101 2.66778 1
gene 3 26 63 -1.59284 0 175 -1.59284 1
gene 1 63 32 -3.3659 0 176 -3.3659 1
genomeend 53

/* Organism #54 Fitness: 4.07721 Error: 1.98079 */
genomestart 54
trait 1 0.075 0 0 0.159291 0 0 0 0 
trait 2 0.3 0 0.542493 0 0 0 0 0 
trait 3 0.3 0 0 0 0 0 0 0 
node 1 2 1 3
node 2 3 1 1
node 3 3 1 1
node 4 1 0 2
node 12 1 0 0
node 24 1 0 0
node 26 1 0 0
node 32 1 0 0
node 37 1 0 0
node 63 1 0 0
gene 3 1 4 -5.459 0 1 -5.459 1
gene 3 2 4 4.66023 0 2 4.66023 1
gene 3 3 4 -0.199702 0 3 -0.199702 1
gene 3 3 12 8 0 18 8 1
gene 3 12 4 8 0 19 8 1
gene 1 1 12 -2.28638 0 24 -2.28638 1
gene 1 2 12 -1.7412 0 46 -1.7412 1
gene 3 12 24 1.76704 0 53 1.76704 1
gene 3 24 4 3.54432 0 54 3.54432 1
gene 3 12 26 0.200892 0 59 0.200892 1
gene 3 26 24 -4.43504 0 60 -4.43504 1
gene 3 26 32 -1.43734 0 75 -1.43734 1
gene 3 32 24 2.35283 0 76 2.35283 1
gene 3 2 37 -0.601405 0 90 -0.601405 1
gene 1 37 12 -5.55005 0 91 -5.55005 1
gene 3 3 32 2.29202 0 101 2.29202 1
gene 3 26 63 -1.4597 0 175 -1.4597 1
gene 1 63 32 1.70751 0 176 1.70751 1
genomeend 54

/* Organism #55 Fitness: 9.23514 Error: 0.961063 */
genomestart 55
trait 1 0.075 0 0 0.159291 0 0 0 0 
trait 2 0.3 0 0.542493 0 0 0 0 0 
trait 3 0.3 0 0 0 0 0 0 0 
node 1 2 1 3
node 2 3 1 1
node 3 3 1 1
node 4 1 0 2
node 12 1 0 0
node 24 1 0 0
node 26 1 0 0
node 32 1 0 0
node 37 1 0 0
node 63 1 0 0
gene 3 1 4 -3.33369 0 1 -3.33369 1
gene 3 2 4 3.15444 0 2 3.15444 1
gene 3 3 4 -0.0334521 0 3 -0.0334521 1
gene 3 3 12 7.07254 0 18 7.07254 1
gene 3 12 4 8 0 19 8 1
gene 1 1 12 -0.0946169 0 24 -0.0946169 1
gene 1 2 12 -0.750641 0 46 -0.750641 1
gene 3 12 24 0.587886 0 53 0.587886 1
gene 3 24 4 3.10729 0 54 3.10729 1
gene 3 12 26 -1.89878 0 59 -1.89878 1
gene 3 26 24 -3.28129 0 60 -3.28129 1
gene 3 26 32 -2.53395 0 75 -2.53395 1
gene 3 32 24 1.55233 0 76 1.55233 1
gene 3 2 37 1.17096 0 90 1.17096 1
gene 1 37 12 -8 0 91 -8 1
gene 3 3 32 0.39079 0 101 0.39079 1
gene 3 26 63 -1.4597 0 175 -1.4597 1
gene 1 63 32 -1.23258 0 176 -1.23258 1
gene 2 37 4 0.157811 0 670 0.157811 1
genomeend 55

/* Organism #56 Fitness: 8.99927 Error: 1.00012 */
genomestart 56
trait 1 0.075 0 0 0.159291 0 0 0 0 
trait 2 0.3 0 0.542493 0 0 0 0 0 
trait 3 0.3 0 0 0 0 0 0 0 
node 1 2 1 3
node 2 3 1 1
node 3 3 1 1
node 4 1 0 2
node 12 1 0 0
node 24 1 0 0
node 26 1 0 0
node 32 1 0 0
node 37 1 0 0
node 63 1 0 0
gene 3 1 4 -3.33369 0 1 -3.33369 1
gene 3 2 4 1.09902 0 2 1.09902 1
gene 3 3 4 -1.27876 0 3 -1.27876 1
gene 3 3 12 6.85968 0 18 6.85968 1
gene 3 12 4 5.84059 0 19 5.84059 1
gene 1 1 12 0.946455 0 24 0.946455 1
gene 1 2 12 -0.750641 0 46 -0.750641 1
gene 3 12 24 0.587886 0 53 0.587886 1
gene 3 24 4 1.6865 0 54 1.6865 1
gene 3 12 26 -2.90933 0 59 -2.90933 1
gene 3 26 24 -1.08266 0 60 -1.08266 1
gene 3 26 32 -2.12752 0 75 -2.12752 1
gene 3 32 24 1.68943 0 76 1.68943 1
gene 3 2 37 1.44036 0 90 1.44036 1
gene 1 37 12 -8 0 91 -8 1
gene 3 3 32 1.78396 0 101 1.78396 1
gene 3 26 63 2.15476 0 175 2.15476 1
gene 1 63 32 -0.462584 0 176 -0.462584 1
genomeend 56

/* Organism #57 Fitness: 5.75137 Error: 1.6018 */
genomestart 57
trait 1 0.075 0 0 0.159291 0 0 0 0 
trait 2 0.3 0 0.542493 0 0 0 0 0 
trait 3 0.3 0 0 0 0 0 0 0 
node 1 2 1 3
node 2 3 1 1
node 3 3 1 1
node 4 1 0 2
node 12 1 0 0
node 24 1 0 0
node 26 1 0 0
node 32 1 0 0
node 37 1 0 0
node 63 1 0 0
gene 3 1 4 -4.50842 0 1 -4.50842 1
gene 3 2 4 4.4234 0 2 4.4234 1
gene 3 3 4 -0.116691 0 3 -0.116691 1
gene 3 3 12 8 0 18 8 1
gene 3 12 4 6.71654 0 19 6.71654 1
gene 1 1 12 -0.868337 0 24 -0.868337 1
gene 1 2 12 0.189558 0 46 0.189558 1
gene 3 12 24 -0.742035 0 53 -0.742035 1
gene 3 24 4 3.04229 0 54 3.04229 1
gene 3 12 26 -4.00708 0 59 -4.00708 1
gene 3 26 24 -3.31479 0 60 -3.31479 1
gene 3 26 32 -2.72622 0 75 -2.72622 1
gene 3 32 24 2.46765 0 76 2.46765 1
gene 3 2 37 0.528771 0 90 0.528771 1
gene 1 37 12 -7.88304 0 91 -7.88304 1
gene 3 3 32 -0.900754 0 101 -0.900754 1
gene 3 26 63 0.290613 0 175 0.290613 1
gene 1 63 32 0.912799 0 176 0.912799 1
genomeend 57

/* Organism #58 Fitness: 8.52668 Error: 1.07995 */
genomestart 58
trait 1 0.075 0 0 0.159291 0 0 0 0 
trait 2 0.3 0 0.542493 0 0 0 0 0 
trait 3 0.3 0 0 0 0 0 0 0 
node 1 2 1 3
node 2 3 1 1
node 3 3 1 1
node 4 1 0 2
node 12 1 0 0
node 24 1 0 0
node 26 1 0 0
node 32 1 0 0
node 37 1 0 0
node 63 1 0 0
gene 3 1 4 -4.25672 0 1 -4.25672 1
gene 3 2 4 4.75354 0 2 4.75354 1
gene 3 3 4 -2.17997 0 3 -2.17997 1
gene 3 3 12 4.92389 0 18 4.92389 1
gene 3 12 4 8 0 19 8 1
gene 1 1 12 -1.22518 0 24 -1.22518 1
gene 1 2 12 -0.480781 0 46 -0.480781 1
gene 3 12 24 -1.56596 0 53 -1.56596 1
gene 3 24 4 -1.7333 0 54 -1.7333 1
gene 3 12 26 -2.65785 0 59 -2.65785 1
gene 3 26 24 -5.12438 0 60 -5.12438 1
gene 3 26 32 -1.38996 0 75 -1.38996 1
gene 3 32 24 -0.593352 0 76 -0.593352 1
gene 3 2 37 2.09758 0 90 2.09758 1
gene 1 37 12 -8 0 91 -8 1
gene 3 3 32 -0.403073 0 101 -0.403073 1
gene 3 26 63 -1.4597 0 175 -1.4597 1
gene 1 63 32 -0.875433 0 176 -0.875433 1
genomeend 58

/* Organism #59 Fitness: 9.1902 Error: 0.968466 */
genomestart 59
trait 1 0.075 0 0 0.159291 0 0 0 0 
trait 2 0.3 0 0.542493 0 0 0 0 0 
trait 3 0.3 0 0 0 0 0 0 0 
node 1 2 1 3
node 2 3 1 1
node 3 3 1 1
node 4 1 0 2
node 12 1 0 0
node 24 1 0 0
node 26 1 0 0
node 32 1 0 0
node 37 1 0 0
node 63 1 0 0
gene 3 1 4 -3.33369 0 1 -3.33369 1
gene 3 2 4 3.15444 0 2 3.15444 1
gene 3 3 4 -0.0334521 0 3 -0.0334521 1
gene 3 3 12 7.07254 0 18 7.07254 1
gene 3 12 4 8 0 19 8 1
gene 1 1 12 -0.0946169 0 24 -0.0946169 1
gene 1 2 12 -0.750641 0 46 -0.750641 1
gene 3 12 24 0.587886 0 53 0.587886 1
gene 3 24 4 3.10729 0 54 3.10729 1
gene 3 12 26 -1.89878 0 59 -1.89878 1
gene 3 26 24 -3.28129 0 60 -3.28129 1
gene 3 26 32 -2.53395 0 75 -2.53395 1
gene 3 32 24 1.55233 0 76 1.55233 1
gene 3 2 37 1.17096 0 90 1.17096 1
gene 1 37 12 -8 0 91 -8 1
gene 3 3 32 0.39079 0 101 0.39079 1
gene 3 26 63 -1.4597 0 175 -1.4597 1
gene 1 63 32 -1.23258 0 176 -1.23258 1
gene 3 3 63 0.30427 0 671 0.30427 1
genomeend 59

/* Organism #60 Fitness: 4.21992 Error: 1.94576 */
genomestart 60
trait 1 0.075 0 0 0.159291 0 0 0 0 
trait 2 0.3 0 0.542493 0 0 0 0 0 
trait 3 0.3 0 0 0 0 0 0 0 
node 1 2 1 3
node 2 3 1 1
node 3 3 1 1
node 4 1 0 2
node 12 1 0 0
node 24 1 0 0
node 26 1 0 0
node 32 1 0 0
node 37 1 0 0
node 63 1 0 0
gene 3 1 4 -4.48744 0 1 -4.48744 1
gene 3 2 4 3.28804 0 2 3.28804 1
gene 3 3 4 1.35316 0 3 1.35316 1
gene 3 3 12 8 0 18 8 1
gene 3 12 4 8 0 19 8 1
gene 1 1 12 1.13383 0 24 1.13383 1
gene 1 2 12 -1.70167 0 46 -1.70167 1
gene 3 12 24 1.77521 0 53 1.77521 1
gene 3 24 4 5.22261 0 54 5.22261 1
gene 3 12 26 -2.387 0 59 -2.387 1
gene 3 26 24 -2.20384 0 60 -2.20384 1
gene 3 26 32 -0.314034 0 75 -0.314034 1
gene 3 32 24 3.0414 0 76 3.0414 1
gene 3 2 37 -0.0822855 0 90 -0.0822855 1
gene 1 37 12 -7.86343 0 91 -7.86343 1
gene 3 3 32 0.39079 0 101 0.39079 1
gene 3 26 63 2.29354 0 175 2.29354 1
gene 1 63 32 0.236204 0 176 0.236204 1
genomeend 60

/* Organism #61 Fitness: 6.65108 Error: 1.42103 */
genomestart 61
trait 1 0.075 0 0 0.159291 0 0 0 0 
trait 2 0.3 0 0.542493 0 0 0 0 0 
trait 3 0.3 0 0 0 0 0 0 0 
node 1 2 1 3
node 2 3 1 1
node 3 3 1 1
node 4 1 0 2
node 12 1 0 0
node 24 1 0 0
node 26 1 0 0
node 32 1 0 0
node 37 1 0 0
node 63 1 0 0
gene 3 1 4 -1.06502 0 1 -1.06502 1
gene 3 2 4 1.11665 0 2 1.11665 1
gene 3 3 4 0.784902 0 3 0.784902 1
gene 3 3 12 4.95853 0 18 4.95853 1
gene 3 12 4 5.77879 0 19 5.77879 1
gene 1 1 12 -0.747484 0 24 -0.747484 1
gene 1 2 12 -1.37452 0 46 -1.37452 1
gene 3 12 24 2.76706 0 53 2.76706 1
gene 3 24 4 4.89827 0 54 4.89827 1
gene 3 12 26 -2.90315 0 59 -2.90315 1
gene 3 26 24 -2.82298 0 60 -2.82298 1
gene 3 26 32 -0.67255 0 75 -0.67255 1
gene 3 32 24 -0.196688 0 76 -0.196688 1
gene 3 2 37 3.27277 0 90 3.27277 1
gene 1 37 12 -6.34819 0 91 -6.34819 1
gene 3 3 32 0.39079 0 101 0.39079 1
gene 3 26 63 -0.85902 0 175 -0.85902 1
gene 1 63 32 -2.41166 0 176 -2.41166 1
genomeend 61

/* Organism #62 Fitness: 8.99092 Error: 1.00151 */
genomestart 62
trait 1 0.075 0 0 0.159291 0 0 0 0 
trait 2 0.3 0 0.542493 0 0 0 0 0 
trait 3 0.3 0 0 0 0 0 0 0 
node 1 2 1 3
node 2 3 1 1
node 3 3 1 1
node 4 1 0 2
node 12 1 0 0
node 24 1 0 0
node 26 1 0 0
node 32 1 0 0
node 37 1 0 0
node 63 1 0 0
gene 3 1 4 -2.90765 0 1 -2.90765 1
gene 3 2 4 4.26165 0 2 4.26165 1
gene 3 3 4 -1.8464 0 3 -1.8464 1
gene 3 3 12 4.59726 0 18 4.59726 1
gene 3 12 4 5.84837 0 19 5.84837 1
gene 1 1 12 1.07668 0 24 1.07668 1
gene 1 2 12 -0.750641 0 46 -0.750641 1
gene 3 12 24 2.73135 0 53 2.73135 1
gene 3 24 4 2.31702 0 54 2.31702 1
gene 3 12 26 1.89825 0 59 1.89825 1
gene 3 26 24 -2.95108 0 60 -2.95108 1
gene 3 26 32 -3.7228 0 75 -3.7228 1
gene 3 32 24 -1.80219 0 76 -1.80219 1
gene 3 2 37 0.143704 0 90 0.143704 1
gene 1 37 12 -6.18537 0 91 -6.18537 1
gene 3 3 32 -1.82821 0 101 -1.82821 1
gene 3 26 63 1.54118 0 175 1.54118 1
gene 1 63 32 -0.345784 0 176 -0.345784 1
genomeend 62

/* Organism #63 Fitness: 4.92368 Error: 1.78106 */
genomestart 63
trait 1 0.075 0 0 0.159291 0 0 0 0 
trait 2 0.3 0 0.542493 0 0 0 0 0 
trait 3 0.3 0 0 0 0 0 0 0 
node 1 2 1 3
node 2 3 1 1
node 3 3 1 1
node 4 1 0 2
node 12 1 0 0
node 24 1 0 0
node 26 1 0 0
node 32 1 0 0
node 37 1 0 0
node 63 1 0 0
gene 3 1 4 -3.48575 0 1 -3.48575 1
gene 3 2 4 2.36615 0 2 2.36615 1
gene 3 3 4 1.38268 0 3 1.38268 1
gene 3 3 12 5.0529 0 18 5.0529 1
gene 3 12 4 8 0 19 8 1
gene 1 1 12 -0.0149636 0 24 -0.0149636 1
gene 1 2 12 -2.24963 0 46 -2.24963 1
gene 3 12 24 1.55639 0 53 1.55639 1
gene 3 24 4 0.660319 0 54 0.660319 1
gene 3 12 26 0.577033 0 59 0.577033 1
gene 3 26 24 -4.8813 0 60 -4.8813 1
gene 3 26 32 -3.17011 0 75 -3.17011 1
gene 3 32 24 -0.62822 0 76 -0.62822 1
gene 3 2 37 2.66781 0 90 2.66781 1
gene 1 37 12 -8 0 91 -8 1
gene 3 3 32 0.39079 0 101 0.39079 1
gene 3 26 63 -1.4597 0 175 -1.4597 1
gene 1 63 32 -1.23258 0 176 -1.23258 1
genomeend 63

/* Organism #64 Fitness: 3.8981 Error: 2.02564 */
genomestart 64
trait 1 0.075 0 0 0.159291 0 0 0 0 
trait 2 0.3 0 0.542493 0 0 0 0 0 
trait 3 0.3 0 0 0 0 0 0 0 
node 1 2 1 3
node 2 3 1 1
node 3 3 1 1
node 4 1 0 2
node 12 1 0 0
node 24 1 0 0
node 26 1 0 0
node 32 1 0 0
node 37 1 0 0
node 63 1 0 0
gene 3 1 4 -3.73066 0 1 -3.73066 1
gene 3 2 4 1.51819 0 2 1.51819 1
gene 3 3 4 -1.49559 0 3 -1.49559 1
gene 3 3 12 6.29173 0 18 6.29173 1
gene 3 12 4 5.96442 0 19 5.96442 1
gene 1 1 12 0.909213 0 24 0.909213 1
gene 1 2 12 -1.86968 0 46 -1.86968 1
gene 3 12 24 -1.6817 0 53 -1.6817 1
gene 3 24 4 0.828476 0 54 0.828476 1
gene 3 12 26 -2.41706 0 59 -2.41706 1
gene 3 26 24 -1.42264 0 60 -1.42264 1
gene 3 26 32 -2.94374 0 75 -2.94374 1
gene 3 32 24 0.297407 0 76 0.297407 1
gene 3 2 37 -0.959464 0 90 -0.959464 1
gene 1 37 12 -8 0 91 -8 1
gene 3 3 32 0.0986511 0 101 0.0986511 1
gene 3 26 63 -1.4597 0 175 -1.4597 1
gene 1 63 32 -1.23258 0 176 -1.23258 1
genomeend 64

/* Organism #65 Fitness: 9.46154 Error: 0.924038 */
genomestart 65
trait 1 0.075 0 0 0.159291 0 0 0 0 
trait 2 0.3 0 0.542493 0 0 0 0 0 
trait 3 0.3 0 0 0 0 0 0 0 
node 1 2 1 3
node 2 3 1 1
node 3 3 1 1
node 4 1 0 2
node 12 1 0 0
node 24 1 0 0
node 26 1 0 0
node 32 1 0 0
node 37 1 0 0
node 63 1 0 0
gene 3 1 4 -2.52464 0 1 -2.52464 1
gene 3 2 4 3.6963 0 2 3.6963 1
gene 3 3 4 -0.67312 0 3 -0.67312 1
gene 3 3 12 5.42683 0 18 5.42683 1
gene 3 12 4 8 0 19 8 1
gene 1 1 12 -0.728257 0 24 -0.728257 1
gene 1 2 12 -0.885609 0 46 -0.885609 1
gene 3 12 24 -1.24551 0 53 -1.24551 1
gene 3 24 4 5.34407 0 54 5.34407 1
gene 3 12 26 -3.4347 0 59 -3.4347 1
gene 3 26 24 -5.65685 0 60 -5.65685 1
gene 3 26 32 -4.09375 0 75 -4.09375 1
gene 3 32 24 -0.406198 0 76 -0.406198 1
gene 3 2 37 0.542734 0 90 0.542734 1
gene 1 37 12 -8 0 91 -8 1
gene 3 3 32 -1.72094 0 101 -1.72094 1
gene 3 26 63 -2.62978 0 175 -2.62978 1
gene 1 63 32 -1.48138 0 176 -1.48138 1
genomeend 65

/* Organism #66 Fitness: 8.93041 Error: 1.01162 */
genomestart 66
trait 1 0.075 0 0 0.159291 0 0 0 0 
trait 2 0.3 0 0.542493 0 0 0 0 0 
trait 3 0.3 0 0 0 0 0 0 0 
node 1 2 1 3
node 2 3 1 1
node 3 3 1 1
node 4 1 0 2
node 12 1 0 0
node 24 1 0 0
node 26 1 0 0
node 32 1 0 0
node 37 1 0 0
node 63 1 0 0
gene 3 1 4 -1.07448 0 1 -1.07448 1
gene 3 2 4 3.92336 0 2 3.92336 1
gene 3 3 4 -0.308576 0 3 -0.308576 1
gene 3 3 12 6.77049 0 18 6.77049 1
gene 3 12 4 8 0 19 8 1
gene 1 1 12 2.08448 0 24 2.08448 1
gene 1 2 12 -1.86892 0 46 -1.86892 1
gene 3 12 24 -0.0584201 0 53 -0.0584201 1
gene 3 24 4 0.705105 0 54 0.705105 1
gene 3 12 26 -3.10579 0 59 -3.10579 1
gene 3 26 24 -4.87176 0 60 -4.87176 1
gene 3 26 32 -2.69539 0 75 -2.69539 1
gene 3 32 24 0.150536 0 76 0.150536 1
gene 3 2 37 0.459876 0 90 0.459876 1
gene 1 37 12 -5.71935 0 91 -5.71935 1
gene 3 3 32 0.39079 0 101 0.39079 1
gene 3 26 63 -2.84333 0 175 -2.84333 1
gene 1 63 32 -1.23258 0 176 -1.23258 1
genomeend 66

/* Organism #67 Fitness: 5.2607 Error: 1.70638 */
genomestart 67
trait 1 0.075 0 0 0.159291 0 0 0 0 
trait 2 0.3 0 0.542493 0 0 0 0 0 
trait 3 0.3 0 0 0 0 0 0 0 
node 1 2 1 3
node 2 3 1 1
node 3 3 1 1
node 4 1 0 2
node 12 1 0 0
node 24 1 0 0
node 26 1 0 0
node 32 1 0 0
node 37 1 0 0
node 63 1 0 0
gene 3 1 4 -3.33369 0 1 -3.33369 1
gene 3 2 4 3.15444 0 2 3.15444 1
gene 3 3 4 -0.0334521 0 3 -0.0334521 1
gene 3 3 12 7.07254 0 18 7.07254 1
gene 3 12 4 8 0 19 8 1
gene 1 1 12 -0.0946169 0 24 -0.0946169 1
gene 1 2 12 -0.750641 0 46 -0.750641 1
gene 3 12 24 0.587886 0 53 0.587886 1
gene 3 24 4 3.10729 0 54 3.10729 1
gene 3 12 26 -1.89878 0 59 -1.89878 1
gene 3 26 24 -3.28129 0 60 -3.28129 1
gene 3 26 32 -2.53395 0 75 -2.53395 1
gene 3 32 24 1.55233 0 76 1.55233 1
gene 3 2 37 1.17096 0 90 1.17096 1
gene 1 37 12 -8 0 91 -8 1
gene 3 3 32 0.39079 0 101 0.39079 1
gene 3 26 63 -1.4597 0 175 -1.4597 1
gene 1 63 32 -1.23258 0 176 -1.23258 1
gene 3 3 37 -0.913053 0 672 -0.913053 1
genomeend 67

/* Organism #68 Fitness: 4.00544 Error: 1.99864 */
genomestart 68
trait 1 0.075 0 0 0.159291 0 0 0 0 
trait 2 0.3 0 0.542493 0 0 0 0 0 
trait 3 0.3 0 0 0 0 0 0 0 
node 1 2 1 3
node 2 3 1 1
node 3 3 1 1
node 4 1 0 2
node 12 1 0 0
node 24 1 0 0
node 26 1 0 0
node 32 1 0 0
node 37 1 0 0
node 63 1 0 0
gene 3 1 4 1.33595 0 1 1.33595 1
gene 3 2 4 3.22914 0 2 3.22914 1
gene 3 3 4 -1.80932 0 3 -1.80932 1
gene 3 3 12 8 0 18 8 1
gene 3 12 4 8 0 19 8 1
gene 1 1 12 1.26484 0 24 1.26484 1
gene 1 2 12 -0.750641 0 46 -0.750641 1
gene 3 12 24 2.21572 0 53 2.21572 1
gene 3 24 4 1.1818 0 54 1.1818 1
gene 3 12 26 -1.73024 0 59 -1.73024 1
gene 3 26 24 -2.2915 0 60 -2.2915 1
gene 3 26 32 -3.69381 0 75 -3.69381 1
gene 3 32 24 0.765408 0 76 0.765408 1
gene 3 2 37 -1.54698 0 90 -1.54698 1
gene 1 37 12 -7.15891 0 91 -7.15891 1
gene 3 3 32 2.78748 0 101 2.78748 1
gene 3 26 63 -1.4597 0 175 -1.4597 1
gene 1 63 32 0.391018 0 176 0.391018 1
genomeend 68

/* Organism #69 Fitness: 8.99928 Error: 1.00012 */
genomestart 69
trait 1 0.075 0 0 0.159291 0 0 0 0 
trait 2 0.3 0 0.542493 0 0 0 0 0 
trait 3 0.3 0 0 0 0 0 0 0 
node 1 2 1 3
node 2 3 1 1
node 3 3 1 1
node 4 1 0 2
node 12 1 0 0
node 24 1 0 0
node 26 1 0 0
node 32 1 0 0
node 37 1 0 0
node 63 1 0 0
gene 3 1 4 -1.91198 0 1 -1.91198 1
gene 3 2 4 4.07511 0 2 4.07511 1
gene 3 3 4 0.939478 0 3 0.939478 1
gene 3 3 12 5.71493 0 18 5.71493 1
gene 3 12 4 6.73119 0 19 6.73119 1
gene 1 1 12 -0.206925 0 24 -0.206925 1
gene 1 2 12 -0.00293741 0 46 -0.00293741 1
gene 3 12 24 1.46819 0 53 1.46819 1
gene 3 24 4 1.05141 0 54 1.05141 1
gene 3 12 26 -3.85921 0 59 -3.85921 1
gene 3 26 24 -1.30194 0 60 -1.30194 1
gene 3 26 32 -1.81593 0 75 -1.81593 1
gene 3 32 24 1.11431 0 76 1.11431 1
gene 3 2 37 3.28154 0 90 3.28154 1
gene 1 37 12 -8 0 91 -8 1
gene 3 3 32 -0.0808741 0 101 -0.0808741 1
gene 3 26 63 -0.559633 0 175 -0.559633 1
gene 1 63 32 -0.454735 0 176 -0.454735 1
genomeend 69

/* Organism #70 Fitness: 8.96219 Error: 1.00631 */
genomestart 70
trait 1 0.075 0 0 0.159291 0 0 0 0 
trait 2 0.3 0 0.542493 0 0 0 0 0 
trait 3 0.3 0 0 0 0 0 0 0 
node 1 2 1 3
node 2 3 1 1
node 3 3 1 1
node 4 1 0 2
node 12 1 0 0
node 24 1 0 0
node 26 1 0 0
node 32 1 0 0
node 37 1 0 0
node 63 1 0 0
gene 3 1 4 -4.61104 0 1 -4.61104 1
gene 3 2 4 5.60744 0 2 5.60744 1
gene 3 3 4 -2.24818 0 3 -2.24818 1
gene 3 3 12 8 0 18 8 1
gene 3 12 4 5.54555 0 19 5.54555 1
gene 1 1 12 0.600137 0 24 0.600137 1
gene 1 2 12 -1.94887 0 46 -1.94887 1
gene 3 12 24 2.07849 0 53 2.07849 1
gene 3 24 4 3.41164 0 54 3.41164 1
gene 3 12 26 -1.14482 0 59 -1.14482 1
gene 3 26 24 -1.99166 0 60 -1.99166 1
gene 3 26 32 -0.839028 0 75 -0.839028 1
gene 3 32 24 1.69607 0 76 1.69607 1
gene 3 2 37 0.0877026 0 90 0.0877026 1
gene 1 37 12 -5.54357 0 91 -5.54357 1
gene 3 3 32 1.55896 0 101 1.55896 1
gene 3 26 63 2.18505 0 175 2.18505 1
gene 1 63 32 -0.289544 0 176 -0.289544 1
genomeend 70

/* Organism #71 Fitness: 9.18998 Error: 0.968502 */
genomestart 71
trait 1 0.075 0 0 0.159291 0 0 0 0 
trait 2 0.3 0 0.542493 0 0 0 0 0 
trait 3 0.3 0 0 0 0 0 0 0 
node 1 2 1 3
node 2 3 1 1
node 3 3 1 1
node 4 1 0 2
node 12 1 0 0
node 24 1 0 0
node 26 1 0 0
node 32 1 0 0
node 37 1 0 0
node 63 1 0 0
gene 3 1 4 -3.33369 0 1 -3.33369 1
gene 3 2 4 3.15444 0 2 3.15444 1
gene 3 3 4 -0.0334521 0 3 -0.0334521 1
gene 3 3 12 7.07254 0 18 7.07254 1
gene 3 12 4 8 0 19 8 1
gene 1 1 12 -0.0946169 0 24 -0.0946169 1
gene 1 2 12 -0.750641 0 46 -0.750641 1
gene 3 12 24 0.587886 0 53 0.587886 1
gene 3 24 4 3.10729 0 54 3.10729 1
gene 3 12 26 -1.89878 0 59 -1.89878 1
gene 3 26 24 -3.28129 0 60 -3.28129 1
gene 3 26 32 -2.53395 0 75 -2.53395 1
gene 3 32 24 1.55233 0 76 1.55233 1
gene 3 2 37 1.17096 0 90 1.17096 1
gene 1 37 12 -8 0 91 -8 1
gene 3 3 32 0.39079 0 101 0.39079 1
gene 3 26 63 -1.4597 0 175 -1.4597 1
gene 1 63 32 -1.23258 0 176 -1.23258 1
gene 2 1 63 -0.0587176 0 673 -0.0587176 1
genomeend 71

/* Organism #72 Fitness: 8.95817 Error: 1.00698 */
genomestart 72
trait 1 0.075 0 0 0.159291 0 0 0 0 
trait 2 0.3 0 0.542493 0 0 0 0 0 
trait 3 0.3 0 0 0 0 0 0 0 
node 1 2 1 3
node 2 3 1 1
node 3 3 1 1
node 4 1 0 2
node 12 1 0 0
node 24 1 0 0
node 26 1 0 0
node 32 1 0 0
node 37 1 0 0
node 63 1 0 0
gene 3 1 4 -1.0107 0 1 -1.0107 1
gene 3 2 4 3.30971 0 2 3.30971 1
gene 3 3 4 -1.324 0 3 -1.324 1
gene 3 3 12 6.93605 0 18 6.93605 1
gene 3 12 4 8 0 19 8 1
gene 1 1 12 0.852983 0 24 0.852983 1
gene 1 2 12 0.0741981 0 46 0.0741981 1
gene 3 12 24 0.283464 0 53 0.283464 1
gene 3 24 4 2.48273 0 54 2.48273 1
gene 3 12 26 0.296415 0 59 0.296415 1
gene 3 26 24 -2.66337 0 60 -2.66337 1
gene 3 26 32 -3.05681 0 75 -3.05681 1
gene 3 32 24 1.43888 0 76 1.43888 1
gene 3 2 37 0.610561 0 90 0.610561 1
gene 1 37 12 -8 0 91 -8 1
gene 3 3 32 0.39079 0 101 0.39079 1
gene 3 26 63 -1.4597 0 175 -1.4597 1
gene 1 63 32 -1.23258 0 176 -1.23258 1
genomeend 72

/* Organism #73 Fitness: 4 Error: 2 */
genomestart 73
trait 1 0.075 0 0 0.159291 0 0 0 0 
trait 2 0.3 0 0.542493 0 0 0 0 0 
trait 3 0.3 0 0 0 0 0 0 0 
node 1 2 1 3
node 2 3 1 1
node 3 3 1 1
node 4 1 0 2
node 12 1 0 0
node 24 1 0 0
node 26 1 0 0
node 32 1 0 0
node 37 1 0 0
node 63 1 0 0
gene 3 1 4 -2.67899 0 1 -2.67899 1
gene 3 2 4 -1.00055 0 2 -1.00055 1
gene 3 3 4 -0.0334521 0 3 -0.0334521 1
gene 3 3 12 0.733589 0 18 0.733589 1
gene 3 12 4 8 0 19 8 1
gene 1 1 12 0.595483 0 24 0.595483 1
gene 1 2 12 1.67856 0 46 1.67856 1
gene 3 12 24 0.808916 0 53 0.808916 1
gene 3 24 4 1.40795 0 54 1.40795 1
gene 3 12 26 -1.89878 0 59 -1.89878 1
gene 3 26 24 -2.63682 0 60 -2.63682 1
gene 3 26 32 -2.53395 0 75 -2.53395 1
gene 3 32 24 2.56852 0 76 2.56852 1
gene 3 2 37 0.305376 0 90 0.305376 1
gene 1 37 12 -6.31095 0 91 -6.31095 1
gene 3 3 32 -1.16039 0 101 -1.16039 1
gene 3 26 63 -1.38119 0 175 -1.38119 1
gene 1 63 32 -3.01234 0 176 -3.01234 1
genomeend 73

/* Organism #74 Fitness: 9.19 Error: 0.968499 */
genomestart 74
trait 1 0.075 0 0 0.159291 0 0 0 0 
trait 2 0.3 0 0.542493 0 0 0 0 0 
trait 3 0.3 0 0 0 0 0 0 0 
node 1 2 1 3
node 2 3 1 1
node 3 3 1 1
node 4 1 0 2
node 12 1 0 0
node 24 1 0 0
node 26 1 0 0
node 32 1 0 0
node 37 1 0 0
node 63 1 0 0
gene 3 1 4 -3.33369 0 1 -3.33369 1
gene 3 2 4 3.15444 0 2 3.15444 1
gene 3 3 4 -0.0334521 0 3 -0.0334521 1
gene 3 3 12 7.07254 0 18 7.07254 1
gene 3 12 4 8 0 19 8 1
gene 1 1 12 -0.0946169 0 24 -0.0946169 1
gene 1 2 12 -0.750641 0 46 -0.750641 1
gene 3 12 24 0.587886 0 53 0.587886 1
gene 3 24 4 3.10729 0 54 3.10729 1
gene 3 12 26 -1.89878 0 59 -1.89878 1
gene 3 26 24 -3.28129 0 60 -3.28129 1
gene 3 26 32 -2.53395 0 75 -2.53395 1
gene 3 32 24 1.55233 0 76 1.55233 1
gene 3 2 37 1.17096 0 90 1.17096 1
gene 1 37 12 -8 0 91 -8 1
gene 3 3 32 0.39079 0 101 0.39079 1
gene 3 26 63 -1.4597 0 175 -1.4597 1
gene 1 63 32 -1.23258 0 176 -1.23258 1
genomeend 74

/* Species #28 : (Size 75) (AF 5.92957) (Age 19)  */


/* Organism #75 Fitness: 4.01167 Error: 1.99708 */
genomestart 75
trait 1 0.075 0 0 0.159291 0 0 0 0 
trait 2 0.3 0 0.054239 0 0 0 0 0 
trait 3 0.3 0 0 0 0 0 0 0 
node 1 2 1 3
node 2 3 1 1
node 3 3 1 1
node 4 1 0 2
node 12 1 0 0
node 29 1 0 0
node 47 1 0 0
node 116 1 0 0
node 146 1 0 0
node 190 1 0 0
gene 2 1 4 -0.743088 0 1 -0.743088 1
gene 3 2 4 -0.789171 0 2 -0.789171 1
gene 3 3 4 1.34392 0 3 1.34392 0
gene 3 3 12 1.97394 0 18 1.97394 1
gene 3 12 4 6.54799 0 19 6.54799 0
gene 3 1 12 -0.674112 0 52 -0.674112 1
gene 3 2 29 -1.57926 0 69 -1.57926 1
gene 3 29 4 -1.15986 0 70 -1.15986 1
gene 2 2 47 -4.22273 0 128 -4.22273 1
gene 3 47 29 -0.231712 0 129 -0.231712 1
gene 3 2 12 4.76683 0 231 4.76683 1
gene 2 12 29 -4.26809 0 243 -4.26809 1
gene 3 3 116 1.76662 0 343 1.76662 1
gene 3 116 4 -1.53588 0 344 -1.53588 0
gene 3 3 47 -3.97351 0 361 -3.97351 1
gene 3 116 146 0.918516 0 452 0.918516 1
gene 3 146 4 -1.67436 0 453 -1.67436 1
gene 2 47 116 -2.07772 0 482 -2.07772 1
gene 3 1 116 0.323572 0 565 0.323572 1
gene 3 12 190 2.48694 0 615 2.48694 1
gene 3 190 4 6.56394 0 616 6.56394 1
gene 3 146 29 2.48505 0 659 2.48505 1
genomeend 75

/* Organism #76 Fitness: 4 Error: 2 */
genomestart 76
trait 1 0.075 0 0 0.159291 0 0 0 0 
trait 2 0.3 0 0.054239 0 0 0 0 0 
trait 3 0.3 0 0 0 0 0 0 0 
node 1 2 1 3
node 2 3 1 1
node 3 3 1 1
node 4 1 0 2
node 12 1 0 0
node 29 1 0 0
node 47 1 0 0
node 116 1 0 0
node 146 1 0 0
node 190 1 0 0
gene 2 1 4 -3.30664 0 1 -3.30664 1
gene 3 2 4 -1.9488 0 2 -1.9488 1
gene 3 3 4 0.0571459 0 3 0.0571459 0
gene 3 3 12 5.90635 0 18 5.90635 1
gene 3 12 4 5.31726 0 19 5.31726 0
gene 3 1 12 1.46931 0 52 1.46931 1
gene 3 2 29 6.06553 0 69 6.06553 1
gene 3 29 4 -0.113834 0 70 -0.113834 1
gene 2 2 47 -4.84149 0 128 -4.84149 1
gene 3 47 29 2.14904 0 129 2.14904 1
gene 3 2 12 2.33611 0 231 2.33611 1
gene 2 12 29 -2.94351 0 243 -2.94351 1
gene 3 3 116 0.82606 0 343 0.82606 1
gene 3 116 4 1.62816 0 344 1.62816 0
gene 3 3 47 -1.10218 0 361 -1.10218 1
gene 3 116 146 -0.627094 0 452 -0.627094 1
gene 3 146 4 -6.37261 0 453 -6.37261 1
gene 2 47 116 0.382305 0 482 0.382305 1
gene 3 1 116 0.644398 0 565 0.644398 1
gene 3 12 190 -0.245003 0 615 -0.245003 1
gene 3 190 4 -1.88375 0 616 -1.88375 1
gene 3 146 29 -1.13897 0 659 -1.13897 1
genomeend 76

/* Organism #77 Fitness: 10.8734 Error: 0.70251 */
genomestart 77
trait 1 0.075 0 0 0.159291 0 0 0 0 
trait 2 0.3 0 0.054239 0 0 0 0 0 
trait 3 0.3 0 0 0 0 0 0 0 
node 1 2 1 3
node 2 3 1 1
node 3 3 1 1
node 4 1 0 2
node 12 1 0 0
node 29 1 0 0
node 47 1 0 0
node 116 1 0 0
node 146 1 0 0
node 190 1 0 0
gene 2 1 4 -2.63554 0 1 -2.63554 1
gene 3 2 4 0.244568 0 2 0.244568 1
gene 3 3 4 3.00359 0 3 3.00359 0
gene 3 3 12 8 0 18 8 1
gene 3 12 4 6.48894 0 19 6.48894 0
gene 3 1 12 -0.562262 0 52 -0.562262 1
gene 3 2 29 4.17987 0 69 4.17987 1
gene 3 29 4 -0.752434 0 70 -0.752434 1
gene 2 2 47 -3.68233 0 128 -3.68233 1
gene 3 47 29 -0.223701 0 129 -0.223701 1
gene 3 2 12 2.874 0 231 2.874 1
gene 2 12 29 -3.25442 0 243 -3.25442 1
gene 3 3 116 1.48753 0 343 1.48753 1
gene 3 116 4 -1.53588 0 344 -1.53588 0
gene 3 3 47 -2.45949 0 361 -2.45949 1
gene 3 116 146 1.01312 0 452 1.01312 1
gene 3 146 4 -3.87551 0 453 -3.87551 1
gene 2 47 116 0.382305 0 482 0.382305 1
gene 3 1 116 -0.503708 0 565 -0.503708 1
gene 3 12 190 1 0 615 0 1
gene 3 190 4 6.39723 0 616 3.19862 1
gene 3 146 29 0.921415 0 659 0.921415 1
gene 2 2 116 -0.370769 0 674 -0.370769 1
genomeend 77

/* Organism #78 Fitness: 0.0927524 Error: 3.69545 */
genomestart 78
trait 1 0.075 0 0 0.159291 0 0 0 0 
trait 2 0.3 0 0.054239 0 0 0 0 0 
trait 3 0.3 0 0 0 0 0 0 0 
node 1 2 1 3
node 2 3 1 1
node 3 3 1 1
node 4 1 0 2
node 12 1 0 0
node 29 1 0 0
node 47 1 0 0
node 116 1 0 0
node 146 1 0 0
node 190 1 0 0
gene 2 1 4 -0.250137 0 1 -0.250137 1
gene 3 2 4 1.11213 0 2 1.11213 1
gene 3 3 4 2.79477 0 3 2.79477 0
gene 3 3 12 6.51947 0 18 6.51947 1
gene 3 12 4 5.95937 0 19 5.95937 0
gene 3 1 12 -0.989063 0 52 -0.989063 1
gene 3 2 29 5.16905 0 69 5.16905 1
gene 3 29 4 0.641881 0 70 0.641881 1
gene 2 2 47 -3.03205 0 128 -3.03205 1
gene 3 47 29 -2.16201 0 129 -2.16201 1
gene 3 2 12 3.46651 0 231 3.46651 1
gene 2 12 29 -1.52089 0 243 -1.52089 1
gene 3 3 116 -0.833094 0 343 -0.833094 1
gene 3 116 4 -2.67445 0 344 -2.67445 0
gene 3 3 47 -3.94452 0 361 -3.94452 1
gene 3 116 146 1.08599 0 452 1.08599 1
gene 3 146 4 -1.96017 0 453 -1.96017 1
gene 2 47 116 -1.82411 0 482 -1.82411 1
gene 3 1 116 0.373318 0 565 0.373318 1
gene 3 12 190 -2.18932 0 615 -2.18932 1
gene 3 190 4 6.39723 0 616 6.39723 1
gene 3 146 29 -1.67371 0 659 -1.67371 1
genomeend 78

/* Organism #79 Fitness: 10.8207 Error: 0.710513 */
genomestart 79
trait 1 0.075 0 0 0.159291 0 0 0 0 
trait 2 0.3 0 0.054239 0 0 0 0 0 
trait 3 0.3 0 0 0 0 0 0 0 
node 1 2 1 3
node 2 3 1 1
node 3 3 1 1
node 4 1 0 2
node 12 1 0 0
node 29 1 0 0
node 47 1 0 0
node 116 1 0 0
node 146 1 0 0
node 190 1 0 0
gene 2 1 4 -2.63554 0 1 -2.63554 1
gene 3 2 4 0.244568 0 2 0.244568 1
gene 3 3 4 3.00359 0 3 3.00359 0
gene 3 3 12 8 0 18 8 1
gene 3 12 4 6.48894 0 19 6.48894 0
gene 3 1 12 -0.562262 0 52 -0.562262 1
gene 3 2 29 4.17987 0 69 4.17987 1
gene 3 29 4 -0.752434 0 70 -0.752434 1
gene 2 2 47 -3.68233 0 128 -3.68233 1
gene 3 47 29 -0.223701 0 129 -0.223701 1
gene 3 2 12 2.874 0 231 2.874 1
gene 2 12 29 -3.25442 0 243 -3.25442 1
gene 3 3 116 1.48753 0 343 1.48753 1
gene 3 116 4 -1.53588 0 344 -1.53588 0
gene 3 3 47 -2.45949 0 361 -2.45949 1
gene 3 116 146 1.01312 0 452 1.01312 1
gene 3 146 4 -3.87551 0 453 -3.87551 1
gene 2 47 116 0.382305 0 482 0.382305 1
gene 3 1 116 -0.503708 0 565 -0.503708 1
gene 3 12 190 1 0 615 0 1
gene 3 190 4 6.39723 0 616 3.19862 1
gene 3 146 29 0.921415 0 659 0.921415 1
gene 3 3 29 0.543077 0 675 0.543077 1
genomeend 79

/* Organism #80 Fitness: 7.81244 Error: 1.20493 */
genomestart 80
trait 1 0.075 0 0 0.159291 0 0 0 0 
trait 2 0.3 0 0.054239 0 0 0 0 0 
trait 3 0.3 0 0 0 0 0 0 0 
node 1 2 1 3
node 2 3 1 1
node 3 3 1 1
node 4 1 0 2
node 12 1 0 0
node 29 1 0 0
node 47 1 0 0
node 116 1 0 0
node 146 1 0 0
node 190 1 0 0
gene 2 1 4 -3.53172 0 1 -3.53172 1
gene 3 2 4 1.93049 0 2 1.93049 1
gene 3 3 4 2.55329 0 3 2.55329 0
gene 3 3 12 8 0 18 8 1
gene 3 12 4 7.55411 0 19 7.55411 0
gene 3 1 12 -2.40077 0 52 -2.40077 1
gene 3 2 29 6.08941 0 69 6.08941 1
gene 3 29 4 -2.85081 0 70 -2.85081 1
gene 2 2 47 -3.02297 0 128 -3.02297 1
gene 3 47 29 -1.442 0 129 -1.442 1
gene 3 2 12 0.928671 0 231 0.928671 1
gene 2 12 29 -5.54506 0 243 -5.54506 1
gene 3 3 116 -0.874981 0 343 -0.874981 1
gene 3 116 4 -2.81087 0 344 -2.81087 0
gene 3 3 47 -0.41673 0 361 -0.41673 1
gene 3 116 146 -0.839503 0 452 -0.839503 1
gene 3 146 4 -4.16459 0 453 -4.16459 1
gene 2 47 116 -1.45956 0 482 -1.45956 1
gene 3 1 116 -0.503708 0 565 -0.503708 1
gene 3 12 190 2.61992 0 615 2.61992 1
gene 3 190 4 6.12486 0 616 6.12486 1
gene 3 146 29 0.921415 0 659 0.921415 1
genomeend 80

/* Organism #81 Fitness: 3.98867 Error: 2.00283 */
genomestart 81
trait 1 0.075 0 0 0.159291 0 0 0 0 
trait 2 0.3 0 0.054239 0 0 0 0 0 
trait 3 0.3 0 0 0 0 0 0 0 
node 1 2 1 3
node 2 3 1 1
node 3 3 1 1
node 4 1 0 2
node 12 1 0 0
node 29 1 0 0
node 47 1 0 0
node 116 1 0 0
node 146 1 0 0
node 190 1 0 0
gene 2 1 4 -2.63554 0 1 -2.63554 1
gene 3 2 4 1.85419 0 2 1.85419 1
gene 3 3 4 2.04081 0 3 2.04081 0
gene 3 3 12 6.35246 0 18 6.35246 1
gene 3 12 4 4.69789 0 19 4.69789 0
gene 3 1 12 -0.428056 0 52 -0.428056 1
gene 3 2 29 -1.56018 0 69 -1.56018 1
gene 3 29 4 -0.752434 0 70 -0.752434 1
gene 2 2 47 -0.285424 0 128 -0.285424 1
gene 3 47 29 -0.576571 0 129 -0.576571 1
gene 3 2 12 3.14454 0 231 3.14454 1
gene 2 12 29 -1.54035 0 243 -1.54035 1
gene 3 3 116 1.42055 0 343 1.42055 1
gene 3 116 4 -0.223586 0 344 -0.223586 0
gene 3 3 47 -4.26626 0 361 -4.26626 1
gene 3 116 146 -0.29368 0 452 -0.29368 1
gene 3 146 4 -2.91814 0 453 -2.91814 1
gene 2 47 116 1.89709 0 482 1.89709 1
gene 3 1 116 1.96852 0 565 1.96852 1
gene 3 12 190 -1.27256 0 615 -1.27256 1
gene 3 190 4 6.39723 0 616 6.39723 1
gene 3 146 29 0.921415 0 659 0.921415 1
genomeend 81

/* Organism #82 Fitness: 4 Error: 2 */
genomestart 82
trait 1 0.075 0 0 0.159291 0 0 0 0 
trait 2 0.3 0 0.054239 0 0 0 0 0 
trait 3 0.3 0 0 0 0 0 0 0 
node 1 2 1 3
node 2 3 1 1
node 3 3 1 1
node 4 1 0 2
node 12 1 0 0
node 29 1 0 0
node 47 1 0 0
node 116 1 0 0
node 146 1 0 0
node 190 1 0 0
gene 2 1 4 -3.56239 0 1 -3.56239 1
gene 3 2 4 1.15791 0 2 1.15791 1
gene 3 3 4 1.71632 0 3 1.71632 0
gene 3 3 12 8 0 18 8 1
gene 3 12 4 5.66036 0 19 5.66036 0
gene 3 1 12 -0.919557 0 52 -0.919557 1
gene 3 2 29 5.51345 0 69 5.51345 1
gene 3 29 4 -3.05391 0 70 -3.05391 1
gene 2 2 47 -4.62832 0 128 -4.62832 1
gene 3 47 29 1.46741 0 129 1.46741 1
gene 3 2 12 0.489738 0 231 0.489738 1
gene 2 12 29 -5.27596 0 243 -5.27596 1
gene 3 3 116 1.70345 0 343 1.70345 1
gene 3 116 4 -1.17447 0 344 -1.17447 0
gene 3 3 47 -4.65629 0 361 -4.65629 1
gene 3 116 146 1.73504 0 452 1.73504 1
gene 3 146 4 -1.70549 0 453 -1.70549 1
gene 2 47 116 -1.10585 0 482 -1.10585 1
gene 3 1 116 -2.57286 0 565 -2.57286 1
gene 3 12 190 1 0 615 1 1
gene 3 190 4 0.0542467 0 616 0.0542467 1
gene 3 146 29 -0.246971 0 659 -0.246971 1
genomeend 82

/* Organism #83 Fitness: 4.00084 Error: 1.99979 */
genomestart 83
trait 1 0.075 0 0 0.159291 0 0 0 0 
trait 2 0.3 0 0.054239 0 0 0 0 0 
trait 3 0.3 0 0 0 0 0 0 0 
node 1 2 1 3
node 2 3 1 1
node 3 3 1 1
node 4 1 0 2
node 12 1 0 0
node 29 1 0 0
node 47 1 0 0
node 116 1 0 0
node 146 1 0 0
node 190 1 0 0
gene 2 1 4 -0.368587 0 1 -0.368587 1
gene 3 2 4 2.20035 0 2 2.20035 1
gene 3 3 4 1.0461 0 3 1.0461 0
gene 3 3 12 8 0 18 8 1
gene 3 12 4 4.52965 0 19 4.52965 0
gene 3 1 12 1.26625 0 52 1.26625 1
gene 3 2 29 5.43563 0 69 5.43563 1
gene 3 29 4 -2.44606 0 70 -2.44606 1
gene 2 2 47 -1.70873 0 128 -1.70873 1
gene 3 47 29 -2.65961 0 129 -2.65961 1
gene 3 2 12 3.17254 0 231 3.17254 1
gene 2 12 29 -5.05905 0 243 -5.05905 1
gene 3 3 116 1.8842 0 343 1.8842 1
gene 3 116 4 -0.743851 0 344 -0.743851 0
gene 3 3 47 -4.80964 0 361 -4.80964 1
gene 3 116 146 2.00093 0 452 2.00093 1
gene 3 146 4 -4.13675 0 453 -4.13675 1
gene 2 47 116 -1.7748 0 482 -1.7748 1
gene 3 1 116 -1.62496 0 565 -1.62496 1
gene 3 12 190 2.69485 0 615 2.69485 1
gene 3 190 4 6.39586 0 616 6.39586 1
gene 3 146 29 2.13042 0 659 2.13042 1
genomeend 83

/* Organism #84 Fitness: 8.69229 Error: 1.05173 */
genomestart 84
trait 1 0.075 0 0 0.159291 0 0 0 0 
trait 2 0.3 0 0.054239 0 0 0 0 0 
trait 3 0.3 0 0 0 0 0 0 0 
node 1 2 1 3
node 2 3 1 1
node 3 3 1 1
node 4 1 0 2
node 12 1 0 0
node 29 1 0 0
node 47 1 0 0
node 116 1 0 0
node 146 1 0 0
node 190 1 0 0
gene 2 1 4 -3.38172 0 1 -3.38172 1
gene 3 2 4 -0.284318 0 2 -0.284318 1
gene 3 3 4 -1.66112 0 3 -1.66112 0
gene 3 3 12 7.28793 0 18 7.28793 1
gene 3 12 4 4.4664 0 19 4.4664 0
gene 3 1 12 1.25428 0 52 1.25428 1
gene 3 2 29 4.17987 0 69 4.17987 1
gene 3 29 4 -1.49937 0 70 -1.49937 1
gene 2 2 47 -2.14869 0 128 -2.14869 1
gene 3 47 29 1.1568 0 129 1.1568 1
gene 3 2 12 4.55969 0 231 4.55969 1
gene 2 12 29 -1.68416 0 243 -1.68416 1
gene 3 3 116 2.92015 0 343 2.92015 1
gene 3 116 4 0.44248 0 344 0.44248 0
gene 3 3 47 1.93564 0 361 1.93564 1
gene 3 116 146 3.06977 0 452 3.06977 1
gene 3 146 4 -3.15931 0 453 -3.15931 1
gene 2 47 116 -0.646016 0 482 -0.646016 1
gene 3 1 116 -2.48222 0 565 -2.48222 1
gene 3 12 190 3.36763 0 615 3.36763 1
gene 3 190 4 7.65414 0 616 7.65414 1
gene 3 146 29 -1.79716 0 659 -1.79716 1
genomeend 84

/* Organism #85 Fitness: 9.06925 Error: 0.98848 */
genomestart 85
trait 1 0.075 0 0 0.159291 0 0 0 0 
trait 2 0.3 0 0.054239 0 0 0 0 0 
trait 3 0.3 0 0 0 0 0 0 0 
node 1 2 1 3
node 2 3 1 1
node 3 3 1 1
node 4 1 0 2
node 12 1 0 0
node 29 1 0 0
node 47 1 0 0
node 116 1 0 0
node 146 1 0 0
node 190 1 0 0
gene 2 1 4 -0.832049 0 1 -0.832049 1
gene 3 2 4 2.38071 0 2 2.38071 1
gene 3 3 4 4.06426 0 3 4.06426 0
gene 3 3 12 8 0 18 8 1
gene 3 12 4 7.25618 0 19 7.25618 0
gene 3 1 12 -0.966098 0 52 -0.966098 1
gene 3 2 29 5.0736 0 69 5.0736 1
gene 3 29 4 -2.54929 0 70 -2.54929 1
gene 2 2 47 -1.26732 0 128 -1.26732 1
gene 3 47 29 -2.15636 0 129 -2.15636 1
gene 3 2 12 1.04922 0 231 1.04922 1
gene 2 12 29 -2.63092 0 243 -2.63092 1
gene 3 3 116 2.15627 0 343 2.15627 1
gene 3 116 4 -2.65118 0 344 -2.65118 0
gene 3 3 47 -1.27506 0 361 -1.27506 1
gene 3 116 146 2.49687 0 452 2.49687 1
gene 3 146 4 -3.87551 0 453 -3.87551 1
gene 2 47 116 2.72521 0 482 2.72521 1
gene 3 1 116 -0.419095 0 565 -0.419095 1
gene 3 12 190 0.926069 0 615 0.926069 1
gene 3 190 4 5.64205 0 616 5.64205 1
gene 3 146 29 1.73399 0 659 1.73399 1
genomeend 85

/* Organism #86 Fitness: 10.8734 Error: 0.70251 */
genomestart 86
trait 1 0.075 0 0 0.159291 0 0 0 0 
trait 2 0.3 0 0.054239 0 0 0 0 0 
trait 3 0.3 0 0 0 0 0 0 0 
node 1 2 1 3
node 2 3 1 1
node 3 3 1 1
node 4 1 0 2
node 12 1 0 0
node 29 1 0 0
node 47 1 0 0
node 116 1 0 0
node 146 1 0 0
node 190 1 0 0
gene 2 1 4 -2.63554 0 1 -2.63554 1
gene 3 2 4 0.244568 0 2 0.244568 1
gene 3 3 4 3.00359 0 3 3.00359 0
gene 3 3 12 8 0 18 8 1
gene 3 12 4 6.48894 0 19 6.48894 0
gene 3 1 12 -0.562262 0 52 -0.562262 1
gene 3 2 29 4.17987 0 69 4.17987 1
gene 3 29 4 -0.752434 0 70 -0.752434 1
gene 2 2 47 -3.68233 0 128 -3.68233 1
gene 3 47 29 -0.223701 0 129 -0.223701 1
gene 3 2 12 2.874 0 231 2.874 1
gene 2 12 29 -3.25442 0 243 -3.25442 1
gene 3 3 116 1.48753 0 343 1.48753 1
gene 3 116 4 -1.53588 0 344 -1.53588 0
gene 3 3 47 -2.45949 0 361 -2.45949 1
gene 3 116 146 1.01312 0 452 1.01312 1
gene 3 146 4 -3.87551 0 453 -3.87551 1
gene 2 47 116 0.382305 0 482 0.382305 1
gene 3 1 116 -0.503708 0 565 -0.503708 1
gene 3 12 190 1 0 615 0 1
gene 3 190 4 6.39723 0 616 3.19862 1
gene 3 146 29 0.921415 0 659 0.921415 1
gene 2 2 116 -0.370769 0 674 0 1
genomeend 86

/* Organism #87 Fitness: 4 Error: 2 */
genomestart 87
trait 1 0.075 0 0 0.159291 0 0 0 0 
trait 2 0.3 0 0.054239 0 0 0 0 0 
trait 3 0.3 0 0 0 0 0 0 0 
node 1 2 1 3
node 2 3 1 1
node 3 3 1 1
node 4 1 0 2
node 12 1 0 0
node 29 1 0 0
node 47 1 0 0
node 116 1 0 0
node 146 1 0 0
node 190 1 0 0
gene 2 1 4 -4.14117 0 1 -4.14117 1
gene 3 2 4 2.2288 0 2 2.2288 1
gene 3 3 4 1.84931 0 3 1.84931 0
gene 3 3 12 8 0 18 8 1
gene 3 12 4 4.39308 0 19 4.39308 0
gene 3 1 12 -2.44235 0 52 -2.44235 1
gene 3 2 29 6.07431 0 69 6.07431 1
gene 3 29 4 -1.47732 0 70 -1.47732 1
gene 2 2 47 -5.1598 0 128 -5.1598 1
gene 3 47 29 -2.42172 0 129 -2.42172 1
gene 3 2 12 1.71292 0 231 1.71292 1
gene 2 12 29 -1.77503 0 243 -1.77503 1
gene 3 3 116 0.749519 0 343 0.749519 1
gene 3 116 4 -1.42998 0 344 -1.42998 0
gene 3 3 47 -1.33122 0 361 -1.33122 1
gene 3 116 146 -1.13942 0 452 -1.13942 1
gene 3 146 4 -3.96691 0 453 -3.96691 1
gene 2 47 116 2.35853 0 482 2.35853 1
gene 3 1 116 -0.369732 0 565 -0.369732 1
gene 3 12 190 1 0 615 1 1
gene 3 190 4 -0.892438 0 616 -0.892438 1
gene 3 146 29 -0.768319 0 659 -0.768319 1
genomeend 87

/* Organism #88 Fitness: 1.0702 Error: 2.96549 */
genomestart 88
trait 1 0.075 0 0 0.159291 0 0 0 0 
trait 2 0.3 0 0.054239 0 0 0 0 0 
trait 3 0.3 0 0 0 0 0 0 0 
node 1 2 1 3
node 2 3 1 1
node 3 3 1 1
node 4 1 0 2
node 12 1 0 0
node 29 1 0 0
node 47 1 0 0
node 116 1 0 0
node 146 1 0 0
node 190 1 0 0
gene 2 1 4 -3.01748 0 1 -3.01748 1
gene 3 2 4 -2.33482 0 2 -2.33482 1
gene 3 3 4 1.34674 0 3 1.34674 0
gene 3 3 12 2.46567 0 18 2.46567 1
gene 3 12 4 7.02469 0 19 7.02469 0
gene 3 1 12 0.987426 0 52 0.987426 1
gene 3 2 29 6.67468 0 69 6.67468 1
gene 3 29 4 -1.49785 0 70 -1.49785 1
gene 2 2 47 -6.04476 0 128 -6.04476 1
gene 3 47 29 1.57346 0 129 1.57346 1
gene 3 2 12 4.13433 0 231 4.13433 1
gene 2 12 29 0.114902 0 243 0.114902 1
gene 3 3 116 3.34024 0 343 3.34024 1
gene 3 116 4 -0.326548 0 344 -0.326548 0
gene 3 3 47 -1.10637 0 361 -1.10637 1
gene 3 116 146 1.4799 0 452 1.4799 1
gene 3 146 4 -4.01902 0 453 -4.01902 1
gene 2 47 116 0.382305 0 482 0.382305 1
gene 3 1 116 -2.37884 0 565 -2.37884 1
gene 3 12 190 1.91494 0 615 1.91494 1
gene 3 190 4 7.79773 0 616 7.79773 1
gene 3 146 29 0.921415 0 659 0.921415 1
genomeend 88

/* Organism #89 Fitness: 8.96512 Error: 1.00582 */
genomestart 89
trait 1 0.075 0 0 0.159291 0 0 0 0 
trait 2 0.3 0 0.054239 0 0 0 0 0 
trait 3 0.3 0 0 0 0 0 0 0 
node 1 2 1 3
node 2 3 1 1
node 3 3 1 1
node 4 1 0 2
node 12 1 0 0
node 29 1 0 0
node 47 1 0 0
node 116 1 0 0
node 146 1 0 0
node 190 1 0 0
gene 2 1 4 -3.95844 0 1 -3.95844 1
gene 3 2 4 0.443777 0 2 0.443777 1
gene 3 3 4 3.57704 0 3 3.57704 0
gene 3 3 12 8 0 18 8 1
gene 3 12 4 1.12804 0 19 1.12804 0
gene 3 1 12 1.16214 0 52 1.16214 1
gene 3 2 29 0.496765 0 69 0.496765 1
gene 3 29 4 -1.34594 0 70 -1.34594 1
gene 2 2 47 -3.68233 0 128 -3.68233 1
gene 3 47 29 0.783334 0 129 0.783334 1
gene 3 2 12 3.6822 0 231 3.6822 1
gene 2 12 29 -5.56795 0 243 -5.56795 1
gene 3 3 116 0.994583 0 343 0.994583 1
gene 3 116 4 -2.00907 0 344 -2.00907 0
gene 3 3 47 -0.653706 0 361 -0.653706 1
gene 3 116 146 -1.50792 0 452 -1.50792 1
gene 3 146 4 -5.86188 0 453 -5.86188 1
gene 2 47 116 -1.59796 0 482 -1.59796 1
gene 3 1 116 0.0766778 0 565 0.0766778 1
gene 3 12 190 1 0 615 1 1
gene 3 190 4 5.56835 0 616 5.56835 1
gene 3 146 29 0.921415 0 659 0.921415 1
genomeend 89

/* Organism #90 Fitness: 10.7594 Error: 0.71984 */
genomestart 90
trait 1 0.075 0 0 0.159291 0 0 0 0 
trait 2 0.3 0 0.054239 0 0 0 0 0 
trait 3 0.3 0 0 0 0 0 0 0 
node 1 2 1 3
node 2 3 1 1
node 3 3 1 1
node 4 1 0 2
node 12 1 0 0
node 29 1 0 0
node 47 1 0 0
node 116 1 0 0
node 146 1 0 0
node 190 1 0 0
gene 2 1 4 -2.63554 0 1 -2.63554 1
gene 3 2 4 0.244568 0 2 0.244568 1
gene 3 3 4 3.00359 0 3 3.00359 0
gene 3 3 12 8 0 18 8 1
gene 3 12 4 6.48894 0 19 6.48894 0
gene 3 1 12 -0.562262 0 52 -0.562262 1
gene 3 2 29 4.17987 0 69 4.17987 1
gene 3 29 4 -0.752434 0 70 -0.752434 1
gene 2 2 47 -3.68233 0 128 -3.68233 1
gene 3 47 29 -0.223701 0 129 -0.223701 1
gene 3 2 12 2.874 0 231 2.874 1
gene 2 12 29 -3.25442 0 243 -3.25442 1
gene 3 3 116 1.48753 0 343 1.48753 1
gene 3 116 4 -1.53588 0 344 -1.53588 0
gene 3 3 47 -2.45949 0 361 -2.45949 1
gene 3 116 146 1.01312 0 452 1.01312 1
gene 3 146 4 -3.87551 0 453 -3.87551 1
gene 2 47 116 0.382305 0 482 0.382305 1
gene 3 1 116 -0.503708 0 565 -0.503708 1
gene 3 12 190 1 0 615 0 1
gene 3 190 4 6.39723 0 616 3.19862 1
gene 3 146 29 0.921415 0 659 0.921415 1
gene 2 47 12 0.575182 0 676 0.575182 1
genomeend 90

/* Organism #91 Fitness: 10.752 Error: 0.720973 */
genomestart 91
trait 1 0.075 0 0 0.159291 0 0 0 0 
trait 2 0.3 0 0.054239 0 0 0 0 0 
trait 3 0.3 0 0 0 0 0 0 0 
node 1 2 1 3
node 2 3 1 1
node 3 3 1 1
node 4 1 0 2
node 12 1 0 0
node 29 1 0 0
node 47 1 0 0
node 116 1 0 0
node 146 1 0 0
node 190 1 0 0
gene 2 1 4 -2.63554 0 1 -2.63554 1
gene 3 2 4 0.244568 0 2 0.244568 1
gene 3 3 4 3.00359 0 3 3.00359 0
gene 3 3 12 8 0 18 8 1
gene 3 12 4 6.48894 0 19 6.48894 0
gene 3 1 12 -0.562262 0 52 -0.562262 1
gene 3 2 29 4.17987 0 69 4.17987 1
gene 3 29 4 -0.752434 0 70 -0.752434 1
gene 2 2 47 -3.68233 0 128 -3.68233 1
gene 3 47 29 -0.223701 0 129 -0.223701 1
gene 3 2 12 2.874 0 231 2.874 1
gene 2 12 29 -3.25442 0 243 -3.25442 1
gene 3 3 116 1.48753 0 343 1.48753 1
gene 3 116 4 -1.53588 0 344 -1.53588 0
gene 3 3 47 -2.45949 0 361 -2.45949 1
gene 3 116 146 1.01312 0 452 1.01312 1
gene 3 146 4 -3.87551 0 453 -3.87551 1
gene 2 47 116 0.382305 0 482 0.382305 1
gene 3 1 116 -0.503708 0 565 -0.503708 1
gene 3 12 190 1 0 615 0 1
gene 3 190 4 6.39723 0 616 3.19862 1
gene 3 146 29 0.921415 0 659 0.921415 1
gene 1 47 190 0.434584 0 677 0.434584 1
genomeend 91

/* Organism #92 Fitness: 4.46092 Error: 1.88791 */
genomestart 92
trait 1 0.075 0 0 0.159291 0 0 0 0 
trait 2 0.3 0 0.054239 0 0 0 0 0 
trait 3 0.3 0 0 0 0 0 0 0 
node 1 2 1 3
node 2 3 1 1
node 3 3 1 1
node 4 1 0 2
node 12 1 0 0
node 29 1 0 0
node 47 1 0 0
node 116 1 0 0
node 146 1 0 0
node 190 1 0 0
gene 2 1 4 -0.21466 0 1 -0.21466 1
gene 3 2 4 -0.681516 0 2 -0.681516 1
gene 3 3 4 3.40384 0 3 3.40384 0
gene 3 3 12 5.72103 0 18 5.72103 1
gene 3 12 4 6.20123 0 19 6.20123 0
gene 3 1 12 -2.4187 0 52 -2.4187 1
gene 3 2 29 2.78693 0 69 2.78693 1
gene 3 29 4 0.993683 0 70 0.993683 1
gene 2 2 47 -5.11746 0 128 -5.11746 1
gene 3 47 29 -1.69713 0 129 -1.69713 1
gene 3 2 12 4.73967 0 231 4.73967 1
gene 2 12 29 -4.86 0 243 -4.86 1
gene 3 3 116 -0.765267 0 343 -0.765267 1
gene 3 116 4 -2.95301 0 344 -2.95301 0
gene 3 3 47 -1.23112 0 361 -1.23112 1
gene 3 116 146 0.394208 0 452 0.394208 1
gene 3 146 4 -5.37412 0 453 -5.37412 1
gene 2 47 116 0.233451 0 482 0.233451 1
gene 3 1 116 1.42163 0 565 1.42163 1
gene 3 12 190 2.65281 0 615 2.65281 1
gene 3 190 4 4.4516 0 616 4.4516 1
gene 3 146 29 1.53278 0 659 1.53278 1
genomeend 92

/* Organism #93 Fitness: 4.01181 Error: 1.99705 */
genomestart 93
trait 1 0.075 0 0 0.159291 0 0 0 0 
trait 2 0.3 0 0.054239 0 0 0 0 0 
trait 3 0.3 0 0 0 0 0 0 0 
node 1 2 1 3
node 2 3 1 1
node 3 3 1 1
node 4 1 0 2
node 12 1 0 0
node 29 1 0 0
node 47 1 0 0
node 116 1 0 0
node 146 1 0 0
node 190 1 0 0
gene 2 1 4 0.694525 0 1 0.694525 1
gene 3 2 4 2.44236 0 2 2.44236 1
gene 3 3 4 2.38041 0 3 2.38041 0
gene 3 3 12 8 0 18 8 1
gene 3 12 4 4.93677 0 19 4.93677 0
gene 3 1 12 0.741413 0 52 0.741413 1
gene 3 2 29 5.02851 0 69 5.02851 1
gene 3 29 4 -1.56354 0 70 -1.56354 1
gene 2 2 47 -3.97927 0 128 -3.97927 1
gene 3 47 29 1.74718 0 129 1.74718 1
gene 3 2 12 2.874 0 231 2.874 1
gene 2 12 29 -2.40165 0 243 -2.40165 1
gene 3 3 116 -1.43071 0 343 -1.43071 1
gene 3 116 4 0.186048 0 344 0.186048 0
gene 3 3 47 -0.536897 0 361 -0.536897 1
gene 3 116 146 1.47732 0 452 1.47732 1
gene 3 146 4 -4.60047 0 453 -4.60047 1
gene 2 47 116 2.82798 0 482 2.82798 1
gene 3 1 116 -0.344325 0 565 -0.344325 1
gene 3 12 190 0.458602 0 615 0.458602 1
gene 3 190 4 7.29669 0 616 7.29669 1
gene 3 146 29 2.06403 0 659 2.06403 1
genomeend 93

/* Organism #94 Fitness: 4.18996 Error: 1.95306 */
genomestart 94
trait 1 0.075 0 0 0.159291 0 0 0 0 
trait 2 0.3 0 0.054239 0 0 0 0 0 
trait 3 0.3 0 0 0 0 0 0 0 
node 1 2 1 3
node 2 3 1 1
node 3 3 1 1
node 4 1 0 2
node 12 1 0 0
node 29 1 0 0
node 47 1 0 0
node 116 1 0 0
node 146 1 0 0
node 190 1 0 0
gene 2 1 4 -3.27383 0 1 -3.27383 1
gene 3 2 4 1.80139 0 2 1.80139 1
gene 3 3 4 5.1524 0 3 5.1524 0
gene 3 3 12 8 0 18 8 1
gene 3 12 4 5.05869 0 19 5.05869 0
gene 3 1 12 0.992809 0 52 0.992809 1
gene 3 2 29 5.88982 0 69 5.88982 1
gene 3 29 4 0.174108 0 70 0.174108 1
gene 2 2 47 -1.35964 0 128 -1.35964 1
gene 3 47 29 1.0815 0 129 1.0815 1
gene 3 2 12 4.17248 0 231 4.17248 1
gene 2 12 29 -1.80509 0 243 -1.80509 1
gene 3 3 116 3.50076 0 343 3.50076 1
gene 3 116 4 -3.4101 0 344 -3.4101 0
gene 3 3 47 -3.86097 0 361 -3.86097 1
gene 3 116 146 0.916913 0 452 0.916913 1
gene 3 146 4 -6.10733 0 453 -6.10733 1
gene 2 47 116 2.8218 0 482 2.8218 1
gene 3 1 116 -0.967666 0 565 -0.967666 1
gene 3 12 190 1.16167 0 615 1.16167 1
gene 3 190 4 7.9713 0 616 7.9713 1
gene 3 146 29 1.47418 0 659 1.47418 1
genomeend 94

/* Organism #95 Fitness: 10.8745 Error: 0.702356 */
genomestart 95
trait 1 0.075 0 0 0.159291 0 0 0 0 
trait 2 0.3 0 0.054239 0 0 0 0 0 
trait 3 0.3 0 0 0 0 0 0 0 
node 1 2 1 3
node 2 3 1 1
node 3 3 1 1
node 4 1 0 2
node 12 1 0 0
node 29 1 0 0
node 47 1 0 0
node 116 1 0 0
node 146 1 0 0
node 190 1 0 0
gene 2 1 4 -2.63554 0 1 -2.63554 1
gene 3 2 4 0.244568 0 2 0.244568 1
gene 3 3 4 3.00359 0 3 3.00359 0
gene 3 3 12 8 0 18 8 1
gene 3 12 4 6.48894 0 19 6.48894 0
gene 3 1 12 -0.562262 0 52 -0.562262 1
gene 3 2 29 4.17987 0 69 4.17987 1
gene 3 29 4 -0.752434 0 70 -0.752434 1
gene 2 2 47 -3.68233 0 128 -3.68233 1
gene 3 47 29 -0.223701 0 129 -0.223701 1
gene 3 2 12 2.874 0 231 2.874 1
gene 2 12 29 -3.25442 0 243 -3.25442 1
gene 3 3 116 1.48753 0 343 1.48753 1
gene 3 116 4 -1.53588 0 344 -1.53588 0
gene 3 3 47 -2.45949 0 361 -2.45949 1
gene 3 116 146 1.01312 0 452 1.01312 1
gene 3 146 4 -3.87551 0 453 -3.87551 1
gene 2 47 116 0.382305 0 482 0.382305 1
gene 3 1 116 -0.503708 0 565 -0.503708 1
gene 3 12 190 1 0 615 0 1
gene 3 190 4 6.39723 0 616 3.19862 1
gene 3 146 29 0.921415 0 659 0.921415 1
gene 2 146 190 0.0417493 0 678 0.0417493 1
genomeend 95

/* Organism #96 Fitness: 3.96035 Error: 2.00994 */
genomestart 96
trait 1 0.075 0 0 0.159291 0 0 0 0 
trait 2 0.3 0 0.054239 0 0 0 0 0 
trait 3 0.3 0 0 0 0 0 0 0 
node 1 2 1 3
node 2 3 1 1
node 3 3 1 1
node 4 1 0 2
node 12 1 0 0
node 29 1 0 0
node 47 1 0 0
node 116 1 0 0
node 146 1 0 0
node 190 1 0 0
gene 2 1 4 -2.22774 0 1 -2.22774 1
gene 3 2 4 2.16746 0 2 2.16746 1
gene 3 3 4 1.13479 0 3 1.13479 0
gene 3 3 12 8 0 18 8 1
gene 3 12 4 5.45734 0 19 5.45734 0
gene 3 1 12 1.88761 0 52 1.88761 1
gene 3 2 29 2.91495 0 69 2.91495 1
gene 3 29 4 -1.81082 0 70 -1.81082 1
gene 2 2 47 -1.79483 0 128 -1.79483 1
gene 3 47 29 -0.855129 0 129 -0.855129 1
gene 3 2 12 2.62603 0 231 2.62603 1
gene 2 12 29 -2.42218 0 243 -2.42218 1
gene 3 3 116 -0.130329 0 343 -0.130329 1
gene 3 116 4 -3.34639 0 344 -3.34639 0
gene 3 3 47 -0.563219 0 361 -0.563219 1
gene 3 116 146 0.20011 0 452 0.20011 1
gene 3 146 4 -3.24782 0 453 -3.24782 1
gene 2 47 116 -1.22594 0 482 -1.22594 1
gene 3 1 116 -0.839259 0 565 -0.839259 1
gene 3 12 190 -0.0150304 0 615 -0.0150304 1
gene 3 190 4 7.73677 0 616 7.73677 1
gene 3 146 29 0.774087 0 659 0.774087 1
genomeend 96

/* Organism #97 Fitness: 4 Error: 2 */
genomestart 97
trait 1 0.075 0 0 0.159291 0 0 0 0 
trait 2 0.3 0 0.054239 0 0 0 0 0 
trait 3 0.3 0 0 0 0 0 0 0 
node 1 2 1 3
node 2 3 1 1
node 3 3 1 1
node 4 1 0 2
node 12 1 0 0
node 29 1 0 0
node 47 1 0 0
node 116 1 0 0
node 146 1 0 0
node 190 1 0 0
gene 2 1 4 -3.27506 0 1 -3.27506 1
gene 3 2 4 0.244568 0 2 0.244568 1
gene 3 3 4 3.77968 0 3 3.77968 0
gene 3 3 12 7.37384 0 18 7.37384 1
gene 3 12 4 4.1207 0 19 4.1207 0
gene 3 1 12 -0.872711 0 52 -0.872711 1
gene 3 2 29 2.16023 0 69 2.16023 1
gene 3 29 4 -1.26125 0 70 -1.26125 1
gene 2 2 47 -4.52921 0 128 -4.52921 1
gene 3 47 29 -1.86155 0 129 -1.86155 1
gene 3 2 12 1.35845 0 231 1.35845 1
gene 2 12 29 -4.22056 0 243 -4.22056 1
gene 3 3 116 1.35997 0 343 1.35997 1
gene 3 116 4 -2.47074 0 344 -2.47074 0
gene 3 3 47 -4.44372 0 361 -4.44372 1
gene 3 116 146 1.01312 0 452 1.01312 1
gene 3 146 4 -3.76106 0 453 -3.76106 1
gene 2 47 116 -0.55385 0 482 -0.55385 1
gene 3 1 116 1.34877 0 565 1.34877 1
gene 3 12 190 1 0 615 1 1
gene 3 190 4 -0.722602 0 616 -0.722602 1
gene 3 146 29 0.44937 0 659 0.44937 1
genomeend 97

/* Organism #98 Fitness: 4 Error: 2 */
genomestart 98
trait 1 0.075 0 0 0.159291 0 0 0 0 
trait 2 0.3 0 0.054239 0 0 0 0 0 
trait 3 0.3 0 0 0 0 0 0 0 
node 1 2 1 3
node 2 3 1 1
node 3 3 1 1
node 4 1 0 2
node 12 1 0 0
node 29 1 0 0
node 47 1 0 0
node 116 1 0 0
node 146 1 0 0
node 190 1 0 0
gene 2 1 4 -0.136151 0 1 -0.136151 1
gene 3 2 4 -0.968696 0 2 -0.968696 1
gene 3 3 4 5.21245 0 3 5.21245 0
gene 3 3 12 8 0 18 8 1
gene 3 12 4 5.07662 0 19 5.07662 0
gene 3 1 12 0.0951834 0 52 0.0951834 1
gene 3 2 29 3.32154 0 69 3.32154 1
gene 3 29 4 -1.72201 0 70 -1.72201 1
gene 2 2 47 -5.7836 0 128 -5.7836 1
gene 3 47 29 -0.571383 0 129 -0.571383 1
gene 3 2 12 0.714202 0 231 0.714202 1
gene 2 12 29 -2.47681 0 243 -2.47681 1
gene 3 3 116 0.500107 0 343 0.500107 1
gene 3 116 4 -2.25604 0 344 -2.25604 0
gene 3 3 47 -0.703681 0 361 -0.703681 1
gene 3 116 146 0.462798 0 452 0.462798 1
gene 3 146 4 -5.32567 0 453 -5.32567 1
gene 2 47 116 -0.427351 0 482 -0.427351 1
gene 3 1 116 -0.45175 0 565 -0.45175 1
gene 3 12 190 1 0 615 1 1
gene 3 190 4 -0.385449 0 616 -0.385449 1
gene 3 146 29 -0.389264 0 659 -0.389264 1
genomeend 98

/* Organism #99 Fitness: 3.96275 Error: 2.00933 */
genomestart 99
trait 1 0.075 0 0 0.159291 0 0 0 0 
trait 2 0.3 0 0.054239 0 0 0 0 0 
trait 3 0.3 0 0 0 0 0 0 0 
node 1 2 1 3
node 2 3 1 1
node 3 3 1 1
node 4 1 0 2
node 12 1 0 0
node 29 1 0 0
node 47 1 0 0
node 116 1 0 0
node 146 1 0 0
node 190 1 0 0
gene 2 1 4 -4.6168 0 1 -4.6168 1
gene 3 2 4 -2.40997 0 2 -2.40997 1
gene 3 3 4 4.91497 0 3 4.91497 0
gene 3 3 12 2.27035 0 18 2.27035 1
gene 3 12 4 4.07386 0 19 4.07386 0
gene 3 1 12 0.585082 0 52 0.585082 1
